~o
<STREAMINFO> 1 39
<VECSIZE> 39<NULLD><MFCC_D_A_Z_0><DIAGC>
~v "varFloor1"
<VARIANCE> 39
 5.653673e-02 4.886588e-02 6.880558e-02 1.097444e-01 1.173968e-01 1.501360e-01 1.524483e-01 1.769248e-01 1.673871e-01 1.699316e-01 1.501835e-01 1.395998e-01 3.516366e-01 1.948883e-03 2.195148e-03 3.084339e-03 4.548327e-03 5.169705e-03 6.475277e-03 6.752422e-03 7.581503e-03 7.468139e-03 7.484302e-03 6.703977e-03 6.097627e-03 6.117719e-03 3.081363e-04 3.835776e-04 5.522510e-04 7.938185e-04 9.348416e-04 1.158605e-03 1.234846e-03 1.362727e-03 1.366371e-03 1.361924e-03 1.233620e-03 1.112660e-03 7.270522e-04
~h "f"
<BEGINHMM>
<NUMSTATES> 5
<STATE> 2
<MEAN> 39
 -1.795539e-01 -2.446105e-01 -2.562430e-02 -7.225933e-01 -3.867902e-01 -8.866774e-01 -3.701642e-02 -2.914831e-01 4.830155e-02 -2.935925e-01 1.099120e-01 -2.168557e-01 -1.661435e+00 -9.198831e-02 -6.169937e-02 -6.781980e-03 7.814074e-03 1.258255e-02 -5.102274e-03 4.067589e-02 2.866955e-02 2.580464e-02 1.917036e-02 3.656726e-02 1.765246e-02 1.957579e-01 -6.675672e-05 3.721042e-03 1.988814e-03 3.301513e-02 2.136789e-02 3.390633e-02 6.813211e-03 1.271260e-02 1.578542e-03 1.098436e-02 -3.991141e-03 9.866490e-03 5.259605e-02
<VARIANCE> 39
 4.826385e+00 5.532597e+00 6.784653e+00 1.221913e+01 1.149931e+01 1.698992e+01 1.482321e+01 1.751773e+01 1.661201e+01 1.666957e+01 1.472312e+01 1.386048e+01 3.941535e+01 2.831569e-01 2.865471e-01 3.254199e-01 5.501701e-01 5.205302e-01 7.184657e-01 6.636488e-01 7.669374e-01 7.497330e-01 7.121060e-01 6.551080e-01 5.984304e-01 8.643475e-01 4.740877e-02 4.947991e-02 6.106155e-02 9.783517e-02 9.682914e-02 1.330153e-01 1.249834e-01 1.426377e-01 1.420197e-01 1.338548e-01 1.258475e-01 1.129913e-01 1.142885e-01
<GCONST> 6.729028e+01
<STATE> 3
<MEAN> 39
 -5.548639e-01 -3.984806e-01 2.819534e-02 -4.479703e-01 -1.819521e-01 -7.518097e-01 1.588219e-01 -9.391698e-02 7.415058e-02 -1.837891e-01 1.926011e-01 -1.061472e-01 6.241852e-02 -7.158372e-02 -9.703799e-03 -2.511733e-02 1.328655e-01 6.758904e-02 1.406156e-01 4.173669e-02 1.081019e-01 2.581111e-02 8.273897e-02 8.218660e-03 6.811643e-02 4.351067e-01 9.071450e-03 1.594752e-02 -1.313674e-03 2.614870e-02 1.606685e-02 3.478989e-02 -1.398626e-03 1.079679e-02 1.752587e-03 1.341216e-02 -6.512823e-03 7.778333e-03 5.161339e-03
<VARIANCE> 39
 5.742218e+00 6.049003e+00 6.781762e+00 1.255692e+01 1.159738e+01 1.753817e+01 1.485030e+01 1.787117e+01 1.625204e+01 1.694908e+01 1.468530e+01 1.368764e+01 3.036544e+01 3.305627e-01 2.870883e-01 3.229765e-01 6.014764e-01 5.178782e-01 7.877694e-01 6.546113e-01 7.658188e-01 7.277616e-01 7.486332e-01 6.559584e-01 5.931903e-01 1.493604e+00 5.663881e-02 4.992079e-02 5.969884e-02 1.035807e-01 9.717046e-02 1.359860e-01 1.238278e-01 1.391580e-01 1.377012e-01 1.358893e-01 1.237309e-01 1.101322e-01 1.266976e-01
<GCONST> 6.848840e+01
<STATE> 4
<MEAN> 39
 -6.438507e-01 -1.882434e-01 -1.222152e-01 3.106868e-01 1.483379e-01 1.760270e-01 2.178875e-01 4.224148e-01 1.688715e-01 2.769272e-01 1.600445e-01 2.609048e-01 1.590307e+00 -3.844016e-02 1.613265e-02 -1.668820e-02 1.071889e-01 6.129537e-02 1.273075e-01 2.723518e-02 7.439698e-02 2.423508e-02 6.517635e-02 1.034560e-03 4.887355e-02 1.595521e-01 9.871236e-03 2.022672e-03 5.529991e-03 -9.868499e-03 -2.904411e-03 -9.031455e-03 -4.300662e-03 -1.443358e-02 -4.128294e-03 -1.024060e-02 -1.675170e-03 -6.996787e-03 -3.726938e-02
<VARIANCE> 39
 3.145691e+00 3.767968e+00 5.303020e+00 9.601181e+00 9.982113e+00 1.404730e+01 1.378088e+01 1.599982e+01 1.547402e+01 1.594358e+01 1.431510e+01 1.326604e+01 1.972288e+01 1.444546e-01 1.631523e-01 2.371092e-01 4.409545e-01 4.329242e-01 6.468146e-01 5.934445e-01 6.731841e-01 6.710751e-01 6.893281e-01 6.248643e-01 5.641097e-01 3.498276e-01 2.615723e-02 2.952238e-02 4.348457e-02 7.755793e-02 8.094671e-02 1.161638e-01 1.132564e-01 1.240777e-01 1.258778e-01 1.273825e-01 1.172586e-01 1.041896e-01 3.530474e-02
<GCONST> 5.742360e+01
<TRANSP> 5
 0.000000e+00 1.000000e+00 0.000000e+00 0.000000e+00 0.000000e+00
 0.000000e+00 5.455571e-01 4.544429e-01 0.000000e+00 0.000000e+00
 0.000000e+00 0.000000e+00 5.657588e-01 4.342411e-01 0.000000e+00
 0.000000e+00 0.000000e+00 0.000000e+00 6.468531e-01 3.531469e-01
 0.000000e+00 0.000000e+00 0.000000e+00 0.000000e+00 0.000000e+00
<ENDHMM>
~h "k"
<BEGINHMM>
<NUMSTATES> 5
<STATE> 2
<MEAN> 39
 -2.912649e-01 4.932771e-01 4.937083e-01 -5.729281e-01 -8.543620e-01 -1.802052e-01 -6.199838e-02 -6.286453e-02 6.687482e-01 1.807129e-01 2.115360e-01 2.959582e-02 2.078831e-01 -2.060780e-02 -3.352216e-02 2.838716e-02 -9.302333e-02 -6.230497e-02 -3.110061e-02 1.545928e-02 -8.982766e-02 2.244455e-02 -4.123766e-02 -8.232363e-03 -5.950520e-02 -1.928793e-01 -3.002208e-02 -1.855992e-02 -2.249759e-02 7.259361e-03 1.166221e-02 1.448499e-02 7.324476e-03 4.004491e-03 -1.331871e-03 4.173758e-04 -3.303577e-03 2.379660e-03 6.076923e-02
<VARIANCE> 39
 2.062808e+01 1.644848e+01 1.909063e+01 2.375026e+01 2.222753e+01 2.523020e+01 2.264820e+01 2.417127e+01 2.395684e+01 2.518367e+01 2.063424e+01 1.817575e+01 8.163434e+01 1.318110e+00 9.765837e-01 1.065380e+00 1.256260e+00 1.134123e+00 1.395620e+00 1.154749e+00 1.189258e+00 1.192342e+00 1.255592e+00 9.962039e-01 8.789285e-01 5.731212e+00 2.080584e-01 1.749526e-01 1.909931e-01 2.191164e-01 2.030646e-01 2.489532e-01 2.110846e-01 2.177493e-01 2.156492e-01 2.291740e-01 1.815141e-01 1.589139e-01 8.968142e-01
<GCONST> 9.711065e+01
<STATE> 3
<MEAN> 39
 -7.065076e-01 -1.728964e-01 3.159429e-01 -1.074358e+00 -9.183640e-01 -1.869464e-01 2.606840e-01 -7.108611e-01 6.036372e-01 -2.397380e-01 -4.696381e-02 -6.468182e-01 -2.729304e-02 -9.289429e-03 -4.946769e-02 -5.214730e-02 -1.374826e-02 5.115660e-02 9.485610e-03 -9.911208e-03 -4.634613e-02 -3.744890e-02 -3.429031e-02 -2.832166e-02 -3.965142e-02 8.085406e-02 6.062921e-03 2.677414e-03 -1.233935e-02 2.999805e-02 1.617807e-02 1.271718e-02 -6.469153e-03 2.376665e-02 -8.013733e-03 1.386685e-02 1.512402e-03 2.326760e-02 1.887201e-02
<VARIANCE> 39
 1.967669e+01 1.455153e+01 1.565646e+01 2.337613e+01 2.182605e+01 2.394569e+01 2.217413e+01 2.412274e+01 2.420108e+01 2.491411e+01 2.051032e+01 1.877975e+01 4.448117e+01 1.108304e+00 7.701288e-01 8.257706e-01 1.136530e+00 1.017281e+00 1.272105e+00 1.072117e+00 1.205775e+00 1.161661e+00 1.185184e+00 9.353598e-01 8.703276e-01 2.891282e+00 1.696544e-01 1.365315e-01 1.470967e-01 1.950795e-01 1.835842e-01 2.274639e-01 1.995751e-01 2.151369e-01 2.091714e-01 2.099940e-01 1.690082e-01 1.577280e-01 4.362540e-01
<GCONST> 9.217738e+01
<STATE> 4
<MEAN> 39
 -3.800526e-01 -5.917058e-01 -1.291463e-02 -7.862734e-01 -3.145911e-01 -5.857295e-02 2.943154e-01 -9.058537e-01 5.719557e-02 -1.484606e-01 -1.961083e-01 -8.853512e-01 2.804258e-01 1.567795e-01 -1.365614e-02 8.685454e-03 1.074337e-01 9.762430e-02 2.981230e-02 -4.678116e-02 -3.732442e-03 -9.496982e-02 8.726178e-03 -1.778220e-02 3.766086e-02 -3.251076e-02 -7.212605e-03 7.992683e-03 -1.049953e-03 1.539044e-02 -3.111803e-03 3.953245e-03 1.842442e-03 1.939278e-02 7.161295e-03 8.675561e-03 7.433540e-03 1.512818e-02 -2.001363e-02
<VARIANCE> 39
 1.556078e+01 1.042363e+01 1.158836e+01 2.025950e+01 1.991133e+01 2.210580e+01 2.073579e+01 2.509841e+01 2.300440e+01 2.432774e+01 1.953271e+01 1.822356e+01 3.350205e+01 6.444327e-01 4.826145e-01 5.598621e-01 9.136596e-01 8.958325e-01 1.060294e+00 9.236588e-01 1.091748e+00 9.963689e-01 1.079918e+00 8.603110e-01 7.592635e-01 1.317115e+00 9.350188e-02 8.290493e-02 9.562854e-02 1.482615e-01 1.556245e-01 1.809725e-01 1.637540e-01 1.922647e-01 1.749457e-01 1.883206e-01 1.578268e-01 1.353178e-01 1.493995e-01
<GCONST> 8.301735e+01
<TRANSP> 5
 0.000000e+00 1.000000e+00 0.000000e+00 0.000000e+00 0.000000e+00
 0.000000e+00 8.083554e-01 1.916446e-01 0.000000e+00 0.000000e+00
 0.000000e+00 0.000000e+00 6.694360e-01 3.305640e-01 0.000000e+00
 0.000000e+00 0.000000e+00 0.000000e+00 7.066838e-01 2.933161e-01
 0.000000e+00 0.000000e+00 0.000000e+00 0.000000e+00 0.000000e+00
<ENDHMM>
~h "n"
<BEGINHMM>
<NUMSTATES> 5
<STATE> 2
<MEAN> 39
 -1.585793e-01 6.374504e-02 1.398161e-01 6.087068e-01 3.894787e-01 5.268604e-01 1.628671e-01 2.663285e-01 -9.029090e-02 1.706504e-01 -3.462794e-02 2.084259e-01 1.558915e+00 9.131213e-02 5.927470e-02 9.389973e-02 -2.460195e-02 2.045704e-02 -3.922010e-02 -3.434374e-02 -7.888093e-02 -3.236395e-02 -2.620076e-02 -2.600979e-02 -4.648231e-02 -8.999771e-02 -1.440302e-03 -4.981468e-03 -2.172667e-03 -1.775522e-02 -8.727490e-03 -1.091898e-02 -4.182184e-03 -3.136768e-03 8.970647e-03 2.775310e-03 3.582356e-03 -3.303831e-03 -1.659286e-02
<VARIANCE> 39
 4.492968e+00 4.071977e+00 7.468981e+00 9.290443e+00 1.118054e+01 1.411978e+01 1.548783e+01 1.761256e+01 1.712792e+01 1.677821e+01 1.550748e+01 1.398307e+01 2.282408e+01 2.108680e-01 2.155022e-01 4.353951e-01 4.324911e-01 5.399311e-01 6.564248e-01 7.418088e-01 8.393111e-01 7.956060e-01 7.677795e-01 7.105944e-01 6.481274e-01 4.096997e-01 2.649273e-02 3.581991e-02 6.913214e-02 7.640708e-02 9.802759e-02 1.212070e-01 1.378920e-01 1.487337e-01 1.496845e-01 1.435363e-01 1.352047e-01 1.203610e-01 4.229989e-02
<GCONST> 6.358435e+01
<STATE> 3
<MEAN> 39
 5.478032e-01 4.607505e-01 8.911690e-01 4.167142e-01 6.430413e-01 3.355692e-01 -2.455567e-02 -2.289113e-01 -1.947502e-01 4.302985e-02 -1.667669e-01 -6.420782e-02 8.531435e-01 4.969715e-02 3.750277e-03 6.510333e-02 -9.621943e-02 -2.196543e-02 -6.664862e-02 -5.608181e-02 -9.999864e-02 1.181364e-02 -1.146064e-02 -2.993349e-03 -4.923286e-02 -1.773879e-01 -3.790348e-02 -3.790606e-02 -5.677742e-02 -1.533082e-02 -3.102176e-02 -3.582346e-03 5.175247e-03 2.367265e-02 1.135551e-02 5.471900e-03 1.150092e-02 1.360099e-02 1.121276e-02
<VARIANCE> 39
 1.001257e+01 6.994542e+00 1.490477e+01 1.152476e+01 1.422355e+01 1.633654e+01 1.804874e+01 2.169891e+01 1.950950e+01 1.870620e+01 1.689698e+01 1.535213e+01 2.559344e+01 3.074800e-01 3.280624e-01 6.356302e-01 5.561873e-01 6.462252e-01 7.750534e-01 8.520424e-01 9.668306e-01 8.942658e-01 8.387116e-01 7.611870e-01 6.986942e-01 1.314066e+00 5.069957e-02 6.034729e-02 1.135929e-01 9.304497e-02 1.186876e-01 1.371756e-01 1.529772e-01 1.671201e-01 1.663891e-01 1.572943e-01 1.447593e-01 1.291044e-01 8.369070e-02
<GCONST> 7.409953e+01
<STATE> 4
<MEAN> 39
 1.135956e-01 1.165217e-01 4.156322e-01 2.634783e-01 3.404187e-01 2.787661e-01 -6.560621e-02 -1.531570e-01 -5.133786e-02 1.102396e-01 -4.217593e-02 -8.947223e-03 6.608357e-01 -1.672557e-02 -4.736058e-02 -7.560366e-02 -8.013877e-02 -7.696933e-02 -6.260987e-02 -1.846288e-02 -5.950598e-03 7.621482e-03 -9.240561e-03 1.107009e-02 -6.792415e-03 -7.677458e-02 -2.197845e-03 -1.233177e-03 -1.606248e-02 5.642000e-03 -5.191648e-03 7.449512e-04 9.515289e-03 1.768559e-02 -2.495978e-04 -4.076533e-04 5.776136e-04 7.615668e-03 1.702704e-02
<VARIANCE> 39
 6.451804e+00 4.606580e+00 9.278284e+00 1.040525e+01 1.229836e+01 1.481410e+01 1.676999e+01 2.008542e+01 1.778345e+01 1.743694e+01 1.569117e+01 1.435854e+01 2.007275e+01 1.563239e-01 2.066987e-01 3.413332e-01 4.470412e-01 5.343871e-01 6.512626e-01 7.159067e-01 7.819139e-01 7.843438e-01 7.636058e-01 6.921273e-01 6.137086e-01 3.299839e-01 2.768781e-02 3.788520e-02 6.626973e-02 8.195525e-02 1.014521e-01 1.228618e-01 1.397585e-01 1.494069e-01 1.508736e-01 1.458974e-01 1.332619e-01 1.174429e-01 3.317219e-02
<GCONST> 6.368298e+01
<TRANSP> 5
 0.000000e+00 1.000000e+00 0.000000e+00 0.000000e+00 0.000000e+00
 0.000000e+00 5.079285e-01 4.920715e-01 0.000000e+00 0.000000e+00
 0.000000e+00 0.000000e+00 5.265614e-01 4.734386e-01 0.000000e+00
 0.000000e+00 0.000000e+00 0.000000e+00 5.977888e-01 4.022113e-01
 0.000000e+00 0.000000e+00 0.000000e+00 0.000000e+00 0.000000e+00
<ENDHMM>
~h "r"
<BEGINHMM>
<NUMSTATES> 5
<STATE> 2
<MEAN> 39
 -7.919424e-01 -1.450012e-01 -1.225444e-01 7.816528e-01 3.273251e-01 7.773576e-01 3.503369e-01 6.678963e-01 1.813724e-01 4.719095e-01 1.625675e-01 4.438576e-01 2.312620e+00 4.745382e-03 -4.670007e-03 8.566612e-03 2.308522e-02 1.906282e-02 1.908090e-02 -1.488270e-03 -6.695595e-03 -1.457953e-02 -7.526433e-03 -1.291096e-03 1.098151e-03 -8.415967e-03 1.186567e-02 4.435585e-03 -1.109094e-04 -1.569569e-02 -8.236703e-03 -1.721440e-02 -1.047863e-02 -1.336882e-02 -6.485192e-03 -9.058116e-03 -6.510354e-03 -8.150273e-03 -1.252898e-02
<VARIANCE> 39
 3.180871e+00 3.444868e+00 5.666445e+00 8.692415e+00 1.006771e+01 1.320457e+01 1.407094e+01 1.605459e+01 1.590602e+01 1.594326e+01 1.455736e+01 1.346453e+01 2.166427e+01 9.730394e-02 1.547926e-01 2.598893e-01 3.566455e-01 4.552178e-01 5.599405e-01 6.174877e-01 6.738492e-01 6.992352e-01 6.861073e-01 6.395830e-01 5.748703e-01 8.812086e-02 1.618456e-02 2.836169e-02 4.919895e-02 6.741924e-02 8.597076e-02 1.058212e-01 1.170918e-01 1.269166e-01 1.324941e-01 1.292316e-01 1.220616e-01 1.090787e-01 1.085932e-02
<GCONST> 5.397299e+01
<STATE> 3
<MEAN> 39
 -7.396199e-01 -1.473535e-01 -9.034842e-02 7.911246e-01 3.593270e-01 7.715454e-01 3.229512e-01 5.994395e-01 1.201826e-01 4.099747e-01 1.356869e-01 4.151341e-01 2.245791e+00 3.396862e-02 1.939629e-03 1.246011e-02 -9.148860e-03 -1.309954e-03 -1.685550e-02 -2.273898e-02 -3.332583e-02 -2.414654e-02 -2.532502e-02 -1.762904e-02 -1.790069e-02 -3.337947e-02 1.087512e-02 2.759423e-03 -5.104573e-04 -1.514148e-02 -1.212225e-02 -1.664848e-02 -8.857059e-03 -1.091167e-02 -2.418217e-03 -6.240113e-03 -5.266716e-03 -7.144891e-03 -1.006027e-02
<VARIANCE> 39
 3.513941e+00 3.712676e+00 5.904024e+00 8.778941e+00 1.030134e+01 1.347993e+01 1.433367e+01 1.641531e+01 1.616845e+01 1.611051e+01 1.460501e+01 1.352560e+01 2.181818e+01 1.084648e-01 1.648098e-01 2.762303e-01 3.602493e-01 4.690838e-01 5.746567e-01 6.245800e-01 6.995035e-01 7.131339e-01 6.926575e-01 6.452031e-01 5.790079e-01 1.149795e-01 1.730102e-02 3.035611e-02 5.110149e-02 6.711853e-02 8.846974e-02 1.069557e-01 1.188168e-01 1.304902e-01 1.347974e-01 1.299797e-01 1.227860e-01 1.099896e-01 1.090520e-02
<GCONST> 5.527389e+01
<STATE> 4
<MEAN> 39
 -4.574083e-01 -3.749742e-01 1.482068e-01 8.854364e-01 3.302639e-01 8.429226e-01 2.912634e-01 3.312265e-01 -2.029919e-02 2.797918e-01 3.666528e-02 3.044125e-01 2.522943e+00 8.491218e-02 5.555116e-03 1.889735e-02 -6.233752e-02 -3.259508e-02 -7.339283e-02 -4.596138e-02 -8.162439e-02 -3.275046e-02 -4.713640e-02 -2.425007e-02 -4.151440e-02 -1.612053e-01 1.613231e-03 1.084739e-02 -8.004424e-03 -1.293874e-02 -3.338764e-03 -1.282133e-02 -2.416190e-03 2.585823e-03 4.046646e-03 6.678437e-04 1.340562e-03 -2.643679e-03 -8.780915e-03
<VARIANCE> 39
 6.751015e+00 6.347116e+00 8.419789e+00 1.032577e+01 1.194352e+01 1.574655e+01 1.593874e+01 1.959843e+01 1.754380e+01 1.751512e+01 1.553227e+01 1.417251e+01 2.949648e+01 2.011713e-01 2.908899e-01 3.830606e-01 4.479122e-01 5.582139e-01 6.958071e-01 7.009662e-01 8.403857e-01 7.681279e-01 7.514468e-01 6.934530e-01 6.145922e-01 3.695120e-01 3.078420e-02 4.835040e-02 6.804898e-02 8.026440e-02 1.041339e-01 1.254648e-01 1.315525e-01 1.509772e-01 1.442370e-01 1.388826e-01 1.311152e-01 1.161110e-01 2.610375e-02
<GCONST> 6.519562e+01
<TRANSP> 5
 0.000000e+00 1.000000e+00 0.000000e+00 0.000000e+00 0.000000e+00
 0.000000e+00 5.665911e-01 4.334089e-01 0.000000e+00 0.000000e+00
 0.000000e+00 0.000000e+00 5.563673e-01 4.436327e-01 0.000000e+00
 0.000000e+00 0.000000e+00 0.000000e+00 6.723737e-01 3.276263e-01
 0.000000e+00 0.000000e+00 0.000000e+00 0.000000e+00 0.000000e+00
<ENDHMM>
~h "s"
<BEGINHMM>
<NUMSTATES> 5
<STATE> 2
<MEAN> 39
 8.183090e-02 -1.761181e-01 -2.230892e-01 -4.807675e-01 -3.118528e-01 -3.514707e-01 -7.592393e-02 -2.057563e-01 2.248584e-02 -2.360942e-01 -1.579182e-02 -2.001330e-01 -1.360898e+00 -1.157876e-02 -6.005241e-03 -2.808213e-02 -4.135371e-02 -3.912069e-03 -3.820048e-02 -5.956492e-04 -7.790623e-03 2.206542e-02 -2.478771e-02 1.124073e-02 -1.911589e-02 2.759229e-02 -1.471978e-02 2.292721e-03 2.471555e-03 -5.071713e-04 1.955356e-03 -2.534075e-03 2.559445e-03 4.179020e-03 8.005221e-03 -7.427710e-04 2.207171e-03 -2.474329e-03 1.228460e-02
<VARIANCE> 39
 6.729190e+00 6.504934e+00 8.134633e+00 1.472237e+01 1.384862e+01 1.765187e+01 1.663677e+01 1.891125e+01 1.801118e+01 1.902830e+01 1.584983e+01 1.526261e+01 5.581573e+01 3.462584e-01 3.461815e-01 4.267830e-01 6.681495e-01 6.396495e-01 7.941762e-01 7.688683e-01 8.522922e-01 8.232198e-01 8.829666e-01 7.131042e-01 6.721431e-01 1.042015e+00 5.618212e-02 6.140035e-02 7.577085e-02 1.171804e-01 1.169752e-01 1.446221e-01 1.429643e-01 1.583388e-01 1.546543e-01 1.603649e-01 1.321826e-01 1.248389e-01 1.327107e-01
<GCONST> 7.326843e+01
<STATE> 3
<MEAN> 39
 -1.217270e-01 -1.881332e-01 -3.074071e-01 -5.572623e-01 -2.743156e-01 -4.178721e-01 -1.788337e-02 -2.624059e-01 9.892593e-02 -2.824312e-01 1.923164e-02 -2.850456e-01 -5.884152e-01 -7.590888e-02 -1.165524e-02 -3.721782e-02 6.968683e-03 1.313620e-03 3.853955e-03 1.783049e-02 2.878689e-02 3.296369e-02 2.124144e-02 1.566096e-02 1.625372e-02 1.544051e-01 -1.022719e-02 1.293087e-03 6.239123e-03 2.026840e-02 9.931064e-03 1.736284e-02 7.999149e-03 1.466985e-02 2.236396e-03 1.069817e-02 9.030675e-04 7.780725e-03 2.718379e-02
<VARIANCE> 39
 8.643194e+00 7.538319e+00 9.472822e+00 1.531925e+01 1.409797e+01 1.834640e+01 1.690835e+01 1.948175e+01 1.873747e+01 2.039887e+01 1.643979e+01 1.565523e+01 4.064090e+01 4.147834e-01 3.809569e-01 4.526314e-01 6.809340e-01 6.367156e-01 8.207086e-01 7.594851e-01 8.688104e-01 8.239560e-01 8.983715e-01 7.308455e-01 6.882483e-01 1.240576e+00 6.714083e-02 6.648067e-02 8.016106e-02 1.204528e-01 1.171033e-01 1.466905e-01 1.435326e-01 1.617064e-01 1.562530e-01 1.660508e-01 1.365731e-01 1.279100e-01 1.362532e-01
<GCONST> 7.495470e+01
<STATE> 4
<MEAN> 39
 -8.064824e-01 -2.416075e-01 -4.417746e-01 -5.511825e-02 -7.819536e-02 3.821626e-02 2.114988e-01 1.522903e-01 2.479478e-01 6.542160e-02 1.397997e-01 3.254898e-02 1.954073e+00 -1.920809e-02 7.347078e-03 1.411308e-02 8.229193e-02 4.193964e-02 6.895339e-02 1.984359e-02 6.299889e-02 -3.081800e-04 4.720932e-02 7.529580e-03 4.699151e-02 1.892605e-01 3.235923e-03 2.529626e-03 7.684354e-03 4.981820e-03 3.625288e-03 3.376719e-03 4.218831e-04 3.411193e-04 -3.950077e-03 -2.354259e-03 -1.779052e-03 -1.946518e-03 -7.420384e-03
<VARIANCE> 39
 9.490684e+00 7.327760e+00 1.001395e+01 1.558441e+01 1.376434e+01 1.871452e+01 1.675501e+01 1.989157e+01 1.900781e+01 2.073477e+01 1.657049e+01 1.602464e+01 3.856800e+01 4.351027e-01 3.706515e-01 4.675591e-01 7.052337e-01 6.226237e-01 8.577154e-01 7.476551e-01 8.926787e-01 8.520010e-01 9.387408e-01 7.402436e-01 7.275764e-01 1.149531e+00 7.271051e-02 6.402527e-02 8.343615e-02 1.189765e-01 1.146056e-01 1.495122e-01 1.402266e-01 1.596143e-01 1.572038e-01 1.707959e-01 1.375041e-01 1.318178e-01 1.363066e-01
<GCONST> 7.540287e+01
<TRANSP> 5
 0.000000e+00 1.000000e+00 0.000000e+00 0.000000e+00 0.000000e+00
 0.000000e+00 4.261594e-01 5.738406e-01 0.000000e+00 0.000000e+00
 0.000000e+00 0.000000e+00 4.348782e-01 5.651218e-01 0.000000e+00
 0.000000e+00 0.000000e+00 0.000000e+00 6.359911e-01 3.640089e-01
 0.000000e+00 0.000000e+00 0.000000e+00 0.000000e+00 0.000000e+00
<ENDHMM>
~h "t"
<BEGINHMM>
<NUMSTATES> 5
<STATE> 2
<MEAN> 39
 -6.803858e-02 2.366876e-01 -1.231286e-02 -3.170349e-01 -1.877023e-01 -2.435693e-01 -3.377908e-02 5.413357e-02 1.291962e-01 -8.643642e-02 8.640276e-02 3.488867e-02 -1.389351e+00 -6.510177e-03 1.237792e-02 1.110719e-02 2.697815e-02 2.871818e-02 2.348996e-02 -4.456287e-03 9.159764e-03 6.874749e-03 1.696984e-02 1.472489e-02 1.274096e-02 2.194077e-01 -3.080429e-03 1.303014e-03 3.044992e-03 3.301890e-03 3.265071e-03 -7.662995e-04 -1.639168e-03 -2.636902e-03 -1.121349e-03 -4.357103e-04 -3.118908e-03 -4.770843e-03 3.980860e-02
<VARIANCE> 39
 1.178866e+01 9.589513e+00 1.091860e+01 1.622338e+01 1.565667e+01 2.070055e+01 1.820194e+01 2.176736e+01 1.917581e+01 2.008324e+01 1.688241e+01 1.586780e+01 1.243938e+02 7.030272e-01 5.346280e-01 6.083091e-01 7.749451e-01 7.521578e-01 1.014256e+00 8.577504e-01 1.026968e+00 9.206876e-01 9.410980e-01 8.089294e-01 7.435634e-01 4.912323e+00 1.110855e-01 9.613086e-02 1.091245e-01 1.335642e-01 1.384154e-01 1.812028e-01 1.574214e-01 1.842610e-01 1.679644e-01 1.700105e-01 1.509090e-01 1.371837e-01 6.277015e-01
<GCONST> 8.463158e+01
<STATE> 3
<MEAN> 39
 5.415352e-02 1.785144e-01 1.913530e-01 -1.200812e-01 1.838822e-01 -2.913638e-02 -2.774462e-02 1.883854e-02 1.565915e-01 1.041029e-02 1.189863e-01 -3.739655e-03 1.212521e+00 -1.800427e-02 -2.049899e-02 6.173882e-03 3.799153e-02 4.057703e-02 2.566526e-02 -4.485879e-03 -1.967540e-03 6.819113e-03 1.328658e-02 -1.237728e-02 -6.265420e-03 1.897424e-01 -5.695704e-03 -3.266824e-03 -2.156246e-03 8.017225e-03 -4.728033e-03 1.094241e-03 2.688827e-03 4.297147e-03 -8.125699e-03 5.655364e-04 -7.346964e-03 -1.034671e-03 -3.555523e-02
<VARIANCE> 39
 1.466088e+01 9.998781e+00 1.210479e+01 1.788321e+01 1.671356e+01 2.124013e+01 1.868393e+01 2.258148e+01 2.074151e+01 2.173416e+01 1.817269e+01 1.695768e+01 6.478104e+01 7.584704e-01 5.236117e-01 6.471594e-01 8.846678e-01 8.329505e-01 1.038061e+00 8.929662e-01 1.054080e+00 9.651892e-01 1.010579e+00 8.633838e-01 8.037760e-01 3.158924e+00 1.182353e-01 9.199034e-02 1.175838e-01 1.529752e-01 1.474900e-01 1.831770e-01 1.651439e-01 1.874854e-01 1.775518e-01 1.867808e-01 1.609328e-01 1.496467e-01 3.814265e-01
<GCONST> 8.532284e+01
<STATE> 4
<MEAN> 39
 -2.537253e-01 -1.982718e-01 8.032715e-02 2.725648e-01 4.747670e-01 3.744738e-01 1.161851e-01 2.544046e-01 1.259115e-01 2.729387e-01 8.341300e-02 7.983294e-02 3.374130e+00 6.177471e-02 -2.103178e-02 2.290781e-02 5.338231e-02 4.294573e-02 -9.757900e-03 -1.219271e-02 -2.331198e-02 -4.295029e-02 3.969611e-03 -2.194186e-02 -1.639350e-02 -1.063237e-01 -7.370546e-03 2.013552e-03 -5.938578e-03 -2.245221e-03 -9.966301e-03 -4.958727e-03 1.238095e-03 4.205235e-04 -6.460348e-03 -1.764528e-03 2.218590e-03 4.596028e-03 -2.687882e-02
<VARIANCE> 39
 1.498270e+01 8.132531e+00 1.091045e+01 1.674716e+01 1.617992e+01 2.093495e+01 1.966391e+01 2.312000e+01 2.027696e+01 2.141091e+01 1.765218e+01 1.678240e+01 4.540026e+01 5.519511e-01 4.022030e-01 5.146563e-01 7.765635e-01 7.540362e-01 9.670231e-01 8.844568e-01 1.003217e+00 9.165376e-01 9.763215e-01 8.403677e-01 7.591156e-01 1.244260e+00 8.502121e-02 7.079256e-02 9.256961e-02 1.318491e-01 1.367523e-01 1.664583e-01 1.587314e-01 1.762002e-01 1.684167e-01 1.780847e-01 1.568741e-01 1.397607e-01 1.410360e-01
<GCONST> 7.984926e+01
<TRANSP> 5
 0.000000e+00 1.000000e+00 0.000000e+00 0.000000e+00 0.000000e+00
 0.000000e+00 7.034196e-01 2.965804e-01 0.000000e+00 0.000000e+00
 0.000000e+00 0.000000e+00 5.826930e-01 4.173070e-01 0.000000e+00
 0.000000e+00 0.000000e+00 0.000000e+00 6.977961e-01 3.022039e-01
 0.000000e+00 0.000000e+00 0.000000e+00 0.000000e+00 0.000000e+00
<ENDHMM>
~h "v"
<BEGINHMM>
<NUMSTATES> 5
<STATE> 2
<MEAN> 39
 -4.874933e-01 -7.624087e-02 -3.680857e-02 5.096275e-01 3.099774e-01 5.508426e-01 2.168079e-01 3.476824e-01 1.527748e-01 2.975444e-01 4.375818e-02 2.509487e-01 1.598840e+00 4.338183e-02 -4.757075e-03 2.276231e-02 -2.107278e-02 -2.028989e-03 -1.112626e-02 -9.696851e-03 -4.577691e-02 -1.380349e-02 -1.650553e-02 -1.448548e-02 -2.897443e-02 -4.965156e-02 5.001780e-03 -1.204371e-03 -1.139625e-03 -1.682139e-03 -4.012340e-04 -2.250639e-03 -7.941197e-04 -3.296974e-03 -3.035860e-03 -3.341879e-03 1.272227e-03 -2.051891e-04 -6.023072e-03
<VARIANCE> 39
 3.074072e+00 3.542216e+00 5.980401e+00 9.394423e+00 1.011901e+01 1.302450e+01 1.392950e+01 1.663384e+01 1.617081e+01 1.658766e+01 1.483658e+01 1.350404e+01 1.593692e+01 1.432620e-01 1.641019e-01 2.793888e-01 4.014191e-01 4.320232e-01 5.479617e-01 5.965186e-01 6.796942e-01 7.185273e-01 7.357365e-01 6.873420e-01 5.940398e-01 1.458187e-01 2.474287e-02 3.044735e-02 5.227622e-02 7.223321e-02 8.097742e-02 1.028105e-01 1.118443e-01 1.257779e-01 1.353639e-01 1.396854e-01 1.312802e-01 1.118648e-01 1.654993e-02
<GCONST> 5.622770e+01
<STATE> 3
<MEAN> 39
 -3.750520e-01 -1.093424e-01 1.904293e-02 4.355825e-01 3.216514e-01 5.264791e-01 2.038398e-01 2.109929e-01 1.162161e-01 2.647525e-01 2.168233e-02 1.779118e-01 1.470975e+00 5.280440e-02 -7.492516e-03 1.867686e-02 -1.859725e-02 -2.252509e-03 -1.279863e-02 -1.038523e-02 -4.578177e-02 -2.235690e-02 -2.199167e-02 -9.354467e-03 -2.471478e-02 -6.029875e-02 2.092577e-03 2.596784e-04 -2.633912e-03 -4.442224e-04 -1.378606e-03 -4.422930e-03 -3.703748e-04 3.849858e-03 -1.496568e-03 -2.387372e-03 1.820636e-03 2.478770e-03 -4.641251e-03
<VARIANCE> 39
 3.465366e+00 3.906193e+00 6.194832e+00 9.721568e+00 1.026014e+01 1.324694e+01 1.409375e+01 1.733184e+01 1.672243e+01 1.680045e+01 1.511252e+01 1.381281e+01 1.567319e+01 1.801623e-01 1.881153e-01 2.974603e-01 4.214821e-01 4.402265e-01 5.585223e-01 6.106540e-01 7.076091e-01 7.472531e-01 7.557908e-01 7.042482e-01 6.070181e-01 1.633181e-01 2.989147e-02 3.436729e-02 5.546233e-02 7.631315e-02 8.277638e-02 1.052493e-01 1.159021e-01 1.314137e-01 1.411696e-01 1.431086e-01 1.341155e-01 1.149627e-01 1.840655e-02
<GCONST> 5.824346e+01
<STATE> 4
<MEAN> 39
 -6.920744e-02 -1.896182e-01 1.804879e-01 2.600358e-01 3.263583e-01 4.582184e-01 1.781497e-01 -1.322294e-01 1.924498e-02 1.512353e-01 -2.132003e-02 -4.494183e-03 9.952042e-01 4.998731e-02 -1.557539e-02 3.757118e-04 -1.745433e-02 -1.698522e-02 -2.232105e-02 -1.600138e-02 -2.729217e-02 -2.740344e-02 -1.996022e-02 -8.145585e-03 -1.183464e-02 -1.054562e-01 -6.749126e-03 1.843296e-03 -6.144529e-03 6.076547e-04 -3.679370e-03 -4.926116e-03 -9.728770e-04 1.058446e-02 2.956466e-03 1.045950e-03 7.679338e-04 5.518112e-03 7.986401e-04
<VARIANCE> 39
 5.031186e+00 4.804338e+00 7.102955e+00 1.099914e+01 1.106424e+01 1.423407e+01 1.491269e+01 1.936442e+01 1.791592e+01 1.753654e+01 1.562985e+01 1.449364e+01 1.712442e+01 2.377336e-01 2.302700e-01 3.221081e-01 4.928078e-01 4.844183e-01 6.153763e-01 6.598105e-01 7.706098e-01 7.917284e-01 7.822475e-01 7.152340e-01 6.283272e-01 2.537442e-01 3.948283e-02 4.175585e-02 6.119314e-02 8.636337e-02 8.967684e-02 1.138065e-01 1.249340e-01 1.419350e-01 1.505166e-01 1.480943e-01 1.387138e-01 1.196043e-01 2.531314e-02
<GCONST> 6.282960e+01
<TRANSP> 5
 0.000000e+00 1.000000e+00 0.000000e+00 0.000000e+00 0.000000e+00
 0.000000e+00 5.734183e-01 4.265818e-01 0.000000e+00 0.000000e+00
 0.000000e+00 0.000000e+00 5.726047e-01 4.273953e-01 0.000000e+00
 0.000000e+00 0.000000e+00 0.000000e+00 6.861924e-01 3.138076e-01
 0.000000e+00 0.000000e+00 0.000000e+00 0.000000e+00 0.000000e+00
<ENDHMM>
~h "w"
<BEGINHMM>
<NUMSTATES> 5
<STATE> 2
<MEAN> 39
 -8.238804e-01 -1.685099e-01 -2.077656e-01 7.667549e-01 3.923659e-01 7.389231e-01 3.455375e-01 7.121530e-01 2.172611e-01 4.541739e-01 1.200010e-01 4.299898e-01 2.299354e+00 -5.570699e-02 -4.388630e-03 -1.946253e-03 3.594584e-02 3.041898e-02 5.100634e-02 2.997154e-02 3.551847e-02 1.729445e-02 2.107556e-02 1.492569e-02 2.841218e-02 2.580636e-02 2.149688e-02 4.790237e-03 1.898148e-03 -1.650001e-02 -1.174094e-02 -1.756373e-02 -1.232117e-02 -1.880523e-02 -8.090766e-03 -9.364674e-03 -1.486698e-03 -8.642772e-03 -3.013477e-02
<VARIANCE> 39
 3.037520e+00 2.865195e+00 4.792943e+00 8.194797e+00 9.613977e+00 1.253709e+01 1.370967e+01 1.531024e+01 1.516129e+01 1.545421e+01 1.399612e+01 1.299825e+01 2.256030e+01 9.508552e-02 1.154678e-01 1.929685e-01 3.276994e-01 4.196226e-01 5.241653e-01 6.008216e-01 6.291870e-01 6.565688e-01 6.478317e-01 6.099935e-01 5.503552e-01 6.033934e-02 1.870391e-02 2.293407e-02 3.619508e-02 6.240842e-02 7.991336e-02 9.881765e-02 1.147255e-01 1.198579e-01 1.236806e-01 1.233903e-01 1.156804e-01 1.041021e-01 2.529402e-02
<GCONST> 5.165865e+01
<STATE> 3
<MEAN> 39
 -9.163752e-01 -1.661595e-01 -2.215049e-01 8.140399e-01 4.118029e-01 8.022262e-01 3.775973e-01 7.448353e-01 2.289037e-01 4.825555e-01 1.498658e-01 4.708233e-01 2.353263e+00 -1.979637e-02 -1.241174e-03 -2.446597e-03 8.102939e-03 4.523367e-03 2.016447e-02 8.757599e-03 5.780429e-03 3.000286e-03 5.054709e-03 1.175590e-02 1.199700e-02 4.075736e-03 1.288858e-02 1.817648e-03 9.984924e-04 -8.153362e-03 -8.140045e-03 -1.129281e-02 -7.780932e-03 -1.177040e-02 -6.594858e-03 -5.828303e-03 -3.178964e-03 -6.055933e-03 -6.784314e-03
<VARIANCE> 39
 2.968906e+00 2.785177e+00 4.757012e+00 7.975501e+00 9.502093e+00 1.221758e+01 1.373795e+01 1.529006e+01 1.515284e+01 1.506931e+01 1.392955e+01 1.301597e+01 2.179206e+01 7.171934e-02 1.073458e-01 1.859595e-01 2.983553e-01 4.012386e-01 4.916976e-01 5.860757e-01 6.213270e-01 6.523460e-01 6.236312e-01 5.945550e-01 5.501572e-01 2.228252e-02 1.327430e-02 2.010094e-02 3.450619e-02 5.644784e-02 7.589839e-02 9.272201e-02 1.123346e-01 1.188922e-01 1.234824e-01 1.176339e-01 1.133130e-01 1.042996e-01 6.210825e-03
<GCONST> 4.753386e+01
<STATE> 4
<MEAN> 39
 -1.336705e+00 -1.769496e-01 -3.395493e-01 1.106449e+00 4.688731e-01 1.068487e+00 4.247900e-01 9.629576e-01 2.496542e-01 6.374210e-01 1.834522e-01 6.088262e-01 3.659983e+00 7.870601e-03 -1.590313e-03 -4.146872e-04 -9.571211e-04 -2.121808e-03 -1.415946e-03 -5.898473e-05 -3.085881e-03 -1.527643e-03 -3.398125e-03 -3.220641e-03 2.052561e-03 -8.804277e-04 5.776309e-03 9.802237e-05 1.775370e-03 -6.705415e-04 -1.493519e-04 -2.843376e-03 -1.889134e-03 -3.246281e-03 -2.952752e-03 -1.872937e-03 -2.690164e-03 -2.272371e-03 -1.132676e-03
<VARIANCE> 39
 3.276498e+00 2.925245e+00 4.917146e+00 8.038701e+00 9.650496e+00 1.262669e+01 1.376810e+01 1.570997e+01 1.541197e+01 1.491184e+01 1.401871e+01 1.333668e+01 2.441364e+01 6.857577e-02 1.093350e-01 1.890345e-01 2.963980e-01 4.093781e-01 4.988100e-01 5.799803e-01 6.428058e-01 6.610001e-01 6.174646e-01 5.924894e-01 5.730824e-01 1.516539e-02 1.194240e-02 2.014382e-02 3.490788e-02 5.564371e-02 7.743060e-02 9.386989e-02 1.102190e-01 1.222677e-01 1.244689e-01 1.163731e-01 1.116161e-01 1.091499e-01 2.935179e-03
<GCONST> 4.686105e+01
<TRANSP> 5
 0.000000e+00 1.000000e+00 0.000000e+00 0.000000e+00 0.000000e+00
 0.000000e+00 5.165758e-01 4.834242e-01 0.000000e+00 0.000000e+00
 0.000000e+00 0.000000e+00 6.057848e-01 3.942152e-01 0.000000e+00
 0.000000e+00 0.000000e+00 0.000000e+00 8.692297e-01 1.307703e-01
 0.000000e+00 0.000000e+00 0.000000e+00 0.000000e+00 0.000000e+00
<ENDHMM>
~h "z"
<BEGINHMM>
<NUMSTATES> 5
<STATE> 2
<MEAN> 39
 -1.977549e-01 4.172904e-02 -1.927111e-01 -1.121385e-01 -2.784546e-01 -2.980998e-02 8.771219e-03 5.619501e-02 3.241426e-02 -1.819686e-02 6.960204e-03 7.198084e-02 -1.432006e-01 -2.256965e-02 3.776748e-02 3.245990e-02 6.095184e-02 3.169971e-02 4.464227e-02 3.718098e-02 2.924680e-02 2.383073e-02 2.900400e-02 2.202923e-02 2.143170e-02 9.239001e-02 1.428891e-03 1.068062e-02 1.344953e-02 2.876284e-02 2.560801e-02 1.669078e-02 9.673579e-03 5.235077e-03 1.255189e-03 7.957921e-03 4.108955e-03 -4.870012e-04 3.414921e-02
<VARIANCE> 39
 3.081987e+00 4.249987e+00 5.701198e+00 9.325838e+00 1.089589e+01 1.282327e+01 1.396315e+01 1.636223e+01 1.575965e+01 1.667987e+01 1.480036e+01 1.333620e+01 3.709711e+01 1.586849e-01 2.530217e-01 2.941332e-01 3.988484e-01 4.614506e-01 5.540295e-01 6.501088e-01 7.214126e-01 7.079939e-01 7.513233e-01 6.738774e-01 5.946732e-01 2.695415e-01 2.417595e-02 4.600093e-02 5.252387e-02 7.343058e-02 9.025749e-02 1.037977e-01 1.229060e-01 1.379683e-01 1.336881e-01 1.421032e-01 1.293133e-01 1.140921e-01 5.693516e-02
<GCONST> 6.057629e+01
<STATE> 3
<MEAN> 39
 1.601611e-02 5.808690e-01 2.021252e-01 1.491613e-01 -2.279687e-01 -1.013557e-02 3.125977e-02 -1.076247e-01 4.033424e-02 -2.862071e-02 2.675910e-02 -4.803465e-02 -1.221983e-01 -4.411130e-02 5.953622e-02 4.230129e-02 1.320093e-01 7.883347e-02 8.842359e-02 3.759626e-02 4.183868e-02 8.093259e-03 3.433986e-02 2.923926e-02 2.823804e-02 3.688300e-01 -2.014035e-02 -2.930380e-02 -1.877202e-02 2.687376e-03 1.171169e-02 1.451425e-02 3.890437e-03 1.612812e-02 1.001854e-03 7.499493e-03 1.545012e-04 1.006514e-02 3.324679e-02
<VARIANCE> 39
 6.251729e+00 1.030315e+01 9.177684e+00 1.135806e+01 1.250880e+01 1.470908e+01 1.598954e+01 1.907660e+01 1.681419e+01 1.881495e+01 1.613777e+01 1.456287e+01 3.637284e+01 2.848884e-01 5.306610e-01 4.488440e-01 5.275792e-01 5.742881e-01 6.525712e-01 7.212406e-01 8.820601e-01 7.645589e-01 8.503659e-01 7.489831e-01 6.621533e-01 1.520762e+00 4.729962e-02 9.581541e-02 8.338787e-02 9.404013e-02 1.046755e-01 1.204619e-01 1.370360e-01 1.603102e-01 1.437236e-01 1.601970e-01 1.424849e-01 1.251944e-01 1.194227e-01
<GCONST> 7.239960e+01
<STATE> 4
<MEAN> 39
 -5.108125e-01 3.226517e-01 -1.145467e-02 6.009603e-01 1.517237e-01 5.211614e-01 2.389876e-01 3.914406e-01 1.172119e-01 1.999933e-01 1.237502e-01 2.681569e-01 1.976636e+00 -8.661000e-02 -6.562914e-02 -3.616871e-02 7.218104e-02 7.628547e-02 9.256280e-02 4.943055e-02 8.802849e-02 2.121655e-02 6.535167e-02 2.836950e-02 5.794647e-02 2.457126e-01 5.265281e-03 -9.022973e-03 -3.778420e-03 -1.695553e-02 -7.657249e-03 -1.241068e-02 -8.513260e-03 -9.086225e-03 -3.907250e-03 -3.666788e-03 -4.397640e-03 -7.217397e-03 -3.813602e-02
<VARIANCE> 39
 4.039192e+00 6.735491e+00 6.828626e+00 9.352921e+00 1.096126e+01 1.318962e+01 1.480623e+01 1.711024e+01 1.602080e+01 1.830483e+01 1.601414e+01 1.422286e+01 1.924860e+01 1.914435e-01 3.701941e-01 3.441856e-01 4.252711e-01 5.128813e-01 5.692966e-01 6.706525e-01 7.754717e-01 7.275955e-01 8.703068e-01 7.507355e-01 6.659690e-01 7.881728e-01 3.073844e-02 6.388433e-02 6.057882e-02 7.785629e-02 9.524924e-02 1.040152e-01 1.243009e-01 1.413388e-01 1.350791e-01 1.588494e-01 1.404894e-01 1.235888e-01 6.498437e-02
<GCONST> 6.499681e+01
<TRANSP> 5
 0.000000e+00 1.000000e+00 0.000000e+00 0.000000e+00 0.000000e+00
 0.000000e+00 5.054118e-01 4.945882e-01 0.000000e+00 0.000000e+00
 0.000000e+00 0.000000e+00 5.437325e-01 4.562675e-01 0.000000e+00
 0.000000e+00 0.000000e+00 0.000000e+00 6.458814e-01 3.541187e-01
 0.000000e+00 0.000000e+00 0.000000e+00 0.000000e+00 0.000000e+00
<ENDHMM>
~h "ah"
<BEGINHMM>
<NUMSTATES> 5
<STATE> 2
<MEAN> 39
 -7.371852e-01 -1.057940e-01 -1.522556e-01 9.020082e-01 4.760298e-01 8.306743e-01 3.458387e-01 7.313612e-01 1.659717e-01 4.562412e-01 1.176927e-01 5.137236e-01 2.313799e+00 1.930511e-02 3.924570e-04 1.223127e-02 1.033059e-02 1.420697e-02 7.843666e-03 4.849050e-03 4.498598e-03 -8.934839e-03 -2.356590e-03 -3.609240e-03 -5.650327e-04 -1.067226e-03 8.565680e-03 3.600380e-03 4.898869e-03 -6.375013e-03 -3.510956e-03 -7.104808e-03 -5.784762e-03 -1.171537e-02 -6.771642e-03 -5.469648e-03 -5.864736e-03 -8.853581e-03 -4.533393e-03
<VARIANCE> 39
 2.667334e+00 2.889329e+00 5.088223e+00 7.867950e+00 9.579974e+00 1.233897e+01 1.396073e+01 1.588529e+01 1.585074e+01 1.556683e+01 1.451842e+01 1.335117e+01 1.807400e+01 8.677182e-02 1.186172e-01 2.217107e-01 3.040444e-01 4.075120e-01 5.031656e-01 6.130279e-01 6.877406e-01 7.135077e-01 6.688179e-01 6.409923e-01 5.906407e-01 2.204975e-02 1.523769e-02 2.235729e-02 4.244360e-02 5.705908e-02 7.677726e-02 9.509263e-02 1.170508e-01 1.309370e-01 1.367967e-01 1.265725e-01 1.224722e-01 1.125364e-01 4.054171e-03
<GCONST> 4.905160e+01
<STATE> 3
<MEAN> 39
 -5.854670e-01 -1.178198e-01 -9.525637e-02 8.516619e-01 4.817169e-01 7.995986e-01 3.322908e-01 6.515558e-01 9.709702e-02 3.920518e-01 7.527910e-02 4.405980e-01 2.166343e+00 5.314635e-02 1.239210e-02 2.590442e-02 -1.100729e-02 7.495617e-04 -1.304196e-02 -1.442943e-02 -3.638862e-02 -3.312916e-02 -2.278500e-02 -2.010192e-02 -2.588824e-02 -1.769543e-02 1.446389e-02 8.664232e-03 7.397445e-03 -1.122762e-02 -5.851412e-03 -1.252286e-02 -9.127338e-03 -1.830371e-02 -7.507741e-03 -7.939361e-03 -5.803728e-03 -1.045253e-02 -1.232511e-02
<VARIANCE> 39
 2.722367e+00 3.109871e+00 5.501247e+00 8.006720e+00 9.885249e+00 1.267849e+01 1.439385e+01 1.649287e+01 1.631436e+01 1.580903e+01 1.482224e+01 1.358153e+01 1.818330e+01 1.083467e-01 1.348541e-01 2.580528e-01 3.189094e-01 4.304670e-01 5.349399e-01 6.580358e-01 7.411119e-01 7.446454e-01 6.937561e-01 6.632272e-01 6.088296e-01 3.520826e-02 1.853708e-02 2.645869e-02 5.140081e-02 6.046067e-02 8.276969e-02 1.019890e-01 1.269416e-01 1.419205e-01 1.427880e-01 1.314047e-01 1.266382e-01 1.164586e-01 8.486561e-03
<GCONST> 5.268649e+01
<STATE> 4
<MEAN> 39
 -3.143557e-01 -6.269657e-02 1.800945e-02 8.279598e-01 5.171563e-01 7.897098e-01 3.103251e-01 5.088571e-01 -8.488224e-02 2.896417e-01 -5.847492e-03 3.582406e-01 2.517112e+00 1.329666e-01 6.421939e-02 9.836262e-02 -4.983944e-02 2.659886e-03 -5.308841e-02 -4.459031e-02 -1.147460e-01 -5.074664e-02 -4.858563e-02 -2.986730e-02 -5.816101e-02 -1.241817e-01 1.380902e-02 1.247509e-02 2.108113e-02 -1.865441e-02 -2.957675e-03 -1.825464e-02 -1.089902e-02 -2.194597e-02 3.281206e-03 -2.661047e-03 -1.061587e-03 -1.078351e-02 -4.168593e-02
<VARIANCE> 39
 4.412801e+00 4.106019e+00 7.437413e+00 9.073642e+00 1.094836e+01 1.416353e+01 1.564321e+01 1.814418e+01 1.759571e+01 1.683608e+01 1.557504e+01 1.433446e+01 2.069618e+01 2.872483e-01 2.457544e-01 4.952779e-01 4.156897e-01 5.225387e-01 6.581548e-01 7.824498e-01 9.320900e-01 8.367691e-01 7.842883e-01 7.155004e-01 6.624576e-01 2.962576e-01 3.547646e-02 4.194891e-02 8.354273e-02 7.654805e-02 9.730301e-02 1.228626e-01 1.495609e-01 1.654528e-01 1.552788e-01 1.446987e-01 1.345990e-01 1.253560e-01 4.151582e-02
<GCONST> 6.486167e+01
<TRANSP> 5
 0.000000e+00 1.000000e+00 0.000000e+00 0.000000e+00 0.000000e+00
 0.000000e+00 7.049795e-01 2.950204e-01 0.000000e+00 0.000000e+00
 0.000000e+00 0.000000e+00 6.125057e-01 3.874943e-01 0.000000e+00
 0.000000e+00 0.000000e+00 0.000000e+00 6.599321e-01 3.400678e-01
 0.000000e+00 0.000000e+00 0.000000e+00 0.000000e+00 0.000000e+00
<ENDHMM>
~h "ao"
<BEGINHMM>
<NUMSTATES> 5
<STATE> 2
<MEAN> 39
 -6.845632e-01 -2.430320e-01 -1.644949e-01 3.893387e-01 1.737159e-01 2.548670e-01 2.094883e-01 4.326657e-01 2.211572e-01 3.456603e-01 1.535119e-01 2.554154e-01 1.526729e+00 -1.155864e-02 4.778965e-03 3.577654e-03 6.964253e-02 3.685806e-02 7.794860e-02 1.847320e-02 2.780799e-02 8.914098e-03 2.705393e-02 -7.516956e-03 1.754128e-02 6.147356e-02 1.553746e-02 5.113941e-03 8.285125e-03 -2.616925e-03 -4.327829e-03 -3.318051e-03 -3.904446e-03 -1.005966e-02 -6.946546e-03 -8.504420e-03 -1.407541e-03 -5.084659e-03 -1.901342e-02
<VARIANCE> 39
 3.300223e+00 4.025313e+00 5.564589e+00 9.178515e+00 9.924329e+00 1.411850e+01 1.382078e+01 1.578678e+01 1.542643e+01 1.603667e+01 1.442748e+01 1.356349e+01 1.898347e+01 1.429602e-01 1.589664e-01 2.494396e-01 3.875807e-01 4.091417e-01 6.107662e-01 5.973698e-01 6.577569e-01 6.690580e-01 6.943455e-01 6.352333e-01 5.740212e-01 1.597018e-01 2.508336e-02 2.942223e-02 4.617223e-02 7.056824e-02 7.717500e-02 1.138545e-01 1.118767e-01 1.210935e-01 1.257939e-01 1.300870e-01 1.196002e-01 1.075471e-01 1.615059e-02
<GCONST> 5.563842e+01
<STATE> 3
<MEAN> 39
 -7.101456e-01 -2.119834e-01 -1.384687e-01 5.767342e-01 2.483384e-01 4.667495e-01 2.553051e-01 5.048606e-01 2.293911e-01 4.144583e-01 1.365669e-01 3.063837e-01 1.766160e+00 1.358774e-02 1.351522e-02 1.651813e-02 5.727558e-02 2.481364e-02 6.766440e-02 1.397387e-02 9.673869e-03 -4.866253e-03 1.026062e-02 -6.147592e-03 1.116621e-02 3.253849e-02 9.618809e-03 3.431891e-03 3.905900e-03 -8.413037e-03 -5.812645e-03 -8.107623e-03 -4.244258e-03 -8.593594e-03 -7.584658e-03 -7.929509e-03 6.054646e-04 -4.667710e-03 -1.443214e-02
<VARIANCE> 39
 3.391038e+00 3.996258e+00 5.806286e+00 9.172021e+00 9.883303e+00 1.389510e+01 1.404766e+01 1.601603e+01 1.566343e+01 1.608552e+01 1.446720e+01 1.381470e+01 2.014844e+01 1.390133e-01 1.685466e-01 2.638275e-01 3.762378e-01 4.089420e-01 6.042717e-01 6.056966e-01 6.765792e-01 6.729767e-01 6.995834e-01 6.433178e-01 5.895613e-01 1.398268e-01 2.380588e-02 3.092914e-02 4.911096e-02 6.911475e-02 7.746499e-02 1.122458e-01 1.143986e-01 1.239122e-01 1.265317e-01 1.316477e-01 1.222635e-01 1.110822e-01 1.258778e-02
<GCONST> 5.571360e+01
<STATE> 4
<MEAN> 39
 -9.539601e-01 -1.935906e-01 -1.694768e-01 8.946283e-01 3.725642e-01 8.468236e-01 3.439648e-01 7.367064e-01 2.382965e-01 5.794927e-01 1.673694e-01 4.580623e-01 2.968655e+00 2.372546e-02 6.799248e-03 1.862733e-02 1.917123e-02 7.587044e-03 3.256347e-02 5.705919e-03 -7.099383e-03 -1.423343e-02 -8.916806e-03 -4.741825e-03 -3.411001e-03 -3.629283e-03 4.058239e-03 6.614493e-04 -9.947707e-04 -9.282798e-03 -3.382757e-03 -1.142642e-02 -4.771062e-03 -5.567582e-03 -4.473486e-03 -4.644067e-03 -7.950440e-04 -3.998818e-03 -1.011743e-02
<VARIANCE> 39
 4.279552e+00 4.174954e+00 6.827471e+00 9.420081e+00 1.003090e+01 1.469981e+01 1.447596e+01 1.677185e+01 1.604602e+01 1.644224e+01 1.474092e+01 1.414899e+01 2.751402e+01 1.502745e-01 1.826382e-01 3.010829e-01 3.913210e-01 4.286325e-01 6.206791e-01 6.327626e-01 7.052991e-01 6.881492e-01 7.238533e-01 6.602304e-01 6.051764e-01 1.391104e-01 2.508222e-02 3.213573e-02 5.641178e-02 7.169439e-02 7.991323e-02 1.131489e-01 1.195385e-01 1.295639e-01 1.283021e-01 1.362805e-01 1.246796e-01 1.132212e-01 1.247081e-02
<GCONST> 5.778953e+01
<TRANSP> 5
 0.000000e+00 1.000000e+00 0.000000e+00 0.000000e+00 0.000000e+00
 0.000000e+00 5.729584e-01 4.270417e-01 0.000000e+00 0.000000e+00
 0.000000e+00 0.000000e+00 5.797874e-01 4.202125e-01 0.000000e+00
 0.000000e+00 0.000000e+00 0.000000e+00 7.445492e-01 2.554509e-01
 0.000000e+00 0.000000e+00 0.000000e+00 0.000000e+00 0.000000e+00
<ENDHMM>
~h "ay"
<BEGINHMM>
<NUMSTATES> 5
<STATE> 2
<MEAN> 39
 -8.793048e-01 -9.257378e-02 -2.210243e-01 8.517835e-01 3.752673e-01 7.888978e-01 3.621741e-01 8.029197e-01 2.325689e-01 5.421065e-01 2.016455e-01 5.634126e-01 2.595039e+00 -3.245861e-02 -9.658826e-03 -1.230758e-02 3.629886e-02 2.634142e-02 5.512851e-02 2.750552e-02 3.464213e-02 1.842168e-02 2.785975e-02 1.561556e-02 2.898102e-02 5.644916e-02 1.209421e-02 4.196842e-03 7.738860e-03 -1.139428e-02 -4.986780e-03 -1.554160e-02 -9.178755e-03 -1.685074e-02 -9.428331e-03 -1.299440e-02 -6.635922e-03 -1.114792e-02 -2.814445e-02
<VARIANCE> 39
 2.766544e+00 2.974204e+00 5.001076e+00 8.420650e+00 9.677518e+00 1.268059e+01 1.350476e+01 1.561891e+01 1.517288e+01 1.583727e+01 1.428229e+01 1.324374e+01 2.486952e+01 9.371941e-02 1.280938e-01 2.166663e-01 3.255463e-01 4.186240e-01 5.374460e-01 5.764818e-01 6.351385e-01 6.601445e-01 6.762547e-01 6.278713e-01 5.598062e-01 2.212407e-01 1.467602e-02 2.332225e-02 4.014929e-02 6.159746e-02 7.946612e-02 1.013208e-01 1.086206e-01 1.180481e-01 1.249692e-01 1.288537e-01 1.203861e-01 1.057970e-01 2.905796e-02
<GCONST> 5.350236e+01
<STATE> 3
<MEAN> 39
 -9.047531e-01 -8.194155e-02 -2.006048e-01 8.821818e-01 4.223533e-01 8.407453e-01 3.734137e-01 7.898024e-01 2.295169e-01 5.306417e-01 2.049984e-01 5.655826e-01 2.450809e+00 3.541244e-03 7.643010e-04 4.414378e-03 9.470697e-03 1.198606e-02 1.720770e-02 1.530515e-03 -4.535938e-03 -5.176342e-03 -3.010233e-03 -1.834033e-03 -1.045563e-03 1.292008e-03 1.026067e-02 2.841627e-03 4.685356e-03 -8.816067e-03 -7.830330e-03 -1.295748e-02 -9.884533e-03 -1.349892e-02 -8.116146e-03 -9.325526e-03 -6.388677e-03 -9.901270e-03 -8.945274e-03
<VARIANCE> 39
 2.776581e+00 2.972955e+00 5.134678e+00 8.458268e+00 9.706973e+00 1.271615e+01 1.351798e+01 1.571801e+01 1.524804e+01 1.581556e+01 1.433376e+01 1.332878e+01 2.290219e+01 7.301895e-02 1.161541e-01 2.154980e-01 3.107797e-01 4.152838e-01 5.220468e-01 5.728775e-01 6.283159e-01 6.557596e-01 6.718294e-01 6.293938e-01 5.618462e-01 4.040851e-02 1.276493e-02 2.185398e-02 4.066424e-02 5.839908e-02 7.869531e-02 9.890535e-02 1.083269e-01 1.179768e-01 1.247027e-01 1.280768e-01 1.219741e-01 1.072457e-01 9.394965e-03
<GCONST> 4.992698e+01
<STATE> 4
<MEAN> 39
 -1.159991e+00 -1.012821e-01 -2.659445e-01 1.139577e+00 5.114582e-01 1.055292e+00 3.791849e-01 9.541950e-01 2.056498e-01 6.179760e-01 2.234488e-01 6.713703e-01 3.613483e+00 4.317005e-02 2.766334e-03 1.668206e-02 -1.694273e-02 -4.067155e-03 -1.451806e-02 -1.215140e-02 -3.248437e-02 -1.616265e-02 -1.989691e-02 -1.792389e-02 -2.470296e-02 -2.521715e-02 1.081656e-02 2.911727e-03 5.737486e-03 -6.850386e-03 -3.456972e-03 -8.664060e-03 -4.115365e-03 -8.817832e-03 -3.851918e-03 -4.292765e-03 -3.496221e-03 -6.447470e-03 -1.107079e-02
<VARIANCE> 39
 3.283231e+00 3.258572e+00 5.696641e+00 9.015967e+00 1.007341e+01 1.310453e+01 1.396772e+01 1.655581e+01 1.563629e+01 1.605141e+01 1.461082e+01 1.357305e+01 2.694087e+01 9.492823e-02 1.267707e-01 2.432413e-01 3.376575e-01 4.369036e-01 5.425750e-01 5.897915e-01 6.654962e-01 6.769243e-01 6.919280e-01 6.517953e-01 5.788111e-01 7.499648e-02 1.594061e-02 2.403127e-02 4.615021e-02 6.276111e-02 8.281843e-02 1.028919e-01 1.112659e-01 1.243425e-01 1.287370e-01 1.309937e-01 1.256213e-01 1.098092e-01 1.115929e-02
<GCONST> 5.318488e+01
<TRANSP> 5
 0.000000e+00 1.000000e+00 0.000000e+00 0.000000e+00 0.000000e+00
 0.000000e+00 6.606544e-01 3.393456e-01 0.000000e+00 0.000000e+00
 0.000000e+00 0.000000e+00 6.559624e-01 3.440376e-01 0.000000e+00
 0.000000e+00 0.000000e+00 0.000000e+00 8.083835e-01 1.916165e-01
 0.000000e+00 0.000000e+00 0.000000e+00 0.000000e+00 0.000000e+00
<ENDHMM>
~h "eh"
<BEGINHMM>
<NUMSTATES> 5
<STATE> 2
<MEAN> 39
 -5.452763e-01 -1.458931e-01 -3.520028e-01 9.334855e-02 -9.330272e-02 2.083543e-01 1.107341e-01 2.988887e-01 1.681570e-01 2.445942e-01 1.105777e-01 2.030166e-01 1.357249e+00 -6.661955e-02 -1.085562e-02 -5.302500e-03 8.967081e-02 4.972012e-02 6.599753e-02 2.400917e-02 6.530798e-02 1.100739e-02 3.969946e-02 6.574524e-03 4.001291e-02 8.232781e-02 1.748488e-02 8.323876e-03 1.362800e-02 -7.023380e-03 4.206315e-03 -1.044696e-02 -1.056000e-03 -1.628216e-02 -2.155090e-03 -1.630276e-02 -4.252535e-03 -1.178806e-02 -3.412273e-02
<VARIANCE> 39
 2.900743e+00 3.202978e+00 5.602225e+00 9.512493e+00 1.005688e+01 1.328804e+01 1.421799e+01 1.568814e+01 1.552729e+01 1.620976e+01 1.433302e+01 1.332769e+01 1.265262e+01 1.210897e-01 1.613792e-01 2.574671e-01 4.523801e-01 4.516127e-01 5.959185e-01 6.430033e-01 7.101617e-01 6.914207e-01 7.366554e-01 6.413240e-01 5.865189e-01 8.656346e-02 2.192671e-02 3.123050e-02 4.899585e-02 8.431090e-02 8.423303e-02 1.120442e-01 1.203369e-01 1.334553e-01 1.303347e-01 1.403896e-01 1.214763e-01 1.113694e-01 1.982614e-02
<GCONST> 5.542715e+01
<STATE> 3
<MEAN> 39
 -5.989888e-01 -1.139907e-01 -2.701312e-01 2.873084e-01 3.223599e-02 3.014978e-01 1.436194e-01 3.485211e-01 1.756372e-01 2.725751e-01 1.059186e-01 2.428899e-01 1.306592e+00 -2.539853e-02 4.135009e-03 1.770283e-02 7.274018e-02 4.829740e-02 4.920846e-02 2.184738e-02 3.622273e-02 3.726279e-03 1.506467e-02 1.107275e-03 2.513538e-02 4.209255e-02 1.651764e-02 5.952972e-03 8.424651e-03 -6.795436e-03 -1.229331e-03 -6.162561e-03 -9.167765e-04 -9.885323e-03 -3.499494e-03 -9.341368e-03 -1.614858e-03 -6.109368e-03 -1.529507e-02
<VARIANCE> 39
 2.599136e+00 2.988696e+00 5.289919e+00 8.821620e+00 9.563277e+00 1.261383e+01 1.389803e+01 1.535891e+01 1.522391e+01 1.606421e+01 1.426605e+01 1.316239e+01 1.146688e+01 9.068321e-02 1.338870e-01 2.242347e-01 3.866143e-01 4.149474e-01 5.437802e-01 6.003344e-01 6.548880e-01 6.666982e-01 7.035877e-01 6.395891e-01 5.682514e-01 4.502735e-02 1.695709e-02 2.579872e-02 4.303966e-02 7.248958e-02 7.664343e-02 1.023255e-01 1.135171e-01 1.249120e-01 1.265660e-01 1.343520e-01 1.215525e-01 1.084929e-01 8.325877e-03
<GCONST> 5.095234e+01
<STATE> 4
<MEAN> 39
 -4.940391e-01 -9.849556e-03 -9.145939e-02 4.059719e-01 1.766220e-01 3.289742e-01 9.624936e-02 2.704992e-01 1.641687e-01 1.858291e-01 9.312560e-02 2.381549e-01 7.127939e-01 2.951937e-03 1.552747e-03 7.308243e-03 1.279726e-02 1.014469e-02 8.713633e-03 2.400744e-03 4.288888e-03 8.398984e-04 2.128823e-03 -1.381617e-05 3.612106e-03 5.901035e-03 3.640455e-03 5.042139e-04 1.063657e-03 -2.691248e-03 -1.135797e-03 -1.756893e-03 -1.553458e-03 -3.533150e-03 -1.722793e-03 -1.282739e-03 -1.037656e-03 -2.218264e-03 -2.144523e-03
<VARIANCE> 39
 2.148774e+00 2.703037e+00 4.786017e+00 8.111005e+00 9.458947e+00 1.204455e+01 1.347076e+01 1.460496e+01 1.518734e+01 1.566633e+01 1.439174e+01 1.291019e+01 4.796046e+00 7.473399e-02 1.114138e-01 1.987719e-01 3.358189e-01 3.927307e-01 5.108839e-01 5.709684e-01 6.118042e-01 6.593441e-01 6.917391e-01 6.444912e-01 5.595953e-01 1.802699e-02 1.305456e-02 2.079159e-02 3.724056e-02 6.276524e-02 7.277823e-02 9.583168e-02 1.076408e-01 1.155540e-01 1.256430e-01 1.316405e-01 1.233195e-01 1.062227e-01 2.920448e-03
<GCONST> 4.550719e+01
<TRANSP> 5
 0.000000e+00 1.000000e+00 0.000000e+00 0.000000e+00 0.000000e+00
 0.000000e+00 5.424640e-01 4.575360e-01 0.000000e+00 0.000000e+00
 0.000000e+00 0.000000e+00 6.201745e-01 3.798255e-01 0.000000e+00
 0.000000e+00 0.000000e+00 0.000000e+00 9.296183e-01 7.038169e-02
 0.000000e+00 0.000000e+00 0.000000e+00 0.000000e+00 0.000000e+00
<ENDHMM>
~h "ey"
<BEGINHMM>
<NUMSTATES> 5
<STATE> 2
<MEAN> 39
 -2.159503e-01 -9.908880e-02 -3.955939e-01 -2.442521e-01 -2.648667e-01 -2.043102e-02 2.115904e-01 3.326885e-01 1.661811e-01 2.301260e-01 1.567083e-01 1.948669e-01 -1.066777e+00 1.613254e-03 -1.247082e-02 2.430768e-03 -1.922997e-02 1.810163e-02 6.468183e-03 5.571757e-02 4.340294e-02 3.504690e-02 1.231782e-02 -4.317153e-03 1.710078e-02 1.805948e-02 1.885020e-02 1.021789e-02 1.985826e-02 1.370579e-02 2.350331e-02 4.502806e-03 -1.003291e-02 -2.054829e-02 -1.159274e-02 -1.038790e-02 -4.952561e-03 -6.535016e-03 3.340584e-02
<VARIANCE> 39
 3.747071e+00 3.967865e+00 5.814165e+00 1.266580e+01 1.196018e+01 1.551273e+01 1.473867e+01 1.676760e+01 1.604188e+01 1.693474e+01 1.493586e+01 1.363377e+01 6.643447e+01 1.721659e-01 1.951066e-01 2.735824e-01 5.374127e-01 5.424806e-01 6.934591e-01 7.038410e-01 7.527753e-01 7.184778e-01 7.807005e-01 6.849203e-01 5.963970e-01 2.123197e-01 3.191931e-02 3.913308e-02 5.457805e-02 1.037243e-01 1.058404e-01 1.409065e-01 1.348882e-01 1.464143e-01 1.396839e-01 1.516048e-01 1.322980e-01 1.178106e-01 8.665372e-02
<GCONST> 6.412757e+01
<STATE> 3
<MEAN> 39
 -2.276599e-01 -1.609282e-01 -3.057301e-01 -2.522131e-01 -1.570223e-01 -6.413268e-02 2.411220e-01 3.392640e-01 1.970563e-01 1.760468e-01 9.648906e-02 1.807899e-01 -8.796178e-01 4.003586e-02 1.037882e-02 4.265010e-02 1.734028e-02 7.454632e-02 2.674048e-02 2.881748e-02 -2.214560e-03 4.601331e-03 -4.083999e-03 -3.497387e-03 7.242220e-03 1.444266e-01 3.370718e-02 2.471038e-02 2.720224e-02 1.303749e-02 1.239454e-02 -4.042885e-03 -2.843885e-02 -3.751628e-02 -2.121968e-02 -1.843484e-02 -8.064715e-03 -1.364743e-02 3.349165e-02
<VARIANCE> 39
 4.178440e+00 4.561878e+00 6.226442e+00 1.381405e+01 1.271009e+01 1.665719e+01 1.552593e+01 1.780451e+01 1.638825e+01 1.749365e+01 1.525998e+01 1.405309e+01 6.034187e+01 2.769920e-01 2.534193e-01 3.353217e-01 7.119079e-01 6.240642e-01 8.291910e-01 7.663192e-01 8.390133e-01 7.943807e-01 8.365539e-01 7.299480e-01 6.435487e-01 9.884027e-01 4.721092e-02 5.156447e-02 6.435940e-02 1.252562e-01 1.191775e-01 1.577456e-01 1.477013e-01 1.578501e-01 1.459835e-01 1.568591e-01 1.362625e-01 1.234131e-01 2.091392e-01
<GCONST> 7.081966e+01
<STATE> 4
<MEAN> 39
 -3.368301e-01 3.003004e-01 6.067291e-02 1.122827e-01 7.375967e-02 1.118114e-01 1.360997e-01 4.052808e-01 6.355167e-02 2.220287e-01 6.614312e-02 2.522529e-01 2.263575e+00 1.134655e-02 6.235919e-03 2.485605e-02 -2.125291e-02 1.148837e-02 -3.873044e-03 -2.007230e-02 -2.860788e-02 4.977226e-03 -1.402505e-02 -4.887382e-03 -1.843364e-02 3.045313e-02 -8.097497e-03 -6.967570e-03 -5.722207e-03 4.027011e-03 -1.699827e-03 3.179515e-03 -1.132502e-03 9.577539e-04 2.188804e-04 2.551825e-03 -2.602005e-04 1.066547e-03 -6.544448e-04
<VARIANCE> 39
 1.652110e+01 1.362341e+01 1.382589e+01 2.238892e+01 1.786433e+01 2.533892e+01 2.088866e+01 2.627733e+01 2.201386e+01 2.364063e+01 1.868614e+01 1.820817e+01 1.256215e+02 9.078522e-01 7.461900e-01 7.295045e-01 1.108164e+00 8.948582e-01 1.240050e+00 1.028010e+00 1.217902e+00 1.057031e+00 1.116357e+00 8.913407e-01 8.534400e-01 5.423323e+00 1.441226e-01 1.305131e-01 1.308362e-01 1.868217e-01 1.592523e-01 2.170118e-01 1.895925e-01 2.124979e-01 1.941334e-01 1.998082e-01 1.653916e-01 1.543383e-01 6.586567e-01
<GCONST> 9.188204e+01
<TRANSP> 5
 0.000000e+00 1.000000e+00 0.000000e+00 0.000000e+00 0.000000e+00
 0.000000e+00 2.951590e-01 7.048410e-01 0.000000e+00 0.000000e+00
 0.000000e+00 0.000000e+00 2.802035e-01 7.197965e-01 0.000000e+00
 0.000000e+00 0.000000e+00 0.000000e+00 9.257905e-01 7.420952e-02
 0.000000e+00 0.000000e+00 0.000000e+00 0.000000e+00 0.000000e+00
<ENDHMM>
~h "hh"
<BEGINHMM>
<NUMSTATES> 5
<STATE> 2
<MEAN> 39
 -1.711351e-01 -1.231716e-01 -3.631164e-01 -1.530861e-01 -2.070049e-01 -2.235253e-01 -4.029757e-02 1.135063e-01 4.482716e-02 3.365332e-02 8.071813e-02 3.464675e-02 -5.936579e-01 -1.820674e-02 1.717959e-02 5.126008e-03 6.748899e-02 5.054674e-02 5.890841e-02 4.838382e-02 4.723268e-02 2.294308e-02 2.752961e-02 2.672447e-03 1.789380e-02 6.298161e-02 -5.851039e-04 4.824725e-03 1.927935e-02 2.824294e-02 2.468805e-02 2.895506e-02 1.562647e-02 6.905054e-03 1.635029e-03 2.911665e-03 -2.914867e-03 9.640097e-05 4.349975e-02
<VARIANCE> 39
 3.466006e+00 3.698270e+00 5.744983e+00 1.027950e+01 1.064966e+01 1.471244e+01 1.444526e+01 1.619345e+01 1.557391e+01 1.621611e+01 1.470777e+01 1.347457e+01 4.052192e+01 1.579870e-01 1.969784e-01 2.664360e-01 4.693199e-01 4.862522e-01 6.317458e-01 6.412308e-01 6.937106e-01 7.026604e-01 7.235351e-01 6.663773e-01 5.834124e-01 2.253655e-01 2.627184e-02 3.350412e-02 4.956684e-02 8.407861e-02 9.238813e-02 1.200218e-01 1.238180e-01 1.336309e-01 1.333324e-01 1.354689e-01 1.289058e-01 1.104528e-01 6.539719e-02
<GCONST> 6.057544e+01
<STATE> 3
<MEAN> 39
 4.340866e-02 -2.256140e-02 -2.783602e-01 -1.123744e-01 -1.255720e-01 -3.383749e-01 3.227901e-02 -9.435996e-03 1.679073e-02 -1.156138e-01 -6.344636e-02 -7.850431e-02 -1.332510e+00 -1.583637e-03 3.656482e-02 5.023823e-02 1.448790e-01 1.158080e-01 1.344427e-01 6.202758e-02 6.950293e-02 9.147609e-03 4.916774e-02 -5.487971e-03 3.298745e-02 3.043819e-01 -2.277245e-02 -1.303298e-02 1.656038e-03 1.661532e-02 9.401126e-03 2.473820e-02 5.595011e-03 1.474491e-02 4.197633e-03 1.238594e-02 6.538958e-03 1.369394e-02 8.985906e-02
<VARIANCE> 39
 6.412828e+00 5.687825e+00 7.406319e+00 1.205394e+01 1.243048e+01 1.713283e+01 1.552854e+01 1.764378e+01 1.661918e+01 1.781374e+01 1.510103e+01 1.388947e+01 4.886738e+01 2.696711e-01 2.759075e-01 3.676488e-01 5.988855e-01 5.969272e-01 7.634427e-01 7.057410e-01 7.655820e-01 7.629206e-01 7.580211e-01 6.797354e-01 6.048806e-01 1.514703e+00 4.984209e-02 5.151556e-02 6.598152e-02 1.041181e-01 1.097030e-01 1.388239e-01 1.372259e-01 1.430276e-01 1.420713e-01 1.453843e-01 1.327516e-01 1.153886e-01 1.788234e-01
<GCONST> 7.029038e+01
<STATE> 4
<MEAN> 39
 -2.846649e-01 5.803918e-02 -1.443275e-01 6.483402e-01 4.474927e-01 4.587375e-01 2.320698e-01 5.305042e-01 9.285553e-02 3.032642e-01 2.491247e-02 2.445099e-01 2.127621e+00 -2.110303e-01 -7.731470e-02 -2.245054e-02 1.262239e-01 4.693913e-02 1.579491e-01 6.339692e-02 1.354927e-01 4.833005e-02 9.278716e-02 4.073134e-02 9.384724e-02 6.020935e-01 -8.551984e-03 -5.758178e-03 -1.392217e-02 -2.994017e-02 -1.872170e-02 -2.403465e-02 -9.540099e-03 -1.139888e-02 -5.895218e-04 -8.349597e-03 2.082476e-03 -3.642588e-03 -9.207984e-02
<VARIANCE> 39
 7.840059e+00 5.750004e+00 7.073866e+00 1.070225e+01 1.217351e+01 1.672300e+01 1.574618e+01 1.778553e+01 1.748390e+01 1.815372e+01 1.549555e+01 1.407439e+01 4.212260e+01 4.893207e-01 3.012248e-01 3.363099e-01 5.238788e-01 5.633853e-01 7.837553e-01 7.354388e-01 8.261419e-01 7.826986e-01 8.402511e-01 7.017394e-01 6.468679e-01 2.819341e+00 6.866708e-02 5.445944e-02 6.308521e-02 9.400395e-02 1.067106e-01 1.390663e-01 1.368824e-01 1.466970e-01 1.469383e-01 1.529685e-01 1.317532e-01 1.187077e-01 2.651247e-01
<GCONST> 7.239460e+01
<TRANSP> 5
 0.000000e+00 1.000000e+00 0.000000e+00 0.000000e+00 0.000000e+00
 0.000000e+00 4.580173e-01 5.419826e-01 0.000000e+00 0.000000e+00
 0.000000e+00 0.000000e+00 4.791374e-01 5.208626e-01 0.000000e+00
 0.000000e+00 0.000000e+00 0.000000e+00 6.016109e-01 3.983891e-01
 0.000000e+00 0.000000e+00 0.000000e+00 0.000000e+00 0.000000e+00
<ENDHMM>
~h "ih"
<BEGINHMM>
<NUMSTATES> 5
<STATE> 2
<MEAN> 39
 -3.674576e-01 -1.911173e-01 -3.694139e-01 -2.840174e-01 5.969226e-03 -1.484189e-01 3.887802e-02 1.750494e-01 2.849067e-01 -1.420218e-01 5.290156e-02 -3.189171e-02 -2.487504e-01 -3.333970e-02 -7.425645e-03 2.871757e-02 -2.178646e-02 1.459382e-02 -1.496062e-02 1.829927e-02 -1.008967e-02 5.249717e-02 -3.757017e-02 1.852804e-02 -4.045723e-02 1.282728e-01 1.015643e-02 1.376374e-02 1.334017e-02 -5.654874e-03 -1.638457e-02 -1.222997e-02 -1.247826e-02 -2.397715e-02 -1.101280e-02 -1.169563e-02 2.255630e-03 -1.200244e-02 -2.333604e-02
<VARIANCE> 39
 5.747810e+00 6.150876e+00 8.252774e+00 1.558723e+01 1.271515e+01 1.733628e+01 1.605041e+01 1.752584e+01 1.789122e+01 1.906830e+01 1.585963e+01 1.508213e+01 4.010818e+01 3.347237e-01 3.348765e-01 4.091042e-01 7.173256e-01 6.024659e-01 7.968740e-01 7.587651e-01 8.095116e-01 8.458773e-01 8.770733e-01 7.279192e-01 7.045758e-01 1.121715e+00 5.431240e-02 6.050032e-02 7.823623e-02 1.245345e-01 1.118083e-01 1.439103e-01 1.407240e-01 1.475646e-01 1.583320e-01 1.608060e-01 1.344561e-01 1.302057e-01 1.187928e-01
<GCONST> 7.244936e+01
<STATE> 3
<MEAN> 39
 -6.437466e-01 -2.598491e-01 -3.875151e-01 -3.712780e-01 -5.137734e-02 -2.497374e-01 4.888746e-03 8.185917e-02 4.009748e-01 -3.043588e-01 1.051535e-01 -1.903339e-01 2.396018e-01 -1.844938e-02 1.870941e-02 4.482191e-02 -1.845965e-02 -1.627590e-02 -2.256073e-02 -6.133155e-04 -3.812344e-02 2.674446e-02 -3.444185e-02 2.488413e-02 -3.930124e-02 8.808041e-02 2.282286e-02 1.695869e-02 1.098087e-02 -7.784413e-03 -1.402069e-02 -1.276738e-02 -1.466925e-02 -2.005978e-02 -1.768442e-02 -3.026325e-03 -2.497414e-04 -5.029772e-04 -5.089259e-02
<VARIANCE> 39
 7.647838e+00 7.830030e+00 9.889853e+00 1.742709e+01 1.391629e+01 1.880539e+01 1.704370e+01 1.885085e+01 1.894465e+01 2.091810e+01 1.703928e+01 1.614075e+01 3.184775e+01 4.605621e-01 4.225117e-01 4.963523e-01 8.346628e-01 6.634998e-01 8.871609e-01 8.118056e-01 8.936743e-01 8.936256e-01 9.473097e-01 7.694581e-01 7.506255e-01 1.524042e+00 6.941451e-02 7.540630e-02 9.192675e-02 1.401781e-01 1.225072e-01 1.584383e-01 1.499916e-01 1.602292e-01 1.690024e-01 1.736653e-01 1.429746e-01 1.388718e-01 1.531788e-01
<GCONST> 7.705724e+01
<STATE> 4
<MEAN> 39
 -1.273379e+00 -7.424106e-02 -3.665304e-01 2.766518e-01 1.169418e-01 3.250942e-01 2.516798e-01 6.806723e-01 4.027939e-01 2.414026e-01 2.901870e-01 2.967342e-01 3.729561e+00 9.908763e-03 1.337791e-02 1.646575e-02 1.404678e-02 -8.523544e-03 1.890019e-02 -3.442074e-04 1.724730e-02 5.795259e-04 3.023125e-02 3.834666e-03 1.684126e-02 6.842156e-02 9.398205e-03 1.966806e-03 3.305892e-03 -5.506026e-03 -4.266160e-03 -4.953878e-03 -3.108815e-03 -4.053595e-03 -1.992734e-03 -1.043133e-03 -1.568238e-03 -1.625732e-03 -2.105699e-02
<VARIANCE> 39
 1.153225e+01 1.019839e+01 1.198947e+01 1.989587e+01 1.676313e+01 2.180829e+01 1.929734e+01 2.326825e+01 2.079762e+01 2.363966e+01 1.829640e+01 1.749364e+01 8.342023e+01 6.155249e-01 5.365711e-01 6.158620e-01 9.289579e-01 7.778960e-01 1.027536e+00 8.980529e-01 1.029646e+00 9.732326e-01 1.056276e+00 8.148321e-01 7.904853e-01 3.316717e+00 9.822804e-02 9.290078e-02 1.105167e-01 1.542017e-01 1.393501e-01 1.769925e-01 1.651384e-01 1.853494e-01 1.776826e-01 1.893583e-01 1.472317e-01 1.438466e-01 4.287705e-01
<GCONST> 8.508484e+01
<TRANSP> 5
 0.000000e+00 1.000000e+00 0.000000e+00 0.000000e+00 0.000000e+00
 0.000000e+00 3.077712e-01 6.922288e-01 0.000000e+00 0.000000e+00
 0.000000e+00 0.000000e+00 3.701420e-01 6.298580e-01 0.000000e+00
 0.000000e+00 0.000000e+00 0.000000e+00 9.037695e-01 9.623048e-02
 0.000000e+00 0.000000e+00 0.000000e+00 0.000000e+00 0.000000e+00
<ENDHMM>
~h "iy"
<BEGINHMM>
<NUMSTATES> 5
<STATE> 2
<MEAN> 39
 -3.774213e-01 4.046319e-01 -2.128980e-02 6.188550e-01 6.677713e-01 3.772888e-01 2.307796e-01 2.518752e-01 4.947209e-02 3.204694e-01 9.608881e-02 2.139532e-01 2.027096e+00 1.112160e-02 2.290375e-02 -4.199584e-03 -3.374388e-02 6.231834e-02 -4.299364e-02 -5.893867e-03 -3.415879e-02 -2.289269e-03 5.431731e-03 9.784866e-03 -2.616479e-02 -9.924828e-02 -3.246467e-03 -1.682995e-02 -5.383192e-03 -1.168453e-02 -2.292850e-02 -3.965094e-03 -6.576112e-03 -1.655261e-03 -1.250806e-04 -4.787329e-03 -1.329184e-03 -2.736037e-03 -2.242837e-02
<VARIANCE> 39
 4.529366e+00 8.738406e+00 6.801799e+00 1.091448e+01 1.528515e+01 1.704717e+01 1.599736e+01 1.826097e+01 1.802880e+01 1.730515e+01 1.564409e+01 1.462730e+01 2.117216e+01 1.611311e-01 4.785007e-01 3.220865e-01 4.963462e-01 7.260079e-01 8.162499e-01 7.441980e-01 8.371766e-01 8.183010e-01 7.797632e-01 7.246160e-01 6.684714e-01 5.430118e-01 2.368101e-02 8.338239e-02 5.916135e-02 8.520386e-02 1.320826e-01 1.425655e-01 1.363861e-01 1.479167e-01 1.509677e-01 1.443724e-01 1.358388e-01 1.231664e-01 4.642086e-02
<GCONST> 6.757446e+01
<STATE> 3
<MEAN> 39
 -5.889573e-01 7.322107e-02 -8.534193e-02 5.869955e-01 4.639271e-01 5.065339e-01 2.149803e-01 3.667025e-01 9.928360e-02 3.447232e-01 1.266097e-01 2.809902e-01 1.599442e+00 -1.134683e-02 -3.551489e-02 -1.263981e-02 -1.737361e-02 -3.077481e-02 -5.483715e-03 -1.508685e-02 2.007739e-03 1.966986e-03 2.619130e-03 1.754920e-04 -3.473076e-03 -2.335931e-02 5.962938e-03 -3.567649e-04 7.482716e-04 -4.467780e-03 -1.596650e-02 -4.803893e-03 -5.164042e-03 -2.044503e-03 -3.080828e-03 -7.057783e-03 -3.952334e-03 -8.572069e-04 -6.073613e-04
<VARIANCE> 39
 3.250425e+00 4.145982e+00 5.692650e+00 9.312661e+00 1.199361e+01 1.441753e+01 1.464557e+01 1.668506e+01 1.637748e+01 1.640785e+01 1.503949e+01 1.379772e+01 1.641854e+01 8.297255e-02 2.049658e-01 2.436750e-01 3.795760e-01 5.337794e-01 6.078136e-01 6.716205e-01 7.046570e-01 7.286133e-01 7.077890e-01 6.719130e-01 6.029472e-01 9.411208e-02 1.426508e-02 3.826603e-02 4.633636e-02 6.941002e-02 1.015755e-01 1.176630e-01 1.259346e-01 1.331071e-01 1.383409e-01 1.334173e-01 1.284328e-01 1.144168e-01 1.244371e-02
<GCONST> 5.600256e+01
<STATE> 4
<MEAN> 39
 -8.229038e-01 3.604424e-02 -9.926413e-02 7.680990e-01 3.678140e-01 6.529748e-01 1.993042e-01 4.844611e-01 1.594744e-01 4.276558e-01 1.360902e-01 3.833549e-01 1.882179e+00 1.137563e-02 -1.752602e-02 -7.551659e-03 -2.753279e-02 -3.492364e-02 -1.925272e-02 -1.237387e-02 -6.741290e-03 -6.421344e-03 -1.142824e-02 -7.871179e-03 -5.912607e-03 -1.388612e-02 6.504212e-03 2.340653e-03 1.549368e-03 -4.155461e-03 -3.183234e-03 -3.639778e-03 -1.072336e-03 -2.930015e-03 -2.971792e-03 -5.871073e-03 -2.246529e-03 -1.323682e-03 -1.906589e-03
<VARIANCE> 39
 3.031703e+00 3.317437e+00 5.148804e+00 8.863579e+00 1.067663e+01 1.329744e+01 1.428313e+01 1.588856e+01 1.575784e+01 1.591151e+01 1.465668e+01 1.353305e+01 1.495979e+01 7.377054e-02 1.476035e-01 2.159947e-01 3.469234e-01 4.783206e-01 5.610538e-01 6.307960e-01 6.703058e-01 6.839598e-01 6.722665e-01 6.417242e-01 5.860824e-01 3.512749e-02 1.269272e-02 2.802044e-02 4.101618e-02 6.459019e-02 9.116945e-02 1.067594e-01 1.201031e-01 1.278022e-01 1.307973e-01 1.266167e-01 1.231011e-01 1.118837e-01 5.508031e-03
<GCONST> 5.104412e+01
<TRANSP> 5
 0.000000e+00 1.000000e+00 0.000000e+00 0.000000e+00 0.000000e+00
 0.000000e+00 5.626596e-01 4.373404e-01 0.000000e+00 0.000000e+00
 0.000000e+00 0.000000e+00 5.780017e-01 4.219983e-01 0.000000e+00
 0.000000e+00 0.000000e+00 0.000000e+00 7.978905e-01 2.021095e-01
 0.000000e+00 0.000000e+00 0.000000e+00 0.000000e+00 0.000000e+00
<ENDHMM>
~h "ow"
<BEGINHMM>
<NUMSTATES> 5
<STATE> 2
<MEAN> 39
 -5.053350e-01 -1.657666e-01 -1.958436e-01 3.995661e-01 1.645015e-01 3.954136e-01 2.875773e-01 4.524036e-01 1.368551e-01 3.032318e-01 1.049691e-01 3.199968e-01 1.221883e+00 4.640915e-02 -1.071224e-02 6.513276e-03 1.124651e-02 3.027452e-02 6.480427e-04 5.805247e-03 -1.990784e-02 -1.370730e-02 -2.118293e-02 -1.206175e-02 -1.614679e-02 1.538277e-02 1.568093e-02 2.933411e-03 7.538841e-03 -5.809019e-03 -1.270226e-03 -8.714600e-03 -7.707791e-03 -1.455673e-02 -7.365193e-03 -1.241090e-02 -5.851445e-03 -1.222938e-02 1.705979e-03
<VARIANCE> 39
 3.850500e+00 3.377529e+00 5.448165e+00 8.739632e+00 1.146136e+01 1.416420e+01 1.508232e+01 1.732867e+01 1.654474e+01 1.648319e+01 1.472821e+01 1.363963e+01 3.403363e+01 1.721409e-01 1.555317e-01 2.568533e-01 3.755835e-01 5.312911e-01 6.241619e-01 6.900225e-01 7.697188e-01 7.601288e-01 7.435442e-01 6.473612e-01 6.073522e-01 4.337063e-01 2.520365e-02 2.832796e-02 4.748596e-02 6.828186e-02 9.994885e-02 1.176361e-01 1.323099e-01 1.449498e-01 1.441614e-01 1.392937e-01 1.242507e-01 1.152678e-01 6.633800e-02
<GCONST> 6.092463e+01
<STATE> 3
<MEAN> 39
 -3.368765e-01 -1.929619e-01 -1.362431e-01 4.203254e-01 2.530841e-01 3.645950e-01 3.586338e-01 3.473487e-01 3.845581e-02 1.430407e-01 4.034655e-02 2.312976e-01 1.206916e+00 6.842828e-02 -3.201614e-03 2.247160e-02 2.246499e-03 3.299014e-02 -1.615782e-02 -2.539773e-02 -4.184130e-02 -2.022466e-02 -3.210599e-02 -1.762406e-02 -4.015821e-02 6.787944e-02 7.494366e-03 4.174730e-03 2.467020e-03 -1.639252e-02 -1.232966e-02 -1.665008e-02 -1.362078e-02 -1.183425e-02 -7.225914e-04 -2.607495e-03 -4.773915e-04 -7.802994e-03 -2.411328e-02
<VARIANCE> 39
 5.750977e+00 4.306849e+00 6.545600e+00 9.966020e+00 1.285798e+01 1.563004e+01 1.655902e+01 1.925559e+01 1.785169e+01 1.783695e+01 1.538565e+01 1.433493e+01 3.773613e+01 2.914737e-01 2.035986e-01 3.060181e-01 4.381503e-01 6.249688e-01 7.112814e-01 7.800651e-01 8.787468e-01 8.302053e-01 8.201172e-01 6.793323e-01 6.581450e-01 1.471361e+00 3.905173e-02 3.705504e-02 5.600609e-02 7.788043e-02 1.128173e-01 1.310492e-01 1.475291e-01 1.610104e-01 1.577147e-01 1.509597e-01 1.284470e-01 1.235786e-01 1.415229e-01
<GCONST> 6.833409e+01
<STATE> 4
<MEAN> 39
 2.231203e-01 -3.146710e-01 7.126875e-03 7.356843e-01 9.437527e-01 5.123259e-01 1.102790e-01 1.737169e-01 -6.869429e-02 1.950924e-01 -5.794813e-03 2.092019e-02 2.972901e+00 1.158380e-01 -1.110171e-02 1.687952e-02 -7.117872e-02 1.008917e-03 -1.010490e-01 -6.028742e-02 -1.118089e-01 -3.235486e-02 -4.960974e-02 -1.309791e-02 -6.110657e-02 -2.982040e-01 -2.193217e-02 4.153120e-03 -6.580554e-03 -1.360579e-02 -3.044182e-02 -6.376832e-03 1.313769e-03 1.039681e-02 3.326178e-03 4.452468e-03 3.620662e-03 9.354601e-03 4.567555e-06
<VARIANCE> 39
 1.881805e+01 6.235629e+00 9.303326e+00 1.235353e+01 1.810366e+01 1.911773e+01 1.875320e+01 2.451582e+01 2.048284e+01 2.088252e+01 1.737350e+01 1.673027e+01 6.435785e+01 5.851243e-01 2.975781e-01 4.173336e-01 5.434279e-01 8.009064e-01 8.648763e-01 8.789390e-01 1.057736e+00 9.314802e-01 9.435909e-01 7.732346e-01 7.428820e-01 1.331528e+00 8.402713e-02 5.183422e-02 7.380501e-02 9.474160e-02 1.391609e-01 1.527380e-01 1.605403e-01 1.866341e-01 1.719225e-01 1.725441e-01 1.468164e-01 1.371937e-01 1.191303e-01
<GCONST> 7.768169e+01
<TRANSP> 5
 0.000000e+00 1.000000e+00 0.000000e+00 0.000000e+00 0.000000e+00
 0.000000e+00 4.917262e-01 5.082738e-01 0.000000e+00 0.000000e+00
 0.000000e+00 0.000000e+00 4.994662e-01 5.005339e-01 0.000000e+00
 0.000000e+00 0.000000e+00 0.000000e+00 7.252506e-01 2.747494e-01
 0.000000e+00 0.000000e+00 0.000000e+00 0.000000e+00 0.000000e+00
<ENDHMM>
~h "th"
<BEGINHMM>
<NUMSTATES> 5
<STATE> 2
<MEAN> 39
 5.247320e-01 -1.163011e-02 1.110218e-01 -9.989786e-01 -6.326266e-01 -9.194767e-01 -1.602323e-01 -5.154591e-01 4.023747e-02 -5.611317e-01 -4.168171e-02 -3.265103e-01 -3.547619e+00 -2.738850e-02 1.539052e-02 1.490450e-02 -1.445757e-02 3.020663e-02 -1.183415e-02 3.818581e-02 1.887649e-02 3.996846e-02 3.914242e-03 2.607049e-02 7.953072e-03 1.280571e-01 -2.504099e-02 -4.620635e-04 4.322571e-04 3.267891e-02 2.511910e-02 3.749340e-02 7.011973e-03 1.807595e-02 7.383545e-03 2.079199e-02 4.145684e-04 1.322959e-02 1.015499e-01
<VARIANCE> 39
 8.672058e+00 8.651248e+00 9.728139e+00 1.605754e+01 1.537174e+01 1.973577e+01 1.760689e+01 2.081274e+01 1.863573e+01 1.987655e+01 1.596806e+01 1.481197e+01 8.536715e+01 5.118297e-01 4.556200e-01 5.219939e-01 7.813031e-01 7.550831e-01 9.763622e-01 8.293514e-01 1.000856e+00 9.040356e-01 9.290984e-01 7.274538e-01 7.005548e-01 2.836090e+00 8.394501e-02 8.194862e-02 9.730985e-02 1.379368e-01 1.418161e-01 1.740661e-01 1.555713e-01 1.770302e-01 1.678555e-01 1.691753e-01 1.366486e-01 1.288700e-01 3.726843e-01
<GCONST> 8.067122e+01
<STATE> 3
<MEAN> 39
 -2.770418e-01 6.028765e-02 1.149231e-01 -4.411245e-01 -1.162992e-01 -2.355461e-01 2.915247e-01 1.201543e-01 1.828240e-01 8.809283e-03 6.245790e-02 -3.011309e-03 1.302026e+00 -1.241601e-01 -9.253470e-03 5.494745e-04 1.498795e-01 1.025173e-01 1.842845e-01 5.565636e-02 1.062117e-01 3.831674e-02 1.079149e-01 1.390404e-02 7.349019e-02 6.226951e-01 -5.713052e-03 -4.406880e-03 2.769653e-03 3.370187e-02 1.570215e-02 2.641006e-02 -3.314040e-03 9.328072e-03 -8.513813e-03 5.794186e-03 -4.953766e-04 2.168510e-03 -7.975316e-03
<VARIANCE> 39
 7.688819e+00 7.726105e+00 1.042742e+01 1.689424e+01 1.468347e+01 1.995011e+01 1.708838e+01 2.089433e+01 1.877326e+01 2.044262e+01 1.623685e+01 1.581902e+01 6.027457e+01 4.438777e-01 4.034229e-01 5.830992e-01 8.584800e-01 7.183889e-01 9.854186e-01 8.123431e-01 9.989204e-01 8.845711e-01 9.893268e-01 7.950697e-01 7.458066e-01 3.874081e+00 7.109930e-02 7.297680e-02 1.113514e-01 1.470996e-01 1.362339e-01 1.720572e-01 1.533670e-01 1.802839e-01 1.660324e-01 1.829941e-01 1.487081e-01 1.389185e-01 4.105979e-01
<GCONST> 8.084219e+01
<STATE> 4
<MEAN> 39
 -9.246174e-01 -1.206151e-01 -5.360521e-02 5.635493e-01 3.253444e-01 7.250069e-01 4.228755e-01 7.198423e-01 2.134665e-01 4.886997e-01 1.285361e-01 4.203140e-01 3.795611e+00 -7.563502e-02 -1.587451e-02 3.142064e-03 1.839417e-01 1.004581e-01 1.466911e-01 3.117709e-02 7.304677e-02 -3.918937e-03 5.580902e-02 1.825595e-02 5.296693e-02 1.816455e-01 1.878959e-02 1.240322e-03 2.760731e-03 -3.246910e-02 -1.380387e-02 -3.735555e-02 -1.649683e-02 -2.946354e-02 -1.064379e-02 -2.299238e-02 -2.830506e-03 -1.773633e-02 -9.115788e-02
<VARIANCE> 39
 4.439568e+00 4.703202e+00 7.086672e+00 1.238854e+01 1.215627e+01 1.648207e+01 1.555976e+01 1.844850e+01 1.694543e+01 1.730108e+01 1.517302e+01 1.420607e+01 3.886082e+01 1.997729e-01 2.559596e-01 3.842789e-01 6.631553e-01 6.061890e-01 8.102505e-01 7.437173e-01 8.400401e-01 7.872165e-01 8.106756e-01 6.954895e-01 6.464282e-01 9.101845e-01 3.017530e-02 4.470636e-02 6.905165e-02 1.142395e-01 1.137530e-01 1.491161e-01 1.395071e-01 1.522211e-01 1.462656e-01 1.502138e-01 1.333954e-01 1.188624e-01 1.188298e-01
<GCONST> 6.852836e+01
<TRANSP> 5
 0.000000e+00 1.000000e+00 0.000000e+00 0.000000e+00 0.000000e+00
 0.000000e+00 5.999423e-01 4.000577e-01 0.000000e+00 0.000000e+00
 0.000000e+00 0.000000e+00 6.190246e-01 3.809753e-01 0.000000e+00
 0.000000e+00 0.000000e+00 0.000000e+00 5.825258e-01 4.174742e-01
 0.000000e+00 0.000000e+00 0.000000e+00 0.000000e+00 0.000000e+00
<ENDHMM>
~h "uw"
<BEGINHMM>
<NUMSTATES> 5
<STATE> 2
<MEAN> 39
 -3.580549e-01 -1.969934e-01 -3.802092e-02 6.360229e-01 7.022900e-01 4.321211e-01 1.510231e-01 5.300050e-01 5.646944e-02 3.265353e-01 6.890374e-02 2.044770e-01 2.357311e+00 -2.954769e-02 -2.225110e-02 9.274576e-03 9.285699e-02 3.390146e-02 4.977642e-02 2.498266e-03 -2.112009e-02 -5.830796e-02 -4.883016e-03 -2.471981e-02 1.203349e-02 -6.048400e-04 1.051047e-02 1.302728e-02 -1.907700e-03 -3.840168e-02 -4.112169e-02 -2.687301e-02 -1.099972e-02 -2.221411e-02 -1.395316e-03 -2.094890e-02 -2.132775e-03 -7.616455e-03 -3.075705e-02
<VARIANCE> 39
 8.710064e+00 4.526918e+00 7.392619e+00 1.106996e+01 1.398140e+01 1.691387e+01 1.637695e+01 1.882149e+01 1.743005e+01 1.781241e+01 1.610356e+01 1.465631e+01 3.211227e+01 2.351248e-01 2.416097e-01 3.490781e-01 5.657172e-01 6.254640e-01 7.822963e-01 7.397073e-01 8.420801e-01 8.092477e-01 8.511801e-01 7.814441e-01 6.711065e-01 4.154949e-01 3.796721e-02 4.284454e-02 6.368067e-02 9.940540e-02 1.191882e-01 1.393734e-01 1.359664e-01 1.521809e-01 1.455913e-01 1.540318e-01 1.449190e-01 1.245805e-01 5.880292e-02
<GCONST> 6.794474e+01
<STATE> 3
<MEAN> 39
 -1.924792e-01 -1.746553e-01 6.198411e-02 7.143955e-01 7.248310e-01 3.349771e-01 8.799583e-02 3.621365e-01 -5.121336e-02 2.284435e-01 1.057128e-02 1.628208e-01 1.888972e+00 -3.736470e-03 -2.061444e-03 2.361669e-03 4.403151e-03 -4.046118e-02 -7.705905e-03 -1.894971e-02 -5.828559e-02 -4.498083e-02 -3.649277e-02 -1.998966e-02 -4.671357e-03 -6.292082e-02 6.865084e-03 1.234748e-02 -8.916919e-03 -4.171009e-02 -4.209668e-02 -2.389575e-02 -8.572016e-03 -7.290534e-03 8.313872e-03 -9.412876e-03 5.525906e-04 -2.244367e-03 -1.127317e-02
<VARIANCE> 39
 9.293565e+00 4.396144e+00 7.474523e+00 1.087421e+01 1.347059e+01 1.704595e+01 1.653528e+01 1.907950e+01 1.766460e+01 1.776877e+01 1.644400e+01 1.467070e+01 3.001240e+01 2.063767e-01 2.216678e-01 3.171713e-01 4.998845e-01 6.103030e-01 7.191275e-01 7.160757e-01 8.145624e-01 7.728247e-01 8.007520e-01 7.531385e-01 6.530312e-01 2.934822e-01 3.314806e-02 3.912183e-02 5.936605e-02 9.149575e-02 1.121815e-01 1.378599e-01 1.371835e-01 1.517018e-01 1.473917e-01 1.504343e-01 1.441870e-01 1.239661e-01 3.445653e-02
<GCONST> 6.580161e+01
<STATE> 4
<MEAN> 39
 -3.816119e-01 -1.949965e-01 3.172150e-02 9.099617e-01 7.354233e-01 4.872777e-01 8.523954e-02 4.241697e-01 -1.030749e-01 2.059348e-01 7.839877e-02 2.645928e-01 2.720274e+00 3.562845e-02 1.091417e-02 -2.032123e-04 -6.835639e-02 -7.542336e-02 -3.951697e-02 -2.461565e-02 -6.411964e-02 -3.103844e-02 -4.428590e-02 -1.473444e-02 -1.571966e-02 -1.188110e-01 4.192264e-03 5.096414e-03 -4.921986e-03 -1.652159e-02 -1.560085e-02 -8.442469e-03 5.627569e-04 5.894812e-03 7.116953e-03 2.561599e-03 1.197837e-03 1.922379e-03 -5.102876e-03
<VARIANCE> 39
 1.158964e+01 4.745150e+00 7.879434e+00 1.161050e+01 1.338686e+01 1.788065e+01 1.660904e+01 2.013128e+01 1.808464e+01 1.788766e+01 1.663282e+01 1.504579e+01 3.371901e+01 2.351687e-01 2.179133e-01 3.072261e-01 4.816810e-01 6.056085e-01 7.177938e-01 7.358166e-01 8.120719e-01 7.834429e-01 7.641644e-01 7.421820e-01 6.656104e-01 2.636803e-01 3.539746e-02 3.782281e-02 5.720639e-02 8.553651e-02 1.092148e-01 1.336141e-01 1.390678e-01 1.545911e-01 1.517113e-01 1.464022e-01 1.425190e-01 1.279564e-01 2.599997e-02
<GCONST> 6.606544e+01
<TRANSP> 5
 0.000000e+00 1.000000e+00 0.000000e+00 0.000000e+00 0.000000e+00
 0.000000e+00 3.547260e-01 6.452740e-01 0.000000e+00 0.000000e+00
 0.000000e+00 0.000000e+00 3.639610e-01 6.360390e-01 0.000000e+00
 0.000000e+00 0.000000e+00 0.000000e+00 6.158168e-01 3.841832e-01
 0.000000e+00 0.000000e+00 0.000000e+00 0.000000e+00 0.000000e+00
<ENDHMM>
~h "sil"
<BEGINHMM>
<NUMSTATES> 5
<STATE> 2
<MEAN> 39
 4.407876e-01 8.801538e-04 9.109934e-02 -2.840506e-01 -1.163623e-01 -2.573053e-01 -1.994315e-01 -3.349886e-01 -1.408173e-01 -1.909387e-01 -9.778307e-02 -2.031672e-01 -1.000879e+00 1.974260e-04 1.060482e-02 -7.585277e-03 -4.207004e-03 -1.431745e-02 -1.115081e-02 -3.582994e-04 7.905487e-03 -7.277570e-04 -4.062720e-03 -1.244954e-03 1.681210e-04 -2.891438e-02 -9.758399e-04 7.349316e-04 6.342949e-04 2.506003e-03 3.262797e-03 2.660420e-03 3.047849e-03 2.750065e-03 2.073638e-03 2.182971e-03 1.812345e-03 1.550912e-03 1.928571e-03
<VARIANCE> 39
 3.579256e+00 3.707005e+00 5.617579e+00 8.980704e+00 1.038557e+01 1.298965e+01 1.424438e+01 1.628946e+01 1.566579e+01 1.542589e+01 1.403976e+01 1.295277e+01 1.391076e+01 6.343290e-02 1.358855e-01 2.196268e-01 3.382350e-01 4.365497e-01 5.303446e-01 5.949201e-01 6.612471e-01 6.706214e-01 6.529773e-01 5.979247e-01 5.441853e-01 3.387277e-02 1.005568e-02 2.209824e-02 3.733228e-02 5.681095e-02 7.504806e-02 9.086461e-02 1.031994e-01 1.137623e-01 1.162202e-01 1.130413e-01 1.035999e-01 9.413175e-02 2.754933e-03
<GCONST> 4.791769e+01
<STATE> 3
<MEAN> 39
 4.308800e-01 9.023089e-02 -7.967263e-03 -3.797487e-01 -2.718596e-01 -3.995116e-01 -1.660468e-01 -2.403988e-01 -1.160024e-01 -2.101259e-01 -6.947735e-02 -1.659135e-01 -1.659090e+00 -5.466163e-03 6.269785e-03 -4.031034e-03 -4.251907e-04 -5.415167e-03 -3.222581e-03 5.146511e-03 8.060113e-03 2.883147e-03 1.782531e-03 4.317550e-03 6.080105e-03 -1.380532e-02 -6.479127e-04 -7.275174e-04 9.621792e-04 2.703719e-03 3.034309e-03 3.273220e-03 1.303563e-03 6.565038e-04 8.518262e-04 1.294546e-03 8.243216e-04 1.202561e-03 2.621701e-03
<VARIANCE> 39
 2.945112e+00 3.467044e+00 5.219771e+00 8.908484e+00 1.032547e+01 1.308470e+01 1.418681e+01 1.572284e+01 1.569158e+01 1.562446e+01 1.430894e+01 1.301734e+01 2.604761e+01 6.048082e-02 1.255683e-01 2.117145e-01 3.462265e-01 4.403931e-01 5.478894e-01 6.212230e-01 6.827077e-01 6.969647e-01 6.890705e-01 6.384932e-01 5.658380e-01 2.558066e-02 1.065298e-02 2.328668e-02 3.999261e-02 6.575534e-02 8.447214e-02 1.051300e-01 1.199108e-01 1.315272e-01 1.347235e-01 1.331186e-01 1.234817e-01 1.088766e-01 3.354408e-03
<GCONST> 4.980831e+01
<STATE> 4
<MEAN> 39
 1.171556e+00 2.300881e-01 -3.495129e-02 -1.063896e+00 -7.555327e-01 -1.080522e+00 -3.142790e-01 -6.766109e-01 -1.615855e-01 -6.324548e-01 -1.495552e-01 -4.600135e-01 -6.156930e+00 -4.106112e-02 2.139626e-02 4.796480e-03 4.946478e-02 3.144487e-02 3.114185e-02 4.418037e-02 4.989598e-02 2.239435e-02 3.202168e-02 2.599487e-02 2.939272e-02 -3.583612e-03 -6.311976e-03 -7.367786e-03 7.084227e-03 9.258337e-03 1.077273e-02 1.177848e-02 2.972135e-03 9.953335e-04 3.766643e-03 2.889022e-03 5.989510e-04 -5.404819e-04 2.894045e-02
<VARIANCE> 39
 6.682046e+00 5.966806e+00 6.824952e+00 1.226001e+01 1.241376e+01 1.548331e+01 1.557101e+01 1.746194e+01 1.638503e+01 1.657625e+01 1.440739e+01 1.347885e+01 7.023885e+01 1.727963e-01 2.505495e-01 3.206281e-01 5.324624e-01 5.887765e-01 7.253597e-01 7.734256e-01 8.519056e-01 8.191522e-01 8.111054e-01 7.261159e-01 6.682971e-01 2.556420e-01 2.508077e-02 3.533053e-02 4.599866e-02 7.415865e-02 8.260595e-02 9.957860e-02 1.063179e-01 1.154632e-01 1.135983e-01 1.118420e-01 1.010961e-01 9.163485e-02 3.356996e-02
<GCONST> 6.275604e+01
<TRANSP> 5
 0.000000e+00 1.000000e+00 0.000000e+00 0.000000e+00 0.000000e+00
 0.000000e+00 9.552150e-01 4.478493e-02 0.000000e+00 0.000000e+00
 0.000000e+00 0.000000e+00 9.400666e-01 5.993349e-02 0.000000e+00
 0.000000e+00 0.000000e+00 0.000000e+00 6.999313e-01 3.000686e-01
 0.000000e+00 0.000000e+00 0.000000e+00 0.000000e+00 0.000000e+00
<ENDHMM>
