~o
<STREAMINFO> 1 39
<VECSIZE> 39<NULLD><MFCC_D_A_Z_0><DIAGC>
~v "varFloor1"
<VARIANCE> 39
 5.653673e-02 4.886588e-02 6.880558e-02 1.097444e-01 1.173968e-01 1.501360e-01 1.524483e-01 1.769248e-01 1.673871e-01 1.699316e-01 1.501835e-01 1.395998e-01 3.516366e-01 1.948883e-03 2.195148e-03 3.084339e-03 4.548327e-03 5.169705e-03 6.475277e-03 6.752422e-03 7.581503e-03 7.468139e-03 7.484302e-03 6.703977e-03 6.097627e-03 6.117719e-03 3.081363e-04 3.835776e-04 5.522510e-04 7.938185e-04 9.348416e-04 1.158605e-03 1.234846e-03 1.362727e-03 1.366371e-03 1.361924e-03 1.233620e-03 1.112660e-03 7.270522e-04
~s "silst"
<NUMMIXES> 8
<MIXTURE> 1 7.250599e-02
<MEAN> 39
 1.518069e-01 -1.099878e-01 -1.897551e-01 -3.412815e-01 -2.863404e-01 7.540298e-02 3.543413e-01 6.454007e-01 6.919823e-01 6.912143e-01 3.787685e-01 3.926298e-01 -8.979363e-02 -8.200585e-02 2.078206e-01 3.649321e-01 7.281159e-01 4.940451e-01 5.155327e-01 2.793140e-01 2.682461e-01 2.174810e-01 2.218484e-01 1.751148e-01 1.600382e-01 1.439128e-01 1.594052e-02 1.864215e-02 3.125643e-02 3.236437e-02 3.835436e-02 1.478046e-04 -1.852736e-02 -3.849350e-02 -5.316515e-02 -4.135806e-02 -1.756235e-02 -2.989986e-02 3.018992e-03
<VARIANCE> 39
 2.244225e+00 2.921499e+00 4.791609e+00 9.071330e+00 1.013416e+01 1.306021e+01 1.505301e+01 1.541677e+01 1.631227e+01 1.577784e+01 1.517315e+01 1.284286e+01 5.265743e-01 1.620743e-01 1.778071e-01 2.456492e-01 4.685315e-01 4.888736e-01 6.512709e-01 6.789292e-01 7.613361e-01 7.209894e-01 7.460614e-01 6.665567e-01 5.887761e-01 4.182028e-02 1.907691e-02 2.624434e-02 4.420350e-02 8.406057e-02 8.992692e-02 1.158988e-01 1.268280e-01 1.340100e-01 1.348750e-01 1.307666e-01 1.282116e-01 1.046730e-01 4.747571e-03
<GCONST> 5.006850e+01
<MIXTURE> 2 1.818899e-01
<MEAN> 39
 3.316995e-01 5.776985e-01 9.496339e-01 1.224894e+00 9.743009e-01 7.453915e-01 1.684265e-01 -1.063118e-01 -3.623269e-01 -4.249023e-01 -5.096064e-01 -3.281440e-01 1.959299e-01 6.714935e-02 3.759446e-02 -3.173634e-02 -1.365041e-01 -1.058343e-01 -4.016597e-02 8.429733e-02 1.738219e-01 2.044211e-01 2.111637e-01 1.906756e-01 1.061336e-01 -2.986567e-03 -2.315047e-02 -5.407903e-02 -8.352748e-02 -1.079306e-01 -8.241317e-02 -4.565502e-02 1.520102e-02 5.198047e-02 7.028190e-02 7.565594e-02 8.380599e-02 6.078041e-02 -1.821767e-02
<VARIANCE> 39
 2.092761e+00 2.594872e+00 4.337940e+00 7.915154e+00 1.017885e+01 1.203834e+01 1.329529e+01 1.449924e+01 1.453796e+01 1.425135e+01 1.349294e+01 1.206676e+01 3.816804e-01 1.277414e-01 1.556716e-01 2.481215e-01 3.773198e-01 4.433620e-01 5.367272e-01 6.191657e-01 7.065992e-01 7.205530e-01 6.853801e-01 6.591178e-01 5.684863e-01 2.234090e-02 2.154249e-02 2.630213e-02 4.425569e-02 8.047091e-02 9.408627e-02 1.094565e-01 1.187936e-01 1.265770e-01 1.301510e-01 1.252630e-01 1.181439e-01 1.017244e-01 4.021632e-03
<GCONST> 4.646101e+01
<MIXTURE> 3 1.751041e-01
<MEAN> 39
 -4.025322e-02 -9.656588e-01 -1.396639e+00 -1.910604e+00 -1.214520e+00 -6.998795e-01 1.653992e-01 4.536232e-01 5.753620e-01 7.863330e-01 8.437932e-01 5.676425e-01 -4.321178e-01 5.740079e-03 5.772021e-02 8.909480e-02 1.633636e-01 1.138353e-01 1.242655e-01 8.821662e-02 6.548138e-02 5.638900e-02 5.223708e-02 4.930421e-02 5.715199e-02 3.125161e-02 3.916467e-02 9.937087e-02 1.487970e-01 1.864724e-01 1.258029e-01 7.608645e-02 2.170730e-03 -2.510946e-02 -4.070196e-02 -5.070255e-02 -5.583324e-02 -4.329006e-02 3.537604e-02
<VARIANCE> 39
 3.420387e+00 3.397469e+00 5.113585e+00 9.373570e+00 1.036635e+01 1.380391e+01 1.503612e+01 1.710285e+01 1.699904e+01 1.649911e+01 1.509696e+01 1.300870e+01 5.888747e-01 9.830713e-02 1.436936e-01 2.350671e-01 3.587354e-01 4.383317e-01 5.373624e-01 6.018444e-01 6.692963e-01 6.985080e-01 6.797508e-01 6.365325e-01 5.452312e-01 1.879684e-02 2.474051e-02 2.875744e-02 4.511496e-02 7.965188e-02 9.078375e-02 1.149334e-01 1.223004e-01 1.419149e-01 1.408874e-01 1.322909e-01 1.252802e-01 1.056125e-01 4.368458e-03
<GCONST> 4.880058e+01
<MIXTURE> 4 7.597744e-02
<MEAN> 39
 1.436079e+00 -2.599512e-01 -1.702774e-01 -2.177948e+00 -8.016287e-01 -1.409856e+00 -4.219041e-01 -4.077712e-01 -1.556617e-01 -4.769673e-01 -1.071607e-01 -7.851581e-01 -7.765659e-01 1.995501e-01 -7.455468e-02 -1.829125e-01 -5.553684e-01 -2.810052e-01 -3.518666e-01 -7.992169e-02 -8.997653e-02 -9.004720e-03 -2.480648e-02 3.465223e-02 -3.904225e-02 -1.609127e-01 -5.906865e-02 1.839644e-02 1.329527e-02 1.338537e-01 5.520102e-02 1.111483e-01 5.868303e-02 5.070870e-02 2.679892e-02 6.332840e-02 3.598413e-02 7.464054e-02 3.938463e-02
<VARIANCE> 39
 3.948388e+00 4.520766e+00 5.823678e+00 1.552711e+01 1.282858e+01 1.741869e+01 1.543819e+01 1.757448e+01 1.701097e+01 1.694252e+01 1.513863e+01 1.415055e+01 1.411351e+00 1.530229e-01 1.803150e-01 2.808951e-01 4.519950e-01 5.422110e-01 6.055503e-01 6.726540e-01 7.079806e-01 7.164246e-01 6.965400e-01 6.627575e-01 6.168075e-01 4.653103e-02 2.621431e-02 3.375922e-02 4.794020e-02 1.144973e-01 1.016656e-01 1.318540e-01 1.244293e-01 1.371018e-01 1.374534e-01 1.396142e-01 1.215090e-01 1.147823e-01 9.397015e-03
<GCONST> 5.577319e+01
<MIXTURE> 5 1.250261e-01
<MEAN> 39
 2.406183e-01 -1.246557e+00 -1.716727e+00 -2.779702e+00 -1.728616e+00 -1.526899e+00 -3.868512e-01 -1.690294e-01 4.971848e-02 3.859588e-01 5.378535e-01 2.115318e-01 -6.570829e-01 -5.003838e-02 -6.348595e-02 -8.680019e-02 -6.398207e-02 -8.304226e-02 -9.909914e-02 -1.276686e-01 -1.630253e-01 -1.862819e-01 -1.834005e-01 -1.617353e-01 -8.108406e-02 -1.703411e-02 3.315677e-02 8.172378e-02 1.254988e-01 1.391923e-01 9.831759e-02 4.593093e-02 -1.772972e-02 -5.064542e-02 -6.190990e-02 -9.505711e-02 -8.811037e-02 -6.538644e-02 2.381907e-02
<VARIANCE> 39
 3.663824e+00 3.825050e+00 5.217094e+00 1.076943e+01 1.048682e+01 1.472238e+01 1.522295e+01 1.803559e+01 1.700298e+01 1.684494e+01 1.502419e+01 1.339533e+01 8.588687e-01 9.217390e-02 1.477569e-01 2.392863e-01 3.659456e-01 4.475358e-01 5.560549e-01 6.097094e-01 6.758282e-01 7.072005e-01 6.725934e-01 6.499319e-01 5.606820e-01 1.976968e-02 2.296253e-02 3.090004e-02 4.568483e-02 8.612073e-02 9.154024e-02 1.183391e-01 1.214987e-01 1.445162e-01 1.395524e-01 1.352119e-01 1.216853e-01 1.070162e-01 5.184229e-03
<GCONST> 5.019546e+01
<MIXTURE> 6 2.010436e-01
<MEAN> 39
 4.006813e-01 4.039372e-01 6.408156e-01 7.392011e-01 5.104713e-01 3.954269e-01 -5.691460e-02 -2.337313e-01 -4.632571e-01 -4.922224e-01 -5.629727e-01 -4.402835e-01 1.167584e-01 3.382657e-03 -1.100108e-01 -2.289918e-01 -4.058473e-01 -3.353350e-01 -2.970892e-01 -1.690594e-01 -9.647161e-02 -7.112393e-02 -5.195428e-02 -4.753115e-02 -4.079248e-02 -6.329636e-02 -2.256450e-02 -6.302941e-02 -9.661482e-02 -1.347467e-01 -9.852955e-02 -8.305104e-02 -2.621496e-02 -5.150135e-03 1.258801e-02 1.487908e-02 3.067827e-02 2.996093e-02 -2.540112e-02
<VARIANCE> 39
 1.950163e+00 2.603907e+00 4.560382e+00 7.945088e+00 1.002310e+01 1.200609e+01 1.337512e+01 1.426030e+01 1.501658e+01 1.430605e+01 1.373306e+01 1.208314e+01 3.904178e-01 1.256796e-01 1.524403e-01 2.442935e-01 3.769938e-01 4.542710e-01 5.426927e-01 6.268644e-01 6.918178e-01 7.107332e-01 6.736764e-01 6.500517e-01 5.632349e-01 2.303507e-02 2.042035e-02 2.637705e-02 4.410464e-02 7.936660e-02 9.107585e-02 1.064676e-01 1.180144e-01 1.236816e-01 1.309908e-01 1.253259e-01 1.173770e-01 1.005050e-01 4.165417e-03
<GCONST> 4.631195e+01
<MIXTURE> 7 1.253318e-01
<MEAN> 39
 1.765374e-01 -3.314047e-01 -5.383658e-01 -8.055757e-01 -7.029835e-01 -2.712103e-01 1.458612e-01 4.099770e-01 3.691138e-01 4.936942e-01 3.205503e-01 3.123911e-01 -1.515179e-01 -9.560762e-02 7.201149e-02 1.955163e-01 4.281647e-01 2.806362e-01 2.236680e-01 3.824525e-02 2.387539e-03 -4.917025e-02 -5.099423e-02 -6.560582e-02 -4.085890e-02 6.856287e-02 2.281635e-02 8.250454e-03 1.919490e-02 -1.037039e-02 6.076401e-03 -4.852153e-02 -6.708454e-02 -9.715384e-02 -9.246194e-02 -9.549522e-02 -6.987950e-02 -6.867704e-02 -9.659383e-03
<VARIANCE> 39
 2.430328e+00 2.936384e+00 4.846914e+00 8.718431e+00 9.836790e+00 1.296055e+01 1.478317e+01 1.535228e+01 1.616822e+01 1.573683e+01 1.504471e+01 1.272686e+01 5.239131e-01 1.490775e-01 1.678960e-01 2.529440e-01 4.169258e-01 4.757576e-01 6.192428e-01 6.679560e-01 7.360548e-01 7.209268e-01 7.141784e-01 6.683694e-01 5.792094e-01 3.290387e-02 2.053085e-02 2.777648e-02 4.439493e-02 8.409527e-02 8.785331e-02 1.157588e-01 1.231033e-01 1.318127e-01 1.352207e-01 1.298388e-01 1.254256e-01 1.051394e-01 4.951322e-03
<GCONST> 4.946193e+01
<MIXTURE> 8 4.308668e-02
<MEAN> 39
 1.414037e+00 -5.541354e-01 -4.836704e-01 -3.412229e+00 -1.002614e+00 -2.328318e+00 -8.178715e-01 -8.049159e-01 -3.746501e-01 -8.391697e-01 -2.253281e-01 -1.126127e+00 -1.120405e+00 2.415710e-01 -2.803402e-01 -1.854903e-01 -1.002738e+00 -2.978762e-01 -8.259013e-01 -2.990405e-01 -5.212471e-01 -2.199304e-01 -4.249454e-01 -1.649909e-01 -3.913132e-01 -3.143910e-01 -2.267906e-02 -1.202903e-02 -1.113961e-02 3.104455e-02 1.511174e-02 2.434601e-02 1.458695e-02 -2.440611e-02 -1.394390e-02 -1.748174e-03 -2.272142e-02 -6.585121e-04 6.290597e-03
<VARIANCE> 39
 3.046827e+00 5.649819e+00 6.078200e+00 2.031269e+01 1.297311e+01 1.994348e+01 1.502952e+01 1.887945e+01 1.666727e+01 1.784906e+01 1.516624e+01 1.584631e+01 1.815123e+00 1.420754e-01 2.244866e-01 3.106862e-01 5.688363e-01 6.359033e-01 6.798879e-01 6.960580e-01 7.975345e-01 7.530518e-01 7.977948e-01 6.660950e-01 6.761355e-01 5.868962e-02 1.976025e-02 3.887524e-02 4.780408e-02 1.315769e-01 9.896691e-02 1.425972e-01 1.237743e-01 1.477596e-01 1.342203e-01 1.459391e-01 1.184663e-01 1.205294e-01 1.077474e-02
<GCONST> 5.835321e+01
~h "f"
<BEGINHMM>
<NUMSTATES> 5
<STATE> 2
<NUMMIXES> 8
<MIXTURE> 1 1.723564e-01
<MEAN> 39
 2.131450e-01 3.763315e-01 4.475720e-03 -6.003127e-01 -1.339679e+00 -1.397478e+00 -1.448745e+00 -1.382950e+00 -1.295253e+00 -7.738025e-01 -2.212786e-01 8.697174e-04 7.533218e-02 1.008267e-01 1.695033e-01 1.972702e-01 2.769997e-01 2.862057e-01 2.362966e-01 1.807410e-01 1.315386e-01 1.386162e-01 1.647071e-01 1.550121e-01 8.722398e-02 4.906908e-02 -2.278161e-02 -2.362634e-02 3.500286e-02 1.397959e-01 2.363064e-01 2.475694e-01 2.427750e-01 2.239548e-01 2.027225e-01 1.278028e-01 5.463863e-02 1.525731e-02 -2.997070e-03
<VARIANCE> 39
 1.082527e+00 2.555696e+00 4.666235e+00 6.855290e+00 8.378141e+00 1.056842e+01 1.162062e+01 1.259466e+01 1.395604e+01 1.426171e+01 1.381396e+01 1.279442e+01 3.516366e-01 5.673300e-02 1.170270e-01 2.037866e-01 3.186438e-01 3.725626e-01 4.579650e-01 4.888808e-01 5.937890e-01 6.299697e-01 6.120896e-01 5.689747e-01 5.414422e-01 1.060153e-02 1.078864e-02 2.285540e-02 4.385946e-02 5.887359e-02 7.028216e-02 8.681008e-02 9.812722e-02 1.098114e-01 1.173890e-01 1.273191e-01 1.165845e-01 1.118009e-01 1.940154e-03
<GCONST> 3.893614e+01
<MIXTURE> 2 9.217212e-02
<MEAN> 39
 -1.140808e+00 -9.148458e-01 -5.056431e-01 -2.848960e+00 -1.304222e+00 -3.054350e+00 7.437677e-01 -1.520980e-01 1.109881e+00 -9.277509e-01 6.980228e-01 -4.240592e-01 -1.017185e+01 -1.624858e-01 -8.175611e-02 3.287460e-02 1.762582e-01 1.889784e-01 2.137184e-01 3.627586e-01 3.799104e-01 2.328551e-01 2.567091e-01 2.301544e-01 1.456042e-01 3.691536e-01 1.499285e-01 6.288013e-02 1.292857e-01 1.635904e-01 9.080530e-02 1.030600e-01 -6.953029e-02 -7.998099e-02 -9.260491e-02 5.590986e-03 -4.654102e-02 -2.178646e-02 4.218730e-01
<VARIANCE> 39
 1.214388e+01 9.764892e+00 7.156292e+00 1.179314e+01 1.146387e+01 1.587415e+01 1.310347e+01 1.672638e+01 1.457668e+01 1.612286e+01 1.347891e+01 1.224825e+01 9.131837e+01 4.587888e-01 4.450580e-01 4.598842e-01 5.416295e-01 5.826205e-01 7.028583e-01 7.455737e-01 9.760380e-01 8.890543e-01 8.118930e-01 6.857507e-01 6.879973e-01 1.187044e+00 9.698668e-02 8.973052e-02 7.440139e-02 1.303968e-01 1.158010e-01 1.473596e-01 1.307992e-01 1.586379e-01 1.596652e-01 1.396466e-01 1.155827e-01 1.069526e-01 3.255431e-01
<GCONST> 7.482324e+01
<MIXTURE> 3 2.540202e-02
<MEAN> 39
 5.169166e-02 -4.610634e-01 -1.008183e+00 -2.716553e+00 -1.965716e+00 -3.259732e+00 -1.993688e+00 -1.721780e+00 -1.388085e+00 -1.004073e+00 -3.298296e-01 -2.866891e-01 8.645073e-02 -3.361995e-02 1.467726e-02 6.433453e-02 3.010593e-01 2.064872e-01 3.174373e-01 2.058380e-01 1.080839e-01 -9.572725e-02 -1.023598e-01 1.529454e-02 1.012600e-01 8.696432e-02 -1.186375e-02 4.771858e-02 1.183842e-01 2.552295e-01 2.288807e-01 3.382110e-01 2.569243e-01 2.202301e-01 1.663972e-01 1.246473e-01 6.310086e-02 2.829901e-02 4.823988e-02
<VARIANCE> 39
 4.537645e+00 3.414526e+00 5.700318e+00 1.380923e+01 9.686090e+00 1.514309e+01 1.471119e+01 1.592909e+01 1.369735e+01 1.617642e+01 1.381592e+01 1.457861e+01 1.884113e+01 9.600437e-02 1.291098e-01 2.072046e-01 3.932455e-01 4.756702e-01 4.321204e-01 5.416887e-01 5.568160e-01 5.469828e-01 6.796470e-01 5.616077e-01 4.870473e-01 2.806296e-02 2.782371e-02 2.908866e-02 5.198467e-02 7.492781e-02 8.117346e-02 1.078433e-01 1.218946e-01 1.227937e-01 1.028215e-01 1.336331e-01 9.403288e-02 1.215725e-01 1.151134e-02
<GCONST> 5.250243e+01
<MIXTURE> 4 1.146380e-01
<MEAN> 39
 -2.208938e+00 -1.672256e+00 1.479106e+00 -2.747176e+00 -5.484948e-01 -3.601080e+00 1.831744e-01 -1.883402e+00 8.181897e-01 -1.346020e+00 1.182442e+00 -1.492373e+00 -5.432817e+00 -4.624640e-01 -4.363579e-01 -4.012407e-02 -3.928916e-01 -1.522328e-01 -4.687094e-01 5.530916e-03 -1.915306e-01 1.377396e-01 -1.058663e-01 1.781126e-01 -6.101163e-02 -3.448211e-03 1.399300e-01 8.381738e-02 -5.488423e-02 1.847197e-01 5.955937e-02 1.987951e-01 5.300321e-02 1.638367e-01 -1.960983e-02 6.653429e-02 -4.677328e-02 9.658517e-02 2.720108e-01
<VARIANCE> 39
 1.194131e+01 9.566887e+00 9.326991e+00 1.285730e+01 1.102822e+01 1.449353e+01 1.507754e+01 1.634430e+01 1.522713e+01 1.539432e+01 1.316287e+01 1.316444e+01 5.960529e+01 6.604577e-01 5.403124e-01 6.454635e-01 6.155971e-01 6.411582e-01 6.923999e-01 6.795148e-01 6.991181e-01 7.812047e-01 6.588294e-01 6.249232e-01 6.348403e-01 2.062162e+00 1.134605e-01 7.281742e-02 9.249844e-02 1.265447e-01 1.021980e-01 1.385966e-01 1.203127e-01 1.435042e-01 1.292771e-01 1.249574e-01 1.088967e-01 1.143682e-01 2.363154e-01
<GCONST> 7.459484e+01
<MIXTURE> 5 3.418769e-01
<MEAN> 39
 1.592835e-01 6.875402e-02 -3.079362e-01 -1.035783e+00 -2.014755e+00 -2.228045e+00 -2.099613e+00 -1.913596e+00 -1.684916e+00 -1.262681e+00 -7.693827e-01 -3.408988e-01 7.500628e-02 1.296232e-02 2.127730e-02 1.817400e-03 6.578251e-02 7.059545e-02 3.108279e-02 -5.357297e-02 -1.112325e-01 -1.497420e-01 -1.083657e-01 -7.120337e-02 -6.291172e-02 1.737756e-02 -3.507089e-02 -2.067422e-02 2.807727e-02 1.255075e-01 2.415413e-01 2.667425e-01 2.397465e-01 2.039732e-01 1.717246e-01 1.155876e-01 5.593107e-02 1.937422e-02 -1.008894e-02
<VARIANCE> 39
 1.054311e+00 2.338977e+00 4.712272e+00 6.328818e+00 8.487886e+00 9.691413e+00 1.152572e+01 1.327594e+01 1.419985e+01 1.434921e+01 1.394874e+01 1.272145e+01 3.516366e-01 5.683297e-02 1.155857e-01 2.087835e-01 3.161711e-01 3.803192e-01 4.842489e-01 5.086986e-01 5.666298e-01 5.865921e-01 6.224511e-01 5.907136e-01 5.672525e-01 9.779995e-03 1.077026e-02 2.195233e-02 4.318674e-02 5.586213e-02 6.840283e-02 8.004248e-02 9.087873e-02 1.086660e-01 1.177055e-01 1.191967e-01 1.152219e-01 1.038349e-01 1.896092e-03
<GCONST> 3.829596e+01
<MIXTURE> 6 1.461327e-01
<MEAN> 39
 -2.320102e-01 -3.447508e-01 -8.238935e-01 -2.769148e+00 -1.903078e+00 -2.919941e+00 3.563820e-01 -3.661467e-01 6.840291e-01 -9.490541e-01 6.515710e-01 -1.991348e-01 -1.383699e+01 -1.267097e-01 -1.742416e-01 3.948326e-02 -8.579511e-02 4.484321e-02 -1.279393e-01 5.806316e-02 -9.919162e-02 -8.127245e-02 -5.510633e-02 1.703876e-02 -6.704503e-02 4.327030e-01 5.760799e-02 -4.778882e-02 9.821388e-02 3.275331e-02 5.291321e-02 -1.954324e-02 -6.787354e-02 -1.413658e-01 -9.312807e-02 -8.071064e-02 -7.673020e-02 -9.451667e-02 3.544432e-01
<VARIANCE> 39
 1.108433e+01 9.619906e+00 6.693326e+00 9.898769e+00 1.095775e+01 1.339579e+01 1.390647e+01 1.485983e+01 1.460984e+01 1.469051e+01 1.229891e+01 1.190223e+01 7.049119e+01 3.935865e-01 4.157068e-01 4.052105e-01 4.636951e-01 5.502692e-01 5.665018e-01 6.571940e-01 7.646850e-01 7.760940e-01 6.697947e-01 6.148939e-01 5.498699e-01 1.024727e+00 7.649956e-02 8.785078e-02 6.951229e-02 1.024745e-01 1.062948e-01 1.190366e-01 1.244297e-01 1.352361e-01 1.397283e-01 1.185458e-01 1.098386e-01 1.033440e-01 1.961333e-01
<GCONST> 6.981120e+01
<MIXTURE> 7 8.496784e-02
<MEAN> 39
 -1.904298e+00 -1.944718e+00 1.791810e+00 -3.145346e+00 -9.786575e-01 -4.207973e+00 1.273895e-01 -2.151306e+00 8.241531e-01 -1.695844e+00 1.158508e+00 -2.128919e+00 -4.356765e+00 -7.799592e-01 -7.290056e-01 -2.201955e-01 -8.897350e-01 -5.304686e-01 -1.003165e+00 -2.127690e-01 -5.779724e-01 2.879593e-02 -4.304317e-01 1.068709e-01 -2.752714e-01 -5.705539e-01 4.966450e-02 3.983370e-02 -1.539901e-01 1.538344e-01 3.253078e-02 2.003529e-01 1.558899e-02 1.361952e-01 -7.947739e-02 5.195540e-02 -6.864475e-02 1.370993e-01 2.804112e-01
<VARIANCE> 39
 1.048956e+01 9.373894e+00 1.055608e+01 1.203648e+01 1.292006e+01 1.721343e+01 1.520430e+01 1.577833e+01 1.764914e+01 1.583779e+01 1.409961e+01 1.350106e+01 5.024595e+01 7.026249e-01 5.451536e-01 6.164526e-01 6.429795e-01 6.829291e-01 7.405238e-01 7.039660e-01 7.482005e-01 7.396061e-01 6.642830e-01 6.912537e-01 6.591391e-01 2.629219e+00 1.103545e-01 7.171065e-02 1.067700e-01 1.109800e-01 1.089343e-01 1.568269e-01 1.245830e-01 1.431687e-01 1.370142e-01 1.267515e-01 1.265184e-01 1.220536e-01 2.024188e-01
<GCONST> 7.586372e+01
<MIXTURE> 8 2.247638e-02
<MEAN> 39
 6.472216e-02 -5.515996e-01 -1.111828e+00 -3.727856e+00 -2.640839e+00 -4.077539e+00 -1.977513e+00 -1.852171e+00 -7.371384e-01 -2.190834e+00 -1.833936e-01 -1.003314e+00 -5.561613e+00 -9.544960e-02 -1.387361e-01 -1.410710e-01 -3.641421e-02 -7.087202e-02 -1.020182e-01 -1.366496e-01 -1.681181e-01 -2.437198e-01 -3.806888e-01 -2.282092e-01 -2.048934e-02 -1.093599e-02 2.859402e-03 1.402221e-02 8.594702e-02 1.766976e-01 1.822702e-01 2.280181e-01 1.803618e-01 1.459347e-01 1.010457e-01 1.096156e-01 1.568352e-02 3.646959e-02 3.058191e-02
<VARIANCE> 39
 4.190633e+00 5.131723e+00 6.034878e+00 1.613299e+01 1.113603e+01 1.199802e+01 1.149108e+01 1.245649e+01 1.408921e+01 1.891639e+01 1.144252e+01 1.228655e+01 8.755617e+01 7.438219e-02 1.163214e-01 1.896342e-01 3.340805e-01 4.292092e-01 3.863877e-01 5.585381e-01 4.773763e-01 5.011043e-01 6.595687e-01 5.289683e-01 4.920931e-01 2.728549e-02 2.067048e-02 2.918306e-02 4.708083e-02 7.898981e-02 7.226621e-02 8.841705e-02 9.142178e-02 9.060919e-02 1.017093e-01 1.149691e-01 1.017234e-01 8.936218e-02 1.122292e-02
<GCONST> 5.101105e+01
<STATE> 3
<NUMMIXES> 8
<MIXTURE> 1 8.545319e-02
<MEAN> 39
 7.598109e-01 -6.693130e-01 3.162868e-01 6.768821e-01 7.195906e-01 -5.762157e-01 6.541585e-01 6.234844e-01 3.176037e-01 4.895847e-01 5.282716e-01 1.880195e-01 3.891867e+00 1.459486e-01 6.115577e-01 -2.326312e-01 1.249333e+00 5.164710e-01 1.559443e+00 1.563580e-01 1.038256e+00 5.802737e-02 9.313396e-01 -2.103020e-02 7.298250e-01 2.321687e+00 -2.847939e-01 -1.872844e-02 -1.931901e-02 -1.045594e-01 -7.245947e-02 -2.974211e-02 5.590335e-03 -2.407149e-02 3.367040e-02 -2.923292e-02 3.707952e-02 1.392339e-02 -1.658824e-01
<VARIANCE> 39
 8.993090e+00 9.952608e+00 9.336540e+00 1.757929e+01 1.567566e+01 2.109283e+01 1.936684e+01 2.063806e+01 1.781678e+01 1.947289e+01 1.513178e+01 1.403768e+01 2.561433e+01 6.376592e-01 4.265871e-01 3.926339e-01 6.290115e-01 6.105006e-01 6.784174e-01 7.930481e-01 7.961922e-01 7.502424e-01 7.375885e-01 6.869937e-01 5.961424e-01 1.478552e+00 7.488451e-02 6.627058e-02 7.679529e-02 1.132472e-01 1.192107e-01 1.525957e-01 1.462011e-01 1.621312e-01 1.521164e-01 1.546421e-01 1.249068e-01 1.208094e-01 1.776194e-01
<GCONST> 7.490861e+01
<MIXTURE> 2 1.658622e-01
<MEAN> 39
 -2.887992e+00 -3.173271e+00 8.187179e-01 -3.895788e+00 -1.360581e+00 -5.257464e+00 4.668170e-01 -2.515107e+00 7.616723e-01 -2.388251e+00 1.201342e+00 -1.979491e+00 -3.931024e+00 4.432048e-01 2.266831e-01 -1.455804e-01 7.838622e-01 3.299973e-01 7.463603e-01 7.096885e-02 5.956395e-01 -4.675452e-02 4.560653e-01 -6.634039e-02 3.637002e-01 1.660766e+00 1.472577e-01 2.388388e-01 -2.756051e-02 3.114935e-01 1.256301e-01 3.855290e-01 -1.346579e-02 2.220760e-01 -5.595652e-02 1.895124e-01 -6.003533e-02 1.706994e-01 4.647200e-01
<VARIANCE> 39
 1.327442e+01 1.099638e+01 1.007146e+01 1.205818e+01 1.391682e+01 1.635112e+01 1.875263e+01 1.852245e+01 1.738008e+01 1.643206e+01 1.512284e+01 1.356312e+01 3.526746e+01 7.729011e-01 5.854803e-01 5.493404e-01 7.018417e-01 6.843602e-01 8.865970e-01 8.679125e-01 9.713931e-01 9.214370e-01 8.520267e-01 7.781587e-01 7.142837e-01 2.486030e+00 1.388108e-01 8.685418e-02 9.544202e-02 1.125562e-01 1.232134e-01 1.434518e-01 1.544361e-01 1.666985e-01 1.528725e-01 1.568834e-01 1.313249e-01 1.224454e-01 2.360293e-01
<GCONST> 7.899274e+01
<MIXTURE> 3 2.198741e-01
<MEAN> 39
 7.853673e-02 1.858252e-01 -4.557171e-02 -4.492930e-02 -5.286544e-01 -6.159125e-01 -6.911812e-01 -5.109017e-01 -6.104813e-01 -1.965404e-01 1.862295e-02 2.218020e-01 6.360806e-01 -7.417688e-02 5.004599e-02 1.065715e-01 4.218744e-01 5.086703e-01 5.982223e-01 4.578145e-01 4.131875e-01 3.117744e-01 2.855366e-01 1.224608e-01 9.415986e-02 1.684497e-01 -5.455319e-02 -4.535397e-02 1.557313e-03 1.989628e-02 9.692086e-02 1.169017e-01 1.557573e-01 1.453043e-01 1.525406e-01 8.544656e-02 4.233783e-02 1.528895e-03 -4.687624e-02
<VARIANCE> 39
 2.091008e+00 3.130764e+00 5.215302e+00 7.830364e+00 9.247789e+00 1.172999e+01 1.303582e+01 1.527926e+01 1.483779e+01 1.489578e+01 1.408741e+01 1.207365e+01 1.005463e+01 1.450015e-01 1.541155e-01 2.592447e-01 3.718944e-01 4.033221e-01 4.702999e-01 5.554760e-01 5.941159e-01 6.582364e-01 6.332866e-01 5.959565e-01 5.650340e-01 3.005038e-01 1.751743e-02 2.560006e-02 4.464488e-02 5.871149e-02 6.689879e-02 8.888363e-02 9.499136e-02 1.190872e-01 1.174245e-01 1.292716e-01 1.162695e-01 1.072446e-01 3.295577e-02
<GCONST> 5.276649e+01
<MIXTURE> 4 1.044961e-01
<MEAN> 39
 1.849243e+00 5.525097e-01 1.336146e+00 -1.153319e-01 -5.608172e-02 -1.661461e+00 4.794955e-02 -1.148635e+00 -8.181754e-01 -1.484847e+00 -5.044730e-01 -1.255457e+00 -6.665353e+00 -1.068785e-01 3.056829e-02 2.991043e-01 -1.342344e-01 1.296352e-02 -1.702224e-01 1.174774e-01 -5.033074e-02 7.814693e-02 -2.781798e-02 2.072681e-01 -7.909150e-02 2.841832e-01 -1.798339e-01 -1.226088e-01 -8.390389e-02 -1.149850e-01 -7.753493e-02 -5.335261e-02 2.702228e-02 2.036039e-02 1.027072e-01 5.323686e-02 9.037643e-02 5.300885e-02 4.818088e-02
<VARIANCE> 39
 1.740586e+01 1.688027e+01 2.049801e+01 2.283724e+01 2.306103e+01 2.745203e+01 2.608755e+01 2.753473e+01 2.513479e+01 2.343717e+01 2.168265e+01 1.802695e+01 8.677970e+01 1.073424e+00 9.576537e-01 1.178380e+00 1.120202e+00 1.049883e+00 1.302066e+00 1.238299e+00 1.329481e+00 1.203067e+00 1.079148e+00 1.078575e+00 8.536524e-01 4.419464e+00 1.645400e-01 1.618985e-01 2.070067e-01 2.191448e-01 2.011664e-01 2.245725e-01 2.445086e-01 2.635539e-01 2.198028e-01 2.016427e-01 1.966469e-01 1.707710e-01 4.492034e-01
<GCONST> 9.625963e+01
<MIXTURE> 5 8.953445e-02
<MEAN> 39
 -3.279070e-01 -8.549449e-02 -3.511197e-01 -2.468225e-01 -5.682344e-01 -5.797036e-01 -3.808869e-01 -2.752052e-01 -4.634578e-01 -4.130997e-01 -3.227913e-02 2.934104e-01 2.842512e-01 -1.591018e-01 1.914713e-02 2.361095e-02 1.688316e-01 1.781579e-01 2.412677e-01 6.980611e-02 3.799774e-02 -1.579502e-02 -4.735946e-02 -9.623708e-02 -2.141961e-02 5.349185e-01 -4.944501e-02 -7.597716e-02 3.331590e-02 -1.098825e-01 -1.479164e-02 -8.756970e-02 3.924489e-02 -4.359088e-02 5.612979e-02 -4.037112e-02 8.874240e-03 -9.784880e-02 -1.870952e-01
<VARIANCE> 39
 5.071801e+00 4.876754e+00 6.695902e+00 1.011604e+01 9.999547e+00 1.443512e+01 1.477151e+01 1.815775e+01 1.545583e+01 1.714826e+01 1.421250e+01 1.293370e+01 7.359058e+01 3.738884e-01 2.623348e-01 4.401532e-01 4.792720e-01 5.288045e-01 6.921639e-01 7.047342e-01 7.822415e-01 7.245787e-01 7.337727e-01 6.509206e-01 5.911117e-01 1.377748e+00 5.149807e-02 4.395578e-02 6.239755e-02 9.023442e-02 9.121034e-02 1.323996e-01 1.250168e-01 1.591409e-01 1.375561e-01 1.463015e-01 1.207228e-01 1.029781e-01 2.554581e-01
<GCONST> 6.875018e+01
<MIXTURE> 6 1.582155e-01
<MEAN> 39
 -2.305216e+00 -2.992288e+00 6.209971e-01 -4.164756e+00 -2.009521e+00 -4.974681e+00 1.145790e-01 -2.948868e+00 5.574459e-01 -2.305280e+00 8.168008e-01 -1.919338e+00 -6.135681e+00 -1.263374e-01 -2.071610e-01 -1.934832e-01 6.952643e-02 -1.973370e-02 -3.808452e-02 -4.489406e-02 1.153811e-02 -6.080961e-02 -3.478178e-02 -6.659329e-02 3.052460e-03 6.919210e-01 2.131439e-01 1.974944e-01 3.654238e-03 2.437114e-01 1.104563e-01 2.355379e-01 -3.009424e-02 1.429012e-01 -7.137430e-02 8.876288e-02 -6.932550e-02 8.320303e-02 2.443960e-01
<VARIANCE> 39
 1.672145e+01 1.316739e+01 1.132674e+01 1.406888e+01 1.569707e+01 1.853593e+01 2.064662e+01 2.195376e+01 2.074710e+01 1.950608e+01 1.862850e+01 1.685797e+01 3.890277e+01 9.504111e-01 7.308553e-01 6.422769e-01 7.739946e-01 7.469414e-01 8.671157e-01 8.738007e-01 1.022678e+00 9.049023e-01 8.864778e-01 8.423444e-01 6.717718e-01 2.562210e+00 1.370580e-01 1.050994e-01 1.075221e-01 1.460799e-01 1.363484e-01 1.739964e-01 1.752818e-01 1.948650e-01 1.688323e-01 1.688021e-01 1.584171e-01 1.429513e-01 3.760249e-01
<GCONST> 8.405138e+01
<MIXTURE> 7 1.150259e-01
<MEAN> 39
 2.384913e-01 -3.437450e-01 -7.110238e-03 8.957494e-01 4.526738e-01 -2.188762e-01 1.471600e-01 7.508260e-01 -2.457315e-01 2.367458e-01 -2.682887e-03 1.877712e-01 4.995198e+00 4.323598e-02 4.394130e-01 -3.405539e-01 9.129637e-01 2.854971e-01 1.125197e+00 -8.113611e-02 6.439329e-01 -1.750132e-01 5.217213e-01 -2.251167e-01 5.086046e-01 2.212439e+00 -2.586884e-01 -8.557195e-02 -9.039596e-03 -1.855302e-01 -8.882040e-02 -1.310431e-01 4.672464e-03 -1.090716e-01 4.170581e-02 -8.512516e-02 4.085488e-02 -5.336737e-02 -3.025692e-01
<VARIANCE> 39
 7.990368e+00 8.784510e+00 9.045647e+00 1.524407e+01 1.447486e+01 2.104324e+01 1.665189e+01 2.001447e+01 1.827637e+01 1.815252e+01 1.469369e+01 1.362858e+01 2.879695e+01 6.931626e-01 4.139029e-01 4.093308e-01 5.740427e-01 5.792579e-01 6.606184e-01 7.287839e-01 7.567528e-01 7.264413e-01 7.792698e-01 6.499159e-01 6.019296e-01 1.735288e+00 7.790409e-02 6.927809e-02 7.350379e-02 1.125883e-01 1.144977e-01 1.591545e-01 1.331741e-01 1.646627e-01 1.497488e-01 1.568299e-01 1.247027e-01 1.137179e-01 1.889063e-01
<GCONST> 7.412309e+01
<MIXTURE> 8 6.154516e-02
<MEAN> 39
 1.316717e+00 2.952801e-01 1.962182e+00 -1.744734e+00 -8.980604e-01 -2.344882e+00 9.767115e-03 -1.926554e+00 -9.737004e-01 -1.838739e+00 -2.402621e-01 -1.440104e+00 -5.902229e+00 -1.966986e-01 -4.015143e-01 8.908938e-02 -7.950788e-01 -3.922044e-01 -8.176579e-01 -2.583699e-01 -7.251807e-01 -9.858198e-02 -4.793237e-01 -1.513202e-02 -4.228023e-01 5.316658e-02 -1.501352e-01 -1.118210e-01 -1.620576e-01 -6.662458e-03 -4.268319e-02 -4.497398e-02 -2.437873e-02 3.372663e-02 7.794960e-02 1.697126e-02 1.854679e-02 2.088194e-02 1.344708e-02
<VARIANCE> 39
 1.615396e+01 1.704492e+01 2.312017e+01 2.504617e+01 2.289248e+01 2.591247e+01 2.322252e+01 2.548570e+01 2.415652e+01 2.501941e+01 2.195977e+01 1.902542e+01 7.116584e+01 1.018005e+00 8.392689e-01 9.394625e-01 1.238234e+00 1.005600e+00 1.175727e+00 1.125782e+00 1.183650e+00 1.201572e+00 1.151225e+00 9.706982e-01 9.005222e-01 4.517313e+00 1.449714e-01 1.523623e-01 2.035671e-01 2.208748e-01 1.884625e-01 2.179678e-01 1.987867e-01 2.341187e-01 2.043302e-01 2.187869e-01 1.915627e-01 1.561718e-01 3.677256e-01
<GCONST> 9.448412e+01
<STATE> 4
<NUMMIXES> 8
<MIXTURE> 1 7.054847e-02
<MEAN> 39
 -2.704921e-01 -1.294073e-01 1.764874e-01 1.024497e+00 1.366578e+00 1.192173e+00 1.194166e+00 1.234695e+00 6.056550e-01 6.419293e-01 6.631472e-01 3.804383e-01 2.159809e-02 1.720318e-04 1.046897e-01 2.874646e-01 4.750507e-01 6.676077e-01 7.512919e-01 6.995643e-01 6.561577e-01 6.735984e-01 5.014355e-01 3.090381e-01 1.596842e-01 3.044867e-02 1.672197e-02 1.721154e-02 2.689432e-03 -6.420339e-02 -1.042259e-01 -9.469701e-02 -8.188773e-02 -5.629781e-02 -9.666599e-03 -3.252773e-02 -2.422556e-02 -2.093883e-02 3.657152e-04
<VARIANCE> 39
 1.195352e+00 2.492586e+00 4.590119e+00 6.798952e+00 8.159734e+00 9.764369e+00 1.160765e+01 1.439715e+01 1.395353e+01 1.454795e+01 1.486867e+01 1.476343e+01 3.516366e-01 6.581391e-02 1.071444e-01 2.127814e-01 2.982076e-01 4.042871e-01 4.613268e-01 5.095627e-01 6.310930e-01 6.340084e-01 7.072216e-01 6.099697e-01 5.380725e-01 1.350989e-02 1.074138e-02 2.186437e-02 3.836133e-02 5.389849e-02 6.349768e-02 7.148843e-02 8.854982e-02 1.092418e-01 1.111348e-01 1.140150e-01 1.169318e-01 1.186451e-01 1.915828e-03
<GCONST> 3.914433e+01
<MIXTURE> 2 7.095749e-02
<MEAN> 39
 -2.068230e+00 4.106731e-01 8.566587e-02 3.530561e+00 2.123510e+00 2.899960e+00 8.721668e-01 2.534077e+00 4.346853e-01 1.649552e+00 3.597118e-01 1.621980e+00 8.045364e+00 -5.304845e-01 1.138820e-01 -4.873465e-02 5.982723e-01 3.421251e-01 7.162412e-01 3.691987e-01 6.668458e-01 3.452258e-01 4.636135e-01 2.100016e-01 3.485758e-01 6.270004e-01 2.741078e-02 -1.103226e-01 -1.564066e-02 -3.261998e-01 -1.736399e-01 -3.103963e-01 -2.425595e-02 -1.773632e-01 1.666407e-02 -1.014897e-01 4.365748e-02 -1.054080e-01 -3.603514e-01
<VARIANCE> 39
 2.644140e+00 3.346994e+00 4.519072e+00 8.559402e+00 9.654666e+00 1.171559e+01 1.472414e+01 1.560528e+01 1.650356e+01 1.652363e+01 1.606985e+01 1.208972e+01 2.526556e+01 2.025510e-01 2.313314e-01 2.705081e-01 5.868296e-01 4.521517e-01 7.038103e-01 6.797289e-01 7.999446e-01 7.173053e-01 6.905445e-01 6.185347e-01 5.432200e-01 2.327833e-01 4.863437e-02 4.067761e-02 4.701353e-02 7.976594e-02 8.542808e-02 1.055768e-01 1.368777e-01 1.388729e-01 1.379919e-01 1.591528e-01 1.337504e-01 1.055138e-01 5.991098e-02
<GCONST> 6.050252e+01
<MIXTURE> 3 2.357217e-01
<MEAN> 39
 3.743063e-01 5.415618e-01 5.122052e-01 7.343017e-01 7.263700e-01 5.299470e-01 1.280030e-01 -3.589173e-02 -9.105511e-02 -5.320731e-02 -5.270778e-02 -1.209463e-01 2.141360e-01 -9.674174e-02 -8.302987e-02 4.186466e-02 2.378814e-01 4.971986e-01 5.855542e-01 6.022717e-01 5.753843e-01 5.256217e-01 3.785896e-01 1.952086e-01 8.721416e-02 -1.898645e-02 -3.825071e-02 -4.049870e-02 -3.190695e-02 -5.197196e-02 -5.389563e-02 -3.942214e-02 2.826821e-03 2.596782e-02 3.994165e-02 4.055326e-02 3.901440e-02 3.341699e-02 -1.556460e-02
<VARIANCE> 39
 9.893530e-01 2.057473e+00 4.007020e+00 6.262770e+00 7.582190e+00 9.359264e+00 1.063177e+01 1.232556e+01 1.299803e+01 1.311562e+01 1.230192e+01 1.303958e+01 3.516366e-01 5.078373e-02 9.606222e-02 1.874136e-01 2.712207e-01 3.390098e-01 4.342977e-01 4.851606e-01 5.461718e-01 5.964205e-01 6.474211e-01 5.964549e-01 5.636265e-01 9.405288e-03 8.544780e-03 1.898744e-02 3.833164e-02 5.022598e-02 5.600220e-02 6.794320e-02 8.312121e-02 9.964664e-02 1.030751e-01 1.098585e-01 1.048542e-01 1.030320e-01 1.680319e-03
<GCONST> 3.492366e+01
<MIXTURE> 4 1.105252e-01
<MEAN> 39
 -2.412406e+00 -3.273953e-01 -1.435426e+00 1.498644e+00 4.731146e-01 2.116184e+00 8.217276e-01 2.788833e+00 6.102847e-01 2.104812e+00 8.800243e-01 2.087724e+00 1.054540e+01 -5.911598e-01 4.187959e-03 -3.035291e-01 8.358505e-02 -4.737235e-02 3.603713e-01 7.368939e-03 3.064004e-01 1.187450e-01 3.152212e-01 1.254435e-01 2.697984e-01 8.272334e-01 4.512009e-02 -7.607237e-02 1.420796e-01 -1.389672e-01 -6.193159e-03 -2.733589e-01 1.381440e-02 -1.867605e-01 2.713205e-02 -1.605541e-01 7.190980e-03 -1.806664e-01 -5.637118e-01
<VARIANCE> 39
 1.792430e+00 2.919457e+00 4.095887e+00 6.443697e+00 9.054403e+00 1.175552e+01 1.304706e+01 1.579117e+01 1.519248e+01 1.486635e+01 1.329985e+01 1.216111e+01 1.142267e+01 2.095483e-01 2.351221e-01 2.980231e-01 4.147917e-01 5.197756e-01 6.465263e-01 6.385871e-01 7.788094e-01 7.652250e-01 7.482341e-01 6.750405e-01 6.108174e-01 3.604154e-01 5.156690e-02 4.439693e-02 4.796503e-02 7.371619e-02 9.060922e-02 1.099877e-01 1.174415e-01 1.270528e-01 1.293773e-01 1.225398e-01 1.182589e-01 1.120164e-01 6.711429e-02
<GCONST> 5.848076e+01
<MIXTURE> 5 2.057417e-01
<MEAN> 39
 3.034990e-01 4.276740e-01 3.596001e-01 4.117236e-01 1.312083e-01 -1.251009e-01 -5.322536e-01 -7.428343e-01 -5.528343e-01 -5.321922e-01 -5.638766e-01 -2.996606e-01 2.065547e-01 -1.730846e-01 -1.844977e-01 -9.168060e-02 1.372326e-01 3.786853e-01 4.297171e-01 3.846051e-01 3.678450e-01 2.644615e-01 1.031448e-01 -3.424771e-02 -8.431166e-02 -4.752928e-02 -5.307746e-02 -6.673123e-02 -6.604417e-02 -8.033597e-02 -5.989965e-02 -3.614775e-02 9.534767e-03 4.272868e-02 3.111841e-02 2.235642e-02 2.538301e-02 1.920250e-02 -2.342320e-02
<VARIANCE> 39
 9.598179e-01 2.312184e+00 4.360196e+00 6.039611e+00 8.050193e+00 9.669716e+00 1.119104e+01 1.270326e+01 1.298946e+01 1.382004e+01 1.309137e+01 1.238784e+01 3.516366e-01 4.812125e-02 9.338561e-02 1.966161e-01 2.777434e-01 3.134384e-01 4.065468e-01 4.734098e-01 5.480701e-01 5.790646e-01 6.352590e-01 5.804008e-01 5.471369e-01 8.782731e-03 8.636204e-03 2.023034e-02 3.735788e-02 4.980728e-02 5.497244e-02 6.918255e-02 8.480982e-02 9.328023e-02 1.032816e-01 1.106473e-01 1.114236e-01 1.022299e-01 1.804539e-03
<GCONST> 3.507191e+01
<MIXTURE> 6 1.454656e-01
<MEAN> 39
 -2.697175e-01 -2.120735e-01 4.643231e-02 6.555082e-01 9.804083e-01 7.031339e-01 2.331023e-01 3.077193e-01 2.051476e-01 3.315621e-01 3.339164e-01 3.592660e-01 8.657902e-03 -8.041789e-02 5.728849e-03 1.629052e-01 3.472836e-01 5.554061e-01 6.180990e-01 5.297249e-01 4.341789e-01 4.355224e-01 2.893314e-01 6.926250e-02 -3.937001e-02 -7.541850e-03 -4.394243e-03 -1.262337e-02 -3.280399e-02 -9.146500e-02 -1.288335e-01 -9.954906e-02 -4.991836e-02 -4.405631e-02 -3.144620e-02 -5.734325e-02 -5.582375e-02 -4.808700e-02 -6.660162e-03
<VARIANCE> 39
 1.102820e+00 2.461900e+00 4.406776e+00 7.026094e+00 8.661441e+00 1.050489e+01 1.237657e+01 1.476654e+01 1.423472e+01 1.510398e+01 1.420749e+01 1.362057e+01 3.516366e-01 6.050949e-02 1.089828e-01 1.980845e-01 2.788752e-01 3.731330e-01 4.393424e-01 4.989359e-01 5.997226e-01 6.089064e-01 6.598223e-01 5.930882e-01 5.494124e-01 1.150280e-02 1.003669e-02 2.159694e-02 4.005757e-02 5.735634e-02 6.367022e-02 7.849248e-02 9.372348e-02 1.101198e-01 1.123429e-01 1.144264e-01 1.135721e-01 1.070375e-01 1.975258e-03
<GCONST> 3.861173e+01
<MIXTURE> 7 9.088114e-02
<MEAN> 39
 -2.232550e+00 1.223787e-01 -1.479144e-01 2.647316e+00 1.263178e+00 2.085577e+00 2.856632e-01 1.941732e+00 2.260011e-01 1.197850e+00 -1.547542e-01 8.610082e-01 7.910494e+00 -5.920352e-01 1.527421e-02 -9.287937e-02 3.056987e-01 1.025911e-01 3.399243e-01 5.977199e-02 2.712756e-01 7.770291e-02 1.720356e-01 2.282538e-02 1.155818e-01 5.482434e-01 7.021108e-02 -1.303585e-01 -3.098229e-02 -3.304044e-01 -1.469720e-01 -3.313426e-01 -2.629771e-02 -2.128298e-01 -4.423170e-02 -1.524712e-01 2.812555e-02 -1.058798e-01 -3.951817e-01
<VARIANCE> 39
 2.133452e+00 2.839376e+00 4.646936e+00 7.567703e+00 9.028293e+00 1.271764e+01 1.513070e+01 1.600455e+01 1.533853e+01 1.496674e+01 1.500858e+01 1.273934e+01 1.827738e+01 1.694682e-01 2.092781e-01 2.660754e-01 5.166621e-01 4.813026e-01 6.714467e-01 6.464102e-01 7.582144e-01 7.630306e-01 6.836081e-01 6.656493e-01 5.733883e-01 1.650983e-01 5.052851e-02 3.817843e-02 4.567370e-02 7.675878e-02 8.714939e-02 1.228500e-01 1.433885e-01 1.474786e-01 1.323920e-01 1.398985e-01 1.331086e-01 1.106352e-01 4.957821e-02
<GCONST> 5.877698e+01
<MIXTURE> 8 7.017814e-02
<MEAN> 39
 -2.532381e+00 -6.032113e-01 -1.678622e+00 1.067021e+00 1.122379e-01 1.936567e+00 6.438820e-01 1.871697e+00 -2.446362e-01 1.485230e+00 2.103251e-01 1.334613e+00 9.576706e+00 -6.650254e-01 -8.451661e-02 -3.875875e-01 -1.408307e-01 -3.039746e-01 1.163819e-01 -2.083219e-01 -5.530721e-02 -2.048349e-01 -7.791343e-02 -1.225623e-01 9.729832e-02 7.895552e-01 7.400991e-02 -1.141017e-01 1.326395e-01 -1.594528e-01 -2.696583e-02 -3.461632e-01 -2.160476e-02 -2.246315e-01 -1.026865e-02 -2.089655e-01 1.912431e-02 -1.840792e-01 -5.645616e-01
<VARIANCE> 39
 1.685324e+00 3.421221e+00 4.561645e+00 8.020156e+00 9.490250e+00 1.157931e+01 1.375719e+01 1.580010e+01 1.455972e+01 1.496225e+01 1.149416e+01 1.304895e+01 7.118358e+00 1.994352e-01 2.144353e-01 3.226817e-01 3.952766e-01 4.996450e-01 6.469179e-01 6.356712e-01 6.916480e-01 7.590788e-01 7.592378e-01 5.998530e-01 7.123916e-01 2.928919e-01 4.866705e-02 4.638352e-02 5.042788e-02 7.820105e-02 9.487014e-02 1.163815e-01 1.273961e-01 1.283360e-01 1.339305e-01 1.312917e-01 1.045625e-01 1.195419e-01 5.417710e-02
<GCONST> 5.808797e+01
<TRANSP> 5
 0.000000e+00 1.000000e+00 0.000000e+00 0.000000e+00 0.000000e+00
 0.000000e+00 5.579790e-01 4.420209e-01 0.000000e+00 0.000000e+00
 0.000000e+00 0.000000e+00 7.269822e-01 2.730179e-01 0.000000e+00
 0.000000e+00 0.000000e+00 0.000000e+00 4.343941e-01 5.656059e-01
 0.000000e+00 0.000000e+00 0.000000e+00 0.000000e+00 0.000000e+00
<ENDHMM>
~h "k"
<BEGINHMM>
<NUMSTATES> 5
<STATE> 2
<NUMMIXES> 8
<MIXTURE> 1 9.433144e-02
<MEAN> 39
 1.581808e+00 1.435127e+00 5.692574e-01 -7.755054e-01 -1.659943e+00 -1.201119e+00 1.089626e-01 4.707478e-01 5.425435e-01 4.663225e-01 4.896663e-01 1.103398e+00 -1.497841e+01 -1.265565e+00 -1.022177e+00 -6.014524e-01 6.820359e-01 3.923590e-01 1.085725e+00 1.025643e+00 6.028252e-01 2.303268e-01 4.615156e-01 -2.662744e-03 3.472855e-01 2.212347e+00 -1.338916e-01 -4.541001e-02 1.270123e-01 -2.517635e-04 1.371940e-02 1.851131e-01 1.087631e-02 1.804022e-02 4.342694e-02 5.540036e-02 -1.106195e-02 -7.013021e-02 1.587902e+00
<VARIANCE> 39
 7.979358e+00 9.013559e+00 1.174819e+01 1.575314e+01 1.792854e+01 2.338096e+01 1.657482e+01 1.953049e+01 1.814449e+01 2.079529e+01 1.567925e+01 1.342448e+01 6.015241e+01 7.866733e-01 7.555935e-01 1.126179e+00 1.342479e+00 1.531019e+00 1.571514e+00 1.293849e+00 1.245983e+00 1.682086e+00 1.725619e+00 1.182431e+00 8.247790e-01 6.561064e+00 1.215005e-01 1.252396e-01 1.794382e-01 2.259111e-01 2.474876e-01 2.525579e-01 1.978926e-01 2.141612e-01 1.844090e-01 2.193090e-01 1.579248e-01 1.172695e-01 7.912918e-01
<GCONST> 9.178614e+01
<MIXTURE> 2 1.094361e-01
<MEAN> 39
 -9.652913e-01 -1.988159e-02 4.854999e-01 2.074354e+00 5.459450e-01 2.146216e+00 1.205739e+00 1.929802e+00 1.546170e-01 1.527245e+00 6.232097e-01 1.630945e+00 7.330163e+00 -2.170896e-01 1.110681e-01 3.350495e-01 -2.913603e-01 -2.120109e-01 2.356775e-01 2.557354e-02 -5.203857e-02 3.659097e-01 1.835426e-01 1.527946e-01 -1.170156e-01 5.980119e-01 4.670969e-03 5.843386e-02 7.963287e-03 -2.338060e-01 -1.454695e-01 -1.491615e-01 -9.313087e-02 -1.396908e-01 1.067740e-01 -5.971354e-02 1.765485e-02 -9.886412e-02 -6.886303e-01
<VARIANCE> 39
 9.262331e+00 8.221758e+00 1.086720e+01 1.706229e+01 1.844515e+01 2.291801e+01 2.534459e+01 2.417081e+01 2.398688e+01 2.007259e+01 1.695916e+01 1.654331e+01 2.381082e+01 2.156834e+00 1.330639e+00 1.386785e+00 1.196275e+00 1.331751e+00 1.891529e+00 1.248090e+00 1.212400e+00 1.309024e+00 1.250381e+00 9.917792e-01 7.968594e-01 1.414271e+01 1.656116e-01 1.619625e-01 1.614335e-01 1.896885e-01 1.853613e-01 2.330871e-01 2.489931e-01 2.339849e-01 2.249305e-01 2.212128e-01 1.681906e-01 1.642399e-01 3.970540e-01
<GCONST> 9.388348e+01
<MIXTURE> 3 1.552751e-01
<MEAN> 39
 -3.933992e-01 2.384150e-01 3.683213e-01 6.073773e-01 2.412270e-01 8.029370e-01 7.097887e-01 8.073119e-01 6.445165e-01 4.372194e-01 1.096193e-01 6.236274e-02 9.717067e-01 1.198102e-01 9.728015e-02 -4.904081e-02 -3.728249e-01 -5.080796e-01 -6.420600e-01 -5.756617e-01 -4.289034e-01 -2.396044e-01 -2.415885e-01 -1.652489e-01 -1.964622e-01 -1.975717e-02 6.803825e-03 -2.440943e-02 -3.577042e-02 -5.363631e-02 -3.061280e-02 -7.305662e-02 -5.299834e-02 -4.574248e-02 -2.097693e-02 -2.287699e-03 3.430349e-02 4.234725e-02 -7.899867e-02
<VARIANCE> 39
 2.569784e+00 3.518665e+00 5.888736e+00 9.454350e+00 1.018693e+01 1.180415e+01 1.322849e+01 1.510953e+01 1.491151e+01 1.622865e+01 1.508383e+01 1.461071e+01 7.507812e+00 1.962833e-01 1.606652e-01 2.712864e-01 4.618820e-01 4.471838e-01 5.834579e-01 6.351175e-01 6.731327e-01 7.266703e-01 6.440206e-01 5.784272e-01 6.966371e-01 3.649942e-01 2.230404e-02 3.274184e-02 5.385619e-02 7.444404e-02 7.718784e-02 8.771437e-02 9.612756e-02 1.209453e-01 1.262802e-01 1.328581e-01 1.314236e-01 1.272899e-01 8.603243e-02
<GCONST> 5.766074e+01
<MIXTURE> 4 1.384999e-01
<MEAN> 39
 7.064576e+00 6.442369e+00 6.558585e+00 -2.050695e+00 -2.710604e+00 -3.787522e+00 -4.749115e+00 -1.351480e+00 7.236931e-02 -1.613483e-01 1.133342e+00 -5.104586e-01 -8.737913e+00 3.481913e-02 -2.534716e-02 2.200104e-01 -3.540860e-01 -4.819693e-01 -3.532821e-01 9.564411e-02 -1.561669e-01 3.861747e-01 6.994644e-02 2.437553e-01 6.061266e-02 -3.303154e+00 -8.069635e-01 -6.473384e-01 -5.997820e-01 2.501386e-01 1.813155e-01 4.863880e-01 5.074911e-01 2.714097e-01 7.230593e-02 1.584332e-01 -7.826144e-02 1.642552e-01 1.216255e+00
<VARIANCE> 39
 1.931390e+01 2.116425e+01 2.916955e+01 3.167397e+01 3.477271e+01 3.578984e+01 2.544476e+01 2.948847e+01 3.737606e+01 3.692371e+01 3.062602e+01 1.961824e+01 6.447630e+01 1.164444e+00 9.966099e-01 1.133440e+00 1.186230e+00 1.257046e+00 1.333627e+00 1.131442e+00 1.094709e+00 1.088065e+00 1.065195e+00 8.984429e-01 7.360122e-01 5.807931e+00 1.497837e-01 1.627508e-01 1.974533e-01 2.748259e-01 3.327069e-01 3.042601e-01 2.104965e-01 2.574828e-01 3.450992e-01 3.513138e-01 2.683996e-01 1.866996e-01 8.779677e-01
<GCONST> 1.016621e+02
<MIXTURE> 5 1.413563e-01
<MEAN> 39
 -1.362476e+00 -6.040112e-01 6.094513e-01 1.411099e+00 -1.698377e+00 1.741588e+00 1.201114e+00 1.441392e+00 7.003322e-01 1.804050e+00 2.831469e-02 7.333701e-01 6.367709e+00 -5.088767e-01 -1.851555e-01 2.064813e-01 -8.467778e-01 -4.800419e-01 6.515169e-02 2.117902e-03 -5.570088e-01 2.021391e-01 -2.855999e-01 -1.428099e-01 -5.320266e-01 1.000022e+00 9.003928e-02 1.147599e-01 -1.604554e-02 -3.006833e-01 -5.225924e-02 -2.597834e-01 -1.885557e-01 -2.099765e-01 3.685174e-02 -1.848933e-01 1.821161e-02 -8.680517e-02 -9.536150e-01
<VARIANCE> 39
 8.560971e+00 9.043954e+00 1.181193e+01 2.105693e+01 2.547599e+01 2.267279e+01 2.457907e+01 2.468896e+01 2.231801e+01 2.162583e+01 1.813225e+01 1.744633e+01 2.370141e+01 1.702116e+00 1.033256e+00 1.012534e+00 1.279879e+00 1.311569e+00 1.712777e+00 1.241761e+00 1.172214e+00 1.195438e+00 1.314716e+00 9.849372e-01 8.803758e-01 1.031396e+01 1.318838e-01 1.422835e-01 1.597465e-01 2.375937e-01 2.319374e-01 2.557940e-01 2.423529e-01 2.401467e-01 2.262212e-01 2.503117e-01 1.812692e-01 1.667843e-01 4.418749e-01
<GCONST> 9.396078e+01
<MIXTURE> 6 1.018225e-01
<MEAN> 39
 5.946908e+00 4.028377e+00 4.933869e+00 -3.351793e+00 -4.036849e+00 -4.161795e+00 -3.472634e+00 -9.770319e-01 1.726412e-01 1.655731e-01 1.096490e+00 -8.555957e-01 -6.752246e+00 2.934710e-01 1.104144e-01 3.825797e-01 -6.855731e-01 -6.820333e-01 -6.399971e-01 -2.204427e-01 -6.916710e-01 -7.021030e-02 -4.125106e-01 -2.572807e-02 -3.155801e-01 -3.434719e+00 -6.501314e-01 -4.064052e-01 -4.348511e-01 3.137219e-01 2.987511e-01 4.530319e-01 3.474893e-01 1.509294e-01 2.766683e-02 5.734438e-02 -1.051730e-01 1.182279e-01 7.414182e-01
<VARIANCE> 39
 2.240859e+01 3.823858e+01 3.117510e+01 3.899313e+01 4.058096e+01 3.726638e+01 3.720226e+01 3.694776e+01 4.078661e+01 3.608728e+01 3.320014e+01 2.167992e+01 6.888295e+01 1.552962e+00 1.231403e+00 9.832122e-01 1.190780e+00 1.221795e+00 1.711789e+00 1.375008e+00 1.189434e+00 1.138892e+00 1.086344e+00 1.052347e+00 8.573811e-01 7.564675e+00 1.900995e-01 2.917831e-01 2.309449e-01 3.166536e-01 3.471727e-01 3.098645e-01 3.120317e-01 3.123587e-01 3.465489e-01 3.413599e-01 2.779907e-01 1.894854e-01 9.770508e-01
<GCONST> 1.071890e+02
<MIXTURE> 7 1.190201e-01
<MEAN> 39
 -1.768010e-01 2.616685e-01 5.202861e-01 2.858847e-01 -2.912428e-01 2.400111e-01 3.434708e-01 1.782510e-01 1.719765e-01 -1.151206e-01 -4.773510e-01 -3.743549e-01 4.682689e-01 1.450727e-01 -1.975834e-03 -1.211210e-01 -6.651128e-01 -6.141227e-01 -8.643674e-01 -7.006842e-01 -6.998619e-01 -5.066459e-01 -5.440869e-01 -3.617418e-01 -3.932776e-01 -1.056420e-01 6.013336e-03 -4.058398e-02 -6.832720e-02 -7.468220e-02 -2.353431e-02 -8.353299e-02 -8.553889e-02 -6.443398e-02 -3.963713e-02 -2.897637e-02 3.800570e-02 3.920969e-02 -8.570781e-02
<VARIANCE> 39
 2.593942e+00 3.692468e+00 6.053052e+00 1.033793e+01 1.169253e+01 1.331731e+01 1.422772e+01 1.431936e+01 1.508640e+01 1.745146e+01 1.552991e+01 1.435405e+01 3.306161e+00 2.229681e-01 2.018406e-01 2.835097e-01 6.826697e-01 4.462112e-01 5.831667e-01 6.454175e-01 6.360922e-01 8.012579e-01 7.389962e-01 6.337261e-01 7.252753e-01 2.773442e-01 1.939981e-02 2.969171e-02 4.784309e-02 7.930984e-02 8.035992e-02 9.296682e-02 9.778160e-02 1.194493e-01 1.281803e-01 1.453086e-01 1.295531e-01 1.181770e-01 1.144675e-01
<GCONST> 5.833990e+01
<MIXTURE> 8 1.402519e-01
<MEAN> 39
 1.269664e+00 1.488984e-03 9.221078e-01 -1.091331e+00 -2.518071e+00 -1.816083e+00 6.472304e-02 1.234533e-01 7.949829e-01 4.486535e-01 7.343922e-01 5.765115e-01 -1.298673e+01 -1.186583e+00 -1.152499e+00 -6.857921e-01 3.161928e-01 -7.093251e-02 6.125609e-01 8.024680e-01 2.132614e-02 1.166968e-02 1.015995e-01 -2.516273e-01 -1.390120e-02 1.757795e+00 -1.156899e-01 7.045637e-02 9.484473e-02 -4.070110e-02 6.070121e-02 1.633299e-01 -4.350797e-02 -2.104729e-02 -2.931545e-02 -1.392500e-02 -6.019739e-02 -1.017393e-01 1.273334e+00
<VARIANCE> 39
 1.195137e+01 2.048594e+01 1.587810e+01 1.647596e+01 1.764547e+01 2.344888e+01 1.913199e+01 1.918920e+01 1.685465e+01 1.781469e+01 1.390768e+01 1.303614e+01 7.750424e+01 1.212840e+00 1.105376e+00 1.309658e+00 1.477451e+00 1.554911e+00 1.620600e+00 1.308362e+00 1.192277e+00 1.446747e+00 1.348894e+00 1.090526e+00 9.248658e-01 6.656865e+00 1.710175e-01 2.196230e-01 2.082952e-01 2.496930e-01 2.327381e-01 2.709403e-01 2.113384e-01 2.028292e-01 1.841210e-01 2.014584e-01 1.450056e-01 1.412058e-01 9.158160e-01
<GCONST> 9.540335e+01
<STATE> 3
<NUMMIXES> 8
<MIXTURE> 1 5.969893e-02
<MEAN> 39
 -4.569835e+00 -1.288383e-02 -1.042456e+00 1.029315e+00 -2.942408e-01 1.754102e+00 4.613656e-01 4.978159e-01 1.211759e+00 1.267662e+00 5.179470e-01 -2.949829e-01 4.566210e+00 7.495804e-02 8.230990e-02 -8.547270e-02 1.696859e-01 1.947806e-01 5.919748e-02 7.467788e-02 2.082942e-01 8.912200e-02 1.013214e-01 6.669314e-02 8.021537e-04 -3.269695e-02 9.693655e-02 1.918183e-02 7.525174e-02 -4.211203e-02 -3.576547e-02 -6.404119e-03 4.309616e-02 -3.224837e-02 -3.330256e-02 -2.087013e-02 -2.139188e-02 -2.839951e-02 -2.010358e-02
<VARIANCE> 39
 5.500302e+00 5.765310e+00 7.817984e+00 1.481995e+01 1.412524e+01 1.330812e+01 2.124157e+01 1.981908e+01 1.886310e+01 1.923697e+01 1.710951e+01 1.662987e+01 1.531195e+01 1.797991e-01 1.715421e-01 3.206365e-01 3.996612e-01 4.717528e-01 7.067671e-01 7.666858e-01 8.177453e-01 7.863095e-01 7.142516e-01 6.511098e-01 6.000312e-01 9.737542e-02 3.225321e-02 2.570244e-02 5.999812e-02 7.784104e-02 8.962046e-02 1.175354e-01 1.873189e-01 1.693309e-01 1.706444e-01 1.353239e-01 1.180734e-01 1.459653e-01 2.981956e-02
<GCONST> 6.268660e+01
<MIXTURE> 2 1.160989e-01
<MEAN> 39
 -5.795746e+00 -6.874501e-01 -9.026256e-01 -1.661588e+00 -4.483797e+00 1.746507e+00 2.689817e+00 -1.504630e+00 1.610218e+00 2.814548e+00 8.054872e-01 -2.777918e+00 2.971379e+00 -9.033678e-02 2.849063e-01 -3.422588e-01 9.826397e-03 2.995668e-01 1.344035e-01 -2.874364e-02 -5.151822e-02 -3.828905e-02 -8.685149e-02 -7.818047e-02 -1.358697e-01 3.344206e-02 3.700239e-01 6.482337e-02 1.048795e-01 9.861294e-02 2.030305e-01 -1.266187e-01 -1.314977e-01 1.006933e-01 -8.853025e-02 -1.504435e-01 -3.886960e-02 1.274058e-01 -2.447422e-01
<VARIANCE> 39
 9.360306e+00 1.095020e+01 1.450099e+01 2.061766e+01 2.153723e+01 1.720318e+01 2.131325e+01 2.177940e+01 2.522993e+01 2.241540e+01 2.239078e+01 2.398944e+01 2.282985e+01 1.457228e+00 6.391271e-01 1.028035e+00 9.441370e-01 9.957404e-01 1.037707e+00 1.102243e+00 1.313718e+00 1.266159e+00 1.155954e+00 7.896128e-01 9.287332e-01 1.625465e+00 8.512574e-02 1.163012e-01 1.317445e-01 1.450029e-01 2.006847e-01 1.686022e-01 1.998491e-01 2.012613e-01 2.223513e-01 2.023180e-01 1.602654e-01 1.818919e-01 2.986557e-01
<GCONST> 8.765542e+01
<MIXTURE> 3 2.433282e-01
<MEAN> 39
 5.447502e-02 3.448504e-01 1.233676e-01 -1.166048e-01 -5.524612e-01 -5.652200e-01 -4.234648e-01 -3.154860e-01 -2.159993e-01 -4.126564e-01 -5.249490e-01 -4.187828e-01 5.467608e-02 1.006247e-01 9.211356e-02 -5.884658e-02 -3.039212e-01 -4.896003e-01 -6.245920e-01 -6.346898e-01 -4.513378e-01 -2.976556e-01 -1.753318e-01 -4.659440e-02 -3.903943e-02 4.071722e-03 -2.768044e-02 -4.094020e-02 -4.066315e-03 6.793921e-02 1.368891e-01 1.531742e-01 1.364923e-01 1.205176e-01 1.076951e-01 1.138211e-01 1.076228e-01 9.378161e-02 -2.758200e-03
<VARIANCE> 39
 1.510843e+00 2.792827e+00 4.674420e+00 6.357007e+00 8.995069e+00 1.059815e+01 1.140303e+01 1.352159e+01 1.501298e+01 1.477205e+01 1.477352e+01 1.256996e+01 3.516366e-01 6.884173e-02 1.199713e-01 2.074526e-01 3.077920e-01 3.730014e-01 4.189057e-01 5.231189e-01 6.034657e-01 6.597477e-01 6.473573e-01 6.343102e-01 6.045585e-01 1.577125e-02 1.421924e-02 2.504716e-02 4.060483e-02 5.558186e-02 7.080892e-02 7.139497e-02 8.668667e-02 1.083517e-01 1.189061e-01 1.303381e-01 1.181940e-01 1.091303e-01 2.836079e-03
<GCONST> 4.079695e+01
<MIXTURE> 4 9.775891e-02
<MEAN> 39
 -4.223901e+00 -2.122288e+00 1.911521e+00 -6.789497e+00 -1.675956e+00 2.590583e+00 -3.433073e-01 -2.293499e+00 5.044001e+00 -1.649253e+00 -2.069241e+00 -2.955871e-01 1.758523e+00 -3.625302e-01 -2.220051e-01 -4.712675e-01 -8.073294e-01 5.270063e-01 -5.594659e-01 -4.289392e-01 -1.979513e-01 4.812587e-01 -9.423183e-01 1.491851e-02 -1.458832e-01 -8.685080e-01 2.580808e-01 1.268678e-01 -1.272728e-01 4.985856e-01 4.896533e-02 -2.513123e-01 5.707596e-02 2.139123e-01 -2.857996e-01 1.712088e-01 2.258563e-01 6.453386e-02 -3.834990e-01
<VARIANCE> 39
 6.627242e+00 8.342158e+00 1.024091e+01 1.838709e+01 1.859633e+01 2.167239e+01 1.806371e+01 2.175604e+01 2.343136e+01 2.206882e+01 1.649768e+01 1.681787e+01 1.719665e+01 5.490355e-01 5.961547e-01 6.721476e-01 1.411952e+00 9.986589e-01 1.344515e+00 9.712378e-01 1.149138e+00 1.224478e+00 1.061328e+00 9.213745e-01 7.490737e-01 9.446875e-01 6.282072e-02 8.927348e-02 1.046269e-01 1.634584e-01 1.757228e-01 2.190878e-01 1.797139e-01 2.085581e-01 2.093872e-01 2.011468e-01 1.229577e-01 1.399778e-01 4.107094e-01
<GCONST> 8.277642e+01
<MIXTURE> 5 1.574962e-01
<MEAN> 39
 2.888889e-01 3.125994e-01 -2.026666e-01 -6.800960e-01 -1.423186e+00 -1.556485e+00 -1.263692e+00 -1.013230e+00 -7.894044e-01 -8.881009e-01 -1.048441e+00 -1.146667e+00 -6.073553e-02 1.063819e-01 -6.611901e-02 -2.427035e-01 -5.334731e-01 -5.609726e-01 -7.462018e-01 -6.330055e-01 -5.566861e-01 -4.818583e-01 -4.352205e-01 -2.720642e-01 -1.846674e-01 -7.853236e-02 -5.185360e-02 -4.786801e-02 -1.357488e-02 6.212330e-02 1.496035e-01 1.891513e-01 1.543421e-01 1.021115e-01 8.305999e-02 7.566053e-02 8.522702e-02 1.181086e-01 1.025621e-03
<VARIANCE> 39
 1.967510e+00 3.117660e+00 5.271897e+00 7.932388e+00 9.986429e+00 1.087173e+01 1.210223e+01 1.382716e+01 1.545072e+01 1.731411e+01 1.526705e+01 1.268522e+01 4.771988e-01 1.199617e-01 1.293866e-01 2.214281e-01 4.219069e-01 3.746927e-01 4.576809e-01 5.095994e-01 5.905005e-01 6.711552e-01 6.789635e-01 6.563641e-01 6.019197e-01 4.515285e-02 1.746710e-02 2.630358e-02 4.151753e-02 6.598209e-02 7.299016e-02 8.165503e-02 9.503578e-02 1.070375e-01 1.289128e-01 1.343816e-01 1.230390e-01 1.086304e-01 4.056203e-03
<GCONST> 4.566018e+01
<MIXTURE> 6 1.462415e-01
<MEAN> 39
 -5.873707e+00 -1.339275e+00 -8.242999e-01 -3.561357e+00 -5.801873e+00 1.422752e+00 2.729012e+00 -2.375022e+00 1.768322e+00 2.629697e+00 6.377748e-01 -3.313724e+00 1.117512e+00 -1.753334e-01 1.788026e-01 -3.319457e-01 -3.542682e-01 2.549309e-02 -6.101263e-02 -1.728271e-01 -4.521235e-01 -1.922105e-01 -1.386776e-01 -3.147468e-01 -5.054466e-01 -3.632384e-01 3.822055e-01 6.541886e-02 6.996941e-02 1.965119e-01 2.465114e-01 -1.744393e-01 -2.006926e-01 7.394334e-02 -1.401242e-01 -1.697510e-01 -6.905897e-02 1.284598e-01 -1.948689e-01
<VARIANCE> 39
 8.076568e+00 1.226169e+01 1.554773e+01 1.772292e+01 2.114971e+01 1.906752e+01 2.490737e+01 2.220597e+01 2.188729e+01 2.594959e+01 2.304265e+01 2.144540e+01 2.495137e+01 1.501853e+00 6.767654e-01 1.200963e+00 1.088600e+00 1.256360e+00 1.185631e+00 1.191535e+00 1.105520e+00 1.261833e+00 1.351411e+00 1.028641e+00 9.089944e-01 1.017840e+00 9.134451e-02 1.251020e-01 1.388254e-01 1.364673e-01 1.882492e-01 1.654267e-01 2.000110e-01 1.994463e-01 1.879407e-01 1.837399e-01 1.731688e-01 1.683349e-01 2.354719e-01
<GCONST> 8.793487e+01
<MIXTURE> 7 1.122757e-01
<MEAN> 39
 -5.277890e+00 -2.780224e-01 -2.705982e+00 -1.079554e+00 -2.238910e+00 6.899207e-01 5.289161e-01 -4.428165e-01 2.035046e+00 1.049431e+00 -1.014164e-01 -1.598053e+00 2.397305e+00 1.209018e-01 5.051614e-02 -2.627687e-01 4.716174e-02 -2.242309e-02 -2.804910e-01 -1.587560e-01 -3.810441e-02 -2.183182e-01 -8.084060e-02 -7.248262e-02 -7.906421e-02 -1.703682e-01 7.029337e-02 -3.164627e-02 1.089795e-01 -3.686570e-02 -9.030239e-02 2.773095e-03 6.562106e-02 -8.529341e-02 -9.682270e-02 1.425104e-02 -8.140784e-03 -5.754311e-02 8.638214e-03
<VARIANCE> 39
 6.337965e+00 9.763634e+00 1.029480e+01 1.532761e+01 1.955787e+01 1.512323e+01 1.942200e+01 1.750501e+01 2.180785e+01 2.133124e+01 1.997341e+01 1.685455e+01 2.262818e+01 1.525399e-01 1.888501e-01 3.030267e-01 4.130909e-01 5.511085e-01 5.799783e-01 7.464895e-01 7.180063e-01 9.704377e-01 7.339634e-01 6.884887e-01 7.203520e-01 1.129942e-01 3.318141e-02 4.033492e-02 5.565294e-02 7.317737e-02 1.263541e-01 1.235228e-01 1.308431e-01 1.414948e-01 1.414355e-01 1.332069e-01 1.359266e-01 1.065241e-01 3.759625e-02
<GCONST> 6.509582e+01
<MIXTURE> 8 6.710809e-02
<MEAN> 39
 -4.019021e+00 -2.141551e+00 3.019216e+00 -6.639960e+00 -2.916269e+00 2.345216e+00 7.695619e-01 -2.972437e+00 3.706353e+00 -8.083986e-01 -1.650488e+00 -1.485361e+00 1.659069e+00 -5.552330e-01 -4.607404e-01 -3.692859e-01 -1.482167e+00 2.498265e-01 -6.207469e-01 -6.201770e-01 -7.370725e-01 5.410709e-01 -1.284913e+00 -2.383297e-01 -4.246561e-01 -9.467305e-01 2.392965e-01 1.449049e-01 -2.635353e-01 3.689953e-01 1.314937e-01 -3.213683e-01 -1.021073e-01 2.039188e-01 -1.989800e-01 6.585330e-03 1.770691e-01 1.087781e-01 -7.569727e-01
<VARIANCE> 39
 6.218495e+00 8.669105e+00 1.193235e+01 1.641483e+01 1.833866e+01 2.091492e+01 1.766807e+01 2.172714e+01 2.334834e+01 2.399436e+01 1.893415e+01 1.793431e+01 1.549064e+01 4.018575e-01 4.829413e-01 7.783671e-01 1.122206e+00 1.062390e+00 1.339715e+00 1.222496e+00 1.221539e+00 9.902542e-01 1.320065e+00 8.598796e-01 9.019208e-01 8.680181e-01 5.326889e-02 8.671839e-02 1.172412e-01 1.525746e-01 1.496141e-01 2.002459e-01 1.629548e-01 1.981868e-01 1.837290e-01 2.238245e-01 1.517852e-01 1.420905e-01 4.117999e-01
<GCONST> 8.233253e+01
<STATE> 4
<NUMMIXES> 8
<MIXTURE> 1 1.550141e-01
<MEAN> 39
 1.906151e-01 3.397492e-01 1.873006e-02 -4.053681e-01 -1.031870e+00 -1.403921e+00 -1.502292e+00 -1.180828e+00 -1.100203e+00 -1.001574e+00 -6.120658e-01 -1.735021e-01 3.734003e-02 9.759984e-02 9.606238e-02 3.519532e-02 -8.061735e-02 -1.575226e-01 -2.509483e-01 -2.828480e-01 -1.503169e-01 -1.958755e-02 8.542158e-02 2.112022e-01 1.720083e-01 3.037038e-02 -3.066035e-02 -3.866960e-02 2.954713e-02 1.185290e-01 2.122709e-01 2.869543e-01 3.026184e-01 2.417130e-01 2.064355e-01 1.878878e-01 1.379287e-01 8.832648e-02 -3.783987e-03
<VARIANCE> 39
 1.283822e+00 2.630457e+00 4.957285e+00 7.199808e+00 9.407225e+00 1.060841e+01 1.259223e+01 1.363650e+01 1.597879e+01 1.475654e+01 1.427240e+01 1.300022e+01 3.516366e-01 5.944868e-02 1.119201e-01 2.002462e-01 3.165034e-01 3.831788e-01 3.797627e-01 4.790234e-01 5.922696e-01 6.283855e-01 7.399695e-01 6.520661e-01 5.974849e-01 1.161370e-02 1.117552e-02 2.174810e-02 4.070299e-02 5.430536e-02 7.129923e-02 8.223288e-02 8.703817e-02 1.008508e-01 1.261980e-01 1.262600e-01 1.158975e-01 1.127903e-01 2.014325e-03
<GCONST> 3.974120e+01
<MIXTURE> 2 1.046905e-01
<MEAN> 39
 -9.340172e-01 -2.022521e+00 -2.292106e-02 -2.025498e+00 -1.184500e+00 3.908626e-01 7.713942e-01 -1.894773e+00 4.053176e-02 -1.328100e+00 4.379632e-01 -1.788092e+00 -1.245372e+00 5.203055e-01 7.733373e-02 2.840921e-02 2.304003e-01 5.229033e-01 -1.521995e-01 1.077633e-01 3.464898e-01 -4.534509e-03 -1.599324e-01 1.401825e-01 2.755266e-01 -6.523086e-01 7.512100e-02 1.027953e-01 7.558078e-02 7.759148e-02 3.855848e-02 2.024888e-02 4.576657e-03 7.838255e-02 2.853826e-02 1.387590e-01 -4.075610e-02 5.686740e-02 -1.318009e-02
<VARIANCE> 39
 2.062303e+01 1.385343e+01 1.396766e+01 2.959197e+01 2.931972e+01 2.411569e+01 3.059146e+01 3.394593e+01 3.472234e+01 3.090461e+01 2.301069e+01 2.124780e+01 3.676868e+01 7.255866e-01 6.148823e-01 9.498775e-01 1.042874e+00 1.381485e+00 1.117734e+00 1.258350e+00 1.367305e+00 1.155676e+00 1.042609e+00 1.038044e+00 9.352114e-01 1.269395e+00 1.340402e-01 1.094418e-01 1.140958e-01 2.419621e-01 2.377079e-01 1.910488e-01 2.487074e-01 2.825828e-01 2.174439e-01 2.224374e-01 1.721621e-01 1.842352e-01 2.333157e-01
<GCONST> 9.269999e+01
<MIXTURE> 3 7.044379e-02
<MEAN> 39
 -6.813186e-01 -1.657116e+00 -1.623945e+00 -3.546537e+00 -1.988115e+00 -2.541222e+00 -1.136926e+00 -1.622396e+00 8.487317e-02 -1.891428e+00 -1.254407e-01 -5.859053e-01 -1.230905e+00 7.420102e-02 -2.231467e-02 -1.351064e-01 -1.273917e-01 -6.432360e-02 -1.345070e-01 -4.857554e-02 1.954330e-02 4.780350e-02 -4.476412e-02 1.657847e-01 2.082225e-01 -3.841928e-02 -1.389869e-02 7.376201e-02 1.238962e-01 2.000327e-01 2.163408e-01 2.701942e-01 1.692178e-01 1.593174e-01 1.456968e-01 1.746458e-01 3.905240e-02 2.936018e-02 8.850467e-02
<VARIANCE> 39
 8.449210e+00 6.388261e+00 7.827771e+00 1.418474e+01 1.154328e+01 1.549201e+01 1.644262e+01 1.787964e+01 2.301880e+01 1.896568e+01 1.481548e+01 1.650292e+01 3.408028e+00 1.364076e-01 1.868693e-01 2.386572e-01 4.715163e-01 5.329885e-01 5.625708e-01 6.610832e-01 6.533793e-01 7.658314e-01 7.408966e-01 7.808800e-01 6.989784e-01 7.515179e-02 3.511018e-02 3.940588e-02 5.392608e-02 1.386137e-01 1.067701e-01 1.226848e-01 1.272257e-01 1.566277e-01 1.581279e-01 1.430015e-01 1.359715e-01 1.360995e-01 1.354854e-02
<GCONST> 6.058087e+01
<MIXTURE> 4 1.215638e-01
<MEAN> 39
 2.453127e+00 -1.887623e+00 1.765265e+00 -3.120762e+00 -2.986783e-01 -3.476822e-01 -3.235644e-01 -4.171431e+00 -1.278110e+00 -1.180397e+00 -2.336829e+00 -3.574981e+00 -2.713778e+00 7.649203e-01 -1.295803e-01 2.568470e-01 1.107855e-01 2.017179e-01 -1.226479e-01 -5.645294e-02 -2.199673e-01 -3.105898e-01 6.735738e-02 1.743403e-01 3.512214e-02 -1.019042e+00 -1.848191e-01 5.995164e-02 -1.087031e-01 1.475750e-01 -3.565108e-02 5.502751e-02 7.119793e-02 1.937729e-01 1.181393e-01 9.760360e-02 1.722814e-01 1.758803e-01 1.742173e-02
<VARIANCE> 39
 1.358812e+01 1.602210e+01 1.223037e+01 2.360721e+01 2.565845e+01 2.910473e+01 2.731467e+01 2.956696e+01 3.232568e+01 3.560642e+01 2.270733e+01 1.656220e+01 1.917480e+01 5.878417e-01 7.615118e-01 6.896323e-01 1.590359e+00 1.297137e+00 1.346638e+00 1.188210e+00 1.216725e+00 1.113279e+00 1.537866e+00 1.108586e+00 8.271650e-01 6.577210e-01 8.168782e-02 1.305558e-01 9.724671e-02 2.001483e-01 1.946018e-01 2.041498e-01 1.949835e-01 1.959539e-01 1.838441e-01 2.471680e-01 1.672820e-01 1.162592e-01 9.498320e-02
<GCONST> 8.785871e+01
<MIXTURE> 5 1.441325e-01
<MEAN> 39
 -9.642496e-01 -2.042454e+00 -3.587191e-01 -3.001742e+00 -7.355772e-01 -5.361310e-01 6.490652e-02 -2.236864e+00 8.516140e-01 -2.004255e+00 -2.602188e-01 -1.860868e+00 -2.279235e+00 5.035730e-01 -4.984101e-02 -7.177019e-02 6.098896e-03 3.021954e-01 -3.820641e-01 -1.977601e-01 -2.030334e-03 -2.921222e-01 -3.508976e-01 5.336316e-02 8.738691e-02 -8.910745e-01 5.596787e-02 5.540557e-02 5.737471e-02 7.063343e-02 -5.235190e-02 1.102461e-02 7.369178e-03 1.173036e-02 -3.346595e-02 1.169646e-01 -4.970643e-02 6.524663e-03 -1.416248e-02
<VARIANCE> 39
 1.935658e+01 1.477921e+01 1.456829e+01 2.898422e+01 2.709798e+01 2.244853e+01 2.955274e+01 3.147592e+01 3.802151e+01 3.037968e+01 2.201064e+01 2.111224e+01 2.992368e+01 7.072921e-01 7.347751e-01 7.886475e-01 1.064747e+00 1.119760e+00 1.187448e+00 1.132922e+00 1.305035e+00 1.128355e+00 1.088217e+00 1.007984e+00 8.858041e-01 1.105007e+00 1.245732e-01 1.166857e-01 1.151358e-01 2.222720e-01 2.026156e-01 1.696913e-01 2.356585e-01 2.386114e-01 2.189145e-01 2.199507e-01 1.622427e-01 1.716456e-01 1.351011e-01
<GCONST> 9.049441e+01
<MIXTURE> 6 2.364163e-01
<MEAN> 39
 2.187583e-01 3.344206e-01 -2.686700e-01 -1.077613e+00 -1.833890e+00 -2.099843e+00 -2.111244e+00 -1.567052e+00 -1.404998e+00 -1.117840e+00 -9.507974e-01 -7.944549e-01 9.114258e-03 -2.593294e-02 -8.575586e-02 -1.577659e-01 -2.234873e-01 -2.553455e-01 -3.134651e-01 -3.053496e-01 -2.019741e-01 -1.523892e-01 -1.261535e-01 -7.364420e-02 9.701326e-04 -1.520934e-02 -4.859452e-02 -6.011306e-02 1.748561e-02 1.239948e-01 2.232072e-01 2.841555e-01 2.885546e-01 2.051799e-01 1.551025e-01 1.131929e-01 8.952992e-02 8.126196e-02 -9.209527e-03
<VARIANCE> 39
 1.283963e+00 2.798691e+00 4.819117e+00 6.759887e+00 9.333794e+00 1.043529e+01 1.169499e+01 1.401460e+01 1.536458e+01 1.358829e+01 1.407070e+01 1.200629e+01 3.516366e-01 5.676405e-02 1.178994e-01 2.139512e-01 2.946161e-01 3.727430e-01 3.817588e-01 4.834952e-01 5.909420e-01 6.500133e-01 6.814410e-01 6.681745e-01 5.592328e-01 1.127028e-02 1.111333e-02 2.308983e-02 3.962355e-02 5.393961e-02 7.002591e-02 8.294456e-02 9.242919e-02 1.074459e-01 1.345773e-01 1.188300e-01 1.093158e-01 1.096174e-01 1.981796e-03
<GCONST> 3.932544e+01
<MIXTURE> 7 7.097322e-02
<MEAN> 39
 -4.416983e-01 -1.975995e+00 -1.451562e+00 -5.865478e+00 -1.581806e+00 -3.705168e+00 -8.571231e-01 -1.889282e+00 1.184705e+00 -2.338681e+00 3.790611e-01 -1.831071e+00 -2.154759e+00 9.426145e-02 -1.645128e-01 -2.426826e-01 -3.756225e-01 -5.532610e-02 -4.758237e-01 -1.436418e-01 -2.581568e-01 -6.027874e-02 -3.491686e-01 -1.218490e-01 -2.503027e-01 -2.066595e-01 -1.510484e-02 1.952612e-02 8.129815e-02 1.124755e-01 6.016501e-02 1.718698e-01 6.614427e-02 3.778454e-02 3.224504e-03 5.347397e-02 -8.263496e-02 -1.528459e-02 6.091430e-02
<VARIANCE> 39
 1.231185e+01 8.112227e+00 8.503684e+00 1.624429e+01 1.231753e+01 2.132041e+01 1.561354e+01 1.713808e+01 2.378845e+01 1.932475e+01 1.721131e+01 1.667139e+01 2.773391e+00 1.005351e-01 2.091138e-01 2.980107e-01 6.581551e-01 5.935971e-01 6.176473e-01 7.526898e-01 6.893649e-01 6.875828e-01 6.834453e-01 7.793480e-01 7.514325e-01 8.631739e-02 2.740125e-02 4.059398e-02 4.887539e-02 1.513744e-01 1.200941e-01 1.564555e-01 1.337533e-01 1.405813e-01 1.510978e-01 1.456807e-01 1.438102e-01 1.411371e-01 1.594703e-02
<GCONST> 6.278103e+01
<MIXTURE> 8 9.677479e-02
<MEAN> 39
 2.087699e+00 -5.852388e-01 1.999728e+00 -2.807848e+00 -9.516057e-02 -1.272265e+00 -1.333881e+00 -4.755591e+00 -1.286001e+00 -1.965532e+00 -2.974577e+00 -3.823123e+00 -1.772380e+00 9.644987e-01 -2.903401e-01 2.579424e-01 5.499250e-02 -2.023244e-02 -2.056357e-01 -5.309876e-01 -7.209848e-01 -6.998206e-01 -8.862341e-02 -1.971207e-01 -3.051884e-01 -1.109483e+00 -2.187361e-01 -1.097959e-01 -2.060129e-01 6.107506e-02 -9.833159e-02 7.572079e-02 1.330211e-01 1.724758e-01 1.289171e-01 1.537571e-01 1.917939e-01 1.532910e-01 -1.668288e-01
<VARIANCE> 39
 1.351028e+01 1.958339e+01 1.361028e+01 2.537572e+01 2.553604e+01 2.697758e+01 3.091831e+01 2.992778e+01 3.579567e+01 3.451257e+01 2.161050e+01 1.795064e+01 2.483207e+01 6.620575e-01 7.731135e-01 7.378584e-01 1.522175e+00 1.210545e+00 1.392493e+00 1.361772e+00 1.360697e+00 1.173212e+00 1.852096e+00 1.209898e+00 7.556518e-01 6.977443e-01 9.868310e-02 1.497017e-01 1.114751e-01 1.979025e-01 1.989803e-01 1.985487e-01 2.014196e-01 2.282014e-01 2.037203e-01 2.432153e-01 1.701685e-01 1.255753e-01 1.217892e-01
<GCONST> 9.037302e+01
<TRANSP> 5
 0.000000e+00 1.000000e+00 0.000000e+00 0.000000e+00 0.000000e+00
 0.000000e+00 6.962458e-01 3.037542e-01 0.000000e+00 0.000000e+00
 0.000000e+00 0.000000e+00 5.230269e-01 4.769730e-01 0.000000e+00
 0.000000e+00 0.000000e+00 0.000000e+00 5.305187e-01 4.694812e-01
 0.000000e+00 0.000000e+00 0.000000e+00 0.000000e+00 0.000000e+00
<ENDHMM>
~h "n"
<BEGINHMM>
<NUMSTATES> 5
<STATE> 2
<NUMMIXES> 8
<MIXTURE> 1 5.205569e-02
<MEAN> 39
 -9.315740e-01 -1.561814e+00 -1.331095e+00 1.450365e+00 1.071638e-01 2.126383e+00 1.651461e+00 2.776374e+00 -3.404915e-02 1.521807e+00 9.259108e-01 1.547417e+00 1.011360e+01 7.561890e-01 2.972529e-01 2.718646e-01 2.727658e-01 3.385598e-01 3.869531e-01 3.372989e-01 2.414808e-02 -1.687226e-01 -1.959209e-01 -7.526091e-02 -2.774890e-02 -1.024792e-01 2.912948e-01 3.205898e-01 3.420907e-01 4.521441e-02 2.212936e-01 -4.457094e-02 -1.084057e-01 -2.020828e-01 -3.404281e-02 -1.054663e-01 -1.089273e-01 -1.431730e-01 -4.269793e-01
<VARIANCE> 39
 5.035995e+00 4.075858e+00 5.433777e+00 8.157844e+00 1.058306e+01 1.283325e+01 1.571624e+01 1.424657e+01 1.661724e+01 1.714333e+01 1.730516e+01 1.650459e+01 1.057387e+01 2.081647e-01 2.206444e-01 2.855728e-01 4.150359e-01 6.024950e-01 7.045061e-01 8.151948e-01 8.171640e-01 9.323720e-01 9.624056e-01 9.065305e-01 8.241491e-01 6.915159e-02 5.581466e-02 5.589819e-02 9.250126e-02 1.061479e-01 1.425045e-01 1.768750e-01 1.983459e-01 1.799308e-01 1.655735e-01 1.720899e-01 1.730114e-01 1.767356e-01 8.312101e-02
<GCONST> 6.599026e+01
<MIXTURE> 2 1.319688e-01
<MEAN> 39
 -9.053349e-03 7.165485e-01 1.070923e+00 1.638732e+00 1.142497e+00 7.748748e-01 -1.875910e-02 -6.975723e-01 -1.136084e+00 -1.085127e+00 -8.429194e-01 -1.247983e-01 2.745238e-01 1.992870e-01 2.875971e-01 3.870362e-01 3.536581e-01 1.972117e-01 -1.753300e-02 -1.529003e-01 -2.415011e-01 -2.917657e-01 -2.088956e-01 -7.019433e-02 -2.103342e-02 6.945051e-02 -1.602390e-02 -5.664820e-02 -8.320428e-02 -1.038420e-01 -7.719000e-02 -2.240836e-02 4.204840e-02 1.343800e-01 1.694599e-01 1.697202e-01 1.195449e-01 4.479636e-02 -6.701780e-03
<VARIANCE> 39
 1.360292e+00 2.441524e+00 4.257205e+00 7.641889e+00 9.689898e+00 1.166023e+01 1.281178e+01 1.319285e+01 1.423463e+01 1.401729e+01 1.342966e+01 1.192635e+01 5.019274e-01 5.777303e-02 1.137524e-01 1.925908e-01 3.043412e-01 3.922903e-01 5.124621e-01 5.350702e-01 5.636067e-01 5.706429e-01 6.105956e-01 5.973703e-01 5.507175e-01 1.102463e-02 1.081169e-02 2.120069e-02 3.604084e-02 5.598167e-02 8.427335e-02 9.937108e-02 1.066704e-01 1.059761e-01 1.216131e-01 1.205052e-01 1.207661e-01 1.043859e-01 2.171721e-03
<GCONST> 3.998091e+01
<MIXTURE> 3 2.525694e-01
<MEAN> 39
 2.516875e-01 3.546331e-01 3.902927e-01 5.418297e-01 3.363584e-01 1.413800e-01 -2.547370e-01 -6.108261e-01 -9.092777e-01 -1.035615e+00 -9.539752e-01 -4.313471e-01 1.836379e-01 1.239394e-01 1.525127e-01 1.363028e-01 3.437745e-02 -1.485274e-01 -3.454314e-01 -4.607315e-01 -5.454515e-01 -5.492166e-01 -3.865035e-01 -1.961729e-01 -1.946047e-02 3.564814e-02 -2.304219e-02 -2.121967e-02 -2.474008e-02 -3.702533e-02 -1.907343e-02 1.462431e-02 6.095195e-02 1.123428e-01 1.580356e-01 1.675100e-01 1.479215e-01 8.284435e-02 -9.260427e-03
<VARIANCE> 39
 1.007695e+00 2.316385e+00 4.104143e+00 6.177376e+00 8.404741e+00 1.041883e+01 1.161194e+01 1.283624e+01 1.343288e+01 1.301054e+01 1.316068e+01 1.226772e+01 3.516366e-01 6.098620e-02 1.155027e-01 1.861372e-01 2.928298e-01 4.012193e-01 4.834798e-01 5.342185e-01 5.582561e-01 5.865033e-01 5.979896e-01 5.911479e-01 5.516866e-01 1.121428e-02 9.986271e-03 2.260289e-02 3.757052e-02 5.300396e-02 7.459936e-02 9.100503e-02 9.612264e-02 1.012195e-01 1.078543e-01 1.119687e-01 1.118894e-01 1.039076e-01 1.742624e-03
<GCONST> 3.759973e+01
<MIXTURE> 4 7.605720e-02
<MEAN> 39
 -8.993092e-01 -1.868194e-01 -1.340798e-01 1.869133e+00 8.968766e-01 1.533588e+00 4.242960e-01 1.290480e+00 -1.426360e-01 4.360067e-01 -9.473264e-03 7.948168e-01 4.805977e+00 3.158675e-01 1.991986e-01 2.454720e-01 1.355349e-01 1.201577e-01 -4.032383e-02 -9.461166e-02 -1.642939e-01 -2.019632e-01 -1.224354e-01 3.116257e-02 2.415144e-02 -1.895391e-02 9.160952e-02 5.636762e-02 3.392857e-02 -4.871256e-02 -3.477767e-03 -3.239964e-02 3.664180e-02 -8.000683e-03 7.047150e-03 3.601770e-02 3.211218e-02 -7.186739e-03 -4.072227e-02
<VARIANCE> 39
 5.234817e+00 4.435435e+00 5.824187e+00 1.188768e+01 1.306910e+01 1.817013e+01 1.565048e+01 1.648381e+01 1.816823e+01 1.674439e+01 1.631629e+01 1.437893e+01 8.922170e+01 2.385368e-01 2.173201e-01 2.928140e-01 4.633979e-01 6.240283e-01 6.806266e-01 8.284994e-01 8.197209e-01 7.946342e-01 8.146968e-01 8.065800e-01 6.670892e-01 1.047049e-01 4.992402e-02 4.464874e-02 6.267563e-02 1.069847e-01 1.200292e-01 1.543266e-01 1.583515e-01 1.496940e-01 1.742155e-01 1.690957e-01 1.535420e-01 1.288282e-01 7.440586e-02
<GCONST> 6.735007e+01
<MIXTURE> 5 2.132412e-01
<MEAN> 39
 5.195254e-02 5.232596e-01 8.507243e-01 1.135760e+00 8.201358e-01 3.214620e-01 -5.071660e-01 -1.264128e+00 -1.563604e+00 -1.510211e+00 -1.101065e+00 -3.039293e-01 1.726127e-01 1.151816e-01 1.777571e-01 2.256509e-01 1.623438e-01 -1.923938e-02 -2.395347e-01 -3.884813e-01 -4.710893e-01 -5.186570e-01 -4.413634e-01 -2.983315e-01 -1.471484e-01 3.222492e-02 -3.422786e-02 -7.360410e-02 -1.157939e-01 -1.371160e-01 -1.160441e-01 -5.725060e-02 1.893623e-02 1.059191e-01 1.459987e-01 1.411397e-01 9.431742e-02 2.987361e-02 -1.421389e-02
<VARIANCE> 39
 1.276648e+00 2.356679e+00 4.232285e+00 6.885186e+00 9.923207e+00 1.192711e+01 1.270712e+01 1.307230e+01 1.349285e+01 1.442209e+01 1.350988e+01 1.176440e+01 3.516366e-01 5.440239e-02 1.122125e-01 1.878688e-01 2.928793e-01 3.973421e-01 5.137865e-01 5.577543e-01 5.852038e-01 5.792425e-01 5.895256e-01 5.848103e-01 5.299605e-01 1.000290e-02 1.080755e-02 2.107395e-02 3.646378e-02 5.518745e-02 8.413222e-02 9.936786e-02 1.083689e-01 1.057903e-01 1.110196e-01 1.204153e-01 1.151485e-01 1.011896e-01 2.067753e-03
<GCONST> 3.897646e+01
<MIXTURE> 6 1.346250e-01
<MEAN> 39
 9.538066e-02 1.237065e-01 1.997479e-01 2.420676e-01 -6.947722e-02 -3.223971e-01 -7.325937e-01 -1.099493e+00 -1.409992e+00 -1.370199e+00 -1.168188e+00 -8.144040e-01 1.235436e-01 5.594407e-03 -3.954326e-05 -6.300463e-02 -1.688160e-01 -3.452290e-01 -5.332770e-01 -6.835251e-01 -7.880989e-01 -7.309978e-01 -5.954133e-01 -4.411645e-01 -1.935804e-01 -1.207261e-02 -3.104763e-02 -3.733067e-02 -5.666117e-02 -6.594449e-02 -4.265408e-02 -5.427580e-04 4.189502e-02 8.792385e-02 1.398148e-01 1.441947e-01 1.187523e-01 9.063904e-02 -1.242021e-02
<VARIANCE> 39
 1.040452e+00 2.373915e+00 4.147892e+00 6.403738e+00 8.994480e+00 1.102722e+01 1.141790e+01 1.295824e+01 1.288146e+01 1.357317e+01 1.316241e+01 1.292622e+01 3.516366e-01 6.041589e-02 1.182527e-01 1.865627e-01 2.838002e-01 3.837186e-01 4.871077e-01 5.392947e-01 5.515766e-01 5.884083e-01 5.858397e-01 6.069832e-01 5.530972e-01 1.069376e-02 1.020208e-02 2.173646e-02 3.671454e-02 5.446191e-02 7.136069e-02 8.787961e-02 9.303413e-02 1.018258e-01 1.037730e-01 1.150991e-01 1.100466e-01 1.077238e-01 1.796230e-03
<GCONST> 3.770155e+01
<MIXTURE> 7 5.274159e-02
<MEAN> 39
 -1.025706e+00 -5.102222e-01 -4.165153e-01 1.686086e+00 6.967059e-01 1.728226e+00 3.026134e-01 9.457390e-01 4.372363e-02 7.205856e-01 2.433783e-01 1.195125e+00 4.504305e+00 3.600230e-01 1.210041e-01 8.204430e-02 -2.229197e-01 -1.854756e-01 -3.852808e-01 -4.886765e-01 -6.327274e-01 -5.864974e-01 -4.137442e-01 -2.506131e-01 -2.227222e-01 -1.814928e-01 8.667546e-02 4.286159e-02 1.440298e-02 -1.200521e-01 -5.195217e-02 -1.378763e-01 -3.664606e-02 -8.113053e-02 -6.089613e-02 -7.545426e-02 -5.300332e-02 -1.005241e-01 -1.003011e-01
<VARIANCE> 39
 4.256085e+00 4.215288e+00 5.391207e+00 1.170549e+01 1.348588e+01 1.496369e+01 1.578507e+01 1.701341e+01 1.989595e+01 1.662529e+01 1.716783e+01 1.571161e+01 6.900150e+01 2.889254e-01 2.163684e-01 2.782727e-01 4.599742e-01 5.421023e-01 7.164435e-01 8.574205e-01 8.633580e-01 8.518963e-01 8.944758e-01 8.409267e-01 7.606915e-01 1.374331e-01 4.021998e-02 4.147587e-02 5.124579e-02 1.173895e-01 1.154966e-01 1.493332e-01 1.599039e-01 1.476376e-01 1.686222e-01 1.594102e-01 1.615838e-01 1.510138e-01 5.747766e-02
<GCONST> 6.696313e+01
<MIXTURE> 8 8.678561e-02
<MEAN> 39
 -1.579963e+00 -1.475767e+00 -1.328381e+00 1.252551e+00 1.908756e-01 1.703542e+00 1.089723e+00 2.305034e+00 -3.085527e-02 1.025590e+00 3.595447e-01 1.277098e+00 9.174261e+00 6.831852e-01 1.574488e-01 1.609844e-01 9.893948e-02 1.666396e-01 7.963040e-02 -4.238357e-02 -3.200214e-01 -4.437806e-01 -4.171764e-01 -1.903780e-01 -1.726006e-02 -1.517468e-01 2.972566e-01 2.682973e-01 2.589393e-01 -2.092773e-02 1.037937e-01 -1.278703e-01 -1.514452e-01 -2.780209e-01 -1.272636e-01 -1.557799e-01 -1.030671e-01 -1.760673e-01 -4.327846e-01
<VARIANCE> 39
 3.821103e+00 3.867468e+00 5.250627e+00 7.456098e+00 9.878777e+00 1.253265e+01 1.512741e+01 1.622711e+01 1.759201e+01 1.734585e+01 1.908346e+01 1.547835e+01 8.692602e+00 2.513757e-01 2.099050e-01 2.669505e-01 4.055893e-01 5.257082e-01 6.622202e-01 7.898756e-01 8.893940e-01 1.039620e+00 9.865955e-01 8.885327e-01 7.596734e-01 8.552282e-02 6.046635e-02 5.441787e-02 7.819849e-02 1.032650e-01 1.224582e-01 1.690913e-01 1.742596e-01 1.903206e-01 1.701704e-01 1.838253e-01 1.948547e-01 1.680763e-01 9.762046e-02
<GCONST> 6.550177e+01
<STATE> 3
<NUMMIXES> 8
<MIXTURE> 1 7.545286e-02
<MEAN> 39
 7.282893e-01 -4.114158e-01 -6.155527e-01 1.536072e+00 5.876087e-01 2.013494e+00 1.428862e+00 1.952900e+00 2.409554e-01 1.040487e+00 3.081599e-01 8.396147e-01 4.973167e+00 2.760423e-01 3.020406e-01 4.329304e-01 1.791466e-01 4.393616e-01 2.509491e-01 2.293365e-01 1.454962e-01 3.149222e-01 3.607391e-01 1.197855e-01 1.124511e-01 2.758169e-01 1.500062e-01 1.964863e-01 2.994642e-01 -1.279886e-01 9.610447e-02 -1.978569e-01 -1.159100e-01 -2.319373e-01 -1.226366e-02 -7.339560e-02 -4.155460e-02 -1.129404e-01 -5.243456e-01
<VARIANCE> 39
 8.561094e+00 6.229583e+00 7.842723e+00 1.245031e+01 1.530908e+01 1.922378e+01 2.042095e+01 2.071085e+01 1.997678e+01 2.034508e+01 1.858609e+01 1.608362e+01 9.980872e+01 2.321436e+00 1.466595e+00 2.001136e+00 1.069697e+00 1.460443e+00 1.609379e+00 1.415056e+00 1.797656e+00 1.387370e+00 1.555151e+00 1.264498e+00 1.116688e+00 7.151798e+00 1.086566e-01 9.678324e-02 1.655530e-01 1.600945e-01 2.052611e-01 2.110776e-01 2.352965e-01 2.187027e-01 2.269171e-01 2.162328e-01 1.925501e-01 1.463424e-01 6.081693e-01
<GCONST> 9.376128e+01
<MIXTURE> 2 8.694492e-02
<MEAN> 39
 5.435690e+00 3.833641e+00 4.337811e+00 -1.446044e+00 1.383459e+00 -2.762510e+00 -1.473979e+00 -3.507730e+00 -1.970546e+00 -2.072730e+00 -1.096509e+00 -1.969860e+00 -1.026341e+01 -4.216246e-01 -2.750954e-01 -2.195411e-01 4.933642e-01 1.843424e-01 6.075279e-01 4.257372e-01 5.511104e-01 3.647129e-01 5.031159e-01 2.566937e-01 3.577066e-01 1.214805e+00 -3.409182e-01 -2.828104e-01 -3.052897e-01 1.377687e-01 -1.062209e-01 2.578362e-01 1.373807e-01 2.633251e-01 1.330125e-01 1.687013e-01 9.143594e-02 1.772357e-01 7.753732e-01
<VARIANCE> 39
 1.768314e+01 1.649232e+01 2.319054e+01 2.670224e+01 2.841171e+01 2.922319e+01 3.050083e+01 3.314312e+01 2.907182e+01 3.229581e+01 2.461184e+01 2.064101e+01 5.836649e+01 1.111568e+00 9.185933e-01 1.146750e+00 1.188071e+00 1.300125e+00 1.481504e+00 1.306022e+00 1.351873e+00 1.502031e+00 1.334934e+00 1.081894e+00 9.692047e-01 8.673847e+00 1.644163e-01 1.467908e-01 1.780394e-01 2.361569e-01 2.400153e-01 2.640957e-01 2.444868e-01 2.714473e-01 2.511929e-01 2.809578e-01 2.179602e-01 1.837923e-01 6.685995e-01
<GCONST> 1.003858e+02
<MIXTURE> 3 2.945301e-01
<MEAN> 39
 1.177958e-01 5.005053e-01 5.270883e-01 9.270120e-01 2.154925e-01 -1.313056e-01 -7.051045e-01 -8.274719e-01 -1.240378e+00 -8.852793e-01 -6.644416e-01 2.334633e-02 1.451340e+00 5.679546e-02 7.417406e-02 7.394065e-02 8.983915e-04 -4.840952e-02 -1.208930e-01 -1.334401e-01 -8.630718e-02 -2.447635e-02 3.628252e-02 6.564069e-02 5.710277e-02 -1.119538e-02 -4.804624e-02 -7.367251e-02 -8.597300e-02 -7.128384e-02 1.075074e-02 9.838139e-02 1.723463e-01 2.218146e-01 2.524341e-01 2.125057e-01 1.433740e-01 6.059323e-02 -3.065318e-02
<VARIANCE> 39
 2.692504e+00 3.405054e+00 5.567672e+00 8.809230e+00 1.075885e+01 1.321841e+01 1.442478e+01 1.555569e+01 1.598654e+01 1.591208e+01 1.495014e+01 1.359062e+01 1.442524e+01 1.429000e-01 1.619976e-01 2.521782e-01 3.680788e-01 4.888904e-01 5.734612e-01 6.121637e-01 6.310591e-01 6.550938e-01 6.586539e-01 6.336217e-01 5.771241e-01 6.567273e-02 2.108863e-02 2.904710e-02 4.725554e-02 6.717050e-02 8.694185e-02 1.027018e-01 1.138068e-01 1.187852e-01 1.335505e-01 1.285007e-01 1.247711e-01 1.130357e-01 1.773381e-02
<GCONST> 5.421165e+01
<MIXTURE> 4 9.874251e-02
<MEAN> 39
 7.675891e+00 4.530134e+00 7.046699e+00 8.468525e-01 4.046195e+00 1.011487e-01 -8.570501e-01 -3.114012e+00 -2.017850e+00 -8.413174e-01 -1.521719e+00 -1.701109e+00 -3.762774e-01 7.925020e-01 6.442721e-01 1.290147e+00 -6.748496e-01 2.902049e-01 -7.650770e-01 -4.460930e-01 -1.119187e+00 9.862377e-02 -1.663944e-01 -4.061931e-02 -5.699404e-01 -2.894826e+00 -5.306004e-01 -3.935145e-01 -4.912618e-01 -8.475907e-02 -2.854128e-01 1.882542e-02 5.446398e-02 1.790226e-01 1.197905e-01 6.958465e-02 1.249661e-01 1.362062e-01 1.252294e-01
<VARIANCE> 39
 1.601357e+01 1.656039e+01 3.652207e+01 3.020135e+01 2.962399e+01 3.508205e+01 3.806234e+01 4.243174e+01 3.941175e+01 3.055973e+01 2.755797e+01 2.318730e+01 4.468813e+01 9.964790e-01 9.852151e-01 1.719662e+00 1.341630e+00 1.627196e+00 1.554181e+00 1.879125e+00 1.795312e+00 1.656766e+00 1.469885e+00 1.349342e+00 1.094314e+00 1.750731e+00 1.152486e-01 1.303894e-01 2.481387e-01 2.091132e-01 2.281691e-01 2.710579e-01 3.032338e-01 3.109426e-01 2.927601e-01 2.595117e-01 2.388579e-01 1.984189e-01 2.493426e-01
<GCONST> 1.014349e+02
<MIXTURE> 5 1.247436e-01
<MEAN> 39
 4.513207e-01 3.065815e-01 1.958068e-01 3.839215e-01 -3.480533e-01 -5.532113e-01 -1.270787e+00 -1.371429e+00 -1.691615e+00 -1.005829e+00 -8.820999e-01 -2.816225e-01 1.014298e+00 2.060186e-01 6.541246e-02 1.204881e-02 -3.814792e-01 -3.150372e-01 -5.090464e-01 -3.424581e-01 -4.388872e-01 -2.935312e-01 -3.184087e-01 -2.048393e-01 -2.618394e-01 -2.419022e-01 -6.147384e-02 -6.721011e-02 -6.340543e-02 -7.353315e-02 9.403868e-03 5.215181e-02 1.454646e-01 1.634756e-01 1.953308e-01 1.108534e-01 8.988923e-02 1.646550e-02 -4.862127e-02
<VARIANCE> 39
 3.853103e+00 4.491345e+00 6.192910e+00 1.092233e+01 1.200710e+01 1.494192e+01 1.566603e+01 1.753456e+01 1.657534e+01 1.693078e+01 1.525963e+01 1.399819e+01 3.790359e+01 2.906308e-01 2.363036e-01 3.455792e-01 5.944003e-01 5.516866e-01 7.096832e-01 6.928893e-01 7.346373e-01 7.293904e-01 7.348443e-01 6.817722e-01 6.754333e-01 3.744541e-01 3.834841e-02 3.812093e-02 5.226814e-02 9.190233e-02 9.927163e-02 1.248102e-01 1.277345e-01 1.392601e-01 1.350864e-01 1.411300e-01 1.291927e-01 1.180330e-01 5.118197e-02
<GCONST> 6.452657e+01
<MIXTURE> 6 1.539693e-01
<MEAN> 39
 3.636726e-01 -8.380331e-01 -8.642198e-01 1.303698e+00 6.736965e-01 1.978510e+00 1.186460e+00 1.386768e+00 -4.390422e-01 2.137861e-01 9.033116e-02 1.233859e+00 5.606670e+00 6.612778e-01 4.676902e-01 5.674990e-01 -1.729164e-01 1.566668e-01 -3.258436e-01 -3.456654e-01 -5.900621e-01 -2.710454e-01 -3.619704e-01 -2.146012e-01 -3.162128e-01 -6.148506e-01 1.059095e-01 1.659861e-01 2.446333e-01 -1.893446e-01 1.133658e-03 -2.649475e-01 -1.731359e-01 -2.601575e-01 -9.694114e-03 -9.073943e-02 -6.322649e-02 -1.981813e-01 -6.373590e-01
<VARIANCE> 39
 7.608915e+00 5.804650e+00 7.041814e+00 1.247100e+01 1.370389e+01 1.730883e+01 1.735934e+01 2.025206e+01 2.112795e+01 2.121222e+01 1.967310e+01 1.706313e+01 9.454930e+01 1.880209e+00 1.202455e+00 1.675784e+00 1.053215e+00 1.299616e+00 1.517962e+00 1.429579e+00 1.967019e+00 1.465032e+00 1.517564e+00 1.165437e+00 1.106710e+00 5.751363e+00 1.297372e-01 9.889442e-02 1.423639e-01 1.532689e-01 1.651576e-01 1.945794e-01 2.063523e-01 2.088340e-01 2.281340e-01 2.155266e-01 1.934975e-01 1.734720e-01 4.388353e-01
<GCONST> 9.164895e+01
<MIXTURE> 7 1.016008e-01
<MEAN> 39
 5.386144e+00 2.351328e+00 5.045862e+00 -2.199572e+00 5.276808e-01 -2.403963e+00 -2.447643e+00 -5.424803e+00 -1.379586e+00 -2.087146e+00 -1.121657e+00 -2.333470e+00 -8.332112e+00 -5.115094e-01 -3.909110e-01 -5.636784e-01 -2.531489e-01 -4.654767e-01 -2.469938e-01 -1.586672e-02 3.371191e-03 1.114392e-01 -1.143462e-01 7.642740e-02 2.599445e-02 -1.003267e+00 -2.418315e-01 -1.516336e-01 -2.780800e-01 1.670727e-01 -1.252047e-02 2.012635e-01 1.706378e-01 3.174163e-01 4.761708e-02 1.067613e-01 3.610259e-02 1.332538e-01 5.114878e-01
<VARIANCE> 39
 2.005929e+01 2.499162e+01 2.813769e+01 2.919321e+01 3.442740e+01 3.877930e+01 4.232301e+01 3.925268e+01 3.368531e+01 3.318243e+01 2.681753e+01 2.091294e+01 4.205443e+01 8.934144e-01 9.164019e-01 1.060297e+00 1.137467e+00 1.259190e+00 1.379201e+00 1.295518e+00 1.357842e+00 1.460354e+00 1.285921e+00 1.049482e+00 9.064255e-01 3.781632e+00 1.883359e-01 2.077902e-01 2.144674e-01 2.304983e-01 2.592659e-01 3.211105e-01 3.208897e-01 2.873285e-01 2.767966e-01 2.784946e-01 2.210362e-01 1.889977e-01 4.238709e-01
<GCONST> 1.016054e+02
<MIXTURE> 8 6.407082e-02
<MEAN> 39
 6.217871e+00 3.800761e+00 6.298991e+00 1.122381e+00 4.066057e+00 4.619638e-02 -2.027967e+00 -4.800713e+00 -2.464760e+00 -2.472410e+00 -1.583096e+00 -2.387450e+00 -1.782291e+00 1.209075e-01 1.138550e-02 3.867362e-01 -1.030869e+00 -4.101451e-01 -1.161957e+00 -9.685198e-01 -1.385160e+00 -1.220144e-01 -6.964741e-01 -1.986148e-01 -8.022332e-01 -2.791761e+00 -5.185445e-01 -4.004180e-01 -5.263696e-01 -1.550693e-01 -3.565252e-01 -2.838242e-02 1.308830e-01 3.532860e-01 1.854587e-01 1.928239e-01 1.313618e-01 1.709577e-01 2.442300e-01
<VARIANCE> 39
 1.383373e+01 1.609484e+01 2.722289e+01 2.429420e+01 3.295515e+01 3.946278e+01 4.245209e+01 3.930074e+01 5.095290e+01 4.074708e+01 2.992276e+01 3.064796e+01 4.691380e+01 1.235867e+00 1.159361e+00 1.425672e+00 1.085176e+00 1.300249e+00 1.419820e+00 1.676723e+00 1.523095e+00 1.701777e+00 1.534027e+00 1.449526e+00 1.377437e+00 1.580816e+00 1.197568e-01 1.313120e-01 1.868042e-01 1.866042e-01 2.512543e-01 2.881056e-01 3.198065e-01 3.085544e-01 4.123798e-01 3.207135e-01 2.528024e-01 2.640695e-01 3.054602e-01
<GCONST> 1.025645e+02
<STATE> 4
<NUMMIXES> 8
<MIXTURE> 1 4.446951e-02
<MEAN> 39
 -1.389983e+00 -2.063391e-01 -1.482551e-01 1.825212e+00 9.552828e-01 1.487875e+00 3.805341e-01 8.867214e-01 -5.314435e-01 3.869840e-01 1.314040e-01 1.043926e+00 6.550693e+00 -7.930421e-02 8.051600e-02 1.211405e-01 1.883096e-01 2.788778e-01 3.195563e-01 3.572470e-01 3.343681e-01 3.920485e-01 4.575901e-01 3.046364e-01 2.267699e-01 3.675408e-02 2.481070e-02 -6.940159e-03 -3.054641e-02 -3.777178e-02 -1.476426e-02 9.800337e-03 8.033431e-02 8.102450e-02 1.287442e-01 1.173717e-01 2.638149e-02 -5.860471e-03 -6.569352e-02
<VARIANCE> 39
 2.811883e+00 3.239460e+00 4.912856e+00 7.111013e+00 1.040601e+01 1.121053e+01 1.380142e+01 1.467772e+01 1.759738e+01 1.671755e+01 1.447880e+01 1.404957e+01 1.958017e+01 1.457619e-01 1.536951e-01 2.226782e-01 3.217023e-01 5.076945e-01 5.943731e-01 6.062588e-01 6.495515e-01 8.029383e-01 8.670665e-01 7.028351e-01 5.833255e-01 2.652513e-02 3.326548e-02 3.589102e-02 4.818720e-02 7.146756e-02 1.050776e-01 1.061756e-01 1.285709e-01 1.277688e-01 1.614879e-01 1.569592e-01 1.323091e-01 1.245642e-01 2.080189e-02
<GCONST> 5.537657e+01
<MIXTURE> 2 2.071299e-02
<MEAN> 39
 1.143988e+00 6.482934e-01 8.565142e-01 -1.293846e+00 -1.329509e+00 -2.412912e+00 -2.862181e+00 -3.177021e+00 -1.467949e+00 -8.514085e-01 -8.720002e-01 -1.662820e+00 7.890988e-01 -6.564353e-02 -7.255544e-03 -7.568672e-02 -3.781751e-02 -1.126287e-01 2.075191e-01 3.217412e-01 4.679911e-01 3.983786e-01 3.212700e-01 2.741548e-01 2.272868e-01 -4.441747e-03 -9.189238e-02 -7.516254e-02 -4.987554e-02 1.784149e-01 1.842097e-01 2.812067e-01 3.026553e-01 3.273850e-01 1.285157e-01 1.178140e-01 1.105517e-01 1.810393e-01 8.905478e-02
<VARIANCE> 39
 9.327371e+00 7.329483e+00 1.061576e+01 2.247278e+01 1.579474e+01 1.576479e+01 1.817469e+01 1.746222e+01 2.207577e+01 1.911724e+01 1.686142e+01 1.453109e+01 2.784978e+01 1.480607e-01 1.918106e-01 2.672488e-01 5.093866e-01 5.093910e-01 5.822158e-01 6.518351e-01 8.009373e-01 8.109678e-01 7.540314e-01 5.918857e-01 5.910924e-01 8.144826e-02 4.991734e-02 6.739601e-02 8.056310e-02 1.340727e-01 1.221431e-01 1.199201e-01 1.498201e-01 1.385124e-01 2.008381e-01 1.549217e-01 1.329549e-01 1.145484e-01 1.575519e-02
<GCONST> 6.593030e+01
<MIXTURE> 3 3.411237e-01
<MEAN> 39
 1.112214e-01 5.201160e-01 5.147955e-01 3.458294e-01 -3.902375e-01 -1.016652e+00 -1.525291e+00 -1.667432e+00 -1.622302e+00 -1.065802e+00 -6.161951e-01 -9.532133e-02 2.450105e-01 -2.790655e-04 -1.966870e-02 -3.870287e-02 -6.764422e-02 -9.968923e-03 8.520959e-02 2.127315e-01 3.285794e-01 4.017001e-01 3.838611e-01 3.155364e-01 1.778179e-01 -2.628361e-03 -3.825165e-02 -6.200039e-02 -5.833610e-02 -4.537358e-03 8.650591e-02 1.799157e-01 2.344647e-01 2.590750e-01 2.466872e-01 1.759023e-01 1.111461e-01 4.015302e-02 -1.092891e-02
<VARIANCE> 39
 1.304145e+00 2.559470e+00 4.430095e+00 7.079327e+00 8.722503e+00 1.088981e+01 1.298435e+01 1.311430e+01 1.407479e+01 1.390736e+01 1.390569e+01 1.271399e+01 9.009086e-01 5.776964e-02 1.097937e-01 1.934397e-01 2.734571e-01 4.177540e-01 4.668188e-01 5.047782e-01 5.461611e-01 6.207606e-01 6.129155e-01 5.772318e-01 5.429067e-01 9.563197e-03 1.174472e-02 2.293037e-02 4.199491e-02 6.114149e-02 7.929078e-02 9.642394e-02 1.108568e-01 1.077893e-01 1.152069e-01 1.124597e-01 1.173704e-01 1.087031e-01 2.280400e-03
<GCONST> 4.039099e+01
<MIXTURE> 4 1.091717e-01
<MEAN> 39
 2.594766e+00 3.770884e-01 2.286042e+00 -2.341552e+00 -1.749355e-02 -2.206345e+00 -1.944319e+00 -3.868074e+00 -2.954808e-01 -8.046802e-01 -3.306306e-01 -1.271348e+00 -6.598813e+00 -5.443583e-01 -3.461542e-01 -6.481500e-01 -2.272969e-01 -4.274470e-01 -6.231180e-02 3.119040e-01 5.621233e-01 3.985173e-01 2.577083e-01 2.996096e-01 1.859718e-01 -4.075910e-01 9.992258e-02 1.372588e-01 9.874980e-02 2.187130e-01 1.595168e-01 1.888219e-01 1.053659e-01 1.345907e-01 -5.248613e-02 8.092970e-03 -3.032982e-02 2.928234e-02 3.391551e-01
<VARIANCE> 39
 1.944876e+01 1.265999e+01 1.827734e+01 2.063168e+01 2.208214e+01 2.556409e+01 2.907451e+01 3.135675e+01 2.473964e+01 2.483691e+01 2.091848e+01 1.783028e+01 7.412649e+01 6.760504e-01 6.163104e-01 5.973815e-01 8.325013e-01 9.110889e-01 1.010694e+00 1.044747e+00 1.197359e+00 1.216781e+00 1.163481e+00 1.002518e+00 8.292788e-01 7.702023e-01 1.106346e-01 1.184127e-01 1.246277e-01 1.490925e-01 1.694622e-01 2.118121e-01 2.046430e-01 2.152190e-01 2.020683e-01 2.180057e-01 1.678136e-01 1.677151e-01 4.970451e-01
<GCONST> 8.922212e+01
<MIXTURE> 5 2.849820e-01
<MEAN> 39
 1.589024e-01 3.423903e-01 2.189059e-01 -1.806050e-02 -8.931794e-01 -1.492923e+00 -1.808046e+00 -1.892586e+00 -1.764192e+00 -1.275219e+00 -7.718497e-01 -2.207850e-01 1.781410e-01 -9.147774e-02 -1.615814e-01 -2.334781e-01 -2.722998e-01 -2.281456e-01 -1.375422e-01 -3.256825e-02 1.140299e-01 2.128858e-01 2.150260e-01 1.222861e-01 2.062902e-02 -3.592854e-02 -5.241474e-02 -6.981920e-02 -6.759706e-02 -1.843280e-02 7.547344e-02 1.571332e-01 1.916041e-01 2.119010e-01 1.945360e-01 1.332503e-01 6.199959e-02 2.675877e-03 -1.684992e-02
<VARIANCE> 39
 1.236921e+00 2.531824e+00 4.306843e+00 7.070660e+00 9.057664e+00 1.122752e+01 1.221588e+01 1.346321e+01 1.410363e+01 1.410899e+01 1.330254e+01 1.180394e+01 3.936252e-01 5.402405e-02 1.071534e-01 1.903778e-01 2.824180e-01 4.043465e-01 5.013583e-01 5.410339e-01 5.344144e-01 6.025559e-01 6.257460e-01 5.819393e-01 5.514463e-01 9.866768e-03 1.171219e-02 2.370891e-02 4.117217e-02 6.293112e-02 8.053654e-02 9.922588e-02 1.096136e-01 1.144650e-01 1.083411e-01 1.159218e-01 1.128397e-01 1.029242e-01 2.240940e-03
<GCONST> 3.944847e+01
<MIXTURE> 6 7.983319e-02
<MEAN> 39
 -1.447171e+00 -3.396592e-01 -4.317048e-01 1.647722e+00 4.963153e-01 1.076892e+00 3.046167e-02 6.267675e-01 -7.153098e-01 -7.110631e-02 -2.901946e-01 9.127754e-01 6.225012e+00 -2.019537e-01 -6.474748e-02 -5.510092e-02 -4.222496e-02 5.482823e-03 1.281278e-02 6.814951e-02 1.247464e-01 1.782346e-01 2.059562e-01 1.263398e-01 3.510889e-02 -1.285099e-02 5.199473e-02 3.949368e-03 -1.658022e-02 -6.743170e-02 -2.144271e-02 -1.999159e-02 3.265642e-02 3.227668e-02 7.988415e-02 7.443597e-02 1.449309e-02 -3.579470e-02 -8.932313e-02
<VARIANCE> 39
 2.750681e+00 3.413304e+00 4.847454e+00 7.680171e+00 1.072319e+01 1.167205e+01 1.368327e+01 1.476177e+01 1.774610e+01 1.591321e+01 1.419864e+01 1.315067e+01 1.976336e+01 1.425054e-01 1.519751e-01 2.190953e-01 3.101835e-01 4.504995e-01 5.615582e-01 6.227235e-01 6.588179e-01 7.512020e-01 7.599326e-01 6.755949e-01 6.068993e-01 1.949797e-02 3.639901e-02 3.679913e-02 5.094605e-02 8.365093e-02 1.130368e-01 1.131553e-01 1.305724e-01 1.424909e-01 1.494290e-01 1.470797e-01 1.315670e-01 1.304098e-01 3.187444e-02
<GCONST> 5.560625e+01
<MIXTURE> 7 3.049695e-02
<MEAN> 39
 2.227189e+00 7.915123e-01 1.209431e+00 -2.097419e+00 -1.264787e+00 -3.287281e+00 -2.524890e+00 -3.445731e+00 -2.482344e+00 -1.844990e+00 -1.734365e+00 -1.982759e+00 -1.794156e+00 -1.266388e-02 -9.873918e-02 -2.761932e-01 -4.207322e-01 -3.266140e-01 -1.098419e-01 -4.305919e-03 2.715483e-02 4.251594e-02 -8.549792e-02 7.410944e-03 -2.100065e-02 -1.643039e-01 -9.843827e-02 -8.354249e-02 -5.370438e-02 1.329754e-01 1.376160e-01 2.580463e-01 2.047089e-01 2.328450e-01 1.889116e-01 1.391688e-01 1.082148e-01 1.217221e-01 8.418903e-02
<VARIANCE> 39
 9.125461e+00 7.600041e+00 1.145627e+01 1.985655e+01 1.764654e+01 1.827464e+01 1.703365e+01 2.065124e+01 1.906879e+01 1.942844e+01 1.783270e+01 1.402355e+01 3.770764e+01 1.410863e-01 1.784342e-01 2.514930e-01 4.898413e-01 5.312620e-01 6.181102e-01 7.202647e-01 7.692459e-01 7.613139e-01 6.998500e-01 5.877143e-01 6.305977e-01 9.032881e-02 4.630696e-02 5.421150e-02 8.045681e-02 1.039618e-01 1.201484e-01 1.339491e-01 1.366489e-01 1.432298e-01 1.341673e-01 1.313458e-01 1.202240e-01 1.130435e-01 1.483717e-02
<GCONST> 6.516078e+01
<MIXTURE> 8 8.926028e-02
<MEAN> 39
 2.473844e+00 3.879316e-01 2.478661e+00 -2.835948e+00 5.684602e-01 -2.417450e+00 -1.173809e+00 -3.645086e+00 -1.589467e-01 -1.591300e+00 -6.762035e-01 -2.312599e+00 -6.083900e+00 -7.400225e-01 -6.950617e-01 -8.808512e-01 -9.387280e-01 -8.742318e-01 -8.944099e-01 -2.714253e-01 -1.907007e-01 6.197546e-02 -2.807682e-01 7.066500e-02 -2.438927e-01 -9.761837e-01 1.015995e-02 3.678095e-02 -1.287617e-02 1.722759e-01 3.146569e-02 1.467557e-01 5.932859e-02 1.581313e-01 -1.896535e-02 1.072546e-01 2.159976e-02 1.244605e-01 3.758134e-01
<VARIANCE> 39
 1.647666e+01 1.014268e+01 1.675660e+01 2.288529e+01 2.045779e+01 2.522567e+01 2.403752e+01 3.096053e+01 2.424456e+01 2.363181e+01 2.280105e+01 1.620893e+01 4.241591e+01 8.131844e-01 6.403561e-01 6.787364e-01 1.101204e+00 8.437947e-01 1.012432e+00 9.558588e-01 1.125185e+00 1.427898e+00 1.032723e+00 9.843378e-01 7.673519e-01 5.514025e-01 9.154411e-02 1.131614e-01 1.245462e-01 1.491918e-01 1.325150e-01 1.732957e-01 1.493094e-01 2.063989e-01 1.669222e-01 1.784152e-01 1.641327e-01 1.494899e-01 1.450285e-01
<GCONST> 8.513735e+01
<TRANSP> 5
 0.000000e+00 1.000000e+00 0.000000e+00 0.000000e+00 0.000000e+00
 0.000000e+00 4.132619e-01 5.867381e-01 0.000000e+00 0.000000e+00
 0.000000e+00 0.000000e+00 6.115693e-01 3.884307e-01 0.000000e+00
 0.000000e+00 0.000000e+00 0.000000e+00 1.964466e-01 8.035533e-01
 0.000000e+00 0.000000e+00 0.000000e+00 0.000000e+00 0.000000e+00
<ENDHMM>
~h "r"
<BEGINHMM>
<NUMSTATES> 5
<STATE> 2
<NUMMIXES> 8
<MIXTURE> 1 5.550300e-02
<MEAN> 39
 -3.063823e+00 -6.875237e-01 -8.449239e-01 2.038708e+00 9.198042e-01 2.391076e+00 1.289343e+00 2.612884e+00 5.592138e-01 1.841299e+00 5.862592e-01 1.515174e+00 9.981499e+00 1.293548e-01 1.550372e-01 2.332275e-01 2.891614e-01 3.462585e-01 3.532433e-01 3.514717e-01 3.624594e-01 2.843538e-01 1.945735e-01 1.103204e-01 8.167310e-02 4.530800e-02 4.615454e-02 2.237874e-02 4.348172e-03 -2.696311e-03 -3.956227e-03 -1.297067e-02 -3.044411e-02 -1.328431e-02 -2.938472e-04 -1.035111e-02 -3.053959e-03 -8.834512e-04 1.038972e-02
<VARIANCE> 39
 1.954899e+00 3.000002e+00 4.640338e+00 8.167562e+00 1.137231e+01 1.429075e+01 1.579407e+01 1.597286e+01 1.640962e+01 1.561666e+01 1.564727e+01 1.385461e+01 1.566011e+01 4.768119e-02 1.133852e-01 2.085568e-01 3.173309e-01 4.220882e-01 4.998527e-01 5.682507e-01 5.787328e-01 6.190373e-01 6.050646e-01 5.866045e-01 5.867159e-01 9.736297e-03 9.867102e-03 2.044274e-02 3.691063e-02 6.083349e-02 8.749144e-02 1.044063e-01 1.241797e-01 1.235360e-01 1.203541e-01 1.201952e-01 1.270041e-01 1.126944e-01 1.942824e-03
<GCONST> 4.588787e+01
<MIXTURE> 2 1.465930e-01
<MEAN> 39
 -2.060847e+00 5.868125e-01 2.479961e-01 2.632935e+00 1.120340e+00 2.095340e+00 5.423839e-01 1.806485e+00 1.089730e-01 1.204100e+00 1.745752e-02 1.133770e+00 8.827257e+00 4.101862e-02 3.349344e-02 4.557111e-02 3.959717e-02 6.745784e-02 9.717339e-02 1.019685e-01 1.228702e-01 1.388354e-01 1.512039e-01 1.596163e-01 1.347291e-01 1.568174e-02 -1.078447e-02 -5.907853e-02 -6.609262e-02 -5.269315e-02 -1.985468e-02 2.397813e-03 3.189024e-02 3.376279e-02 3.543704e-02 5.092948e-02 5.393755e-02 3.539798e-02 -5.635735e-03
<VARIANCE> 39
 1.562218e+00 2.680409e+00 4.215527e+00 7.907845e+00 9.173897e+00 1.110979e+01 1.288005e+01 1.385960e+01 1.480393e+01 1.486299e+01 1.340229e+01 1.198381e+01 1.589676e+01 5.387460e-02 1.113309e-01 1.981348e-01 2.965378e-01 3.864944e-01 4.647955e-01 5.635512e-01 6.249125e-01 6.553537e-01 6.295167e-01 6.100147e-01 5.491771e-01 9.852143e-03 9.606482e-03 1.869422e-02 3.513870e-02 5.487312e-02 7.179801e-02 9.018390e-02 1.066640e-01 1.168342e-01 1.232128e-01 1.197736e-01 1.109787e-01 1.001230e-01 1.851748e-03
<GCONST> 4.304511e+01
<MIXTURE> 3 1.295835e-01
<MEAN> 39
 -1.314609e+00 4.164103e-02 -1.939334e-01 1.257325e+00 7.062033e-01 1.566115e+00 1.083326e+00 2.029162e+00 1.224545e+00 1.652200e+00 7.418280e-01 9.470724e-01 4.512819e+00 3.976396e-02 -3.974844e-03 -8.832683e-02 -1.750893e-01 -2.579614e-01 -2.933156e-01 -2.933118e-01 -2.683201e-01 -1.828140e-01 -9.138682e-02 5.507655e-03 7.160085e-02 1.446937e-02 3.087078e-02 2.154492e-02 2.165121e-02 1.664822e-02 -4.328888e-03 -3.262110e-02 -5.988564e-02 -8.851989e-02 -9.893726e-02 -7.649924e-02 -5.233080e-02 -2.056566e-02 7.942199e-03
<VARIANCE> 39
 1.907253e+00 2.574409e+00 4.409036e+00 7.652856e+00 8.938293e+00 1.130244e+01 1.309433e+01 1.375397e+01 1.489479e+01 1.483614e+01 1.403174e+01 1.309400e+01 2.273366e+01 5.712678e-02 1.145129e-01 1.970092e-01 3.049648e-01 3.930407e-01 4.946817e-01 5.528513e-01 6.097748e-01 6.527609e-01 6.224005e-01 5.942922e-01 5.592767e-01 1.028437e-02 1.114257e-02 2.022351e-02 3.559212e-02 5.232236e-02 6.791967e-02 8.593008e-02 1.012413e-01 1.146266e-01 1.196185e-01 1.190105e-01 1.176870e-01 1.069610e-01 1.987253e-03
<GCONST> 4.405368e+01
<MIXTURE> 4 1.705639e-01
<MEAN> 39
 -3.021075e+00 -1.218080e+00 -1.790866e+00 9.623871e-01 1.054847e-01 1.794523e+00 8.544115e-01 2.322709e+00 8.551560e-01 2.166352e+00 1.101773e+00 1.906606e+00 9.291657e+00 2.277572e-02 2.274418e-02 5.476605e-02 5.770473e-02 6.540339e-02 8.777659e-02 7.796559e-02 5.454066e-02 7.657178e-02 7.530327e-02 3.664960e-02 2.161677e-02 6.754381e-03 5.517120e-02 7.161681e-02 9.221497e-02 8.427954e-02 6.494855e-02 3.408937e-02 9.436203e-03 1.450407e-03 -1.866369e-02 -4.042121e-02 -4.776925e-02 -3.615006e-02 1.148924e-02
<VARIANCE> 39
 2.020179e+00 2.871990e+00 4.742677e+00 7.754702e+00 1.025778e+01 1.315166e+01 1.454694e+01 1.625730e+01 1.673018e+01 1.628021e+01 1.491353e+01 1.339774e+01 1.740912e+01 5.099868e-02 1.167365e-01 1.935932e-01 2.871462e-01 3.861069e-01 4.796148e-01 5.725697e-01 6.134088e-01 6.326364e-01 6.426531e-01 6.143705e-01 5.440162e-01 8.952757e-03 9.631538e-03 2.033082e-02 3.614411e-02 5.639188e-02 7.988650e-02 9.798003e-02 1.147800e-01 1.283679e-01 1.336273e-01 1.284703e-01 1.210255e-01 1.075793e-01 1.719270e-03
<GCONST> 4.514065e+01
<MIXTURE> 5 1.347644e-01
<MEAN> 39
 -2.964408e+00 -1.555755e+00 -2.124124e+00 3.884452e-01 -3.442008e-01 1.129848e+00 3.087346e-01 1.778774e+00 4.150360e-01 1.638344e+00 7.811815e-01 1.629288e+00 8.261402e+00 -5.451158e-02 -7.709394e-02 -8.989237e-02 -9.839109e-02 -1.340464e-01 -1.254988e-01 -1.531735e-01 -1.975049e-01 -1.762035e-01 -1.791041e-01 -1.781900e-01 -1.338877e-01 -1.993030e-02 4.400492e-02 6.910084e-02 8.389562e-02 6.367234e-02 3.940040e-02 1.850347e-02 -1.314057e-02 -3.897352e-02 -4.817888e-02 -6.977972e-02 -7.397933e-02 -6.045224e-02 5.132701e-03
<VARIANCE> 39
 2.136634e+00 2.860009e+00 4.524111e+00 7.994993e+00 1.022501e+01 1.346054e+01 1.468926e+01 1.628714e+01 1.695908e+01 1.632883e+01 1.496688e+01 1.366652e+01 1.994607e+01 4.985134e-02 1.119395e-01 1.939317e-01 2.977501e-01 3.952044e-01 4.779210e-01 6.001621e-01 6.244418e-01 6.372751e-01 6.508999e-01 6.135750e-01 5.184366e-01 8.767354e-03 9.823781e-03 2.175357e-02 3.697088e-02 5.693299e-02 8.081577e-02 9.859475e-02 1.182862e-01 1.292837e-01 1.364825e-01 1.276983e-01 1.224861e-01 1.079896e-01 1.739861e-03
<GCONST> 4.560850e+01
<MIXTURE> 6 1.752719e-01
<MEAN> 39
 -1.995724e+00 2.071266e-01 -9.048322e-02 2.071350e+00 8.092585e-01 1.696149e+00 3.165632e-01 1.493405e+00 -5.002384e-02 8.543991e-01 -2.013019e-01 7.729592e-01 7.862717e+00 -3.718902e-02 -7.110564e-02 -1.098688e-01 -1.306034e-01 -1.361593e-01 -1.489737e-01 -1.516803e-01 -1.348897e-01 -1.234635e-01 -9.035494e-02 -6.484741e-02 -2.524372e-02 -1.340291e-02 -1.728280e-02 -5.748038e-02 -7.213323e-02 -6.922597e-02 -5.244596e-02 -3.874343e-02 -1.492962e-02 -1.835680e-02 -1.166255e-02 6.147269e-03 1.108562e-02 6.852994e-03 -1.188533e-02
<VARIANCE> 39
 1.736974e+00 2.450292e+00 4.287410e+00 7.663031e+00 9.396161e+00 1.140397e+01 1.303663e+01 1.403974e+01 1.520851e+01 1.460918e+01 1.341527e+01 1.216778e+01 1.791231e+01 5.413406e-02 1.110937e-01 2.009498e-01 2.950468e-01 3.885984e-01 4.756824e-01 5.649787e-01 6.128345e-01 6.667981e-01 6.365792e-01 6.207379e-01 5.441034e-01 9.608990e-03 1.002486e-02 1.895866e-02 3.559814e-02 5.397691e-02 7.439113e-02 8.832152e-02 1.055154e-01 1.145277e-01 1.227927e-01 1.168608e-01 1.139171e-01 1.016214e-01 1.889946e-03
<GCONST> 4.337261e+01
<MIXTURE> 7 7.919879e-02
<MEAN> 39
 -8.402961e-01 -2.230668e-01 -4.482003e-01 4.458104e-01 2.970985e-01 8.863057e-01 7.034384e-01 1.364462e+00 9.263563e-01 1.034370e+00 4.873227e-01 4.639903e-01 2.419254e+00 -2.439614e-02 -8.265553e-02 -2.249221e-01 -3.448148e-01 -4.903648e-01 -5.645042e-01 -5.609760e-01 -5.147649e-01 -4.384831e-01 -3.483687e-01 -2.523026e-01 -8.021530e-02 -1.126427e-02 2.186982e-02 2.598865e-02 2.016716e-02 -3.024414e-04 -3.522912e-02 -7.248492e-02 -9.756210e-02 -1.341158e-01 -1.404719e-01 -1.214232e-01 -9.210154e-02 -4.237267e-02 2.657533e-03
<VARIANCE> 39
 1.941577e+00 2.576656e+00 4.468891e+00 7.541175e+00 8.959846e+00 1.153411e+01 1.313554e+01 1.440922e+01 1.532318e+01 1.515785e+01 1.436192e+01 1.304689e+01 1.546426e+01 5.479022e-02 1.120699e-01 2.009284e-01 3.084030e-01 3.866646e-01 5.013795e-01 5.569938e-01 5.890337e-01 6.314695e-01 5.896724e-01 5.747333e-01 5.801011e-01 1.036960e-02 1.079975e-02 2.070954e-02 3.670571e-02 5.236847e-02 6.519595e-02 8.147112e-02 9.647681e-02 1.105485e-01 1.191506e-01 1.155073e-01 1.176522e-01 1.045627e-01 1.895011e-03
<GCONST> 4.343068e+01
<MIXTURE> 8 1.084977e-01
<MEAN> 39
 -3.101060e+00 -1.011275e+00 -1.241316e+00 1.557194e+00 5.327017e-01 2.017008e+00 8.236302e-01 2.086236e+00 3.622658e-01 1.457984e+00 3.120235e-01 1.301584e+00 9.372100e+00 3.845857e-02 4.509985e-02 7.964367e-02 9.444898e-02 1.175747e-01 1.321221e-01 1.140046e-01 1.072883e-01 5.896642e-02 -4.953062e-03 -8.234899e-02 -8.555195e-02 1.231610e-02 2.975205e-02 1.230611e-02 -4.869414e-03 -2.568618e-02 -3.618467e-02 -4.703218e-02 -5.129037e-02 -4.257444e-02 -4.106029e-02 -4.424508e-02 -3.237781e-02 -2.154407e-02 2.242638e-03
<VARIANCE> 39
 1.998104e+00 2.800497e+00 4.647603e+00 7.899919e+00 1.102239e+01 1.403949e+01 1.574799e+01 1.631516e+01 1.615059e+01 1.611319e+01 1.523588e+01 1.349722e+01 1.533536e+01 4.960733e-02 1.136272e-01 1.978617e-01 2.952387e-01 4.042597e-01 4.903813e-01 5.804822e-01 6.023301e-01 6.359614e-01 6.147395e-01 6.036842e-01 5.455697e-01 8.936618e-03 9.467768e-03 2.100237e-02 3.608520e-02 5.709165e-02 8.492053e-02 1.038138e-01 1.225733e-01 1.243260e-01 1.258816e-01 1.265270e-01 1.230141e-01 1.060163e-01 1.758868e-03
<GCONST> 4.531033e+01
<STATE> 3
<NUMMIXES> 8
<MIXTURE> 1 3.183543e-02
<MEAN> 39
 -2.686345e+00 -8.645049e-01 -1.163487e+00 1.719829e+00 6.865920e-01 2.589225e+00 1.599234e+00 2.816685e+00 8.319408e-01 2.620038e+00 8.087546e-01 1.626194e+00 1.041457e+01 4.044031e-01 1.201411e-01 1.553299e-01 1.357161e-01 1.405877e-01 8.805354e-02 5.125484e-02 1.037411e-01 8.133521e-02 1.400503e-01 1.142192e-01 1.358413e-01 5.895948e-02 1.663607e-01 9.869616e-02 1.157030e-01 6.632639e-02 8.135865e-02 -5.750053e-03 -3.343849e-02 -6.865370e-02 -5.776881e-02 -1.152816e-01 -5.249848e-02 -7.641537e-02 -8.137140e-02
