~o
<STREAMINFO> 1 39
<VECSIZE> 39<NULLD><MFCC_D_A_Z_0><DIAGC>
~v "varFloor1"
<VARIANCE> 39
 5.653673e-02 4.886588e-02 6.880558e-02 1.097444e-01 1.173968e-01 1.501360e-01 1.524483e-01 1.769248e-01 1.673871e-01 1.699316e-01 1.501835e-01 1.395998e-01 3.516366e-01 1.948883e-03 2.195148e-03 3.084339e-03 4.548327e-03 5.169705e-03 6.475277e-03 6.752422e-03 7.581503e-03 7.468139e-03 7.484302e-03 6.703977e-03 6.097627e-03 6.117719e-03 3.081363e-04 3.835776e-04 5.522510e-04 7.938185e-04 9.348416e-04 1.158605e-03 1.234846e-03 1.362727e-03 1.366371e-03 1.361924e-03 1.233620e-03 1.112660e-03 7.270522e-04
~s "silst"
<NUMMIXES> 16
<MIXTURE> 1 2.005883e-02
<MEAN> 39
 3.951702e-01 1.918037e-01 -1.763344e-02 -3.121686e-01 -4.089486e-01 -1.630356e-01 1.133946e-01 4.747164e-01 4.036152e-01 3.544013e-01 -1.263894e-01 5.157292e-02 -9.595071e-02 -2.125545e-01 2.737554e-01 4.339291e-01 1.055870e+00 6.226078e-01 7.597146e-01 3.351770e-01 3.481947e-01 2.613909e-01 3.107294e-01 2.340833e-01 2.782064e-01 2.363077e-01 -3.200298e-03 -1.223481e-02 1.167050e-02 1.094607e-02 3.857656e-02 9.636498e-03 -1.061445e-03 -2.412900e-02 -2.634075e-02 -1.414137e-02 2.781124e-02 -1.705345e-03 -2.165670e-03
<VARIANCE> 39
 2.114306e+00 3.052835e+00 4.834741e+00 9.510294e+00 1.046734e+01 1.362586e+01 1.507018e+01 1.515008e+01 1.596507e+01 1.607759e+01 1.441279e+01 1.256174e+01 6.604191e-01 1.813953e-01 2.016745e-01 2.450982e-01 5.105863e-01 4.989424e-01 6.831264e-01 7.134648e-01 7.954137e-01 6.827709e-01 7.518528e-01 6.451303e-01 5.931499e-01 6.417996e-02 1.783140e-02 2.634775e-02 4.148585e-02 8.627317e-02 8.902745e-02 1.196418e-01 1.331227e-01 1.313330e-01 1.295989e-01 1.326963e-01 1.240323e-01 1.067015e-01 5.645369e-03
<GCONST> 5.124083e+01
<MIXTURE> 2 8.656815e-02
<MEAN> 39
 2.316269e-02 6.031746e-01 1.325030e+00 2.024283e+00 1.791936e+00 1.253978e+00 2.059836e-01 -4.396177e-01 -8.483216e-01 -9.528211e-01 -8.381659e-01 -4.141606e-01 1.912601e-01 7.020782e-02 1.224724e-01 1.544243e-01 1.450229e-01 1.238597e-01 1.426999e-01 1.888754e-01 2.298199e-01 2.358763e-01 2.404072e-01 1.980579e-01 9.241533e-02 3.519798e-02 -3.160212e-03 -5.186118e-02 -1.145843e-01 -1.750714e-01 -1.585388e-01 -9.512047e-02 2.597902e-03 7.667720e-02 1.110665e-01 1.216159e-01 1.078587e-01 6.448134e-02 -1.342679e-02
<VARIANCE> 39
 1.900409e+00 2.531528e+00 4.119726e+00 7.176540e+00 9.561401e+00 1.181669e+01 1.318053e+01 1.458441e+01 1.417281e+01 1.421649e+01 1.342975e+01 1.226925e+01 3.516366e-01 1.047758e-01 1.420547e-01 2.408582e-01 3.561056e-01 4.255691e-01 5.257449e-01 6.024565e-01 6.878539e-01 6.956301e-01 6.829733e-01 6.556532e-01 5.576412e-01 1.707707e-02 1.841361e-02 2.514477e-02 4.155607e-02 6.761417e-02 8.380178e-02 1.019623e-01 1.164901e-01 1.238198e-01 1.266655e-01 1.267548e-01 1.177905e-01 1.028800e-01 3.264969e-03
<GCONST> 4.430064e+01
<MIXTURE> 3 7.496072e-02
<MEAN> 39
 -5.476962e-01 -1.100279e+00 -1.677923e+00 -1.796010e+00 -1.229805e+00 -4.261789e-01 2.319334e-01 6.444355e-01 8.594676e-01 9.235438e-01 8.476622e-01 7.121306e-01 -2.956119e-01 6.240431e-02 1.236579e-01 1.682420e-01 1.982802e-01 1.539044e-01 1.790371e-01 1.942747e-01 1.968643e-01 2.181167e-01 2.065607e-01 1.868746e-01 1.112165e-01 4.046458e-02 6.873460e-02 1.284970e-01 2.024750e-01 2.311066e-01 1.634968e-01 8.024351e-02 4.686011e-03 -3.537469e-02 -5.753273e-02 -5.459176e-02 -5.770531e-02 -5.460686e-02 3.438201e-02
<VARIANCE> 39
 2.061433e+00 2.731935e+00 4.153075e+00 6.537937e+00 9.273347e+00 1.229642e+01 1.443098e+01 1.603884e+01 1.659571e+01 1.610958e+01 1.490541e+01 1.332856e+01 3.516366e-01 7.919882e-02 1.346470e-01 2.266109e-01 3.411482e-01 4.227745e-01 5.183712e-01 5.787355e-01 6.555002e-01 6.717629e-01 6.841339e-01 6.199870e-01 5.460353e-01 1.371413e-02 1.632022e-02 2.278282e-02 3.448505e-02 5.639360e-02 7.993506e-02 1.019807e-01 1.165075e-01 1.326566e-01 1.365079e-01 1.299780e-01 1.232892e-01 1.053067e-01 2.457570e-03
<GCONST> 4.348149e+01
<MIXTURE> 4 4.287644e-02
<MEAN> 39
 2.386940e+00 -3.274877e-01 -3.171635e-01 -3.684043e+00 -1.471711e+00 -2.664752e+00 -8.323538e-01 -1.423455e+00 -1.079439e+00 -1.631278e+00 -9.096169e-01 -1.629469e+00 -1.341416e+00 -4.191846e-04 1.671294e-02 -7.594545e-02 -4.155228e-02 -6.339130e-02 6.128753e-02 1.194671e-01 1.638814e-01 1.557044e-01 2.080461e-01 1.371162e-01 1.258752e-01 1.270697e-04 -1.454519e-01 1.365200e-02 2.634322e-02 2.654082e-01 1.132709e-01 2.196217e-01 9.040403e-02 1.394933e-01 1.033801e-01 1.603444e-01 1.086960e-01 1.487985e-01 8.713675e-02
<VARIANCE> 39
 4.015050e+00 5.260596e+00 5.662016e+00 1.394198e+01 1.232683e+01 1.630046e+01 1.602381e+01 1.712417e+01 1.597909e+01 1.586390e+01 1.471376e+01 1.315683e+01 1.295405e+00 1.506473e-01 1.716042e-01 2.591595e-01 5.221874e-01 5.049567e-01 6.377929e-01 6.549796e-01 6.860300e-01 7.215776e-01 6.917508e-01 6.653159e-01 5.888110e-01 4.924949e-02 2.591125e-02 3.753683e-02 4.537693e-02 9.473751e-02 1.022170e-01 1.245083e-01 1.314913e-01 1.349820e-01 1.334763e-01 1.329689e-01 1.213688e-01 1.103824e-01 8.391520e-03
<GCONST> 5.493724e+01
<MIXTURE> 5 6.815338e-02
<MEAN> 39
 -1.341872e-01 -1.056241e+00 -1.800248e+00 -2.422846e+00 -1.815928e+00 -1.308838e+00 -4.628592e-01 6.129989e-02 3.735606e-01 9.217681e-01 9.295065e-01 6.588707e-01 -4.121479e-01 -1.088802e-02 -2.529156e-02 -7.784012e-02 -7.052413e-02 -7.401151e-02 -2.146267e-02 1.044588e-02 1.601825e-02 2.293026e-02 3.855122e-02 6.595945e-02 9.208339e-02 9.596632e-04 3.976392e-02 1.120551e-01 1.932236e-01 2.424877e-01 1.896256e-01 1.367565e-01 6.439248e-02 1.536702e-02 -1.840862e-02 -5.896127e-02 -5.853419e-02 -4.698569e-02 3.382310e-02
<VARIANCE> 39
 2.600561e+00 3.330822e+00 4.543504e+00 8.272583e+00 9.562255e+00 1.307295e+01 1.471726e+01 1.686953e+01 1.624673e+01 1.587251e+01 1.446511e+01 1.285256e+01 5.392217e-01 7.994400e-02 1.374829e-01 2.326647e-01 3.789148e-01 4.553123e-01 5.517247e-01 5.947749e-01 6.549999e-01 6.814492e-01 6.658287e-01 6.329694e-01 5.596400e-01 1.648610e-02 1.809565e-02 2.608357e-02 3.755414e-02 6.553502e-02 8.293779e-02 1.072792e-01 1.170843e-01 1.373640e-01 1.320791e-01 1.294754e-01 1.195067e-01 1.047905e-01 3.519209e-03
<GCONST> 4.615311e+01
<MIXTURE> 6 1.292911e-01
<MEAN> 39
 1.900133e-01 4.904455e-01 8.929773e-01 1.284543e+00 1.022002e+00 1.002675e+00 6.205279e-01 5.137591e-01 3.830744e-01 3.005244e-01 6.531554e-02 -3.466072e-02 2.270990e-01 1.798902e-02 -6.944719e-02 -1.941803e-01 -3.248010e-01 -2.645732e-01 -1.747890e-01 -3.858176e-02 5.705283e-02 9.116450e-02 1.090962e-01 1.165024e-01 9.273884e-02 -2.832184e-02 -1.050170e-02 -3.441106e-02 -6.928016e-02 -9.986271e-02 -7.994891e-02 -6.584246e-02 -2.852040e-02 -9.034093e-03 -1.783930e-04 6.433614e-03 2.738698e-02 3.357399e-02 -1.629061e-02
<VARIANCE> 39
 1.706667e+00 2.474140e+00 4.130372e+00 6.756767e+00 8.819970e+00 1.104731e+01 1.304958e+01 1.399241e+01 1.420041e+01 1.399815e+01 1.349845e+01 1.200535e+01 3.516366e-01 1.136955e-01 1.435155e-01 2.297985e-01 3.557868e-01 4.399216e-01 5.312518e-01 6.174250e-01 6.685384e-01 6.915501e-01 6.891717e-01 6.450282e-01 5.654399e-01 1.958812e-02 1.733710e-02 2.413039e-02 4.016544e-02 6.513440e-02 8.052591e-02 9.751242e-02 1.137758e-01 1.204570e-01 1.246948e-01 1.241107e-01 1.184843e-01 1.016998e-01 3.269159e-03
<GCONST> 4.375481e+01
<MIXTURE> 7 7.212251e-02
<MEAN> 39
 4.102352e-02 -2.856743e-02 -3.038645e-04 1.450622e-01 3.951970e-02 5.559585e-01 1.038429e+00 1.372163e+00 1.373994e+00 1.341287e+00 1.160655e+00 8.450867e-01 9.169626e-02 2.650778e-02 1.682206e-01 3.583202e-01 5.398135e-01 4.509092e-01 2.997773e-01 9.043320e-02 -2.398630e-02 -7.929867e-02 -9.837057e-02 -7.554081e-02 -5.876049e-02 6.258589e-02 1.335344e-02 1.409530e-02 1.947539e-02 4.042064e-03 1.293240e-02 -3.703357e-02 -8.648854e-02 -1.146479e-01 -1.184130e-01 -1.091417e-01 -9.469743e-02 -6.944792e-02 -8.449696e-03
<VARIANCE> 39
 2.032228e+00 2.683912e+00 4.005151e+00 6.549611e+00 8.575980e+00 1.183308e+01 1.371837e+01 1.439349e+01 1.469451e+01 1.426056e+01 1.384077e+01 1.232898e+01 3.604286e-01 1.316148e-01 1.489582e-01 2.252917e-01 3.153384e-01 4.231860e-01 5.596145e-01 6.394882e-01 6.953307e-01 6.901487e-01 6.831854e-01 6.314832e-01 5.552172e-01 2.223965e-02 1.859904e-02 2.417522e-02 3.781436e-02 6.370417e-02 7.714270e-02 1.033057e-01 1.154687e-01 1.233383e-01 1.236586e-01 1.217003e-01 1.168904e-01 1.024140e-01 3.588866e-03
<GCONST> 4.450596e+01
<MIXTURE> 8 1.864165e-02
<MEAN> 39
 1.420262e+00 -2.551797e-01 -2.434005e-01 -1.910723e+00 -9.351565e-01 -1.197831e+00 -2.177966e-01 -1.140746e-02 1.382714e-01 -2.795631e-02 3.156035e-01 -2.602741e-01 -6.674720e-01 5.197625e-01 -1.663692e-01 -1.116427e-02 -8.482116e-01 -1.414436e-01 -6.046907e-01 -3.365808e-02 -3.314803e-01 -5.983817e-02 -2.703425e-01 -9.605191e-03 -3.414742e-01 -3.993486e-01 -1.317910e-02 3.954694e-04 5.770527e-03 3.707710e-02 4.976819e-02 4.772187e-02 3.603239e-02 -8.450631e-03 -1.099642e-03 -2.670620e-03 -1.664334e-02 -8.931976e-03 -5.791759e-03
<VARIANCE> 39
 3.412405e+00 5.395528e+00 6.577578e+00 1.704375e+01 1.319066e+01 1.828389e+01 1.535578e+01 1.746285e+01 1.740309e+01 1.650804e+01 1.577888e+01 1.484677e+01 1.919191e+00 1.974169e-01 2.522989e-01 3.493247e-01 5.750474e-01 6.622521e-01 6.905034e-01 7.778812e-01 7.879727e-01 7.543115e-01 7.812819e-01 6.955708e-01 6.486065e-01 6.273829e-02 2.919144e-02 4.219193e-02 5.539388e-02 1.345526e-01 1.016579e-01 1.392563e-01 1.259092e-01 1.450643e-01 1.373737e-01 1.429747e-01 1.225969e-01 1.215665e-01 1.538777e-02
<GCONST> 6.001622e+01
<MIXTURE> 9 8.055080e-02
<MEAN> 39
 2.372686e-01 3.269659e-01 5.822404e-01 7.818307e-01 5.798500e-01 5.727477e-01 2.344527e-01 2.106379e-01 7.909721e-02 -2.711713e-04 -1.508561e-01 -1.710989e-01 1.287325e-01 -3.182306e-02 -1.969540e-01 -3.562640e-01 -5.591189e-01 -4.742259e-01 -4.471418e-01 -3.002729e-01 -2.090050e-01 -1.720448e-01 -1.603524e-01 -1.287521e-01 -7.407300e-02 -8.160030e-02 -1.435869e-02 -5.346583e-02 -9.571635e-02 -1.408586e-01 -1.102713e-01 -1.081668e-01 -6.303298e-02 -4.944958e-02 -3.599640e-02 -2.899697e-02 -9.804528e-03 3.383172e-03 -2.307794e-02
<VARIANCE> 39
 1.593792e+00 2.502599e+00 4.328294e+00 6.920099e+00 8.847315e+00 1.120326e+01 1.297596e+01 1.380021e+01 1.488913e+01 1.419238e+01 1.372848e+01 1.215100e+01 3.516366e-01 1.099563e-01 1.411400e-01 2.267619e-01 3.473912e-01 4.404664e-01 5.434775e-01 6.237268e-01 6.779482e-01 6.955681e-01 6.846091e-01 6.391883e-01 5.731360e-01 2.160743e-02 1.607380e-02 2.447520e-02 3.973097e-02 6.615581e-02 7.880337e-02 9.681161e-02 1.132222e-01 1.181684e-01 1.283789e-01 1.242120e-01 1.151425e-01 1.015027e-01 3.556907e-03
<GCONST> 4.389281e+01
<MIXTURE> 10 1.234473e-01
<MEAN> 39
 1.034373e-01 4.550789e-01 1.046110e+00 1.545142e+00 1.351146e+00 8.519591e-01 -9.514514e-02 -8.210413e-01 -1.231370e+00 -1.227650e+00 -1.071939e+00 -6.041369e-01 1.109705e-01 -3.750680e-03 -2.435409e-02 -5.131541e-02 -1.129518e-01 -1.127230e-01 -9.572107e-02 -5.345891e-02 -8.345401e-03 8.843914e-04 1.440592e-03 -3.001692e-02 -4.538190e-02 -1.372053e-02 -1.314182e-02 -7.247364e-02 -1.423522e-01 -2.090749e-01 -1.880245e-01 -1.321028e-01 -3.139966e-02 4.384104e-02 8.124970e-02 8.654755e-02 7.730141e-02 4.673890e-02 -1.969731e-02
<VARIANCE> 39
 1.861801e+00 2.582234e+00 4.337343e+00 7.243638e+00 9.733709e+00 1.221221e+01 1.356101e+01 1.481063e+01 1.461269e+01 1.450673e+01 1.371462e+01 1.245336e+01 3.516366e-01 1.005863e-01 1.406304e-01 2.342835e-01 3.567580e-01 4.353146e-01 5.172001e-01 6.005732e-01 6.695282e-01 6.907055e-01 6.923963e-01 6.492202e-01 5.605960e-01 1.723121e-02 1.864038e-02 2.551205e-02 4.152599e-02 6.691460e-02 8.546806e-02 1.044712e-01 1.189503e-01 1.272157e-01 1.276604e-01 1.280792e-01 1.194637e-01 1.046070e-01 3.495172e-03
<GCONST> 4.467708e+01
<MIXTURE> 11 1.031639e-01
<MEAN> 39
 -5.353917e-01 -1.263846e+00 -1.912904e+00 -2.136716e+00 -1.611276e+00 -8.216894e-01 -7.351568e-02 4.017824e-01 4.766083e-01 5.983366e-01 5.513158e-01 4.936910e-01 -3.351082e-01 -2.264430e-02 -3.929932e-02 -6.707947e-02 -8.909270e-02 -1.122956e-01 -9.876835e-02 -5.572373e-02 -3.364082e-02 -1.048430e-02 -1.667565e-02 -1.966539e-02 -2.041175e-02 -8.999666e-03 6.422114e-02 1.137857e-01 1.737277e-01 1.874401e-01 1.305537e-01 4.473964e-02 -2.766727e-02 -7.706508e-02 -8.935822e-02 -8.943358e-02 -8.199597e-02 -6.669724e-02 2.769950e-02
<VARIANCE> 39
 2.195372e+00 2.782466e+00 4.282473e+00 6.559454e+00 9.377204e+00 1.236148e+01 1.445557e+01 1.602158e+01 1.647502e+01 1.618572e+01 1.512236e+01 1.283408e+01 3.516366e-01 8.345552e-02 1.347808e-01 2.310332e-01 3.584955e-01 4.356813e-01 5.218661e-01 5.838684e-01 6.401421e-01 6.734111e-01 6.586697e-01 6.195186e-01 5.438547e-01 1.460810e-02 1.669083e-02 2.329277e-02 3.610296e-02 5.777958e-02 8.099452e-02 1.025529e-01 1.155419e-01 1.296712e-01 1.334444e-01 1.306531e-01 1.225153e-01 1.021722e-01 2.606853e-03
<GCONST> 4.386224e+01
<MIXTURE> 12 5.755588e-02
<MEAN> 39
 1.768302e-01 -1.615880e-01 -3.155284e-01 -3.669813e-01 -4.445710e-01 1.502283e-01 7.183242e-01 1.133057e+00 1.056371e+00 1.332572e+00 1.050879e+00 6.292492e-01 -2.524391e-03 -2.901890e-02 4.297925e-02 1.674835e-01 3.090188e-01 2.363711e-01 7.109563e-02 -1.394018e-01 -2.663422e-01 -3.297689e-01 -3.445185e-01 -2.995020e-01 -2.042906e-01 2.023789e-02 1.985004e-02 -1.763060e-02 -1.631417e-02 -7.236168e-02 -3.099925e-02 -9.697777e-02 -1.213112e-01 -1.699936e-01 -1.556055e-01 -1.767398e-01 -1.359973e-01 -9.559172e-02 -2.833836e-02
<VARIANCE> 39
 2.278565e+00 2.780374e+00 4.171318e+00 7.128199e+00 8.932648e+00 1.235309e+01 1.419732e+01 1.460558e+01 1.502507e+01 1.467754e+01 1.390366e+01 1.229104e+01 4.825889e-01 1.336469e-01 1.563222e-01 2.329459e-01 3.341966e-01 4.323344e-01 5.787098e-01 6.581873e-01 7.072327e-01 7.114678e-01 6.917294e-01 6.717462e-01 5.681838e-01 2.618556e-02 2.217143e-02 2.747725e-02 3.879022e-02 7.387467e-02 8.148935e-02 1.128484e-01 1.228685e-01 1.249403e-01 1.275754e-01 1.264789e-01 1.169847e-01 1.032784e-01 5.581365e-03
<GCONST> 4.702096e+01
<MIXTURE> 13 3.704327e-02
<MEAN> 39
 1.313215e-01 -1.310030e+00 -2.063253e+00 -3.170691e+00 -2.126559e+00 -1.915696e+00 -9.307854e-01 -4.150292e-01 -8.331239e-04 6.308591e-01 6.638265e-01 4.106284e-01 -6.332880e-01 -5.843798e-02 -1.537810e-01 -2.517483e-01 -3.341477e-01 -3.057358e-01 -3.132876e-01 -2.413126e-01 -2.309481e-01 -2.257344e-01 -2.193760e-01 -1.490710e-01 -5.728502e-02 -5.575078e-02 3.090493e-02 8.795619e-02 1.510508e-01 1.651596e-01 1.348383e-01 7.893395e-02 3.059030e-02 -2.106423e-02 -4.791696e-02 -1.040642e-01 -9.448504e-02 -7.675451e-02 2.018082e-02
<VARIANCE> 39
 2.650785e+00 3.722456e+00 4.601323e+00 9.526155e+00 9.672688e+00 1.373118e+01 1.501163e+01 1.714426e+01 1.641342e+01 1.593233e+01 1.438219e+01 1.291130e+01 8.425422e-01 7.621865e-02 1.435882e-01 2.403310e-01 3.784483e-01 4.625082e-01 5.789160e-01 6.133332e-01 6.712232e-01 6.904505e-01 6.705755e-01 6.324897e-01 5.849714e-01 1.775867e-02 1.603507e-02 2.691328e-02 3.747448e-02 7.119799e-02 8.296565e-02 1.098327e-01 1.176031e-01 1.344392e-01 1.310583e-01 1.335230e-01 1.153526e-01 1.051307e-01 3.908205e-03
<GCONST> 4.737047e+01
<MIXTURE> 14 3.482486e-02
<MEAN> 39
 2.297386e+00 -7.763280e-01 -3.492833e-01 -4.327958e+00 -1.248670e+00 -3.258518e+00 -1.159104e+00 -2.020036e+00 -1.180641e+00 -2.084125e+00 -1.031583e+00 -2.168823e+00 -1.569346e+00 8.326243e-02 -9.533538e-02 -2.239365e-01 -4.658499e-01 -2.918226e-01 -3.173453e-01 -1.247711e-01 -1.367569e-01 -1.015874e-01 -1.046466e-01 -8.042241e-02 -9.650329e-02 -1.270254e-01 -9.807216e-02 1.648546e-02 -1.653364e-02 1.632631e-01 3.366266e-02 1.474129e-01 5.479514e-02 9.150401e-02 5.083891e-02 1.125386e-01 5.840134e-02 1.201675e-01 5.915608e-02
<VARIANCE> 39
 4.022561e+00 5.641489e+00 5.891082e+00 1.522602e+01 1.308891e+01 1.701908e+01 1.575838e+01 1.803007e+01 1.666229e+01 1.616466e+01 1.518215e+01 1.392227e+01 1.468690e+00 1.251811e-01 1.775558e-01 2.542900e-01 4.639334e-01 5.112914e-01 5.890264e-01 6.351288e-01 6.805688e-01 7.131037e-01 6.706663e-01 6.467887e-01 6.073537e-01 4.300293e-02 2.450792e-02 3.647681e-02 4.666872e-02 9.168852e-02 9.924719e-02 1.200384e-01 1.263021e-01 1.340844e-01 1.349907e-01 1.282737e-01 1.219202e-01 1.088358e-01 8.092718e-03
<GCONST> 5.470656e+01
<MIXTURE> 15 3.990997e-02
<MEAN> 39
 4.489025e-01 5.865362e-02 -1.712065e-01 -6.021221e-01 -6.355715e-01 -4.262539e-01 -1.631950e-01 2.070525e-02 -1.167581e-02 5.883925e-02 -2.339983e-01 -1.472103e-01 -1.534665e-01 -1.598818e-01 1.473229e-01 3.262886e-01 7.230275e-01 4.727487e-01 4.331706e-01 8.721437e-02 3.894337e-02 -4.963291e-02 -2.727633e-02 -4.975004e-02 1.957367e-02 1.311414e-01 -1.376939e-03 -3.836907e-02 -2.744550e-02 -6.272613e-02 -1.421967e-02 -5.584531e-02 -4.714100e-02 -7.113704e-02 -6.177751e-02 -6.196416e-02 -2.189766e-02 -3.594107e-02 -2.016269e-02
<VARIANCE> 39
 2.399115e+00 3.018894e+00 4.754383e+00 9.234361e+00 9.917061e+00 1.325187e+01 1.506159e+01 1.531450e+01 1.569133e+01 1.540023e+01 1.468002e+01 1.276999e+01 6.674336e-01 1.675870e-01 1.706696e-01 2.373277e-01 3.856540e-01 4.809065e-01 6.304459e-01 6.875553e-01 7.621089e-01 6.839236e-01 7.288992e-01 6.540060e-01 5.951494e-01 4.503863e-02 1.844537e-02 2.718944e-02 4.108699e-02 8.012193e-02 8.517510e-02 1.182150e-01 1.273564e-01 1.322055e-01 1.274392e-01 1.282161e-01 1.232602e-01 1.057149e-01 5.196932e-03
<GCONST> 4.983934e+01
<MIXTURE> 16 1.076199e-02
<MEAN> 39
 1.516244e+00 -6.110280e-01 -3.786685e-01 -3.814394e+00 -8.735172e-01 -2.642369e+00 -7.963275e-01 -8.817264e-01 -4.118323e-01 -9.813626e-01 -4.130368e-01 -1.351290e+00 -1.361311e+00 3.365405e-01 -4.198336e-01 -8.591209e-02 -1.304231e+00 -1.585303e-01 -1.131259e+00 -3.241473e-01 -8.114226e-01 -2.202025e-01 -6.265422e-01 -1.830640e-01 -6.529207e-01 -4.585622e-01 -1.387491e-02 -3.984210e-02 -2.653285e-02 -3.607416e-02 1.249563e-02 -2.451563e-02 -5.612524e-03 -6.985284e-02 -1.694936e-02 -2.052983e-02 -7.381855e-03 -2.466746e-02 -9.172613e-03
<VARIANCE> 39
 2.717989e+00 6.930005e+00 6.293124e+00 2.464419e+01 1.322676e+01 2.167118e+01 1.563082e+01 2.025134e+01 1.566560e+01 1.836315e+01 1.486668e+01 1.645343e+01 2.351532e+00 1.398137e-01 2.580889e-01 3.186130e-01 6.495821e-01 6.698118e-01 6.733035e-01 7.276624e-01 8.255913e-01 7.185980e-01 8.795778e-01 6.888716e-01 6.577518e-01 6.526382e-02 1.885356e-02 4.541617e-02 4.890854e-02 1.623869e-01 1.017311e-01 1.604177e-01 1.302492e-01 1.684412e-01 1.307516e-01 1.583422e-01 1.195086e-01 1.240571e-01 1.500558e-02
<GCONST> 6.078493e+01
~h "f"
<BEGINHMM>
<NUMSTATES> 5
<STATE> 2
<NUMMIXES> 16
<MIXTURE> 1 5.340075e-02
<MEAN> 39
 2.465812e-01 5.638264e-01 2.152135e-01 -3.576356e-01 -1.097875e+00 -9.365728e-01 -1.169494e+00 -1.398443e+00 -1.231747e+00 -3.345786e-01 2.380103e-01 3.793168e-01 9.587459e-02 1.760394e-01 2.770572e-01 3.383353e-01 3.308309e-01 3.094564e-01 2.268160e-01 1.841033e-01 1.390766e-01 1.739696e-01 2.000357e-01 1.744613e-01 8.726871e-02 6.944345e-02 -2.719697e-02 -4.149167e-02 1.953297e-02 1.284042e-01 2.281548e-01 2.258478e-01 2.383919e-01 2.340338e-01 1.874627e-01 8.481754e-02 -4.601602e-03 -3.814871e-02 -5.053736e-03
<VARIANCE> 39
 1.062564e+00 2.706281e+00 4.761374e+00 6.968400e+00 8.384046e+00 1.029064e+01 1.127977e+01 1.093197e+01 1.431590e+01 1.550532e+01 1.305252e+01 1.287576e+01 3.516366e-01 4.834665e-02 1.027034e-01 1.885737e-01 2.897838e-01 3.602239e-01 4.242814e-01 4.545505e-01 5.885033e-01 6.475031e-01 6.104622e-01 6.078273e-01 5.484878e-01 9.354060e-03 9.152620e-03 2.226693e-02 4.464839e-02 5.834515e-02 6.852309e-02 7.738455e-02 9.839377e-02 1.013205e-01 1.130877e-01 1.258057e-01 1.131446e-01 1.115444e-01 1.694673e-03
<GCONST> 3.757988e+01
<MIXTURE> 2 2.795278e-02
<MEAN> 39
 -9.928895e-01 -5.323815e-01 -6.832868e-01 -2.586882e+00 -1.165016e+00 -2.619787e+00 1.278604e+00 6.090994e-01 1.531449e+00 -2.791446e-01 7.379076e-01 -2.398528e-01 -9.560710e+00 -2.653488e-01 -1.276476e-01 -8.767858e-02 4.214159e-01 1.758008e-01 4.712479e-01 5.516772e-01 8.008081e-01 4.016566e-01 4.710133e-01 2.214310e-01 2.612733e-01 8.605789e-01 1.765152e-01 9.759123e-02 1.727757e-01 1.842408e-01 9.736282e-02 1.123809e-01 -1.315957e-01 -1.754310e-01 -1.727779e-01 -4.897898e-02 -7.473092e-02 -4.759729e-02 6.209801e-01
<VARIANCE> 39
 1.055125e+01 8.355034e+00 7.432913e+00 1.276293e+01 1.196903e+01 1.832668e+01 1.342202e+01 1.606013e+01 1.564291e+01 1.766912e+01 1.715570e+01 1.314877e+01 1.032918e+02 6.832576e-01 5.523324e-01 5.854552e-01 9.685988e-01 7.573988e-01 1.096209e+00 1.049222e+00 1.302898e+00 1.108462e+00 1.162871e+00 1.040183e+00 1.004660e+00 3.428185e+00 1.223226e-01 8.154069e-02 8.578608e-02 1.425770e-01 1.158227e-01 1.769866e-01 1.480765e-01 1.525771e-01 1.790673e-01 1.850663e-01 1.386923e-01 1.157540e-01 6.708379e-01
<GCONST> 8.263851e+01
<MIXTURE> 3 1.603499e-02
<MEAN> 39
 1.400611e+00 -8.279306e-01 -1.240084e+00 -6.208874e+00 -2.601714e+00 -5.226746e+00 -1.910181e+00 -1.955342e+00 -1.699576e+00 -1.845323e+00 2.476751e-02 -1.464349e+00 -1.810723e+00 -1.821730e-01 1.158883e-01 2.603693e-01 9.044156e-01 3.849597e-01 6.817802e-01 2.608150e-01 2.673240e-01 2.446285e-02 1.142133e-01 1.057222e-02 2.422690e-01 2.760419e-01 -1.029204e-01 5.385801e-02 1.190296e-01 4.978174e-01 2.504516e-01 4.501588e-01 1.937450e-01 2.391202e-01 1.884902e-01 2.206155e-01 5.782995e-02 7.600542e-02 1.395497e-01
<VARIANCE> 39
 5.302130e+00 4.124908e+00 4.997916e+00 1.476714e+01 1.406915e+01 1.701751e+01 1.874201e+01 1.772352e+01 1.195888e+01 1.716115e+01 1.581397e+01 1.915937e+01 4.016485e+00 1.197391e-01 1.788719e-01 2.366879e-01 5.315063e-01 4.827067e-01 6.290197e-01 5.742543e-01 6.354740e-01 6.405070e-01 7.923816e-01 6.494594e-01 5.882373e-01 4.688317e-02 2.924023e-02 3.407739e-02 5.095515e-02 8.773565e-02 1.244989e-01 1.226726e-01 1.765976e-01 1.279603e-01 1.005052e-01 1.301653e-01 1.052811e-01 1.373743e-01 9.766972e-03
<GCONST> 5.646418e+01
<MIXTURE> 4 4.854362e-02
<MEAN> 39
 -3.518583e+00 -1.716647e+00 2.072944e+00 -2.393543e+00 2.100935e-01 -4.003448e+00 1.302832e-01 -2.633460e+00 5.987733e-01 -2.104582e+00 1.187687e+00 -1.778808e+00 -5.726054e+00 -4.606596e-01 -3.875977e-01 -1.612557e-01 -1.954750e-01 -5.271923e-02 -1.942056e-01 1.659320e-01 1.522487e-01 2.485742e-01 1.301943e-01 2.398092e-01 1.052199e-01 5.837761e-02 2.804734e-01 1.128939e-01 -7.223803e-02 1.807467e-01 6.652109e-03 2.491321e-01 6.450906e-02 2.285235e-01 -6.953624e-03 1.350440e-01 -5.360520e-02 1.299847e-01 3.877520e-01
<VARIANCE> 39
 9.561772e+00 8.663386e+00 7.049723e+00 1.255524e+01 1.063987e+01 1.292645e+01 1.428418e+01 1.494391e+01 1.351618e+01 1.442365e+01 1.247740e+01 1.113493e+01 3.882573e+01 5.776941e-01 4.948979e-01 6.732617e-01 4.892236e-01 6.130533e-01 6.106436e-01 6.725169e-01 7.151969e-01 8.034148e-01 6.586774e-01 5.824303e-01 5.568461e-01 1.764692e+00 1.018400e-01 7.247926e-02 7.377061e-02 1.252274e-01 1.044317e-01 1.239360e-01 1.170178e-01 1.314877e-01 1.225512e-01 1.187423e-01 9.800053e-02 1.003601e-01 3.242458e-01
<GCONST> 7.136605e+01
<MIXTURE> 5 1.937680e-01
<MEAN> 39
 2.152161e-01 1.195443e-01 -2.492293e-01 -7.892924e-01 -1.808798e+00 -2.089569e+00 -1.731843e+00 -1.275570e+00 -1.056236e+00 -6.801414e-01 -3.616681e-01 -2.639545e-02 1.318114e-01 5.138994e-02 6.568444e-02 5.097646e-02 8.770522e-02 1.201933e-01 8.074854e-02 2.331917e-02 -1.978337e-02 -4.227079e-02 -1.862505e-02 1.949808e-02 1.697898e-02 2.637641e-02 -2.724774e-02 2.534791e-03 6.706034e-02 1.605575e-01 2.901521e-01 3.184921e-01 2.810994e-01 2.168569e-01 1.728807e-01 1.194886e-01 6.183094e-02 2.269065e-02 -8.691957e-03
<VARIANCE> 39
 9.969885e-01 2.277553e+00 4.332409e+00 5.844826e+00 7.940540e+00 9.768217e+00 1.102848e+01 1.244495e+01 1.375075e+01 1.363656e+01 1.368742e+01 1.233883e+01 3.516366e-01 4.760711e-02 1.083829e-01 1.933455e-01 2.934852e-01 3.795685e-01 4.588472e-01 4.814277e-01 5.608445e-01 5.645470e-01 5.982037e-01 6.092520e-01 5.483464e-01 8.226463e-03 8.891668e-03 1.996772e-02 3.917100e-02 4.981951e-02 6.330942e-02 7.227403e-02 8.498300e-02 1.017378e-01 1.097673e-01 1.181700e-01 1.123496e-01 9.982865e-02 1.596967e-03
<GCONST> 3.585614e+01
<MIXTURE> 6 8.606602e-02
<MEAN> 39
 6.343058e-01 8.980218e-01 -8.423232e-01 -1.876196e+00 -1.490376e+00 -1.947308e+00 5.793077e-01 5.175806e-01 8.068126e-01 -3.840151e-01 5.174469e-01 1.152953e-01 -1.648849e+01 -5.450899e-02 -6.253680e-02 1.894433e-01 2.783769e-02 2.077087e-01 5.335681e-03 1.258580e-01 -4.275405e-02 -7.952153e-03 3.509904e-03 1.682626e-01 -4.601616e-02 6.278585e-01 -8.647647e-04 -1.178180e-01 9.589759e-02 4.472991e-03 3.033255e-02 -4.048598e-02 -4.642198e-02 -1.424523e-01 -6.687246e-02 -5.058721e-02 -3.275433e-02 -7.191781e-02 4.824624e-01
<VARIANCE> 39
 5.895823e+00 5.410830e+00 6.040009e+00 7.683575e+00 9.968494e+00 1.129240e+01 1.252278e+01 1.233803e+01 1.416185e+01 1.285733e+01 1.098857e+01 1.069837e+01 4.354197e+01 3.871504e-01 4.495250e-01 3.945546e-01 4.659745e-01 5.435899e-01 5.557008e-01 6.350338e-01 7.121360e-01 6.944292e-01 6.440393e-01 5.410948e-01 4.811412e-01 1.554216e+00 6.447127e-02 7.232117e-02 6.150682e-02 8.746646e-02 1.025766e-01 1.059989e-01 1.204760e-01 1.279492e-01 1.453738e-01 1.046604e-01 1.028238e-01 9.240487e-02 2.209655e-01
<GCONST> 6.570535e+01
<MIXTURE> 7 4.817446e-02
<MEAN> 39
 -2.411272e+00 -1.274289e+00 3.041807e+00 -2.728565e+00 -8.095071e-01 -4.115675e+00 8.598864e-01 -2.211588e+00 1.013312e+00 -1.608626e+00 1.305816e+00 -2.365697e+00 -2.249915e+00 -8.637205e-01 -6.888217e-01 -2.282381e-01 -8.724889e-01 -4.530649e-01 -8.803118e-01 2.597197e-02 -2.903856e-01 3.801468e-01 -6.097855e-02 4.367357e-01 -1.475625e-01 -1.134569e+00 7.552976e-02 6.174162e-03 -2.342564e-01 2.345714e-01 1.070343e-01 3.169599e-01 2.598915e-02 2.682610e-01 -4.683116e-02 1.329774e-01 -5.043729e-02 2.259760e-01 3.975191e-01
<VARIANCE> 39
 9.418841e+00 9.151559e+00 1.087097e+01 1.246702e+01 1.371629e+01 1.485691e+01 1.536567e+01 1.660953e+01 1.777312e+01 1.548972e+01 1.642030e+01 1.285978e+01 2.855158e+01 6.240965e-01 5.055618e-01 7.304531e-01 5.064558e-01 6.170996e-01 7.151846e-01 7.542250e-01 7.802738e-01 9.286627e-01 7.475216e-01 7.485404e-01 6.928046e-01 1.797735e+00 1.225668e-01 7.657712e-02 1.033296e-01 1.175478e-01 1.126654e-01 1.433314e-01 1.372496e-01 1.332749e-01 1.574017e-01 1.405054e-01 1.346364e-01 1.260782e-01 1.924479e-01
<GCONST> 7.555126e+01
<MIXTURE> 8 1.102202e-02
<MEAN> 39
 -4.620166e-01 -6.856055e-01 -1.285767e+00 -3.482488e+00 -2.213216e+00 -3.713585e+00 -9.995968e-01 -1.394511e+00 -3.973365e-01 -1.487175e+00 -2.276856e-01 -8.350785e-01 -9.487508e+00 -1.364102e-02 -2.112066e-02 -1.017640e-01 3.354584e-02 1.044275e-01 4.532797e-02 9.754065e-02 1.857715e-02 -8.813098e-03 -2.877849e-02 -8.292802e-02 4.765935e-02 9.532546e-03 3.966684e-02 5.566349e-02 1.366185e-01 1.600871e-01 1.575991e-01 1.683746e-01 1.351643e-01 1.379012e-01 9.373765e-02 1.099822e-01 6.341874e-02 3.618781e-02 8.633996e-02
<VARIANCE> 39
 4.992137e+00 6.399148e+00 6.316974e+00 1.610983e+01 1.125786e+01 1.046837e+01 1.134857e+01 1.591890e+01 1.608833e+01 1.629675e+01 1.086706e+01 1.154617e+01 1.086013e+02 7.619128e-02 1.023925e-01 1.614933e-01 2.709984e-01 4.291714e-01 3.822699e-01 5.250092e-01 5.165246e-01 5.606114e-01 5.766109e-01 4.380090e-01 3.961085e-01 3.114438e-02 2.539871e-02 3.852531e-02 4.907895e-02 7.808605e-02 7.033060e-02 7.609065e-02 8.553319e-02 1.197672e-01 9.169735e-02 1.070502e-01 8.503266e-02 7.009321e-02 2.421706e-02
<GCONST> 5.160158e+01
<MIXTURE> 9 1.701447e-01
<MEAN> 39
 3.823144e-02 -1.611542e-01 -6.053972e-01 -1.305947e+00 -2.484735e+00 -2.683632e+00 -2.442277e+00 -1.902277e+00 -1.574942e+00 -1.414546e+00 -6.621403e-01 -3.266951e-01 5.563444e-02 -4.752452e-03 -3.595964e-02 -1.059962e-01 -1.013358e-01 -1.373498e-01 -1.777579e-01 -2.496127e-01 -2.616226e-01 -3.237517e-01 -3.022502e-01 -2.000782e-01 -1.066706e-01 5.031829e-03 -2.441456e-02 2.951243e-03 5.807100e-02 1.392726e-01 2.685912e-01 2.862811e-01 2.451307e-01 1.868959e-01 1.446263e-01 1.103886e-01 3.470139e-02 1.214528e-02 -9.045357e-03
<VARIANCE> 39
 1.015749e+00 2.247468e+00 4.380961e+00 5.999774e+00 7.954419e+00 9.156066e+00 1.117043e+01 1.294768e+01 1.391251e+01 1.432897e+01 1.395258e+01 1.281896e+01 3.516366e-01 4.730728e-02 1.051859e-01 1.948168e-01 3.099178e-01 3.988184e-01 5.043982e-01 5.201563e-01 5.499786e-01 5.332896e-01 6.059535e-01 5.925907e-01 5.375849e-01 8.387009e-03 8.842910e-03 1.912264e-02 3.792642e-02 5.142501e-02 6.222865e-02 6.915732e-02 8.293691e-02 1.019334e-01 1.075019e-01 1.142877e-01 1.146794e-01 9.671248e-02 1.648636e-03
<GCONST> 3.599551e+01
<MIXTURE> 10 1.115804e-01
<MEAN> 39
 1.514000e-01 3.546241e-01 5.207284e-02 -6.922995e-01 -1.432298e+00 -1.465288e+00 -1.587021e+00 -1.648248e+00 -1.638095e+00 -7.877025e-01 1.029259e-01 2.965835e-01 7.300721e-02 1.084350e-01 1.689664e-01 1.791219e-01 1.695494e-01 1.115878e-01 3.565682e-02 -5.074140e-02 -1.193322e-01 -1.127110e-01 -6.523949e-02 -5.183343e-02 -9.549946e-02 4.520644e-02 -4.187103e-02 -5.243916e-02 -7.477193e-03 9.810688e-02 1.916102e-01 2.003524e-01 1.962093e-01 1.766327e-01 1.530513e-01 5.643559e-02 -4.623671e-02 -5.625320e-02 -1.084181e-02
<VARIANCE> 39
 1.068320e+00 2.579323e+00 4.683441e+00 6.905644e+00 8.180165e+00 1.022250e+01 1.143473e+01 1.222193e+01 1.484998e+01 1.526236e+01 1.438119e+01 1.284127e+01 3.516366e-01 4.694650e-02 1.106798e-01 1.983274e-01 2.821844e-01 3.670586e-01 4.328178e-01 4.850891e-01 5.705801e-01 6.012405e-01 5.990787e-01 5.602599e-01 5.208153e-01 8.856777e-03 9.285765e-03 2.205477e-02 4.194505e-02 5.659364e-02 6.404826e-02 7.406223e-02 8.758654e-02 1.011524e-01 1.143987e-01 1.247478e-01 1.170643e-01 1.024967e-01 1.822892e-03
<GCONST> 3.728994e+01
<MIXTURE> 11 7.338571e-02
<MEAN> 39
 1.026633e+00 5.803279e-01 -1.015427e+00 -2.204767e+00 -1.978036e+00 -2.389894e+00 2.396473e-01 -7.905024e-02 3.731269e-01 -5.219939e-01 3.998127e-01 2.245176e-02 -1.741568e+01 -1.079387e-01 -3.839128e-01 1.001716e-01 -2.466917e-01 3.056351e-02 -2.964634e-01 -1.429844e-01 -3.682973e-01 -2.060640e-01 -2.069815e-01 -8.373370e-02 -2.350456e-01 9.618769e-01 -5.526843e-02 -1.321549e-01 6.720310e-02 -5.066979e-02 3.568766e-02 -9.198964e-02 -5.114994e-02 -1.471387e-01 -6.358606e-02 -1.176543e-01 -6.654212e-02 -1.142697e-01 4.286975e-01
<VARIANCE> 39
 5.541552e+00 5.482611e+00 6.276986e+00 7.674934e+00 9.591554e+00 1.163097e+01 1.300037e+01 1.317497e+01 1.396982e+01 1.341696e+01 1.177506e+01 1.196111e+01 2.720381e+01 4.492080e-01 5.040320e-01 4.132325e-01 4.866423e-01 5.660910e-01 6.995782e-01 7.141167e-01 7.528327e-01 8.141531e-01 6.456940e-01 6.527767e-01 5.514346e-01 1.284835e+00 6.651660e-02 6.770122e-02 6.718057e-02 7.844354e-02 9.908313e-02 1.144002e-01 1.211473e-01 1.248228e-01 1.238210e-01 1.032543e-01 1.129348e-01 1.065062e-01 1.439200e-01
<GCONST> 6.621914e+01
<MIXTURE> 12 5.973431e-02
<MEAN> 39
 -2.364813e+00 -2.473318e+00 1.586823e+00 -3.037931e+00 -4.220147e-01 -4.017991e+00 -5.317888e-01 -3.090744e+00 2.878733e-02 -2.053164e+00 6.198402e-01 -1.921059e+00 -6.133049e+00 -5.168158e-01 -3.589571e-01 -2.209168e-02 -3.470090e-01 -2.012097e-01 -5.266636e-01 -1.402956e-01 -3.098380e-01 -3.026620e-02 -2.772479e-01 8.301329e-03 -1.130829e-01 1.353905e-01 1.326118e-01 1.174443e-01 -8.048934e-02 1.043975e-01 -4.449028e-02 1.084353e-01 4.834356e-02 1.639149e-01 7.555146e-03 4.750494e-02 -3.163631e-02 7.882042e-02 8.254389e-02
<VARIANCE> 39
 1.225662e+01 1.036954e+01 8.679487e+00 1.373949e+01 1.235246e+01 1.365165e+01 1.625244e+01 1.528390e+01 1.598168e+01 1.531386e+01 1.316117e+01 1.302546e+01 4.466340e+01 5.076683e-01 5.103374e-01 5.043504e-01 5.581657e-01 5.644460e-01 5.901107e-01 6.068509e-01 6.413071e-01 6.446360e-01 5.812058e-01 5.153075e-01 5.636375e-01 1.895255e+00 9.870772e-02 7.763597e-02 8.474413e-02 1.211068e-01 9.878172e-02 1.115109e-01 1.124806e-01 1.268332e-01 1.123205e-01 1.018227e-01 1.020128e-01 9.704747e-02 2.599288e-01
<GCONST> 7.150739e+01
<MIXTURE> 13 3.946459e-02
<MEAN> 39
 -1.618782e+00 -1.453587e+00 -6.268721e-01 -2.802348e+00 -1.401256e+00 -3.246366e+00 9.357640e-01 1.353755e-01 1.127493e+00 -8.552905e-01 7.005507e-01 -5.867161e-01 -8.897956e+00 -2.046670e-01 -7.563416e-02 -8.611746e-02 1.702226e-02 2.266153e-02 -3.590806e-02 3.021245e-01 2.392889e-01 1.687768e-01 7.134521e-02 7.034660e-02 2.182909e-02 5.904487e-02 1.563746e-01 8.998659e-02 1.268436e-01 7.053966e-02 1.652861e-02 2.369241e-02 -1.337766e-01 -2.171369e-01 -1.487791e-01 -9.481436e-02 -9.576008e-02 -7.043733e-02 2.136720e-01
<VARIANCE> 39
 1.299431e+01 1.013532e+01 7.578785e+00 1.196316e+01 1.382872e+01 1.785479e+01 1.511153e+01 1.456827e+01 1.417008e+01 1.591988e+01 1.521996e+01 1.283217e+01 8.478315e+01 4.995289e-01 4.848606e-01 5.502010e-01 5.732096e-01 6.122435e-01 6.655530e-01 7.614625e-01 9.300886e-01 8.565149e-01 7.889224e-01 7.264959e-01 6.602109e-01 1.312815e+00 8.596179e-02 8.691669e-02 8.308776e-02 1.065114e-01 1.253398e-01 1.425918e-01 1.402987e-01 1.396332e-01 1.566441e-01 1.394312e-01 1.219167e-01 1.072464e-01 3.601443e-01
<GCONST> 7.566891e+01
<MIXTURE> 14 3.225875e-02
<MEAN> 39
 -2.242177e+00 -1.784199e+00 2.845229e+00 -2.913354e+00 -8.388122e-01 -4.653731e+00 7.748796e-01 -1.862511e+00 1.471648e+00 -1.654875e+00 1.622810e+00 -2.566969e+00 -1.719639e+00 -1.037545e+00 -9.047064e-01 -3.243382e-01 -1.219685e+00 -7.882869e-01 -1.387111e+00 -2.926328e-01 -8.121358e-01 4.583805e-02 -5.448901e-01 2.252742e-01 -3.394117e-01 -1.474472e+00 -3.527598e-03 -2.272771e-02 -2.913108e-01 1.458179e-01 2.227831e-02 2.689098e-01 -2.517646e-02 1.415545e-01 -1.338273e-01 9.104148e-02 -9.210747e-02 2.145765e-01 3.735501e-01
<VARIANCE> 39
 7.955303e+00 7.704941e+00 1.061851e+01 1.208356e+01 1.510121e+01 1.719959e+01 1.616554e+01 1.522501e+01 1.862596e+01 1.746563e+01 1.494667e+01 1.302954e+01 2.259566e+01 5.846740e-01 4.424564e-01 6.075534e-01 5.316083e-01 6.760868e-01 6.917638e-01 7.157909e-01 7.292140e-01 7.199466e-01 6.710370e-01 7.747964e-01 6.890185e-01 1.502783e+00 1.045589e-01 6.298876e-02 1.019757e-01 1.073586e-01 1.156461e-01 1.485606e-01 1.325948e-01 1.260243e-01 1.583068e-01 1.391774e-01 1.426511e-01 1.254480e-01 1.475263e-01
<GCONST> 7.360155e+01
<MIXTURE> 15 1.796221e-02
<MEAN> 39
 9.993804e-01 -1.675467e+00 -1.395240e+00 -7.266906e+00 -2.014797e+00 -5.880390e+00 -2.587138e+00 -4.092759e+00 -1.568943e+00 -2.884262e+00 -7.822060e-01 -2.632432e+00 -2.494792e+00 -8.468937e-02 1.919817e-02 5.305248e-02 2.742162e-01 9.433436e-02 1.970393e-01 3.469542e-02 8.662908e-03 -2.306767e-01 -2.289460e-01 -6.029293e-02 2.519734e-02 1.134902e-01 -2.932868e-02 7.894462e-02 1.353456e-01 3.916011e-01 1.767533e-01 3.524200e-01 1.922098e-01 2.849548e-01 1.377872e-01 1.459303e-01 1.793124e-02 7.348106e-02 1.100937e-01
<VARIANCE> 39
 6.678408e+00 4.913355e+00 5.641148e+00 1.607675e+01 1.212868e+01 1.594462e+01 1.508184e+01 1.631515e+01 1.430053e+01 2.231145e+01 1.437462e+01 1.735248e+01 6.583823e+00 1.087279e-01 1.509096e-01 2.683333e-01 4.537142e-01 5.321950e-01 5.560411e-01 7.076210e-01 6.626511e-01 6.118602e-01 7.725850e-01 6.865766e-01 5.536613e-01 4.308738e-02 2.858279e-02 3.684828e-02 5.364346e-02 8.304033e-02 8.618189e-02 1.351482e-01 1.247382e-01 1.275011e-01 1.086952e-01 1.585077e-01 1.038104e-01 1.078069e-01 1.335009e-02
<GCONST> 5.682961e+01
<MIXTURE> 16 1.053078e-02
<MEAN> 39
 -2.753939e-02 -1.123515e+00 -8.409549e-01 -5.283058e+00 -2.214905e+00 -4.983211e+00 -1.053416e+00 -1.992103e+00 1.271426e-01 -2.233264e+00 1.145216e+00 -1.582287e+00 -1.024476e+01 -7.511526e-02 -1.610650e-01 -2.038831e-01 -7.585883e-02 -3.115587e-01 -1.885744e-01 -2.384600e-01 -2.379729e-01 -8.387887e-02 -5.439653e-01 -2.707435e-01 -6.044272e-02 -6.539339e-02 1.232061e-02 1.740725e-02 4.357219e-02 1.352796e-01 1.036570e-01 1.141616e-01 5.406340e-02 7.541987e-02 2.891894e-02 3.954329e-02 -8.606325e-02 1.876335e-03 4.479019e-02
<VARIANCE> 39
 5.579408e+00 8.656344e+00 5.971442e+00 1.941530e+01 1.275493e+01 1.259154e+01 9.231331e+00 1.172894e+01 1.142175e+01 1.905222e+01 1.393171e+01 9.834232e+00 7.861261e+01 7.326566e-02 1.217664e-01 1.782209e-01 3.762100e-01 4.032839e-01 3.001684e-01 4.959846e-01 4.012581e-01 4.402173e-01 5.679524e-01 6.891590e-01 5.174015e-01 3.340937e-02 1.605273e-02 3.182887e-02 4.137703e-02 7.696970e-02 8.495337e-02 7.594755e-02 8.803362e-02 7.809071e-02 8.195117e-02 1.144916e-01 1.181962e-01 6.883823e-02 1.285340e-02
<GCONST> 5.058828e+01
<STATE> 3
<NUMMIXES> 16
<MIXTURE> 1 2.927841e-02
<MEAN> 39
 1.609551e+00 -1.013446e+00 5.581143e-01 7.383865e-02 7.162184e-01 -1.188252e+00 9.143687e-01 3.761168e-01 8.319644e-01 4.856294e-01 7.004642e-01 -2.166784e-01 2.270969e+00 1.756597e-01 6.745707e-01 -2.136641e-01 1.387424e+00 6.095195e-01 1.815940e+00 2.787748e-01 1.205811e+00 1.788708e-01 1.060964e+00 9.974580e-03 7.591205e-01 2.295913e+00 -3.167201e-01 9.145779e-03 -2.782674e-02 -4.861393e-02 -7.025793e-02 1.368980e-02 -1.370886e-02 -1.156534e-02 -1.814074e-02 -3.483080e-02 9.257505e-03 3.714710e-02 -4.114296e-02
<VARIANCE> 39
 9.098413e+00 1.030538e+01 9.687720e+00 1.677978e+01 1.652851e+01 1.714971e+01 2.260954e+01 1.985267e+01 1.794125e+01 1.861204e+01 1.550769e+01 1.444127e+01 1.968744e+01 5.570630e-01 4.331999e-01 3.849321e-01 6.233926e-01 6.407633e-01 6.855738e-01 8.698784e-01 8.016431e-01 8.132210e-01 6.754320e-01 7.149835e-01 6.172970e-01 1.160112e+00 6.991525e-02 5.800538e-02 7.713710e-02 9.962580e-02 1.202777e-01 1.305930e-01 1.556201e-01 1.469073e-01 1.550232e-01 1.499178e-01 1.264745e-01 1.259403e-01 1.132903e-01
<GCONST> 7.357713e+01
<MIXTURE> 2 8.793849e-02
<MEAN> 39
 -2.850452e+00 -3.714628e+00 8.082542e-01 -3.598884e+00 -8.621456e-01 -5.434240e+00 5.627044e-01 -2.347656e+00 8.998682e-01 -2.367217e+00 1.241036e+00 -1.960189e+00 -1.873173e+00 7.125660e-01 4.539033e-01 -1.311478e-01 1.073044e+00 4.979830e-01 1.112320e+00 9.838541e-02 8.266940e-01 -4.600330e-02 6.556750e-01 -9.408094e-02 5.084584e-01 1.926052e+00 4.896371e-02 2.578239e-01 -4.547564e-02 2.866456e-01 8.904734e-02 4.182126e-01 -2.257527e-03 2.387898e-01 -3.237427e-02 2.110992e-01 -4.355165e-02 1.896840e-01 4.074635e-01
<VARIANCE> 39
 1.016269e+01 8.450854e+00 8.940013e+00 1.146628e+01 1.275683e+01 1.502670e+01 1.765647e+01 1.692039e+01 1.560527e+01 1.545905e+01 1.414399e+01 1.268516e+01 2.447458e+01 5.363361e-01 4.876479e-01 4.700141e-01 5.845824e-01 6.302024e-01 7.735812e-01 8.485087e-01 8.562216e-01 8.209114e-01 8.389983e-01 7.254966e-01 6.993347e-01 1.756678e+00 1.154423e-01 7.089083e-02 7.937202e-02 9.285898e-02 1.085692e-01 1.265218e-01 1.394367e-01 1.449990e-01 1.375374e-01 1.463073e-01 1.162922e-01 1.154811e-01 1.491273e-01
<GCONST> 7.340599e+01
<MIXTURE> 3 1.144139e-01
<MEAN> 39
 2.622660e-01 3.561611e-01 4.158466e-02 -1.216018e-01 -6.161158e-01 -7.378480e-01 -7.037259e-01 -5.962195e-01 -6.735593e-01 -3.392628e-01 3.932172e-02 6.896351e-02 1.429726e-01 -4.319210e-02 6.061456e-02 2.013035e-01 4.764701e-01 6.455647e-01 6.762637e-01 5.767306e-01 4.845497e-01 4.127684e-01 3.206888e-01 1.518580e-01 7.588771e-02 3.291919e-02 -4.766306e-02 -4.312249e-02 -1.318293e-03 5.215164e-02 1.338919e-01 1.699393e-01 1.785716e-01 1.787863e-01 1.815957e-01 1.317551e-01 5.979240e-02 2.421148e-02 -1.644692e-02
<VARIANCE> 39
 1.243811e+00 2.627340e+00 4.805453e+00 7.140016e+00 8.652056e+00 1.041403e+01 1.269644e+01 1.383539e+01 1.439266e+01 1.359407e+01 1.351423e+01 1.234185e+01 3.516366e-01 6.954033e-02 1.184353e-01 2.083849e-01 3.469795e-01 3.767798e-01 4.456690e-01 4.730515e-01 5.760357e-01 6.287599e-01 6.012467e-01 5.789270e-01 5.348583e-01 2.381798e-02 9.334535e-03 2.096489e-02 4.012595e-02 4.933557e-02 5.677908e-02 7.309876e-02 8.304106e-02 1.008393e-01 1.092659e-01 1.184920e-01 1.196042e-01 1.131527e-01 2.339283e-03
<GCONST> 3.928302e+01
<MIXTURE> 4 5.334781e-02
<MEAN> 39
 2.749611e+00 7.213941e-01 8.739996e-01 -4.474409e-01 -7.123696e-01 -2.240394e+00 -7.325616e-01 -1.979599e+00 -9.823073e-01 -1.868256e+00 -1.102939e+00 -1.392406e+00 -8.577210e+00 -9.585054e-02 2.501720e-01 1.185336e-01 3.680913e-01 2.583229e-01 3.757497e-01 2.298613e-01 4.826050e-01 8.354873e-02 3.000606e-01 2.178170e-01 2.637200e-01 8.297894e-01 -2.327290e-01 -1.387499e-01 -4.230731e-02 -9.576593e-02 -8.684743e-03 2.856212e-02 9.184501e-02 7.462943e-02 1.131289e-01 9.120768e-02 1.374325e-01 6.187140e-02 2.305406e-01
<VARIANCE> 39
 1.548108e+01 1.678105e+01 1.653659e+01 2.123601e+01 2.368719e+01 2.669831e+01 2.509083e+01 3.078256e+01 2.515903e+01 2.517618e+01 2.128517e+01 1.774463e+01 6.268211e+01 1.103104e+00 9.935224e-01 1.196236e+00 1.227256e+00 1.144129e+00 1.407032e+00 1.289701e+00 1.490644e+00 1.466467e+00 1.355306e+00 1.359340e+00 9.274049e-01 4.757015e+00 1.579350e-01 1.469394e-01 1.834507e-01 1.969966e-01 2.012438e-01 2.159545e-01 2.400425e-01 2.829402e-01 2.319869e-01 2.178264e-01 1.978517e-01 1.859266e-01 4.278756e-01
<GCONST> 9.675832e+01
<MIXTURE> 5 2.974738e-02
<MEAN> 39
 -2.129432e-01 -6.612113e-02 -4.634767e-01 -2.613374e-01 -5.757036e-01 -5.875759e-01 1.363547e-01 2.870687e-01 8.866847e-02 -1.348795e-01 5.045031e-01 8.861032e-01 -1.278362e+00 6.714930e-02 1.824226e-01 2.363448e-01 3.866732e-01 3.099244e-01 2.762874e-01 1.508761e-01 1.117287e-01 -8.851737e-03 1.645350e-01 3.335513e-02 2.924604e-02 5.936847e-01 -5.033468e-02 -3.546665e-02 9.261692e-02 -6.996053e-02 1.715536e-02 -5.087886e-02 3.697286e-02 -2.966400e-02 6.729139e-02 -2.161948e-02 -2.386738e-03 -9.553470e-02 -3.895742e-02
<VARIANCE> 39
 6.699721e+00 4.798476e+00 7.064365e+00 9.690603e+00 1.029431e+01 1.230105e+01 1.411686e+01 1.649021e+01 1.499615e+01 1.432467e+01 1.384537e+01 1.090418e+01 9.819746e+01 6.623897e-01 3.320057e-01 6.031420e-01 5.188590e-01 5.064994e-01 7.433530e-01 7.576614e-01 8.563631e-01 8.667285e-01 8.786670e-01 7.188245e-01 5.733851e-01 1.926153e+00 7.342905e-02 4.374896e-02 8.110408e-02 8.925469e-02 9.282473e-02 1.120874e-01 1.303998e-01 1.703513e-01 1.483866e-01 1.317592e-01 1.308304e-01 8.287935e-02 2.997735e-01
<GCONST> 7.134502e+01
<MIXTURE> 6 8.790952e-02
<MEAN> 39
 -3.548113e+00 -3.092230e+00 6.402211e-01 -4.094779e+00 -1.792497e+00 -4.603414e+00 8.501261e-01 -2.149513e+00 1.426712e+00 -1.486321e+00 1.912118e+00 -1.492423e+00 -4.814335e+00 -1.602565e-01 -2.728054e-01 -1.830591e-01 1.355227e-01 2.857953e-02 9.746244e-02 1.085865e-01 2.167180e-01 1.081399e-01 1.709820e-01 1.381777e-01 1.494338e-01 8.019895e-01 3.430841e-01 2.567390e-01 5.305681e-02 3.541391e-01 1.878036e-01 3.125052e-01 -4.941671e-02 1.704926e-01 -1.226004e-01 8.270259e-02 -1.345665e-01 9.344220e-02 3.498963e-01
<VARIANCE> 39
 1.226425e+01 1.193297e+01 1.120966e+01 1.293695e+01 1.612057e+01 1.832361e+01 2.097934e+01 2.321638e+01 2.067433e+01 1.843466e+01 1.786876e+01 1.603274e+01 3.596990e+01 8.586109e-01 6.175798e-01 6.459786e-01 6.512260e-01 6.918362e-01 7.612838e-01 8.310693e-01 9.277065e-01 8.981282e-01 8.455223e-01 7.530320e-01 6.779684e-01 2.098421e+00 1.240308e-01 9.979844e-02 1.163436e-01 1.441245e-01 1.524426e-01 1.792517e-01 1.810706e-01 2.143180e-01 1.894015e-01 1.696212e-01 1.651796e-01 1.459826e-01 3.721292e-01
<GCONST> 8.261157e+01
<MIXTURE> 7 6.267842e-02
<MEAN> 39
 2.565478e-01 5.487854e-01 -4.811697e-03 2.047045e+00 6.043466e-01 1.058396e+00 5.095091e-02 1.404627e+00 -5.611858e-01 1.077709e+00 2.371189e-01 1.225979e+00 6.995850e+00 4.530152e-02 4.739879e-01 -2.985730e-01 9.859102e-01 3.329332e-01 1.252000e+00 2.260884e-02 8.027642e-01 -7.488653e-02 7.248434e-01 -1.057139e-01 6.748965e-01 2.628083e+00 -2.822876e-01 -1.052693e-01 -1.259761e-03 -2.019831e-01 -6.351722e-02 -1.454296e-01 5.307091e-02 -6.563571e-02 1.080412e-01 -6.216121e-02 6.931962e-02 -7.088852e-02 -4.323639e-01
<VARIANCE> 39
 5.938665e+00 6.728855e+00 8.832062e+00 1.224034e+01 1.556109e+01 1.828873e+01 1.679122e+01 1.981454e+01 1.795643e+01 1.700194e+01 1.423831e+01 1.114897e+01 1.900876e+01 6.072046e-01 4.147552e-01 3.700741e-01 5.228257e-01 5.516986e-01 5.871282e-01 6.790980e-01 7.646959e-01 6.224986e-01 7.189460e-01 6.160607e-01 5.895537e-01 1.676509e+00 6.209684e-02 6.647858e-02 7.425428e-02 9.682169e-02 1.160868e-01 1.398349e-01 1.330665e-01 1.711310e-01 1.503740e-01 1.417741e-01 1.168595e-01 1.059545e-01 1.781663e-01
<GCONST> 7.084316e+01
<MIXTURE> 8 3.044518e-02
<MEAN> 39
 1.593805e+00 8.630034e-01 2.794388e+00 -1.911523e+00 -1.345110e+00 -1.960890e+00 3.483284e-01 -2.338758e+00 -1.055273e+00 -1.356032e+00 5.368629e-01 -1.744348e+00 -5.231847e+00 -2.096565e-01 -2.400644e-01 2.633260e-01 -4.705800e-01 -2.507332e-01 -5.235499e-01 -6.863867e-02 -4.546638e-01 1.623836e-01 -2.078083e-01 1.359676e-01 -2.419141e-01 2.081283e-01 -1.845914e-01 -1.395906e-01 -2.316379e-01 1.051252e-01 6.989852e-02 6.540304e-03 1.257382e-02 1.705744e-01 1.298420e-01 3.748994e-02 -8.078564e-03 1.206450e-01 4.988208e-03
<VARIANCE> 39
 1.688561e+01 1.531834e+01 2.414889e+01 2.505103e+01 2.363528e+01 2.497150e+01 2.326139e+01 2.207172e+01 2.744233e+01 2.940346e+01 2.274677e+01 1.798257e+01 6.069930e+01 9.463772e-01 7.555321e-01 9.389921e-01 1.230075e+00 9.653301e-01 1.161314e+00 1.177597e+00 9.851635e-01 1.187953e+00 1.071733e+00 1.033016e+00 9.340342e-01 4.805264e+00 1.491686e-01 1.337476e-01 2.179952e-01 2.159012e-01 2.051727e-01 2.170193e-01 1.948869e-01 1.984188e-01 2.229014e-01 2.530722e-01 2.346552e-01 1.603172e-01 3.271780e-01
<GCONST> 9.431166e+01
<MIXTURE> 9 1.264327e-01
<MEAN> 39
 1.885865e-01 2.223922e-01 -2.356729e-02 -4.853045e-01 -1.019910e+00 -1.263879e+00 -1.546000e+00 -1.316428e+00 -1.248321e+00 -8.873863e-01 -2.551584e-01 -1.414024e-01 1.291084e-01 -7.393173e-02 -2.432911e-02 6.421471e-02 3.180557e-01 4.897138e-01 5.048900e-01 3.727914e-01 2.505901e-01 1.396616e-01 2.560892e-02 -9.480651e-02 -1.076813e-01 2.641572e-02 -5.818891e-02 -6.568415e-02 -3.480842e-02 2.035627e-02 1.026015e-01 1.418084e-01 1.814301e-01 1.752093e-01 1.636194e-01 1.054506e-01 3.121920e-02 2.194382e-05 -2.202731e-02
<VARIANCE> 39
 1.513389e+00 2.935243e+00 4.955648e+00 7.643641e+00 8.726135e+00 1.035353e+01 1.262369e+01 1.385464e+01 1.406685e+01 1.466566e+01 1.357227e+01 1.185675e+01 4.733537e-01 7.401816e-02 1.103468e-01 2.071633e-01 3.314852e-01 3.504941e-01 3.973396e-01 4.629465e-01 5.406568e-01 5.986163e-01 6.262408e-01 5.968601e-01 5.127281e-01 2.415090e-02 1.029036e-02 2.198365e-02 4.137477e-02 5.202248e-02 5.910807e-02 7.425686e-02 8.672701e-02 1.025542e-01 1.050925e-01 1.199960e-01 1.171170e-01 1.017107e-01 2.839901e-03
<GCONST> 4.004827e+01
<MIXTURE> 10 1.027645e-01
<MEAN> 39
 -3.374221e+00 -3.566954e+00 9.732284e-01 -3.921777e+00 -1.275811e+00 -5.446545e+00 1.882623e-01 -2.842071e+00 4.968820e-01 -3.021201e+00 7.616671e-01 -2.173070e+00 -3.159455e+00 4.702889e-01 2.332542e-01 -1.618458e-01 6.175426e-01 2.082987e-01 4.923203e-01 -1.443997e-01 3.172290e-01 -2.004680e-01 2.220434e-01 -2.596999e-01 1.860165e-01 1.461975e+00 1.860440e-01 2.120896e-01 -5.325310e-02 2.372404e-01 8.101973e-02 3.090284e-01 -2.229951e-02 1.721857e-01 -5.106586e-02 1.843304e-01 -4.278496e-02 1.318613e-01 3.355168e-01
<VARIANCE> 39
 1.095808e+01 8.939296e+00 9.010565e+00 1.100162e+01 1.164703e+01 1.396181e+01 1.555492e+01 1.581534e+01 1.527796e+01 1.450851e+01 1.293659e+01 1.212165e+01 2.549059e+01 6.352288e-01 4.354294e-01 4.552498e-01 5.480922e-01 5.352960e-01 6.978884e-01 7.312664e-01 8.920009e-01 8.322880e-01 7.752790e-01 6.499062e-01 6.176816e-01 2.387090e+00 1.083287e-01 6.983037e-02 7.890451e-02 9.665187e-02 9.693485e-02 1.241033e-01 1.274290e-01 1.455795e-01 1.266510e-01 1.377988e-01 1.103291e-01 1.025765e-01 1.715109e-01
<GCONST> 7.212251e+01
<MIXTURE> 11 7.448072e-02
<MEAN> 39
 -2.791436e+00 -3.808082e+00 5.291548e-01 -4.721597e+00 -2.166469e+00 -4.987230e+00 3.341911e-01 -2.797354e+00 9.502870e-01 -2.072770e+00 1.223698e+00 -1.686525e+00 -5.402576e+00 -4.373609e-01 -4.611366e-01 -2.064776e-01 -2.400599e-01 -1.955930e-01 -3.757903e-01 -9.825896e-02 -3.116929e-01 -1.615598e-02 -2.448183e-01 -7.173669e-02 -1.285958e-01 5.998280e-01 2.443010e-01 2.298337e-01 1.650833e-02 2.744505e-01 1.226233e-01 2.044397e-01 -4.707056e-02 1.018294e-01 -9.392558e-02 4.994819e-02 -9.551288e-02 4.490404e-02 6.651790e-02
<VARIANCE> 39
 1.373024e+01 1.149368e+01 1.192856e+01 1.450343e+01 1.646247e+01 1.991812e+01 2.087333e+01 2.313716e+01 2.015303e+01 1.910857e+01 1.857452e+01 1.758303e+01 3.122614e+01 9.298850e-01 6.780663e-01 6.378879e-01 7.451747e-01 7.765092e-01 8.405548e-01 8.390806e-01 9.732940e-01 8.060430e-01 8.352582e-01 8.262208e-01 6.458399e-01 2.126614e+00 1.104465e-01 9.498459e-02 1.151580e-01 1.469186e-01 1.385126e-01 1.828388e-01 1.785001e-01 1.901429e-01 1.560558e-01 1.637846e-01 1.633283e-01 1.487072e-01 3.114846e-01
<GCONST> 8.269813e+01
<MIXTURE> 12 5.330089e-02
<MEAN> 39
 -1.305987e-01 3.031095e-01 -3.046385e-01 1.931056e+00 4.745942e-01 1.140492e+00 7.499360e-03 1.608973e+00 -4.404843e-01 7.856638e-01 -3.025428e-01 9.673079e-01 7.541047e+00 -1.278293e-02 3.691975e-01 -4.213720e-01 7.098716e-01 1.073670e-01 9.071146e-01 -1.814883e-01 4.685043e-01 -2.870249e-01 3.327037e-01 -3.227983e-01 4.217871e-01 2.238267e+00 -2.708111e-01 -1.561027e-01 1.190288e-02 -2.890985e-01 -9.776305e-02 -2.672649e-01 8.067855e-03 -1.996690e-01 5.221846e-02 -1.392845e-01 8.585943e-02 -1.249303e-01 -5.078244e-01
<VARIANCE> 39
 5.134771e+00 5.762354e+00 8.287853e+00 1.124082e+01 1.250033e+01 1.814484e+01 1.542980e+01 1.689864e+01 1.703970e+01 1.707595e+01 1.421323e+01 1.236765e+01 1.779750e+01 6.298284e-01 4.070427e-01 3.996042e-01 4.853501e-01 5.498031e-01 6.474288e-01 6.788322e-01 7.024857e-01 7.198769e-01 7.477591e-01 6.327803e-01 5.883324e-01 1.333248e+00 6.391266e-02 6.572789e-02 6.952963e-02 9.938686e-02 1.072787e-01 1.506456e-01 1.256490e-01 1.579163e-01 1.474553e-01 1.496716e-01 1.230985e-01 1.079630e-01 1.638466e-01
<GCONST> 6.977813e+01
<MIXTURE> 13 5.265132e-02
<MEAN> 39
 2.510995e+00 -1.275002e-01 6.294367e-01 -3.442073e-02 -8.664164e-02 -2.663542e+00 -6.866595e-01 -1.322679e+00 -1.501779e+00 -2.305586e+00 -1.430863e+00 -1.755366e+00 -8.621110e+00 -6.209840e-02 -7.431947e-02 1.366575e-01 -2.139241e-01 2.474675e-02 -2.484769e-01 -3.824314e-02 -1.700504e-01 -8.765002e-02 -1.369472e-01 4.213480e-02 -2.286526e-01 5.871652e-01 -1.905636e-01 -7.189561e-02 -3.170673e-02 -1.878498e-01 -1.332363e-01 -5.317586e-02 3.145707e-02 -4.379947e-02 1.117884e-01 4.142494e-02 1.332473e-01 4.472709e-02 1.431921e-02
<VARIANCE> 39
 1.589366e+01 2.161028e+01 1.930899e+01 2.436604e+01 2.533232e+01 3.276245e+01 2.861379e+01 2.737705e+01 2.863151e+01 2.382830e+01 2.094030e+01 1.839153e+01 7.365646e+01 1.174371e+00 1.017622e+00 1.145151e+00 1.286661e+00 1.099424e+00 1.406026e+00 1.272153e+00 1.202024e+00 1.259492e+00 1.043807e+00 9.796280e-01 8.607288e-01 3.001960e+00 1.707048e-01 2.008885e-01 1.999448e-01 2.241579e-01 2.077044e-01 2.677533e-01 2.671148e-01 2.656386e-01 2.432862e-01 2.231666e-01 1.851593e-01 1.705432e-01 4.322349e-01
<GCONST> 9.724132e+01
<MIXTURE> 14 2.924750e-02
<MEAN> 39
 3.740624e-03 -1.104166e-01 -2.567433e-01 -7.949707e-01 -3.600527e-01 -7.723267e-01 2.596703e-01 -4.132168e-01 7.024464e-02 -6.637864e-01 1.456009e-01 -9.843354e-02 -4.786507e+00 -7.584493e-02 -2.309201e-02 2.178279e-01 -1.319073e-01 6.370963e-02 -1.324010e-01 -3.383582e-03 -2.438015e-01 -1.062056e-01 -2.174239e-01 -6.237894e-02 -1.392327e-01 1.867636e-01 -4.215191e-02 -1.020767e-01 4.871846e-02 -1.532764e-01 -7.705416e-02 -1.631031e-01 -4.491622e-02 -1.493363e-01 1.150415e-02 -7.322866e-02 -1.750259e-02 -1.320526e-01 3.563283e-02
<VARIANCE> 39
 7.095233e+00 6.093308e+00 7.908844e+00 9.760291e+00 1.002991e+01 1.287636e+01 1.657999e+01 2.037132e+01 1.629701e+01 1.804336e+01 1.359273e+01 1.244931e+01 9.498153e+01 4.948964e-01 3.281287e-01 5.689652e-01 5.738938e-01 5.789073e-01 8.292415e-01 7.768845e-01 9.102817e-01 7.196980e-01 7.385854e-01 6.488659e-01 6.312734e-01 1.590412e+00 8.030174e-02 4.887139e-02 6.359375e-02 9.353799e-02 9.314360e-02 1.150226e-01 1.404105e-01 1.570861e-01 1.397469e-01 1.536509e-01 1.251013e-01 9.047452e-02 3.138140e-01
<GCONST> 7.226744e+01
<MIXTURE> 15 4.620902e-02
<MEAN> 39
 1.582950e+00 -1.319048e+00 3.962215e-01 2.672920e-02 7.241989e-01 -1.861453e+00 5.174062e-01 -6.314201e-03 4.173641e-01 -2.536622e-01 3.190775e-01 -9.267055e-01 2.441393e+00 2.273603e-01 6.119664e-01 -3.690297e-01 1.111993e+00 4.219780e-01 1.453425e+00 6.410407e-03 8.410197e-01 -1.279528e-01 7.089286e-01 -2.040617e-01 5.684149e-01 2.055748e+00 -3.594498e-01 -1.106324e-02 -3.248224e-02 -1.107149e-01 -1.009809e-01 -8.429423e-03 -1.461213e-02 -4.058117e-02 -1.834406e-02 -5.872123e-02 1.377540e-02 3.542525e-02 -5.421513e-02
<VARIANCE> 39
 9.018482e+00 1.084276e+01 9.911149e+00 1.510452e+01 1.560183e+01 1.661137e+01 1.846445e+01 2.041638e+01 2.053204e+01 1.875708e+01 1.522582e+01 1.347728e+01 1.771166e+01 5.623678e-01 4.326184e-01 3.948002e-01 6.019186e-01 5.594845e-01 6.078812e-01 7.397417e-01 7.351055e-01 7.269647e-01 7.456731e-01 6.209064e-01 6.195508e-01 1.017724e+00 6.897757e-02 6.004032e-02 7.902292e-02 9.687562e-02 1.140750e-01 1.185021e-01 1.456890e-01 1.478261e-01 1.519779e-01 1.584210e-01 1.288604e-01 1.144493e-01 9.877866e-02
<GCONST> 7.206293e+01
<MIXTURE> 16 1.916435e-02
<MEAN> 39
 1.088089e+00 6.862183e-01 2.978928e+00 -2.360678e+00 -9.318703e-01 -2.295493e+00 1.473795e-01 -2.490310e+00 -9.502170e-01 -2.156549e+00 3.442535e-01 -1.276269e+00 -5.013643e+00 -3.481728e-01 -5.957039e-01 -2.288581e-02 -1.110006e+00 -6.030758e-01 -1.129041e+00 -3.808255e-01 -9.626487e-01 2.110104e-02 -6.436785e-01 1.382614e-02 -4.425026e-01 -1.628203e-01 -1.760789e-01 -1.627972e-01 -2.718806e-01 7.132123e-02 -2.602695e-02 -3.814002e-02 -4.808230e-02 1.032050e-01 1.062277e-01 6.059599e-02 -2.807712e-02 4.312511e-02 3.853606e-02
<VARIANCE> 39
 1.599599e+01 1.372792e+01 2.557593e+01 2.553289e+01 2.284046e+01 2.482077e+01 2.398570e+01 2.763657e+01 2.467664e+01 2.647304e+01 1.952584e+01 1.952241e+01 5.890860e+01 9.634029e-01 7.623613e-01 9.079548e-01 1.244215e+00 8.580609e-01 1.164750e+00 1.008039e+00 1.244638e+00 1.347668e+00 1.301537e+00 9.461393e-01 9.338137e-01 5.440640e+00 1.468602e-01 1.201260e-01 2.266791e-01 2.070631e-01 1.815024e-01 2.062965e-01 1.855090e-01 2.313094e-01 2.028152e-01 2.119626e-01 1.766102e-01 1.445726e-01 3.031006e-01
<GCONST> 9.352194e+01
<STATE> 4
<NUMMIXES> 16
<MIXTURE> 1 1.943936e-02
<MEAN> 39
 -5.719967e-01 -3.623186e-01 -1.862389e-01 9.116094e-01 1.398856e+00 1.503833e+00 1.930842e+00 1.971290e+00 6.432042e-01 -1.824778e-02 2.433695e-01 1.156287e-01 -4.268542e-02 -9.098371e-03 1.048259e-01 2.835543e-01 5.143369e-01 7.397093e-01 8.032817e-01 7.558501e-01 8.220900e-01 8.227837e-01 6.495062e-01 4.115951e-01 2.747211e-01 2.744412e-02 3.270003e-02 3.609886e-02 2.956438e-02 -5.004941e-02 -1.050761e-01 -1.022170e-01 -1.137183e-01 -1.003660e-01 -2.035903e-02 1.254845e-02 -6.980231e-03 -3.964721e-03 3.733150e-03
<VARIANCE> 39
 1.284599e+00 2.643374e+00 4.336029e+00 6.565041e+00 8.979196e+00 9.437586e+00 1.020459e+01 1.545235e+01 1.606767e+01 1.471809e+01 1.674056e+01 1.681796e+01 3.516366e-01 4.858519e-02 1.021524e-01 1.939624e-01 2.799337e-01 4.297265e-01 3.965888e-01 4.850272e-01 5.723453e-01 6.573457e-01 6.900473e-01 6.054817e-01 5.263021e-01 1.248581e-02 8.760904e-03 2.086655e-02 3.370536e-02 4.978234e-02 6.873102e-02 7.201064e-02 7.124031e-02 1.084235e-01 1.228623e-01 1.069549e-01 1.283813e-01 1.414178e-01 1.602070e-03
<GCONST> 3.827584e+01
<MIXTURE> 2 2.917362e-02
<MEAN> 39
 -1.541030e+00 6.696236e-01 5.065451e-01 4.287768e+00 2.668038e+00 3.400064e+00 7.736631e-01 1.982600e+00 9.795985e-02 1.433530e+00 4.907298e-01 2.072621e+00 6.255282e+00 -6.362259e-01 2.394139e-01 -1.605972e-02 1.079507e+00 5.257454e-01 1.149008e+00 4.656923e-01 8.463064e-01 3.686270e-01 6.157317e-01 1.352383e-01 4.979489e-01 9.304108e-01 -1.743245e-02 -1.270181e-01 -7.111116e-02 -4.277854e-01 -2.574432e-01 -3.702825e-01 -4.156215e-02 -1.605136e-01 6.075455e-02 -9.335072e-02 5.204297e-02 -1.381158e-01 -3.060679e-01
<VARIANCE> 39
 4.000259e+00 3.667130e+00 4.668466e+00 1.111113e+01 8.575189e+00 1.166863e+01 1.518215e+01 1.583276e+01 1.632772e+01 1.821275e+01 1.873080e+01 1.160095e+01 2.364283e+01 2.918090e-01 3.297169e-01 2.860531e-01 8.754395e-01 5.506775e-01 7.943369e-01 7.237277e-01 7.526617e-01 8.762898e-01 6.659731e-01 5.892825e-01 5.404493e-01 2.637274e-01 5.293091e-02 4.697042e-02 4.895613e-02 8.716152e-02 7.817017e-02 1.028610e-01 1.603212e-01 1.481979e-01 1.304533e-01 1.533007e-01 1.269280e-01 1.110762e-01 5.815576e-02
<GCONST> 6.342806e+01
<MIXTURE> 3 9.760609e-02
<MEAN> 39
 5.005194e-01 8.055891e-01 6.958341e-01 9.156756e-01 8.481548e-01 7.442165e-01 6.410366e-01 1.907877e-01 -3.084541e-01 -2.740521e-01 -1.792699e-01 -4.080032e-01 2.444446e-01 -5.444388e-02 -2.133429e-02 1.052119e-01 2.897217e-01 5.562809e-01 6.210901e-01 7.227014e-01 6.808943e-01 6.805979e-01 5.600456e-01 3.326953e-01 1.766361e-01 -1.066939e-02 -4.560940e-02 -5.632696e-02 -4.446261e-02 -6.205408e-02 -6.785288e-02 -5.431081e-02 -4.622366e-02 1.481413e-02 6.809524e-02 8.093935e-02 7.174769e-02 5.972674e-02 -1.749759e-02
<VARIANCE> 39
 8.681403e-01 1.899788e+00 3.738920e+00 6.311267e+00 7.207069e+00 9.369305e+00 1.043103e+01 1.155233e+01 1.291581e+01 1.267159e+01 1.210689e+01 1.309007e+01 3.516366e-01 3.922599e-02 9.907302e-02 1.846442e-01 2.513501e-01 3.343558e-01 4.257204e-01 4.894021e-01 5.371267e-01 5.818446e-01 6.555988e-01 5.825371e-01 5.451369e-01 7.994300e-03 6.726080e-03 1.721867e-02 3.473196e-02 4.871297e-02 5.373509e-02 6.487247e-02 7.542831e-02 1.000932e-01 1.045184e-01 1.085518e-01 1.052872e-01 1.068162e-01 1.346186e-03
<GCONST> 3.304733e+01
<MIXTURE> 4 6.420181e-02
<MEAN> 39
 -2.218964e+00 -4.271111e-01 -1.568229e+00 1.538026e+00 7.456275e-01 2.047167e+00 8.768566e-01 3.032511e+00 8.312321e-01 2.530587e+00 1.551154e+00 2.385654e+00 1.111719e+01 -6.240304e-01 8.518740e-02 -3.119055e-01 4.259301e-01 1.875157e-01 7.573743e-01 1.898605e-01 7.486215e-01 3.014808e-01 6.651008e-01 2.541656e-01 4.743247e-01 1.340338e+00 -5.384665e-02 -7.004134e-02 1.523629e-01 -1.658740e-01 -3.351628e-02 -2.715788e-01 1.453784e-02 -2.237432e-01 3.504623e-02 -1.995068e-01 -2.522130e-02 -2.083948e-01 -6.677322e-01
<VARIANCE> 39
 1.992395e+00 2.832138e+00 3.577591e+00 5.774557e+00 9.155413e+00 1.116377e+01 1.197849e+01 1.544258e+01 1.530376e+01 1.512604e+01 1.318468e+01 1.143917e+01 1.290685e+01 2.583275e-01 3.188580e-01 3.488095e-01 4.641923e-01 4.911650e-01 6.508958e-01 6.259152e-01 8.512174e-01 6.898721e-01 7.068650e-01 6.794188e-01 5.858248e-01 5.320311e-01 5.769713e-02 4.738978e-02 4.698721e-02 6.048208e-02 8.448388e-02 9.942731e-02 1.097306e-01 1.248654e-01 1.220314e-01 1.204832e-01 1.277021e-01 1.041658e-01 1.002971e-01
<GCONST> 5.926955e+01
<MIXTURE> 5 1.378293e-01
<MEAN> 39
 4.556922e-01 8.067930e-01 8.823405e-01 9.040267e-01 6.012191e-01 2.075005e-01 -2.963701e-01 -5.496569e-01 -4.329154e-01 -3.151702e-01 -3.314443e-01 -2.747020e-01 2.469161e-01 -1.436451e-01 -1.407033e-01 -1.090154e-02 2.135939e-01 4.850416e-01 5.381925e-01 5.067414e-01 4.690894e-01 3.877334e-01 2.344783e-01 7.440920e-02 1.892192e-02 -4.341455e-02 -4.602182e-02 -6.528006e-02 -7.375394e-02 -7.173841e-02 -4.688105e-02 -6.984933e-03 5.342410e-02 8.681249e-02 8.357707e-02 8.156763e-02 7.963829e-02 6.235772e-02 -1.788933e-02
<VARIANCE> 39
 9.183617e-01 2.103126e+00 4.019027e+00 6.029294e+00 7.563625e+00 9.706287e+00 1.127777e+01 1.203091e+01 1.238753e+01 1.424102e+01 1.289569e+01 1.186787e+01 3.516366e-01 3.931180e-02 9.576064e-02 1.898812e-01 2.599968e-01 3.094283e-01 3.993626e-01 4.562199e-01 4.973799e-01 5.475680e-01 6.287545e-01 5.550569e-01 4.955237e-01 7.479849e-03 7.121409e-03 1.858637e-02 3.428390e-02 4.505927e-02 5.459020e-02 6.562152e-02 8.070905e-02 9.219133e-02 1.013173e-01 1.152418e-01 1.112031e-01 9.635548e-02 1.489969e-03
<GCONST> 3.303994e+01
<MIXTURE> 6 7.602260e-02
<MEAN> 39
 -4.433818e-01 -1.926365e-01 2.943488e-01 1.222490e+00 1.626552e+00 1.186708e+00 2.632718e-01 3.526523e-01 4.151531e-01 7.335284e-01 1.031083e+00 9.237309e-01 -2.545407e-02 -6.245243e-02 2.042836e-02 2.044016e-01 4.148718e-01 6.671008e-01 7.439939e-01 6.330903e-01 5.370225e-01 5.097219e-01 3.401984e-01 9.733596e-02 1.472773e-03 -1.113300e-02 2.249217e-02 1.226730e-02 -2.805008e-02 -9.261747e-02 -1.396514e-01 -7.890622e-02 1.226187e-02 2.274691e-02 1.630835e-02 -1.878128e-02 -5.044796e-02 -5.288332e-02 3.951376e-03
<VARIANCE> 39
 1.031886e+00 2.296163e+00 4.581431e+00 7.197749e+00 8.903904e+00 1.082528e+01 1.168797e+01 1.401042e+01 1.560241e+01 1.478066e+01 1.508053e+01 1.362817e+01 3.516366e-01 4.552669e-02 1.026172e-01 1.856873e-01 2.490466e-01 3.607317e-01 3.973197e-01 4.784902e-01 5.632508e-01 5.808899e-01 6.211578e-01 5.755411e-01 5.295494e-01 8.756260e-03 7.501103e-03 1.904402e-02 4.005390e-02 5.561199e-02 6.324483e-02 8.095498e-02 8.419103e-02 1.104784e-01 1.191473e-01 1.164744e-01 1.131143e-01 1.067429e-01 1.521679e-03
<GCONST> 3.668924e+01
<MIXTURE> 7 4.515956e-02
<MEAN> 39
 -1.825494e+00 5.522422e-01 3.559004e-01 2.949002e+00 1.065919e+00 1.870397e+00 3.028065e-01 2.242519e+00 6.268121e-01 1.363666e+00 -3.612618e-01 2.911940e-01 7.380852e+00 -5.472779e-01 1.029763e-01 -1.169647e-02 4.087982e-01 1.909518e-01 4.239861e-01 1.941165e-01 3.417563e-01 1.826176e-01 2.863503e-01 1.202992e-01 1.653121e-01 5.451344e-01 2.121399e-02 -1.261290e-01 -5.202969e-02 -2.837908e-01 -7.370565e-02 -2.204380e-01 3.048930e-02 -1.413277e-01 -9.730011e-03 -8.377320e-02 8.580738e-02 -5.933840e-03 -3.367568e-01
<VARIANCE> 39
 2.342781e+00 2.675719e+00 3.932297e+00 6.580302e+00 8.732556e+00 1.250690e+01 1.518304e+01 1.601135e+01 1.598732e+01 1.399239e+01 1.440177e+01 1.212095e+01 1.878694e+01 1.728298e-01 1.946459e-01 2.630642e-01 4.709538e-01 4.773075e-01 6.064977e-01 6.174212e-01 7.075151e-01 7.983971e-01 6.187673e-01 6.680430e-01 5.236987e-01 1.155678e-01 4.645282e-02 3.636713e-02 3.897675e-02 6.298922e-02 7.774630e-02 1.048788e-01 1.387238e-01 1.479165e-01 1.515489e-01 1.323370e-01 1.270667e-01 9.957831e-02 4.355836e-02
<GCONST> 5.649572e+01
<MIXTURE> 8 4.153422e-02
<MEAN> 39
 -2.295752e+00 -2.990780e-01 -1.496448e+00 9.445764e-01 1.793128e-01 2.198029e+00 1.093841e+00 2.105250e+00 -1.142504e-01 1.242953e+00 2.719402e-02 1.270787e+00 9.592175e+00 -5.869477e-01 1.264167e-03 -2.854314e-01 8.193785e-03 -1.430638e-01 2.676306e-01 -5.630382e-02 7.269643e-02 -9.282752e-02 9.089407e-02 3.248206e-02 1.919420e-01 7.861218e-01 4.859752e-02 -8.516446e-02 1.567625e-01 -9.425039e-02 7.908197e-03 -2.978823e-01 -1.840503e-02 -1.405158e-01 8.586045e-02 -7.769546e-02 8.988329e-02 -1.124676e-01 -5.317102e-01
<VARIANCE> 39
 1.827713e+00 3.156978e+00 3.930185e+00 7.123987e+00 9.069487e+00 1.174811e+01 1.403633e+01 1.506139e+01 1.542688e+01 1.622913e+01 1.114870e+01 1.258802e+01 5.934746e+00 1.960160e-01 2.149113e-01 3.333507e-01 3.592627e-01 5.513748e-01 6.861222e-01 6.430046e-01 6.600022e-01 7.629915e-01 7.325364e-01 6.364346e-01 6.308166e-01 2.357101e-01 5.172327e-02 4.579596e-02 4.676069e-02 6.636121e-02 8.479138e-02 1.041668e-01 1.234535e-01 1.176952e-01 1.457724e-01 1.400327e-01 1.082743e-01 1.055265e-01 4.320581e-02
<GCONST> 5.668733e+01
<MIXTURE> 9 1.385456e-01
<MEAN> 39
 4.141068e-01 5.277097e-01 4.014166e-01 4.425613e-01 4.758276e-01 3.144506e-01 9.210806e-02 -2.546577e-01 -5.895449e-01 -6.225532e-01 -7.496825e-01 -5.577650e-01 2.299259e-01 -1.159870e-01 -1.016515e-01 4.316036e-03 1.804922e-01 4.213409e-01 4.940583e-01 5.042385e-01 4.544420e-01 4.023758e-01 2.590387e-01 5.463430e-02 -5.025453e-02 -3.518767e-02 -6.436780e-02 -7.438269e-02 -6.570189e-02 -7.331102e-02 -8.649051e-02 -7.207002e-02 -3.820032e-02 8.443873e-03 3.853901e-02 4.323309e-02 4.778984e-02 4.144020e-02 -2.580784e-02
<VARIANCE> 39
 9.405675e-01 1.996195e+00 3.876863e+00 5.969857e+00 7.210743e+00 9.628813e+00 1.053716e+01 1.169863e+01 1.241598e+01 1.321424e+01 1.243628e+01 1.262757e+01 3.516366e-01 4.323180e-02 9.840373e-02 1.846004e-01 2.556494e-01 3.231830e-01 4.084098e-01 4.990289e-01 5.208089e-01 5.635791e-01 6.230468e-01 5.826278e-01 5.511203e-01 8.057655e-03 6.850019e-03 1.740905e-02 3.411274e-02 4.675778e-02 5.441514e-02 6.475475e-02 7.768747e-02 9.216186e-02 1.008700e-01 1.070568e-01 1.023455e-01 1.031293e-01 1.468889e-03
<GCONST> 3.306026e+01
<MIXTURE> 10 7.866985e-02
<MEAN> 39
 3.359262e-01 5.683741e-01 5.554930e-01 5.527652e-01 2.915111e-02 -3.294300e-01 -6.844776e-01 -1.087790e+00 -1.078775e+00 -1.089170e+00 -1.100711e+00 -6.263948e-01 2.187383e-01 -2.032421e-01 -2.260799e-01 -1.304693e-01 1.103112e-01 3.424547e-01 3.801416e-01 3.186338e-01 2.740857e-01 1.429527e-01 -4.677728e-02 -1.978057e-01 -2.151746e-01 -6.740017e-02 -6.014511e-02 -8.175586e-02 -9.082203e-02 -1.014334e-01 -6.163345e-02 -2.012649e-02 2.578481e-02 7.762262e-02 7.447306e-02 7.646853e-02 8.131096e-02 7.045902e-02 -2.619299e-02
<VARIANCE> 39
 9.077725e-01 2.336663e+00 4.463951e+00 5.705810e+00 7.973935e+00 9.993720e+00 1.123440e+01 1.290072e+01 1.291912e+01 1.441192e+01 1.364971e+01 1.137533e+01 3.516366e-01 3.943367e-02 8.599230e-02 1.832008e-01 2.483732e-01 2.977975e-01 3.676684e-01 4.347762e-01 5.001546e-01 5.186298e-01 6.353729e-01 5.559925e-01 5.367509e-01 6.758186e-03 7.273512e-03 1.851653e-02 3.419608e-02 4.699369e-02 5.100574e-02 6.634346e-02 8.148477e-02 8.555930e-02 9.998578e-02 1.156195e-01 1.056000e-01 9.977270e-02 1.653830e-03
<GCONST> 3.299881e+01
<MIXTURE> 11 6.460125e-02
<MEAN> 39
 -5.818855e-01 -5.354989e-01 -1.209079e-01 6.786465e-01 1.142996e+00 7.619279e-01 -8.256303e-02 -2.469721e-01 9.094510e-03 3.455711e-01 5.182053e-01 8.189029e-01 -3.407668e-02 -1.202367e-01 -7.510373e-02 8.601297e-02 3.031618e-01 5.180371e-01 5.656011e-01 4.322084e-01 2.694317e-01 2.345114e-01 1.323027e-01 -1.654002e-01 -2.386859e-01 -3.478160e-02 8.574942e-03 3.632223e-03 -3.036400e-02 -9.275007e-02 -1.526384e-01 -7.804205e-02 7.318277e-03 2.395411e-02 4.623424e-03 -3.629824e-02 -6.504985e-02 -9.037831e-02 -2.457110e-03
<VARIANCE> 39
 9.976448e-01 2.286512e+00 4.550884e+00 7.356268e+00 9.052044e+00 1.159676e+01 1.339006e+01 1.404687e+01 1.446716e+01 1.411423e+01 1.455222e+01 1.310196e+01 3.516366e-01 4.732245e-02 1.031844e-01 1.812810e-01 2.478662e-01 3.532400e-01 4.234681e-01 4.925960e-01 5.364996e-01 5.368032e-01 5.676128e-01 5.637068e-01 5.408491e-01 8.655599e-03 7.186107e-03 1.841958e-02 3.803282e-02 5.328338e-02 6.283168e-02 8.351596e-02 9.086524e-02 9.728813e-02 1.058763e-01 1.098689e-01 1.049179e-01 1.038768e-01 1.564479e-03
<GCONST> 3.610361e+01
<MIXTURE> 12 6.551016e-02
<MEAN> 39
 -2.522448e+00 -6.995579e-01 -1.806477e+00 9.829484e-01 -1.506695e-01 1.542064e+00 1.340783e-01 2.154976e+00 1.790937e-01 1.788689e+00 9.107257e-01 1.993681e+00 1.045007e+01 -7.383707e-01 -4.059888e-02 -4.095258e-01 6.862003e-02 -1.179192e-01 4.502673e-01 -5.379640e-02 3.418148e-01 6.518023e-02 2.805111e-01 3.355066e-02 2.471397e-01 1.198917e+00 1.453081e-02 -9.162388e-02 1.360526e-01 -1.956471e-01 -2.929766e-02 -3.296659e-01 1.881737e-03 -2.485217e-01 -1.308779e-02 -2.389587e-01 -4.751168e-02 -2.469017e-01 -6.727741e-01
<VARIANCE> 39
 1.897864e+00 2.709737e+00 4.203624e+00 6.658556e+00 8.652822e+00 1.211370e+01 1.307965e+01 1.632624e+01 1.564699e+01 1.619258e+01 1.352181e+01 1.221288e+01 1.105028e+01 2.263437e-01 3.117841e-01 3.344025e-01 4.688026e-01 5.194665e-01 6.709147e-01 7.107338e-01 7.615774e-01 7.238699e-01 6.697522e-01 6.176084e-01 6.174746e-01 4.545916e-01 5.196491e-02 4.442785e-02 4.726899e-02 7.213457e-02 8.521149e-02 1.086147e-01 1.153833e-01 1.300314e-01 1.289386e-01 1.331102e-01 1.224152e-01 1.143271e-01 8.431579e-02
<GCONST> 5.961695e+01
<MIXTURE> 13 3.425250e-02
<MEAN> 39
 -2.142960e+00 2.482653e-01 8.683045e-02 2.710227e+00 9.463708e-01 1.600541e+00 9.457773e-03 1.822203e+00 3.451008e-01 1.083933e+00 -4.008788e-01 4.944947e-01 7.637995e+00 -6.120381e-01 4.947858e-03 -9.126497e-02 1.353961e-01 -7.900462e-02 9.575724e-02 -1.014317e-01 2.502953e-02 -1.140255e-01 3.235229e-02 -3.796156e-02 4.529196e-03 5.333640e-01 6.569862e-02 -1.581886e-01 -7.735387e-02 -3.413131e-01 -1.124114e-01 -2.793421e-01 9.644451e-03 -2.107996e-01 -6.941819e-02 -1.594204e-01 6.330176e-02 -7.944296e-02 -3.856951e-01
<VARIANCE> 39
 2.057733e+00 2.691368e+00 4.264409e+00 7.768400e+00 9.196582e+00 1.234073e+01 1.702624e+01 1.702324e+01 1.388013e+01 1.260323e+01 1.443873e+01 1.397706e+01 1.532548e+01 1.525268e-01 1.979109e-01 2.487738e-01 4.871567e-01 4.951608e-01 6.016746e-01 6.495960e-01 7.045928e-01 8.508520e-01 6.972699e-01 6.499918e-01 6.107683e-01 9.473379e-02 5.098664e-02 3.940206e-02 4.057772e-02 6.605899e-02 8.687241e-02 1.183043e-01 1.546084e-01 1.561466e-01 1.245174e-01 1.075833e-01 1.248284e-01 1.101943e-01 4.215574e-02
<GCONST> 5.688674e+01
<MIXTURE> 14 4.145291e-02
<MEAN> 39
 -1.889031e+00 1.610641e-01 2.571857e-02 3.382648e+00 2.394454e+00 3.114900e+00 7.452967e-01 1.794935e+00 -2.392426e-01 9.226219e-01 -2.133907e-01 1.271944e+00 7.554296e+00 -6.421588e-01 1.244329e-01 -1.364102e-01 6.069652e-01 2.543623e-01 6.868324e-01 1.549195e-01 5.589609e-01 1.187603e-01 3.164348e-01 -1.582444e-02 3.470864e-01 8.943787e-01 -8.819916e-03 -1.563260e-01 -5.555641e-02 -4.551866e-01 -2.825916e-01 -4.934357e-01 -1.049174e-01 -2.338269e-01 8.451063e-03 -1.416544e-01 5.898374e-02 -1.563103e-01 -4.057159e-01
<VARIANCE> 39
 2.916092e+00 3.618443e+00 4.431151e+00 7.300399e+00 9.502640e+00 1.218283e+01 1.380437e+01 1.547319e+01 1.653982e+01 1.681886e+01 1.538109e+01 1.128448e+01 1.922382e+01 2.356547e-01 2.637545e-01 2.779559e-01 6.572490e-01 5.090011e-01 6.791711e-01 7.283287e-01 7.588214e-01 7.451987e-01 6.608630e-01 6.094915e-01 5.374082e-01 2.504236e-01 5.527186e-02 4.853110e-02 4.132602e-02 6.873432e-02 8.477410e-02 1.130410e-01 1.463575e-01 1.271753e-01 1.353136e-01 1.511766e-01 1.315160e-01 1.149095e-01 5.386972e-02
<GCONST> 6.060509e+01
<MIXTURE> 15 4.297292e-02
<MEAN> 39
 -5.985982e-01 -7.212599e-01 -4.284082e-01 5.774934e-01 1.216897e+00 1.431770e+00 1.693925e+00 1.400229e+00 3.288265e-01 -2.817180e-01 -4.100754e-01 8.741271e-02 -5.675662e-02 -5.973975e-02 7.134698e-03 1.908300e-01 3.620281e-01 5.989559e-01 7.000299e-01 5.941944e-01 5.252339e-01 4.865039e-01 3.398726e-01 8.134392e-02 -4.515693e-02 -4.597208e-04 1.287509e-02 3.001333e-02 -5.213544e-06 -8.010337e-02 -1.446692e-01 -1.351423e-01 -1.519156e-01 -1.165502e-01 -1.548770e-02 2.098600e-02 2.201331e-02 -2.612986e-02 -3.980251e-03
<VARIANCE> 39
 1.139805e+00 2.491097e+00 4.428283e+00 6.730693e+00 8.548266e+00 9.507559e+00 1.162126e+01 1.363067e+01 1.464919e+01 1.416018e+01 1.578607e+01 1.556149e+01 3.516366e-01 5.184974e-02 1.067465e-01 1.914065e-01 2.645670e-01 3.994627e-01 4.097347e-01 5.076731e-01 5.951080e-01 5.832254e-01 6.510966e-01 5.515035e-01 5.388178e-01 1.041871e-02 8.247847e-03 1.997927e-02 3.735692e-02 5.298733e-02 6.284045e-02 7.199349e-02 8.408315e-02 1.024944e-01 1.128381e-01 1.104399e-01 1.189867e-01 1.338949e-01 1.545150e-03
<GCONST> 3.735439e+01
<MIXTURE> 16 2.303566e-02
<MEAN> 39
 -2.543191e+00 -6.366495e-01 -1.754066e+00 8.984904e-01 8.868290e-02 2.195450e+00 1.205623e+00 1.816803e+00 -5.184179e-01 1.354594e+00 -2.204664e-01 4.864112e-01 9.253822e+00 -6.604532e-01 -8.481293e-02 -4.120657e-01 -2.127308e-01 -3.739555e-01 8.915357e-03 -2.939058e-01 -2.214810e-01 -3.176831e-01 -2.862490e-01 -2.197416e-01 2.805317e-02 8.044045e-01 8.132223e-02 -1.268183e-01 1.437317e-01 -1.467109e-01 -3.552980e-02 -3.880853e-01 -5.940189e-02 -2.375777e-01 -1.598473e-02 -1.930835e-01 6.925990e-02 -1.276465e-01 -5.655777e-01
<VARIANCE> 39
 1.562003e+00 4.097902e+00 4.452313e+00 8.820467e+00 1.024793e+01 1.219257e+01 1.304573e+01 1.432870e+01 1.337310e+01 1.615785e+01 9.996197e+00 1.407158e+01 5.133657e+00 1.904721e-01 1.851912e-01 3.488570e-01 3.907327e-01 5.183764e-01 6.312972e-01 6.307381e-01 5.995383e-01 7.239985e-01 7.676929e-01 5.813347e-01 7.414173e-01 2.155354e-01 4.649027e-02 5.101920e-02 5.266146e-02 6.936311e-02 9.796976e-02 1.127274e-01 1.250924e-01 1.162163e-01 1.361165e-01 1.505712e-01 9.268636e-02 1.268661e-01 4.075649e-02
<GCONST> 5.690603e+01
<TRANSP> 5
 0.000000e+00 1.000000e+00 0.000000e+00 0.000000e+00 0.000000e+00
 0.000000e+00 5.916772e-01 4.083228e-01 0.000000e+00 0.000000e+00
 0.000000e+00 0.000000e+00 7.078655e-01 2.921344e-01 0.000000e+00
 0.000000e+00 0.000000e+00 0.000000e+00 4.516529e-01 5.483471e-01
 0.000000e+00 0.000000e+00 0.000000e+00 0.000000e+00 0.000000e+00
<ENDHMM>
~h "k"
<BEGINHMM>
<NUMSTATES> 5
<STATE> 2
<NUMMIXES> 16
<MIXTURE> 1 4.426942e-02
<MEAN> 39
 2.249536e+00 1.949455e+00 2.063531e-02 -1.470606e+00 -2.031723e+00 -1.886130e+00 -1.167311e-01 5.882413e-01 4.192154e-01 3.250270e-01 4.104186e-01 1.237835e+00 -1.793302e+01 -1.272599e+00 -1.020393e+00 -6.220208e-01 8.145675e-01 5.067689e-01 1.283780e+00 1.147089e+00 7.370359e-01 2.821326e-01 6.009924e-01 5.473337e-02 4.700759e-01 2.209882e+00 -1.501502e-01 -7.367522e-02 2.156130e-01 5.095831e-02 6.499386e-03 2.282124e-01 3.089780e-02 1.316170e-02 6.115734e-02 8.069958e-02 -4.868953e-03 -7.921907e-02 1.878569e+00
<VARIANCE> 39
 4.336446e+00 5.130225e+00 7.567509e+00 1.052965e+01 1.542156e+01 1.604446e+01 1.203052e+01 1.487871e+01 1.676795e+01 1.938075e+01 1.660272e+01 1.305140e+01 2.113209e+01 6.325940e-01 6.868357e-01 1.017955e+00 1.207069e+00 1.446133e+00 1.554009e+00 1.292401e+00 1.320898e+00 1.740344e+00 1.792922e+00 1.249339e+00 8.009111e-01 5.915362e+00 9.353964e-02 8.864081e-02 1.498398e-01 1.944366e-01 2.363349e-01 2.152854e-01 1.765900e-01 1.844374e-01 1.909849e-01 2.106754e-01 1.648153e-01 9.793158e-02 5.361189e-01
<GCONST> 8.500817e+01
<MIXTURE> 2 2.803504e-02
<MEAN> 39
 -6.836221e-01 4.189689e-01 4.730747e-01 2.321956e+00 1.635347e+00 2.336293e+00 9.879203e-01 1.902533e+00 -5.575687e-01 9.995594e-01 6.130764e-01 1.819663e+00 6.860274e+00 -3.353882e-01 -5.528007e-02 2.614309e-01 -2.464979e-01 -2.434823e-01 3.410627e-01 1.405035e-01 1.892772e-01 5.690721e-01 3.738239e-01 3.487941e-01 7.012261e-02 4.155405e-01 -1.179046e-01 -6.914754e-02 -4.164344e-02 -2.292628e-01 -1.946550e-01 -7.534283e-02 -2.117908e-02 -9.641472e-02 1.458208e-01 2.966148e-02 1.547559e-02 -8.088215e-02 -3.642547e-01
<VARIANCE> 39
 7.196849e+00 7.084116e+00 1.053552e+01 1.528574e+01 1.628111e+01 2.468695e+01 2.967779e+01 2.368653e+01 2.698708e+01 1.849847e+01 1.664382e+01 1.515778e+01 2.703670e+01 2.137172e+00 1.474840e+00 1.575624e+00 1.145189e+00 1.291433e+00 1.618324e+00 1.311222e+00 1.127747e+00 1.420948e+00 1.169585e+00 9.023808e-01 7.840401e-01 1.170078e+01 1.382968e-01 1.254663e-01 1.455865e-01 1.674348e-01 1.548122e-01 2.331572e-01 2.474334e-01 2.309020e-01 2.479398e-01 1.890447e-01 1.660334e-01 1.592351e-01 4.079920e-01
<GCONST> 9.222899e+01
<MIXTURE> 3 3.518026e-02
<MEAN> 39
 -1.840958e-01 1.054270e-01 7.939155e-02 9.676106e-01 6.716276e-01 1.013553e+00 8.797386e-01 1.208083e+00 5.182758e-01 2.918578e-01 1.819601e-01 1.513139e-01 4.339697e-01 1.650261e-01 1.907244e-01 5.057273e-02 -2.742142e-01 -5.446635e-01 -7.558593e-01 -6.370153e-01 -3.021951e-01 -7.286542e-02 -9.933006e-03 2.860686e-02 3.018634e-02 -1.506506e-02 -4.759674e-03 -1.026777e-02 -1.541362e-02 -5.497411e-02 -5.721458e-02 -5.982514e-02 -4.904148e-02 -4.510736e-02 1.393215e-02 3.487025e-02 4.614479e-02 5.138392e-02 -2.334272e-02
<VARIANCE> 39
 1.855425e+00 3.153600e+00 5.428169e+00 7.146305e+00 8.191003e+00 9.834242e+00 1.081802e+01 1.367074e+01 1.351925e+01 1.349230e+01 1.528149e+01 1.509072e+01 1.656479e+00 8.879369e-02 9.922051e-02 2.215746e-01 3.023440e-01 3.557710e-01 4.214574e-01 5.117310e-01 6.159683e-01 5.994315e-01 5.144094e-01 5.529655e-01 6.285194e-01 3.292528e-02 1.501315e-02 2.328901e-02 4.623890e-02 5.549081e-02 6.209875e-02 5.529763e-02 9.280175e-02 9.957448e-02 1.127983e-01 1.221888e-01 1.436454e-01 1.249435e-01 7.456069e-03
<GCONST> 4.401952e+01
<MIXTURE> 4 6.266705e-02
<MEAN> 39
 7.866319e+00 7.267105e+00 6.476542e+00 -1.545979e+00 -2.978024e+00 -4.335046e+00 -4.673413e+00 -2.085220e+00 -6.097165e-01 -6.238902e-01 9.175328e-01 -5.613042e-01 -1.184639e+01 -4.827530e-01 -3.982662e-01 -9.212124e-02 -1.437564e-01 -2.539456e-01 3.385036e-02 4.478862e-01 1.551974e-01 4.699492e-01 2.759839e-01 2.522835e-01 1.886561e-01 -2.379356e+00 -9.085065e-01 -7.375045e-01 -5.971779e-01 2.022362e-01 1.822484e-01 5.488124e-01 5.349659e-01 3.729868e-01 1.605730e-01 2.215542e-01 -5.797773e-02 1.827988e-01 1.677275e+00
<VARIANCE> 39
 1.495922e+01 1.503148e+01 2.503875e+01 2.359013e+01 2.924401e+01 3.055561e+01 2.126933e+01 2.342924e+01 3.461148e+01 3.722269e+01 2.926201e+01 1.817895e+01 3.914081e+01 8.201742e-01 8.397605e-01 1.008246e+00 1.194465e+00 1.241080e+00 1.154867e+00 1.117156e+00 1.168540e+00 1.113778e+00 1.037884e+00 8.526251e-01 6.850302e-01 5.845056e+00 9.978304e-02 1.084527e-01 1.786128e-01 2.329187e-01 3.298996e-01 2.880805e-01 1.995749e-01 2.233249e-01 3.486184e-01 3.741957e-01 2.721278e-01 1.814686e-01 6.575910e-01
<GCONST> 9.676348e+01
<MIXTURE> 5 9.247477e-02
<MEAN> 39
 -2.106978e+00 -1.117935e+00 6.189531e-01 1.786352e+00 -1.413877e+00 2.494767e+00 2.085822e+00 2.213641e+00 1.242907e+00 2.530305e+00 1.822690e-01 1.406069e+00 6.328290e+00 -1.233340e+00 -5.897151e-01 -7.974686e-02 -3.647683e-01 -3.087413e-02 8.555149e-01 4.573975e-01 -1.789513e-01 3.470643e-01 1.703118e-02 -1.476913e-01 -2.867076e-01 3.037115e+00 2.087127e-01 2.803147e-01 9.032723e-02 -3.484999e-01 -6.388432e-02 -2.813698e-01 -3.314534e-01 -2.787575e-01 5.343500e-02 -2.158647e-01 2.900249e-02 -1.516211e-01 -8.353395e-01
<VARIANCE> 39
 4.302076e+00 8.144715e+00 1.277375e+01 2.202600e+01 2.367950e+01 2.408513e+01 2.553799e+01 2.784543e+01 2.059540e+01 1.981487e+01 1.695682e+01 1.612762e+01 2.410126e+01 7.287444e-01 7.971245e-01 8.423824e-01 1.347048e+00 1.244578e+00 1.175760e+00 1.034959e+00 1.151267e+00 1.346046e+00 1.294985e+00 9.460766e-01 7.614164e-01 4.167445e+00 9.097871e-02 1.299727e-01 1.728924e-01 2.314303e-01 2.491080e-01 2.502871e-01 2.166897e-01 2.428626e-01 2.202358e-01 2.491133e-01 1.855332e-01 1.453197e-01 4.390323e-01
<GCONST> 8.967030e+01
<MIXTURE> 6 6.444694e-02
<MEAN> 39
 4.335235e+00 3.634645e+00 4.335289e+00 -3.148467e+00 -2.995324e+00 -2.732860e+00 -3.417129e+00 1.321799e+00 1.579719e+00 2.109015e+00 2.255246e+00 8.548019e-01 -8.829404e-01 9.624481e-01 6.839383e-01 8.562438e-01 -7.646887e-01 -7.755038e-01 -8.872555e-01 -5.056415e-01 -5.093666e-01 3.294456e-01 -1.541781e-02 4.507501e-01 -4.198324e-02 -4.584835e+00 -5.383874e-01 -3.882104e-01 -4.268034e-01 4.151786e-01 2.885484e-01 4.118993e-01 3.881311e-01 -1.003353e-02 -1.488474e-01 -9.131276e-02 -1.876492e-01 3.916898e-02 3.351087e-01
<VARIANCE> 39
 1.415226e+01 1.544380e+01 3.250391e+01 5.003236e+01 4.718211e+01 3.958400e+01 3.681960e+01 3.553586e+01 3.982674e+01 3.095851e+01 2.995277e+01 2.069095e+01 7.136314e+01 8.968520e-01 7.909806e-01 1.030785e+00 1.311702e+00 1.388165e+00 1.559796e+00 1.109479e+00 9.697793e-01 1.159286e+00 1.216519e+00 1.098374e+00 7.614599e-01 2.809991e+00 1.290737e-01 1.306685e-01 2.137282e-01 3.653727e-01 3.760875e-01 3.130281e-01 2.795866e-01 2.922186e-01 2.837018e-01 2.743262e-01 2.361782e-01 1.811222e-01 6.453407e-01
<GCONST> 1.015645e+02
<MIXTURE> 7 1.034685e-01
<MEAN> 39
 6.409842e-02 3.556538e-01 6.409354e-01 1.056421e+00 5.236796e-01 5.791737e-01 6.823503e-01 5.116085e-01 1.655267e-01 -2.398603e-01 -4.583742e-01 -2.245910e-01 1.245955e-01 1.867693e-01 1.744084e-01 -1.333518e-03 -3.815348e-01 -6.515671e-01 -8.396007e-01 -7.296447e-01 -5.268418e-01 -4.549571e-01 -2.735404e-01 -1.512490e-01 -9.945377e-02 1.216561e-03 -8.537346e-03 -3.036418e-02 -6.283603e-02 -8.000322e-02 -4.624636e-02 -4.915073e-02 -7.624938e-02 -2.789468e-02 7.642795e-03 5.516785e-02 9.555707e-02 7.533019e-02 -7.119304e-03
<VARIANCE> 39
 1.350367e+00 2.583723e+00 4.557382e+00 7.747428e+00 9.499899e+00 1.077561e+01 1.110091e+01 1.310603e+01 1.426614e+01 1.419780e+01 1.376266e+01 1.411963e+01 3.516366e-01 9.350493e-02 1.197800e-01 2.097786e-01 3.589775e-01 3.248669e-01 3.894815e-01 5.339568e-01 5.784354e-01 6.664021e-01 6.093901e-01 6.011885e-01 6.697171e-01 2.412679e-02 1.037991e-02 1.990195e-02 3.434233e-02 5.189892e-02 5.959558e-02 6.075301e-02 8.030732e-02 1.076681e-01 1.157567e-01 1.166026e-01 1.249916e-01 1.103650e-01 2.303290e-03
<GCONST> 3.993090e+01
<MIXTURE> 8 6.139139e-02
<MEAN> 39
 8.156681e-02 -2.369984e-01 1.618958e+00 -2.083046e-01 -1.130049e+00 9.988749e-02 7.122067e-01 7.479826e-01 1.362848e+00 9.852617e-01 1.238395e+00 1.140726e+00 -9.982026e+00 -1.105723e+00 -9.373691e-01 -4.682687e-01 4.599048e-01 5.506819e-02 6.661062e-01 8.490958e-01 2.345965e-01 2.474318e-02 1.196907e-01 -1.784849e-01 4.360787e-02 2.486637e+00 -3.982153e-02 1.126644e-01 3.434270e-02 -7.273962e-02 9.080917e-03 6.342638e-02 -7.167898e-02 -3.905535e-02 -2.717473e-02 -2.646504e-02 -5.370063e-02 -8.638519e-02 1.003898e+00
<VARIANCE> 39
 1.291321e+01 1.867431e+01 2.069568e+01 2.469722e+01 2.334810e+01 3.507998e+01 2.346924e+01 2.798473e+01 1.932942e+01 1.966084e+01 1.542193e+01 1.391125e+01 6.634573e+01 1.200996e+00 9.929996e-01 1.339614e+00 1.468671e+00 1.659042e+00 1.611332e+00 1.229391e+00 1.181060e+00 1.399744e+00 1.287751e+00 1.065328e+00 9.264160e-01 6.242079e+00 1.688334e-01 1.928795e-01 2.587050e-01 2.780774e-01 2.706872e-01 3.303747e-01 2.198317e-01 2.428301e-01 1.880337e-01 2.152547e-01 1.602044e-01 1.388198e-01 6.517150e-01
<GCONST> 9.787263e+01
<MIXTURE> 9 8.772990e-02
<MEAN> 39
 -1.138545e-01 -1.637884e-01 -2.278853e-01 7.059906e-02 1.348816e-01 1.716987e-01 1.202161e-01 2.595019e-01 2.757003e-02 9.136739e-02 9.284854e-03 1.302712e-01 3.825238e-02 1.150622e-01 7.429791e-02 -1.095152e-01 -3.959767e-01 -7.023978e-01 -9.065744e-01 -8.097522e-01 -5.446422e-01 -4.037638e-01 -2.155650e-01 -1.227578e-01 -1.122072e-01 1.115163e-02 -2.620586e-03 -9.525754e-03 -2.688228e-02 -4.948275e-02 -6.936292e-02 -7.248452e-02 -6.713144e-02 -4.655264e-02 -2.364383e-02 -2.055532e-02 3.744972e-04 6.732340e-03 -4.793692e-03
<VARIANCE> 39
 1.556828e+00 2.898588e+00 4.938411e+00 7.651181e+00 8.382030e+00 1.063657e+01 1.139971e+01 1.427640e+01 1.441652e+01 1.476429e+01 1.496072e+01 1.340905e+01 4.037375e-01 5.427447e-02 1.031372e-01 1.955371e-01 2.472613e-01 3.279212e-01 3.839765e-01 4.779392e-01 5.720416e-01 6.564713e-01 5.644867e-01 5.585204e-01 5.940991e-01 1.403253e-02 1.210013e-02 2.125925e-02 3.719735e-02 5.132871e-02 5.646794e-02 6.045327e-02 7.889581e-02 1.115046e-01 1.127000e-01 1.117844e-01 1.181217e-01 1.069907e-01 3.097193e-03
<GCONST> 3.874525e+01
<MIXTURE> 10 7.145669e-02
<MEAN> 39
 -1.739759e+00 -1.477991e+00 1.820776e+00 3.386622e-01 -4.090614e+00 1.402928e+00 2.086576e+00 9.754873e-01 1.365452e+00 2.616210e+00 1.414490e-01 9.226310e-02 6.094019e+00 -1.110754e+00 -5.386294e-01 8.878518e-02 -1.151256e+00 -3.954276e-01 3.672784e-01 1.205172e-01 -8.081020e-01 4.785664e-01 -3.627878e-01 -2.484376e-01 -6.587754e-01 1.985763e+00 1.758287e-01 2.310752e-01 -8.937307e-02 -2.970161e-01 1.379904e-01 -3.053718e-01 -3.284086e-01 -2.207906e-01 6.317906e-03 -3.268803e-01 -1.474546e-02 -5.700119e-02 -1.241638e+00
<VARIANCE> 39
 6.088418e+00 1.016371e+01 1.373481e+01 2.132472e+01 2.505130e+01 2.188326e+01 2.482951e+01 2.306807e+01 1.901453e+01 1.929122e+01 1.851129e+01 1.698054e+01 1.879991e+01 6.765543e-01 6.993831e-01 8.399380e-01 1.059215e+00 1.183949e+00 1.125571e+00 1.050080e+00 1.191389e+00 9.719450e-01 1.405840e+00 9.266097e-01 8.950993e-01 3.347868e+00 7.994697e-02 1.284168e-01 1.646520e-01 2.200118e-01 2.405064e-01 2.516873e-01 2.132316e-01 2.342398e-01 2.010146e-01 2.456597e-01 1.734567e-01 1.698871e-01 3.242719e-01
<GCONST> 8.835086e+01
<MIXTURE> 11 6.015256e-02
<MEAN> 39
 1.345367e+00 -3.118844e+00 2.490805e+00 -9.777373e-01 -3.864310e+00 -2.151130e+00 9.039755e-01 -7.312062e-01 8.234954e-01 -2.746668e-01 9.680539e-01 -2.347210e-01 -7.124625e+00 -1.404502e+00 -1.216174e+00 -5.615772e-01 -1.515040e-01 -5.050375e-01 4.798435e-01 8.405169e-01 -2.158657e-01 9.910440e-02 8.260909e-03 -2.702395e-01 -2.736805e-01 1.807599e+00 -1.984686e-01 2.809766e-01 -8.670031e-02 -7.015142e-02 1.835749e-01 1.956101e-01 -1.396959e-01 7.704169e-03 -1.065592e-02 1.695222e-02 -8.415741e-02 -4.640910e-02 6.839816e-01
<VARIANCE> 39
 2.192568e+01 3.821134e+01 2.659599e+01 2.429312e+01 2.268153e+01 3.109281e+01 2.348170e+01 1.984708e+01 1.849980e+01 1.673533e+01 1.502681e+01 1.380294e+01 6.854538e+01 1.550723e+00 1.367176e+00 1.437560e+00 1.450464e+00 1.595864e+00 1.753943e+00 1.239745e+00 1.234697e+00 1.448706e+00 1.286065e+00 1.155161e+00 1.152765e+00 4.605051e+00 2.462429e-01 3.049520e-01 2.963004e-01 2.758805e-01 2.539349e-01 3.120044e-01 2.243539e-01 1.957083e-01 2.051267e-01 2.039654e-01 1.551735e-01 1.555201e-01 8.912767e-01
<GCONST> 1.004889e+02
<MIXTURE> 12 7.971672e-02
<MEAN> 39
 8.553118e+00 7.997310e+00 7.268762e+00 -2.310066e+00 -2.954399e+00 -4.575791e+00 -5.526217e+00 -1.615654e+00 -3.320693e-01 -9.466001e-01 8.236492e-01 -1.309539e+00 -1.160340e+01 2.078153e-02 -1.783198e-01 8.064166e-02 -5.043273e-01 -6.719808e-01 -4.887647e-01 5.974022e-02 -3.887173e-01 1.859536e-01 -2.653276e-01 -2.458513e-03 -1.211495e-01 -3.730789e+00 -9.156706e-01 -7.784239e-01 -6.375746e-01 2.145930e-01 1.626731e-01 5.085077e-01 5.397159e-01 2.763137e-01 1.149944e-01 2.100533e-01 -6.972218e-02 1.976967e-01 1.386392e+00
<VARIANCE> 39
 1.415663e+01 1.538827e+01 2.725994e+01 2.558526e+01 2.903049e+01 3.115440e+01 2.254173e+01 2.619066e+01 3.541968e+01 3.437802e+01 3.218269e+01 1.874417e+01 3.529905e+01 7.999949e-01 9.174709e-01 8.086462e-01 8.890888e-01 9.761375e-01 1.096679e+00 9.649829e-01 8.869909e-01 9.694574e-01 8.773919e-01 8.003786e-01 7.097003e-01 4.891365e+00 1.071953e-01 1.198970e-01 1.774421e-01 2.156832e-01 2.895202e-01 2.559856e-01 1.914010e-01 2.163330e-01 3.325391e-01 3.370824e-01 2.812973e-01 1.853393e-01 5.969158e-01
<GCONST> 9.493869e+01
<MIXTURE> 13 3.734548e-02
<MEAN> 39
 1.143318e-01 5.175148e-01 6.306211e-01 3.630601e-01 -2.477080e-01 9.643461e-02 -1.949813e-02 1.648563e-01 -2.250603e-01 -6.502754e-01 -8.347183e-01 -3.492533e-01 8.804077e-02 2.845923e-01 -5.832755e-02 -1.734005e-01 -8.180215e-01 -6.707206e-01 -1.073007e+00 -7.390791e-01 -7.620873e-01 -7.333628e-01 -6.710145e-01 -4.181220e-01 -4.161101e-01 -1.840289e-01 -6.703178e-03 -5.813081e-02 -7.418135e-02 -7.251339e-02 -3.028133e-02 -6.560852e-02 -7.669486e-02 -7.926840e-02 -4.092387e-02 -7.116284e-03 4.162463e-02 5.289050e-02 -1.076336e-02
<VARIANCE> 39
 1.865255e+00 3.476839e+00 5.147967e+00 9.994998e+00 1.025659e+01 1.281334e+01 1.276672e+01 1.437543e+01 1.582889e+01 1.763938e+01 1.540888e+01 1.419411e+01 7.282936e-01 1.798296e-01 2.133828e-01 2.310671e-01 9.089765e-01 4.108155e-01 5.584727e-01 5.949294e-01 5.983737e-01 7.474887e-01 6.698784e-01 6.804052e-01 7.695860e-01 1.336962e-01 1.451189e-02 2.673119e-02 3.562148e-02 6.403928e-02 7.157231e-02 8.271296e-02 7.930073e-02 1.217080e-01 1.395397e-01 1.254255e-01 1.214987e-01 1.106737e-01 5.552062e-03
<GCONST> 5.034821e+01
<MIXTURE> 14 4.648465e-02
<MEAN> 39
 -1.684975e+00 7.424191e-03 -5.641717e-02 1.760206e+00 8.282626e-01 1.873322e+00 1.791698e-01 1.342147e+00 -1.878625e-02 2.582043e-01 4.832322e-01 1.588123e+00 5.977008e+00 -7.527652e-02 -5.665864e-02 -3.989000e-02 -6.557299e-01 -6.006962e-01 -2.373602e-01 7.641093e-02 -2.307985e-01 7.801891e-02 -7.137965e-02 2.959216e-02 -3.695091e-01 2.330687e-01 3.435561e-02 -1.373948e-02 2.517156e-02 -2.925512e-01 -2.373101e-01 -1.902272e-01 3.204510e-03 -1.271209e-01 7.497862e-02 2.843267e-02 -8.221092e-03 -1.452002e-01 -5.991060e-01
<VARIANCE> 39
 8.361319e+00 6.673934e+00 1.007313e+01 1.790405e+01 1.587400e+01 1.956979e+01 2.173937e+01 2.290620e+01 2.239228e+01 1.962444e+01 1.580531e+01 1.801500e+01 2.373348e+01 1.903550e+00 1.042706e+00 1.256690e+00 1.375920e+00 1.454463e+00 1.669163e+00 1.247748e+00 1.172233e+00 1.249566e+00 1.267708e+00 9.982204e-01 9.481176e-01 8.207626e+00 1.409235e-01 1.107218e-01 1.423309e-01 1.985283e-01 1.889175e-01 2.032863e-01 2.012904e-01 2.297063e-01 2.565677e-01 1.828460e-01 1.689209e-01 1.719626e-01 4.077401e-01
<GCONST> 9.120179e+01
<MIXTURE> 15 3.780049e-02
<MEAN> 39
 5.598940e+00 4.311224e+00 3.835429e+00 -2.937851e+00 -3.256464e+00 -2.530965e+00 -3.338258e+00 -4.013177e-01 -4.922132e-01 1.950555e-01 8.841443e-02 -6.122814e-01 -2.185744e+00 1.095336e+00 7.152562e-01 7.808698e-01 -9.205931e-01 -7.431351e-01 -1.148344e+00 -7.768044e-01 -1.011257e+00 -3.526005e-01 -7.579009e-01 -8.813819e-02 -4.554598e-01 -4.782900e+00 -5.863749e-01 -4.113953e-01 -3.713345e-01 3.457584e-01 2.761042e-01 3.421841e-01 3.640389e-01 1.116054e-01 4.102828e-02 6.053546e-02 -2.661200e-02 1.118412e-01 2.888120e-01
<VARIANCE> 39
 1.399024e+01 1.670250e+01 3.010144e+01 4.878327e+01 4.914417e+01 4.223896e+01 3.881625e+01 4.015642e+01 4.585191e+01 4.042068e+01 3.596815e+01 2.320957e+01 7.383198e+01 8.637445e-01 8.116614e-01 7.860259e-01 1.041009e+00 1.173996e+00 1.316304e+00 1.292406e+00 9.851239e-01 1.045212e+00 1.050811e+00 9.636527e-01 7.620160e-01 2.875076e+00 1.223619e-01 1.357927e-01 2.102453e-01 3.123991e-01 3.592919e-01 2.905796e-01 2.898089e-01 3.288608e-01 3.579727e-01 3.530160e-01 2.801001e-01 1.860079e-01 6.430193e-01
<GCONST> 1.020334e+02
<MIXTURE> 16 8.737008e-02
<MEAN> 39
 2.338455e+00 1.816125e+00 9.598425e-02 -1.803995e+00 -2.321607e+00 -2.656739e+00 -9.717911e-01 7.636836e-02 4.881886e-01 4.094786e-01 4.704043e-01 5.765390e-01 -1.878924e+01 -1.013439e+00 -1.019231e+00 -7.158941e-01 6.282998e-01 2.027403e-01 6.468986e-01 7.500339e-01 1.702916e-01 -3.676726e-02 2.180214e-01 -1.889484e-01 1.566366e-01 1.044971e+00 -1.798517e-01 -1.263515e-01 1.443112e-01 4.383940e-02 1.474772e-02 2.273453e-01 9.734498e-02 3.117162e-02 -1.309725e-02 2.854206e-02 -4.361805e-02 -8.824639e-02 1.840605e+00
<VARIANCE> 39
 4.247556e+00 4.211035e+00 6.898365e+00 7.862188e+00 1.278001e+01 1.388632e+01 1.378683e+01 1.380158e+01 1.582143e+01 1.852654e+01 1.339883e+01 1.201694e+01 1.530612e+01 7.599023e-01 8.824230e-01 1.220045e+00 1.262854e+00 1.429734e+00 1.626955e+00 1.401529e+00 1.143746e+00 1.422289e+00 1.550225e+00 1.091629e+00 7.737055e-01 8.013078e+00 1.163319e-01 9.482800e-02 1.469457e-01 2.051454e-01 2.191129e-01 2.200031e-01 1.907375e-01 1.896438e-01 1.830373e-01 1.991291e-01 1.379612e-01 1.271484e-01 5.376857e-01
<GCONST> 8.418773e+01
<STATE> 3
<NUMMIXES> 16
<MIXTURE> 1 2.407396e-02
<MEAN> 39
 -4.001167e+00 2.759272e-01 2.498782e-02 2.031290e+00 7.623978e-01 2.411609e+00 1.589698e-01 1.084463e+00 2.114911e-01 6.579823e-01 1.040011e+00 7.071257e-01 5.827635e+00 5.670038e-02 7.423396e-02 -5.395508e-02 1.573559e-01 2.155085e-01 1.161292e-01 1.352427e-01 1.572843e-01 1.623010e-01 1.074444e-01 1.430229e-02 1.295096e-02 -2.740058e-03 8.710989e-02 2.848919e-02 1.059710e-02 -5.232442e-02 -2.219203e-02 -2.785593e-02 6.353863e-02 -2.241076e-02 6.467137e-02 5.604919e-03 -4.044321e-02 -8.621530e-02 -5.637330e-02
<VARIANCE> 39
 4.405451e+00 4.173639e+00 5.232311e+00 1.246002e+01 9.057793e+00 1.166263e+01 2.203021e+01 2.488820e+01 1.682102e+01 1.671133e+01 1.499321e+01 1.519111e+01 1.335406e+01 1.843848e-01 1.482879e-01 3.372644e-01 3.244177e-01 4.680155e-01 7.029449e-01 7.353910e-01 8.124095e-01 7.414749e-01 6.321400e-01 5.614008e-01 6.283235e-01 1.166304e-01 3.135964e-02 2.176936e-02 5.245365e-02 6.584907e-02 7.507910e-02 1.235069e-01 2.164299e-01 1.927209e-01 1.805317e-01 1.271356e-01 1.028177e-01 1.686813e-01 4.016789e-02
<GCONST> 6.014565e+01
<MIXTURE> 2 3.710614e-02
<MEAN> 39
 -5.090773e+00 -1.244363e-01 -5.658938e-01 8.100566e-01 -2.779575e+00 1.980622e+00 2.121961e+00 -7.537723e-01 6.240140e-01 2.787365e+00 1.050844e+00 -1.550136e+00 4.894140e+00 -1.711442e-01 2.798961e-01 -4.508009e-01 1.541895e-01 2.605330e-01 1.883422e-01 -4.120097e-02 6.243130e-02 -1.162625e-01 -1.343669e-01 -7.551199e-03 3.378446e-02 6.140195e-01 3.624952e-01 9.072568e-02 1.293971e-01 -4.195983e-02 8.755991e-02 -1.398282e-01 -7.853740e-02 1.014059e-01 -8.758588e-03 -1.488384e-01 -3.397236e-02 6.986198e-02 -4.686107e-01
<VARIANCE> 39
 1.232789e+01 8.263318e+00 1.165140e+01 1.553581e+01 1.745886e+01 1.819707e+01 1.630019e+01 2.255058e+01 2.524960e+01 2.030636e+01 1.826226e+01 2.115753e+01 2.016987e+01 1.299488e+00 6.145973e-01 8.998764e-01 8.467849e-01 9.842888e-01 1.105641e+00 1.031859e+00 1.714231e+00 1.217277e+00 1.070769e+00 7.547441e-01 8.799156e-01 3.663072e+00 9.605068e-02 1.109406e-01 1.208327e-01 1.217898e-01 1.855099e-01 1.662979e-01 1.768537e-01 2.129162e-01 2.540461e-01 2.079264e-01 1.402843e-01 1.608718e-01 4.098192e-01
<GCONST> 8.653812e+01
<MIXTURE> 3 1.394950e-01
<MEAN> 39
 1.189703e-01 4.383397e-01 3.749621e-01 1.264899e-02 -1.114009e-01 -1.828558e-01 -7.796767e-02 -4.083704e-01 -3.114680e-01 -3.176376e-01 -4.889260e-01 -2.496247e-01 8.475405e-02 1.291122e-01 1.617095e-01 3.737355e-02 -2.101725e-01 -4.971074e-01 -6.689681e-01 -6.237181e-01 -3.826349e-01 -1.958022e-01 5.984021e-02 1.758916e-01 7.983454e-02 3.399376e-02 -2.225113e-02 -4.916041e-02 -1.731745e-02 4.439578e-02 1.138783e-01 1.564864e-01 1.323164e-01 1.376326e-01 1.230963e-01 1.064570e-01 1.094651e-01 6.012535e-02 -6.094301e-03
<VARIANCE> 39
 1.139194e+00 2.389185e+00 4.200602e+00 5.515760e+00 7.471912e+00 9.239090e+00 1.111205e+01 1.272688e+01 1.446967e+01 1.405586e+01 1.316937e+01 1.195895e+01 3.516366e-01 3.996656e-02 9.628471e-02 1.790003e-01 2.810034e-01 3.742937e-01 3.786177e-01 4.555420e-01 5.766679e-01 6.784956e-01 6.068453e-01 6.314662e-01 5.954443e-01 7.897999e-03 9.029153e-03 2.009689e-02 3.665245e-02 4.651297e-02 5.635417e-02 6.180004e-02 7.889626e-02 1.025143e-01 1.104630e-01 1.222805e-01 1.144285e-01 1.091755e-01 1.827961e-03
<GCONST> 3.533191e+01
<MIXTURE> 4 4.966345e-02
<MEAN> 39
 -4.705595e+00 -2.268622e+00 1.056598e+00 -7.351748e+00 -7.871224e-01 2.156707e+00 -1.854382e+00 -2.511903e+00 6.434486e+00 -2.760361e+00 -2.180453e+00 9.440157e-01 6.618134e-01 -1.729788e-01 -6.317346e-02 -6.426761e-01 -1.225803e-01 6.657305e-01 -6.133006e-01 -3.208482e-01 1.646996e-01 2.814991e-01 -7.378896e-01 1.208315e-01 -6.861942e-03 -8.285840e-01 2.908543e-01 9.643622e-02 -1.244261e-02 5.541187e-01 -7.241949e-02 -1.835472e-01 2.491390e-01 2.436017e-01 -3.885269e-01 3.005650e-01 2.516362e-01 -4.188931e-02 -9.163745e-02
<VARIANCE> 39
 5.055113e+00 7.069834e+00 7.639972e+00 1.561838e+01 1.641182e+01 2.115936e+01 1.784536e+01 1.820942e+01 2.164069e+01 2.260559e+01 1.639307e+01 1.486559e+01 1.469724e+01 4.351591e-01 5.962130e-01 6.428544e-01 1.299914e+00 9.239771e-01 1.144059e+00 9.287880e-01 1.132372e+00 1.155523e+00 9.237815e-01 9.117426e-01 7.287345e-01 8.078957e-01 7.187051e-02 8.853035e-02 9.392814e-02 1.737469e-01 1.604310e-01 1.948444e-01 1.553745e-01 1.941542e-01 2.109306e-01 1.855940e-01 1.384606e-01 1.372762e-01 2.573181e-01
<GCONST> 7.936578e+01
<MIXTURE> 5 5.208443e-02
<MEAN> 39
 5.983456e-01 5.898251e-01 -7.583921e-02 -3.408926e-01 -1.151023e+00 -1.579077e+00 -8.403195e-01 -4.494991e-01 -6.697249e-01 -4.196277e-01 -9.244344e-01 -1.221525e+00 -2.686800e-02 2.045052e-01 9.525189e-03 -1.662273e-01 -4.592229e-01 -4.716201e-01 -5.582713e-01 -5.076225e-01 -4.386445e-01 -3.425146e-01 -2.271097e-01 -5.555213e-02 -4.786889e-02 -5.560455e-02 -7.377558e-02 -5.173527e-02 2.574567e-03 8.600146e-02 1.682989e-01 2.558745e-01 1.452251e-01 1.174316e-01 1.295745e-01 9.144327e-02 1.241702e-01 1.588272e-01 1.470861e-02
<VARIANCE> 39
 2.340873e+00 3.062168e+00 5.312424e+00 8.566760e+00 8.540839e+00 1.160151e+01 1.229699e+01 1.424826e+01 1.637092e+01 1.592384e+01 1.447345e+01 1.293281e+01 4.236210e-01 1.198156e-01 1.273337e-01 2.154974e-01 3.842390e-01 4.333399e-01 4.263409e-01 5.140116e-01 6.091236e-01 6.591641e-01 5.705799e-01 7.125589e-01 6.354680e-01 3.797347e-02 2.347344e-02 2.605884e-02 4.469602e-02 6.903190e-02 6.609888e-02 7.775079e-02 9.422033e-02 1.060141e-01 1.151322e-01 1.317077e-01 1.151752e-01 9.893455e-02 4.820958e-03
<GCONST> 4.554247e+01
<MIXTURE> 6 6.591997e-02
<MEAN> 39
 -6.432480e+00 -1.439262e+00 -2.777640e-01 -3.686284e+00 -6.477437e+00 1.336900e+00 3.540185e+00 -2.460791e+00 1.481412e+00 3.428452e+00 1.331068e+00 -4.039315e+00 8.801386e-01 -2.322285e-01 3.791275e-01 -3.415013e-01 -1.922075e-01 2.273533e-01 1.884274e-01 -1.445641e-01 -2.168272e-01 1.670307e-02 8.469549e-02 -1.871427e-01 -3.822372e-01 -3.187480e-01 4.497846e-01 7.142112e-02 1.936828e-02 2.854275e-01 3.577014e-01 -1.385508e-01 -2.312436e-01 1.370665e-01 -9.573977e-02 -1.942387e-01 -9.364459e-02 2.299672e-01 -1.334196e-01
<VARIANCE> 39
 7.583540e+00 1.095121e+01 1.398543e+01 1.507226e+01 1.668087e+01 1.748889e+01 2.314945e+01 2.177251e+01 2.047701e+01 2.195307e+01 2.331494e+01 2.180782e+01 2.250343e+01 1.667904e+00 6.887259e-01 1.319864e+00 1.103455e+00 1.173179e+00 1.124154e+00 1.137162e+00 9.833528e-01 1.307796e+00 1.120904e+00 8.832326e-01 8.624028e-01 9.093452e-01 9.059590e-02 1.131406e-01 1.337075e-01 1.206224e-01 1.688558e-01 1.828875e-01 2.004478e-01 2.021840e-01 1.633577e-01 1.813836e-01 1.683292e-01 1.828921e-01 1.955363e-01
<GCONST> 8.569486e+01
<MIXTURE> 7 8.115418e-02
<MEAN> 39
 -6.014275e+00 -7.622938e-01 -3.179782e+00 -2.018220e+00 -2.533280e+00 3.023664e-01 1.097805e+00 -9.113466e-01 2.576439e+00 7.986742e-01 -3.029504e-01 -2.366058e+00 1.290591e+00 1.463682e-01 1.315802e-01 -1.958399e-01 1.434654e-01 1.964592e-01 -2.052628e-01 5.102595e-02 2.332620e-01 -4.115753e-02 8.208496e-03 9.678892e-02 4.238961e-02 -1.513125e-01 1.356273e-01 4.361226e-03 1.992092e-01 9.756653e-03 -4.509894e-02 4.102458e-02 5.630331e-02 -3.667458e-02 -9.483989e-02 4.400579e-02 3.605444e-02 3.743442e-04 8.295742e-02
<VARIANCE> 39
 4.923471e+00 1.170666e+01 1.039172e+01 1.557884e+01 1.873372e+01 1.558714e+01 1.988471e+01 1.831543e+01 2.374372e+01 2.580328e+01 2.155452e+01 1.646793e+01 2.413558e+01 1.278980e-01 2.195533e-01 3.732277e-01 4.514827e-01 5.525464e-01 5.631490e-01 8.320354e-01 8.794221e-01 7.634069e-01 7.787017e-01 7.514173e-01 7.120680e-01 1.448749e-01 4.125680e-02 4.794176e-02 6.238548e-02 8.296521e-02 1.263457e-01 1.089815e-01 1.386220e-01 1.658017e-01 1.449408e-01 1.393907e-01 1.490744e-01 1.214530e-01 3.405948e-02
<GCONST> 6.711484e+01
<MIXTURE> 8 3.659763e-02
<MEAN> 39
 -3.733678e+00 -1.962831e+00 4.263422e+00 -5.763664e+00 -3.797434e+00 4.072797e+00 2.032862e+00 -3.408330e+00 3.202467e+00 6.066365e-01 -2.062658e+00 -1.533581e+00 3.551018e+00 -6.467960e-01 -3.213378e-01 -1.691207e-01 -1.431499e+00 4.314792e-01 -1.474824e-01 -4.876565e-01 -5.730124e-01 8.002023e-01 -1.009503e+00 -2.690547e-01 -2.204862e-01 -5.878161e-01 2.389981e-01 1.899068e-01 -3.168321e-01 3.243355e-01 2.757191e-01 -4.012807e-01 -2.253564e-01 2.833540e-01 -1.171571e-01 -9.006622e-02 2.048771e-01 1.570877e-01 -9.628859e-01
<VARIANCE> 39
 6.066117e+00 9.093113e+00 9.221987e+00 1.849680e+01 1.698151e+01 1.966533e+01 1.755751e+01 1.787687e+01 2.042866e+01 1.709917e+01 1.426213e+01 1.544782e+01 1.570559e+01 4.352359e-01 5.246651e-01 6.410164e-01 1.039162e+00 1.064862e+00 1.413357e+00 9.755865e-01 1.071002e+00 1.155970e+00 1.150283e+00 8.436853e-01 9.024011e-01 1.489609e+00 4.277497e-02 8.870356e-02 9.515098e-02 1.605949e-01 1.739493e-01 2.219070e-01 1.194832e-01 1.956057e-01 1.663130e-01 1.698062e-01 1.239981e-01 1.333409e-01 3.675498e-01
<GCONST> 7.993564e+01
<MIXTURE> 9 1.824705e-01
<MEAN> 39
 1.003385e-01 2.432689e-01 5.565494e-02 -3.444211e-01 -1.032890e+00 -1.353883e+00 -1.085873e+00 -7.421749e-01 -6.377373e-01 -6.614431e-01 -5.430394e-01 -3.699138e-01 8.128469e-02 4.680920e-02 2.626700e-02 -1.370295e-01 -3.829198e-01 -6.089303e-01 -7.595838e-01 -7.135809e-01 -4.922426e-01 -4.097346e-01 -2.460760e-01 -1.286725e-01 -9.314718e-02 3.214706e-03 -3.908917e-02 -5.093284e-02 -2.588978e-02 4.230300e-02 1.360002e-01 1.833469e-01 1.516544e-01 9.807703e-02 9.196062e-02 5.978846e-02 4.364296e-02 3.642429e-02 -1.479779e-02
<VARIANCE> 39
 1.055629e+00 2.517340e+00 4.412672e+00 6.100529e+00 8.332354e+00 1.028930e+01 1.076198e+01 1.298419e+01 1.382296e+01 1.487374e+01 1.384756e+01 1.257747e+01 3.516366e-01 4.012977e-02 1.008720e-01 1.994376e-01 2.574158e-01 3.491116e-01 3.845227e-01 4.879451e-01 5.759911e-01 6.367635e-01 5.543301e-01 5.842742e-01 5.994546e-01 7.610929e-03 8.346356e-03 2.091729e-02 3.645839e-02 4.731037e-02 6.011116e-02 6.580612e-02 7.630548e-02 1.029213e-01 1.160966e-01 1.230586e-01 1.214341e-01 1.062107e-01 1.597549e-03
<GCONST> 3.562083e+01
<MIXTURE> 10 3.452162e-02
<MEAN> 39
