~o
<STREAMINFO> 1 39
<VECSIZE> 39<NULLD><MFCC_D_A_Z_0><DIAGC>
~v "varFloor1"
<VARIANCE> 39
 5.653673e-02 4.886588e-02 6.880558e-02 1.097444e-01 1.173968e-01 1.501360e-01 1.524483e-01 1.769248e-01 1.673871e-01 1.699316e-01 1.501835e-01 1.395998e-01 3.516366e-01 1.948883e-03 2.195148e-03 3.084339e-03 4.548327e-03 5.169705e-03 6.475277e-03 6.752422e-03 7.581503e-03 7.468139e-03 7.484302e-03 6.703977e-03 6.097627e-03 6.117719e-03 3.081363e-04 3.835776e-04 5.522510e-04 7.938185e-04 9.348416e-04 1.158605e-03 1.234846e-03 1.362727e-03 1.366371e-03 1.361924e-03 1.233620e-03 1.112660e-03 7.270522e-04
~h "f"
<BEGINHMM>
<NUMSTATES> 5
<STATE> 2
<MEAN> 39
 -2.135408e-01 -9.910949e-02 -3.363186e-02 -8.902296e-02 -8.218443e-02 -1.569240e-01 4.956530e-02 4.039487e-02 1.206351e-02 -2.633760e-02 3.834043e-02 1.017668e-02 -2.436935e-02 -1.214353e-02 -3.040028e-03 2.759858e-03 1.212122e-02 9.649739e-03 6.497812e-03 5.005429e-03 5.911551e-03 -3.320026e-04 4.615865e-03 1.671314e-03 4.293710e-03 6.669628e-02 5.558536e-05 -2.836210e-04 -1.132954e-04 3.784019e-04 1.421399e-04 9.827481e-04 -3.282420e-04 1.807039e-04 4.260400e-04 3.755666e-04 5.591097e-05 1.656711e-04 3.179819e-03
<VARIANCE> 39
 4.220370e+00 4.505098e+00 6.335588e+00 1.061711e+01 1.110003e+01 1.511364e+01 1.468869e+01 1.692026e+01 1.628494e+01 1.657652e+01 1.472876e+01 1.365291e+01 3.292121e+01 1.896518e-01 2.085816e-01 2.934765e-01 4.515769e-01 4.900961e-01 6.450540e-01 6.428763e-01 7.306153e-01 7.251685e-01 7.187200e-01 6.518198e-01 5.921534e-01 6.039898e-01 3.263979e-02 3.731934e-02 5.405952e-02 7.964665e-02 9.189104e-02 1.159717e-01 1.213963e-01 1.347890e-01 1.368137e-01 1.333732e-01 1.231474e-01 1.107742e-01 6.871875e-02
<GCONST> 6.281050e+01
<STATE> 3
<MEAN> 39
 -2.651013e-01 -1.110832e-01 -2.712679e-02 -3.378752e-02 -4.427678e-02 -1.158655e-01 6.738587e-02 6.989795e-02 1.631905e-02 -1.201672e-03 4.604785e-02 3.119150e-02 2.716715e-01 -1.133703e-02 -3.242869e-03 2.266743e-03 1.432303e-02 9.746708e-03 1.120570e-02 4.504224e-03 7.133240e-03 1.176132e-03 6.201062e-03 1.554868e-03 5.058128e-03 7.420710e-02 4.137914e-04 -1.054959e-04 3.148141e-05 4.790713e-04 -9.242686e-05 1.122461e-03 -1.439904e-04 2.800213e-05 3.242424e-04 2.720398e-04 -4.890463e-05 6.217570e-05 1.194461e-03
<VARIANCE> 39
 4.253255e+00 4.530155e+00 6.347332e+00 1.059573e+01 1.107198e+01 1.516728e+01 1.467355e+01 1.697517e+01 1.629822e+01 1.664480e+01 1.473472e+01 1.367566e+01 3.048886e+01 1.927298e-01 2.100362e-01 2.950946e-01 4.533371e-01 4.913018e-01 6.483375e-01 6.449972e-01 7.323779e-01 7.251182e-01 7.232326e-01 6.531032e-01 5.931094e-01 6.221305e-01 3.299221e-02 3.750138e-02 5.431816e-02 7.988831e-02 9.202905e-02 1.164000e-01 1.218112e-01 1.348969e-01 1.367685e-01 1.341663e-01 1.233825e-01 1.109012e-01 6.895371e-02
<GCONST> 6.288702e+01
<STATE> 4
<MEAN> 39
 -3.486880e-01 -1.124333e-01 -2.642360e-02 7.642297e-02 1.832209e-02 -4.787093e-03 9.312870e-02 1.352060e-01 3.629101e-02 5.700481e-02 5.609441e-02 7.744024e-02 7.822227e-01 -6.940455e-03 -1.241985e-03 1.925762e-03 1.626142e-02 9.416835e-03 1.762634e-02 3.878169e-03 7.193796e-03 2.132852e-03 7.563603e-03 7.548376e-04 5.585777e-03 6.744856e-02 1.218492e-03 1.494196e-04 2.321280e-04 -5.869183e-05 -2.460410e-04 5.163775e-04 -1.754131e-04 -6.121569e-04 -3.518646e-05 -1.562804e-04 -2.220028e-04 -2.819308e-04 -2.883136e-03
<VARIANCE> 39
 4.251564e+00 4.493707e+00 6.341240e+00 1.045563e+01 1.100091e+01 1.508316e+01 1.465635e+01 1.704453e+01 1.627157e+01 1.668743e+01 1.472690e+01 1.373339e+01 2.776113e+01 1.894373e-01 2.067713e-01 2.941877e-01 4.477315e-01 4.873355e-01 6.433561e-01 6.453936e-01 7.301642e-01 7.223671e-01 7.266973e-01 6.532594e-01 5.935663e-01 6.018971e-01 3.227322e-02 3.698557e-02 5.415954e-02 7.899143e-02 9.122577e-02 1.155495e-01 1.220132e-01 1.343647e-01 1.360954e-01 1.349134e-01 1.234264e-01 1.111158e-01 6.532344e-02
<GCONST> 6.254869e+01
<TRANSP> 5
 0.000000e+00 1.000000e+00 0.000000e+00 0.000000e+00 0.000000e+00
 0.000000e+00 7.319763e-01 2.680237e-01 0.000000e+00 0.000000e+00
 0.000000e+00 0.000000e+00 7.319738e-01 2.680261e-01 0.000000e+00
 0.000000e+00 0.000000e+00 0.000000e+00 8.569914e-01 1.430086e-01
 0.000000e+00 0.000000e+00 0.000000e+00 0.000000e+00 0.000000e+00
<ENDHMM>
~h "k"
<BEGINHMM>
<NUMSTATES> 5
<STATE> 2
<MEAN> 39
 -3.337785e-01 -3.829724e-02 -3.485818e-02 -2.060791e-01 -2.395701e-01 1.909973e-02 1.888742e-02 -2.535625e-02 2.056824e-01 3.412708e-02 1.649093e-02 -6.182569e-02 3.116308e-01 9.246560e-03 -2.629948e-03 4.856952e-03 -1.084379e-03 -1.581511e-04 1.928932e-03 5.581237e-04 -9.884244e-03 -5.441769e-03 -4.810842e-04 -1.955198e-03 -4.053265e-03 -1.097756e-02 1.496352e-03 6.465476e-05 2.156557e-05 2.551457e-04 7.845904e-04 -2.966154e-04 -1.062073e-04 -1.002714e-05 -8.154073e-04 -3.284243e-04 1.199396e-05 1.654187e-04 -2.223615e-03
<VARIANCE> 39
 6.239137e+00 5.765352e+00 7.828368e+00 1.276795e+01 1.301228e+01 1.561551e+01 1.600689e+01 1.783471e+01 1.778934e+01 1.808651e+01 1.567077e+01 1.446139e+01 2.458662e+01 3.122230e-01 2.835627e-01 3.673052e-01 5.608416e-01 5.805771e-01 7.222056e-01 7.228265e-01 7.747449e-01 7.939436e-01 8.130072e-01 6.893461e-01 6.226296e-01 1.146796e+00 4.850191e-02 5.065218e-02 6.668460e-02 9.843118e-02 1.062918e-01 1.318042e-01 1.354902e-01 1.429105e-01 1.469271e-01 1.507725e-01 1.283999e-01 1.151750e-01 1.729782e-01
<GCONST> 6.960658e+01
<STATE> 3
<MEAN> 39
 -2.957768e-01 -5.100273e-02 -2.142608e-02 -2.180830e-01 -2.406545e-01 2.193632e-02 2.058042e-02 -6.548352e-02 1.829778e-01 2.787492e-02 7.787552e-03 -8.197230e-02 2.498676e-01 1.402876e-02 -2.388070e-03 4.423511e-03 -7.905695e-05 2.774876e-03 7.377784e-04 6.512977e-05 -9.826527e-03 -8.223098e-03 -1.875416e-03 -2.037569e-03 -3.639466e-03 -1.770052e-02 1.171211e-03 2.870841e-04 -5.368670e-05 3.970962e-04 6.985757e-04 -3.247389e-04 -1.063217e-04 3.738207e-04 -5.239631e-04 -2.835440e-04 6.850165e-05 3.162577e-04 -1.841584e-03
<VARIANCE> 39
 6.367538e+00 5.784521e+00 7.783946e+00 1.269596e+01 1.304212e+01 1.566355e+01 1.609375e+01 1.801909e+01 1.785135e+01 1.811762e+01 1.572602e+01 1.452179e+01 2.416179e+01 3.143367e-01 2.830504e-01 3.649445e-01 5.591479e-01 5.833592e-01 7.262299e-01 7.238438e-01 7.779498e-01 7.957326e-01 8.141671e-01 6.913202e-01 6.228760e-01 1.115588e+00 4.860742e-02 5.051758e-02 6.612100e-02 9.827314e-02 1.066780e-01 1.326298e-01 1.356007e-01 1.433331e-01 1.470861e-01 1.508546e-01 1.286619e-01 1.151543e-01 1.698048e-01
<GCONST> 6.961409e+01
<STATE> 4
<MEAN> 39
 -2.473477e-01 -6.821363e-02 -7.773005e-03 -2.153954e-01 -2.203676e-01 3.404037e-02 3.052247e-02 -1.049776e-01 1.462151e-01 2.311237e-02 -3.088620e-03 -1.005120e-01 1.996577e-01 1.866669e-02 -1.723270e-03 3.167006e-03 1.063538e-03 6.025976e-03 -6.396948e-04 -6.803386e-04 -9.005763e-03 -1.087483e-02 -3.579343e-03 -2.124788e-03 -3.552865e-03 -2.526442e-02 8.075913e-04 5.916457e-04 5.990765e-06 7.284365e-04 6.342097e-04 -2.092530e-04 -1.351037e-04 8.284951e-04 -2.033989e-04 -9.553522e-05 1.531704e-04 5.351580e-04 -1.101378e-03
<VARIANCE> 39
 6.518988e+00 5.754706e+00 7.640369e+00 1.253438e+01 1.303663e+01 1.570106e+01 1.613268e+01 1.819330e+01 1.789299e+01 1.815214e+01 1.575938e+01 1.456310e+01 2.428112e+01 3.071873e-01 2.783582e-01 3.571433e-01 5.506048e-01 5.842685e-01 7.267137e-01 7.207191e-01 7.769051e-01 7.948449e-01 8.132282e-01 6.897162e-01 6.216192e-01 1.057454e+00 4.692208e-02 4.947195e-02 6.458831e-02 9.702201e-02 1.067056e-01 1.328716e-01 1.349421e-01 1.427305e-01 1.467457e-01 1.504541e-01 1.281744e-01 1.149164e-01 1.607422e-01
<GCONST> 6.932372e+01
<TRANSP> 5
 0.000000e+00 1.000000e+00 0.000000e+00 0.000000e+00 0.000000e+00
 0.000000e+00 7.246787e-01 2.753213e-01 0.000000e+00 0.000000e+00
 0.000000e+00 0.000000e+00 7.246803e-01 2.753197e-01 0.000000e+00
 0.000000e+00 0.000000e+00 0.000000e+00 8.484079e-01 1.515922e-01
 0.000000e+00 0.000000e+00 0.000000e+00 0.000000e+00 0.000000e+00
<ENDHMM>
~h "n"
<BEGINHMM>
<NUMSTATES> 5
<STATE> 2
<MEAN> 39
 -8.806268e-02 4.582201e-02 9.620816e-02 2.373451e-01 1.827080e-01 2.068560e-01 4.165537e-02 9.863321e-02 -3.327670e-02 1.049866e-01 -1.682810e-02 1.067195e-01 9.600064e-01 1.523845e-02 5.136053e-03 8.627978e-03 -7.442523e-03 -5.589263e-04 -8.448998e-03 -5.126239e-03 -1.136287e-02 -1.675798e-03 -3.292185e-03 -2.056050e-03 -6.560084e-03 -3.014633e-02 -1.001652e-03 -4.055114e-04 -1.335203e-03 8.709724e-05 -6.576002e-04 7.361436e-05 1.789782e-04 1.090770e-03 3.788776e-04 1.011922e-04 4.506678e-04 3.079047e-04 -3.961668e-04
<VARIANCE> 39
 5.509633e+00 4.500264e+00 7.629941e+00 1.030128e+01 1.145916e+01 1.465066e+01 1.532269e+01 1.800008e+01 1.678485e+01 1.684098e+01 1.510534e+01 1.402065e+01 2.744228e+01 1.903257e-01 2.092023e-01 3.319175e-01 4.303561e-01 5.106378e-01 6.328843e-01 6.771556e-01 7.631608e-01 7.461768e-01 7.415023e-01 6.707152e-01 6.107583e-01 5.454321e-01 3.017198e-02 3.755943e-02 5.907217e-02 7.679424e-02 9.447813e-02 1.161927e-01 1.260190e-01 1.387204e-01 1.396348e-01 1.379532e-01 1.266348e-01 1.139093e-01 6.096615e-02
<GCONST> 6.353482e+01
<STATE> 3
<MEAN> 39
 -3.721037e-02 6.065087e-02 1.237311e-01 2.107514e-01 1.793036e-01 1.792268e-01 2.276333e-02 6.100612e-02 -3.765543e-02 9.381675e-02 -2.230592e-02 8.357704e-02 8.569710e-01 1.121294e-02 3.409104e-03 3.463279e-03 -6.995490e-03 -3.158025e-03 -7.935822e-03 -4.187830e-03 -7.302705e-03 -5.273198e-04 -3.077741e-03 -4.782204e-04 -5.540847e-03 -3.278477e-02 -1.213255e-03 -4.623767e-04 -1.377269e-03 4.113166e-04 -4.830719e-04 3.995884e-04 4.901013e-04 1.375192e-03 3.028889e-04 1.778169e-04 4.774341e-04 5.215685e-04 2.393986e-04
<VARIANCE> 39
 5.736963e+00 4.594714e+00 7.735351e+00 1.034855e+01 1.150912e+01 1.471146e+01 1.540573e+01 1.816242e+01 1.683942e+01 1.690094e+01 1.514298e+01 1.404150e+01 2.723408e+01 1.904297e-01 2.110260e-01 3.317459e-01 4.329795e-01 5.127529e-01 6.344767e-01 6.776939e-01 7.629961e-01 7.474570e-01 7.438174e-01 6.709422e-01 6.096117e-01 5.554820e-01 3.023328e-02 3.783223e-02 5.904743e-02 7.706644e-02 9.468883e-02 1.163358e-01 1.260639e-01 1.386753e-01 1.398324e-01 1.383393e-01 1.265925e-01 1.136662e-01 6.192670e-02
<GCONST> 6.371717e+01
<STATE> 4
<MEAN> 39
 -1.359545e-02 6.471625e-02 1.292574e-01 1.951441e-01 1.692767e-01 1.631142e-01 7.280139e-03 3.999930e-02 -3.668563e-02 8.880300e-02 -2.109831e-02 6.777622e-02 7.884666e-01 7.873433e-03 1.754989e-03 -1.484192e-03 -6.410573e-03 -5.536978e-03 -7.499210e-03 -2.649802e-03 -3.724273e-03 -1.590024e-04 -3.199743e-03 9.643732e-04 -4.301053e-03 -3.815737e-02 -7.641466e-04 -2.223375e-04 -9.173250e-04 3.239388e-04 -2.609075e-04 2.003041e-04 4.678254e-04 9.358136e-04 1.417759e-04 1.139316e-04 3.245073e-04 4.965453e-04 -1.942289e-04
<VARIANCE> 39
 5.865883e+00 4.637148e+00 7.639128e+00 1.036018e+01 1.150936e+01 1.474592e+01 1.545695e+01 1.822434e+01 1.684491e+01 1.695213e+01 1.514804e+01 1.404455e+01 2.741311e+01 1.854481e-01 2.084567e-01 3.238840e-01 4.318209e-01 5.109846e-01 6.333885e-01 6.770411e-01 7.585858e-01 7.451426e-01 7.444198e-01 6.698850e-01 6.062211e-01 5.387604e-01 2.943129e-02 3.729318e-02 5.781922e-02 7.693247e-02 9.432751e-02 1.161084e-01 1.258368e-01 1.380875e-01 1.394539e-01 1.385001e-01 1.263565e-01 1.130182e-01 6.093631e-02
<GCONST> 6.353826e+01
<TRANSP> 5
 0.000000e+00 1.000000e+00 0.000000e+00 0.000000e+00 0.000000e+00
 0.000000e+00 7.217873e-01 2.782127e-01 0.000000e+00 0.000000e+00
 0.000000e+00 0.000000e+00 7.217956e-01 2.782044e-01 0.000000e+00
 0.000000e+00 0.000000e+00 0.000000e+00 8.451310e-01 1.548689e-01
 0.000000e+00 0.000000e+00 0.000000e+00 0.000000e+00 0.000000e+00
<ENDHMM>
~h "r"
<BEGINHMM>
<NUMSTATES> 5
<STATE> 2
<MEAN> 39
 -2.764811e-01 -5.504806e-02 -3.535291e-03 2.919925e-01 1.103554e-01 2.470528e-01 9.784073e-02 1.721878e-01 1.776803e-02 1.339298e-01 3.571954e-02 1.230123e-01 1.206043e+00 9.245665e-03 1.382810e-03 4.325637e-03 3.859855e-03 6.141780e-03 1.720459e-03 -2.249712e-03 -5.065423e-03 -3.694710e-03 -1.118157e-03 -9.992591e-04 -2.295614e-03 -3.946243e-03 1.002354e-03 6.535721e-04 -2.673888e-04 -1.308161e-03 -2.535153e-04 -1.490864e-03 -4.274065e-04 -6.086020e-04 -5.146410e-05 -5.512287e-04 -1.121695e-04 -5.077621e-04 -5.474676e-03
<VARIANCE> 39
 4.961551e+00 4.855376e+00 6.676606e+00 1.026988e+01 1.135811e+01 1.467232e+01 1.489272e+01 1.736314e+01 1.656328e+01 1.683858e+01 1.492855e+01 1.384099e+01 2.625920e+01 1.822022e-01 2.232328e-01 3.079762e-01 4.378763e-01 5.080734e-01 6.367798e-01 6.571422e-01 7.478061e-01 7.324335e-01 7.333573e-01 6.615013e-01 6.015590e-01 5.682340e-01 2.864318e-02 3.896972e-02 5.619891e-02 7.819560e-02 9.386364e-02 1.153678e-01 1.229923e-01 1.371818e-01 1.371008e-01 1.358044e-01 1.246657e-01 1.125777e-01 6.175702e-02
<GCONST> 6.296767e+01
<STATE> 3
<MEAN> 39
 -2.325022e-01 -4.981179e-02 1.287644e-02 2.989401e-01 1.306376e-01 2.445095e-01 8.747112e-02 1.470436e-01 2.591021e-03 1.255739e-01 3.090725e-02 1.106872e-01 1.155124e+00 1.312157e-02 3.929054e-03 3.348040e-03 -1.148307e-03 5.501494e-03 -4.200667e-03 -3.897685e-03 -7.363416e-03 -3.706943e-03 -3.164575e-03 -1.438140e-03 -4.339315e-03 -2.450721e-02 6.361132e-04 5.937384e-04 -3.329662e-04 -1.168386e-03 -3.836076e-04 -1.335066e-03 -2.764152e-04 -3.044640e-04 2.236392e-04 -3.805526e-04 -7.356938e-05 -4.056091e-04 -4.768514e-03
<VARIANCE> 39
 5.224384e+00 4.964586e+00 6.765268e+00 1.025993e+01 1.150633e+01 1.472266e+01 1.498088e+01 1.750714e+01 1.668889e+01 1.689694e+01 1.496143e+01 1.387973e+01 2.635209e+01 1.829531e-01 2.271578e-01 3.094653e-01 4.378287e-01 5.142462e-01 6.402406e-01 6.601303e-01 7.514375e-01 7.354274e-01 7.334854e-01 6.620415e-01 6.027376e-01 5.562778e-01 2.861390e-02 3.937477e-02 5.631699e-02 7.792994e-02 9.459044e-02 1.157924e-01 1.233133e-01 1.376079e-01 1.374964e-01 1.357506e-01 1.246646e-01 1.127198e-01 6.033694e-02
<GCONST> 6.314834e+01
<STATE> 4
<MEAN> 39
 -1.748753e-01 -3.710592e-02 2.840649e-02 2.948903e-01 1.565299e-01 2.286650e-01 7.092492e-02 1.137661e-01 -1.254903e-02 1.133793e-01 2.331070e-02 9.204831e-02 1.063137e+00 1.760385e-02 6.556774e-03 2.229374e-03 -6.924151e-03 4.364061e-03 -1.101182e-02 -5.708724e-03 -9.720423e-03 -3.087778e-03 -5.427453e-03 -1.770294e-03 -6.688243e-03 -4.800995e-02 1.658497e-04 3.910092e-04 -3.075374e-04 -8.377499e-04 -5.837122e-04 -8.299357e-04 -1.178062e-04 4.272391e-05 3.620517e-04 -2.082457e-04 1.395890e-05 -2.013353e-04 -3.223272e-03
<VARIANCE> 39
 5.511601e+00 5.089370e+00 6.836720e+00 1.025058e+01 1.171410e+01 1.484766e+01 1.509230e+01 1.767821e+01 1.681988e+01 1.696652e+01 1.500131e+01 1.391979e+01 2.743076e+01 1.836561e-01 2.316988e-01 3.102783e-01 4.375207e-01 5.221533e-01 6.457999e-01 6.638255e-01 7.567694e-01 7.382705e-01 7.345452e-01 6.630887e-01 6.035500e-01 5.462420e-01 2.859412e-02 3.992169e-02 5.632032e-02 7.764592e-02 9.549347e-02 1.166338e-01 1.237138e-01 1.382658e-01 1.378396e-01 1.359266e-01 1.247553e-01 1.127857e-01 5.953797e-02
<GCONST> 6.341555e+01
<TRANSP> 5
 0.000000e+00 1.000000e+00 0.000000e+00 0.000000e+00 0.000000e+00
 0.000000e+00 7.261885e-01 2.738114e-01 0.000000e+00 0.000000e+00
 0.000000e+00 0.000000e+00 7.261851e-01 2.738149e-01 0.000000e+00
 0.000000e+00 0.000000e+00 0.000000e+00 8.498527e-01 1.501473e-01
 0.000000e+00 0.000000e+00 0.000000e+00 0.000000e+00 0.000000e+00
<ENDHMM>
~h "s"
<BEGINHMM>
<NUMSTATES> 5
<STATE> 2
<MEAN> 39
 -1.464342e-01 -5.295730e-02 -1.078438e-01 -2.014469e-01 -1.534201e-01 -6.939258e-02 -2.138736e-02 -4.425643e-02 8.820556e-02 -3.601944e-02 2.675985e-02 -5.563908e-02 -2.140080e-01 -6.072838e-04 5.873644e-04 -1.307096e-03 1.408625e-06 1.937239e-03 2.330127e-04 1.955145e-03 1.389157e-03 -2.035188e-04 1.844215e-04 1.095755e-03 -1.104727e-04 1.401540e-02 -7.562707e-04 7.423807e-05 5.635762e-05 1.260459e-04 5.321046e-05 1.554205e-04 1.600260e-06 3.223433e-04 1.666758e-04 1.762223e-05 -1.067955e-04 -4.100300e-05 2.130303e-03
<VARIANCE> 39
 5.518120e+00 5.097540e+00 6.972472e+00 1.179245e+01 1.212777e+01 1.515305e+01 1.549982e+01 1.738831e+01 1.700112e+01 1.750216e+01 1.524636e+01 1.415693e+01 3.037571e+01 2.400476e-01 2.410680e-01 3.209661e-01 4.989484e-01 5.317931e-01 6.667846e-01 6.829816e-01 7.452313e-01 7.504110e-01 7.675278e-01 6.688918e-01 6.122202e-01 7.577881e-01 3.813049e-02 4.303250e-02 5.847279e-02 8.779460e-02 9.769940e-02 1.218769e-01 1.283944e-01 1.382647e-01 1.399781e-01 1.421019e-01 1.248020e-01 1.135195e-01 1.043371e-01
<GCONST> 6.602157e+01
<STATE> 3
<MEAN> 39
 -1.535525e-01 -5.176060e-02 -1.111832e-01 -1.970578e-01 -1.440789e-01 -6.489386e-02 -1.556512e-02 -4.018474e-02 8.697013e-02 -3.628101e-02 2.846641e-02 -5.792511e-02 -1.416398e-01 -2.955174e-03 1.368379e-03 -6.963736e-04 2.255232e-03 2.335263e-03 1.571613e-03 1.687445e-03 2.575696e-03 6.943026e-04 5.809565e-04 2.950698e-04 2.438487e-04 2.134606e-02 -8.188528e-04 1.505134e-04 1.560415e-04 6.221935e-04 1.129084e-04 4.266126e-04 -6.378458e-05 2.256230e-04 2.595080e-04 1.288626e-04 -2.874266e-04 2.669390e-05 2.343126e-03
<VARIANCE> 39
 5.636027e+00 5.118624e+00 7.022601e+00 1.179936e+01 1.213596e+01 1.515867e+01 1.547740e+01 1.737211e+01 1.703467e+01 1.752423e+01 1.527717e+01 1.414189e+01 2.934550e+01 2.416619e-01 2.427327e-01 3.220405e-01 4.998904e-01 5.313094e-01 6.660904e-01 6.826424e-01 7.453255e-01 7.501215e-01 7.692934e-01 6.701227e-01 6.115481e-01 7.638672e-01 3.830636e-02 4.320935e-02 5.862748e-02 8.799032e-02 9.748652e-02 1.217412e-01 1.282771e-01 1.381296e-01 1.398778e-01 1.423207e-01 1.249578e-01 1.132722e-01 1.044362e-01
<GCONST> 6.605927e+01
<STATE> 4
<MEAN> 39
 -1.787296e-01 -4.734093e-02 -1.038247e-01 -1.556537e-01 -1.153321e-01 -3.592649e-02 -3.808492e-03 -2.491136e-02 8.700372e-02 -3.015219e-02 2.698682e-02 -5.434407e-02 4.566713e-02 -2.787215e-03 3.187171e-03 1.568984e-03 7.849265e-03 3.476143e-03 4.301889e-03 1.555392e-03 4.560629e-03 1.027430e-03 2.334328e-03 -3.313810e-04 2.430286e-03 2.439142e-02 -2.294552e-04 2.264868e-04 3.380830e-04 8.408145e-04 2.000828e-04 5.344903e-04 7.070799e-05 2.901879e-04 1.133086e-05 3.508123e-04 -8.712579e-05 2.861390e-04 8.775941e-04
<VARIANCE> 39
 5.787660e+00 5.139984e+00 7.052905e+00 1.178763e+01 1.213988e+01 1.513782e+01 1.543387e+01 1.738119e+01 1.708910e+01 1.757392e+01 1.533050e+01 1.415500e+01 2.770062e+01 2.388888e-01 2.414058e-01 3.204693e-01 4.981574e-01 5.299746e-01 6.647065e-01 6.806769e-01 7.443349e-01 7.496399e-01 7.705047e-01 6.715054e-01 6.098787e-01 7.598862e-01 3.764267e-02 4.283122e-02 5.830914e-02 8.770084e-02 9.719010e-02 1.215296e-01 1.278274e-01 1.377040e-01 1.397606e-01 1.425170e-01 1.252622e-01 1.129952e-01 1.031036e-01
<GCONST> 6.594482e+01
<TRANSP> 5
 0.000000e+00 1.000000e+00 0.000000e+00 0.000000e+00 0.000000e+00
 0.000000e+00 7.192349e-01 2.807651e-01 0.000000e+00 0.000000e+00
 0.000000e+00 0.000000e+00 7.192363e-01 2.807637e-01 0.000000e+00
 0.000000e+00 0.000000e+00 0.000000e+00 8.419651e-01 1.580349e-01
 0.000000e+00 0.000000e+00 0.000000e+00 0.000000e+00 0.000000e+00
<ENDHMM>
~h "t"
<BEGINHMM>
<NUMSTATES> 5
<STATE> 2
<MEAN> 39
 -1.093264e-01 9.075686e-02 -3.680010e-02 -2.174234e-02 -1.333346e-02 1.647365e-02 -1.297004e-02 1.017902e-01 4.043844e-02 4.191153e-02 3.617662e-02 7.978265e-02 1.402597e-01 3.248428e-03 -5.950166e-04 4.014237e-03 5.742549e-03 6.472824e-03 1.686799e-03 -3.532022e-03 -3.262579e-03 -3.305827e-03 9.468220e-04 3.639087e-04 -6.752991e-04 2.757698e-02 6.395585e-04 -2.312198e-04 1.847126e-04 2.406319e-04 2.295196e-05 -2.556152e-04 1.951458e-05 -3.271225e-04 -3.556042e-05 -4.382532e-04 -1.188029e-04 -4.785324e-04 -2.968473e-04
<VARIANCE> 39
 5.522663e+00 5.157817e+00 6.798762e+00 1.192128e+01 1.187681e+01 1.556888e+01 1.549754e+01 1.752087e+01 1.676129e+01 1.710230e+01 1.515489e+01 1.402051e+01 4.017948e+01 2.573859e-01 2.503401e-01 3.200213e-01 5.051060e-01 5.328968e-01 6.852726e-01 6.878135e-01 7.609862e-01 7.458991e-01 7.573822e-01 6.716740e-01 6.147507e-01 1.211754e+00 4.151812e-02 4.516490e-02 5.930555e-02 8.893528e-02 9.849612e-02 1.255571e-01 1.280942e-01 1.400253e-01 1.393805e-01 1.411016e-01 1.259620e-01 1.146545e-01 1.539871e-01
<GCONST> 6.749842e+01
<STATE> 3
<MEAN> 39
 -9.262718e-02 8.413252e-02 -1.894485e-02 -1.017375e-03 1.205347e-02 2.285836e-02 -2.753581e-02 8.523815e-02 2.967542e-02 4.006656e-02 3.531170e-02 7.164419e-02 2.483463e-01 6.090499e-03 -1.345818e-03 4.826555e-03 6.339871e-03 6.395336e-03 6.911302e-04 -2.762967e-03 -4.134589e-03 -3.425744e-03 -9.871339e-04 -3.465431e-04 -2.802644e-03 2.221905e-02 4.849391e-04 1.268234e-05 1.815286e-04 1.535131e-04 -1.490847e-04 -2.120754e-04 2.833742e-04 -1.652481e-05 8.233440e-05 -4.662778e-04 -1.239320e-04 -3.955838e-04 -1.242923e-03
<VARIANCE> 39
 5.753129e+00 5.181268e+00 6.887675e+00 1.189316e+01 1.191760e+01 1.563366e+01 1.557295e+01 1.764586e+01 1.685210e+01 1.716255e+01 1.520798e+01 1.408833e+01 3.820708e+01 2.594281e-01 2.505971e-01 3.221332e-01 5.074260e-01 5.355945e-01 6.881424e-01 6.901776e-01 7.645150e-01 7.488168e-01 7.594405e-01 6.747013e-01 6.179083e-01 1.191606e+00 4.156088e-02 4.510758e-02 5.959732e-02 8.918655e-02 9.885635e-02 1.258188e-01 1.283431e-01 1.403514e-01 1.398627e-01 1.413348e-01 1.264501e-01 1.151329e-01 1.499658e-01
<GCONST> 6.758193e+01
<STATE> 4
<MEAN> 39
 -8.388231e-02 6.397729e-02 8.921126e-03 4.051685e-02 4.888174e-02 5.485767e-02 -3.478407e-02 6.959423e-02 2.460616e-02 3.235187e-02 3.058965e-02 5.337718e-02 4.587043e-01 1.035761e-02 -2.608552e-03 5.337711e-03 5.131550e-03 4.846341e-03 -8.297138e-04 -1.051029e-03 -4.901309e-03 -4.234296e-03 -2.938245e-03 -1.247483e-03 -4.734002e-03 3.647486e-03 3.227578e-04 1.776893e-04 4.049615e-05 -6.091462e-05 -4.012566e-04 -2.847108e-04 3.393815e-04 1.221008e-04 3.233231e-05 -1.573223e-04 -4.448875e-05 -1.472844e-06 -2.708186e-03
<VARIANCE> 39
 6.015450e+00 5.166686e+00 6.937387e+00 1.184395e+01 1.193334e+01 1.564738e+01 1.569489e+01 1.787844e+01 1.700901e+01 1.728610e+01 1.528033e+01 1.415283e+01 3.568211e+01 2.530021e-01 2.473505e-01 3.219737e-01 5.078308e-01 5.366461e-01 6.864526e-01 6.932130e-01 7.714655e-01 7.548168e-01 7.614826e-01 6.794345e-01 6.216972e-01 1.101804e+00 4.014367e-02 4.434132e-02 5.943090e-02 8.896727e-02 9.877271e-02 1.252279e-01 1.285444e-01 1.411090e-01 1.409298e-01 1.414641e-01 1.272935e-01 1.157493e-01 1.377711e-01
<GCONST> 6.740775e+01
<TRANSP> 5
 0.000000e+00 1.000000e+00 0.000000e+00 0.000000e+00 0.000000e+00
 0.000000e+00 7.402634e-01 2.597366e-01 0.000000e+00 0.000000e+00
 0.000000e+00 0.000000e+00 7.402635e-01 2.597365e-01 0.000000e+00
 0.000000e+00 0.000000e+00 0.000000e+00 8.675311e-01 1.324688e-01
 0.000000e+00 0.000000e+00 0.000000e+00 0.000000e+00 0.000000e+00
<ENDHMM>
~h "v"
<BEGINHMM>
<NUMSTATES> 5
<STATE> 2
<MEAN> 39
 -3.017341e-01 -7.135829e-02 -4.334559e-02 1.564873e-01 9.800652e-02 1.931355e-01 8.745095e-02 1.034389e-01 7.178143e-02 8.535053e-02 2.261578e-02 7.604292e-02 1.076146e+00 1.399256e-02 8.539080e-04 6.661551e-03 7.176301e-03 6.482945e-03 4.844781e-03 -1.166517e-03 -4.163420e-03 -5.087741e-03 5.069833e-04 -2.510511e-03 -2.887606e-04 -7.977629e-04 1.080396e-03 3.361714e-04 1.462582e-04 -3.324019e-04 -4.303071e-04 -5.229208e-04 -3.560327e-04 -2.018701e-04 -2.961798e-04 -1.902297e-04 1.955040e-04 -8.293390e-05 -3.549648e-03
<VARIANCE> 39
 4.715116e+00 4.518765e+00 6.752129e+00 1.066050e+01 1.117909e+01 1.452133e+01 1.486032e+01 1.771691e+01 1.673184e+01 1.706548e+01 1.504142e+01 1.402217e+01 2.321331e+01 2.013624e-01 2.108156e-01 3.109781e-01 4.513488e-01 4.892341e-01 6.257533e-01 6.529337e-01 7.408102e-01 7.353911e-01 7.482091e-01 6.710826e-01 6.047429e-01 5.018163e-01 3.373525e-02 3.783917e-02 5.672131e-02 7.966591e-02 9.078188e-02 1.139041e-01 1.225469e-01 1.358745e-01 1.372792e-01 1.393861e-01 1.266069e-01 1.127980e-01 5.865424e-02
<GCONST> 6.283304e+01
<STATE> 3
<MEAN> 39
 -2.416434e-01 -6.955232e-02 -1.842905e-02 1.721406e-01 1.153912e-01 2.025856e-01 8.115064e-02 8.052718e-02 5.190977e-02 8.420306e-02 1.358163e-02 6.920065e-02 1.034705e+00 1.709362e-02 2.121957e-03 6.717886e-03 5.954962e-03 4.592574e-03 2.834301e-03 -2.363395e-03 -4.688716e-03 -5.934224e-03 -2.168614e-04 -1.730034e-03 -7.317112e-04 -1.280272e-02 6.333301e-04 4.637456e-04 5.241612e-05 -4.700110e-04 -5.201396e-04 -5.573497e-04 -2.289259e-04 -4.308840e-06 -1.349538e-04 -2.081511e-04 2.210577e-04 -1.268051e-04 -3.194812e-03
<VARIANCE> 39
 4.843563e+00 4.551848e+00 6.778469e+00 1.061323e+01 1.117729e+01 1.450756e+01 1.490685e+01 1.792186e+01 1.681091e+01 1.707976e+01 1.508808e+01 1.405464e+01 2.371752e+01 2.013759e-01 2.119322e-01 3.123951e-01 4.502953e-01 4.904562e-01 6.249776e-01 6.553846e-01 7.437885e-01 7.387468e-01 7.493415e-01 6.737155e-01 6.060381e-01 4.925613e-01 3.362457e-02 3.790448e-02 5.687741e-02 7.972918e-02 9.100883e-02 1.137879e-01 1.227802e-01 1.361859e-01 1.377806e-01 1.395924e-01 1.271171e-01 1.130594e-01 5.798595e-02
<GCONST> 6.293033e+01
<STATE> 4
<MEAN> 39
 -1.440852e-01 -6.630795e-02 2.000355e-02 1.772815e-01 1.299628e-01 2.091440e-01 6.916846e-02 3.412797e-02 2.699148e-02 7.878651e-02 3.872621e-03 4.453536e-02 9.217074e-01 1.942372e-02 4.226222e-03 5.781355e-03 3.041169e-03 1.191345e-03 -8.405934e-04 -3.276870e-03 -4.971139e-03 -6.256542e-03 -1.522468e-03 -1.006874e-03 -1.885001e-03 -3.065829e-02 -2.417862e-05 5.943598e-04 -6.136200e-05 -5.521477e-04 -4.603580e-04 -6.464902e-04 -3.828286e-05 2.533454e-04 6.743205e-05 -1.339071e-04 1.296176e-04 -3.144132e-05 -2.494096e-03
<VARIANCE> 39
 5.038984e+00 4.623279e+00 6.799043e+00 1.055797e+01 1.118977e+01 1.451550e+01 1.499028e+01 1.824740e+01 1.691143e+01 1.707105e+01 1.511730e+01 1.410127e+01 2.507589e+01 1.998475e-01 2.137117e-01 3.129103e-01 4.489180e-01 4.926979e-01 6.236551e-01 6.584368e-01 7.480997e-01 7.413936e-01 7.487866e-01 6.741840e-01 6.072096e-01 4.860668e-01 3.313580e-02 3.792064e-02 5.688653e-02 7.967969e-02 9.148055e-02 1.136142e-01 1.230783e-01 1.364879e-01 1.380358e-01 1.394301e-01 1.271317e-01 1.133074e-01 5.742858e-02
<GCONST> 6.306624e+01
<TRANSP> 5
 0.000000e+00 1.000000e+00 0.000000e+00 0.000000e+00 0.000000e+00
 0.000000e+00 7.208700e-01 2.791300e-01 0.000000e+00 0.000000e+00
 0.000000e+00 0.000000e+00 7.208727e-01 2.791273e-01 0.000000e+00
 0.000000e+00 0.000000e+00 0.000000e+00 8.444557e-01 1.555444e-01
 0.000000e+00 0.000000e+00 0.000000e+00 0.000000e+00 0.000000e+00
<ENDHMM>
~h "w"
<BEGINHMM>
<NUMSTATES> 5
<STATE> 2
<MEAN> 39
 -3.593628e-01 -6.412455e-02 -1.334207e-01 3.543102e-01 1.474022e-01 2.658189e-01 1.017785e-01 3.069084e-01 3.708429e-02 1.811637e-01 2.038034e-02 1.616608e-01 1.222369e+00 -1.455555e-02 -4.159806e-04 3.431353e-03 1.657199e-02 1.078401e-02 1.734673e-02 6.610022e-03 1.057935e-02 -1.454306e-04 5.837533e-03 -3.591108e-04 8.095048e-03 7.493225e-02 1.058039e-03 1.394207e-05 2.974744e-04 -1.415016e-03 -7.691835e-04 -9.962569e-04 -4.760168e-04 -1.090169e-03 -2.919061e-04 -6.363862e-04 2.956999e-04 -3.509157e-04 -5.009919e-03
<VARIANCE> 39
 4.645736e+00 4.076749e+00 6.107164e+00 9.940697e+00 1.100435e+01 1.452245e+01 1.479652e+01 1.691566e+01 1.622676e+01 1.633167e+01 1.473242e+01 1.372765e+01 2.810121e+01 1.910607e-01 1.924654e-01 2.785667e-01 4.177711e-01 4.881601e-01 6.192850e-01 6.558377e-01 7.364488e-01 7.231593e-01 7.136558e-01 6.491556e-01 5.940760e-01 6.334103e-01 2.989464e-02 3.527968e-02 5.176121e-02 7.625332e-02 9.123556e-02 1.142097e-01 1.238341e-01 1.373811e-01 1.363376e-01 1.335859e-01 1.227777e-01 1.110897e-01 7.438133e-02
<GCONST> 6.217115e+01
<STATE> 3
<MEAN> 39
 -4.046232e-01 -6.460556e-02 -1.235440e-01 4.031432e-01 1.791715e-01 3.210836e-01 1.222765e-01 3.383395e-01 3.528302e-02 1.982789e-01 2.070458e-02 1.887711e-01 1.447580e+00 -8.279226e-03 6.051499e-04 4.904590e-03 1.075247e-02 8.266974e-03 1.248496e-02 4.393147e-03 5.501423e-03 -1.355965e-03 3.168407e-03 8.592384e-05 6.126546e-03 5.321632e-02 2.172104e-03 4.089159e-04 6.105622e-04 -1.795005e-03 -6.858063e-04 -1.568615e-03 -7.873708e-04 -1.744677e-03 -3.508134e-04 -7.600669e-04 6.310128e-05 -7.210204e-04 -6.986486e-03
<VARIANCE> 39
 4.625920e+00 4.005447e+00 6.108107e+00 9.747204e+00 1.090319e+01 1.434238e+01 1.476608e+01 1.692893e+01 1.623425e+01 1.625902e+01 1.470601e+01 1.374954e+01 2.649797e+01 1.868096e-01 1.892094e-01 2.782429e-01 4.100276e-01 4.846861e-01 6.126602e-01 6.556115e-01 7.374005e-01 7.240362e-01 7.094738e-01 6.479074e-01 5.955083e-01 5.770420e-01 2.909440e-02 3.473704e-02 5.138562e-02 7.488335e-02 9.077969e-02 1.130332e-01 1.236180e-01 1.372634e-01 1.363553e-01 1.327446e-01 1.224697e-01 1.113620e-01 6.847994e-02
<GCONST> 6.169507e+01
<STATE> 4
<MEAN> 39
 -4.358077e-01 -5.420948e-02 -1.035289e-01 4.402193e-01 2.091365e-01 3.712517e-01 1.411977e-01 3.546172e-01 2.951731e-02 2.105142e-01 2.117818e-02 2.171541e-01 1.648187e+00 2.646449e-03 2.558543e-03 7.748924e-03 2.708445e-03 5.668240e-03 5.129378e-03 1.424104e-03 -2.413239e-03 -2.290455e-03 -3.568480e-04 -6.454450e-04 2.475716e-03 2.304135e-02 2.608779e-03 5.138845e-04 9.122966e-04 -1.782121e-03 -4.834082e-04 -1.688005e-03 -8.059996e-04 -1.940633e-03 -2.304002e-04 -7.516111e-04 -2.317159e-04 -9.848807e-04 -6.917897e-03
<VARIANCE> 39
 4.701958e+00 3.969697e+00 6.220612e+00 9.604874e+00 1.085725e+01 1.423583e+01 1.477464e+01 1.706316e+01 1.629551e+01 1.623959e+01 1.469364e+01 1.378892e+01 2.571793e+01 1.826221e-01 1.880595e-01 2.824660e-01 4.042892e-01 4.842915e-01 6.103965e-01 6.575844e-01 7.422970e-01 7.277415e-01 7.073050e-01 6.473282e-01 5.991179e-01 5.166572e-01 2.844351e-02 3.440895e-02 5.166048e-02 7.379448e-02 9.085884e-02 1.125598e-01 1.237456e-01 1.375260e-01 1.368036e-01 1.321933e-01 1.221681e-01 1.121019e-01 6.241500e-02
<GCONST> 6.142017e+01
<TRANSP> 5
 0.000000e+00 1.000000e+00 0.000000e+00 0.000000e+00 0.000000e+00
 0.000000e+00 7.147701e-01 2.852299e-01 0.000000e+00 0.000000e+00
 0.000000e+00 0.000000e+00 7.147721e-01 2.852279e-01 0.000000e+00
 0.000000e+00 0.000000e+00 0.000000e+00 8.361766e-01 1.638234e-01
 0.000000e+00 0.000000e+00 0.000000e+00 0.000000e+00 0.000000e+00
<ENDHMM>
~h "z"
<BEGINHMM>
<NUMSTATES> 5
<STATE> 2
<MEAN> 39
 -1.154838e-01 8.857292e-02 -6.840193e-02 2.372257e-02 -6.729976e-02 3.046883e-02 2.977270e-03 3.743808e-02 3.344303e-02 8.003121e-03 6.448260e-03 4.512855e-02 -5.297272e-02 -7.471570e-03 5.913855e-03 5.869200e-03 1.749401e-02 8.337466e-03 1.127228e-02 4.207532e-03 6.674407e-03 4.725996e-04 7.875600e-03 1.474229e-03 4.142378e-03 6.676246e-02 -4.924529e-04 -1.512330e-04 2.214952e-04 1.015126e-03 5.015908e-04 1.041065e-03 8.975501e-04 6.394841e-04 -2.235112e-04 3.770840e-04 1.829052e-04 1.100082e-05 5.141636e-03
<VARIANCE> 39
 4.359106e+00 5.015046e+00 6.441107e+00 1.043937e+01 1.157074e+01 1.421567e+01 1.484900e+01 1.718432e+01 1.641207e+01 1.693930e+01 1.513401e+01 1.381146e+01 3.664425e+01 1.746247e-01 2.474124e-01 3.040948e-01 4.271091e-01 5.033373e-01 6.023699e-01 6.577118e-01 7.457805e-01 7.345854e-01 7.427733e-01 6.699979e-01 6.092054e-01 5.132845e-01 2.841421e-02 4.421556e-02 5.582512e-02 7.792547e-02 9.349320e-02 1.117200e-01 1.230873e-01 1.380104e-01 1.376516e-01 1.379527e-01 1.258743e-01 1.142493e-01 5.941493e-02
<GCONST> 6.314593e+01
<STATE> 3
<MEAN> 39
 -1.534564e-01 1.063817e-01 -4.972582e-02 9.693995e-02 -2.953460e-02 8.474768e-02 2.558879e-02 6.735809e-02 3.363061e-02 3.996177e-02 1.396370e-02 6.178565e-02 2.498962e-01 -1.063319e-02 3.836472e-03 4.115946e-03 2.019889e-02 1.061553e-02 1.497439e-02 6.484124e-03 9.239695e-03 2.505055e-04 8.923071e-03 2.086281e-03 5.027266e-03 8.252386e-02 -7.091992e-04 -6.443464e-04 -5.054004e-04 5.983594e-04 6.863506e-04 9.458059e-04 4.269351e-04 5.739675e-04 -6.904882e-05 1.714539e-04 9.575827e-05 1.168963e-04 3.763859e-03
<VARIANCE> 39
 4.427222e+00 5.116354e+00 6.525699e+00 1.036202e+01 1.154576e+01 1.418542e+01 1.488015e+01 1.726254e+01 1.638105e+01 1.705441e+01 1.515780e+01 1.383166e+01 3.342801e+01 1.789245e-01 2.530529e-01 3.087698e-01 4.294311e-01 5.080759e-01 6.054386e-01 6.585610e-01 7.511827e-01 7.342398e-01 7.481366e-01 6.718969e-01 6.118369e-01 5.532851e-01 2.904438e-02 4.512576e-02 5.664439e-02 7.836349e-02 9.418030e-02 1.122847e-01 1.229999e-01 1.388740e-01 1.374621e-01 1.386886e-01 1.261679e-01 1.145612e-01 6.199491e-02
<GCONST> 6.341674e+01
<STATE> 4
<MEAN> 39
 -2.438595e-01 1.105081e-01 -4.396396e-02 2.035853e-01 2.985193e-02 1.829457e-01 5.891086e-02 1.285886e-01 3.684337e-02 8.890561e-02 2.883196e-02 9.514502e-02 7.535539e-01 -1.609701e-02 -1.257232e-03 -8.728891e-04 2.011589e-02 1.119367e-02 1.787488e-02 6.497276e-03 1.231421e-02 7.908775e-04 1.000670e-02 2.610735e-03 7.360825e-03 8.653314e-02 -3.304335e-04 -8.675776e-04 -6.732182e-04 -3.389378e-04 2.379224e-05 6.386249e-05 -2.051565e-04 2.300332e-04 -8.083389e-06 -6.053491e-05 4.752073e-06 1.177272e-04 -1.022084e-03
<VARIANCE> 39
 4.469452e+00 5.114897e+00 6.527919e+00 1.017881e+01 1.147346e+01 1.412219e+01 1.487893e+01 1.725142e+01 1.634254e+01 1.717366e+01 1.519204e+01 1.387613e+01 2.937780e+01 1.788110e-01 2.505695e-01 3.060755e-01 4.255524e-01 5.085725e-01 6.069425e-01 6.572630e-01 7.514796e-01 7.313281e-01 7.518223e-01 6.739008e-01 6.128476e-01 5.572825e-01 2.880339e-02 4.463127e-02 5.611722e-02 7.767274e-02 9.417626e-02 1.125483e-01 1.225894e-01 1.388584e-01 1.367790e-01 1.391126e-01 1.266144e-01 1.144334e-01 6.132463e-02
<GCONST> 6.321513e+01
<TRANSP> 5
 0.000000e+00 1.000000e+00 0.000000e+00 0.000000e+00 0.000000e+00
 0.000000e+00 7.181281e-01 2.818719e-01 0.000000e+00 0.000000e+00
 0.000000e+00 0.000000e+00 7.181323e-01 2.818677e-01 0.000000e+00
 0.000000e+00 0.000000e+00 0.000000e+00 8.397839e-01 1.602161e-01
 0.000000e+00 0.000000e+00 0.000000e+00 0.000000e+00 0.000000e+00
<ENDHMM>
~h "ah"
<BEGINHMM>
<NUMSTATES> 5
<STATE> 2
<MEAN> 39
 -3.312920e-01 -2.078393e-02 -3.248075e-02 4.162588e-01 2.207304e-01 3.567650e-01 1.299955e-01 2.837710e-01 1.191010e-02 1.755920e-01 1.850638e-02 1.960346e-01 1.623714e+00 1.976508e-02 5.094755e-03 1.563209e-02 -3.373269e-03 5.292085e-03 -1.934920e-03 -1.808247e-03 -1.166880e-02 -5.866827e-03 -3.011992e-03 -2.294961e-03 -3.686192e-03 -1.283013e-02 1.488386e-03 3.218388e-04 4.488801e-04 -2.003046e-03 -8.538626e-04 -1.714698e-03 -8.174741e-04 -1.809090e-03 1.079829e-04 -6.351053e-04 -2.930619e-04 -1.184384e-03 -6.525321e-03
<VARIANCE> 39
 4.793567e+00 4.102788e+00 6.829075e+00 9.767536e+00 1.095652e+01 1.423200e+01 1.495078e+01 1.730181e+01 1.658127e+01 1.655889e+01 1.497048e+01 1.387333e+01 2.277572e+01 1.945332e-01 1.967390e-01 3.116512e-01 4.152732e-01 4.871629e-01 6.163663e-01 6.677938e-01 7.562762e-01 7.408199e-01 7.278485e-01 6.652929e-01 6.089107e-01 4.514993e-01 3.121230e-02 3.591746e-02 5.604427e-02 7.519366e-02 9.092550e-02 1.131588e-01 1.252085e-01 1.387555e-01 1.391430e-01 1.358408e-01 1.254961e-01 1.137881e-01 5.456617e-02
<GCONST> 6.200995e+01
<STATE> 3
<MEAN> 39
 -2.562820e-01 -2.245143e-03 2.289857e-02 3.958036e-01 2.355261e-01 3.426763e-01 1.206542e-01 2.358753e-01 -7.126668e-03 1.621325e-01 8.904056e-03 1.782937e-01 1.554444e+00 2.432606e-02 6.172712e-03 1.706562e-02 -9.820624e-03 2.402270e-03 -7.577563e-03 -4.720542e-03 -1.734159e-02 -5.287423e-03 -5.177549e-03 -3.285317e-03 -7.627515e-03 -3.404605e-02 6.868105e-04 1.772534e-04 -1.695871e-04 -1.603528e-03 -1.018086e-03 -1.467445e-03 -7.565700e-04 -1.109199e-03 3.042247e-04 -5.455554e-04 -1.904198e-04 -9.444502e-04 -5.679543e-03
<VARIANCE> 39
 5.073533e+00 4.227061e+00 7.237545e+00 9.842890e+00 1.107093e+01 1.434073e+01 1.510697e+01 1.764113e+01 1.673376e+01 1.663651e+01 1.505675e+01 1.394421e+01 2.285966e+01 1.997069e-01 2.037443e-01 3.273213e-01 4.201581e-01 4.940381e-01 6.229534e-01 6.761364e-01 7.695453e-01 7.468494e-01 7.323717e-01 6.687044e-01 6.132270e-01 4.714228e-01 3.196682e-02 3.703155e-02 5.838835e-02 7.571825e-02 9.201855e-02 1.140886e-01 1.265024e-01 1.402295e-01 1.399014e-01 1.364590e-01 1.260233e-01 1.144985e-01 5.606605e-02
<GCONST> 6.267543e+01
<STATE> 4
<MEAN> 39
 -1.661182e-01 2.165126e-02 8.628444e-02 3.511319e-01 2.410344e-01 3.123961e-01 1.005679e-01 1.669983e-01 -2.185640e-02 1.417159e-01 -7.185569e-03 1.455029e-01 1.428342e+00 2.643872e-02 6.834475e-03 1.613406e-02 -1.521856e-02 -1.457876e-03 -1.260016e-02 -7.946014e-03 -2.066168e-02 -3.848006e-03 -7.346332e-03 -3.959972e-03 -1.086304e-02 -5.431437e-02 -2.582218e-04 -1.777318e-05 -9.201875e-04 -8.379762e-04 -1.054697e-03 -8.899728e-04 -4.895083e-04 -1.699887e-05 4.216534e-04 -3.706500e-04 4.231730e-05 -4.028493e-04 -4.079053e-03
<VARIANCE> 39
 5.399610e+00 4.396424e+00 7.671019e+00 9.978195e+00 1.122976e+01 1.453670e+01 1.529123e+01 1.807538e+01 1.691479e+01 1.677065e+01 1.512232e+01 1.402901e+01 2.343994e+01 2.041650e-01 2.116916e-01 3.422349e-01 4.277852e-01 5.023621e-01 6.317061e-01 6.839471e-01 7.845115e-01 7.540318e-01 7.393018e-01 6.699198e-01 6.161150e-01 5.031623e-01 3.260517e-02 3.822492e-02 6.065128e-02 7.665327e-02 9.325977e-02 1.154473e-01 1.276840e-01 1.420192e-01 1.408116e-01 1.374634e-01 1.260608e-01 1.148533e-01 5.901227e-02
<GCONST> 6.345974e+01
<TRANSP> 5
 0.000000e+00 1.000000e+00 0.000000e+00 0.000000e+00 0.000000e+00
 0.000000e+00 7.112336e-01 2.887664e-01 0.000000e+00 0.000000e+00
 0.000000e+00 0.000000e+00 7.112313e-01 2.887687e-01 0.000000e+00
 0.000000e+00 0.000000e+00 0.000000e+00 8.318070e-01 1.681930e-01
 0.000000e+00 0.000000e+00 0.000000e+00 0.000000e+00 0.000000e+00
<ENDHMM>
~h "ao"
<BEGINHMM>
<NUMSTATES> 5
<STATE> 2
<MEAN> 39
 -3.392959e-01 -1.654264e-01 -2.764720e-02 1.540575e-01 3.973730e-02 3.149313e-02 1.021921e-01 1.482048e-01 2.657709e-02 7.585318e-02 5.358545e-02 6.752826e-02 1.019265e+00 2.950754e-03 -2.780956e-03 5.732495e-03 1.997868e-02 6.525827e-03 2.097983e-02 3.201265e-03 2.331543e-03 6.042070e-04 6.385168e-03 -6.003850e-04 4.157075e-03 4.733157e-02 1.651973e-03 3.308087e-04 4.789573e-04 -4.120756e-04 -5.223569e-04 1.647559e-04 -2.295390e-04 -1.104812e-03 -3.716746e-04 -5.556944e-04 -1.413320e-04 -4.735653e-04 -5.595413e-03
<VARIANCE> 39
 4.597613e+00 4.749533e+00 6.520243e+00 1.041896e+01 1.098694e+01 1.521918e+01 1.465751e+01 1.702559e+01 1.628874e+01 1.678807e+01 1.477417e+01 1.385557e+01 2.592656e+01 1.979374e-01 2.127502e-01 3.024505e-01 4.485565e-01 4.859186e-01 6.550308e-01 6.494986e-01 7.348992e-01 7.248014e-01 7.349677e-01 6.577949e-01 5.986831e-01 5.567218e-01 3.247765e-02 3.698664e-02 5.492694e-02 7.912148e-02 9.031951e-02 1.166585e-01 1.222015e-01 1.342980e-01 1.363188e-01 1.356625e-01 1.241868e-01 1.120304e-01 5.702195e-02
<GCONST> 6.265427e+01
<STATE> 3
<MEAN> 39
 -3.199044e-01 -1.735092e-01 -5.416590e-03 2.262066e-01 6.155026e-02 1.135262e-01 1.143660e-01 1.541958e-01 2.732561e-02 9.785514e-02 5.035988e-02 8.174492e-02 1.165440e+00 9.748247e-03 -2.185120e-03 7.847473e-03 1.670294e-02 4.200974e-03 1.916408e-02 2.024186e-03 -2.713292e-03 -1.213062e-03 3.469081e-03 -1.123522e-03 1.527526e-03 2.260601e-02 1.434843e-03 5.510520e-04 1.808543e-04 -1.199120e-03 -5.974252e-04 -7.731663e-04 -4.469273e-04 -1.039950e-03 -4.697708e-04 -7.317686e-04 -7.180214e-05 -5.933848e-04 -6.740080e-03
<VARIANCE> 39
 4.817570e+00 4.881946e+00 6.706768e+00 1.040247e+01 1.100054e+01 1.516627e+01 1.472980e+01 1.726119e+01 1.636140e+01 1.683834e+01 1.482271e+01 1.392376e+01 2.538317e+01 1.984599e-01 2.176812e-01 3.095461e-01 4.482382e-01 4.869589e-01 6.543022e-01 6.514319e-01 7.411541e-01 7.250506e-01 7.372581e-01 6.595794e-01 6.018445e-01 5.454311e-01 3.215271e-02 3.745308e-02 5.584546e-02 7.909390e-02 9.041291e-02 1.164559e-01 1.223033e-01 1.347904e-01 1.360051e-01 1.359667e-01 1.245237e-01 1.125805e-01 5.520752e-02
<GCONST> 6.281515e+01
<STATE> 4
<MEAN> 39
 -2.920685e-01 -1.727160e-01 2.361794e-02 3.051785e-01 8.643024e-02 2.256354e-01 1.289802e-01 1.600662e-01 2.656998e-02 1.230869e-01 4.601144e-02 9.849077e-02 1.328472e+00 1.769974e-02 -1.908993e-03 9.543048e-03 8.521945e-03 5.547528e-04 1.175435e-02 -5.267548e-04 -9.181784e-03 -3.942127e-03 -1.697698e-03 -1.802149e-03 -2.291377e-03 -1.249207e-02 9.401235e-04 7.544879e-04 -2.071831e-04 -1.741809e-03 -5.495782e-04 -1.709623e-03 -6.499476e-04 -7.593287e-04 -3.962646e-04 -8.214146e-04 -3.018726e-05 -5.133259e-04 -6.693611e-03
<VARIANCE> 39
 5.060351e+00 5.025251e+00 6.945101e+00 1.031430e+01 1.102502e+01 1.510690e+01 1.482744e+01 1.751245e+01 1.647211e+01 1.691428e+01 1.488289e+01 1.399247e+01 2.594487e+01 1.966555e-01 2.230219e-01 3.182855e-01 4.447587e-01 4.885399e-01 6.510500e-01 6.532104e-01 7.470443e-01 7.256716e-01 7.398716e-01 6.617684e-01 6.055838e-01 5.302011e-01 3.149224e-02 3.791185e-02 5.696634e-02 7.878976e-02 9.043982e-02 1.159605e-01 1.223597e-01 1.353777e-01 1.355549e-01 1.364225e-01 1.247311e-01 1.133327e-01 5.387030e-02
<GCONST> 6.300287e+01
<TRANSP> 5
 0.000000e+00 1.000000e+00 0.000000e+00 0.000000e+00 0.000000e+00
 0.000000e+00 7.307688e-01 2.692312e-01 0.000000e+00 0.000000e+00
 0.000000e+00 0.000000e+00 7.307689e-01 2.692311e-01 0.000000e+00
 0.000000e+00 0.000000e+00 0.000000e+00 8.551461e-01 1.448539e-01
 0.000000e+00 0.000000e+00 0.000000e+00 0.000000e+00 0.000000e+00
<ENDHMM>
~h "ay"
<BEGINHMM>
<NUMSTATES> 5
<STATE> 2
<MEAN> 39
 -3.675508e-01 -3.438058e-02 -1.637071e-02 2.748621e-01 1.412771e-01 2.334705e-01 1.055781e-01 2.323806e-01 2.707594e-02 1.645055e-01 4.046239e-02 1.791396e-01 1.283239e+00 1.262340e-03 -2.426046e-04 4.853915e-03 5.473390e-03 7.983608e-03 8.703572e-03 5.024928e-04 -1.233340e-03 -3.814779e-04 2.397834e-03 -2.712836e-04 9.242220e-05 3.220986e-02 1.620194e-03 4.984060e-05 1.608270e-04 -1.405407e-03 -6.062801e-04 -1.085976e-03 -5.653487e-04 -1.368355e-03 -1.571877e-04 -8.357782e-04 -3.071902e-04 -8.269706e-04 -6.251866e-03
<VARIANCE> 39
 4.392059e+00 4.239782e+00 6.524422e+00 1.018849e+01 1.102075e+01 1.445012e+01 1.471975e+01 1.727353e+01 1.628060e+01 1.664981e+01 1.479404e+01 1.381777e+01 2.640155e+01 1.767162e-01 1.968616e-01 2.988572e-01 4.241455e-01 4.905181e-01 6.229585e-01 6.461163e-01 7.302337e-01 7.198980e-01 7.285936e-01 6.572768e-01 5.990737e-01 5.817558e-01 2.893404e-02 3.571023e-02 5.464922e-02 7.549200e-02 9.186573e-02 1.143035e-01 1.215103e-01 1.342597e-01 1.356068e-01 1.360420e-01 1.246917e-01 1.119768e-01 6.404068e-02
<GCONST> 6.207341e+01
<STATE> 3
<MEAN> 39
 -3.503115e-01 -3.358524e-02 2.716894e-03 2.858851e-01 1.675750e-01 2.590291e-01 1.038452e-01 2.191567e-01 2.445365e-02 1.674367e-01 3.763555e-02 1.743269e-01 1.357084e+00 8.507425e-03 1.897980e-04 6.105551e-03 -5.404034e-04 5.736532e-03 3.539633e-03 -1.657513e-03 -6.935367e-03 -1.180200e-03 -1.105947e-03 -1.590699e-03 -3.393244e-03 6.485499e-03 1.639683e-03 1.181610e-04 4.382905e-05 -1.356150e-03 -7.132056e-04 -1.326384e-03 -5.720268e-04 -1.295472e-03 -1.542278e-04 -7.844091e-04 -2.583285e-04 -7.634011e-04 -6.640162e-03
<VARIANCE> 39
 4.563177e+00 4.272623e+00 6.698596e+00 1.020560e+01 1.108462e+01 1.443370e+01 1.479181e+01 1.745201e+01 1.636692e+01 1.668760e+01 1.484960e+01 1.389592e+01 2.544967e+01 1.808790e-01 1.980916e-01 3.053524e-01 4.248324e-01 4.929076e-01 6.225262e-01 6.491900e-01 7.338797e-01 7.233024e-01 7.311808e-01 6.604956e-01 6.016973e-01 5.598353e-01 2.951757e-02 3.584987e-02 5.565009e-02 7.550528e-02 9.217286e-02 1.141933e-01 1.218425e-01 1.344794e-01 1.358732e-01 1.364513e-01 1.252461e-01 1.123552e-01 6.237533e-02
<GCONST> 6.222838e+01
<STATE> 4
<MEAN> 39
 -3.134372e-01 -3.307697e-02 2.800884e-02 2.904528e-01 1.973087e-01 2.820120e-01 9.287486e-02 1.837346e-01 2.294550e-02 1.636735e-01 3.240176e-02 1.610748e-01 1.407894e+00 1.801823e-02 3.155787e-04 7.706443e-03 -8.554389e-03 2.097230e-03 -3.952849e-03 -4.089843e-03 -1.423827e-02 -2.364401e-03 -5.271731e-03 -2.959626e-03 -8.041432e-03 -2.646440e-02 1.231763e-03 6.655014e-05 -1.426993e-04 -1.037544e-03 -8.181338e-04 -1.233298e-03 -4.425804e-04 -8.872485e-04 -1.404518e-04 -5.292018e-04 -7.153038e-05 -5.872703e-04 -5.520951e-03
<VARIANCE> 39
 4.784696e+00 4.344630e+00 6.887876e+00 1.029130e+01 1.119206e+01 1.446105e+01 1.491534e+01 1.776579e+01 1.652951e+01 1.676768e+01 1.494630e+01 1.399043e+01 2.549337e+01 1.848205e-01 2.006873e-01 3.122277e-01 4.287876e-01 4.967330e-01 6.213049e-01 6.542412e-01 7.392898e-01 7.302037e-01 7.350464e-01 6.652899e-01 6.032646e-01 5.337811e-01 3.007221e-02 3.617252e-02 5.668042e-02 7.614322e-02 9.264045e-02 1.140284e-01 1.223515e-01 1.348867e-01 1.366559e-01 1.370487e-01 1.260566e-01 1.125216e-01 6.074968e-02
<GCONST> 6.251675e+01
<TRANSP> 5
 0.000000e+00 1.000000e+00 0.000000e+00 0.000000e+00 0.000000e+00
 0.000000e+00 7.325596e-01 2.674405e-01 0.000000e+00 0.000000e+00
 0.000000e+00 0.000000e+00 7.325531e-01 2.674470e-01 0.000000e+00
 0.000000e+00 0.000000e+00 0.000000e+00 8.578420e-01 1.421580e-01
 0.000000e+00 0.000000e+00 0.000000e+00 0.000000e+00 0.000000e+00
<ENDHMM>
~h "eh"
<BEGINHMM>
<NUMSTATES> 5
<STATE> 2
<MEAN> 39
 -4.002538e-01 -8.043591e-02 -2.385489e-01 -7.839388e-02 -1.187175e-01 -4.128641e-03 1.719525e-02 6.674270e-02 1.439849e-01 1.055467e-02 5.583959e-02 3.873827e-03 4.829502e-01 -1.381728e-02 4.949381e-04 -1.938655e-04 1.905051e-02 9.898316e-03 1.411687e-02 4.637602e-03 9.307465e-03 1.413836e-03 6.174071e-03 -1.113861e-03 5.192048e-03 7.497474e-02 9.174854e-04 3.732062e-04 8.211770e-04 1.714860e-03 8.548619e-04 8.588033e-04 2.546790e-05 5.399057e-04 -6.917018e-04 3.685984e-04 -1.021886e-04 7.819441e-04 3.408696e-04
<VARIANCE> 39
 4.795013e+00 4.587706e+00 6.713190e+00 1.117982e+01 1.140489e+01 1.464997e+01 1.487590e+01 1.674224e+01 1.646597e+01 1.719627e+01 1.503659e+01 1.390856e+01 2.290222e+01 2.048452e-01 2.141440e-01 3.008613e-01 4.608276e-01 4.909289e-01 6.280393e-01 6.512881e-01 7.324035e-01 7.218412e-01 7.486925e-01 6.672466e-01 6.040310e-01 4.858160e-01 3.323817e-02 3.803294e-02 5.455596e-02 8.141876e-02 9.043870e-02 1.150739e-01 1.224735e-01 1.368086e-01 1.354821e-01 1.383657e-01 1.251990e-01 1.125320e-01 5.807338e-02
<GCONST> 6.274789e+01
<STATE> 3
<MEAN> 39
 -4.407955e-01 -7.608414e-02 -2.336046e-01 -1.240490e-03 -7.921251e-02 5.127608e-02 3.425569e-02 1.047138e-01 1.439668e-01 3.514464e-02 5.184389e-02 2.988577e-02 7.372875e-01 -9.244473e-03 1.788888e-03 2.902795e-03 2.380495e-02 1.284382e-02 1.674489e-02 4.912829e-03 1.138468e-02 -1.128058e-03 7.357755e-03 -1.280439e-03 8.204473e-03 7.247455e-02 1.516406e-03 3.501637e-04 9.734755e-04 1.093051e-03 7.521358e-04 5.918216e-04 4.356263e-05 4.393442e-04 -7.744544e-04 1.488253e-04 -2.899788e-05 7.315602e-04 -1.198957e-03
<VARIANCE> 39
 4.741067e+00 4.501514e+00 6.693982e+00 1.101036e+01 1.132313e+01 1.454129e+01 1.483898e+01 1.672264e+01 1.648643e+01 1.718484e+01 1.506876e+01 1.391078e+01 2.122218e+01 2.015423e-01 2.085302e-01 2.984588e-01 4.561625e-01 4.870703e-01 6.257376e-01 6.506875e-01 7.297526e-01 7.237083e-01 7.493291e-01 6.694196e-01 6.042746e-01 4.550382e-01 3.275160e-02 3.712383e-02 5.406762e-02 8.071017e-02 8.976927e-02 1.146780e-01 1.223124e-01 1.361365e-01 1.359268e-01 1.387313e-01 1.256298e-01 1.126596e-01 5.421330e-02
<GCONST> 6.234031e+01
<STATE> 4
<MEAN> 39
 -4.700589e-01 -6.844334e-02 -2.072011e-01 1.186697e-01 -8.394698e-03 1.410767e-01 6.086496e-02 1.702650e-01 1.302207e-01 6.841809e-02 4.568516e-02 7.490586e-02 1.074012e+00 -1.599233e-03 2.971878e-03 6.655208e-03 2.530385e-02 1.500085e-02 1.774723e-02 5.056623e-03 1.240713e-02 -4.063375e-03 7.994108e-03 -1.344823e-03 1.030292e-02 6.133319e-02 1.748704e-03 2.124501e-04 8.727472e-04 -3.949952e-05 3.075608e-04 -3.181903e-05 -2.013432e-05 -1.262923e-04 -6.309947e-04 -1.524910e-04 6.002316e-06 1.148837e-04 -2.681785e-03
<VARIANCE> 39
 4.585540e+00 4.321931e+00 6.580417e+00 1.068587e+01 1.116310e+01 1.438602e+01 1.479940e+01 1.670929e+01 1.649476e+01 1.710808e+01 1.505823e+01 1.388041e+01 2.032870e+01 1.937216e-01 1.993314e-01 2.932886e-01 4.457737e-01 4.818541e-01 6.211513e-01 6.496208e-01 7.262039e-01 7.262990e-01 7.484472e-01 6.708434e-01 6.029326e-01 4.154075e-01 3.173118e-02 3.578841e-02 5.324238e-02 7.920020e-02 8.904711e-02 1.138253e-01 1.220318e-01 1.352845e-01 1.365738e-01 1.390526e-01 1.261091e-01 1.124694e-01 4.991084e-02
<GCONST> 6.170205e+01
<TRANSP> 5
 0.000000e+00 1.000000e+00 0.000000e+00 0.000000e+00 0.000000e+00
 0.000000e+00 7.076492e-01 2.923509e-01 0.000000e+00 0.000000e+00
 0.000000e+00 0.000000e+00 7.076486e-01 2.923514e-01 0.000000e+00
 0.000000e+00 0.000000e+00 0.000000e+00 8.272724e-01 1.727276e-01
 0.000000e+00 0.000000e+00 0.000000e+00 0.000000e+00 0.000000e+00
<ENDHMM>
~h "ey"
<BEGINHMM>
<NUMSTATES> 5
<STATE> 2
<MEAN> 39
 -1.330706e-01 5.656219e-02 -9.008958e-02 -5.625124e-02 -5.357619e-02 2.710834e-02 5.059475e-02 1.504175e-01 3.271011e-02 3.130929e-02 2.282430e-02 9.930111e-02 -1.860604e-02 -3.730710e-03 5.213889e-03 5.361440e-03 3.383497e-03 4.788384e-03 5.780751e-03 -1.354708e-03 2.009402e-03 2.885892e-04 2.564421e-03 -1.948423e-03 -4.291828e-04 3.981984e-02 -1.998048e-04 -4.282025e-04 2.373296e-04 8.162750e-04 2.559932e-04 2.822608e-04 -4.248230e-04 -2.874403e-04 6.073128e-05 2.885940e-04 -1.624739e-04 -3.365094e-04 2.535273e-03
<VARIANCE> 39
 4.940795e+00 4.955253e+00 6.567210e+00 1.217449e+01 1.190517e+01 1.540135e+01 1.540828e+01 1.746028e+01 1.657577e+01 1.709307e+01 1.511360e+01 1.387749e+01 4.127073e+01 2.273023e-01 2.375918e-01 3.040679e-01 5.162894e-01 5.362974e-01 6.803575e-01 6.893587e-01 7.622020e-01 7.407998e-01 7.589121e-01 6.688870e-01 6.043600e-01 1.135774e+00 3.693352e-02 4.290063e-02 5.639247e-02 9.087875e-02 9.913597e-02 1.254976e-01 1.295242e-01 1.404333e-01 1.386973e-01 1.418507e-01 1.258210e-01 1.131512e-01 1.410583e-01
<GCONST> 6.674543e+01
<STATE> 3
<MEAN> 39
 -1.519817e-01 7.488257e-02 -6.705911e-02 -2.876798e-02 -2.859552e-02 5.527076e-02 3.855223e-02 1.574821e-01 3.538657e-02 4.453012e-02 1.586386e-02 9.896526e-02 1.823176e-01 -2.310961e-03 3.517924e-03 6.310512e-03 4.864035e-03 5.198856e-03 5.235420e-03 -3.786957e-03 -9.110440e-04 -5.737037e-04 2.386705e-03 -1.619086e-03 -1.035732e-03 4.189688e-02 3.222805e-04 -4.954338e-04 1.465364e-04 5.894269e-04 1.027667e-04 -2.116605e-05 -4.155866e-04 -7.274282e-04 -2.600166e-04 -6.283302e-05 6.903633e-05 -8.516949e-05 5.798532e-04
<VARIANCE> 39
 5.164225e+00 5.121012e+00 6.696351e+00 1.240506e+01 1.193131e+01 1.554899e+01 1.552886e+01 1.764399e+01 1.670519e+01 1.719495e+01 1.517577e+01 1.397686e+01 4.055029e+01 2.421910e-01 2.482067e-01 3.106737e-01 5.287972e-01 5.394108e-01 6.909432e-01 6.954729e-01 7.687449e-01 7.457944e-01 7.615345e-01 6.709892e-01 6.094891e-01 1.233150e+00 3.914178e-02 4.463774e-02 5.743035e-02 9.253317e-02 9.973495e-02 1.273011e-01 1.304141e-01 1.413023e-01 1.393848e-01 1.419767e-01 1.260452e-01 1.137320e-01 1.516515e-01
<GCONST> 6.744585e+01
<STATE> 4
<MEAN> 39
 -1.853783e-01 1.001590e-01 -2.729393e-02 5.146818e-02 1.461291e-02 1.015658e-01 1.617707e-02 1.620100e-01 3.676805e-02 7.422778e-02 1.567538e-02 1.086427e-01 5.616671e-01 6.396715e-03 1.917641e-03 7.128494e-03 3.293860e-04 3.056211e-03 -1.633243e-04 -7.152760e-03 -8.138967e-03 -1.536990e-03 -1.283436e-03 -5.979770e-04 -2.949808e-03 1.780906e-02 1.168007e-03 -3.540476e-04 -1.855446e-05 -4.179282e-04 -3.206719e-04 -6.440676e-04 -9.487724e-05 -8.608325e-04 -2.406904e-04 -5.257164e-04 6.808846e-05 -2.856085e-04 -3.755346e-03
<VARIANCE> 39
 5.529407e+00 5.397540e+00 6.864633e+00 1.270026e+01 1.195444e+01 1.578636e+01 1.573591e+01 1.797883e+01 1.692507e+01 1.740512e+01 1.523264e+01 1.415349e+01 3.971688e+01 2.639462e-01 2.652061e-01 3.204030e-01 5.448722e-01 5.423465e-01 7.083226e-01 7.071959e-01 7.824778e-01 7.563160e-01 7.696499e-01 6.729435e-01 6.201769e-01 1.327415e+00 4.236994e-02 4.758086e-02 5.903634e-02 9.460261e-02 1.002619e-01 1.301047e-01 1.320197e-01 1.432089e-01 1.412087e-01 1.429680e-01 1.263337e-01 1.151685e-01 1.634056e-01
<GCONST> 6.843625e+01
<TRANSP> 5
 0.000000e+00 1.000000e+00 0.000000e+00 0.000000e+00 0.000000e+00
 0.000000e+00 7.401758e-01 2.598242e-01 0.000000e+00 0.000000e+00
 0.000000e+00 0.000000e+00 7.401754e-01 2.598245e-01 0.000000e+00
 0.000000e+00 0.000000e+00 0.000000e+00 8.679032e-01 1.320968e-01
 0.000000e+00 0.000000e+00 0.000000e+00 0.000000e+00 0.000000e+00
<ENDHMM>
~h "hh"
<BEGINHMM>
<NUMSTATES> 5
<STATE> 2
<MEAN> 39
 -1.490638e-01 -6.988815e-02 -1.685479e-01 5.990094e-02 -4.199608e-02 1.223657e-03 7.794597e-03 1.314702e-01 2.411558e-02 6.369708e-02 3.937092e-02 5.089304e-02 3.754251e-02 -6.446931e-03 4.664044e-03 3.049120e-03 1.994758e-02 1.585468e-02 1.389042e-02 3.528806e-03 1.048451e-02 3.556093e-04 6.945387e-03 -1.200163e-03 5.422311e-03 7.324109e-02 -9.220875e-04 -2.947132e-04 5.718411e-04 1.025979e-03 2.353947e-04 7.513312e-04 5.173045e-04 3.072710e-04 2.334353e-05 4.948933e-04 -9.190814e-04 -1.649731e-05 6.027720e-03
<VARIANCE> 39
 4.554883e+00 4.231334e+00 6.216272e+00 1.066744e+01 1.134312e+01 1.510945e+01 1.499129e+01 1.688338e+01 1.621407e+01 1.657014e+01 1.487464e+01 1.371820e+01 3.682844e+01 1.822758e-01 1.984003e-01 2.828057e-01 4.278640e-01 4.957178e-01 6.344269e-01 6.547273e-01 7.286728e-01 7.214352e-01 7.219560e-01 6.610271e-01 5.917541e-01 5.969326e-01 2.967616e-02 3.565864e-02 5.282601e-02 7.769241e-02 9.212974e-02 1.169606e-01 1.235807e-01 1.360449e-01 1.360907e-01 1.358047e-01 1.250735e-01 1.109392e-01 7.357617e-02
<GCONST> 6.274970e+01
<STATE> 3
<MEAN> 39
 -1.884545e-01 -6.071177e-02 -1.548527e-01 1.419476e-01 1.527940e-02 6.227850e-02 2.796335e-02 1.735329e-01 2.701328e-02 9.457698e-02 3.074009e-02 7.332292e-02 3.531781e-01 -1.185372e-02 2.570957e-03 3.923659e-03 2.303532e-02 1.631309e-02 1.784717e-02 6.080980e-03 1.232050e-02 7.172478e-04 8.557598e-03 -2.614006e-03 6.959840e-03 9.069715e-02 -1.496056e-03 -6.651878e-04 3.224409e-04 6.309375e-04 -2.664427e-05 9.891585e-04 7.316911e-04 4.270201e-04 6.521159e-05 3.018330e-04 -2.352608e-04 4.062219e-04 4.425950e-03
<VARIANCE> 39
 4.655874e+00 4.245926e+00 6.239275e+00 1.055564e+01 1.131026e+01 1.506687e+01 1.496041e+01 1.691368e+01 1.624965e+01 1.655196e+01 1.486021e+01 1.369939e+01 3.431103e+01 1.914753e-01 2.009222e-01 2.852181e-01 4.324884e-01 4.977804e-01 6.372107e-01 6.574964e-01 7.325137e-01 7.228462e-01 7.236752e-01 6.586344e-01 5.935397e-01 6.651682e-01 3.074329e-02 3.633263e-02 5.331131e-02 7.862005e-02 9.251045e-02 1.174046e-01 1.241517e-01 1.366951e-01 1.362967e-01 1.357360e-01 1.246273e-01 1.110689e-01 7.958291e-02
<GCONST> 6.307071e+01
<STATE> 4
<MEAN> 39
 -2.825006e-01 -6.148779e-02 -1.371994e-01 2.622268e-01 8.949316e-02 1.693863e-01 6.789075e-02 2.438180e-01 3.322415e-02 1.433010e-01 2.205049e-02 1.151412e-01 8.423893e-01 -1.718537e-02 -1.635905e-04 2.617855e-03 2.189766e-02 1.389407e-02 2.069576e-02 7.603119e-03 1.366262e-02 9.668744e-04 8.722864e-03 -1.260884e-03 8.963981e-03 9.043673e-02 -4.230094e-04 -3.977317e-04 -1.828190e-06 -6.094683e-04 -5.800498e-04 1.940304e-05 1.120948e-04 -1.388193e-04 -8.396713e-05 -2.640215e-04 2.683150e-04 1.455834e-04 -1.227926e-03
<VARIANCE> 39
 4.721744e+00 4.228689e+00 6.215686e+00 1.027251e+01 1.122794e+01 1.485956e+01 1.492027e+01 1.699185e+01 1.626718e+01 1.647941e+01 1.481082e+01 1.375648e+01 3.064112e+01 1.962685e-01 1.992726e-01 2.841469e-01 4.304570e-01 4.961479e-01 6.329965e-01 6.599279e-01 7.371292e-01 7.251686e-01 7.216694e-01 6.544011e-01 5.954546e-01 6.871563e-01 3.092311e-02 3.624044e-02 5.297867e-02 7.839610e-02 9.236095e-02 1.165905e-01 1.247484e-01 1.374452e-01 1.366991e-01 1.350830e-01 1.238373e-01 1.113456e-01 8.124089e-02
<GCONST> 6.296340e+01
<TRANSP> 5
 0.000000e+00 1.000000e+00 0.000000e+00 0.000000e+00 0.000000e+00
 0.000000e+00 7.147769e-01 2.852231e-01 0.000000e+00 0.000000e+00
 0.000000e+00 0.000000e+00 7.147769e-01 2.852230e-01 0.000000e+00
 0.000000e+00 0.000000e+00 0.000000e+00 8.361836e-01 1.638164e-01
 0.000000e+00 0.000000e+00 0.000000e+00 0.000000e+00 0.000000e+00
<ENDHMM>
~h "ih"
<BEGINHMM>
<NUMSTATES> 5
<STATE> 2
<MEAN> 39
 -3.453169e-01 -2.196571e-02 -1.217385e-01 -1.969058e-01 -1.693275e-01 -4.050255e-02 -1.152424e-03 5.705199e-02 1.903812e-01 -1.251298e-02 3.685905e-02 -3.097522e-02 2.842806e-01 -8.834436e-03 -2.247225e-04 4.532908e-03 1.022885e-03 -6.063167e-03 5.229420e-03 1.847809e-03 -2.706303e-03 5.209931e-03 4.107005e-03 -1.639978e-03 -1.092709e-03 2.493252e-02 1.125829e-03 -1.403954e-05 4.404847e-04 5.910139e-04 3.746545e-04 2.962275e-04 -5.945459e-05 -3.824874e-04 -4.556228e-04 1.313022e-04 2.482898e-05 1.428419e-04 -1.642335e-03
<VARIANCE> 39
 5.759121e+00 5.448956e+00 7.603724e+00 1.252792e+01 1.254245e+01 1.536245e+01 1.559997e+01 1.723215e+01 1.737752e+01 1.787494e+01 1.550950e+01 1.420687e+01 2.749201e+01 2.782033e-01 2.675162e-01 3.538422e-01 5.400913e-01 5.502572e-01 6.856409e-01 7.014250e-01 7.524436e-01 7.716274e-01 7.934051e-01 6.785165e-01 6.176607e-01 1.056665e+00 4.373224e-02 4.777728e-02 6.450307e-02 9.451602e-02 1.008981e-01 1.248436e-01 1.317411e-01 1.392505e-01 1.438388e-01 1.472826e-01 1.264631e-01 1.141341e-01 1.476869e-01
<GCONST> 6.816184e+01
<STATE> 3
<MEAN> 39
 -3.650050e-01 -2.146549e-02 -9.850883e-02 -1.877694e-01 -1.898592e-01 -1.748804e-02 5.998696e-03 4.773615e-02 2.067932e-01 7.428032e-03 3.265725e-02 -3.072860e-02 3.530249e-01 -3.824236e-03 -4.730059e-04 5.837579e-03 1.694244e-03 -4.960060e-03 5.402978e-03 1.581304e-03 -4.425026e-03 2.970788e-03 4.118033e-03 -1.369410e-03 -1.155877e-03 1.533282e-02 1.549507e-03 -4.624288e-05 3.585550e-04 3.373591e-04 5.217872e-04 8.407595e-05 -5.615315e-05 -4.147397e-04 -7.869446e-04 2.613710e-07 9.347117e-05 8.451727e-05 -2.484737e-03
<VARIANCE> 39
 5.887905e+00 5.552032e+00 7.711336e+00 1.265308e+01 1.269337e+01 1.543052e+01 1.569391e+01 1.736679e+01 1.749481e+01 1.795485e+01 1.554496e+01 1.427678e+01 2.649082e+01 2.883554e-01 2.733572e-01 3.592842e-01 5.478359e-01 5.590397e-01 6.958188e-01 7.076571e-01 7.586491e-01 7.781844e-01 8.000360e-01 6.812684e-01 6.193067e-01 1.099816e+00 4.525668e-02 4.883201e-02 6.547120e-02 9.583181e-02 1.024734e-01 1.267450e-01 1.328470e-01 1.402667e-01 1.447648e-01 1.484615e-01 1.270034e-01 1.144947e-01 1.574289e-01
<GCONST> 6.865302e+01
<STATE> 4
<MEAN> 39
 -3.739467e-01 -1.779991e-02 -5.153529e-02 -1.433117e-01 -1.938411e-01 2.695534e-02 2.181669e-02 4.578237e-02 2.161940e-01 4.574247e-02 3.436941e-02 -1.229687e-02 4.643789e-01 3.015573e-03 -1.580246e-03 6.087354e-03 -1.143374e-03 -4.238293e-03 3.625913e-03 1.177625e-03 -7.194065e-03 -4.456755e-04 2.430154e-03 -1.543157e-03 -2.887582e-03 -2.417269e-03 1.385427e-03 -1.668417e-04 -1.255050e-05 -1.433297e-04 5.364538e-04 -2.824627e-04 -8.866724e-05 -4.675793e-04 -8.575978e-04 -3.837387e-04 -2.840978e-05 -1.788455e-04 -2.560836e-03
<VARIANCE> 39
 6.027881e+00 5.644154e+00 7.759067e+00 1.274840e+01 1.285954e+01 1.552354e+01 1.581404e+01 1.758283e+01 1.760899e+01 1.801354e+01 1.556474e+01 1.435232e+01 2.626712e+01 2.989537e-01 2.784899e-01 3.629351e-01 5.566123e-01 5.714954e-01 7.110763e-01 7.154692e-01 7.654438e-01 7.863682e-01 8.080061e-01 6.836182e-01 6.211157e-01 1.161178e+00 4.669406e-02 4.967628e-02 6.619740e-02 9.741040e-02 1.048100e-01 1.296319e-01 1.342291e-01 1.412455e-01 1.460108e-01 1.499586e-01 1.274658e-01 1.149989e-01 1.701838e-01
<GCONST> 6.922149e+01
<TRANSP> 5
 0.000000e+00 1.000000e+00 0.000000e+00 0.000000e+00 0.000000e+00
 0.000000e+00 7.246814e-01 2.753186e-01 0.000000e+00 0.000000e+00
 0.000000e+00 0.000000e+00 7.246867e-01 2.753133e-01 0.000000e+00
 0.000000e+00 0.000000e+00 0.000000e+00 8.484218e-01 1.515782e-01
 0.000000e+00 0.000000e+00 0.000000e+00 0.000000e+00 0.000000e+00
<ENDHMM>
~h "iy"
<BEGINHMM>
<NUMSTATES> 5
<STATE> 2
<MEAN> 39
 -2.616792e-01 1.068024e-01 -2.627553e-02 2.339525e-01 1.694811e-01 1.906270e-01 6.575906e-02 1.392438e-01 8.989247e-03 1.266868e-01 2.709954e-02 1.014167e-01 1.056229e+00 1.361294e-03 -8.083500e-04 3.352114e-04 3.542315e-03 5.531978e-03 2.200953e-03 -2.754827e-04 -3.441908e-04 -4.598899e-04 1.683824e-03 3.072305e-04 -1.078640e-03 1.136549e-02 3.955751e-04 -6.956204e-04 -1.169222e-04 -6.753004e-04 -1.123404e-03 -3.469164e-04 -2.715867e-04 -6.077371e-06 1.936236e-04 -3.838865e-04 -4.430951e-05 -2.522120e-05 -3.867975e-03
<VARIANCE> 39
 4.700849e+00 5.110682e+00 6.533872e+00 1.048094e+01 1.195656e+01 1.473365e+01 1.505677e+01 1.745095e+01 1.668589e+01 1.700244e+01 1.510386e+01 1.394963e+01 2.674186e+01 1.720759e-01 2.494732e-01 3.029119e-01 4.438935e-01 5.355812e-01 6.441953e-01 6.692347e-01 7.612773e-01 7.420251e-01 7.402989e-01 6.690266e-01 6.109437e-01 5.694795e-01 2.711854e-02 4.425979e-02 5.577691e-02 7.904311e-02 9.819105e-02 1.178023e-01 1.248914e-01 1.401378e-01 1.385151e-01 1.371317e-01 1.259508e-01 1.139502e-01 6.306873e-02
<GCONST> 6.353461e+01
<STATE> 3
<MEAN> 39
 -2.510881e-01 1.012789e-01 -2.597819e-02 2.376855e-01 1.839325e-01 1.914280e-01 6.171974e-02 1.345741e-01 8.085927e-03 1.297999e-01 2.720367e-02 9.601346e-02 1.061677e+00 3.155369e-03 -3.020726e-03 4.489264e-04 1.162356e-03 1.039868e-03 8.678037e-04 -1.109092e-03 -3.577798e-04 2.373381e-04 1.864876e-04 3.728041e-06 -1.107262e-03 -3.324617e-03 4.709326e-04 -4.783933e-04 8.585204e-05 -4.913748e-04 -1.037522e-03 -3.742746e-04 -1.295030e-04 4.239933e-05 1.575605e-04 -4.222100e-04 -1.362726e-04 2.993949e-05 -3.531905e-03
<VARIANCE> 39
 4.821146e+00 5.022292e+00 6.505504e+00 1.041168e+01 1.193999e+01 1.470877e+01 1.505652e+01 1.745980e+01 1.667314e+01 1.698565e+01 1.509597e+01 1.397184e+01 2.621853e+01 1.688535e-01 2.423920e-01 2.994229e-01 4.397329e-01 5.337426e-01 6.423410e-01 6.679969e-01 7.585619e-01 7.391543e-01 7.375521e-01 6.678265e-01 6.098155e-01 5.325049e-01 2.652438e-02 4.299489e-02 5.511350e-02 7.831874e-02 9.768929e-02 1.174890e-01 1.245761e-01 1.396485e-01 1.378785e-01 1.365305e-01 1.256782e-01 1.136855e-01 5.931836e-02
<GCONST> 6.318868e+01
<STATE> 4
<MEAN> 39
 -2.338843e-01 8.691163e-02 -2.408940e-02 2.376691e-01 1.874538e-01 1.888902e-01 5.539378e-02 1.322897e-01 1.248441e-02 1.290558e-01 2.279652e-02 8.998803e-02 1.029120e+00 6.625388e-03 -4.456918e-03 1.330070e-03 -1.382478e-03 -3.816795e-03 -1.127340e-03 -1.653445e-03 -7.279290e-04 7.643232e-04 -2.154666e-03 -1.140407e-03 -1.315587e-03 -2.111965e-02 5.675796e-04 -1.698652e-04 1.599096e-04 -1.963438e-04 -5.668479e-04 -4.065167e-04 -1.580972e-05 -4.289432e-05 1.025938e-04 -3.927524e-04 -1.788120e-04 -3.355169e-05 -2.471451e-03
<VARIANCE> 39
 5.022603e+00 4.876101e+00 6.451300e+00 1.034208e+01 1.187157e+01 1.467379e+01 1.508578e+01 1.745315e+01 1.664192e+01 1.693370e+01 1.506265e+01 1.398749e+01 2.692404e+01 1.649613e-01 2.301871e-01 2.945519e-01 4.350294e-01 5.284885e-01 6.383898e-01 6.661875e-01 7.524669e-01 7.345545e-01 7.323973e-01 6.647654e-01 6.087728e-01 4.921204e-01 2.582793e-02 4.086009e-02 5.422688e-02 7.758885e-02 9.659936e-02 1.168579e-01 1.241407e-01 1.385570e-01 1.370473e-01 1.355089e-01 1.250529e-01 1.136006e-01 5.547668e-02
<GCONST> 6.275423e+01
<TRANSP> 5
 0.000000e+00 1.000000e+00 0.000000e+00 0.000000e+00 0.000000e+00
 0.000000e+00 7.237917e-01 2.762083e-01 0.000000e+00 0.000000e+00
 0.000000e+00 0.000000e+00 7.237868e-01 2.762133e-01 0.000000e+00
 0.000000e+00 0.000000e+00 0.000000e+00 8.470414e-01 1.529586e-01
 0.000000e+00 0.000000e+00 0.000000e+00 0.000000e+00 0.000000e+00
<ENDHMM>
~h "ow"
<BEGINHMM>
<NUMSTATES> 5
<STATE> 2
<MEAN> 39
 -9.114184e-02 -6.635516e-02 -5.897376e-02 1.891397e-01 1.100267e-01 9.663858e-02 5.882792e-02 1.006247e-01 -3.801883e-04 9.289201e-02 1.484821e-02 5.916778e-02 5.964195e-01 1.519305e-02 -3.948032e-04 5.198990e-03 -1.593027e-03 7.153967e-03 -6.461859e-03 -3.886642e-03 -8.763257e-03 -2.133728e-03 -3.863052e-03 -1.817511e-03 -6.717840e-03 -1.764530e-02 -6.987277e-04 4.880769e-04 2.197768e-05 -5.837798e-05 -7.134128e-04 4.738896e-04 1.730303e-04 4.078053e-04 3.466060e-04 -4.319631e-05 -2.229529e-05 3.184741e-04 -3.189841e-04
<VARIANCE> 39
 5.934549e+00 4.382781e+00 6.366488e+00 1.002007e+01 1.209228e+01 1.478398e+01 1.532879e+01 1.774116e+01 1.678238e+01 1.692657e+01 1.500561e+01 1.395164e+01 3.205297e+01 1.941552e-01 1.953928e-01 2.860584e-01 4.189000e-01 5.273382e-01 6.312363e-01 6.781181e-01 7.628662e-01 7.451428e-01 7.377335e-01 6.588141e-01 6.036605e-01 6.536325e-01 2.975888e-02 3.486625e-02 5.275039e-02 7.508706e-02 9.634477e-02 1.157128e-01 1.261043e-01 1.406155e-01 1.394086e-01 1.373862e-01 1.238920e-01 1.128441e-01 7.264247e-02
<GCONST> 6.346684e+01
<STATE> 3
<MEAN> 39
 -3.010924e-02 -6.722140e-02 -3.779356e-02 1.883803e-01 1.417709e-01 7.846283e-02 4.213687e-02 6.679668e-02 -8.779527e-03 7.807622e-02 6.404676e-03 3.328812e-02 5.457689e-01 1.313670e-02 1.828896e-03 4.975532e-03 -2.528710e-03 3.769494e-03 -5.306760e-03 -3.526303e-03 -7.542415e-03 -9.909208e-04 -4.024317e-03 -1.831122e-03 -5.521296e-03 -2.291954e-02 -9.607979e-04 6.898607e-04 -1.313873e-04 -5.300667e-05 -9.349562e-04 7.195240e-04 3.297143e-04 7.285161e-04 3.709003e-04 1.403169e-04 1.151569e-05 5.733112e-04 -2.246187e-05
<VARIANCE> 39
 6.310042e+00 4.500051e+00 6.459295e+00 1.000926e+01 1.215645e+01 1.486369e+01 1.541347e+01 1.792707e+01 1.691009e+01 1.704003e+01 1.505436e+01 1.400316e+01 3.166740e+01 1.961399e-01 1.969004e-01 2.864830e-01 4.194985e-01 5.291545e-01 6.343012e-01 6.804511e-01 7.643402e-01 7.493725e-01 7.415789e-01 6.611813e-01 6.045067e-01 6.631945e-01 3.009389e-02 3.495470e-02 5.269416e-02 7.495821e-02 9.648725e-02 1.159158e-01 1.265022e-01 1.406733e-01 1.401109e-01 1.379825e-01 1.242733e-01 1.128799e-01 7.296197e-02
<GCONST> 6.370332e+01
<STATE> 4
<MEAN> 39
 1.121861e-02 -6.187653e-02 -2.262095e-02 2.050596e-01 1.824405e-01 9.343784e-02 3.209072e-02 5.072716e-02 -1.456567e-02 7.385806e-02 -2.864616e-03 1.857413e-02 6.156678e-01 1.489089e-02 4.840927e-03 4.843371e-03 -4.319886e-03 1.055591e-04 -5.687377e-03 -3.904959e-03 -7.581424e-03 -1.164301e-03 -4.926217e-03 -1.949775e-03 -4.465184e-03 -3.690342e-02 -6.895885e-04 7.311975e-04 -8.245765e-05 -2.535545e-04 -1.030997e-03 3.321175e-04 2.660889e-04 6.020672e-04 1.654368e-04 9.808528e-05 8.192989e-05 5.069203e-04 -9.950475e-04
<VARIANCE> 39
 6.730717e+00 4.589329e+00 6.519256e+00 9.948339e+00 1.216382e+01 1.489385e+01 1.546009e+01 1.813641e+01 1.706444e+01 1.714914e+01 1.509738e+01 1.403822e+01 3.234467e+01 1.998348e-01 1.961309e-01 2.854599e-01 4.175560e-01 5.300119e-01 6.345511e-01 6.821622e-01 7.657212e-01 7.547362e-01 7.467239e-01 6.643682e-01 6.052179e-01 6.513340e-01 3.027419e-02 3.465481e-02 5.232971e-02 7.457171e-02 9.649169e-02 1.157515e-01 1.270048e-01 1.408057e-01 1.410067e-01 1.388337e-01 1.248073e-01 1.129657e-01 7.147799e-02
<GCONST> 6.385057e+01
<TRANSP> 5
 0.000000e+00 1.000000e+00 0.000000e+00 0.000000e+00 0.000000e+00
 0.000000e+00 7.419709e-01 2.580291e-01 0.000000e+00 0.000000e+00
 0.000000e+00 0.000000e+00 7.419726e-01 2.580273e-01 0.000000e+00
 0.000000e+00 0.000000e+00 0.000000e+00 8.725786e-01 1.274215e-01
 0.000000e+00 0.000000e+00 0.000000e+00 0.000000e+00 0.000000e+00
<ENDHMM>
~h "th"
<BEGINHMM>
<NUMSTATES> 5
<STATE> 2
<MEAN> 39
 -7.939630e-02 -1.462573e-02 -5.916432e-02 -1.142535e-01 -1.007160e-01 -6.924497e-02 2.348895e-02 4.981727e-02 2.256825e-02 -5.000164e-03 7.655548e-03 4.257943e-02 -1.230995e-01 -1.559237e-02 2.460552e-03 3.385119e-03 1.292154e-02 1.302014e-02 1.063041e-02 5.055052e-03 9.061808e-03 1.175709e-03 7.748145e-03 1.608259e-03 5.283967e-03 7.012052e-02 -7.139199e-04 -1.307329e-04 3.213370e-04 1.066726e-03 9.313836e-04 8.670113e-04 -3.291448e-04 1.266723e-04 3.552466e-04 -2.443015e-04 -4.939580e-04 -8.101146e-05 4.375681e-03
<VARIANCE> 39
 4.348564e+00 4.539881e+00 6.379220e+00 1.107306e+01 1.153769e+01 1.512872e+01 1.483377e+01 1.700776e+01 1.649538e+01 1.676944e+01 1.477139e+01 1.355884e+01 3.644721e+01 1.862441e-01 2.171165e-01 3.052883e-01 4.706675e-01 5.134686e-01 6.579146e-01 6.566110e-01 7.476871e-01 7.411976e-01 7.398520e-01 6.584393e-01 5.911376e-01 8.245782e-01 3.134328e-02 3.989826e-02 5.756965e-02 8.445071e-02 9.615220e-02 1.202350e-01 1.236619e-01 1.393659e-01 1.398458e-01 1.382653e-01 1.245412e-01 1.114233e-01 1.015101e-01
<GCONST> 6.440405e+01
<STATE> 3
<MEAN> 39
 -1.478182e-01 -6.886157e-03 -4.722437e-02 -5.362824e-02 -4.863457e-02 -1.655035e-02 3.929647e-02 8.883853e-02 3.080671e-02 2.449377e-02 1.163160e-02 6.364555e-02 1.932612e-01 -1.694872e-02 3.090334e-03 3.428693e-03 1.609386e-02 1.458980e-02 1.331534e-02 3.511549e-03 9.175385e-03 1.227336e-03 7.657140e-03 9.785724e-04 5.528112e-03 8.168065e-02 -5.626083e-05 2.543128e-04 1.556296e-05 5.452873e-04 3.768073e-04 4.682463e-04 -4.687765e-04 -2.129322e-04 -7.849748e-05 -1.192838e-04 -1.937474e-04 -9.116250e-05 2.204995e-03
<VARIANCE> 39
 4.335962e+00 4.570218e+00 6.395642e+00 1.109496e+01 1.148881e+01 1.510876e+01 1.486382e+01 1.703480e+01 1.650061e+01 1.675653e+01 1.477684e+01 1.360811e+01 3.420721e+01 1.853238e-01 2.184298e-01 3.071315e-01 4.756352e-01 5.161619e-01 6.598915e-01 6.608071e-01 7.488523e-01 7.434910e-01 7.397556e-01 6.592979e-01 5.938603e-01 8.483122e-01 3.089637e-02 4.004692e-02 5.786933e-02 8.514208e-02 9.656930e-02 1.205257e-01 1.245224e-01 1.393361e-01 1.403059e-01 1.382077e-01 1.246797e-01 1.119429e-01 1.016305e-01
<GCONST> 6.444747e+01
<STATE> 4
<MEAN> 39
 -2.645898e-01 6.506468e-03 -3.610428e-02 6.676048e-02 2.779882e-02 8.866357e-02 5.914052e-02 1.561424e-01 3.872857e-02 8.211880e-02 2.180002e-02 1.017402e-01 7.318203e-01 -1.440582e-02 4.221531e-03 2.163109e-03 1.813592e-02 1.399112e-02 1.482692e-02 2.266106e-03 7.927862e-03 -7.752758e-04 7.988652e-03 1.281637e-03 5.580882e-03 7.508130e-02 9.577893e-04 2.754393e-04 -8.519784e-05 -2.737021e-04 -1.969446e-05 -3.125772e-04 -2.605853e-04 -6.822378e-04 -3.997875e-04 -2.337748e-04 -4.320590e-05 -3.392706e-04 -2.772478e-03
<VARIANCE> 39
 4.324399e+00 4.571113e+00 6.368201e+00 1.102009e+01 1.144474e+01 1.505199e+01 1.493836e+01 1.708525e+01 1.653828e+01 1.670370e+01 1.481390e+01 1.365170e+01 3.148013e+01 1.781476e-01 2.178461e-01 3.048162e-01 4.712414e-01 5.174599e-01 6.572499e-01 6.634532e-01 7.471468e-01 7.418879e-01 7.350451e-01 6.600428e-01 5.938554e-01 8.187216e-01 2.924545e-02 3.985576e-02 5.731498e-02 8.408106e-02 9.657366e-02 1.199845e-01 1.251669e-01 1.389789e-01 1.399674e-01 1.373602e-01 1.250270e-01 1.118493e-01 9.536318e-02
<GCONST> 6.410030e+01
<TRANSP> 5
 0.000000e+00 1.000000e+00 0.000000e+00 0.000000e+00 0.000000e+00
 0.000000e+00 7.292570e-01 2.707430e-01 0.000000e+00 0.000000e+00
 0.000000e+00 0.000000e+00 7.292571e-01 2.707428e-01 0.000000e+00
 0.000000e+00 0.000000e+00 0.000000e+00 8.537244e-01 1.462757e-01
 0.000000e+00 0.000000e+00 0.000000e+00 0.000000e+00 0.000000e+00
<ENDHMM>
~h "uw"
<BEGINHMM>
<NUMSTATES> 5
<STATE> 2
<MEAN> 39
 -1.273292e-01 2.648246e-02 -3.426638e-03 2.085233e-01 1.514026e-01 8.550854e-02 4.664275e-03 1.468667e-01 -2.301332e-03 7.483728e-02 4.340264e-02 7.547418e-02 7.554491e-01 1.338842e-02 -1.360445e-03 7.958630e-03 5.012897e-03 4.880517e-03 -1.047219e-03 -2.292077e-03 -7.183364e-03 -5.433291e-03 -5.174819e-03 -2.197237e-03 -5.663348e-03 5.537013e-03 3.514229e-05 3.450518e-04 -1.663755e-04 -8.799993e-04 -1.353007e-03 -2.124682e-04 4.454227e-04 1.193635e-04 2.889287e-04 -1.746078e-04 -1.787982e-04 1.921178e-04 -5.108732e-03
<VARIANCE> 39
 6.421627e+00 4.757649e+00 6.810281e+00 1.077780e+01 1.205506e+01 1.548702e+01 1.542222e+01 1.752232e+01 1.693668e+01 1.705857e+01 1.535512e+01 1.401686e+01 3.453469e+01 2.332676e-01 2.238754e-01 3.134845e-01 4.722017e-01 5.382284e-01 6.716291e-01 6.753693e-01 7.633023e-01 7.498403e-01 7.518804e-01 6.857638e-01 6.146708e-01 9.792192e-01 3.637777e-02 4.026024e-02 5.786537e-02 8.411840e-02 9.870339e-02 1.218001e-01 1.253153e-01 1.398650e-01 1.401468e-01 1.405797e-01 1.285120e-01 1.152081e-01 1.170908e-01
<GCONST> 6.619949e+01
<STATE> 3
<MEAN> 39
 -5.901314e-02 2.034233e-02 2.888109e-02 2.175794e-01 1.649923e-01 7.242585e-02 -4.153844e-03 1.132775e-01 -2.438320e-02 5.322010e-02 3.341244e-02 4.986794e-02 7.165696e-01 1.407340e-02 4.052680e-04 6.933394e-03 5.686730e-04 -3.953995e-04 -2.827363e-03 -1.147539e-03 -7.062689e-03 -4.247094e-03 -5.685036e-03 -2.654269e-03 -4.999948e-03 -1.734266e-02 -4.225273e-04 4.023684e-04 -4.511631e-04 -8.441419e-04 -1.180220e-03 -1.297717e-04 4.714649e-04 4.769966e-04 3.989192e-04 1.462269e-04 -1.024053e-04 4.019847e-04 -4.348158e-03
<VARIANCE> 39
 6.731964e+00 4.828198e+00 6.893783e+00 1.074824e+01 1.207496e+01 1.552315e+01 1.549002e+01 1.772517e+01 1.702160e+01 1.712937e+01 1.540250e+01 1.406376e+01 3.362460e+01 2.274108e-01 2.244395e-01 3.119907e-01 4.713046e-01 5.374775e-01 6.715237e-01 6.760126e-01 7.669964e-01 7.518754e-01 7.531193e-01 6.877161e-01 6.145737e-01 8.826069e-01 3.539455e-02 4.012342e-02 5.729862e-02 8.370052e-02 9.828379e-02 1.214687e-01 1.252048e-01 1.403130e-01 1.404939e-01 1.407505e-01 1.288829e-01 1.150429e-01 1.048677e-01
<GCONST> 6.600197e+01
<STATE> 4
<MEAN> 39
 2.106279e-02 5.805808e-03 6.435665e-02 2.248580e-01 1.716256e-01 6.526314e-02 -2.572456e-03 7.860159e-02 -4.020059e-02 4.005194e-02 1.978850e-02 2.438619e-02 6.670718e-01 1.612373e-02 2.966816e-03 5.018744e-03 -5.710402e-03 -4.734984e-03 -6.042546e-03 -1.116590e-03 -7.761321e-03 -3.522510e-03 -6.331491e-03 -2.989476e-03 -4.808136e-03 -4.532218e-02 -8.728762e-04 4.380582e-04 -5.938411e-04 -5.178630e-04 -6.776540e-04 7.752452e-05 4.263661e-04 4.771566e-04 1.984961e-04 6.150347e-05 2.422721e-05 3.122162e-04 -2.015030e-03
<VARIANCE> 39
 6.956688e+00 4.881126e+00 6.909751e+00 1.066604e+01 1.210141e+01 1.552494e+01 1.557236e+01 1.785950e+01 1.703325e+01 1.714804e+01 1.540139e+01 1.407453e+01 3.319444e+01 2.200831e-01 2.245525e-01 3.070010e-01 4.666154e-01 5.372517e-01 6.692172e-01 6.768543e-01 7.693118e-01 7.527593e-01 7.538548e-01 6.873682e-01 6.126514e-01 7.513909e-01 3.390180e-02 3.989949e-02 5.602683e-02 8.270706e-02 9.799451e-02 1.207517e-01 1.249761e-01 1.407326e-01 1.407449e-01 1.405540e-01 1.289626e-01 1.144389e-01 8.884208e-02
<GCONST> 6.556378e+01
<TRANSP> 5
 0.000000e+00 1.000000e+00 0.000000e+00 0.000000e+00 0.000000e+00
 0.000000e+00 7.403609e-01 2.596391e-01 0.000000e+00 0.000000e+00
 0.000000e+00 0.000000e+00 7.403558e-01 2.596442e-01 0.000000e+00
 0.000000e+00 0.000000e+00 0.000000e+00 8.671550e-01 1.328451e-01
 0.000000e+00 0.000000e+00 0.000000e+00 0.000000e+00 0.000000e+00
<ENDHMM>
~h "sil"
<BEGINHMM>
<NUMSTATES> 5
<STATE> 2
<MEAN> 39
 9.671055e-01 -1.763640e-02 1.061173e-01 -6.539607e-01 -2.992483e-01 -5.465171e-01 -2.708164e-01 -5.527418e-01 -1.382333e-01 -3.790614e-01 -1.211981e-01 -3.555380e-01 -3.361018e+00 -8.024368e-05 1.466422e-02 -6.924678e-03 -1.379030e-03 -1.077731e-02 -1.516532e-02 6.340623e-03 1.331959e-02 -1.757069e-04 -1.253641e-03 2.609489e-03 4.569575e-03 -8.081943e-02 -1.458384e-03 9.777080e-04 -8.228100e-04 7.295642e-04 6.263190e-04 1.320074e-03 4.134880e-04 -9.606110e-06 2.677201e-04 1.533262e-03 1.432189e-03 6.785407e-05 5.260154e-03
<VARIANCE> 39
 6.274553e+00 5.508083e+00 7.160759e+00 1.171013e+01 1.247520e+01 1.532516e+01 1.578933e+01 1.874907e+01 1.694160e+01 1.699899e+01 1.489433e+01 1.398549e+01 4.896513e+01 1.432850e-01 2.145682e-01 3.070144e-01 4.620664e-01 5.465280e-01 6.755299e-01 7.246873e-01 8.253283e-01 8.072038e-01 7.926254e-01 7.140564e-01 6.545417e-01 2.103018e-01 1.935734e-02 3.038098e-02 4.500141e-02 6.681181e-02 8.059992e-02 9.910575e-02 1.079517e-01 1.199975e-01 1.192625e-01 1.175673e-01 1.069042e-01 9.640052e-02 1.906326e-02
<GCONST> 6.054998e+01
<STATE> 3
<MEAN> 39
 9.618426e-01 4.731258e-02 8.003303e-02 -6.590484e-01 -3.374110e-01 -5.968294e-01 -2.430526e-01 -5.072678e-01 -1.412689e-01 -3.794812e-01 -1.031190e-01 -3.378400e-01 -3.630000e+00 -6.996620e-03 1.667571e-02 -7.681053e-03 1.978437e-03 -7.886004e-03 -9.471822e-03 8.570017e-03 1.377745e-02 3.908124e-04 1.288528e-03 6.018270e-03 7.416057e-03 -4.845462e-02 -9.622374e-04 -9.775443e-05 3.446699e-04 6.602310e-04 8.629121e-04 1.159984e-03 -9.626504e-05 -6.539421e-04 -4.362120e-05 5.041645e-05 5.256499e-04 4.850569e-04 8.288053e-03
<VARIANCE> 39
 6.119949e+00 5.389388e+00 6.896940e+00 1.136278e+01 1.209737e+01 1.504283e+01 1.547222e+01 1.803556e+01 1.664330e+01 1.669404e+01 1.476147e+01 1.375529e+01 5.068445e+01 1.322142e-01 1.963793e-01 2.797313e-01 4.303481e-01 5.051882e-01 6.263929e-01 6.728342e-01 7.590327e-01 7.436423e-01 7.346264e-01 6.654641e-01 6.028190e-01 2.162472e-01 2.068247e-02 3.279512e-02 4.921641e-02 7.458676e-02 8.945209e-02 1.106568e-01 1.202036e-01 1.342100e-01 1.337071e-01 1.319890e-01 1.198069e-01 1.083356e-01 2.249317e-02
<GCONST> 6.077433e+01
<STATE> 4
<MEAN> 39
 8.155240e-01 1.157233e-01 6.502476e-02 -5.517777e-01 -3.094347e-01 -5.550697e-01 -1.753072e-01 -4.036416e-01 -1.295960e-01 -3.304820e-01 -7.048014e-02 -2.735067e-01 -3.232885e+00 -1.701566e-02 1.152391e-02 -4.258398e-03 1.048574e-02 -2.301648e-03 9.238387e-04 8.684109e-03 1.543342e-02 2.697207e-03 4.626949e-03 4.777849e-03 8.666716e-03 2.431952e-02 -9.607428e-04 -1.342776e-03 8.392435e-04 1.093545e-03 5.416772e-04 1.434853e-03 -6.443875e-04 1.386194e-04 2.924894e-04 6.358724e-04 -1.456036e-04 1.339448e-04 1.069331e-02
<VARIANCE> 39
 6.242784e+00 5.370556e+00 6.779250e+00 1.117214e+01 1.185092e+01 1.499207e+01 1.527404e+01 1.751919e+01 1.653986e+01 1.661531e+01 1.466642e+01 1.362400e+01 4.994380e+01 1.450288e-01 2.023537e-01 2.888811e-01 4.491504e-01 5.220758e-01 6.481481e-01 6.914446e-01 7.727004e-01 7.600510e-01 7.544961e-01 6.800206e-01 6.187319e-01 3.999821e-01 2.216557e-02 3.248437e-02 4.792957e-02 7.305136e-02 8.665594e-02 1.068009e-01 1.148242e-01 1.275690e-01 1.270258e-01 1.256583e-01 1.138292e-01 1.028290e-01 4.234121e-02
<GCONST> 6.194720e+01
<TRANSP> 5
 0.000000e+00 1.000000e+00 0.000000e+00 0.000000e+00 0.000000e+00
 0.000000e+00 7.455983e-01 2.544017e-01 0.000000e+00 0.000000e+00
 0.000000e+00 0.000000e+00 7.455902e-01 2.544098e-01 0.000000e+00
 0.000000e+00 0.000000e+00 0.000000e+00 8.743170e-01 1.256830e-01
 0.000000e+00 0.000000e+00 0.000000e+00 0.000000e+00 0.000000e+00
<ENDHMM>
