~o
<STREAMINFO> 1 39
<VECSIZE> 39<NULLD><MFCC_D_A_Z_0><DIAGC>
~v "varFloor1"
<VARIANCE> 39
 5.653673e-02 4.886588e-02 6.880558e-02 1.097444e-01 1.173968e-01 1.501360e-01 1.524483e-01 1.769248e-01 1.673871e-01 1.699316e-01 1.501835e-01 1.395998e-01 3.516366e-01 1.948883e-03 2.195148e-03 3.084339e-03 4.548327e-03 5.169705e-03 6.475277e-03 6.752422e-03 7.581503e-03 7.468139e-03 7.484302e-03 6.703977e-03 6.097627e-03 6.117719e-03 3.081363e-04 3.835776e-04 5.522510e-04 7.938185e-04 9.348416e-04 1.158605e-03 1.234846e-03 1.362727e-03 1.366371e-03 1.361924e-03 1.233620e-03 1.112660e-03 7.270522e-04
~s "silst"
<NUMMIXES> 2
<MIXTURE> 1 5.000000e-01
<MEAN> 39
 6.746271e-01 2.343422e-01 1.011017e-01 -1.641842e-01 1.376320e-01 2.311612e-01 5.011770e-01 7.961538e-01 7.472859e-01 9.102455e-01 7.783031e-01 6.959098e-01 6.405652e-01 8.857422e-02 4.618963e-02 5.217743e-02 1.261891e-02 5.680270e-02 5.821808e-02 1.281330e-01 1.450729e-01 1.539119e-01 1.510295e-01 1.710097e-01 1.345647e-01 2.786890e-03 2.065982e-02 2.464330e-02 5.009883e-02 8.049842e-02 9.181795e-02 9.568597e-02 9.463909e-02 7.958970e-02 7.609826e-02 6.763322e-02 7.662082e-02 6.540512e-02 1.197074e-02
<VARIANCE> 39
 2.818683e+00 3.246022e+00 5.171461e+00 1.297929e+01 1.111731e+01 1.483941e+01 1.520211e+01 1.679387e+01 1.688673e+01 1.702198e+01 1.591521e+01 1.370704e+01 6.966985e+00 8.519544e-02 1.316550e-01 2.353209e-01 4.936812e-01 5.256938e-01 6.690494e-01 7.083588e-01 7.973550e-01 8.241282e-01 8.226467e-01 7.851437e-01 6.408083e-01 2.848281e-02 1.448144e-02 2.330536e-02 4.261478e-02 8.846226e-02 9.755511e-02 1.238452e-01 1.343141e-01 1.485609e-01 1.536762e-01 1.554285e-01 1.478174e-01 1.198035e-01 4.778351e-03
<GCONST> 5.382289e+01
<MIXTURE> 2 5.000000e-01
<MEAN> 39
 3.069729e-03 -4.863266e-01 -8.085321e-01 -1.605255e+00 -1.196073e+00 -1.309717e+00 -1.058418e+00 -8.430593e-01 -8.964528e-01 -7.400627e-01 -8.174517e-01 -7.850110e-01 -4.152367e-01 -2.817882e-02 -9.894755e-02 -1.418621e-01 -2.684309e-01 -2.332163e-01 -2.689637e-01 -2.085232e-01 -2.121061e-01 -2.092142e-01 -2.117700e-01 -1.834236e-01 -1.856374e-01 -6.472051e-02 -2.747572e-02 -3.642108e-02 -3.247457e-02 -3.847200e-02 -3.311731e-02 -4.508062e-02 -5.195647e-02 -7.458470e-02 -8.070797e-02 -9.006447e-02 -7.716730e-02 -7.304545e-02 -1.567951e-02
<VARIANCE> 39
 2.818683e+00 3.246022e+00 5.171461e+00 1.297929e+01 1.111731e+01 1.483941e+01 1.520211e+01 1.679387e+01 1.688673e+01 1.702198e+01 1.591521e+01 1.370704e+01 6.966985e+00 8.519544e-02 1.316550e-01 2.353209e-01 4.936812e-01 5.256938e-01 6.690494e-01 7.083588e-01 7.973550e-01 8.241282e-01 8.226467e-01 7.851437e-01 6.408083e-01 2.848281e-02 1.448144e-02 2.330536e-02 4.261478e-02 8.846226e-02 9.755511e-02 1.238452e-01 1.343141e-01 1.485609e-01 1.536762e-01 1.554285e-01 1.478174e-01 1.198035e-01 4.778351e-03
<GCONST> 5.382289e+01
~h "f"
<BEGINHMM>
<NUMSTATES> 5
<STATE> 2
<NUMMIXES> 2
<MIXTURE> 1 5.000000e-01
<MEAN> 39
 8.345618e-01 1.297124e-01 2.934794e-01 -1.384296e+00 -8.025724e-01 -1.576505e+00 6.872129e-02 -4.229436e-01 3.819542e-01 -3.342577e-01 5.141686e-01 -1.068963e-01 -3.528692e+00 3.397974e-02 4.468627e-02 1.253722e-01 8.213244e-02 1.605045e-01 8.224873e-02 2.064478e-01 1.791786e-01 1.908709e-01 1.599506e-01 2.183347e-01 1.620842e-01 1.935981e-01 3.273845e-02 4.968820e-02 8.542770e-02 1.669155e-01 1.582818e-01 1.952742e-01 1.451322e-01 1.519473e-01 1.323695e-01 1.309591e-01 9.749397e-02 1.091804e-01 1.463132e-01
<VARIANCE> 39
 6.256235e+00 6.690100e+00 7.383647e+00 1.329989e+01 1.127830e+01 1.652173e+01 1.535031e+01 1.790269e+01 1.688378e+01 1.670150e+01 1.463090e+01 1.431188e+01 7.784882e+01 2.667846e-01 2.997405e-01 3.516634e-01 5.699246e-01 5.273876e-01 7.049975e-01 6.804336e-01 8.171535e-01 7.551229e-01 7.235693e-01 6.834554e-01 6.302731e-01 5.624360e-01 4.599936e-02 5.692171e-02 6.936523e-02 1.122881e-01 1.019128e-01 1.388422e-01 1.351485e-01 1.582957e-01 1.496699e-01 1.359020e-01 1.269482e-01 1.206882e-01 1.038461e-01
<GCONST> 6.920949e+01
<MIXTURE> 2 5.000000e-01
<MEAN> 39
 -1.659368e-01 -9.048966e-01 -7.934352e-01 -2.843056e+00 -2.145900e+00 -3.202383e+00 -1.498458e+00 -2.115407e+00 -1.261641e+00 -1.968956e+00 -1.015846e+00 -1.620138e+00 -7.057971e+00 -1.726251e-01 -1.743080e-01 -1.118327e-01 -2.198410e-01 -1.299814e-01 -2.536078e-01 -1.235058e-01 -1.824076e-01 -1.567204e-01 -1.803009e-01 -1.123508e-01 -1.554748e-01 -1.063848e-01 -5.305139e-02 -4.574488e-02 -1.992142e-02 3.287783e-02 3.058667e-02 4.622803e-02 -1.917958e-03 -7.198296e-03 -2.237932e-02 -1.650048e-02 -4.502519e-02 -2.978046e-02 1.741257e-02
<VARIANCE> 39
 6.256235e+00 6.690100e+00 7.383647e+00 1.329989e+01 1.127830e+01 1.652173e+01 1.535031e+01 1.790269e+01 1.688378e+01 1.670150e+01 1.463090e+01 1.431188e+01 7.784882e+01 2.667846e-01 2.997405e-01 3.516634e-01 5.699246e-01 5.273876e-01 7.049975e-01 6.804336e-01 8.171535e-01 7.551229e-01 7.235693e-01 6.834554e-01 6.302731e-01 5.624360e-01 4.599936e-02 5.692171e-02 6.936523e-02 1.122881e-01 1.019128e-01 1.388422e-01 1.351485e-01 1.582957e-01 1.496699e-01 1.359020e-01 1.269482e-01 1.206882e-01 1.038461e-01
<GCONST> 6.920949e+01
<STATE> 3
<NUMMIXES> 2
<MIXTURE> 1 5.000000e-01
<MEAN> 39
 6.580585e-02 -1.284424e-01 1.100766e+00 -1.849278e-01 2.780604e-01 -7.762350e-01 1.016153e+00 2.155396e-01 9.498684e-01 1.544975e-01 1.151409e+00 2.330695e-01 6.212395e-01 8.873968e-02 2.054051e-01 9.508839e-02 4.550162e-01 3.004329e-01 5.209278e-01 2.366392e-01 4.298528e-01 2.249294e-01 3.797841e-01 1.922927e-01 3.244663e-01 1.149700e+00 3.937915e-02 7.166087e-02 5.008392e-02 1.068380e-01 9.092445e-02 1.387483e-01 9.565823e-02 1.237542e-01 1.010933e-01 1.083420e-01 8.492559e-02 9.499982e-02 1.459586e-01
<VARIANCE> 39
 1.326544e+01 1.215552e+01 1.152734e+01 1.841715e+01 1.556330e+01 2.353278e+01 1.840401e+01 2.229287e+01 1.915737e+01 2.010629e+01 1.680156e+01 1.577433e+01 7.260604e+01 7.769680e-01 6.201547e-01 6.111854e-01 9.938050e-01 7.293615e-01 1.227470e+00 8.393513e-01 1.091656e+00 8.965932e-01 9.767823e-01 7.797710e-01 7.649055e-01 3.464175e+00 1.300756e-01 1.034740e-01 1.052853e-01 1.600631e-01 1.319903e-01 1.962937e-01 1.563423e-01 1.865182e-01 1.655192e-01 1.709790e-01 1.443824e-01 1.369798e-01 3.950097e-01
<GCONST> 8.502684e+01
<MIXTURE> 2 5.000000e-01
<MEAN> 39
 -1.391064e+00 -1.523033e+00 -2.573112e-01 -1.901536e+00 -1.299954e+00 -2.716659e+00 -6.998432e-01 -1.673074e+00 -8.008969e-01 -1.639104e+00 -4.881791e-01 -1.355607e+00 -2.787127e+00 -2.638435e-01 -1.095945e-01 -2.176250e-01 5.625716e-02 -4.117772e-02 7.776281e-02 -1.298252e-01 1.192340e-02 -1.538251e-01 -1.554510e-02 -1.609259e-01 -2.536915e-02 4.052081e-01 -1.048848e-01 -5.700863e-02 -7.970686e-02 -5.319353e-02 -5.439743e-02 -3.847192e-02 -6.250235e-02 -4.899679e-02 -6.164292e-02 -5.705643e-02 -6.706515e-02 -5.304330e-02 -1.054406e-01
<VARIANCE> 39
 1.326544e+01 1.215552e+01 1.152734e+01 1.841715e+01 1.556330e+01 2.353278e+01 1.840401e+01 2.229287e+01 1.915737e+01 2.010629e+01 1.680156e+01 1.577433e+01 7.260604e+01 7.769680e-01 6.201547e-01 6.111854e-01 9.938050e-01 7.293615e-01 1.227470e+00 8.393513e-01 1.091656e+00 8.965932e-01 9.767823e-01 7.797710e-01 7.649055e-01 3.464175e+00 1.300756e-01 1.034740e-01 1.052853e-01 1.600631e-01 1.319903e-01 1.962937e-01 1.563423e-01 1.865182e-01 1.655192e-01 1.709790e-01 1.443824e-01 1.369798e-01 3.950097e-01
<GCONST> 8.502684e+01
<STATE> 4
<NUMMIXES> 2
<MIXTURE> 1 5.000000e-01
<MEAN> 39
 -4.087689e-01 2.608764e-01 2.467149e-02 1.157866e+00 7.994505e-01 1.306483e+00 9.270793e-01 1.633255e+00 8.957509e-01 1.312224e+00 9.110700e-01 1.314516e+00 3.700451e+00 -1.390361e-01 4.106993e-02 1.019951e-01 3.912188e-01 4.122328e-01 5.139055e-01 4.090120e-01 4.406363e-01 3.999496e-01 3.607221e-01 2.973934e-01 3.049517e-01 1.456770e-01 7.158042e-02 2.338431e-02 8.185258e-02 2.907882e-02 6.633552e-02 2.241473e-02 8.397463e-02 3.607069e-02 8.461919e-02 4.486282e-02 6.782588e-02 2.537219e-02 -7.372336e-02
<VARIANCE> 39
 2.831361e+00 2.773534e+00 4.853189e+00 8.684254e+00 9.149186e+00 1.207421e+01 1.354557e+01 1.513291e+01 1.492182e+01 1.527332e+01 1.429217e+01 1.286924e+01 2.250781e+01 1.182261e-01 1.488415e-01 2.480344e-01 4.370957e-01 4.686570e-01 5.733802e-01 6.028906e-01 6.797321e-01 7.411946e-01 6.986183e-01 6.270448e-01 5.822800e-01 4.928698e-02 2.537557e-02 2.898406e-02 4.724675e-02 8.258570e-02 8.182879e-02 1.131000e-01 1.093187e-01 1.248599e-01 1.314518e-01 1.337141e-01 1.177888e-01 1.081035e-01 3.635723e-02
<GCONST> 5.466351e+01
<MIXTURE> 2 5.000000e-01
<MEAN> 39
 -1.081835e+00 -4.052808e-01 -8.565267e-01 -2.089614e-02 -4.104545e-01 -8.343601e-02 -5.450929e-01 7.721388e-02 -6.493999e-01 -2.510197e-01 -6.011294e-01 -1.204334e-01 1.802755e+00 -2.765723e-01 -1.132500e-01 -9.721714e-02 1.267660e-01 1.383986e-01 2.110181e-01 9.842792e-02 1.108529e-01 5.557898e-02 2.638851e-02 -1.935123e-02 -2.773553e-04 5.687435e-02 7.861577e-03 -4.471451e-02 -5.092695e-03 -8.587208e-02 -4.808740e-02 -1.121067e-01 -4.827889e-02 -1.052714e-01 -6.040594e-02 -1.014049e-01 -6.945562e-02 -1.061442e-01 -1.499936e-01
<VARIANCE> 39
 2.831361e+00 2.773534e+00 4.853189e+00 8.684254e+00 9.149186e+00 1.207421e+01 1.354557e+01 1.513291e+01 1.492182e+01 1.527332e+01 1.429217e+01 1.286924e+01 2.250781e+01 1.182261e-01 1.488415e-01 2.480344e-01 4.370957e-01 4.686570e-01 5.733802e-01 6.028906e-01 6.797321e-01 7.411946e-01 6.986183e-01 6.270448e-01 5.822800e-01 4.928698e-02 2.537557e-02 2.898406e-02 4.724675e-02 8.258570e-02 8.182879e-02 1.131000e-01 1.093187e-01 1.248599e-01 1.314518e-01 1.337141e-01 1.177888e-01 1.081035e-01 3.635723e-02
<GCONST> 5.466351e+01
<TRANSP> 5
 0.000000e+00 1.000000e+00 0.000000e+00 0.000000e+00 0.000000e+00
 0.000000e+00 4.575235e-01 5.424765e-01 0.000000e+00 0.000000e+00
 0.000000e+00 0.000000e+00 7.597180e-01 2.402820e-01 0.000000e+00
 0.000000e+00 0.000000e+00 0.000000e+00 1.655451e-01 8.344549e-01
 0.000000e+00 0.000000e+00 0.000000e+00 0.000000e+00 0.000000e+00
<ENDHMM>
~h "k"
<BEGINHMM>
<NUMSTATES> 5
<STATE> 2
<NUMMIXES> 2
<MIXTURE> 1 5.000000e-01
<MEAN> 39
 1.791132e+00 1.977020e+00 2.321825e+00 4.362773e-01 -3.003036e-01 4.732483e-01 6.639239e-01 1.180279e+00 1.430040e+00 1.486876e+00 1.296290e+00 9.650908e-01 1.102667e-01 1.636146e-01 1.358513e-01 2.904199e-01 -3.567602e-02 -7.023767e-03 1.873133e-01 2.267879e-01 1.602957e-02 2.900803e-01 1.356338e-01 1.659760e-01 4.436176e-02 2.461916e-01 -1.542220e-02 2.936091e-02 1.421319e-02 7.912435e-02 1.178145e-01 1.427877e-01 1.176047e-01 9.067560e-02 1.140508e-01 8.324201e-02 7.356907e-02 8.456110e-02 3.765146e-01
<VARIANCE> 39
 2.196242e+01 1.919788e+01 2.072764e+01 2.429323e+01 2.599335e+01 2.804921e+01 2.637290e+01 2.552521e+01 2.581396e+01 2.586374e+01 2.187374e+01 1.834717e+01 1.059834e+02 1.782106e+00 1.265247e+00 1.235637e+00 1.445656e+00 1.343163e+00 1.723307e+00 1.442855e+00 1.319331e+00 1.372330e+00 1.364421e+00 1.103467e+00 9.219750e-01 9.106797e+00 2.432240e-01 2.125674e-01 2.170886e-01 2.457065e-01 2.449270e-01 3.015953e-01 2.603154e-01 2.416881e-01 2.433544e-01 2.523349e-01 1.989215e-01 1.646632e-01 1.325786e+00
<GCONST> 1.027467e+02
<MIXTURE> 2 5.000000e-01
<MEAN> 39
 -8.343148e-02 2.244042e-01 5.007197e-01 -1.535249e+00 -2.339651e+00 -1.645212e+00 -1.390258e+00 -8.406199e-01 -6.022573e-01 -5.473800e-01 -5.744853e-01 -7.482530e-01 -4.007663e+00 -3.703676e-01 -3.140815e-01 -1.542169e-01 -5.166178e-01 -4.706034e-01 -3.377859e-01 -2.536877e-01 -4.434190e-01 -1.785056e-01 -3.315999e-01 -2.542081e-01 -3.397164e-01 -9.609072e-01 -2.126932e-01 -1.550592e-01 -1.721579e-01 -1.191508e-01 -8.014594e-02 -7.688312e-02 -8.647972e-02 -1.059715e-01 -8.327309e-02 -1.176898e-01 -1.048334e-01 -7.775376e-02 -8.405657e-02
<VARIANCE> 39
 2.196242e+01 1.919788e+01 2.072764e+01 2.429323e+01 2.599335e+01 2.804921e+01 2.637290e+01 2.552521e+01 2.581396e+01 2.586374e+01 2.187374e+01 1.834717e+01 1.059834e+02 1.782106e+00 1.265247e+00 1.235637e+00 1.445656e+00 1.343163e+00 1.723307e+00 1.442855e+00 1.319331e+00 1.372330e+00 1.364421e+00 1.103467e+00 9.219750e-01 9.106797e+00 2.432240e-01 2.125674e-01 2.170886e-01 2.457065e-01 2.449270e-01 3.015953e-01 2.603154e-01 2.416881e-01 2.433544e-01 2.523349e-01 1.989215e-01 1.646632e-01 1.325786e+00
<GCONST> 1.027467e+02
<STATE> 3
<NUMMIXES> 2
<MIXTURE> 1 5.000000e-01
<MEAN> 39
 -1.376589e+00 -2.051185e-01 7.798048e-01 -1.351749e+00 -7.373544e-01 1.391876e+00 1.433326e+00 -4.892819e-01 2.048198e+00 9.370951e-01 3.800383e-01 -4.661620e-01 1.635792e+00 2.053641e-01 9.078571e-02 -2.881233e-02 -5.587359e-02 2.318824e-01 -1.062371e-01 -9.458557e-02 -8.253182e-02 6.204261e-02 -1.294347e-01 1.146974e-02 -1.432203e-02 -1.035107e-01 1.576042e-01 7.224210e-02 4.626791e-02 2.173484e-01 1.398955e-01 4.515226e-02 8.761763e-02 1.783239e-01 5.176186e-02 1.264779e-01 1.262284e-01 1.572876e-01 -1.609524e-02
<VARIANCE> 39
 1.386435e+01 7.751649e+00 9.860298e+00 2.114159e+01 1.952299e+01 1.879098e+01 2.114948e+01 2.076484e+01 2.508629e+01 2.524186e+01 1.831613e+01 1.815237e+01 1.607072e+01 5.851378e-01 3.860054e-01 5.747017e-01 9.864981e-01 9.412746e-01 9.288917e-01 9.579421e-01 1.038385e+00 1.081442e+00 1.138388e+00 7.540928e-01 7.664230e-01 7.531435e-01 9.197809e-02 7.225312e-02 9.303205e-02 1.685959e-01 1.589697e-01 1.687933e-01 1.810551e-01 1.867070e-01 1.959370e-01 1.924925e-01 1.412892e-01 1.461931e-01 1.831145e-01
<GCONST> 8.087047e+01
<MIXTURE> 2 5.000000e-01
<MEAN> 39
 -2.865983e+00 -1.318790e+00 -4.762397e-01 -3.190949e+00 -2.504747e+00 -3.420669e-01 -4.062161e-01 -2.312020e+00 4.474962e-02 -1.072556e+00 -1.331856e+00 -2.170386e+00 3.225988e-02 -1.006131e-01 -1.577316e-01 -3.320487e-01 -4.531640e-01 -1.561948e-01 -4.917532e-01 -4.860837e-01 -4.901366e-01 -3.539270e-01 -5.562158e-01 -3.358843e-01 -3.645044e-01 -4.506461e-01 3.629265e-02 -3.527766e-02 -7.573671e-02 5.310664e-02 -1.958851e-02 -1.191856e-01 -8.258466e-02 5.485497e-03 -1.252972e-01 -4.901797e-02 -2.412543e-02 4.346810e-03 -1.872628e-01
<VARIANCE> 39
 1.386435e+01 7.751649e+00 9.860298e+00 2.114159e+01 1.952299e+01 1.879098e+01 2.114948e+01 2.076484e+01 2.508629e+01 2.524186e+01 1.831613e+01 1.815237e+01 1.607072e+01 5.851378e-01 3.860054e-01 5.747017e-01 9.864981e-01 9.412746e-01 9.288917e-01 9.579421e-01 1.038385e+00 1.081442e+00 1.138388e+00 7.540928e-01 7.664230e-01 7.531435e-01 9.197809e-02 7.225312e-02 9.303205e-02 1.685959e-01 1.589697e-01 1.687933e-01 1.810551e-01 1.867070e-01 1.959370e-01 1.924925e-01 1.412892e-01 1.461931e-01 1.831145e-01
<GCONST> 8.087047e+01
<STATE> 4
<NUMMIXES> 2
<MIXTURE> 1 5.000000e-01
<MEAN> 39
 3.596593e-01 -5.881464e-01 3.792571e-01 -1.236787e+00 1.028898e-01 2.320511e-01 3.808501e-01 -1.055590e+00 1.196507e+00 -2.697057e-02 2.236410e-01 -8.200653e-01 -1.488324e-01 3.771546e-01 1.458518e-01 1.091778e-01 2.209677e-01 2.181907e-01 4.427695e-02 5.538830e-02 1.100250e-01 1.269642e-02 1.197022e-01 1.608310e-01 1.830854e-01 -1.559207e-01 3.682756e-02 6.824079e-02 7.314028e-02 1.258563e-01 8.304771e-02 1.336083e-01 1.488316e-01 1.659746e-01 1.188471e-01 1.458385e-01 1.241664e-01 1.268930e-01 5.074354e-02
<VARIANCE> 39
 1.532777e+01 1.055943e+01 1.170709e+01 1.893430e+01 1.889640e+01 2.005159e+01 2.034781e+01 2.415821e+01 2.593022e+01 2.440298e+01 1.939032e+01 1.654052e+01 1.834818e+01 3.934414e-01 4.054300e-01 5.083081e-01 7.419020e-01 7.738600e-01 8.674636e-01 8.338850e-01 9.847090e-01 9.188835e-01 9.374108e-01 8.471884e-01 6.947619e-01 5.128934e-01 5.897601e-02 6.630825e-02 7.946108e-02 1.321205e-01 1.383405e-01 1.444865e-01 1.459635e-01 1.775506e-01 1.615951e-01 1.652123e-01 1.446492e-01 1.250600e-01 6.214185e-02
<GCONST> 7.659675e+01
<MIXTURE> 2 5.000000e-01
<MEAN> 39
 -1.206369e+00 -1.887958e+00 -9.893680e-01 -2.977329e+00 -1.635910e+00 -1.559109e+00 -1.423492e+00 -3.021630e+00 -8.403617e-01 -2.002945e+00 -1.537737e+00 -2.446867e+00 -1.862224e+00 1.262550e-01 -1.088418e-01 -1.760051e-01 -1.235672e-01 -1.336866e-01 -3.282740e-01 -3.098809e-01 -2.869051e-01 -3.707372e-01 -2.675777e-01 -2.073404e-01 -1.503242e-01 -4.423870e-01 -6.031235e-02 -3.476077e-02 -3.961509e-02 -1.953727e-02 -6.572891e-02 -1.843727e-02 -3.989048e-03 -2.572447e-03 -4.194848e-02 -1.674680e-02 -2.796472e-02 -1.456233e-02 -4.896953e-02
<VARIANCE> 39
 1.532777e+01 1.055943e+01 1.170709e+01 1.893430e+01 1.889640e+01 2.005159e+01 2.034781e+01 2.415821e+01 2.593022e+01 2.440298e+01 1.939032e+01 1.654052e+01 1.834818e+01 3.934414e-01 4.054300e-01 5.083081e-01 7.419020e-01 7.738600e-01 8.674636e-01 8.338850e-01 9.847090e-01 9.188835e-01 9.374108e-01 8.471884e-01 6.947619e-01 5.128934e-01 5.897601e-02 6.630825e-02 7.946108e-02 1.321205e-01 1.383405e-01 1.444865e-01 1.459635e-01 1.775506e-01 1.615951e-01 1.652123e-01 1.446492e-01 1.250600e-01 6.214185e-02
<GCONST> 7.659675e+01
<TRANSP> 5
 0.000000e+00 1.000000e+00 0.000000e+00 0.000000e+00 0.000000e+00
 0.000000e+00 7.629687e-01 2.370313e-01 0.000000e+00 0.000000e+00
 0.000000e+00 0.000000e+00 4.440351e-01 5.559649e-01 0.000000e+00
 0.000000e+00 0.000000e+00 0.000000e+00 5.337304e-01 4.662696e-01
 0.000000e+00 0.000000e+00 0.000000e+00 0.000000e+00 0.000000e+00
<ENDHMM>
~h "n"
<BEGINHMM>
<NUMSTATES> 5
<STATE> 2
<NUMMIXES> 2
<MIXTURE> 1 5.000000e-01
<MEAN> 39
 1.260077e-01 3.117113e-01 4.771620e-01 1.412687e+00 9.859693e-01 1.391086e+00 9.663703e-01 1.207740e+00 4.627364e-01 7.156956e-01 5.245938e-01 8.893238e-01 3.228797e+00 2.806191e-01 1.939996e-01 1.986089e-01 7.178708e-02 6.628049e-02 -3.311458e-02 -5.266069e-02 -1.051867e-01 -9.104580e-02 -2.576466e-02 3.090040e-02 3.215889e-02 1.208060e-02 7.164155e-02 5.176432e-02 4.115919e-02 -1.352031e-03 4.192916e-02 3.383453e-02 6.487555e-02 7.062886e-02 1.060785e-01 1.053906e-01 1.003318e-01 7.759954e-02 -2.276404e-02
<VARIANCE> 39
 2.720353e+00 3.183156e+00 4.887264e+00 8.461012e+00 9.600794e+00 1.263215e+01 1.334508e+01 1.500289e+01 1.495436e+01 1.535327e+01 1.451215e+01 1.302911e+01 2.614310e+01 1.515618e-01 1.555573e-01 2.445454e-01 3.999064e-01 4.932263e-01 6.171510e-01 6.831264e-01 7.031037e-01 7.269054e-01 7.269459e-01 6.692868e-01 6.147374e-01 3.804339e-02 3.352934e-02 3.890787e-02 5.811520e-02 8.422933e-02 9.993604e-02 1.221112e-01 1.320427e-01 1.476732e-01 1.458873e-01 1.476232e-01 1.334691e-01 1.186322e-01 2.490994e-02
<GCONST> 5.682642e+01
<MIXTURE> 2 5.000000e-01
<MEAN> 39
 -5.337319e-01 -4.019448e-01 -4.071243e-01 2.491745e-01 -2.534367e-01 -3.058302e-02 -4.948665e-01 -3.416030e-01 -1.084098e+00 -8.516344e-01 -9.991988e-01 -5.545105e-01 1.183585e+00 1.248953e-01 3.623659e-02 8.027554e-04 -1.811655e-01 -2.146398e-01 -3.473504e-01 -3.832665e-01 -4.405919e-01 -4.320808e-01 -3.668091e-01 -2.963394e-01 -2.814619e-01 -6.593826e-02 -1.602530e-03 -2.713600e-02 -5.526919e-02 -1.174412e-01 -8.452148e-02 -1.059431e-01 -8.047517e-02 -8.308423e-02 -4.670233e-02 -4.829644e-02 -4.580189e-02 -6.017256e-02 -8.589558e-02
<VARIANCE> 39
 2.720353e+00 3.183156e+00 4.887264e+00 8.461012e+00 9.600794e+00 1.263215e+01 1.334508e+01 1.500289e+01 1.495436e+01 1.535327e+01 1.451215e+01 1.302911e+01 2.614310e+01 1.515618e-01 1.555573e-01 2.445454e-01 3.999064e-01 4.932263e-01 6.171510e-01 6.831264e-01 7.031037e-01 7.269054e-01 7.269459e-01 6.692868e-01 6.147374e-01 3.804339e-02 3.352934e-02 3.890787e-02 5.811520e-02 8.422933e-02 9.993604e-02 1.221112e-01 1.320427e-01 1.476732e-01 1.458873e-01 1.476232e-01 1.334691e-01 1.186322e-01 2.490994e-02
<GCONST> 5.682642e+01
<STATE> 3
<NUMMIXES> 2
<MIXTURE> 1 5.000000e-01
<MEAN> 39
 3.013069e+00 1.626106e+00 2.700617e+00 7.916111e-01 1.734227e+00 6.924716e-01 4.133819e-01 -4.366220e-01 1.648741e-01 2.344644e-01 3.392341e-01 1.323367e-01 8.615103e-01 2.977989e-01 2.389477e-01 3.163526e-01 4.555103e-02 1.563382e-01 4.681563e-02 9.414311e-02 3.428911e-02 1.939281e-01 1.568328e-01 1.850492e-01 9.542757e-02 -1.901481e-02 8.992262e-03 3.414724e-02 3.640551e-02 7.072997e-02 6.334795e-02 1.089546e-01 1.251009e-01 1.604488e-01 1.471939e-01 1.397331e-01 1.199102e-01 1.118144e-01 1.456542e-01
<VARIANCE> 39
 1.900683e+01 1.410189e+01 2.262977e+01 2.039257e+01 2.210130e+01 2.621270e+01 2.602090e+01 3.187477e+01 2.576635e+01 2.531854e+01 2.137403e+01 1.975822e+01 8.135208e+01 1.075913e+00 8.402838e-01 1.225751e+00 1.046202e+00 1.116142e+00 1.354680e+00 1.261366e+00 1.531764e+00 1.250622e+00 1.257642e+00 1.018072e+00 9.693413e-01 3.748663e+00 1.509342e-01 1.375966e-01 1.975306e-01 1.690829e-01 1.879076e-01 2.255223e-01 2.175815e-01 2.455365e-01 2.202863e-01 2.191630e-01 1.854151e-01 1.720601e-01 4.158627e-01
<GCONST> 9.567402e+01
<MIXTURE> 2 5.000000e-01
<MEAN> 39
 1.269196e+00 1.240065e-01 7.977868e-01 -1.014714e+00 -1.462537e-01 -1.355462e+00 -1.627046e+00 -2.694932e+00 -1.865549e+00 -1.778237e+00 -1.510048e+00 -1.645672e+00 -2.746305e+00 -1.171060e-01 -1.277202e-01 -1.265020e-01 -3.635850e-01 -2.662523e-01 -4.187472e-01 -3.550991e-01 -4.607687e-01 -2.533968e-01 -2.917458e-01 -2.185490e-01 -2.983930e-01 -7.934734e-01 -1.464087e-01 -1.142288e-01 -1.413721e-01 -9.374879e-02 -1.100453e-01 -8.100217e-02 -6.148161e-02 -3.775777e-02 -4.054479e-02 -4.752633e-02 -5.232918e-02 -5.410609e-02 -1.122955e-01
<VARIANCE> 39
 1.900683e+01 1.410189e+01 2.262977e+01 2.039257e+01 2.210130e+01 2.621270e+01 2.602090e+01 3.187477e+01 2.576635e+01 2.531854e+01 2.137403e+01 1.975822e+01 8.135208e+01 1.075913e+00 8.402838e-01 1.225751e+00 1.046202e+00 1.116142e+00 1.354680e+00 1.261366e+00 1.531764e+00 1.250622e+00 1.257642e+00 1.018072e+00 9.693413e-01 3.748663e+00 1.509342e-01 1.375966e-01 1.975306e-01 1.690829e-01 1.879076e-01 2.255223e-01 2.175815e-01 2.455365e-01 2.202863e-01 2.191630e-01 1.854151e-01 1.720601e-01 4.158627e-01
<GCONST> 9.567402e+01
<STATE> 4
<NUMMIXES> 2
<MIXTURE> 1 5.000000e-01
<MEAN> 39
 7.008157e-01 5.259073e-01 6.669911e-01 2.834480e-01 2.712969e-01 1.358087e-01 6.375039e-02 8.629668e-02 1.722338e-01 5.030359e-01 5.112821e-01 4.850587e-01 1.725066e+00 7.087387e-03 2.824880e-02 -1.335950e-02 2.321520e-02 2.621973e-02 8.190121e-02 1.612223e-01 2.330185e-01 2.571216e-01 2.639485e-01 2.499614e-01 2.120123e-01 3.183354e-02 3.424235e-02 2.371759e-02 4.131000e-02 1.035203e-01 1.302074e-01 1.642532e-01 1.747933e-01 1.783719e-01 1.646259e-01 1.406621e-01 1.159320e-01 1.130763e-01 2.831258e-02
<VARIANCE> 39
 5.698871e+00 4.232038e+00 6.898855e+00 1.172286e+01 1.147655e+01 1.542224e+01 1.485690e+01 1.789883e+01 1.627596e+01 1.670353e+01 1.467649e+01 1.437424e+01 2.797749e+01 1.535912e-01 1.872668e-01 2.847956e-01 4.833058e-01 5.143344e-01 6.432551e-01 6.818559e-01 7.320882e-01 7.577177e-01 7.460428e-01 6.590102e-01 5.876359e-01 8.341778e-02 3.509450e-02 4.063056e-02 5.967623e-02 8.841998e-02 1.005504e-01 1.272109e-01 1.345528e-01 1.422928e-01 1.476131e-01 1.476648e-01 1.287222e-01 1.182133e-01 2.379822e-02
<GCONST> 6.110356e+01
<MIXTURE> 2 5.000000e-01
<MEAN> 39
 -2.540767e-01 -2.969695e-01 -3.836358e-01 -1.086099e+00 -1.083785e+00 -1.435038e+00 -1.478036e+00 -1.605984e+00 -1.441505e+00 -1.131762e+00 -1.021114e+00 -1.031476e+00 -3.906837e-01 -1.496755e-01 -1.448485e-01 -2.268245e-01 -2.548656e-01 -2.606487e-01 -2.389116e-01 -1.690759e-01 -1.092301e-01 -9.106634e-02 -8.154657e-02 -7.475632e-02 -9.461735e-02 -8.369500e-02 -4.069175e-02 -5.691051e-02 -5.640487e-02 -1.542167e-02 3.368638e-03 2.158663e-02 2.806752e-02 2.748506e-02 1.094406e-02 -1.304664e-02 -2.757951e-02 -2.445238e-02 -3.339411e-02
<VARIANCE> 39
 5.698871e+00 4.232038e+00 6.898855e+00 1.172286e+01 1.147655e+01 1.542224e+01 1.485690e+01 1.789883e+01 1.627596e+01 1.670353e+01 1.467649e+01 1.437424e+01 2.797749e+01 1.535912e-01 1.872668e-01 2.847956e-01 4.833058e-01 5.143344e-01 6.432551e-01 6.818559e-01 7.320882e-01 7.577177e-01 7.460428e-01 6.590102e-01 5.876359e-01 8.341778e-02 3.509450e-02 4.063056e-02 5.967623e-02 8.841998e-02 1.005504e-01 1.272109e-01 1.345528e-01 1.422928e-01 1.476131e-01 1.476648e-01 1.287222e-01 1.182133e-01 2.379822e-02
<GCONST> 6.110356e+01
<TRANSP> 5
 0.000000e+00 1.000000e+00 0.000000e+00 0.000000e+00 0.000000e+00
 0.000000e+00 1.178089e-01 8.821911e-01 0.000000e+00 0.000000e+00
 0.000000e+00 0.000000e+00 6.843847e-01 3.156153e-01 0.000000e+00
 0.000000e+00 0.000000e+00 0.000000e+00 2.089478e-01 7.910522e-01
 0.000000e+00 0.000000e+00 0.000000e+00 0.000000e+00 0.000000e+00
<ENDHMM>
~h "r"
<BEGINHMM>
<NUMSTATES> 5
<STATE> 2
<NUMMIXES> 2
<MIXTURE> 1 5.000000e-01
<MEAN> 39
 -1.826365e+00 -1.080420e-01 -1.949573e-01 2.101541e+00 1.151632e+00 2.411397e+00 1.490111e+00 2.618013e+00 1.245037e+00 2.036084e+00 1.127553e+00 1.879882e+00 8.195911e+00 5.568938e-02 6.226926e-02 9.623052e-02 1.248211e-01 1.358960e-01 1.630016e-01 1.683132e-01 1.532288e-01 1.557056e-01 1.503071e-01 1.463896e-01 1.515077e-01 2.189383e-02 4.548693e-02 3.905222e-02 4.214801e-02 3.460961e-02 4.347406e-02 3.448783e-02 3.906292e-02 3.777419e-02 4.508428e-02 4.902764e-02 4.659960e-02 4.543663e-02 7.865960e-03
<VARIANCE> 39
 3.040689e+00 3.313376e+00 5.314002e+00 8.597705e+00 1.002296e+01 1.263359e+01 1.417254e+01 1.543629e+01 1.599094e+01 1.576762e+01 1.436810e+01 1.304516e+01 2.744922e+01 6.027822e-02 1.233026e-01 2.152713e-01 3.181375e-01 4.286120e-01 5.060279e-01 6.101393e-01 6.519193e-01 6.741464e-01 6.555731e-01 6.098897e-01 5.412160e-01 1.061327e-02 1.151745e-02 2.324959e-02 4.020315e-02 5.959229e-02 8.062886e-02 9.637752e-02 1.163253e-01 1.231328e-01 1.294264e-01 1.252246e-01 1.171178e-01 1.033776e-01 2.253413e-03
<GCONST> 4.761602e+01
<MIXTURE> 2 5.000000e-01
<MEAN> 39
 -2.523868e+00 -8.361492e-01 -1.117042e+00 9.286672e-01 -1.147302e-01 9.896467e-01 -1.574618e-02 1.046451e+00 -3.545096e-01 4.477457e-01 -3.886579e-01 4.351584e-01 6.100231e+00 -4.251711e-02 -7.818862e-02 -8.935884e-02 -1.007936e-01 -1.259779e-01 -1.215409e-01 -1.441325e-01 -1.697373e-01 -1.727201e-01 -1.735628e-01 -1.659921e-01 -1.427618e-01 -1.931446e-02 2.559183e-03 -2.193905e-02 -3.805488e-02 -6.303652e-02 -7.010682e-02 -8.969109e-02 -9.736306e-02 -1.025870e-01 -9.881924e-02 -9.252071e-02 -9.029032e-02 -8.317292e-02 -1.112209e-02
<VARIANCE> 39
 3.040689e+00 3.313376e+00 5.314002e+00 8.597705e+00 1.002296e+01 1.263359e+01 1.417254e+01 1.543629e+01 1.599094e+01 1.576762e+01 1.436810e+01 1.304516e+01 2.744922e+01 6.027822e-02 1.233026e-01 2.152713e-01 3.181375e-01 4.286120e-01 5.060279e-01 6.101393e-01 6.519193e-01 6.741464e-01 6.555731e-01 6.098897e-01 5.412160e-01 1.061327e-02 1.151745e-02 2.324959e-02 4.020315e-02 5.959229e-02 8.062886e-02 9.637752e-02 1.163253e-01 1.231328e-01 1.294264e-01 1.252246e-01 1.171178e-01 1.033776e-01 2.253413e-03
<GCONST> 4.761602e+01
<STATE> 3
<NUMMIXES> 2
<MIXTURE> 1 5.000000e-01
<MEAN> 39
 -3.662850e-01 2.053603e-01 3.293656e-01 1.332421e+00 9.993695e-01 1.609814e+00 1.332671e+00 1.512978e+00 9.340385e-01 1.282345e+00 9.083682e-01 1.238194e+00 3.184805e+00 1.663169e-01 1.048389e-01 1.033416e-01 5.655463e-02 3.640259e-02 1.966505e-02 1.270384e-02 -7.125825e-03 8.979350e-03 2.751118e-02 3.649519e-02 6.968701e-02 2.935309e-02 6.560282e-02 4.874042e-02 4.129152e-02 7.137682e-03 1.846843e-02 -5.586825e-03 1.485690e-03 2.313569e-02 3.809999e-02 3.661089e-02 4.612836e-02 2.681937e-02 2.310171e-03
<VARIANCE> 39
 2.656439e+00 2.735851e+00 4.677227e+00 7.806814e+00 9.299220e+00 1.192868e+01 1.357526e+01 1.478196e+01 1.428738e+01 1.476435e+01 1.375027e+01 1.250007e+01 2.140178e+01 7.922509e-02 1.358975e-01 2.343754e-01 3.428622e-01 4.245375e-01 5.108171e-01 5.863228e-01 6.932991e-01 7.059474e-01 6.776655e-01 6.151577e-01 5.893621e-01 1.348797e-02 1.668571e-02 2.610754e-02 4.714959e-02 6.630798e-02 8.583988e-02 1.016068e-01 1.162886e-01 1.294521e-01 1.280942e-01 1.261992e-01 1.226415e-01 1.069185e-01 3.811982e-03
<GCONST> 4.881829e+01
<MIXTURE> 2 5.000000e-01
<MEAN> 39
 -1.018228e+00 -4.562561e-01 -5.357104e-01 2.147938e-01 -2.204155e-01 2.282974e-01 -1.411136e-01 -2.491421e-02 -5.779076e-01 -2.546308e-01 -5.748861e-01 -1.760229e-01 1.334323e+00 5.372909e-02 -4.261818e-02 -9.030772e-02 -1.776631e-01 -2.242236e-01 -2.662209e-01 -2.935830e-01 -3.401842e-01 -3.271033e-01 -3.017706e-01 -2.772328e-01 -2.373927e-01 -1.710200e-02 1.393355e-02 -1.589090e-02 -4.556431e-02 -9.586366e-02 -9.872535e-02 -1.330901e-01 -1.349188e-01 -1.207821e-01 -1.050610e-01 -1.054872e-01 -9.395248e-02 -1.039742e-01 -2.238633e-02
<VARIANCE> 39
 2.656439e+00 2.735851e+00 4.677227e+00 7.806814e+00 9.299220e+00 1.192868e+01 1.357526e+01 1.478196e+01 1.428738e+01 1.476435e+01 1.375027e+01 1.250007e+01 2.140178e+01 7.922509e-02 1.358975e-01 2.343754e-01 3.428622e-01 4.245375e-01 5.108171e-01 5.863228e-01 6.932991e-01 7.059474e-01 6.776655e-01 6.151577e-01 5.893621e-01 1.348797e-02 1.668571e-02 2.610754e-02 4.714959e-02 6.630798e-02 8.583988e-02 1.016068e-01 1.162886e-01 1.294521e-01 1.280942e-01 1.261992e-01 1.226415e-01 1.069185e-01 3.811982e-03
<GCONST> 4.881829e+01
<STATE> 4
<NUMMIXES> 2
<MIXTURE> 1 5.000000e-01
<MEAN> 39
 1.699651e+00 3.626983e-01 1.570511e+00 1.562207e+00 1.478280e+00 1.471537e+00 1.037930e+00 2.856718e-01 4.417011e-01 6.925381e-01 5.887079e-01 5.263000e-01 2.890850e+00 3.755978e-01 2.031015e-01 2.437482e-01 -1.877561e-03 1.058411e-01 -2.357024e-02 4.419479e-02 -7.324784e-02 6.770006e-02 4.033789e-03 1.138951e-01 1.121855e-02 -3.870153e-01 3.470585e-02 6.787691e-02 5.336622e-02 5.244426e-02 6.522147e-02 6.590925e-02 7.201469e-02 1.041044e-01 1.063150e-01 9.318171e-02 9.289798e-02 7.291047e-02 3.672476e-02
<VARIANCE> 39
 1.317606e+01 1.479864e+01 1.468645e+01 1.719242e+01 1.941268e+01 2.411526e+01 2.150379e+01 2.816470e+01 2.291271e+01 2.244329e+01 1.849898e+01 1.729454e+01 4.980468e+01 5.003375e-01 7.350268e-01 7.400730e-01 8.385527e-01 9.264545e-01 1.128996e+00 9.737801e-01 1.224197e+00 1.031448e+00 9.791160e-01 8.703247e-01 7.700821e-01 1.022180e+00 7.259066e-02 1.121474e-01 1.213972e-01 1.380424e-01 1.603642e-01 1.902695e-01 1.696388e-01 2.084668e-01 1.806277e-01 1.717988e-01 1.559500e-01 1.367725e-01 9.649935e-02
<GCONST> 8.394034e+01
<MIXTURE> 2 5.000000e-01
<MEAN> 39
 2.476973e-01 -1.176062e+00 3.759480e-02 -9.634215e-02 -2.841125e-01 -4.927545e-01 -8.169568e-01 -1.837145e+00 -1.472988e+00 -1.202436e+00 -1.131710e+00 -1.137168e+00 6.795239e-02 9.265962e-02 -1.398333e-01 -1.003617e-01 -3.681676e-01 -2.791690e-01 -4.485871e-01 -3.505264e-01 -5.158216e-01 -3.385409e-01 -3.917674e-01 -2.592697e-01 -3.397987e-01 -7.914270e-01 -7.306476e-02 -6.607676e-02 -8.600218e-02 -9.617198e-02 -9.496053e-02 -1.085703e-01 -9.273423e-02 -7.852823e-02 -6.368628e-02 -7.261277e-02 -6.506404e-02 -7.502060e-02 -8.753262e-02
<VARIANCE> 39
 1.317606e+01 1.479864e+01 1.468645e+01 1.719242e+01 1.941268e+01 2.411526e+01 2.150379e+01 2.816470e+01 2.291271e+01 2.244329e+01 1.849898e+01 1.729454e+01 4.980468e+01 5.003375e-01 7.350268e-01 7.400730e-01 8.385527e-01 9.264545e-01 1.128996e+00 9.737801e-01 1.224197e+00 1.031448e+00 9.791160e-01 8.703247e-01 7.700821e-01 1.022180e+00 7.259066e-02 1.121474e-01 1.213972e-01 1.380424e-01 1.603642e-01 1.902695e-01 1.696388e-01 2.084668e-01 1.806277e-01 1.717988e-01 1.559500e-01 1.367725e-01 9.649935e-02
<GCONST> 8.394034e+01
<TRANSP> 5
 0.000000e+00 1.000000e+00 0.000000e+00 0.000000e+00 0.000000e+00
 0.000000e+00 7.360560e-01 2.639440e-01 0.000000e+00 0.000000e+00
 0.000000e+00 0.000000e+00 1.396586e-01 8.603414e-01 0.000000e+00
 0.000000e+00 0.000000e+00 0.000000e+00 4.870410e-01 5.129591e-01
 0.000000e+00 0.000000e+00 0.000000e+00 0.000000e+00 0.000000e+00
<ENDHMM>
~h "s"
<BEGINHMM>
<NUMSTATES> 5
<STATE> 2
<NUMMIXES> 2
<MIXTURE> 1 5.000000e-01
<MEAN> 39
 6.227206e-01 4.435315e-01 9.292883e-02 -2.430139e-01 -1.482967e-01 -1.206750e-01 1.336348e-01 1.742079e-01 3.984501e-01 1.964688e-01 4.617212e-01 3.084259e-01 -6.064622e-01 6.733955e-02 5.034851e-02 2.251619e-02 7.147637e-02 1.315036e-01 1.071861e-01 1.960397e-01 2.231416e-01 2.265367e-01 1.857545e-01 2.379324e-01 1.988914e-01 5.502732e-02 1.523303e-02 2.769633e-02 6.738158e-02 1.214588e-01 1.384118e-01 1.628730e-01 1.652340e-01 1.581546e-01 1.569712e-01 1.499231e-01 1.278385e-01 1.102257e-01 9.318786e-02
<VARIANCE> 39
 5.273358e+00 4.293671e+00 5.853671e+00 1.109759e+01 1.134517e+01 1.425349e+01 1.425713e+01 1.633195e+01 1.588566e+01 1.603141e+01 1.415155e+01 1.354558e+01 5.024136e+01 1.749044e-01 2.309421e-01 3.100576e-01 5.304102e-01 5.437514e-01 6.734405e-01 6.448779e-01 7.350393e-01 7.280397e-01 7.859931e-01 6.888675e-01 6.325364e-01 2.730815e-01 3.569667e-02 4.222669e-02 5.589394e-02 1.022359e-01 9.978797e-02 1.283769e-01 1.265516e-01 1.433143e-01 1.386272e-01 1.432608e-01 1.205828e-01 1.151960e-01 6.043765e-02
<GCONST> 6.373621e+01
<MIXTURE> 2 5.000000e-01
<MEAN> 39
 -2.958312e-01 -3.853156e-01 -8.748456e-01 -1.575536e+00 -1.495600e+00 -1.630827e+00 -1.376710e+00 -1.442304e+00 -1.195823e+00 -1.405101e+00 -1.043021e+00 -1.163747e+00 -3.441708e+00 -9.994674e-02 -1.418772e-01 -2.002151e-01 -2.198407e-01 -1.634544e-01 -2.210676e-01 -1.251774e-01 -1.197961e-01 -1.147642e-01 -1.688705e-01 -9.405983e-02 -1.192372e-01 -1.540015e-01 -6.034122e-02 -5.450021e-02 -2.718602e-02 -6.438587e-03 1.205483e-02 1.955409e-02 2.293764e-02 6.727085e-03 8.040488e-03 -1.476087e-03 -1.106162e-02 -2.553648e-02 -5.148418e-03
<VARIANCE> 39
 5.273358e+00 4.293671e+00 5.853671e+00 1.109759e+01 1.134517e+01 1.425349e+01 1.425713e+01 1.633195e+01 1.588566e+01 1.603141e+01 1.415155e+01 1.354558e+01 5.024136e+01 1.749044e-01 2.309421e-01 3.100576e-01 5.304102e-01 5.437514e-01 6.734405e-01 6.448779e-01 7.350393e-01 7.280397e-01 7.859931e-01 6.888675e-01 6.325364e-01 2.730815e-01 3.569667e-02 4.222669e-02 5.589394e-02 1.022359e-01 9.978797e-02 1.283769e-01 1.265516e-01 1.433143e-01 1.386272e-01 1.432608e-01 1.205828e-01 1.151960e-01 6.043765e-02
<GCONST> 6.373621e+01
<STATE> 3
<NUMMIXES> 2
<MIXTURE> 1 5.000000e-01
<MEAN> 39
 3.792453e-01 -3.287303e-02 -2.130013e-01 -1.781481e+00 -2.488923e-01 -1.177912e+00 1.308280e-01 -2.492349e-01 1.249044e+00 -6.004550e-01 1.088602e+00 -4.577794e-01 -2.399380e+00 6.756797e-03 1.183672e-01 6.637453e-02 2.417866e-01 2.197320e-01 2.747473e-01 2.752233e-01 2.967367e-01 3.100012e-01 2.588168e-01 2.463986e-01 2.294177e-01 6.846967e-01 4.191908e-02 8.091726e-02 8.666524e-02 1.884799e-01 1.161099e-01 1.790844e-01 1.221570e-01 1.438466e-01 8.778691e-02 1.534878e-01 7.983198e-02 1.271403e-01 1.791194e-01
<VARIANCE> 39
 1.210441e+01 1.096210e+01 1.109119e+01 1.866523e+01 1.616360e+01 2.001489e+01 1.788397e+01 2.030873e+01 2.028542e+01 2.225533e+01 1.916574e+01 1.693691e+01 4.981339e+01 5.266064e-01 5.190264e-01 4.966930e-01 8.815880e-01 6.993942e-01 9.141649e-01 8.159169e-01 9.130266e-01 8.432664e-01 9.405606e-01 7.854779e-01 7.291260e-01 1.799929e+00 7.901926e-02 8.393421e-02 8.790536e-02 1.496145e-01 1.284551e-01 1.575498e-01 1.480178e-01 1.661686e-01 1.583018e-01 1.733675e-01 1.481728e-01 1.337420e-01 1.888759e-01
<GCONST> 8.017378e+01
<MIXTURE> 2 5.000000e-01
<MEAN> 39
 -1.012410e+00 -1.357236e+00 -1.545139e+00 -3.509613e+00 -1.857052e+00 -2.967432e+00 -1.560750e+00 -2.051843e+00 -5.525299e-01 -2.487477e+00 -6.625454e-01 -2.103959e+00 -5.222524e+00 -2.835138e-01 -1.698067e-01 -2.155313e-01 -1.337851e-01 -1.147872e-01 -1.077006e-01 -8.608915e-02 -8.547294e-02 -5.731697e-02 -1.291132e-01 -1.081101e-01 -1.121378e-01 1.480509e-01 -7.052238e-02 -3.496835e-02 -3.193012e-02 3.375973e-02 -2.725261e-02 2.031422e-02 -3.173536e-02 -1.920855e-02 -7.136173e-02 -1.306186e-02 -7.414090e-02 -1.914272e-02 5.280003e-03
<VARIANCE> 39
 1.210441e+01 1.096210e+01 1.109119e+01 1.866523e+01 1.616360e+01 2.001489e+01 1.788397e+01 2.030873e+01 2.028542e+01 2.225533e+01 1.916574e+01 1.693691e+01 4.981339e+01 5.266064e-01 5.190264e-01 4.966930e-01 8.815880e-01 6.993942e-01 9.141649e-01 8.159169e-01 9.130266e-01 8.432664e-01 9.405606e-01 7.854779e-01 7.291260e-01 1.799929e+00 7.901926e-02 8.393421e-02 8.790536e-02 1.496145e-01 1.284551e-01 1.575498e-01 1.480178e-01 1.661686e-01 1.583018e-01 1.733675e-01 1.481728e-01 1.337420e-01 1.888759e-01
<GCONST> 8.017378e+01
<STATE> 4
<NUMMIXES> 2
<MIXTURE> 1 5.000000e-01
<MEAN> 39
 -8.646891e-01 2.650265e-01 -3.511961e-01 7.610726e-01 5.421715e-01 1.212487e+00 1.175775e+00 1.385898e+00 1.531479e+00 1.311797e+00 1.001177e+00 1.176486e+00 3.713611e+00 6.159101e-02 1.235899e-01 2.224946e-01 6.209116e-01 3.711422e-01 5.348175e-01 3.707885e-01 5.032423e-01 1.756772e-01 4.802284e-01 2.335201e-01 4.289961e-01 6.661041e-01 4.951375e-02 3.531257e-02 7.094872e-02 3.559816e-02 6.819685e-02 3.525461e-02 4.881340e-02 2.884364e-02 6.260490e-02 4.087332e-02 6.561085e-02 2.119306e-02 -2.525982e-02
<VARIANCE> 39
 7.989976e+00 5.664620e+00 8.923615e+00 1.348437e+01 1.308355e+01 1.584881e+01 1.578858e+01 1.804791e+01 1.825701e+01 2.040280e+01 1.681292e+01 1.491663e+01 2.630917e+01 3.280588e-01 2.864424e-01 3.725318e-01 7.319555e-01 5.816669e-01 7.752973e-01 7.057494e-01 8.057116e-01 8.481100e-01 9.849786e-01 7.271529e-01 6.872318e-01 6.803083e-01 5.084005e-02 4.826980e-02 6.760669e-02 1.165167e-01 1.049280e-01 1.322771e-01 1.259694e-01 1.459372e-01 1.491412e-01 1.727631e-01 1.357173e-01 1.230371e-01 7.553082e-02
<GCONST> 7.023568e+01
<MIXTURE> 2 5.000000e-01
<MEAN> 39
 -1.995351e+00 -6.869920e-01 -1.546093e+00 -7.077702e-01 -9.046761e-01 -3.799351e-01 -4.136186e-01 -3.134149e-01 -1.776499e-01 -4.949813e-01 -6.389657e-01 -3.683958e-01 1.661913e+00 -1.675147e-01 -9.049138e-02 -2.164697e-02 2.786940e-01 6.607382e-02 1.826137e-01 3.475291e-02 1.441965e-01 -1.926943e-01 8.324401e-02 -1.075729e-01 9.739833e-02 3.361809e-01 -4.067720e-02 -5.256899e-02 -3.305642e-02 -1.009400e-01 -6.137352e-02 -1.102251e-01 -9.315527e-02 -1.239633e-01 -9.187032e-02 -1.253858e-01 -8.174848e-02 -1.191135e-01 -1.351913e-01
<VARIANCE> 39
 7.989976e+00 5.664620e+00 8.923615e+00 1.348437e+01 1.308355e+01 1.584881e+01 1.578858e+01 1.804791e+01 1.825701e+01 2.040280e+01 1.681292e+01 1.491663e+01 2.630917e+01 3.280588e-01 2.864424e-01 3.725318e-01 7.319555e-01 5.816669e-01 7.752973e-01 7.057494e-01 8.057116e-01 8.481100e-01 9.849786e-01 7.271529e-01 6.872318e-01 6.803083e-01 5.084005e-02 4.826980e-02 6.760669e-02 1.165167e-01 1.049280e-01 1.322771e-01 1.259694e-01 1.459372e-01 1.491412e-01 1.727631e-01 1.357173e-01 1.230371e-01 7.553082e-02
<GCONST> 7.023568e+01
<TRANSP> 5
 0.000000e+00 1.000000e+00 0.000000e+00 0.000000e+00 0.000000e+00
 0.000000e+00 1.635562e-01 8.364438e-01 0.000000e+00 0.000000e+00
 0.000000e+00 0.000000e+00 5.770108e-01 4.229892e-01 0.000000e+00
 0.000000e+00 0.000000e+00 0.000000e+00 4.586674e-01 5.413326e-01
 0.000000e+00 0.000000e+00 0.000000e+00 0.000000e+00 0.000000e+00
<ENDHMM>
~h "t"
<BEGINHMM>
<NUMSTATES> 5
<STATE> 2
<NUMMIXES> 2
<MIXTURE> 1 5.000000e-01
<MEAN> 39
 7.746100e-01 1.301268e+00 5.195396e-01 5.256114e-01 2.034700e-01 3.954264e-01 7.913913e-01 1.148238e+00 9.951686e-01 9.030873e-01 9.096245e-01 9.808642e-01 7.489181e-02 1.099374e-01 1.567163e-01 1.493080e-01 2.064390e-01 2.323256e-01 2.389065e-01 1.727062e-01 2.443406e-01 2.255478e-01 2.363863e-01 2.122477e-01 1.881649e-01 1.137702e+00 7.063325e-02 6.484365e-02 8.419039e-02 6.969949e-02 1.026119e-01 9.959961e-02 8.227984e-02 8.335588e-02 8.843417e-02 7.641168e-02 7.238126e-02 6.179503e-02 2.578613e-01
<VARIANCE> 39
 1.309269e+01 1.109142e+01 1.104211e+01 1.558046e+01 1.522615e+01 2.052721e+01 1.754714e+01 2.013869e+01 1.892739e+01 1.908128e+01 1.606497e+01 1.477989e+01 1.676815e+02 8.669725e-01 6.546937e-01 6.540487e-01 8.197287e-01 7.690773e-01 1.043809e+00 8.666117e-01 1.001321e+00 9.422802e-01 9.324625e-01 7.955010e-01 7.523035e-01 7.561422e+00 1.254019e-01 1.145287e-01 1.181667e-01 1.340404e-01 1.380332e-01 1.861334e-01 1.588428e-01 1.792668e-01 1.703583e-01 1.668909e-01 1.453704e-01 1.351172e-01 9.543180e-01
<GCONST> 8.658000e+01
<MIXTURE> 2 5.000000e-01
<MEAN> 39
 -6.727428e-01 -3.088313e-02 -8.096473e-01 -1.053272e+00 -1.357358e+00 -1.416852e+00 -8.841810e-01 -6.468078e-01 -7.450562e-01 -8.441978e-01 -6.936208e-01 -5.569208e-01 -5.104784e+00 -2.625080e-01 -1.669363e-01 -1.741852e-01 -1.557164e-01 -1.184626e-01 -1.697614e-01 -1.996617e-01 -1.559235e-01 -1.627367e-01 -1.498701e-01 -1.445158e-01 -1.587769e-01 3.778052e-02 -7.101528e-02 -7.052471e-02 -5.331115e-02 -7.674662e-02 -4.599936e-02 -7.297311e-02 -7.714052e-02 -8.600376e-02 -7.666377e-02 -8.699745e-02 -8.012863e-02 -8.523814e-02 -1.328955e-01
<VARIANCE> 39
 1.309269e+01 1.109142e+01 1.104211e+01 1.558046e+01 1.522615e+01 2.052721e+01 1.754714e+01 2.013869e+01 1.892739e+01 1.908128e+01 1.606497e+01 1.477989e+01 1.676815e+02 8.669725e-01 6.546937e-01 6.540487e-01 8.197287e-01 7.690773e-01 1.043809e+00 8.666117e-01 1.001321e+00 9.422802e-01 9.324625e-01 7.955010e-01 7.523035e-01 7.561422e+00 1.254019e-01 1.145287e-01 1.181667e-01 1.340404e-01 1.380332e-01 1.861334e-01 1.588428e-01 1.792668e-01 1.703583e-01 1.668909e-01 1.453704e-01 1.351172e-01 9.543180e-01
<GCONST> 8.658000e+01
<STATE> 3
<NUMMIXES> 2
<MIXTURE> 1 5.000000e-01
<MEAN> 39
 2.073398e+00 6.465516e-01 1.213202e+00 -9.836874e-01 1.245698e+00 -1.496893e-01 8.881152e-02 -7.681966e-03 1.194819e+00 2.682400e-01 9.633222e-01 -1.487944e-01 1.156357e+00 1.735923e-01 8.356953e-02 2.126524e-01 3.544546e-01 3.079939e-01 3.482204e-01 2.314067e-01 1.717646e-01 1.458631e-01 2.094774e-01 1.833011e-01 1.876015e-01 6.479180e-02 1.766951e-02 5.568523e-02 4.532216e-02 1.974766e-01 7.546454e-02 1.689833e-01 1.350362e-01 1.436901e-01 7.123664e-02 1.242777e-01 7.874949e-02 1.422731e-01 3.627473e-02
<VARIANCE> 39
 1.702904e+01 9.874356e+00 1.368499e+01 2.725824e+01 2.204846e+01 2.580542e+01 2.364981e+01 2.824896e+01 2.447046e+01 2.605042e+01 2.209652e+01 2.096919e+01 3.587111e+01 5.226582e-01 4.575745e-01 5.742531e-01 1.301876e+00 9.707260e-01 1.199654e+00 1.089004e+00 1.238677e+00 1.070578e+00 1.140659e+00 9.522719e-01 9.628675e-01 1.163036e+00 8.633472e-02 7.880756e-02 1.025359e-01 2.034432e-01 1.682729e-01 2.032958e-01 1.836939e-01 2.095599e-01 1.918121e-01 2.045987e-01 1.758539e-01 1.756326e-01 1.853985e-01
<GCONST> 8.684875e+01
<MIXTURE> 2 5.000000e-01
<MEAN> 39
 4.227479e-01 -6.103879e-01 -2.665268e-01 -3.072064e+00 -6.325331e-01 -2.181651e+00 -1.856431e+00 -2.133672e+00 -7.838860e-01 -1.773345e+00 -9.169552e-01 -1.980479e+00 -1.239343e+00 -1.155881e-01 -1.870075e-01 -9.046552e-02 -1.019445e-01 -8.610775e-02 -8.989444e-02 -1.860147e-01 -2.734188e-01 -2.680119e-01 -2.177292e-01 -2.070366e-01 -2.049018e-01 -3.665848e-01 -9.986158e-02 -5.660551e-02 -8.276275e-02 1.705784e-02 -8.861978e-02 -1.137002e-02 -3.640191e-02 -3.942074e-02 -1.039488e-01 -5.665264e-02 -8.899026e-02 -2.536104e-02 -1.359570e-01
<VARIANCE> 39
 1.702904e+01 9.874356e+00 1.368499e+01 2.725824e+01 2.204846e+01 2.580542e+01 2.364981e+01 2.824896e+01 2.447046e+01 2.605042e+01 2.209652e+01 2.096919e+01 3.587111e+01 5.226582e-01 4.575745e-01 5.742531e-01 1.301876e+00 9.707260e-01 1.199654e+00 1.089004e+00 1.238677e+00 1.070578e+00 1.140659e+00 9.522719e-01 9.628675e-01 1.163036e+00 8.633472e-02 7.880756e-02 1.025359e-01 2.034432e-01 1.682729e-01 2.032958e-01 1.836939e-01 2.095599e-01 1.918121e-01 2.045987e-01 1.758539e-01 1.756326e-01 1.853985e-01
<GCONST> 8.684875e+01
<STATE> 4
<NUMMIXES> 2
<MIXTURE> 1 5.000000e-01
<MEAN> 39
 4.138443e-01 2.237958e-01 4.527020e-01 1.185860e+00 1.179822e+00 1.457679e+00 9.456440e-01 1.121295e+00 7.850146e-01 1.199675e+00 9.540982e-01 1.003977e+00 3.458869e+00 3.136069e-02 7.840812e-02 1.080223e-01 3.429273e-01 2.393166e-01 3.408007e-01 2.867850e-01 2.778439e-01 1.724808e-01 2.107308e-01 1.715329e-01 2.224425e-01 1.072154e-01 5.773789e-02 4.718054e-02 5.082663e-02 2.655917e-02 4.318567e-02 4.497933e-02 6.776779e-02 6.992273e-02 8.657212e-02 5.549863e-02 6.259559e-02 5.477167e-02 6.211601e-03
<VARIANCE> 39
 1.054234e+01 5.537670e+00 7.135433e+00 1.305522e+01 1.255947e+01 1.792797e+01 1.752893e+01 2.052463e+01 1.845811e+01 1.831271e+01 1.598510e+01 1.503594e+01 5.414159e+01 2.889678e-01 2.532346e-01 3.354021e-01 6.065542e-01 6.231804e-01 8.346328e-01 8.001391e-01 8.616385e-01 8.432288e-01 8.003326e-01 7.332339e-01 6.705620e-01 3.534046e-01 4.067274e-02 4.090482e-02 5.786221e-02 1.056691e-01 1.077016e-01 1.435663e-01 1.418084e-01 1.576380e-01 1.535684e-01 1.524764e-01 1.330921e-01 1.242389e-01 5.378044e-02
<GCONST> 6.925603e+01
<MIXTURE> 2 5.000000e-01
<MEAN> 39
 -8.849145e-01 -7.174944e-01 -6.157873e-01 -2.594199e-01 -2.377515e-01 -2.359782e-01 -7.290586e-01 -6.908695e-01 -9.335015e-01 -5.120590e-01 -6.451566e-01 -5.470709e-01 5.156296e-01 -1.836622e-01 -1.228816e-01 -1.236333e-01 3.140092e-02 -7.645051e-02 -2.463229e-02 -7.101700e-02 -9.345409e-02 -1.948291e-01 -1.471144e-01 -1.709835e-01 -1.051089e-01 -1.305760e-01 -2.293205e-02 -3.371922e-02 -4.539163e-02 -1.034680e-01 -8.808602e-02 -1.065812e-01 -8.286204e-02 -8.889188e-02 -7.017910e-02 -1.006943e-01 -8.333157e-02 -8.621848e-02 -8.655084e-02
<VARIANCE> 39
 1.054234e+01 5.537670e+00 7.135433e+00 1.305522e+01 1.255947e+01 1.792797e+01 1.752893e+01 2.052463e+01 1.845811e+01 1.831271e+01 1.598510e+01 1.503594e+01 5.414159e+01 2.889678e-01 2.532346e-01 3.354021e-01 6.065542e-01 6.231804e-01 8.346328e-01 8.001391e-01 8.616385e-01 8.432288e-01 8.003326e-01 7.332339e-01 6.705620e-01 3.534046e-01 4.067274e-02 4.090482e-02 5.786221e-02 1.056691e-01 1.077016e-01 1.435663e-01 1.418084e-01 1.576380e-01 1.535684e-01 1.524764e-01 1.330921e-01 1.242389e-01 5.378044e-02
<GCONST> 6.925603e+01
<TRANSP> 5
 0.000000e+00 1.000000e+00 0.000000e+00 0.000000e+00 0.000000e+00
 0.000000e+00 7.084475e-01 2.915525e-01 0.000000e+00 0.000000e+00
 0.000000e+00 0.000000e+00 4.684944e-01 5.315055e-01 0.000000e+00
 0.000000e+00 0.000000e+00 0.000000e+00 4.290805e-01 5.709195e-01
 0.000000e+00 0.000000e+00 0.000000e+00 0.000000e+00 0.000000e+00
<ENDHMM>
~h "v"
<BEGINHMM>
<NUMSTATES> 5
<STATE> 2
<NUMMIXES> 2
<MIXTURE> 1 5.000000e-01
<MEAN> 39
 -3.128495e-01 3.566176e-01 4.310605e-01 1.378335e+00 9.195647e-01 1.149933e+00 7.198688e-01 1.236048e+00 7.395284e-01 1.104438e+00 6.876566e-01 1.014223e+00 3.175554e+00 1.550013e-01 8.860154e-02 8.597343e-02 1.069902e-02 6.283671e-03 2.372512e-02 2.647413e-02 -3.044873e-03 2.658017e-02 3.397582e-02 5.294751e-02 6.729539e-02 3.761944e-02 4.944844e-02 1.447593e-02 1.096499e-02 1.069127e-02 4.875212e-02 8.125097e-02 9.782121e-02 8.901590e-02 8.986260e-02 7.395753e-02 7.916860e-02 7.171842e-02 8.047186e-03
<VARIANCE> 39
 2.873329e+00 3.026029e+00 5.204547e+00 8.945962e+00 1.012458e+01 1.303810e+01 1.331554e+01 1.493375e+01 1.533086e+01 1.589826e+01 1.455502e+01 1.330550e+01 1.920024e+01 9.007721e-02 1.353818e-01 2.229770e-01 3.327295e-01 4.448815e-01 5.403581e-01 5.919474e-01 6.429781e-01 6.987736e-01 6.921577e-01 6.393074e-01 5.532344e-01 1.615718e-02 1.767639e-02 2.384561e-02 4.169001e-02 6.065779e-02 8.148138e-02 9.939045e-02 1.107916e-01 1.150386e-01 1.311559e-01 1.298519e-01 1.210382e-01 1.053316e-01 3.559321e-03
<GCONST> 4.927923e+01
<MIXTURE> 2 5.000000e-01
<MEAN> 39
 -9.908853e-01 -3.392019e-01 -4.814786e-01 1.819426e-01 -3.532012e-01 -2.943993e-01 -7.397498e-01 -3.097210e-01 -8.266573e-01 -4.904667e-01 -8.383851e-01 -4.448457e-01 1.422830e+00 3.494982e-02 -5.857553e-02 -1.029083e-01 -2.200318e-01 -2.605141e-01 -2.703111e-01 -2.812783e-01 -3.237885e-01 -3.077906e-01 -2.988082e-01 -2.668793e-01 -2.302235e-01 -1.322492e-02 -3.732599e-03 -4.729217e-02 -7.070753e-02 -8.782394e-02 -6.542765e-02 -4.485404e-02 -3.532027e-02 -4.665346e-02 -5.499920e-02 -7.018235e-02 -5.999358e-02 -5.810089e-02 -1.581683e-02
<VARIANCE> 39
 2.873329e+00 3.026029e+00 5.204547e+00 8.945962e+00 1.012458e+01 1.303810e+01 1.331554e+01 1.493375e+01 1.533086e+01 1.589826e+01 1.455502e+01 1.330550e+01 1.920024e+01 9.007721e-02 1.353818e-01 2.229770e-01 3.327295e-01 4.448815e-01 5.403581e-01 5.919474e-01 6.429781e-01 6.987736e-01 6.921577e-01 6.393074e-01 5.532344e-01 1.615718e-02 1.767639e-02 2.384561e-02 4.169001e-02 6.065779e-02 8.148138e-02 9.939045e-02 1.107916e-01 1.150386e-01 1.311559e-01 1.298519e-01 1.210382e-01 1.053316e-01 3.559321e-03
<GCONST> 4.927923e+01
<STATE> 3
<NUMMIXES> 2
<MIXTURE> 1 5.000000e-01
<MEAN> 39
 -1.055103e-01 3.754633e-01 2.940169e-01 1.113710e+00 5.864151e-01 8.962134e-01 6.461442e-01 9.163423e-01 4.789198e-01 8.609350e-01 5.621674e-01 9.336808e-01 3.177378e+00 1.856380e-01 4.860971e-02 3.714386e-02 -2.552449e-02 3.268311e-02 1.020385e-01 1.388586e-01 1.008036e-01 1.166821e-01 8.913097e-02 1.125730e-01 1.113843e-01 2.956736e-02 4.317248e-02 2.047369e-02 3.616663e-02 5.879093e-02 1.051765e-01 1.246751e-01 1.341110e-01 1.336978e-01 1.297283e-01 1.155909e-01 1.114422e-01 9.245430e-02 -3.881371e-03
<VARIANCE> 39
 2.951762e+00 2.989833e+00 4.897409e+00 8.324308e+00 9.264086e+00 1.269707e+01 1.367317e+01 1.507792e+01 1.508828e+01 1.545324e+01 1.414002e+01 1.275518e+01 1.901986e+01 1.202829e-01 1.366512e-01 2.234810e-01 3.419309e-01 4.491560e-01 5.534056e-01 6.158080e-01 6.674498e-01 7.217385e-01 7.201091e-01 6.385738e-01 5.607270e-01 2.274665e-02 2.588181e-02 2.764034e-02 4.596619e-02 6.429619e-02 8.088104e-02 1.018383e-01 1.118095e-01 1.203495e-01 1.321769e-01 1.320228e-01 1.230981e-01 1.087739e-01 7.605130e-03
<GCONST> 5.141043e+01
<MIXTURE> 2 5.000000e-01
<MEAN> 39
 -7.927381e-01 -3.161821e-01 -5.911867e-01 -4.036558e-02 -6.310633e-01 -5.291046e-01 -8.329458e-01 -6.368697e-01 -1.074826e+00 -7.114894e-01 -9.419614e-01 -4.948950e-01 1.432908e+00 4.691064e-02 -9.925575e-02 -1.519513e-01 -2.594239e-01 -2.353933e-01 -1.955265e-01 -1.750351e-01 -2.259868e-01 -2.231387e-01 -2.503060e-01 -2.070703e-01 -1.881425e-01 -3.076062e-02 -2.117882e-02 -4.602785e-02 -4.959228e-02 -4.263585e-02 -8.581877e-03 -2.973359e-03 3.593192e-04 -5.067937e-03 -1.569627e-02 -2.974889e-02 -2.889920e-02 -3.946926e-02 -3.876433e-02
<VARIANCE> 39
 2.951762e+00 2.989833e+00 4.897409e+00 8.324308e+00 9.264086e+00 1.269707e+01 1.367317e+01 1.507792e+01 1.508828e+01 1.545324e+01 1.414002e+01 1.275518e+01 1.901986e+01 1.202829e-01 1.366512e-01 2.234810e-01 3.419309e-01 4.491560e-01 5.534056e-01 6.158080e-01 6.674498e-01 7.217385e-01 7.201091e-01 6.385738e-01 5.607270e-01 2.274665e-02 2.588181e-02 2.764034e-02 4.596619e-02 6.429619e-02 8.088104e-02 1.018383e-01 1.118095e-01 1.203495e-01 1.321769e-01 1.320228e-01 1.230981e-01 1.087739e-01 7.605130e-03
<GCONST> 5.141043e+01
<STATE> 4
<NUMMIXES> 2
<MIXTURE> 1 5.000000e-01
<MEAN> 39
 9.616300e-01 4.001835e-01 1.135072e+00 6.650397e-01 1.138127e+00 1.323521e+00 1.093222e+00 2.809665e-01 9.660763e-01 7.858931e-01 4.929389e-01 4.330918e-01 3.401105e+00 2.730759e-01 1.069165e-01 2.019113e-01 8.115312e-02 1.587106e-01 1.522026e-01 1.895700e-01 1.133042e-01 2.094352e-01 1.626271e-01 1.640779e-01 1.175361e-01 -7.791512e-02 3.193348e-02 5.002158e-02 6.409102e-02 9.201287e-02 8.202833e-02 8.669652e-02 8.921380e-02 1.108777e-01 1.081296e-01 1.060348e-01 9.885520e-02 8.489111e-02 5.649146e-02
<VARIANCE> 39
 1.203515e+01 9.090463e+00 1.282646e+01 1.886847e+01 1.550260e+01 2.034428e+01 1.879249e+01 2.534081e+01 2.185652e+01 2.165239e+01 1.748984e+01 1.684907e+01 4.587982e+01 6.926807e-01 4.898946e-01 6.754308e-01 9.069212e-01 7.072266e-01 9.284973e-01 8.400818e-01 1.079341e+00 9.744654e-01 1.008214e+00 8.024070e-01 7.744259e-01 1.211440e+00 1.146854e-01 8.307992e-02 1.188601e-01 1.435659e-01 1.235356e-01 1.600531e-01 1.516427e-01 1.771579e-01 1.728148e-01 1.791319e-01 1.499449e-01 1.363532e-01 1.362515e-01
<GCONST> 8.143839e+01
<MIXTURE> 2 5.000000e-01
<MEAN> 39
 -4.260385e-01 -8.058323e-01 -2.974895e-01 -1.072474e+00 -4.368063e-01 -4.806643e-01 -6.407897e-01 -1.732620e+00 -9.039620e-01 -1.075392e+00 -1.179895e+00 -1.208813e+00 6.917191e-01 -5.983388e-02 -1.730534e-01 -1.268271e-01 -2.997765e-01 -1.776764e-01 -2.332317e-01 -1.770539e-01 -3.022611e-01 -1.854249e-01 -2.390123e-01 -1.942308e-01 -2.344698e-01 -5.181769e-01 -1.035274e-01 -6.527277e-02 -7.381336e-02 -5.954750e-02 -5.856221e-02 -7.333003e-02 -6.655151e-02 -5.748286e-02 -5.815437e-02 -6.326112e-02 -5.603568e-02 -6.281303e-02 -9.115759e-02
<VARIANCE> 39
 1.203515e+01 9.090463e+00 1.282646e+01 1.886847e+01 1.550260e+01 2.034428e+01 1.879249e+01 2.534081e+01 2.185652e+01 2.165239e+01 1.748984e+01 1.684907e+01 4.587982e+01 6.926807e-01 4.898946e-01 6.754308e-01 9.069212e-01 7.072266e-01 9.284973e-01 8.400818e-01 1.079341e+00 9.744654e-01 1.008214e+00 8.024070e-01 7.744259e-01 1.211440e+00 1.146854e-01 8.307992e-02 1.188601e-01 1.435659e-01 1.235356e-01 1.600531e-01 1.516427e-01 1.771579e-01 1.728148e-01 1.791319e-01 1.499449e-01 1.363532e-01 1.362515e-01
<GCONST> 8.143839e+01
<TRANSP> 5
 0.000000e+00 1.000000e+00 0.000000e+00 0.000000e+00 0.000000e+00
 0.000000e+00 8.470254e-02 9.152974e-01 0.000000e+00 0.000000e+00
 0.000000e+00 0.000000e+00 1.025976e-01 8.974024e-01 0.000000e+00
 0.000000e+00 0.000000e+00 0.000000e+00 6.367747e-01 3.632253e-01
 0.000000e+00 0.000000e+00 0.000000e+00 0.000000e+00 0.000000e+00
<ENDHMM>
~h "w"
<BEGINHMM>
<NUMSTATES> 5
<STATE> 2
<NUMMIXES> 2
<MIXTURE> 1 5.000000e-01
<MEAN> 39
 -4.583031e-01 8.921272e-02 4.065171e-01 1.864097e+00 1.676269e+00 2.248061e+00 1.766159e+00 1.983658e+00 1.111551e+00 1.300982e+00 9.114706e-01 1.071387e+00 3.517979e+00 -8.765028e-02 6.572122e-02 1.608844e-01 3.443400e-01 3.876475e-01 4.381584e-01 3.970352e-01 3.489979e-01 3.438989e-01 3.150263e-01 2.514747e-01 2.318182e-01 5.181637e-02 6.969757e-02 3.262873e-02 2.038517e-02 -4.293110e-02 -4.963394e-02 -5.604066e-02 -3.555883e-02 -6.796688e-03 5.395097e-02 5.959214e-02 5.679158e-02 5.463427e-02 -2.073910e-02
<VARIANCE> 39
 3.080420e+00 2.660724e+00 4.648269e+00 7.390038e+00 8.933632e+00 1.212075e+01 1.415352e+01 1.526618e+01 1.510943e+01 1.579207e+01 1.389311e+01 1.224764e+01 1.914035e+01 1.155069e-01 1.310392e-01 2.259949e-01 3.330788e-01 4.195463e-01 5.359171e-01 5.932126e-01 6.628028e-01 6.795893e-01 6.444951e-01 6.438377e-01 5.314148e-01 1.841501e-02 2.343178e-02 2.535374e-02 4.495730e-02 6.977782e-02 8.028968e-02 1.046168e-01 1.202757e-01 1.269355e-01 1.334965e-01 1.324612e-01 1.148645e-01 1.025020e-01 8.154443e-03
<GCONST> 5.040459e+01
<MIXTURE> 2 5.000000e-01
<MEAN> 39
 -1.160348e+00 -5.632563e-01 -4.558767e-01 7.767116e-01 4.807014e-01 8.554667e-01 2.613127e-01 4.207798e-01 -4.432828e-01 -2.885875e-01 -5.794680e-01 -3.284782e-01 1.767991e+00 -2.235955e-01 -7.907613e-02 -2.927130e-02 1.134880e-01 1.285579e-01 1.453330e-01 8.895402e-02 2.334709e-02 1.415010e-02 -6.095499e-03 -6.948327e-02 -5.977460e-02 -2.464393e-03 8.467793e-03 -3.106270e-02 -6.442738e-02 -1.485931e-01 -1.629757e-01 -1.854187e-01 -1.742820e-01 -1.493087e-01 -9.219773e-02 -8.598875e-02 -7.877509e-02 -7.342947e-02 -5.685988e-02
<VARIANCE> 39
 3.080420e+00 2.660724e+00 4.648269e+00 7.390038e+00 8.933632e+00 1.212075e+01 1.415352e+01 1.526618e+01 1.510943e+01 1.579207e+01 1.389311e+01 1.224764e+01 1.914035e+01 1.155069e-01 1.310392e-01 2.259949e-01 3.330788e-01 4.195463e-01 5.359171e-01 5.932126e-01 6.628028e-01 6.795893e-01 6.444951e-01 6.438377e-01 5.314148e-01 1.841501e-02 2.343178e-02 2.535374e-02 4.495730e-02 6.977782e-02 8.028968e-02 1.046168e-01 1.202757e-01 1.269355e-01 1.334965e-01 1.324612e-01 1.148645e-01 1.025020e-01 8.154443e-03
<GCONST> 5.040459e+01
<STATE> 3
<NUMMIXES> 2
<MIXTURE> 1 5.000000e-01
<MEAN> 39
 -2.581963e-01 4.251377e-01 6.725255e-01 1.569434e+00 1.289205e+00 1.702082e+00 1.262634e+00 1.273969e+00 9.367730e-01 1.021549e+00 7.835801e-01 9.327087e-01 2.013530e+00 -5.638689e-03 4.635584e-02 6.288759e-02 8.369373e-02 6.557713e-02 9.140051e-02 1.098870e-01 1.773018e-01 2.302180e-01 2.295665e-01 2.031519e-01 1.943422e-01 1.372816e-02 3.554205e-02 1.681218e-02 -1.218479e-03 -1.756961e-02 -2.272356e-02 -1.543257e-02 2.288170e-03 2.878162e-02 4.028749e-02 4.495686e-02 6.089146e-02 5.709636e-02 3.711703e-03
<VARIANCE> 39
 2.146266e+00 2.482192e+00 4.349576e+00 7.410807e+00 8.710925e+00 1.174259e+01 1.322427e+01 1.429361e+01 1.444435e+01 1.462839e+01 1.363107e+01 1.190389e+01 1.058899e+01 5.337692e-02 1.050630e-01 1.965003e-01 2.690029e-01 3.549398e-01 4.728588e-01 5.687504e-01 5.847404e-01 6.259908e-01 6.180817e-01 5.798241e-01 5.072803e-01 8.762972e-03 1.074017e-02 1.829663e-02 3.371689e-02 4.966830e-02 6.810140e-02 9.066322e-02 1.054198e-01 1.069822e-01 1.157298e-01 1.139863e-01 1.074836e-01 8.926606e-02 1.769540e-03
<GCONST> 4.176424e+01
<MIXTURE> 2 5.000000e-01
<MEAN> 39
 -8.442019e-01 -2.050613e-01 -1.617000e-01 4.805221e-01 1.086341e-01 3.313838e-01 -1.919739e-01 -2.383065e-01 -5.834560e-01 -5.083337e-01 -6.932311e-01 -4.473719e-01 7.119014e-01 -9.805247e-02 -8.329785e-02 -1.144258e-01 -1.237682e-01 -1.727302e-01 -1.836584e-01 -1.917751e-01 -1.285715e-01 -8.626033e-02 -8.490624e-02 -1.014329e-01 -9.055223e-02 -2.371614e-02 -5.911868e-03 -3.729384e-02 -7.466713e-02 -1.067152e-01 -1.271085e-01 -1.358739e-01 -1.275855e-01 -1.020509e-01 -9.578884e-02 -9.009058e-02 -7.024731e-02 -6.241335e-02 -1.311466e-02
<VARIANCE> 39
 2.146266e+00 2.482192e+00 4.349576e+00 7.410807e+00 8.710925e+00 1.174259e+01 1.322427e+01 1.429361e+01 1.444435e+01 1.462839e+01 1.363107e+01 1.190389e+01 1.058899e+01 5.337692e-02 1.050630e-01 1.965003e-01 2.690029e-01 3.549398e-01 4.728588e-01 5.687504e-01 5.847404e-01 6.259908e-01 6.180817e-01 5.798241e-01 5.072803e-01 8.762972e-03 1.074017e-02 1.829663e-02 3.371689e-02 4.966830e-02 6.810140e-02 9.066322e-02 1.054198e-01 1.069822e-01 1.157298e-01 1.139863e-01 1.074836e-01 8.926606e-02 1.769540e-03
<GCONST> 4.176424e+01
<STATE> 4
<NUMMIXES> 2
<MIXTURE> 1 5.000000e-01
<MEAN> 39
 -2.143489e+00 -1.507814e-01 -3.885075e-01 2.136703e+00 1.239606e+00 2.377515e+00 1.405780e+00 2.636976e+00 1.202969e+00 2.006014e+00 1.127709e+00 1.863338e+00 8.592482e+00 4.730849e-02 5.502096e-02 6.280684e-02 8.257752e-02 9.795783e-02 1.144683e-01 1.252860e-01 1.449614e-01 1.598612e-01 1.532184e-01 1.619132e-01 1.570254e-01 1.857437e-02 3.382163e-02 2.673851e-02 3.981490e-02 4.657169e-02 5.717259e-02 6.306637e-02 7.253706e-02 6.715136e-02 6.284047e-02 5.951333e-02 6.085610e-02 5.625618e-02 8.960304e-03
<VARIANCE> 39
 2.917475e+00 3.152837e+00 5.170701e+00 8.283641e+00 1.036358e+01 1.308404e+01 1.438908e+01 1.591062e+01 1.540053e+01 1.518973e+01 1.443475e+01 1.311137e+01 2.109153e+01 5.378738e-02 1.157240e-01 2.006151e-01 3.125062e-01 4.294024e-01 5.236281e-01 5.861165e-01 6.290628e-01 6.511018e-01 6.296971e-01 6.192199e-01 5.633654e-01 9.332925e-03 9.779588e-03 2.202045e-02 3.751437e-02 5.949891e-02 8.140740e-02 1.000485e-01 1.129517e-01 1.223470e-01 1.229415e-01 1.179757e-01 1.183518e-01 1.078134e-01 1.673143e-03
<GCONST> 4.615792e+01
<MIXTURE> 2 5.000000e-01
<MEAN> 39
 -2.826713e+00 -8.610306e-01 -1.298074e+00 9.854507e-01 -4.809445e-02 9.306406e-01 -1.115374e-01 1.041452e+00 -3.667715e-01 4.470539e-01 -3.920151e-01 4.149535e-01 6.755461e+00 -4.545994e-02 -8.105196e-02 -1.163535e-01 -1.410315e-01 -1.641574e-01 -1.749803e-01 -1.809470e-01 -1.722925e-01 -1.629024e-01 -1.641955e-01 -1.528490e-01 -1.432053e-01 -2.006846e-02 -5.735090e-03 -3.261864e-02 -3.765961e-02 -5.099791e-02 -5.695534e-02 -6.345541e-02 -6.189609e-02 -7.276119e-02 -7.741160e-02 -7.787703e-02 -7.675308e-02 -7.508363e-02 -7.401324e-03
<VARIANCE> 39
 2.917475e+00 3.152837e+00 5.170701e+00 8.283641e+00 1.036358e+01 1.308404e+01 1.438908e+01 1.591062e+01 1.540053e+01 1.518973e+01 1.443475e+01 1.311137e+01 2.109153e+01 5.378738e-02 1.157240e-01 2.006151e-01 3.125062e-01 4.294024e-01 5.236281e-01 5.861165e-01 6.290628e-01 6.511018e-01 6.296971e-01 6.192199e-01 5.633654e-01 9.332925e-03 9.779588e-03 2.202045e-02 3.751437e-02 5.949891e-02 8.140740e-02 1.000485e-01 1.129517e-01 1.223470e-01 1.229415e-01 1.179757e-01 1.183518e-01 1.078134e-01 1.673143e-03
<GCONST> 4.615792e+01
<TRANSP> 5
 0.000000e+00 1.000000e+00 0.000000e+00 0.000000e+00 0.000000e+00
 0.000000e+00 2.399024e-01 7.600976e-01 0.000000e+00 0.000000e+00
 0.000000e+00 0.000000e+00 5.616959e-01 4.383041e-01 0.000000e+00
 0.000000e+00 0.000000e+00 0.000000e+00 8.151908e-01 1.848092e-01
 0.000000e+00 0.000000e+00 0.000000e+00 0.000000e+00 0.000000e+00
<ENDHMM>
~h "z"
<BEGINHMM>
<NUMSTATES> 5
<STATE> 2
<NUMMIXES> 2
<MIXTURE> 1 5.000000e-01
<MEAN> 39
 4.501695e-01 2.859166e-01 -1.051845e-01 -1.903852e-01 -5.005344e-01 -1.905116e-01 1.895478e-01 3.908566e-01 3.690107e-01 3.030584e-01 2.761698e-01 5.057457e-01 7.112804e-01 1.347825e-01 1.411832e-01 1.565058e-01 2.007377e-01 2.268498e-01 2.624794e-01 2.329046e-01 1.878302e-01 1.460461e-01 1.563209e-01 1.692887e-01 1.835053e-01 6.346001e-02 4.027422e-02 7.327745e-02 1.019350e-01 1.637710e-01 1.891298e-01 1.891409e-01 1.731755e-01 1.449461e-01 1.266317e-01 1.341607e-01 1.296545e-01 1.001212e-01 4.237246e-02
<VARIANCE> 39
 3.118733e+00 3.537657e+00 5.007865e+00 1.012761e+01 1.042730e+01 1.241003e+01 1.429664e+01 1.598939e+01 1.538873e+01 1.557061e+01 1.429004e+01 1.273087e+01 5.251333e+01 1.647505e-01 1.882882e-01 2.688155e-01 3.748963e-01 4.664391e-01 5.416197e-01 6.340547e-01 7.129080e-01 7.373760e-01 7.129728e-01 6.957756e-01 5.759742e-01 5.477933e-02 3.559010e-02 5.300109e-02 5.849308e-02 8.570421e-02 9.420037e-02 1.124728e-01 1.381938e-01 1.598352e-01 1.497170e-01 1.532838e-01 1.453393e-01 1.202595e-01 3.548574e-02
<GCONST> 5.945454e+01
<MIXTURE> 2 5.000000e-01
<MEAN> 39
 -2.562279e-01 -4.664298e-01 -1.000315e+00 -1.463341e+00 -1.792188e+00 -1.599627e+00 -1.322888e+00 -1.208613e+00 -1.200128e+00 -1.275326e+00 -1.235917e+00 -9.214681e-01 -2.187363e+00 -2.757536e-02 -3.238556e-02 -5.088384e-02 -4.417741e-02 -4.633564e-02 -3.189983e-02 -8.560566e-02 -1.499053e-01 -1.974363e-01 -1.814300e-01 -1.643640e-01 -1.200666e-01 -3.015993e-02 -3.518714e-02 -1.881041e-02 5.193636e-03 4.666984e-02 6.636144e-02 5.499306e-02 2.447775e-02 -1.497147e-02 -2.814142e-02 -2.244522e-02 -2.283906e-02 -3.859264e-02 -3.297818e-02
<VARIANCE> 39
 3.118733e+00 3.537657e+00 5.007865e+00 1.012761e+01 1.042730e+01 1.241003e+01 1.429664e+01 1.598939e+01 1.538873e+01 1.557061e+01 1.429004e+01 1.273087e+01 5.251333e+01 1.647505e-01 1.882882e-01 2.688155e-01 3.748963e-01 4.664391e-01 5.416197e-01 6.340547e-01 7.129080e-01 7.373760e-01 7.129728e-01 6.957756e-01 5.759742e-01 5.477933e-02 3.559010e-02 5.300109e-02 5.849308e-02 8.570421e-02 9.420037e-02 1.124728e-01 1.381938e-01 1.598352e-01 1.497170e-01 1.532838e-01 1.453393e-01 1.202595e-01 3.548574e-02
<GCONST> 5.945454e+01
<STATE> 3
<NUMMIXES> 2
<MIXTURE> 1 5.000000e-01
<MEAN> 39
 1.791583e+00 2.382178e+00 1.663360e+00 5.666081e-01 4.755016e-01 3.221538e-01 4.011881e-01 -2.119831e-01 6.135955e-01 -3.565252e-02 6.108445e-01 2.842015e-02 -5.502168e-01 9.156132e-02 2.257133e-01 2.093248e-01 3.725320e-01 3.401060e-01 3.708329e-01 2.775459e-01 3.526394e-01 2.297010e-01 3.242754e-01 2.548262e-01 2.727138e-01 1.018360e+00 1.776637e-02 4.123231e-02 5.313910e-02 9.460676e-02 9.711990e-02 1.158693e-01 1.176355e-01 1.478202e-01 1.156731e-01 1.374574e-01 1.052889e-01 1.131331e-01 1.743804e-01
<VARIANCE> 39
 1.436577e+01 1.978527e+01 1.670708e+01 2.228428e+01 2.070258e+01 2.256701e+01 2.173335e+01 2.669757e+01 2.273557e+01 2.692621e+01 2.069140e+01 1.930055e+01 9.176053e+01 8.870035e-01 1.251981e+00 1.013125e+00 1.068124e+00 1.014495e+00 1.123801e+00 1.041873e+00 1.414295e+00 1.115728e+00 1.371561e+00 1.024977e+00 1.021027e+00 3.769212e+00 1.330172e-01 1.984847e-01 1.694081e-01 1.783721e-01 1.767241e-01 1.935847e-01 1.831581e-01 2.318435e-01 1.973694e-01 2.322476e-01 1.848053e-01 1.730033e-01 4.449157e-01
<GCONST> 9.417992e+01
<MIXTURE> 2 5.000000e-01
<MEAN> 39
 2.754950e-01 6.029523e-01 2.838850e-02 -1.321641e+00 -1.344502e+00 -1.578036e+00 -1.463574e+00 -2.278771e+00 -1.293678e+00 -2.111271e+00 -1.208668e+00 -1.728876e+00 -4.381886e+00 -2.851622e-01 -2.218545e-01 -1.932916e-01 -4.086837e-02 -6.278259e-02 -5.320507e-02 -1.307428e-01 -1.230572e-01 -1.928111e-01 -1.441792e-01 -1.501384e-01 -1.314698e-01 2.417812e-01 -1.281197e-01 -1.369742e-01 -1.114978e-01 -7.432973e-02 -7.103437e-02 -6.012370e-02 -5.355244e-02 -4.478033e-02 -6.203201e-02 -5.531092e-02 -6.666709e-02 -5.324157e-02 -9.242761e-02
<VARIANCE> 39
 1.436577e+01 1.978527e+01 1.670708e+01 2.228428e+01 2.070258e+01 2.256701e+01 2.173335e+01 2.669757e+01 2.273557e+01 2.692621e+01 2.069140e+01 1.930055e+01 9.176053e+01 8.870035e-01 1.251981e+00 1.013125e+00 1.068124e+00 1.014495e+00 1.123801e+00 1.041873e+00 1.414295e+00 1.115728e+00 1.371561e+00 1.024977e+00 1.021027e+00 3.769212e+00 1.330172e-01 1.984847e-01 1.694081e-01 1.783721e-01 1.767241e-01 1.935847e-01 1.831581e-01 2.318435e-01 1.973694e-01 2.322476e-01 1.848053e-01 1.730033e-01 4.449157e-01
<GCONST> 9.417992e+01
<STATE> 4
<NUMMIXES> 2
<MIXTURE> 1 5.000000e-01
<MEAN> 39
 -1.760486e-01 1.818903e-01 2.577863e-01 1.351015e+00 9.997752e-01 1.634282e+00 1.382978e+00 1.650399e+00 1.050002e+00 1.387433e+00 8.146618e-01 1.242228e+00 3.634133e+00 -1.264825e-01 -1.518652e-04 9.491745e-02 3.404849e-01 3.969930e-01 4.577321e-01 4.627966e-01 4.755134e-01 3.444452e-01 3.738151e-01 3.352872e-01 3.144796e-01 1.704488e-01 6.245486e-02 8.858039e-02 6.538795e-02 2.103391e-02 3.898761e-02 1.011048e-02 2.670787e-02 2.090886e-02 7.130457e-02 4.815090e-02 8.222444e-02 3.068504e-02 -5.483235e-02
<VARIANCE> 39
 2.764304e+00 2.834584e+00 4.865651e+00 7.533526e+00 8.726539e+00 1.123868e+01 1.331765e+01 1.423202e+01 1.499735e+01 1.660489e+01 1.511505e+01 1.251637e+01 1.829418e+01 1.830966e-01 2.153217e-01 2.563365e-01 4.673290e-01 5.153086e-01 6.025267e-01 7.142411e-01 7.720699e-01 7.804022e-01 8.102132e-01 7.661725e-01 6.312218e-01 7.025103e-02 2.843745e-02 4.891695e-02 5.697147e-02 7.903507e-02 9.041990e-02 1.093635e-01 1.283117e-01 1.394395e-01 1.387294e-01 1.612315e-01 1.369121e-01 1.243529e-01 3.873481e-02
<GCONST> 5.812921e+01
<MIXTURE> 2 5.000000e-01
<MEAN> 39
 -8.410964e-01 -4.915587e-01 -6.245425e-01 2.531244e-01 -1.818534e-01 2.933168e-01 -7.675582e-02 1.413848e-01 -4.990541e-01 -2.425313e-01 -7.404614e-01 -1.729110e-01 1.923265e+00 -2.976417e-01 -1.857629e-01 -1.076013e-01 6.703906e-02 1.098530e-01 1.472417e-01 1.247454e-01 1.240434e-01 -8.916363e-03 1.376772e-02 -1.483797e-02 -3.318235e-03 6.442918e-02 -4.998766e-03 1.116842e-04 -3.008685e-02 -9.141880e-02 -8.129200e-02 -1.221701e-01 -1.165746e-01 -1.284575e-01 -7.768101e-02 -1.124637e-01 -6.578210e-02 -1.103698e-01 -1.335570e-01
<VARIANCE> 39
 2.764304e+00 2.834584e+00 4.865651e+00 7.533526e+00 8.726539e+00 1.123868e+01 1.331765e+01 1.423202e+01 1.499735e+01 1.660489e+01 1.511505e+01 1.251637e+01 1.829418e+01 1.830966e-01 2.153217e-01 2.563365e-01 4.673290e-01 5.153086e-01 6.025267e-01 7.142411e-01 7.720699e-01 7.804022e-01 8.102132e-01 7.661725e-01 6.312218e-01 7.025103e-02 2.843745e-02 4.891695e-02 5.697147e-02 7.903507e-02 9.041990e-02 1.093635e-01 1.283117e-01 1.394395e-01 1.387294e-01 1.612315e-01 1.369121e-01 1.243529e-01 3.873481e-02
<GCONST> 5.812921e+01
<TRANSP> 5
 0.000000e+00 1.000000e+00 0.000000e+00 0.000000e+00 0.000000e+00
 0.000000e+00 9.113476e-02 9.088652e-01 0.000000e+00 0.000000e+00
 0.000000e+00 0.000000e+00 7.512436e-01 2.487564e-01 0.000000e+00
 0.000000e+00 0.000000e+00 0.000000e+00 1.797256e-01 8.202744e-01
 0.000000e+00 0.000000e+00 0.000000e+00 0.000000e+00 0.000000e+00
<ENDHMM>
~h "ah"
<BEGINHMM>
<NUMSTATES> 5
<STATE> 2
<NUMMIXES> 2
<MIXTURE> 1 5.000000e-01
<MEAN> 39
 -1.019492e+00 1.485689e-01 9.640929e-02 1.943066e+00 1.064739e+00 1.898675e+00 1.076700e+00 2.001844e+00 1.154137e+00 1.703151e+00 9.745967e-01 1.611211e+00 5.372827e+00 6.002739e-02 1.930932e-02 5.863924e-02 1.141944e-01 1.502907e-01 2.023451e-01 2.340021e-01 2.637295e-01 2.484648e-01 2.215010e-01 2.003004e-01 1.776454e-01 1.914892e-02 4.566504e-02 4.248167e-02 6.119300e-02 6.175788e-02 6.863935e-02 6.674298e-02 6.275365e-02 4.767752e-02 4.105306e-02 4.284864e-02 5.040639e-02 4.922138e-02 7.423275e-03
<VARIANCE> 39
 2.807113e+00 3.100965e+00 5.120660e+00 8.607607e+00 9.648702e+00 1.255900e+01 1.321078e+01 1.536032e+01 1.582912e+01 1.585153e+01 1.440768e+01 1.317104e+01 2.239825e+01 9.168632e-02 1.225885e-01 2.027587e-01 3.031011e-01 3.946367e-01 5.192913e-01 5.769845e-01 6.622620e-01 7.046574e-01 6.940144e-01 6.434581e-01 5.800717e-01 1.258577e-02 1.599120e-02 2.375650e-02 4.081782e-02 5.995527e-02 7.469338e-02 9.815639e-02 1.087965e-01 1.299548e-01 1.410595e-01 1.354098e-01 1.259994e-01 1.122711e-01 2.449265e-03
<GCONST> 4.842501e+01
<MIXTURE> 2 5.000000e-01
<MEAN> 39
 -1.689670e+00 -5.558134e-01 -8.087457e-01 7.695175e-01 -1.777550e-01 4.811274e-01 -3.771654e-01 4.341541e-01 -4.372959e-01 1.105921e-01 -5.437013e-01 1.595337e-01 3.479755e+00 -6.109161e-02 -1.207412e-01 -1.214757e-01 -1.060240e-01 -1.009898e-01 -8.590241e-02 -6.983587e-02 -6.178846e-02 -8.731072e-02 -1.117291e-01 -1.205630e-01 -1.270044e-01 -2.572561e-02 -4.917484e-03 -1.917091e-02 -1.962068e-02 -3.618518e-02 -4.068102e-02 -5.857671e-02 -6.918362e-02 -9.651946e-02 -1.091785e-01 -1.043436e-01 -9.157919e-02 -8.480614e-02 -1.237275e-02
<VARIANCE> 39
 2.807113e+00 3.100965e+00 5.120660e+00 8.607607e+00 9.648702e+00 1.255900e+01 1.321078e+01 1.536032e+01 1.582912e+01 1.585153e+01 1.440768e+01 1.317104e+01 2.239825e+01 9.168632e-02 1.225885e-01 2.027587e-01 3.031011e-01 3.946367e-01 5.192913e-01 5.769845e-01 6.622620e-01 7.046574e-01 6.940144e-01 6.434581e-01 5.800717e-01 1.258577e-02 1.599120e-02 2.375650e-02 4.081782e-02 5.995527e-02 7.469338e-02 9.815639e-02 1.087965e-01 1.299548e-01 1.410595e-01 1.354098e-01 1.259994e-01 1.122711e-01 2.449265e-03
<GCONST> 4.842501e+01
<STATE> 3
<NUMMIXES> 2
<MIXTURE> 1 5.000000e-01
<MEAN> 39
 -5.811479e-01 -4.439319e-01 -3.726654e-01 9.702360e-01 9.237998e-01 1.868448e+00 1.928780e+00 2.553714e+00 1.998375e+00 2.044905e+00 1.403674e+00 1.513608e+00 3.332607e+00 1.412098e-01 9.019593e-02 1.672555e-01 1.860123e-01 2.124698e-01 2.105962e-01 1.881020e-01 1.156597e-01 4.736695e-02 4.108725e-02 6.975108e-02 8.296835e-02 2.225596e-02 9.441635e-02 1.107152e-01 1.202676e-01 6.303239e-02 3.822305e-02 -2.504352e-02 -5.904976e-02 -9.239210e-02 -8.093131e-02 -4.261405e-02 -1.009458e-02 4.082195e-03 1.165895e-02
<VARIANCE> 39
 2.626853e+00 3.195549e+00 5.317818e+00 8.492622e+00 1.006897e+01 1.346128e+01 1.448779e+01 1.631948e+01 1.621614e+01 1.556340e+01 1.418885e+01 1.348443e+01 1.955402e+01 8.617064e-02 1.350879e-01 2.301585e-01 3.337210e-01 4.246489e-01 5.448080e-01 6.283406e-01 6.982511e-01 7.083558e-01 6.718798e-01 6.327794e-01 5.879906e-01 1.392853e-02 1.669654e-02 2.437199e-02 4.281091e-02 6.372593e-02 8.648459e-02 1.071766e-01 1.203748e-01 1.290512e-01 1.359747e-01 1.288198e-01 1.148910e-01 1.140545e-01 3.245131e-03
<GCONST> 4.976890e+01
<MIXTURE> 2 5.000000e-01
<MEAN> 39
 -1.229451e+00 -1.158976e+00 -1.295081e+00 -1.954482e-01 -3.454659e-01 4.008636e-01 4.062664e-01 9.378185e-01 3.876045e-01 4.668865e-01 -1.030495e-01 4.476237e-02 1.563810e+00 2.379046e-02 -5.682129e-02 -2.464381e-02 -4.506207e-02 -4.819062e-02 -8.464821e-02 -1.289698e-01 -2.185860e-01 -2.892886e-01 -2.867858e-01 -2.484387e-01 -2.237538e-01 -2.495172e-02 4.273032e-02 4.826907e-02 3.750442e-02 -3.794359e-02 -7.941000e-02 -1.559949e-01 -1.978301e-01 -2.360869e-01 -2.284303e-01 -1.861799e-01 -1.456769e-01 -1.310056e-01 -1.112747e-02
<VARIANCE> 39
 2.626853e+00 3.195549e+00 5.317818e+00 8.492622e+00 1.006897e+01 1.346128e+01 1.448779e+01 1.631948e+01 1.621614e+01 1.556340e+01 1.418885e+01 1.348443e+01 1.955402e+01 8.617064e-02 1.350879e-01 2.301585e-01 3.337210e-01 4.246489e-01 5.448080e-01 6.283406e-01 6.982511e-01 7.083558e-01 6.718798e-01 6.327794e-01 5.879906e-01 1.392853e-02 1.669654e-02 2.437199e-02 4.281091e-02 6.372593e-02 8.648459e-02 1.071766e-01 1.203748e-01 1.290512e-01 1.359747e-01 1.288198e-01 1.148910e-01 1.140545e-01 3.245131e-03
<GCONST> 4.976890e+01
<STATE> 4
<NUMMIXES> 2
<MIXTURE> 1 5.000000e-01
<MEAN> 39
 -3.402995e-01 -1.716760e-01 1.201611e-01 1.775717e+00 1.469762e+00 2.274848e+00 1.749530e+00 2.217467e+00 1.136469e+00 1.350126e+00 7.837791e-01 1.307010e+00 4.658846e+00 2.681026e-01 1.981349e-01 2.494720e-01 1.555348e-01 1.295040e-01 3.285061e-02 -1.181445e-02 -8.978246e-02 -1.167461e-01 -7.417242e-02 2.006695e-03 3.128034e-02 1.274612e-02 8.341882e-02 8.112401e-02 6.596694e-02 8.784510e-03 5.777646e-03 -3.086107e-02 -2.518009e-02 -2.528187e-02 8.194193e-03 2.857680e-02 4.686470e-02 4.597453e-02 -3.824053e-03
<VARIANCE> 39
 3.330565e+00 3.424874e+00 5.385248e+00 8.726914e+00 1.018897e+01 1.346029e+01 1.446855e+01 1.648125e+01 1.675261e+01 1.583429e+01 1.452382e+01 1.345480e+01 2.661280e+01 1.385621e-01 1.573739e-01 2.511030e-01 3.765839e-01 4.932624e-01 5.941057e-01 6.846169e-01 7.808006e-01 7.818923e-01 7.436835e-01 7.108951e-01 6.498314e-01 2.464442e-02 2.573638e-02 2.886706e-02 4.411321e-02 7.029254e-02 8.914914e-02 1.126823e-01 1.250316e-01 1.374486e-01 1.368790e-01 1.294816e-01 1.227348e-01 1.175701e-01 6.756746e-03
<GCONST> 5.452467e+01
<MIXTURE> 2 5.000000e-01
<MEAN> 39
 -1.070293e+00 -9.119326e-01 -8.080844e-01 5.940630e-01 1.929555e-01 8.073167e-01 2.280282e-01 5.935828e-01 -5.007290e-01 -2.415665e-01 -7.406261e-01 -1.602212e-01 2.595342e+00 1.192068e-01 3.945334e-02 4.903124e-02 -8.993098e-02 -1.514266e-01 -2.754624e-01 -3.427808e-01 -4.432341e-01 -4.704449e-01 -4.191208e-01 -3.352517e-01 -2.911682e-01 -5.004804e-02 1.924857e-02 1.316277e-02 -1.804564e-02 -9.726645e-02 -1.136538e-01 -1.651338e-01 -1.666193e-01 -1.735781e-01 -1.397945e-01 -1.153574e-01 -9.326941e-02 -9.117945e-02 -3.670382e-02
<VARIANCE> 39
 3.330565e+00 3.424874e+00 5.385248e+00 8.726914e+00 1.018897e+01 1.346029e+01 1.446855e+01 1.648125e+01 1.675261e+01 1.583429e+01 1.452382e+01 1.345480e+01 2.661280e+01 1.385621e-01 1.573739e-01 2.511030e-01 3.765839e-01 4.932624e-01 5.941057e-01 6.846169e-01 7.808006e-01 7.818923e-01 7.436835e-01 7.108951e-01 6.498314e-01 2.464442e-02 2.573638e-02 2.886706e-02 4.411321e-02 7.029254e-02 8.914914e-02 1.126823e-01 1.250316e-01 1.374486e-01 1.368790e-01 1.294816e-01 1.227348e-01 1.175701e-01 6.756746e-03
<GCONST> 5.452467e+01
<TRANSP> 5
 0.000000e+00 1.000000e+00 0.000000e+00 0.000000e+00 0.000000e+00
 0.000000e+00 6.724225e-01 3.275775e-01 0.000000e+00 0.000000e+00
 0.000000e+00 0.000000e+00 1.790248e-01 8.209752e-01 0.000000e+00
 0.000000e+00 0.000000e+00 0.000000e+00 2.430194e-01 7.569806e-01
 0.000000e+00 0.000000e+00 0.000000e+00 0.000000e+00 0.000000e+00
<ENDHMM>
~h "ao"
<BEGINHMM>
<NUMSTATES> 5
<STATE> 2
<NUMMIXES> 2
<MIXTURE> 1 5.000000e-01
<MEAN> 39
 -4.547993e-01 1.274789e-01 9.709871e-02 1.175215e+00 1.068652e+00 1.574239e+00 1.103033e+00 1.792220e+00 1.221583e+00 1.513100e+00 1.104221e+00 1.368372e+00 3.388200e+00 -5.108281e-02 5.987564e-02 1.620363e-01 3.598802e-01 4.246047e-01 4.751406e-01 4.207969e-01 4.048686e-01 3.854859e-01 3.202764e-01 2.595658e-01 2.530476e-01 2.548932e-02 8.768369e-02 4.988963e-02 6.275313e-02 9.273384e-03 1.289960e-03 -2.774874e-02 1.992366e-02 -1.212440e-03 2.361113e-02 2.326267e-02 3.171367e-02 1.787791e-02 -2.544633e-02
<VARIANCE> 39
 2.847820e+00 2.799664e+00 5.331428e+00 7.930579e+00 9.504803e+00 1.232317e+01 1.336447e+01 1.509922e+01 1.560684e+01 1.556926e+01 1.408127e+01 1.386309e+01 2.257765e+01 7.543341e-02 1.396407e-01 2.445980e-01 3.695138e-01 4.225188e-01 5.242210e-01 5.812163e-01 6.501691e-01 6.792226e-01 6.615776e-01 6.079123e-01 5.777196e-01 1.315354e-02 1.926470e-02 2.458783e-02 4.518163e-02 6.530678e-02 7.624808e-02 9.634675e-02 1.026472e-01 1.155213e-01 1.328418e-01 1.262911e-01 1.153216e-01 1.101405e-01 8.497713e-03
<GCONST> 4.978661e+01
<MIXTURE> 2 5.000000e-01
<MEAN> 39
 -1.129819e+00 -5.418090e-01 -8.264967e-01 4.876363e-02 -1.645420e-01 1.700636e-01 -3.592645e-01 2.379117e-01 -3.586369e-01 -6.521595e-02 -3.967799e-01 -1.209543e-01 1.487562e+00 -1.609434e-01 -8.959848e-02 -3.579107e-02 1.167296e-01 1.645989e-01 1.855282e-01 1.158467e-01 8.233637e-02 5.582607e-02 -5.073249e-03 -5.230916e-02 -5.098394e-02 -2.038623e-02 3.216476e-02 -1.283239e-02 -2.227075e-02 -9.294738e-02 -1.091623e-01 -1.519078e-01 -1.082307e-01 -1.371661e-01 -1.221787e-01 -1.188872e-01 -1.041225e-01 -1.148718e-01 -6.231955e-02
<VARIANCE> 39
 2.847820e+00 2.799664e+00 5.331428e+00 7.930579e+00 9.504803e+00 1.232317e+01 1.336447e+01 1.509922e+01 1.560684e+01 1.556926e+01 1.408127e+01 1.386309e+01 2.257765e+01 7.543341e-02 1.396407e-01 2.445980e-01 3.695138e-01 4.225188e-01 5.242210e-01 5.812163e-01 6.501691e-01 6.792226e-01 6.615776e-01 6.079123e-01 5.777196e-01 1.315354e-02 1.926470e-02 2.458783e-02 4.518163e-02 6.530678e-02 7.624808e-02 9.634675e-02 1.026472e-01 1.155213e-01 1.328418e-01 1.262911e-01 1.153216e-01 1.101405e-01 8.497713e-03
<GCONST> 4.978661e+01
<STATE> 3
<NUMMIXES> 2
<MIXTURE> 1 5.000000e-01
<MEAN> 39
 -4.415649e-01 3.096415e-01 3.430397e-01 1.549538e+00 1.415894e+00 1.856364e+00 1.297471e+00 1.714924e+00 1.316867e+00 1.503686e+00 1.014849e+00 1.225640e+00 3.292433e+00 1.352269e-03 8.005853e-02 1.495048e-01 2.321100e-01 2.441643e-01 2.646789e-01 2.969707e-01 2.475249e-01 2.578388e-01 2.317881e-01 1.889282e-01 1.822282e-01 1.743274e-02 7.185768e-02 4.860964e-02 3.259681e-02 -3.592220e-02 -6.568965e-02 -7.985134e-02 -3.698125e-02 -3.704206e-02 -2.722397e-02 3.074788e-03 1.406246e-02 1.445627e-02 1.997900e-03
<VARIANCE> 39
 2.616113e+00 2.951796e+00 5.321459e+00 8.192465e+00 9.979220e+00 1.216763e+01 1.347569e+01 1.542290e+01 1.527942e+01 1.555354e+01 1.412256e+01 1.345675e+01 2.189346e+01 6.120819e-02 1.139527e-01 2.173254e-01 3.014778e-01 3.659833e-01 4.858779e-01 5.741157e-01 5.746880e-01 6.337092e-01 6.329992e-01 5.839529e-01 5.700883e-01 1.187949e-02 1.417618e-02 2.553749e-02 4.497513e-02 6.401543e-02 7.969622e-02 9.524893e-02 1.041645e-01 1.268426e-01 1.330912e-01 1.257908e-01 1.147263e-01 1.129934e-01 2.885044e-03
<GCONST> 4.719840e+01
<MIXTURE> 2 5.000000e-01
<MEAN> 39
 -1.088541e+00 -3.775902e-01 -5.796919e-01 4.046383e-01 1.522975e-01 4.610783e-01 -1.708994e-01 1.440442e-01 -2.466892e-01 -7.383305e-02 -4.883507e-01 -2.416977e-01 1.420815e+00 -9.760889e-02 -5.496899e-02 -3.696788e-02 1.248201e-02 2.178095e-03 -1.414089e-02 -6.110951e-03 -5.570780e-02 -6.058459e-02 -8.645691e-02 -1.167390e-01 -1.197885e-01 -2.616449e-02 2.423218e-02 -1.531218e-02 -5.223256e-02 -1.371273e-01 -1.786117e-01 -2.033011e-01 -1.660793e-01 -1.795020e-01 -1.731506e-01 -1.387932e-01 -1.214226e-01 -1.200017e-01 -1.948714e-02
<VARIANCE> 39
 2.616113e+00 2.951796e+00 5.321459e+00 8.192465e+00 9.979220e+00 1.216763e+01 1.347569e+01 1.542290e+01 1.527942e+01 1.555354e+01 1.412256e+01 1.345675e+01 2.189346e+01 6.120819e-02 1.139527e-01 2.173254e-01 3.014778e-01 3.659833e-01 4.858779e-01 5.741157e-01 5.746880e-01 6.337092e-01 6.329992e-01 5.839529e-01 5.700883e-01 1.187949e-02 1.417618e-02 2.553749e-02 4.497513e-02 6.401543e-02 7.969622e-02 9.524893e-02 1.041645e-01 1.268426e-01 1.330912e-01 1.257908e-01 1.147263e-01 1.129934e-01 2.885044e-03
<GCONST> 4.719840e+01
<STATE> 4
<NUMMIXES> 2
<MIXTURE> 1 5.000000e-01
<MEAN> 39
 -1.631647e+00 3.189791e-01 -1.828943e-01 2.219204e+00 1.709753e+00 2.596816e+00 1.483741e+00 2.608972e+00 1.303596e+00 2.246120e+00 1.111090e+00 1.834317e+00 8.276401e+00 6.075007e-02 7.048719e-02 1.020922e-01 9.453649e-02 9.120795e-02 1.005613e-01 1.403927e-01 1.462517e-01 1.476318e-01 1.441586e-01 1.330556e-01 1.333885e-01 2.226672e-02 3.882943e-02 2.738956e-02 3.246932e-02 1.653477e-02 5.180500e-03 1.955850e-02 2.820735e-02 3.647723e-02 3.998516e-02 4.635628e-02 5.457867e-02 5.560315e-02 1.141410e-02
<VARIANCE> 39
 2.960878e+00 3.307902e+00 5.817784e+00 8.663589e+00 1.027112e+01 1.317092e+01 1.435781e+01 1.622287e+01 1.623717e+01 1.656218e+01 1.467717e+01 1.394536e+01 3.401172e+01 6.917571e-02 1.186615e-01 2.253406e-01 3.303294e-01 4.069239e-01 5.011829e-01 5.927818e-01 6.426578e-01 6.704332e-01 6.995549e-01 6.552139e-01 6.206701e-01 1.228946e-02 1.308448e-02 2.369129e-02 4.466965e-02 6.798989e-02 8.122623e-02 1.014410e-01 1.165571e-01 1.292021e-01 1.310108e-01 1.328957e-01 1.236167e-01 1.195971e-01 2.209670e-03
<GCONST> 4.941825e+01
<MIXTURE> 2 5.000000e-01
<MEAN> 39
 -2.319935e+00 -4.085265e-01 -1.147698e+00 1.041846e+00 4.278092e-01 1.145146e+00 -3.192723e-02 9.978665e-01 -3.082185e-01 6.182538e-01 -4.213415e-01 3.405773e-01 5.943618e+00 -4.445503e-02 -6.730192e-02 -8.778806e-02 -1.353607e-01 -1.639544e-01 -1.826158e-01 -1.675766e-01 -1.744121e-01 -1.798881e-01 -1.903990e-01 -1.907255e-01 -1.817420e-01 -2.207642e-02 -6.925533e-03 -3.417834e-02 -5.207146e-02 -8.776471e-02 -1.088204e-01 -1.078407e-01 -1.083545e-01 -1.073015e-01 -1.047965e-01 -9.946318e-02 -8.605799e-02 -8.272810e-02 -7.388751e-03
<VARIANCE> 39
 2.960878e+00 3.307902e+00 5.817784e+00 8.663589e+00 1.027112e+01 1.317092e+01 1.435781e+01 1.622287e+01 1.623717e+01 1.656218e+01 1.467717e+01 1.394536e+01 3.401172e+01 6.917571e-02 1.186615e-01 2.253406e-01 3.303294e-01 4.069239e-01 5.011829e-01 5.927818e-01 6.426578e-01 6.704332e-01 6.995549e-01 6.552139e-01 6.206701e-01 1.228946e-02 1.308448e-02 2.369129e-02 4.466965e-02 6.798989e-02 8.122623e-02 1.014410e-01 1.165571e-01 1.292021e-01 1.310108e-01 1.328957e-01 1.236167e-01 1.195971e-01 2.209670e-03
<GCONST> 4.941825e+01
<TRANSP> 5
 0.000000e+00 1.000000e+00 0.000000e+00 0.000000e+00 0.000000e+00
 0.000000e+00 4.520236e-02 9.547977e-01 0.000000e+00 0.000000e+00
 0.000000e+00 0.000000e+00 8.286801e-02 9.171320e-01 0.000000e+00
 0.000000e+00 0.000000e+00 0.000000e+00 6.595767e-01 3.404233e-01
 0.000000e+00 0.000000e+00 0.000000e+00 0.000000e+00 0.000000e+00
<ENDHMM>
~h "ay"
<BEGINHMM>
<NUMSTATES> 5
<STATE> 2
<NUMMIXES> 2
<MIXTURE> 1 5.000000e-01
<MEAN> 39
 -4.787858e-01 6.457812e-02 7.303467e-02 1.200222e+00 1.032473e+00 1.524365e+00 1.205182e+00 1.913491e+00 1.289999e+00 1.539728e+00 1.180918e+00 1.403243e+00 3.354056e+00 -5.494742e-02 2.206093e-02 8.465105e-02 2.557366e-01 3.113512e-01 3.729213e-01 3.975992e-01 4.132949e-01 4.057941e-01 3.600657e-01 2.984345e-01 2.726754e-01 2.679880e-02 8.126590e-02 5.754682e-02 6.683254e-02 2.899670e-02 1.782484e-02 -1.074292e-03 1.238987e-02 -1.743925e-02 -1.118928e-04 5.448833e-03 9.835683e-03 1.543871e-02 -1.225223e-02
<VARIANCE> 39
 2.706022e+00 2.927061e+00 5.018132e+00 8.403850e+00 9.681686e+00 1.230128e+01 1.292876e+01 1.516302e+01 1.500245e+01 1.518661e+01 1.462620e+01 1.319673e+01 1.966262e+01 7.891317e-02 1.328383e-01 2.401436e-01 3.515023e-01 4.409988e-01 5.340036e-01 6.060203e-01 6.630091e-01 7.271647e-01 7.127815e-01 6.313669e-01 5.680503e-01 1.356209e-02 1.662546e-02 2.506201e-02 4.292741e-02 6.935975e-02 8.630011e-02 1.057576e-01 1.107103e-01 1.165682e-01 1.314993e-01 1.291132e-01 1.189037e-01 1.026080e-01 6.954439e-03
<GCONST> 4.974876e+01
<MIXTURE> 2 5.000000e-01
<MEAN> 39
 -1.136785e+00 -6.197681e-01 -8.230128e-01 4.064637e-02 -2.121436e-01 1.214374e-01 -2.330818e-01 3.559025e-01 -2.593213e-01 -1.907164e-02 -3.488506e-01 -4.984933e-02 1.580354e+00 -1.673134e-01 -1.237270e-01 -1.113667e-01 1.858604e-02 4.572022e-02 8.061910e-02 8.621000e-02 8.759338e-02 6.469829e-02 2.236013e-02 -1.939990e-02 -2.880102e-02 -1.978376e-02 2.969000e-02 -5.777122e-03 -1.604318e-02 -7.634826e-02 -9.968268e-02 -1.311559e-01 -1.207028e-01 -1.540076e-01 -1.451632e-01 -1.382805e-01 -1.280940e-01 -1.126912e-01 -4.560954e-02
<VARIANCE> 39
 2.706022e+00 2.927061e+00 5.018132e+00 8.403850e+00 9.681686e+00 1.230128e+01 1.292876e+01 1.516302e+01 1.500245e+01 1.518661e+01 1.462620e+01 1.319673e+01 1.966262e+01 7.891317e-02 1.328383e-01 2.401436e-01 3.515023e-01 4.409988e-01 5.340036e-01 6.060203e-01 6.630091e-01 7.271647e-01 7.127815e-01 6.313669e-01 5.680503e-01 1.356209e-02 1.662546e-02 2.506201e-02 4.292741e-02 6.935975e-02 8.630011e-02 1.057576e-01 1.107103e-01 1.165682e-01 1.314993e-01 1.291132e-01 1.189037e-01 1.026080e-01 6.954439e-03
<GCONST> 4.974876e+01
<STATE> 3
<NUMMIXES> 2
<MIXTURE> 1 5.000000e-01
<MEAN> 39
 -7.881032e-01 4.726630e-01 4.421847e-01 1.923008e+00 1.225054e+00 1.779237e+00 1.150367e+00 1.592848e+00 1.312061e+00 1.423662e+00 1.067412e+00 1.336926e+00 2.131266e+00 3.831094e-02 6.636621e-02 9.982343e-02 1.418521e-01 1.582138e-01 1.705722e-01 1.754446e-01 1.669032e-01 1.673603e-01 1.735810e-01 1.520435e-01 1.479256e-01 2.015475e-02 4.171502e-02 3.864446e-02 4.521881e-02 2.659204e-02 2.416961e-02 1.900284e-02 1.775771e-02 1.548043e-02 1.589188e-02 2.523173e-02 3.445336e-02 3.738488e-02 7.999763e-03
<VARIANCE> 39
 2.126781e+00 2.940549e+00 4.821762e+00 8.888021e+00 9.367798e+00 1.232979e+01 1.353740e+01 1.461508e+01 1.527869e+01 1.525761e+01 1.404527e+01 1.275642e+01 8.535398e+00 5.256273e-02 1.069360e-01 1.910911e-01 2.987399e-01 3.926790e-01 4.914159e-01 5.560864e-01 5.758107e-01 6.074046e-01 6.379634e-01 6.117550e-01 5.334420e-01 9.148278e-03 1.020528e-02 2.081120e-02 3.608125e-02 5.630509e-02 7.527682e-02 9.637839e-02 1.079163e-01 1.117998e-01 1.195962e-01 1.234067e-01 1.166584e-01 1.026118e-01 1.878017e-03
<GCONST> 4.358028e+01
<MIXTURE> 2 5.000000e-01
<MEAN> 39
 -1.371443e+00 -2.132581e-01 -4.361558e-01 7.304962e-01 7.790923e-04 3.746850e-01 -3.213616e-01 6.366104e-02 -2.514578e-01 -1.387780e-01 -4.316687e-01 -9.171885e-02 9.626499e-01 -5.339532e-02 -6.443807e-02 -7.503244e-02 -7.677633e-02 -9.244262e-02 -1.098321e-01 -1.228402e-01 -1.366256e-01 -1.443844e-01 -1.459094e-01 -1.608156e-01 -1.442229e-01 -1.810390e-02 1.306543e-03 -1.905989e-02 -3.076145e-02 -6.832274e-02 -8.557688e-02 -1.051766e-01 -1.136447e-01 -1.182655e-01 -1.224388e-01 -1.152854e-01 -1.021678e-01 -9.074744e-02 -9.334674e-03
<VARIANCE> 39
 2.126781e+00 2.940549e+00 4.821762e+00 8.888021e+00 9.367798e+00 1.232979e+01 1.353740e+01 1.461508e+01 1.527869e+01 1.525761e+01 1.404527e+01 1.275642e+01 8.535398e+00 5.256273e-02 1.069360e-01 1.910911e-01 2.987399e-01 3.926790e-01 4.914159e-01 5.560864e-01 5.758107e-01 6.074046e-01 6.379634e-01 6.117550e-01 5.334420e-01 9.148278e-03 1.020528e-02 2.081120e-02 3.608125e-02 5.630509e-02 7.527682e-02 9.637839e-02 1.079163e-01 1.117998e-01 1.195962e-01 1.234067e-01 1.166584e-01 1.026118e-01 1.878017e-03
<GCONST> 4.358028e+01
<STATE> 4
<NUMMIXES> 2
<MIXTURE> 1 5.000000e-01
<MEAN> 39
 -1.905799e+00 -1.517322e-01 -4.514064e-01 2.287238e+00 1.299642e+00 2.496930e+00 1.569386e+00 2.830998e+00 1.082102e+00 2.196752e+00 1.165899e+00 2.031893e+00 9.136456e+00 8.305675e-02 7.111484e-02 1.057353e-01 1.096223e-01 1.222472e-01 1.323897e-01 1.388474e-01 1.317004e-01 1.312447e-01 1.323866e-01 1.326091e-01 1.324467e-01 2.391968e-02 3.993955e-02 3.577905e-02 4.292190e-02 3.811907e-02 4.550042e-02 4.668610e-02 5.006513e-02 4.933779e-02 5.637855e-02 5.752108e-02 6.108249e-02 5.617006e-02 8.490901e-03
<VARIANCE> 39
 2.515357e+00 3.240810e+00 5.313276e+00 8.429771e+00 1.043756e+01 1.281534e+01 1.441386e+01 1.587520e+01 1.595840e+01 1.598295e+01 1.451333e+01 1.326189e+01 1.768614e+01 6.514292e-02 1.236784e-01 2.136179e-01 3.257360e-01 4.522119e-01 5.455838e-01 6.225878e-01 6.537502e-01 6.991247e-01 6.902075e-01 6.330211e-01 5.738660e-01 1.189621e-02 1.179440e-02 2.340555e-02 4.017759e-02 6.284076e-02 8.772409e-02 1.046758e-01 1.201690e-01 1.242575e-01 1.328196e-01 1.295048e-01 1.197377e-01 1.080445e-01 2.218286e-03
<GCONST> 4.803027e+01
<MIXTURE> 2 5.000000e-01
<MEAN> 39
 -2.540195e+00 -8.718222e-01 -1.373428e+00 1.125876e+00 7.353723e-03 1.064990e+00 5.076253e-02 1.237250e+00 -5.158162e-01 5.976044e-01 -3.579561e-01 5.752184e-01 7.454260e+00 -1.903569e-02 -6.955692e-02 -7.913994e-02 -1.186708e-01 -1.467396e-01 -1.630649e-01 -1.767695e-01 -1.917189e-01 -2.032100e-01 -1.999283e-01 -1.856415e-01 -1.705690e-01 -1.970822e-02 -3.501266e-03 -2.541645e-02 -3.725550e-02 -6.215317e-02 -7.297260e-02 -8.272846e-02 -8.859648e-02 -9.166291e-02 -8.939913e-02 -8.642603e-02 -7.733006e-02 -7.531044e-02 -1.034857e-02
<VARIANCE> 39
 2.515357e+00 3.240810e+00 5.313276e+00 8.429771e+00 1.043756e+01 1.281534e+01 1.441386e+01 1.587520e+01 1.595840e+01 1.598295e+01 1.451333e+01 1.326189e+01 1.768614e+01 6.514292e-02 1.236784e-01 2.136179e-01 3.257360e-01 4.522119e-01 5.455838e-01 6.225878e-01 6.537502e-01 6.991247e-01 6.902075e-01 6.330211e-01 5.738660e-01 1.189621e-02 1.179440e-02 2.340555e-02 4.017759e-02 6.284076e-02 8.772409e-02 1.046758e-01 1.201690e-01 1.242575e-01 1.328196e-01 1.295048e-01 1.197377e-01 1.080445e-01 2.218286e-03
<GCONST> 4.803027e+01
<TRANSP> 5
 0.000000e+00 1.000000e+00 0.000000e+00 0.000000e+00 0.000000e+00
 0.000000e+00 8.916731e-02 9.108327e-01 0.000000e+00 0.000000e+00
 0.000000e+00 0.000000e+00 7.234342e-01 2.765658e-01 0.000000e+00
 0.000000e+00 0.000000e+00 0.000000e+00 8.391666e-01 1.608334e-01
 0.000000e+00 0.000000e+00 0.000000e+00 0.000000e+00 0.000000e+00
<ENDHMM>
~h "eh"
<BEGINHMM>
<NUMSTATES> 5
<STATE> 2
<NUMMIXES> 2
<MIXTURE> 1 5.000000e-01
<MEAN> 39
 -5.570453e-01 9.718233e-02 1.299128e-01 1.145746e+00 7.088293e-01 1.355247e+00 1.290066e+00 1.655105e+00 1.090510e+00 1.360710e+00 1.264127e+00 1.317077e+00 2.571106e+00 -3.759076e-02 8.706606e-02 1.863209e-01 3.933729e-01 3.715354e-01 3.887344e-01 2.920030e-01 2.838011e-01 2.735907e-01 2.638876e-01 2.108761e-01 2.266877e-01 1.129855e-01 9.200118e-02 7.431562e-02 6.140260e-02 -1.176076e-02 1.975958e-02 -2.001708e-02 -1.371736e-02 -3.190456e-02 2.519931e-02 -1.568429e-03 7.977262e-04 -1.396147e-02 -2.965236e-02
<VARIANCE> 39
 3.250568e+00 3.152498e+00 5.266688e+00 9.420611e+00 9.519898e+00 1.280857e+01 1.358164e+01 1.496540e+01 1.446406e+01 1.432484e+01 1.344201e+01 1.234942e+01 1.701510e+01 1.207258e-01 1.451306e-01 2.514685e-01 4.032140e-01 4.512959e-01 5.622916e-01 6.531011e-01 6.692623e-01 7.017197e-01 6.535282e-01 6.127300e-01 5.760148e-01 3.711290e-02 2.016664e-02 3.034528e-02 4.762963e-02 8.562284e-02 8.644778e-02 1.076905e-01 1.168616e-01 1.253119e-01 1.363538e-01 1.290009e-01 1.179327e-01 1.046401e-01 1.803884e-02
<GCONST> 5.340746e+01
<MIXTURE> 2 5.000000e-01
<MEAN> 39
 -1.278219e+00 -6.130287e-01 -7.880578e-01 -8.197498e-02 -5.253440e-01 -7.631534e-02 -1.840649e-01 1.076999e-01 -4.307561e-01 -1.532170e-01 -2.024065e-01 -8.859247e-02 9.211317e-01 -1.765732e-01 -6.531798e-02 -1.426560e-02 1.393763e-01 1.028212e-01 8.878998e-02 -3.125565e-02 -4.343271e-02 -6.148412e-02 -5.947679e-02 -1.022322e-01 -7.689488e-02 3.592667e-02 3.519746e-02 4.636034e-03 -2.589426e-02 -1.288063e-01 -9.784844e-02 -1.512820e-01 -1.504575e-01 -1.735022e-01 -1.225052e-01 -1.452352e-01 -1.365676e-01 -1.433540e-01 -8.337586e-02
<VARIANCE> 39
 3.250568e+00 3.152498e+00 5.266688e+00 9.420611e+00 9.519898e+00 1.280857e+01 1.358164e+01 1.496540e+01 1.446406e+01 1.432484e+01 1.344201e+01 1.234942e+01 1.701510e+01 1.207258e-01 1.451306e-01 2.514685e-01 4.032140e-01 4.512959e-01 5.622916e-01 6.531011e-01 6.692623e-01 7.017197e-01 6.535282e-01 6.127300e-01 5.760148e-01 3.711290e-02 2.016664e-02 3.034528e-02 4.762963e-02 8.562284e-02 8.644778e-02 1.076905e-01 1.168616e-01 1.253119e-01 1.363538e-01 1.290009e-01 1.179327e-01 1.046401e-01 1.803884e-02
<GCONST> 5.340746e+01
<STATE> 3
<NUMMIXES> 2
<MIXTURE> 1 5.000000e-01
<MEAN> 39
 -1.238449e+00 2.989367e-02 -1.535803e-03 1.965157e+00 1.538794e+00 2.226257e+00 1.542657e+00 2.207629e+00 1.379007e+00 1.925841e+00 1.181157e+00 1.645806e+00 5.027867e+00 1.044668e-01 1.058055e-01 1.559464e-01 1.905644e-01 2.088701e-01 1.809456e-01 1.446720e-01 1.282445e-01 1.699220e-01 1.689646e-01 1.180023e-01 1.222984e-01 3.111336e-02 6.954344e-02 4.604606e-02 3.986853e-02 -6.128069e-03 -6.544344e-03 -1.002605e-02 9.442840e-03 1.263851e-02 2.219903e-02 1.773048e-02 3.086103e-02 2.427407e-02 -6.528469e-04
<VARIANCE> 39
 3.426296e+00 3.183983e+00 5.513839e+00 9.247429e+00 1.037801e+01 1.305582e+01 1.449437e+01 1.593739e+01 1.569055e+01 1.660447e+01 1.472539e+01 1.361717e+01 2.217191e+01 8.468705e-02 1.325758e-01 2.310319e-01 3.399199e-01 4.249010e-01 5.413183e-01 5.935115e-01 6.396303e-01 6.849895e-01 6.608753e-01 6.368440e-01 5.825979e-01 1.854281e-02 1.676931e-02 2.557549e-02 4.390697e-02 6.685348e-02 8.427373e-02 1.048752e-01 1.202493e-01 1.292988e-01 1.300261e-01 1.269845e-01 1.167168e-01 1.101538e-01 4.330405e-03
<GCONST> 5.069125e+01
<MIXTURE> 2 5.000000e-01
<MEAN> 39
 -1.978859e+00 -6.838551e-01 -9.407984e-01 7.487732e-01 2.501968e-01 7.809432e-01 1.979840e-02 6.107628e-01 -2.054452e-01 2.958974e-01 -3.537904e-01 1.697481e-01 3.144385e+00 -1.193737e-02 -3.983830e-02 -3.631670e-02 -4.264625e-02 -5.186767e-02 -1.133517e-01 -1.634868e-01 -1.916631e-01 -1.611344e-01 -1.562124e-01 -2.012077e-01 -1.830140e-01 -2.335543e-02 1.774489e-02 -1.792330e-02 -4.394744e-02 -1.095522e-01 -1.226641e-01 -1.395638e-01 -1.292651e-01 -1.311941e-01 -1.220375e-01 -1.248091e-01 -1.057943e-01 -1.084836e-01 -2.697517e-02
<VARIANCE> 39
 3.426296e+00 3.183983e+00 5.513839e+00 9.247429e+00 1.037801e+01 1.305582e+01 1.449437e+01 1.593739e+01 1.569055e+01 1.660447e+01 1.472539e+01 1.361717e+01 2.217191e+01 8.468705e-02 1.325758e-01 2.310319e-01 3.399199e-01 4.249010e-01 5.413183e-01 5.935115e-01 6.396303e-01 6.849895e-01 6.608753e-01 6.368440e-01 5.825979e-01 1.854281e-02 1.676931e-02 2.557549e-02 4.390697e-02 6.685348e-02 8.427373e-02 1.048752e-01 1.202493e-01 1.292988e-01 1.300261e-01 1.269845e-01 1.167168e-01 1.101538e-01 4.330405e-03
<GCONST> 5.069125e+01
<STATE> 4
<NUMMIXES> 2
<MIXTURE> 1 5.000000e-01
<MEAN> 39
 1.447226e-01 3.593943e-01 4.586995e-01 6.443394e-01 6.661812e-01 7.454025e-01 7.460830e-01 7.688489e-01 7.878345e-01 7.757509e-01 7.441086e-01 7.277334e-01 1.968899e-01 4.559853e-02 6.827669e-02 9.089882e-02 1.088644e-01 1.241016e-01 1.360712e-01 1.463555e-01 1.532946e-01 1.579563e-01 1.568706e-01 1.528308e-01 1.440711e-01 1.877898e-02 1.865780e-02 2.790488e-02 3.769377e-02 4.618876e-02 5.424858e-02 6.074720e-02 6.664833e-02 6.931347e-02 7.117568e-02 7.044148e-02 6.886864e-02 6.429134e-02 7.516483e-03
<VARIANCE> 39
 1.235179e+00 2.616098e+00 4.640616e+00 7.096138e+00 9.445217e+00 1.166206e+01 1.342006e+01 1.460836e+01 1.520001e+01 1.502201e+01 1.403345e+01 1.260680e+01 4.530391e-01 4.861265e-02 1.109280e-01 1.996959e-01 3.004662e-01 4.039708e-01 4.976619e-01 5.790350e-01 6.292560e-01 6.620394e-01 6.502122e-01 6.129622e-01 5.395449e-01 8.207869e-03 8.900764e-03 2.092279e-02 3.775408e-02 5.679623e-02 7.655519e-02 9.382940e-02 1.097465e-01 1.191478e-01 1.261119e-01 1.232008e-01 1.165813e-01 1.019209e-01 1.519735e-03
<GCONST> 3.964443e+01
<MIXTURE> 2 5.000000e-01
<MEAN> 39
 -2.998319e-01 -2.875800e-01 -4.029841e-01 -4.212036e-01 -5.631417e-01 -6.205879e-01 -7.192531e-01 -7.599865e-01 -7.716532e-01 -7.745786e-01 -7.543414e-01 -6.925089e-01 -7.234285e-02 -4.259458e-02 -6.494674e-02 -8.785058e-02 -1.103948e-01 -1.301332e-01 -1.461094e-01 -1.580219e-01 -1.640080e-01 -1.675069e-01 -1.656724e-01 -1.603368e-01 -1.497438e-01 -1.745994e-02 -1.907974e-02 -2.995396e-02 -4.002787e-02 -4.913908e-02 -5.642586e-02 -6.177915e-02 -6.586371e-02 -6.875771e-02 -7.087328e-02 -6.995841e-02 -6.770737e-02 -6.340887e-02 -8.077029e-03
<VARIANCE> 39
 1.235179e+00 2.616098e+00 4.640616e+00 7.096138e+00 9.445217e+00 1.166206e+01 1.342006e+01 1.460836e+01 1.520001e+01 1.502201e+01 1.403345e+01 1.260680e+01 4.530391e-01 4.861265e-02 1.109280e-01 1.996959e-01 3.004662e-01 4.039708e-01 4.976619e-01 5.790350e-01 6.292560e-01 6.620394e-01 6.502122e-01 6.129622e-01 5.395449e-01 8.207869e-03 8.900764e-03 2.092279e-02 3.775408e-02 5.679623e-02 7.655519e-02 9.382940e-02 1.097465e-01 1.191478e-01 1.261119e-01 1.232008e-01 1.165813e-01 1.019209e-01 1.519735e-03
<GCONST> 3.964443e+01
<TRANSP> 5
 0.000000e+00 1.000000e+00 0.000000e+00 0.000000e+00 0.000000e+00
 0.000000e+00 1.620036e-01 8.379964e-01 0.000000e+00 0.000000e+00
 0.000000e+00 0.000000e+00 4.892473e-01 5.107527e-01 0.000000e+00
 0.000000e+00 0.000000e+00 0.000000e+00 9.842014e-01 1.579858e-02
 0.000000e+00 0.000000e+00 0.000000e+00 0.000000e+00 0.000000e+00
<ENDHMM>
~h "ey"
<BEGINHMM>
<NUMSTATES> 5
<STATE> 2
<NUMMIXES> 2
<MIXTURE> 1 5.000000e-01
<MEAN> 39
 -1.121312e+00 -1.016557e-04 -5.668104e-02 1.840353e+00 9.911597e-01 1.754494e+00 1.201240e+00 1.989755e+00 1.014437e+00 1.740689e+00 9.928692e-01 1.667482e+00 5.498518e+00 7.522998e-02 4.696444e-02 7.947809e-02 9.809946e-02 1.257485e-01 1.425322e-01 1.791410e-01 1.896268e-01 2.072657e-01 2.007407e-01 1.821067e-01 1.807661e-01 2.470965e-02 7.580125e-02 5.176631e-02 5.926634e-02 4.170403e-02 5.961559e-02 6.183125e-02 5.756003e-02 5.020334e-02 5.831338e-02 4.947146e-02 5.899939e-02 4.324951e-02 3.747837e-03
<VARIANCE> 39
 3.770139e+00 3.239844e+00 5.339756e+00 1.044264e+01 1.083850e+01 1.415100e+01 1.382150e+01 1.625021e+01 1.579589e+01 1.586841e+01 1.393267e+01 1.320969e+01 5.020072e+01 9.986666e-02 1.394756e-01 2.431715e-01 3.585789e-01 4.811209e-01 5.796243e-01 5.956483e-01 6.978242e-01 7.075490e-01 6.870767e-01 5.893648e-01 5.627628e-01 2.300753e-02 2.166798e-02 2.672951e-02 4.595986e-02 7.137300e-02 8.987224e-02 1.172199e-01 1.154007e-01 1.349421e-01 1.395953e-01 1.371154e-01 1.147270e-01 1.071031e-01 8.557145e-03
<GCONST> 5.383322e+01
<MIXTURE> 2 5.000000e-01
<MEAN> 39
 -1.897986e+00 -7.200843e-01 -9.809976e-01 5.477505e-01 -3.257154e-01 2.497817e-01 -2.858508e-01 3.772931e-01 -5.753245e-01 1.472818e-01 -5.001904e-01 2.136761e-01 2.664419e+00 -5.117676e-02 -1.024213e-01 -1.177716e-01 -1.414264e-01 -1.517030e-01 -1.620001e-01 -1.295720e-01 -1.445167e-01 -1.291981e-01 -1.308197e-01 -1.249737e-01 -1.193040e-01 -3.596329e-02 1.692106e-02 -1.363035e-02 -2.648666e-02 -6.515887e-02 -6.029921e-02 -7.511832e-02 -7.832269e-02 -9.673452e-02 -9.113644e-02 -9.864494e-02 -7.648611e-02 -8.765693e-02 -3.325410e-02
<VARIANCE> 39
 3.770139e+00 3.239844e+00 5.339756e+00 1.044264e+01 1.083850e+01 1.415100e+01 1.382150e+01 1.625021e+01 1.579589e+01 1.586841e+01 1.393267e+01 1.320969e+01 5.020072e+01 9.986666e-02 1.394756e-01 2.431715e-01 3.585789e-01 4.811209e-01 5.796243e-01 5.956483e-01 6.978242e-01 7.075490e-01 6.870767e-01 5.893648e-01 5.627628e-01 2.300753e-02 2.166798e-02 2.672951e-02 4.595986e-02 7.137300e-02 8.987224e-02 1.172199e-01 1.154007e-01 1.349421e-01 1.395953e-01 1.371154e-01 1.147270e-01 1.071031e-01 8.557145e-03
<GCONST> 5.383322e+01
<STATE> 3
<NUMMIXES> 2
<MIXTURE> 1 5.000000e-01
<MEAN> 39
 5.725268e-02 -3.280607e-02 -1.152995e-01 4.869475e-01 3.474382e-01 7.398204e-01 9.003965e-01 1.205261e+00 1.023916e+00 1.236731e+00 9.442597e-01 1.069185e+00 1.457506e+00 2.231754e-01 1.075080e-01 1.120753e-01 3.920894e-02 1.019776e-01 1.247707e-01 1.600944e-01 1.418895e-01 1.898909e-01 1.593270e-01 1.857787e-01 1.220641e-01 8.069903e-03 1.356873e-01 1.219873e-01 1.125687e-01 5.108160e-02 8.083487e-02 4.377522e-02 2.686817e-02 9.031989e-03 2.419728e-02 1.415985e-02 4.210182e-02 1.388512e-02 -8.797087e-04
<VARIANCE> 39
 3.103454e+00 3.123516e+00 5.129549e+00 1.077767e+01 1.122793e+01 1.424287e+01 1.390743e+01 1.601537e+01 1.503447e+01 1.583609e+01 1.364196e+01 1.266106e+01 4.236335e+01 1.644557e-01 1.704931e-01 2.796839e-01 4.532074e-01 5.275280e-01 6.799722e-01 7.129705e-01 7.692180e-01 7.394093e-01 7.386783e-01 6.738291e-01 5.916469e-01 5.612370e-02 4.906122e-02 4.621750e-02 6.295325e-02 1.128608e-01 1.199119e-01 1.520443e-01 1.426365e-01 1.574617e-01 1.520075e-01 1.460116e-01 1.230181e-01 1.248013e-01 8.522141e-02
<GCONST> 6.185866e+01
<MIXTURE> 2 5.000000e-01
<MEAN> 39
 -6.474123e-01 -7.397449e-01 -1.021240e+00 -8.262269e-01 -9.928859e-01 -7.697687e-01 -5.913103e-01 -3.955071e-01 -5.270563e-01 -3.550521e-01 -5.331413e-01 -3.541108e-01 -1.145980e+00 6.096283e-02 -5.765526e-02 -9.946528e-02 -2.300738e-01 -1.885469e-01 -2.050710e-01 -1.776559e-01 -2.089309e-01 -1.540647e-01 -1.844586e-01 -1.425697e-01 -1.856103e-01 -8.669186e-02 4.708826e-02 3.599428e-02 1.220678e-02 -8.329745e-02 -5.767832e-02 -1.121962e-01 -1.242008e-01 -1.496938e-01 -1.317553e-01 -1.386860e-01 -9.819392e-02 -1.274238e-01 -1.176505e-01
<VARIANCE> 39
 3.103454e+00 3.123516e+00 5.129549e+00 1.077767e+01 1.122793e+01 1.424287e+01 1.390743e+01 1.601537e+01 1.503447e+01 1.583609e+01 1.364196e+01 1.266106e+01 4.236335e+01 1.644557e-01 1.704931e-01 2.796839e-01 4.532074e-01 5.275280e-01 6.799722e-01 7.129705e-01 7.692180e-01 7.394093e-01 7.386783e-01 6.738291e-01 5.916469e-01 5.612370e-02 4.906122e-02 4.621750e-02 6.295325e-02 1.128608e-01 1.199119e-01 1.520443e-01 1.426365e-01 1.574617e-01 1.520075e-01 1.460116e-01 1.230181e-01 1.248013e-01 8.522141e-02
<GCONST> 6.185866e+01
<STATE> 4
<NUMMIXES> 2
<MIXTURE> 1 5.000000e-01
<MEAN> 39
