~o
<STREAMINFO> 1 39
<VECSIZE> 39<NULLD><MFCC_D_A_Z_0><DIAGC>
~v "varFloor1"
<VARIANCE> 39
 5.653673e-02 4.886588e-02 6.880558e-02 1.097444e-01 1.173968e-01 1.501360e-01 1.524483e-01 1.769248e-01 1.673871e-01 1.699316e-01 1.501835e-01 1.395998e-01 3.516366e-01 1.948883e-03 2.195148e-03 3.084339e-03 4.548327e-03 5.169705e-03 6.475277e-03 6.752422e-03 7.581503e-03 7.468139e-03 7.484302e-03 6.703977e-03 6.097627e-03 6.117719e-03 3.081363e-04 3.835776e-04 5.522510e-04 7.938185e-04 9.348416e-04 1.158605e-03 1.234846e-03 1.362727e-03 1.366371e-03 1.361924e-03 1.233620e-03 1.112660e-03 7.270522e-04
~s "silst"
<NUMMIXES> 16
<MIXTURE> 1 3.625299e-02
<MEAN> 39
 4.514217e-01 2.318601e-01 2.480398e-01 2.610915e-01 3.503436e-01 7.981812e-01 1.130306e+00 1.430685e+00 1.499751e+00 1.485641e+00 1.157823e+00 1.109369e+00 5.533726e-02 -1.488946e-03 2.921550e-01 4.640581e-01 8.650147e-01 6.338841e-01 6.769354e-01 4.441083e-01 4.427553e-01 3.873032e-01 3.945981e-01 3.384007e-01 3.135017e-01 1.848128e-01 4.356436e-02 5.104236e-02 7.330569e-02 9.035078e-02 9.832999e-02 6.823564e-02 5.269848e-02 3.472126e-02 2.028551e-02 3.096527e-02 5.405094e-02 3.480656e-02 1.679952e-02
<VARIANCE> 39
 2.244225e+00 2.921499e+00 4.791609e+00 9.071330e+00 1.013416e+01 1.306021e+01 1.505301e+01 1.541677e+01 1.631227e+01 1.577784e+01 1.517315e+01 1.284286e+01 5.265743e-01 1.620743e-01 1.778071e-01 2.456492e-01 4.685315e-01 4.888736e-01 6.512709e-01 6.789292e-01 7.613361e-01 7.209894e-01 7.460614e-01 6.665567e-01 5.887761e-01 4.182028e-02 1.907691e-02 2.624434e-02 4.420350e-02 8.406057e-02 8.992692e-02 1.158988e-01 1.268280e-01 1.340100e-01 1.348750e-01 1.307666e-01 1.282116e-01 1.046730e-01 4.747571e-03
<GCONST> 5.006850e+01
<MIXTURE> 2 9.094495e-02
<MEAN> 39
 6.210271e-01 8.998706e-01 1.366188e+00 1.787572e+00 1.612387e+00 1.439318e+00 8.976806e-01 6.552455e-01 4.002466e-01 3.301170e-01 2.250484e-01 3.666009e-01 3.194905e-01 1.386312e-01 1.165049e-01 6.788725e-02 -1.365137e-02 2.733658e-02 1.063574e-01 2.416715e-01 3.419408e-01 3.741919e-01 3.767391e-01 3.530477e-01 2.569297e-01 2.690718e-02 6.204249e-03 -2.164317e-02 -4.145341e-02 -5.119581e-02 -2.106620e-02 2.051340e-02 8.413392e-02 1.231358e-01 1.424348e-01 1.464410e-01 1.525501e-01 1.245689e-01 -5.534402e-03
<VARIANCE> 39
 2.092761e+00 2.594872e+00 4.337940e+00 7.915154e+00 1.017885e+01 1.203834e+01 1.329529e+01 1.449924e+01 1.453796e+01 1.425135e+01 1.349294e+01 1.206676e+01 3.816804e-01 1.277414e-01 1.556716e-01 2.481215e-01 3.773198e-01 4.433620e-01 5.367272e-01 6.191657e-01 7.065992e-01 7.205530e-01 6.853801e-01 6.591178e-01 5.684863e-01 2.234090e-02 2.154249e-02 2.630213e-02 4.425569e-02 8.047091e-02 9.408627e-02 1.094565e-01 1.187936e-01 1.265770e-01 1.301510e-01 1.252630e-01 1.181439e-01 1.017244e-01 4.021632e-03
<GCONST> 4.646101e+01
<MIXTURE> 3 8.755205e-02
<MEAN> 39
 3.296326e-01 -5.970143e-01 -9.443742e-01 -1.298278e+00 -5.705836e-01 4.319274e-02 9.409279e-01 1.280735e+00 1.399960e+00 1.598715e+00 1.620889e+00 1.288994e+00 -2.786415e-01 6.844801e-02 1.335341e-01 1.860622e-01 2.831526e-01 2.462485e-01 2.708755e-01 2.433739e-01 2.291024e-01 2.235426e-01 2.171311e-01 2.088702e-01 2.048315e-01 5.867192e-02 7.062291e-02 1.332869e-01 1.912776e-01 2.429177e-01 1.860636e-01 1.438901e-01 7.211368e-02 5.023373e-02 3.436798e-02 2.204108e-02 1.495665e-02 2.170609e-02 4.859490e-02
<VARIANCE> 39
 3.420387e+00 3.397469e+00 5.113585e+00 9.373570e+00 1.036635e+01 1.380391e+01 1.503612e+01 1.710285e+01 1.699904e+01 1.649911e+01 1.509696e+01 1.300870e+01 5.888747e-01 9.830713e-02 1.436936e-01 2.350671e-01 3.587354e-01 4.383317e-01 5.373624e-01 6.018444e-01 6.692963e-01 6.985080e-01 6.797508e-01 6.365325e-01 5.452312e-01 1.879684e-02 2.474051e-02 2.875744e-02 4.511496e-02 7.965188e-02 9.078375e-02 1.149334e-01 1.223004e-01 1.419149e-01 1.408874e-01 1.322909e-01 1.252802e-01 1.056125e-01 4.368458e-03
<GCONST> 4.880059e+01
<MIXTURE> 4 3.798872e-02
<MEAN> 39
 1.833490e+00 1.652907e-01 3.123686e-01 -1.389859e+00 -8.528858e-02 -5.751418e-01 3.639252e-01 4.306674e-01 6.692255e-01 3.462586e-01 6.710072e-01 -3.281373e-02 -5.389653e-01 2.777864e-01 1.037235e-02 -7.691342e-02 -4.209073e-01 -1.337352e-01 -1.962324e-01 8.410928e-02 7.830664e-02 1.602790e-01 1.421115e-01 1.974721e-01 1.180319e-01 -1.177706e-01 -2.668698e-02 5.514381e-02 5.708577e-02 2.015286e-01 1.189711e-01 1.837717e-01 1.292321e-01 1.247632e-01 1.009483e-01 1.380584e-01 1.057004e-01 1.423996e-01 5.877227e-02
<VARIANCE> 39
 3.948388e+00 4.520766e+00 5.823678e+00 1.552711e+01 1.282858e+01 1.741869e+01 1.543819e+01 1.757448e+01 1.701097e+01 1.694252e+01 1.513863e+01 1.415055e+01 1.411351e+00 1.530229e-01 1.803150e-01 2.808951e-01 4.519950e-01 5.422110e-01 6.055503e-01 6.726540e-01 7.079806e-01 7.164246e-01 6.965400e-01 6.627575e-01 6.168075e-01 4.653103e-02 2.621431e-02 3.375922e-02 4.794020e-02 1.144973e-01 1.016656e-01 1.318540e-01 1.244293e-01 1.371018e-01 1.374534e-01 1.396142e-01 1.215090e-01 1.147823e-01 9.397015e-03
<GCONST> 5.577319e+01
<MIXTURE> 5 6.251305e-02
<MEAN> 39
 6.234407e-01 -8.554023e-01 -1.259908e+00 -2.123366e+00 -1.080949e+00 -7.595039e-01 3.934808e-01 6.803372e-01 8.744119e-01 1.206810e+00 1.313074e+00 9.435245e-01 -4.717326e-01 1.068193e-02 1.339237e-02 1.103361e-02 5.700481e-02 5.075397e-02 5.003905e-02 2.849917e-02 1.392245e-03 -1.809147e-02 -1.937690e-02 -4.985780e-04 6.867334e-02 1.108683e-02 6.346355e-02 1.168806e-01 1.682468e-01 1.978850e-01 1.588288e-01 1.147318e-01 5.198360e-02 2.538516e-02 1.280352e-02 -2.151477e-02 -1.834353e-02 4.022568e-05 3.821939e-02
<VARIANCE> 39
 3.663824e+00 3.825050e+00 5.217094e+00 1.076943e+01 1.048682e+01 1.472238e+01 1.522295e+01 1.803559e+01 1.700298e+01 1.684494e+01 1.502419e+01 1.339533e+01 8.588687e-01 9.217390e-02 1.477569e-01 2.392863e-01 3.659456e-01 4.475358e-01 5.560549e-01 6.097094e-01 6.758282e-01 7.072005e-01 6.725934e-01 6.499319e-01 5.606820e-01 1.976968e-02 2.296253e-02 3.090004e-02 4.568483e-02 8.612073e-02 9.154024e-02 1.183391e-01 1.214987e-01 1.445162e-01 1.395524e-01 1.352119e-01 1.216853e-01 1.070162e-01 5.184229e-03
<GCONST> 5.019547e+01
<MIXTURE> 6 1.005218e-01
<MEAN> 39
 6.799778e-01 7.266697e-01 1.067917e+00 1.302942e+00 1.143657e+00 1.088423e+00 6.745256e-01 5.215249e-01 3.117675e-01 2.642444e-01 1.781902e-01 2.549327e-01 2.417252e-01 7.428530e-02 -3.192359e-02 -1.301397e-01 -2.830477e-01 -2.005357e-01 -1.497538e-01 -1.070985e-02 6.987956e-02 9.748606e-02 1.122013e-01 1.137204e-01 1.093055e-01 -3.294174e-02 6.015457e-03 -3.054738e-02 -5.461261e-02 -7.840254e-02 -3.817200e-02 -1.779229e-02 4.249150e-02 6.518666e-02 8.497331e-02 8.568188e-02 9.919893e-02 9.336598e-02 -1.249311e-02
<VARIANCE> 39
 1.950163e+00 2.603907e+00 4.560382e+00 7.945088e+00 1.002310e+01 1.200609e+01 1.337512e+01 1.426030e+01 1.501658e+01 1.430605e+01 1.373306e+01 1.208314e+01 3.904178e-01 1.256796e-01 1.524403e-01 2.442935e-01 3.769938e-01 4.542710e-01 5.426927e-01 6.268644e-01 6.918178e-01 7.107332e-01 6.736764e-01 6.500517e-01 5.632349e-01 2.303507e-02 2.042035e-02 2.637705e-02 4.410464e-02 7.936660e-02 9.107585e-02 1.064676e-01 1.180144e-01 1.236816e-01 1.309908e-01 1.253259e-01 1.173770e-01 1.005050e-01 4.165417e-03
<GCONST> 4.631195e+01
<MIXTURE> 7 6.266590e-02
<MEAN> 39
 4.883276e-01 1.131293e-02 -9.805164e-02 -2.150359e-01 -7.571036e-02 4.488050e-01 9.148390e-01 1.193617e+00 1.173308e+00 1.287088e+00 1.096300e+00 1.025886e+00 -6.754220e-03 -1.838651e-02 1.539617e-01 2.961034e-01 5.573043e-01 4.185866e-01 3.810520e-01 2.017024e-01 1.739748e-01 1.206446e-01 1.180239e-01 9.790191e-02 1.113527e-01 1.048417e-01 5.147353e-02 4.158301e-02 6.133511e-02 4.762798e-02 6.535652e-02 1.952516e-02 3.087617e-03 -2.454180e-02 -1.891720e-02 -2.342892e-02 9.514540e-04 -3.826626e-03 4.413743e-03
<VARIANCE> 39
 2.430328e+00 2.936384e+00 4.846914e+00 8.718431e+00 9.836790e+00 1.296055e+01 1.478317e+01 1.535228e+01 1.616822e+01 1.573683e+01 1.504471e+01 1.272686e+01 5.239131e-01 1.490775e-01 1.678960e-01 2.529440e-01 4.169258e-01 4.757576e-01 6.192428e-01 6.679560e-01 7.360548e-01 7.209268e-01 7.141784e-01 6.683694e-01 5.792094e-01 3.290387e-02 2.053085e-02 2.777648e-02 4.439493e-02 8.409527e-02 8.785331e-02 1.157588e-01 1.231033e-01 1.318127e-01 1.352207e-01 1.298388e-01 1.254256e-01 1.051394e-01 4.951322e-03
<GCONST> 4.946193e+01
<MIXTURE> 8 2.154334e-02
<MEAN> 39
 1.763140e+00 -7.874843e-02 9.409696e-03 -2.510837e+00 -2.822499e-01 -1.435156e+00 -4.251301e-02 6.409389e-02 4.418613e-01 5.793273e-03 5.535491e-01 -3.299785e-01 -8.509520e-01 3.169568e-01 -1.855802e-01 -7.401183e-02 -8.518955e-01 -1.383891e-01 -6.609907e-01 -1.321803e-01 -3.426375e-01 -4.637328e-02 -2.463067e-01 -1.761615e-03 -2.268583e-01 -2.659391e-01 5.435171e-03 2.740458e-02 3.258868e-02 1.035916e-01 7.802975e-02 9.987010e-02 8.495009e-02 5.247291e-02 5.932828e-02 7.465578e-02 4.611645e-02 6.877618e-02 2.705089e-02
<VARIANCE> 39
 3.046827e+00 5.649819e+00 6.078200e+00 2.031269e+01 1.297311e+01 1.994348e+01 1.502952e+01 1.887945e+01 1.666727e+01 1.784906e+01 1.516624e+01 1.584631e+01 1.815123e+00 1.420754e-01 2.244866e-01 3.106862e-01 5.688363e-01 6.359033e-01 6.798879e-01 6.960580e-01 7.975345e-01 7.530518e-01 7.977948e-01 6.660950e-01 6.761355e-01 5.868962e-02 1.976025e-02 3.887524e-02 4.780408e-02 1.315769e-01 9.896691e-02 1.425972e-01 1.237743e-01 1.477596e-01 1.342203e-01 1.459391e-01 1.184663e-01 1.205294e-01 1.077474e-02
<GCONST> 5.835321e+01
<MIXTURE> 9 1.005218e-01
<MEAN> 39
 1.213848e-01 8.120465e-02 2.137146e-01 1.754605e-01 -1.227143e-01 -2.975692e-01 -7.883549e-01 -9.889876e-01 -1.238282e+00 -1.248689e+00 -1.304136e+00 -1.135500e+00 -8.208446e-03 -6.751998e-02 -1.880980e-01 -3.278439e-01 -5.286469e-01 -4.701343e-01 -4.444246e-01 -3.274089e-01 -2.628228e-01 -2.397339e-01 -2.161099e-01 -2.087827e-01 -1.908904e-01 -9.365098e-02 -5.114446e-02 -9.551144e-02 -1.386170e-01 -1.910909e-01 -1.588871e-01 -1.483098e-01 -9.492141e-02 -7.548692e-02 -5.979729e-02 -5.592372e-02 -3.784239e-02 -3.344412e-02 -3.830913e-02
<VARIANCE> 39
 1.950163e+00 2.603907e+00 4.560382e+00 7.945088e+00 1.002310e+01 1.200609e+01 1.337512e+01 1.426030e+01 1.501658e+01 1.430605e+01 1.373306e+01 1.208314e+01 3.904178e-01 1.256796e-01 1.524403e-01 2.442935e-01 3.769938e-01 4.542710e-01 5.426927e-01 6.268644e-01 6.918178e-01 7.107332e-01 6.736764e-01 6.500517e-01 5.632349e-01 2.303507e-02 2.042035e-02 2.637705e-02 4.410464e-02 7.936660e-02 9.107585e-02 1.064676e-01 1.180144e-01 1.236816e-01 1.309908e-01 1.253259e-01 1.173770e-01 1.005050e-01 4.165417e-03
<GCONST> 4.631195e+01
<MIXTURE> 10 9.094495e-02
<MEAN> 39
 4.237193e-02 2.555264e-01 5.330794e-01 6.622164e-01 3.362147e-01 5.146527e-02 -5.608276e-01 -8.678691e-01 -1.124900e+00 -1.179922e+00 -1.244261e+00 -1.022889e+00 7.236932e-02 -4.332513e-03 -4.131602e-02 -1.313599e-01 -2.593568e-01 -2.390052e-01 -1.866893e-01 -7.307684e-02 5.702987e-03 3.465031e-02 4.558833e-02 2.830346e-02 -4.466245e-02 -3.288031e-02 -5.250519e-02 -8.651489e-02 -1.256016e-01 -1.646654e-01 -1.437601e-01 -1.118234e-01 -5.373188e-02 -1.917486e-02 -1.870997e-03 4.870906e-03 1.506186e-02 -3.008116e-03 -3.090094e-02
<VARIANCE> 39
 2.092761e+00 2.594872e+00 4.337940e+00 7.915154e+00 1.017885e+01 1.203834e+01 1.329529e+01 1.449924e+01 1.453796e+01 1.425135e+01 1.349294e+01 1.206676e+01 3.816804e-01 1.277414e-01 1.556716e-01 2.481215e-01 3.773198e-01 4.433620e-01 5.367272e-01 6.191657e-01 7.065992e-01 7.205530e-01 6.853801e-01 6.591178e-01 5.684863e-01 2.234090e-02 2.154249e-02 2.630213e-02 4.425569e-02 8.047091e-02 9.408627e-02 1.094565e-01 1.187936e-01 1.265770e-01 1.301510e-01 1.252630e-01 1.181439e-01 1.017244e-01 4.021632e-03
<GCONST> 4.646101e+01
<MIXTURE> 11 8.755205e-02
<MEAN> 39
 -4.101390e-01 -1.334303e+00 -1.848904e+00 -2.522930e+00 -1.858456e+00 -1.442952e+00 -6.101295e-01 -3.734886e-01 -2.492359e-01 -2.604890e-02 6.669706e-02 -1.537090e-01 -5.855941e-01 -5.696786e-02 -1.809366e-02 -7.872634e-03 4.357456e-02 -1.857796e-02 -2.234452e-02 -6.694065e-02 -9.813969e-02 -1.107646e-01 -1.126569e-01 -1.102618e-01 -9.052756e-02 3.831295e-03 7.706437e-03 6.545483e-02 1.063164e-01 1.300271e-01 6.554222e-02 8.282788e-03 -6.777222e-02 -1.004527e-01 -1.157719e-01 -1.234462e-01 -1.266231e-01 -1.082862e-01 2.215718e-02
<VARIANCE> 39
 3.420387e+00 3.397469e+00 5.113585e+00 9.373570e+00 1.036635e+01 1.380391e+01 1.503612e+01 1.710285e+01 1.699904e+01 1.649911e+01 1.509696e+01 1.300870e+01 5.888747e-01 9.830713e-02 1.436936e-01 2.350671e-01 3.587354e-01 4.383317e-01 5.373624e-01 6.018444e-01 6.692963e-01 6.985080e-01 6.797508e-01 6.365325e-01 5.452312e-01 1.879684e-02 2.474051e-02 2.875744e-02 4.511496e-02 7.965188e-02 9.078375e-02 1.149334e-01 1.223004e-01 1.419149e-01 1.408874e-01 1.322909e-01 1.252802e-01 1.056125e-01 4.368458e-03
<GCONST> 4.880059e+01
<MIXTURE> 12 6.266590e-02
<MEAN> 39
 -1.352528e-01 -6.741223e-01 -9.786799e-01 -1.396116e+00 -1.330257e+00 -9.912256e-01 -6.231166e-01 -3.736627e-01 -4.350807e-01 -2.996993e-01 -4.551999e-01 -4.011034e-01 -2.962816e-01 -1.728287e-01 -9.938739e-03 9.492923e-02 2.990251e-01 1.426858e-01 6.628403e-02 -1.252119e-01 -1.691997e-01 -2.189851e-01 -2.200124e-01 -2.291135e-01 -1.930705e-01 3.228403e-02 -5.840831e-03 -2.508210e-02 -2.294531e-02 -6.836876e-02 -5.320372e-02 -1.165682e-01 -1.372567e-01 -1.697659e-01 -1.660067e-01 -1.675615e-01 -1.407105e-01 -1.335275e-01 -2.373251e-02
<VARIANCE> 39
 2.430328e+00 2.936384e+00 4.846914e+00 8.718431e+00 9.836790e+00 1.296055e+01 1.478317e+01 1.535228e+01 1.616822e+01 1.573683e+01 1.504471e+01 1.272686e+01 5.239131e-01 1.490775e-01 1.678960e-01 2.529440e-01 4.169258e-01 4.757576e-01 6.192428e-01 6.679560e-01 7.360548e-01 7.209268e-01 7.141784e-01 6.683694e-01 5.792094e-01 3.290387e-02 2.053085e-02 2.777648e-02 4.439493e-02 8.409527e-02 8.785331e-02 1.157588e-01 1.231033e-01 1.318127e-01 1.352207e-01 1.298388e-01 1.254256e-01 1.051394e-01 4.951322e-03
<GCONST> 4.946193e+01
<MIXTURE> 13 6.251305e-02
<MEAN> 39
 -1.422041e-01 -1.637712e+00 -2.173546e+00 -3.436038e+00 -2.376283e+00 -2.294294e+00 -1.167183e+00 -1.018396e+00 -7.749749e-01 -4.348930e-01 -2.373675e-01 -5.204608e-01 -8.424333e-01 -1.107587e-01 -1.403643e-01 -1.846340e-01 -1.849689e-01 -2.168385e-01 -2.482373e-01 -2.838364e-01 -3.274429e-01 -3.544723e-01 -3.474241e-01 -3.229720e-01 -2.308415e-01 -4.515505e-02 2.849987e-03 4.656696e-02 8.275078e-02 8.049963e-02 3.780636e-02 -2.286997e-02 -8.744305e-02 -1.266760e-01 -1.366233e-01 -1.685995e-01 -1.578772e-01 -1.308131e-01 9.418752e-03
<VARIANCE> 39
 3.663824e+00 3.825050e+00 5.217094e+00 1.076943e+01 1.048682e+01 1.472238e+01 1.522295e+01 1.803559e+01 1.700298e+01 1.684494e+01 1.502419e+01 1.339533e+01 8.588687e-01 9.217390e-02 1.477569e-01 2.392863e-01 3.659456e-01 4.475358e-01 5.560549e-01 6.097094e-01 6.758282e-01 7.072005e-01 6.725934e-01 6.499319e-01 5.606820e-01 1.976968e-02 2.296253e-02 3.090004e-02 4.568483e-02 8.612073e-02 9.154024e-02 1.183391e-01 1.214987e-01 1.445162e-01 1.395524e-01 1.352119e-01 1.216853e-01 1.070162e-01 5.184229e-03
<GCONST> 5.019547e+01
<MIXTURE> 14 3.798872e-02
<MEAN> 39
 1.038668e+00 -6.851931e-01 -6.529233e-01 -2.966037e+00 -1.517969e+00 -2.244570e+00 -1.207733e+00 -1.246210e+00 -9.805489e-01 -1.300193e+00 -8.853285e-01 -1.537503e+00 -1.014166e+00 1.213138e-01 -1.594817e-01 -2.889116e-01 -6.898296e-01 -4.282752e-01 -5.075008e-01 -2.439527e-01 -2.582597e-01 -1.782885e-01 -1.917244e-01 -1.281676e-01 -1.961164e-01 -2.040548e-01 -9.145032e-02 -1.835093e-02 -3.049523e-02 6.617881e-02 -8.569065e-03 3.852489e-02 -1.186605e-02 -2.334582e-02 -4.735050e-02 -1.140156e-02 -3.373215e-02 6.881468e-03 1.999699e-02
<VARIANCE> 39
 3.948388e+00 4.520766e+00 5.823678e+00 1.552711e+01 1.282858e+01 1.741869e+01 1.543819e+01 1.757448e+01 1.701097e+01 1.694252e+01 1.513863e+01 1.415055e+01 1.411351e+00 1.530229e-01 1.803150e-01 2.808951e-01 4.519950e-01 5.422110e-01 6.055503e-01 6.726540e-01 7.079806e-01 7.164246e-01 6.965400e-01 6.627575e-01 6.168075e-01 4.653103e-02 2.621431e-02 3.375922e-02 4.794020e-02 1.144973e-01 1.016656e-01 1.318540e-01 1.244293e-01 1.371018e-01 1.374534e-01 1.396142e-01 1.215090e-01 1.147823e-01 9.397015e-03
<GCONST> 5.577319e+01
<MIXTURE> 15 3.625299e-02
<MEAN> 39
 -1.478079e-01 -4.518357e-01 -6.275500e-01 -9.436545e-01 -9.230243e-01 -6.473753e-01 -4.216229e-01 -1.398832e-01 -1.157867e-01 -1.032122e-01 -4.002861e-01 -3.241090e-01 -2.349245e-01 -1.625228e-01 1.234862e-01 2.658061e-01 5.912172e-01 3.542061e-01 3.541300e-01 1.145197e-01 9.373696e-02 4.765882e-02 4.909870e-02 1.182894e-02 6.574705e-03 1.030128e-01 -1.168332e-02 -1.375806e-02 -1.079283e-02 -2.562204e-02 -2.162128e-02 -6.794003e-02 -8.975320e-02 -1.117083e-01 -1.266158e-01 -1.136814e-01 -8.917565e-02 -9.460627e-02 -1.076153e-02
<VARIANCE> 39
 2.244225e+00 2.921499e+00 4.791609e+00 9.071330e+00 1.013416e+01 1.306021e+01 1.505301e+01 1.541677e+01 1.631227e+01 1.577784e+01 1.517315e+01 1.284286e+01 5.265743e-01 1.620743e-01 1.778071e-01 2.456492e-01 4.685315e-01 4.888736e-01 6.512709e-01 6.789292e-01 7.613361e-01 7.209894e-01 7.460614e-01 6.665567e-01 5.887761e-01 4.182028e-02 1.907691e-02 2.624434e-02 4.420350e-02 8.406057e-02 8.992692e-02 1.158988e-01 1.268280e-01 1.340100e-01 1.348750e-01 1.307666e-01 1.282116e-01 1.046730e-01 4.747571e-03
<GCONST> 5.006850e+01
<MIXTURE> 16 2.154334e-02
<MEAN> 39
 1.064934e+00 -1.029522e+00 -9.767505e-01 -4.313621e+00 -1.722978e+00 -3.221481e+00 -1.593230e+00 -1.673926e+00 -1.191162e+00 -1.684133e+00 -1.004205e+00 -1.922276e+00 -1.389858e+00 1.661852e-01 -3.751002e-01 -2.969688e-01 -1.153580e+00 -4.573633e-01 -9.908119e-01 -4.659007e-01 -6.998566e-01 -3.934875e-01 -6.035842e-01 -3.282202e-01 -5.557681e-01 -3.628429e-01 -5.079329e-02 -5.146264e-02 -5.486790e-02 -4.150251e-02 -4.780627e-02 -5.117808e-02 -5.577619e-02 -1.012851e-01 -8.721608e-02 -7.815213e-02 -9.155928e-02 -7.009320e-02 -1.446969e-02
<VARIANCE> 39
 3.046827e+00 5.649819e+00 6.078200e+00 2.031269e+01 1.297311e+01 1.994348e+01 1.502952e+01 1.887945e+01 1.666727e+01 1.784906e+01 1.516624e+01 1.584631e+01 1.815123e+00 1.420754e-01 2.244866e-01 3.106862e-01 5.688363e-01 6.359033e-01 6.798879e-01 6.960580e-01 7.975345e-01 7.530518e-01 7.977948e-01 6.660950e-01 6.761355e-01 5.868962e-02 1.976025e-02 3.887524e-02 4.780408e-02 1.315769e-01 9.896691e-02 1.425972e-01 1.237743e-01 1.477596e-01 1.342203e-01 1.459391e-01 1.184663e-01 1.205294e-01 1.077474e-02
<GCONST> 5.835321e+01
~h "f"
<BEGINHMM>
<NUMSTATES> 5
<STATE> 2
<NUMMIXES> 16
<MIXTURE> 1 8.617820e-02
<MEAN> 39
 4.212341e-01 6.960624e-01 4.365051e-01 -7.666051e-02 -7.607786e-01 -7.472959e-01 -7.669644e-01 -6.731708e-01 -5.480974e-01 -1.850891e-02 5.220641e-01 7.162555e-01 1.939301e-01 1.484641e-01 2.379217e-01 2.875557e-01 3.898968e-01 4.082815e-01 3.716428e-01 3.205810e-01 2.856540e-01 2.973575e-01 3.211794e-01 3.058729e-01 2.343895e-01 6.966183e-02 -2.007935e-03 6.609665e-03 7.688816e-02 1.883237e-01 2.893280e-01 3.064965e-01 3.054255e-01 2.902304e-01 2.712467e-01 1.991664e-01 1.229276e-01 8.213060e-02 5.812366e-03
<VARIANCE> 39
 1.082527e+00 2.555696e+00 4.666235e+00 6.855290e+00 8.378141e+00 1.056842e+01 1.162062e+01 1.259466e+01 1.395604e+01 1.426171e+01 1.381396e+01 1.279442e+01 3.516366e-01 5.673300e-02 1.170270e-01 2.037866e-01 3.186438e-01 3.725626e-01 4.579650e-01 4.888808e-01 5.937890e-01 6.299697e-01 6.120896e-01 5.689747e-01 5.414422e-01 1.060153e-02 1.078864e-02 2.285540e-02 4.385946e-02 5.887359e-02 7.028216e-02 8.681008e-02 9.812722e-02 1.098114e-01 1.173890e-01 1.273191e-01 1.165845e-01 1.118009e-01 1.940154e-03
<GCONST> 3.893614e+01
<MIXTURE> 2 4.608606e-02
<MEAN> 39
 -4.438466e-01 -2.898693e-01 2.938181e-02 -2.162137e+00 -6.270552e-01 -2.257502e+00 1.467742e+00 6.658599e-01 1.873469e+00 -1.246852e-01 1.432296e+00 2.758908e-01 -8.260637e+00 -2.701789e-02 5.166923e-02 1.685041e-01 3.234492e-01 3.416376e-01 3.813917e-01 5.354518e-01 5.774997e-01 4.214345e-01 4.369193e-01 3.957745e-01 3.114954e-01 5.870567e-01 2.122139e-01 1.227902e-01 1.838389e-01 2.358114e-01 1.588644e-01 1.798349e-01 2.802052e-03 -3.222451e-04 -1.268866e-02 8.032962e-02 2.145389e-02 4.362076e-02 5.359858e-01
<VARIANCE> 39
 1.214388e+01 9.764892e+00 7.156292e+00 1.179314e+01 1.146387e+01 1.587415e+01 1.310347e+01 1.672638e+01 1.457668e+01 1.612286e+01 1.347891e+01 1.224825e+01 9.131837e+01 4.587888e-01 4.450580e-01 4.598842e-01 5.416295e-01 5.826205e-01 7.028583e-01 7.455737e-01 9.760380e-01 8.890543e-01 8.118930e-01 6.857507e-01 6.879973e-01 1.187044e+00 9.698668e-02 8.973052e-02 7.440139e-02 1.303968e-01 1.158010e-01 1.473596e-01 1.307992e-01 1.586379e-01 1.596652e-01 1.396466e-01 1.155827e-01 1.069526e-01 3.255431e-01
<GCONST> 7.482326e+01
<MIXTURE> 3 1.270101e-02
<MEAN> 39
 4.777266e-01 -9.149468e-02 -5.306762e-01 -1.973338e+00 -1.343266e+00 -2.481450e+00 -1.226585e+00 -9.235547e-01 -6.478864e-01 -1.996746e-01 4.135658e-01 4.769498e-01 9.545782e-01 2.834919e-02 8.654097e-02 1.553740e-01 4.264779e-01 3.444249e-01 4.489090e-01 3.530370e-01 2.573241e-01 5.218932e-02 6.252162e-02 1.651755e-01 2.408375e-01 1.204683e-01 2.149713e-02 8.182938e-02 1.639845e-01 3.099754e-01 2.858626e-01 4.038900e-01 3.267511e-01 2.903140e-01 2.305288e-01 1.977590e-01 1.244304e-01 9.803351e-02 6.969807e-02
<VARIANCE> 39
 4.537645e+00 3.414526e+00 5.700318e+00 1.380923e+01 9.686090e+00 1.514309e+01 1.471119e+01 1.592909e+01 1.369735e+01 1.617642e+01 1.381592e+01 1.457861e+01 1.884113e+01 9.600437e-02 1.291098e-01 2.072046e-01 3.932455e-01 4.756702e-01 4.321204e-01 5.416887e-01 5.568160e-01 5.469828e-01 6.796470e-01 5.616077e-01 4.870473e-01 2.806296e-02 2.782371e-02 2.908866e-02 5.198467e-02 7.492781e-02 8.117346e-02 1.078433e-01 1.218946e-01 1.227937e-01 1.028215e-01 1.336331e-01 9.403288e-02 1.215725e-01 1.151134e-02
<GCONST> 5.250242e+01
<MIXTURE> 4 5.731900e-02
<MEAN> 39
 -1.517814e+00 -1.053648e+00 2.089908e+00 -2.030034e+00 1.156805e-01 -2.839673e+00 9.597706e-01 -1.074840e+00 1.598629e+00 -5.613081e-01 1.908055e+00 -7.667163e-01 -3.888728e+00 -2.999269e-01 -2.893460e-01 1.205574e-01 -2.359716e-01 7.911921e-03 -3.022883e-01 1.703963e-01 -2.430403e-02 3.145112e-01 5.647032e-02 3.362168e-01 9.834211e-02 2.837564e-01 2.072978e-01 1.377868e-01 5.942885e-03 2.558659e-01 1.234962e-01 2.732522e-01 1.223755e-01 2.396006e-01 5.230042e-02 1.372329e-01 1.922572e-02 1.642219e-01 3.692354e-01
<VARIANCE> 39
 1.194131e+01 9.566887e+00 9.326991e+00 1.285730e+01 1.102822e+01 1.449353e+01 1.507754e+01 1.634430e+01 1.522713e+01 1.539432e+01 1.316287e+01 1.316444e+01 5.960529e+01 6.604577e-01 5.403124e-01 6.454635e-01 6.155971e-01 6.411582e-01 6.923999e-01 6.795148e-01 6.991181e-01 7.812047e-01 6.588294e-01 6.249232e-01 6.348403e-01 2.062162e+00 1.134605e-01 7.281742e-02 9.249844e-02 1.265447e-01 1.021980e-01 1.385966e-01 1.203127e-01 1.435042e-01 1.292771e-01 1.249574e-01 1.088967e-01 1.143682e-01 2.363154e-01
<GCONST> 7.459484e+01
<MIXTURE> 5 1.709384e-01
<MEAN> 39
 3.646428e-01 3.746283e-01 1.262192e-01 -5.326402e-01 -1.432076e+00 -1.605424e+00 -1.420622e+00 -1.184873e+00 -9.312623e-01 -5.050740e-01 -2.242249e-02 3.724440e-01 1.936042e-01 6.064165e-02 8.927310e-02 9.320307e-02 1.782407e-01 1.939355e-01 1.702588e-01 8.907326e-02 3.931714e-02 3.436595e-03 4.942545e-02 8.251242e-02 8.772062e-02 3.715633e-02 -1.431492e-02 8.958418e-03 6.964011e-02 1.727778e-01 2.938492e-01 3.233261e-01 3.000387e-01 2.699023e-01 2.403411e-01 1.846374e-01 1.238198e-01 8.382107e-02 -1.380112e-03
<VARIANCE> 39
 1.054311e+00 2.338977e+00 4.712272e+00 6.328818e+00 8.487886e+00 9.691413e+00 1.152572e+01 1.327594e+01 1.419985e+01 1.434921e+01 1.394874e+01 1.272145e+01 3.516366e-01 5.683297e-02 1.155857e-01 2.087835e-01 3.161711e-01 3.803192e-01 4.842489e-01 5.086986e-01 5.666298e-01 5.865921e-01 6.224511e-01 5.907136e-01 5.672525e-01 9.779995e-03 1.077026e-02 2.195233e-02 4.318674e-02 5.586213e-02 6.840283e-02 8.004248e-02 9.087873e-02 1.086660e-01 1.177055e-01 1.191967e-01 1.152219e-01 1.038349e-01 1.896092e-03
<GCONST> 3.829596e+01
<MIXTURE> 6 7.306635e-02
<MEAN> 39
 4.338526e-01 2.755687e-01 -3.064642e-01 -2.139902e+00 -1.241028e+00 -2.187936e+00 1.102210e+00 4.048223e-01 1.448486e+00 -1.824901e-01 1.352967e+00 4.908574e-01 -1.215781e+01 -1.236752e-03 -4.529095e-02 1.667956e-01 5.039521e-02 1.932035e-01 2.259333e-02 2.201982e-01 7.570092e-02 9.491995e-02 1.085756e-01 1.738691e-01 8.126140e-02 6.351606e-01 1.129251e-01 1.149045e-02 1.509442e-01 9.677659e-02 1.181190e-01 4.946013e-02 2.675653e-03 -6.781688e-02 -1.836757e-02 -1.184968e-02 -1.044638e-02 -3.022235e-02 4.430171e-01
<VARIANCE> 39
 1.108433e+01 9.619906e+00 6.693326e+00 9.898769e+00 1.095775e+01 1.339579e+01 1.390647e+01 1.485983e+01 1.460984e+01 1.469051e+01 1.229891e+01 1.190223e+01 7.049119e+01 3.935865e-01 4.157068e-01 4.052105e-01 4.636951e-01 5.502692e-01 5.665018e-01 6.571940e-01 7.646850e-01 7.760940e-01 6.697947e-01 6.148939e-01 5.498699e-01 1.024727e+00 7.649956e-02 8.785078e-02 6.951229e-02 1.024745e-01 1.062948e-01 1.190366e-01 1.244297e-01 1.352361e-01 1.397283e-01 1.185458e-01 1.098386e-01 1.033440e-01 1.961333e-01
<GCONST> 6.981120e+01
<MIXTURE> 7 4.248392e-02
<MEAN> 39
 -1.256546e+00 -1.332382e+00 2.441612e+00 -2.451473e+00 -2.597678e-01 -3.378191e+00 9.072433e-01 -1.356867e+00 1.664371e+00 -8.999096e-01 1.909497e+00 -1.394043e+00 -2.939077e+00 -6.123137e-01 -5.813365e-01 -6.316651e-02 -7.293630e-01 -3.651896e-01 -8.310576e-01 -4.496363e-02 -4.049752e-01 2.007966e-01 -2.674246e-01 2.731542e-01 -1.128966e-01 -2.462566e-01 1.161038e-01 9.339139e-02 -8.863875e-02 2.204617e-01 9.854117e-02 2.795557e-01 8.618163e-02 2.118705e-01 -5.446531e-03 1.231598e-01 2.494104e-03 2.069716e-01 3.703932e-01
<VARIANCE> 39
 1.048956e+01 9.373894e+00 1.055608e+01 1.203648e+01 1.292006e+01 1.721343e+01 1.520430e+01 1.577833e+01 1.764914e+01 1.583779e+01 1.409961e+01 1.350106e+01 5.024595e+01 7.026249e-01 5.451536e-01 6.164526e-01 6.429795e-01 6.829291e-01 7.405238e-01 7.039660e-01 7.482005e-01 7.396061e-01 6.642830e-01 6.912537e-01 6.591391e-01 2.629219e+00 1.103545e-01 7.171065e-02 1.067700e-01 1.109800e-01 1.089343e-01 1.568269e-01 1.245830e-01 1.431687e-01 1.370142e-01 1.267515e-01 1.265184e-01 1.220536e-01 2.024188e-01
<GCONST> 7.586373e+01
<MIXTURE> 8 1.123819e-02
<MEAN> 39
 4.741428e-01 -9.853348e-02 -6.205082e-01 -2.924538e+00 -1.973425e+00 -3.384776e+00 -1.299543e+00 -1.146296e+00 1.357353e-02 -1.320975e+00 4.931423e-01 -3.022705e-01 -3.690184e+00 -4.090340e-02 -7.052425e-02 -5.397698e-02 7.918519e-02 6.015609e-02 2.230199e-02 1.282121e-02 -2.993326e-02 -1.021424e-01 -2.182611e-01 -8.274879e-02 1.198094e-01 2.210065e-02 3.161386e-02 4.818831e-02 1.293433e-01 2.329078e-01 2.360350e-01 2.874881e-01 2.408339e-01 2.061374e-01 1.648295e-01 1.774298e-01 7.947174e-02 9.625661e-02 5.176957e-02
<VARIANCE> 39
 4.190633e+00 5.131723e+00 6.034878e+00 1.613299e+01 1.113603e+01 1.199802e+01 1.149108e+01 1.245649e+01 1.408921e+01 1.891639e+01 1.144252e+01 1.228655e+01 8.755617e+01 7.438219e-02 1.163214e-01 1.896342e-01 3.340805e-01 4.292092e-01 3.863877e-01 5.585381e-01 4.773763e-01 5.011043e-01 6.595687e-01 5.289683e-01 4.920931e-01 2.728549e-02 2.067048e-02 2.918306e-02 4.708083e-02 7.898981e-02 7.226621e-02 8.841705e-02 9.142178e-02 9.060919e-02 1.017093e-01 1.149691e-01 1.017234e-01 8.936218e-02 1.122292e-02
<GCONST> 5.101105e+01
<MIXTURE> 9 1.709384e-01
<MEAN> 39
 -4.607579e-02 -2.371203e-01 -7.420915e-01 -1.538926e+00 -2.597435e+00 -2.850666e+00 -2.778604e+00 -2.642319e+00 -2.438570e+00 -2.020288e+00 -1.516343e+00 -1.054242e+00 -4.359163e-02 -3.471702e-02 -4.671849e-02 -8.956827e-02 -4.667568e-02 -5.274460e-02 -1.080932e-01 -1.962192e-01 -2.617821e-01 -3.029206e-01 -2.661569e-01 -2.249192e-01 -2.135441e-01 -2.401212e-03 -5.582686e-02 -5.030686e-02 -1.348557e-02 7.823716e-02 1.892334e-01 2.101589e-01 1.794543e-01 1.380441e-01 1.031081e-01 4.653785e-02 -1.195764e-02 -4.507262e-02 -1.879777e-02
<VARIANCE> 39
 1.054311e+00 2.338977e+00 4.712272e+00 6.328818e+00 8.487886e+00 9.691413e+00 1.152572e+01 1.327594e+01 1.419985e+01 1.434921e+01 1.394874e+01 1.272145e+01 3.516366e-01 5.683297e-02 1.155857e-01 2.087835e-01 3.161711e-01 3.803192e-01 4.842489e-01 5.086986e-01 5.666298e-01 5.865921e-01 6.224511e-01 5.907136e-01 5.672525e-01 9.779995e-03 1.077026e-02 2.195233e-02 4.318674e-02 5.586213e-02 6.840283e-02 8.004248e-02 9.087873e-02 1.086660e-01 1.177055e-01 1.191967e-01 1.152219e-01 1.038349e-01 1.896092e-03
<GCONST> 3.829596e+01
<MIXTURE> 10 8.617820e-02
<MEAN> 39
 5.055875e-03 5.660063e-02 -4.275537e-01 -1.123965e+00 -1.918579e+00 -2.047660e+00 -2.130526e+00 -2.092729e+00 -2.042409e+00 -1.529096e+00 -9.646214e-01 -7.145161e-01 -4.326573e-02 5.318932e-02 1.010849e-01 1.069847e-01 1.641026e-01 1.641299e-01 1.009504e-01 4.090098e-02 -2.257681e-02 -2.012506e-02 8.234784e-03 4.151285e-03 -5.994155e-02 2.847633e-02 -4.355529e-02 -5.386235e-02 -6.882440e-03 9.126814e-02 1.832848e-01 1.886423e-01 1.801245e-01 1.576792e-01 1.341983e-01 5.643920e-02 -1.365031e-02 -5.161597e-02 -1.180651e-02
<VARIANCE> 39
 1.082527e+00 2.555696e+00 4.666235e+00 6.855290e+00 8.378141e+00 1.056842e+01 1.162062e+01 1.259466e+01 1.395604e+01 1.426171e+01 1.381396e+01 1.279442e+01 3.516366e-01 5.673300e-02 1.170270e-01 2.037866e-01 3.186438e-01 3.725626e-01 4.579650e-01 4.888808e-01 5.937890e-01 6.299697e-01 6.120896e-01 5.689747e-01 5.414422e-01 1.060153e-02 1.078864e-02 2.285540e-02 4.385946e-02 5.887359e-02 7.028216e-02 8.681008e-02 9.812722e-02 1.098114e-01 1.173890e-01 1.273191e-01 1.165845e-01 1.118009e-01 1.940154e-03
<GCONST> 3.893614e+01
<MIXTURE> 11 7.306635e-02
<MEAN> 39
 -8.978729e-01 -9.650702e-01 -1.341323e+00 -3.398394e+00 -2.565128e+00 -3.651946e+00 -3.894456e-01 -1.137116e+00 -8.042735e-02 -1.715618e+00 -4.982507e-02 -8.891270e-01 -1.551617e+01 -2.521827e-01 -3.031923e-01 -8.782902e-02 -2.219854e-01 -1.035171e-01 -2.784719e-01 -1.040718e-01 -2.740842e-01 -2.574649e-01 -2.187883e-01 -1.397916e-01 -2.153515e-01 2.302454e-01 2.290882e-03 -1.070681e-01 4.548351e-02 -3.126997e-02 -1.229256e-02 -8.854660e-02 -1.384227e-01 -2.149147e-01 -1.678886e-01 -1.495716e-01 -1.430140e-01 -1.588110e-01 2.658693e-01
<VARIANCE> 39
 1.108433e+01 9.619906e+00 6.693326e+00 9.898769e+00 1.095775e+01 1.339579e+01 1.390647e+01 1.485983e+01 1.460984e+01 1.469051e+01 1.229891e+01 1.190223e+01 7.049119e+01 3.935865e-01 4.157068e-01 4.052105e-01 4.636951e-01 5.502692e-01 5.665018e-01 6.571940e-01 7.646850e-01 7.760940e-01 6.697947e-01 6.148939e-01 5.498699e-01 1.024727e+00 7.649956e-02 8.785078e-02 6.951229e-02 1.024745e-01 1.062948e-01 1.190366e-01 1.244297e-01 1.352361e-01 1.397283e-01 1.185458e-01 1.098386e-01 1.033440e-01 1.961333e-01
<GCONST> 6.981120e+01
<MIXTURE> 12 5.731900e-02
<MEAN> 39
 -2.900062e+00 -2.290864e+00 8.683035e-01 -3.464318e+00 -1.212670e+00 -4.362487e+00 -5.934218e-01 -2.691964e+00 3.775054e-02 -2.130732e+00 4.568285e-01 -2.218030e+00 -6.976906e+00 -6.250011e-01 -5.833698e-01 -2.008056e-01 -5.498116e-01 -3.123775e-01 -6.351305e-01 -1.593345e-01 -3.587572e-01 -3.903197e-02 -2.682029e-01 2.000841e-02 -2.203654e-01 -2.906528e-01 7.256220e-02 2.984797e-02 -1.157113e-01 1.135735e-01 -4.377473e-03 1.243380e-01 -1.636903e-02 8.807281e-02 -9.152008e-02 -4.164338e-03 -1.127723e-01 2.894843e-02 1.747862e-01
<VARIANCE> 39
 1.194131e+01 9.566887e+00 9.326991e+00 1.285730e+01 1.102822e+01 1.449353e+01 1.507754e+01 1.634430e+01 1.522713e+01 1.539432e+01 1.316287e+01 1.316444e+01 5.960529e+01 6.604577e-01 5.403124e-01 6.454635e-01 6.155971e-01 6.411582e-01 6.923999e-01 6.795148e-01 6.991181e-01 7.812047e-01 6.588294e-01 6.249232e-01 6.348403e-01 2.062162e+00 1.134605e-01 7.281742e-02 9.249844e-02 1.265447e-01 1.021980e-01 1.385966e-01 1.203127e-01 1.435042e-01 1.292771e-01 1.249574e-01 1.088967e-01 1.143682e-01 2.363154e-01
<GCONST> 7.459484e+01
<MIXTURE> 13 4.608606e-02
<MEAN> 39
 -1.837769e+00 -1.539822e+00 -1.040668e+00 -3.535783e+00 -1.981389e+00 -3.851197e+00 1.979339e-02 -9.700559e-01 3.462927e-01 -1.730817e+00 -3.624994e-02 -1.124009e+00 -1.208306e+01 -2.979537e-01 -2.151814e-01 -1.027549e-01 2.906725e-02 3.631924e-02 4.604511e-02 1.900654e-01 1.823211e-01 4.427575e-02 7.649888e-02 6.453426e-02 -2.028701e-02 1.512505e-01 8.764312e-02 2.970021e-03 7.473245e-02 9.136941e-02 2.274621e-02 2.628510e-02 -1.418626e-01 -1.596397e-01 -1.725212e-01 -6.914765e-02 -1.145359e-01 -8.719368e-02 3.077602e-01
<VARIANCE> 39
 1.214388e+01 9.764892e+00 7.156292e+00 1.179314e+01 1.146387e+01 1.587415e+01 1.310347e+01 1.672638e+01 1.457668e+01 1.612286e+01 1.347891e+01 1.224825e+01 9.131837e+01 4.587888e-01 4.450580e-01 4.598842e-01 5.416295e-01 5.826205e-01 7.028583e-01 7.455737e-01 9.760380e-01 8.890543e-01 8.118930e-01 6.857507e-01 6.879973e-01 1.187044e+00 9.698668e-02 8.973052e-02 7.440139e-02 1.303968e-01 1.158010e-01 1.473596e-01 1.307992e-01 1.586379e-01 1.596652e-01 1.396466e-01 1.155827e-01 1.069526e-01 3.255431e-01
<GCONST> 7.482326e+01
<MIXTURE> 14 4.248392e-02
<MEAN> 39
 -2.552050e+00 -2.557054e+00 1.142008e+00 -3.839219e+00 -1.697547e+00 -5.037755e+00 -6.524643e-01 -2.945745e+00 -1.606447e-02 -2.491778e+00 4.075190e-01 -2.863795e+00 -5.774452e+00 -9.476047e-01 -8.766747e-01 -3.772245e-01 -1.050107e+00 -6.957476e-01 -1.175272e+00 -3.805744e-01 -7.509696e-01 -1.432048e-01 -5.934388e-01 -5.941244e-02 -4.376462e-01 -8.948512e-01 -1.677479e-02 -1.372399e-02 -2.193415e-01 8.720708e-02 -3.347961e-02 1.211502e-01 -5.500364e-02 6.051992e-02 -1.535082e-01 -1.924896e-02 -1.397836e-01 6.722695e-02 1.904293e-01
<VARIANCE> 39
 1.048956e+01 9.373894e+00 1.055608e+01 1.203648e+01 1.292006e+01 1.721343e+01 1.520430e+01 1.577833e+01 1.764914e+01 1.583779e+01 1.409961e+01 1.350106e+01 5.024595e+01 7.026249e-01 5.451536e-01 6.164526e-01 6.429795e-01 6.829291e-01 7.405238e-01 7.039660e-01 7.482005e-01 7.396061e-01 6.642830e-01 6.912537e-01 6.591391e-01 2.629219e+00 1.103545e-01 7.171065e-02 1.067700e-01 1.109800e-01 1.089343e-01 1.568269e-01 1.245830e-01 1.431687e-01 1.370142e-01 1.267515e-01 1.265184e-01 1.220536e-01 2.024188e-01
<GCONST> 7.586373e+01
<MIXTURE> 15 1.270101e-02
<MEAN> 39
 -3.743433e-01 -8.306322e-01 -1.485690e+00 -3.459768e+00 -2.588166e+00 -4.038014e+00 -2.760791e+00 -2.520005e+00 -2.128284e+00 -1.808471e+00 -1.073225e+00 -1.050328e+00 -7.816767e-01 -9.558909e-02 -5.718644e-02 -2.670494e-02 1.756407e-01 6.854950e-02 1.859656e-01 5.863899e-02 -4.115631e-02 -2.436438e-01 -2.672412e-01 -1.345865e-01 -3.831755e-02 5.346031e-02 -4.522463e-02 1.360779e-02 7.278390e-02 2.004836e-01 1.718988e-01 2.725320e-01 1.870975e-01 1.501462e-01 1.022656e-01 5.153557e-02 1.771294e-03 -4.143549e-02 2.678170e-02
<VARIANCE> 39
 4.537645e+00 3.414526e+00 5.700318e+00 1.380923e+01 9.686090e+00 1.514309e+01 1.471119e+01 1.592909e+01 1.369735e+01 1.617642e+01 1.381592e+01 1.457861e+01 1.884113e+01 9.600437e-02 1.291098e-01 2.072046e-01 3.932455e-01 4.756702e-01 4.321204e-01 5.416887e-01 5.568160e-01 5.469828e-01 6.796470e-01 5.616077e-01 4.870473e-01 2.806296e-02 2.782371e-02 2.908866e-02 5.198467e-02 7.492781e-02 8.117346e-02 1.078433e-01 1.218946e-01 1.227937e-01 1.028215e-01 1.336331e-01 9.403288e-02 1.215725e-01 1.151134e-02
<GCONST> 5.250242e+01
<MIXTURE> 16 1.123819e-02
<MEAN> 39
 -3.446985e-01 -1.004666e+00 -1.603148e+00 -4.531174e+00 -3.308253e+00 -4.770302e+00 -2.655483e+00 -2.558046e+00 -1.487850e+00 -3.060694e+00 -8.599295e-01 -1.704358e+00 -7.433042e+00 -1.499958e-01 -2.069480e-01 -2.281650e-01 -1.520136e-01 -2.019001e-01 -2.263384e-01 -2.861204e-01 -3.063030e-01 -3.852972e-01 -5.431165e-01 -3.736696e-01 -1.607880e-01 -4.397263e-02 -2.589506e-02 -2.014389e-02 4.255079e-02 1.204873e-01 1.285054e-01 1.685481e-01 1.198897e-01 8.573198e-02 3.726190e-02 4.180142e-02 -4.810469e-02 -2.331743e-02 9.394253e-03
<VARIANCE> 39
 4.190633e+00 5.131723e+00 6.034878e+00 1.613299e+01 1.113603e+01 1.199802e+01 1.149108e+01 1.245649e+01 1.408921e+01 1.891639e+01 1.144252e+01 1.228655e+01 8.755617e+01 7.438219e-02 1.163214e-01 1.896342e-01 3.340805e-01 4.292092e-01 3.863877e-01 5.585381e-01 4.773763e-01 5.011043e-01 6.595687e-01 5.289683e-01 4.920931e-01 2.728549e-02 2.067048e-02 2.918306e-02 4.708083e-02 7.898981e-02 7.226621e-02 8.841705e-02 9.142178e-02 9.060919e-02 1.017093e-01 1.149691e-01 1.017234e-01 8.936218e-02 1.122292e-02
<GCONST> 5.101105e+01
<STATE> 3
<NUMMIXES> 16
<MIXTURE> 1 4.272659e-02
<MEAN> 39
 1.359581e+00 -3.835791e-02 9.274018e-01 1.515435e+00 1.511441e+00 3.423229e-01 1.534314e+00 1.532067e+00 1.161802e+00 1.372147e+00 1.306263e+00 9.373574e-01 4.904079e+00 3.056557e-01 7.421850e-01 -1.073102e-01 1.407954e+00 6.727401e-01 1.724175e+00 3.344645e-01 1.216715e+00 2.312604e-01 1.103106e+00 1.447400e-01 8.842455e-01 2.564878e+00 -2.300638e-01 3.275771e-02 3.610492e-02 -3.725495e-02 -3.405660e-03 4.838489e-02 8.206284e-02 5.645955e-02 1.116746e-01 4.941620e-02 1.077638e-01 8.343869e-02 -8.159256e-02
<VARIANCE> 39
 8.993090e+00 9.952608e+00 9.336540e+00 1.757929e+01 1.567566e+01 2.109283e+01 1.936684e+01 2.063806e+01 1.781678e+01 1.947289e+01 1.513178e+01 1.403768e+01 2.561433e+01 6.376592e-01 4.265871e-01 3.926339e-01 6.290115e-01 6.105006e-01 6.784174e-01 7.930481e-01 7.961922e-01 7.502424e-01 7.375885e-01 6.869937e-01 5.961424e-01 1.478552e+00 7.488451e-02 6.627058e-02 7.679529e-02 1.132472e-01 1.192107e-01 1.525957e-01 1.462011e-01 1.621312e-01 1.521164e-01 1.546421e-01 1.249068e-01 1.208094e-01 1.776194e-01
<GCONST> 7.490861e+01
<MIXTURE> 2 8.293110e-02
<MEAN> 39
 -2.159310e+00 -2.510055e+00 1.453429e+00 -3.201290e+00 -6.144760e-01 -4.448733e+00 1.332903e+00 -1.654353e+00 1.595461e+00 -1.577522e+00 1.979104e+00 -1.242928e+00 -2.743296e+00 6.190344e-01 3.797165e-01 2.654612e-03 9.514142e-01 4.954494e-01 9.346789e-01 2.572925e-01 7.927581e-01 1.452285e-01 6.406759e-01 1.100862e-01 5.327308e-01 1.976109e+00 2.217723e-01 2.977809e-01 3.422688e-02 3.785923e-01 1.958336e-01 4.612791e-01 6.513093e-02 3.037335e-01 2.224131e-02 2.687294e-01 1.244223e-02 2.406838e-01 5.618857e-01
<VARIANCE> 39
 1.327442e+01 1.099638e+01 1.007146e+01 1.205818e+01 1.391682e+01 1.635112e+01 1.875263e+01 1.852245e+01 1.738008e+01 1.643206e+01 1.512284e+01 1.356312e+01 3.526746e+01 7.729011e-01 5.854803e-01 5.493404e-01 7.018417e-01 6.843602e-01 8.865970e-01 8.679125e-01 9.713931e-01 9.214370e-01 8.520267e-01 7.781587e-01 7.142837e-01 2.486030e+00 1.388108e-01 8.685418e-02 9.544202e-02 1.125562e-01 1.232134e-01 1.434518e-01 1.544361e-01 1.666985e-01 1.528725e-01 1.568834e-01 1.313249e-01 1.224454e-01 2.360293e-01
<GCONST> 7.899274e+01
<MIXTURE> 3 1.099370e-01
<MEAN> 39
 3.677431e-01 5.397045e-01 4.111690e-01 5.147265e-01 7.954919e-02 6.906897e-02 3.092188e-02 2.708722e-01 1.599157e-01 5.753606e-01 7.692869e-01 9.167452e-01 1.270261e+00 1.981251e-03 1.285611e-01 2.084037e-01 5.438407e-01 6.356856e-01 7.353792e-01 6.068751e-01 5.673453e-01 4.740379e-01 4.446952e-01 2.768573e-01 2.444973e-01 2.780862e-01 -2.808250e-02 -1.335393e-02 4.381599e-02 6.835718e-02 1.486505e-01 1.765284e-01 2.173986e-01 2.143223e-01 2.210751e-01 1.573553e-01 1.105345e-01 6.702534e-02 -1.056879e-02
<VARIANCE> 39
 2.091008e+00 3.130764e+00 5.215302e+00 7.830364e+00 9.247789e+00 1.172999e+01 1.303582e+01 1.527926e+01 1.483779e+01 1.489578e+01 1.408741e+01 1.207365e+01 1.005463e+01 1.450015e-01 1.541155e-01 2.592447e-01 3.718944e-01 4.033221e-01 4.702999e-01 5.554760e-01 5.941159e-01 6.582364e-01 6.332866e-01 5.959565e-01 5.650340e-01 3.005038e-01 1.751743e-02 2.560006e-02 4.464488e-02 5.871149e-02 6.689879e-02 8.888363e-02 9.499136e-02 1.190872e-01 1.174245e-01 1.292716e-01 1.162695e-01 1.072446e-01 3.295577e-02
<GCONST> 5.276648e+01
<MIXTURE> 4 5.224805e-02
<MEAN> 39
 2.683650e+00 1.374222e+00 2.241641e+00 8.404346e-01 9.043563e-01 -6.135672e-01 1.069469e+00 -9.916413e-02 1.845168e-01 -5.166079e-01 4.268197e-01 -4.062939e-01 -4.802240e+00 1.003339e-01 2.262879e-01 5.162107e-01 7.744479e-02 2.178911e-01 5.799381e-02 3.400352e-01 1.802755e-01 2.975157e-01 1.799461e-01 4.149770e-01 1.056951e-01 7.046337e-01 -9.870684e-02 -4.213558e-02 7.092088e-03 -2.135918e-02 1.216823e-02 4.142556e-02 1.259179e-01 1.230354e-01 1.964735e-01 1.430462e-01 1.790662e-01 1.356577e-01 1.822262e-01
<VARIANCE> 39
 1.740586e+01 1.688027e+01 2.049801e+01 2.283724e+01 2.306103e+01 2.745203e+01 2.608755e+01 2.753473e+01 2.513479e+01 2.343717e+01 2.168265e+01 1.802695e+01 8.677970e+01 1.073424e+00 9.576537e-01 1.178380e+00 1.120202e+00 1.049883e+00 1.302066e+00 1.238299e+00 1.329481e+00 1.203067e+00 1.079148e+00 1.078575e+00 8.536524e-01 4.419464e+00 1.645400e-01 1.618985e-01 2.070067e-01 2.191448e-01 2.011664e-01 2.245725e-01 2.445086e-01 2.635539e-01 2.198028e-01 2.016427e-01 1.966469e-01 1.707710e-01 4.492034e-01
<GCONST> 9.625963e+01
<MIXTURE> 5 4.476722e-02
<MEAN> 39
 1.225062e-01 3.561730e-01 1.664091e-01 3.892920e-01 6.420684e-02 1.801679e-01 3.877875e-01 5.770330e-01 3.228203e-01 4.151095e-01 7.217103e-01 1.012679e+00 1.999950e+00 -3.680897e-02 1.215844e-01 1.562990e-01 3.072906e-01 3.235958e-01 4.076605e-01 2.377030e-01 2.148866e-01 1.544494e-01 1.239616e-01 6.512223e-02 1.323480e-01 7.696735e-01 -4.058637e-03 -3.404589e-02 8.327490e-02 -4.980440e-02 4.561046e-02 -1.479618e-02 1.099603e-01 3.619406e-02 1.303069e-01 3.612763e-02 7.836461e-02 -3.366840e-02 -8.600947e-02
<VARIANCE> 39
 5.071801e+00 4.876754e+00 6.695902e+00 1.011604e+01 9.999547e+00 1.443512e+01 1.477151e+01 1.815775e+01 1.545583e+01 1.714826e+01 1.421250e+01 1.293370e+01 7.359058e+01 3.738884e-01 2.623348e-01 4.401532e-01 4.792720e-01 5.288045e-01 6.921639e-01 7.047342e-01 7.822415e-01 7.245787e-01 7.337727e-01 6.509206e-01 5.911117e-01 1.377748e+00 5.149807e-02 4.395578e-02 6.239755e-02 9.023442e-02 9.121034e-02 1.323996e-01 1.250168e-01 1.591409e-01 1.375561e-01 1.463015e-01 1.207228e-01 1.029781e-01 2.554581e-01
<GCONST> 6.875017e+01
<MIXTURE> 6 7.910775e-02
<MEAN> 39
 -1.487379e+00 -2.266550e+00 1.294101e+00 -3.414586e+00 -1.217130e+00 -4.113613e+00 1.023350e+00 -2.011771e+00 1.468426e+00 -1.421966e+00 1.680016e+00 -1.098169e+00 -4.888239e+00 6.864066e-02 -3.618084e-02 -3.319885e-02 2.454804e-01 1.531179e-01 1.481536e-01 1.420606e-01 2.137932e-01 1.294431e-01 1.535241e-01 1.169654e-01 1.669758e-01 1.012059e+00 2.871866e-01 2.623325e-01 6.923537e-02 3.201522e-01 1.843071e-01 3.189636e-01 5.363910e-02 2.311882e-01 1.080412e-02 1.709339e-01 1.027779e-02 1.588208e-01 3.670377e-01
<VARIANCE> 39
 1.672145e+01 1.316739e+01 1.132674e+01 1.406888e+01 1.569707e+01 1.853593e+01 2.064662e+01 2.195376e+01 2.074710e+01 1.950608e+01 1.862850e+01 1.685797e+01 3.890277e+01 9.504111e-01 7.308553e-01 6.422769e-01 7.739946e-01 7.469414e-01 8.671157e-01 8.738007e-01 1.022678e+00 9.049023e-01 8.864778e-01 8.423444e-01 6.717718e-01 2.562210e+00 1.370580e-01 1.050994e-01 1.075221e-01 1.460799e-01 1.363484e-01 1.739964e-01 1.752818e-01 1.948650e-01 1.688323e-01 1.688021e-01 1.584171e-01 1.429513e-01 3.760249e-01
<GCONST> 8.405137e+01
<MIXTURE> 7 5.751295e-02
<MEAN> 39
 8.038361e-01 2.490285e-01 5.944094e-01 1.676623e+00 1.213591e+00 6.985821e-01 9.632946e-01 1.645577e+00 6.092860e-01 1.088861e+00 7.639641e-01 9.261094e-01 6.068454e+00 2.097487e-01 5.680836e-01 -2.125960e-01 1.064495e+00 4.377151e-01 1.287754e+00 8.960158e-02 8.179160e-01 -4.550144e-03 6.982738e-01 -6.388198e-02 6.637728e-01 2.475900e+00 -2.028658e-01 -3.293049e-02 4.518357e-02 -1.184218e-01 -2.114538e-02 -5.125476e-02 7.765852e-02 -2.791429e-02 1.191006e-01 -5.921654e-03 1.114814e-01 1.407680e-02 -2.156425e-01
<VARIANCE> 39
 7.990368e+00 8.784510e+00 9.045647e+00 1.524407e+01 1.447486e+01 2.104324e+01 1.665189e+01 2.001447e+01 1.827637e+01 1.815252e+01 1.469369e+01 1.362858e+01 2.879695e+01 6.931626e-01 4.139029e-01 4.093308e-01 5.740427e-01 5.792579e-01 6.606184e-01 7.287839e-01 7.567528e-01 7.264413e-01 7.792698e-01 6.499159e-01 6.019296e-01 1.735288e+00 7.790409e-02 6.927809e-02 7.350379e-02 1.125883e-01 1.144977e-01 1.591545e-01 1.331741e-01 1.646627e-01 1.497488e-01 1.568299e-01 1.247027e-01 1.137179e-01 1.889063e-01
<GCONST> 7.412309e+01
<MIXTURE> 8 3.077258e-02
<MEAN> 39
 2.120557e+00 1.120990e+00 2.923851e+00 -7.438111e-01 5.886137e-02 -1.326796e+00 9.735621e-01 -9.168867e-01 9.285271e-03 -8.383509e-01 6.969630e-01 -5.677412e-01 -4.215032e+00 5.093873e-03 -2.182910e-01 2.829411e-01 -5.725269e-01 -1.916452e-01 -6.007960e-01 -4.616414e-02 -5.075893e-01 1.206505e-01 -2.647334e-01 1.819160e-01 -2.330106e-01 4.782460e-01 -7.398498e-02 -3.375378e-02 -7.182077e-02 8.733218e-02 4.414134e-02 4.840006e-02 6.479228e-02 1.304983e-01 1.683554e-01 1.105206e-01 1.060825e-01 9.991910e-02 1.347279e-01
<VARIANCE> 39
 1.615396e+01 1.704492e+01 2.312017e+01 2.504617e+01 2.289248e+01 2.591247e+01 2.322252e+01 2.548570e+01 2.415652e+01 2.501941e+01 2.195977e+01 1.902542e+01 7.116584e+01 1.018005e+00 8.392689e-01 9.394625e-01 1.238234e+00 1.005600e+00 1.175727e+00 1.125782e+00 1.183650e+00 1.201572e+00 1.151225e+00 9.706982e-01 9.005222e-01 4.517313e+00 1.449714e-01 1.523623e-01 2.035671e-01 2.208748e-01 1.884625e-01 2.179678e-01 1.987867e-01 2.341187e-01 2.043302e-01 2.187869e-01 1.915627e-01 1.561718e-01 3.677256e-01
<GCONST> 9.448411e+01
<MIXTURE> 9 1.099370e-01
<MEAN> 39
 -2.106696e-01 -1.680541e-01 -5.023124e-01 -6.045851e-01 -1.136858e+00 -1.300894e+00 -1.413284e+00 -1.292675e+00 -1.380878e+00 -9.684414e-01 -7.320411e-01 -4.731412e-01 1.899898e-03 -1.503350e-01 -2.846911e-02 4.739344e-03 2.999081e-01 3.816550e-01 4.610655e-01 3.087540e-01 2.590297e-01 1.495109e-01 1.263780e-01 -3.193565e-02 -5.617763e-02 5.881324e-02 -8.102387e-02 -7.735401e-02 -4.070136e-02 -2.856463e-02 4.519126e-02 5.727499e-02 9.411596e-02 7.628628e-02 8.400608e-02 1.353784e-02 -2.585879e-02 -6.396755e-02 -8.318369e-02
<VARIANCE> 39
 2.091008e+00 3.130764e+00 5.215302e+00 7.830364e+00 9.247789e+00 1.172999e+01 1.303582e+01 1.527926e+01 1.483779e+01 1.489578e+01 1.408741e+01 1.207365e+01 1.005463e+01 1.450015e-01 1.541155e-01 2.592447e-01 3.718944e-01 4.033221e-01 4.702999e-01 5.554760e-01 5.941159e-01 6.582364e-01 6.332866e-01 5.959565e-01 5.650340e-01 3.005038e-01 1.751743e-02 2.560006e-02 4.464488e-02 5.871149e-02 6.689879e-02 8.888363e-02 9.499136e-02 1.190872e-01 1.174245e-01 1.292716e-01 1.162695e-01 1.072446e-01 3.295577e-02
<GCONST> 5.276648e+01
<MIXTURE> 10 8.293110e-02
<MEAN> 39
 -3.616673e+00 -3.836487e+00 1.840066e-01 -4.590286e+00 -2.106686e+00 -6.066195e+00 -3.992692e-01 -3.375861e+00 -7.211614e-02 -3.198981e+00 4.235801e-01 -2.716054e+00 -5.118752e+00 2.673752e-01 7.364973e-02 -2.938154e-01 6.163102e-01 1.645452e-01 5.580418e-01 -1.153548e-01 3.985210e-01 -2.387376e-01 2.714547e-01 -2.427670e-01 1.946696e-01 1.345423e+00 7.274306e-02 1.798967e-01 -8.934790e-02 2.443947e-01 5.542656e-02 3.097790e-01 -9.206251e-02 1.404185e-01 -1.341543e-01 1.102954e-01 -1.325129e-01 1.007150e-01 3.675543e-01
<VARIANCE> 39
 1.327442e+01 1.099638e+01 1.007146e+01 1.205818e+01 1.391682e+01 1.635112e+01 1.875263e+01 1.852245e+01 1.738008e+01 1.643206e+01 1.512284e+01 1.356312e+01 3.526746e+01 7.729011e-01 5.854803e-01 5.493404e-01 7.018417e-01 6.843602e-01 8.865970e-01 8.679125e-01 9.713931e-01 9.214370e-01 8.520267e-01 7.781587e-01 7.142837e-01 2.486030e+00 1.388108e-01 8.685418e-02 9.544202e-02 1.125562e-01 1.232134e-01 1.434518e-01 1.544361e-01 1.666985e-01 1.528725e-01 1.568834e-01 1.313249e-01 1.224454e-01 2.360293e-01
<GCONST> 7.899274e+01
<MIXTURE> 11 7.910775e-02
<MEAN> 39
 -3.123054e+00 -3.718026e+00 -5.210739e-02 -4.914926e+00 -2.801912e+00 -5.835749e+00 -7.941920e-01 -3.885965e+00 -3.535339e-01 -3.188594e+00 -4.641414e-02 -2.740507e+00 -7.383123e+00 -3.213155e-01 -3.781412e-01 -3.537676e-01 -1.064275e-01 -1.925852e-01 -2.243226e-01 -2.318487e-01 -1.907170e-01 -2.510623e-01 -2.230877e-01 -2.501519e-01 -1.608709e-01 3.717829e-01 1.391012e-01 1.326563e-01 -6.192689e-02 1.672706e-01 3.660554e-02 1.521122e-01 -1.138276e-01 5.461416e-02 -1.535527e-01 6.591812e-03 -1.489288e-01 7.585227e-03 1.217543e-01
<VARIANCE> 39
 1.672145e+01 1.316739e+01 1.132674e+01 1.406888e+01 1.569707e+01 1.853593e+01 2.064662e+01 2.195376e+01 2.074710e+01 1.950608e+01 1.862850e+01 1.685797e+01 3.890277e+01 9.504111e-01 7.308553e-01 6.422769e-01 7.739946e-01 7.469414e-01 8.671157e-01 8.738007e-01 1.022678e+00 9.049023e-01 8.864778e-01 8.423444e-01 6.717718e-01 2.562210e+00 1.370580e-01 1.050994e-01 1.075221e-01 1.460799e-01 1.363484e-01 1.739964e-01 1.752818e-01 1.948650e-01 1.688323e-01 1.688021e-01 1.584171e-01 1.429513e-01 3.760249e-01
<GCONST> 8.405137e+01
<MIXTURE> 12 5.751295e-02
<MEAN> 39
 -3.268535e-01 -9.365185e-01 -6.086299e-01 1.148763e-01 -3.082430e-01 -1.136334e+00 -6.689746e-01 -1.439247e-01 -1.100749e+00 -6.153697e-01 -7.693298e-01 -5.505670e-01 3.921942e+00 -1.232768e-01 3.107424e-01 -4.685118e-01 7.614325e-01 1.332791e-01 9.626402e-01 -2.518738e-01 4.699498e-01 -3.454763e-01 3.451688e-01 -3.863514e-01 3.534364e-01 1.948978e+00 -3.145110e-01 -1.382134e-01 -6.326276e-02 -2.526386e-01 -1.564954e-01 -2.108315e-01 -6.831360e-02 -1.902289e-01 -3.568897e-02 -1.643287e-01 -2.977166e-02 -1.208115e-01 -3.894959e-01
<VARIANCE> 39
 7.990368e+00 8.784510e+00 9.045647e+00 1.524407e+01 1.447486e+01 2.104324e+01 1.665189e+01 2.001447e+01 1.827637e+01 1.815252e+01 1.469369e+01 1.362858e+01 2.879695e+01 6.931626e-01 4.139029e-01 4.093308e-01 5.740427e-01 5.792579e-01 6.606184e-01 7.287839e-01 7.567528e-01 7.264413e-01 7.792698e-01 6.499159e-01 6.019296e-01 1.735288e+00 7.790409e-02 6.927809e-02 7.350379e-02 1.125883e-01 1.144977e-01 1.591545e-01 1.331741e-01 1.646627e-01 1.497488e-01 1.568299e-01 1.247027e-01 1.137179e-01 1.889063e-01
<GCONST> 7.412309e+01
<MIXTURE> 13 5.224805e-02
<MEAN> 39
 1.014836e+00 -2.692024e-01 4.306514e-01 -1.071098e+00 -1.016520e+00 -2.709355e+00 -9.735699e-01 -2.198106e+00 -1.820868e+00 -2.453086e+00 -1.435766e+00 -2.104620e+00 -8.528465e+00 -3.140908e-01 -1.651513e-01 8.199787e-02 -3.459136e-01 -1.919641e-01 -3.984386e-01 -1.050804e-01 -2.809370e-01 -1.412219e-01 -2.355821e-01 -4.408360e-04 -2.638781e-01 -1.362672e-01 -2.609610e-01 -2.030820e-01 -1.748999e-01 -2.086108e-01 -1.672381e-01 -1.481308e-01 -7.187334e-02 -8.231461e-02 8.940935e-03 -3.657243e-02 1.686655e-03 -2.964005e-02 -8.586439e-02
<VARIANCE> 39
 1.740586e+01 1.688027e+01 2.049801e+01 2.283724e+01 2.306103e+01 2.745203e+01 2.608755e+01 2.753473e+01 2.513479e+01 2.343717e+01 2.168265e+01 1.802695e+01 8.677970e+01 1.073424e+00 9.576537e-01 1.178380e+00 1.120202e+00 1.049883e+00 1.302066e+00 1.238299e+00 1.329481e+00 1.203067e+00 1.079148e+00 1.078575e+00 8.536524e-01 4.419464e+00 1.645400e-01 1.618985e-01 2.070067e-01 2.191448e-01 2.011664e-01 2.245725e-01 2.445086e-01 2.635539e-01 2.198028e-01 2.016427e-01 1.966469e-01 1.707710e-01 4.492034e-01
<GCONST> 9.625963e+01
<MIXTURE> 14 4.476722e-02
<MEAN> 39
 -7.783202e-01 -5.271620e-01 -8.686485e-01 -8.829370e-01 -1.200676e+00 -1.339575e+00 -1.149561e+00 -1.127443e+00 -1.249736e+00 -1.241309e+00 -7.862685e-01 -4.258587e-01 -1.431448e+00 -2.813946e-01 -8.329013e-02 -1.090771e-01 3.037265e-02 3.272000e-02 7.487492e-02 -9.809079e-02 -1.388911e-01 -1.860394e-01 -2.186805e-01 -2.575964e-01 -1.751872e-01 3.001634e-01 -9.483138e-02 -1.179084e-01 -1.664310e-02 -1.699606e-01 -7.519374e-02 -1.603432e-01 -3.147054e-02 -1.233758e-01 -1.804733e-02 -1.168699e-01 -6.061613e-02 -1.620292e-01 -2.881809e-01
<VARIANCE> 39
 5.071801e+00 4.876754e+00 6.695902e+00 1.011604e+01 9.999547e+00 1.443512e+01 1.477151e+01 1.815775e+01 1.545583e+01 1.714826e+01 1.421250e+01 1.293370e+01 7.359058e+01 3.738884e-01 2.623348e-01 4.401532e-01 4.792720e-01 5.288045e-01 6.921639e-01 7.047342e-01 7.822415e-01 7.245787e-01 7.337727e-01 6.509206e-01 5.911117e-01 1.377748e+00 5.149807e-02 4.395578e-02 6.239755e-02 9.023442e-02 9.121034e-02 1.323996e-01 1.250168e-01 1.591409e-01 1.375561e-01 1.463015e-01 1.207228e-01 1.029781e-01 2.554581e-01
<GCONST> 6.875017e+01
<MIXTURE> 15 4.272659e-02
<MEAN> 39
 1.600413e-01 -1.300268e+00 -2.948282e-01 -1.616712e-01 -7.225943e-02 -1.494754e+00 -2.259970e-01 -2.850983e-01 -5.265949e-01 -3.929773e-01 -2.497202e-01 -5.613183e-01 2.879655e+00 -1.375853e-02 4.809304e-01 -3.579522e-01 1.090713e+00 3.602020e-01 1.394711e+00 -2.174850e-02 8.597968e-01 -1.152057e-01 7.595737e-01 -1.868004e-01 5.754045e-01 2.078496e+00 -3.395240e-01 -7.021458e-02 -7.474294e-02 -1.718639e-01 -1.415133e-01 -1.078691e-01 -7.088217e-02 -1.046025e-01 -4.433380e-02 -1.078820e-01 -3.360479e-02 -5.559190e-02 -2.501722e-01
<VARIANCE> 39
 8.993090e+00 9.952608e+00 9.336540e+00 1.757929e+01 1.567566e+01 2.109283e+01 1.936684e+01 2.063806e+01 1.781678e+01 1.947289e+01 1.513178e+01 1.403768e+01 2.561433e+01 6.376592e-01 4.265871e-01 3.926339e-01 6.290115e-01 6.105006e-01 6.784174e-01 7.930481e-01 7.961922e-01 7.502424e-01 7.375885e-01 6.869937e-01 5.961424e-01 1.478552e+00 7.488451e-02 6.627058e-02 7.679529e-02 1.132472e-01 1.192107e-01 1.525957e-01 1.462011e-01 1.621312e-01 1.521164e-01 1.546421e-01 1.249068e-01 1.208094e-01 1.776194e-01
<GCONST> 7.490861e+01
<MIXTURE> 16 3.077258e-02
<MEAN> 39
 5.128772e-01 -5.304298e-01 1.000513e+00 -2.745657e+00 -1.854982e+00 -3.362968e+00 -9.540279e-01 -2.936221e+00 -1.956686e+00 -2.839127e+00 -1.177487e+00 -2.312467e+00 -7.589426e+00 -3.984911e-01 -5.847375e-01 -1.047624e-01 -1.017631e+00 -5.927636e-01 -1.034520e+00 -4.705756e-01 -9.427720e-01 -3.178145e-01 -6.939140e-01 -2.121801e-01 -6.125940e-01 -3.719129e-01 -2.262854e-01 -1.898882e-01 -2.522944e-01 -1.006571e-01 -1.295077e-01 -1.383480e-01 -1.135497e-01 -6.304500e-02 -1.245620e-02 -7.657807e-02 -6.898896e-02 -5.815522e-02 -1.078337e-01
<VARIANCE> 39
 1.615396e+01 1.704492e+01 2.312017e+01 2.504617e+01 2.289248e+01 2.591247e+01 2.322252e+01 2.548570e+01 2.415652e+01 2.501941e+01 2.195977e+01 1.902542e+01 7.116584e+01 1.018005e+00 8.392689e-01 9.394625e-01 1.238234e+00 1.005600e+00 1.175727e+00 1.125782e+00 1.183650e+00 1.201572e+00 1.151225e+00 9.706982e-01 9.005222e-01 4.517313e+00 1.449714e-01 1.523623e-01 2.035671e-01 2.208748e-01 1.884625e-01 2.179678e-01 1.987867e-01 2.341187e-01 2.043302e-01 2.187869e-01 1.915627e-01 1.561718e-01 3.677256e-01
<GCONST> 9.448411e+01
<STATE> 4
<NUMMIXES> 16
<MIXTURE> 1 3.527423e-02
<MEAN> 39
 -5.182780e-02 1.863512e-01 6.049787e-01 1.545993e+00 1.937883e+00 1.817133e+00 1.875566e+00 1.993567e+00 1.352744e+00 1.404765e+00 1.434345e+00 1.148903e+00 1.401960e-01 5.148047e-02 1.701555e-01 3.797210e-01 5.842675e-01 7.947749e-01 8.871340e-01 8.423316e-01 8.150404e-01 8.328477e-01 6.696284e-01 4.652392e-01 3.063911e-01 5.369508e-02 3.745010e-02 4.678475e-02 4.186153e-02 -1.777129e-02 -5.382840e-02 -4.122237e-02 -2.237308e-02 9.805687e-03 5.700717e-02 3.500448e-02 4.416503e-02 4.795097e-02 9.119750e-03
<VARIANCE> 39
 1.195352e+00 2.492586e+00 4.590119e+00 6.798952e+00 8.159734e+00 9.764369e+00 1.160765e+01 1.439715e+01 1.395353e+01 1.454795e+01 1.486867e+01 1.476343e+01 3.516366e-01 6.581391e-02 1.071444e-01 2.127814e-01 2.982076e-01 4.042871e-01 4.613268e-01 5.095627e-01 6.310930e-01 6.340084e-01 7.072216e-01 6.099697e-01 5.380725e-01 1.350989e-02 1.074138e-02 2.186437e-02 3.836133e-02 5.389849e-02 6.349768e-02 7.148843e-02 8.854982e-02 1.092418e-01 1.111348e-01 1.140150e-01 1.169318e-01 1.186451e-01 1.915828e-03
<GCONST> 3.914435e+01
<MIXTURE> 2 3.547874e-02
<MEAN> 39
 -1.743014e+00 7.765689e-01 5.108281e-01 4.115690e+00 2.744949e+00 3.584521e+00 1.639608e+00 3.324147e+00 1.247177e+00 2.462537e+00 1.161456e+00 2.317385e+00 9.050661e+00 -4.404732e-01 2.100758e-01 5.528614e-02 7.514820e-01 4.766095e-01 8.840280e-01 5.340900e-01 8.457251e-01 5.146136e-01 6.298115e-01 3.672956e-01 4.959827e-01 7.234957e-01 7.151718e-02 -6.998522e-02 2.772455e-02 -2.697141e-01 -1.151837e-01 -2.454111e-01 4.973802e-02 -1.028319e-01 9.095860e-02 -2.170178e-02 1.168013e-01 -4.044222e-02 -3.113980e-01
<VARIANCE> 39
 2.644140e+00 3.346994e+00 4.519072e+00 8.559402e+00 9.654666e+00 1.171559e+01 1.472414e+01 1.560528e+01 1.650356e+01 1.652363e+01 1.606985e+01 1.208972e+01 2.526556e+01 2.025510e-01 2.313314e-01 2.705081e-01 5.868296e-01 4.521517e-01 7.038103e-01 6.797289e-01 7.999446e-01 7.173053e-01 6.905445e-01 6.185347e-01 5.432200e-01 2.327833e-01 4.863437e-02 4.067761e-02 4.701353e-02 7.976594e-02 8.542808e-02 1.055768e-01 1.368777e-01 1.388729e-01 1.379919e-01 1.591528e-01 1.337504e-01 1.055138e-01 5.991098e-02
<GCONST> 6.050251e+01
<MIXTURE> 3 1.178609e-01
<MEAN> 39
 5.732387e-01 8.284397e-01 9.125561e-01 1.234812e+00 1.277086e+00 1.141805e+00 7.801309e-01 6.662638e-01 6.300005e-01 6.711025e-01 6.487741e-01 6.012609e-01 3.327339e-01 -5.167125e-02 -2.104206e-02 1.284472e-01 3.420391e-01 6.136477e-01 7.173567e-01 7.415786e-01 7.231912e-01 6.800783e-01 5.395145e-01 3.496696e-01 2.373643e-01 4.097223e-04 -1.976311e-02 -1.293972e-02 7.249985e-03 -7.149652e-03 -6.566063e-03 1.270970e-02 6.048832e-02 8.910154e-02 1.041523e-01 1.068431e-01 1.037768e-01 9.761418e-02 -7.366261e-03
<VARIANCE> 39
 9.893530e-01 2.057473e+00 4.007020e+00 6.262770e+00 7.582190e+00 9.359264e+00 1.063177e+01 1.232556e+01 1.299803e+01 1.311562e+01 1.230192e+01 1.303958e+01 3.516366e-01 5.078373e-02 9.606222e-02 1.874136e-01 2.712207e-01 3.390098e-01 4.342977e-01 4.851606e-01 5.461718e-01 5.964205e-01 6.474211e-01 5.964549e-01 5.636265e-01 9.405288e-03 8.544780e-03 1.898744e-02 3.833164e-02 5.022598e-02 5.600220e-02 6.794320e-02 8.312121e-02 9.964664e-02 1.030751e-01 1.098585e-01 1.048542e-01 1.030320e-01 1.680319e-03
<GCONST> 3.492366e+01
<MIXTURE> 4 5.526260e-02
<MEAN> 39
 -2.144643e+00 1.433307e-02 -1.030660e+00 2.006333e+00 1.074925e+00 2.801910e+00 1.544142e+00 3.583595e+00 1.389835e+00 2.875950e+00 1.609404e+00 2.785180e+00 1.122135e+01 -4.996069e-01 1.011667e-01 -1.943461e-01 2.123937e-01 9.681859e-02 5.211850e-01 1.671922e-01 4.829007e-01 2.936993e-01 4.882222e-01 2.897652e-01 4.261080e-01 9.473026e-01 9.053679e-02 -3.393121e-02 1.858815e-01 -8.466575e-02 5.400957e-02 -2.070301e-01 8.235388e-02 -1.154716e-01 9.907016e-02 -9.054273e-02 7.596856e-02 -1.137287e-01 -5.118990e-01
<VARIANCE> 39
 1.792430e+00 2.919457e+00 4.095887e+00 6.443697e+00 9.054403e+00 1.175552e+01 1.304706e+01 1.579117e+01 1.519248e+01 1.486635e+01 1.329985e+01 1.216111e+01 1.142267e+01 2.095483e-01 2.351221e-01 2.980231e-01 4.147917e-01 5.197756e-01 6.465263e-01 6.385871e-01 7.788094e-01 7.652250e-01 7.482341e-01 6.750405e-01 6.108174e-01 3.604154e-01 5.156690e-02 4.439693e-02 4.796503e-02 7.371619e-02 9.060922e-02 1.099877e-01 1.174415e-01 1.270528e-01 1.293773e-01 1.225398e-01 1.182589e-01 1.120164e-01 6.711429e-02
<GCONST> 5.848076e+01
<MIXTURE> 5 1.028709e-01
<MEAN> 39
 4.994396e-01 7.317914e-01 7.772218e-01 9.032360e-01 6.986656e-01 4.968224e-01 1.368066e-01 -3.000164e-02 1.679836e-01 2.113141e-01 1.597633e-01 4.042667e-01 3.251526e-01 -1.292115e-01 -1.233796e-01 -2.997771e-03 2.426353e-01 4.906564e-01 5.572392e-01 5.222147e-01 5.159085e-01 4.166541e-01 2.625511e-01 1.181204e-01 6.362575e-02 -2.878604e-02 -3.449123e-02 -3.828455e-02 -2.738779e-02 -3.570088e-02 -1.300725e-02 1.645740e-02 6.777902e-02 1.038123e-01 9.539332e-02 8.888380e-02 9.214336e-02 8.314932e-02 -1.492723e-02
<VARIANCE> 39
 9.598179e-01 2.312184e+00 4.360196e+00 6.039611e+00 8.050193e+00 9.669716e+00 1.119104e+01 1.270326e+01 1.298946e+01 1.382004e+01 1.309137e+01 1.238784e+01 3.516366e-01 4.812125e-02 9.338561e-02 1.966161e-01 2.777434e-01 3.134384e-01 4.065468e-01 4.734098e-01 5.480701e-01 5.790646e-01 6.352590e-01 5.804008e-01 5.471369e-01 8.782731e-03 8.636204e-03 2.023034e-02 3.735788e-02 4.980728e-02 5.497244e-02 6.918255e-02 8.480982e-02 9.328023e-02 1.032816e-01 1.106473e-01 1.114236e-01 1.022299e-01 1.804539e-03
<GCONST> 3.507190e+01
<MIXTURE> 6 7.273280e-02
<MEAN> 39
 -5.968703e-02 1.017354e-01 4.662788e-01 1.185644e+00 1.569015e+00 1.351359e+00 9.367093e-01 1.076264e+00 9.597262e-01 1.108839e+00 1.087773e+00 1.097387e+00 1.272558e-01 -3.122053e-02 7.175393e-02 2.519186e-01 4.529009e-01 6.775753e-01 7.506648e-01 6.709957e-01 5.890624e-01 5.915873e-01 4.517903e-01 2.232869e-01 1.088747e-01 1.390837e-02 1.564241e-02 1.676843e-02 7.224787e-03 -4.356663e-02 -7.836759e-02 -4.351604e-02 1.131022e-02 2.231230e-02 3.558898e-02 1.031070e-02 1.157717e-02 1.734617e-02 2.228613e-03
<VARIANCE> 39
 1.102820e+00 2.461900e+00 4.406776e+00 7.026094e+00 8.661441e+00 1.050489e+01 1.237657e+01 1.476654e+01 1.423472e+01 1.510398e+01 1.420749e+01 1.362057e+01 3.516366e-01 6.050949e-02 1.089828e-01 1.980845e-01 2.788752e-01 3.731330e-01 4.393424e-01 4.989359e-01 5.997226e-01 6.089064e-01 6.598223e-01 5.930882e-01 5.494124e-01 1.150280e-02 1.003669e-02 2.159694e-02 4.005757e-02 5.735634e-02 6.367022e-02 7.849248e-02 9.372348e-02 1.101198e-01 1.123429e-01 1.144264e-01 1.135721e-01 1.070375e-01 1.975258e-03
<GCONST> 3.861173e+01
<MIXTURE> 7 4.544057e-02
<MEAN> 39
 -1.940423e+00 4.593877e-01 2.832206e-01 3.197505e+00 1.864120e+00 2.798813e+00 1.063627e+00 2.741846e+00 1.009290e+00 1.971587e+00 6.200640e-01 1.574852e+00 8.765535e+00 -5.097021e-01 1.067681e-01 1.028562e-02 4.494571e-01 2.413431e-01 5.038080e-01 2.205713e-01 4.454266e-01 2.524062e-01 3.373968e-01 1.860000e-01 2.670266e-01 6.295080e-01 1.151682e-01 -9.127989e-02 1.176052e-02 -2.749937e-01 -8.792984e-02 -2.612427e-01 4.943564e-02 -1.360239e-01 2.853972e-02 -7.766519e-02 1.010936e-01 -3.935606e-02 -3.506494e-01
<VARIANCE> 39
 2.133452e+00 2.839376e+00 4.646936e+00 7.567703e+00 9.028293e+00 1.271764e+01 1.513070e+01 1.600455e+01 1.533853e+01 1.496674e+01 1.500858e+01 1.273934e+01 1.827738e+01 1.694682e-01 2.092781e-01 2.660754e-01 5.166621e-01 4.813026e-01 6.714467e-01 6.464102e-01 7.582144e-01 7.630306e-01 6.836081e-01 6.656493e-01 5.733883e-01 1.650983e-01 5.052851e-02 3.817843e-02 4.567370e-02 7.675878e-02 8.714939e-02 1.228500e-01 1.433885e-01 1.474786e-01 1.323920e-01 1.398985e-01 1.331086e-01 1.106352e-01 4.957821e-02
<GCONST> 5.877697e+01
<MIXTURE> 8 3.508907e-02
<MEAN> 39
 -2.272741e+00 -2.332804e-01 -1.251462e+00 1.633419e+00 7.283629e-01 2.617135e+00 1.385696e+00 2.666684e+00 5.185078e-01 2.258851e+00 8.883859e-01 2.057080e+00 1.011031e+01 -5.757091e-01 8.097708e-03 -2.739773e-01 -1.508863e-02 -1.626035e-01 2.772443e-01 -4.886392e-02 1.110235e-01 -3.058463e-02 9.635508e-02 3.233806e-02 2.661049e-01 8.977942e-01 1.181311e-01 -7.102804e-02 1.775518e-01 -1.035239e-01 3.463617e-02 -2.779337e-01 4.978042e-02 -1.529835e-01 6.292439e-02 -1.364971e-01 8.379656e-02 -1.149295e-01 -5.180097e-01
<VARIANCE> 39
 1.685324e+00 3.421221e+00 4.561645e+00 8.020156e+00 9.490250e+00 1.157931e+01 1.375719e+01 1.580010e+01 1.455972e+01 1.496225e+01 1.149416e+01 1.304895e+01 7.118358e+00 1.994352e-01 2.144353e-01 3.226817e-01 3.952766e-01 4.996450e-01 6.469179e-01 6.356712e-01 6.916480e-01 7.590788e-01 7.592378e-01 5.998530e-01 7.123916e-01 2.928919e-01 4.866705e-02 4.638352e-02 5.042788e-02 7.820105e-02 9.487014e-02 1.163815e-01 1.273961e-01 1.283360e-01 1.339305e-01 1.312917e-01 1.045625e-01 1.195419e-01 5.417710e-02
<GCONST> 5.808797e+01
<MIXTURE> 9 1.178609e-01
<MEAN> 39
 1.753738e-01 2.546839e-01 1.118543e-01 2.337911e-01 1.756544e-01 -8.191133e-02 -5.241249e-01 -7.380472e-01 -8.121107e-01 -7.775172e-01 -7.541897e-01 -8.431535e-01 9.553809e-02 -1.418122e-01 -1.450177e-01 -4.471793e-02 1.337237e-01 3.807495e-01 4.537516e-01 4.629647e-01 4.275774e-01 3.711652e-01 2.176646e-01 4.074760e-02 -6.293598e-02 -3.838262e-02 -5.673831e-02 -6.805769e-02 -7.106389e-02 -9.679427e-02 -1.012252e-01 -9.155397e-02 -5.483468e-02 -3.716590e-02 -2.426897e-02 -2.573656e-02 -2.574800e-02 -3.078021e-02 -2.376294e-02
<VARIANCE> 39
 9.893530e-01 2.057473e+00 4.007020e+00 6.262770e+00 7.582190e+00 9.359264e+00 1.063177e+01 1.232556e+01 1.299803e+01 1.311562e+01 1.230192e+01 1.303958e+01 3.516366e-01 5.078373e-02 9.606222e-02 1.874136e-01 2.712207e-01 3.390098e-01 4.342977e-01 4.851606e-01 5.461718e-01 5.964205e-01 6.474211e-01 5.964549e-01 5.636265e-01 9.405288e-03 8.544780e-03 1.898744e-02 3.833164e-02 5.022598e-02 5.600220e-02 6.794320e-02 8.312121e-02 9.964664e-02 1.030751e-01 1.098585e-01 1.048542e-01 1.030320e-01 1.680319e-03
<GCONST> 3.492366e+01
<MIXTURE> 10 1.028709e-01
<MEAN> 39
 1.075584e-01 1.235566e-01 -5.802158e-02 -7.978877e-02 -4.362490e-01 -7.470242e-01 -1.201314e+00 -1.455667e+00 -1.273652e+00 -1.275698e+00 -1.287517e+00 -1.003588e+00 8.795679e-02 -2.169577e-01 -2.456158e-01 -1.803634e-01 3.182987e-02 2.667142e-01 3.021950e-01 2.469955e-01 2.197815e-01 1.122689e-01 -5.626147e-02 -1.866158e-01 -2.322491e-01 -6.627253e-02 -7.166369e-02 -9.517791e-02 -1.047005e-01 -1.249711e-01 -1.067921e-01 -8.875290e-02 -4.870948e-02 -1.835494e-02 -3.315651e-02 -4.417096e-02 -4.137734e-02 -4.474432e-02 -3.191917e-02
<VARIANCE> 39
 9.598179e-01 2.312184e+00 4.360196e+00 6.039611e+00 8.050193e+00 9.669716e+00 1.119104e+01 1.270326e+01 1.298946e+01 1.382004e+01 1.309137e+01 1.238784e+01 3.516366e-01 4.812125e-02 9.338561e-02 1.966161e-01 2.777434e-01 3.134384e-01 4.065468e-01 4.734098e-01 5.480701e-01 5.790646e-01 6.352590e-01 5.804008e-01 5.471369e-01 8.782731e-03 8.636204e-03 2.023034e-02 3.735788e-02 4.980728e-02 5.497244e-02 6.918255e-02 8.480982e-02 9.328023e-02 1.032816e-01 1.106473e-01 1.114236e-01 1.022299e-01 1.804539e-03
<GCONST> 3.507190e+01
<MIXTURE> 11 7.273280e-02
<MEAN> 39
 -4.797480e-01 -5.258824e-01 -3.734141e-01 1.253726e-01 3.918018e-01 5.490887e-02 -4.705047e-01 -4.608258e-01 -5.494310e-01 -4.457147e-01 -4.199401e-01 -3.788551e-01 -1.099400e-01 -1.296152e-01 -6.029624e-02 7.389183e-02 2.416663e-01 4.332369e-01 4.855331e-01 3.884541e-01 2.792954e-01 2.794575e-01 1.268725e-01 -8.476194e-02 -1.876147e-01 -2.899207e-02 -2.443090e-02 -4.201517e-02 -7.283276e-02 -1.393634e-01 -1.792994e-01 -1.555821e-01 -1.111469e-01 -1.104249e-01 -9.848139e-02 -1.249972e-01 -1.232247e-01 -1.135202e-01 -1.554894e-02
<VARIANCE> 39
 1.102820e+00 2.461900e+00 4.406776e+00 7.026094e+00 8.661441e+00 1.050489e+01 1.237657e+01 1.476654e+01 1.423472e+01 1.510398e+01 1.420749e+01 1.362057e+01 3.516366e-01 6.050949e-02 1.089828e-01 1.980845e-01 2.788752e-01 3.731330e-01 4.393424e-01 4.989359e-01 5.997226e-01 6.089064e-01 6.598223e-01 5.930882e-01 5.494124e-01 1.150280e-02 1.003669e-02 2.159694e-02 4.005757e-02 5.735634e-02 6.367022e-02 7.849248e-02 9.372348e-02 1.101198e-01 1.123429e-01 1.144264e-01 1.135721e-01 1.070375e-01 1.975258e-03
<GCONST> 3.861173e+01
<MIXTURE> 12 5.526260e-02
<MEAN> 39
 -2.680169e+00 -6.691236e-01 -1.840192e+00 9.909552e-01 -1.286961e-01 1.430458e+00 9.931326e-02 1.994071e+00 -1.692660e-01 1.333674e+00 1.506451e-01 1.390268e+00 9.869451e+00 -6.827127e-01 -9.279083e-02 -4.127121e-01 -4.522359e-02 -1.915633e-01 1.995576e-01 -1.524544e-01 1.299000e-01 -5.620928e-02 1.422201e-01 -3.887819e-02 1.134888e-01 7.071642e-01 -2.966039e-04 -1.182135e-01 9.827776e-02 -1.932687e-01 -6.639589e-02 -3.396877e-01 -5.472508e-02 -2.580494e-01 -4.480606e-02 -2.305655e-01 -6.158660e-02 -2.476041e-01 -6.155246e-01
<VARIANCE> 39
 1.792430e+00 2.919457e+00 4.095887e+00 6.443697e+00 9.054403e+00 1.175552e+01 1.304706e+01 1.579117e+01 1.519248e+01 1.486635e+01 1.329985e+01 1.216111e+01 1.142267e+01 2.095483e-01 2.351221e-01 2.980231e-01 4.147917e-01 5.197756e-01 6.465263e-01 6.385871e-01 7.788094e-01 7.652250e-01 7.482341e-01 6.750405e-01 6.108174e-01 3.604154e-01 5.156690e-02 4.439693e-02 4.796503e-02 7.371619e-02 9.060922e-02 1.099877e-01 1.174415e-01 1.270528e-01 1.293773e-01 1.225398e-01 1.182589e-01 1.120164e-01 6.711429e-02
<GCONST> 5.848076e+01
<MIXTURE> 13 4.544057e-02
<MEAN> 39
 -2.524677e+00 -2.146302e-01 -5.790495e-01 2.097127e+00 6.622356e-01 1.372341e+00 -4.923008e-01 1.141618e+00 -5.572876e-01 4.241126e-01 -9.295724e-01 1.471640e-01 7.055453e+00 -6.743682e-01 -7.621964e-02 -1.960444e-01 1.619403e-01 -3.616086e-02 1.760406e-01 -1.010273e-01 9.712459e-02 -9.700033e-02 6.674409e-03 -1.403493e-01 -3.586300e-02 4.669788e-01 2.525399e-02 -1.694371e-01 -7.372510e-02 -3.858151e-01 -2.060142e-01 -4.014425e-01 -1.020311e-01 -2.896357e-01 -1.170031e-01 -2.272772e-01 -4.484255e-02 -1.724035e-01 -4.397140e-01
<VARIANCE> 39
 2.133452e+00 2.839376e+00 4.646936e+00 7.567703e+00 9.028293e+00 1.271764e+01 1.513070e+01 1.600455e+01 1.533853e+01 1.496674e+01 1.500858e+01 1.273934e+01 1.827738e+01 1.694682e-01 2.092781e-01 2.660754e-01 5.166621e-01 4.813026e-01 6.714467e-01 6.464102e-01 7.582144e-01 7.630306e-01 6.836081e-01 6.656493e-01 5.733883e-01 1.650983e-01 5.052851e-02 3.817843e-02 4.567370e-02 7.675878e-02 8.714939e-02 1.228500e-01 1.433885e-01 1.474786e-01 1.323920e-01 1.398985e-01 1.331086e-01 1.106352e-01 4.957821e-02
<GCONST> 5.877697e+01
<MIXTURE> 14 3.547874e-02
<MEAN> 39
 -2.393446e+00 4.477727e-02 -3.394963e-01 2.945432e+00 1.502071e+00 2.215399e+00 1.047258e-01 1.744007e+00 -3.778062e-01 8.365666e-01 -4.420326e-01 9.265745e-01 7.040067e+00 -6.204959e-01 1.768816e-02 -1.527554e-01 4.450627e-01 2.076406e-01 5.484544e-01 2.043074e-01 4.879665e-01 1.758381e-01 2.974155e-01 5.270764e-02 2.011689e-01 5.305051e-01 -1.669562e-02 -1.506600e-01 -5.900586e-02 -3.826855e-01 -2.320961e-01 -3.753815e-01 -9.824993e-02 -2.518945e-01 -5.763045e-02 -1.812776e-01 -2.948632e-02 -1.703738e-01 -4.093049e-01
<VARIANCE> 39
 2.644140e+00 3.346994e+00 4.519072e+00 8.559402e+00 9.654666e+00 1.171559e+01 1.472414e+01 1.560528e+01 1.650356e+01 1.652363e+01 1.606985e+01 1.208972e+01 2.526556e+01 2.025510e-01 2.313314e-01 2.705081e-01 5.868296e-01 4.521517e-01 7.038103e-01 6.797289e-01 7.999446e-01 7.173053e-01 6.905445e-01 6.185347e-01 5.432200e-01 2.327833e-01 4.863437e-02 4.067761e-02 4.701353e-02 7.976594e-02 8.542808e-02 1.055768e-01 1.368777e-01 1.388729e-01 1.379919e-01 1.591528e-01 1.337504e-01 1.055138e-01 5.991098e-02
<GCONST> 6.050251e+01
<MIXTURE> 15 3.527423e-02
<MEAN> 39
 -4.891564e-01 -4.451658e-01 -2.520038e-01 5.030010e-01 7.952730e-01 5.672132e-01 5.127659e-01 4.758234e-01 -1.414335e-01 -1.209062e-01 -1.080511e-01 -3.880259e-01 -9.699982e-02 -5.113641e-02 3.922386e-02 1.952081e-01 3.658339e-01 5.404406e-01 6.154498e-01 5.567970e-01 4.972749e-01 5.143491e-01 3.332426e-01 1.528370e-01 1.297735e-02 7.202258e-03 -4.006157e-03 -1.236167e-02 -3.648267e-02 -1.106355e-01 -1.546234e-01 -1.481717e-01 -1.414024e-01 -1.224013e-01 -7.634037e-02 -1.000599e-01 -9.261614e-02 -8.982863e-02 -8.388319e-03
<VARIANCE> 39
 1.195352e+00 2.492586e+00 4.590119e+00 6.798952e+00 8.159734e+00 9.764369e+00 1.160765e+01 1.439715e+01 1.395353e+01 1.454795e+01 1.486867e+01 1.476343e+01 3.516366e-01 6.581391e-02 1.071444e-01 2.127814e-01 2.982076e-01 4.042871e-01 4.613268e-01 5.095627e-01 6.310930e-01 6.340084e-01 7.072216e-01 6.099697e-01 5.380725e-01 1.350989e-02 1.074138e-02 2.186437e-02 3.836133e-02 5.389849e-02 6.349768e-02 7.148843e-02 8.854982e-02 1.092418e-01 1.111348e-01 1.140150e-01 1.169318e-01 1.186451e-01 1.915828e-03
<GCONST> 3.914435e+01
<MIXTURE> 16 3.508907e-02
<MEAN> 39
 -2.792021e+00 -9.731421e-01 -2.105782e+00 5.006234e-01 -5.038871e-01 1.255999e+00 -9.793174e-02 1.076710e+00 -1.007780e+00 7.116086e-01 -4.677356e-01 6.121463e-01 9.043101e+00 -7.543417e-01 -1.771309e-01 -5.011976e-01 -2.665728e-01 -4.453458e-01 -4.448052e-02 -3.677799e-01 -2.216380e-01 -3.790852e-01 -2.521819e-01 -2.774627e-01 -7.150828e-02 6.813162e-01 2.988869e-02 -1.571754e-01 8.772719e-02 -2.153817e-01 -8.856782e-02 -4.143927e-01 -9.298994e-02 -2.962795e-01 -8.346169e-02 -2.814339e-01 -4.554794e-02 -2.532289e-01 -6.111135e-01
<VARIANCE> 39
 1.685324e+00 3.421221e+00 4.561645e+00 8.020156e+00 9.490250e+00 1.157931e+01 1.375719e+01 1.580010e+01 1.455972e+01 1.496225e+01 1.149416e+01 1.304895e+01 7.118358e+00 1.994352e-01 2.144353e-01 3.226817e-01 3.952766e-01 4.996450e-01 6.469179e-01 6.356712e-01 6.916480e-01 7.590788e-01 7.592378e-01 5.998530e-01 7.123916e-01 2.928919e-01 4.866705e-02 4.638352e-02 5.042788e-02 7.820105e-02 9.487014e-02 1.163815e-01 1.273961e-01 1.283360e-01 1.339305e-01 1.312917e-01 1.045625e-01 1.195419e-01 5.417710e-02
<GCONST> 5.808797e+01
<TRANSP> 5
 0.000000e+00 1.000000e+00 0.000000e+00 0.000000e+00 0.000000e+00
 0.000000e+00 5.579790e-01 4.420210e-01 0.000000e+00 0.000000e+00
 0.000000e+00 0.000000e+00 7.269821e-01 2.730179e-01 0.000000e+00
 0.000000e+00 0.000000e+00 0.000000e+00 4.343941e-01 5.656059e-01
 0.000000e+00 0.000000e+00 0.000000e+00 0.000000e+00 0.000000e+00
<ENDHMM>
~h "k"
<BEGINHMM>
<NUMSTATES> 5
<STATE> 2
<NUMMIXES> 16
<MIXTURE> 1 4.716572e-02
<MEAN> 39
 2.146763e+00 2.035579e+00 1.254770e+00 1.829910e-02 -8.131009e-01 -2.340417e-01 9.232063e-01 1.354614e+00 1.394470e+00 1.378360e+00 1.281607e+00 1.836187e+00 -1.342725e+01 -1.088176e+00 -8.483272e-01 -3.892092e-01 9.137667e-01 6.398277e-01 1.336445e+00 1.253138e+00 8.260725e-01 4.897173e-01 7.242413e-01 2.148165e-01 5.289202e-01 2.724638e+00 -6.417775e-02 2.536840e-02 2.117326e-01 9.480845e-02 1.132157e-01 2.856234e-01 9.984656e-02 1.105953e-01 1.293127e-01 1.490612e-01 6.841756e-02 -1.640938e-03 1.765811e+00
<VARIANCE> 39
 7.979358e+00 9.013559e+00 1.174819e+01 1.575314e+01 1.792854e+01 2.338096e+01 1.657482e+01 1.953049e+01 1.814449e+01 2.079529e+01 1.567925e+01 1.342448e+01 6.015241e+01 7.866733e-01 7.555935e-01 1.126179e+00 1.342479e+00 1.531019e+00 1.571514e+00 1.293849e+00 1.245983e+00 1.682086e+00 1.725619e+00 1.182431e+00 8.247790e-01 6.561064e+00 1.215005e-01 1.252396e-01 1.794382e-01 2.259111e-01 2.474876e-01 2.525579e-01 1.978926e-01 2.141612e-01 1.844090e-01 2.193090e-01 1.579248e-01 1.172695e-01 7.912918e-01
<GCONST> 9.178613e+01
<MIXTURE> 2 5.471805e-02
<MEAN> 39
 -3.566098e-01 5.535905e-01 1.144809e+00 2.900485e+00 1.404901e+00 3.103671e+00 2.212607e+00 2.913078e+00 1.134145e+00 2.423294e+00 1.446840e+00 2.444414e+00 8.306089e+00 7.663366e-02 3.417748e-01 5.705732e-01 -7.261157e-02 1.879214e-02 5.107433e-01 2.490094e-01 1.681795e-01 5.947349e-01 4.071835e-01 3.519708e-01 6.151837e-02 1.350148e+00 8.606178e-02 1.389230e-01 8.832087e-02 -1.466995e-01 -5.936229e-02 -5.260331e-02 6.667547e-03 -4.294683e-02 2.016277e-01 3.435299e-02 9.967694e-02 -1.781107e-02 -5.626059e-01
<VARIANCE> 39
 9.262331e+00 8.221758e+00 1.086720e+01 1.706229e+01 1.844515e+01 2.291801e+01 2.534459e+01 2.417081e+01 2.398688e+01 2.007259e+01 1.695916e+01 1.654331e+01 2.381082e+01 2.156834e+00 1.330639e+00 1.386785e+00 1.196275e+00 1.331751e+00 1.891529e+00 1.248090e+00 1.212400e+00 1.309024e+00 1.250381e+00 9.917792e-01 7.968594e-01 1.414271e+01 1.656116e-01 1.619625e-01 1.614335e-01 1.896885e-01 1.853613e-01 2.330871e-01 2.489931e-01 2.339849e-01 2.249305e-01 2.212128e-01 1.681906e-01 1.642399e-01 3.970540e-01
<GCONST> 9.388347e+01
<MIXTURE> 3 7.763755e-02
<MEAN> 39
 -7.278830e-02 6.135771e-01 8.536557e-01 1.222336e+00 8.795664e-01 1.490080e+00 1.437209e+00 1.584732e+00 1.416825e+00 1.242915e+00 8.863775e-01 8.268419e-01 1.519714e+00 2.084180e-01 1.774463e-01 5.512951e-02 -2.369011e-01 -3.743360e-01 -4.892911e-01 -4.162732e-01 -2.648141e-01 -6.911448e-02 -8.108671e-02 -1.314010e-02 -2.953263e-02 1.010723e-01 3.667290e-02 1.177998e-02 1.064345e-02 9.325631e-04 2.495260e-02 -1.382340e-02 9.010550e-03 2.381190e-02 5.009492e-02 7.061171e-02 1.068083e-01 1.137027e-01 -2.033610e-02
<VARIANCE> 39
 2.569784e+00 3.518665e+00 5.888736e+00 9.454350e+00 1.018693e+01 1.180415e+01 1.322849e+01 1.510953e+01 1.491151e+01 1.622865e+01 1.508383e+01 1.461071e+01 7.507812e+00 1.962833e-01 1.606652e-01 2.712864e-01 4.618820e-01 4.471838e-01 5.834579e-01 6.351175e-01 6.731327e-01 7.266703e-01 6.440206e-01 5.784272e-01 6.966371e-01 3.649942e-01 2.230404e-02 3.274184e-02 5.385619e-02 7.444404e-02 7.718784e-02 8.771437e-02 9.612756e-02 1.209453e-01 1.262802e-01 1.328581e-01 1.314236e-01 1.272899e-01 8.603243e-02
<GCONST> 5.766074e+01
<MIXTURE> 4 6.924995e-02
<MEAN> 39
 7.943528e+00 7.362462e+00 7.638762e+00 -9.251024e-01 -1.531236e+00 -2.591030e+00 -3.740259e+00 -2.654142e-01 1.295089e+00 1.053949e+00 2.240158e+00 3.753911e-01 -7.131970e+00 2.506379e-01 1.743135e-01 4.329367e-01 -1.362576e-01 -2.577332e-01 -1.223166e-01 3.083826e-01 5.308980e-02 5.947954e-01 2.763630e-01 4.333278e-01 2.321950e-01 -2.821161e+00 -7.295597e-01 -5.666536e-01 -5.109106e-01 3.549863e-01 2.966770e-01 5.967076e-01 5.992509e-01 3.728952e-01 1.897962e-01 2.769766e-01 2.535315e-02 2.506727e-01 1.403655e+00
<VARIANCE> 39
 1.931390e+01 2.116425e+01 2.916955e+01 3.167397e+01 3.477271e+01 3.578984e+01 2.544476e+01 2.948847e+01 3.737606e+01 3.692371e+01 3.062602e+01 1.961824e+01 6.447630e+01 1.164444e+00 9.966099e-01 1.133440e+00 1.186230e+00 1.257046e+00 1.333627e+00 1.131442e+00 1.094709e+00 1.088065e+00 1.065195e+00 8.984429e-01 7.360122e-01 5.807931e+00 1.497837e-01 1.627508e-01 1.974533e-01 2.748259e-01 3.327069e-01 3.042601e-01 2.104965e-01 2.574828e-01 3.450992e-01 3.513138e-01 2.683996e-01 1.866996e-01 8.779677e-01
<GCONST> 1.016621e+02
<MIXTURE> 5 7.067815e-02
<MEAN> 39
 -7.772932e-01 -2.547801e-03 1.296821e+00 2.328856e+00 -6.889020e-01 2.693907e+00 2.192660e+00 2.435152e+00 1.645171e+00 2.734122e+00 8.799543e-01 1.568746e+00 7.341391e+00 -2.479464e-01 1.814291e-02 4.077308e-01 -6.205143e-01 -2.509944e-01 3.268979e-01 2.249866e-01 -3.404711e-01 4.208113e-01 -5.627775e-02 5.567811e-02 -3.443699e-01 1.642329e+00 1.626709e-01 1.902009e-01 6.389106e-02 -2.031961e-01 4.406052e-02 -1.586312e-01 -9.009700e-02 -1.119670e-01 1.319772e-01 -8.483097e-02 1.033631e-01 -5.126700e-03 -8.206677e-01
<VARIANCE> 39
 8.560971e+00 9.043954e+00 1.181193e+01 2.105693e+01 2.547599e+01 2.267279e+01 2.457907e+01 2.468896e+01 2.231801e+01 2.162583e+01 1.813225e+01 1.744633e+01 2.370141e+01 1.702116e+00 1.033256e+00 1.012534e+00 1.279879e+00 1.311569e+00 1.712777e+00 1.241761e+00 1.172214e+00 1.195438e+00 1.314716e+00 9.849372e-01 8.803758e-01 1.031396e+01 1.318838e-01 1.422835e-01 1.597465e-01 2.375937e-01 2.319374e-01 2.557940e-01 2.423529e-01 2.401467e-01 2.262212e-01 2.503117e-01 1.812692e-01 1.667843e-01 4.418749e-01
<GCONST> 9.396078e+01
<MIXTURE> 6 5.091125e-02
<MEAN> 39
 6.893662e+00 5.265124e+00 6.050562e+00 -2.102903e+00 -2.762785e+00 -2.940871e+00 -2.252761e+00 2.386616e-01 1.449929e+00 1.367027e+00 2.248881e+00 7.563835e-02 -5.092331e+00 5.427068e-01 3.323516e-01 5.808938e-01 -4.673274e-01 -4.609636e-01 -3.783264e-01 1.407878e-02 -4.735487e-01 1.432275e-01 -2.040550e-01 1.794399e-01 -1.303903e-01 -2.884640e+00 -5.629306e-01 -2.983713e-01 -3.387377e-01 4.262659e-01 4.165938e-01 5.643628e-01 4.592089e-01 2.627075e-01 1.454036e-01 1.741964e-01 2.766475e-04 2.052877e-01 9.391099e-01
<VARIANCE> 39
 2.240859e+01 3.823858e+01 3.117510e+01 3.899313e+01 4.058096e+01 3.726638e+01 3.720226e+01 3.694776e+01 4.078661e+01 3.608728e+01 3.320014e+01 2.167992e+01 6.888295e+01 1.552962e+00 1.231403e+00 9.832122e-01 1.190780e+00 1.221795e+00 1.711789e+00 1.375008e+00 1.189434e+00 1.138892e+00 1.086344e+00 1.052347e+00 8.573811e-01 7.564675e+00 1.900995e-01 2.917831e-01 2.309449e-01 3.166536e-01 3.471727e-01 3.098645e-01 3.120317e-01 3.123587e-01 3.465489e-01 3.413599e-01 2.779907e-01 1.894854e-01 9.770508e-01
<GCONST> 1.071890e+02
<MIXTURE> 7 5.951005e-02
<MEAN> 39
 1.453134e-01 6.459844e-01 1.012345e+00 9.289378e-01 3.926440e-01 9.698689e-01 1.097864e+00 9.350696e-01 9.488008e-01 7.203783e-01 3.108091e-01 3.833799e-01 8.319259e-01 2.395117e-01 8.787751e-02 -1.462974e-02 -4.998651e-01 -4.805246e-01 -7.116367e-01 -5.400084e-01 -5.403511e-01 -3.276199e-01 -3.721571e-01 -2.025280e-01 -2.229514e-01 -3.150403e-04 3.386998e-02 -6.121416e-03 -2.458107e-02 -1.835819e-02 3.316134e-02 -2.255207e-02 -2.299879e-02 4.688904e-03 3.196742e-02 4.726236e-02 1.099927e-01 1.079635e-01 -1.804172e-02
<VARIANCE> 39
 2.593942e+00 3.692468e+00 6.053052e+00 1.033793e+01 1.169253e+01 1.331731e+01 1.422772e+01 1.431936e+01 1.508640e+01 1.745146e+01 1.552991e+01 1.435405e+01 3.306161e+00 2.229681e-01 2.018406e-01 2.835097e-01 6.826697e-01 4.462112e-01 5.831667e-01 6.454175e-01 6.360922e-01 8.012579e-01 7.389962e-01 6.337261e-01 7.252753e-01 2.773442e-01 1.939981e-02 2.969171e-02 4.784309e-02 7.930984e-02 8.035992e-02 9.296682e-02 9.778160e-02 1.194493e-01 1.281803e-01 1.453086e-01 1.295531e-01 1.181770e-01 1.144675e-01
<GCONST> 5.833990e+01
<MIXTURE> 8 7.012595e-02
<MEAN> 39
 1.961079e+00 9.067169e-01 1.719054e+00 -2.795192e-01 -1.677941e+00 -8.476021e-01 9.395257e-01 9.995629e-01 1.616071e+00 1.292803e+00 1.480252e+00 1.298623e+00 -1.122600e+01 -9.663250e-01 -9.422252e-01 -4.569115e-01 5.592937e-01 1.784596e-01 8.671665e-01 1.031235e+00 2.397090e-01 2.522313e-01 3.338833e-01 -4.277079e-02 1.784387e-01 2.273813e+00 -3.298138e-02 1.641843e-01 1.861235e-01 5.923749e-02 1.571871e-01 2.674338e-01 4.843514e-02 6.902583e-02 5.650320e-02 7.584324e-02 1.596181e-02 -2.658458e-02 1.464731e+00
<VARIANCE> 39
 1.195137e+01 2.048594e+01 1.587810e+01 1.647596e+01 1.764547e+01 2.344888e+01 1.913199e+01 1.918920e+01 1.685465e+01 1.781469e+01 1.390768e+01 1.303614e+01 7.750424e+01 1.212840e+00 1.105376e+00 1.309658e+00 1.477451e+00 1.554911e+00 1.620600e+00 1.308362e+00 1.192277e+00 1.446747e+00 1.348894e+00 1.090526e+00 9.248658e-01 6.656865e+00 1.710175e-01 2.196230e-01 2.082952e-01 2.496930e-01 2.327381e-01 2.709403e-01 2.113384e-01 2.028292e-01 1.841210e-01 2.014584e-01 1.450056e-01 1.412058e-01 9.158160e-01
<GCONST> 9.540335e+01
<MIXTURE> 9 7.763755e-02
<MEAN> 39
 -7.140101e-01 -1.367471e-01 -1.170131e-01 -7.581294e-03 -3.971124e-01 1.157936e-01 -1.763117e-02 2.989227e-02 -1.277920e-01 -3.684765e-01 -6.671388e-01 -7.021164e-01 4.236990e-01 3.120246e-02 1.711402e-02 -1.532111e-01 -5.087487e-01 -6.418232e-01 -7.948288e-01 -7.350502e-01 -5.929927e-01 -4.100943e-01 -4.020903e-01 -3.173577e-01 -3.633918e-01 -1.405867e-01 -2.306525e-02 -6.059884e-02 -8.218429e-02 -1.082052e-01 -8.617820e-02 -1.322898e-01 -1.150072e-01 -1.152969e-01 -9.204879e-02 -7.518711e-02 -3.820130e-02 -2.900818e-02 -1.376612e-01
<VARIANCE> 39
 2.569784e+00 3.518665e+00 5.888736e+00 9.454350e+00 1.018693e+01 1.180415e+01 1.322849e+01 1.510953e+01 1.491151e+01 1.622865e+01 1.508383e+01 1.461071e+01 7.507812e+00 1.962833e-01 1.606652e-01 2.712864e-01 4.618820e-01 4.471838e-01 5.834579e-01 6.351175e-01 6.731327e-01 7.266703e-01 6.440206e-01 5.784272e-01 6.966371e-01 3.649942e-01 2.230404e-02 3.274184e-02 5.385619e-02 7.444404e-02 7.718784e-02 8.771437e-02 9.612756e-02 1.209453e-01 1.262802e-01 1.328581e-01 1.314236e-01 1.272899e-01 8.603243e-02
<GCONST> 5.766074e+01
<MIXTURE> 10 7.067815e-02
<MEAN> 39
 -1.947659e+00 -1.205475e+00 -7.791847e-02 4.933423e-01 -2.707852e+00 7.892689e-01 2.095684e-01 4.476322e-01 -2.445066e-01 8.739784e-01 -8.233249e-01 -1.020060e-01 5.394027e+00 -7.698070e-01 -3.884539e-01 5.231798e-03 -1.073041e+00 -7.090894e-01 -1.965945e-01 -2.207508e-01 -7.735465e-01 -1.653309e-02 -5.149220e-01 -3.412979e-01 -7.196833e-01 3.577150e-01 1.740766e-02 3.931893e-02 -9.598214e-02 -3.981705e-01 -1.485790e-01 -3.609355e-01 -2.870144e-01 -3.079860e-01 -5.827370e-02 -2.849556e-01 -6.693983e-02 -1.684836e-01 -1.086562e+00
<VARIANCE> 39
 8.560971e+00 9.043954e+00 1.181193e+01 2.105693e+01 2.547599e+01 2.267279e+01 2.457907e+01 2.468896e+01 2.231801e+01 2.162583e+01 1.813225e+01 1.744633e+01 2.370141e+01 1.702116e+00 1.033256e+00 1.012534e+00 1.279879e+00 1.311569e+00 1.712777e+00 1.241761e+00 1.172214e+00 1.195438e+00 1.314716e+00 9.849372e-01 8.803758e-01 1.031396e+01 1.318838e-01 1.422835e-01 1.597465e-01 2.375937e-01 2.319374e-01 2.557940e-01 2.423529e-01 2.401467e-01 2.262212e-01 2.503117e-01 1.812692e-01 1.667843e-01 4.418749e-01
<GCONST> 9.396078e+01
<MIXTURE> 11 7.012595e-02
<MEAN> 39
 5.782490e-01 -9.037390e-01 1.251611e-01 -1.903143e+00 -3.358201e+00 -2.784564e+00 -8.100796e-01 -7.526563e-01 -2.610540e-02 -3.954956e-01 -1.146781e-02 -1.456004e-01 -1.474746e+01 -1.406841e+00 -1.362773e+00 -9.146727e-01 7.309192e-02 -3.203247e-01 3.579553e-01 5.737007e-01 -1.970567e-01 -2.288919e-01 -1.306843e-01 -4.604838e-01 -2.062411e-01 1.241777e+00 -1.983984e-01 -2.327154e-02 3.565989e-03 -1.406397e-01 -3.578467e-02 5.922604e-02 -1.354511e-01 -1.111204e-01 -1.151341e-01 -1.036932e-01 -1.363566e-01 -1.768940e-01 1.081937e+00
<VARIANCE> 39
 1.195137e+01 2.048594e+01 1.587810e+01 1.647596e+01 1.764547e+01 2.344888e+01 1.913199e+01 1.918920e+01 1.685465e+01 1.781469e+01 1.390768e+01 1.303614e+01 7.750424e+01 1.212840e+00 1.105376e+00 1.309658e+00 1.477451e+00 1.554911e+00 1.620600e+00 1.308362e+00 1.192277e+00 1.446747e+00 1.348894e+00 1.090526e+00 9.248658e-01 6.656865e+00 1.710175e-01 2.196230e-01 2.082952e-01 2.496930e-01 2.327381e-01 2.709403e-01 2.113384e-01 2.028292e-01 1.841210e-01 2.014584e-01 1.450056e-01 1.412058e-01 9.158160e-01
<GCONST> 9.540335e+01
<MIXTURE> 12 6.924995e-02
<MEAN> 39
 6.185625e+00 5.522276e+00 5.478408e+00 -3.176288e+00 -3.889972e+00 -4.984015e+00 -5.757971e+00 -2.437546e+00 -1.150350e+00 -1.376646e+00 2.652633e-02 -1.396308e+00 -1.034386e+01 -1.809997e-01 -2.250079e-01 7.084116e-03 -5.719144e-01 -7.062054e-01 -5.842476e-01 -1.170944e-01 -3.654236e-01 1.775540e-01 -1.364701e-01 5.418283e-02 -1.109696e-01 -3.785147e+00 -8.843673e-01 -7.280232e-01 -6.886534e-01 1.452909e-01 6.595399e-02 3.760684e-01 4.157313e-01 1.699242e-01 -4.518436e-02 3.988974e-02 -1.818760e-01 7.783771e-02 1.028855e+00
<VARIANCE> 39
 1.931390e+01 2.116425e+01 2.916955e+01 3.167397e+01 3.477271e+01 3.578984e+01 2.544476e+01 2.948847e+01 3.737606e+01 3.692371e+01 3.062602e+01 1.961824e+01 6.447630e+01 1.164444e+00 9.966099e-01 1.133440e+00 1.186230e+00 1.257046e+00 1.333627e+00 1.131442e+00 1.094709e+00 1.088065e+00 1.065195e+00 8.984429e-01 7.360122e-01 5.807931e+00 1.497837e-01 1.627508e-01 1.974533e-01 2.748259e-01 3.327069e-01 3.042601e-01 2.104965e-01 2.574828e-01 3.450992e-01 3.513138e-01 2.683996e-01 1.866996e-01 8.779677e-01
<GCONST> 1.016621e+02
<MIXTURE> 13 5.951005e-02
<MEAN> 39
 -4.989154e-01 -1.226474e-01 2.822706e-02 -3.571683e-01 -9.751296e-01 -4.898467e-01 -4.109222e-01 -5.785676e-01 -6.048478e-01 -9.506195e-01 -1.265511e+00 -1.132090e+00 1.046119e-01 5.063370e-02 -9.182918e-02 -2.276123e-01 -8.303605e-01 -7.477208e-01 -1.017098e+00 -8.613600e-01 -8.593727e-01 -6.856719e-01 -7.160167e-01 -5.209557e-01 -5.636038e-01 -2.109690e-01 -2.184330e-02 -7.504654e-02 -1.120733e-01 -1.310062e-01 -8.022996e-02 -1.445139e-01 -1.480790e-01 -1.335569e-01 -1.112417e-01 -1.052151e-01 -3.398127e-02 -2.954407e-02 -1.533739e-01
<VARIANCE> 39
 2.593942e+00 3.692468e+00 6.053052e+00 1.033793e+01 1.169253e+01 1.331731e+01 1.422772e+01 1.431936e+01 1.508640e+01 1.745146e+01 1.552991e+01 1.435405e+01 3.306161e+00 2.229681e-01 2.018406e-01 2.835097e-01 6.826697e-01 4.462112e-01 5.831667e-01 6.454175e-01 6.360922e-01 8.012579e-01 7.389962e-01 6.337261e-01 7.252753e-01 2.773442e-01 1.939981e-02 2.969171e-02 4.784309e-02 7.930984e-02 8.035992e-02 9.296682e-02 9.778160e-02 1.194493e-01 1.281803e-01 1.453086e-01 1.295531e-01 1.181770e-01 1.144675e-01
<GCONST> 5.833990e+01
<MIXTURE> 14 5.471805e-02
<MEAN> 39
 -1.573973e+00 -5.933537e-01 -1.738088e-01 1.248223e+00 -3.130113e-01 1.188761e+00 1.988708e-01 9.465256e-01 -8.249111e-01 6.311961e-01 -2.004203e-01 8.174756e-01 6.354237e+00 -5.108129e-01 -1.196386e-01 9.952584e-02 -5.101090e-01 -4.428139e-01 -3.938825e-02 -1.978624e-01 -2.722566e-01 1.370845e-01 -4.009828e-02 -4.638162e-02 -2.955496e-01 -1.541240e-01 -7.671984e-02 -2.205527e-02 -7.239430e-02 -3.209125e-01 -2.315767e-01 -2.457197e-01 -1.929293e-01 -2.364348e-01 1.192033e-02 -1.537801e-01 -6.436724e-02 -1.799172e-01 -8.146547e-01
<VARIANCE> 39
 9.262331e+00 8.221758e+00 1.086720e+01 1.706229e+01 1.844515e+01 2.291801e+01 2.534459e+01 2.417081e+01 2.398688e+01 2.007259e+01 1.695916e+01 1.654331e+01 2.381082e+01 2.156834e+00 1.330639e+00 1.386785e+00 1.196275e+00 1.331751e+00 1.891529e+00 1.248090e+00 1.212400e+00 1.309024e+00 1.250381e+00 9.917792e-01 7.968594e-01 1.414271e+01 1.656116e-01 1.619625e-01 1.614335e-01 1.896885e-01 1.853613e-01 2.330871e-01 2.489931e-01 2.339849e-01 2.249305e-01 2.212128e-01 1.681906e-01 1.642399e-01 3.970540e-01
<GCONST> 9.388347e+01
<MIXTURE> 15 5.091125e-02
<MEAN> 39
 5.000154e+00 2.791630e+00 3.817175e+00 -4.600683e+00 -5.310913e+00 -5.382719e+00 -4.692507e+00 -2.192725e+00 -1.104647e+00 -1.035881e+00 -5.590129e-02 -1.786830e+00 -8.412161e+00 4.423521e-02 -1.115228e-01 1.842656e-01 -9.038188e-01 -9.031030e-01 -9.016678e-01 -4.549642e-01 -9.097934e-01 -2.836481e-01 -6.209663e-01 -2.308960e-01 -5.007699e-01 -3.984798e+00 -7.373322e-01 -5.144391e-01 -5.309646e-01 2.011779e-01 1.809084e-01 3.417009e-01 2.357697e-01 3.915128e-02 -9.006998e-02 -5.950765e-02 -2.106226e-01 3.116806e-02 5.437264e-01
<VARIANCE> 39
 2.240859e+01 3.823858e+01 3.117510e+01 3.899313e+01 4.058096e+01 3.726638e+01 3.720226e+01 3.694776e+01 4.078661e+01 3.608728e+01 3.320014e+01 2.167992e+01 6.888295e+01 1.552962e+00 1.231403e+00 9.832122e-01 1.190780e+00 1.221795e+00 1.711789e+00 1.375008e+00 1.189434e+00 1.138892e+00 1.086344e+00 1.052347e+00 8.573811e-01 7.564675e+00 1.900995e-01 2.917831e-01 2.309449e-01 3.166536e-01 3.471727e-01 3.098645e-01 3.120317e-01 3.123587e-01 3.465489e-01 3.413599e-01 2.779907e-01 1.894854e-01 9.770508e-01
<GCONST> 1.071890e+02
<MIXTURE> 16 4.716572e-02
<MEAN> 39
 1.016853e+00 8.346752e-01 -1.162553e-01 -1.569310e+00 -2.506785e+00 -2.168196e+00 -7.052811e-01 -4.131185e-01 -3.093835e-01 -4.457146e-01 -3.022744e-01 3.706093e-01 -1.652957e+01 -1.442954e+00 -1.196027e+00 -8.136955e-01 4.503051e-01 1.448903e-01 8.350049e-01 7.981480e-01 3.795780e-01 -2.906373e-02 1.987900e-01 -2.201420e-01 1.656508e-01 1.700056e+00 -2.036054e-01 -1.161884e-01 4.229201e-02 -9.531198e-02 -8.577685e-02 8.460283e-02 -7.809393e-02 -7.451490e-02 -4.245880e-02 -3.826052e-02 -9.054146e-02 -1.386195e-01 1.409993e+00
<VARIANCE> 39
 7.979358e+00 9.013559e+00 1.174819e+01 1.575314e+01 1.792854e+01 2.338096e+01 1.657482e+01 1.953049e+01 1.814449e+01 2.079529e+01 1.567925e+01 1.342448e+01 6.015241e+01 7.866733e-01 7.555935e-01 1.126179e+00 1.342479e+00 1.531019e+00 1.571514e+00 1.293849e+00 1.245983e+00 1.682086e+00 1.725619e+00 1.182431e+00 8.247790e-01 6.561064e+00 1.215005e-01 1.252396e-01 1.794382e-01 2.259111e-01 2.474876e-01 2.525579e-01 1.978926e-01 2.141612e-01 1.844090e-01 2.193090e-01 1.579248e-01 1.172695e-01 7.912918e-01
<GCONST> 9.178613e+01
<STATE> 3
<NUMMIXES> 16
<MIXTURE> 1 2.984946e-02
<MEAN> 39
 -4.100780e+00 4.673374e-01 -4.832429e-01 1.799249e+00 4.574304e-01 2.483708e+00 1.383137e+00 1.388188e+00 2.080392e+00 2.144861e+00 1.345220e+00 5.206118e-01 5.348820e+00 1.597635e-01 1.651452e-01 2.777684e-02 2.961234e-01 3.321491e-01 2.273364e-01 2.497991e-01 3.891528e-01 2.664702e-01 2.703482e-01 2.280759e-01 1.557255e-01 2.971312e-02 1.328549e-01 5.124579e-02 1.242408e-01 1.368799e-02 2.410788e-02 6.216275e-02 1.296569e-01 5.005130e-02 4.931570e-02 5.270266e-02 4.733174e-02 4.801130e-02 1.443310e-02
<VARIANCE> 39
 5.500302e+00 5.765310e+00 7.817984e+00 1.481995e+01 1.412524e+01 1.330812e+01 2.124157e+01 1.981908e+01 1.886310e+01 1.923697e+01 1.710951e+01 1.662987e+01 1.531195e+01 1.797991e-01 1.715421e-01 3.206365e-01 3.996612e-01 4.717528e-01 7.067671e-01 7.666858e-01 8.177453e-01 7.863095e-01 7.142516e-01 6.511098e-01 6.000312e-01 9.737542e-02 3.225321e-02 2.570244e-02 5.999812e-02 7.784104e-02 8.962046e-02 1.175354e-01 1.873189e-01 1.693309e-01 1.706444e-01 1.353239e-01 1.180734e-01 1.459653e-01 2.981956e-02
<GCONST> 6.268660e+01
<MIXTURE> 2 5.804945e-02
<MEAN> 39
 -5.183854e+00 -2.562839e-02 -1.410223e-01 -7.534544e-01 -3.555633e+00 2.576041e+00 3.613142e+00 -5.712619e-01 2.614806e+00 3.761446e+00 1.751865e+00 -1.798338e+00 3.926991e+00 1.510946e-01 4.447972e-01 -1.394747e-01 2.041598e-01 4.991404e-01 3.381393e-01 1.812319e-01 1.777169e-01 1.867584e-01 1.281791e-01 9.953985e-02 5.687192e-02 2.884295e-01 4.283765e-01 1.330293e-01 1.774727e-01 1.747714e-01 2.926262e-01 -4.449630e-02 -4.208872e-02 1.904176e-01 5.778030e-03 -6.048395e-02 4.119672e-02 2.127034e-01 -1.354434e-01
<VARIANCE> 39
 9.360306e+00 1.095020e+01 1.450099e+01 2.061766e+01 2.153723e+01 1.720318e+01 2.131325e+01 2.177940e+01 2.522993e+01 2.241540e+01 2.239078e+01 2.398944e+01 2.282985e+01 1.457228e+00 6.391271e-01 1.028035e+00 9.441370e-01 9.957404e-01 1.037707e+00 1.102243e+00 1.313718e+00 1.266159e+00 1.155954e+00 7.896128e-01 9.287332e-01 1.625465e+00 8.512574e-02 1.163012e-01 1.317445e-01 1.450029e-01 2.006847e-01 1.686022e-01 1.998491e-01 2.012613e-01 2.223513e-01 2.023180e-01 1.602654e-01 1.818919e-01 2.986557e-01
<GCONST> 8.765541e+01
<MIXTURE> 3 1.216641e-01
<MEAN> 39
 3.003077e-01 6.790855e-01 5.557758e-01 3.876573e-01 4.737443e-02 8.587605e-02 2.519027e-01 4.199483e-01 5.589325e-01 3.560321e-01 2.437778e-01 2.903000e-01 1.732740e-01 1.531001e-01 1.613873e-01 3.224735e-02 -1.929632e-01 -3.674526e-01 -4.951462e-01 -4.900359e-01 -2.959717e-01 -1.352059e-01 -1.441477e-02 1.126928e-01 1.164673e-01 2.918845e-02 -3.831549e-03 -9.287611e-03 3.623497e-02 1.150908e-01 1.901090e-01 2.066139e-01 1.953775e-01 1.863512e-01 1.766606e-01 1.860258e-01 1.763815e-01 1.598514e-01 7.892770e-03
<VARIANCE> 39
 1.510843e+00 2.792827e+00 4.674420e+00 6.357007e+00 8.995069e+00 1.059815e+01 1.140303e+01 1.352159e+01 1.501298e+01 1.477205e+01 1.477352e+01 1.256996e+01 3.516366e-01 6.884173e-02 1.199713e-01 2.074526e-01 3.077920e-01 3.730014e-01 4.189057e-01 5.231189e-01 6.034657e-01 6.597477e-01 6.473573e-01 6.343102e-01 6.045585e-01 1.577125e-02 1.421924e-02 2.504716e-02 4.060483e-02 5.558186e-02 7.080892e-02 7.139497e-02 8.668667e-02 1.083517e-01 1.189061e-01 1.303381e-01 1.181940e-01 1.091303e-01 2.836079e-03
<GCONST> 4.079695e+01
<MIXTURE> 4 4.887946e-02
<MEAN> 39
 -3.709032e+00 -1.544632e+00 2.551549e+00 -5.931893e+00 -8.134868e-01 3.521655e+00 5.067211e-01 -1.360632e+00 6.012120e+00 -7.097037e-01 -1.256894e+00 5.246048e-01 2.587900e+00 -2.143363e-01 -6.758299e-02 -3.072983e-01 -5.696782e-01 7.268722e-01 -3.275594e-01 -2.318364e-01 1.644441e-02 7.025710e-01 -7.362767e-01 2.068950e-01 2.721488e-02 -6.741179e-01 3.082089e-01 1.866251e-01 -6.258064e-02 5.794456e-01 1.328039e-01 -1.576987e-01 1.418613e-01 3.052486e-01 -1.942819e-01 2.609076e-01 2.959870e-01 1.393611e-01 -2.553258e-01
<VARIANCE> 39
 6.627242e+00 8.342158e+00 1.024091e+01 1.838709e+01 1.859633e+01 2.167239e+01 1.806371e+01 2.175604e+01 2.343136e+01 2.206882e+01 1.649768e+01 1.681787e+01 1.719665e+01 5.490355e-01 5.961547e-01 6.721476e-01 1.411952e+00 9.986589e-01 1.344515e+00 9.712378e-01 1.149138e+00 1.224478e+00 1.061328e+00 9.213745e-01 7.490737e-01 9.446875e-01 6.282072e-02 8.927348e-02 1.046269e-01 1.634584e-01 1.757228e-01 2.190878e-01 1.797139e-01 2.085581e-01 2.093872e-01 2.011468e-01 1.229577e-01 1.399778e-01 4.107094e-01
<GCONST> 8.277642e+01
<MIXTURE> 5 7.874810e-02
<MEAN> 39
 5.694248e-01 6.657373e-01 2.565457e-01 -1.168061e-01 -7.911597e-01 -8.970389e-01 -5.679268e-01 -2.695321e-01 -3.256321e-03 -5.589640e-02 -2.669796e-01 -4.343407e-01 7.742362e-02 1.756529e-01 5.821690e-03 -1.485912e-01 -4.035643e-01 -4.385483e-01 -6.108975e-01 -4.902330e-01 -4.029980e-01 -3.180102e-01 -2.704220e-01 -1.100316e-01 -2.950042e-02 -3.603396e-02 -2.542097e-02 -1.543125e-02 2.717682e-02 1.134973e-01 2.036369e-01 2.463020e-01 2.159978e-01 1.675447e-01 1.548688e-01 1.489767e-01 1.553808e-01 1.840269e-01 1.376329e-02
<VARIANCE> 39
 1.967510e+00 3.117660e+00 5.271897e+00 7.932388e+00 9.986429e+00 1.087173e+01 1.210223e+01 1.382716e+01 1.545072e+01 1.731411e+01 1.526705e+01 1.268522e+01 4.771988e-01 1.199617e-01 1.293866e-01 2.214281e-01 4.219069e-01 3.746927e-01 4.576809e-01 5.095994e-01 5.905005e-01 6.711552e-01 6.789635e-01 6.563641e-01 6.019197e-01 4.515285e-02 1.746710e-02 2.630358e-02 4.151753e-02 6.598209e-02 7.299016e-02 8.165503e-02 9.503578e-02 1.070375e-01 1.289128e-01 1.343816e-01 1.230390e-01 1.086304e-01 4.056203e-03
<GCONST> 4.566016e+01
<MIXTURE> 6 7.312075e-02
<MEAN> 39
 -5.305321e+00 -6.389410e-01 -3.568763e-02 -2.719385e+00 -4.882097e+00 2.296079e+00 3.727158e+00 -1.432558e+00 2.703999e+00 3.648512e+00 1.597830e+00 -2.387540e+00 2.116539e+00 6.976683e-02 3.433341e-01 -1.127688e-01 -1.455962e-01 2.496680e-01 1.567608e-01 4.548782e-02 -2.418361e-01 3.245218e-02 9.382281e-02 -1.119029e-01 -3.147642e-01 -1.614623e-01 4.426520e-01 1.361584e-01 1.444880e-01 2.703949e-01 3.332868e-01 -9.309393e-02 -1.112474e-01 1.632622e-01 -5.341995e-02 -8.402122e-02 1.416814e-02 2.105171e-01 -9.781801e-02
<VARIANCE> 39
 8.076568e+00 1.226169e+01 1.554773e+01 1.772292e+01 2.114971e+01 1.906752e+01 2.490737e+01 2.220597e+01 2.188729e+01 2.594959e+01 2.304265e+01 2.144540e+01 2.495137e+01 1.501853e+00 6.767654e-01 1.200963e+00 1.088600e+00 1.256360e+00 1.185631e+00 1.191535e+00 1.105520e+00 1.261833e+00 1.351411e+00 1.028641e+00 9.089944e-01 1.017840e+00 9.134451e-02 1.251020e-01 1.388254e-01 1.364673e-01 1.882492e-01 1.654267e-01 2.000110e-01 1.994463e-01 1.879407e-01 1.837399e-01 1.731688e-01 1.683349e-01 2.354719e-01
<GCONST> 8.793487e+01
<MIXTURE> 7 5.613785e-02
<MEAN> 39
 -4.774384e+00 3.469139e-01 -2.064272e+00 -2.965441e-01 -1.354424e+00 1.467693e+00 1.410324e+00 3.939633e-01 2.969024e+00 1.973146e+00 7.924160e-01 -7.769671e-01 3.348687e+00 1.990145e-01 1.374299e-01 -1.526730e-01 1.757060e-01 1.260503e-01 -1.281784e-01 1.404326e-02 1.313661e-01 -2.129659e-02 9.050272e-02 9.346782e-02 9.068290e-02 -1.031390e-01 1.067249e-01 8.520842e-03 1.561612e-01 1.723693e-02 -1.920975e-02 7.306471e-02 1.379655e-01 -1.006182e-02 -2.160688e-02 8.724608e-02 6.559567e-02 7.732954e-03 4.741772e-02
<VARIANCE> 39
 6.337965e+00 9.763634e+00 1.029480e+01 1.532761e+01 1.955787e+01 1.512323e+01 1.942200e+01 1.750501e+01 2.180785e+01 2.133124e+01 1.997341e+01 1.685455e+01 2.262818e+01 1.525399e-01 1.888501e-01 3.030267e-01 4.130909e-01 5.511085e-01 5.799783e-01 7.464895e-01 7.180063e-01 9.704377e-01 7.339634e-01 6.884887e-01 7.203520e-01 1.129942e-01 3.318141e-02 4.033492e-02 5.565294e-02 7.317737e-02 1.263541e-01 1.235228e-01 1.308431e-01 1.414948e-01 1.414355e-01 1.332069e-01 1.359266e-01 1.065241e-01 3.759625e-02
<GCONST> 6.509583e+01
<MIXTURE> 8 3.355404e-02
<MEAN> 39
 -3.520283e+00 -1.552684e+00 3.710081e+00 -5.829656e+00 -2.059796e+00 3.259873e+00 1.610230e+00 -2.040189e+00 4.672755e+00 1.712822e-01 -7.802202e-01 -6.383826e-01 2.446232e+00 -4.284486e-01 -3.217524e-01 -1.928357e-01 -1.270299e+00 4.559711e-01 -3.892548e-01 -3.990439e-01 -5.160260e-01 7.400939e-01 -1.055125e+00 -5.287030e-02 -2.347171e-01 -7.603955e-01 2.854566e-01 2.038009e-01 -1.950543e-01 4.471169e-01 2.088537e-01 -2.318706e-01 -2.137198e-02 2.929552e-01 -1.132528e-01 1.012055e-01 2.549883e-01 1.841679e-01 -6.286294e-01
<VARIANCE> 39
 6.218495e+00 8.669105e+00 1.193235e+01 1.641483e+01 1.833866e+01 2.091492e+01 1.766807e+01 2.172714e+01 2.334834e+01 2.399436e+01 1.893415e+01 1.793431e+01 1.549064e+01 4.018575e-01 4.829413e-01 7.783671e-01 1.122206e+00 1.062390e+00 1.339715e+00 1.222496e+00 1.221539e+00 9.902542e-01 1.320065e+00 8.598796e-01 9.019208e-01 8.680181e-01 5.326889e-02 8.671839e-02 1.172412e-01 1.525746e-01 1.496141e-01 2.002459e-01 1.629548e-01 1.981868e-01 1.837290e-01 2.238245e-01 1.517852e-01 1.420905e-01 4.117999e-01
<GCONST> 8.233253e+01
<MIXTURE> 9 1.216641e-01
<MEAN> 39
 -1.913577e-01 1.061532e-02 -3.090405e-01 -6.208670e-01 -1.152297e+00 -1.216316e+00 -1.098832e+00 -1.050920e+00 -9.909311e-01 -1.181345e+00 -1.293676e+00 -1.127866e+00 -6.392183e-02 4.814928e-02 2.283981e-02 -1.499405e-01 -4.148792e-01 -6.117480e-01 -7.540379e-01 -7.793437e-01 -6.067039e-01 -4.601053e-01 -3.362488e-01 -2.058816e-01 -1.945462e-01 -2.104500e-02 -5.152933e-02 -7.259279e-02 -4.436760e-02 2.078760e-02 8.366921e-02 9.973453e-02 7.760710e-02 5.468395e-02 3.872957e-02 4.161636e-02 3.886409e-02 2.771186e-02 -1.340917e-02
<VARIANCE> 39
 1.510843e+00 2.792827e+00 4.674420e+00 6.357007e+00 8.995069e+00 1.059815e+01 1.140303e+01 1.352159e+01 1.501298e+01 1.477205e+01 1.477352e+01 1.256996e+01 3.516366e-01 6.884173e-02 1.199713e-01 2.074526e-01 3.077920e-01 3.730014e-01 4.189057e-01 5.231189e-01 6.034657e-01 6.597477e-01 6.473573e-01 6.343102e-01 6.045585e-01 1.577125e-02 1.421924e-02 2.504716e-02 4.060483e-02 5.558186e-02 7.080892e-02 7.139497e-02 8.668667e-02 1.083517e-01 1.189061e-01 1.303381e-01 1.181940e-01 1.091303e-01 2.836079e-03
<GCONST> 4.079695e+01
<MIXTURE> 10 7.874810e-02
<MEAN> 39
