~o
<STREAMINFO> 1 39
<VECSIZE> 39<NULLD><MFCC_D_A_Z_0><DIAGC>
~v "varFloor1"
<VARIANCE> 39
 5.653673e-02 4.886588e-02 6.880558e-02 1.097444e-01 1.173968e-01 1.501360e-01 1.524483e-01 1.769248e-01 1.673871e-01 1.699316e-01 1.501835e-01 1.395998e-01 3.516366e-01 1.948883e-03 2.195148e-03 3.084339e-03 4.548327e-03 5.169705e-03 6.475277e-03 6.752422e-03 7.581503e-03 7.468139e-03 7.484302e-03 6.703977e-03 6.097627e-03 6.117719e-03 3.081363e-04 3.835776e-04 5.522510e-04 7.938185e-04 9.348416e-04 1.158605e-03 1.234846e-03 1.362727e-03 1.366371e-03 1.361924e-03 1.233620e-03 1.112660e-03 7.270522e-04
~s "silst"
<NUMMIXES> 4
<MIXTURE> 1 2.242196e-01
<MEAN> 39
 2.448958e-01 -3.163047e-01 -4.998360e-01 -8.705665e-01 -5.863781e-01 -2.641793e-01 1.527539e-01 3.359183e-01 3.689852e-01 5.055057e-01 3.441341e-01 3.379088e-01 -2.161233e-01 -5.883797e-02 1.259981e-01 2.200938e-01 4.440363e-01 2.966078e-01 3.498716e-01 2.227569e-01 2.377369e-01 2.035687e-01 2.106662e-01 1.682995e-01 1.347278e-01 9.441503e-02 1.220936e-02 3.477729e-02 5.681073e-02 7.622704e-02 6.265697e-02 3.426001e-02 4.924387e-03 -6.973006e-03 -2.129982e-02 -2.351730e-02 -9.145855e-03 -2.432769e-02 1.227308e-02
<VARIANCE> 39
 2.853314e+00 3.286812e+00 5.434007e+00 1.046630e+01 1.068607e+01 1.364277e+01 1.497627e+01 1.614989e+01 1.675775e+01 1.618991e+01 1.529100e+01 1.302447e+01 6.584296e-01 1.417364e-01 1.639785e-01 2.456224e-01 4.702318e-01 4.815760e-01 6.233858e-01 6.499567e-01 7.357624e-01 7.266904e-01 7.304569e-01 6.634327e-01 5.768461e-01 3.303254e-02 2.355976e-02 2.904297e-02 4.902540e-02 9.473715e-02 9.371224e-02 1.197261e-01 1.270784e-01 1.395301e-01 1.413776e-01 1.352172e-01 1.285138e-01 1.064257e-01 5.381248e-03
<GCONST> 5.138523e+01
<MIXTURE> 2 2.998433e-01
<MEAN> 39
 6.509551e-01 1.947470e-01 2.663108e-01 -1.146501e-01 -4.572004e-03 -6.921779e-02 -5.225806e-02 -1.126495e-02 -1.008940e-01 -8.938211e-02 -1.500406e-01 -2.767713e-01 -7.166218e-02 9.859784e-02 -2.703165e-02 -1.260879e-01 -3.142139e-01 -2.162835e-01 -2.083039e-01 -5.933450e-02 -1.361872e-02 2.477136e-02 3.944955e-02 6.390964e-02 1.916814e-02 -6.044169e-02 -2.847704e-02 -1.985843e-02 -2.302489e-02 -3.780741e-03 -1.213986e-03 1.906808e-02 3.159662e-02 3.396953e-02 3.696236e-02 3.994852e-02 4.355118e-02 4.783473e-02 -2.499721e-03
<VARIANCE> 39
 2.656334e+00 3.333072e+00 5.250731e+00 1.099327e+01 1.131848e+01 1.380021e+01 1.403353e+01 1.525309e+01 1.520196e+01 1.494590e+01 1.404193e+01 1.264816e+01 6.773432e-01 1.356942e-01 1.593210e-01 2.471156e-01 4.045016e-01 4.685685e-01 5.534015e-01 6.361436e-01 7.123009e-01 7.281861e-01 6.855924e-01 6.497917e-01 5.696952e-01 2.882149e-02 2.306963e-02 3.029975e-02 4.916222e-02 1.012156e-01 1.004919e-01 1.207440e-01 1.206968e-01 1.314680e-01 1.317298e-01 1.307107e-01 1.195869e-01 1.045422e-01 5.771106e-03
<GCONST> 5.031059e+01
<MIXTURE> 3 3.039739e-01
<MEAN> 39
 4.025833e-01 -6.301030e-01 -8.870376e-01 -1.616496e+00 -1.045236e+00 -8.875092e-01 -2.279290e-01 -2.084364e-01 -1.329821e-01 8.082952e-02 1.176476e-01 3.496386e-02 -4.057121e-01 -6.569175e-02 1.855916e-03 2.689338e-02 1.260431e-01 5.476076e-02 6.120817e-02 -1.050443e-02 -2.908478e-02 -6.124773e-02 -5.559780e-02 -6.492254e-02 -3.691556e-02 2.189951e-02 1.326724e-02 2.748128e-02 4.862722e-02 4.858434e-02 3.757630e-02 4.659830e-03 -2.435478e-02 -3.587122e-02 -3.988422e-02 -5.856780e-02 -4.663484e-02 -4.166812e-02 6.311154e-03
<VARIANCE> 39
 3.390477e+00 3.687709e+00 5.722148e+00 1.182395e+01 1.091419e+01 1.442888e+01 1.489937e+01 1.705533e+01 1.687570e+01 1.649860e+01 1.503525e+01 1.302330e+01 8.566206e-01 1.204113e-01 1.527950e-01 2.451727e-01 4.108323e-01 4.614186e-01 5.775542e-01 6.275618e-01 7.146884e-01 7.243751e-01 6.999648e-01 6.620770e-01 5.624045e-01 2.557107e-02 2.551408e-02 3.154701e-02 5.125779e-02 9.978192e-02 9.697918e-02 1.224797e-01 1.243993e-01 1.436258e-01 1.421100e-01 1.366340e-01 1.257221e-01 1.068614e-01 5.985222e-03
<GCONST> 5.178951e+01
<MIXTURE> 4 1.719010e-01
<MEAN> 39
 9.489451e-01 -2.049435e-01 -1.969792e-01 -1.616946e+00 -5.478045e-01 -1.109179e+00 -5.325571e-01 -4.759652e-01 -3.688128e-01 -5.021070e-01 -2.812582e-01 -7.179675e-01 -5.302995e-01 1.221555e-01 -1.767772e-01 -2.361236e-01 -6.768540e-01 -3.561371e-01 -5.661210e-01 -2.884716e-01 -3.332752e-01 -2.216578e-01 -2.815232e-01 -1.655081e-01 -2.146825e-01 -1.728055e-01 -2.156691e-02 -2.183091e-02 -2.942875e-02 -1.825238e-02 -1.881129e-02 -8.884024e-03 1.573061e-03 -1.548901e-02 -8.851420e-03 -6.431894e-03 -1.146832e-02 1.036773e-02 -3.737830e-03
<VARIANCE> 39
 2.808508e+00 4.389071e+00 5.810146e+00 1.689592e+01 1.218133e+01 1.719874e+01 1.455387e+01 1.669903e+01 1.624374e+01 1.627429e+01 1.472804e+01 1.396820e+01 1.316481e+00 1.345751e-01 1.801565e-01 2.713437e-01 5.009356e-01 5.343722e-01 6.241496e-01 6.650403e-01 7.425708e-01 7.442046e-01 7.305552e-01 6.586015e-01 6.302873e-01 4.428377e-02 2.007396e-02 3.370284e-02 4.895910e-02 1.157703e-01 9.931654e-02 1.301249e-01 1.227868e-01 1.363982e-01 1.337623e-01 1.376237e-01 1.182028e-01 1.098969e-01 7.396201e-03
<GCONST> 5.451301e+01
~h "f"
<BEGINHMM>
<NUMSTATES> 5
<STATE> 2
<NUMMIXES> 4
<MIXTURE> 1 3.264899e-01
<MEAN> 39
 2.259596e-01 2.640008e-01 -1.159663e-01 -7.796679e-01 -1.233284e+00 -1.332362e+00 -1.234563e+00 -1.257041e+00 -1.243524e+00 -8.692251e-01 -4.961362e-01 -2.179671e-01 8.868799e-02 2.263628e-02 6.852167e-02 9.935601e-02 2.212406e-01 2.534699e-01 2.382387e-01 1.713912e-01 1.456056e-01 1.274612e-01 1.745365e-01 1.534934e-01 9.364018e-02 3.650088e-02 -3.715506e-02 -2.454703e-02 2.822461e-02 1.332693e-01 2.109314e-01 2.383298e-01 2.143713e-01 2.213763e-01 2.038989e-01 1.463313e-01 8.660131e-02 5.061587e-02 -1.344140e-03
<VARIANCE> 39
 1.442202e+00 2.588823e+00 4.681645e+00 7.558610e+00 9.071928e+00 1.101227e+01 1.253763e+01 1.406292e+01 1.467423e+01 1.386584e+01 1.382298e+01 1.241014e+01 1.264498e+00 6.994648e-02 1.230783e-01 2.124491e-01 3.287178e-01 3.739361e-01 4.459682e-01 4.892937e-01 5.765945e-01 6.373017e-01 6.202826e-01 6.097366e-01 5.495960e-01 1.557753e-02 1.418088e-02 2.611396e-02 4.747413e-02 6.520005e-02 7.795279e-02 9.679981e-02 1.046211e-01 1.190835e-01 1.293501e-01 1.301581e-01 1.151464e-01 1.106017e-01 3.382459e-03
<GCONST> 4.328809e+01
<MIXTURE> 2 2.674754e-01
<MEAN> 39
 -8.775063e-01 -1.071949e+00 -2.905316e-01 -3.023656e+00 -1.608331e+00 -3.413823e+00 2.106287e-01 -1.014354e+00 7.019535e-01 -1.303145e+00 6.518888e-01 -7.254839e-01 -9.813671e+00 -1.143911e-01 -8.523370e-02 2.574274e-02 8.752666e-03 7.487102e-02 -2.026257e-02 1.624563e-01 1.249197e-01 6.309371e-02 1.159288e-01 1.727923e-01 8.466642e-02 1.784530e-01 1.139640e-01 5.021905e-02 8.946240e-02 1.550882e-01 1.026565e-01 1.230421e-01 -9.940067e-03 -1.090314e-03 -4.804011e-02 3.101670e-02 -3.276288e-02 -1.160134e-03 3.183516e-01
<VARIANCE> 39
 1.223016e+01 1.025056e+01 8.349905e+00 1.305134e+01 1.160176e+01 1.677343e+01 1.449883e+01 1.777472e+01 1.561709e+01 1.613940e+01 1.377128e+01 1.254202e+01 9.221159e+01 4.562138e-01 4.327714e-01 4.653239e-01 5.629943e-01 5.715708e-01 6.671425e-01 6.637709e-01 8.999829e-01 8.264751e-01 7.670519e-01 6.407198e-01 6.143990e-01 9.619826e-01 8.972386e-02 9.096318e-02 7.873606e-02 1.386587e-01 1.087512e-01 1.501961e-01 1.258446e-01 1.690065e-01 1.478551e-01 1.390726e-01 1.198375e-01 1.147019e-01 2.149623e-01
<GCONST> 7.436044e+01
<MIXTURE> 3 2.008209e-01
<MEAN> 39
 1.739056e-01 2.843171e-02 -4.424658e-01 -1.472429e+00 -1.652721e+00 -2.364844e+00 -1.745209e+00 -1.632359e+00 -1.467840e+00 -1.524679e+00 -8.477895e-01 -6.454925e-01 -1.088321e+00 -5.506738e-02 -6.996915e-02 -6.564766e-02 3.188660e-02 7.080944e-02 9.767471e-02 1.398315e-02 -1.681259e-02 -8.622430e-02 -1.177144e-01 -1.010707e-01 -5.128885e-02 1.336749e-02 -3.776344e-02 -2.552960e-02 2.895871e-02 1.079889e-01 1.723895e-01 2.209433e-01 1.963195e-01 1.730301e-01 1.440359e-01 1.109626e-01 6.313957e-02 3.513668e-02 5.094953e-03
<VARIANCE> 39
 2.306785e+00 3.039950e+00 5.138954e+00 9.376578e+00 9.422556e+00 1.194313e+01 1.255362e+01 1.430504e+01 1.509852e+01 1.518720e+01 1.259991e+01 1.318180e+01 3.109818e+01 8.179375e-02 1.198286e-01 2.163724e-01 3.270655e-01 3.936327e-01 4.484388e-01 5.161511e-01 5.668371e-01 5.970173e-01 6.218933e-01 5.903654e-01 5.422603e-01 2.379569e-02 1.820349e-02 2.806285e-02 5.035388e-02 6.977840e-02 8.136583e-02 1.006140e-01 1.066078e-01 1.178859e-01 1.262959e-01 1.274547e-01 1.108535e-01 1.088378e-01 8.903611e-03
<GCONST> 4.961323e+01
<MIXTURE> 4 2.052409e-01
<MEAN> 39
 -9.382305e-01 -1.486270e+00 4.145705e-01 -3.173578e+00 -1.479460e+00 -3.802770e+00 -1.699920e-01 -1.731083e+00 4.849512e-01 -1.536277e+00 7.107376e-01 -1.358047e+00 -7.702533e+00 -3.609195e-01 -3.900821e-01 -5.366967e-02 -4.824297e-01 -2.330763e-01 -5.652093e-01 -1.250549e-01 -3.819589e-01 -6.558450e-02 -3.052679e-01 -6.498307e-03 -1.990950e-01 -1.022292e-01 4.292290e-02 2.867487e-02 -1.214758e-02 1.111404e-01 5.047213e-02 1.119602e-01 1.198350e-02 3.392059e-02 -5.865742e-02 -5.240785e-04 -5.777633e-02 2.473745e-02 2.135878e-01
<VARIANCE> 39
 1.163761e+01 1.039361e+01 9.923953e+00 1.333288e+01 1.140738e+01 1.642520e+01 1.534595e+01 1.749125e+01 1.657079e+01 1.601319e+01 1.456949e+01 1.462439e+01 8.203891e+01 5.780974e-01 4.737482e-01 5.096776e-01 6.849702e-01 5.925639e-01 7.618180e-01 6.550502e-01 7.781002e-01 7.632343e-01 6.793678e-01 6.676075e-01 6.133853e-01 1.626492e+00 8.540864e-02 7.675991e-02 8.784287e-02 1.211579e-01 9.617266e-02 1.473656e-01 1.228105e-01 1.579486e-01 1.347379e-01 1.282318e-01 1.259807e-01 1.214263e-01 1.835937e-01
<GCONST> 7.495068e+01
<STATE> 3
<NUMMIXES> 4
<MIXTURE> 1 2.477660e-01
<MEAN> 39
 -7.644555e-02 -7.291756e-01 1.978251e-01 -1.164192e-01 1.222395e-01 -1.138734e+00 1.900905e-01 -8.314931e-02 3.714247e-02 -1.349628e-01 3.800598e-01 -1.000282e-01 2.280374e+00 9.265371e-02 3.715051e-01 -1.233683e-01 9.127125e-01 4.851351e-01 1.134284e+00 2.309211e-01 7.862925e-01 1.355058e-01 6.857614e-01 4.589582e-02 5.220809e-01 1.560984e+00 -1.556589e-01 -2.085680e-03 -9.942044e-03 -2.321268e-02 -1.158925e-03 5.690264e-02 4.888384e-02 4.855245e-02 7.163139e-02 3.402368e-02 3.593297e-02 2.441718e-02 -8.714187e-02
<VARIANCE> 39
 7.612834e+00 8.414957e+00 7.672547e+00 1.596106e+01 1.363040e+01 2.018451e+01 1.680267e+01 1.961996e+01 1.690781e+01 1.827133e+01 1.490526e+01 1.390782e+01 2.782481e+01 5.337473e-01 3.922406e-01 3.747197e-01 6.689324e-01 5.345389e-01 7.662618e-01 7.457333e-01 7.738493e-01 7.752374e-01 7.635897e-01 6.704634e-01 6.224201e-01 2.219269e+00 7.347644e-02 6.000260e-02 6.326266e-02 1.152029e-01 1.082068e-01 1.536574e-01 1.307931e-01 1.570797e-01 1.408027e-01 1.542069e-01 1.232612e-01 1.164187e-01 1.668296e-01
<GCONST> 7.327039e+01
<MIXTURE> 2 2.586455e-01
<MEAN> 39
 -1.480851e+00 -1.943740e+00 7.803174e-01 -3.063761e+00 -1.408839e+00 -4.117005e+00 2.508082e-01 -2.207028e+00 4.524889e-01 -1.927834e+00 7.545570e-01 -1.590069e+00 -6.527812e+00 7.748517e-02 4.037480e-02 -3.579923e-02 3.336321e-01 1.576104e-01 2.701817e-01 9.222049e-02 2.828422e-01 3.666826e-03 2.013228e-01 3.708617e-02 1.400076e-01 9.758437e-01 1.061126e-01 1.305983e-01 -2.154630e-02 1.979505e-01 8.946013e-02 2.359066e-01 -3.957557e-03 1.522921e-01 -3.434273e-02 1.204574e-01 -3.549267e-02 1.122504e-01 3.742209e-01
<VARIANCE> 39
 2.074339e+01 1.647608e+01 1.305913e+01 1.751418e+01 1.736585e+01 2.204573e+01 2.202022e+01 2.330329e+01 2.156656e+01 1.977538e+01 1.864768e+01 1.594432e+01 5.772265e+01 1.018806e+00 7.938896e-01 7.946069e-01 9.097301e-01 8.151332e-01 1.059952e+00 9.936718e-01 1.144648e+00 1.025277e+00 9.485924e-01 9.354923e-01 7.427778e-01 3.597550e+00 1.816334e-01 1.410143e-01 1.316675e-01 1.783573e-01 1.530176e-01 2.049075e-01 1.905084e-01 2.155000e-01 1.903026e-01 1.777880e-01 1.667539e-01 1.451967e-01 4.419902e-01
<GCONST> 8.927734e+01
<MIXTURE> 3 3.148190e-01
<MEAN> 39
 -5.252798e-01 -3.710514e-01 -2.572900e-01 -2.227672e-01 -3.647970e-01 -6.743682e-01 -3.775007e-01 -2.141590e-01 -3.420335e-01 -3.101956e-01 -6.283247e-02 5.150893e-02 1.581687e+00 -1.432860e-01 8.688392e-02 -1.007895e-01 3.788833e-01 2.489633e-01 5.150799e-01 1.134222e-01 3.103608e-01 5.059787e-02 2.061036e-01 -4.250333e-02 1.660387e-01 8.024593e-01 -5.386103e-02 -4.974682e-02 1.941108e-02 -6.433120e-02 3.964582e-03 -3.871513e-02 5.334892e-02 -1.283893e-02 5.656601e-02 -2.276732e-02 1.972434e-02 -4.947253e-02 -1.665591e-01
<VARIANCE> 39
 5.660986e+00 5.766490e+00 6.403023e+00 1.166386e+01 1.117688e+01 1.698472e+01 1.470406e+01 1.857853e+01 1.599442e+01 1.753854e+01 1.427041e+01 1.375129e+01 4.832565e+01 4.100982e-01 2.871462e-01 3.794754e-01 5.059006e-01 5.126357e-01 6.527280e-01 6.766213e-01 7.161401e-01 7.444131e-01 7.103198e-01 6.334227e-01 6.027811e-01 1.587337e+00 5.704478e-02 4.916598e-02 5.682483e-02 1.012248e-01 9.530384e-02 1.496468e-01 1.194119e-01 1.551821e-01 1.364927e-01 1.499711e-01 1.196308e-01 1.105481e-01 1.975397e-01
<GCONST> 6.927016e+01
<MIXTURE> 4 1.787620e-01
<MEAN> 39
 4.440495e-01 -5.338812e-01 1.417836e+00 -2.144802e+00 -1.021673e+00 -2.860260e+00 4.271600e-02 -2.036764e+00 -4.792452e-01 -1.796598e+00 3.447814e-02 -1.456881e+00 -6.317148e+00 -2.235553e-01 -2.964703e-01 9.375253e-02 -4.632437e-01 -2.301108e-01 -5.638883e-01 -1.245065e-01 -4.570650e-01 -6.511510e-02 -3.214521e-01 4.211877e-03 -3.055563e-01 1.277101e-01 -6.220514e-02 -3.086397e-02 -1.006619e-01 2.917302e-02 -1.740642e-02 2.084403e-02 -1.996734e-02 5.145508e-02 3.212627e-02 3.007257e-02 3.596023e-03 3.771882e-02 7.457325e-02
<VARIANCE> 39
 1.965066e+01 1.813296e+01 1.886697e+01 2.189498e+01 2.048342e+01 2.520012e+01 2.283053e+01 2.456471e+01 2.302571e+01 2.207548e+01 1.947002e+01 1.775515e+01 7.132385e+01 1.038984e+00 8.705595e-01 9.148474e-01 1.043855e+00 9.152086e-01 1.123166e+00 1.058158e+00 1.132138e+00 1.024323e+00 9.691215e-01 8.779482e-01 7.862339e-01 4.226903e+00 1.756019e-01 1.581660e-01 1.766115e-01 1.962209e-01 1.695623e-01 2.140200e-01 1.962456e-01 2.264824e-01 1.907248e-01 1.877592e-01 1.689130e-01 1.519667e-01 4.096900e-01
<GCONST> 9.236166e+01
<STATE> 4
<NUMMIXES> 4
<MIXTURE> 1 2.266017e-01
<MEAN> 39
 -2.306474e-02 1.351663e-01 3.085466e-01 7.621329e-01 8.610179e-01 7.500280e-01 5.047960e-01 6.077729e-01 3.964736e-01 5.428324e-01 6.062377e-01 4.136216e-01 1.041487e-01 -5.356644e-02 4.200727e-02 2.029052e-01 4.377428e-01 5.990439e-01 7.018158e-01 6.110772e-01 5.718214e-01 5.939063e-01 4.690388e-01 3.112993e-01 1.848103e-01 2.472443e-02 -2.409165e-03 2.963385e-03 -3.348384e-04 -3.886187e-02 -6.127465e-02 -4.972921e-02 -1.126265e-02 -1.202928e-02 9.295426e-03 -6.787872e-03 -1.284841e-02 -1.136004e-02 -6.823311e-03
<VARIANCE> 39
 1.142592e+00 2.449706e+00 4.358967e+00 6.803138e+00 7.958445e+00 9.776978e+00 1.189708e+01 1.371721e+01 1.368702e+01 1.420249e+01 1.452362e+01 1.316316e+01 3.516366e-01 7.611387e-02 1.217084e-01 2.188642e-01 3.416657e-01 4.094530e-01 4.811653e-01 5.317588e-01 6.161092e-01 6.849291e-01 6.697102e-01 5.939494e-01 5.331466e-01 1.624572e-02 1.134642e-02 2.202820e-02 3.942525e-02 5.795567e-02 6.645857e-02 7.680221e-02 9.829878e-02 1.087055e-01 1.130802e-01 1.169180e-01 1.179039e-01 1.044317e-01 2.429837e-03
<GCONST> 4.002353e+01
<MIXTURE> 2 1.889652e-01
<MEAN> 39
 -2.270891e+00 8.113424e-02 -4.989286e-01 2.463449e+00 1.207929e+00 2.388036e+00 8.203822e-01 2.564851e+00 5.271623e-01 1.610514e+00 3.577791e-01 1.584872e+00 8.942889e+00 -4.381658e-01 8.920643e-03 -7.399152e-02 2.545687e-01 1.762980e-01 3.471016e-01 1.806206e-01 3.456896e-01 2.325301e-01 2.674663e-01 1.634259e-01 1.613342e-01 3.818470e-01 8.680069e-02 -6.794353e-02 4.633602e-02 -1.823920e-01 -5.993406e-02 -2.286451e-01 5.177854e-03 -1.369286e-01 1.029175e-02 -7.702798e-02 3.023285e-02 -9.850802e-02 -3.675791e-01
<VARIANCE> 39
 2.229173e+00 3.073292e+00 4.817665e+00 8.376463e+00 9.937416e+00 1.243056e+01 1.463995e+01 1.555260e+01 1.599383e+01 1.603726e+01 1.490489e+01 1.309834e+01 2.044783e+01 1.630276e-01 1.733422e-01 2.631739e-01 4.640121e-01 4.646164e-01 5.976031e-01 6.360133e-01 7.316903e-01 7.430981e-01 7.216088e-01 6.676575e-01 5.747747e-01 1.346654e-01 4.072055e-02 3.729875e-02 5.023308e-02 8.987456e-02 9.732501e-02 1.176397e-01 1.250086e-01 1.361112e-01 1.382501e-01 1.489643e-01 1.295469e-01 1.066484e-01 5.282056e-02
<GCONST> 5.854235e+01
<MIXTURE> 3 4.129252e-01
<MEAN> 39
 1.650119e-01 1.953212e-01 1.424059e-01 3.071840e-01 2.465885e-01 1.930848e-01 -1.740490e-01 -2.528628e-01 -1.897201e-01 -1.204963e-01 -8.687193e-02 -3.513370e-03 1.447132e-01 -1.489841e-01 -1.240460e-01 -2.426052e-02 2.255572e-01 4.197888e-01 4.871349e-01 4.328337e-01 4.203487e-01 3.552137e-01 2.469391e-01 1.038814e-01 4.557136e-02 -1.835650e-02 -2.849969e-02 -2.900049e-02 -2.288005e-02 -4.762765e-02 -4.286886e-02 -4.275989e-02 -4.712714e-03 2.441285e-03 5.389625e-03 -9.966074e-03 -1.194734e-02 -7.982738e-03 -1.591032e-02
<VARIANCE> 39
 1.134434e+00 2.315292e+00 4.472534e+00 6.567939e+00 8.295181e+00 9.781403e+00 1.114278e+01 1.312433e+01 1.323257e+01 1.386430e+01 1.330074e+01 1.281622e+01 3.516366e-01 6.801970e-02 1.135462e-01 2.187235e-01 3.097374e-01 3.711746e-01 4.662034e-01 5.135862e-01 5.786116e-01 6.573148e-01 6.398119e-01 5.944360e-01 5.740913e-01 1.361627e-02 1.090441e-02 2.233732e-02 4.031849e-02 5.659113e-02 6.376433e-02 8.004644e-02 9.052683e-02 1.058381e-01 1.108065e-01 1.116417e-01 1.177252e-01 1.045707e-01 2.365758e-03
<GCONST> 3.878394e+01
<MIXTURE> 4 1.715280e-01
<MEAN> 39
 -2.425888e+00 -3.651533e-01 -1.254741e+00 1.540535e+00 4.663451e-01 1.889617e+00 4.874671e-01 1.997003e+00 -1.435038e-01 1.326619e+00 2.262776e-01 1.486593e+00 9.211892e+00 -5.254889e-01 -9.214690e-02 -2.496281e-01 -4.571164e-02 -1.491934e-01 6.288436e-02 -9.576059e-02 -7.179379e-04 -1.063443e-01 -4.613164e-02 -6.151949e-02 3.681006e-02 4.562744e-01 1.009774e-01 -8.562872e-02 8.741730e-02 -1.674675e-01 -4.071045e-02 -2.723075e-01 -1.512024e-02 -1.840993e-01 2.712710e-03 -1.495127e-01 1.241018e-02 -1.528759e-01 -4.497892e-01
<VARIANCE> 39
 1.892165e+00 3.145110e+00 5.001608e+00 7.883423e+00 9.794321e+00 1.148200e+01 1.363716e+01 1.559763e+01 1.495483e+01 1.426875e+01 1.315149e+01 1.324396e+01 1.240853e+01 1.571027e-01 1.691369e-01 2.689013e-01 4.133731e-01 4.956779e-01 5.916005e-01 6.264748e-01 6.933693e-01 7.699673e-01 7.005910e-01 6.527983e-01 6.482390e-01 1.441319e-01 4.427037e-02 4.041433e-02 5.336253e-02 8.601885e-02 9.572095e-02 1.213283e-01 1.259981e-01 1.344095e-01 1.293956e-01 1.297104e-01 1.136353e-01 1.166101e-01 5.003830e-02
<GCONST> 5.731006e+01
<TRANSP> 5
 0.000000e+00 1.000000e+00 0.000000e+00 0.000000e+00 0.000000e+00
 0.000000e+00 4.275303e-01 5.724697e-01 0.000000e+00 0.000000e+00
 0.000000e+00 0.000000e+00 7.465621e-01 2.534379e-01 0.000000e+00
 0.000000e+00 0.000000e+00 0.000000e+00 3.529348e-01 6.470652e-01
 0.000000e+00 0.000000e+00 0.000000e+00 0.000000e+00 0.000000e+00
<ENDHMM>
~h "k"
<BEGINHMM>
<NUMSTATES> 5
<STATE> 2
<NUMMIXES> 4
<MIXTURE> 1 1.840384e-01
<MEAN> 39
 2.240619e+00 1.922192e+00 1.684560e+00 -7.443557e-01 -1.696054e+00 -1.493359e+00 -5.747367e-01 8.446886e-02 3.513290e-01 3.330498e-01 5.622753e-01 6.867467e-01 -1.200900e+01 -1.044949e+00 -8.765239e-01 -4.880760e-01 4.318612e-01 1.667048e-01 7.618255e-01 8.220277e-01 4.293565e-01 2.930909e-01 4.158968e-01 3.349064e-02 2.796625e-01 1.213431e+00 -2.428455e-01 -1.259654e-01 -2.565782e-02 1.079705e-03 2.811713e-02 1.991484e-01 7.105255e-02 4.258665e-02 5.097220e-02 6.002406e-02 -2.316441e-02 -3.066920e-02 1.317141e+00
<VARIANCE> 39
 1.712749e+01 1.766239e+01 2.023843e+01 1.934900e+01 2.135329e+01 2.678091e+01 2.281262e+01 2.320728e+01 2.208875e+01 2.410316e+01 1.809125e+01 1.636596e+01 9.000728e+01 1.180071e+00 1.070808e+00 1.286644e+00 1.483565e+00 1.560512e+00 1.704628e+00 1.360410e+00 1.314844e+00 1.603364e+00 1.508819e+00 1.175297e+00 8.544751e-01 9.997042e+00 2.213746e-01 2.190268e-01 2.630752e-01 2.537743e-01 2.665958e-01 2.869140e-01 2.528463e-01 2.563781e-01 2.306030e-01 2.539069e-01 1.813224e-01 1.625616e-01 1.081010e+00
<GCONST> 1.007546e+02
<MIXTURE> 2 3.152681e-01
<MEAN> 39
 -7.075965e-01 7.871339e-02 3.160340e-01 1.024269e+00 -6.326133e-02 1.363886e+00 7.417659e-01 1.220094e+00 4.021634e-01 1.076467e+00 4.302651e-01 6.485530e-01 4.599422e+00 1.427211e-01 2.592896e-01 2.926353e-01 -4.374485e-01 -3.857738e-01 -2.656137e-01 -2.973252e-01 -3.064062e-01 9.830945e-02 -8.680843e-02 2.998750e-02 -2.100333e-01 -2.280456e-01 1.008620e-02 2.190492e-02 -6.591763e-03 -1.239275e-01 -6.223782e-02 -1.198072e-01 -5.747242e-02 -8.017375e-02 3.154625e-02 -5.652834e-02 1.797727e-02 -1.580999e-02 -4.830872e-01
<VARIANCE> 39
 9.150535e+00 7.176248e+00 9.796154e+00 1.640369e+01 1.904410e+01 1.917502e+01 2.083987e+01 2.126350e+01 2.111303e+01 2.022588e+01 1.764534e+01 1.626151e+01 3.391186e+01 1.571166e+00 9.086111e-01 1.101834e+00 9.984893e-01 1.111202e+00 1.470070e+00 1.071090e+00 9.839324e-01 1.101765e+00 1.084748e+00 9.360657e-01 8.043317e-01 9.200404e+00 1.226295e-01 1.142142e-01 1.278943e-01 1.715351e-01 1.690592e-01 1.868943e-01 1.942009e-01 1.903699e-01 1.987724e-01 1.928024e-01 1.625174e-01 1.458076e-01 4.277656e-01
<GCONST> 8.859033e+01
<MIXTURE> 3 2.417487e-01
<MEAN> 39
 -6.783798e-01 -2.056922e-02 7.770271e-01 2.033379e-01 -1.343289e+00 6.044111e-01 7.057876e-01 3.970768e-01 3.888287e-01 6.406950e-01 -1.355879e-01 -1.840785e-01 2.641452e+00 3.857359e-03 2.189499e-02 5.255248e-02 -7.453146e-01 -4.740768e-01 -4.889809e-01 -4.405172e-01 -7.068499e-01 -2.417287e-01 -5.406622e-01 -3.204708e-01 -4.927270e-01 -1.205170e-01 4.642207e-02 2.720357e-02 -5.697970e-02 -9.476581e-02 3.478947e-02 -1.214902e-01 -1.108271e-01 -8.359940e-02 -1.814176e-02 -9.253814e-02 1.315134e-02 8.738793e-03 -4.127608e-01
<VARIANCE> 39
 7.523681e+00 7.691376e+00 9.629559e+00 1.740494e+01 2.055197e+01 1.821236e+01 2.024682e+01 2.088408e+01 2.055613e+01 2.087838e+01 1.771225e+01 1.671561e+01 2.360861e+01 1.092099e+00 6.340389e-01 6.889868e-01 1.007025e+00 8.303831e-01 1.183788e+00 1.031263e+00 9.502215e-01 1.085530e+00 1.064089e+00 8.169054e-01 8.180838e-01 4.986045e+00 8.245537e-02 9.232627e-02 1.018632e-01 1.604131e-01 1.584832e-01 1.727286e-01 1.752626e-01 1.864171e-01 1.875265e-01 1.983639e-01 1.537941e-01 1.393757e-01 4.468844e-01
<GCONST> 8.436929e+01
<MIXTURE> 4 2.589355e-01
<MEAN> 39
 4.601695e+00 3.462017e+00 4.358602e+00 -2.359400e+00 -3.389790e+00 -3.527286e+00 -2.863395e+00 -7.600591e-01 5.119186e-01 6.491329e-02 1.265739e+00 -4.040259e-01 -9.411356e+00 -3.775614e-01 -4.243101e-01 -9.719585e-02 -2.736069e-01 -4.082065e-01 -5.011846e-02 2.563908e-01 -2.905139e-01 1.039978e-01 -1.200090e-01 -3.867884e-02 -1.116170e-01 -1.485403e+00 -5.012345e-01 -3.177205e-01 -3.255268e-01 1.620058e-01 1.948601e-01 3.699541e-01 2.658515e-01 1.163020e-01 1.396870e-02 5.819845e-02 -1.036926e-01 5.215932e-02 1.020299e+00
<VARIANCE> 39
 3.003882e+01 3.855985e+01 3.353391e+01 3.205278e+01 3.359165e+01 3.466609e+01 3.513939e+01 3.036409e+01 3.279625e+01 3.199860e+01 2.786689e+01 1.976713e+01 7.195750e+01 1.693965e+00 1.376877e+00 1.293405e+00 1.418424e+00 1.451349e+00 1.813189e+00 1.411213e+00 1.231603e+00 1.272774e+00 1.189466e+00 1.123194e+00 8.708119e-01 1.197009e+01 3.104380e-01 3.579724e-01 3.194763e-01 3.275258e-01 3.356464e-01 3.436830e-01 3.327385e-01 2.901191e-01 3.053743e-01 3.165772e-01 2.439385e-01 1.989543e-01 1.038898e+00
<GCONST> 1.088613e+02
<STATE> 3
<NUMMIXES> 4
<MIXTURE> 1 2.048886e-01
<MEAN> 39
 -2.360184e+00 -1.836482e-02 -6.721165e-01 1.076069e-01 -6.890279e-01 7.438583e-01 4.849481e-01 2.223920e-01 8.214825e-01 7.616677e-01 2.478223e-01 -3.882942e-01 2.217659e+00 1.206520e-01 1.118595e-01 -6.507738e-02 -5.511295e-02 -6.572457e-02 -1.861702e-01 -2.386484e-01 -1.012481e-01 -7.145606e-02 -9.467702e-02 -4.880100e-02 -5.196967e-02 -1.377381e-02 4.094214e-02 -3.112560e-03 4.906473e-02 3.636525e-02 4.435117e-02 5.276365e-02 7.462912e-02 2.627932e-02 1.805831e-03 2.958717e-02 2.450665e-02 2.035065e-02 -1.412602e-02
<VARIANCE> 39
 9.428862e+00 4.347372e+00 7.163135e+00 1.083708e+01 1.409721e+01 1.311876e+01 1.590773e+01 1.663785e+01 1.776672e+01 1.773300e+01 1.517703e+01 1.492853e+01 1.301277e+01 1.577546e-01 1.589062e-01 2.770823e-01 3.850388e-01 5.125164e-01 6.026981e-01 7.051951e-01 8.157539e-01 8.375298e-01 6.930148e-01 5.967160e-01 6.019225e-01 7.304261e-02 3.035274e-02 3.036585e-02 5.674271e-02 7.494856e-02 1.061419e-01 1.032695e-01 1.311501e-01 1.480434e-01 1.495336e-01 1.352764e-01 1.235677e-01 1.314089e-01 2.635976e-02
<GCONST> 5.988484e+01
<MIXTURE> 2 2.282831e-01
<MEAN> 39
 -5.086772e+00 -1.187064e+00 -2.391543e-01 -3.491784e+00 -3.724754e+00 2.164742e+00 1.705065e+00 -2.092727e+00 2.424392e+00 1.344150e+00 -4.495910e-01 -2.077539e+00 2.675728e+00 -5.575751e-02 8.143392e-02 -3.780223e-01 -2.684440e-01 3.872749e-01 -1.058652e-01 -1.933918e-01 -1.910102e-01 4.977813e-02 -2.830308e-01 -1.059760e-01 -1.956365e-01 -4.263806e-01 3.121139e-01 4.729415e-02 4.937275e-02 2.371977e-01 1.565216e-01 -1.721472e-01 -6.653148e-02 1.373219e-01 -1.321306e-01 -3.338092e-02 6.571144e-02 1.168710e-01 -2.278223e-01
<VARIANCE> 39
 1.081259e+01 9.613975e+00 1.266529e+01 2.354064e+01 2.365414e+01 1.799730e+01 2.309246e+01 2.169254e+01 2.785208e+01 2.886008e+01 2.007586e+01 2.301470e+01 2.494120e+01 1.107152e+00 5.840309e-01 8.455135e-01 1.066069e+00 1.082489e+00 1.087939e+00 1.079195e+00 1.129191e+00 1.304577e+00 1.298468e+00 8.383743e-01 8.564153e-01 1.155529e+00 9.762979e-02 1.020888e-01 1.132462e-01 1.736742e-01 1.932137e-01 1.728835e-01 2.018716e-01 2.017293e-01 2.187341e-01 2.198112e-01 1.528706e-01 1.719698e-01 2.784169e-01
<GCONST> 8.740282e+01
<MIXTURE> 3 3.887449e-01
<MEAN> 39
 -8.419082e-01 8.421467e-02 -5.922095e-01 -6.683993e-01 -1.394589e+00 -6.605558e-01 -6.126628e-01 -9.010083e-01 -2.746024e-01 -5.298960e-01 -6.289858e-01 -9.340873e-01 5.482135e-01 1.144008e-01 -5.310494e-04 -1.740904e-01 -3.468933e-01 -3.716334e-01 -5.079035e-01 -4.790385e-01 -4.275766e-01 -3.694794e-01 -3.360566e-01 -2.339513e-01 -1.939409e-01 -7.875119e-02 -1.285806e-02 -3.339150e-02 1.172524e-02 6.040387e-02 1.000485e-01 1.112800e-01 1.205382e-01 9.050688e-02 5.221832e-02 8.765714e-02 7.367654e-02 8.373758e-02 4.756410e-03
<VARIANCE> 39
 7.260314e+00 3.967650e+00 6.792470e+00 9.007972e+00 1.238282e+01 1.236723e+01 1.395530e+01 1.446153e+01 1.692286e+01 1.786678e+01 1.505546e+01 1.322897e+01 5.147543e+00 1.395784e-01 1.500854e-01 2.469053e-01 3.966289e-01 4.683437e-01 5.132272e-01 6.152996e-01 6.196451e-01 7.442254e-01 7.194971e-01 6.497053e-01 6.349601e-01 6.444466e-02 2.574703e-02 3.156982e-02 4.999738e-02 6.955916e-02 9.503983e-02 9.918083e-02 1.101723e-01 1.193432e-01 1.361114e-01 1.380196e-01 1.208427e-01 1.138341e-01 1.198042e-02
<GCONST> 5.484621e+01
<MIXTURE> 4 1.780891e-01
<MEAN> 39
 -4.305348e+00 -1.874840e+00 1.509331e+00 -5.750789e+00 -2.709133e+00 2.212550e+00 6.433091e-01 -2.614986e+00 3.223396e+00 -4.137871e-01 -1.368690e+00 -1.784768e+00 1.509287e+00 -3.259544e-01 -3.096775e-01 -4.131118e-01 -1.092872e+00 2.478437e-01 -6.442717e-01 -5.405963e-01 -5.994201e-01 2.597692e-01 -9.274462e-01 -1.867302e-01 -4.288681e-01 -1.018922e+00 2.424467e-01 8.461640e-02 -1.420309e-01 3.657040e-01 9.636866e-02 -2.603151e-01 -5.548652e-02 1.747539e-01 -1.854455e-01 2.754903e-02 1.447199e-01 1.217606e-01 -4.424007e-01
<VARIANCE> 39
 8.843118e+00 9.269183e+00 1.199956e+01 1.952762e+01 2.115840e+01 2.138380e+01 1.926216e+01 2.300853e+01 2.524656e+01 2.786078e+01 1.865087e+01 1.905444e+01 1.796037e+01 6.517625e-01 5.460815e-01 7.452105e-01 1.313840e+00 1.164955e+00 1.295026e+00 1.076069e+00 1.188417e+00 1.192621e+00 1.487880e+00 8.785518e-01 8.122982e-01 6.763649e-01 7.402442e-02 8.932620e-02 1.137696e-01 1.557942e-01 1.593533e-01 2.010934e-01 1.723547e-01 1.989256e-01 1.919775e-01 2.115080e-01 1.536088e-01 1.492396e-01 3.719739e-01
<GCONST> 8.468066e+01
<STATE> 4
<NUMMIXES> 4
<MIXTURE> 1 2.675482e-01
<MEAN> 39
 1.158528e-01 4.845358e-02 -2.604766e-01 -8.929247e-01 -1.214540e+00 -1.271001e+00 -1.326628e+00 -1.075686e+00 -6.551039e-01 -8.129363e-01 -5.303231e-01 -3.265961e-01 -1.307541e-01 4.264562e-02 5.800487e-02 -2.957839e-02 -7.737360e-02 -1.059188e-01 -1.401110e-01 -1.779740e-01 -8.740662e-02 -4.101191e-02 -2.626396e-02 6.257243e-02 1.051162e-01 1.248017e-02 -2.306794e-02 -1.752612e-02 4.074260e-02 1.236562e-01 1.865940e-01 2.121912e-01 2.280312e-01 1.962436e-01 1.439303e-01 1.515566e-01 1.150275e-01 8.581044e-02 4.779915e-03
<VARIANCE> 39
 2.364637e+00 3.488246e+00 5.744369e+00 8.511446e+00 1.037802e+01 1.161811e+01 1.372313e+01 1.471733e+01 1.690092e+01 1.486523e+01 1.406717e+01 1.361061e+01 1.205364e+00 9.154505e-02 1.413251e-01 2.397598e-01 3.693800e-01 4.359201e-01 4.982361e-01 5.796495e-01 6.630168e-01 7.133164e-01 7.305163e-01 6.713043e-01 5.858765e-01 2.406515e-02 1.754041e-02 2.870909e-02 4.774465e-02 7.543905e-02 8.615303e-02 9.843605e-02 1.038165e-01 1.092676e-01 1.373281e-01 1.281446e-01 1.130856e-01 1.153186e-01 5.135969e-03
<GCONST> 4.805787e+01
<MIXTURE> 2 2.772168e-01
<MEAN> 39
 4.296831e-01 -2.325288e+00 3.956530e-01 -2.947767e+00 -6.727904e-01 -2.389057e-01 4.681554e-02 -3.241184e+00 1.689712e-01 -1.405892e+00 -5.707008e-01 -2.138376e+00 -2.015521e+00 4.509912e-01 3.403146e-02 6.318580e-02 1.377475e-01 3.333339e-01 -1.589351e-01 5.508974e-03 8.374212e-02 -8.012784e-02 -3.782118e-02 1.286112e-01 1.413006e-01 -6.385998e-01 -1.495629e-02 9.151758e-02 2.085238e-02 1.283383e-01 -2.564202e-02 4.779442e-02 4.010190e-02 1.387669e-01 1.848393e-02 1.193757e-01 2.589324e-02 7.284376e-02 4.250488e-02
<VARIANCE> 39
 2.301501e+01 1.328375e+01 1.479984e+01 2.680428e+01 2.582646e+01 2.669535e+01 2.897174e+01 3.044644e+01 3.431618e+01 3.208480e+01 2.284550e+01 1.908447e+01 2.599752e+01 5.918829e-01 5.922766e-01 7.720122e-01 1.118642e+00 1.136380e+00 1.086686e+00 1.068982e+00 1.249430e+00 1.054768e+00 1.116893e+00 9.558368e-01 8.248552e-01 7.285546e-01 1.113126e-01 1.017938e-01 1.093182e-01 2.243536e-01 1.981895e-01 1.820505e-01 2.130183e-01 2.297535e-01 2.017085e-01 2.265190e-01 1.742685e-01 1.524339e-01 1.225251e-01
<GCONST> 8.861499e+01
<MIXTURE> 3 2.534485e-01
<MEAN> 39
 -3.322136e-01 -8.698962e-01 -1.059859e+00 -2.883893e+00 -1.698693e+00 -2.192686e+00 -1.275902e+00 -1.615153e+00 -1.424154e-01 -1.687381e+00 -5.452618e-01 -1.098686e+00 -9.059687e-01 3.390076e-02 -7.447848e-02 -2.040948e-01 -1.987200e-01 -1.588573e-01 -2.945278e-01 -1.738129e-01 -1.803757e-01 -1.542703e-01 -2.090802e-01 -5.549346e-02 -4.062581e-02 -8.037014e-02 -1.381158e-02 -1.109307e-02 5.475367e-02 8.060671e-02 1.158929e-01 1.636217e-01 1.386103e-01 9.361041e-02 6.963041e-02 9.209118e-02 2.503276e-02 2.517901e-02 2.636268e-02
<VARIANCE> 39
 8.263751e+00 6.937885e+00 8.162115e+00 1.431804e+01 1.165931e+01 1.555649e+01 1.524201e+01 1.571497e+01 2.111868e+01 1.736146e+01 1.585732e+01 1.477115e+01 3.122954e+00 1.238203e-01 1.747818e-01 2.740379e-01 4.876513e-01 4.937379e-01 5.804206e-01 6.728578e-01 7.069764e-01 7.467595e-01 7.173860e-01 7.552745e-01 6.518982e-01 6.397278e-02 2.724232e-02 3.548551e-02 5.031580e-02 1.030651e-01 1.003972e-01 1.249261e-01 1.253529e-01 1.380453e-01 1.429718e-01 1.314825e-01 1.280326e-01 1.317728e-01 1.206431e-02
<GCONST> 5.863282e+01
<MIXTURE> 4 2.017938e-01
<MEAN> 39
 1.209450e+00 -2.430672e+00 5.840039e-01 -3.739733e+00 -4.674996e-01 -1.102322e+00 -3.836387e-01 -3.844514e+00 1.939459e-01 -1.542419e+00 -1.618439e+00 -2.863838e+00 -2.791499e+00 5.732430e-01 -1.705044e-01 1.384407e-02 -6.479826e-03 4.007302e-03 -3.543915e-01 -3.061278e-01 -3.589147e-01 -4.265232e-01 -1.347005e-01 -4.669680e-02 -1.603107e-01 -8.593174e-01 -9.074700e-02 4.439682e-02 -4.232775e-02 1.163724e-01 -8.332369e-02 4.439946e-02 4.439403e-02 9.443012e-02 1.544304e-02 8.228952e-02 6.428836e-02 9.457350e-02 6.876886e-06
<VARIANCE> 39
 1.935172e+01 1.346660e+01 1.437704e+01 2.382956e+01 2.553587e+01 2.771950e+01 2.996269e+01 2.994323e+01 3.413360e+01 3.399532e+01 2.319314e+01 1.788758e+01 1.890128e+01 5.871937e-01 6.617513e-01 6.805338e-01 1.272241e+00 1.041651e+00 1.260494e+00 1.188627e+00 1.288160e+00 1.059471e+00 1.482004e+00 1.130899e+00 7.529191e-01 6.362704e-01 9.684299e-02 1.059523e-01 1.004921e-01 1.940852e-01 1.777844e-01 1.881162e-01 1.983329e-01 2.246419e-01 1.847911e-01 2.385077e-01 1.820673e-01 1.248006e-01 8.920889e-02
<GCONST> 8.756059e+01
<TRANSP> 5
 0.000000e+00 1.000000e+00 0.000000e+00 0.000000e+00 0.000000e+00
 0.000000e+00 7.237489e-01 2.762511e-01 0.000000e+00 0.000000e+00
 0.000000e+00 0.000000e+00 4.478615e-01 5.521386e-01 0.000000e+00
 0.000000e+00 0.000000e+00 0.000000e+00 5.335690e-01 4.664310e-01
 0.000000e+00 0.000000e+00 0.000000e+00 0.000000e+00 0.000000e+00
<ENDHMM>
~h "n"
<BEGINHMM>
<NUMSTATES> 5
<STATE> 2
<NUMMIXES> 4
<MIXTURE> 1 1.459133e-01
<MEAN> 39
 -1.022994e+00 -9.093472e-01 -7.985931e-01 1.667584e+00 4.383341e-01 1.831523e+00 1.089548e+00 2.129123e+00 -6.051043e-02 1.152521e+00 6.249640e-01 1.325721e+00 8.284856e+00 5.238919e-01 1.721116e-01 2.147976e-01 1.970539e-01 2.034676e-01 1.755712e-01 1.590185e-01 3.231321e-03 -1.021291e-01 -8.535776e-02 1.845745e-02 5.712624e-02 -3.518128e-02 1.976673e-01 1.777997e-01 1.761946e-01 -2.177822e-03 1.090521e-01 -2.707744e-02 -3.944692e-02 -1.186119e-01 -3.224432e-02 -5.169492e-02 -5.135956e-02 -8.174898e-02 -2.352984e-01
<VARIANCE> 39
 5.383668e+00 4.578901e+00 6.000847e+00 9.539277e+00 1.101529e+01 1.459428e+01 1.571578e+01 1.603302e+01 1.690263e+01 1.704416e+01 1.732784e+01 1.470384e+01 3.178313e+01 2.316530e-01 2.032214e-01 2.729365e-01 4.059028e-01 5.872466e-01 6.381373e-01 7.768784e-01 8.114855e-01 8.411275e-01 8.570474e-01 8.137590e-01 7.171553e-01 5.593180e-02 6.331464e-02 6.154973e-02 8.579703e-02 1.021714e-01 1.266802e-01 1.539045e-01 1.775461e-01 1.809565e-01 1.675140e-01 1.706024e-01 1.696661e-01 1.493146e-01 7.576022e-02
<GCONST> 6.628190e+01
<MIXTURE> 2 3.976831e-01
<MEAN> 39
 5.131793e-02 4.378639e-01 6.399490e-01 1.025732e+00 6.482884e-01 3.938833e-01 -1.273690e-01 -5.432360e-01 -9.282957e-01 -8.979134e-01 -7.218090e-01 -2.226783e-01 4.572046e-01 1.538896e-01 2.109624e-01 2.320232e-01 1.295823e-01 -1.917499e-02 -1.909040e-01 -2.900209e-01 -3.367701e-01 -3.389977e-01 -2.463711e-01 -1.318417e-01 -5.738391e-02 3.742422e-02 -1.668792e-02 -3.955448e-02 -5.868272e-02 -6.624772e-02 -3.432189e-02 1.407226e-02 5.762780e-02 1.223559e-01 1.538905e-01 1.566618e-01 1.236994e-01 6.516330e-02 -6.887935e-03
<VARIANCE> 39
 1.313923e+00 2.398687e+00 4.281957e+00 7.161400e+00 9.513641e+00 1.123233e+01 1.250196e+01 1.275041e+01 1.392066e+01 1.376318e+01 1.321638e+01 1.207031e+01 2.057296e+00 7.223149e-02 1.278024e-01 2.163687e-01 3.297689e-01 4.208255e-01 5.304933e-01 5.866035e-01 5.947283e-01 6.391853e-01 6.398699e-01 6.069332e-01 5.600364e-01 1.358369e-02 1.234136e-02 2.382025e-02 4.177674e-02 6.234946e-02 8.672944e-02 1.001750e-01 1.090163e-01 1.110417e-01 1.214414e-01 1.214186e-01 1.195570e-01 1.041073e-01 2.403388e-03
<GCONST> 4.301399e+01
<MIXTURE> 3 2.812513e-01
<MEAN> 39
 1.005868e-01 1.990347e-01 3.196580e-01 4.947451e-01 1.881742e-01 -1.047582e-01 -5.612707e-01 -9.194279e-01 -1.274316e+00 -1.232410e+00 -1.075539e+00 -5.529668e-01 1.774177e-01 6.282241e-02 6.663924e-02 2.463215e-03 -1.403494e-01 -2.979694e-01 -4.772543e-01 -5.831745e-01 -6.514865e-01 -6.232249e-01 -4.990984e-01 -3.748320e-01 -1.992008e-01 -7.889261e-04 -2.478343e-02 -3.838293e-02 -6.275231e-02 -7.589269e-02 -5.128292e-02 -1.111250e-02 2.660072e-02 7.773007e-02 1.275568e-01 1.250316e-01 1.051498e-01 6.277183e-02 -1.176923e-02
<VARIANCE> 39
 1.162354e+00 2.378746e+00 4.312966e+00 7.057793e+00 8.987523e+00 1.105977e+01 1.172027e+01 1.312820e+01 1.349869e+01 1.363823e+01 1.318834e+01 1.227038e+01 3.651450e-01 7.657980e-02 1.347219e-01 2.158345e-01 3.283366e-01 4.182902e-01 5.186127e-01 5.726146e-01 5.836532e-01 6.364043e-01 6.286889e-01 6.151153e-01 5.568631e-01 1.472946e-02 1.207891e-02 2.399289e-02 4.155986e-02 6.412278e-02 8.123451e-02 9.621202e-02 1.015541e-01 1.108942e-01 1.170056e-01 1.185876e-01 1.177805e-01 1.077342e-01 2.424108e-03
<GCONST> 4.091055e+01
<MIXTURE> 4 1.752027e-01
<MEAN> 39
 -1.154045e+00 -8.532206e-01 -7.056442e-01 1.329795e+00 3.881021e-01 1.390991e+00 4.520140e-01 1.332530e+00 -1.044846e-01 5.890657e-01 7.520775e-02 9.004554e-01 5.861581e+00 3.966681e-01 8.453119e-02 8.157027e-02 -6.777194e-02 -2.559687e-02 -1.508040e-01 -2.458030e-01 -3.959335e-01 -4.060521e-01 -3.261953e-01 -1.857655e-01 -1.045388e-01 -1.075746e-01 1.519218e-01 1.119739e-01 8.576413e-02 -6.116741e-02 1.144588e-02 -8.394566e-02 -4.869447e-02 -1.177867e-01 -6.426933e-02 -7.033236e-02 -3.951720e-02 -8.467633e-02 -1.631271e-01
<VARIANCE> 39
 4.644492e+00 4.361004e+00 5.796797e+00 1.079930e+01 1.198660e+01 1.473099e+01 1.576139e+01 1.741029e+01 1.826638e+01 1.719723e+01 1.735963e+01 1.497040e+01 5.858002e+01 2.439814e-01 1.981970e-01 2.605602e-01 4.247447e-01 5.357597e-01 6.711076e-01 7.879295e-01 8.340887e-01 8.814122e-01 8.486028e-01 8.395697e-01 7.095436e-01 7.875206e-02 5.525000e-02 5.272691e-02 7.059785e-02 1.043603e-01 1.219039e-01 1.535039e-01 1.631600e-01 1.733933e-01 1.707978e-01 1.670959e-01 1.686092e-01 1.436152e-01 7.292271e-02
<GCONST> 6.677979e+01
<STATE> 3
<NUMMIXES> 4
<MIXTURE> 1 2.159735e-01
<MEAN> 39
 4.408738e-01 -1.440859e-01 -2.581202e-01 8.123256e-01 3.552349e-01 7.890107e-01 7.270262e-01 8.677394e-01 -2.069042e-02 2.940983e-01 1.798543e-01 5.543853e-01 1.877067e+00 8.148628e-02 1.576383e-01 2.085400e-01 2.134553e-01 2.800541e-01 2.676934e-01 1.595586e-01 1.857528e-01 1.924230e-01 2.610054e-01 1.205441e-01 1.363945e-01 4.364720e-01 8.625807e-02 9.669890e-02 1.615486e-01 -7.126288e-02 5.946857e-02 -7.129452e-02 -4.781305e-02 -9.869122e-02 2.429361e-02 -2.669055e-03 -6.715322e-03 -6.354767e-02 -2.104238e-01
<VARIANCE> 39
 8.392742e+00 6.954154e+00 8.599712e+00 1.338784e+01 1.471716e+01 2.002432e+01 1.865479e+01 2.095277e+01 1.928733e+01 2.040334e+01 1.781137e+01 1.586285e+01 1.038535e+02 1.527665e+00 9.838401e-01 1.346334e+00 9.504128e-01 1.131243e+00 1.353389e+00 1.186982e+00 1.502935e+00 1.240460e+00 1.309561e+00 1.075122e+00 9.696522e-01 5.083710e+00 1.032071e-01 1.001800e-01 1.594534e-01 1.473889e-01 1.694614e-01 2.110272e-01 2.031832e-01 2.250445e-01 2.086983e-01 2.077529e-01 1.790461e-01 1.528960e-01 6.585208e-01
<GCONST> 9.032519e+01
<MIXTURE> 2 2.104567e-01
<MEAN> 39
 5.815563e+00 3.088120e+00 4.950058e+00 -1.242533e+00 1.611619e+00 -1.841752e+00 -1.832687e+00 -4.202560e+00 -1.862169e+00 -1.730213e+00 -1.413931e+00 -2.197384e+00 -6.109604e+00 -4.050985e-02 3.131541e-02 8.274288e-02 -3.475879e-02 2.731064e-02 -1.624775e-02 9.415920e-02 1.709358e-02 2.074654e-01 1.570315e-01 1.369195e-01 1.007177e-02 -6.341347e-01 -2.976534e-01 -2.133671e-01 -2.784988e-01 9.620728e-02 -8.104985e-02 1.711307e-01 1.372288e-01 2.447479e-01 1.096783e-01 1.209002e-01 9.990141e-02 1.573771e-01 3.801366e-01
<VARIANCE> 39
 2.148170e+01 2.053799e+01 3.000884e+01 3.033096e+01 3.119936e+01 3.498418e+01 3.677911e+01 3.801542e+01 3.313301e+01 3.215908e+01 2.623466e+01 2.095011e+01 5.945951e+01 1.154208e+00 1.007911e+00 1.773983e+00 1.255505e+00 1.366907e+00 1.569361e+00 1.478390e+00 1.778986e+00 1.445026e+00 1.300723e+00 1.114395e+00 1.043152e+00 6.136222e+00 1.739855e-01 1.671209e-01 2.210024e-01 2.289603e-01 2.378298e-01 2.805741e-01 2.792441e-01 2.767319e-01 2.621296e-01 2.659522e-01 2.225180e-01 1.829247e-01 4.218300e-01
<GCONST> 1.029454e+02
<MIXTURE> 3 4.147795e-01
<MEAN> 39
 2.122976e-01 -1.298573e-01 -8.627175e-02 2.364261e-01 -2.280416e-01 -1.255997e-01 -3.675235e-01 -4.644232e-01 -7.459494e-01 -5.885891e-01 -4.102516e-01 1.757082e-02 6.738132e-01 1.648383e-01 1.126907e-01 7.678133e-02 -1.503723e-01 -1.164334e-01 -2.791781e-01 -2.330854e-01 -2.671332e-01 -1.983050e-01 -1.961734e-01 -1.109117e-01 -1.289952e-01 -1.932599e-01 2.329646e-02 1.756010e-02 3.483755e-02 -6.271601e-02 3.356578e-02 -2.280809e-03 4.218592e-02 3.209097e-02 9.948510e-02 5.976707e-02 4.269006e-02 -2.519454e-02 -1.337937e-01
<VARIANCE> 39
 5.591265e+00 5.364859e+00 6.926108e+00 1.192242e+01 1.259676e+01 1.684582e+01 1.663173e+01 1.923260e+01 1.766592e+01 1.768315e+01 1.643458e+01 1.511407e+01 6.517554e+01 6.542569e-01 4.543606e-01 6.182703e-01 6.204655e-01 7.191068e-01 8.562798e-01 8.674595e-01 1.030284e+00 9.185005e-01 9.381690e-01 7.997014e-01 7.432867e-01 1.270115e+00 6.284295e-02 6.256469e-02 8.617917e-02 1.061346e-01 1.111539e-01 1.583036e-01 1.577080e-01 1.804043e-01 1.675377e-01 1.682894e-01 1.498231e-01 1.414607e-01 2.210483e-01
<GCONST> 7.609068e+01
<MIXTURE> 4 1.587914e-01
<MEAN> 39
 5.613924e+00 2.654700e+00 5.417537e+00 -3.411244e-01 2.683477e+00 -5.091000e-01 -1.807538e+00 -4.644234e+00 -1.670426e+00 -2.016944e+00 -1.427014e+00 -2.182113e+00 -3.529793e+00 2.048624e-02 -7.263453e-02 1.217853e-01 -8.162400e-01 -4.108873e-01 -8.558528e-01 -6.242124e-01 -9.148893e-01 -9.049366e-02 -4.710926e-01 -1.195700e-01 -5.033185e-01 -2.055861e+00 -3.302630e-01 -2.357512e-01 -3.532815e-01 -2.966423e-02 -2.036545e-01 2.206015e-02 9.556415e-02 2.605091e-01 9.346652e-02 1.294063e-01 8.220413e-02 1.273789e-01 2.447068e-01
<VARIANCE> 39
 1.770128e+01 2.037903e+01 3.060627e+01 3.033877e+01 3.555837e+01 3.792525e+01 4.018110e+01 4.065855e+01 4.270687e+01 3.589771e+01 2.799535e+01 2.622643e+01 5.554574e+01 1.328573e+00 1.227176e+00 1.933879e+00 1.241481e+00 1.440983e+00 1.488823e+00 1.696361e+00 1.939394e+00 1.660995e+00 1.496672e+00 1.327649e+00 1.278723e+00 2.312739e+00 1.697065e-01 1.858955e-01 2.427393e-01 2.235527e-01 2.708039e-01 2.849815e-01 2.980233e-01 3.005732e-01 3.334647e-01 2.857147e-01 2.351860e-01 2.295524e-01 3.117513e-01
<GCONST> 1.047726e+02
<STATE> 4
<NUMMIXES> 4
<MIXTURE> 1 2.414609e-01
<MEAN> 39
 -5.989869e-01 3.616437e-02 3.881139e-02 6.829619e-01 -3.758013e-02 1.837347e-02 -4.222168e-01 -2.330901e-01 -7.606438e-01 -2.701674e-01 -2.064965e-01 4.494012e-01 2.789080e+00 -1.845795e-02 5.393429e-02 8.657061e-02 1.107327e-01 1.684080e-01 2.110447e-01 2.312923e-01 2.701274e-01 3.181609e-01 3.494422e-01 2.858377e-01 1.900410e-01 2.303056e-02 1.352494e-02 -1.265335e-02 -1.362797e-02 1.863319e-03 6.566996e-02 1.086199e-01 1.459205e-01 1.475140e-01 1.543886e-01 1.238748e-01 7.499393e-02 2.466655e-02 -5.066110e-02
<VARIANCE> 39
 2.833097e+00 3.125330e+00 4.818008e+00 7.795988e+00 1.005051e+01 1.243187e+01 1.400820e+01 1.520412e+01 1.651582e+01 1.617574e+01 1.440776e+01 1.361673e+01 1.913817e+01 1.126984e-01 1.395712e-01 2.216257e-01 3.245353e-01 4.495903e-01 5.358304e-01 5.629998e-01 6.482168e-01 7.275578e-01 7.412409e-01 6.791995e-01 5.533049e-01 2.199156e-02 2.973127e-02 3.445364e-02 5.080911e-02 7.130639e-02 9.611827e-02 1.148345e-01 1.301774e-01 1.324587e-01 1.543511e-01 1.489656e-01 1.310163e-01 1.188831e-01 2.108266e-02
<GCONST> 5.399794e+01
<MIXTURE> 2 1.750186e-01
<MEAN> 39
 1.075435e+00 8.101069e-01 1.079786e+00 -7.906432e-01 -4.812599e-01 -1.614231e+00 -1.701541e+00 -2.309187e+00 -1.328259e+00 -9.078866e-01 -7.684643e-01 -1.087218e+00 -1.191587e+00 -3.742165e-02 -5.900758e-02 -1.927292e-01 -1.849890e-01 -2.108797e-01 -8.153750e-02 8.444481e-02 2.156910e-01 1.962076e-01 1.814693e-01 2.130052e-01 1.792624e-01 -5.525868e-02 -2.209800e-02 -3.843832e-02 -1.914051e-02 1.021987e-01 1.275488e-01 1.979650e-01 2.001469e-01 2.102375e-01 1.536038e-01 1.242631e-01 9.654890e-02 1.027175e-01 5.257972e-02
<VARIANCE> 39
 9.346280e+00 6.004806e+00 1.011009e+01 1.440500e+01 1.378303e+01 1.601279e+01 1.665839e+01 1.909231e+01 1.698310e+01 1.619905e+01 1.511121e+01 1.389637e+01 3.386702e+01 1.510210e-01 2.031736e-01 2.923421e-01 4.716883e-01 5.205787e-01 5.818586e-01 6.578252e-01 7.327437e-01 7.603608e-01 7.308090e-01 6.226008e-01 6.102055e-01 1.209333e-01 4.468876e-02 5.562798e-02 7.984969e-02 9.903128e-02 1.119420e-01 1.245056e-01 1.385756e-01 1.521186e-01 1.544906e-01 1.410897e-01 1.316428e-01 1.173133e-01 2.204783e-02
<GCONST> 6.449352e+01
<MIXTURE> 3 4.284971e-01
<MEAN> 39
 -2.593786e-01 6.694187e-02 -3.138989e-02 2.515586e-01 -5.708159e-01 -6.914626e-01 -1.090783e+00 -9.314550e-01 -1.311746e+00 -8.456495e-01 -6.668667e-01 3.007056e-02 1.458107e+00 -5.275380e-02 -6.337544e-02 -8.945628e-02 -1.073013e-01 -7.430750e-02 -3.843261e-02 -1.808437e-02 5.871749e-02 1.158061e-01 1.220399e-01 7.652293e-02 1.016360e-02 -7.938185e-03 -1.913521e-02 -4.252496e-02 -4.138643e-02 -1.741348e-02 5.997214e-02 1.045712e-01 1.414986e-01 1.491013e-01 1.599054e-01 1.164578e-01 6.660573e-02 1.283025e-02 -3.020406e-02
<VARIANCE> 39
 2.163582e+00 2.901441e+00 4.748488e+00 7.607582e+00 9.662855e+00 1.199143e+01 1.356633e+01 1.488904e+01 1.553575e+01 1.501968e+01 1.383133e+01 1.277422e+01 1.062832e+01 8.727750e-02 1.220053e-01 2.102918e-01 3.096755e-01 4.184668e-01 5.001365e-01 5.670115e-01 6.024941e-01 6.660250e-01 6.648227e-01 6.248146e-01 5.576679e-01 1.465430e-02 2.089120e-02 2.945109e-02 4.822181e-02 7.155120e-02 9.148694e-02 1.116946e-01 1.250474e-01 1.297127e-01 1.363265e-01 1.336801e-01 1.250047e-01 1.144472e-01 1.034488e-02
<GCONST> 4.955725e+01
<MIXTURE> 4 1.550611e-01
<MEAN> 39
 1.651254e+00 5.062381e-01 1.238557e+00 -1.539156e+00 -1.687590e-01 -1.998247e+00 -1.531126e+00 -2.726406e+00 -1.197439e+00 -1.476772e+00 -7.321839e-01 -1.463293e+00 -3.503637e+00 -2.164873e-01 -2.691320e-01 -4.426113e-01 -5.896608e-01 -5.006244e-01 -4.657587e-01 -9.067096e-02 -6.892008e-02 3.403490e-02 -9.213689e-02 7.444391e-02 -7.754120e-02 -3.567001e-01 -5.485907e-03 -1.673684e-02 -1.559205e-02 8.512930e-02 5.810574e-02 1.265301e-01 9.566692e-02 1.163074e-01 6.660309e-02 7.133329e-02 3.505745e-02 7.292701e-02 1.330739e-01
<VARIANCE> 39
 1.285295e+01 8.238262e+00 1.142560e+01 1.689975e+01 1.565021e+01 2.044174e+01 1.817366e+01 2.295744e+01 1.899179e+01 1.849434e+01 1.738836e+01 1.488733e+01 5.249437e+01 4.369971e-01 4.169556e-01 4.003682e-01 7.229763e-01 5.884847e-01 7.470131e-01 7.657108e-01 7.954759e-01 9.210052e-01 8.118402e-01 7.280672e-01 6.612831e-01 3.161117e-01 6.904732e-02 6.938437e-02 8.313786e-02 1.196452e-01 1.139190e-01 1.486975e-01 1.469760e-01 1.695542e-01 1.434585e-01 1.469432e-01 1.396967e-01 1.284137e-01 7.303572e-02
<GCONST> 7.413085e+01
<TRANSP> 5
 0.000000e+00 1.000000e+00 0.000000e+00 0.000000e+00 0.000000e+00
 0.000000e+00 3.247848e-01 6.752152e-01 0.000000e+00 0.000000e+00
 0.000000e+00 0.000000e+00 6.678841e-01 3.321159e-01 0.000000e+00
 0.000000e+00 0.000000e+00 0.000000e+00 1.336744e-01 8.663256e-01
 0.000000e+00 0.000000e+00 0.000000e+00 0.000000e+00 0.000000e+00
<ENDHMM>
~h "r"
<BEGINHMM>
<NUMSTATES> 5
<STATE> 2
<NUMMIXES> 4
<MIXTURE> 1 1.926003e-01
<MEAN> 39
 -2.891956e+00 -6.973687e-01 -1.003201e+00 1.795704e+00 6.466457e-01 2.125145e+00 1.005847e+00 2.371680e+00 6.112347e-01 1.864397e+00 6.651809e-01 1.589203e+00 9.455920e+00 8.997628e-02 9.847564e-02 1.480407e-01 1.760155e-01 2.101229e-01 2.378207e-01 2.402271e-01 2.443603e-01 2.167175e-01 1.797957e-01 1.213953e-01 8.607698e-02 3.027707e-02 4.223371e-02 2.702170e-02 2.365319e-02 1.692065e-02 1.987252e-02 7.370052e-03 -2.376273e-03 1.175657e-03 8.841390e-04 -1.394105e-02 -8.517070e-03 -5.114837e-03 8.517149e-03
<VARIANCE> 39
 2.072598e+00 3.382565e+00 5.184793e+00 8.463080e+00 1.075835e+01 1.333181e+01 1.485083e+01 1.609909e+01 1.651859e+01 1.614499e+01 1.524580e+01 1.333638e+01 1.721083e+01 5.137778e-02 1.148787e-01 2.013509e-01 3.060957e-01 4.109394e-01 4.921843e-01 5.706773e-01 6.163200e-01 6.281147e-01 6.249886e-01 5.955480e-01 5.680996e-01 9.716821e-03 1.058221e-02 2.271668e-02 3.988736e-02 6.212666e-02 8.481373e-02 1.003066e-01 1.185456e-01 1.256386e-01 1.263631e-01 1.272103e-01 1.235443e-01 1.071524e-01 1.911466e-03
<GCONST> 4.635818e+01
<MIXTURE> 2 3.007313e-01
<MEAN> 39
 -1.976557e+00 -1.631306e-02 -3.863264e-01 1.783024e+00 7.521814e-01 1.863732e+00 7.624589e-01 1.968930e+00 5.738719e-01 1.448877e+00 4.224357e-01 1.227769e+00 7.502861e+00 9.369230e-03 -1.370814e-02 -2.507338e-02 -4.941794e-02 -6.033575e-02 -4.915303e-02 -5.664114e-02 -5.106129e-02 -2.539380e-02 7.823296e-05 3.069379e-02 5.083727e-02 2.827295e-03 1.415963e-02 -4.879713e-03 -2.649091e-03 -3.209949e-03 -1.579886e-03 -4.498486e-03 -1.903925e-03 -1.026136e-02 -1.006815e-02 3.231401e-03 5.753765e-03 2.155666e-03 -2.130385e-04
<VARIANCE> 39
 2.127769e+00 2.914098e+00 4.775460e+00 8.184494e+00 9.617860e+00 1.185016e+01 1.343730e+01 1.449118e+01 1.548219e+01 1.524958e+01 1.392022e+01 1.263043e+01 2.261341e+01 5.667878e-02 1.143708e-01 2.003009e-01 3.070660e-01 4.046198e-01 4.832821e-01 5.721108e-01 6.308715e-01 6.674033e-01 6.543850e-01 6.220021e-01 5.548873e-01 9.961120e-03 1.125855e-02 2.164556e-02 3.900531e-02 5.792854e-02 7.640197e-02 9.414108e-02 1.112334e-01 1.198847e-01 1.280690e-01 1.248054e-01 1.178489e-01 1.051173e-01 2.001749e-03
<GCONST> 4.554253e+01
<MIXTURE> 3 2.055940e-01
<MEAN> 39
 -1.503438e+00 -2.116623e-01 -5.408732e-01 1.069222e+00 3.959042e-01 1.185550e+00 3.833397e-01 1.360308e+00 3.892370e-01 8.680634e-01 1.784033e-01 7.479296e-01 5.304588e+00 -5.688845e-02 -1.071939e-01 -1.883392e-01 -2.336060e-01 -2.978283e-01 -3.277698e-01 -3.320550e-01 -3.172920e-01 -2.899727e-01 -2.631387e-01 -1.993174e-01 -1.012321e-01 -2.171786e-02 6.181961e-03 -5.477572e-03 -1.145011e-02 -2.877327e-02 -3.929916e-02 -5.031361e-02 -4.385232e-02 -6.303747e-02 -6.471807e-02 -4.123622e-02 -3.725522e-02 -2.790565e-02 -5.470822e-03
<VARIANCE> 39
 2.510421e+00 2.771713e+00 4.845323e+00 7.907479e+00 9.374427e+00 1.195988e+01 1.369476e+01 1.441354e+01 1.551630e+01 1.505190e+01 1.416475e+01 1.285557e+01 2.421569e+01 5.744049e-02 1.162495e-01 2.049456e-01 3.203737e-01 4.216444e-01 5.115943e-01 5.958833e-01 6.207350e-01 6.770514e-01 6.419927e-01 6.113842e-01 5.719680e-01 1.028048e-02 1.124449e-02 2.206958e-02 3.971555e-02 5.780197e-02 7.531086e-02 9.182552e-02 1.115453e-01 1.172913e-01 1.270614e-01 1.202082e-01 1.201557e-01 1.057523e-01 2.052662e-03
<GCONST> 4.596609e+01
<MIXTURE> 4 3.010252e-01
<MEAN> 39
 -2.821174e+00 -1.002647e+00 -1.378689e+00 1.201847e+00 1.949336e-01 1.615847e+00 5.214051e-01 1.811793e+00 2.712274e-01 1.391945e+00 3.959062e-01 1.346401e+00 8.619282e+00 4.530581e-03 -6.739121e-03 3.980983e-03 1.166185e-03 -6.927040e-03 1.280318e-02 -8.606017e-03 -2.827785e-02 -2.993846e-02 -4.655014e-02 -7.446869e-02 -7.155882e-02 2.478262e-04 2.979164e-02 2.409711e-02 1.987989e-02 3.011685e-03 -4.792190e-03 -1.799518e-02 -2.609067e-02 -2.847928e-02 -3.138075e-02 -4.250589e-02 -4.113765e-02 -3.239475e-02 1.538479e-03
<VARIANCE> 39
 2.204998e+00 3.228903e+00 5.274028e+00 8.346214e+00 1.055770e+01 1.312706e+01 1.453473e+01 1.607305e+01 1.657810e+01 1.640713e+01 1.504459e+01 1.345637e+01 1.821728e+01 5.214293e-02 1.126521e-01 1.967470e-01 2.943427e-01 4.006170e-01 4.868232e-01 5.804541e-01 6.242424e-01 6.439259e-01 6.475239e-01 6.184598e-01 5.336161e-01 9.156011e-03 1.042804e-02 2.333129e-02 4.021120e-02 5.962560e-02 8.257059e-02 9.922073e-02 1.156032e-01 1.264986e-01 1.333816e-01 1.308244e-01 1.224709e-01 1.062859e-01 1.823473e-03
<GCONST> 4.623491e+01
<STATE> 3
<NUMMIXES> 4
<MIXTURE> 1 1.317945e-01
<MEAN> 39
 -2.257915e+00 -5.859255e-01 -7.219125e-01 1.782588e+00 6.526428e-01 2.167709e+00 1.129774e+00 2.138366e+00 4.422529e-01 1.823691e+00 4.051858e-01 1.274269e+00 8.313771e+00 3.111707e-01 1.188619e-01 1.548574e-01 9.898810e-02 7.231010e-02 3.842295e-02 3.039627e-02 2.217488e-02 -9.940749e-03 1.181938e-02 -2.912162e-03 -1.999394e-02 3.732721e-02 1.240736e-01 6.374498e-02 7.614458e-02 3.169423e-02 4.796709e-02 -1.571597e-02 -1.272778e-02 -4.283586e-02 -2.962211e-02 -5.771929e-02 -8.472942e-03 -3.184573e-02 -4.941150e-02
<VARIANCE> 39
 2.355552e+00 3.329559e+00 5.224381e+00 8.636494e+00 1.073766e+01 1.242099e+01 1.354746e+01 1.538977e+01 1.433044e+01 1.576975e+01 1.396112e+01 1.205622e+01 2.306478e+01 8.460344e-02 1.354678e-01 2.202727e-01 3.183604e-01 3.985491e-01 4.864127e-01 5.409922e-01 7.397454e-01 7.258318e-01 6.513315e-01 5.645840e-01 6.038816e-01 1.328406e-02 2.531876e-02 2.964465e-02 5.401917e-02 7.501095e-02 9.294361e-02 1.041019e-01 1.079604e-01 1.383837e-01 1.338411e-01 1.496447e-01 1.316652e-01 1.124488e-01 9.030870e-03
<GCONST> 5.125924e+01
<MIXTURE> 2 4.192805e-01
<MEAN> 39
 -7.937862e-02 1.586526e-01 1.171499e-01 1.800291e-01 -7.091457e-02 1.001762e-01 6.121840e-02 4.396692e-03 9.230569e-03 4.236189e-02 4.920895e-02 2.864265e-01 1.150671e-01 1.516889e-01 1.475119e-01 7.891989e-02 -1.902838e-02 -1.231648e-01 -1.700312e-01 -2.279591e-01 -2.786573e-01 -2.503267e-01 -2.143275e-01 -1.446492e-01 -9.488447e-02 4.558402e-02 2.561537e-02 2.721096e-02 3.583390e-02 3.441394e-02 4.237654e-02 1.927074e-02 1.189401e-02 1.511551e-02 5.234889e-03 6.730907e-03 3.916709e-03 -1.804295e-02 5.693287e-03
<VARIANCE> 39
 1.018817e+00 2.244361e+00 4.120815e+00 6.618994e+00 8.371808e+00 1.061209e+01 1.279817e+01 1.314908e+01 1.376127e+01 1.389006e+01 1.327974e+01 1.221316e+01 3.516366e-01 5.150665e-02 1.183261e-01 2.088783e-01 3.004830e-01 4.043913e-01 4.964255e-01 5.557650e-01 6.359080e-01 6.598927e-01 6.318365e-01 6.106477e-01 5.724415e-01 9.026380e-03 9.553212e-03 2.081698e-02 3.804071e-02 5.570466e-02 7.371146e-02 9.305805e-02 1.041975e-01 1.157688e-01 1.218229e-01 1.183652e-01 1.148648e-01 1.023829e-01 1.778389e-03
<GCONST> 3.847776e+01
<MIXTURE> 3 2.885178e-01
<MEAN> 39
 -3.671807e-02 -9.653694e-02 -3.014131e-01 -3.814822e-01 -5.606225e-01 -5.584244e-01 -6.315677e-01 -5.570185e-01 -3.537297e-01 -2.744214e-01 -1.885738e-01 1.058842e-01 8.490005e-02 3.213198e-02 -6.002467e-04 -1.088901e-01 -2.267708e-01 -3.227437e-01 -3.931593e-01 -4.605825e-01 -5.210680e-01 -4.934218e-01 -4.172884e-01 -3.190378e-01 -1.716417e-01 5.675302e-03 4.389528e-03 1.682476e-02 3.296184e-02 3.163788e-02 3.210282e-02 1.757116e-02 1.915816e-02 7.151803e-03 -1.284801e-02 -1.914049e-02 -2.937719e-02 -3.773867e-02 -3.088340e-03
<VARIANCE> 39
 1.060516e+00 2.377643e+00 4.433351e+00 6.706799e+00 8.932365e+00 1.051727e+01 1.310259e+01 1.286840e+01 1.420387e+01 1.333068e+01 1.327524e+01 1.250785e+01 3.516366e-01 5.275951e-02 1.108897e-01 1.985342e-01 2.935387e-01 4.093788e-01 4.945287e-01 5.558086e-01 6.308864e-01 6.580221e-01 6.263969e-01 5.882045e-01 5.641767e-01 9.567339e-03 1.000726e-02 2.189915e-02 4.101714e-02 5.769423e-02 7.536933e-02 9.620235e-02 1.092886e-01 1.145911e-01 1.281115e-01 1.133741e-01 1.119037e-01 1.051511e-01 1.787592e-03
<GCONST> 3.892737e+01
<MIXTURE> 4 1.604356e-01
<MEAN> 39
 -2.093390e+00 -7.733009e-01 -9.266716e-01 1.353469e+00 3.815536e-01 1.532703e+00 4.386486e-01 1.455340e+00 8.099084e-02 1.060133e+00 1.931998e-02 1.025995e+00 6.699795e+00 1.703338e-01 9.657845e-03 2.540333e-03 -6.368069e-02 -1.402064e-01 -2.059967e-01 -2.145558e-01 -2.563706e-01 -3.313646e-01 -2.973180e-01 -2.530558e-01 -2.118765e-01 -2.285725e-03 8.788478e-02 5.389609e-02 3.929371e-02 -1.872758e-02 -1.839989e-02 -4.667874e-02 -2.112101e-02 -4.896586e-02 -3.895846e-02 -5.938597e-02 -3.015050e-02 -4.018864e-02 -3.194308e-02
<VARIANCE> 39
 2.414345e+00 3.053452e+00 5.169075e+00 9.095319e+00 1.065356e+01 1.280578e+01 1.382930e+01 1.553475e+01 1.469134e+01 1.488277e+01 1.475457e+01 1.255917e+01 2.431189e+01 8.529412e-02 1.402542e-01 2.243874e-01 3.249527e-01 4.443807e-01 5.112826e-01 6.132439e-01 6.643236e-01 6.899237e-01 7.331556e-01 6.648867e-01 5.909103e-01 1.466979e-02 2.202194e-02 2.878708e-02 4.813887e-02 7.385910e-02 9.764110e-02 1.123387e-01 1.212039e-01 1.475812e-01 1.368308e-01 1.401083e-01 1.272992e-01 1.068768e-01 8.019228e-03
<GCONST> 5.173266e+01
<STATE> 4
<NUMMIXES> 4
<MIXTURE> 1 2.386376e-01
<MEAN> 39
 -9.362953e-01 -2.538553e-01 -4.509275e-01 1.010813e+00 3.117411e-01 1.175001e+00 3.362773e-01 1.109900e+00 8.053395e-02 8.572455e-01 9.288216e-02 7.417254e-01 4.677281e+00 2.652875e-01 1.422914e-01 1.789455e-01 1.343326e-01 1.083027e-01 5.825869e-02 6.329359e-02 1.328355e-02 -7.291611e-03 -4.007366e-02 5.187679e-03 -2.055637e-02 -1.017033e-01 8.355465e-02 4.237730e-02 8.595061e-02 1.397961e-02 5.803276e-02 -6.186495e-03 4.107546e-02 -2.900231e-02 3.972082e-02 -1.135935e-02 3.008741e-02 -3.195408e-02 -1.436765e-01
<VARIANCE> 39
 4.648554e+00 4.472571e+00 6.409378e+00 1.045308e+01 1.120986e+01 1.487144e+01 1.457082e+01 1.780241e+01 1.684006e+01 1.730306e+01 1.500969e+01 1.360406e+01 4.723071e+01 2.598683e-01 2.153508e-01 3.309073e-01 4.626769e-01 5.447806e-01 6.571742e-01 7.070556e-01 8.038386e-01 7.667617e-01 8.084263e-01 7.145296e-01 6.149627e-01 1.525888e-01 5.031614e-02 6.582383e-02 8.159292e-02 1.064661e-01 1.183116e-01 1.429689e-01 1.327294e-01 1.730222e-01 1.570297e-01 1.587574e-01 1.316498e-01 1.186011e-01 7.594404e-02
<GCONST> 6.616873e+01
<MIXTURE> 2 2.322893e-01
<MEAN> 39
 3.227860e+00 -3.445497e-02 1.248244e+00 -2.888269e-01 8.482381e-01 -3.762265e-01 -1.614915e-01 -1.658880e+00 -8.758041e-01 -7.678404e-01 -2.312081e-01 -1.225510e+00 -1.489391e+00 3.655793e-01 1.983002e-01 2.331964e-01 2.532482e-02 8.150186e-02 -2.290357e-02 5.738954e-02 -5.553659e-02 1.133505e-01 -9.039839e-03 9.195457e-02 -3.834076e-02 -1.107665e+00 -3.353654e-02 5.722716e-03 3.502758e-02 5.856867e-02 2.720190e-02 1.630347e-03 2.421333e-02 -1.765060e-02 2.223288e-02 2.028353e-02 2.738483e-03 3.214705e-02 -2.727441e-02
<VARIANCE> 39
 1.823914e+01 2.526878e+01 1.967189e+01 3.124504e+01 3.173758e+01 3.698565e+01 3.284972e+01 4.090934e+01 3.118355e+01 2.880880e+01 2.356267e+01 2.180856e+01 1.064070e+02 1.248332e+00 1.763522e+00 1.445495e+00 1.715266e+00 2.018014e+00 2.197505e+00 1.609980e+00 2.078931e+00 1.592649e+00 1.483411e+00 1.226980e+00 1.055596e+00 3.131392e+00 1.296137e-01 2.133376e-01 1.692176e-01 2.609723e-01 2.841045e-01 3.361810e-01 2.680414e-01 3.123312e-01 2.451182e-01 2.432234e-01 2.217607e-01 1.834860e-01 4.462676e-01
<GCONST> 1.045019e+02
<MIXTURE> 3 3.648668e-01
<MEAN> 39
 -1.367371e-01 -6.431295e-02 -1.972484e-01 8.842662e-02 -1.399477e-01 -8.421104e-02 -6.081053e-01 -4.621936e-01 -6.529149e-01 -3.719409e-01 -4.263403e-01 -1.924017e-01 7.469389e-01 1.123273e-01 6.556237e-02 -1.208102e-02 -1.233571e-01 -1.826272e-01 -2.684542e-01 -2.349087e-01 -2.764086e-01 -2.529797e-01 -2.895955e-01 -2.022604e-01 -1.408411e-01 -1.074835e-01 -7.052265e-03 -1.167434e-02 1.037186e-02 5.846815e-03 2.885883e-02 2.843301e-02 5.830697e-02 5.070094e-02 5.668577e-02 3.983679e-02 3.304397e-02 4.459478e-03 -1.598227e-02
<VARIANCE> 39
 4.029934e+00 4.148643e+00 6.181250e+00 9.811718e+00 1.117246e+01 1.424749e+01 1.513796e+01 1.764602e+01 1.668246e+01 1.716871e+01 1.505082e+01 1.390703e+01 3.765287e+01 1.521356e-01 2.013715e-01 2.911180e-01 4.180904e-01 5.008803e-01 5.990259e-01 6.407980e-01 7.385793e-01 7.353584e-01 7.309086e-01 6.655248e-01 6.090394e-01 1.360076e-01 2.199079e-02 3.350202e-02 5.190909e-02 7.853964e-02 9.641343e-02 1.146079e-01 1.223926e-01 1.466003e-01 1.393664e-01 1.339489e-01 1.213318e-01 1.133744e-01 2.267787e-02
<GCONST> 5.952853e+01
<MIXTURE> 4 1.642257e-01
<MEAN> 39
 4.986726e+00 9.626439e-02 3.892476e+00 1.437900e+00 2.357827e+00 -4.003733e-01 2.342234e-01 -4.286730e+00 -1.604602e+00 -1.725356e+00 -7.307518e-01 -2.050034e+00 -1.985266e+00 1.578281e-01 -1.913390e-01 6.733849e-02 -6.825448e-01 -2.342774e-01 -6.666701e-01 -3.951768e-01 -8.195018e-01 -2.803371e-01 -4.722716e-01 -1.063087e-01 -4.773761e-01 -1.997258e+00 -2.321767e-01 -6.905547e-02 -2.502725e-01 -1.139007e-01 -1.342748e-01 1.107736e-02 -4.960023e-02 1.959074e-01 5.623516e-02 9.110746e-02 3.783567e-02 7.443643e-02 1.322668e-01
<VARIANCE> 39
 1.763858e+01 5.282203e+01 3.149557e+01 3.635801e+01 4.663507e+01 5.545713e+01 3.881846e+01 4.263875e+01 4.081638e+01 3.462416e+01 2.781982e+01 2.467387e+01 5.997416e+01 1.045945e+00 1.953486e+00 1.633482e+00 1.508519e+00 1.903640e+00 2.267777e+00 1.739974e+00 2.096346e+00 1.635247e+00 1.495733e+00 1.349016e+00 1.150660e+00 1.436817e+00 1.444259e-01 3.386498e-01 2.500224e-01 2.636035e-01 3.352858e-01 4.072264e-01 3.004468e-01 3.336555e-01 2.969094e-01 2.654898e-01 2.403445e-01 2.042133e-01 2.123717e-01
<GCONST> 1.076429e+02
<TRANSP> 5
 0.000000e+00 1.000000e+00 0.000000e+00 0.000000e+00 0.000000e+00
 0.000000e+00 7.951059e-01 2.048941e-01 0.000000e+00 0.000000e+00
 0.000000e+00 0.000000e+00 2.215411e-01 7.784589e-01 0.000000e+00
 0.000000e+00 0.000000e+00 0.000000e+00 5.884145e-01 4.115856e-01
 0.000000e+00 0.000000e+00 0.000000e+00 0.000000e+00 0.000000e+00
<ENDHMM>
~h "s"
<BEGINHMM>
<NUMSTATES> 5
<STATE> 2
<NUMMIXES> 4
<MIXTURE> 1 2.961173e-01
<MEAN> 39
 1.552445e-01 2.650153e-01 -1.485703e-01 -5.889479e-01 -8.423638e-01 -1.058991e+00 -1.112985e+00 -7.745572e-01 -5.728970e-01 -5.539312e-01 -3.692217e-01 -9.748562e-02 2.286911e-03 1.365290e-02 6.263696e-02 1.023944e-01 1.907553e-01 2.287826e-01 2.579724e-01 2.850273e-01 2.777796e-01 2.676598e-01 2.528991e-01 2.449855e-01 2.121487e-01 2.617361e-02 -2.342314e-02 -1.184838e-02 5.074187e-02 1.425085e-01 1.883535e-01 2.294270e-01 2.307702e-01 1.902497e-01 1.321649e-01 1.313073e-01 8.417924e-02 5.905717e-02 5.027587e-03
<VARIANCE> 39
 1.355743e+00 2.500243e+00 4.462513e+00 6.970377e+00 8.769478e+00 1.090445e+01 1.308073e+01 1.396631e+01 1.497648e+01 1.387764e+01 1.314021e+01 1.202350e+01 3.516366e-01 7.564383e-02 1.373514e-01 2.181105e-01 3.394978e-01 4.232050e-01 4.865367e-01 5.532455e-01 5.968817e-01 6.759740e-01 6.971001e-01 6.396064e-01 5.475979e-01 1.428739e-02 1.377910e-02 2.551056e-02 4.422798e-02 6.166224e-02 8.104719e-02 9.168735e-02 1.073523e-01 1.213731e-01 1.350407e-01 1.191399e-01 1.137210e-01 1.070231e-01 3.074339e-03
<GCONST> 4.212610e+01
<MIXTURE> 2 1.584768e-01
<MEAN> 39
 -7.724555e-01 -6.428199e-01 -1.096754e+00 -2.357810e+00 -1.217608e+00 -1.539178e+00 -5.254723e-01 -1.085229e+00 4.818103e-01 -9.380882e-01 -6.135252e-02 -7.747365e-01 -3.103516e+00 2.860623e-02 5.246549e-02 -7.815535e-02 8.704697e-02 1.131389e-01 -2.494393e-03 2.187661e-01 2.686743e-01 1.419238e-01 1.763878e-01 1.680310e-01 1.390356e-01 -5.928100e-02 2.889670e-02 6.677920e-02 9.511071e-02 1.855786e-01 7.941990e-02 1.675390e-01 7.641019e-02 1.132406e-01 2.629161e-02 9.182475e-02 2.063970e-02 5.462795e-02 2.081595e-01
<VARIANCE> 39
 1.706164e+01 8.693588e+00 1.058226e+01 1.968334e+01 1.641346e+01 2.044502e+01 1.877176e+01 2.154412e+01 1.860543e+01 2.333270e+01 1.717729e+01 1.720306e+01 8.578185e+01 3.378125e-01 3.541796e-01 4.098837e-01 6.346294e-01 6.899369e-01 6.773076e-01 7.075073e-01 8.052931e-01 9.156138e-01 8.258099e-01 7.474708e-01 6.367254e-01 4.362305e-01 1.095005e-01 8.140083e-02 9.335501e-02 1.997276e-01 1.497570e-01 1.918705e-01 1.605883e-01 1.967361e-01 1.596969e-01 1.822294e-01 1.382981e-01 1.485242e-01 1.661597e-01
<GCONST> 7.847895e+01
<MIXTURE> 3 4.250686e-01
<MEAN> 39
 1.619225e-01 1.620591e-01 -3.182912e-01 -9.737066e-01 -1.389696e+00 -1.558987e+00 -1.648542e+00 -1.346063e+00 -1.062302e+00 -9.287685e-01 -6.931460e-01 -5.066627e-01 -5.203112e-03 -9.781764e-02 -1.131015e-01 -9.924418e-02 -9.246349e-03 3.538701e-02 6.565842e-02 7.907274e-02 8.102673e-02 1.426377e-02 2.993818e-02 3.543206e-02 6.007078e-02 -2.076070e-02 -3.222132e-02 -2.773219e-02 3.523913e-02 1.345364e-01 1.806965e-01 2.102548e-01 2.047532e-01 1.614418e-01 1.032167e-01 1.050315e-01 7.215228e-02 5.589321e-02 -1.094133e-03
<VARIANCE> 39
 1.362227e+00 2.688054e+00 4.651242e+00 6.989057e+00 9.091407e+00 1.098515e+01 1.249136e+01 1.412997e+01 1.390723e+01 1.377461e+01 1.327735e+01 1.232790e+01 3.516366e-01 6.537952e-02 1.276354e-01 2.177211e-01 3.210320e-01 4.042189e-01 4.630887e-01 5.257190e-01 6.170993e-01 6.415044e-01 7.013195e-01 6.346282e-01 5.537882e-01 1.299798e-02 1.407703e-02 2.719422e-02 4.433376e-02 6.122607e-02 7.572033e-02 8.699764e-02 9.961952e-02 1.155775e-01 1.261761e-01 1.194657e-01 1.154778e-01 1.050915e-01 2.797195e-03
<GCONST> 4.135672e+01
<MIXTURE> 4 1.203639e-01
<MEAN> 39
 -8.977528e-01 -9.693931e-01 -1.463151e+00 -3.182529e+00 -1.507955e+00 -2.460736e+00 -9.051515e-01 -1.176383e+00 9.498619e-01 -1.509468e+00 4.080310e-01 -9.847212e-01 -6.024919e+00 -2.094717e-01 -2.011194e-01 -3.771358e-01 -3.352028e-01 -2.100646e-01 -4.285304e-01 -2.351926e-02 -8.427149e-02 1.129029e-02 -1.168045e-01 3.453497e-02 -9.162097e-02 -3.678228e-01 5.377030e-02 3.785357e-02 7.953043e-02 1.191129e-01 4.945288e-02 1.260870e-01 4.603210e-02 3.075030e-02 -2.599503e-02 5.306601e-02 -4.857998e-02 -3.259479e-03 2.557513e-01
<VARIANCE> 39
 1.667181e+01 9.932665e+00 9.091107e+00 1.783691e+01 1.378054e+01 2.045772e+01 1.670746e+01 1.835540e+01 2.008533e+01 2.121626e+01 1.791291e+01 1.529618e+01 8.676600e+01 4.151583e-01 5.260921e-01 4.994833e-01 7.252819e-01 6.534275e-01 7.718807e-01 6.999519e-01 7.856088e-01 7.521855e-01 8.456978e-01 7.582769e-01 6.422365e-01 6.866250e-01 8.380253e-02 8.501044e-02 8.002349e-02 1.497982e-01 1.232204e-01 1.554072e-01 1.343825e-01 1.512272e-01 1.498982e-01 1.659344e-01 1.432466e-01 1.255189e-01 1.388092e-01
<GCONST> 7.709995e+01
<STATE> 3
<NUMMIXES> 4
<MIXTURE> 1 2.070490e-01
<MEAN> 39
 -1.584072e+00 -7.276281e-01 -1.430931e+00 -2.791661e+00 -8.264085e-01 -1.953435e+00 -5.841970e-01 -9.445585e-01 1.164996e+00 -1.623542e+00 6.611814e-01 -1.199957e+00 2.996606e-01 2.424031e-01 3.156665e-01 3.118100e-01 6.394463e-01 4.240719e-01 7.384444e-01 4.320066e-01 5.330953e-01 1.210698e-01 4.192800e-01 2.200100e-02 3.915356e-01 7.628498e-01 -1.192462e-02 1.410788e-02 6.371412e-02 2.350039e-01 8.577667e-02 1.948453e-01 9.322075e-02 1.326684e-01 -3.441082e-02 1.514588e-01 -1.739404e-02 1.057611e-01 1.547113e-01
<VARIANCE> 39
 8.469624e+00 7.201835e+00 8.729896e+00 1.525182e+01 1.328969e+01 1.626128e+01 1.521953e+01 1.766557e+01 1.984375e+01 2.722210e+01 2.075435e+01 1.843417e+01 9.940960e+00 3.945433e-01 4.037700e-01 3.787253e-01 7.181308e-01 5.740400e-01 7.001578e-01 6.933256e-01 7.520043e-01 8.459550e-01 8.829200e-01 7.788744e-01 6.496834e-01 8.942518e-01 4.485304e-02 5.010618e-02 5.912323e-02 1.114239e-01 9.924906e-02 1.192042e-01 1.182466e-01 1.421302e-01 1.473109e-01 2.040443e-01 1.497401e-01 1.399285e-01 6.036354e-02
<GCONST> 7.057748e+01
<MIXTURE> 2 2.566043e-01
<MEAN> 39
 -9.887396e-01 -9.103164e-03 -1.341376e+00 -2.189888e+00 -1.298901e+00 -1.332754e+00 4.511721e-01 -1.151607e+00 1.027224e+00 -3.306466e-01 -1.100727e-01 -8.762209e-01 -5.500814e+00 -3.056074e-03 8.885743e-02 6.548037e-02 2.245479e-01 1.771096e-01 2.147580e-01 1.338083e-01 2.271998e-01 5.250178e-02 1.527671e-01 6.694416e-02 1.528868e-01 7.878604e-01 1.033475e-02 -1.131150e-02 3.345937e-02 7.564269e-02 3.155309e-02 4.369263e-02 -4.309585e-02 3.888097e-02 -2.954840e-02 -1.307845e-03 1.674244e-02 2.492632e-02 1.590210e-01
<VARIANCE> 39
 2.284615e+01 1.731209e+01 1.965871e+01 2.277135e+01 2.226922e+01 2.378566e+01 2.249528e+01 2.626717e+01 2.590837e+01 2.869797e+01 2.183407e+01 1.794988e+01 8.087290e+01 1.087966e+00 8.188242e-01 8.634990e-01 1.134944e+00 9.984796e-01 1.094515e+00 1.029730e+00 1.175649e+00 1.192153e+00 1.188576e+00 9.385002e-01 7.766927e-01 3.227963e+00 1.580268e-01 1.423167e-01 1.464913e-01 2.070111e-01 1.789225e-01 2.040930e-01 1.878059e-01 2.188291e-01 2.077186e-01 2.105424e-01 1.730285e-01 1.410746e-01 3.985836e-01
<GCONST> 9.318450e+01
<MIXTURE> 3 3.611485e-01
<MEAN> 39
 -1.672890e+00 -1.377338e+00 -1.432931e+00 -2.491578e+00 -1.271015e+00 -2.118109e+00 -8.648667e-01 -1.097580e+00 5.457826e-01 -1.297122e+00 5.069339e-01 -1.087397e+00 -1.372422e+00 -9.228355e-02 -4.866770e-02 2.136817e-03 1.570228e-01 1.518050e-01 1.658850e-01 1.526274e-01 1.154250e-01 5.671019e-02 7.138439e-02 6.146277e-02 4.400978e-02 1.299245e-01 6.082931e-02 6.034327e-02 6.802727e-02 6.135567e-02 6.558149e-02 8.556170e-02 4.258800e-02 2.912838e-02 1.540963e-03 1.867969e-02 -2.227733e-02 5.591669e-03 4.427154e-02
<VARIANCE> 39
 1.029319e+01 8.206327e+00 9.283859e+00 1.452514e+01 1.296569e+01 1.621995e+01 1.552985e+01 1.740989e+01 1.844225e+01 1.979364e+01 1.843606e+01 1.591587e+01 1.815201e+01 2.052325e-01 2.461053e-01 2.952901e-01 4.733272e-01 4.973435e-01 5.794212e-01 6.496109e-01 7.260936e-01 7.044114e-01 7.216886e-01 6.889610e-01 6.075013e-01 2.809863e-01 3.580742e-02 4.677070e-02 5.732889e-02 8.892904e-02 9.288253e-02 1.052204e-01 1.159728e-01 1.316343e-01 1.298933e-01 1.377219e-01 1.324322e-01 1.118619e-01 4.218793e-02
<GCONST> 6.479796e+01
<MIXTURE> 4 1.751994e-01
<MEAN> 39
 2.639911e-01 -2.319922e-01 -6.391613e-01 -2.615792e+00 -1.130086e+00 -2.020311e+00 -8.482600e-01 -1.481749e+00 2.677783e-01 -1.583139e+00 -1.147821e-01 -1.416759e+00 -7.462831e+00 -2.281633e-01 -2.071308e-01 -2.334765e-01 -3.612420e-01 -1.622175e-01 -3.217956e-01 -2.174040e-01 -2.713286e-01 1.717142e-02 -2.520038e-01 -3.413697e-02 -2.506366e-01 5.930951e-01 -5.469873e-02 -2.235626e-02 -4.371254e-02 1.532474e-02 -2.978450e-02 4.500398e-03 1.349192e-02 4.820498e-03 1.305001e-03 2.032572e-02 -8.610526e-03 1.259326e-02 4.625403e-02
<VARIANCE> 39
 1.791588e+01 1.466707e+01 1.495124e+01 2.300616e+01 2.143263e+01 2.520737e+01 2.180574e+01 2.472757e+01 2.360212e+01 2.376012e+01 2.043171e+01 1.800904e+01 8.183456e+01 9.355804e-01 7.946249e-01 7.258942e-01 1.048446e+00 9.095362e-01 1.099502e+00 9.731776e-01 1.041594e+00 1.041890e+00 1.077775e+00 9.207203e-01 7.982970e-01 3.377040e+00 1.318288e-01 1.278543e-01 1.197909e-01 2.004514e-01 1.629873e-01 2.001692e-01 1.810055e-01 1.985060e-01 1.831673e-01 1.800394e-01 1.594490e-01 1.477197e-01 3.650432e-01
<GCONST> 9.005309e+01
<STATE> 4
<NUMMIXES> 4
<MIXTURE> 1 1.593044e-01
<MEAN> 39
 -2.545440e-01 1.151322e+00 5.371111e-01 1.477673e+00 1.117807e+00 2.060913e+00 1.135555e+00 1.620074e+00 9.141628e-01 8.920898e-01 -8.262074e-02 9.790477e-01 6.098133e+00 8.383143e-02 2.196441e-01 3.795923e-01 1.351238e+00 4.851299e-01 1.059952e+00 3.818282e-01 7.762997e-01 -2.633897e-01 7.449941e-01 -7.470796e-02 6.870425e-01 1.528054e+00 -2.144530e-01 -1.769153e-01 -1.530349e-01 -1.079611e-01 -1.033104e-01 -1.623002e-01 -6.794746e-02 -9.254480e-02 -1.532963e-02 -4.574889e-02 7.009479e-02 -5.812904e-02 -1.852040e-01
<VARIANCE> 39
 5.523737e+00 5.419489e+00 7.661455e+00 1.435555e+01 1.370176e+01 1.572114e+01 1.795489e+01 1.932502e+01 2.077419e+01 2.351103e+01 1.775332e+01 1.492105e+01 2.600456e+01 3.937398e-01 4.264131e-01 4.010992e-01 7.960343e-01 7.761844e-01 8.104048e-01 8.165175e-01 9.125333e-01 9.543807e-01 1.510660e+00 1.096215e+00 8.898662e-01 9.303808e-01 4.561535e-02 5.171645e-02 6.329738e-02 1.104642e-01 1.067860e-01 1.182047e-01 1.409817e-01 1.471544e-01 1.504963e-01 1.788903e-01 1.284265e-01 1.238805e-01 6.401631e-02
<GCONST> 7.284779e+01
<MIXTURE> 2 4.452465e-01
<MEAN> 39
 -4.745240e-01 -1.336742e-01 -2.047779e-01 4.239146e-01 3.119870e-01 5.601113e-01 6.492559e-01 8.103012e-01 5.303459e-01 6.443361e-01 6.294538e-01 7.378841e-01 8.011403e-01 -8.775361e-02 -2.339298e-02 9.276607e-02 3.277647e-01 3.909437e-01 4.430656e-01 4.050526e-01 3.615724e-01 2.624552e-01 2.625908e-01 2.057538e-01 1.605262e-01 4.666150e-02 3.084219e-02 2.866919e-02 2.921133e-02 -1.229109e-02 -1.440848e-02 -2.836215e-02 -4.420819e-02 -5.492876e-02 -3.197084e-02 -4.647072e-02 -5.694448e-02 -5.734000e-02 -1.113274e-02
<VARIANCE> 39
 2.867787e+00 2.960432e+00 5.132094e+00 7.960063e+00 9.233967e+00 1.155629e+01 1.279210e+01 1.474597e+01 1.526227e+01 1.505340e+01 1.379455e+01 1.288369e+01 9.284145e+00 1.049872e-01 1.393953e-01 2.249003e-01 3.557327e-01 4.315587e-01 4.947732e-01 5.904117e-01 6.283652e-01 6.880091e-01 6.251218e-01 5.517448e-01 5.290744e-01 3.980003e-02 1.708764e-02 2.677537e-02 4.649211e-02 7.038727e-02 7.994507e-02 9.020761e-02 1.051598e-01 1.166427e-01 1.341625e-01 1.378155e-01 1.269857e-01 1.091287e-01 9.901326e-03
<GCONST> 5.006754e+01
<MIXTURE> 3 1.608583e-01
<MEAN> 39
 -9.450555e-01 -3.961571e-01 -5.215845e-01 5.576947e-01 1.558849e-01 5.176335e-01 1.253994e-01 4.950953e-01 -2.087387e-02 2.377340e-01 1.407272e-01 5.488248e-01 2.254718e+00 -1.775517e-01 -1.485179e-01 -1.306702e-01 8.036987e-02 5.407764e-02 5.430075e-02 -2.506032e-04 4.787734e-02 -7.791197e-02 -4.844629e-02 2.637487e-03 -9.380459e-03 1.165335e-01 4.297879e-02 2.663566e-02 1.171343e-02 -1.093203e-01 -5.184732e-02 -6.663982e-02 -2.825178e-02 -9.440269e-02 1.354045e-03 -6.372582e-02 -5.252255e-02 -8.332396e-02 -1.049481e-01
<VARIANCE> 39
 8.352457e+00 4.462217e+00 6.516811e+00 1.110526e+01 1.141840e+01 1.372359e+01 1.507590e+01 1.730706e+01 1.699202e+01 1.714367e+01 1.555624e+01 1.397450e+01 5.020119e+01 1.800498e-01 2.048905e-01 2.834873e-01 4.376185e-01 5.057149e-01 5.763368e-01 6.586584e-01 6.783342e-01 7.636371e-01 7.329285e-01 6.132321e-01 5.929866e-01 1.504748e-01 2.894195e-02 3.894267e-02 5.638522e-02 9.540903e-02 9.706801e-02 1.151115e-01 1.211234e-01 1.298556e-01 1.436856e-01 1.594772e-01 1.383349e-01 1.127786e-01 6.886110e-02
<GCONST> 6.298484e+01
<MIXTURE> 4 2.346127e-01
<MEAN> 39
 -1.602909e+00 8.904375e-02 -3.894566e-01 2.108563e+00 7.439073e-01 2.066602e+00 9.039896e-01 1.865913e+00 1.083404e-01 1.326172e+00 8.982807e-03 1.360446e+00 8.003911e+00 -2.412524e-01 -1.248951e-01 2.044865e-02 8.368137e-01 2.254120e-01 4.814681e-01 8.449551e-02 4.467219e-01 -3.247803e-01 3.638311e-01 1.441646e-02 3.383616e-01 1.071805e+00 -1.188413e-01 -1.029875e-01 -1.279986e-01 -2.927974e-01 -1.142548e-01 -2.309781e-01 -8.004820e-02 -1.925665e-01 5.843525e-02 -1.724502e-01 2.830524e-02 -1.499320e-01 -3.933637e-01
<VARIANCE> 39
 3.853643e+00 4.038827e+00 6.097312e+00 1.097516e+01 1.113342e+01 1.323521e+01 1.561294e+01 1.661916e+01 1.733409e+01 1.763420e+01 1.458505e+01 1.353443e+01 2.435122e+01 3.340129e-01 3.225458e-01 4.121374e-01 6.688603e-01 6.918026e-01 7.814093e-01 8.296913e-01 9.113050e-01 9.436284e-01 1.386497e+00 9.238037e-01 8.258625e-01 7.315849e-01 5.019616e-02 5.405901e-02 6.207715e-02 1.153326e-01 1.109674e-01 1.271130e-01 1.416845e-01 1.474626e-01 1.674437e-01 1.902029e-01 1.512788e-01 1.260100e-01 8.611438e-02
<GCONST> 6.981456e+01
<TRANSP> 5
 0.000000e+00 1.000000e+00 0.000000e+00 0.000000e+00 0.000000e+00
 0.000000e+00 1.920121e-01 8.079880e-01 0.000000e+00 0.000000e+00
 0.000000e+00 0.000000e+00 7.038038e-01 2.961962e-01 0.000000e+00
 0.000000e+00 0.000000e+00 0.000000e+00 3.854440e-01 6.145560e-01
 0.000000e+00 0.000000e+00 0.000000e+00 0.000000e+00 0.000000e+00
<ENDHMM>
~h "t"
<BEGINHMM>
<NUMSTATES> 5
<STATE> 2
<NUMMIXES> 4
<MIXTURE> 1 2.497337e-01
<MEAN> 39
 -1.309178e+00 -1.147759e-01 -7.784025e-01 4.750210e-01 -2.561877e-01 6.611578e-01 7.497877e-01 1.433227e+00 5.736837e-01 9.648117e-01 5.189956e-01 1.015386e+00 4.107944e-01 -2.102639e-01 -7.017796e-02 3.041602e-02 3.336690e-01 2.979549e-01 4.279059e-01 2.438100e-01 3.274465e-01 1.959803e-01 2.955838e-01 2.038156e-01 1.795756e-01 1.640275e+00 5.869079e-02 5.477211e-02 6.439727e-02 -8.256715e-04 5.364970e-02 9.877719e-04 -3.362447e-03 -1.882966e-02 1.072789e-02 -2.539575e-02 -4.901344e-03 -3.829999e-02 3.258824e-02
<VARIANCE> 39
 5.879006e+00 4.510880e+00 5.987624e+00 1.284682e+01 1.280417e+01 1.724595e+01 1.533214e+01 1.729975e+01 1.656118e+01 1.671497e+01 1.480441e+01 1.323920e+01 1.751938e+02 3.465127e-01 2.588989e-01 3.217675e-01 5.782775e-01 5.828080e-01 7.203112e-01 6.656440e-01 7.571095e-01 7.961244e-01 7.701913e-01 6.659280e-01 6.306881e-01 6.123911e+00 5.401810e-02 5.251312e-02 6.621931e-02 1.119700e-01 1.116647e-01 1.463640e-01 1.330616e-01 1.458078e-01 1.467440e-01 1.503315e-01 1.306100e-01 1.198649e-01 8.198389e-01
<GCONST> 7.415751e+01
<MIXTURE> 2 2.016109e-01
<MEAN> 39
 1.642374e+00 1.881997e+00 1.032076e+00 -5.770806e-01 -2.612079e-01 -9.973544e-01 -4.679491e-01 -5.863079e-01 1.412843e-01 -4.953609e-01 -2.345805e-01 -4.812714e-01 -3.977232e+00 1.906795e-01 1.973656e-01 1.465977e-01 3.499163e-02 9.980049e-02 -3.273641e-02 5.944497e-02 6.302622e-02 1.132213e-01 8.575379e-02 1.105001e-01 -7.187355e-03 -4.988956e-01 -9.974664e-02 -9.676220e-02 -5.331502e-02 3.845828e-02 3.062238e-02 4.999368e-02 3.145736e-02 6.663743e-02 2.615474e-02 5.031399e-02 4.898418e-02 4.820534e-02 1.713138e-01
<VARIANCE> 39
 2.497858e+01 1.963403e+01 1.950165e+01 2.399786e+01 2.324049e+01 2.843784e+01 2.470674e+01 2.496431e+01 2.381340e+01 2.531270e+01 2.079001e+01 1.897862e+01 1.491879e+02 1.965125e+00 1.308133e+00 1.316079e+00 1.131988e+00 1.177214e+00 1.617105e+00 1.180671e+00 1.336634e+00 1.163991e+00 1.246830e+00 1.043052e+00 9.338199e-01 1.008421e+01 2.487043e-01 2.087260e-01 2.117921e-01 2.065703e-01 2.073476e-01 2.746334e-01 2.138208e-01 2.175508e-01 2.101061e-01 2.256421e-01 1.867214e-01 1.739812e-01 1.376156e+00
<GCONST> 1.012458e+02
<MIXTURE> 3 3.960377e-01
<MEAN> 39
 -1.324512e+00 -3.769310e-01 -1.037024e+00 -8.105442e-02 -5.360216e-01 3.299929e-01 3.202401e-01 1.032485e+00 4.518471e-01 6.906170e-01 3.757761e-01 7.035710e-01 1.447180e+00 -5.980311e-02 -6.524982e-02 -3.109029e-02 -2.143860e-02 1.102838e-02 -1.488736e-02 -8.693458e-02 -6.328206e-02 -7.825461e-02 -5.035089e-02 -5.162872e-02 -4.004959e-02 7.160699e-01 7.593059e-02 5.182388e-02 6.614576e-02 5.622651e-03 3.463999e-02 -2.498526e-02 -2.721414e-02 -6.047926e-02 -4.384640e-02 -6.293689e-02 -4.629101e-02 -5.200328e-02 -1.238078e-01
<VARIANCE> 39
 5.668643e+00 4.228231e+00 5.517749e+00 1.108797e+01 1.143483e+01 1.562486e+01 1.389448e+01 1.595268e+01 1.590370e+01 1.557603e+01 1.387339e+01 1.323432e+01 1.569235e+02 2.811738e-01 2.551513e-01 3.146288e-01 5.178571e-01 5.557166e-01 6.637045e-01 6.672503e-01 7.693336e-01 7.874266e-01 7.648892e-01 6.622460e-01 6.318950e-01 3.049705e+00 4.615278e-02 4.645092e-02 5.923339e-02 1.001865e-01 1.043214e-01 1.369429e-01 1.307052e-01 1.424322e-01 1.405454e-01 1.382723e-01 1.257319e-01 1.157380e-01 5.457352e-01
<GCONST> 7.067807e+01
<MIXTURE> 4 1.526150e-01
<MEAN> 39
 2.336394e+00 2.012939e+00 1.386360e+00 -1.253060e+00 -4.573173e-01 -2.577440e+00 -1.612465e+00 -1.411713e+00 -3.055402e-01 -1.260118e+00 3.413533e-02 -8.416539e-01 -4.454107e+00 1.107648e-01 -5.499578e-02 -4.580455e-02 -5.422486e-01 -1.022386e-01 -5.627859e-01 -3.162234e-01 -3.878562e-01 -9.295458e-02 -4.067836e-01 -1.072226e-01 -3.044936e-01 -1.069889e+00 -1.497480e-01 -1.400202e-01 -1.055287e-01 1.808798e-02 9.991340e-04 1.209166e-01 8.592647e-02 7.478376e-02 2.176538e-02 5.105198e-02 -2.210169e-02 3.205170e-02 6.574629e-02
<VARIANCE> 39
 2.651871e+01 2.303195e+01 2.130778e+01 2.771530e+01 2.396851e+01 2.827703e+01 2.250344e+01 2.611404e+01 2.790963e+01 2.470066e+01 2.159009e+01 1.871737e+01 1.219418e+02 1.644307e+00 1.264498e+00 1.180482e+00 1.246932e+00 1.230769e+00 1.421287e+00 1.164377e+00 1.259791e+00 1.319728e+00 1.215703e+00 1.016647e+00 1.004724e+00 8.026439e+00 2.535625e-01 2.087815e-01 1.999130e-01 2.105889e-01 1.936506e-01 2.605569e-01 1.923430e-01 2.286173e-01 2.299144e-01 2.116990e-01 1.764486e-01 1.606759e-01 1.121552e+00
<GCONST> 1.006585e+02
<STATE> 3
<NUMMIXES> 4
<MIXTURE> 1 2.296920e-01
<MEAN> 39
 -3.551935e-02 1.370474e-01 -3.774934e-01 -7.738886e-01 -5.171936e-01 -3.890903e-01 -4.011842e-01 2.557120e-01 3.777669e-01 5.798555e-01 4.213507e-01 2.608327e-01 1.253874e+00 -2.360936e-01 8.116762e-02 1.751270e-01 7.957410e-01 3.860593e-01 6.716281e-01 3.332461e-01 4.279269e-01 1.868443e-01 3.585193e-01 1.017383e-01 2.811249e-01 3.112210e-01 -3.281018e-03 -1.676445e-03 2.806274e-02 3.721920e-02 5.731530e-02 3.805069e-02 4.284144e-02 -4.541211e-03 -1.089981e-02 -4.793596e-02 -1.938469e-02 -2.669981e-02 -3.933841e-02
<VARIANCE> 39
 4.885983e+00 4.719446e+00 6.520286e+00 1.544547e+01 1.108485e+01 1.659164e+01 1.585938e+01 1.666588e+01 1.672818e+01 1.768526e+01 1.508196e+01 1.529473e+01 1.512432e+01 2.870829e-01 3.009150e-01 3.087093e-01 9.035193e-01 6.070404e-01 8.325413e-01 7.629480e-01 8.484870e-01 9.077972e-01 8.349516e-01 7.758278e-01 7.889605e-01 2.070473e-01 3.313294e-02 3.870537e-02 5.841714e-02 1.421300e-01 9.678047e-02 1.414710e-01 1.356423e-01 1.494076e-01 1.411843e-01 1.526493e-01 1.378475e-01 1.356179e-01 3.234458e-02
<GCONST> 6.599236e+01
<MIXTURE> 2 2.360210e-01
<MEAN> 39
 4.357500e+00 -2.576358e-01 1.690693e+00 -4.215184e+00 8.905276e-01 -2.539156e+00 -1.858706e+00 -3.512856e+00 -4.949139e-01 -2.548653e+00 -1.944961e-01 -2.782862e+00 -5.018888e+00 1.586989e-02 1.016415e-01 7.535300e-02 3.346663e-01 -3.432227e-02 2.893539e-01 1.948263e-01 7.891059e-02 -2.061166e-02 2.027021e-01 3.095221e-02 1.820218e-01 -4.310187e-01 -1.360680e-01 3.390031e-02 -4.202441e-02 2.422243e-01 -1.931260e-02 1.783398e-01 8.094646e-02 1.627094e-01 2.079053e-02 1.467213e-01 2.468296e-02 1.647573e-01 1.380020e-01
<VARIANCE> 39
 1.817360e+01 1.735284e+01 1.635833e+01 3.518123e+01 2.614669e+01 3.432089e+01 2.794574e+01 3.178770e+01 3.249484e+01 3.017212e+01 2.754311e+01 2.175959e+01 4.294754e+01 5.109764e-01 5.865642e-01 5.929576e-01 1.225683e+00 9.119868e-01 1.251657e+00 1.102672e+00 1.300756e+00 1.061853e+00 1.200875e+00 1.069860e+00 1.001999e+00 8.894932e-01 8.886015e-02 1.052057e-01 1.052661e-01 2.449701e-01 1.918262e-01 2.604407e-01 1.884716e-01 2.092115e-01 2.112875e-01 2.245271e-01 2.030084e-01 1.833392e-01 6.833587e-02
<GCONST> 9.000056e+01
<MIXTURE> 3 3.639100e-01
<MEAN> 39
 7.859635e-02 -5.297970e-02 -3.426334e-01 -9.328575e-01 -7.749055e-01 -8.565575e-01 -7.201366e-01 -4.159884e-01 -2.153783e-01 -9.628767e-02 1.250296e-01 9.921348e-02 7.017304e-01 -5.400955e-02 -1.949995e-02 2.231961e-02 1.453104e-01 1.081116e-01 1.202733e-01 6.883092e-03 -5.232079e-02 -1.121739e-01 -8.486833e-02 -8.684584e-02 -3.455826e-02 5.264543e-02 1.436256e-02 -1.674918e-03 2.407729e-02 2.866384e-02 5.169099e-02 3.491070e-02 2.391576e-02 -1.637706e-02 -2.134852e-02 -5.450926e-02 -5.536126e-02 -5.191540e-02 -5.109859e-02
<VARIANCE> 39
 5.017865e+00 4.410968e+00 6.124041e+00 1.353471e+01 1.107938e+01 1.520983e+01 1.532361e+01 1.660175e+01 1.637674e+01 1.724396e+01 1.562190e+01 1.419476e+01 1.339792e+01 1.880569e-01 1.881689e-01 2.638216e-01 4.943674e-01 5.475537e-01 6.751484e-01 7.074001e-01 7.362499e-01 7.450356e-01 7.356816e-01 6.609644e-01 6.073115e-01 8.557196e-02 3.376058e-02 3.783445e-02 5.429914e-02 1.021927e-01 9.066171e-02 1.249727e-01 1.268458e-01 1.382905e-01 1.406672e-01 1.428082e-01 1.355759e-01 1.228948e-01 4.038884e-02
<GCONST> 6.090733e+01
<MIXTURE> 4 1.703988e-01
<MEAN> 39
 4.211318e+00 -1.189942e+00 1.505813e+00 -3.717973e+00 1.491694e+00 -1.762785e+00 -1.958102e+00 -4.319511e+00 -8.205379e-01 -2.677920e+00 -4.045196e-01 -2.621097e+00 -4.960157e+00 1.236184e-01 -2.172063e-01 -1.343005e-01 -1.892983e-01 -3.430324e-01 -2.951401e-01 -1.956627e-01 -4.864751e-01 -3.045631e-01 -2.772258e-01 -1.523477e-01 -1.755323e-01 -8.772010e-01 -9.005436e-02 7.396391e-02 -2.971893e-02 1.093248e-01 -7.611789e-02 6.518339e-02 3.282642e-02 1.505032e-01 3.395615e-02 8.848414e-02 -1.101974e-02 7.862984e-02 9.135409e-02
<VARIANCE> 39
 1.499268e+01 1.164092e+01 1.450650e+01 3.299123e+01 3.019708e+01 3.742942e+01 3.300375e+01 3.449860e+01 3.118787e+01 3.181398e+01 2.568142e+01 2.224785e+01 3.980819e+01 6.889070e-01 5.830008e-01 5.921838e-01 1.551641e+00 1.064093e+00 1.468183e+00 1.234174e+00 1.438260e+00 1.227232e+00 1.259699e+00 9.516750e-01 9.714719e-01 6.124641e-01 8.558662e-02 7.739908e-02 8.728942e-02 1.760211e-01 1.945124e-01 2.383666e-01 2.067856e-01 2.316321e-01 2.041353e-01 1.970686e-01 1.789999e-01 1.689324e-01 7.655216e-02
<GCONST> 8.931580e+01
<STATE> 4
<NUMMIXES> 4
<MIXTURE> 1 2.695571e-01
<MEAN> 39
 -9.991488e-01 -5.295641e-02 -1.341354e-01 1.265168e+00 8.587424e-01 1.309044e+00 8.326007e-01 1.348785e+00 6.523338e-01 1.018242e+00 6.777183e-01 8.276367e-01 2.781149e+00 -2.367065e-02 7.618647e-02 2.286118e-01 3.926764e-01 3.920614e-01 4.280080e-01 3.239053e-01 2.492727e-01 1.882704e-01 1.803590e-01 1.145099e-01 5.786341e-02 6.392810e-02 2.569207e-02 1.472537e-02 6.032711e-03 -3.330929e-02 -3.853823e-02 -3.601651e-02 -2.446369e-02 -2.908456e-02 -2.193687e-02 -3.462136e-02 -2.525106e-02 -2.143303e-02 -1.829356e-02
<VARIANCE> 39
 2.857229e+00 2.864587e+00 5.024457e+00 9.026466e+00 9.876064e+00 1.223605e+01 1.400273e+01 1.430827e+01 1.518674e+01 1.595804e+01 1.434597e+01 1.244828e+01 1.996123e+01 1.242943e-01 1.553428e-01 2.485746e-01 3.917393e-01 4.384939e-01 5.672989e-01 6.690984e-01 7.168688e-01 6.969299e-01 6.834722e-01 6.681987e-01 5.672488e-01 2.968315e-02 1.723516e-02 2.436316e-02 4.318228e-02 6.655373e-02 8.591691e-02 1.027933e-01 1.204540e-01 1.263266e-01 1.363170e-01 1.458860e-01 1.242518e-01 1.101402e-01 4.738510e-03
<GCONST> 5.162296e+01
<MIXTURE> 2 1.486687e-01
<MEAN> 39
 -2.724843e-01 1.373393e-01 2.894343e-01 7.348301e-01 3.573684e-01 4.139526e-01 -6.679960e-02 1.128195e-01 -4.129706e-02 3.554120e-01 6.547880e-02 2.387200e-01 4.838765e-01 -9.203684e-02 -3.285201e-02 -6.939380e-02 9.807301e-02 -1.562238e-02 9.934219e-02 1.306775e-01 1.901776e-01 9.324753e-02 9.458207e-02 6.547555e-02 1.259508e-01 7.112471e-03 3.802305e-02 1.721963e-02 1.610326e-02 -2.768700e-02 2.931279e-02 1.140388e-02 8.674392e-03 1.111065e-02 4.749267e-02 1.594539e-02 2.291725e-02 -6.313164e-03 -9.060587e-03
<VARIANCE> 39
 1.387438e+01 7.955419e+00 9.960795e+00 1.535322e+01 1.461717e+01 2.012853e+01 1.919070e+01 2.045312e+01 2.042935e+01 1.918038e+01 1.654789e+01 1.414177e+01 9.002270e+01 2.436545e-01 2.638276e-01 3.403822e-01 4.543658e-01 5.752553e-01 6.339680e-01 8.316084e-01 8.647811e-01 8.969245e-01 7.259643e-01 7.234082e-01 6.026353e-01 1.845868e-01 5.249210e-02 5.181359e-02 6.928889e-02 1.178561e-01 1.121663e-01 1.469050e-01 1.631348e-01 1.678170e-01 1.636964e-01 1.494556e-01 1.328132e-01 1.150028e-01 3.762151e-02
<GCONST> 7.050497e+01
<MIXTURE> 3 4.522356e-01
<MEAN> 39
 -7.409362e-01 -3.653511e-02 -1.626516e-01 8.487636e-01 4.210465e-01 7.779206e-01 2.977605e-01 7.393250e-01 3.156491e-01 6.386259e-01 4.050514e-01 5.087733e-01 2.166874e+00 -5.419081e-02 -3.131032e-02 5.886991e-02 2.079073e-01 2.143870e-01 2.012092e-01 4.820799e-02 -4.707216e-02 -9.140189e-02 -1.160664e-01 -1.680369e-01 -1.045800e-01 4.121467e-02 1.120037e-02 -1.541039e-02 -2.286897e-02 -6.771810e-02 -5.536045e-02 -6.067799e-02 -2.450894e-02 -3.746433e-02 -4.479091e-02 -5.513768e-02 -5.291096e-02 -3.465969e-02 -3.053125e-02
<VARIANCE> 39
 2.802644e+00 2.671217e+00 4.746576e+00 8.220532e+00 9.332508e+00 1.190843e+01 1.400360e+01 1.478434e+01 1.531095e+01 1.557307e+01 1.387591e+01 1.278322e+01 1.541740e+01 1.105499e-01 1.522117e-01 2.404423e-01 3.881624e-01 4.549107e-01 5.878551e-01 6.711508e-01 6.773589e-01 7.090836e-01 6.759765e-01 6.565877e-01 5.858876e-01 2.636259e-02 1.846969e-02 2.621160e-02 4.191643e-02 7.869461e-02 8.551385e-02 1.058136e-01 1.177597e-01 1.320167e-01 1.345453e-01 1.359338e-01 1.169388e-01 1.091538e-01 6.313611e-03
<GCONST> 5.125165e+01
<MIXTURE> 4 1.295618e-01
<MEAN> 39
 1.125566e+00 2.807793e-01 4.220339e-01 -3.161832e-01 -1.753967e-01 -7.387583e-01 -4.646841e-01 -1.180388e+00 -6.096608e-01 -5.747567e-01 -1.110639e-01 -4.813462e-01 -5.758609e+00 -2.453744e-01 -1.543258e-01 -2.940172e-01 -1.078108e-01 -2.561399e-01 -1.240400e-01 1.715277e-02 1.144652e-01 -2.262765e-02 -9.773636e-02 -9.163173e-02 6.239963e-02 -2.252373e-01 4.362168e-02 -1.005273e-03 1.954355e-02 -5.836884e-02 9.952491e-03 -3.352828e-02 -3.491322e-02 -2.208784e-02 1.362205e-02 -5.022571e-02 -3.560425e-02 -4.986332e-02 4.292606e-02
<VARIANCE> 39
 1.547314e+01 8.252090e+00 9.364506e+00 1.521143e+01 1.515295e+01 1.902765e+01 1.706259e+01 2.264664e+01 2.000408e+01 1.855207e+01 1.611801e+01 1.439850e+01 1.135617e+02 2.891774e-01 3.308667e-01 3.409085e-01 5.445224e-01 5.597984e-01 7.488098e-01 8.343335e-01 8.502930e-01 8.303769e-01 6.459975e-01 7.269090e-01 6.149433e-01 2.846889e-01 4.313885e-02 5.415607e-02 6.305663e-02 1.091905e-01 1.145201e-01 1.238443e-01 1.344174e-01 1.524023e-01 1.599128e-01 1.371418e-01 1.236582e-01 1.205536e-01 4.649135e-02
<GCONST> 7.099915e+01
<TRANSP> 5
 0.000000e+00 1.000000e+00 0.000000e+00 0.000000e+00 0.000000e+00
 0.000000e+00 7.353158e-01 2.646842e-01 0.000000e+00 0.000000e+00
 0.000000e+00 0.000000e+00 5.408279e-01 4.591721e-01 0.000000e+00
 0.000000e+00 0.000000e+00 0.000000e+00 3.280946e-01 6.719053e-01
 0.000000e+00 0.000000e+00 0.000000e+00 0.000000e+00 0.000000e+00
<ENDHMM>
~h "v"
<BEGINHMM>
<NUMSTATES> 5
<STATE> 2
<NUMMIXES> 4
<MIXTURE> 1 1.483052e-01
<MEAN> 39
 -2.169401e+00 -2.017539e-01 -5.648636e-01 2.517681e+00 1.102441e+00 2.037875e+00 4.616425e-01 2.194551e+00 4.064837e-01 1.517139e+00 2.994148e-01 1.552058e+00 9.133471e+00 2.965210e-01 6.035113e-02 1.121285e-01 5.416421e-02 7.866427e-02 1.330011e-01 1.052261e-01 7.989398e-02 7.480343e-02 4.223491e-02 3.883768e-02 -5.920386e-03 2.855742e-02 1.396346e-01 1.091153e-02 1.670775e-03 -2.287639e-02 2.598909e-02 7.196149e-02 7.087495e-02 1.337084e-02 -2.098228e-02 -1.641228e-02 -1.187637e-02 -1.685949e-02 -3.159196e-02
<VARIANCE> 39
 2.804709e+00 3.467977e+00 5.367877e+00 7.829335e+00 9.894027e+00 1.299117e+01 1.354801e+01 1.557222e+01 1.571482e+01 1.524362e+01 1.577473e+01 1.292276e+01 1.662496e+01 9.559104e-02 1.402474e-01 2.249040e-01 3.451975e-01 4.176633e-01 5.312095e-01 4.933704e-01 6.636328e-01 6.866075e-01 6.939415e-01 6.735040e-01 5.849689e-01 1.286821e-02 3.334230e-02 2.655677e-02 4.346957e-02 6.374031e-02 8.160919e-02 9.718800e-02 1.187905e-01 1.258120e-01 1.357673e-01 1.334292e-01 1.278303e-01 1.082674e-01 4.450462e-03
<GCONST> 5.032536e+01
<MIXTURE> 2 4.097330e-01
<MEAN> 39
 1.225432e-01 6.050842e-01 8.089894e-01 6.919062e-01 2.180686e-01 -2.557859e-01 -5.728058e-01 -7.855043e-01 -1.152197e+00 -9.357886e-01 -5.894206e-01 -1.704248e-01 1.693833e-01 8.613800e-02 7.784994e-02 2.343298e-02 -9.216332e-02 -1.972782e-01 -2.393374e-01 -2.254939e-01 -1.707122e-01 -8.658059e-02 -7.058772e-02 -2.089658e-02 1.090382e-02 2.031640e-02 -2.502518e-02 -5.767079e-02 -8.035506e-02 -4.155013e-02 2.503688e-02 9.581922e-02 1.396515e-01 1.727366e-01 2.038529e-01 1.786956e-01 1.204524e-01 4.746698e-02 -9.648334e-03
<VARIANCE> 39
 1.132674e+00 2.482148e+00 4.197444e+00 6.782040e+00 8.729802e+00 1.159973e+01 1.204739e+01 1.334740e+01 1.388308e+01 1.449586e+01 1.462607e+01 1.223506e+01 3.516366e-01 5.359818e-02 1.115291e-01 1.920103e-01 3.009268e-01 4.085876e-01 4.983736e-01 5.395716e-01 5.956206e-01 6.485638e-01 6.372115e-01 5.913928e-01 5.453483e-01 9.051205e-03 9.160582e-03 2.039818e-02 3.610738e-02 5.219192e-02 6.900007e-02 8.292980e-02 9.432908e-02 1.026967e-01 1.145262e-01 1.133426e-01 1.115184e-01 1.023221e-01 1.595461e-03
<GCONST> 3.786887e+01
<MIXTURE> 3 2.997171e-01
<MEAN> 39
 8.974393e-02 2.915878e-01 4.292408e-01 1.886540e-01 -2.956159e-01 -8.362672e-01 -1.038795e+00 -1.220436e+00 -1.379147e+00 -1.042487e+00 -9.088805e-01 -4.111997e-01 1.250474e-01 -1.675205e-02 -6.528629e-02 -1.724991e-01 -3.410817e-01 -4.543779e-01 -5.062487e-01 -4.970179e-01 -4.142655e-01 -3.566369e-01 -3.451583e-01 -2.190009e-01 -1.088734e-01 -1.661727e-02 -3.002687e-02 -4.658656e-02 -6.672098e-02 -3.727940e-02 2.304954e-02 9.413230e-02 1.156124e-01 1.224823e-01 1.348896e-01 1.135678e-01 8.255205e-02 2.038912e-02 -1.301691e-02
<VARIANCE> 39
 1.105050e+00 2.604236e+00 4.721203e+00 6.932343e+00 8.738021e+00 1.135914e+01 1.207191e+01 1.328984e+01 1.336751e+01 1.398433e+01 1.425893e+01 1.179394e+01 3.516366e-01 5.367091e-02 1.236380e-01 1.969155e-01 2.712450e-01 3.855346e-01 4.986240e-01 5.814964e-01 5.768481e-01 6.516902e-01 6.929456e-01 5.624180e-01 5.225303e-01 9.373511e-03 9.408936e-03 2.346276e-02 3.867260e-02 5.343424e-02 6.629811e-02 8.268358e-02 9.862510e-02 1.047879e-01 1.047222e-01 1.129454e-01 1.123241e-01 8.977811e-02 1.642416e-03
<GCONST> 3.800828e+01
<MIXTURE> 4 1.422676e-01
<MEAN> 39
 -1.912614e+00 -4.002151e-01 -6.427561e-01 1.867702e+00 5.246173e-01 1.067668e+00 -3.693118e-01 7.412653e-01 -5.785214e-01 6.954811e-01 1.039192e-03 1.336615e+00 7.345922e+00 2.141182e-01 -4.163130e-02 -8.328456e-02 -1.851454e-01 -1.758450e-01 -1.655499e-01 -1.890193e-01 -1.951938e-01 -2.365014e-01 -3.150723e-01 -2.043397e-01 -1.030862e-01 1.429044e-02 8.904033e-02 -1.642814e-03 -2.539265e-02 -5.655861e-02 -6.597042e-04 4.626260e-02 7.721731e-02 5.742431e-02 1.826863e-02 -1.089432e-02 -2.607352e-02 -4.297124e-02 -2.642547e-02
<VARIANCE> 39
 3.012955e+00 3.657394e+00 5.786085e+00 8.652707e+00 1.194598e+01 1.300516e+01 1.451413e+01 1.398777e+01 1.591447e+01 1.658163e+01 1.380971e+01 1.364054e+01 2.050524e+01 1.011394e-01 1.250387e-01 2.056209e-01 3.174123e-01 4.367243e-01 5.155035e-01 5.508643e-01 6.653222e-01 6.552544e-01 7.149695e-01 6.155367e-01 6.294414e-01 1.648626e-02 2.902850e-02 2.750335e-02 4.718155e-02 6.490793e-02 9.049754e-02 9.734684e-02 1.217983e-01 1.185239e-01 1.435527e-01 1.482310e-01 1.226829e-01 1.212494e-01 5.354336e-03
<GCONST> 5.159841e+01
<STATE> 3
<NUMMIXES> 4
<MIXTURE> 1 1.209110e-01
<MEAN> 39
 -1.891837e+00 -2.574924e-01 -5.267144e-01 2.499703e+00 1.167927e+00 2.167039e+00 5.964209e-01 2.402152e+00 5.077512e-01 1.653428e+00 5.151096e-01 1.583997e+00 9.153680e+00 4.771238e-01 2.878077e-02 5.936676e-02 2.990244e-02 1.311222e-01 2.716208e-01 2.721927e-01 1.793807e-01 1.062614e-01 6.468212e-02 4.625345e-02 -1.582851e-02 -3.959248e-03 1.509075e-01 7.107176e-02 7.876131e-02 -7.063469e-03 5.578139e-02 3.734230e-02 5.142913e-02 -4.472905e-02 -3.138456e-02 -3.717552e-02 -2.289568e-02 -5.654636e-02 -1.268462e-01
<VARIANCE> 39
 3.294355e+00 3.420663e+00 5.258090e+00 8.391442e+00 1.029257e+01 1.271334e+01 1.293645e+01 1.446109e+01 1.428743e+01 1.594571e+01 1.626671e+01 1.230514e+01 1.509572e+01 1.561753e-01 1.469314e-01 2.104289e-01 3.175767e-01 4.094884e-01 5.097322e-01 5.659769e-01 6.406524e-01 7.007840e-01 6.842893e-01 6.854573e-01 5.990040e-01 2.158572e-02 5.905229e-02 3.999401e-02 6.202383e-02 6.882772e-02 8.835106e-02 1.166424e-01 1.139849e-01 1.460306e-01 1.428903e-01 1.633983e-01 1.471858e-01 1.160090e-01 2.156600e-02
<GCONST> 5.507225e+01
<MIXTURE> 2 4.674451e-01
<MEAN> 39
 1.592941e-01 4.599739e-01 4.464869e-01 1.066502e-01 -5.799243e-01 -9.124879e-01 -1.314768e+00 -1.209182e+00 -1.147413e+00 -1.089302e+00 -7.764633e-01 -1.247624e-01 1.922543e-01 3.184242e-03 -5.506792e-02 -1.211885e-01 -1.366933e-01 -4.302983e-02 8.857184e-02 1.707629e-01 2.446896e-01 3.135147e-01 2.777377e-01 2.282121e-01 1.078658e-01 -8.976157e-03 -3.482372e-02 -5.333368e-02 -4.016497e-02 3.138463e-02 1.202096e-01 1.880360e-01 2.255190e-01 2.224680e-01 2.161378e-01 1.880748e-01 1.342708e-01 5.469270e-02 -1.202292e-02
<VARIANCE> 39
 1.128435e+00 2.323068e+00 3.949783e+00 6.477159e+00 8.329594e+00 1.056898e+01 1.230592e+01 1.258301e+01 1.450031e+01 1.357366e+01 1.289354e+01 1.250005e+01 3.516366e-01 5.715919e-02 1.147510e-01 1.969044e-01 3.002680e-01 4.172494e-01 5.348232e-01 5.690174e-01 6.018358e-01 6.696020e-01 6.533759e-01 6.096784e-01 5.459384e-01 9.270683e-03 1.088705e-02 2.211696e-02 3.778299e-02 5.351948e-02 6.772997e-02 8.746117e-02 1.025960e-01 9.862041e-02 1.216807e-01 1.165688e-01 1.091288e-01 1.034233e-01 1.882334e-03
<GCONST> 3.841602e+01
<MIXTURE> 3 2.831053e-01
<MEAN> 39
 8.407111e-02 3.474245e-02 -1.653528e-01 -6.520780e-01 -1.326319e+00 -1.683753e+00 -1.836213e+00 -1.779432e+00 -1.569892e+00 -1.351074e+00 -9.743238e-01 -3.874747e-01 1.175343e-01 -8.436505e-02 -1.843126e-01 -2.965653e-01 -3.282091e-01 -2.689093e-01 -1.672458e-01 -9.076917e-02 2.141841e-03 7.897276e-02 5.944047e-02 -7.736795e-03 -4.354484e-02 -4.228690e-02 -3.903554e-02 -4.139939e-02 -2.586500e-02 5.181601e-02 1.379362e-01 2.028252e-01 2.140289e-01 1.973961e-01 1.798439e-01 1.447560e-01 9.522187e-02 3.204256e-02 -1.392245e-02
<VARIANCE> 39
 1.069660e+00 2.497786e+00 4.169702e+00 6.743290e+00 8.441647e+00 1.027389e+01 1.223222e+01 1.312888e+01 1.377885e+01 1.328637e+01 1.305695e+01 1.232981e+01 3.516366e-01 5.806621e-02 1.200778e-01 1.976270e-01 2.892706e-01 3.974850e-01 4.816404e-01 5.773975e-01 6.121596e-01 6.328552e-01 6.615421e-01 6.216188e-01 5.452092e-01 1.009424e-02 1.059034e-02 2.413817e-02 3.840690e-02 5.323238e-02 6.620917e-02 8.521301e-02 9.885682e-02 1.031754e-01 1.130200e-01 1.096428e-01 1.081845e-01 9.984858e-02 1.813300e-03
<GCONST> 3.825622e+01
<MIXTURE> 4 1.285633e-01
<MEAN> 39
 -1.487853e+00 -3.572896e-01 -7.613040e-01 1.862271e+00 6.513612e-01 1.686119e+00 2.711659e-01 1.468634e+00 -4.584260e-01 7.892550e-01 2.627451e-02 1.200224e+00 8.339461e+00 3.840461e-01 -5.016065e-02 -1.020645e-01 -2.201723e-01 -1.238407e-01 -2.911288e-02 -3.211107e-02 -1.217583e-01 -2.298221e-01 -2.669654e-01 -1.885093e-01 -1.265289e-01 -2.907370e-02 9.138453e-02 4.288204e-02 5.667527e-02 -4.018788e-02 1.127498e-02 -7.100664e-03 2.409347e-02 -2.277054e-02 5.036036e-03 2.263356e-03 -2.347101e-02 -6.192159e-02 -1.222282e-01
<VARIANCE> 39
 4.013603e+00 3.322530e+00 5.546709e+00 8.441410e+00 9.760360e+00 1.264307e+01 1.434994e+01 1.471325e+01 1.496600e+01 1.578232e+01 1.464374e+01 1.239772e+01 1.803943e+01 1.479003e-01 1.270295e-01 2.127825e-01 3.156542e-01 4.429946e-01 5.036160e-01 5.945571e-01 6.556877e-01 7.867707e-01 7.568421e-01 6.220970e-01 6.300107e-01 2.569225e-02 6.529895e-02 4.058895e-02 6.592915e-02 7.948492e-02 9.821561e-02 1.110385e-01 1.285739e-01 1.552207e-01 1.505940e-01 1.583788e-01 1.268006e-01 1.316486e-01 2.157131e-02
<GCONST> 5.632457e+01
<STATE> 4
<NUMMIXES> 4
<MIXTURE> 1 2.384629e-01
<MEAN> 39
 -5.459729e-01 -2.077414e-01 -4.076620e-01 9.268943e-01 3.199081e-01 1.186434e+00 6.072366e-01 1.236470e+00 2.845137e-01 8.109182e-01 1.202010e-01 6.690890e-01 4.649083e+00 1.243643e-01 1.795115e-02 2.908089e-02 9.402929e-02 1.971814e-01 3.147570e-01 3.471745e-01 3.238671e-01 3.361086e-01 3.191490e-01 2.381948e-01 1.557691e-01 -5.673897e-02 3.246623e-02 4.818345e-02 9.282973e-02 2.395637e-02 7.702933e-02 8.442329e-03 3.533378e-02 -2.784190e-02 1.845134e-02 -7.437224e-03 1.735707e-02 -2.814785e-02 -1.257545e-01
<VARIANCE> 39
 4.025216e+00 3.832083e+00 5.820770e+00 1.105790e+01 1.128352e+01 1.474302e+01 1.506116e+01 1.832054e+01 1.637062e+01 1.749701e+01 1.515362e+01 1.437698e+01 3.073929e+01 5.051230e-01 2.525016e-01 4.116475e-01 4.840507e-01 5.099753e-01 6.541596e-01 7.088379e-01 8.087599e-01 8.257716e-01 8.831488e-01 7.469409e-01 7.223632e-01 3.311904e-01 5.935756e-02 4.525447e-02 7.297066e-02 8.770508e-02 9.600108e-02 1.251244e-01 1.238658e-01 1.487414e-01 1.430596e-01 1.477283e-01 1.317302e-01 1.295117e-01 7.038452e-02
<GCONST> 6.644588e+01
<MIXTURE> 2 2.379275e-01
<MEAN> 39
 2.618949e+00 -1.363789e-01 1.718488e+00 -1.715879e-01 9.679000e-01 5.143545e-01 1.281057e-01 -2.323099e+00 -5.481191e-01 -7.524816e-01 -6.635944e-01 -1.270252e+00 5.807573e-02 2.633893e-01 1.620206e-01 2.669130e-01 8.054756e-02 1.330283e-01 3.406510e-03 7.525240e-02 -8.337888e-02 3.427940e-02 1.964309e-02 6.052949e-02 -6.661405e-02 -8.330503e-01 -1.678443e-01 -3.931991e-02 -7.190438e-02 -1.498682e-02 -2.834121e-02 1.869313e-03 3.196710e-02 8.661022e-02 7.217141e-02 6.451888e-02 5.265361e-02 6.639226e-02 1.352550e-02
<VARIANCE> 39
 2.105184e+01 1.652022e+01 1.914804e+01 2.889504e+01 2.170434e+01 2.809535e+01 2.539908e+01 3.651052e+01 2.977163e+01 2.922982e+01 2.192365e+01 2.025791e+01 7.983627e+01 1.408746e+00 9.179699e-01 1.426427e+00 1.234004e+00 1.000019e+00 1.211683e+00 1.061026e+00 1.621013e+00 1.370844e+00 1.318439e+00 1.039754e+00 9.969765e-01 3.084101e+00 2.301356e-01 1.452287e-01 1.989047e-01 2.201785e-01 1.793126e-01 2.330854e-01 1.972163e-01 2.410281e-01 2.452719e-01 2.470328e-01 1.846202e-01 1.712438e-01 3.729902e-01
<GCONST> 9.765387e+01
<MIXTURE> 3 3.363905e-01
<MEAN> 39
 -3.932390e-01 -4.302248e-01 -6.712292e-01 -2.090295e-01 -2.668210e-01 2.508870e-01 -1.039568e-01 1.353235e-01 6.958653e-02 2.101298e-01 -1.008120e-01 2.478961e-01 2.711855e+00 1.096941e-01 -6.509486e-02 -8.654453e-02 -1.846836e-01 -6.664764e-02 -2.820496e-02 5.924074e-02 2.773180e-02 4.784010e-02 -6.308116e-03 -2.693041e-02 -1.021637e-01 -1.582288e-01 2.311576e-02 2.530396e-02 7.862657e-02 3.089018e-02 6.268771e-02 1.801056e-02 3.011553e-02 -2.191205e-02 1.479695e-03 -1.572533e-02 -1.219401e-02 -4.060498e-02 -7.953312e-02
<VARIANCE> 39
 4.547396e+00 4.697528e+00 6.137820e+00 1.341809e+01 1.226899e+01 1.573955e+01 1.571318e+01 1.812824e+01 1.813205e+01 1.835812e+01 1.547729e+01 1.475705e+01 3.624827e+01 3.848408e-01 2.321448e-01 3.569075e-01 4.534791e-01 5.322754e-01 6.420059e-01 6.876543e-01 8.226178e-01 8.586295e-01 8.473632e-01 7.120100e-01 6.358394e-01 2.214804e-01 5.173779e-02 4.132111e-02 6.221603e-02 1.009603e-01 1.023279e-01 1.328015e-01 1.339766e-01 1.463727e-01 1.451669e-01 1.516376e-01 1.324275e-01 1.238021e-01 5.584211e-02
<GCONST> 6.613605e+01
<MIXTURE> 4 1.872327e-01
<MEAN> 39
