~o
<STREAMINFO> 1 39
<VECSIZE> 39<NULLD><MFCC_D_A_Z_0><DIAGC>
~h "proto"
<BEGINHMM>
<NUMSTATES> 5
<STATE> 2
<MEAN> 39
 2.787849e-09 6.740811e-10 -5.548159e-10 -1.444951e-09 1.372056e-09 1.065287e-09 -1.379750e-09 -4.337284e-10 -2.680935e-10 2.507201e-09 6.431005e-10 5.686863e-10 3.054484e-08 3.166477e-03 3.660089e-03 2.598159e-03 3.360153e-03 2.034354e-03 2.873364e-04 7.404845e-04 1.789608e-04 -1.149303e-03 2.716540e-04 8.926496e-05 9.842978e-05 3.360172e-04 1.648452e-05 -5.186723e-07 -3.491529e-05 -3.544117e-05 -1.572121e-04 6.151551e-05 -9.644368e-05 -3.965636e-05 5.455982e-05 -5.128942e-06 7.057418e-05 -6.609656e-06 -9.729021e-06
<VARIANCE> 39
 5.653674e+00 4.886589e+00 6.880558e+00 1.097444e+01 1.173968e+01 1.501360e+01 1.524483e+01 1.769248e+01 1.673871e+01 1.699316e+01 1.501835e+01 1.395998e+01 3.516367e+01 1.948883e-01 2.195148e-01 3.084339e-01 4.548327e-01 5.169706e-01 6.475278e-01 6.752422e-01 7.581503e-01 7.468139e-01 7.484303e-01 6.703978e-01 6.097627e-01 6.117719e-01 3.081363e-02 3.835776e-02 5.522510e-02 7.938185e-02 9.348416e-02 1.158605e-01 1.234846e-01 1.362727e-01 1.366371e-01 1.361924e-01 1.233620e-01 1.112660e-01 7.270522e-02
<GCONST> 6.412387e+01
<STATE> 3
<MEAN> 39
 2.787849e-09 6.740811e-10 -5.548159e-10 -1.444951e-09 1.372056e-09 1.065287e-09 -1.379750e-09 -4.337284e-10 -2.680935e-10 2.507201e-09 6.431005e-10 5.686863e-10 3.054484e-08 3.166477e-03 3.660089e-03 2.598159e-03 3.360153e-03 2.034354e-03 2.873364e-04 7.404845e-04 1.789608e-04 -1.149303e-03 2.716540e-04 8.926496e-05 9.842978e-05 3.360172e-04 1.648452e-05 -5.186723e-07 -3.491529e-05 -3.544117e-05 -1.572121e-04 6.151551e-05 -9.644368e-05 -3.965636e-05 5.455982e-05 -5.128942e-06 7.057418e-05 -6.609656e-06 -9.729021e-06
<VARIANCE> 39
 5.653674e+00 4.886589e+00 6.880558e+00 1.097444e+01 1.173968e+01 1.501360e+01 1.524483e+01 1.769248e+01 1.673871e+01 1.699316e+01 1.501835e+01 1.395998e+01 3.516367e+01 1.948883e-01 2.195148e-01 3.084339e-01 4.548327e-01 5.169706e-01 6.475278e-01 6.752422e-01 7.581503e-01 7.468139e-01 7.484303e-01 6.703978e-01 6.097627e-01 6.117719e-01 3.081363e-02 3.835776e-02 5.522510e-02 7.938185e-02 9.348416e-02 1.158605e-01 1.234846e-01 1.362727e-01 1.366371e-01 1.361924e-01 1.233620e-01 1.112660e-01 7.270522e-02
<GCONST> 6.412387e+01
<STATE> 4
<MEAN> 39
 2.787849e-09 6.740811e-10 -5.548159e-10 -1.444951e-09 1.372056e-09 1.065287e-09 -1.379750e-09 -4.337284e-10 -2.680935e-10 2.507201e-09 6.431005e-10 5.686863e-10 3.054484e-08 3.166477e-03 3.660089e-03 2.598159e-03 3.360153e-03 2.034354e-03 2.873364e-04 7.404845e-04 1.789608e-04 -1.149303e-03 2.716540e-04 8.926496e-05 9.842978e-05 3.360172e-04 1.648452e-05 -5.186723e-07 -3.491529e-05 -3.544117e-05 -1.572121e-04 6.151551e-05 -9.644368e-05 -3.965636e-05 5.455982e-05 -5.128942e-06 7.057418e-05 -6.609656e-06 -9.729021e-06
<VARIANCE> 39
 5.653674e+00 4.886589e+00 6.880558e+00 1.097444e+01 1.173968e+01 1.501360e+01 1.524483e+01 1.769248e+01 1.673871e+01 1.699316e+01 1.501835e+01 1.395998e+01 3.516367e+01 1.948883e-01 2.195148e-01 3.084339e-01 4.548327e-01 5.169706e-01 6.475278e-01 6.752422e-01 7.581503e-01 7.468139e-01 7.484303e-01 6.703978e-01 6.097627e-01 6.117719e-01 3.081363e-02 3.835776e-02 5.522510e-02 7.938185e-02 9.348416e-02 1.158605e-01 1.234846e-01 1.362727e-01 1.366371e-01 1.361924e-01 1.233620e-01 1.112660e-01 7.270522e-02
<GCONST> 6.412387e+01
<TRANSP> 5
 0.000000e+00 1.000000e+00 0.000000e+00 0.000000e+00 0.000000e+00
 0.000000e+00 6.000000e-01 4.000000e-01 0.000000e+00 0.000000e+00
 0.000000e+00 0.000000e+00 6.000000e-01 4.000000e-01 0.000000e+00
 0.000000e+00 0.000000e+00 0.000000e+00 7.000000e-01 3.000000e-01
 0.000000e+00 0.000000e+00 0.000000e+00 0.000000e+00 0.000000e+00
<ENDHMM>
