~o
<STREAMINFO> 1 39
<VECSIZE> 39<NULLD><MFCC_D_A_Z_0><DIAGC>
~v "varFloor1"
<VARIANCE> 39
 5.653673e-02 4.886588e-02 6.880558e-02 1.097444e-01 1.173968e-01 1.501360e-01 1.524483e-01 1.769248e-01 1.673871e-01 1.699316e-01 1.501835e-01 1.395998e-01 3.516366e-01 1.948883e-03 2.195148e-03 3.084339e-03 4.548327e-03 5.169705e-03 6.475277e-03 6.752422e-03 7.581503e-03 7.468139e-03 7.484302e-03 6.703977e-03 6.097627e-03 6.117719e-03 3.081363e-04 3.835776e-04 5.522510e-04 7.938185e-04 9.348416e-04 1.158605e-03 1.234846e-03 1.362727e-03 1.366371e-03 1.361924e-03 1.233620e-03 1.112660e-03 7.270522e-04
~s "silst"
<NUMMIXES> 4
<MIXTURE> 1 2.196053e-01
<MEAN> 39
 3.661837e-01 -2.027969e-01 -3.550752e-01 -7.445847e-01 -4.445810e-01 -1.775151e-01 2.269250e-01 3.560330e-01 3.796611e-01 5.149260e-01 3.851316e-01 3.716615e-01 -2.060575e-01 -2.896712e-02 1.233646e-01 1.834416e-01 3.722855e-01 2.532812e-01 3.259587e-01 2.291259e-01 2.607719e-01 2.373373e-01 2.467124e-01 2.030920e-01 1.636284e-01 8.625501e-02 8.015057e-03 3.571428e-02 5.820866e-02 8.801903e-02 7.193181e-02 5.782714e-02 2.722694e-02 2.343845e-02 8.294441e-03 6.335467e-03 1.519039e-02 -2.974488e-03 1.619389e-02
<VARIANCE> 39
 3.089374e+00 3.351395e+00 5.477318e+00 1.118948e+01 1.092301e+01 1.389662e+01 1.498219e+01 1.631665e+01 1.682745e+01 1.623879e+01 1.521755e+01 1.308430e+01 7.718720e-01 1.376455e-01 1.567992e-01 2.434265e-01 4.897537e-01 4.908321e-01 6.259248e-01 6.455102e-01 7.370277e-01 7.323172e-01 7.312185e-01 6.696914e-01 5.783286e-01 3.310467e-02 2.450676e-02 2.867108e-02 4.872193e-02 9.720153e-02 9.539261e-02 1.211612e-01 1.277339e-01 1.426643e-01 1.435536e-01 1.378069e-01 1.298167e-01 1.085967e-01 5.819761e-03
<GCONST> 5.202023e+01
<MIXTURE> 2 2.929844e-01
<MEAN> 39
 8.000398e-01 7.620278e-02 9.237812e-02 -5.488387e-01 -1.642229e-01 -2.355137e-01 5.986419e-02 1.392393e-01 1.407839e-01 1.379303e-01 1.581274e-01 -1.136545e-01 -1.870138e-01 1.171971e-01 -2.687551e-02 -9.322259e-02 -2.844584e-01 -1.608360e-01 -1.961972e-01 -5.520771e-02 -4.192483e-02 4.879454e-03 4.612433e-04 4.362577e-02 1.089095e-02 -6.586840e-02 -1.721515e-02 1.361987e-03 5.001144e-03 3.644933e-02 2.860883e-02 4.461368e-02 4.170474e-02 3.933818e-02 3.799250e-02 3.950847e-02 3.861902e-02 4.809747e-02 4.897234e-03
<VARIANCE> 39
 2.840331e+00 3.710793e+00 5.503167e+00 1.294157e+01 1.154523e+01 1.495135e+01 1.432495e+01 1.584307e+01 1.555891e+01 1.551353e+01 1.437645e+01 1.308385e+01 9.091187e-01 1.340851e-01 1.608702e-01 2.530589e-01 4.598565e-01 4.942154e-01 5.923270e-01 6.423955e-01 7.195831e-01 7.323385e-01 6.975574e-01 6.509308e-01 5.855761e-01 3.418249e-02 2.227008e-02 3.076983e-02 4.874444e-02 1.049876e-01 9.922753e-02 1.249547e-01 1.211638e-01 1.345084e-01 1.338500e-01 1.344205e-01 1.208437e-01 1.079521e-01 6.362345e-03
<GCONST> 5.202005e+01
<MIXTURE> 3 3.014434e-01
<MEAN> 39
 4.106927e-01 -5.326753e-01 -7.681969e-01 -1.526389e+00 -1.025818e+00 -9.419957e-01 -4.089755e-01 -4.128155e-01 -3.549693e-01 -1.899304e-01 -1.850838e-01 -1.888898e-01 -3.949496e-01 -7.371999e-02 9.694770e-04 1.287704e-02 9.956781e-02 2.295341e-02 5.100553e-02 -1.112287e-02 -6.296178e-03 -3.298430e-02 -1.869241e-02 -4.072736e-02 -3.243253e-02 2.039625e-02 5.893521e-04 6.437222e-03 2.261412e-02 2.043590e-02 1.962257e-02 -7.997572e-03 -2.870252e-02 -3.770744e-02 -4.297387e-02 -5.554550e-02 -4.311383e-02 -4.240264e-02 3.630281e-04
<VARIANCE> 39
 3.256862e+00 3.568298e+00 5.644612e+00 1.205470e+01 1.103739e+01 1.438838e+01 1.488061e+01 1.672587e+01 1.683081e+01 1.643375e+01 1.502771e+01 1.305389e+01 9.044275e-01 1.283092e-01 1.523666e-01 2.465520e-01 4.607938e-01 4.827004e-01 6.030545e-01 6.367817e-01 7.295297e-01 7.328371e-01 7.134880e-01 6.704378e-01 5.732424e-01 2.995330e-02 2.502411e-02 2.993020e-02 4.954262e-02 9.904359e-02 9.706642e-02 1.225298e-01 1.255310e-01 1.436373e-01 1.430669e-01 1.386983e-01 1.275201e-01 1.089276e-01 6.083410e-03
<GCONST> 5.225266e+01
<MIXTURE> 4 1.859356e-01
<MEAN> 39
 8.586326e-01 -2.899909e-01 -3.474613e-01 -1.718433e+00 -7.288661e-01 -1.201078e+00 -6.333050e-01 -5.990893e-01 -5.133980e-01 -5.679966e-01 -4.034942e-01 -7.609184e-01 -5.176448e-01 7.911452e-02 -1.721536e-01 -2.291445e-01 -5.986617e-01 -3.442170e-01 -5.193511e-01 -2.943412e-01 -3.382409e-01 -2.503244e-01 -2.961988e-01 -1.934911e-01 -2.184833e-01 -1.503621e-01 -2.072219e-02 -2.836405e-02 -3.089393e-02 -3.504694e-02 -2.292475e-02 -2.708816e-02 -1.430503e-02 -3.252524e-02 -2.278088e-02 -2.844831e-02 -2.566979e-02 -4.963789e-03 -1.079860e-02
<VARIANCE> 39
 2.712588e+00 4.207783e+00 5.699366e+00 1.586239e+01 1.183064e+01 1.663171e+01 1.442360e+01 1.644771e+01 1.607730e+01 1.609282e+01 1.463248e+01 1.373217e+01 1.230263e+00 1.292040e-01 1.704679e-01 2.619423e-01 5.097445e-01 5.227805e-01 6.287917e-01 6.535861e-01 7.362104e-01 7.437688e-01 7.242215e-01 6.546221e-01 6.220793e-01 4.096561e-02 2.040789e-02 3.221877e-02 4.797413e-02 1.084590e-01 9.844766e-02 1.268729e-01 1.220495e-01 1.356023e-01 1.337001e-01 1.373252e-01 1.183720e-01 1.091529e-01 6.729794e-03
<GCONST> 5.363085e+01
~h "f"
<BEGINHMM>
<NUMSTATES> 5
<STATE> 2
<NUMMIXES> 4
<MIXTURE> 1 2.801077e-01
<MEAN> 39
 2.041179e-01 2.297741e-01 -9.744604e-02 -7.255155e-01 -9.841466e-01 -1.176124e+00 -8.300780e-01 -7.588360e-01 -8.001236e-01 -5.736588e-01 -3.125563e-01 -3.221211e-02 3.286248e-02 2.785087e-03 6.194995e-02 9.464766e-02 2.242725e-01 2.552987e-01 2.731426e-01 2.380345e-01 2.182246e-01 1.963088e-01 2.316600e-01 2.058608e-01 1.809682e-01 4.676274e-02 -2.900155e-02 -1.035917e-02 3.984591e-02 1.375497e-01 1.910976e-01 2.250316e-01 1.944267e-01 1.985022e-01 1.864371e-01 1.494274e-01 1.007952e-01 6.915659e-02 6.599963e-03
<VARIANCE> 39
 2.131032e+00 3.043288e+00 5.047724e+00 8.913955e+00 9.223735e+00 1.225742e+01 1.260335e+01 1.494374e+01 1.500261e+01 1.422517e+01 1.361292e+01 1.279634e+01 1.261535e+01 9.002911e-02 1.306185e-01 2.161646e-01 3.551691e-01 3.912162e-01 4.659126e-01 5.183297e-01 5.908786e-01 6.319389e-01 6.215848e-01 6.217946e-01 5.385714e-01 3.016789e-02 1.799934e-02 2.871924e-02 5.069610e-02 7.403997e-02 8.167194e-02 1.038720e-01 1.101224e-01 1.289249e-01 1.358796e-01 1.281231e-01 1.145900e-01 1.107166e-01 9.592749e-03
<GCONST> 4.971122e+01
<MIXTURE> 2 2.330830e-01
<MEAN> 39
 -3.470779e-01 -8.838941e-01 -3.167519e-02 -2.612712e+00 -1.493576e+00 -3.074862e+00 1.805970e-01 -9.474500e-01 6.433243e-01 -1.087571e+00 6.081587e-01 -6.738164e-01 -8.841548e+00 -7.045927e-02 -5.961110e-02 6.984474e-02 -1.894593e-02 5.503253e-02 -6.970498e-02 1.227177e-01 6.364034e-02 4.447408e-02 7.251888e-02 1.558657e-01 7.183859e-02 1.425403e-01 7.972912e-02 5.951503e-02 7.307012e-02 1.521402e-01 1.119810e-01 1.436875e-01 2.668280e-02 4.401185e-02 -9.692736e-03 5.503969e-02 -1.139678e-03 3.145890e-02 2.621146e-01
<VARIANCE> 39
 1.100602e+01 9.715919e+00 8.720745e+00 1.351913e+01 1.156585e+01 1.751285e+01 1.520332e+01 1.858294e+01 1.625778e+01 1.661624e+01 1.404538e+01 1.342152e+01 9.965915e+01 4.443679e-01 4.004149e-01 4.673323e-01 5.994082e-01 5.748302e-01 7.462764e-01 7.040645e-01 9.004036e-01 8.142348e-01 7.674804e-01 6.660891e-01 6.292781e-01 9.439809e-01 8.014176e-02 8.294152e-02 7.881942e-02 1.352481e-01 1.060428e-01 1.539142e-01 1.292603e-01 1.700068e-01 1.460115e-01 1.374175e-01 1.218218e-01 1.195899e-01 1.895815e-01
<GCONST> 7.452697e+01
<MIXTURE> 3 3.067228e-01
<MEAN> 39
 8.305785e-02 -9.299201e-02 -4.032964e-01 -1.497391e+00 -1.506904e+00 -2.161812e+00 -1.512194e+00 -1.476798e+00 -1.332500e+00 -1.439087e+00 -8.932549e-01 -6.614028e-01 -1.589234e+00 -7.334243e-02 -6.668755e-02 -5.456664e-02 2.887178e-02 5.971314e-02 8.804256e-02 1.933116e-02 -9.805225e-04 -2.293997e-02 -4.893498e-02 -5.029858e-02 -1.369636e-02 4.908234e-03 -4.070013e-02 -3.259229e-02 1.228879e-02 8.429413e-02 1.342405e-01 1.695110e-01 1.534693e-01 1.339182e-01 1.176633e-01 9.055775e-02 5.216342e-02 2.604488e-02 7.760942e-03
<VARIANCE> 39
 2.537889e+00 3.347874e+00 5.227165e+00 9.478869e+00 9.521067e+00 1.270030e+01 1.277112e+01 1.511516e+01 1.529111e+01 1.494911e+01 1.314303e+01 1.316393e+01 3.706494e+01 9.381140e-02 1.321178e-01 2.215199e-01 3.410360e-01 3.958723e-01 4.818678e-01 5.334120e-01 5.986778e-01 6.038518e-01 6.242111e-01 6.156926e-01 5.321527e-01 4.036601e-02 1.973881e-02 2.907121e-02 5.143592e-02 7.384646e-02 8.308278e-02 1.068471e-01 1.114177e-01 1.273105e-01 1.332196e-01 1.252134e-01 1.139513e-01 1.080461e-01 1.503712e-02
<GCONST> 5.219857e+01
<MIXTURE> 4 1.801141e-01
<MEAN> 39
 -4.561177e-01 -1.384367e+00 -6.795359e-02 -3.270264e+00 -1.926655e+00 -3.747243e+00 -4.523379e-01 -1.793104e+00 7.476652e-02 -1.764888e+00 2.108760e-01 -1.333707e+00 -9.057178e+00 -2.653173e-01 -2.922254e-01 -4.029400e-02 -3.851902e-01 -1.957438e-01 -4.827648e-01 -1.297308e-01 -3.582930e-01 -1.262131e-01 -2.777941e-01 -5.918205e-02 -1.782324e-01 -1.068708e-01 2.575484e-02 1.730387e-02 5.706895e-03 7.829835e-02 4.406007e-02 7.735889e-02 -6.322905e-03 -6.553434e-03 -6.017498e-02 -1.572394e-02 -4.796715e-02 -6.473809e-05 1.655654e-01
<VARIANCE> 39
 1.096640e+01 1.014480e+01 9.338811e+00 1.382561e+01 1.143245e+01 1.707875e+01 1.572029e+01 1.850466e+01 1.690156e+01 1.668206e+01 1.473060e+01 1.458833e+01 9.260116e+01 4.740561e-01 4.099753e-01 4.594200e-01 6.498981e-01 5.619436e-01 7.840387e-01 6.830701e-01 8.441921e-01 7.763268e-01 7.086518e-01 6.961695e-01 6.208844e-01 1.212530e+00 7.332335e-02 7.591273e-02 8.198493e-02 1.229892e-01 9.875117e-02 1.501908e-01 1.277891e-01 1.653831e-01 1.394846e-01 1.316673e-01 1.313375e-01 1.204859e-01 1.716018e-01
<GCONST> 7.451468e+01
<STATE> 3
<NUMMIXES> 4
<MIXTURE> 1 2.522117e-01
<MEAN> 39
 -4.131894e-01 -6.551220e-01 1.878842e-01 -1.272629e-01 1.564944e-01 -9.102033e-01 3.241256e-01 7.941747e-02 2.517291e-01 -8.809209e-03 5.518992e-01 6.753254e-02 1.898194e+00 7.982587e-02 3.216073e-01 -8.393309e-02 8.199539e-01 4.659610e-01 1.020127e+00 2.662185e-01 7.477065e-01 1.793773e-01 6.463489e-01 9.893751e-02 5.020375e-01 1.440274e+00 -1.013337e-01 1.598009e-02 1.073388e-02 1.375549e-02 2.650820e-02 7.504326e-02 5.876532e-02 6.588887e-02 7.508749e-02 5.343999e-02 4.293448e-02 3.238022e-02 -5.129982e-02
<VARIANCE> 39
 7.888499e+00 8.078760e+00 7.309993e+00 1.531555e+01 1.302922e+01 2.044538e+01 1.610258e+01 1.959560e+01 1.646050e+01 1.787434e+01 1.466975e+01 1.381662e+01 3.719995e+01 5.366800e-01 3.908543e-01 3.739608e-01 6.768948e-01 5.335675e-01 7.934637e-01 7.135311e-01 7.939019e-01 7.765208e-01 7.615599e-01 6.669681e-01 6.109512e-01 2.257876e+00 7.653415e-02 6.128476e-02 6.303250e-02 1.173516e-01 1.055486e-01 1.589369e-01 1.285838e-01 1.581693e-01 1.403400e-01 1.515115e-01 1.223048e-01 1.165516e-01 2.185680e-01
<GCONST> 7.365527e+01
<MIXTURE> 2 2.380857e-01
<MEAN> 39
 -7.403582e-01 -9.561368e-01 1.016937e+00 -2.107962e+00 -9.416315e-01 -2.939385e+00 4.152521e-01 -1.520162e+00 4.439131e-01 -1.323967e+00 7.378353e-01 -1.063746e+00 -5.905654e+00 7.238941e-04 1.327395e-02 9.994043e-02 1.410302e-01 1.078768e-01 7.995343e-02 1.137881e-01 1.215959e-01 8.026849e-02 1.089936e-01 1.206749e-01 5.668505e-02 6.786178e-01 5.421272e-02 6.849224e-02 -2.270994e-02 1.436923e-01 7.090307e-02 1.668348e-01 1.665935e-02 1.310911e-01 7.366680e-03 1.051600e-01 -1.028717e-03 9.107453e-02 2.930990e-01
<VARIANCE> 39
 2.038334e+01 1.696760e+01 1.456803e+01 1.931447e+01 1.814923e+01 2.381368e+01 2.189998e+01 2.341526e+01 2.180152e+01 2.031143e+01 1.882153e+01 1.636124e+01 7.452803e+01 9.777247e-01 8.004940e-01 8.458945e-01 9.373178e-01 8.305407e-01 1.077443e+00 1.009246e+00 1.147670e+00 1.023715e+00 9.357712e-01 8.953140e-01 7.470834e-01 3.942716e+00 1.846282e-01 1.504661e-01 1.454039e-01 1.921639e-01 1.586445e-01 2.175307e-01 1.948847e-01 2.193079e-01 1.928598e-01 1.783840e-01 1.678435e-01 1.448598e-01 4.925022e-01
<GCONST> 9.061661e+01
<MIXTURE> 3 3.161190e-01
<MEAN> 39
 -7.467955e-01 -8.536281e-01 -2.379034e-01 -7.043359e-01 -4.993559e-01 -1.346329e+00 -3.947827e-01 -5.826042e-01 -3.233176e-01 -6.790951e-01 -9.924674e-02 -3.792730e-01 9.620000e-01 -1.204693e-01 1.173479e-01 -1.840501e-01 4.492567e-01 2.362743e-01 5.853040e-01 6.258615e-02 3.721931e-01 -5.419672e-03 2.644055e-01 -8.050779e-02 2.167316e-01 1.011281e+00 -5.953200e-02 -3.306409e-02 1.349907e-03 -5.609156e-02 -1.422716e-02 -3.064340e-02 1.879675e-02 -2.417078e-02 1.734456e-02 -3.174300e-02 -2.049375e-03 -4.121667e-02 -1.296453e-01
<VARIANCE> 39
 7.491683e+00 7.476461e+00 6.900354e+00 1.396492e+01 1.205192e+01 1.990762e+01 1.523455e+01 1.954876e+01 1.628963e+01 1.788021e+01 1.429329e+01 1.421154e+01 5.489071e+01 5.022182e-01 3.503316e-01 3.840409e-01 5.908817e-01 5.262866e-01 7.267979e-01 6.918566e-01 7.590269e-01 7.681896e-01 7.334923e-01 6.457277e-01 6.082071e-01 1.923837e+00 7.242840e-02 5.943443e-02 6.056599e-02 1.155031e-01 1.010671e-01 1.615322e-01 1.233837e-01 1.576882e-01 1.383767e-01 1.506858e-01 1.199415e-01 1.142935e-01 2.341992e-01
<GCONST> 7.268452e+01
<MIXTURE> 4 1.935693e-01
<MEAN> 39
 -1.480751e-01 -9.496075e-01 9.878097e-01 -2.545100e+00 -1.348404e+00 -3.269723e+00 -1.441024e-01 -2.174632e+00 -3.061888e-01 -1.871152e+00 7.108814e-02 -1.499659e+00 -6.873402e+00 -2.588522e-01 -3.081414e-01 -1.089483e-03 -3.997063e-01 -2.060028e-01 -4.919167e-01 -1.284627e-01 -3.955981e-01 -1.184438e-01 -3.042483e-01 -4.302749e-02 -2.786454e-01 1.512040e-01 -1.254109e-02 -1.319949e-02 -7.877235e-02 3.938178e-02 -5.974416e-03 3.343973e-02 -3.229232e-02 3.047010e-02 -8.169658e-03 9.774998e-03 -2.946826e-02 1.876834e-02 1.042579e-01
<VARIANCE> 39
 1.965140e+01 1.789209e+01 1.674404e+01 2.053130e+01 1.924623e+01 2.435444e+01 2.230519e+01 2.390458e+01 2.238691e+01 2.156490e+01 1.913270e+01 1.714564e+01 7.386128e+01 1.004039e+00 8.451335e-01 8.231278e-01 1.005983e+00 8.675503e-01 1.103249e+00 1.009455e+00 1.134440e+00 9.850938e-01 9.461640e-01 8.561475e-01 7.564850e-01 3.937110e+00 1.737963e-01 1.563102e-01 1.564354e-01 1.884689e-01 1.586302e-01 2.115686e-01 1.889037e-01 2.199297e-01 1.874737e-01 1.805951e-01 1.637739e-01 1.476124e-01 4.411815e-01
<GCONST> 9.105661e+01
<STATE> 4
<NUMMIXES> 4
<MIXTURE> 1 2.368525e-01
<MEAN> 39
 5.048450e-03 2.051301e-01 3.257682e-01 7.372005e-01 7.306684e-01 7.173644e-01 4.661930e-01 6.671199e-01 4.644675e-01 6.353601e-01 6.709329e-01 5.551807e-01 2.380027e-01 -7.012809e-02 2.528587e-02 1.778853e-01 4.404495e-01 5.851560e-01 6.891097e-01 5.902746e-01 5.722536e-01 5.790392e-01 4.663411e-01 3.339287e-01 2.507431e-01 2.969964e-02 1.683801e-03 6.686205e-03 1.313099e-02 -1.002026e-02 -2.007762e-02 -1.798183e-02 1.531015e-02 9.556878e-03 1.834313e-02 9.391937e-03 4.072398e-03 2.156142e-03 -7.490234e-03
<VARIANCE> 39
 1.266108e+00 2.501367e+00 4.365879e+00 7.153817e+00 8.119651e+00 9.970093e+00 1.212696e+01 1.363644e+01 1.389371e+01 1.420751e+01 1.443111e+01 1.282717e+01 1.245478e+00 7.870385e-02 1.277147e-01 2.269432e-01 3.665945e-01 4.013975e-01 5.083804e-01 5.487230e-01 6.348649e-01 7.152157e-01 6.613848e-01 5.764155e-01 5.435939e-01 1.923629e-02 1.204281e-02 2.270507e-02 3.958345e-02 6.144393e-02 7.015188e-02 8.037826e-02 1.002052e-01 1.077081e-01 1.145152e-01 1.215464e-01 1.156498e-01 1.014345e-01 3.256502e-03
<GCONST> 4.253122e+01
<MIXTURE> 2 2.206601e-01
<MEAN> 39
 -2.132424e+00 2.233776e-02 -6.282926e-01 2.202335e+00 1.051121e+00 2.279987e+00 9.412118e-01 2.534918e+00 6.050671e-01 1.716087e+00 5.246865e-01 1.705242e+00 8.614061e+00 -3.615973e-01 -7.776916e-03 -6.491025e-02 2.084197e-01 1.590032e-01 2.909701e-01 1.502549e-01 2.806932e-01 1.974076e-01 2.019339e-01 1.377264e-01 1.503333e-01 3.016832e-01 1.028286e-01 -3.960677e-02 7.282424e-02 -1.202973e-01 -1.641396e-02 -1.798560e-01 2.038737e-02 -9.719504e-02 2.697344e-02 -5.433789e-02 3.020117e-02 -8.145221e-02 -3.296747e-01
<VARIANCE> 39
 2.485651e+00 3.027233e+00 4.945357e+00 8.352152e+00 9.750069e+00 1.229735e+01 1.431490e+01 1.546715e+01 1.582371e+01 1.581755e+01 1.441085e+01 1.304389e+01 2.231760e+01 1.532302e-01 1.557589e-01 2.525363e-01 4.328550e-01 4.729290e-01 5.730494e-01 6.153118e-01 6.951438e-01 7.425725e-01 7.201107e-01 6.695487e-01 5.754411e-01 9.851941e-02 3.948166e-02 3.615136e-02 5.038002e-02 8.826068e-02 9.626614e-02 1.203359e-01 1.219708e-01 1.345540e-01 1.369032e-01 1.443307e-01 1.242901e-01 1.073316e-01 5.206429e-02
<GCONST> 5.773460e+01
<MIXTURE> 3 3.594606e-01
<MEAN> 39
 5.723953e-03 2.362193e-02 -4.801369e-02 1.648108e-01 1.043397e-01 3.124731e-02 -2.066577e-01 -2.353645e-01 -2.038646e-01 -1.296393e-01 -1.441638e-01 -4.527545e-02 1.711133e-01 -1.579707e-01 -1.086676e-01 -2.282717e-02 2.439000e-01 3.865678e-01 4.559232e-01 3.778827e-01 3.687304e-01 3.132485e-01 2.312381e-01 1.186359e-01 7.920158e-02 -7.009408e-03 -2.005712e-02 -2.568252e-02 -2.221566e-02 -4.328303e-02 -4.104509e-02 -4.632595e-02 -2.175942e-02 -1.918096e-02 -2.216849e-02 -3.481186e-02 -3.361893e-02 -2.578297e-02 -1.714737e-02
<VARIANCE> 39
 1.307716e+00 2.429661e+00 4.493796e+00 7.163254e+00 8.370908e+00 1.011584e+01 1.188529e+01 1.335220e+01 1.365011e+01 1.418508e+01 1.387637e+01 1.259753e+01 7.132544e-01 7.488921e-02 1.245147e-01 2.326910e-01 3.478395e-01 3.858989e-01 4.998199e-01 5.365273e-01 6.124561e-01 6.846673e-01 6.462255e-01 5.766752e-01 5.761164e-01 1.726235e-02 1.217999e-02 2.341405e-02 4.042891e-02 6.245759e-02 6.844861e-02 8.415853e-02 9.654270e-02 1.066166e-01 1.120859e-01 1.180296e-01 1.164732e-01 1.024545e-01 3.356815e-03
<GCONST> 4.165080e+01
<MIXTURE> 4 1.830454e-01
<MEAN> 39
 -2.313869e+00 -4.075565e-01 -1.171480e+00 1.455752e+00 3.876236e-01 1.612520e+00 3.364604e-01 1.734767e+00 -2.782700e-01 1.016162e+00 7.904100e-02 1.220239e+00 8.389062e+00 -4.679427e-01 -1.118999e-01 -2.123612e-01 -1.850475e-02 -9.528655e-02 3.418988e-02 -8.192055e-02 -1.925760e-02 -9.251623e-02 -7.917477e-02 -9.788048e-02 -2.835110e-03 3.229977e-01 1.016243e-01 -7.576217e-02 6.098916e-02 -1.667957e-01 -4.978107e-02 -2.461267e-01 -2.785458e-02 -1.722079e-01 -1.436607e-02 -1.445003e-01 -7.457748e-03 -1.437628e-01 -3.873807e-01
<VARIANCE> 39
 2.327476e+00 3.097241e+00 5.120001e+00 8.006731e+00 9.748326e+00 1.163324e+01 1.365834e+01 1.526306e+01 1.519527e+01 1.477626e+01 1.363898e+01 1.319111e+01 1.672943e+01 1.420774e-01 1.499004e-01 2.499914e-01 4.206911e-01 4.830567e-01 5.821341e-01 6.166806e-01 6.636598e-01 7.398538e-01 6.846151e-01 6.561248e-01 6.171468e-01 9.392531e-02 4.181727e-02 3.730239e-02 5.297197e-02 8.639843e-02 9.252848e-02 1.219562e-01 1.229696e-01 1.382808e-01 1.293300e-01 1.351288e-01 1.166648e-01 1.123865e-01 5.096375e-02
<GCONST> 5.688104e+01
<TRANSP> 5
 0.000000e+00 1.000000e+00 0.000000e+00 0.000000e+00 0.000000e+00
 0.000000e+00 3.730725e-01 6.269275e-01 0.000000e+00 0.000000e+00
 0.000000e+00 0.000000e+00 7.567096e-01 2.432904e-01 0.000000e+00
 0.000000e+00 0.000000e+00 0.000000e+00 2.408078e-01 7.591922e-01
 0.000000e+00 0.000000e+00 0.000000e+00 0.000000e+00 0.000000e+00
<ENDHMM>
~h "k"
<BEGINHMM>
<NUMSTATES> 5
<STATE> 2
<NUMMIXES> 4
<MIXTURE> 1 1.986165e-01
<MEAN> 39
 2.681782e+00 2.522054e+00 2.432101e+00 -6.554793e-01 -1.541229e+00 -1.458062e+00 -9.434237e-01 2.058152e-01 5.705132e-01 5.557820e-01 9.360110e-01 6.305325e-01 -8.403799e+00 -6.897513e-01 -5.156173e-01 -2.165554e-01 2.927049e-01 1.101645e-01 5.861685e-01 6.183959e-01 3.598729e-01 3.436144e-01 4.074809e-01 1.427957e-01 2.725156e-01 5.729439e-01 -3.015276e-01 -1.754225e-01 -1.068881e-01 4.393588e-02 6.507394e-02 2.366729e-01 1.448847e-01 8.414780e-02 6.932338e-02 7.467915e-02 -2.186418e-02 1.550650e-02 1.014504e+00
<VARIANCE> 39
 2.561350e+01 2.435275e+01 2.667098e+01 2.374788e+01 2.553097e+01 3.099820e+01 2.856868e+01 2.593939e+01 2.587505e+01 2.827632e+01 2.254775e+01 1.844104e+01 1.111058e+02 1.472534e+00 1.224161e+00 1.286940e+00 1.478288e+00 1.544029e+00 1.770648e+00 1.433632e+00 1.363936e+00 1.515479e+00 1.405437e+00 1.177331e+00 8.494254e-01 1.178950e+01 2.841484e-01 2.682669e-01 2.878115e-01 2.759597e-01 2.866907e-01 3.243822e-01 2.924173e-01 2.690820e-01 2.530501e-01 2.765325e-01 2.155326e-01 1.737975e-01 1.371514e+00
<GCONST> 1.056613e+02
<MIXTURE> 2 3.041591e-01
<MEAN> 39
 -4.744068e-01 1.792604e-01 7.139094e-01 3.403250e-01 -6.053917e-01 9.780393e-01 7.883427e-01 9.187549e-01 6.845176e-01 1.046435e+00 4.996188e-01 3.170867e-01 3.450422e+00 3.013180e-01 3.386859e-01 3.486640e-01 -4.436102e-01 -3.117171e-01 -2.937827e-01 -3.092659e-01 -3.629895e-01 5.271061e-02 -1.643604e-01 -5.296409e-03 -2.376256e-01 -6.198152e-01 1.345647e-02 3.690137e-02 -1.845710e-02 -2.685554e-02 1.957455e-02 -6.645124e-02 -3.258824e-02 -2.371132e-02 2.574914e-02 -2.409721e-02 2.706054e-02 3.844470e-02 -3.683907e-01
<VARIANCE> 39
 1.286994e+01 1.037450e+01 1.289387e+01 2.115407e+01 2.243579e+01 2.081379e+01 2.324519e+01 2.347276e+01 2.371539e+01 2.246208e+01 1.967170e+01 1.726714e+01 4.517628e+01 1.545232e+00 9.119452e-01 1.050002e+00 1.073729e+00 1.095815e+00 1.367308e+00 1.080029e+00 1.008542e+00 1.123289e+00 1.113907e+00 9.684590e-01 7.981585e-01 8.190683e+00 1.466381e-01 1.327447e-01 1.412670e-01 1.963463e-01 1.950989e-01 2.064605e-01 2.062182e-01 2.031689e-01 2.135351e-01 2.069898e-01 1.739267e-01 1.444370e-01 5.372474e-01
<GCONST> 9.223425e+01
<MIXTURE> 3 2.430744e-01
<MEAN> 39
 -5.324331e-01 -9.220955e-02 8.087120e-01 -4.319733e-01 -1.656257e+00 1.582209e-01 3.312190e-01 5.553961e-02 1.769200e-01 3.726946e-01 -2.165390e-01 -4.053662e-01 2.300520e+00 1.408193e-01 1.150710e-01 1.314369e-01 -7.917336e-01 -4.898456e-01 -5.588619e-01 -5.042621e-01 -7.365812e-01 -2.432097e-01 -5.715541e-01 -2.997372e-01 -5.133887e-01 -6.801322e-01 2.299613e-02 1.922239e-02 -7.412133e-02 -5.651610e-02 3.437925e-02 -1.141154e-01 -9.625569e-02 -7.984941e-02 -3.105390e-02 -9.466835e-02 -9.742811e-03 2.357394e-03 -4.176219e-01
<VARIANCE> 39
 1.289017e+01 1.123763e+01 1.293667e+01 2.270923e+01 2.399457e+01 2.152877e+01 2.383660e+01 2.420560e+01 2.459597e+01 2.317901e+01 2.016044e+01 1.812080e+01 3.776754e+01 1.402457e+00 8.320749e-01 8.741807e-01 1.118403e+00 9.962103e-01 1.312497e+00 1.135554e+00 1.041339e+00 1.164612e+00 1.185663e+00 9.414599e-01 8.263679e-01 6.477046e+00 1.321428e-01 1.262019e-01 1.305841e-01 2.002163e-01 1.960870e-01 2.055290e-01 2.044936e-01 2.104256e-01 2.155572e-01 2.168468e-01 1.695688e-01 1.435142e-01 5.576504e-01
<GCONST> 9.186839e+01
<MIXTURE> 4 2.541417e-01
<MEAN> 39
 2.766052e+00 2.168194e+00 2.531512e+00 -1.535085e+00 -2.549962e+00 -2.634432e+00 -1.851566e+00 -6.500429e-01 2.330740e-01 -8.418390e-02 7.306760e-01 -1.462061e-01 -8.348948e+00 -6.724491e-01 -6.334537e-01 -3.360943e-01 -1.481072e-01 -2.899878e-01 1.590151e-01 3.538701e-01 -9.972563e-02 1.146087e-01 -1.453110e-02 -8.610740e-02 -5.009696e-02 -2.722164e-01 -3.267533e-01 -2.081534e-01 -1.785101e-01 1.900183e-02 6.521988e-02 2.110921e-01 1.244586e-01 3.052311e-02 6.078064e-03 9.920418e-03 -8.486438e-02 -2.592334e-02 8.278690e-01
<VARIANCE> 39
 2.875257e+01 2.965822e+01 2.841115e+01 2.567358e+01 2.820602e+01 3.230506e+01 3.096643e+01 2.670175e+01 2.696322e+01 2.851081e+01 2.362636e+01 1.873589e+01 1.021915e+02 1.570685e+00 1.310395e+00 1.285168e+00 1.497061e+00 1.541870e+00 1.782943e+00 1.427731e+00 1.285826e+00 1.397013e+00 1.292696e+00 1.152095e+00 8.959840e-01 1.147425e+01 3.098487e-01 3.023958e-01 2.987633e-01 3.000161e-01 2.992266e-01 3.438499e-01 3.109640e-01 2.706636e-01 2.660061e-01 2.870505e-01 2.216336e-01 1.850053e-01 1.356321e+00
<GCONST> 1.069822e+02
<STATE> 3
<NUMMIXES> 4
<MIXTURE> 1 2.612898e-01
<MEAN> 39
 -1.872667e+00 -1.805276e-03 -4.349722e-01 -4.039347e-02 -7.544868e-01 7.287694e-01 5.512772e-01 1.141247e-01 7.151394e-01 7.377902e-01 1.815757e-01 -3.023058e-01 1.903683e+00 1.471634e-01 1.436933e-01 -3.322066e-02 -3.644430e-02 -5.558576e-02 -1.638718e-01 -1.844694e-01 -9.192765e-02 -7.810479e-02 -1.309127e-01 -6.178211e-02 -2.875416e-02 1.973750e-02 5.894049e-02 6.829299e-03 6.199992e-02 6.688974e-02 8.255461e-02 6.956801e-02 8.897545e-02 7.884310e-02 3.674947e-02 6.000756e-02 5.443664e-02 5.885375e-02 -2.174534e-02
<VARIANCE> 39
 9.470223e+00 4.276354e+00 6.875156e+00 1.152040e+01 1.384521e+01 1.320604e+01 1.640167e+01 1.706977e+01 1.836499e+01 1.802973e+01 1.501199e+01 1.492437e+01 1.217796e+01 2.155334e-01 1.881640e-01 2.917702e-01 4.404924e-01 5.326249e-01 5.886757e-01 6.916542e-01 8.363611e-01 8.156707e-01 7.091028e-01 6.103063e-01 6.060647e-01 1.056218e-01 3.741350e-02 3.527056e-02 5.987159e-02 8.882868e-02 1.083299e-01 1.073741e-01 1.326411e-01 1.538988e-01 1.536983e-01 1.463190e-01 1.270781e-01 1.303233e-01 4.360441e-02
<GCONST> 6.231327e+01
<MIXTURE> 2 2.042332e-01
<MEAN> 39
 -3.801387e+00 -1.096145e+00 5.153880e-01 -3.705668e+00 -2.300226e+00 2.235340e+00 9.589226e-01 -1.764879e+00 2.546103e+00 3.644858e-01 -8.192121e-01 -1.545244e+00 2.457959e+00 1.801698e-02 -2.469949e-02 -2.881948e-01 -3.830715e-01 3.633156e-01 -2.811817e-01 -2.666565e-01 -2.477935e-01 1.732560e-01 -3.921828e-01 -4.519105e-02 -1.751888e-01 -5.562681e-01 2.250489e-01 5.611526e-02 4.858037e-03 3.048158e-01 1.149476e-01 -1.320709e-01 -1.912154e-03 1.827293e-01 -9.191313e-02 6.366599e-02 1.303932e-01 1.462995e-01 -2.041731e-01
<VARIANCE> 39
 1.281192e+01 8.930204e+00 1.181318e+01 2.389638e+01 2.321740e+01 1.997903e+01 2.080662e+01 2.274935e+01 2.764682e+01 2.847449e+01 1.861298e+01 2.104056e+01 2.404227e+01 8.553004e-01 5.066470e-01 7.824564e-01 1.163083e+00 1.070774e+00 1.077674e+00 1.010511e+00 1.099891e+00 1.240588e+00 1.282731e+00 8.141684e-01 8.161436e-01 8.728366e-01 9.727089e-02 8.645491e-02 1.082839e-01 1.856229e-01 1.757712e-01 1.770330e-01 1.893082e-01 2.082436e-01 2.059762e-01 2.093760e-01 1.476770e-01 1.520249e-01 2.714707e-01
<GCONST> 8.578341e+01
<MIXTURE> 3 3.614874e-01
<MEAN> 39
 -1.637142e+00 -1.714377e-01 -8.697170e-01 -7.721841e-01 -1.581220e+00 -1.600404e-01 -2.627726e-01 -9.457059e-01 -1.098920e-01 -2.413459e-01 -5.979301e-01 -1.094915e+00 1.143778e+00 1.022387e-01 2.289299e-02 -1.720070e-01 -2.782264e-01 -2.655201e-01 -4.032982e-01 -4.063666e-01 -3.720330e-01 -3.502597e-01 -3.423756e-01 -2.747174e-01 -2.216161e-01 -8.644639e-02 2.681863e-02 -3.158893e-02 2.402925e-02 3.319502e-02 5.817426e-02 4.233485e-02 6.542881e-02 4.256080e-02 5.471684e-03 3.866710e-02 3.134001e-02 3.720429e-02 -2.341899e-02
<VARIANCE> 39
 9.838944e+00 4.492516e+00 7.269943e+00 1.083164e+01 1.393261e+01 1.293024e+01 1.589734e+01 1.539861e+01 1.820594e+01 1.915768e+01 1.545488e+01 1.431369e+01 1.000518e+01 2.013217e-01 1.809769e-01 2.888318e-01 4.276505e-01 5.523039e-01 5.721598e-01 6.757951e-01 7.107994e-01 7.877660e-01 7.194459e-01 6.344841e-01 6.659709e-01 1.150558e-01 3.751663e-02 3.723539e-02 5.704248e-02 8.251333e-02 1.072290e-01 1.089147e-01 1.275778e-01 1.414937e-01 1.472452e-01 1.434207e-01 1.250505e-01 1.226634e-01 3.470627e-02
<GCONST> 6.141011e+01
<MIXTURE> 4 1.729958e-01
<MEAN> 39
 -3.885751e+00 -1.599126e+00 7.509497e-01 -5.076463e+00 -2.645357e+00 1.635360e+00 2.766578e-01 -2.634741e+00 2.407207e+00 -4.785355e-01 -1.423383e+00 -2.164355e+00 1.246457e+00 -2.012051e-01 -2.928312e-01 -4.416564e-01 -9.676201e-01 1.442000e-01 -6.702745e-01 -5.707027e-01 -6.367201e-01 5.130142e-02 -8.451489e-01 -2.427718e-01 -4.564701e-01 -9.633157e-01 1.967105e-01 3.201101e-02 -9.458949e-02 2.992220e-01 6.276993e-02 -2.229336e-01 -5.214371e-02 1.399589e-01 -1.573918e-01 8.133739e-03 1.130880e-01 1.122983e-01 -3.478296e-01
<VARIANCE> 39
 1.179015e+01 9.141701e+00 1.166838e+01 2.225065e+01 2.270841e+01 2.168566e+01 1.989121e+01 2.288286e+01 2.672336e+01 2.854260e+01 1.849699e+01 1.943367e+01 2.025689e+01 7.126825e-01 5.073753e-01 7.594259e-01 1.253828e+00 1.143723e+00 1.165045e+00 1.011673e+00 1.126889e+00 1.176419e+00 1.424528e+00 8.475443e-01 7.902682e-01 6.578006e-01 8.462187e-02 8.127820e-02 1.045745e-01 1.741697e-01 1.576862e-01 1.893103e-01 1.742229e-01 2.011437e-01 1.932490e-01 2.065637e-01 1.500998e-01 1.503508e-01 3.103199e-01
<GCONST> 8.478524e+01
<STATE> 4
<NUMMIXES> 4
<MIXTURE> 1 2.556104e-01
<MEAN> 39
 -1.488087e-01 -1.651967e-01 -2.939535e-01 -1.049372e+00 -9.397792e-01 -9.515072e-01 -8.825775e-01 -9.177933e-01 -6.775320e-02 -6.869480e-01 -1.842245e-01 -2.937115e-01 -1.997308e-02 8.824010e-02 9.021048e-02 -1.285528e-02 1.591657e-02 1.625414e-02 -5.725805e-02 -2.239586e-02 2.584450e-02 2.567461e-02 2.682343e-03 9.518179e-02 1.231940e-01 1.584196e-03 -6.901506e-03 7.890489e-03 5.341344e-02 1.294944e-01 1.536004e-01 1.875761e-01 1.978798e-01 1.823846e-01 1.290910e-01 1.607468e-01 1.111922e-01 9.195617e-02 1.335491e-02
<VARIANCE> 39
 5.075196e+00 4.974844e+00 6.829921e+00 1.083901e+01 1.158579e+01 1.290293e+01 1.467569e+01 1.639195e+01 1.828604e+01 1.622223e+01 1.478097e+01 1.459731e+01 4.169094e+00 1.310019e-01 1.726450e-01 2.779266e-01 4.178172e-01 4.736456e-01 5.671201e-01 6.117744e-01 6.774924e-01 7.433491e-01 7.207947e-01 7.086002e-01 5.658898e-01 5.442963e-02 2.647418e-02 3.453832e-02 5.073173e-02 8.944231e-02 9.132385e-02 1.052123e-01 1.153731e-01 1.277539e-01 1.471550e-01 1.341092e-01 1.211870e-01 1.216226e-01 1.461239e-02
<GCONST> 5.598549e+01
<MIXTURE> 2 2.398614e-01
<MEAN> 39
 6.410842e-01 -2.168191e+00 4.282458e-01 -3.075699e+00 -3.210588e-01 -2.243567e-01 -2.547684e-01 -3.078288e+00 7.075654e-01 -1.410012e+00 -6.933709e-01 -1.916643e+00 -1.716618e+00 4.157294e-01 1.240891e-02 6.589516e-02 1.252531e-01 2.569754e-01 -1.773333e-01 -1.650030e-02 -5.913312e-03 -9.151705e-02 -9.507462e-04 1.511044e-01 1.173358e-01 -5.575565e-01 -3.380455e-02 8.559915e-02 2.321959e-02 1.538475e-01 -1.874092e-02 7.880443e-02 7.363485e-02 1.573603e-01 1.500262e-02 1.346953e-01 6.625285e-02 8.663733e-02 6.765963e-02
<VARIANCE> 39
 2.133537e+01 1.309450e+01 1.437315e+01 2.475220e+01 2.371619e+01 2.628978e+01 2.730457e+01 2.995779e+01 3.295512e+01 2.890315e+01 2.246667e+01 1.772458e+01 2.086466e+01 5.274259e-01 5.292140e-01 6.834207e-01 1.084058e+00 1.019619e+00 1.032876e+00 1.041717e+00 1.187570e+00 9.950442e-01 1.071979e+00 9.678614e-01 7.734110e-01 5.943059e-01 9.240473e-02 8.943918e-02 1.025380e-01 2.005661e-01 1.739468e-01 1.721638e-01 2.008668e-01 2.073757e-01 1.911256e-01 2.005799e-01 1.713236e-01 1.381013e-01 8.468750e-02
<GCONST> 8.531276e+01
<MIXTURE> 3 3.214166e-01
<MEAN> 39
 -5.121289e-01 -7.264145e-01 -8.466832e-01 -2.341200e+00 -1.598726e+00 -1.747036e+00 -1.367457e+00 -1.751228e+00 -2.563324e-01 -1.658498e+00 -7.020000e-01 -1.194294e+00 -6.842213e-01 4.259359e-02 -3.531156e-02 -1.767646e-01 -1.511338e-01 -1.513779e-01 -2.711451e-01 -1.801332e-01 -1.521356e-01 -1.864768e-01 -2.053637e-01 -9.545729e-02 -5.958303e-02 -8.194572e-02 -1.614868e-02 -2.099616e-02 3.413361e-02 6.806164e-02 8.619542e-02 1.272898e-01 1.229945e-01 9.554599e-02 6.173383e-02 9.198415e-02 3.936964e-02 3.584768e-02 1.538306e-02
<VARIANCE> 39
 8.517850e+00 6.953254e+00 7.987742e+00 1.344404e+01 1.259236e+01 1.425901e+01 1.537368e+01 1.652596e+01 2.041266e+01 1.732345e+01 1.544751e+01 1.484894e+01 4.788601e+00 1.436688e-01 1.860330e-01 2.943449e-01 4.748116e-01 4.927364e-01 6.032221e-01 6.639949e-01 7.085545e-01 7.512318e-01 7.129415e-01 7.372530e-01 5.955683e-01 8.799848e-02 3.107449e-02 3.683732e-02 5.127478e-02 9.470397e-02 9.812513e-02 1.150147e-01 1.244258e-01 1.416542e-01 1.435526e-01 1.282355e-01 1.267335e-01 1.239621e-01 1.767155e-02
<GCONST> 5.979087e+01
<MIXTURE> 4 1.831182e-01
<MEAN> 39
 6.756952e-01 -2.613165e+00 1.272184e-01 -3.988161e+00 -6.696122e-01 -1.230197e+00 -7.096561e-01 -3.787683e+00 5.767470e-01 -1.813370e+00 -1.565118e+00 -2.634240e+00 -2.705586e+00 3.718747e-01 -1.807804e-01 -8.639224e-02 -6.257822e-02 -4.374009e-02 -4.163637e-01 -3.427017e-01 -3.243585e-01 -3.830354e-01 -1.983324e-01 -6.045412e-02 -1.650628e-01 -7.490884e-01 -7.246320e-02 4.240277e-02 -2.021408e-02 9.120978e-02 -9.298804e-02 3.195217e-02 2.714382e-02 7.201052e-02 -1.861775e-02 6.565925e-02 2.936988e-02 5.582429e-02 1.495489e-02
<VARIANCE> 39
 2.032904e+01 1.313593e+01 1.473036e+01 2.322596e+01 2.398837e+01 2.626747e+01 2.740248e+01 2.998443e+01 3.272668e+01 2.990855e+01 2.293470e+01 1.746120e+01 1.789886e+01 5.178396e-01 5.696850e-01 6.345645e-01 1.118833e+00 9.841886e-01 1.119194e+00 1.091700e+00 1.212030e+00 1.009292e+00 1.214818e+00 1.054597e+00 7.330347e-01 5.910476e-01 8.638110e-02 8.803490e-02 9.695119e-02 1.851013e-01 1.641918e-01 1.765358e-01 1.916795e-01 2.101399e-01 1.834238e-01 1.993871e-01 1.817524e-01 1.247476e-01 7.731088e-02
<GCONST> 8.494746e+01
<TRANSP> 5
 0.000000e+00 1.000000e+00 0.000000e+00 0.000000e+00 0.000000e+00
 0.000000e+00 7.460746e-01 2.539254e-01 0.000000e+00 0.000000e+00
 0.000000e+00 0.000000e+00 4.268320e-01 5.731679e-01 0.000000e+00
 0.000000e+00 0.000000e+00 0.000000e+00 4.819479e-01 5.180521e-01
 0.000000e+00 0.000000e+00 0.000000e+00 0.000000e+00 0.000000e+00
<ENDHMM>
~h "n"
<BEGINHMM>
<NUMSTATES> 5
<STATE> 2
<NUMMIXES> 4
<MIXTURE> 1 1.602001e-01
<MEAN> 39
 -7.803842e-01 -5.354877e-01 -4.570866e-01 1.728210e+00 6.208202e-01 1.766975e+00 9.975117e-01 1.890106e+00 5.955231e-02 1.041788e+00 5.477683e-01 1.247503e+00 7.199098e+00 4.551598e-01 1.803756e-01 2.378413e-01 2.046283e-01 2.016850e-01 1.489133e-01 1.304256e-01 1.596447e-02 -6.824776e-02 -2.064893e-02 6.457074e-02 6.963042e-02 -7.618420e-03 1.606085e-01 1.350504e-01 1.276432e-01 3.365524e-03 8.778829e-02 3.082391e-03 8.814037e-04 -6.050030e-02 1.874790e-04 -2.989285e-03 -9.833768e-03 -3.497297e-02 -1.563201e-01
<VARIANCE> 39
 5.139056e+00 4.302559e+00 5.851811e+00 9.721416e+00 1.116692e+01 1.464624e+01 1.539191e+01 1.629992e+01 1.633949e+01 1.646789e+01 1.666437e+01 1.419785e+01 4.670249e+01 2.177862e-01 1.929199e-01 2.727320e-01 4.011097e-01 5.601799e-01 6.216307e-01 7.436402e-01 7.929264e-01 7.829010e-01 8.104475e-01 7.516227e-01 6.757721e-01 5.202078e-02 5.954681e-02 5.567982e-02 7.750820e-02 9.713676e-02 1.196567e-01 1.454307e-01 1.634421e-01 1.708015e-01 1.629284e-01 1.641885e-01 1.588533e-01 1.374967e-01 6.094784e-02
<GCONST> 6.481688e+01
<MIXTURE> 2 3.918991e-01
<MEAN> 39
 4.288366e-02 3.606679e-01 5.430750e-01 1.001037e+00 6.672848e-01 5.868784e-01 9.085217e-02 -1.340874e-01 -5.529814e-01 -5.050325e-01 -4.400142e-01 -6.782755e-02 7.815679e-01 1.575876e-01 1.941944e-01 1.903162e-01 4.810039e-02 -6.308682e-02 -2.211332e-01 -3.077535e-01 -3.464998e-01 -3.346745e-01 -2.331108e-01 -1.283379e-01 -6.168641e-02 2.435585e-02 -6.618099e-03 -2.126895e-02 -4.072801e-02 -4.820574e-02 -2.062469e-02 1.640881e-02 6.165218e-02 1.121842e-01 1.416235e-01 1.433443e-01 1.205570e-01 7.340593e-02 -4.580440e-03
<VARIANCE> 39
 1.428155e+00 2.444414e+00 4.255322e+00 7.321516e+00 9.172995e+00 1.113846e+01 1.217995e+01 1.297527e+01 1.383594e+01 1.383101e+01 1.337527e+01 1.227069e+01 4.540388e+00 8.183771e-02 1.335373e-01 2.192453e-01 3.428400e-01 4.310094e-01 5.288349e-01 5.834077e-01 6.045474e-01 6.548198e-01 6.477063e-01 6.225881e-01 5.662903e-01 1.671677e-02 1.329295e-02 2.431017e-02 4.208400e-02 6.705875e-02 8.866658e-02 1.010978e-01 1.104380e-01 1.167835e-01 1.238448e-01 1.245360e-01 1.202655e-01 1.052941e-01 2.928312e-03
<GCONST> 4.495964e+01
<MIXTURE> 3 2.507551e-01
<MEAN> 39
 -1.863712e-02 7.200563e-02 1.576569e-01 3.933221e-01 8.673003e-02 -9.693915e-02 -5.738668e-01 -8.270877e-01 -1.224647e+00 -1.177332e+00 -1.052133e+00 -5.969216e-01 4.535166e-01 7.485592e-02 7.386591e-02 7.289514e-03 -1.754904e-01 -3.055660e-01 -4.851835e-01 -5.719638e-01 -6.346852e-01 -6.174137e-01 -4.949668e-01 -3.889263e-01 -2.569132e-01 -1.490007e-02 -2.214023e-02 -4.008806e-02 -7.205589e-02 -9.046124e-02 -6.954826e-02 -3.974330e-02 6.267849e-03 4.905170e-02 9.043614e-02 8.824213e-02 6.835625e-02 3.738666e-02 -1.360392e-02
<VARIANCE> 39
 1.348489e+00 2.468234e+00 4.335533e+00 7.399531e+00 9.003428e+00 1.124466e+01 1.179061e+01 1.326057e+01 1.364466e+01 1.391885e+01 1.339647e+01 1.234242e+01 2.586323e+00 8.458107e-02 1.370491e-01 2.171009e-01 3.451032e-01 4.251834e-01 5.310251e-01 5.808643e-01 5.901976e-01 6.600962e-01 6.381183e-01 6.262617e-01 5.741760e-01 1.921856e-02 1.305380e-02 2.441459e-02 4.183868e-02 6.897900e-02 8.614941e-02 9.990280e-02 1.051126e-01 1.150225e-01 1.225070e-01 1.238755e-01 1.199514e-01 1.088843e-01 3.063752e-03
<GCONST> 4.449161e+01
<MIXTURE> 4 1.971855e-01
<MEAN> 39
 -1.092457e+00 -8.095307e-01 -7.410687e-01 1.060169e+00 1.358296e-01 1.049727e+00 2.610647e-01 1.022237e+00 -3.750636e-01 2.697768e-01 -1.368020e-01 6.523085e-01 5.325356e+00 3.439089e-01 6.906027e-02 9.099305e-02 -3.030266e-02 -8.410070e-03 -1.253259e-01 -1.887485e-01 -3.239170e-01 -3.634435e-01 -2.878622e-01 -1.834032e-01 -1.259313e-01 -7.954457e-02 1.367307e-01 9.158701e-02 6.683812e-02 -6.237920e-02 4.432667e-03 -8.025751e-02 -5.626576e-02 -1.168163e-01 -5.913823e-02 -6.963927e-02 -4.962958e-02 -7.911818e-02 -1.544664e-01
<VARIANCE> 39
 4.540926e+00 4.103943e+00 5.757023e+00 1.009986e+01 1.139290e+01 1.418591e+01 1.544674e+01 1.704243e+01 1.700842e+01 1.662869e+01 1.643279e+01 1.468029e+01 5.260825e+01 2.180651e-01 1.883801e-01 2.564925e-01 4.094047e-01 5.199640e-01 6.377459e-01 7.340274e-01 7.918392e-01 8.130217e-01 7.956955e-01 7.695286e-01 6.637747e-01 6.032730e-02 5.657743e-02 5.244324e-02 7.220268e-02 9.917329e-02 1.182128e-01 1.477576e-01 1.568819e-01 1.707364e-01 1.640051e-01 1.638947e-01 1.594145e-01 1.368792e-01 6.078371e-02
<GCONST> 6.474097e+01
<STATE> 3
<NUMMIXES> 4
<MIXTURE> 1 2.379853e-01
<MEAN> 39
 5.875714e-01 1.161927e-01 1.170753e-01 6.943974e-01 4.244285e-01 5.188433e-01 5.652003e-01 5.629743e-01 -5.295259e-02 2.271252e-01 2.186435e-01 4.649073e-01 1.276541e+00 1.557523e-01 1.891760e-01 2.199123e-01 2.466104e-01 2.822325e-01 2.684421e-01 1.669239e-01 2.006443e-01 1.724046e-01 2.576231e-01 1.426205e-01 1.615686e-01 3.875218e-01 6.119884e-02 7.228403e-02 1.199180e-01 -1.762339e-02 7.503378e-02 2.245918e-03 1.219478e-02 -1.440339e-02 6.776927e-02 4.664223e-02 3.006537e-02 -1.582167e-02 -1.012988e-01
<VARIANCE> 39
 9.236217e+00 7.662315e+00 9.469258e+00 1.372354e+01 1.446622e+01 1.973796e+01 1.869819e+01 2.123998e+01 1.898702e+01 2.028695e+01 1.746140e+01 1.591865e+01 9.174192e+01 1.153190e+00 7.488170e-01 1.026343e+00 8.392646e-01 9.832444e-01 1.198869e+00 1.073761e+00 1.292431e+00 1.135859e+00 1.173033e+00 9.685436e-01 8.761583e-01 3.892063e+00 9.955908e-02 9.682184e-02 1.462946e-01 1.386899e-01 1.552189e-01 1.946373e-01 1.893468e-01 2.090385e-01 1.919588e-01 1.932622e-01 1.679433e-01 1.472924e-01 5.310908e-01
<GCONST> 8.732569e+01
<MIXTURE> 2 2.304034e-01
<MEAN> 39
 4.957555e+00 2.636829e+00 4.511693e+00 -5.387018e-01 1.939231e+00 -1.008760e+00 -1.514242e+00 -3.671658e+00 -1.691073e+00 -1.432066e+00 -1.193279e+00 -1.746961e+00 -3.584011e+00 1.465678e-01 1.428367e-01 2.435118e-01 -2.035477e-01 -2.112659e-02 -2.319641e-01 -8.630258e-02 -2.283268e-01 1.167047e-01 3.138207e-02 9.642744e-02 -8.247192e-02 -9.344538e-01 -2.468184e-01 -1.760635e-01 -2.417315e-01 6.320608e-02 -7.668512e-02 1.428083e-01 1.575897e-01 2.658787e-01 1.512429e-01 1.515433e-01 1.289749e-01 1.579562e-01 2.598333e-01
<VARIANCE> 39
 2.280444e+01 1.883826e+01 2.980294e+01 2.836012e+01 2.947298e+01 3.337916e+01 3.460575e+01 3.690142e+01 3.338148e+01 3.053341e+01 2.528782e+01 2.172886e+01 5.805259e+01 1.020144e+00 9.142761e-01 1.651224e+00 1.175466e+00 1.246513e+00 1.403572e+00 1.429358e+00 1.724468e+00 1.404907e+00 1.245109e+00 1.098779e+00 1.027217e+00 3.959193e+00 1.600913e-01 1.542010e-01 2.182529e-01 2.145846e-01 2.269340e-01 2.605158e-01 2.628344e-01 2.623384e-01 2.647839e-01 2.502365e-01 2.131893e-01 1.869545e-01 3.184289e-01
<GCONST> 1.005856e+02
<MIXTURE> 3 3.508297e-01
<MEAN> 39
 2.844674e-01 -3.041526e-01 -2.251661e-01 -4.434657e-02 -3.180490e-01 -2.136661e-01 -2.222498e-01 -4.200748e-01 -6.299245e-01 -6.237650e-01 -3.994465e-01 -1.049691e-01 5.030560e-02 6.308407e-02 3.956668e-02 6.137945e-03 -8.794844e-02 -8.232431e-02 -1.622265e-01 -1.543315e-01 -1.890727e-01 -1.580703e-01 -1.474825e-01 -1.109973e-01 -1.037433e-01 -9.576604e-03 4.548846e-02 4.143095e-02 6.428188e-02 -6.997484e-02 2.064386e-02 -5.317296e-02 -3.046775e-02 -5.860863e-02 2.135012e-02 -5.789749e-03 -1.403517e-02 -6.340186e-02 -1.509976e-01
<VARIANCE> 39
 8.365982e+00 7.105189e+00 8.628972e+00 1.397428e+01 1.406924e+01 1.910530e+01 1.793952e+01 2.115820e+01 1.856874e+01 1.900422e+01 1.731810e+01 1.584422e+01 8.806700e+01 9.742100e-01 6.675555e-01 8.655931e-01 7.448577e-01 8.721840e-01 1.042321e+00 1.007010e+00 1.201934e+00 1.071496e+00 1.098653e+00 8.889263e-01 8.204505e-01 2.709468e+00 8.747257e-02 8.203234e-02 1.102848e-01 1.281641e-01 1.317390e-01 1.829419e-01 1.743773e-01 1.955622e-01 1.816214e-01 1.831733e-01 1.600819e-01 1.488470e-01 3.949924e-01
<GCONST> 8.374795e+01
<MIXTURE> 4 1.807573e-01
<MEAN> 39
 4.670619e+00 2.083673e+00 4.371115e+00 -7.501426e-01 1.798041e+00 -1.092701e+00 -2.049916e+00 -4.503209e+00 -1.849013e+00 -2.178093e+00 -1.573467e+00 -2.189735e+00 -3.857093e+00 -4.909065e-02 -1.229863e-01 -4.475699e-02 -7.198222e-01 -4.456194e-01 -7.895785e-01 -5.580969e-01 -7.812393e-01 -1.748483e-01 -4.641588e-01 -1.773863e-01 -4.565482e-01 -1.655087e+00 -2.711407e-01 -2.031806e-01 -2.952251e-01 -2.279862e-02 -1.602211e-01 3.579277e-02 9.567925e-02 2.235948e-01 9.217900e-02 1.111130e-01 7.027204e-02 1.028889e-01 2.029549e-01
<VARIANCE> 39
 1.965051e+01 1.921865e+01 2.939697e+01 2.924955e+01 3.255870e+01 3.519318e+01 3.619783e+01 3.781105e+01 3.758052e+01 3.260306e+01 2.611936e+01 2.380280e+01 5.583676e+01 1.098289e+00 1.018181e+00 1.532770e+00 1.187025e+00 1.240925e+00 1.381476e+00 1.513823e+00 1.770924e+00 1.501489e+00 1.361201e+00 1.178085e+00 1.146710e+00 2.716483e+00 1.631417e-01 1.677759e-01 2.228442e-01 2.103802e-01 2.415973e-01 2.631029e-01 2.636723e-01 2.680108e-01 2.936508e-01 2.604938e-01 2.141227e-01 2.051473e-01 2.895175e-01
<GCONST> 1.014505e+02
<STATE> 4
<NUMMIXES> 4
<MIXTURE> 1 2.355554e-01
<MEAN> 39
 -5.547972e-01 1.187261e-01 1.172399e-01 5.641998e-01 -4.336250e-02 4.204699e-02 -3.152991e-01 -1.863119e-01 -5.358914e-01 -1.143192e-01 -1.007980e-01 3.695370e-01 2.546101e+00 -6.774805e-03 6.993458e-02 1.002519e-01 1.412979e-01 1.773716e-01 2.215142e-01 2.455006e-01 2.976105e-01 3.333284e-01 3.587391e-01 2.807957e-01 2.007257e-01 4.570126e-02 2.225372e-02 -4.664496e-03 -2.433505e-03 3.037946e-02 8.418911e-02 1.260650e-01 1.593855e-01 1.645216e-01 1.598205e-01 1.361835e-01 9.099516e-02 5.156780e-02 -3.137127e-02
<VARIANCE> 39
 3.304232e+00 3.387714e+00 5.219141e+00 8.516571e+00 1.050193e+01 1.277579e+01 1.396639e+01 1.548758e+01 1.665201e+01 1.611781e+01 1.432779e+01 1.356814e+01 1.972112e+01 1.265471e-01 1.507845e-01 2.373014e-01 3.511438e-01 4.597398e-01 5.487590e-01 5.735707e-01 6.744483e-01 7.255596e-01 7.489430e-01 6.776016e-01 5.741285e-01 3.493233e-02 3.402996e-02 3.762699e-02 5.378538e-02 7.519669e-02 9.750172e-02 1.161348e-01 1.325115e-01 1.352923e-01 1.581562e-01 1.492414e-01 1.335109e-01 1.209962e-01 2.633652e-02
<GCONST> 5.614552e+01
<MIXTURE> 2 2.504098e-01
<MEAN> 39
 9.258593e-01 7.189437e-01 9.885070e-01 -3.439608e-01 -9.223160e-02 -9.318421e-01 -1.072059e+00 -1.553352e+00 -9.693478e-01 -6.424335e-01 -4.432484e-01 -5.584046e-01 -7.090876e-01 -2.268438e-02 -4.509909e-02 -1.714284e-01 -1.763059e-01 -2.005942e-01 -1.179601e-01 4.011378e-02 1.471151e-01 1.392640e-01 1.406836e-01 1.711789e-01 1.311623e-01 -5.029077e-02 -1.597192e-02 -2.610238e-02 -1.079567e-02 8.084262e-02 1.053475e-01 1.688545e-01 1.840461e-01 1.964974e-01 1.688010e-01 1.423983e-01 1.011461e-01 9.577335e-02 4.491121e-02
<VARIANCE> 39
 7.804559e+00 5.058298e+00 8.200886e+00 1.255916e+01 1.215547e+01 1.568019e+01 1.518413e+01 1.943056e+01 1.593343e+01 1.609338e+01 1.460354e+01 1.391283e+01 3.256499e+01 1.595909e-01 1.995142e-01 2.885607e-01 4.651993e-01 5.024387e-01 5.846622e-01 6.548491e-01 6.993977e-01 7.277130e-01 6.987542e-01 6.384391e-01 5.953599e-01 1.175475e-01 3.590772e-02 4.687687e-02 6.762589e-02 9.222917e-02 1.048864e-01 1.248469e-01 1.343538e-01 1.435321e-01 1.433806e-01 1.364342e-01 1.294895e-01 1.189111e-01 2.404073e-02
<GCONST> 6.243948e+01
<MIXTURE> 3 3.374939e-01
<MEAN> 39
 -4.894499e-01 -1.098665e-01 -2.102109e-01 2.941191e-02 -6.609993e-01 -6.584441e-01 -1.014131e+00 -8.534249e-01 -1.207893e+00 -7.967551e-01 -7.359269e-01 -1.717696e-01 1.886226e+00 -7.798135e-02 -4.634015e-02 -6.077109e-02 -5.807053e-02 -4.307410e-02 -2.241445e-02 4.366390e-03 5.507390e-02 9.458483e-02 1.008230e-01 4.578144e-02 -1.385994e-02 3.684386e-03 9.306204e-04 -3.473786e-02 -3.928558e-02 -2.257388e-02 3.967435e-02 6.418507e-02 1.037116e-01 1.034832e-01 1.130821e-01 7.535431e-02 4.116954e-02 4.188312e-03 -4.807806e-02
<VARIANCE> 39
 3.119460e+00 3.427327e+00 5.241277e+00 8.528689e+00 1.023907e+01 1.278628e+01 1.387201e+01 1.565774e+01 1.630796e+01 1.579053e+01 1.415919e+01 1.327872e+01 1.626279e+01 1.205886e-01 1.380125e-01 2.328468e-01 3.410065e-01 4.442978e-01 5.286640e-01 5.817872e-01 6.537617e-01 6.967032e-01 7.080588e-01 6.511737e-01 5.735427e-01 2.862690e-02 3.050879e-02 3.554603e-02 5.339815e-02 7.740232e-02 9.621533e-02 1.177322e-01 1.308790e-01 1.374683e-01 1.494644e-01 1.423191e-01 1.306059e-01 1.204473e-01 2.438385e-02
<GCONST> 5.485920e+01
<MIXTURE> 4 1.765738e-01
<MEAN> 39
 1.086334e+00 3.621016e-01 6.114066e-01 -9.860885e-01 -5.282680e-01 -1.583099e+00 -1.577375e+00 -2.242622e+00 -1.500996e+00 -1.430277e+00 -9.503080e-01 -1.094666e+00 -1.733830e+00 -1.008414e-01 -1.847651e-01 -3.481707e-01 -4.840423e-01 -4.384531e-01 -4.174967e-01 -1.914194e-01 -1.429318e-01 -9.018660e-02 -1.177021e-01 -2.656497e-02 -9.296238e-02 -1.970539e-01 -4.146034e-02 -5.186870e-02 -4.938579e-02 1.626688e-02 3.828004e-02 9.484512e-02 1.007306e-01 1.158854e-01 9.830607e-02 6.965345e-02 3.606246e-02 4.588420e-02 3.700754e-02
<VARIANCE> 39
 7.245655e+00 5.537833e+00 8.285570e+00 1.362794e+01 1.268036e+01 1.704836e+01 1.539688e+01 2.021246e+01 1.672437e+01 1.664679e+01 1.521825e+01 1.403796e+01 3.838112e+01 2.089849e-01 2.403127e-01 2.950266e-01 5.455001e-01 5.044481e-01 6.389830e-01 6.901499e-01 6.945590e-01 7.447791e-01 7.039827e-01 6.707808e-01 5.928652e-01 1.427302e-01 3.734449e-02 4.685224e-02 6.357831e-02 9.824522e-02 1.003340e-01 1.317392e-01 1.333971e-01 1.466892e-01 1.324861e-01 1.318889e-01 1.269586e-01 1.190621e-01 2.702562e-02
<GCONST> 6.411903e+01
<TRANSP> 5
 0.000000e+00 1.000000e+00 0.000000e+00 0.000000e+00 0.000000e+00
 0.000000e+00 2.406766e-01 7.593235e-01 0.000000e+00 0.000000e+00
 0.000000e+00 0.000000e+00 6.744956e-01 3.255044e-01 0.000000e+00
 0.000000e+00 0.000000e+00 0.000000e+00 1.425320e-01 8.574681e-01
 0.000000e+00 0.000000e+00 0.000000e+00 0.000000e+00 0.000000e+00
<ENDHMM>
~h "r"
<BEGINHMM>
<NUMSTATES> 5
<STATE> 2
<NUMMIXES> 4
<MIXTURE> 1 1.965744e-01
<MEAN> 39
 -2.730008e+00 -5.475336e-01 -8.641504e-01 1.922630e+00 7.700998e-01 2.205103e+00 1.106219e+00 2.467342e+00 7.454625e-01 1.954995e+00 7.477353e-01 1.661727e+00 9.315479e+00 9.161708e-02 9.921286e-02 1.459773e-01 1.705136e-01 2.006898e-01 2.358735e-01 2.395006e-01 2.377356e-01 2.232641e-01 2.010529e-01 1.553083e-01 1.208314e-01 3.059078e-02 4.288528e-02 3.005218e-02 3.081792e-02 2.669399e-02 3.214465e-02 2.177175e-02 1.331472e-02 1.671584e-02 1.584046e-02 4.833918e-03 9.314880e-03 8.314304e-03 9.020190e-03
<VARIANCE> 39
 2.138129e+00 3.411034e+00 5.217555e+00 8.433302e+00 1.048679e+01 1.305316e+01 1.445185e+01 1.586634e+01 1.630384e+01 1.604783e+01 1.495969e+01 1.315320e+01 1.833405e+01 5.280561e-02 1.150971e-01 2.012359e-01 3.051441e-01 4.079939e-01 4.925086e-01 5.717584e-01 6.194710e-01 6.275462e-01 6.283224e-01 5.924910e-01 5.562924e-01 9.797759e-03 1.086862e-02 2.275136e-02 3.994301e-02 6.124759e-02 8.248558e-02 9.880318e-02 1.167580e-01 1.251013e-01 1.261817e-01 1.277184e-01 1.212519e-01 1.059497e-01 1.938617e-03
<GCONST> 4.627554e+01
<MIXTURE> 2 3.004769e-01
<MEAN> 39
 -1.961338e+00 -1.411328e-01 -5.033336e-01 1.707718e+00 7.733828e-01 1.894830e+00 8.859711e-01 2.100162e+00 7.564980e-01 1.565961e+00 6.068780e-01 1.387912e+00 7.529910e+00 8.782769e-03 -1.090311e-02 -1.946715e-02 -3.381699e-02 -4.754660e-02 -3.850309e-02 -4.680721e-02 -4.782895e-02 -2.452295e-02 -1.887666e-02 9.688234e-03 3.882319e-02 1.990998e-03 2.211097e-02 1.270289e-02 1.653531e-02 1.118255e-02 9.257743e-03 6.603774e-03 7.111721e-03 -9.183865e-04 -1.708981e-03 1.291028e-02 1.207925e-02 7.232217e-03 1.827187e-03
<VARIANCE> 39
 2.384263e+00 3.008410e+00 4.992565e+00 8.171988e+00 9.744283e+00 1.212192e+01 1.367848e+01 1.474267e+01 1.555484e+01 1.535041e+01 1.399627e+01 1.274831e+01 2.329057e+01 5.697152e-02 1.154013e-01 2.027776e-01 3.102036e-01 4.105313e-01 4.914077e-01 5.828036e-01 6.298900e-01 6.642129e-01 6.526364e-01 6.135706e-01 5.486077e-01 9.935313e-03 1.139342e-02 2.220308e-02 3.982594e-02 5.885928e-02 7.810666e-02 9.589642e-02 1.136997e-01 1.199642e-01 1.277370e-01 1.248198e-01 1.184702e-01 1.054949e-01 2.035891e-03
<GCONST> 4.606751e+01
<MIXTURE> 3 2.021496e-01
<MEAN> 39
 -1.792534e+00 -4.353569e-01 -8.040218e-01 9.835506e-01 2.367867e-01 1.094987e+00 2.296111e-01 1.262242e+00 1.847138e-01 7.263497e-01 3.533161e-02 7.597619e-01 5.905697e+00 -6.657395e-02 -1.135616e-01 -1.781549e-01 -2.097026e-01 -2.654147e-01 -2.873009e-01 -3.058332e-01 -3.013017e-01 -2.837530e-01 -2.792538e-01 -2.250842e-01 -1.459000e-01 -2.603969e-02 4.027152e-03 -9.749347e-03 -1.573428e-02 -3.703947e-02 -4.630281e-02 -5.538994e-02 -4.852678e-02 -6.528561e-02 -6.602556e-02 -4.641031e-02 -4.501252e-02 -4.181710e-02 -8.259913e-03
<VARIANCE> 39
 2.668533e+00 2.890609e+00 5.021232e+00 7.990572e+00 9.596298e+00 1.219144e+01 1.381591e+01 1.467208e+01 1.553725e+01 1.517791e+01 1.399789e+01 1.288053e+01 2.411756e+01 5.732862e-02 1.169284e-01 2.057761e-01 3.182438e-01 4.223937e-01 5.042037e-01 6.026158e-01 6.240686e-01 6.784988e-01 6.490148e-01 6.096554e-01 5.565600e-01 1.010421e-02 1.116100e-02 2.246931e-02 4.012984e-02 5.904141e-02 7.777363e-02 9.500114e-02 1.138351e-01 1.176657e-01 1.277709e-01 1.222085e-01 1.193842e-01 1.056429e-01 2.066202e-03
<GCONST> 4.630373e+01
<MIXTURE> 4 3.007588e-01
<MEAN> 39
 -2.759925e+00 -8.990323e-01 -1.255800e+00 1.240841e+00 1.816490e-01 1.497179e+00 4.187968e-01 1.666911e+00 1.319549e-01 1.173201e+00 1.584487e-01 1.126559e+00 8.272095e+00 1.062115e-02 -3.405345e-03 4.084035e-03 -9.503365e-04 -8.480508e-03 1.359208e-02 -6.710425e-03 -1.945030e-02 -2.249429e-02 -3.751710e-02 -6.001008e-02 -6.619500e-02 1.287163e-03 2.308399e-02 8.016666e-03 9.670760e-04 -1.591088e-02 -1.976316e-02 -3.251439e-02 -3.999510e-02 -4.249108e-02 -4.256645e-02 -5.026618e-02 -4.566212e-02 -3.897647e-02 -9.481981e-04
<VARIANCE> 39
 2.282054e+00 3.268856e+00 5.295896e+00 8.334920e+00 1.040647e+01 1.291479e+01 1.433594e+01 1.578808e+01 1.624517e+01 1.612817e+01 1.482928e+01 1.326745e+01 1.898627e+01 5.343345e-02 1.134755e-01 1.993966e-01 2.990966e-01 4.038606e-01 4.908459e-01 5.777050e-01 6.215563e-01 6.393232e-01 6.404787e-01 6.082281e-01 5.380226e-01 9.435144e-03 1.075414e-02 2.319859e-02 4.007570e-02 5.949318e-02 8.163153e-02 9.839839e-02 1.150186e-01 1.242413e-01 1.301898e-01 1.294050e-01 1.207690e-01 1.056062e-01 1.889241e-03
<GCONST> 4.622567e+01
<STATE> 3
<NUMMIXES> 4
<MIXTURE> 1 1.731422e-01
<MEAN> 39
 -1.719761e+00 -3.010553e-01 -3.425654e-01 1.685852e+00 6.964960e-01 1.910625e+00 1.097902e+00 1.853028e+00 4.297362e-01 1.507071e+00 4.680716e-01 1.144953e+00 6.580056e+00 2.879666e-01 1.483140e-01 1.864865e-01 1.311482e-01 9.948415e-02 6.160425e-02 5.113872e-02 3.499497e-02 2.223319e-02 2.800259e-02 2.492972e-02 -1.341308e-02 4.051203e-02 1.080637e-01 5.952644e-02 6.719126e-02 2.585169e-02 4.868786e-02 -8.058842e-03 -7.024042e-03 -2.267408e-02 -6.980129e-03 -2.130252e-02 1.297047e-02 -1.214167e-02 -3.205898e-02
<VARIANCE> 39
 2.588577e+00 3.077511e+00 4.870187e+00 8.331015e+00 9.932043e+00 1.211508e+01 1.354805e+01 1.505757e+01 1.407926e+01 1.558321e+01 1.400907e+01 1.233910e+01 2.884212e+01 8.308017e-02 1.368397e-01 2.264097e-01 3.219464e-01 4.077590e-01 4.927554e-01 5.518132e-01 7.176823e-01 7.098951e-01 6.585798e-01 5.839769e-01 5.992845e-01 1.347545e-02 2.233056e-02 2.846756e-02 5.119494e-02 7.196299e-02 8.970387e-02 1.057434e-01 1.118330e-01 1.364533e-01 1.321947e-01 1.422830e-01 1.314380e-01 1.099605e-01 7.639611e-03
<GCONST> 5.083556e+01
<MIXTURE> 2 3.682256e-01
<MEAN> 39
 -6.561323e-02 2.149381e-01 1.809308e-01 3.924878e-01 1.480865e-01 3.375683e-01 2.020751e-01 1.536391e-01 1.757867e-01 1.472907e-01 2.321817e-01 4.446777e-01 3.025342e-01 1.199077e-01 1.048039e-01 3.983137e-02 -5.360536e-02 -1.358551e-01 -1.680105e-01 -2.099941e-01 -2.387940e-01 -2.171107e-01 -1.938708e-01 -1.020742e-01 -6.209587e-02 3.157631e-02 2.683296e-02 2.814168e-02 3.666081e-02 2.415642e-02 2.774534e-02 1.276469e-02 1.679977e-02 2.790936e-02 1.472386e-02 2.956208e-02 1.771729e-02 -3.609169e-03 5.930123e-03
<VARIANCE> 39
 1.154741e+00 2.191842e+00 4.190109e+00 6.618901e+00 8.571484e+00 1.083547e+01 1.269876e+01 1.288680e+01 1.378380e+01 1.384712e+01 1.340373e+01 1.220428e+01 1.647287e+00 5.509337e-02 1.222731e-01 2.072285e-01 3.144379e-01 4.186251e-01 4.996463e-01 5.582114e-01 6.445889e-01 6.661260e-01 6.376866e-01 6.141105e-01 5.815807e-01 9.520279e-03 1.031681e-02 2.206090e-02 4.034564e-02 5.866539e-02 7.901289e-02 9.782021e-02 1.079826e-01 1.175823e-01 1.233577e-01 1.205307e-01 1.146884e-01 1.026263e-01 1.924583e-03
<GCONST> 4.098042e+01
<MIXTURE> 3 2.355931e-01
<MEAN> 39
 -1.309965e-01 -9.847960e-02 -2.300661e-01 -2.316740e-01 -3.938577e-01 -3.666318e-01 -5.355915e-01 -5.333511e-01 -3.886147e-01 -4.748237e-01 -3.336706e-01 -8.873960e-02 1.690757e-01 2.496103e-02 -1.725645e-02 -1.171070e-01 -2.461825e-01 -3.296648e-01 -3.928269e-01 -4.445225e-01 -4.935483e-01 -4.619584e-01 -4.074855e-01 -3.281463e-01 -2.145221e-01 -1.367752e-03 3.900424e-03 3.590129e-03 7.615514e-03 -1.129469e-02 -1.698868e-02 -3.207220e-02 -2.526591e-02 -2.418025e-02 -3.713864e-02 -2.516080e-02 -4.259077e-02 -4.581872e-02 -4.801118e-03
<VARIANCE> 39
 1.184391e+00 2.305418e+00 4.413192e+00 6.722814e+00 9.061808e+00 1.079433e+01 1.303311e+01 1.283701e+01 1.412883e+01 1.336016e+01 1.353789e+01 1.216852e+01 1.062431e+00 5.450153e-02 1.170338e-01 2.024352e-01 3.042155e-01 4.171523e-01 4.911947e-01 5.592976e-01 6.486357e-01 6.555296e-01 6.345130e-01 6.006886e-01 5.773050e-01 9.715237e-03 1.061033e-02 2.242508e-02 4.259192e-02 5.966363e-02 7.889033e-02 1.000934e-01 1.100929e-01 1.165666e-01 1.294527e-01 1.179575e-01 1.126539e-01 1.039646e-01 1.918566e-03
<GCONST> 4.076756e+01
<MIXTURE> 4 2.230720e-01
<MEAN> 39
 -1.670414e+00 -6.033306e-01 -7.032576e-01 1.022210e+00 1.683286e-01 1.168070e+00 3.514663e-01 1.030382e+00 -8.865348e-02 6.774973e-01 -1.607332e-01 6.784540e-01 5.096228e+00 1.742552e-01 4.102948e-02 3.113984e-02 -3.828772e-02 -1.072202e-01 -1.611451e-01 -1.871800e-01 -2.255092e-01 -2.680919e-01 -2.515935e-01 -2.200548e-01 -2.016086e-01 4.426191e-03 7.550433e-02 3.675032e-02 2.287782e-02 -3.387342e-02 -2.423186e-02 -6.514157e-02 -6.125079e-02 -7.572512e-02 -5.561428e-02 -7.016531e-02 -4.312584e-02 -5.575797e-02 -3.337768e-02
<VARIANCE> 39
 2.689416e+00 2.942439e+00 4.976884e+00 8.431334e+00 9.763956e+00 1.227289e+01 1.349457e+01 1.518150e+01 1.420129e+01 1.509084e+01 1.445571e+01 1.262757e+01 2.761262e+01 8.298042e-02 1.400192e-01 2.238778e-01 3.209099e-01 4.372594e-01 5.067824e-01 5.960410e-01 6.644510e-01 6.897842e-01 7.052420e-01 6.361356e-01 5.865453e-01 1.439986e-02 2.134807e-02 2.856372e-02 4.885512e-02 7.178173e-02 9.379789e-02 1.098548e-01 1.193607e-01 1.414004e-01 1.332570e-01 1.389980e-01 1.278780e-01 1.060179e-01 7.572781e-03
<GCONST> 5.112995e+01
<STATE> 4
<NUMMIXES> 4
<MIXTURE> 1 2.691908e-01
<MEAN> 39
 -4.855510e-01 -5.050251e-02 -1.420981e-01 9.058582e-01 4.100441e-01 9.976624e-01 3.267820e-01 8.255998e-01 9.832984e-02 6.701831e-01 1.739655e-01 5.569059e-01 3.367047e+00 2.513210e-01 1.654140e-01 1.698196e-01 1.300270e-01 8.277211e-02 4.620115e-02 5.200922e-02 3.805009e-02 2.990133e-02 1.747520e-02 4.436411e-02 2.102627e-02 -1.084594e-01 6.485142e-02 3.450239e-02 8.064675e-02 2.876068e-02 6.464951e-02 1.771219e-02 5.895292e-02 6.020907e-03 5.791115e-02 2.463457e-02 4.765458e-02 -2.404310e-03 -1.005954e-01
<VARIANCE> 39
 5.529306e+00 4.689675e+00 6.658193e+00 1.084559e+01 1.149591e+01 1.552026e+01 1.527329e+01 1.866974e+01 1.716462e+01 1.770157e+01 1.510898e+01 1.392756e+01 5.155265e+01 2.852985e-01 2.607070e-01 3.672396e-01 5.038064e-01 5.793331e-01 6.939903e-01 7.262968e-01 8.110766e-01 7.744337e-01 7.978518e-01 7.138290e-01 6.215441e-01 2.552702e-01 4.433919e-02 6.019515e-02 7.711583e-02 9.976383e-02 1.148551e-01 1.368303e-01 1.301790e-01 1.651664e-01 1.490140e-01 1.522323e-01 1.283584e-01 1.159202e-01 7.310104e-02
<GCONST> 6.727591e+01
<MIXTURE> 2 2.123466e-01
<MEAN> 39
 4.033023e+00 1.496856e-01 2.292743e+00 1.983854e-01 1.465813e+00 -3.956712e-01 8.878040e-02 -2.516015e+00 -9.898323e-01 -1.065186e+00 -3.091442e-01 -1.469780e+00 -1.788064e+00 3.561177e-01 1.581582e-01 2.492732e-01 -8.592915e-02 1.111872e-01 -6.650805e-02 2.652397e-02 -1.417048e-01 1.188411e-01 3.905974e-03 1.505897e-01 -6.364521e-02 -1.279987e+00 -1.002165e-01 -1.374598e-02 -4.469044e-02 4.703802e-02 -4.520640e-05 4.734335e-02 2.906265e-02 9.624907e-02 5.767848e-02 8.274987e-02 3.815457e-02 8.739738e-02 7.204300e-02
<VARIANCE> 39
 1.954088e+01 3.532189e+01 2.471100e+01 3.493254e+01 3.701738e+01 4.275834e+01 3.557858e+01 4.212201e+01 3.424829e+01 3.027513e+01 2.501873e+01 2.239129e+01 8.333381e+01 1.167245e+00 1.842932e+00 1.510536e+00 1.677862e+00 1.998306e+00 2.262174e+00 1.647450e+00 2.089884e+00 1.567675e+00 1.442511e+00 1.211335e+00 1.089352e+00 2.703433e+00 1.412253e-01 2.554621e-01 2.020556e-01 2.669561e-01 3.062854e-01 3.564677e-01 2.809074e-01 3.241646e-01 2.580125e-01 2.453688e-01 2.276468e-01 1.884312e-01 3.427993e-01
<GCONST> 1.060458e+02
<MIXTURE> 3 3.568000e-01
<MEAN> 39
 -2.627856e-01 -2.626428e-01 -3.580065e-01 1.287090e-01 -1.160117e-01 6.517541e-02 -4.811209e-01 -2.459897e-01 -5.854420e-01 -2.722476e-01 -4.449583e-01 -1.828560e-01 1.197437e+00 1.376141e-01 5.763784e-02 -3.559155e-03 -1.301690e-01 -1.698761e-01 -2.697170e-01 -2.227775e-01 -2.791835e-01 -2.315665e-01 -2.914281e-01 -1.971664e-01 -1.754901e-01 -1.957751e-01 1.576004e-02 -2.623860e-03 2.627687e-02 -2.224600e-02 2.568975e-03 -2.717576e-02 8.663360e-03 -2.997290e-02 5.153090e-03 -1.611379e-02 4.070066e-04 -3.659322e-02 -6.236170e-02
<VARIANCE> 39
 5.154705e+00 4.769899e+00 6.735608e+00 1.063722e+01 1.160906e+01 1.510190e+01 1.571003e+01 1.880991e+01 1.732699e+01 1.785481e+01 1.516575e+01 1.419025e+01 4.850163e+01 2.445158e-01 2.605774e-01 3.588700e-01 4.849911e-01 5.774387e-01 6.785919e-01 7.001628e-01 8.117074e-01 8.040751e-01 7.930204e-01 7.048172e-01 6.324034e-01 2.786805e-01 3.421431e-02 4.717514e-02 6.515903e-02 9.221724e-02 1.077452e-01 1.297945e-01 1.289964e-01 1.603030e-01 1.471641e-01 1.462288e-01 1.273674e-01 1.176398e-01 6.026635e-02
<GCONST> 6.591426e+01
<MIXTURE> 4 1.616706e-01
<MEAN> 39
 4.188426e+00 -5.974007e-02 3.007659e+00 6.177643e-01 1.804124e+00 -6.595908e-01 -2.223475e-01 -3.821304e+00 -1.669575e+00 -1.791376e+00 -7.338431e-01 -2.101438e+00 -2.236167e+00 9.295529e-02 -2.073950e-01 -2.020827e-02 -6.504222e-01 -3.202990e-01 -6.504211e-01 -3.865990e-01 -7.438344e-01 -2.995274e-01 -4.867179e-01 -1.571718e-01 -4.454494e-01 -1.828620e+00 -1.759104e-01 -5.791909e-02 -1.930882e-01 -7.832594e-02 -1.116468e-01 -1.514368e-02 -4.905254e-02 1.073593e-01 2.526392e-02 4.642134e-02 -1.344457e-03 4.379660e-02 7.965205e-02
<VARIANCE> 39
 1.805234e+01 4.286093e+01 2.902488e+01 3.557657e+01 4.199192e+01 4.954599e+01 3.676966e+01 4.144044e+01 3.766099e+01 3.228320e+01 2.627216e+01 2.379272e+01 6.916781e+01 1.057560e+00 1.887872e+00 1.557360e+00 1.581494e+00 1.872234e+00 2.231719e+00 1.659598e+00 2.154645e+00 1.593419e+00 1.473144e+00 1.297801e+00 1.148489e+00 1.718215e+00 1.359595e-01 2.827860e-01 2.307754e-01 2.599616e-01 3.093847e-01 3.753341e-01 2.845575e-01 3.231159e-01 2.735708e-01 2.510715e-01 2.289026e-01 1.987879e-01 2.469224e-01
<GCONST> 1.063272e+02
<TRANSP> 5
 0.000000e+00 1.000000e+00 0.000000e+00 0.000000e+00 0.000000e+00
 0.000000e+00 7.975320e-01 2.024680e-01 0.000000e+00 0.000000e+00
 0.000000e+00 0.000000e+00 1.274914e-01 8.725085e-01 0.000000e+00
 0.000000e+00 0.000000e+00 0.000000e+00 5.921813e-01 4.078187e-01
 0.000000e+00 0.000000e+00 0.000000e+00 0.000000e+00 0.000000e+00
<ENDHMM>
~h "s"
<BEGINHMM>
<NUMSTATES> 5
<STATE> 2
<NUMMIXES> 4
<MIXTURE> 1 3.106733e-01
<MEAN> 39
 1.460512e-01 2.949786e-01 -6.785558e-02 -5.091667e-01 -6.287087e-01 -7.493713e-01 -7.513446e-01 -5.159144e-01 -3.880551e-01 -4.194788e-01 -2.197418e-01 -3.103679e-02 6.398040e-02 1.741914e-02 6.355222e-02 9.537330e-02 2.065344e-01 2.208412e-01 2.531269e-01 2.878116e-01 2.903439e-01 2.656106e-01 2.573057e-01 2.476109e-01 2.325400e-01 2.937969e-02 -2.191002e-02 -7.244240e-03 5.162941e-02 1.463354e-01 1.749042e-01 2.142561e-01 2.095677e-01 1.868218e-01 1.385845e-01 1.485839e-01 1.014194e-01 8.314989e-02 1.052371e-02
<VARIANCE> 39
 1.650239e+00 2.699619e+00 4.564415e+00 7.353252e+00 9.120770e+00 1.126921e+01 1.283900e+01 1.388627e+01 1.493377e+01 1.442981e+01 1.322404e+01 1.229506e+01 1.267311e+00 7.971996e-02 1.433372e-01 2.274627e-01 3.495101e-01 4.218797e-01 4.940847e-01 5.656185e-01 5.912891e-01 6.685147e-01 6.892947e-01 6.502048e-01 5.509155e-01 1.658097e-02 1.591478e-02 2.694296e-02 4.620740e-02 6.765441e-02 8.350244e-02 9.807219e-02 1.102345e-01 1.211685e-01 1.359550e-01 1.234839e-01 1.143925e-01 1.073936e-01 4.089219e-03
<GCONST> 4.500467e+01
<MIXTURE> 2 1.643719e-01
<MEAN> 39
 -7.790867e-01 -4.990664e-01 -9.917275e-01 -2.022182e+00 -1.088184e+00 -1.337702e+00 -5.121511e-01 -8.644416e-01 6.555427e-01 -7.485645e-01 1.457061e-01 -5.840102e-01 -2.786205e+00 4.824877e-02 2.239587e-02 -5.512603e-02 3.052492e-02 8.342277e-02 -2.501788e-02 1.811757e-01 2.190652e-01 1.370782e-01 1.439291e-01 1.578091e-01 1.256160e-01 -4.765111e-02 4.384553e-02 6.574449e-02 1.001460e-01 1.669630e-01 1.001127e-01 1.642155e-01 9.614550e-02 1.137063e-01 3.445445e-02 1.012498e-01 3.694205e-02 5.996477e-02 1.836992e-01
<VARIANCE> 39
 1.546606e+01 8.273033e+00 9.383953e+00 1.749254e+01 1.501122e+01 1.926094e+01 1.673020e+01 1.966088e+01 1.822292e+01 2.171189e+01 1.629189e+01 1.653605e+01 8.599435e+01 3.106433e-01 3.468833e-01 4.146885e-01 6.361286e-01 6.559501e-01 7.123836e-01 6.939520e-01 7.803833e-01 8.550186e-01 8.130803e-01 7.268136e-01 6.651568e-01 4.339803e-01 9.175966e-02 7.383344e-02 8.048262e-02 1.669225e-01 1.306209e-01 1.773374e-01 1.526594e-01 1.755902e-01 1.528591e-01 1.712216e-01 1.353337e-01 1.319672e-01 1.341799e-01
<GCONST> 7.589808e+01
<MIXTURE> 3 3.959620e-01
<MEAN> 39
 8.461878e-02 5.396166e-02 -4.057049e-01 -1.007919e+00 -1.254066e+00 -1.441400e+00 -1.502386e+00 -1.317711e+00 -1.113064e+00 -1.083968e+00 -8.135154e-01 -6.226032e-01 -1.810777e-02 -7.329241e-02 -8.230864e-02 -7.953662e-02 1.618787e-02 2.821583e-02 3.980543e-02 7.100464e-02 7.446653e-02 -5.602564e-03 1.652134e-02 8.053133e-03 4.226613e-02 -1.309463e-02 -3.873353e-02 -3.550392e-02 1.998628e-02 1.128801e-01 1.390230e-01 1.696371e-01 1.600979e-01 1.341616e-01 8.413333e-02 9.513733e-02 5.964365e-02 4.873998e-02 5.737664e-04
<VARIANCE> 39
 1.703548e+00 2.881822e+00 4.713301e+00 7.491429e+00 9.461953e+00 1.139904e+01 1.239056e+01 1.427646e+01 1.428776e+01 1.424063e+01 1.320999e+01 1.259285e+01 1.059100e+00 7.444853e-02 1.357425e-01 2.321836e-01 3.441430e-01 4.126924e-01 4.868111e-01 5.429624e-01 6.006926e-01 6.383382e-01 6.993654e-01 6.480417e-01 5.560345e-01 1.612019e-02 1.619562e-02 2.820768e-02 4.641688e-02 6.801394e-02 7.964711e-02 9.363751e-02 1.063955e-01 1.191623e-01 1.317786e-01 1.243613e-01 1.147192e-01 1.068793e-01 3.964087e-03
<GCONST> 4.461546e+01
<MIXTURE> 4 1.290244e-01
<MEAN> 39
 -8.922390e-01 -9.843318e-01 -1.457390e+00 -3.030843e+00 -1.711654e+00 -2.373718e+00 -1.145896e+00 -1.491689e+00 4.351301e-01 -1.550409e+00 -3.015596e-02 -1.209758e+00 -5.555280e+00 -1.200925e-01 -1.810744e-01 -2.852247e-01 -2.995421e-01 -1.744231e-01 -3.861704e-01 -5.397983e-02 -1.218311e-01 -6.610000e-02 -1.477141e-01 -4.566196e-02 -1.375273e-01 -3.128819e-01 2.956044e-02 2.544133e-02 5.935984e-02 7.432671e-02 3.540865e-02 8.493839e-02 4.042024e-02 2.177481e-02 -1.601407e-02 3.820338e-02 -2.225880e-02 -5.264383e-03 1.616036e-01
<VARIANCE> 39
 1.508972e+01 8.815045e+00 8.941800e+00 1.741934e+01 1.408867e+01 2.023551e+01 1.660537e+01 1.861146e+01 1.951305e+01 2.083016e+01 1.694643e+01 1.599051e+01 8.968693e+01 3.214183e-01 3.890639e-01 4.433453e-01 6.584750e-01 6.370767e-01 7.477521e-01 6.748912e-01 7.834608e-01 7.330813e-01 8.240871e-01 7.541991e-01 6.610647e-01 5.277564e-01 7.568000e-02 7.235003e-02 7.580468e-02 1.377487e-01 1.217310e-01 1.571546e-01 1.415564e-01 1.593375e-01 1.466954e-01 1.640548e-01 1.365188e-01 1.205853e-01 1.318704e-01
<GCONST> 7.520279e+01
<STATE> 3
<NUMMIXES> 4
<MIXTURE> 1 2.375907e-01
<MEAN> 39
 -1.329643e+00 -5.575876e-01 -1.155438e+00 -2.169498e+00 -6.711652e-01 -1.500578e+00 -2.855955e-01 -6.770814e-01 1.148309e+00 -1.096682e+00 6.565446e-01 -7.874794e-01 9.119475e-02 2.038905e-01 2.520669e-01 2.698169e-01 5.672060e-01 4.055915e-01 6.462896e-01 4.245818e-01 5.232341e-01 1.722816e-01 4.375663e-01 1.171758e-01 3.902526e-01 6.517631e-01 6.439164e-05 2.130127e-02 6.683098e-02 2.011505e-01 9.373644e-02 1.807541e-01 8.954658e-02 1.278731e-01 -8.494876e-03 1.346729e-01 1.010508e-02 9.282734e-02 1.390299e-01
<VARIANCE> 39
 8.862952e+00 7.378997e+00 9.140092e+00 1.504962e+01 1.334698e+01 1.633405e+01 1.558461e+01 1.781489e+01 2.005094e+01 2.516805e+01 1.977408e+01 1.749777e+01 1.469202e+01 3.725381e-01 3.915953e-01 3.807260e-01 6.976508e-01 5.650778e-01 7.068838e-01 6.779367e-01 7.497606e-01 8.329805e-01 8.706947e-01 7.669337e-01 6.363624e-01 9.302782e-01 4.735523e-02 5.260777e-02 6.212006e-02 1.121345e-01 1.000171e-01 1.201013e-01 1.198840e-01 1.407142e-01 1.484973e-01 1.869948e-01 1.450819e-01 1.337037e-01 6.821252e-02
<GCONST> 7.091695e+01
<MIXTURE> 2 2.506215e-01
<MEAN> 39
 -4.186895e-01 -1.448622e-01 -8.741740e-01 -1.995659e+00 -9.133544e-01 -1.227338e+00 2.690884e-01 -8.981110e-01 9.393608e-01 -4.701845e-01 1.630440e-01 -8.122699e-01 -5.697250e+00 -7.914197e-03 6.284098e-02 4.124615e-02 1.293340e-01 1.449759e-01 1.264860e-01 1.006845e-01 1.692653e-01 1.100263e-01 1.196872e-01 1.216533e-01 1.105283e-01 7.296486e-01 -5.931817e-03 1.732106e-02 2.284717e-02 7.220518e-02 2.955788e-02 5.484410e-02 -1.803331e-03 4.787724e-02 1.113945e-02 2.677331e-02 2.757861e-02 3.897733e-02 1.477609e-01
<VARIANCE> 39
 2.163224e+01 1.691147e+01 1.760389e+01 2.190827e+01 2.135206e+01 2.408236e+01 2.157115e+01 2.512049e+01 2.415102e+01 2.629014e+01 2.102674e+01 1.763580e+01 8.312226e+01 9.817974e-01 7.789660e-01 7.700809e-01 1.085192e+00 9.301497e-01 1.064040e+00 9.742287e-01 1.100099e+00 1.091118e+00 1.147659e+00 9.135652e-01 7.786327e-01 3.105060e+00 1.479635e-01 1.381149e-01 1.339720e-01 1.943607e-01 1.700139e-01 1.989910e-01 1.797659e-01 2.049479e-01 1.929722e-01 1.966628e-01 1.653406e-01 1.396422e-01 3.642057e-01
<GCONST> 9.121422e+01
<MIXTURE> 3 3.294408e-01
<MEAN> 39
 -1.468308e+00 -1.221901e+00 -1.471665e+00 -2.848506e+00 -1.359385e+00 -2.339330e+00 -1.002423e+00 -1.425052e+00 4.424559e-01 -1.706452e+00 1.887683e-01 -1.430635e+00 -1.740983e+00 -4.715624e-02 2.968106e-04 3.084837e-02 2.282175e-01 1.422931e-01 2.160667e-01 1.463441e-01 1.428584e-01 -6.781407e-03 8.931720e-02 -3.790602e-03 7.903803e-02 2.323698e-01 3.075619e-02 2.587594e-02 4.714850e-02 7.847817e-02 4.730917e-02 8.448789e-02 3.027819e-02 3.138041e-02 -2.378356e-02 3.221158e-02 -2.723205e-02 1.425977e-02 4.732040e-02
<VARIANCE> 39
 1.062472e+01 8.325224e+00 9.432017e+00 1.565107e+01 1.352453e+01 1.649961e+01 1.580012e+01 1.794693e+01 1.922652e+01 2.212318e+01 1.946811e+01 1.681182e+01 2.249169e+01 3.009356e-01 3.174959e-01 3.450053e-01 5.743752e-01 5.319242e-01 6.460811e-01 6.644925e-01 7.537737e-01 7.555353e-01 7.857950e-01 7.237324e-01 6.269806e-01 6.078458e-01 4.377500e-02 5.101803e-02 6.031486e-02 1.014034e-01 9.753297e-02 1.128797e-01 1.184021e-01 1.365017e-01 1.364856e-01 1.562523e-01 1.383461e-01 1.210156e-01 6.202281e-02
<GCONST> 6.907777e+01
<MIXTURE> 4 1.823348e-01
<MEAN> 39
 1.880002e-02 -5.538654e-01 -9.635205e-01 -2.837778e+00 -1.425972e+00 -2.161285e+00 -7.710743e-01 -1.682938e+00 2.515576e-01 -1.573224e+00 -2.860116e-01 -1.534054e+00 -7.547179e+00 -2.381811e-01 -2.055035e-01 -2.381908e-01 -3.034322e-01 -1.708277e-01 -3.179968e-01 -2.144186e-01 -2.704109e-01 -5.321668e-02 -2.588562e-01 -7.028616e-02 -2.253817e-01 4.734876e-01 -3.823699e-02 -2.164180e-02 -3.495358e-02 -5.358033e-03 -3.665195e-02 -1.752234e-02 -2.574299e-02 -2.042526e-02 -1.997393e-02 -1.520231e-02 -2.179050e-02 -6.938111e-03 2.599994e-02
<VARIANCE> 39
 1.919833e+01 1.568390e+01 1.610457e+01 2.254607e+01 2.161223e+01 2.529647e+01 2.187640e+01 2.489706e+01 2.395115e+01 2.502756e+01 2.099856e+01 1.756244e+01 8.058100e+01 9.325106e-01 7.776005e-01 7.261762e-01 1.046674e+00 9.012419e-01 1.077502e+00 9.623672e-01 1.070129e+00 1.025119e+00 1.090987e+00 9.164728e-01 7.884022e-01 3.131909e+00 1.352822e-01 1.319187e-01 1.254768e-01 1.944973e-01 1.633962e-01 1.979179e-01 1.797026e-01 2.010046e-01 1.812146e-01 1.877426e-01 1.611201e-01 1.444772e-01 3.522102e-01
<GCONST> 9.023596e+01
<STATE> 4
<NUMMIXES> 4
<MIXTURE> 1 1.773223e-01
<MEAN> 39
 -4.986954e-01 7.200682e-01 2.431950e-01 1.480925e+00 9.595861e-01 1.960487e+00 1.237343e+00 1.761024e+00 9.462891e-01 1.282188e+00 3.032564e-01 1.150160e+00 5.025579e+00 2.505891e-03 1.615482e-01 3.382580e-01 1.129421e+00 5.343156e-01 9.570253e-01 4.962174e-01 7.467867e-01 -4.105635e-02 7.001334e-01 9.509858e-02 6.130878e-01 1.081933e+00 -1.318138e-01 -1.032962e-01 -8.888189e-02 -9.089381e-02 -6.360311e-02 -1.256695e-01 -5.559683e-02 -8.507899e-02 -2.039164e-03 -6.013617e-02 4.898387e-02 -5.852316e-02 -1.515564e-01
<VARIANCE> 39
 4.462144e+00 4.456357e+00 6.587326e+00 1.248832e+01 1.211092e+01 1.431105e+01 1.592534e+01 1.777405e+01 1.850574e+01 2.018592e+01 1.649280e+01 1.439910e+01 2.725545e+01 3.205208e-01 3.336077e-01 3.520736e-01 8.162662e-01 6.750913e-01 7.507791e-01 7.613042e-01 8.299308e-01 9.256365e-01 1.278665e+00 9.510001e-01 8.366420e-01 9.160490e-01 4.296841e-02 4.638414e-02 5.971675e-02 1.046307e-01 1.015363e-01 1.142672e-01 1.306743e-01 1.371805e-01 1.465522e-01 1.698132e-01 1.305668e-01 1.190075e-01 6.204923e-02
<GCONST> 6.939806e+01
<MIXTURE> 2 3.451476e-01
<MEAN> 39
 -7.966067e-01 -1.268154e-01 -2.290626e-01 8.601058e-01 4.642939e-01 8.747786e-01 7.053738e-01 1.045137e+00 4.872237e-01 9.284654e-01 6.961679e-01 9.740670e-01 2.263768e+00 -1.065123e-01 -4.244503e-02 5.280273e-02 3.019710e-01 2.799909e-01 3.224032e-01 2.817716e-01 3.071997e-01 1.985013e-01 2.533655e-01 2.207980e-01 1.851122e-01 1.317870e-01 3.722718e-02 3.624632e-02 3.247941e-02 -4.261068e-02 -2.381910e-03 -1.652839e-02 -1.729920e-02 -4.617073e-02 1.775392e-02 -3.623077e-02 -2.388541e-02 -5.254970e-02 -5.651361e-02
<VARIANCE> 39
 4.719055e+00 3.504764e+00 5.751194e+00 9.608612e+00 1.010535e+01 1.285364e+01 1.371572e+01 1.562413e+01 1.575416e+01 1.608354e+01 1.464639e+01 1.325804e+01 2.543041e+01 1.475180e-01 1.681126e-01 2.500299e-01 3.969800e-01 4.612417e-01 5.433528e-01 6.285367e-01 6.533372e-01 7.195155e-01 6.857968e-01 5.821636e-01 5.481737e-01 1.197491e-01 2.284962e-02 3.162029e-02 5.144811e-02 8.914991e-02 8.817336e-02 1.041349e-01 1.133190e-01 1.240632e-01 1.394588e-01 1.502199e-01 1.338647e-01 1.117254e-01 3.834088e-02
<GCONST> 5.761505e+01
<MIXTURE> 3 2.240043e-01
<MEAN> 39
 -9.813973e-01 -4.439824e-01 -5.758334e-01 4.306583e-01 -8.073205e-02 2.909292e-01 1.771420e-02 3.359201e-01 -1.461915e-01 2.476518e-01 6.044364e-02 4.548616e-01 2.321755e+00 -2.063940e-01 -1.678296e-01 -1.311216e-01 1.079574e-01 3.974290e-02 6.444772e-02 7.436424e-04 4.714298e-02 -9.298406e-02 -9.281240e-03 -6.565794e-03 -1.481130e-02 1.490049e-01 2.440538e-02 1.108002e-02 -7.809967e-03 -1.275069e-01 -5.642105e-02 -8.298352e-02 -5.418314e-02 -1.109794e-01 -9.809822e-03 -9.201957e-02 -6.472315e-02 -1.028573e-01 -1.211269e-01
<VARIANCE> 39
 5.912982e+00 3.973877e+00 6.062187e+00 1.061369e+01 1.083950e+01 1.374960e+01 1.461325e+01 1.631075e+01 1.627275e+01 1.649578e+01 1.514244e+01 1.338120e+01 3.662026e+01 1.698087e-01 1.897854e-01 2.742424e-01 4.180704e-01 4.875486e-01 5.609396e-01 6.468716e-01 6.769729e-01 7.908893e-01 7.328821e-01 6.074753e-01 5.806409e-01 1.820307e-01 2.648135e-02 3.572867e-02 5.434831e-02 9.920703e-02 9.266018e-02 1.130316e-01 1.154546e-01 1.293945e-01 1.426779e-01 1.580445e-01 1.390636e-01 1.123087e-01 6.408742e-02
<GCONST> 6.131923e+01
<MIXTURE> 4 2.535462e-01
<MEAN> 39
 -9.632116e-01 1.880649e-01 -3.206336e-01 1.047937e+00 2.998124e-01 1.282231e+00 5.600871e-01 1.102634e+00 1.822803e-01 7.480279e-01 -1.443495e-01 7.871374e-01 5.044710e+00 -1.618633e-01 -3.479230e-02 1.111655e-01 7.883438e-01 3.042599e-01 5.646760e-01 2.255237e-01 4.462667e-01 -2.137923e-01 3.566220e-01 -1.682733e-02 3.161319e-01 7.865731e-01 -1.121336e-01 -1.092097e-01 -1.136299e-01 -1.953096e-01 -9.819995e-02 -1.915144e-01 -1.006161e-01 -1.622421e-01 -2.008803e-02 -1.480642e-01 -3.873091e-03 -1.236006e-01 -2.432632e-01
<VARIANCE> 39
 4.216859e+00 3.995950e+00 6.101250e+00 1.150528e+01 1.124019e+01 1.364185e+01 1.521033e+01 1.681649e+01 1.732699e+01 1.806929e+01 1.474054e+01 1.402872e+01 2.742193e+01 2.854924e-01 2.877677e-01 3.529918e-01 6.808776e-01 6.301944e-01 7.295712e-01 7.513615e-01 8.193569e-01 9.155815e-01 1.213774e+00 8.818815e-01 7.900520e-01 8.302739e-01 4.405857e-02 4.733139e-02 5.936949e-02 1.108348e-01 1.033295e-01 1.217799e-01 1.275614e-01 1.389362e-01 1.563688e-01 1.729950e-01 1.411316e-01 1.193966e-01 7.674236e-02
<GCONST> 6.822514e+01
<TRANSP> 5
 0.000000e+00 1.000000e+00 0.000000e+00 0.000000e+00 0.000000e+00
 0.000000e+00 9.748856e-02 9.025114e-01 0.000000e+00 0.000000e+00
 0.000000e+00 0.000000e+00 6.875091e-01 3.124909e-01 0.000000e+00
 0.000000e+00 0.000000e+00 0.000000e+00 3.770113e-01 6.229888e-01
 0.000000e+00 0.000000e+00 0.000000e+00 0.000000e+00 0.000000e+00
<ENDHMM>
~h "t"
<BEGINHMM>
<NUMSTATES> 5
<STATE> 2
<NUMMIXES> 4
<MIXTURE> 1 2.583643e-01
<MEAN> 39
 -1.225435e+00 -3.370380e-02 -6.744038e-01 5.843209e-01 -7.369232e-02 8.600138e-01 9.259909e-01 1.587216e+00 7.094237e-01 1.125081e+00 6.093013e-01 1.089352e+00 1.043447e+00 -1.650183e-01 -3.452495e-02 4.813623e-02 3.130611e-01 2.816839e-01 4.044077e-01 2.447905e-01 3.245704e-01 2.026653e-01 3.076904e-01 2.082425e-01 1.994847e-01 1.449383e+00 6.672422e-02 6.345364e-02 7.718350e-02 1.786711e-02 6.200883e-02 1.100177e-02 5.060788e-03 -6.131094e-03 1.904812e-02 -8.793626e-03 1.586374e-02 -1.918842e-02 4.541768e-02
<VARIANCE> 39
 6.040963e+00 4.647295e+00 5.953473e+00 1.288647e+01 1.276270e+01 1.699457e+01 1.537067e+01 1.722991e+01 1.625477e+01 1.650263e+01 1.440337e+01 1.325001e+01 1.739762e+02 4.065147e-01 2.953137e-01 3.567065e-01 6.081553e-01 6.086335e-01 7.666013e-01 6.971999e-01 8.003109e-01 7.970256e-01 8.028342e-01 6.905798e-01 6.418419e-01 5.681638e+00 5.459668e-02 5.448019e-02 6.738066e-02 1.129559e-01 1.132516e-01 1.476676e-01 1.354373e-01 1.461967e-01 1.458167e-01 1.496899e-01 1.307957e-01 1.213734e-01 8.033070e-01
<GCONST> 7.490090e+01
<MIXTURE> 2 2.059387e-01
<MEAN> 39
 1.560522e+00 1.819814e+00 9.941917e-01 -3.779899e-01 -2.100724e-01 -1.096631e+00 -5.004759e-01 -3.869039e-01 1.982604e-01 -2.702354e-01 1.384252e-01 -2.940533e-01 -3.088689e+00 2.678630e-01 2.465631e-01 1.763528e-01 -2.774037e-02 8.900292e-02 -1.067510e-01 -2.522230e-02 -1.352004e-03 9.699657e-02 2.748804e-02 7.200465e-02 -2.680809e-02 -4.653141e-01 -8.588883e-02 -7.719211e-02 -3.499969e-02 5.567781e-02 5.755463e-02 1.071495e-01 7.581875e-02 9.087390e-02 5.002349e-02 7.401729e-02 4.054767e-02 5.927557e-02 1.341673e-01
<VARIANCE> 39
 2.289301e+01 1.853952e+01 1.770157e+01 2.169655e+01 2.015391e+01 2.614482e+01 2.226797e+01 2.357272e+01 2.350393e+01 2.353355e+01 1.987330e+01 1.759776e+01 1.467757e+02 1.539180e+00 1.058436e+00 1.076779e+00 1.025687e+00 1.061043e+00 1.388536e+00 1.073513e+00 1.227999e+00 1.092353e+00 1.144704e+00 9.442219e-01 8.854535e-01 8.574740e+00 2.188213e-01 1.881647e-01 1.886919e-01 1.810026e-01 1.854560e-01 2.489237e-01 1.970669e-01 2.123882e-01 2.040294e-01 2.125790e-01 1.736937e-01 1.628094e-01 1.169491e+00
<GCONST> 9.745219e+01
<MIXTURE> 3 3.711528e-01
<MEAN> 39
 -1.210737e+00 -3.056424e-01 -1.088115e+00 -2.075413e-01 -6.634316e-01 1.598122e-01 2.673920e-01 8.186391e-01 2.260399e-01 4.283068e-01 1.318749e-01 5.322216e-01 -4.207134e-03 -1.729800e-01 -1.166496e-01 -8.142017e-02 2.579945e-02 3.751349e-02 6.852745e-02 -3.793193e-02 9.866271e-03 -5.253407e-02 2.976302e-03 -2.898700e-02 -1.681066e-02 1.029488e+00 6.430843e-02 3.793770e-02 5.036371e-02 -3.233291e-02 9.605907e-03 -5.617356e-02 -5.114147e-02 -7.586752e-02 -4.513607e-02 -7.180110e-02 -4.394790e-02 -6.370582e-02 -9.288415e-02
<VARIANCE> 39
 6.073544e+00 4.591791e+00 5.813778e+00 1.206841e+01 1.235451e+01 1.634910e+01 1.454879e+01 1.646545e+01 1.583829e+01 1.582688e+01 1.404025e+01 1.324588e+01 1.726889e+02 3.730006e-01 3.112740e-01 3.597648e-01 6.020463e-01 6.095005e-01 7.292529e-01 7.074515e-01 8.123344e-01 8.041037e-01 7.917330e-01 6.860354e-01 6.438325e-01 4.409797e+00 4.995796e-02 5.160745e-02 6.353784e-02 1.118200e-01 1.116940e-01 1.454067e-01 1.362610e-01 1.467344e-01 1.436646e-01 1.419719e-01 1.276291e-01 1.184950e-01 7.015740e-01
<GCONST> 7.373329e+01
<MIXTURE> 4 1.645372e-01
<MEAN> 39
 1.636598e+00 1.466226e+00 7.481571e-01 -1.286149e+00 -8.273964e-01 -2.300171e+00 -1.389430e+00 -1.334522e+00 -4.282778e-01 -1.198406e+00 -1.597126e-01 -7.997363e-01 -4.731348e+00 8.448431e-02 -5.038936e-02 -7.961696e-02 -4.758371e-01 -1.613167e-01 -5.261636e-01 -3.443969e-01 -3.843411e-01 -1.453404e-01 -3.840461e-01 -1.645547e-01 -2.932785e-01 -8.314034e-01 -1.098505e-01 -1.166347e-01 -8.204787e-02 -7.393710e-03 -4.232671e-03 7.426813e-02 4.658416e-02 3.979190e-02 7.356636e-03 1.877067e-02 -3.340747e-02 4.751518e-03 2.473101e-02
<VARIANCE> 39
 2.224241e+01 1.948188e+01 1.808501e+01 2.308119e+01 2.102683e+01 2.617740e+01 2.127003e+01 2.376318e+01 2.529977e+01 2.309962e+01 1.997646e+01 1.731842e+01 1.332727e+02 1.394527e+00 1.086394e+00 1.026482e+00 1.107884e+00 1.069453e+00 1.314562e+00 1.086679e+00 1.216421e+00 1.190345e+00 1.128763e+00 9.420763e-01 9.401838e-01 7.259849e+00 2.202295e-01 1.859213e-01 1.792217e-01 1.792446e-01 1.773836e-01 2.403839e-01 1.859315e-01 2.190568e-01 2.112751e-01 2.026276e-01 1.654936e-01 1.520894e-01 1.062920e+00
<GCONST> 9.698684e+01
<STATE> 3
<NUMMIXES> 4
<MIXTURE> 1 2.471308e-01
<MEAN> 39
 1.435109e-01 2.074115e-01 -1.328543e-01 -9.942027e-01 -2.985536e-01 -4.990638e-01 -3.142413e-01 -8.723125e-03 4.204410e-01 4.118209e-01 4.503067e-01 8.068883e-02 1.091508e+00 -1.223264e-01 8.780253e-02 1.769093e-01 6.353354e-01 3.448976e-01 5.817813e-01 3.323568e-01 3.985336e-01 1.875612e-01 3.401286e-01 1.368045e-01 2.543775e-01 2.354666e-01 -1.367529e-02 6.219711e-03 2.954774e-02 1.008159e-01 7.040694e-02 9.385929e-02 6.727133e-02 5.092417e-02 1.464563e-02 9.964660e-03 4.835084e-03 2.184386e-02 -3.206001e-02
<VARIANCE> 39
 6.022738e+00 5.303907e+00 7.250854e+00 1.766771e+01 1.200000e+01 1.734188e+01 1.637691e+01 1.804763e+01 1.741495e+01 1.899522e+01 1.656308e+01 1.621706e+01 1.810290e+01 2.375420e-01 2.756719e-01 3.112777e-01 9.068450e-01 6.045499e-01 8.253066e-01 7.528665e-01 8.854871e-01 8.828910e-01 8.430374e-01 7.707436e-01 7.559185e-01 2.338985e-01 3.635336e-02 4.275428e-02 6.227178e-02 1.486396e-01 1.032325e-01 1.430968e-01 1.356171e-01 1.532218e-01 1.452648e-01 1.608149e-01 1.423665e-01 1.337149e-01 5.374655e-02
<GCONST> 6.805226e+01
<MIXTURE> 2 2.251666e-01
<MEAN> 39
 4.111125e+00 -1.644784e-01 1.826082e+00 -3.542615e+00 1.277177e+00 -1.921124e+00 -1.691397e+00 -3.208586e+00 -3.020433e-01 -2.068487e+00 -7.256144e-02 -2.328863e+00 -3.956674e+00 1.353046e-01 6.828060e-02 8.968925e-02 2.007656e-01 -1.319913e-02 1.743149e-01 1.266396e-01 -2.193449e-02 -4.570267e-02 1.144376e-01 5.245991e-02 9.001642e-02 -4.998593e-01 -1.131407e-01 4.508096e-02 -2.977011e-02 2.208986e-01 -2.144127e-02 1.677970e-01 1.055271e-01 1.774664e-01 3.693385e-02 1.450237e-01 3.895633e-02 1.587321e-01 1.247595e-01
<VARIANCE> 39
 2.035699e+01 1.658112e+01 1.627345e+01 3.541763e+01 2.876049e+01 3.507505e+01 2.980969e+01 3.419954e+01 3.279843e+01 3.090560e+01 2.777909e+01 2.251187e+01 4.378712e+01 5.588904e-01 5.717617e-01 5.917149e-01 1.282550e+00 1.047029e+00 1.308041e+00 1.161609e+00 1.320385e+00 1.081058e+00 1.207027e+00 1.047665e+00 9.879224e-01 9.348876e-01 9.734907e-02 1.028155e-01 1.053380e-01 2.326927e-01 2.080114e-01 2.621894e-01 2.012779e-01 2.294038e-01 2.130942e-01 2.203552e-01 1.986337e-01 1.848356e-01 8.560000e-02
<GCONST> 9.127859e+01
<MIXTURE> 3 3.511125e-01
<MEAN> 39
 2.848107e-01 -1.010649e-01 -3.046744e-01 -1.460769e+00 -7.782468e-01 -1.144220e+00 -8.653604e-01 -7.835466e-01 -3.620757e-01 -4.360397e-01 -1.415516e-01 -4.234658e-01 3.002213e-01 -1.225487e-01 -4.877316e-02 -2.114287e-02 2.155045e-01 8.467688e-02 1.932113e-01 4.868510e-02 3.433989e-02 -1.050399e-01 -1.212339e-02 -7.321911e-02 2.032886e-02 7.647126e-02 -9.572551e-03 -1.745350e-02 1.969591e-03 2.805037e-02 3.531035e-02 3.528929e-02 1.280674e-02 -1.336754e-02 -2.468978e-02 -4.981967e-02 -4.577195e-02 -3.267670e-02 -5.675094e-02
<VARIANCE> 39
 6.382940e+00 5.086871e+00 6.905940e+00 1.672601e+01 1.200298e+01 1.724732e+01 1.603892e+01 1.781217e+01 1.734425e+01 1.849103e+01 1.672410e+01 1.555681e+01 1.903904e+01 2.191793e-01 2.312545e-01 3.054034e-01 6.729600e-01 5.817602e-01 7.444916e-01 7.287408e-01 7.993440e-01 8.070855e-01 7.977702e-01 7.357978e-01 6.716270e-01 1.865218e-01 3.763620e-02 4.311461e-02 6.157824e-02 1.267582e-01 9.941943e-02 1.365553e-01 1.339166e-01 1.480532e-01 1.450720e-01 1.559622e-01 1.419824e-01 1.303247e-01 6.095612e-02
<GCONST> 6.633438e+01
<MIXTURE> 4 1.766132e-01
<MEAN> 39
 3.963681e+00 -9.536107e-01 1.417685e+00 -3.861640e+00 1.205169e+00 -2.246709e+00 -2.217838e+00 -4.146913e+00 -8.300022e-01 -2.777635e+00 -5.591647e-01 -2.724974e+00 -4.687385e+00 8.826638e-02 -2.201402e-01 -1.241286e-01 -2.214688e-01 -3.084283e-01 -2.969446e-01 -2.441252e-01 -4.967889e-01 -3.293126e-01 -2.885860e-01 -1.911756e-01 -2.027020e-01 -8.448544e-01 -1.026037e-01 3.730227e-02 -5.284092e-02 1.035182e-01 -8.649902e-02 6.482898e-02 3.349192e-02 1.183189e-01 1.362510e-03 6.587531e-02 -2.016873e-02 7.270689e-02 7.732801e-02
<VARIANCE> 39
 1.693855e+01 1.309515e+01 1.543055e+01 3.414261e+01 3.059628e+01 3.695343e+01 3.220671e+01 3.489708e+01 3.151387e+01 3.112897e+01 2.630177e+01 2.294300e+01 4.211280e+01 6.376630e-01 5.661961e-01 5.911189e-01 1.441938e+00 1.091968e+00 1.425122e+00 1.242018e+00 1.427660e+00 1.174691e+00 1.232525e+00 9.611731e-01 9.798495e-01 7.819126e-01 9.395912e-02 8.579237e-02 9.489527e-02 1.906655e-01 2.025922e-01 2.454480e-01 2.124065e-01 2.367423e-01 2.069827e-01 2.034760e-01 1.878260e-01 1.740227e-01 9.415935e-02
<GCONST> 9.055811e+01
<STATE> 4
<NUMMIXES> 4
<MIXTURE> 1 2.581742e-01
<MEAN> 39
 -8.956161e-01 6.065306e-02 -1.154946e-01 1.200780e+00 7.936938e-01 1.286150e+00 8.443189e-01 1.381932e+00 6.803229e-01 1.194303e+00 7.783610e-01 9.367367e-01 2.997822e+00 -6.031402e-02 6.601310e-02 2.017389e-01 4.434478e-01 3.919686e-01 4.764349e-01 3.482045e-01 3.199336e-01 2.269018e-01 2.511575e-01 1.707551e-01 1.482004e-01 1.034309e-01 2.726336e-02 1.291973e-02 1.426601e-02 -1.674498e-02 -1.417880e-02 -1.116930e-02 4.100643e-03 4.208460e-03 1.817463e-02 -1.210121e-02 -2.756473e-03 -8.717973e-03 -2.519555e-02
<VARIANCE> 39
 3.224022e+00 2.984243e+00 5.111856e+00 9.226821e+00 9.911659e+00 1.296588e+01 1.446850e+01 1.469893e+01 1.538280e+01 1.596081e+01 1.415557e+01 1.237572e+01 2.253452e+01 1.532807e-01 1.703957e-01 2.738938e-01 4.626055e-01 4.720735e-01 6.238371e-01 6.908036e-01 7.463539e-01 7.248050e-01 7.038854e-01 6.870797e-01 6.145930e-01 4.982323e-02 2.073925e-02 2.572890e-02 4.679412e-02 7.591379e-02 8.886129e-02 1.089081e-01 1.244236e-01 1.327635e-01 1.395511e-01 1.458552e-01 1.260266e-01 1.152465e-01 8.154449e-03
<GCONST> 5.481181e+01
<MIXTURE> 2 2.062975e-01
<MEAN> 39
 -8.222878e-03 2.746330e-01 3.017761e-01 7.407407e-01 3.837762e-01 5.282726e-01 1.199168e-01 3.613017e-01 2.038374e-01 5.106893e-01 3.458413e-01 3.894303e-01 6.181693e-01 -6.005683e-02 -1.327227e-02 -4.656963e-02 1.019338e-01 3.812334e-02 1.332503e-01 1.266554e-01 1.447479e-01 4.960873e-02 3.834247e-02 3.857779e-02 1.047621e-01 1.693109e-02 3.224630e-02 1.815934e-02 2.399477e-02 -9.449525e-04 3.701737e-02 2.385669e-02 2.683553e-02 2.660817e-02 4.057379e-02 2.251870e-02 1.737811e-02 6.407414e-03 -2.127110e-03
<VARIANCE> 39
 1.127659e+01 6.205575e+00 7.935788e+00 1.324956e+01 1.301661e+01 1.769466e+01 1.725298e+01 1.994920e+01 1.853288e+01 1.814819e+01 1.547800e+01 1.381920e+01 7.392388e+01 2.147635e-01 2.319068e-01 3.088335e-01 4.363085e-01 5.483931e-01 6.429906e-01 7.665282e-01 7.978997e-01 8.236835e-01 7.065251e-01 7.180246e-01 6.082360e-01 1.546235e-01 4.146431e-02 4.223768e-02 5.899944e-02 1.010316e-01 1.032130e-01 1.314363e-01 1.445600e-01 1.589959e-01 1.533907e-01 1.399693e-01 1.291061e-01 1.168094e-01 3.357493e-02
<GCONST> 6.660096e+01
<MIXTURE> 3 3.830496e-01
<MEAN> 39
 -8.218021e-01 -1.633064e-01 -3.680302e-01 6.245980e-01 2.002497e-01 5.934196e-01 1.620590e-01 6.410631e-01 9.413260e-02 5.284015e-01 2.088834e-01 4.163204e-01 2.360296e+00 -1.193842e-01 -5.480414e-02 3.095047e-02 2.338281e-01 1.984281e-01 2.363932e-01 9.376049e-02 4.630872e-02 -2.555501e-02 -2.526551e-02 -9.584068e-02 -4.717064e-02 6.746502e-02 1.222236e-02 -1.975882e-02 -2.390051e-02 -7.768046e-02 -6.125911e-02 -7.609913e-02 -3.893046e-02 -5.479870e-02 -4.355916e-02 -6.908792e-02 -6.251641e-02 -4.894964e-02 -4.291801e-02
<VARIANCE> 39
 3.293674e+00 2.891040e+00 4.994560e+00 8.672289e+00 9.700054e+00 1.261626e+01 1.444995e+01 1.495189e+01 1.531728e+01 1.581943e+01 1.413136e+01 1.253075e+01 1.939977e+01 1.417744e-01 1.676996e-01 2.658723e-01 4.512875e-01 4.780733e-01 6.275715e-01 6.881133e-01 7.201363e-01 7.373774e-01 6.971493e-01 6.804485e-01 6.113091e-01 4.567886e-02 2.145657e-02 2.749107e-02 4.627144e-02 8.311821e-02 8.883464e-02 1.129658e-01 1.226055e-01 1.358103e-01 1.382282e-01 1.400022e-01 1.227191e-01 1.153932e-01 9.919880e-03
<GCONST> 5.461113e+01
<MIXTURE> 4 1.524990e-01
<MEAN> 39
 2.966382e-01 -2.813542e-02 2.092814e-02 -1.828099e-01 -2.998384e-01 -3.647574e-01 -4.170856e-01 -6.157795e-01 -4.000494e-01 -3.749706e-01 -1.568921e-01 -2.535256e-01 -2.197678e+00 -1.638355e-01 -1.521251e-01 -2.392667e-01 -1.079427e-01 -1.788826e-01 -1.299579e-01 -7.436880e-02 -6.180154e-02 -1.791215e-01 -1.782084e-01 -2.040046e-01 -6.204558e-02 -9.626187e-02 2.820041e-02 -9.487711e-03 -5.399123e-03 -6.851093e-02 -1.466424e-02 -5.042406e-02 -3.742150e-02 -3.693430e-02 -1.483665e-02 -5.865946e-02 -4.644137e-02 -5.230387e-02 -9.649586e-03
<VARIANCE> 39
 1.148905e+01 6.169306e+00 7.757194e+00 1.370240e+01 1.332394e+01 1.741740e+01 1.689736e+01 2.126622e+01 1.841339e+01 1.805723e+01 1.554946e+01 1.375617e+01 8.917526e+01 2.282006e-01 2.460457e-01 3.045277e-01 4.654506e-01 5.421593e-01 6.969385e-01 7.686820e-01 7.957489e-01 7.716213e-01 6.692152e-01 7.242696e-01 6.235650e-01 1.853878e-01 3.857741e-02 4.323215e-02 5.728692e-02 1.008855e-01 1.059767e-01 1.239903e-01 1.333037e-01 1.514053e-01 1.536115e-01 1.340236e-01 1.258927e-01 1.216799e-01 3.548328e-02
<GCONST> 6.697382e+01
<TRANSP> 5
 0.000000e+00 1.000000e+00 0.000000e+00 0.000000e+00 0.000000e+00
 0.000000e+00 7.258415e-01 2.741586e-01 0.000000e+00 0.000000e+00
 0.000000e+00 0.000000e+00 5.135299e-01 4.864702e-01 0.000000e+00
 0.000000e+00 0.000000e+00 0.000000e+00 3.272878e-01 6.727122e-01
 0.000000e+00 0.000000e+00 0.000000e+00 0.000000e+00 0.000000e+00
<ENDHMM>
~h "v"
<BEGINHMM>
<NUMSTATES> 5
<STATE> 2
<NUMMIXES> 4
<MIXTURE> 1 1.669631e-01
<MEAN> 39
 -1.700138e+00 -4.301906e-02 -3.435861e-01 2.252153e+00 1.104545e+00 1.736648e+00 4.021839e-01 1.821521e+00 2.051089e-01 1.188222e+00 2.927085e-01 1.388860e+00 7.628576e+00 2.570332e-01 8.612263e-02 1.328100e-01 6.964174e-02 7.899220e-02 1.310304e-01 1.029729e-01 7.295721e-02 6.035164e-02 7.130343e-02 3.851384e-02 2.278807e-02 3.755065e-02 9.542771e-02 6.604611e-03 3.670530e-03 -8.572835e-03 3.649128e-02 8.838555e-02 9.963201e-02 6.243593e-02 4.177938e-02 2.772880e-02 2.285874e-02 1.142077e-02 -1.210131e-02
<VARIANCE> 39
 3.107999e+00 3.366426e+00 5.422481e+00 8.230674e+00 1.073625e+01 1.320399e+01 1.344660e+01 1.565479e+01 1.579666e+01 1.619303e+01 1.589633e+01 1.332792e+01 2.399373e+01 1.021428e-01 1.374209e-01 2.255304e-01 3.528287e-01 4.364975e-01 5.255535e-01 5.335485e-01 6.750351e-01 6.763472e-01 6.715256e-01 6.620522e-01 5.728503e-01 1.478224e-02 3.197052e-02 2.553571e-02 4.299434e-02 6.356630e-02 8.464679e-02 9.940998e-02 1.158774e-01 1.217007e-01 1.346735e-01 1.339408e-01 1.280918e-01 1.113636e-01 4.738982e-03
<GCONST> 5.127215e+01
<MIXTURE> 2 3.802885e-01
<MEAN> 39
 8.611217e-02 5.341524e-01 7.045434e-01 5.985919e-01 2.089405e-01 -1.786771e-01 -3.093376e-01 -3.395152e-01 -6.209500e-01 -4.826126e-01 -3.312489e-01 3.933042e-02 2.408726e-01 6.552757e-02 4.511853e-02 -1.947437e-02 -1.302271e-01 -2.119233e-01 -2.007760e-01 -1.721298e-01 -1.299405e-01 -6.903012e-02 -6.381845e-02 -2.895418e-02 2.054157e-02 1.261131e-02 -1.146576e-02 -3.653278e-02 -5.119280e-02 -1.309021e-02 3.950551e-02 1.013722e-01 1.272845e-01 1.433321e-01 1.682437e-01 1.464836e-01 1.076727e-01 4.702491e-02 -5.767253e-03
<VARIANCE> 39
 1.209930e+00 2.535968e+00 4.533834e+00 7.058619e+00 8.613152e+00 1.146957e+01 1.226587e+01 1.301987e+01 1.424304e+01 1.406291e+01 1.432992e+01 1.218456e+01 7.461132e-01 5.801822e-02 1.168780e-01 1.982760e-01 3.031028e-01 4.169303e-01 5.140692e-01 5.702279e-01 6.113637e-01 6.776969e-01 6.623245e-01 6.064298e-01 5.313947e-01 9.817932e-03 9.655769e-03 2.135587e-02 3.829322e-02 5.264407e-02 7.041905e-02 8.571669e-02 1.003974e-01 1.053084e-01 1.197663e-01 1.162456e-01 1.117195e-01 9.634868e-02 1.779381e-03
<GCONST> 3.965337e+01
<MIXTURE> 3 2.559376e-01
<MEAN> 39
 -1.092723e-02 1.926837e-01 3.152167e-01 7.511865e-02 -3.788668e-01 -8.555619e-01 -9.731555e-01 -1.069981e+00 -1.326700e+00 -9.862131e-01 -9.550044e-01 -4.865197e-01 1.464702e-01 -2.302239e-02 -8.262286e-02 -1.851705e-01 -3.399365e-01 -4.364783e-01 -4.488699e-01 -4.369193e-01 -3.748620e-01 -3.411672e-01 -3.454107e-01 -2.535994e-01 -1.453431e-01 -2.103228e-02 -2.531942e-02 -4.729181e-02 -7.084582e-02 -4.600974e-02 8.991260e-03 6.495670e-02 7.595510e-02 8.497075e-02 1.010633e-01 8.213907e-02 5.667669e-02 7.290091e-03 -1.291123e-02
<VARIANCE> 39
 1.237208e+00 2.623919e+00 4.898154e+00 7.152519e+00 8.658405e+00 1.160073e+01 1.211907e+01 1.317526e+01 1.423136e+01 1.412031e+01 1.390905e+01 1.192561e+01 4.607618e-01 5.859529e-02 1.243247e-01 2.053932e-01 2.851113e-01 4.010303e-01 5.184468e-01 6.014849e-01 6.235592e-01 6.812284e-01 7.135307e-01 5.770857e-01 5.170255e-01 1.006145e-02 9.905594e-03 2.358620e-02 3.992352e-02 5.211900e-02 6.803703e-02 8.663361e-02 1.025986e-01 1.074000e-01 1.141785e-01 1.139320e-01 1.114433e-01 8.860862e-02 1.834631e-03
<GCONST> 3.945289e+01
<MIXTURE> 4 1.968321e-01
<MEAN> 39
 -1.653213e+00 -3.949741e-01 -6.205879e-01 1.415842e+00 4.116696e-01 7.477747e-01 -3.145932e-01 6.251085e-01 -5.633826e-01 3.414178e-01 -1.724651e-01 8.994485e-01 5.571701e+00 1.595046e-01 -1.379184e-02 -4.151697e-02 -1.359397e-01 -1.404052e-01 -1.130264e-01 -1.559691e-01 -1.796751e-01 -1.859152e-01 -2.335012e-01 -1.843347e-01 -1.211733e-01 1.398830e-02 5.906396e-02 -1.417427e-02 -3.117225e-02 -5.898000e-02 -1.405183e-02 2.850221e-02 4.839743e-02 3.185563e-02 1.617783e-02 -1.201851e-02 -2.656734e-02 -3.839330e-02 -1.588255e-02
<VARIANCE> 39
 3.343934e+00 3.347842e+00 5.619443e+00 8.809186e+00 1.160644e+01 1.296571e+01 1.386406e+01 1.445082e+01 1.622556e+01 1.647966e+01 1.492684e+01 1.420911e+01 2.655227e+01 1.041716e-01 1.283713e-01 2.106975e-01 3.360059e-01 4.274464e-01 5.237347e-01 5.569566e-01 6.482412e-01 6.622560e-01 6.810332e-01 6.155596e-01 5.888550e-01 1.807556e-02 2.688790e-02 2.582215e-02 4.553185e-02 6.225757e-02 8.962963e-02 9.535102e-02 1.172311e-01 1.129430e-01 1.372893e-01 1.387888e-01 1.254597e-01 1.196836e-01 5.131879e-03
<GCONST> 5.157471e+01
<STATE> 3
<NUMMIXES> 4
<MIXTURE> 1 1.470018e-01
<MEAN> 39
 -1.515943e+00 -5.080563e-02 -3.866432e-01 2.142990e+00 1.000054e+00 1.788501e+00 5.374641e-01 1.906348e+00 2.071358e-01 1.427129e+00 4.810468e-01 1.371690e+00 7.753987e+00 3.605820e-01 2.677811e-02 7.259444e-02 2.897811e-02 1.306168e-01 2.688417e-01 2.767022e-01 2.136358e-01 1.583971e-01 1.268379e-01 1.148053e-01 6.489077e-02 2.268244e-02 1.120838e-01 4.690805e-02 6.336083e-02 1.243148e-02 6.406754e-02 6.852920e-02 8.309136e-02 2.029399e-02 3.005485e-02 6.244779e-03 2.178191e-02 -1.294015e-02 -8.354186e-02
<VARIANCE> 39
 3.900087e+00 3.477152e+00 5.478048e+00 8.460173e+00 9.609735e+00 1.303676e+01 1.346720e+01 1.498093e+01 1.436627e+01 1.566823e+01 1.546374e+01 1.260201e+01 2.167264e+01 1.586461e-01 1.409824e-01 2.163847e-01 3.226602e-01 4.416966e-01 5.359970e-01 5.908517e-01 6.422560e-01 6.982365e-01 7.109026e-01 6.836789e-01 5.863458e-01 2.541296e-02 5.363505e-02 3.659473e-02 5.890143e-02 6.747765e-02 8.499076e-02 1.080524e-01 1.179935e-01 1.394539e-01 1.434832e-01 1.493091e-01 1.373366e-01 1.164087e-01 1.877581e-02
<GCONST> 5.535108e+01
<MIXTURE> 2 4.226190e-01
<MEAN> 39
 1.183634e-01 4.393821e-01 4.231986e-01 1.234947e-01 -4.639539e-01 -7.011663e-01 -9.620111e-01 -9.352516e-01 -8.555102e-01 -8.384370e-01 -5.382431e-01 -2.064407e-03 2.986866e-01 2.729242e-02 -3.777722e-02 -1.094343e-01 -1.602392e-01 -1.063541e-01 1.386740e-02 7.982872e-02 1.279203e-01 2.029080e-01 1.643181e-01 1.387776e-01 6.405007e-02 -4.060101e-03 -2.490589e-02 -3.518449e-02 -1.772898e-02 5.348907e-02 1.272438e-01 1.775811e-01 2.001503e-01 1.989771e-01 1.926350e-01 1.773484e-01 1.313458e-01 6.130426e-02 -7.596907e-03
<VARIANCE> 39
 1.211393e+00 2.352862e+00 3.952486e+00 6.547348e+00 8.447874e+00 1.063278e+01 1.254132e+01 1.306304e+01 1.445717e+01 1.309457e+01 1.298314e+01 1.203450e+01 1.136137e+00 6.204010e-02 1.164586e-01 2.061892e-01 3.021346e-01 4.248779e-01 5.294608e-01 5.909266e-01 6.063149e-01 7.135844e-01 6.793007e-01 6.085955e-01 5.368434e-01 1.026320e-02 1.164887e-02 2.286444e-02 3.949631e-02 5.479477e-02 7.177805e-02 8.949695e-02 1.051588e-01 1.028313e-01 1.247139e-01 1.162011e-01 1.118835e-01 9.925614e-02 2.110235e-03
<GCONST> 4.051424e+01
<MIXTURE> 3 2.547670e-01
<MEAN> 39
 -4.902393e-03 6.647603e-02 -7.300156e-02 -4.909641e-01 -1.174862e+00 -1.464007e+00 -1.651095e+00 -1.675268e+00 -1.594077e+00 -1.479706e+00 -1.066770e+00 -5.621196e-01 1.845418e-01 -5.509329e-02 -1.501523e-01 -2.696639e-01 -3.318857e-01 -3.123610e-01 -2.104989e-01 -1.565131e-01 -1.008780e-01 -2.781470e-02 -4.958051e-02 -9.304824e-02 -1.125015e-01 -3.595166e-02 -4.071790e-02 -5.221238e-02 -4.338741e-02 2.722262e-02 1.028488e-01 1.458626e-01 1.572849e-01 1.490333e-01 1.438862e-01 1.176255e-01 7.748332e-02 1.880105e-02 -1.440848e-02
<VARIANCE> 39
 1.165562e+00 2.460998e+00 4.034781e+00 6.772165e+00 8.639584e+00 1.068911e+01 1.230794e+01 1.329909e+01 1.436386e+01 1.312555e+01 1.312413e+01 1.189009e+01 7.376850e-01 6.359103e-02 1.206602e-01 2.062330e-01 3.003818e-01 4.121426e-01 4.977606e-01 5.902426e-01 6.156166e-01 6.847842e-01 6.841689e-01 6.121374e-01 5.424445e-01 1.093272e-02 1.165414e-02 2.389612e-02 3.991060e-02 5.549033e-02 7.130653e-02 9.019658e-02 1.009560e-01 1.066537e-01 1.178208e-01 1.099266e-01 1.082868e-01 9.720660e-02 2.112908e-03
<GCONST> 4.008625e+01
<MIXTURE> 4 1.756327e-01
<MEAN> 39
 -1.418405e+00 -3.731221e-01 -7.585129e-01 1.403401e+00 3.649958e-01 1.052294e+00 -3.390372e-03 9.419258e-01 -5.350660e-01 5.254245e-01 -1.069357e-01 7.879624e-01 6.488474e+00 2.569783e-01 -6.206467e-02 -8.759808e-02 -1.766154e-01 -7.689059e-02 5.576756e-03 3.819495e-03 -5.564206e-02 -1.280949e-01 -1.789524e-01 -1.421785e-01 -9.647150e-02 -1.978953e-02 7.690960e-02 2.024707e-02 3.019325e-02 -3.836778e-02 1.327351e-02 -3.651502e-03 1.878435e-02 -2.262957e-02 1.398950e-03 -2.621772e-02 -2.777619e-02 -5.208496e-02 -9.144703e-02
<VARIANCE> 39
 4.239156e+00 3.431663e+00 5.845261e+00 8.640281e+00 9.396931e+00 1.269469e+01 1.401208e+01 1.505590e+01 1.484759e+01 1.561576e+01 1.426091e+01 1.281083e+01 2.564863e+01 1.530500e-01 1.302651e-01 2.167710e-01 3.269364e-01 4.487205e-01 5.183718e-01 5.864310e-01 6.550932e-01 7.359838e-01 7.485817e-01 6.360263e-01 6.163709e-01 2.717003e-02 5.394120e-02 3.757700e-02 6.146236e-02 7.420069e-02 9.166210e-02 1.070962e-01 1.251412e-01 1.426351e-01 1.463933e-01 1.468998e-01 1.290477e-01 1.279786e-01 1.989027e-02
<GCONST> 5.609156e+01
<STATE> 4
<NUMMIXES> 4
<MIXTURE> 1 2.506442e-01
<MEAN> 39
 -6.152623e-01 -1.729200e-01 -3.715669e-01 8.535439e-01 3.482874e-01 1.200214e+00 7.004387e-01 1.199574e+00 3.739206e-01 7.997131e-01 2.018128e-01 6.983002e-01 4.659461e+00 1.914109e-01 6.545555e-02 9.646067e-02 1.410711e-01 2.030773e-01 3.006993e-01 3.022301e-01 2.906917e-01 2.670250e-01 2.755839e-01 1.962204e-01 1.611020e-01 2.186953e-02 4.096843e-02 5.410653e-02 9.996167e-02 4.549310e-02 9.472243e-02 3.457156e-02 5.406092e-02 1.111351e-03 4.662902e-02 2.231244e-02 3.918874e-02 -1.054968e-02 -1.158250e-01
<VARIANCE> 39
 4.996512e+00 4.278576e+00 6.305129e+00 1.264298e+01 1.195993e+01 1.618071e+01 1.596181e+01 1.902219e+01 1.746980e+01 1.845003e+01 1.533687e+01 1.484848e+01 3.525337e+01 5.011961e-01 2.699684e-01 4.291624e-01 5.327415e-01 5.364334e-01 6.800302e-01 7.099110e-01 8.166173e-01 8.227519e-01 8.864886e-01 7.381424e-01 7.095860e-01 5.419637e-01 6.388614e-02 4.803901e-02 7.447982e-02 9.745966e-02 9.932114e-02 1.324967e-01 1.311997e-01 1.522498e-01 1.481063e-01 1.581139e-01 1.314121e-01 1.270821e-01 8.188383e-02
<GCONST> 6.895631e+01
<MIXTURE> 2 2.247480e-01
<MEAN> 39
 2.504750e+00 3.688506e-01 2.273373e+00 -2.738108e-01 1.264500e+00 3.765317e-01 3.348521e-01 -2.258206e+00 -1.832989e-01 -7.973556e-01 -4.766308e-01 -1.378062e+00 -2.249324e-01 1.487668e-01 6.867342e-02 2.046542e-01 -8.495284e-02 3.786194e-02 -9.004965e-02 5.084860e-02 -1.091468e-01 1.373042e-01 1.714545e-02 1.045043e-01 -6.490782e-02 -8.092955e-01 -1.691497e-01 -6.279783e-02 -1.182808e-01 2.828392e-02 -2.983446e-02 5.289885e-02 4.718810e-02 1.420621e-01 6.819776e-02 1.083417e-01 6.646100e-02 1.090417e-01 1.276444e-01
<VARIANCE> 39
 2.239606e+01 1.789438e+01 2.133467e+01 2.785875e+01 2.176168e+01 2.768823e+01 2.465649e+01 3.345854e+01 3.044090e+01 2.880988e+01 2.157828e+01 1.966692e+01 6.872304e+01 1.394157e+00 9.398214e-01 1.365610e+00 1.286909e+00 9.947736e-01 1.222123e+00 1.044595e+00 1.507148e+00 1.383538e+00 1.288067e+00 1.005443e+00 9.498949e-01 2.824067e+00 2.366556e-01 1.550434e-01 2.074440e-01 2.155962e-01 1.799227e-01 2.234035e-01 1.960507e-01 2.321174e-01 2.421487e-01 2.429851e-01 1.846700e-01 1.684776e-01 3.462504e-01
<GCONST> 9.720501e+01
<MIXTURE> 3 3.378020e-01
<MEAN> 39
 -5.919755e-01 -5.245652e-01 -7.166736e-01 -1.618095e-01 -2.702216e-01 2.527538e-01 -8.451998e-02 1.385649e-01 -1.353432e-01 6.151855e-03 -2.891025e-01 8.836639e-02 2.920526e+00 1.157605e-01 -4.863047e-02 -6.019006e-02 -1.265876e-01 -3.505712e-02 -1.219673e-02 2.766315e-02 -9.622164e-03 -1.809407e-02 -4.685616e-02 -5.696213e-02 -1.046659e-01 -1.448211e-01 2.611875e-02 2.001457e-02 7.113064e-02 -5.183779e-03 4.083351e-02 -1.887712e-02 4.097827e-03 -5.666142e-02 -4.763834e-03 -3.642587e-02 -1.729909e-02 -5.839234e-02 -1.172845e-01
<VARIANCE> 39
 5.311057e+00 4.744423e+00 6.391992e+00 1.348085e+01 1.216332e+01 1.640565e+01 1.595323e+01 1.876798e+01 1.800697e+01 1.868750e+01 1.552369e+01 1.483208e+01 3.924197e+01 4.543476e-01 2.589022e-01 4.184018e-01 5.198623e-01 5.458434e-01 6.636345e-01 6.986426e-01 8.330269e-01 8.429148e-01 8.799986e-01 7.187693e-01 6.578573e-01 4.403692e-01 5.822376e-02 4.498289e-02 6.791309e-02 1.057354e-01 1.036127e-01 1.368026e-01 1.355519e-01 1.516439e-01 1.486967e-01 1.595470e-01 1.319360e-01 1.258672e-01 7.778624e-02
<GCONST> 6.878014e+01
<MIXTURE> 4 1.868058e-01
<MEAN> 39
