~o
<STREAMINFO> 1 39
<VECSIZE> 39<NULLD><MFCC_D_A_Z_0><DIAGC>
~v "varFloor1"
<VARIANCE> 39
 5.653673e-02 4.886588e-02 6.880558e-02 1.097444e-01 1.173968e-01 1.501360e-01 1.524483e-01 1.769248e-01 1.673871e-01 1.699316e-01 1.501835e-01 1.395998e-01 3.516366e-01 1.948883e-03 2.195148e-03 3.084339e-03 4.548327e-03 5.169705e-03 6.475277e-03 6.752422e-03 7.581503e-03 7.468139e-03 7.484302e-03 6.703977e-03 6.097627e-03 6.117719e-03 3.081363e-04 3.835776e-04 5.522510e-04 7.938185e-04 9.348416e-04 1.158605e-03 1.234846e-03 1.362727e-03 1.366371e-03 1.361924e-03 1.233620e-03 1.112660e-03 7.270522e-04
~s "silst"
<MEAN> 39
 3.388484e-01 -1.259922e-01 -3.537152e-01 -8.847198e-01 -5.292206e-01 -5.392779e-01 -2.786207e-01 -2.345276e-02 -7.458349e-02 8.509141e-02 -1.957429e-02 -4.455058e-02 1.126643e-01 3.019770e-02 -2.637896e-02 -4.484234e-02 -1.279060e-01 -8.820678e-02 -1.053728e-01 -4.019508e-02 -3.351659e-02 -2.765113e-02 -3.037029e-02 -6.206915e-03 -2.553635e-02 -3.096681e-02 -3.407952e-03 -5.888887e-03 8.812129e-03 2.101321e-02 2.935032e-02 2.530267e-02 2.134131e-02 2.502501e-03 -2.304853e-03 -1.121563e-02 -2.732398e-04 -3.820164e-03 -1.854385e-03
<VARIANCE> 39
 2.818683e+00 3.246022e+00 5.171461e+00 1.297929e+01 1.111731e+01 1.483941e+01 1.520211e+01 1.679387e+01 1.688673e+01 1.702198e+01 1.591521e+01 1.370704e+01 6.966985e+00 8.519544e-02 1.316550e-01 2.353209e-01 4.936812e-01 5.256938e-01 6.690494e-01 7.083588e-01 7.973550e-01 8.241282e-01 8.226467e-01 7.851437e-01 6.408083e-01 2.848281e-02 1.448144e-02 2.330536e-02 4.261478e-02 8.846226e-02 9.755511e-02 1.238452e-01 1.343141e-01 1.485609e-01 1.536762e-01 1.554285e-01 1.478174e-01 1.198035e-01 4.778351e-03
<GCONST> 5.382289e+01
~h "f"
<BEGINHMM>
<NUMSTATES> 5
<STATE> 2
<MEAN> 39
 3.343125e-01 -3.875921e-01 -2.499779e-01 -2.113676e+00 -1.474236e+00 -2.389444e+00 -7.148682e-01 -1.269175e+00 -4.398434e-01 -1.151607e+00 -2.508386e-01 -8.635172e-01 -5.293331e+00 -6.932266e-02 -6.481086e-02 6.769725e-03 -6.885426e-02 1.526155e-02 -8.567953e-02 4.147096e-02 -1.614459e-03 1.707525e-02 -1.017519e-02 5.299193e-02 3.304725e-03 4.360665e-02 -1.015647e-02 1.971658e-03 3.275314e-02 9.989666e-02 9.443425e-02 1.207511e-01 7.160714e-02 7.237449e-02 5.499507e-02 5.722930e-02 2.623439e-02 3.969996e-02 8.186290e-02
<VARIANCE> 39
 6.256235e+00 6.690100e+00 7.383647e+00 1.329989e+01 1.127830e+01 1.652173e+01 1.535031e+01 1.790269e+01 1.688378e+01 1.670150e+01 1.463090e+01 1.431188e+01 7.784882e+01 2.667846e-01 2.997405e-01 3.516634e-01 5.699246e-01 5.273876e-01 7.049975e-01 6.804336e-01 8.171535e-01 7.551229e-01 7.235693e-01 6.834554e-01 6.302731e-01 5.624360e-01 4.599936e-02 5.692171e-02 6.936523e-02 1.122881e-01 1.019128e-01 1.388422e-01 1.351485e-01 1.582957e-01 1.496699e-01 1.359020e-01 1.269482e-01 1.206882e-01 1.038461e-01
<GCONST> 6.920949e+01
<STATE> 3
<MEAN> 39
 -6.626292e-01 -8.257378e-01 4.217276e-01 -1.043232e+00 -5.109466e-01 -1.746447e+00 1.581548e-01 -7.287669e-01 7.448572e-02 -7.423033e-01 3.316150e-01 -5.612687e-01 -1.082944e+00 -8.755191e-02 4.790526e-02 -6.126830e-02 2.556367e-01 1.296276e-01 2.993453e-01 5.340700e-02 2.208881e-01 3.555214e-02 1.821195e-01 1.568342e-02 1.495486e-01 7.774540e-01 -3.275284e-02 7.326119e-03 -1.481147e-02 2.682225e-02 1.826351e-02 5.013817e-02 1.657794e-02 3.737872e-02 1.972518e-02 2.564278e-02 8.930222e-03 2.097826e-02 2.025901e-02
<VARIANCE> 39
 1.326544e+01 1.215552e+01 1.152734e+01 1.841715e+01 1.556330e+01 2.353278e+01 1.840401e+01 2.229287e+01 1.915737e+01 2.010629e+01 1.680156e+01 1.577433e+01 7.260604e+01 7.769680e-01 6.201547e-01 6.111854e-01 9.938050e-01 7.293615e-01 1.227470e+00 8.393513e-01 1.091656e+00 8.965932e-01 9.767823e-01 7.797710e-01 7.649055e-01 3.464175e+00 1.300756e-01 1.034740e-01 1.052853e-01 1.600631e-01 1.319903e-01 1.962937e-01 1.563423e-01 1.865182e-01 1.655192e-01 1.709790e-01 1.443824e-01 1.369798e-01 3.950097e-01
<GCONST> 8.502683e+01
<STATE> 4
<MEAN> 39
 -7.453019e-01 -7.220218e-02 -4.159276e-01 5.684850e-01 1.944980e-01 6.115233e-01 1.909932e-01 8.552347e-01 1.231755e-01 5.306023e-01 1.549703e-01 5.970411e-01 2.751603e+00 -2.078042e-01 -3.609003e-02 2.388966e-03 2.589924e-01 2.753157e-01 3.624618e-01 2.537200e-01 2.757446e-01 2.277643e-01 1.935553e-01 1.390211e-01 1.523372e-01 1.012757e-01 3.972100e-02 -1.066510e-02 3.837994e-02 -2.839663e-02 9.124062e-03 -4.484596e-02 1.784787e-02 -3.460035e-02 1.210663e-02 -2.827106e-02 -8.148723e-04 -4.038600e-02 -1.118585e-01
<VARIANCE> 39
 2.831361e+00 2.773534e+00 4.853189e+00 8.684254e+00 9.149186e+00 1.207421e+01 1.354557e+01 1.513291e+01 1.492182e+01 1.527332e+01 1.429217e+01 1.286924e+01 2.250781e+01 1.182261e-01 1.488415e-01 2.480344e-01 4.370957e-01 4.686570e-01 5.733802e-01 6.028906e-01 6.797321e-01 7.411946e-01 6.986183e-01 6.270448e-01 5.822800e-01 4.928698e-02 2.537557e-02 2.898406e-02 4.724675e-02 8.258570e-02 8.182879e-02 1.131000e-01 1.093187e-01 1.248599e-01 1.314518e-01 1.337141e-01 1.177888e-01 1.081035e-01 3.635723e-02
<GCONST> 5.466351e+01
<TRANSP> 5
 0.000000e+00 1.000000e+00 0.000000e+00 0.000000e+00 0.000000e+00
 0.000000e+00 4.575234e-01 5.424765e-01 0.000000e+00 0.000000e+00
 0.000000e+00 0.000000e+00 7.597180e-01 2.402820e-01 0.000000e+00
 0.000000e+00 0.000000e+00 0.000000e+00 1.655451e-01 8.344549e-01
 0.000000e+00 0.000000e+00 0.000000e+00 0.000000e+00 0.000000e+00
<ENDHMM>
~h "k"
<BEGINHMM>
<NUMSTATES> 5
<STATE> 2
<MEAN> 39
 8.538501e-01 1.100712e+00 1.411272e+00 -5.494859e-01 -1.319977e+00 -5.859818e-01 -3.631671e-01 1.698297e-01 4.138915e-01 4.697481e-01 3.609021e-01 1.084189e-01 -1.948698e+00 -1.033765e-01 -8.911515e-02 6.810150e-02 -2.761469e-01 -2.388136e-01 -7.523628e-02 -1.344995e-02 -2.136947e-01 5.578734e-02 -9.798305e-02 -4.411606e-02 -1.476773e-01 -3.573578e-01 -1.140577e-01 -6.284916e-02 -7.897235e-02 -2.001323e-02 1.883426e-02 3.295226e-02 1.556251e-02 -7.647967e-03 1.538884e-02 -1.722388e-02 -1.563217e-02 3.403674e-03 1.462290e-01
<VARIANCE> 39
 2.196242e+01 1.919788e+01 2.072764e+01 2.429323e+01 2.599335e+01 2.804921e+01 2.637290e+01 2.552521e+01 2.581396e+01 2.586374e+01 2.187374e+01 1.834717e+01 1.059834e+02 1.782106e+00 1.265247e+00 1.235637e+00 1.445656e+00 1.343163e+00 1.723307e+00 1.442855e+00 1.319331e+00 1.372330e+00 1.364421e+00 1.103467e+00 9.219750e-01 9.106797e+00 2.432240e-01 2.125674e-01 2.170886e-01 2.457065e-01 2.449270e-01 3.015953e-01 2.603154e-01 2.416881e-01 2.433544e-01 2.523349e-01 1.989215e-01 1.646632e-01 1.325786e+00
<GCONST> 1.027467e+02
<STATE> 3
<MEAN> 39
 -2.121286e+00 -7.619542e-01 1.517825e-01 -2.271349e+00 -1.621051e+00 5.249044e-01 5.135552e-01 -1.400651e+00 1.046474e+00 -6.773049e-02 -4.759087e-01 -1.318274e+00 8.340260e-01 5.237550e-02 -3.347295e-02 -1.804305e-01 -2.545188e-01 3.784381e-02 -2.989951e-01 -2.903346e-01 -2.863342e-01 -1.459422e-01 -3.428253e-01 -1.622073e-01 -1.894132e-01 -2.770784e-01 9.694843e-02 1.848222e-02 -1.473440e-02 1.352275e-01 6.015350e-02 -3.701667e-02 2.516483e-03 9.190471e-02 -3.676768e-02 3.872997e-02 5.105149e-02 8.081722e-02 -1.016790e-01
<VARIANCE> 39
 1.386435e+01 7.751649e+00 9.860298e+00 2.114159e+01 1.952299e+01 1.879098e+01 2.114948e+01 2.076484e+01 2.508629e+01 2.524186e+01 1.831613e+01 1.815237e+01 1.607072e+01 5.851378e-01 3.860054e-01 5.747017e-01 9.864981e-01 9.412746e-01 9.288917e-01 9.579421e-01 1.038385e+00 1.081442e+00 1.138388e+00 7.540928e-01 7.664230e-01 7.531435e-01 9.197809e-02 7.225312e-02 9.303205e-02 1.685959e-01 1.589697e-01 1.687933e-01 1.810551e-01 1.867070e-01 1.959370e-01 1.924925e-01 1.412892e-01 1.461931e-01 1.831145e-01
<GCONST> 8.087047e+01
<STATE> 4
<MEAN> 39
 -4.233547e-01 -1.238052e+00 -3.050554e-01 -2.107058e+00 -7.665100e-01 -6.635289e-01 -5.213209e-01 -2.038610e+00 1.780728e-01 -1.014958e+00 -6.570478e-01 -1.633466e+00 -1.005528e+00 2.517048e-01 1.850501e-02 -3.341362e-02 4.870024e-02 4.225205e-02 -1.419985e-01 -1.272463e-01 -8.844006e-02 -1.790204e-01 -7.393775e-02 -2.325470e-02 1.638060e-02 -2.991538e-01 -1.174239e-02 1.674001e-02 1.676259e-02 5.315950e-02 8.659398e-03 5.758549e-02 7.242130e-02 8.170106e-02 3.844931e-02 6.454583e-02 4.810083e-02 5.616531e-02 8.870037e-04
<VARIANCE> 39
 1.532777e+01 1.055943e+01 1.170709e+01 1.893430e+01 1.889640e+01 2.005159e+01 2.034781e+01 2.415821e+01 2.593022e+01 2.440298e+01 1.939032e+01 1.654052e+01 1.834818e+01 3.934414e-01 4.054300e-01 5.083081e-01 7.419020e-01 7.738600e-01 8.674636e-01 8.338850e-01 9.847090e-01 9.188835e-01 9.374108e-01 8.471884e-01 6.947619e-01 5.128934e-01 5.897601e-02 6.630825e-02 7.946108e-02 1.321205e-01 1.383405e-01 1.444865e-01 1.459635e-01 1.775506e-01 1.615951e-01 1.652123e-01 1.446492e-01 1.250600e-01 6.214185e-02
<GCONST> 7.659674e+01
<TRANSP> 5
 0.000000e+00 1.000000e+00 0.000000e+00 0.000000e+00 0.000000e+00
 0.000000e+00 7.629687e-01 2.370313e-01 0.000000e+00 0.000000e+00
 0.000000e+00 0.000000e+00 4.440351e-01 5.559649e-01 0.000000e+00
 0.000000e+00 0.000000e+00 0.000000e+00 5.337304e-01 4.662695e-01
 0.000000e+00 0.000000e+00 0.000000e+00 0.000000e+00 0.000000e+00
<ENDHMM>
~h "n"
<BEGINHMM>
<NUMSTATES> 5
<STATE> 2
<MEAN> 39
 -2.038621e-01 -4.511673e-02 3.501886e-02 8.309309e-01 3.662663e-01 6.802517e-01 2.357519e-01 4.330683e-01 -3.106810e-01 -6.796944e-02 -2.373025e-01 1.674067e-01 2.206191e+00 2.027572e-01 1.151181e-01 9.970582e-02 -5.468922e-02 -7.417966e-02 -1.902325e-01 -2.179636e-01 -2.728893e-01 -2.615633e-01 -1.962869e-01 -1.327195e-01 -1.246515e-01 -2.692883e-02 3.501951e-02 1.231416e-02 -7.054999e-03 -5.939661e-02 -2.129616e-02 -3.605430e-02 -7.799815e-03 -6.227686e-03 2.968806e-02 2.854709e-02 2.726496e-02 8.713488e-03 -5.432981e-02
<VARIANCE> 39
 2.720353e+00 3.183156e+00 4.887264e+00 8.461012e+00 9.600794e+00 1.263215e+01 1.334508e+01 1.500289e+01 1.495436e+01 1.535327e+01 1.451215e+01 1.302911e+01 2.614310e+01 1.515618e-01 1.555573e-01 2.445454e-01 3.999064e-01 4.932263e-01 6.171510e-01 6.831264e-01 7.031037e-01 7.269054e-01 7.269459e-01 6.692868e-01 6.147374e-01 3.804339e-02 3.352934e-02 3.890787e-02 5.811520e-02 8.422933e-02 9.993604e-02 1.221112e-01 1.320427e-01 1.476732e-01 1.458873e-01 1.476232e-01 1.334691e-01 1.186322e-01 2.490994e-02
<GCONST> 5.682642e+01
<STATE> 3
<MEAN> 39
 2.141132e+00 8.750561e-01 1.749202e+00 -1.115516e-01 7.939867e-01 -3.314952e-01 -6.068318e-01 -1.565777e+00 -8.503372e-01 -7.718862e-01 -5.854070e-01 -7.566677e-01 -9.423974e-01 9.034643e-02 5.561376e-02 9.492531e-02 -1.590170e-01 -5.495705e-02 -1.859658e-01 -1.304780e-01 -2.132398e-01 -2.973435e-02 -6.745648e-02 -1.674993e-02 -1.014827e-01 -4.062441e-01 -6.870824e-02 -4.004079e-02 -5.248332e-02 -1.150941e-02 -2.334867e-02 1.397621e-02 3.180966e-02 6.134551e-02 5.332455e-02 4.610337e-02 3.379053e-02 2.885416e-02 1.667936e-02
<VARIANCE> 39
 1.900683e+01 1.410189e+01 2.262977e+01 2.039257e+01 2.210130e+01 2.621270e+01 2.602090e+01 3.187477e+01 2.576635e+01 2.531854e+01 2.137403e+01 1.975822e+01 8.135208e+01 1.075913e+00 8.402838e-01 1.225751e+00 1.046202e+00 1.116142e+00 1.354680e+00 1.261366e+00 1.531764e+00 1.250622e+00 1.257642e+00 1.018072e+00 9.693413e-01 3.748663e+00 1.509342e-01 1.375966e-01 1.975306e-01 1.690829e-01 1.879076e-01 2.255223e-01 2.175815e-01 2.455365e-01 2.202863e-01 2.191630e-01 1.854151e-01 1.720601e-01 4.158627e-01
<GCONST> 9.567402e+01
<STATE> 4
<MEAN> 39
 2.233695e-01 1.144689e-01 1.416776e-01 -4.013253e-01 -4.062442e-01 -6.496145e-01 -7.071426e-01 -7.598435e-01 -6.346358e-01 -3.143631e-01 -2.549160e-01 -2.732088e-01 6.671914e-01 -7.129404e-02 -5.829987e-02 -1.200920e-01 -1.158252e-01 -1.172145e-01 -7.850517e-02 -3.926794e-03 6.189416e-02 8.302762e-02 9.120096e-02 8.760256e-02 5.869748e-02 -2.593073e-02 -3.224696e-03 -1.659646e-02 -7.547433e-03 4.404933e-02 6.678800e-02 9.291990e-02 1.014304e-01 1.029285e-01 8.778496e-02 6.380772e-02 4.417624e-02 4.431194e-02 -2.540764e-03
<VARIANCE> 39
 5.698871e+00 4.232038e+00 6.898855e+00 1.172286e+01 1.147655e+01 1.542224e+01 1.485690e+01 1.789883e+01 1.627596e+01 1.670353e+01 1.467649e+01 1.437424e+01 2.797749e+01 1.535912e-01 1.872668e-01 2.847956e-01 4.833058e-01 5.143344e-01 6.432551e-01 6.818559e-01 7.320882e-01 7.577177e-01 7.460428e-01 6.590102e-01 5.876359e-01 8.341778e-02 3.509450e-02 4.063056e-02 5.967623e-02 8.841998e-02 1.005504e-01 1.272109e-01 1.345528e-01 1.422928e-01 1.476131e-01 1.476648e-01 1.287222e-01 1.182133e-01 2.379822e-02
<GCONST> 6.110357e+01
<TRANSP> 5
 0.000000e+00 1.000000e+00 0.000000e+00 0.000000e+00 0.000000e+00
 0.000000e+00 1.178089e-01 8.821910e-01 0.000000e+00 0.000000e+00
 0.000000e+00 0.000000e+00 6.843847e-01 3.156153e-01 0.000000e+00
 0.000000e+00 0.000000e+00 0.000000e+00 2.089478e-01 7.910522e-01
 0.000000e+00 0.000000e+00 0.000000e+00 0.000000e+00 0.000000e+00
<ENDHMM>
~h "r"
<BEGINHMM>
<NUMSTATES> 5
<STATE> 2
<MEAN> 39
 -2.175116e+00 -4.720956e-01 -6.559997e-01 1.515104e+00 5.184510e-01 1.700522e+00 7.371825e-01 1.832232e+00 4.452639e-01 1.241915e+00 3.694477e-01 1.157520e+00 7.148071e+00 6.586134e-03 -7.959681e-03 3.435842e-03 1.201375e-02 4.959055e-03 2.073035e-02 1.209033e-02 -8.254277e-03 -8.507278e-03 -1.162781e-02 -9.801228e-03 4.372973e-03 1.289683e-03 2.402306e-02 8.556587e-03 2.046564e-03 -1.421346e-02 -1.331638e-02 -2.760163e-02 -2.915007e-02 -3.240638e-02 -2.686748e-02 -2.174653e-02 -2.184536e-02 -1.886815e-02 -1.628065e-03
<VARIANCE> 39
 3.040689e+00 3.313376e+00 5.314002e+00 8.597705e+00 1.002296e+01 1.263359e+01 1.417254e+01 1.543629e+01 1.599094e+01 1.576762e+01 1.436810e+01 1.304516e+01 2.744922e+01 6.027822e-02 1.233026e-01 2.152713e-01 3.181375e-01 4.286120e-01 5.060279e-01 6.101393e-01 6.519193e-01 6.741464e-01 6.555731e-01 6.098897e-01 5.412160e-01 1.061327e-02 1.151745e-02 2.324959e-02 4.020315e-02 5.959229e-02 8.062886e-02 9.637752e-02 1.163253e-01 1.231328e-01 1.294264e-01 1.252246e-01 1.171178e-01 1.033776e-01 2.253413e-03
<GCONST> 4.761602e+01
<STATE> 3
<MEAN> 39
 -6.922567e-01 -1.254479e-01 -1.031724e-01 7.736074e-01 3.894770e-01 9.190559e-01 5.957788e-01 7.440321e-01 1.780655e-01 5.138573e-01 1.667411e-01 5.310858e-01 2.259564e+00 1.100230e-01 3.111038e-02 6.516949e-03 -6.055424e-02 -9.391049e-02 -1.232779e-01 -1.404396e-01 -1.736550e-01 -1.590620e-01 -1.371297e-01 -1.203688e-01 -8.385284e-02 6.125550e-03 3.976818e-02 1.642476e-02 -2.136390e-03 -4.436299e-02 -4.012846e-02 -6.933847e-02 -6.671654e-02 -4.882322e-02 -3.348051e-02 -3.443817e-02 -2.391206e-02 -3.857742e-02 -1.003808e-02
<VARIANCE> 39
 2.656439e+00 2.735851e+00 4.677227e+00 7.806814e+00 9.299220e+00 1.192868e+01 1.357526e+01 1.478196e+01 1.428738e+01 1.476435e+01 1.375027e+01 1.250007e+01 2.140178e+01 7.922509e-02 1.358975e-01 2.343754e-01 3.428622e-01 4.245375e-01 5.108171e-01 5.863228e-01 6.932991e-01 7.059474e-01 6.776655e-01 6.151577e-01 5.893621e-01 1.348797e-02 1.668571e-02 2.610754e-02 4.714959e-02 6.630798e-02 8.583988e-02 1.016068e-01 1.162886e-01 1.294521e-01 1.280942e-01 1.261992e-01 1.226415e-01 1.069185e-01 3.811982e-03
<GCONST> 4.881829e+01
<STATE> 4
<MEAN> 39
 9.736742e-01 -4.066817e-01 8.040529e-01 7.329327e-01 5.970840e-01 4.893913e-01 1.104868e-01 -7.757367e-01 -5.156434e-01 -2.549489e-01 -2.715009e-01 -3.054342e-01 1.479401e+00 2.341287e-01 3.163406e-02 7.169326e-02 -1.850226e-01 -8.666393e-02 -2.360787e-01 -1.531658e-01 -2.945347e-01 -1.354204e-01 -1.938668e-01 -7.268728e-02 -1.642901e-01 -5.892212e-01 -1.917945e-02 9.000776e-04 -1.631798e-02 -2.186386e-02 -1.486953e-02 -2.133054e-02 -1.035977e-02 1.278810e-02 2.131435e-02 1.028447e-02 1.391697e-02 -1.055068e-03 -2.540393e-02
<VARIANCE> 39
 1.317606e+01 1.479864e+01 1.468645e+01 1.719242e+01 1.941268e+01 2.411526e+01 2.150379e+01 2.816470e+01 2.291271e+01 2.244329e+01 1.849898e+01 1.729454e+01 4.980468e+01 5.003375e-01 7.350268e-01 7.400730e-01 8.385527e-01 9.264545e-01 1.128996e+00 9.737801e-01 1.224197e+00 1.031448e+00 9.791160e-01 8.703247e-01 7.700821e-01 1.022180e+00 7.259066e-02 1.121474e-01 1.213972e-01 1.380424e-01 1.603642e-01 1.902695e-01 1.696388e-01 2.084668e-01 1.806277e-01 1.717988e-01 1.559500e-01 1.367725e-01 9.649935e-02
<GCONST> 8.394034e+01
<TRANSP> 5
 0.000000e+00 1.000000e+00 0.000000e+00 0.000000e+00 0.000000e+00
 0.000000e+00 7.360560e-01 2.639440e-01 0.000000e+00 0.000000e+00
 0.000000e+00 0.000000e+00 1.396586e-01 8.603414e-01 0.000000e+00
 0.000000e+00 0.000000e+00 0.000000e+00 4.870409e-01 5.129590e-01
 0.000000e+00 0.000000e+00 0.000000e+00 0.000000e+00 0.000000e+00
<ENDHMM>
~h "s"
<BEGINHMM>
<NUMSTATES> 5
<STATE> 2
<MEAN> 39
 1.634447e-01 2.910794e-02 -3.909584e-01 -9.092749e-01 -8.219485e-01 -8.757509e-01 -6.215375e-01 -6.340483e-01 -3.986863e-01 -6.043161e-01 -2.906498e-01 -4.276605e-01 -2.024085e+00 -1.630360e-02 -4.576436e-02 -8.884945e-02 -7.418217e-02 -1.597541e-02 -5.694076e-02 3.543115e-02 5.167276e-02 5.588625e-02 8.442025e-03 7.193626e-02 3.982709e-02 -4.948708e-02 -2.255409e-02 -1.340194e-02 2.009778e-02 5.751011e-02 7.523330e-02 9.121354e-02 9.408583e-02 8.244084e-02 8.250584e-02 7.422353e-02 5.838844e-02 4.234459e-02 4.401972e-02
<VARIANCE> 39
 5.273358e+00 4.293671e+00 5.853671e+00 1.109759e+01 1.134517e+01 1.425349e+01 1.425713e+01 1.633195e+01 1.588566e+01 1.603141e+01 1.415155e+01 1.354558e+01 5.024136e+01 1.749044e-01 2.309421e-01 3.100576e-01 5.304102e-01 5.437514e-01 6.734405e-01 6.448779e-01 7.350393e-01 7.280397e-01 7.859931e-01 6.888675e-01 6.325364e-01 2.730815e-01 3.569667e-02 4.222669e-02 5.589394e-02 1.022359e-01 9.978797e-02 1.283769e-01 1.265516e-01 1.433143e-01 1.386272e-01 1.432608e-01 1.205828e-01 1.151960e-01 6.043765e-02
<GCONST> 6.373621e+01
<STATE> 3
<MEAN> 39
 -3.165825e-01 -6.950543e-01 -8.790701e-01 -2.645547e+00 -1.052972e+00 -2.072672e+00 -7.149609e-01 -1.150539e+00 3.482568e-01 -1.543966e+00 2.130284e-01 -1.280869e+00 -3.810952e+00 -1.383785e-01 -2.571973e-02 -7.457837e-02 5.400078e-02 5.247243e-02 8.352333e-02 9.456709e-02 1.056319e-01 1.263421e-01 6.485178e-02 6.914426e-02 5.863996e-02 4.163738e-01 -1.430165e-02 2.297446e-02 2.736756e-02 1.111198e-01 4.442866e-02 9.969930e-02 4.521080e-02 6.231902e-02 8.212588e-03 7.021299e-02 2.845544e-03 5.399879e-02 9.219971e-02
<VARIANCE> 39
 1.210441e+01 1.096210e+01 1.109119e+01 1.866523e+01 1.616360e+01 2.001489e+01 1.788397e+01 2.030873e+01 2.028542e+01 2.225533e+01 1.916574e+01 1.693691e+01 4.981339e+01 5.266064e-01 5.190264e-01 4.966930e-01 8.815880e-01 6.993942e-01 9.141649e-01 8.159169e-01 9.130266e-01 8.432664e-01 9.405606e-01 7.854779e-01 7.291260e-01 1.799929e+00 7.901926e-02 8.393421e-02 8.790536e-02 1.496145e-01 1.284551e-01 1.575498e-01 1.480178e-01 1.661686e-01 1.583018e-01 1.733675e-01 1.481728e-01 1.337420e-01 1.888759e-01
<GCONST> 8.017377e+01
<STATE> 4
<MEAN> 39
 -1.430020e+00 -2.109828e-01 -9.486445e-01 2.665120e-02 -1.812523e-01 4.162762e-01 3.810783e-01 5.362417e-01 6.769146e-01 4.084078e-01 1.811055e-01 4.040453e-01 2.687762e+00 -5.296183e-02 1.654924e-02 1.004238e-01 4.498028e-01 2.186080e-01 3.587156e-01 2.027707e-01 3.237194e-01 -8.508546e-03 2.817362e-01 6.297361e-02 2.631972e-01 5.011425e-01 4.418276e-03 -8.628211e-03 1.894615e-02 -3.267093e-02 3.411666e-03 -3.748523e-02 -2.217094e-02 -4.755982e-02 -1.463271e-02 -4.225624e-02 -8.068815e-03 -4.896023e-02 -8.022556e-02
<VARIANCE> 39
 7.989976e+00 5.664620e+00 8.923615e+00 1.348437e+01 1.308355e+01 1.584881e+01 1.578858e+01 1.804791e+01 1.825701e+01 2.040280e+01 1.681292e+01 1.491663e+01 2.630917e+01 3.280588e-01 2.864424e-01 3.725318e-01 7.319555e-01 5.816669e-01 7.752973e-01 7.057494e-01 8.057116e-01 8.481100e-01 9.849786e-01 7.271529e-01 6.872318e-01 6.803083e-01 5.084005e-02 4.826980e-02 6.760669e-02 1.165167e-01 1.049280e-01 1.322771e-01 1.259694e-01 1.459372e-01 1.491412e-01 1.727631e-01 1.357173e-01 1.230371e-01 7.553082e-02
<GCONST> 7.023568e+01
<TRANSP> 5
 0.000000e+00 1.000000e+00 0.000000e+00 0.000000e+00 0.000000e+00
 0.000000e+00 1.635562e-01 8.364438e-01 0.000000e+00 0.000000e+00
 0.000000e+00 0.000000e+00 5.770108e-01 4.229892e-01 0.000000e+00
 0.000000e+00 0.000000e+00 0.000000e+00 4.586674e-01 5.413326e-01
 0.000000e+00 0.000000e+00 0.000000e+00 0.000000e+00 0.000000e+00
<ENDHMM>
~h "t"
<BEGINHMM>
<NUMSTATES> 5
<STATE> 2
<MEAN> 39
 5.093358e-02 6.351926e-01 -1.450539e-01 -2.638304e-01 -5.769440e-01 -5.107129e-01 -4.639491e-02 2.507152e-01 1.250562e-01 2.944475e-02 1.080018e-01 2.119717e-01 -2.514946e+00 -7.628527e-02 -5.109999e-03 -1.243861e-02 2.536132e-02 5.693150e-02 3.457257e-02 -1.347773e-02 4.420852e-02 3.140552e-02 4.325807e-02 3.386597e-02 1.469399e-02 5.877413e-01 -1.910152e-04 -2.840533e-03 1.543962e-02 -3.523564e-03 2.830628e-02 1.331325e-02 2.569658e-03 -1.323941e-03 5.885200e-03 -5.292887e-03 -3.873684e-03 -1.172156e-02 6.248295e-02
<VARIANCE> 39
 1.309269e+01 1.109142e+01 1.104211e+01 1.558046e+01 1.522615e+01 2.052721e+01 1.754714e+01 2.013869e+01 1.892739e+01 1.908128e+01 1.606497e+01 1.477989e+01 1.676815e+02 8.669725e-01 6.546937e-01 6.540487e-01 8.197287e-01 7.690773e-01 1.043809e+00 8.666117e-01 1.001321e+00 9.422802e-01 9.324625e-01 7.955010e-01 7.523035e-01 7.561422e+00 1.254019e-01 1.145287e-01 1.181667e-01 1.340404e-01 1.380332e-01 1.861334e-01 1.588428e-01 1.792668e-01 1.703583e-01 1.668909e-01 1.453704e-01 1.351172e-01 9.543180e-01
<GCONST> 8.658000e+01
<STATE> 3
<MEAN> 39
 1.248073e+00 1.808186e-02 4.733378e-01 -2.027876e+00 3.065827e-01 -1.165670e+00 -8.838099e-01 -1.070677e+00 2.054665e-01 -7.525523e-01 2.318355e-02 -1.064637e+00 -4.149270e-02 2.900210e-02 -5.171898e-02 6.109347e-02 1.262551e-01 1.109431e-01 1.291630e-01 2.269603e-02 -5.082711e-02 -6.107438e-02 -4.125907e-03 -1.186771e-02 -8.650138e-03 -1.508965e-01 -4.109603e-02 -4.601413e-04 -1.872029e-02 1.072672e-01 -6.577619e-03 7.880665e-02 4.931715e-02 5.213469e-02 -1.635608e-02 3.381253e-02 -5.120381e-03 5.845605e-02 -4.984112e-02
<VARIANCE> 39
 1.702904e+01 9.874356e+00 1.368499e+01 2.725824e+01 2.204846e+01 2.580542e+01 2.364981e+01 2.824896e+01 2.447046e+01 2.605042e+01 2.209652e+01 2.096919e+01 3.587111e+01 5.226582e-01 4.575745e-01 5.742531e-01 1.301876e+00 9.707260e-01 1.199654e+00 1.089004e+00 1.238677e+00 1.070578e+00 1.140659e+00 9.522719e-01 9.628675e-01 1.163036e+00 8.633472e-02 7.880756e-02 1.025359e-01 2.034432e-01 1.682729e-01 2.032958e-01 1.836939e-01 2.095599e-01 1.918121e-01 2.045987e-01 1.758539e-01 1.756326e-01 1.853985e-01
<GCONST> 8.684875e+01
<STATE> 4
<MEAN> 39
 -2.355351e-01 -2.468493e-01 -8.154269e-02 4.632203e-01 4.710354e-01 6.108505e-01 1.082927e-01 2.152128e-01 -7.424351e-02 3.438080e-01 1.544708e-01 2.284532e-01 1.987249e+00 -7.615077e-02 -2.223672e-02 -7.805511e-03 1.871641e-01 8.143304e-02 1.580842e-01 1.078840e-01 9.219489e-02 -1.117414e-02 3.180820e-02 2.746973e-04 5.866682e-02 -1.168031e-02 1.740292e-02 6.730664e-03 2.717497e-03 -3.845440e-02 -2.245017e-02 -3.080096e-02 -7.547128e-03 -9.484578e-03 8.196511e-03 -2.259783e-02 -1.036799e-02 -1.572341e-02 -4.016962e-02
<VARIANCE> 39
 1.054234e+01 5.537670e+00 7.135433e+00 1.305522e+01 1.255947e+01 1.792797e+01 1.752893e+01 2.052463e+01 1.845811e+01 1.831271e+01 1.598510e+01 1.503594e+01 5.414159e+01 2.889678e-01 2.532346e-01 3.354021e-01 6.065542e-01 6.231804e-01 8.346328e-01 8.001391e-01 8.616385e-01 8.432288e-01 8.003326e-01 7.332339e-01 6.705620e-01 3.534046e-01 4.067274e-02 4.090482e-02 5.786221e-02 1.056691e-01 1.077016e-01 1.435663e-01 1.418084e-01 1.576380e-01 1.535684e-01 1.524764e-01 1.330921e-01 1.242389e-01 5.378044e-02
<GCONST> 6.925603e+01
<TRANSP> 5
 0.000000e+00 1.000000e+00 0.000000e+00 0.000000e+00 0.000000e+00
 0.000000e+00 7.084475e-01 2.915526e-01 0.000000e+00 0.000000e+00
 0.000000e+00 0.000000e+00 4.684945e-01 5.315056e-01 0.000000e+00
 0.000000e+00 0.000000e+00 0.000000e+00 4.290806e-01 5.709195e-01
 0.000000e+00 0.000000e+00 0.000000e+00 0.000000e+00 0.000000e+00
<ENDHMM>
~h "v"
<BEGINHMM>
<NUMSTATES> 5
<STATE> 2
<MEAN> 39
 -6.518674e-01 8.707842e-03 -2.520907e-02 7.801387e-01 2.831818e-01 4.277669e-01 -9.940535e-03 4.631633e-01 -4.356443e-02 3.069857e-01 -7.536420e-02 2.846884e-01 2.299192e+00 9.497555e-02 1.501301e-02 -8.467454e-03 -1.046664e-01 -1.271152e-01 -1.232930e-01 -1.274021e-01 -1.634167e-01 -1.406052e-01 -1.324162e-01 -1.069659e-01 -8.146406e-02 1.219726e-02 2.285792e-02 -1.640812e-02 -2.987127e-02 -3.856634e-02 -8.337769e-03 1.819846e-02 3.125047e-02 2.118122e-02 1.743170e-02 1.887588e-03 9.587512e-03 6.808767e-03 -3.884823e-03
<VARIANCE> 39
 2.873329e+00 3.026029e+00 5.204547e+00 8.945962e+00 1.012458e+01 1.303810e+01 1.331554e+01 1.493375e+01 1.533086e+01 1.589826e+01 1.455502e+01 1.330550e+01 1.920024e+01 9.007721e-02 1.353818e-01 2.229770e-01 3.327295e-01 4.448815e-01 5.403581e-01 5.919474e-01 6.429781e-01 6.987736e-01 6.921577e-01 6.393074e-01 5.532344e-01 1.615718e-02 1.767639e-02 2.384561e-02 4.169001e-02 6.065779e-02 8.148138e-02 9.939045e-02 1.107916e-01 1.150386e-01 1.311559e-01 1.298519e-01 1.210382e-01 1.053316e-01 3.559321e-03
<GCONST> 4.927924e+01
<STATE> 3
<MEAN> 39
 -4.491242e-01 2.964061e-02 -1.485849e-01 5.366720e-01 -2.232413e-02 1.835544e-01 -9.340080e-02 1.397363e-01 -2.979529e-01 7.472277e-02 -1.898970e-01 2.193929e-01 2.305143e+00 1.162743e-01 -2.532302e-02 -5.740369e-02 -1.424742e-01 -1.013551e-01 -4.674397e-02 -1.808823e-02 -6.259158e-02 -5.322829e-02 -8.058752e-02 -4.724864e-02 -3.837910e-02 -5.966313e-04 1.099683e-02 -1.277708e-02 -6.712828e-03 8.077544e-03 4.829731e-02 6.085087e-02 6.723517e-02 6.431492e-02 5.701602e-02 4.292100e-02 4.127148e-02 2.649252e-02 -2.132285e-02
<VARIANCE> 39
 2.951762e+00 2.989833e+00 4.897409e+00 8.324308e+00 9.264086e+00 1.269707e+01 1.367317e+01 1.507792e+01 1.508828e+01 1.545324e+01 1.414002e+01 1.275518e+01 1.901986e+01 1.202829e-01 1.366512e-01 2.234810e-01 3.419309e-01 4.491560e-01 5.534056e-01 6.158080e-01 6.674498e-01 7.217385e-01 7.201091e-01 6.385738e-01 5.607270e-01 2.274665e-02 2.588181e-02 2.764034e-02 4.596619e-02 6.429619e-02 8.088104e-02 1.018383e-01 1.118095e-01 1.203495e-01 1.321769e-01 1.320228e-01 1.230981e-01 1.087739e-01 7.605130e-03
<GCONST> 5.141043e+01
<STATE> 4
<MEAN> 39
 2.677957e-01 -2.028244e-01 4.187914e-01 -2.037173e-01 3.506605e-01 4.214284e-01 2.262164e-01 -7.258266e-01 3.105712e-02 -1.447495e-01 -3.434782e-01 -3.878606e-01 2.046412e+00 1.066210e-01 -3.306840e-02 3.754212e-02 -1.093117e-01 -9.482893e-03 -4.051454e-02 6.258085e-03 -9.447846e-02 1.200516e-02 -3.819257e-02 -1.507649e-02 -5.846688e-02 -2.980460e-01 -3.579698e-02 -7.625595e-03 -4.861167e-03 1.623268e-02 1.173306e-02 6.683247e-03 1.133115e-02 2.669740e-02 2.498763e-02 2.138683e-02 2.140976e-02 1.103904e-02 -1.733307e-02
<VARIANCE> 39
 1.203515e+01 9.090463e+00 1.282646e+01 1.886847e+01 1.550260e+01 2.034428e+01 1.879249e+01 2.534081e+01 2.185652e+01 2.165239e+01 1.748984e+01 1.684907e+01 4.587982e+01 6.926807e-01 4.898946e-01 6.754308e-01 9.069212e-01 7.072266e-01 9.284973e-01 8.400818e-01 1.079341e+00 9.744654e-01 1.008214e+00 8.024070e-01 7.744259e-01 1.211440e+00 1.146854e-01 8.307992e-02 1.188601e-01 1.435659e-01 1.235356e-01 1.600531e-01 1.516427e-01 1.771579e-01 1.728148e-01 1.791319e-01 1.499449e-01 1.363532e-01 1.362515e-01
<GCONST> 8.143839e+01
<TRANSP> 5
 0.000000e+00 1.000000e+00 0.000000e+00 0.000000e+00 0.000000e+00
 0.000000e+00 8.470254e-02 9.152974e-01 0.000000e+00 0.000000e+00
 0.000000e+00 0.000000e+00 1.025976e-01 8.974024e-01 0.000000e+00
 0.000000e+00 0.000000e+00 0.000000e+00 6.367747e-01 3.632253e-01
 0.000000e+00 0.000000e+00 0.000000e+00 0.000000e+00 0.000000e+00
<ENDHMM>
~h "w"
<BEGINHMM>
<NUMSTATES> 5
<STATE> 2
<MEAN> 39
 -8.093256e-01 -2.370218e-01 -2.467977e-02 1.320404e+00 1.078485e+00 1.551764e+00 1.013736e+00 1.202219e+00 3.341342e-01 5.061973e-01 1.660013e-01 3.714544e-01 2.642985e+00 -1.556229e-01 -6.677454e-03 6.580654e-02 2.289140e-01 2.581027e-01 2.917457e-01 2.429946e-01 1.861725e-01 1.790245e-01 1.544654e-01 9.099573e-02 8.602180e-02 2.467599e-02 3.908268e-02 7.830113e-04 -2.202110e-02 -9.576208e-02 -1.063048e-01 -1.207297e-01 -1.049204e-01 -7.805271e-02 -1.912338e-02 -1.319831e-02 -1.099175e-02 -9.397603e-03 -3.879949e-02
<VARIANCE> 39
 3.080420e+00 2.660724e+00 4.648269e+00 7.390038e+00 8.933632e+00 1.212075e+01 1.415352e+01 1.526618e+01 1.510943e+01 1.579207e+01 1.389311e+01 1.224764e+01 1.914035e+01 1.155069e-01 1.310392e-01 2.259949e-01 3.330788e-01 4.195463e-01 5.359171e-01 5.932126e-01 6.628028e-01 6.795893e-01 6.444951e-01 6.438377e-01 5.314148e-01 1.841501e-02 2.343178e-02 2.535374e-02 4.495730e-02 6.977782e-02 8.028968e-02 1.046168e-01 1.202757e-01 1.269355e-01 1.334965e-01 1.324612e-01 1.148645e-01 1.025020e-01 8.154443e-03
<GCONST> 5.040459e+01
<STATE> 3
<MEAN> 39
 -5.511991e-01 1.100382e-01 2.554128e-01 1.024978e+00 6.989196e-01 1.016733e+00 5.353299e-01 5.178314e-01 1.766585e-01 2.566079e-01 4.517450e-02 2.426684e-01 1.362716e+00 -5.184558e-02 -1.847100e-02 -2.576911e-02 -2.003726e-02 -5.357651e-02 -4.612895e-02 -4.094404e-02 2.436516e-02 7.197884e-02 7.233012e-02 5.085948e-02 5.189500e-02 -4.993987e-03 1.481509e-02 -1.024083e-02 -3.794280e-02 -6.214238e-02 -7.491605e-02 -7.565323e-02 -6.264866e-02 -3.663465e-02 -2.775068e-02 -2.256686e-02 -4.677929e-03 -2.658494e-03 -4.701478e-03
<VARIANCE> 39
 2.146266e+00 2.482192e+00 4.349576e+00 7.410807e+00 8.710925e+00 1.174259e+01 1.322427e+01 1.429361e+01 1.444435e+01 1.462839e+01 1.363107e+01 1.190389e+01 1.058899e+01 5.337692e-02 1.050630e-01 1.965003e-01 2.690029e-01 3.549398e-01 4.728588e-01 5.687504e-01 5.847404e-01 6.259908e-01 6.180817e-01 5.798241e-01 5.072803e-01 8.762972e-03 1.074017e-02 1.829663e-02 3.371689e-02 4.966830e-02 6.810140e-02 9.066322e-02 1.054198e-01 1.069822e-01 1.157298e-01 1.139863e-01 1.074836e-01 8.926606e-02 1.769540e-03
<GCONST> 4.176424e+01
<STATE> 4
<MEAN> 39
 -2.485101e+00 -5.059060e-01 -8.432910e-01 1.561077e+00 5.957558e-01 1.654078e+00 6.471214e-01 1.839214e+00 4.180987e-01 1.226534e+00 3.678467e-01 1.139146e+00 7.673971e+00 9.242776e-04 -1.301550e-02 -2.677332e-02 -2.922699e-02 -3.309977e-02 -3.025603e-02 -2.783054e-02 -1.366554e-02 -1.520589e-03 -5.488539e-03 4.532099e-03 6.910045e-03 -7.470469e-04 1.404327e-02 -2.940065e-03 1.077643e-03 -2.213109e-03 1.086247e-04 -1.945224e-04 5.320480e-03 -2.804915e-03 -7.285563e-03 -9.181849e-03 -7.948490e-03 -9.413725e-03 7.794899e-04
<VARIANCE> 39
 2.917475e+00 3.152837e+00 5.170701e+00 8.283641e+00 1.036358e+01 1.308404e+01 1.438908e+01 1.591062e+01 1.540053e+01 1.518973e+01 1.443475e+01 1.311137e+01 2.109153e+01 5.378738e-02 1.157240e-01 2.006151e-01 3.125062e-01 4.294024e-01 5.236281e-01 5.861165e-01 6.290628e-01 6.511018e-01 6.296971e-01 6.192199e-01 5.633654e-01 9.332925e-03 9.779588e-03 2.202045e-02 3.751437e-02 5.949891e-02 8.140740e-02 1.000485e-01 1.129517e-01 1.223470e-01 1.229415e-01 1.179757e-01 1.183518e-01 1.078134e-01 1.673143e-03
<GCONST> 4.615792e+01
<TRANSP> 5
 0.000000e+00 1.000000e+00 0.000000e+00 0.000000e+00 0.000000e+00
 0.000000e+00 2.399024e-01 7.600976e-01 0.000000e+00 0.000000e+00
 0.000000e+00 0.000000e+00 5.616959e-01 4.383041e-01 0.000000e+00
 0.000000e+00 0.000000e+00 0.000000e+00 8.151908e-01 1.848092e-01
 0.000000e+00 0.000000e+00 0.000000e+00 0.000000e+00 0.000000e+00
<ENDHMM>
~h "z"
<BEGINHMM>
<NUMSTATES> 5
<STATE> 2
<MEAN> 39
 9.697078e-02 -9.025662e-02 -5.527497e-01 -8.268633e-01 -1.146361e+00 -8.950691e-01 -5.666701e-01 -4.088781e-01 -4.155588e-01 -4.861339e-01 -4.798736e-01 -2.078612e-01 -7.380412e-01 5.360358e-02 5.439882e-02 5.281100e-02 7.828014e-02 9.025706e-02 1.152898e-01 7.364944e-02 1.896247e-02 -2.569511e-02 -1.255453e-02 2.462361e-03 3.171931e-02 1.665004e-02 2.543540e-03 2.723352e-02 5.356432e-02 1.052204e-01 1.277456e-01 1.220670e-01 9.882660e-02 6.498732e-02 4.924515e-02 5.585773e-02 5.340772e-02 3.076426e-02 4.697140e-03
<VARIANCE> 39
 3.118733e+00 3.537657e+00 5.007865e+00 1.012761e+01 1.042730e+01 1.241003e+01 1.429664e+01 1.598939e+01 1.538873e+01 1.557061e+01 1.429004e+01 1.273087e+01 5.251333e+01 1.647505e-01 1.882882e-01 2.688155e-01 3.748963e-01 4.664391e-01 5.416197e-01 6.340547e-01 7.129080e-01 7.373760e-01 7.129728e-01 6.957756e-01 5.759742e-01 5.477933e-02 3.559010e-02 5.300109e-02 5.849308e-02 8.570421e-02 9.420037e-02 1.124728e-01 1.381938e-01 1.598352e-01 1.497170e-01 1.532838e-01 1.453393e-01 1.202595e-01 3.548574e-02
<GCONST> 5.945454e+01
<STATE> 3
<MEAN> 39
 1.033539e+00 1.492565e+00 8.458744e-01 -3.775165e-01 -4.345002e-01 -6.279412e-01 -5.311928e-01 -1.245377e+00 -3.400411e-01 -1.073462e+00 -2.989116e-01 -8.502277e-01 -2.466051e+00 -9.680042e-02 1.929389e-03 8.016617e-03 1.658318e-01 1.386617e-01 1.588139e-01 7.340152e-02 1.147911e-01 1.844495e-02 9.004810e-02 5.234390e-02 7.062202e-02 6.300704e-01 -5.517668e-02 -4.787093e-02 -2.917933e-02 1.013852e-02 1.304276e-02 2.787282e-02 3.204151e-02 5.151993e-02 2.682054e-02 4.107323e-02 1.931089e-02 2.994577e-02 4.097639e-02
<VARIANCE> 39
 1.436577e+01 1.978527e+01 1.670708e+01 2.228428e+01 2.070258e+01 2.256701e+01 2.173335e+01 2.669757e+01 2.273557e+01 2.692621e+01 2.069140e+01 1.930055e+01 9.176053e+01 8.870035e-01 1.251981e+00 1.013125e+00 1.068124e+00 1.014495e+00 1.123801e+00 1.041873e+00 1.414295e+00 1.115728e+00 1.371561e+00 1.024977e+00 1.021027e+00 3.769212e+00 1.330172e-01 1.984847e-01 1.694081e-01 1.783721e-01 1.767241e-01 1.935847e-01 1.831581e-01 2.318435e-01 1.973694e-01 2.322476e-01 1.848053e-01 1.730033e-01 4.449157e-01
<GCONST> 9.417991e+01
<STATE> 4
<MEAN> 39
 -5.085725e-01 -1.548342e-01 -1.833781e-01 8.020697e-01 4.089609e-01 9.637996e-01 6.531113e-01 8.958918e-01 2.754742e-01 5.724507e-01 3.710021e-02 5.346587e-01 2.778699e+00 -2.120621e-01 -9.295741e-02 -6.341921e-03 2.037620e-01 2.534230e-01 3.024869e-01 2.937710e-01 2.997784e-01 1.677644e-01 1.937914e-01 1.602246e-01 1.555807e-01 1.174390e-01 2.872805e-02 4.434604e-02 1.765055e-02 -3.519245e-02 -2.115219e-02 -5.602983e-02 -4.493337e-02 -5.377434e-02 -3.188225e-03 -3.215639e-02 8.221174e-03 -3.984237e-02 -9.419467e-02
<VARIANCE> 39
 2.764304e+00 2.834584e+00 4.865651e+00 7.533526e+00 8.726539e+00 1.123868e+01 1.331765e+01 1.423202e+01 1.499735e+01 1.660489e+01 1.511505e+01 1.251637e+01 1.829418e+01 1.830966e-01 2.153217e-01 2.563365e-01 4.673290e-01 5.153086e-01 6.025267e-01 7.142411e-01 7.720699e-01 7.804022e-01 8.102132e-01 7.661725e-01 6.312218e-01 7.025103e-02 2.843745e-02 4.891695e-02 5.697147e-02 7.903507e-02 9.041990e-02 1.093635e-01 1.283117e-01 1.394395e-01 1.387294e-01 1.612315e-01 1.369121e-01 1.243529e-01 3.873481e-02
<GCONST> 5.812920e+01
<TRANSP> 5
 0.000000e+00 1.000000e+00 0.000000e+00 0.000000e+00 0.000000e+00
 0.000000e+00 9.113476e-02 9.088652e-01 0.000000e+00 0.000000e+00
 0.000000e+00 0.000000e+00 7.512436e-01 2.487564e-01 0.000000e+00
 0.000000e+00 0.000000e+00 0.000000e+00 1.797256e-01 8.202744e-01
 0.000000e+00 0.000000e+00 0.000000e+00 0.000000e+00 0.000000e+00
<ENDHMM>
~h "ah"
<BEGINHMM>
<NUMSTATES> 5
<STATE> 2
<MEAN> 39
 -1.354581e+00 -2.036223e-01 -3.561682e-01 1.356292e+00 4.434922e-01 1.189901e+00 3.497674e-01 1.217999e+00 3.584206e-01 9.068717e-01 2.154477e-01 8.853723e-01 4.426291e+00 -5.321088e-04 -5.071596e-02 -3.141823e-02 4.085190e-03 2.465046e-02 5.822133e-02 8.208312e-02 1.009705e-01 8.057703e-02 5.488596e-02 3.986870e-02 2.532048e-02 -3.288345e-03 2.037378e-02 1.165538e-02 2.078616e-02 1.278635e-02 1.397916e-02 4.083136e-03 -3.214986e-03 -2.442097e-02 -3.406272e-02 -3.074750e-02 -2.058640e-02 -1.779238e-02 -2.474735e-03
<VARIANCE> 39
 2.807113e+00 3.100965e+00 5.120660e+00 8.607607e+00 9.648702e+00 1.255900e+01 1.321078e+01 1.536032e+01 1.582912e+01 1.585153e+01 1.440768e+01 1.317104e+01 2.239825e+01 9.168632e-02 1.225885e-01 2.027587e-01 3.031011e-01 3.946367e-01 5.192913e-01 5.769845e-01 6.622620e-01 7.046574e-01 6.940144e-01 6.434581e-01 5.800717e-01 1.258577e-02 1.599120e-02 2.375650e-02 4.081782e-02 5.995527e-02 7.469338e-02 9.815639e-02 1.087965e-01 1.299548e-01 1.410595e-01 1.354098e-01 1.259994e-01 1.122711e-01 2.449265e-03
<GCONST> 4.842503e+01
<STATE> 3
<MEAN> 39
 -9.052993e-01 -8.014539e-01 -8.338733e-01 3.873939e-01 2.891669e-01 1.134656e+00 1.167523e+00 1.745766e+00 1.192990e+00 1.255896e+00 6.503123e-01 7.791854e-01 2.448208e+00 8.250014e-02 1.668732e-02 7.130586e-02 7.047511e-02 8.213957e-02 6.297400e-02 2.956610e-02 -5.146319e-02 -1.209608e-01 -1.228493e-01 -8.934379e-02 -7.039274e-02 -1.347883e-03 6.857333e-02 7.949213e-02 7.888601e-02 1.254440e-02 -2.059348e-02 -9.051920e-02 -1.284399e-01 -1.642395e-01 -1.546808e-01 -1.143970e-01 -7.788573e-02 -6.346172e-02 2.657399e-04
<VARIANCE> 39
 2.626853e+00 3.195549e+00 5.317818e+00 8.492622e+00 1.006897e+01 1.346128e+01 1.448779e+01 1.631948e+01 1.621614e+01 1.556340e+01 1.418885e+01 1.348443e+01 1.955402e+01 8.617064e-02 1.350879e-01 2.301585e-01 3.337210e-01 4.246489e-01 5.448080e-01 6.283406e-01 6.982511e-01 7.083558e-01 6.718798e-01 6.327794e-01 5.879906e-01 1.392853e-02 1.669654e-02 2.437199e-02 4.281091e-02 6.372593e-02 8.648459e-02 1.071766e-01 1.203748e-01 1.290512e-01 1.359747e-01 1.288198e-01 1.148910e-01 1.140545e-01 3.245131e-03
<GCONST> 4.976889e+01
<STATE> 4
<MEAN> 39
 -7.052963e-01 -5.418043e-01 -3.439617e-01 1.184890e+00 8.313588e-01 1.541082e+00 9.887791e-01 1.405525e+00 3.178701e-01 5.542799e-01 2.157655e-02 5.733945e-01 3.627094e+00 1.936547e-01 1.187941e-01 1.492516e-01 3.280189e-02 -1.096130e-02 -1.213059e-01 -1.772976e-01 -2.665083e-01 -2.935955e-01 -2.466466e-01 -1.666225e-01 -1.299439e-01 -1.865096e-02 5.133370e-02 4.714339e-02 2.396065e-02 -4.424097e-02 -5.393806e-02 -9.799744e-02 -9.589971e-02 -9.942999e-02 -6.580013e-02 -4.339030e-02 -2.320235e-02 -2.260246e-02 -2.026394e-02
<VARIANCE> 39
 3.330565e+00 3.424874e+00 5.385248e+00 8.726914e+00 1.018897e+01 1.346029e+01 1.446855e+01 1.648125e+01 1.675261e+01 1.583429e+01 1.452382e+01 1.345480e+01 2.661280e+01 1.385621e-01 1.573739e-01 2.511030e-01 3.765839e-01 4.932624e-01 5.941057e-01 6.846169e-01 7.808006e-01 7.818923e-01 7.436835e-01 7.108951e-01 6.498314e-01 2.464442e-02 2.573638e-02 2.886706e-02 4.411321e-02 7.029254e-02 8.914914e-02 1.126823e-01 1.250316e-01 1.374486e-01 1.368790e-01 1.294816e-01 1.227348e-01 1.175701e-01 6.756746e-03
<GCONST> 5.452467e+01
<TRANSP> 5
 0.000000e+00 1.000000e+00 0.000000e+00 0.000000e+00 0.000000e+00
 0.000000e+00 6.724225e-01 3.275775e-01 0.000000e+00 0.000000e+00
 0.000000e+00 0.000000e+00 1.790248e-01 8.209752e-01 0.000000e+00
 0.000000e+00 0.000000e+00 0.000000e+00 2.430194e-01 7.569805e-01
 0.000000e+00 0.000000e+00 0.000000e+00 0.000000e+00 0.000000e+00
<ENDHMM>
~h "ao"
<BEGINHMM>
<NUMSTATES> 5
<STATE> 2
<MEAN> 39
 -7.923090e-01 -2.071650e-01 -3.646990e-01 6.119893e-01 4.520552e-01 8.721511e-01 3.718845e-01 1.015066e+00 4.314730e-01 7.239421e-01 3.537205e-01 6.237091e-01 2.437881e+00 -1.060131e-01 -1.486142e-02 6.312263e-02 2.383049e-01 2.946018e-01 3.303344e-01 2.683218e-01 2.436025e-01 2.206560e-01 1.576016e-01 1.036283e-01 1.010318e-01 2.551547e-03 5.992423e-02 1.852862e-02 2.024119e-02 -4.183700e-02 -5.393615e-02 -8.982828e-02 -4.415354e-02 -6.918929e-02 -4.928381e-02 -4.781225e-02 -3.620440e-02 -4.849693e-02 -4.388294e-02
<VARIANCE> 39
 2.847820e+00 2.799664e+00 5.331428e+00 7.930579e+00 9.504803e+00 1.232317e+01 1.336447e+01 1.509922e+01 1.560684e+01 1.556926e+01 1.408127e+01 1.386309e+01 2.257765e+01 7.543341e-02 1.396407e-01 2.445980e-01 3.695138e-01 4.225188e-01 5.242210e-01 5.812163e-01 6.501691e-01 6.792226e-01 6.615776e-01 6.079123e-01 5.777196e-01 1.315354e-02 1.926470e-02 2.458783e-02 4.518163e-02 6.530678e-02 7.624808e-02 9.634675e-02 1.026472e-01 1.155213e-01 1.328418e-01 1.262911e-01 1.153216e-01 1.101405e-01 8.497713e-03
<GCONST> 4.978661e+01
<STATE> 3
<MEAN> 39
 -7.650530e-01 -3.397437e-02 -1.183261e-01 9.770879e-01 7.840956e-01 1.158721e+00 5.632856e-01 9.294842e-01 5.350888e-01 7.149265e-01 2.632492e-01 4.919712e-01 2.356624e+00 -4.812831e-02 1.254477e-02 5.626847e-02 1.222960e-01 1.231712e-01 1.252690e-01 1.454299e-01 9.590857e-02 9.862712e-02 7.266559e-02 3.609458e-02 3.121985e-02 -4.365871e-03 4.804493e-02 1.664873e-02 -9.817874e-03 -8.652474e-02 -1.221507e-01 -1.415762e-01 -1.015303e-01 -1.082720e-01 -1.001873e-01 -6.785921e-02 -5.368008e-02 -5.277271e-02 -8.744622e-03
<VARIANCE> 39
 2.616113e+00 2.951796e+00 5.321459e+00 8.192465e+00 9.979220e+00 1.216763e+01 1.347569e+01 1.542290e+01 1.527942e+01 1.555354e+01 1.412256e+01 1.345675e+01 2.189346e+01 6.120819e-02 1.139527e-01 2.173254e-01 3.014778e-01 3.659833e-01 4.858779e-01 5.741157e-01 5.746880e-01 6.337092e-01 6.329992e-01 5.839529e-01 5.700883e-01 1.187949e-02 1.417618e-02 2.553749e-02 4.497513e-02 6.401543e-02 7.969622e-02 9.524893e-02 1.041645e-01 1.268426e-01 1.330912e-01 1.257908e-01 1.147263e-01 1.129934e-01 2.885044e-03
<GCONST> 4.719840e+01
<STATE> 4
<MEAN> 39
 -1.975791e+00 -4.477372e-02 -6.652960e-01 1.630525e+00 1.068781e+00 1.870981e+00 7.259068e-01 1.803419e+00 4.976889e-01 1.432187e+00 3.448744e-01 1.087447e+00 7.110009e+00 8.147521e-03 1.592638e-03 7.152047e-03 -2.041209e-02 -3.637323e-02 -4.102728e-02 -1.359197e-02 -1.408023e-02 -1.612815e-02 -2.312018e-02 -2.883492e-02 -2.417677e-02 9.514729e-05 1.595195e-02 -3.394392e-03 -9.801070e-03 -3.561497e-02 -5.181993e-02 -4.414111e-02 -4.007357e-02 -3.541216e-02 -3.240567e-02 -2.655345e-02 -1.573966e-02 -1.356248e-02 2.012675e-03
<VARIANCE> 39
 2.960878e+00 3.307902e+00 5.817784e+00 8.663589e+00 1.027112e+01 1.317092e+01 1.435781e+01 1.622287e+01 1.623717e+01 1.656218e+01 1.467717e+01 1.394536e+01 3.401172e+01 6.917571e-02 1.186615e-01 2.253406e-01 3.303294e-01 4.069239e-01 5.011829e-01 5.927818e-01 6.426578e-01 6.704332e-01 6.995549e-01 6.552139e-01 6.206701e-01 1.228946e-02 1.308448e-02 2.369129e-02 4.466965e-02 6.798989e-02 8.122623e-02 1.014410e-01 1.165571e-01 1.292021e-01 1.310108e-01 1.328957e-01 1.236167e-01 1.195971e-01 2.209670e-03
<GCONST> 4.941825e+01
<TRANSP> 5
 0.000000e+00 1.000000e+00 0.000000e+00 0.000000e+00 0.000000e+00
 0.000000e+00 4.520236e-02 9.547977e-01 0.000000e+00 0.000000e+00
 0.000000e+00 0.000000e+00 8.286802e-02 9.171320e-01 0.000000e+00
 0.000000e+00 0.000000e+00 0.000000e+00 6.595768e-01 3.404233e-01
 0.000000e+00 0.000000e+00 0.000000e+00 0.000000e+00 0.000000e+00
<ENDHMM>
~h "ay"
<BEGINHMM>
<NUMSTATES> 5
<STATE> 2
<MEAN> 39
 -8.077856e-01 -2.775950e-01 -3.749891e-01 6.204343e-01 4.101646e-01 8.229010e-01 4.860499e-01 1.134697e+00 5.153386e-01 7.603284e-01 4.160337e-01 6.766967e-01 2.467205e+00 -1.111304e-01 -5.083305e-02 -1.335785e-02 1.371613e-01 1.785357e-01 2.267702e-01 2.419046e-01 2.504441e-01 2.352462e-01 1.912129e-01 1.395173e-01 1.219372e-01 3.507521e-03 5.547795e-02 2.588485e-02 2.539468e-02 -2.367578e-02 -4.092892e-02 -6.611508e-02 -5.415644e-02 -8.572342e-02 -7.263756e-02 -6.641582e-02 -5.912915e-02 -4.862626e-02 -2.893089e-02
<VARIANCE> 39
 2.706022e+00 2.927061e+00 5.018132e+00 8.403850e+00 9.681686e+00 1.230128e+01 1.292876e+01 1.516302e+01 1.500245e+01 1.518661e+01 1.462620e+01 1.319673e+01 1.966262e+01 7.891317e-02 1.328383e-01 2.401436e-01 3.515023e-01 4.409988e-01 5.340036e-01 6.060203e-01 6.630091e-01 7.271647e-01 7.127815e-01 6.313669e-01 5.680503e-01 1.356209e-02 1.662546e-02 2.506201e-02 4.292741e-02 6.935975e-02 8.630011e-02 1.057576e-01 1.107103e-01 1.165682e-01 1.314993e-01 1.291132e-01 1.189037e-01 1.026080e-01 6.954439e-03
<GCONST> 4.974876e+01
<STATE> 3
<MEAN> 39
 -1.079773e+00 1.297025e-01 3.014445e-03 1.326752e+00 6.129163e-01 1.076961e+00 4.145026e-01 8.282545e-01 5.303015e-01 6.424418e-01 3.178717e-01 6.226038e-01 1.546958e+00 -7.542190e-03 9.640643e-04 1.239549e-02 3.253788e-02 3.288560e-02 3.037004e-02 2.630220e-02 1.513878e-02 1.148794e-02 1.383580e-02 -4.386067e-03 1.851351e-03 1.025427e-03 2.151078e-02 9.792283e-03 7.228679e-03 -2.086535e-02 -3.070363e-02 -4.308690e-02 -4.794352e-02 -5.139253e-02 -5.327348e-02 -4.502685e-02 -3.385723e-02 -2.668128e-02 -6.674554e-04
<VARIANCE> 39
 2.126781e+00 2.940549e+00 4.821762e+00 8.888021e+00 9.367798e+00 1.232979e+01 1.353740e+01 1.461508e+01 1.527869e+01 1.525761e+01 1.404527e+01 1.275642e+01 8.535398e+00 5.256273e-02 1.069360e-01 1.910911e-01 2.987399e-01 3.926790e-01 4.914159e-01 5.560864e-01 5.758107e-01 6.074046e-01 6.379634e-01 6.117550e-01 5.334420e-01 9.148278e-03 1.020528e-02 2.081120e-02 3.608125e-02 5.630509e-02 7.527682e-02 9.637839e-02 1.079163e-01 1.117998e-01 1.195962e-01 1.234067e-01 1.166584e-01 1.026118e-01 1.878017e-03
<GCONST> 4.358026e+01
<STATE> 4
<MEAN> 39
 -2.222997e+00 -5.117772e-01 -9.124173e-01 1.706557e+00 6.534980e-01 1.780960e+00 8.100743e-01 2.034124e+00 2.831431e-01 1.397178e+00 4.039712e-01 1.303556e+00 8.295358e+00 3.201053e-02 7.789591e-04 1.329769e-02 -4.524242e-03 -1.224624e-02 -1.533763e-02 -1.896107e-02 -3.000926e-02 -3.598261e-02 -3.377086e-02 -2.651620e-02 -1.906115e-02 2.105731e-03 1.821914e-02 5.181300e-03 2.833199e-03 -1.201705e-02 -1.373609e-02 -1.802118e-02 -1.926567e-02 -2.116256e-02 -1.651029e-02 -1.445248e-02 -8.123784e-03 -9.570187e-03 -9.288369e-04
<VARIANCE> 39
 2.515357e+00 3.240810e+00 5.313276e+00 8.429771e+00 1.043756e+01 1.281534e+01 1.441386e+01 1.587520e+01 1.595840e+01 1.598295e+01 1.451333e+01 1.326189e+01 1.768614e+01 6.514292e-02 1.236784e-01 2.136179e-01 3.257360e-01 4.522119e-01 5.455838e-01 6.225878e-01 6.537502e-01 6.991247e-01 6.902075e-01 6.330211e-01 5.738660e-01 1.189621e-02 1.179440e-02 2.340555e-02 4.017759e-02 6.284076e-02 8.772409e-02 1.046758e-01 1.201690e-01 1.242575e-01 1.328196e-01 1.295048e-01 1.197377e-01 1.080445e-01 2.218286e-03
<GCONST> 4.803027e+01
<TRANSP> 5
 0.000000e+00 1.000000e+00 0.000000e+00 0.000000e+00 0.000000e+00
 0.000000e+00 8.916731e-02 9.108326e-01 0.000000e+00 0.000000e+00
 0.000000e+00 0.000000e+00 7.234342e-01 2.765658e-01 0.000000e+00
 0.000000e+00 0.000000e+00 0.000000e+00 8.391667e-01 1.608334e-01
 0.000000e+00 0.000000e+00 0.000000e+00 0.000000e+00 0.000000e+00
<ENDHMM>
~h "eh"
<BEGINHMM>
<NUMSTATES> 5
<STATE> 2
<MEAN> 39
 -9.176320e-01 -2.579232e-01 -3.290725e-01 5.318853e-01 9.174265e-02 6.394659e-01 5.530007e-01 8.814027e-01 3.298768e-01 6.037465e-01 5.308605e-01 6.142424e-01 1.746119e+00 -1.070820e-01 1.087404e-02 8.602767e-02 2.663746e-01 2.371783e-01 2.387622e-01 1.303737e-01 1.201842e-01 1.060533e-01 1.022054e-01 5.432197e-02 7.489641e-02 7.445609e-02 6.359932e-02 3.947583e-02 1.775417e-02 -7.028352e-02 -3.904443e-02 -8.564954e-02 -8.208741e-02 -1.027034e-01 -4.865292e-02 -7.340182e-02 -6.788494e-02 -7.865772e-02 -5.651411e-02
<VARIANCE> 39
 3.250568e+00 3.152498e+00 5.266688e+00 9.420611e+00 9.519898e+00 1.280857e+01 1.358164e+01 1.496540e+01 1.446406e+01 1.432484e+01 1.344201e+01 1.234942e+01 1.701510e+01 1.207258e-01 1.451306e-01 2.514685e-01 4.032140e-01 4.512959e-01 5.622916e-01 6.531011e-01 6.692623e-01 7.017197e-01 6.535282e-01 6.127300e-01 5.760148e-01 3.711290e-02 2.016664e-02 3.034528e-02 4.762963e-02 8.562284e-02 8.644778e-02 1.076905e-01 1.168616e-01 1.253119e-01 1.363538e-01 1.290009e-01 1.179327e-01 1.046401e-01 1.803884e-02
<GCONST> 5.340746e+01
<STATE> 3
<MEAN> 39
 -1.608654e+00 -3.269807e-01 -4.711671e-01 1.356965e+00 8.944951e-01 1.503600e+00 7.812279e-01 1.409196e+00 5.867808e-01 1.110869e+00 4.136831e-01 9.077771e-01 4.086126e+00 4.626471e-02 3.298362e-02 5.981486e-02 7.395905e-02 7.850119e-02 3.379697e-02 -9.407418e-03 -3.170931e-02 4.393767e-03 6.376123e-03 -4.160267e-02 -3.035782e-02 3.878965e-03 4.364416e-02 1.406138e-02 -2.039455e-03 -5.784015e-02 -6.460422e-02 -7.479493e-02 -5.991112e-02 -5.927778e-02 -4.991924e-02 -5.353929e-02 -3.746665e-02 -4.210478e-02 -1.381401e-02
<VARIANCE> 39
 3.426296e+00 3.183983e+00 5.513839e+00 9.247429e+00 1.037801e+01 1.305582e+01 1.449437e+01 1.593739e+01 1.569055e+01 1.660447e+01 1.472539e+01 1.361717e+01 2.217191e+01 8.468705e-02 1.325758e-01 2.310319e-01 3.399199e-01 4.249010e-01 5.413183e-01 5.935115e-01 6.396303e-01 6.849895e-01 6.608753e-01 6.368440e-01 5.825979e-01 1.854281e-02 1.676931e-02 2.557549e-02 4.390697e-02 6.685348e-02 8.427373e-02 1.048752e-01 1.202493e-01 1.292988e-01 1.300261e-01 1.269845e-01 1.167168e-01 1.101538e-01 4.330405e-03
<GCONST> 5.069125e+01
<STATE> 4
<MEAN> 39
 -7.755464e-02 3.590711e-02 2.785773e-02 1.115679e-01 5.151973e-02 6.240727e-02 1.341494e-02 4.431179e-03 8.090608e-03 5.861595e-04 -5.116400e-03 1.761227e-02 6.227351e-02 1.501978e-03 1.664971e-03 1.524122e-03 -7.652213e-04 -3.015785e-03 -5.019132e-03 -5.833172e-03 -5.356693e-03 -4.775323e-03 -4.400924e-03 -3.753021e-03 -2.836343e-03 6.595189e-04 -2.109712e-04 -1.024540e-03 -1.167046e-03 -1.475158e-03 -1.088641e-03 -5.159756e-04 3.923124e-04 2.778737e-04 1.511997e-04 2.415331e-04 5.806332e-04 4.412346e-04 -2.802731e-04
<VARIANCE> 39
 1.235179e+00 2.616098e+00 4.640616e+00 7.096138e+00 9.445217e+00 1.166206e+01 1.342006e+01 1.460836e+01 1.520001e+01 1.502201e+01 1.403345e+01 1.260680e+01 4.530391e-01 4.861265e-02 1.109280e-01 1.996959e-01 3.004662e-01 4.039708e-01 4.976619e-01 5.790350e-01 6.292560e-01 6.620394e-01 6.502122e-01 6.129622e-01 5.395449e-01 8.207869e-03 8.900764e-03 2.092279e-02 3.775408e-02 5.679623e-02 7.655519e-02 9.382940e-02 1.097465e-01 1.191478e-01 1.261119e-01 1.232008e-01 1.165813e-01 1.019209e-01 1.519735e-03
<GCONST> 3.964443e+01
<TRANSP> 5
 0.000000e+00 1.000000e+00 0.000000e+00 0.000000e+00 0.000000e+00
 0.000000e+00 1.620036e-01 8.379964e-01 0.000000e+00 0.000000e+00
 0.000000e+00 0.000000e+00 4.892472e-01 5.107527e-01 0.000000e+00
 0.000000e+00 0.000000e+00 0.000000e+00 9.842014e-01 1.579858e-02
 0.000000e+00 0.000000e+00 0.000000e+00 0.000000e+00 0.000000e+00
<ENDHMM>
~h "ey"
<BEGINHMM>
<NUMSTATES> 5
<STATE> 2
<MEAN> 39
 -1.509649e+00 -3.600930e-01 -5.188393e-01 1.194052e+00 3.327222e-01 1.002138e+00 4.576948e-01 1.183524e+00 2.195563e-01 9.439852e-01 2.463394e-01 9.405789e-01 4.081468e+00 1.202661e-02 -2.772843e-02 -1.914676e-02 -2.166346e-02 -1.297721e-02 -9.733928e-03 2.478454e-02 2.255506e-02 3.903380e-02 3.496046e-02 2.856654e-02 3.073102e-02 -5.626819e-03 4.636116e-02 1.906798e-02 1.638984e-02 -1.172742e-02 -3.418084e-04 -6.643537e-03 -1.038133e-02 -2.326559e-02 -1.641153e-02 -2.458674e-02 -8.743362e-03 -2.220371e-02 -1.475313e-02
<VARIANCE> 39
 3.770139e+00 3.239844e+00 5.339756e+00 1.044264e+01 1.083850e+01 1.415100e+01 1.382150e+01 1.625021e+01 1.579589e+01 1.586841e+01 1.393267e+01 1.320969e+01 5.020072e+01 9.986666e-02 1.394756e-01 2.431715e-01 3.585789e-01 4.811209e-01 5.796243e-01 5.956483e-01 6.978242e-01 7.075490e-01 6.870767e-01 5.893648e-01 5.627628e-01 2.300753e-02 2.166798e-02 2.672951e-02 4.595986e-02 7.137300e-02 8.987224e-02 1.172199e-01 1.154007e-01 1.349421e-01 1.395953e-01 1.371154e-01 1.147270e-01 1.071031e-01 8.557145e-03
<GCONST> 5.383323e+01
<STATE> 3
<MEAN> 39
 -2.950798e-01 -3.862755e-01 -5.682696e-01 -1.696397e-01 -3.227239e-01 -1.497418e-02 1.545431e-01 4.048771e-01 2.484299e-01 4.408396e-01 2.055592e-01 3.575369e-01 1.557630e-01 1.420691e-01 2.492636e-02 6.305016e-03 -9.543242e-02 -4.328461e-02 -4.015019e-02 -8.780783e-03 -3.352069e-02 1.791308e-02 -1.256576e-02 2.160448e-02 -3.177311e-02 -3.931098e-02 9.138779e-02 7.899079e-02 6.238775e-02 -1.610792e-02 1.157828e-02 -3.421050e-02 -4.866632e-02 -7.033090e-02 -5.377900e-02 -6.226308e-02 -2.804605e-02 -5.676934e-02 -5.926512e-02
<VARIANCE> 39
 3.103454e+00 3.123516e+00 5.129549e+00 1.077767e+01 1.122793e+01 1.424287e+01 1.390743e+01 1.601537e+01 1.503447e+01 1.583609e+01 1.364196e+01 1.266106e+01 4.236335e+01 1.644557e-01 1.704931e-01 2.796839e-01 4.532074e-01 5.275280e-01 6.799722e-01 7.129705e-01 7.692180e-01 7.394093e-01 7.386783e-01 6.738291e-01 5.916469e-01 5.612370e-02 4.906122e-02 4.621750e-02 6.295325e-02 1.128608e-01 1.199119e-01 1.520443e-01 1.426365e-01 1.574617e-01 1.520075e-01 1.460116e-01 1.230181e-01 1.248013e-01 8.522141e-02
<GCONST> 6.185866e+01
<STATE> 4
<MEAN> 39
 1.247077e+00 1.209745e+00 7.806287e-01 -9.747384e-01 -3.194546e-01 -8.319662e-01 -4.033502e-01 -4.321066e-01 -2.406496e-01 -3.818257e-01 -1.713983e-01 -1.890726e-01 -1.599740e+00 1.399896e-01 1.136472e-01 9.984892e-02 -1.504163e-01 -3.537318e-02 -1.192268e-01 -4.062007e-02 -1.194648e-01 -9.146200e-03 -1.072670e-01 -3.324195e-02 -9.865778e-02 -5.198349e-01 -7.233189e-02 -3.930291e-02 -3.077371e-02 2.849983e-02 1.193939e-02 1.883451e-02 8.432822e-03 1.805383e-02 6.946068e-03 1.324015e-02 7.959667e-03 7.296171e-03 4.997245e-02
<VARIANCE> 39
 2.172137e+01 2.097818e+01 2.091078e+01 3.187945e+01 2.399323e+01 3.227309e+01 2.650984e+01 3.149562e+01 2.724514e+01 2.774605e+01 2.221126e+01 2.132662e+01 1.252578e+02 1.487464e+00 1.239794e+00 1.179759e+00 1.697592e+00 1.242384e+00 1.740584e+00 1.331788e+00 1.591084e+00 1.367717e+00 1.376112e+00 1.087991e+00 1.048084e+00 6.913101e+00 2.354340e-01 2.183883e-01 2.125635e-01 2.869555e-01 2.205948e-01 3.053807e-01 2.472774e-01 2.758851e-01 2.419225e-01 2.521594e-01 2.009097e-01 1.936498e-01 9.087729e-01
<GCONST> 1.035389e+02
<TRANSP> 5
 0.000000e+00 1.000000e+00 0.000000e+00 0.000000e+00 0.000000e+00
 0.000000e+00 5.833976e-01 4.166024e-01 0.000000e+00 0.000000e+00
 0.000000e+00 0.000000e+00 7.200859e-02 9.279914e-01 0.000000e+00
 0.000000e+00 0.000000e+00 0.000000e+00 7.340216e-01 2.659783e-01
 0.000000e+00 0.000000e+00 0.000000e+00 0.000000e+00 0.000000e+00
<ENDHMM>
~h "hh"
<BEGINHMM>
<NUMSTATES> 5
<STATE> 2
<MEAN> 39
 3.128549e-02 -2.188984e-01 -6.209534e-01 -1.049238e+00 -1.312676e+00 -1.253884e+00 -9.739848e-01 -6.227586e-01 -4.843552e-01 -3.012093e-01 -1.375518e-01 -1.448340e-01 -5.561861e-01 1.782359e-03 -6.618463e-03 1.203433e-03 6.596521e-02 8.613135e-02 8.864545e-02 6.615783e-02 5.794860e-02 -4.049856e-02 -4.303504e-02 -4.004222e-02 -3.175801e-02 1.320757e-02 -7.502293e-03 8.890366e-03 5.574622e-02 1.406188e-01 1.616424e-01 1.756286e-01 1.545385e-01 1.211030e-01 8.915982e-02 5.888356e-02 3.486926e-02 2.959571e-02 1.067543e-02
<VARIANCE> 39
 3.438782e+00 3.770139e+00 5.164761e+00 9.655233e+00 1.011423e+01 1.323425e+01 1.358971e+01 1.595070e+01 1.540057e+01 1.490411e+01 1.431394e+01 1.311660e+01 4.705673e+01 1.338696e-01 1.554157e-01 2.634906e-01 3.718129e-01 4.492445e-01 6.192577e-01 6.516274e-01 7.028979e-01 7.408144e-01 7.257652e-01 6.599069e-01 5.794212e-01 4.350299e-02 2.703808e-02 3.232100e-02 5.145964e-02 7.269137e-02 8.717546e-02 1.100580e-01 1.166024e-01 1.316739e-01 1.335834e-01 1.389523e-01 1.209905e-01 1.076013e-01 1.477299e-02
<GCONST> 5.597712e+01
<STATE> 3
<MEAN> 39
 9.203290e-01 -6.133752e-01 -8.165892e-01 -1.742989e+00 -1.327286e+00 -2.078005e+00 -7.561743e-01 -1.316236e+00 -5.092467e-01 -1.194797e+00 -2.845830e-01 -1.001293e+00 -7.088974e+00 7.629251e-02 1.039675e-01 5.172297e-02 1.717988e-01 2.190344e-01 1.674315e-01 1.106997e-01 9.733937e-02 1.779664e-02 3.415380e-02 -2.740366e-02 6.432410e-03 6.721092e-02 1.928741e-04 2.632057e-02 4.618657e-02 7.842993e-02 6.530440e-02 8.444418e-02 5.310393e-02 4.699766e-02 3.835499e-02 4.570106e-02 1.573457e-02 2.933509e-02 8.086834e-02
<VARIANCE> 39
 8.690154e+00 9.445346e+00 1.002383e+01 1.652202e+01 1.577907e+01 1.946051e+01 1.909927e+01 2.129481e+01 1.800067e+01 1.832441e+01 1.671765e+01 1.480608e+01 9.008716e+01 3.940345e-01 4.753180e-01 5.168097e-01 7.830166e-01 7.691887e-01 9.254935e-01 9.331837e-01 1.015570e+00 8.655672e-01 8.708344e-01 7.726375e-01 6.514210e-01 6.749353e-01 6.181003e-02 7.592057e-02 8.939358e-02 1.343771e-01 1.387851e-01 1.631821e-01 1.678532e-01 1.783040e-01 1.625966e-01 1.601186e-01 1.488441e-01 1.189782e-01 1.493767e-01
<GCONST> 7.774152e+01
<STATE> 4
<MEAN> 39
 8.576487e-01 4.153690e-01 3.334999e-02 6.159813e-01 5.622491e-01 1.651915e-01 1.881053e-01 4.431343e-01 -1.565540e-01 1.281269e-01 -1.434703e-01 7.307597e-02 6.874059e-01 -3.299599e-01 -8.816925e-02 2.852274e-02 3.212476e-01 1.902206e-01 3.933882e-01 2.082375e-01 3.250981e-01 1.402330e-01 2.133588e-01 1.052211e-01 1.732932e-01 1.131946e+00 -6.104359e-02 -3.517067e-02 -3.621160e-02 -3.505963e-02 -2.691388e-02 -2.307896e-02 -2.220437e-03 3.129593e-03 3.064113e-02 1.265513e-02 2.215626e-02 8.226799e-03 -6.586531e-02
<VARIANCE> 39
 1.676414e+01 1.095324e+01 1.217483e+01 1.491920e+01 1.691797e+01 2.297611e+01 2.024909e+01 2.278667e+01 2.167429e+01 2.265770e+01 1.812979e+01 1.695313e+01 8.535753e+01 1.009902e+00 6.279972e-01 6.804834e-01 8.302724e-01 8.874634e-01 1.125966e+00 9.537556e-01 1.082501e+00 1.024931e+00 1.042003e+00 8.133901e-01 7.673408e-01 5.504307e+00 1.569345e-01 1.159934e-01 1.254544e-01 1.388424e-01 1.568330e-01 1.941154e-01 1.751070e-01 2.022716e-01 1.954661e-01 1.895040e-01 1.541515e-01 1.451472e-01 6.802832e-01
<GCONST> 8.849596e+01
<TRANSP> 5
 0.000000e+00 1.000000e+00 0.000000e+00 0.000000e+00 0.000000e+00
 0.000000e+00 9.855859e-02 9.014414e-01 0.000000e+00 0.000000e+00
 0.000000e+00 0.000000e+00 5.649344e-01 4.350656e-01 0.000000e+00
 0.000000e+00 0.000000e+00 0.000000e+00 5.674842e-01 4.325159e-01
 0.000000e+00 0.000000e+00 0.000000e+00 0.000000e+00 0.000000e+00
<ENDHMM>
~h "ih"
<BEGINHMM>
<NUMSTATES> 5
<STATE> 2
<MEAN> 39
 -1.557735e+00 -1.102105e-01 -4.827821e-01 1.710626e+00 8.967323e-01 1.480628e+00 6.814123e-01 1.375005e+00 2.288004e-01 9.109330e-01 2.774698e-01 1.106899e+00 4.925908e+00 -2.569107e-02 -1.907954e-02 3.082145e-02 8.032520e-02 8.104926e-02 9.407352e-02 8.396552e-02 1.018323e-01 7.536283e-02 1.039481e-01 5.612509e-02 5.153120e-02 5.096701e-02 5.000197e-02 2.082161e-02 1.576583e-02 -6.754197e-02 -4.647776e-02 -6.250156e-02 -5.426904e-02 -6.503955e-02 -2.938011e-02 -5.518442e-02 -3.633469e-02 -6.278410e-02 -4.507681e-02
<VARIANCE> 39
 3.655731e+00 3.590514e+00 5.445257e+00 1.127891e+01 1.032174e+01 1.403677e+01 1.425858e+01 1.582066e+01 1.562266e+01 1.530375e+01 1.427828e+01 1.366100e+01 3.430091e+01 9.901346e-02 1.422850e-01 2.373696e-01 3.859015e-01 4.462666e-01 5.765382e-01 6.222557e-01 6.453004e-01 6.982877e-01 6.986400e-01 6.286594e-01 5.830209e-01 4.735212e-02 1.936609e-02 2.768480e-02 4.445503e-02 7.578626e-02 8.181716e-02 1.058997e-01 1.141547e-01 1.205994e-01 1.343298e-01 1.309580e-01 1.142765e-01 1.121208e-01 1.541846e-02
<GCONST> 5.452699e+01
<STATE> 3
<MEAN> 39
 -8.857846e-01 -2.276474e-01 -3.236445e-01 7.906502e-01 5.996369e-01 1.009198e+00 9.497353e-01 1.222517e+00 7.325760e-01 1.077552e+00 6.198400e-01 7.863462e-01 2.178569e+00 6.375394e-02 3.020195e-02 9.325765e-02 1.648813e-02 2.170699e-02 2.987249e-02 3.588746e-02 -8.679919e-03 6.621221e-03 1.766636e-02 -2.657166e-02 -7.291555e-02 8.251845e-03 1.083243e-01 5.928033e-02 3.317033e-02 -1.212799e-01 -1.111880e-01 -1.530634e-01 -1.569947e-01 -1.652709e-01 -1.143785e-01 -1.429587e-01 -9.683654e-02 -1.143478e-01 -7.883906e-02
<VARIANCE> 39
 3.636783e+00 3.489001e+00 5.710683e+00 9.926443e+00 1.022788e+01 1.342945e+01 1.455590e+01 1.656470e+01 1.629789e+01 1.530996e+01 1.448735e+01 1.322715e+01 2.355542e+01 1.135251e-01 1.559399e-01 2.698160e-01 4.387796e-01 4.951530e-01 6.101136e-01 5.969834e-01 6.607252e-01 7.652501e-01 7.562395e-01 6.791289e-01 5.963044e-01 4.489170e-02 3.391768e-02 3.737144e-02 5.574212e-02 8.963956e-02 9.575889e-02 1.147173e-01 1.239132e-01 1.374000e-01 1.466838e-01 1.388109e-01 1.205075e-01 1.108214e-01 4.202051e-02
<GCONST> 5.781479e+01
<STATE> 4
<MEAN> 39
 -1.511096e+00 -1.796176e-01 -4.275169e-01 1.056281e+00 7.578510e-01 1.218103e+00 7.826368e-01 1.344458e+00 7.191556e-01 8.145874e-01 4.348668e-01 7.742985e-01 5.265189e+00 3.174873e-01 1.358260e-01 1.778166e-01 -6.214764e-02 -5.937514e-02 -8.360926e-02 -1.290299e-01 -1.100900e-01 -1.396530e-01 -6.693841e-02 -9.303511e-02 -1.230121e-01 -6.524369e-03 1.245052e-01 7.418385e-02 6.260934e-02 -1.165835e-01 -9.602805e-02 -1.443571e-01 -1.231901e-01 -1.038408e-01 -5.056731e-02 -7.630912e-02 -2.410278e-02 -6.188123e-02 -2.531306e-01
<VARIANCE> 39
 5.746870e+00 5.635614e+00 7.813833e+00 1.430663e+01 1.233806e+01 1.655383e+01 1.566009e+01 1.847731e+01 1.780356e+01 2.014529e+01 1.625645e+01 1.538872e+01 4.399459e+01 4.050834e-01 3.467134e-01 4.702601e-01 7.856836e-01 6.696155e-01 8.172339e-01 7.690507e-01 9.035217e-01 8.747348e-01 9.641132e-01 7.434921e-01 7.428690e-01 1.036933e+00 8.844152e-02 8.283917e-02 1.033105e-01 1.393893e-01 1.212626e-01 1.539337e-01 1.474373e-01 1.612715e-01 1.649345e-01 1.861636e-01 1.452861e-01 1.360893e-01 2.677268e-01
<GCONST> 7.579240e+01
<TRANSP> 5
 0.000000e+00 1.000000e+00 0.000000e+00 0.000000e+00 0.000000e+00
 0.000000e+00 5.554652e-01 4.445348e-01 0.000000e+00 0.000000e+00
 0.000000e+00 0.000000e+00 2.634713e-02 9.736529e-01 0.000000e+00
 0.000000e+00 0.000000e+00 0.000000e+00 4.586841e-01 5.413159e-01
 0.000000e+00 0.000000e+00 0.000000e+00 0.000000e+00 0.000000e+00
<ENDHMM>
~h "iy"
<BEGINHMM>
<NUMSTATES> 5
<STATE> 2
<MEAN> 39
 -2.665673e-01 8.792317e-02 -5.630144e-02 3.592682e-01 4.884726e-01 3.581756e-01 3.965220e-02 3.024182e-02 -2.059410e-01 1.174178e-01 -6.046785e-02 5.102341e-02 1.552694e+00 -7.327614e-02 -8.401281e-03 -1.481670e-02 3.357017e-02 -1.719659e-04 2.631181e-02 -4.792038e-03 3.575700e-02 4.782063e-02 5.305480e-02 4.023981e-02 3.429023e-02 6.344236e-03 9.901738e-04 1.725977e-03 -8.151437e-03 -2.836831e-02 -4.328211e-02 -4.114034e-02 -2.440256e-02 8.705346e-03 2.234975e-02 1.611243e-02 1.730104e-02 3.014964e-03 -1.317210e-02
<VARIANCE> 39
 4.167149e+00 4.369215e+00 6.043396e+00 1.222412e+01 1.284201e+01 1.651677e+01 1.610192e+01 1.768689e+01 1.663674e+01 1.670964e+01 1.557230e+01 1.445242e+01 2.504625e+01 1.176864e-01 1.813328e-01 2.537292e-01 4.982507e-01 5.457091e-01 6.606994e-01 7.031055e-01 7.280340e-01 7.342043e-01 7.516985e-01 7.035884e-01 6.162273e-01 6.752271e-02 2.213792e-02 3.822201e-02 5.231691e-02 8.961065e-02 1.027875e-01 1.203817e-01 1.352962e-01 1.453322e-01 1.431574e-01 1.429113e-01 1.347264e-01 1.219943e-01 1.381587e-02
<GCONST> 5.938618e+01
<STATE> 3
<MEAN> 39
 -4.129490e-01 -8.643178e-03 -8.257234e-02 5.077598e-01 3.779850e-01 5.778028e-01 2.699215e-01 4.122103e-01 -5.584245e-02 1.819139e-01 9.742254e-02 2.112204e-01 1.592380e+00 -6.426751e-02 -2.647625e-02 -4.541961e-02 -4.220425e-02 -7.840050e-02 -5.811599e-02 -2.912823e-02 5.986869e-02 7.461396e-02 6.613968e-02 6.215639e-02 4.533123e-02 -5.371737e-03 1.304901e-02 -9.863063e-04 -5.187447e-03 -2.463026e-02 -3.645617e-02 -2.347137e-02 -1.293348e-02 -8.890559e-04 8.514092e-03 2.184346e-03 -8.425063e-03 -4.960040e-04 -9.306907e-03
<VARIANCE> 39
 3.618798e+00 3.078758e+00 5.157107e+00 8.404778e+00 9.657513e+00 1.260263e+01 1.447125e+01 1.571703e+01 1.517356e+01 1.603342e+01 1.526798e+01 1.349759e+01 2.268333e+01 8.092683e-02 1.418156e-01 2.320274e-01 3.508625e-01 4.510128e-01 5.382501e-01 6.348078e-01 6.685060e-01 7.069791e-01 6.935718e-01 6.545540e-01 5.667678e-01 1.636850e-02 1.656940e-02 2.808200e-02 4.428234e-02 6.747583e-02 9.001666e-02 1.083649e-01 1.261497e-01 1.355702e-01 1.327907e-01 1.313847e-01 1.336437e-01 1.159133e-01 3.823912e-03
<GCONST> 5.099742e+01
<STATE> 4
<MEAN> 39
 -1.305672e+00 1.818283e-02 -2.199958e-01 1.017986e+00 2.892599e-01 7.258307e-01 1.659827e-01 7.836508e-01 3.065442e-01 7.042109e-01 2.514818e-01 5.742174e-01 2.755115e+00 -7.650378e-03 -7.938758e-03 -9.462450e-03 -1.280259e-02 -3.381833e-02 -2.590507e-02 -9.813864e-03 1.229953e-02 2.188743e-02 2.231260e-02 4.612551e-03 4.846263e-03 -2.003752e-03 1.279224e-02 3.707302e-04 4.002748e-03 3.423992e-03 8.395170e-03 1.211831e-02 9.925252e-03 -5.283294e-03 -7.808806e-03 -7.101641e-03 -4.703484e-03 -9.059656e-04 -1.898070e-03
<VARIANCE> 39
 2.681948e+00 2.857971e+00 4.897465e+00 8.294804e+00 9.693677e+00 1.256538e+01 1.338198e+01 1.504860e+01 1.520490e+01 1.541863e+01 1.428087e+01 1.296599e+01 1.467858e+01 5.454392e-02 1.107881e-01 1.905801e-01 2.852407e-01 4.034511e-01 4.998555e-01 5.581986e-01 6.297058e-01 6.445196e-01 6.460734e-01 6.220184e-01 5.540872e-01 9.318926e-03 1.004393e-02 2.052734e-02 3.555970e-02 5.439285e-02 7.678755e-02 9.438703e-02 1.052619e-01 1.183149e-01 1.221628e-01 1.224905e-01 1.181428e-01 1.051487e-01 1.764626e-03
<GCONST> 4.462818e+01
<TRANSP> 5
 0.000000e+00 1.000000e+00 0.000000e+00 0.000000e+00 0.000000e+00
 0.000000e+00 1.622938e-01 8.377061e-01 0.000000e+00 0.000000e+00
 0.000000e+00 0.000000e+00 8.591475e-02 9.140853e-01 0.000000e+00
 0.000000e+00 0.000000e+00 0.000000e+00 7.580002e-01 2.419998e-01
 0.000000e+00 0.000000e+00 0.000000e+00 0.000000e+00 0.000000e+00
<ENDHMM>
~h "ow"
<BEGINHMM>
<NUMSTATES> 5
<STATE> 2
<MEAN> 39
 -1.506923e+00 -3.098253e-01 -4.295827e-01 1.122796e+00 3.547906e-01 1.232304e+00 5.238393e-01 1.328064e+00 3.228324e-01 1.031040e+00 3.039224e-01 8.409989e-01 5.069075e+00 6.000302e-02 -1.290787e-02 -1.696913e-02 -3.681644e-02 -2.223792e-02 -4.427864e-02 -4.251854e-02 -2.816908e-02 -2.385813e-02 -2.369872e-02 -2.499415e-02 -4.616503e-02 -3.916119e-03 3.819525e-02 1.109926e-02 9.768724e-03 -9.220385e-03 -3.673796e-03 -1.355858e-02 -2.627365e-03 -1.945436e-02 -1.831371e-02 -3.097752e-02 -1.625061e-02 -1.544946e-02 -1.379946e-02
<VARIANCE> 39
 3.362253e+00 3.216802e+00 5.239942e+00 8.568175e+00 1.034768e+01 1.306191e+01 1.413266e+01 1.544280e+01 1.534734e+01 1.608251e+01 1.425595e+01 1.309302e+01 3.496349e+01 1.038541e-01 1.412926e-01 2.384344e-01 3.702509e-01 4.753469e-01 5.865683e-01 6.635669e-01 7.012027e-01 6.903001e-01 7.118255e-01 6.645770e-01 5.951266e-01 1.963861e-02 1.957216e-02 2.739224e-02 4.690909e-02 7.186562e-02 9.029896e-02 1.125239e-01 1.252849e-01 1.333824e-01 1.351399e-01 1.395678e-01 1.257285e-01 1.127036e-01 7.537497e-03
<GCONST> 5.316762e+01
<STATE> 3
<MEAN> 39
 -5.406206e-01 -2.968301e-01 -4.218035e-01 1.579993e-01 -1.406307e-01 4.340443e-01 2.181126e-01 7.814718e-01 2.719486e-01 4.498765e-01 1.314785e-01 4.457740e-01 2.310348e+00 1.875996e-01 2.856938e-02 1.928539e-02 -8.040484e-02 -5.873586e-02 -1.259550e-01 -9.003265e-02 -1.281647e-01 -9.633602e-02 -1.472873e-01 -1.065264e-01 -1.068304e-01 -2.898959e-02 5.300707e-02 2.609117e-02 4.189732e-02 4.380324e-03 2.379666e-02 -2.064693e-02 1.045144e-02 -3.199884e-02 -4.151041e-03 -3.141427e-02 -1.105596e-03 -2.201917e-02 -7.386076e-02
<VARIANCE> 39
 3.626872e+00 3.585754e+00 5.192059e+00 8.830014e+00 1.040339e+01 1.359349e+01 1.353352e+01 1.657001e+01 1.643545e+01 1.613961e+01 1.463469e+01 1.333479e+01 4.374971e+01 1.898457e-01 1.640000e-01 2.736781e-01 4.269801e-01 5.121486e-01 6.012736e-01 6.657356e-01 7.341053e-01 7.166106e-01 7.480668e-01 6.622444e-01 5.986553e-01 3.620120e-01 4.183312e-02 3.810791e-02 6.225736e-02 8.594911e-02 1.063856e-01 1.283714e-01 1.349203e-01 1.586124e-01 1.566130e-01 1.531747e-01 1.385737e-01 1.223796e-01 8.027958e-02
<GCONST> 6.285134e+01
<STATE> 4
<MEAN> 39
 1.941992e+00 -4.363322e-01 1.160705e-01 7.450653e-02 8.148397e-01 -5.382679e-01 -4.435062e-02 -1.011206e+00 -5.187934e-01 -5.732398e-01 -3.262570e-01 -7.169848e-01 -1.431197e+00 1.333232e-01 2.428523e-02 7.503937e-02 -8.814872e-02 6.121745e-03 -1.671096e-01 -8.573610e-02 -1.778034e-01 -3.550827e-02 -8.741422e-02 -1.910691e-02 -1.004187e-01 -4.815834e-01 -5.530757e-02 -6.660880e-04 -9.261740e-03 -6.827649e-04 -1.242896e-02 1.103094e-02 1.014841e-02 2.639171e-02 2.089822e-02 2.773194e-02 2.168767e-02 2.287042e-02 7.780562e-03
<VARIANCE> 39
 2.546120e+01 1.234752e+01 1.594068e+01 2.052935e+01 2.770758e+01 2.822167e+01 2.665849e+01 3.396258e+01 2.727452e+01 2.594921e+01 2.102176e+01 1.999076e+01 1.025705e+02 1.112733e+00 6.216602e-01 7.883817e-01 1.001357e+00 1.270429e+00 1.363521e+00 1.272328e+00 1.545074e+00 1.288066e+00 1.235325e+00 9.778699e-01 9.535452e-01 3.930101e+00 1.487150e-01 1.017750e-01 1.323220e-01 1.611445e-01 2.044802e-01 2.301361e-01 2.205810e-01 2.611089e-01 2.231783e-01 2.095708e-01 1.752307e-01 1.678172e-01 4.076550e-01
<GCONST> 9.487009e+01
<TRANSP> 5
 0.000000e+00 1.000000e+00 0.000000e+00 0.000000e+00 0.000000e+00
 0.000000e+00 5.773181e-01 4.226819e-01 0.000000e+00 0.000000e+00
 0.000000e+00 0.000000e+00 1.737877e-01 8.262122e-01 0.000000e+00
 0.000000e+00 0.000000e+00 0.000000e+00 7.292144e-01 2.707857e-01
 0.000000e+00 0.000000e+00 0.000000e+00 0.000000e+00 0.000000e+00
<ENDHMM>
~h "sp"
<BEGINHMM>
<NUMSTATES> 3
<STATE> 2
~s "silst"
<TRANSP> 3
 0.000000e+00 1.706731e-01 8.293269e-01
 0.000000e+00 7.363456e-01 2.636544e-01
 0.000000e+00 0.000000e+00 0.000000e+00
<ENDHMM>
~h "th"
<BEGINHMM>
<NUMSTATES> 5
<STATE> 2
<MEAN> 39
 1.386764e+00 7.151173e-01 5.574386e-01 -1.795974e+00 -5.559725e-01 -1.995636e+00 -5.195597e-01 -1.383903e+00 -8.129989e-02 -1.081765e+00 -2.044421e-01 -9.166118e-01 -5.806453e+00 -1.848977e-03 3.209856e-02 2.635200e-02 -1.010463e-01 3.337910e-02 -6.675480e-02 2.478207e-02 -2.222884e-03 7.056928e-02 -1.154114e-02 3.974238e-02 -2.361547e-02 -1.457482e-01 -6.225775e-02 -2.388143e-02 -2.322522e-02 6.769502e-02 2.949479e-02 9.317148e-02 3.556700e-02 6.857698e-02 1.458615e-02 5.400449e-02 1.128356e-02 4.462975e-02 2.065975e-01
<VARIANCE> 39
 1.397022e+01 1.524489e+01 1.463890e+01 2.119964e+01 2.214512e+01 2.473837e+01 2.143889e+01 2.505687e+01 2.352463e+01 2.340821e+01 1.816194e+01 1.665701e+01 9.692574e+01 8.458094e-01 8.459207e-01 8.305573e-01 1.095928e+00 1.087900e+00 1.324077e+00 1.018353e+00 1.306587e+00 1.128851e+00 1.155712e+00 9.073369e-01 8.053335e-01 4.561599e+00 1.394298e-01 1.521873e-01 1.550932e-01 1.969783e-01 1.947346e-01 2.330536e-01 1.864213e-01 2.298440e-01 2.038886e-01 2.067417e-01 1.684863e-01 1.481980e-01 6.339130e-01
<GCONST> 9.276083e+01
<STATE> 3
<MEAN> 39
 -5.947884e-01 7.174163e-02 -3.354807e-02 -5.818357e-01 -1.261750e-01 -9.870499e-03 3.682933e-01 5.206267e-01 4.181334e-01 4.884631e-01 4.670076e-02 2.699427e-01 2.797948e+00 -2.464147e-01 -8.685240e-02 -6.340738e-02 5.153772e-01 2.016301e-01 5.246559e-01 1.766825e-01 3.929775e-01 3.065077e-02 3.289394e-01 7.847939e-02 2.345026e-01 1.375876e+00 1.150403e-02 -2.910485e-03 1.338464e-02 2.150784e-02 2.067340e-02 -1.113293e-02 3.176173e-03 -3.570682e-02 -1.720096e-02 -5.085241e-02 4.453303e-03 -1.282742e-02 -2.144153e-01
<VARIANCE> 39
 5.554164e+00 6.340521e+00 1.055691e+01 1.775345e+01 1.429561e+01 1.852013e+01 1.748191e+01 1.942812e+01 1.811461e+01 1.931785e+01 1.677490e+01 1.463754e+01 4.727572e+01 3.283840e-01 3.507969e-01 6.203603e-01 9.108243e-01 6.908082e-01 8.734859e-01 8.523977e-01 9.532087e-01 9.140797e-01 9.564994e-01 7.929398e-01 6.871912e-01 3.338344e+00 5.037234e-02 6.140187e-02 1.185481e-01 1.640278e-01 1.289797e-01 1.578689e-01 1.566908e-01 1.729361e-01 1.681398e-01 1.832484e-01 1.543642e-01 1.286967e-01 3.337792e-01
<GCONST> 7.839818e+01
<STATE> 4
<MEAN> 39
 -8.631088e-01 -2.463907e-01 -2.808727e-01 8.839250e-01 3.131811e-01 9.387186e-01 4.893645e-01 1.179303e+00 5.390893e-01 1.117072e+00 5.654381e-01 7.350894e-01 3.157985e+00 -2.196787e-01 -1.000621e-01 -1.603909e-02 2.880079e-01 1.827368e-01 3.155707e-01 2.221548e-01 1.877036e-01 8.717403e-02 7.610546e-02 9.557875e-02 1.415011e-01 1.267686e-01 6.137133e-02 3.612909e-02 3.346376e-02 -1.019693e-01 -3.792523e-02 -9.469514e-02 -4.738975e-02 -1.092384e-01 -5.828730e-02 -9.630550e-02 -5.809973e-02 -5.862390e-02 -1.138854e-01
<VARIANCE> 39
 3.434627e+00 3.468116e+00 5.520961e+00 9.943472e+00 1.005209e+01 1.323003e+01 1.467412e+01 1.647853e+01 1.553694e+01 1.570906e+01 1.413227e+01 1.323411e+01 2.920028e+01 1.428368e-01 1.705723e-01 2.948777e-01 4.645249e-01 5.099531e-01 6.176425e-01 6.698896e-01 7.277584e-01 7.120845e-01 7.332213e-01 6.805454e-01 5.799670e-01 6.960784e-02 2.464403e-02 3.477772e-02 5.943490e-02 9.929702e-02 9.672160e-02 1.184785e-01 1.255556e-01 1.411883e-01 1.412961e-01 1.451981e-01 1.295490e-01 1.153570e-01 3.932235e-02
<GCONST> 5.879876e+01
<TRANSP> 5
 0.000000e+00 1.000000e+00 0.000000e+00 0.000000e+00 0.000000e+00
 0.000000e+00 7.324002e-01 2.675999e-01 0.000000e+00 0.000000e+00
 0.000000e+00 0.000000e+00 5.450398e-01 4.549602e-01 0.000000e+00
 0.000000e+00 0.000000e+00 0.000000e+00 3.270237e-01 6.729763e-01
 0.000000e+00 0.000000e+00 0.000000e+00 0.000000e+00 0.000000e+00
<ENDHMM>
~h "uw"
<BEGINHMM>
<NUMSTATES> 5
<STATE> 2
<MEAN> 39
 -1.577452e-01 -9.021373e-03 6.418572e-02 5.233304e-01 5.682668e-01 7.047418e-01 6.705353e-01 6.712570e-01 5.439543e-02 2.614798e-01 1.356068e-01 2.115107e-01 6.289224e-01 -1.025220e-01 -5.389251e-03 4.243045e-02 1.872984e-01 1.492354e-01 2.675897e-01 1.711651e-01 9.936175e-02 -9.094100e-03 -3.003027e-02 -5.156236e-02 2.066209e-02 2.354578e-02 4.065102e-02 1.973649e-02 -7.722074e-03 -1.051504e-01 -1.106928e-01 -1.360335e-01 -1.014176e-01 -8.409165e-02 -3.125994e-02 -5.384570e-02 -3.280665e-02 -4.734502e-02 -3.051371e-02
<VARIANCE> 39
 5.248477e+00 3.792717e+00 5.994880e+00 9.721012e+00 1.052721e+01 1.324469e+01 1.474421e+01 1.588607e+01 1.588484e+01 1.627411e+01 1.487281e+01 1.356261e+01 3.123652e+01 1.172466e-01 1.826456e-01 2.832209e-01 3.966138e-01 5.206898e-01 5.688296e-01 6.645439e-01 8.005976e-01 7.684203e-01 7.660810e-01 6.600627e-01 6.133851e-01 5.071250e-02 2.136648e-02 3.337187e-02 5.273718e-02 8.575313e-02 9.392538e-02 1.138431e-01 1.317393e-01 1.357631e-01 1.481185e-01 1.370769e-01 1.278872e-01 1.170925e-01 1.558790e-02
<GCONST> 5.767091e+01
<STATE> 3
<MEAN> 39
 -1.784380e-01 1.019249e-01 2.098276e-01 7.761332e-01 8.885511e-01 9.547535e-01 4.511796e-01 4.765618e-01 -1.784521e-02 2.024742e-02 5.886839e-03 1.230532e-01 5.915491e-01 -3.738329e-02 2.285410e-02 1.862105e-02 2.346169e-02 -7.312011e-02 5.692913e-03 -1.010901e-02 -2.541653e-02 -5.442507e-02 -8.663956e-02 -8.421156e-02 -2.935915e-02 1.514245e-03 4.214866e-02 1.248901e-02 -2.272989e-02 -1.099576e-01 -1.261421e-01 -1.646395e-01 -1.160722e-01 -8.447276e-02 -2.184210e-02 -1.665230e-02 -9.185137e-03 -2.494854e-02 -1.332137e-02
<VARIANCE> 39
 5.113332e+00 3.720782e+00 6.436943e+00 9.304703e+00 1.091982e+01 1.456342e+01 1.519138e+01 1.809087e+01 1.612048e+01 1.588318e+01 1.522086e+01 1.347118e+01 3.234427e+01 8.332883e-02 1.590174e-01 2.533980e-01 3.691297e-01 4.751035e-01 5.472916e-01 6.277388e-01 7.539887e-01 7.170878e-01 7.667840e-01 6.398027e-01 5.981748e-01 3.103368e-02 2.058867e-02 3.153591e-02 5.009125e-02 7.392919e-02 9.281459e-02 1.086756e-01 1.306480e-01 1.354343e-01 1.449100e-01 1.318028e-01 1.287261e-01 1.098542e-01 7.290660e-03
<GCONST> 5.521926e+01
<STATE> 4
<MEAN> 39
 -1.866248e+00 -3.006765e-01 -4.399019e-01 1.562898e+00 5.870467e-01 1.465271e+00 4.811924e-01 1.325194e+00 1.362630e-01 8.292815e-01 1.486272e-01 7.520143e-01 5.383346e+00 1.939376e-02 -9.918567e-03 -6.075794e-03 -2.306748e-02 -6.217629e-02 -5.868454e-02 -5.142512e-02 -5.345789e-02 -2.819642e-02 -2.953791e-02 -3.316189e-02 -1.146669e-02 -1.350793e-03 2.526533e-02 4.187628e-03 1.023368e-03 -2.207146e-02 -1.864862e-02 -3.054383e-02 -1.191063e-02 -1.297742e-02 -4.912770e-03 -2.983059e-03 7.028361e-03 3.990675e-04 -8.067133e-03
<VARIANCE> 39
 3.935375e+00 3.567583e+00 5.774639e+00 9.129112e+00 1.043261e+01 1.295086e+01 1.406772e+01 1.669370e+01 1.606532e+01 1.650309e+01 1.502271e+01 1.341208e+01 2.891887e+01 8.549657e-02 1.346435e-01 2.284440e-01 3.637157e-01 4.389516e-01 5.577155e-01 6.336281e-01 6.703571e-01 6.960682e-01 7.224549e-01 6.456406e-01 5.741625e-01 1.877105e-02 1.612338e-02 2.532566e-02 4.446181e-02 6.664971e-02 8.388107e-02 1.046644e-01 1.190596e-01 1.304113e-01 1.332175e-01 1.409018e-01 1.208845e-01 1.101325e-01 3.811403e-03
<GCONST> 5.163893e+01
<TRANSP> 5
 0.000000e+00 1.000000e+00 0.000000e+00 0.000000e+00 0.000000e+00
 0.000000e+00 3.231269e-02 9.676873e-01 0.000000e+00 0.000000e+00
 0.000000e+00 0.000000e+00 2.435084e-02 9.756492e-01 0.000000e+00
 0.000000e+00 0.000000e+00 0.000000e+00 7.440836e-01 2.559164e-01
 0.000000e+00 0.000000e+00 0.000000e+00 0.000000e+00 0.000000e+00
<ENDHMM>
~h "sil"
<BEGINHMM>
<NUMSTATES> 5
<STATE> 2
<MEAN> 39
 8.075314e-03 1.747854e-02 2.254133e-02 4.234918e-02 1.967451e-02 2.809310e-02 -4.106739e-03 -9.997029e-03 -1.933970e-03 -2.318569e-03 5.763350e-05 1.686840e-03 -6.402255e-02 4.255237e-04 2.528859e-04 -4.152417e-04 -1.082616e-03 -2.763787e-03 -2.090556e-03 -1.105232e-03 -9.415246e-05 2.007419e-04 8.058051e-04 -4.012199e-05 -2.925096e-04 -1.220668e-03 7.034016e-04 -3.022623e-04 -4.594853e-04 -1.611934e-03 -1.311192e-03 -1.624115e-03 -1.087276e-03 -8.880452e-04 -4.864066e-04 -5.320319e-04 -5.948733e-04 -5.817898e-04 -5.419861e-04
<VARIANCE> 39
 1.354726e+00 2.665093e+00 4.694329e+00 7.275586e+00 9.506599e+00 1.175977e+01 1.341695e+01 1.461769e+01 1.511664e+01 1.491992e+01 1.390534e+01 1.260056e+01 1.708342e+00 5.073705e-02 1.144670e-01 2.042625e-01 3.098302e-01 4.153562e-01 5.096640e-01 5.857859e-01 6.374735e-01 6.625196e-01 6.546564e-01 6.089879e-01 5.502682e-01 1.011787e-02 8.916200e-03 2.078167e-02 3.724757e-02 5.634812e-02 7.602605e-02 9.330545e-02 1.076862e-01 1.167368e-01 1.212490e-01 1.199299e-01 1.117939e-01 1.007924e-01 1.602133e-03
<GCONST> 4.140113e+01
<STATE> 3
~s "silst"
<STATE> 4
<MEAN> 39
 2.754299e+00 4.209059e-01 3.342051e-01 -1.779460e+00 -1.014144e+00 -1.845466e+00 -7.880523e-01 -1.615046e+00 -5.343732e-01 -1.219394e+00 -3.871112e-01 -1.001468e+00 -1.063080e+01 -2.589228e-02 5.815376e-02 -2.697889e-02 2.555471e-02 -2.565440e-02 -1.128116e-02 2.787041e-02 6.370070e-02 9.221911e-03 5.958992e-03 1.428777e-02 2.901377e-02 -1.382737e-01 -9.961428e-03 -2.776721e-03 2.808634e-03 1.085227e-02 1.328798e-02 1.485439e-02 6.346712e-03 7.778660e-03 6.582531e-03 9.088125e-03 5.321565e-03 7.622752e-03 1.406851e-02
<VARIANCE> 39
 1.004989e+01 9.464649e+00 9.639462e+00 1.541108e+01 1.435252e+01 1.719162e+01 1.743264e+01 2.085708e+01 1.818023e+01 1.789996e+01 1.524179e+01 1.461049e+01 6.418430e+01 1.626563e-01 2.427066e-01 3.107168e-01 5.090419e-01 5.497726e-01 6.906726e-01 7.147381e-01 8.191708e-01 7.764384e-01 7.709606e-01 6.856256e-01 6.261654e-01 1.682805e-01 2.156448e-02 3.360065e-02 4.648607e-02 7.334767e-02 8.317281e-02 1.019975e-01 1.071926e-01 1.217848e-01 1.176532e-01 1.158273e-01 1.051263e-01 9.486113e-02 1.472956e-02
<GCONST> 6.312891e+01
<TRANSP> 5
 0.000000e+00 1.000000e+00 0.000000e+00 0.000000e+00 0.000000e+00
 0.000000e+00 9.712038e-01 3.424319e-03 2.537184e-02 0.000000e+00
 0.000000e+00 0.000000e+00 8.732132e-01 1.267869e-01 0.000000e+00
 0.000000e+00 1.469590e-02 0.000000e+00 7.883734e-01 1.969307e-01
 0.000000e+00 0.000000e+00 0.000000e+00 0.000000e+00 0.000000e+00
<ENDHMM>
