~o
<STREAMINFO> 1 39
<VECSIZE> 39<NULLD><MFCC_D_A_Z_0><DIAGC>
~v "varFloor1"
<VARIANCE> 39
 5.653673e-02 4.886588e-02 6.880558e-02 1.097444e-01 1.173968e-01 1.501360e-01 1.524483e-01 1.769248e-01 1.673871e-01 1.699316e-01 1.501835e-01 1.395998e-01 3.516366e-01 1.948883e-03 2.195148e-03 3.084339e-03 4.548327e-03 5.169705e-03 6.475277e-03 6.752422e-03 7.581503e-03 7.468139e-03 7.484302e-03 6.703977e-03 6.097627e-03 6.117719e-03 3.081363e-04 3.835776e-04 5.522510e-04 7.938185e-04 9.348416e-04 1.158605e-03 1.234846e-03 1.362727e-03 1.366371e-03 1.361924e-03 1.233620e-03 1.112660e-03 7.270522e-04
~s "silst"
<MEAN> 39
 2.155690e-01 -3.899933e-02 -2.497537e-01 -5.795880e-01 -4.002852e-01 -3.873743e-01 -2.014901e-01 -2.856822e-02 -9.092926e-02 7.475920e-03 -4.504775e-02 -2.444004e-02 -1.674898e-01 1.389942e-02 -1.414101e-02 -2.676641e-02 -7.910617e-02 -6.360964e-02 -6.731959e-02 -2.228026e-02 -1.692671e-02 -2.124767e-02 -2.133930e-02 -2.579348e-03 -1.649463e-02 -1.940618e-02 -2.681846e-03 -7.499645e-03 3.163697e-03 1.424648e-02 2.335636e-02 2.134219e-02 1.918177e-02 7.631187e-03 2.807686e-03 -2.325729e-03 3.909596e-03 1.979300e-03 -1.712023e-03
<VARIANCE> 39
 2.537509e+00 3.070787e+00 4.979532e+00 1.096721e+01 1.074048e+01 1.408185e+01 1.498290e+01 1.634510e+01 1.652783e+01 1.687047e+01 1.584347e+01 1.364642e+01 1.505822e+01 6.751678e-02 1.263220e-01 2.275086e-01 4.293796e-01 5.028536e-01 6.476777e-01 7.178757e-01 7.849362e-01 8.223877e-01 8.319015e-01 8.036724e-01 6.516192e-01 2.299653e-02 1.125678e-02 2.193325e-02 4.040286e-02 7.627524e-02 9.308415e-02 1.193845e-01 1.352840e-01 1.458357e-01 1.529756e-01 1.577996e-01 1.510292e-01 1.215430e-01 3.557096e-03
<GCONST> 5.250992e+01
~h "f"
<BEGINHMM>
<NUMSTATES> 5
<STATE> 2
<MEAN> 39
 4.137458e-01 -3.610782e-01 -1.721046e-01 -2.124485e+00 -1.386557e+00 -2.331950e+00 -6.305934e-01 -1.294829e+00 -3.903255e-01 -1.154614e+00 -2.048234e-01 -9.133876e-01 -5.619477e+00 -8.245094e-02 -8.597833e-02 1.334574e-02 -9.781434e-02 3.602470e-03 -1.137437e-01 3.906131e-02 -3.403544e-03 1.948604e-02 -2.020592e-02 5.969285e-02 -1.132292e-02 6.994433e-02 -1.333741e-02 -1.857243e-03 2.472484e-02 9.516820e-02 8.365762e-02 1.083229e-01 6.318833e-02 6.408781e-02 4.503151e-02 5.117324e-02 2.196000e-02 3.852721e-02 9.244557e-02
<VARIANCE> 39
 6.471687e+00 6.996346e+00 7.819983e+00 1.408408e+01 1.182535e+01 1.710741e+01 1.609116e+01 1.872421e+01 1.752217e+01 1.716594e+01 1.483063e+01 1.463588e+01 7.713876e+01 2.982293e-01 3.370049e-01 3.793791e-01 6.115811e-01 5.597092e-01 7.338334e-01 7.258738e-01 8.769465e-01 8.049123e-01 7.536606e-01 7.000279e-01 6.522260e-01 7.100157e-01 5.069080e-02 6.081552e-02 7.468600e-02 1.195387e-01 1.079892e-01 1.447772e-01 1.416657e-01 1.674975e-01 1.532652e-01 1.420041e-01 1.307333e-01 1.256558e-01 1.293948e-01
<GCONST> 7.153445e+01
<STATE> 3
<MEAN> 39
 -6.632708e-01 -9.143161e-01 4.204763e-01 -9.253036e-01 -4.123620e-01 -1.582644e+00 2.311922e-01 -6.283514e-01 1.185381e-01 -7.008380e-01 3.146071e-01 -5.505382e-01 -5.312366e-01 -7.689825e-02 5.300150e-02 -6.572502e-02 2.504831e-01 1.236729e-01 2.922674e-01 4.984734e-02 2.188270e-01 3.716612e-02 1.793146e-01 1.153806e-02 1.487454e-01 7.002813e-01 -2.722577e-02 1.185271e-02 -1.289449e-02 2.740945e-02 1.819936e-02 4.895249e-02 1.384916e-02 3.158015e-02 1.557063e-02 2.351023e-02 5.841420e-03 2.052628e-02 6.942837e-03
<VARIANCE> 39
 1.360871e+01 1.217042e+01 1.165624e+01 1.875829e+01 1.554570e+01 2.384004e+01 1.846932e+01 2.266770e+01 1.934278e+01 2.036077e+01 1.690679e+01 1.583652e+01 7.161816e+01 7.801673e-01 6.203151e-01 6.182042e-01 9.919752e-01 7.271619e-01 1.204923e+00 8.357102e-01 1.089071e+00 8.989053e-01 9.935163e-01 7.826307e-01 7.587056e-01 3.497226e+00 1.313262e-01 1.039500e-01 1.073767e-01 1.581753e-01 1.320068e-01 1.936597e-01 1.541118e-01 1.842403e-01 1.654217e-01 1.737303e-01 1.436185e-01 1.345942e-01 3.716770e-01
<GCONST> 8.505761e+01
<STATE> 4
<MEAN> 39
 -6.422971e-01 -1.107994e-01 -3.809532e-01 4.466133e-01 1.592133e-01 4.981656e-01 1.495144e-01 8.123955e-01 1.222826e-01 4.871119e-01 1.269912e-01 5.127569e-01 2.209791e+00 -1.837584e-01 -1.803087e-02 -9.368537e-04 2.633306e-01 2.579878e-01 3.390731e-01 2.252004e-01 2.508835e-01 1.943733e-01 1.770777e-01 1.198575e-01 1.539067e-01 9.228068e-02 4.183827e-02 -5.465199e-03 3.812792e-02 -2.046394e-02 1.035234e-02 -3.964913e-02 5.997793e-03 -4.872546e-02 2.001183e-03 -3.276161e-02 -5.939998e-03 -4.067745e-02 -9.397000e-02
<VARIANCE> 39
 3.173664e+00 2.972566e+00 4.992932e+00 9.132419e+00 9.582764e+00 1.249586e+01 1.378322e+01 1.589821e+01 1.538609e+01 1.544590e+01 1.430551e+01 1.308339e+01 2.551081e+01 1.173893e-01 1.571292e-01 2.540973e-01 4.531114e-01 4.777696e-01 5.837750e-01 6.105793e-01 6.753191e-01 7.287389e-01 7.028113e-01 6.330239e-01 5.916183e-01 5.761958e-02 2.490727e-02 3.022304e-02 4.751516e-02 8.413182e-02 8.537935e-02 1.160531e-01 1.136813e-01 1.292674e-01 1.346095e-01 1.342431e-01 1.196273e-01 1.073634e-01 3.342310e-02
<GCONST> 5.572046e+01
<TRANSP> 5
 0.000000e+00 1.000000e+00 0.000000e+00 0.000000e+00 0.000000e+00
 0.000000e+00 4.730159e-01 5.269840e-01 0.000000e+00 0.000000e+00
 0.000000e+00 0.000000e+00 7.550457e-01 2.449543e-01 0.000000e+00
 0.000000e+00 0.000000e+00 0.000000e+00 1.450870e-01 8.549129e-01
 0.000000e+00 0.000000e+00 0.000000e+00 0.000000e+00 0.000000e+00
<ENDHMM>
~h "k"
<BEGINHMM>
<NUMSTATES> 5
<STATE> 2
<MEAN> 39
 9.112439e-01 1.118172e+00 1.371843e+00 -5.850579e-01 -1.335601e+00 -6.384585e-01 -4.193217e-01 1.040742e-01 4.015312e-01 4.522756e-01 3.448437e-01 9.280813e-02 -2.042932e+00 -7.791759e-02 -7.969257e-02 8.951053e-02 -2.539899e-01 -2.184341e-01 -6.499086e-02 -1.229088e-03 -2.096661e-01 6.017752e-02 -8.893451e-02 -3.521555e-02 -1.416222e-01 -3.848752e-01 -1.123145e-01 -6.013623e-02 -7.411963e-02 -1.730213e-02 1.850682e-02 3.854277e-02 2.130723e-02 -2.995230e-03 1.647641e-02 -1.511392e-02 -1.509717e-02 4.068119e-03 1.432583e-01
<VARIANCE> 39
 2.188564e+01 1.907917e+01 2.125478e+01 2.488868e+01 2.600659e+01 2.838107e+01 2.601239e+01 2.577112e+01 2.582148e+01 2.590460e+01 2.187294e+01 1.822485e+01 1.065440e+02 1.771202e+00 1.259389e+00 1.248159e+00 1.469693e+00 1.368095e+00 1.727650e+00 1.425956e+00 1.305749e+00 1.351771e+00 1.361913e+00 1.091676e+00 9.070042e-01 9.250100e+00 2.425596e-01 2.128673e-01 2.215214e-01 2.529295e-01 2.512020e-01 3.032949e-01 2.602572e-01 2.422816e-01 2.422279e-01 2.519106e-01 1.980816e-01 1.636298e-01 1.365045e+00
<GCONST> 1.028743e+02
<STATE> 3
<MEAN> 39
 -1.834958e+00 -8.546706e-01 2.639672e-01 -2.344527e+00 -1.588372e+00 1.775351e-01 4.309173e-01 -1.539776e+00 1.062972e+00 -3.083702e-01 -5.179247e-01 -1.283575e+00 3.580139e-01 3.329238e-02 -2.087548e-02 -1.751323e-01 -1.659580e-01 8.599795e-02 -2.112583e-01 -2.086895e-01 -2.115344e-01 -1.164034e-01 -2.532780e-01 -1.193964e-01 -1.426505e-01 -1.978154e-01 8.745696e-02 2.930231e-02 -1.663067e-02 1.345225e-01 5.713793e-02 -1.948650e-02 -3.856603e-03 1.003720e-01 -3.800026e-02 4.020356e-02 4.362082e-02 8.371120e-02 -8.336931e-02
<VARIANCE> 39
 1.479427e+01 8.919037e+00 1.040365e+01 2.211520e+01 1.994847e+01 2.086599e+01 2.267065e+01 2.159795e+01 2.498216e+01 2.548874e+01 1.889704e+01 1.805886e+01 1.864181e+01 6.456503e-01 4.400141e-01 6.130403e-01 1.058378e+00 9.672422e-01 1.009021e+00 1.018649e+00 1.084108e+00 1.106519e+00 1.209499e+00 7.978785e-01 7.901729e-01 1.008138e+00 1.023223e-01 8.410491e-02 1.008003e-01 1.832645e-01 1.668825e-01 1.936697e-01 1.943164e-01 1.950713e-01 2.034004e-01 2.033538e-01 1.476199e-01 1.492841e-01 2.132619e-01
<GCONST> 8.366242e+01
<STATE> 4
<MEAN> 39
 -5.589550e-01 -1.261429e+00 -2.422649e-01 -2.036549e+00 -7.728218e-01 -4.719309e-01 -3.561741e-01 -2.006053e+00 2.681866e-01 -7.478395e-01 -5.905083e-01 -1.746345e+00 -9.635932e-01 2.606492e-01 2.602109e-02 -2.060293e-02 9.214517e-02 8.582889e-02 -8.197561e-02 -1.037519e-01 -5.403136e-02 -1.785355e-01 -6.841729e-02 -2.325118e-02 4.269488e-02 -2.872836e-01 -3.851399e-03 1.648727e-02 1.469468e-02 4.131295e-02 -3.002244e-03 4.047980e-02 5.371511e-02 6.770519e-02 2.919119e-02 4.523652e-02 3.613549e-02 4.838833e-02 -9.941473e-03
<VARIANCE> 39
 1.635245e+01 1.046533e+01 1.175521e+01 1.957374e+01 2.010933e+01 2.093805e+01 2.087715e+01 2.406231e+01 2.594906e+01 2.580484e+01 1.975476e+01 1.749795e+01 2.192891e+01 4.237079e-01 4.263368e-01 5.205506e-01 7.796904e-01 8.162838e-01 9.005403e-01 8.738746e-01 1.024972e+00 9.534864e-01 9.946768e-01 8.553877e-01 7.390258e-01 6.086311e-01 6.244082e-02 6.750961e-02 8.030158e-02 1.372293e-01 1.432947e-01 1.491307e-01 1.516314e-01 1.811984e-01 1.628884e-01 1.692985e-01 1.471835e-01 1.301350e-01 7.263320e-02
<GCONST> 7.833546e+01
<TRANSP> 5
 0.000000e+00 1.000000e+00 0.000000e+00 0.000000e+00 0.000000e+00
 0.000000e+00 7.673275e-01 2.326725e-01 0.000000e+00 0.000000e+00
 0.000000e+00 0.000000e+00 4.580049e-01 5.419951e-01 0.000000e+00
 0.000000e+00 0.000000e+00 0.000000e+00 5.545641e-01 4.454360e-01
 0.000000e+00 0.000000e+00 0.000000e+00 0.000000e+00 0.000000e+00
<ENDHMM>
~h "n"
<BEGINHMM>
<NUMSTATES> 5
<STATE> 2
<MEAN> 39
 -1.712830e-01 -3.013019e-02 4.271829e-02 7.823968e-01 3.457334e-01 6.495004e-01 2.182077e-01 4.519853e-01 -2.376416e-01 2.902538e-02 -1.956527e-01 1.689482e-01 2.116304e+00 1.978145e-01 1.115714e-01 1.011522e-01 -5.320556e-02 -5.299046e-02 -1.680207e-01 -1.846419e-01 -2.380692e-01 -2.160359e-01 -1.621055e-01 -1.167536e-01 -1.227936e-01 -3.753269e-02 3.022882e-02 4.763850e-03 -9.132561e-03 -6.193200e-02 -2.390071e-02 -3.601120e-02 -5.916763e-03 -9.108055e-03 2.711746e-02 2.053156e-02 2.422972e-02 4.982525e-03 -5.520433e-02
<VARIANCE> 39
 2.699053e+00 3.147914e+00 4.872004e+00 8.464309e+00 9.774080e+00 1.266889e+01 1.368364e+01 1.503642e+01 1.517834e+01 1.539218e+01 1.443505e+01 1.298788e+01 2.625326e+01 1.606059e-01 1.624202e-01 2.581357e-01 4.178664e-01 5.039711e-01 6.326802e-01 6.985551e-01 7.270400e-01 7.459707e-01 7.471102e-01 6.842585e-01 6.176863e-01 4.714593e-02 3.242598e-02 3.890735e-02 6.058628e-02 8.347004e-02 9.930599e-02 1.240365e-01 1.348654e-01 1.484410e-01 1.470555e-01 1.482653e-01 1.327137e-01 1.195211e-01 2.707354e-02
<GCONST> 5.759406e+01
<STATE> 3
<MEAN> 39
 2.208559e+00 8.414841e-01 1.863298e+00 -1.291761e-01 8.293690e-01 -3.025045e-01 -5.780382e-01 -1.628998e+00 -8.554350e-01 -7.810490e-01 -5.921865e-01 -8.110908e-01 -9.637275e-01 8.687744e-02 4.985926e-02 8.626260e-02 -1.596897e-01 -5.781760e-02 -1.795393e-01 -1.234976e-01 -2.023732e-01 -1.596489e-02 -5.835310e-02 -1.158768e-02 -1.008964e-01 -4.128735e-01 -6.901673e-02 -4.007981e-02 -5.603864e-02 -1.190528e-02 -2.600835e-02 1.259731e-02 2.889692e-02 5.798635e-02 4.890284e-02 4.262759e-02 3.187748e-02 2.934349e-02 1.714573e-02
<VARIANCE> 39
 1.921607e+01 1.432445e+01 2.299430e+01 2.038480e+01 2.192446e+01 2.610986e+01 2.615848e+01 3.207761e+01 2.588104e+01 2.519761e+01 2.132265e+01 1.951676e+01 7.816073e+01 1.031808e+00 8.272686e-01 1.239674e+00 1.031890e+00 1.089391e+00 1.331248e+00 1.251327e+00 1.529943e+00 1.234858e+00 1.235071e+00 1.006658e+00 9.585233e-01 3.499000e+00 1.441575e-01 1.348914e-01 1.988468e-01 1.652306e-01 1.833000e-01 2.203447e-01 2.159723e-01 2.428090e-01 2.159747e-01 2.143975e-01 1.840852e-01 1.706622e-01 3.758524e-01
<GCONST> 9.512064e+01
<STATE> 4
<MEAN> 39
 2.292139e-01 1.030963e-01 1.362764e-01 -4.112834e-01 -3.550489e-01 -5.239753e-01 -5.898323e-01 -6.214771e-01 -4.762914e-01 -1.883473e-01 -2.025001e-01 -2.711039e-01 6.239569e-01 -7.277001e-02 -6.722555e-02 -1.332543e-01 -1.251072e-01 -1.234161e-01 -7.761011e-02 -1.940110e-03 5.988738e-02 7.810367e-02 8.041116e-02 8.075992e-02 5.571004e-02 -3.379104e-02 3.727013e-05 -1.579815e-02 -6.108047e-03 4.082132e-02 5.713148e-02 7.882638e-02 8.492976e-02 8.093468e-02 6.334770e-02 4.185121e-02 3.502501e-02 4.041635e-02 2.107699e-04
<VARIANCE> 39
 5.787936e+00 4.351216e+00 7.039286e+00 1.212807e+01 1.159155e+01 1.568140e+01 1.531308e+01 1.839223e+01 1.641608e+01 1.672295e+01 1.486060e+01 1.443932e+01 2.874753e+01 1.507969e-01 1.867335e-01 2.857175e-01 4.865544e-01 5.104122e-01 6.494684e-01 6.918715e-01 7.325178e-01 7.575794e-01 7.393854e-01 6.621793e-01 5.892872e-01 9.180840e-02 3.399353e-02 4.003257e-02 6.101677e-02 9.015972e-02 1.019887e-01 1.292875e-01 1.368517e-01 1.470874e-01 1.500132e-01 1.473427e-01 1.302489e-01 1.177953e-01 2.182835e-02
<GCONST> 6.145033e+01
<TRANSP> 5
 0.000000e+00 1.000000e+00 0.000000e+00 0.000000e+00 0.000000e+00
 0.000000e+00 9.916372e-02 9.008362e-01 0.000000e+00 0.000000e+00
 0.000000e+00 0.000000e+00 6.828939e-01 3.171061e-01 0.000000e+00
 0.000000e+00 0.000000e+00 0.000000e+00 2.140358e-01 7.859643e-01
 0.000000e+00 0.000000e+00 0.000000e+00 0.000000e+00 0.000000e+00
<ENDHMM>
~h "r"
<BEGINHMM>
<NUMSTATES> 5
<STATE> 2
<MEAN> 39
 -1.952195e+00 -3.620649e-01 -5.336502e-01 1.461374e+00 5.012534e-01 1.595609e+00 6.824266e-01 1.644380e+00 3.963998e-01 1.118844e+00 3.276924e-01 1.045902e+00 6.473616e+00 2.112514e-03 -8.274866e-03 7.432798e-03 2.088370e-02 1.271829e-02 3.250294e-02 2.057437e-02 -1.988267e-03 -3.767068e-03 -5.731670e-03 -3.681322e-03 6.032803e-03 1.005617e-03 2.138520e-02 6.962963e-03 5.022443e-04 -1.740034e-02 -1.356818e-02 -3.001592e-02 -3.002215e-02 -3.030361e-02 -2.528359e-02 -1.922816e-02 -2.112653e-02 -1.851743e-02 -3.298627e-03
<VARIANCE> 39
 3.500563e+00 3.303989e+00 5.349155e+00 8.806034e+00 1.004800e+01 1.266625e+01 1.414649e+01 1.557460e+01 1.588463e+01 1.561237e+01 1.417237e+01 1.318805e+01 3.242268e+01 6.393868e-02 1.238538e-01 2.191504e-01 3.217832e-01 4.283503e-01 5.020766e-01 6.101012e-01 6.495039e-01 6.756560e-01 6.508904e-01 6.057445e-01 5.545370e-01 1.220253e-02 1.193118e-02 2.311507e-02 4.088314e-02 6.016302e-02 8.009334e-02 9.506801e-02 1.160944e-01 1.223486e-01 1.302093e-01 1.233815e-01 1.160121e-01 1.050022e-01 2.610638e-03
<GCONST> 4.834790e+01
<STATE> 3
<MEAN> 39
 -7.488741e-01 -1.554406e-01 -1.275125e-01 8.419597e-01 4.267155e-01 9.619832e-01 5.618925e-01 8.275584e-01 1.826283e-01 5.357522e-01 1.840631e-01 5.721763e-01 2.316940e+00 8.734165e-02 1.534083e-02 1.337656e-03 -5.098634e-02 -6.816706e-02 -9.480610e-02 -1.042258e-01 -1.179644e-01 -1.133760e-01 -9.476297e-02 -8.976379e-02 -6.352859e-02 -3.028776e-03 3.830667e-02 1.441034e-02 -6.644051e-03 -4.759784e-02 -3.985905e-02 -6.796274e-02 -5.854219e-02 -4.441890e-02 -2.977102e-02 -3.054483e-02 -2.367392e-02 -3.380895e-02 -8.249794e-03
<VARIANCE> 39
 3.146465e+00 2.889394e+00 4.935379e+00 8.246939e+00 9.605470e+00 1.246303e+01 1.384961e+01 1.536064e+01 1.503115e+01 1.507436e+01 1.393926e+01 1.295753e+01 2.491297e+01 8.092202e-02 1.367575e-01 2.369723e-01 3.453666e-01 4.376651e-01 5.245548e-01 6.004543e-01 6.917504e-01 7.135873e-01 6.743950e-01 6.138557e-01 5.854228e-01 1.560340e-02 1.619658e-02 2.626838e-02 4.686696e-02 6.664988e-02 8.713679e-02 1.038748e-01 1.186966e-01 1.297148e-01 1.329211e-01 1.297609e-01 1.219428e-01 1.087081e-01 3.557644e-03
<GCONST> 4.986736e+01
<STATE> 4
<MEAN> 39
 5.252335e-01 -7.374278e-01 6.318971e-01 8.102529e-01 2.265200e-01 8.930264e-01 2.838035e-01 -3.042614e-01 -3.829968e-01 -8.755125e-02 -2.232869e-01 2.366006e-04 1.831583e+00 2.154712e-01 1.978276e-02 5.445524e-02 -1.622092e-01 -9.400491e-02 -2.048352e-01 -1.255428e-01 -2.495954e-01 -1.284041e-01 -1.667897e-01 -6.792073e-02 -1.432204e-01 -3.964084e-01 -3.374822e-03 1.582595e-02 -1.068167e-02 -2.818908e-02 -9.817899e-03 -3.656269e-02 -1.620219e-02 -1.526411e-03 1.272585e-02 2.412483e-03 1.186911e-02 -9.707069e-03 -2.758765e-02
<VARIANCE> 39
 1.117313e+01 9.891096e+00 1.312369e+01 1.400855e+01 1.449449e+01 1.989179e+01 1.868073e+01 2.553129e+01 2.060931e+01 2.078823e+01 1.736131e+01 1.591516e+01 4.140067e+01 3.985973e-01 4.890280e-01 6.465871e-01 6.632683e-01 6.909161e-01 9.128618e-01 8.256787e-01 1.098153e+00 9.346882e-01 8.687454e-01 8.018338e-01 7.056329e-01 6.664224e-01 5.878863e-02 7.175295e-02 1.080275e-01 1.130214e-01 1.270876e-01 1.563334e-01 1.490739e-01 1.904846e-01 1.671896e-01 1.566127e-01 1.466188e-01 1.284314e-01 5.737742e-02
<GCONST> 7.678165e+01
<TRANSP> 5
 0.000000e+00 1.000000e+00 0.000000e+00 0.000000e+00 0.000000e+00
 0.000000e+00 6.789541e-01 3.210459e-01 0.000000e+00 0.000000e+00
 0.000000e+00 0.000000e+00 2.006083e-01 7.993917e-01 0.000000e+00
 0.000000e+00 0.000000e+00 0.000000e+00 3.963693e-01 6.036306e-01
 0.000000e+00 0.000000e+00 0.000000e+00 0.000000e+00 0.000000e+00
<ENDHMM>
~h "s"
<BEGINHMM>
<NUMSTATES> 5
<STATE> 2
<MEAN> 39
 3.075033e-01 8.053519e-03 -3.489555e-01 -8.925663e-01 -7.330182e-01 -7.747963e-01 -4.783265e-01 -5.344276e-01 -2.711887e-01 -5.233508e-01 -2.535235e-01 -3.396005e-01 -2.856674e+00 -4.406028e-03 -2.948780e-02 -7.247942e-02 -8.440054e-02 -1.775515e-02 -5.538119e-02 3.018801e-02 4.141667e-02 4.873369e-02 -1.235376e-02 5.369923e-02 2.308425e-02 -2.852977e-02 -2.829452e-02 -1.714022e-02 1.454750e-02 2.227465e-02 4.837963e-02 4.890702e-02 5.479394e-02 5.092024e-02 6.363017e-02 4.421083e-02 4.170217e-02 1.977262e-02 5.661694e-02
<VARIANCE> 39
 5.497127e+00 4.443484e+00 6.071105e+00 1.229666e+01 1.185778e+01 1.496776e+01 1.495822e+01 1.656507e+01 1.619898e+01 1.655223e+01 1.436169e+01 1.370292e+01 6.814250e+01 2.093373e-01 2.685246e-01 3.261820e-01 5.966816e-01 5.775415e-01 7.245305e-01 6.924362e-01 7.926381e-01 7.695634e-01 8.410192e-01 6.922366e-01 6.553776e-01 4.704190e-01 3.886823e-02 4.583773e-02 5.766837e-02 1.113358e-01 1.064360e-01 1.326751e-01 1.319860e-01 1.455963e-01 1.420966e-01 1.522174e-01 1.235495e-01 1.195622e-01 9.235388e-02
<GCONST> 6.698504e+01
<STATE> 3
<MEAN> 39
 -8.830083e-02 -6.202614e-01 -6.541589e-01 -2.451779e+00 -9.212573e-01 -1.900339e+00 -7.054848e-01 -1.089264e+00 2.080977e-01 -1.435358e+00 1.326648e-01 -1.217438e+00 -3.198290e+00 -1.901820e-01 -6.998790e-02 -1.005311e-01 -1.227796e-02 2.386355e-02 2.188143e-02 7.301254e-02 7.658821e-02 1.360902e-01 3.036527e-02 8.142540e-02 3.080415e-02 3.193576e-01 -2.753179e-02 2.045288e-02 1.491758e-02 1.043064e-01 3.910774e-02 9.197207e-02 4.675579e-02 6.143333e-02 1.721305e-02 6.580715e-02 9.180802e-03 5.111054e-02 6.889458e-02
<VARIANCE> 39
 1.030126e+01 1.033958e+01 1.031724e+01 1.878363e+01 1.581376e+01 2.003444e+01 1.770678e+01 2.003898e+01 1.965195e+01 2.199562e+01 1.825815e+01 1.675945e+01 4.360472e+01 4.653034e-01 4.838633e-01 4.692090e-01 8.326086e-01 6.823881e-01 8.971360e-01 8.051260e-01 8.992225e-01 8.125318e-01 9.156269e-01 7.675624e-01 7.129312e-01 1.717465e+00 7.326456e-02 8.268871e-02 8.545931e-02 1.433309e-01 1.269954e-01 1.560326e-01 1.471860e-01 1.645742e-01 1.541272e-01 1.684801e-01 1.453736e-01 1.314125e-01 1.652940e-01
<GCONST> 7.864832e+01
<STATE> 4
<MEAN> 39
 -1.733187e+00 -3.257965e-01 -1.098448e+00 -1.265441e-01 -2.159077e-01 2.401716e-01 3.933492e-01 4.479371e-01 7.654708e-01 2.474419e-01 2.590912e-01 2.717946e-01 2.656431e+00 -2.730436e-02 3.518232e-02 7.230638e-02 3.657614e-01 1.672025e-01 2.889077e-01 1.443916e-01 2.625489e-01 -1.751235e-02 2.171916e-01 4.018017e-02 2.210387e-01 4.925545e-01 2.205284e-02 1.199077e-03 2.937827e-02 -1.329538e-02 7.021462e-03 -2.263756e-02 -1.827938e-02 -3.301272e-02 -1.931903e-02 -2.212223e-02 -9.897603e-03 -3.256230e-02 -5.517896e-02
<VARIANCE> 39
 9.301926e+00 6.842303e+00 1.006444e+01 1.529434e+01 1.368940e+01 1.739382e+01 1.634817e+01 1.911579e+01 1.895768e+01 2.198805e+01 1.751744e+01 1.580906e+01 2.871989e+01 4.086310e-01 3.225071e-01 4.256991e-01 7.515809e-01 5.884658e-01 8.058336e-01 7.170748e-01 8.454929e-01 8.409144e-01 1.001776e+00 7.356167e-01 7.121364e-01 8.289524e-01 6.324591e-02 5.331300e-02 7.493330e-02 1.214698e-01 1.063039e-01 1.384085e-01 1.301463e-01 1.546261e-01 1.522983e-01 1.792040e-01 1.375603e-01 1.307526e-01 9.571353e-02
<GCONST> 7.319812e+01
<TRANSP> 5
 0.000000e+00 1.000000e+00 0.000000e+00 0.000000e+00 0.000000e+00
 0.000000e+00 2.287243e-01 7.712757e-01 0.000000e+00 0.000000e+00
 0.000000e+00 0.000000e+00 4.897617e-01 5.102383e-01 0.000000e+00
 0.000000e+00 0.000000e+00 0.000000e+00 5.322749e-01 4.677251e-01
 0.000000e+00 0.000000e+00 0.000000e+00 0.000000e+00 0.000000e+00
<ENDHMM>
~h "t"
<BEGINHMM>
<NUMSTATES> 5
<STATE> 2
<MEAN> 39
 2.582437e-01 7.129294e-01 -5.634599e-02 -3.594741e-01 -6.049884e-01 -6.557443e-01 -1.093302e-01 9.643036e-02 5.498376e-02 -1.137400e-01 1.044969e-01 9.243058e-02 -3.223204e+00 -8.405320e-02 1.823056e-03 -9.125547e-03 2.997771e-02 4.176242e-02 3.536052e-02 -1.125088e-02 3.901405e-02 3.228332e-02 4.469680e-02 3.821539e-02 2.409312e-02 5.345811e-01 -9.641384e-03 -3.366318e-03 1.050934e-02 -1.156565e-03 2.312922e-02 1.572330e-02 -6.755256e-04 7.941681e-04 6.622430e-03 -1.584558e-03 -6.071595e-03 -7.833191e-03 9.036189e-02
<VARIANCE> 39
 1.303696e+01 1.130018e+01 1.141076e+01 1.556706e+01 1.551377e+01 2.078781e+01 1.764780e+01 2.030548e+01 1.894952e+01 1.896104e+01 1.632423e+01 1.506389e+01 1.570850e+02 9.078676e-01 6.702555e-01 6.710913e-01 7.867368e-01 7.752407e-01 1.081060e+00 8.572324e-01 1.007360e+00 9.324563e-01 9.389208e-01 8.079988e-01 7.368019e-01 7.943324e+00 1.366251e-01 1.188933e-01 1.213178e-01 1.323314e-01 1.400114e-01 1.954737e-01 1.592985e-01 1.791090e-01 1.716572e-01 1.659268e-01 1.467674e-01 1.329962e-01 9.908327e-01
<GCONST> 8.700401e+01
<STATE> 3
<MEAN> 39
 9.187921e-01 1.548130e-01 4.873808e-01 -1.569796e+00 2.292138e-01 -8.919268e-01 -6.783783e-01 -7.100285e-01 2.864831e-01 -4.482957e-01 6.379490e-02 -7.964046e-01 5.558501e-01 1.723237e-02 -4.823726e-02 4.814374e-02 1.008604e-01 1.192744e-01 9.528758e-02 2.089922e-02 -3.854938e-02 -3.935638e-02 3.349566e-03 -5.846104e-03 -1.544877e-02 -4.517292e-02 -2.388769e-02 -2.943293e-03 -1.590838e-02 8.383340e-02 -8.364812e-03 5.465149e-02 3.465769e-02 3.363379e-02 -2.269346e-02 1.863620e-02 -7.267054e-03 4.311017e-02 -8.137877e-02
<VARIANCE> 39
 1.772153e+01 1.044213e+01 1.430990e+01 2.607343e+01 2.157304e+01 2.589448e+01 2.324408e+01 2.685651e+01 2.424831e+01 2.584100e+01 2.239032e+01 2.072228e+01 3.885529e+01 6.385039e-01 5.206354e-01 6.484329e-01 1.323521e+00 1.020265e+00 1.239591e+00 1.097077e+00 1.190015e+00 1.111605e+00 1.149039e+00 1.024356e+00 9.764987e-01 1.551541e+00 1.026576e-01 8.819594e-02 1.181154e-01 2.156000e-01 1.734883e-01 2.094000e-01 1.892944e-01 2.090541e-01 2.002451e-01 2.116589e-01 1.916358e-01 1.774827e-01 2.416630e-01
<GCONST> 8.887122e+01
<STATE> 4
<MEAN> 39
 -1.958572e-01 -3.990818e-01 -2.087635e-02 3.788775e-01 6.317763e-01 6.035764e-01 2.720917e-02 1.455220e-01 1.734260e-02 3.446733e-01 1.361283e-01 1.856776e-01 2.863674e+00 -1.675934e-02 -2.092495e-02 -5.309895e-03 1.483438e-01 5.246162e-02 9.545642e-02 5.561838e-02 4.263338e-02 -3.501281e-02 1.319381e-02 -1.852437e-02 4.120335e-02 -9.119253e-02 1.345587e-02 1.201382e-02 2.902757e-03 -2.898446e-02 -2.185546e-02 -2.526824e-02 1.111955e-03 -4.533746e-03 3.676057e-03 -2.033398e-02 -8.175462e-03 -1.185607e-02 -4.583060e-02
<VARIANCE> 39
 1.357976e+01 6.461857e+00 8.224569e+00 1.482016e+01 1.417696e+01 1.992130e+01 1.896296e+01 2.321603e+01 1.974298e+01 2.034884e+01 1.690735e+01 1.614316e+01 5.876863e+01 3.693400e-01 2.954787e-01 3.731497e-01 6.643704e-01 6.825773e-01 8.972911e-01 8.392759e-01 9.507673e-01 8.860410e-01 8.820683e-01 7.692988e-01 7.107964e-01 5.369661e-01 5.129734e-02 4.807795e-02 6.383307e-02 1.117941e-01 1.203611e-01 1.547131e-01 1.498729e-01 1.703365e-01 1.607643e-01 1.631664e-01 1.411881e-01 1.290100e-01 7.013286e-02
<GCONST> 7.366373e+01
<TRANSP> 5
 0.000000e+00 1.000000e+00 0.000000e+00 0.000000e+00 0.000000e+00
 0.000000e+00 6.922004e-01 3.077997e-01 0.000000e+00 0.000000e+00
 0.000000e+00 0.000000e+00 4.596569e-01 5.403432e-01 0.000000e+00
 0.000000e+00 0.000000e+00 0.000000e+00 5.086442e-01 4.913558e-01
 0.000000e+00 0.000000e+00 0.000000e+00 0.000000e+00 0.000000e+00
<ENDHMM>
~h "v"
<BEGINHMM>
<NUMSTATES> 5
<STATE> 2
<MEAN> 39
 -6.358367e-01 -1.994897e-02 -7.973136e-02 7.266759e-01 2.425067e-01 4.846503e-01 7.822812e-02 5.702717e-01 6.254355e-02 3.618453e-01 -5.770637e-02 2.860833e-01 2.279899e+00 1.018576e-01 1.498064e-02 3.264383e-03 -9.273393e-02 -9.779654e-02 -9.236738e-02 -8.715175e-02 -1.372519e-01 -1.145142e-01 -1.050915e-01 -9.569349e-02 -8.206937e-02 3.602069e-03 2.435865e-02 -1.243488e-02 -2.097313e-02 -2.902214e-02 -8.588701e-03 2.194801e-03 1.501675e-02 6.095025e-03 4.001181e-03 -1.017233e-02 3.915912e-03 9.643346e-03 -5.666752e-03
<VARIANCE> 39
 2.998211e+00 3.028708e+00 5.218652e+00 8.964011e+00 9.871699e+00 1.299115e+01 1.352010e+01 1.532210e+01 1.542464e+01 1.571722e+01 1.463759e+01 1.343450e+01 2.097838e+01 9.319708e-02 1.322740e-01 2.232700e-01 3.398077e-01 4.446718e-01 5.398087e-01 5.942984e-01 6.568371e-01 7.078590e-01 6.864957e-01 6.468209e-01 5.658760e-01 1.750187e-02 1.760562e-02 2.402623e-02 4.201406e-02 6.289153e-02 8.091490e-02 1.014710e-01 1.108534e-01 1.177561e-01 1.307995e-01 1.277144e-01 1.227219e-01 1.084257e-01 3.546172e-03
<GCONST> 4.971865e+01
<STATE> 3
<MEAN> 39
 -4.176862e-01 1.208724e-02 -1.487305e-01 5.414935e-01 8.587608e-02 3.827507e-01 6.985309e-02 2.985435e-01 -1.940600e-01 1.812691e-01 -1.755807e-01 1.870298e-01 2.282324e+00 1.263270e-01 -1.681278e-02 -3.653233e-02 -1.184547e-01 -8.333348e-02 -5.407572e-02 -2.084459e-02 -7.860470e-02 -6.713274e-02 -8.889572e-02 -5.427254e-02 -3.710503e-02 -1.087197e-02 8.542014e-03 -1.010731e-02 -4.470948e-03 8.897033e-03 3.531730e-02 3.676485e-02 4.014539e-02 4.259043e-02 3.617919e-02 2.476295e-02 3.250691e-02 2.574548e-02 -1.890130e-02
<VARIANCE> 39
 2.991038e+00 3.068468e+00 5.023286e+00 8.589109e+00 9.559960e+00 1.268573e+01 1.376869e+01 1.534427e+01 1.558594e+01 1.578624e+01 1.443757e+01 1.315378e+01 2.110988e+01 1.281644e-01 1.361482e-01 2.304373e-01 3.508257e-01 4.484212e-01 5.494820e-01 6.071761e-01 6.757583e-01 7.193538e-01 7.081401e-01 6.510891e-01 5.829629e-01 2.458511e-02 2.439055e-02 2.703565e-02 4.555318e-02 6.714832e-02 8.161671e-02 1.025651e-01 1.138621e-01 1.247814e-01 1.337608e-01 1.322370e-01 1.234892e-01 1.116922e-01 6.826644e-03
<GCONST> 5.195113e+01
<STATE> 4
<MEAN> 39
 2.842374e-01 -2.617262e-01 3.143530e-01 -1.694168e-01 2.581892e-01 4.114592e-01 1.091861e-01 -6.233245e-01 -7.852233e-02 -8.793528e-02 -3.376567e-01 -2.700716e-01 2.147991e+00 8.857340e-02 -4.903445e-02 2.909057e-02 -9.609018e-02 -1.274874e-02 -3.508774e-02 3.396972e-03 -9.080262e-02 7.078565e-03 -2.383875e-02 -9.004259e-03 -3.898699e-02 -2.265082e-01 -3.314152e-02 -4.445088e-03 4.913148e-04 2.334971e-02 1.568970e-02 1.234513e-02 9.993874e-03 2.784091e-02 2.409165e-02 2.216932e-02 2.070844e-02 1.451473e-02 -1.010087e-02
<VARIANCE> 39
 9.621361e+00 7.590129e+00 1.086448e+01 1.755714e+01 1.442520e+01 1.869762e+01 1.753316e+01 2.379835e+01 2.084139e+01 2.015529e+01 1.671007e+01 1.615478e+01 3.581451e+01 5.239879e-01 3.896444e-01 5.490546e-01 8.113731e-01 6.479090e-01 8.400851e-01 7.796101e-01 9.916131e-01 9.118806e-01 9.174804e-01 7.411956e-01 7.273591e-01 7.560459e-01 8.560634e-02 6.716502e-02 9.748200e-02 1.296057e-01 1.139536e-01 1.459304e-01 1.440437e-01 1.643776e-01 1.664698e-01 1.662378e-01 1.389542e-01 1.298627e-01 8.287407e-02
<GCONST> 7.626584e+01
<TRANSP> 5
 0.000000e+00 1.000000e+00 0.000000e+00 0.000000e+00 0.000000e+00
 0.000000e+00 1.199568e-01 8.800433e-01 0.000000e+00 0.000000e+00
 0.000000e+00 0.000000e+00 1.148276e-01 8.851725e-01 0.000000e+00
 0.000000e+00 0.000000e+00 0.000000e+00 5.632486e-01 4.367513e-01
 0.000000e+00 0.000000e+00 0.000000e+00 0.000000e+00 0.000000e+00
<ENDHMM>
~h "w"
<BEGINHMM>
<NUMSTATES> 5
<STATE> 2
<MEAN> 39
 -8.266620e-01 -2.736313e-01 -1.002447e-01 1.207004e+00 8.873901e-01 1.342854e+00 9.168638e-01 1.099555e+00 3.710172e-01 5.662474e-01 1.920834e-01 4.294758e-01 2.539411e+00 -1.522387e-01 -1.553271e-02 3.812464e-02 1.753351e-01 2.040227e-01 2.373307e-01 2.039210e-01 1.458575e-01 1.309603e-01 1.255890e-01 6.967997e-02 7.267289e-02 2.413852e-02 4.545135e-02 1.083634e-02 -1.005688e-02 -8.365013e-02 -8.881798e-02 -1.048246e-01 -9.481885e-02 -7.420710e-02 -3.009059e-02 -2.475020e-02 -1.454051e-02 -1.905382e-02 -3.834422e-02
<VARIANCE> 39
 3.053166e+00 2.638965e+00 4.442827e+00 7.557642e+00 9.063107e+00 1.215230e+01 1.387874e+01 1.511170e+01 1.508871e+01 1.586578e+01 1.359122e+01 1.231262e+01 1.891710e+01 1.097110e-01 1.269806e-01 2.182689e-01 3.406667e-01 4.156882e-01 5.446984e-01 5.918196e-01 6.541945e-01 6.773421e-01 6.589878e-01 6.396997e-01 5.296351e-01 1.893217e-02 2.310007e-02 2.489416e-02 4.327200e-02 7.132117e-02 8.065344e-02 1.057385e-01 1.182805e-01 1.268110e-01 1.359913e-01 1.304265e-01 1.143790e-01 1.020482e-01 8.379648e-03
<GCONST> 5.023021e+01
<STATE> 3
<MEAN> 39
 -6.059953e-01 -2.784280e-02 7.609235e-02 8.316824e-01 6.144726e-01 9.321138e-01 6.162220e-01 5.821052e-01 1.681460e-01 3.749019e-01 1.196905e-01 3.043704e-01 1.523978e+00 -5.269510e-02 -5.061108e-03 -1.306557e-02 1.144388e-03 -2.570442e-02 -1.492976e-02 -2.314932e-02 1.111553e-02 4.550641e-02 5.158789e-02 4.345053e-02 3.609385e-02 -2.398175e-03 2.487862e-02 1.310026e-03 -2.290915e-02 -5.057396e-02 -7.059833e-02 -7.508971e-02 -7.020012e-02 -4.324339e-02 -3.361559e-02 -3.094639e-02 -1.372618e-02 -1.108405e-02 -5.214717e-03
<VARIANCE> 39
 2.316681e+00 2.505990e+00 4.342754e+00 7.466892e+00 9.074517e+00 1.184194e+01 1.354157e+01 1.455557e+01 1.489655e+01 1.479489e+01 1.377375e+01 1.192077e+01 1.253433e+01 5.651645e-02 1.080611e-01 1.947383e-01 2.829488e-01 3.643032e-01 4.826093e-01 5.804164e-01 5.932466e-01 6.383281e-01 6.159469e-01 5.819985e-01 5.048270e-01 9.512438e-03 1.135470e-02 1.857462e-02 3.310927e-02 5.242655e-02 6.866871e-02 9.362672e-02 1.071593e-01 1.099217e-01 1.177536e-01 1.140347e-01 1.089982e-01 8.983635e-02 2.043178e-03
<GCONST> 4.284741e+01
<STATE> 4
<MEAN> 39
 -2.300975e+00 -3.964688e-01 -7.101331e-01 1.564370e+00 5.742954e-01 1.582197e+00 5.893710e-01 1.678350e+00 3.854300e-01 1.108433e+00 3.066206e-01 1.037093e+00 6.855254e+00 5.673705e-03 -6.538322e-03 -1.613979e-02 -1.643014e-02 -2.151784e-02 -2.068235e-02 -2.294456e-02 -1.292063e-02 -3.576202e-03 -1.062693e-02 -4.778290e-03 1.398270e-03 -4.529217e-04 1.152197e-02 -3.357590e-03 5.585871e-04 -1.475840e-03 1.129617e-03 -1.275576e-03 3.870796e-03 -9.444690e-04 -5.153682e-03 -6.529960e-03 -5.890417e-03 -6.056091e-03 6.110885e-04
<VARIANCE> 39
 2.961500e+00 3.147166e+00 5.138322e+00 8.277263e+00 1.023167e+01 1.300217e+01 1.413188e+01 1.579725e+01 1.523453e+01 1.522040e+01 1.426756e+01 1.313799e+01 2.286550e+01 5.352327e-02 1.130997e-01 1.935403e-01 3.074952e-01 4.237856e-01 5.203460e-01 5.704048e-01 6.196740e-01 6.421246e-01 6.274509e-01 6.057528e-01 5.612615e-01 8.993019e-03 9.610541e-03 2.141300e-02 3.646621e-02 5.851094e-02 8.072452e-02 9.882148e-02 1.086734e-01 1.193946e-01 1.211367e-01 1.175402e-01 1.151831e-01 1.072429e-01 1.589342e-03
<GCONST> 4.568359e+01
<TRANSP> 5
 0.000000e+00 1.000000e+00 0.000000e+00 0.000000e+00 0.000000e+00
 0.000000e+00 2.289874e-01 7.710126e-01 0.000000e+00 0.000000e+00
 0.000000e+00 0.000000e+00 4.852302e-01 5.147698e-01 0.000000e+00
 0.000000e+00 0.000000e+00 0.000000e+00 8.407948e-01 1.592051e-01
 0.000000e+00 0.000000e+00 0.000000e+00 0.000000e+00 0.000000e+00
<ENDHMM>
~h "z"
<BEGINHMM>
<NUMSTATES> 5
<STATE> 2
<MEAN> 39
 6.243148e-02 -1.111441e-01 -5.350042e-01 -7.830887e-01 -1.019439e+00 -7.040067e-01 -4.411505e-01 -2.248801e-01 -3.071447e-01 -3.421175e-01 -3.821367e-01 -1.519264e-01 -5.764406e-01 4.736304e-02 5.858652e-02 5.643096e-02 7.506666e-02 6.375888e-02 9.762870e-02 6.699824e-02 3.020238e-02 5.141666e-03 7.868459e-03 6.587307e-03 2.782869e-02 1.680616e-02 2.689428e-03 2.556939e-02 5.108548e-02 1.017010e-01 1.242472e-01 1.143739e-01 8.256897e-02 4.694235e-02 3.760424e-02 4.268030e-02 4.547024e-02 2.256528e-02 5.422877e-03
<VARIANCE> 39
 3.073905e+00 3.504554e+00 4.957022e+00 9.980432e+00 1.051133e+01 1.263938e+01 1.375072e+01 1.572543e+01 1.572285e+01 1.600930e+01 1.482141e+01 1.314407e+01 5.115591e+01 1.682501e-01 1.989837e-01 2.817673e-01 3.963411e-01 4.641857e-01 5.650074e-01 6.531357e-01 7.311546e-01 7.356204e-01 7.408527e-01 7.116362e-01 5.842428e-01 6.490228e-02 3.346485e-02 5.205179e-02 5.863999e-02 8.505587e-02 9.367631e-02 1.153166e-01 1.377634e-01 1.579699e-01 1.503474e-01 1.543947e-01 1.478407e-01 1.238651e-01 3.539687e-02
<GCONST> 5.995706e+01
<STATE> 3
<MEAN> 39
 9.500812e-01 1.441399e+00 8.113657e-01 -3.816643e-01 -4.663917e-01 -6.481736e-01 -5.077274e-01 -1.211250e+00 -3.537924e-01 -1.071293e+00 -2.585202e-01 -8.276051e-01 -2.378567e+00 -9.752408e-02 2.561886e-03 8.610548e-03 1.667706e-01 1.374595e-01 1.539538e-01 6.853340e-02 1.103641e-01 1.533945e-02 8.474833e-02 5.121930e-02 6.991612e-02 6.384198e-01 -5.387883e-02 -4.921373e-02 -3.107734e-02 1.156844e-02 1.586039e-02 2.809835e-02 3.025782e-02 4.957131e-02 2.473861e-02 4.016682e-02 1.804534e-02 3.079975e-02 4.356763e-02
<VARIANCE> 39
 1.402898e+01 1.980299e+01 1.641928e+01 2.209481e+01 2.048623e+01 2.222764e+01 2.166591e+01 2.655313e+01 2.273767e+01 2.668258e+01 2.024587e+01 1.917232e+01 9.030743e+01 8.628002e-01 1.233917e+00 1.003490e+00 1.051260e+00 1.005487e+00 1.111886e+00 1.027992e+00 1.406449e+00 1.110938e+00 1.340241e+00 1.007992e+00 1.013532e+00 3.694032e+00 1.313920e-01 1.965631e-01 1.692057e-01 1.744111e-01 1.754708e-01 1.915557e-01 1.824979e-01 2.315899e-01 1.960679e-01 2.276644e-01 1.826110e-01 1.727893e-01 4.292471e-01
<GCONST> 9.372210e+01
<STATE> 4
<MEAN> 39
 -5.511256e-01 -1.161866e-01 -1.794944e-01 7.750852e-01 3.570563e-01 9.311476e-01 6.373357e-01 9.349717e-01 2.640278e-01 5.784697e-01 1.229370e-01 5.759279e-01 2.841329e+00 -2.115637e-01 -1.106600e-01 -2.495890e-02 1.986249e-01 2.375667e-01 2.849448e-01 2.591106e-01 2.783737e-01 1.550069e-01 1.993448e-01 1.534860e-01 1.599765e-01 1.333503e-01 2.990120e-02 4.243018e-02 1.478253e-02 -3.629398e-02 -1.803309e-02 -5.067066e-02 -4.457917e-02 -5.843566e-02 -7.064883e-03 -4.163468e-02 2.920358e-04 -4.500471e-02 -9.604741e-02
<VARIANCE> 39
 2.889626e+00 2.984537e+00 5.074368e+00 7.723063e+00 8.786862e+00 1.125733e+01 1.352222e+01 1.467228e+01 1.499465e+01 1.678997e+01 1.547420e+01 1.281769e+01 1.866747e+01 1.828285e-01 2.340823e-01 2.696309e-01 4.480678e-01 5.245971e-01 6.104168e-01 7.174007e-01 7.830978e-01 7.749293e-01 8.480455e-01 7.783324e-01 6.480882e-01 8.815964e-02 2.815436e-02 5.091568e-02 5.886877e-02 8.011636e-02 9.119263e-02 1.103292e-01 1.294230e-01 1.417485e-01 1.355235e-01 1.630739e-01 1.415024e-01 1.262344e-01 4.099413e-02
<GCONST> 5.908379e+01
<TRANSP> 5
 0.000000e+00 1.000000e+00 0.000000e+00 0.000000e+00 0.000000e+00
 0.000000e+00 9.808353e-02 9.019165e-01 0.000000e+00 0.000000e+00
 0.000000e+00 0.000000e+00 7.437572e-01 2.562428e-01 0.000000e+00
 0.000000e+00 0.000000e+00 0.000000e+00 1.740606e-01 8.259393e-01
 0.000000e+00 0.000000e+00 0.000000e+00 0.000000e+00 0.000000e+00
<ENDHMM>
~h "ah"
<BEGINHMM>
<NUMSTATES> 5
<STATE> 2
<MEAN> 39
 -1.229743e+00 -1.473923e-01 -2.950861e-01 1.294400e+00 4.684334e-01 1.124540e+00 3.333773e-01 1.086422e+00 3.079078e-01 7.681346e-01 1.676432e-01 7.877603e-01 3.841115e+00 3.739675e-03 -3.444479e-02 -1.528533e-02 1.037423e-02 2.022468e-02 3.553445e-02 4.906972e-02 6.877168e-02 4.501116e-02 2.597797e-02 2.273516e-02 1.780823e-02 -2.136820e-04 1.523974e-02 9.136807e-03 1.517982e-02 6.405341e-03 7.948386e-03 2.128313e-03 -1.984665e-03 -1.916989e-02 -2.406982e-02 -1.989574e-02 -1.482259e-02 -1.546732e-02 -2.279751e-03
<VARIANCE> 39
 2.695067e+00 3.066302e+00 5.096155e+00 8.434587e+00 9.471002e+00 1.226411e+01 1.330402e+01 1.571484e+01 1.594869e+01 1.589733e+01 1.454803e+01 1.322207e+01 2.081156e+01 8.331463e-02 1.198029e-01 2.049257e-01 3.032966e-01 3.871272e-01 4.950112e-01 5.798131e-01 6.698326e-01 7.140933e-01 6.997777e-01 6.364279e-01 5.792680e-01 1.180186e-02 1.502005e-02 2.325072e-02 4.011687e-02 5.842953e-02 7.310406e-02 9.321883e-02 1.085120e-01 1.316594e-01 1.404509e-01 1.364627e-01 1.250471e-01 1.122682e-01 2.245476e-03
<GCONST> 4.779148e+01
<STATE> 3
<MEAN> 39
 -8.477230e-01 -6.506416e-01 -6.275619e-01 6.507159e-01 3.516081e-01 1.081330e+00 9.203880e-01 1.447245e+00 7.589214e-01 9.186245e-01 4.273042e-01 7.078818e-01 2.749294e+00 8.840983e-02 2.229389e-02 6.685217e-02 4.041474e-02 4.946247e-02 3.038383e-02 3.161411e-03 -5.913493e-02 -1.057824e-01 -9.158061e-02 -7.533623e-02 -6.914916e-02 -6.294596e-03 5.843862e-02 6.110036e-02 5.785907e-02 -3.245954e-03 -1.662536e-02 -6.512950e-02 -9.062333e-02 -1.176335e-01 -1.028450e-01 -7.109033e-02 -5.348056e-02 -4.998062e-02 -5.748002e-03
<VARIANCE> 39
 2.753966e+00 3.178857e+00 5.428870e+00 8.582608e+00 1.005950e+01 1.324740e+01 1.465288e+01 1.654299e+01 1.632736e+01 1.550039e+01 1.426209e+01 1.347766e+01 2.047167e+01 9.044495e-02 1.386231e-01 2.392596e-01 3.338369e-01 4.363309e-01 5.516551e-01 6.476133e-01 7.280502e-01 7.354743e-01 6.708069e-01 6.455044e-01 5.909336e-01 1.466469e-02 1.791634e-02 2.548882e-02 4.564007e-02 6.454919e-02 8.676726e-02 1.104581e-01 1.268157e-01 1.385341e-01 1.397520e-01 1.309101e-01 1.178907e-01 1.141078e-01 3.626038e-03
<GCONST> 5.077009e+01
<STATE> 4
<MEAN> 39
 -6.797671e-01 -4.975146e-01 -3.414876e-01 1.145301e+00 7.358519e-01 1.407112e+00 8.311692e-01 1.256089e+00 1.653237e-01 5.445365e-01 5.770322e-02 5.828339e-01 3.713933e+00 1.932500e-01 1.080148e-01 1.342521e-01 1.191103e-02 -3.380890e-03 -9.505357e-02 -1.305338e-01 -2.151126e-01 -2.302906e-01 -1.892301e-01 -1.353547e-01 -1.178984e-01 -3.180290e-02 5.056391e-02 3.989624e-02 2.051908e-02 -4.453315e-02 -4.314396e-02 -8.113971e-02 -7.520494e-02 -8.269925e-02 -4.815116e-02 -3.829400e-02 -2.308143e-02 -2.931250e-02 -2.819841e-02
<VARIANCE> 39
 3.492340e+00 3.572853e+00 5.714666e+00 8.777062e+00 1.027915e+01 1.371504e+01 1.482211e+01 1.672533e+01 1.694996e+01 1.602312e+01 1.454723e+01 1.376323e+01 2.759892e+01 1.524901e-01 1.648963e-01 2.646338e-01 3.869592e-01 5.026451e-01 6.108010e-01 7.136030e-01 7.979282e-01 7.961783e-01 7.564167e-01 7.266478e-01 6.494203e-01 2.837855e-02 2.758823e-02 3.066732e-02 4.814115e-02 7.356847e-02 8.973737e-02 1.179666e-01 1.321868e-01 1.423107e-01 1.458613e-01 1.352414e-01 1.270283e-01 1.167564e-01 8.624439e-03
<GCONST> 5.614376e+01
<TRANSP> 5
 0.000000e+00 1.000000e+00 0.000000e+00 0.000000e+00 0.000000e+00
 0.000000e+00 7.052603e-01 2.947397e-01 0.000000e+00 0.000000e+00
 0.000000e+00 0.000000e+00 2.483114e-01 7.516886e-01 0.000000e+00
 0.000000e+00 0.000000e+00 0.000000e+00 2.357301e-01 7.642699e-01
 0.000000e+00 0.000000e+00 0.000000e+00 0.000000e+00 0.000000e+00
<ENDHMM>
~h "ao"
<BEGINHMM>
<NUMSTATES> 5
<STATE> 2
<MEAN> 39
 -6.771775e-01 -1.777139e-01 -3.440200e-01 5.191715e-01 2.926057e-01 6.887853e-01 3.675720e-01 9.397289e-01 3.122900e-01 6.547116e-01 3.439570e-01 5.946046e-01 1.991668e+00 -8.345929e-02 7.985765e-03 6.268920e-02 2.320398e-01 2.538537e-01 2.895446e-01 2.098647e-01 1.826575e-01 1.617803e-01 1.191882e-01 6.423316e-02 8.443446e-02 9.728292e-03 5.513015e-02 1.803198e-02 2.348723e-02 -3.078054e-02 -3.745637e-02 -7.242606e-02 -4.444841e-02 -6.818472e-02 -4.202743e-02 -4.433248e-02 -3.465653e-02 -4.834392e-02 -3.433039e-02
<VARIANCE> 39
 3.159063e+00 2.974397e+00 5.334245e+00 8.054877e+00 9.619194e+00 1.299676e+01 1.366957e+01 1.528552e+01 1.604444e+01 1.558423e+01 1.434471e+01 1.374770e+01 2.649479e+01 8.419327e-02 1.434986e-01 2.525211e-01 3.673834e-01 4.203115e-01 5.415758e-01 5.998902e-01 6.541249e-01 6.777363e-01 6.635470e-01 5.954852e-01 5.711020e-01 1.796306e-02 1.825015e-02 2.489915e-02 4.485721e-02 6.647822e-02 7.647799e-02 9.910671e-02 1.052668e-01 1.178617e-01 1.346290e-01 1.304412e-01 1.156144e-01 1.087474e-01 7.972607e-03
<GCONST> 5.079147e+01
<STATE> 3
<MEAN> 39
 -6.670164e-01 -2.302032e-02 -1.326528e-01 8.736067e-01 5.730122e-01 9.079674e-01 4.835045e-01 7.918180e-01 3.569020e-01 5.767910e-01 1.797996e-01 4.663576e-01 1.986679e+00 -3.283270e-02 2.946190e-02 5.729909e-02 1.279496e-01 1.158167e-01 1.174936e-01 1.047757e-01 5.715218e-02 6.796441e-02 5.096633e-02 1.403144e-02 1.914092e-02 5.710296e-04 3.577140e-02 7.984011e-03 -6.987116e-03 -7.588453e-02 -9.400716e-02 -1.079519e-01 -8.058765e-02 -8.490939e-02 -7.035816e-02 -5.161477e-02 -3.827871e-02 -4.517900e-02 -6.852555e-03
<VARIANCE> 39
 3.011170e+00 3.129785e+00 5.415040e+00 8.238132e+00 9.936824e+00 1.255907e+01 1.356903e+01 1.563745e+01 1.555163e+01 1.556013e+01 1.425146e+01 1.335408e+01 2.571056e+01 6.698661e-02 1.167041e-01 2.202401e-01 3.053878e-01 3.740494e-01 4.927161e-01 5.854477e-01 6.060508e-01 6.546748e-01 6.508505e-01 5.886890e-01 5.609102e-01 1.427044e-02 1.454880e-02 2.599192e-02 4.531874e-02 6.390589e-02 7.841473e-02 1.005637e-01 1.064593e-01 1.283790e-01 1.296373e-01 1.289715e-01 1.133108e-01 1.134115e-01 3.157868e-03
<GCONST> 4.833495e+01
<STATE> 4
<MEAN> 39
 -2.015676e+00 -9.959685e-02 -6.867028e-01 1.625809e+00 9.628847e-01 1.812487e+00 6.780507e-01 1.789794e+00 4.212188e-01 1.393358e+00 2.704341e-01 1.082595e+00 7.261117e+00 7.708502e-03 1.544571e-03 6.731134e-03 -1.216268e-02 -1.768795e-02 -1.552387e-02 -6.269580e-04 -1.476368e-03 -5.974577e-03 -1.829120e-02 -2.574410e-02 -2.253824e-02 1.372348e-03 1.343931e-02 -2.820002e-03 -8.116094e-03 -3.072595e-02 -3.994966e-02 -3.507984e-02 -3.134576e-02 -2.678931e-02 -2.246052e-02 -2.072219e-02 -1.098251e-02 -1.120852e-02 1.147232e-03
<VARIANCE> 39
 3.410374e+00 3.454924e+00 5.956003e+00 8.718006e+00 1.036867e+01 1.352115e+01 1.439817e+01 1.645365e+01 1.607784e+01 1.664400e+01 1.437134e+01 1.371605e+01 3.626870e+01 7.607197e-02 1.215878e-01 2.250928e-01 3.358097e-01 4.127866e-01 5.176311e-01 5.949007e-01 6.463151e-01 6.769153e-01 7.034809e-01 6.410596e-01 6.002852e-01 1.350913e-02 1.403572e-02 2.409322e-02 4.459751e-02 6.833330e-02 8.069246e-02 1.023701e-01 1.160947e-01 1.277170e-01 1.287233e-01 1.327421e-01 1.202917e-01 1.150458e-01 2.445770e-03
<GCONST> 5.004641e+01
<TRANSP> 5
 0.000000e+00 1.000000e+00 0.000000e+00 0.000000e+00 0.000000e+00
 0.000000e+00 8.776826e-02 9.122317e-01 0.000000e+00 0.000000e+00
 0.000000e+00 0.000000e+00 1.318603e-01 8.681397e-01 0.000000e+00
 0.000000e+00 0.000000e+00 0.000000e+00 6.811482e-01 3.188517e-01
 0.000000e+00 0.000000e+00 0.000000e+00 0.000000e+00 0.000000e+00
<ENDHMM>
~h "ay"
<BEGINHMM>
<NUMSTATES> 5
<STATE> 2
<MEAN> 39
 -7.701976e-01 -2.826772e-01 -3.486411e-01 6.307520e-01 4.138375e-01 7.843317e-01 4.832190e-01 1.067346e+00 5.028796e-01 7.072358e-01 3.729667e-01 6.715426e-01 2.269580e+00 -1.037293e-01 -4.981945e-02 -2.514382e-02 1.294878e-01 1.596512e-01 2.060909e-01 2.006705e-01 1.965684e-01 1.866101e-01 1.557345e-01 1.090284e-01 1.126038e-01 9.823211e-03 5.397422e-02 2.661003e-02 2.669965e-02 -2.675685e-02 -3.775639e-02 -5.995943e-02 -5.091412e-02 -8.027318e-02 -6.607810e-02 -6.142236e-02 -5.586632e-02 -4.992382e-02 -2.820818e-02
<VARIANCE> 39
 2.783273e+00 2.925190e+00 4.929561e+00 8.413647e+00 9.652701e+00 1.230543e+01 1.295826e+01 1.536852e+01 1.511099e+01 1.515126e+01 1.465187e+01 1.311487e+01 2.137417e+01 8.281519e-02 1.331387e-01 2.377055e-01 3.533545e-01 4.454716e-01 5.452583e-01 6.094468e-01 6.529809e-01 7.228981e-01 7.119309e-01 6.290444e-01 5.651782e-01 1.712392e-02 1.627534e-02 2.459757e-02 4.239767e-02 6.999311e-02 8.688557e-02 1.053199e-01 1.105314e-01 1.192570e-01 1.330228e-01 1.307713e-01 1.201136e-01 1.035114e-01 7.555792e-03
<GCONST> 5.024743e+01
<STATE> 3
<MEAN> 39
 -1.113106e+00 5.952049e-02 -1.387555e-01 1.224734e+00 5.264317e-01 1.021674e+00 3.568570e-01 8.425665e-01 4.447142e-01 6.577418e-01 2.892768e-01 6.717913e-01 2.134369e+00 -8.230273e-03 2.008438e-03 7.967373e-03 2.734583e-02 2.780930e-02 2.884514e-02 2.254734e-02 1.210402e-02 8.893098e-03 1.028120e-02 -5.844075e-03 1.020964e-03 1.409851e-03 1.922177e-02 9.949611e-03 9.344960e-03 -1.770979e-02 -2.518623e-02 -3.409485e-02 -3.693613e-02 -3.884815e-02 -4.200821e-02 -3.510410e-02 -2.561569e-02 -2.503344e-02 -1.490269e-03
<VARIANCE> 39
 2.111551e+00 2.883621e+00 4.812573e+00 8.536874e+00 9.452647e+00 1.217376e+01 1.352313e+01 1.466208e+01 1.528695e+01 1.536457e+01 1.390471e+01 1.264909e+01 1.180260e+01 5.137266e-02 1.030593e-01 1.883557e-01 2.938366e-01 3.979567e-01 4.930975e-01 5.603178e-01 5.852934e-01 6.168268e-01 6.493654e-01 6.077557e-01 5.382325e-01 9.517234e-03 1.001317e-02 1.986726e-02 3.505979e-02 5.521890e-02 7.585350e-02 9.568556e-02 1.077289e-01 1.129073e-01 1.210606e-01 1.258226e-01 1.162381e-01 1.032335e-01 1.972124e-03
<GCONST> 4.382557e+01
<STATE> 4
<MEAN> 39
 -2.222711e+00 -5.121058e-01 -8.952039e-01 1.729597e+00 6.658148e-01 1.786489e+00 8.117002e-01 2.015827e+00 2.615733e-01 1.363011e+00 4.079731e-01 1.295077e+00 8.140571e+00 3.643429e-02 4.362951e-03 1.617795e-02 -4.780029e-03 -9.618337e-03 -1.243786e-02 -1.994224e-02 -2.707275e-02 -3.396640e-02 -3.050335e-02 -2.429567e-02 -2.132248e-02 1.386832e-03 1.934441e-02 6.297512e-03 4.653735e-03 -1.147715e-02 -1.342698e-02 -1.857245e-02 -1.818109e-02 -2.131545e-02 -1.537491e-02 -1.435173e-02 -9.389523e-03 -9.678220e-03 -1.365823e-03
<VARIANCE> 39
 2.702431e+00 3.322858e+00 5.424947e+00 8.638479e+00 1.047593e+01 1.297861e+01 1.438269e+01 1.602442e+01 1.600260e+01 1.606930e+01 1.462838e+01 1.335784e+01 1.966050e+01 7.003091e-02 1.259691e-01 2.177862e-01 3.316828e-01 4.539613e-01 5.521911e-01 6.260036e-01 6.684330e-01 7.030581e-01 6.954187e-01 6.415180e-01 5.773606e-01 1.276310e-02 1.260903e-02 2.391769e-02 4.117569e-02 6.375342e-02 8.788807e-02 1.062896e-01 1.210152e-01 1.265869e-01 1.337758e-01 1.303955e-01 1.217070e-01 1.082974e-01 2.409176e-03
<GCONST> 4.888482e+01
<TRANSP> 5
 0.000000e+00 1.000000e+00 0.000000e+00 0.000000e+00 0.000000e+00
 0.000000e+00 1.096414e-01 8.903586e-01 0.000000e+00 0.000000e+00
 0.000000e+00 0.000000e+00 7.337636e-01 2.662364e-01 0.000000e+00
 0.000000e+00 0.000000e+00 0.000000e+00 8.331260e-01 1.668740e-01
 0.000000e+00 0.000000e+00 0.000000e+00 0.000000e+00 0.000000e+00
<ENDHMM>
~h "eh"
<BEGINHMM>
<NUMSTATES> 5
<STATE> 2
<MEAN> 39
 -8.635096e-01 -2.439671e-01 -3.925717e-01 4.525538e-01 -2.130400e-02 5.181897e-01 3.378772e-01 7.540505e-01 1.792662e-01 5.607381e-01 3.685949e-01 6.169725e-01 2.090356e+00 -1.048188e-01 1.384885e-02 7.689227e-02 2.396917e-01 2.024965e-01 2.060017e-01 9.804864e-02 1.009050e-01 7.471889e-02 7.978942e-02 3.698261e-02 6.716302e-02 7.700537e-02 5.629116e-02 3.480612e-02 2.668904e-02 -4.759475e-02 -1.580170e-02 -5.690625e-02 -4.642316e-02 -7.494666e-02 -2.645213e-02 -5.482995e-02 -4.976223e-02 -6.737703e-02 -6.026451e-02
<VARIANCE> 39
 3.279417e+00 3.024463e+00 5.135687e+00 9.498964e+00 9.760058e+00 1.305555e+01 1.401686e+01 1.516645e+01 1.448488e+01 1.450563e+01 1.335184e+01 1.243174e+01 1.622639e+01 1.233404e-01 1.476513e-01 2.501274e-01 4.249642e-01 4.578199e-01 5.846000e-01 6.822382e-01 7.013479e-01 6.932130e-01 6.578603e-01 6.313896e-01 5.795510e-01 3.293846e-02 2.136504e-02 3.006048e-02 4.753737e-02 8.711644e-02 8.885049e-02 1.157766e-01 1.212179e-01 1.264272e-01 1.314584e-01 1.295924e-01 1.195788e-01 1.051639e-01 1.730232e-02
<GCONST> 5.370814e+01
<STATE> 3
<MEAN> 39
 -1.399904e+00 -3.007951e-01 -4.912460e-01 1.147124e+00 6.772592e-01 1.266232e+00 6.217403e-01 1.223221e+00 4.708539e-01 9.189004e-01 2.901745e-01 8.118160e-01 3.696834e+00 2.400260e-02 3.714076e-02 7.860754e-02 1.119999e-01 1.053703e-01 5.614322e-02 -2.923185e-03 -9.567568e-03 1.755134e-02 3.055860e-03 -3.591897e-02 -2.534900e-02 8.462489e-03 4.250396e-02 1.203778e-02 3.927296e-03 -4.935316e-02 -5.294921e-02 -6.192125e-02 -4.199415e-02 -4.893338e-02 -3.759291e-02 -4.006983e-02 -2.832591e-02 -3.788272e-02 -1.659769e-02
<VARIANCE> 39
 3.281649e+00 2.984760e+00 5.345978e+00 8.967136e+00 1.024229e+01 1.301734e+01 1.427779e+01 1.576159e+01 1.579369e+01 1.669229e+01 1.427548e+01 1.329424e+01 2.090257e+01 7.508159e-02 1.280593e-01 2.297133e-01 3.427030e-01 4.206479e-01 5.571952e-01 5.874982e-01 6.348171e-01 7.019587e-01 6.682354e-01 6.271944e-01 5.768903e-01 1.585949e-02 1.540283e-02 2.470233e-02 4.344494e-02 6.627059e-02 8.453642e-02 1.057177e-01 1.165937e-01 1.272225e-01 1.339974e-01 1.267387e-01 1.144872e-01 1.111028e-01 4.088339e-03
<GCONST> 4.986490e+01
<STATE> 4
<MEAN> 39
 -7.538904e-02 3.349897e-02 3.053728e-02 1.130893e-01 5.152500e-02 6.468365e-02 1.195194e-02 4.050773e-03 1.417593e-02 4.243238e-03 -6.559097e-03 2.137092e-02 6.146676e-02 1.261996e-03 1.100773e-03 9.727748e-04 -8.198548e-04 -1.944364e-03 -2.493768e-03 -2.893609e-03 -2.919392e-03 -2.648082e-03 -2.724898e-03 -2.553251e-03 -2.674322e-03 5.452061e-04 4.239829e-05 -9.046132e-04 -1.144050e-03 -1.489877e-03 -9.324133e-04 -5.098134e-04 3.869287e-04 5.972901e-05 -8.338994e-05 7.920236e-05 3.818808e-04 2.339091e-04 -2.743591e-04
<VARIANCE> 39
 1.243562e+00 2.621323e+00 4.651765e+00 7.134082e+00 9.448488e+00 1.173178e+01 1.343525e+01 1.463009e+01 1.522320e+01 1.504198e+01 1.405541e+01 1.262314e+01 4.472286e-01 4.940389e-02 1.114961e-01 2.007442e-01 3.029957e-01 4.048541e-01 5.032824e-01 5.817716e-01 6.314834e-01 6.670967e-01 6.518971e-01 6.153247e-01 5.410409e-01 8.360002e-03 9.091778e-03 2.107941e-02 3.795759e-02 5.726566e-02 7.670652e-02 9.512523e-02 1.103156e-01 1.198264e-01 1.271031e-01 1.235067e-01 1.170398e-01 1.023306e-01 1.547254e-03
<GCONST> 3.985942e+01
<TRANSP> 5
 0.000000e+00 1.000000e+00 0.000000e+00 0.000000e+00 0.000000e+00
 0.000000e+00 2.011319e-01 7.988681e-01 0.000000e+00 0.000000e+00
 0.000000e+00 0.000000e+00 4.053024e-01 5.946976e-01 0.000000e+00
 0.000000e+00 0.000000e+00 0.000000e+00 9.861878e-01 1.381217e-02
 0.000000e+00 0.000000e+00 0.000000e+00 0.000000e+00 0.000000e+00
<ENDHMM>
~h "ey"
<BEGINHMM>
<NUMSTATES> 5
<STATE> 2
<MEAN> 39
 -1.332203e+00 -3.673844e-01 -5.872641e-01 8.721036e-01 1.486474e-01 8.405274e-01 4.314533e-01 1.129667e+00 2.579161e-01 8.661287e-01 2.299110e-01 9.182343e-01 3.528796e+00 1.845973e-02 -3.370940e-02 -2.008786e-02 -3.225914e-02 -1.568741e-02 -1.732564e-02 3.668860e-02 2.626043e-02 4.466601e-02 2.593677e-02 2.482188e-02 2.825921e-02 -6.781329e-03 4.402024e-02 2.046691e-02 2.108530e-02 -2.101462e-03 7.753958e-03 -3.096671e-03 -1.062905e-02 -2.367190e-02 -1.909496e-02 -2.774935e-02 -1.013817e-02 -2.229531e-02 -1.571666e-02
<VARIANCE> 39
 4.019051e+00 3.225105e+00 5.283019e+00 1.148801e+01 1.092649e+01 1.452709e+01 1.382804e+01 1.634234e+01 1.574404e+01 1.625116e+01 1.389799e+01 1.321834e+01 5.421028e+01 1.084100e-01 1.443347e-01 2.400502e-01 3.829389e-01 4.920970e-01 5.999233e-01 6.081054e-01 6.872019e-01 7.082330e-01 6.873011e-01 6.046649e-01 5.587488e-01 2.878634e-02 2.267645e-02 2.779514e-02 4.562331e-02 7.833842e-02 9.143549e-02 1.211070e-01 1.173495e-01 1.350355e-01 1.405066e-01 1.389144e-01 1.151071e-01 1.082302e-01 1.245154e-02
<GCONST> 5.523468e+01
<STATE> 3
<MEAN> 39
 -2.458189e-01 -3.752680e-01 -5.432812e-01 -3.305375e-01 -3.802606e-01 -1.093225e-01 1.316515e-01 3.697187e-01 2.833804e-01 4.534478e-01 1.892711e-01 2.615674e-01 -1.368735e-01 1.278721e-01 1.044918e-02 1.640374e-02 -7.102099e-02 -2.013916e-02 -2.475078e-02 1.796187e-02 -3.220956e-02 1.404440e-02 -1.794859e-02 1.777714e-02 -2.731706e-02 -3.739458e-02 8.113291e-02 7.640459e-02 6.364797e-02 8.631879e-04 2.092971e-02 -2.260860e-02 -4.901541e-02 -6.322370e-02 -5.215683e-02 -5.965777e-02 -3.059874e-02 -4.772674e-02 -4.848586e-02
<VARIANCE> 39
 3.199807e+00 3.289750e+00 5.287782e+00 1.101569e+01 1.133155e+01 1.466808e+01 1.369894e+01 1.631820e+01 1.519236e+01 1.581423e+01 1.389835e+01 1.286871e+01 4.419461e+01 1.753549e-01 1.775085e-01 2.816085e-01 4.856533e-01 5.387492e-01 7.193981e-01 7.328068e-01 7.878158e-01 7.487704e-01 7.661464e-01 6.920558e-01 6.031237e-01 7.820053e-02 4.891947e-02 4.685246e-02 6.421564e-02 1.163944e-01 1.191788e-01 1.572440e-01 1.462741e-01 1.592256e-01 1.500284e-01 1.547099e-01 1.280316e-01 1.290652e-01 9.626909e-02
<GCONST> 6.322324e+01
<STATE> 4
<MEAN> 39
 9.830958e-01 1.088206e+00 6.367489e-01 -9.253975e-01 -2.193142e-01 -6.929463e-01 -3.282850e-01 -2.640763e-01 -7.794941e-02 -3.037889e-01 -1.332893e-01 -1.183006e-01 -9.802198e-01 1.128045e-01 9.341754e-02 9.834427e-02 -1.157243e-01 -1.333515e-02 -8.834513e-02 -3.612445e-02 -1.028743e-01 -1.164140e-02 -9.558856e-02 -2.816358e-02 -8.008408e-02 -3.970459e-01 -6.102929e-02 -3.168216e-02 -2.601742e-02 2.857006e-02 8.308241e-03 1.802565e-02 6.849920e-03 1.539964e-02 3.025668e-03 1.476111e-02 8.548239e-03 8.823531e-03 4.220628e-02
<VARIANCE> 39
 2.190342e+01 2.049674e+01 2.037066e+01 3.226031e+01 2.330782e+01 3.149817e+01 2.723570e+01 3.176153e+01 2.651382e+01 2.798578e+01 2.195179e+01 2.127066e+01 1.317759e+02 1.452390e+00 1.207021e+00 1.138693e+00 1.688115e+00 1.214897e+00 1.684224e+00 1.352312e+00 1.595598e+00 1.329269e+00 1.401685e+00 1.089019e+00 1.053162e+00 7.100991e+00 2.289520e-01 2.110702e-01 2.042423e-01 2.813553e-01 2.165338e-01 2.951348e-01 2.468979e-01 2.755994e-01 2.360820e-01 2.542710e-01 2.015003e-01 1.908220e-01 9.162877e-01
<GCONST> 1.032066e+02
<TRANSP> 5
 0.000000e+00 1.000000e+00 0.000000e+00 0.000000e+00 0.000000e+00
 0.000000e+00 5.255447e-01 4.744553e-01 0.000000e+00 0.000000e+00
 0.000000e+00 0.000000e+00 7.673534e-02 9.232647e-01 0.000000e+00
 0.000000e+00 0.000000e+00 0.000000e+00 7.723292e-01 2.276708e-01
 0.000000e+00 0.000000e+00 0.000000e+00 0.000000e+00 0.000000e+00
<ENDHMM>
~h "hh"
<BEGINHMM>
<NUMSTATES> 5
<STATE> 2
<MEAN> 39
 3.666344e-02 -2.081514e-01 -5.648415e-01 -8.844856e-01 -1.058986e+00 -1.047380e+00 -7.503287e-01 -3.837512e-01 -3.385547e-01 -1.488020e-01 -6.762573e-02 -7.711221e-02 -5.838599e-01 -3.446706e-03 -7.147705e-03 3.360259e-03 7.429904e-02 8.059063e-02 7.989761e-02 6.779461e-02 5.945154e-02 -1.004910e-02 -2.544522e-02 -3.495849e-02 -1.212696e-02 1.660077e-02 -5.948655e-03 -1.292369e-03 3.917816e-02 1.199859e-01 1.325072e-01 1.421026e-01 1.282637e-01 9.836847e-02 7.260099e-02 4.448323e-02 2.946277e-02 2.750705e-02 1.186853e-02
<VARIANCE> 39
 3.549600e+00 3.639361e+00 5.042557e+00 1.049358e+01 1.024993e+01 1.379766e+01 1.407999e+01 1.627345e+01 1.556974e+01 1.567497e+01 1.443837e+01 1.298499e+01 4.968374e+01 1.451709e-01 1.575787e-01 2.639762e-01 4.095323e-01 4.747313e-01 6.123270e-01 6.458955e-01 7.289282e-01 7.478859e-01 7.658315e-01 6.675386e-01 5.835974e-01 4.965052e-02 2.865815e-02 3.253858e-02 5.141954e-02 8.252412e-02 9.102751e-02 1.177317e-01 1.221191e-01 1.370362e-01 1.381367e-01 1.427363e-01 1.232989e-01 1.094279e-01 2.033111e-02
<GCONST> 5.753975e+01
<STATE> 3
<MEAN> 39
 9.212884e-01 -5.506086e-01 -7.540642e-01 -1.700367e+00 -1.199794e+00 -1.978028e+00 -6.833540e-01 -1.282249e+00 -4.378614e-01 -1.144620e+00 -2.606998e-01 -9.669901e-01 -6.999234e+00 9.087718e-02 1.090390e-01 5.426160e-02 1.732453e-01 2.107463e-01 1.590898e-01 1.079371e-01 9.491318e-02 1.265457e-02 3.692248e-02 -2.412183e-02 1.346492e-02 9.885730e-02 -5.274135e-03 1.989203e-02 3.949221e-02 7.794264e-02 5.668895e-02 8.070822e-02 4.913283e-02 4.645246e-02 3.160565e-02 4.191148e-02 1.421736e-02 2.985921e-02 1.034789e-01
<VARIANCE> 39
 9.114981e+00 9.583928e+00 1.054660e+01 1.695544e+01 1.603197e+01 1.982019e+01 1.900570e+01 2.144852e+01 1.799496e+01 1.854341e+01 1.679323e+01 1.490742e+01 8.923022e+01 4.258909e-01 5.005629e-01 5.581405e-01 8.618796e-01 8.059590e-01 9.528881e-01 9.294760e-01 1.026891e+00 8.798404e-01 8.844774e-01 7.818957e-01 6.561728e-01 8.523862e-01 6.591508e-02 7.996210e-02 9.489933e-02 1.451245e-01 1.464217e-01 1.699663e-01 1.686595e-01 1.820113e-01 1.624523e-01 1.617873e-01 1.501712e-01 1.204034e-01 1.897952e-01
<GCONST> 7.924254e+01
<STATE> 4
<MEAN> 39
 7.618613e-01 3.839100e-01 6.778433e-02 6.877586e-01 5.762238e-01 2.927233e-01 2.446320e-01 4.474169e-01 -1.059125e-01 1.269652e-01 -8.955000e-02 1.422249e-01 1.101836e+00 -3.603768e-01 -1.122811e-01 -5.122725e-03 2.948061e-01 1.570900e-01 3.707277e-01 1.922305e-01 3.040515e-01 1.455578e-01 2.134281e-01 1.051347e-01 1.717678e-01 1.088868e+00 -5.593542e-02 -2.952608e-02 -3.521308e-02 -4.613575e-02 -2.903070e-02 -3.213504e-02 -9.262901e-03 -4.491013e-03 2.072355e-02 6.399946e-03 1.680860e-02 2.199539e-03 -8.811589e-02
<VARIANCE> 39
 1.611329e+01 1.082030e+01 1.167306e+01 1.445483e+01 1.683190e+01 2.288767e+01 2.000666e+01 2.293673e+01 2.218524e+01 2.305041e+01 1.800705e+01 1.694594e+01 8.186691e+01 9.837219e-01 6.022969e-01 6.263232e-01 8.059394e-01 8.739908e-01 1.142922e+00 9.452111e-01 1.108388e+00 1.057150e+00 1.071770e+00 8.269471e-01 7.879384e-01 5.727948e+00 1.600381e-01 1.147633e-01 1.180095e-01 1.353647e-01 1.546379e-01 1.945082e-01 1.739245e-01 2.031227e-01 2.034404e-01 1.965725e-01 1.558433e-01 1.466647e-01 6.683249e-01
<GCONST> 8.831092e+01
<TRANSP> 5
 0.000000e+00 1.000000e+00 0.000000e+00 0.000000e+00 0.000000e+00
 0.000000e+00 1.343121e-01 8.656878e-01 0.000000e+00 0.000000e+00
 0.000000e+00 0.000000e+00 5.653507e-01 4.346492e-01 0.000000e+00
 0.000000e+00 0.000000e+00 0.000000e+00 5.761029e-01 4.238971e-01
 0.000000e+00 0.000000e+00 0.000000e+00 0.000000e+00 0.000000e+00
<ENDHMM>
~h "ih"
<BEGINHMM>
<NUMSTATES> 5
<STATE> 2
<MEAN> 39
 -1.098971e+00 -1.637833e-01 -5.200059e-01 9.116023e-01 5.630623e-01 9.363846e-01 5.369577e-01 1.042326e+00 2.560655e-01 5.888522e-01 2.488719e-01 7.796606e-01 3.161570e+00 -9.666031e-03 -8.912541e-03 4.101852e-02 6.544262e-02 7.322359e-02 8.281054e-02 8.899671e-02 1.056749e-01 9.514267e-02 1.061036e-01 6.536815e-02 3.375950e-02 4.422776e-02 5.160955e-02 3.086309e-02 3.080533e-02 -5.739154e-02 -4.603876e-02 -6.783130e-02 -7.040536e-02 -8.631518e-02 -3.837463e-02 -6.088410e-02 -3.901356e-02 -7.520346e-02 -4.365980e-02
<VARIANCE> 39
 3.652237e+00 3.664796e+00 5.302733e+00 1.193975e+01 1.041989e+01 1.434107e+01 1.441168e+01 1.546026e+01 1.531251e+01 1.486779e+01 1.435862e+01 1.371274e+01 2.781101e+01 1.217733e-01 1.621798e-01 2.513677e-01 4.426025e-01 4.964412e-01 6.044811e-01 6.437851e-01 6.522117e-01 7.146690e-01 7.074245e-01 6.376007e-01 6.018246e-01 9.462753e-02 2.226180e-02 3.176267e-02 4.805220e-02 8.539384e-02 8.834486e-02 1.131216e-01 1.198210e-01 1.198394e-01 1.383148e-01 1.295597e-01 1.129873e-01 1.101710e-01 1.945118e-02
<GCONST> 5.673149e+01
<STATE> 3
<MEAN> 39
 -8.275734e-01 -2.741430e-01 -3.717947e-01 3.509088e-01 3.973121e-01 5.558746e-01 6.003160e-01 9.507314e-01 6.247544e-01 6.669986e-01 4.271275e-01 4.966215e-01 1.719112e+00 7.766627e-02 5.245742e-02 1.086911e-01 -1.676101e-03 9.610325e-03 -1.893916e-02 5.398579e-04 -2.941727e-02 1.697658e-02 6.049085e-03 -2.898969e-03 -8.856475e-02 4.644557e-03 9.089999e-02 5.225973e-02 3.647561e-02 -8.346431e-02 -7.694916e-02 -1.090441e-01 -1.180151e-01 -1.435727e-01 -9.349303e-02 -1.069636e-01 -7.134630e-02 -8.872740e-02 -5.919498e-02
<VARIANCE> 39
 4.091917e+00 4.205144e+00 6.033308e+00 1.137329e+01 1.068529e+01 1.469239e+01 1.495588e+01 1.652900e+01 1.668004e+01 1.632065e+01 1.494557e+01 1.398991e+01 2.137271e+01 1.528688e-01 1.910595e-01 2.916773e-01 5.129199e-01 5.381525e-01 6.606020e-01 6.636391e-01 7.045724e-01 7.734267e-01 7.764997e-01 7.036484e-01 6.488626e-01 1.119508e-01 3.446765e-02 4.001177e-02 5.694826e-02 9.847794e-02 1.014532e-01 1.240536e-01 1.284813e-01 1.387322e-01 1.515171e-01 1.439180e-01 1.227367e-01 1.138820e-01 4.524734e-02
<GCONST> 6.125419e+01
<STATE> 4
<MEAN> 39
 -1.695041e+00 -1.353561e-01 -6.480066e-01 7.220203e-01 5.732160e-01 8.978196e-01 6.685550e-01 1.183693e+00 7.347046e-01 5.500618e-01 5.308201e-01 5.542013e-01 5.402582e+00 1.997904e-01 8.861294e-02 1.279017e-01 4.302916e-02 -1.805024e-02 2.182849e-02 -5.882295e-02 -3.893086e-02 -1.091402e-01 2.909585e-02 -5.873893e-02 -2.753786e-02 2.188081e-01 8.578993e-02 4.492442e-02 4.040825e-02 -6.902135e-02 -5.814752e-02 -8.578218e-02 -7.249983e-02 -6.406035e-02 -3.458445e-02 -4.595035e-02 -1.772063e-02 -3.468012e-02 -1.752661e-01
<VARIANCE> 39
 7.943442e+00 7.909779e+00 9.826354e+00 1.706683e+01 1.418479e+01 1.902802e+01 1.636461e+01 2.032667e+01 1.948429e+01 2.251200e+01 1.760988e+01 1.695296e+01 5.699091e+01 4.758758e-01 4.535503e-01 5.268573e-01 8.788092e-01 6.956192e-01 9.198169e-01 8.070027e-01 9.856575e-01 9.411669e-01 1.043839e+00 8.079767e-01 8.004712e-01 1.512591e+00 9.648727e-02 9.255474e-02 1.065593e-01 1.522394e-01 1.275889e-01 1.680967e-01 1.526682e-01 1.775639e-01 1.789752e-01 1.971902e-01 1.567935e-01 1.470613e-01 2.826834e-01
<GCONST> 8.048512e+01
<TRANSP> 5
 0.000000e+00 1.000000e+00 0.000000e+00 0.000000e+00 0.000000e+00
 0.000000e+00 3.276315e-01 6.723685e-01 0.000000e+00 0.000000e+00
 0.000000e+00 0.000000e+00 5.495211e-02 9.450479e-01 0.000000e+00
 0.000000e+00 0.000000e+00 0.000000e+00 6.022350e-01 3.977651e-01
 0.000000e+00 0.000000e+00 0.000000e+00 0.000000e+00 0.000000e+00
<ENDHMM>
~h "iy"
<BEGINHMM>
<NUMSTATES> 5
<STATE> 2
<MEAN> 39
 -2.742309e-02 3.510866e-01 -2.154588e-02 2.180532e-01 8.717209e-01 1.072837e-01 -2.437945e-02 -1.536112e-01 -1.701808e-01 1.526179e-01 -1.562098e-03 -3.886301e-02 1.505599e+00 -5.053137e-02 -8.008000e-03 -1.177397e-02 -1.195551e-02 8.666843e-03 -1.089488e-02 -2.868963e-02 5.738907e-03 4.465044e-02 3.210264e-02 3.789529e-02 6.344400e-03 -1.103554e-01 -4.783861e-03 -1.014566e-02 -8.460468e-03 -2.286207e-02 -5.460290e-02 -2.564779e-02 -2.144149e-02 5.608716e-03 1.040836e-02 3.380551e-03 3.846962e-03 4.741217e-03 -3.886692e-03
<VARIANCE> 39
 5.568216e+00 7.445649e+00 7.283998e+00 1.446418e+01 1.753534e+01 1.989207e+01 1.780679e+01 2.072628e+01 1.880084e+01 1.781678e+01 1.642328e+01 1.522683e+01 2.830310e+01 1.579354e-01 3.419831e-01 3.084528e-01 6.636792e-01 7.689490e-01 8.493781e-01 8.323316e-01 8.544909e-01 8.237108e-01 8.189625e-01 7.630315e-01 6.690964e-01 4.245756e-01 2.729103e-02 6.548642e-02 5.998079e-02 1.081143e-01 1.344570e-01 1.511509e-01 1.540742e-01 1.571108e-01 1.536154e-01 1.539069e-01 1.405408e-01 1.292416e-01 4.022577e-02
<GCONST> 6.936069e+01
<STATE> 3
<MEAN> 39
 -4.626622e-01 -3.730390e-02 -1.452779e-01 5.126146e-01 3.668764e-01 5.499079e-01 2.663130e-01 5.021501e-01 2.707535e-02 2.820787e-01 1.695191e-01 2.858534e-01 1.645832e+00 -5.996038e-02 -1.928800e-02 -4.145071e-02 -4.643117e-02 -6.775162e-02 -5.301107e-02 -2.695275e-02 4.046426e-02 5.780191e-02 4.098311e-02 3.670655e-02 3.062183e-02 1.124577e-03 1.479847e-02 3.405557e-04 -2.175061e-03 -2.376222e-02 -3.837457e-02 -2.156093e-02 -1.035945e-02 -5.245449e-03 -4.905725e-04 -3.386259e-03 -1.216877e-02 -2.043399e-03 -1.037933e-02
<VARIANCE> 39
 3.527629e+00 3.106843e+00 5.333109e+00 8.513184e+00 9.936069e+00 1.283599e+01 1.429588e+01 1.561125e+01 1.534565e+01 1.621691e+01 1.510419e+01 1.334790e+01 2.287754e+01 8.190661e-02 1.437086e-01 2.356807e-01 3.611775e-01 4.577985e-01 5.484372e-01 6.387268e-01 6.717765e-01 6.970226e-01 6.927759e-01 6.731871e-01 5.736358e-01 1.712726e-02 1.605200e-02 2.852396e-02 4.437001e-02 6.689984e-02 9.058492e-02 1.098631e-01 1.249669e-01 1.340268e-01 1.320986e-01 1.327428e-01 1.328699e-01 1.149263e-01 4.015051e-03
<GCONST> 5.126511e+01
<STATE> 4
<MEAN> 39
 -1.352639e+00 -3.329801e-02 -2.798318e-01 1.059039e+00 3.244138e-01 8.291682e-01 2.270368e-01 8.681954e-01 2.679722e-01 6.960012e-01 2.255433e-01 6.398973e-01 3.116790e+00 -4.382636e-04 -6.264644e-03 -5.566265e-03 -1.176433e-02 -2.576979e-02 -2.164913e-02 -1.131444e-02 1.780159e-03 1.073839e-02 8.374569e-03 -2.596906e-03 -4.321279e-04 -8.978897e-04 1.017023e-02 -5.783278e-04 3.220482e-03 2.585520e-03 5.378385e-03 7.441323e-03 6.663929e-03 -3.205113e-03 -5.188610e-03 -4.353208e-03 -2.065290e-03 -1.502923e-03 -2.018468e-03
<VARIANCE> 39
 2.646474e+00 2.889072e+00 4.901449e+00 8.156752e+00 9.765188e+00 1.262344e+01 1.355631e+01 1.527257e+01 1.522744e+01 1.572308e+01 1.447425e+01 1.300665e+01 1.523807e+01 5.548141e-02 1.105089e-01 1.898130e-01 2.918019e-01 4.117562e-01 5.110877e-01 5.681342e-01 6.317324e-01 6.484607e-01 6.614436e-01 6.276668e-01 5.518042e-01 9.278035e-03 1.007155e-02 2.069110e-02 3.546808e-02 5.506527e-02 7.864922e-02 9.641255e-02 1.070436e-01 1.198943e-01 1.228602e-01 1.245994e-01 1.196513e-01 1.050415e-01 1.765514e-03
<GCONST> 4.498179e+01
<TRANSP> 5
 0.000000e+00 1.000000e+00 0.000000e+00 0.000000e+00 0.000000e+00
 0.000000e+00 2.282343e-01 7.717657e-01 0.000000e+00 0.000000e+00
 0.000000e+00 0.000000e+00 1.311216e-01 8.688784e-01 0.000000e+00
 0.000000e+00 0.000000e+00 0.000000e+00 8.220387e-01 1.779613e-01
 0.000000e+00 0.000000e+00 0.000000e+00 0.000000e+00 0.000000e+00
<ENDHMM>
~h "ow"
<BEGINHMM>
<NUMSTATES> 5
<STATE> 2
<MEAN> 39
 -1.440519e+00 -2.914132e-01 -4.186985e-01 1.062224e+00 3.185783e-01 1.198166e+00 5.179955e-01 1.285546e+00 2.792008e-01 9.850322e-01 2.489239e-01 8.106295e-01 5.028164e+00 6.480849e-02 -1.019602e-02 -1.344751e-02 -3.355893e-02 -1.553465e-02 -4.047541e-02 -4.309417e-02 -3.924534e-02 -3.380597e-02 -3.799729e-02 -2.647853e-02 -4.354024e-02 -6.300393e-03 3.800945e-02 1.128705e-02 1.149096e-02 -1.121159e-02 -4.339880e-03 -1.895895e-02 -1.083442e-02 -2.559856e-02 -1.700592e-02 -3.194006e-02 -1.507601e-02 -1.966094e-02 -1.754657e-02
<VARIANCE> 39
 3.468904e+00 3.114829e+00 5.119144e+00 8.845017e+00 1.044752e+01 1.313694e+01 1.422031e+01 1.547703e+01 1.539051e+01 1.606764e+01 1.447194e+01 1.308572e+01 3.690535e+01 1.078270e-01 1.415775e-01 2.420705e-01 3.792915e-01 4.826716e-01 5.852566e-01 6.699257e-01 7.086607e-01 7.001286e-01 7.180058e-01 6.708664e-01 6.046873e-01 2.357176e-02 2.012241e-02 2.740119e-02 4.751964e-02 7.225049e-02 9.214495e-02 1.141940e-01 1.281032e-01 1.340766e-01 1.337627e-01 1.400844e-01 1.267308e-01 1.141514e-01 1.054451e-02
<GCONST> 5.407053e+01
<STATE> 3
<MEAN> 39
 -6.264232e-01 -2.939259e-01 -3.999805e-01 2.598780e-01 -5.001391e-02 5.360785e-01 3.462813e-01 7.980468e-01 2.361453e-01 4.869630e-01 1.147869e-01 4.718419e-01 2.454357e+00 1.520022e-01 2.083935e-02 1.734637e-02 -6.910457e-02 -3.523004e-02 -1.073885e-01 -8.658743e-02 -1.211255e-01 -8.810014e-02 -1.282977e-01 -8.890927e-02 -9.316427e-02 5.329332e-02 4.809671e-02 2.361342e-02 3.582812e-02 -2.035088e-03 1.137943e-02 -3.072647e-02 -5.752603e-04 -3.469228e-02 -7.718513e-03 -2.949701e-02 2.227990e-03 -2.052898e-02 -6.050490e-02
<VARIANCE> 39
 3.960683e+00 3.573281e+00 5.259464e+00 9.203710e+00 1.072166e+01 1.412556e+01 1.397434e+01 1.699033e+01 1.648865e+01 1.652824e+01 1.463875e+01 1.344122e+01 5.120331e+01 1.884963e-01 1.659555e-01 2.807982e-01 4.331404e-01 5.218477e-01 6.354347e-01 6.734827e-01 7.435994e-01 7.271646e-01 7.572498e-01 6.597600e-01 6.154834e-01 7.082803e-01 3.983560e-02 3.775285e-02 6.199067e-02 8.681346e-02 1.082349e-01 1.326660e-01 1.369031e-01 1.581177e-01 1.563657e-01 1.517261e-01 1.384706e-01 1.243379e-01 1.187888e-01
<GCONST> 6.457849e+01
<STATE> 4
<MEAN> 39
 2.103111e+00 -4.954455e-01 2.183781e-01 1.164893e-01 9.089024e-01 -5.491740e-01 -6.803303e-02 -1.124641e+00 -5.551029e-01 -6.289355e-01 -2.970293e-01 -7.683810e-01 -1.695906e+00 1.339342e-01 2.171072e-02 7.132501e-02 -9.437902e-02 -2.445342e-03 -1.749326e-01 -8.895273e-02 -1.735362e-01 -3.525995e-02 -9.288201e-02 -1.798797e-02 -1.033909e-01 -5.040908e-01 -5.196645e-02 2.447393e-03 -9.979758e-03 -1.012899e-03 -1.463203e-02 8.429442e-03 6.005539e-03 2.478055e-02 1.856306e-02 2.521710e-02 1.792254e-02 2.030916e-02 5.889203e-03
<VARIANCE> 39
 2.576950e+01 1.287946e+01 1.609377e+01 2.074497e+01 2.754344e+01 2.817060e+01 2.651451e+01 3.427230e+01 2.720497e+01 2.583180e+01 2.104269e+01 1.979796e+01 9.909473e+01 1.096835e+00 6.235057e-01 7.775918e-01 9.985581e-01 1.262112e+00 1.339604e+00 1.268866e+00 1.547104e+00 1.265224e+00 1.226443e+00 9.712684e-01 9.471225e-01 3.538287e+00 1.473465e-01 1.011496e-01 1.301524e-01 1.612817e-01 2.026908e-01 2.252081e-01 2.200130e-01 2.607060e-01 2.211992e-01 2.102488e-01 1.740012e-01 1.672818e-01 3.642289e-01
<GCONST> 9.449840e+01
<TRANSP> 5
 0.000000e+00 1.000000e+00 0.000000e+00 0.000000e+00 0.000000e+00
 0.000000e+00 5.384843e-01 4.615157e-01 0.000000e+00 0.000000e+00
 0.000000e+00 0.000000e+00 1.789075e-01 8.210925e-01 0.000000e+00
 0.000000e+00 0.000000e+00 0.000000e+00 7.323982e-01 2.676019e-01
 0.000000e+00 0.000000e+00 0.000000e+00 0.000000e+00 0.000000e+00
<ENDHMM>
~h "sp"
<BEGINHMM>
<NUMSTATES> 3
<STATE> 2
~s "silst"
<TRANSP> 3
 0.000000e+00 3.067600e-01 6.932400e-01
 0.000000e+00 6.108792e-01 3.891207e-01
 0.000000e+00 0.000000e+00 0.000000e+00
<ENDHMM>
~h "th"
<BEGINHMM>
<NUMSTATES> 5
<STATE> 2
<MEAN> 39
 1.679581e+00 8.359624e-01 5.319551e-01 -1.666088e+00 -2.814937e-01 -2.128017e+00 -6.299202e-01 -1.568673e+00 -2.326514e-01 -1.015219e+00 -2.556008e-01 -1.024443e+00 -5.758238e+00 4.351741e-02 4.470581e-02 2.460102e-02 -1.176985e-01 2.828589e-02 -1.136391e-01 6.670253e-03 -4.054690e-02 6.129560e-02 -3.125950e-02 2.904077e-02 -3.112965e-02 -3.171082e-01 -6.578767e-02 -2.125591e-02 -2.118883e-02 5.565652e-02 2.592602e-02 8.797915e-02 3.830733e-02 6.482553e-02 1.933580e-02 4.855273e-02 1.246927e-02 4.306950e-02 1.804970e-01
<VARIANCE> 39
 1.422633e+01 1.699898e+01 1.431299e+01 2.136800e+01 2.450035e+01 2.694378e+01 2.217661e+01 2.641186e+01 2.442708e+01 2.340140e+01 1.822962e+01 1.714879e+01 9.850813e+01 8.573644e-01 9.676315e-01 8.045927e-01 1.086142e+00 1.167296e+00 1.438804e+00 1.057011e+00 1.355854e+00 1.155398e+00 1.134507e+00 9.041897e-01 8.153741e-01 4.219090e+00 1.376301e-01 1.700827e-01 1.440009e-01 1.913328e-01 2.012200e-01 2.524493e-01 1.899132e-01 2.342406e-01 2.047999e-01 2.014329e-01 1.680150e-01 1.487430e-01 5.958947e-01
<GCONST> 9.356588e+01
<STATE> 3
<MEAN> 39
 -5.433704e-01 1.167569e-01 7.473411e-02 -6.579658e-01 7.795533e-02 -2.975092e-02 3.318764e-01 3.310526e-01 3.748423e-01 4.137060e-01 5.250075e-02 1.662460e-01 3.184421e+00 -1.911634e-01 -6.006238e-02 -2.359270e-02 3.936901e-01 1.537980e-01 4.389923e-01 1.369608e-01 3.007567e-01 2.323622e-02 2.539855e-01 5.192233e-02 1.723652e-01 1.111455e+00 1.477818e-02 1.036382e-04 1.349484e-02 4.439826e-02 2.325111e-02 6.421128e-03 1.078793e-03 -1.576844e-02 -2.196346e-02 -3.229833e-02 2.898258e-03 -8.123349e-03 -1.578394e-01
<VARIANCE> 39
 8.095152e+00 8.191658e+00 1.237828e+01 2.040047e+01 1.661329e+01 2.054769e+01 1.923046e+01 2.108791e+01 1.983291e+01 2.074838e+01 1.769092e+01 1.609340e+01 6.259324e+01 4.185033e-01 4.394807e-01 6.927337e-01 1.040174e+00 8.297654e-01 9.934506e-01 9.035228e-01 1.057887e+00 9.799748e-01 1.041648e+00 8.343225e-01 7.560235e-01 3.857356e+00 6.110510e-02 7.870051e-02 1.376638e-01 1.793756e-01 1.522939e-01 1.733374e-01 1.669618e-01 1.894481e-01 1.767518e-01 1.957737e-01 1.600008e-01 1.398585e-01 3.545574e-01
<GCONST> 8.337263e+01
<STATE> 4
<MEAN> 39
 -7.679016e-01 -1.982309e-01 -2.691975e-01 7.913034e-01 2.959597e-01 8.691736e-01 4.187108e-01 1.020734e+00 4.490852e-01 1.003350e+00 4.642887e-01 6.785836e-01 2.732710e+00 -2.159831e-01 -9.100344e-02 -1.136762e-02 3.376734e-01 1.790579e-01 3.391117e-01 2.150397e-01 2.137085e-01 6.655908e-02 8.955903e-02 9.962392e-02 1.489497e-01 1.652385e-01 5.849316e-02 2.973580e-02 3.446202e-02 -1.027846e-01 -2.921514e-02 -9.578213e-02 -4.050402e-02 -9.730047e-02 -4.694533e-02 -9.020077e-02 -4.517935e-02 -5.952501e-02 -1.275304e-01
<VARIANCE> 39
 4.008868e+00 3.641871e+00 5.723942e+00 1.066918e+01 1.051551e+01 1.365854e+01 1.493400e+01 1.681770e+01 1.596876e+01 1.607607e+01 1.467916e+01 1.313108e+01 3.273549e+01 1.567840e-01 1.827664e-01 3.154522e-01 5.398262e-01 5.327641e-01 6.635895e-01 7.061201e-01 7.444615e-01 7.383956e-01 7.448760e-01 6.950467e-01 5.937657e-01 1.175968e-01 2.645838e-02 3.725561e-02 6.101748e-02 1.088687e-01 1.024784e-01 1.239768e-01 1.309291e-01 1.458608e-01 1.498991e-01 1.478328e-01 1.310501e-01 1.149935e-01 5.378051e-02
<GCONST> 6.144482e+01
<TRANSP> 5
 0.000000e+00 1.000000e+00 0.000000e+00 0.000000e+00 0.000000e+00
 0.000000e+00 7.416272e-01 2.583728e-01 0.000000e+00 0.000000e+00
 0.000000e+00 0.000000e+00 6.115090e-01 3.884911e-01 0.000000e+00
 0.000000e+00 0.000000e+00 0.000000e+00 3.246174e-01 6.753826e-01
 0.000000e+00 0.000000e+00 0.000000e+00 0.000000e+00 0.000000e+00
<ENDHMM>
~h "uw"
<BEGINHMM>
<NUMSTATES> 5
<STATE> 2
<MEAN> 39
 -1.122070e-01 -2.573223e-02 5.731397e-02 4.731351e-01 5.598502e-01 5.719246e-01 4.918140e-01 5.074860e-01 4.687909e-02 2.800273e-01 1.193542e-01 2.021987e-01 6.532063e-01 -9.776655e-02 9.380379e-04 3.765492e-02 1.976268e-01 1.260932e-01 2.411575e-01 1.421929e-01 6.385681e-02 -4.738136e-02 -3.496381e-02 -5.863807e-02 3.022714e-02 3.571960e-02 4.245664e-02 2.072958e-02 -2.495746e-03 -1.000866e-01 -9.884258e-02 -1.109388e-01 -7.418743e-02 -7.413441e-02 -2.755610e-02 -5.180888e-02 -3.176288e-02 -4.798543e-02 -3.538558e-02
<VARIANCE> 39
 5.378703e+00 3.856019e+00 5.945897e+00 9.785296e+00 1.085288e+01 1.411093e+01 1.469570e+01 1.611271e+01 1.645031e+01 1.602889e+01 1.492976e+01 1.381954e+01 3.092997e+01 1.326063e-01 1.911360e-01 3.088619e-01 4.554284e-01 5.433619e-01 6.140350e-01 6.997982e-01 8.204781e-01 8.043502e-01 7.818455e-01 6.754012e-01 6.261413e-01 6.764587e-02 2.183495e-02 3.520406e-02 5.375006e-02 9.192825e-02 1.005016e-01 1.215842e-01 1.337018e-01 1.372639e-01 1.513825e-01 1.397301e-01 1.284093e-01 1.217691e-01 1.967675e-02
<GCONST> 5.947419e+01
<STATE> 3
<MEAN> 39
 -1.427328e-01 8.054352e-02 1.080016e-01 6.774935e-01 7.995438e-01 7.035429e-01 2.415605e-01 3.429781e-01 -8.179736e-02 3.754610e-02 -4.451968e-03 1.288806e-01 6.055641e-01 -3.190496e-02 2.556343e-02 1.447901e-02 2.396310e-02 -7.560389e-02 1.662758e-02 1.347366e-03 -4.640539e-02 -7.893150e-02 -8.871403e-02 -8.500396e-02 -2.968547e-02 7.357645e-03 3.819785e-02 7.937619e-03 -1.944279e-02 -1.087273e-01 -1.159434e-01 -1.348524e-01 -8.679636e-02 -6.152645e-02 -8.003473e-03 -1.175125e-02 -4.661084e-03 -2.191416e-02 -1.466095e-02
<VARIANCE> 39
 5.136621e+00 3.865126e+00 6.502960e+00 9.753923e+00 1.142220e+01 1.489764e+01 1.506898e+01 1.835876e+01 1.631746e+01 1.627170e+01 1.560284e+01 1.379225e+01 3.205668e+01 9.156416e-02 1.639610e-01 2.605468e-01 3.992884e-01 4.874954e-01 5.713713e-01 6.600707e-01 7.636904e-01 7.543491e-01 7.755508e-01 6.552991e-01 6.026638e-01 3.838661e-02 2.060759e-02 3.233292e-02 5.196271e-02 7.953540e-02 9.629017e-02 1.149417e-01 1.312627e-01 1.366944e-01 1.455903e-01 1.341763e-01 1.272192e-01 1.140650e-01 8.565386e-03
<GCONST> 5.659029e+01
<STATE> 4
<MEAN> 39
 -1.800776e+00 -3.176333e-01 -4.831556e-01 1.524395e+00 5.420393e-01 1.433167e+00 4.418973e-01 1.284075e+00 7.480380e-02 8.300223e-01 1.714007e-01 7.655210e-01 5.594841e+00 2.209510e-02 -1.342930e-02 -5.261522e-03 -3.417694e-02 -6.156142e-02 -4.464508e-02 -3.166039e-02 -4.638247e-02 -2.708825e-02 -2.327163e-02 -2.585642e-02 -5.428110e-03 -5.702063e-03 2.304669e-02 3.389995e-03 3.008395e-03 -2.178286e-02 -1.400017e-02 -2.654030e-02 -9.353948e-03 -6.995618e-03 1.538147e-03 -1.106784e-03 7.398332e-03 -2.697613e-03 -1.005672e-02
<VARIANCE> 39
 4.250505e+00 3.629573e+00 5.845010e+00 9.688441e+00 1.068433e+01 1.373138e+01 1.442733e+01 1.722469e+01 1.621611e+01 1.698962e+01 1.524013e+01 1.371728e+01 2.974395e+01 9.560362e-02 1.370176e-01 2.326251e-01 3.870755e-01 4.527703e-01 5.821095e-01 6.395886e-01 6.780094e-01 7.075786e-01 7.296286e-01 6.533062e-01 5.842741e-01 2.554125e-02 1.764732e-02 2.539309e-02 4.578385e-02 7.064755e-02 8.613324e-02 1.086879e-01 1.212476e-01 1.310720e-01 1.356322e-01 1.407774e-01 1.228901e-01 1.119171e-01 4.979494e-03
<GCONST> 5.329964e+01
<TRANSP> 5
 0.000000e+00 1.000000e+00 0.000000e+00 0.000000e+00 0.000000e+00
 0.000000e+00 5.277194e-02 9.472281e-01 0.000000e+00 0.000000e+00
 0.000000e+00 0.000000e+00 5.149888e-02 9.485011e-01 0.000000e+00
 0.000000e+00 0.000000e+00 0.000000e+00 7.497909e-01 2.502091e-01
 0.000000e+00 0.000000e+00 0.000000e+00 0.000000e+00 0.000000e+00
<ENDHMM>
~h "sil"
<BEGINHMM>
<NUMSTATES> 5
<STATE> 2
<MEAN> 39
 1.252521e-02 1.558108e-02 1.754765e-02 3.375683e-02 1.533385e-02 2.294558e-02 -6.262790e-03 -7.866040e-03 -1.741523e-03 -8.336417e-04 3.803539e-03 1.511566e-03 -7.099847e-02 6.486955e-04 2.216456e-04 -8.475130e-04 -1.933247e-03 -3.481895e-03 -2.880525e-03 -1.829224e-03 -4.772668e-04 -3.955966e-04 2.123394e-04 -2.485259e-04 -4.349991e-04 -1.312442e-03 7.619835e-04 -2.886897e-04 -2.883336e-04 -1.612914e-03 -1.192001e-03 -1.586126e-03 -7.259196e-04 -7.877295e-04 -3.254857e-04 -5.389658e-04 -5.791463e-04 -6.698509e-04 -6.544252e-04
<VARIANCE> 39
 1.359970e+00 2.658773e+00 4.674978e+00 7.293314e+00 9.483812e+00 1.173082e+01 1.338546e+01 1.458176e+01 1.507054e+01 1.487694e+01 1.385864e+01 1.256397e+01 1.808547e+00 5.094096e-02 1.140967e-01 2.031702e-01 3.100559e-01 4.145693e-01 5.071929e-01 5.830719e-01 6.350246e-01 6.590306e-01 6.509042e-01 6.043937e-01 5.471184e-01 1.019648e-02 8.909883e-03 2.064960e-02 3.696678e-02 5.623427e-02 7.572602e-02 9.254782e-02 1.069694e-01 1.160525e-01 1.203856e-01 1.189646e-01 1.107501e-01 9.996333e-02 1.609460e-03
<GCONST> 4.133066e+01
<STATE> 3
~s "silst"
<STATE> 4
<MEAN> 39
 2.679991e+00 3.985279e-01 2.763452e-01 -1.845420e+00 -1.078533e+00 -1.877953e+00 -7.928953e-01 -1.602236e+00 -5.259058e-01 -1.210853e+00 -3.880706e-01 -1.011319e+00 -1.044987e+01 -2.197174e-02 5.431656e-02 -2.501692e-02 2.191513e-02 -2.310252e-02 -1.425522e-02 2.823486e-02 5.940242e-02 9.384052e-03 7.942247e-03 1.417905e-02 2.752154e-02 -1.342150e-01 -9.832917e-03 -2.712296e-03 4.196069e-03 1.369353e-02 1.551434e-02 1.672738e-02 7.051063e-03 7.818364e-03 7.037827e-03 9.379014e-03 5.633491e-03 7.902564e-03 1.508497e-02
<VARIANCE> 39
 9.910372e+00 9.356079e+00 9.512001e+00 1.562506e+01 1.434236e+01 1.721012e+01 1.737833e+01 2.076248e+01 1.817796e+01 1.786666e+01 1.526747e+01 1.461643e+01 6.657811e+01 1.664909e-01 2.436971e-01 3.114634e-01 5.185649e-01 5.536700e-01 6.970100e-01 7.198403e-01 8.236507e-01 7.840574e-01 7.755993e-01 6.885850e-01 6.297658e-01 1.760039e-01 2.245558e-02 3.410925e-02 4.688033e-02 7.523540e-02 8.392354e-02 1.028073e-01 1.078440e-01 1.221730e-01 1.187871e-01 1.163214e-01 1.053431e-01 9.506819e-02 1.617809e-02
<GCONST> 6.350841e+01
<TRANSP> 5
 0.000000e+00 1.000000e+00 0.000000e+00 0.000000e+00 0.000000e+00
 0.000000e+00 9.671003e-01 3.601506e-03 2.929814e-02 0.000000e+00
 0.000000e+00 0.000000e+00 8.446100e-01 1.553900e-01 0.000000e+00
 0.000000e+00 3.400872e-02 0.000000e+00 7.688633e-01 1.971280e-01
 0.000000e+00 0.000000e+00 0.000000e+00 0.000000e+00 0.000000e+00
<ENDHMM>
