~o
<STREAMINFO> 1 39
<VECSIZE> 39<NULLD><MFCC_D_A_Z_0><DIAGC>
~v "varFloor1"
<VARIANCE> 39
 5.653673e-02 4.886588e-02 6.880558e-02 1.097444e-01 1.173968e-01 1.501360e-01 1.524483e-01 1.769248e-01 1.673871e-01 1.699316e-01 1.501835e-01 1.395998e-01 3.516366e-01 1.948883e-03 2.195148e-03 3.084339e-03 4.548327e-03 5.169705e-03 6.475277e-03 6.752422e-03 7.581503e-03 7.468139e-03 7.484302e-03 6.703977e-03 6.097627e-03 6.117719e-03 3.081363e-04 3.835776e-04 5.522510e-04 7.938185e-04 9.348416e-04 1.158605e-03 1.234846e-03 1.362727e-03 1.366371e-03 1.361924e-03 1.233620e-03 1.112660e-03 7.270522e-04
~s "silst"
<NUMMIXES> 2
<MIXTURE> 1 5.038908e-01
<MEAN> 39
 4.382823e-01 -2.216601e-01 -3.810409e-01 -8.989943e-01 -5.605449e-01 -3.969575e-01 -1.429009e-02 6.452043e-02 7.796966e-02 2.056665e-01 1.451732e-01 1.025338e-01 -2.526535e-01 -1.687717e-03 5.986480e-02 7.462893e-02 1.568718e-01 9.462897e-02 1.451188e-01 1.152698e-01 1.439772e-01 1.293999e-01 1.402200e-01 1.150643e-01 8.815494e-02 3.801419e-02 4.520174e-06 1.912347e-02 3.691533e-02 6.140759e-02 5.077969e-02 4.034881e-02 1.822809e-02 1.378989e-02 3.094938e-03 -1.865455e-03 3.452718e-03 -5.250630e-03 1.042438e-02
<VARIANCE> 39
 3.173523e+00 3.468023e+00 5.577969e+00 1.249326e+01 1.121614e+01 1.449875e+01 1.504464e+01 1.662295e+01 1.693777e+01 1.649564e+01 1.524724e+01 1.321019e+01 1.020645e+00 1.320021e-01 1.489536e-01 2.462617e-01 5.060816e-01 5.080692e-01 6.333925e-01 6.577365e-01 7.495825e-01 7.578456e-01 7.410419e-01 6.933330e-01 5.894894e-01 3.339945e-02 2.324150e-02 2.797743e-02 4.798602e-02 9.948435e-02 9.797176e-02 1.241966e-01 1.293108e-01 1.454656e-01 1.482046e-01 1.425932e-01 1.334316e-01 1.127003e-01 6.136287e-03
<GCONST> 5.295518e+01
<MIXTURE> 2 4.960625e-01
<MEAN> 39
 7.740647e-01 -2.432984e-01 -3.321785e-01 -1.404403e+00 -6.589311e-01 -9.053453e-01 -4.010770e-01 -3.345162e-01 -2.678080e-01 -2.707204e-01 -1.714123e-01 -4.402894e-01 -3.917804e-01 5.549622e-02 -1.010441e-01 -1.497325e-01 -3.767098e-01 -2.283488e-01 -3.214299e-01 -1.832761e-01 -2.053562e-01 -1.596029e-01 -1.738432e-01 -1.126320e-01 -1.233928e-01 -9.426650e-02 -1.445914e-02 -1.398373e-02 -9.804186e-03 -5.409324e-03 4.978940e-04 -4.532435e-03 -1.454400e-03 -1.677902e-02 -1.185903e-02 -1.786173e-02 -1.091658e-02 9.783376e-04 -6.959925e-03
<VARIANCE> 39
 2.765328e+00 3.935524e+00 5.645020e+00 1.485837e+01 1.165115e+01 1.603731e+01 1.470294e+01 1.648887e+01 1.619106e+01 1.613431e+01 1.491400e+01 1.360935e+01 1.159972e+00 1.276998e-01 1.603572e-01 2.551535e-01 5.195733e-01 5.190145e-01 6.457475e-01 6.609027e-01 7.410738e-01 7.534748e-01 7.274228e-01 6.756780e-01 6.135401e-01 3.761005e-02 2.048415e-02 2.991892e-02 4.739022e-02 1.042647e-01 9.865698e-02 1.272789e-01 1.252488e-01 1.389320e-01 1.384592e-01 1.396196e-01 1.253286e-01 1.116786e-01 6.311123e-03
<GCONST> 5.334666e+01
~h "f"
<BEGINHMM>
<NUMSTATES> 5
<STATE> 2
<NUMMIXES> 2
<MIXTURE> 1 5.942548e-01
<MEAN> 39
 9.064242e-02 -6.194293e-02 -2.522742e-01 -1.271511e+00 -1.212769e+00 -1.706747e+00 -8.914112e-01 -9.455537e-01 -7.004656e-01 -8.719546e-01 -4.378213e-01 -3.783726e-01 -1.594530e+00 -3.317168e-02 1.109561e-02 1.944690e-02 1.279586e-01 1.530913e-01 1.667889e-01 1.436889e-01 1.455277e-01 1.095790e-01 1.380539e-01 1.062634e-01 1.233560e-01 4.348354e-02 -1.806029e-02 -8.704563e-03 3.560135e-02 1.163990e-01 1.426868e-01 1.768997e-01 1.373938e-01 1.391525e-01 1.256426e-01 1.146053e-01 7.277740e-02 5.599271e-02 3.407152e-02
<VARIANCE> 39
 3.313514e+00 4.036880e+00 5.534916e+00 1.029522e+01 9.881521e+00 1.401066e+01 1.334301e+01 1.587773e+01 1.569193e+01 1.521388e+01 1.363169e+01 1.282126e+01 4.380062e+01 1.346944e-01 1.581787e-01 2.503656e-01 3.924361e-01 4.324251e-01 5.278484e-01 5.596095e-01 6.571890e-01 6.624531e-01 6.532923e-01 6.237439e-01 5.580669e-01 1.063678e-01 2.762952e-02 3.589812e-02 5.500953e-02 8.670870e-02 9.013867e-02 1.165817e-01 1.191817e-01 1.408331e-01 1.430638e-01 1.288528e-01 1.161505e-01 1.110755e-01 3.779776e-02
<GCONST> 5.771436e+01
<MIXTURE> 2 4.057537e-01
<MEAN> 39
 -3.123343e-03 -8.356441e-01 -1.337759e-01 -2.693254e+00 -1.733191e+00 -3.077322e+00 -5.491767e-01 -1.492333e+00 -1.750461e-01 -1.497910e+00 -2.524388e-02 -1.029990e+00 -7.769305e+00 -1.373511e-01 -1.559550e-01 -1.120648e-02 -2.007635e-01 -8.117507e-02 -2.585722e-01 -5.412652e-02 -1.887895e-01 -7.610308e-02 -1.757771e-01 -2.739903e-02 -8.643030e-02 -1.133077e-02 1.400527e-02 1.706903e-02 2.760187e-02 9.172752e-02 7.435470e-02 9.906611e-02 3.151294e-02 3.054580e-02 -4.511427e-03 2.121426e-02 -6.446056e-03 1.791980e-02 1.321009e-01
<VARIANCE> 39
 9.056004e+00 8.758264e+00 8.479409e+00 1.345368e+01 1.179202e+01 1.676519e+01 1.563944e+01 1.841184e+01 1.720234e+01 1.688747e+01 1.478606e+01 1.428241e+01 9.668330e+01 3.618957e-01 3.437884e-01 4.156827e-01 5.837158e-01 5.504079e-01 7.476630e-01 6.803840e-01 8.241314e-01 7.734997e-01 7.390037e-01 6.972387e-01 6.151714e-01 8.064412e-01 6.070516e-02 6.718059e-02 7.512829e-02 1.174792e-01 1.010156e-01 1.434965e-01 1.297803e-01 1.609315e-01 1.433180e-01 1.349882e-01 1.274342e-01 1.195986e-01 1.379008e-01
<GCONST> 7.230020e+01
<STATE> 3
<NUMMIXES> 2
<MIXTURE> 1 5.322065e-01
<MEAN> 39
 -7.060134e-01 -8.528146e-01 5.906662e-02 -6.161414e-01 -2.385897e-01 -1.333788e+00 8.714093e-02 -3.218157e-01 1.150663e-01 -4.161198e-01 3.385954e-01 -2.312878e-01 7.894706e-01 1.445884e-02 2.293248e-01 -1.130816e-01 6.417345e-01 3.488741e-01 7.829084e-01 1.696937e-01 5.764305e-01 9.914096e-02 4.779992e-01 3.583781e-02 3.785872e-01 1.275178e+00 -6.287549e-02 1.237090e-02 7.066784e-03 1.164292e-02 2.024492e-02 5.396346e-02 3.764423e-02 4.095041e-02 4.026706e-02 3.069730e-02 2.293043e-02 1.550505e-02 -2.690846e-02
<VARIANCE> 39
 9.196274e+00 8.750364e+00 7.851756e+00 1.563696e+01 1.334669e+01 2.135480e+01 1.646390e+01 2.033642e+01 1.712111e+01 1.831357e+01 1.511588e+01 1.438143e+01 5.546048e+01 5.852740e-01 4.203677e-01 4.249276e-01 6.924137e-01 5.625005e-01 8.553892e-01 7.407966e-01 8.411335e-01 8.247407e-01 7.874075e-01 6.922111e-01 6.308228e-01 2.383171e+00 9.089591e-02 7.118036e-02 7.009657e-02 1.314895e-01 1.118682e-01 1.767589e-01 1.345545e-01 1.687883e-01 1.480278e-01 1.563448e-01 1.268057e-01 1.215639e-01 2.979016e-01
<GCONST> 7.667970e+01
<MIXTURE> 2 4.677801e-01
<MEAN> 39
 -4.275191e-01 -7.834221e-01 7.365000e-01 -1.872985e+00 -1.003505e+00 -2.544953e+00 2.632725e-02 -1.476166e+00 -1.221830e-02 -1.333070e+00 2.407475e-01 -1.026532e+00 -4.962322e+00 -1.857938e-01 -1.535380e-01 1.073821e-02 -1.409235e-01 -6.401644e-02 -1.921011e-01 -3.596889e-02 -1.514424e-01 -3.561459e-02 -1.211400e-01 9.385105e-03 -1.130843e-01 3.433678e-01 7.224958e-03 -1.147924e-03 -3.932599e-02 4.117436e-02 1.285581e-02 4.383503e-02 -7.027353e-03 3.899649e-02 2.443502e-03 2.397875e-02 -1.044337e-02 2.100619e-02 9.844426e-02
<VARIANCE> 39
 1.724696e+01 1.533922e+01 1.434272e+01 1.951212e+01 1.742190e+01 2.407871e+01 2.088349e+01 2.342842e+01 2.113728e+01 2.078698e+01 1.844539e+01 1.669251e+01 8.594568e+01 8.808933e-01 7.363576e-01 7.551035e-01 9.270786e-01 7.967116e-01 1.085556e+00 9.522901e-01 1.082526e+00 9.614818e-01 9.045671e-01 8.413560e-01 7.291006e-01 3.559313e+00 1.563449e-01 1.353027e-01 1.340223e-01 1.805277e-01 1.477975e-01 2.113613e-01 1.803990e-01 2.093453e-01 1.808789e-01 1.736143e-01 1.586115e-01 1.425630e-01 4.505542e-01
<GCONST> 8.876005e+01
<STATE> 4
<NUMMIXES> 2
<MIXTURE> 1 5.200587e-01
<MEAN> 39
 -2.450226e-01 7.582603e-02 4.159244e-02 5.848106e-01 4.467969e-01 5.671371e-01 2.674929e-01 5.174823e-01 1.908505e-01 4.177324e-01 2.738211e-01 4.475394e-01 1.015254e+00 -1.244736e-01 -9.259753e-03 9.629261e-02 3.708830e-01 4.682082e-01 5.540985e-01 4.599490e-01 4.663897e-01 4.491647e-01 3.696667e-01 2.610233e-01 2.039260e-01 4.262500e-02 4.236910e-03 -7.210950e-03 8.962151e-03 -1.904273e-02 -1.018976e-02 -2.237763e-02 1.912998e-02 2.587999e-03 1.258522e-02 -1.319977e-03 -2.085900e-03 -1.267120e-02 -3.564052e-02
<VARIANCE> 39
 1.828094e+00 2.569732e+00 4.534526e+00 7.947096e+00 8.658968e+00 1.120698e+01 1.279022e+01 1.407378e+01 1.398565e+01 1.477370e+01 1.438815e+01 1.271367e+01 8.328019e+00 9.220298e-02 1.382470e-01 2.336512e-01 3.972137e-01 4.104756e-01 5.255671e-01 5.763412e-01 6.519428e-01 7.195863e-01 6.491057e-01 6.077666e-01 5.602558e-01 2.896417e-02 1.584123e-02 2.460755e-02 4.249827e-02 6.667005e-02 7.542400e-02 9.196756e-02 1.004031e-01 1.109942e-01 1.209138e-01 1.259749e-01 1.168710e-01 1.037236e-01 1.130087e-02
<GCONST> 4.834013e+01
<MIXTURE> 2 4.799550e-01
<MEAN> 39
 -1.469947e+00 -1.810098e-01 -7.290074e-01 1.129983e+00 3.603323e-01 1.201917e+00 2.812598e-01 1.295292e+00 2.591595e-02 8.014943e-01 1.792276e-01 1.012545e+00 5.570010e+00 -3.230254e-01 -9.626430e-02 -1.291658e-01 1.068268e-01 8.763268e-02 1.840524e-01 8.819880e-02 1.306922e-01 5.984178e-02 5.742149e-02 1.897035e-02 6.985913e-02 1.770744e-01 7.000487e-02 -4.202790e-02 4.460040e-02 -9.671634e-02 -2.219546e-02 -1.411941e-01 -1.763498e-03 -8.916458e-02 -2.590679e-03 -7.770532e-02 -6.831119e-03 -8.416286e-02 -2.329952e-01
<VARIANCE> 39
 3.157754e+00 2.859792e+00 5.089719e+00 8.411100e+00 9.177380e+00 1.243288e+01 1.330837e+01 1.579873e+01 1.493872e+01 1.547773e+01 1.417803e+01 1.320418e+01 2.787198e+01 1.297324e-01 1.392393e-01 2.383926e-01 4.048228e-01 4.591285e-01 5.558624e-01 5.948843e-01 6.737043e-01 7.301504e-01 6.827745e-01 6.363491e-01 5.875257e-01 6.950967e-02 3.415455e-02 3.225454e-02 5.053570e-02 8.450246e-02 8.506082e-02 1.197869e-01 1.142396e-01 1.318153e-01 1.272804e-01 1.343494e-01 1.172890e-01 1.092726e-01 5.538068e-02
<GCONST> 5.637651e+01
<TRANSP> 5
 0.000000e+00 1.000000e+00 0.000000e+00 0.000000e+00 0.000000e+00
 0.000000e+00 3.640023e-01 6.359977e-01 0.000000e+00 0.000000e+00
 0.000000e+00 0.000000e+00 7.637689e-01 2.362311e-01 0.000000e+00
 0.000000e+00 0.000000e+00 0.000000e+00 1.874989e-01 8.125011e-01
 0.000000e+00 0.000000e+00 0.000000e+00 0.000000e+00 0.000000e+00
<ENDHMM>
~h "k"
<BEGINHMM>
<NUMSTATES> 5
<STATE> 2
<NUMMIXES> 2
<MIXTURE> 1 4.849201e-01
<MEAN> 39
 1.306005e+00 1.548177e+00 1.467139e+00 -4.115343e-01 -1.101475e+00 -7.699406e-01 -4.583005e-01 2.081133e-01 4.002652e-01 5.093698e-01 5.736337e-01 3.804845e-01 -3.967089e+00 -3.240774e-01 -2.519704e-01 -4.201348e-02 2.664006e-02 -7.761099e-02 2.197326e-01 2.457885e-01 1.196081e-01 2.327949e-01 1.990082e-01 8.710480e-02 8.878330e-02 7.040192e-02 -1.786437e-01 -1.065051e-01 -6.842073e-02 -1.247596e-02 3.151765e-03 9.611665e-02 5.876516e-02 2.189887e-02 4.352442e-02 2.221475e-02 -1.198871e-02 -1.463432e-03 4.621242e-01
<VARIANCE> 39
 2.404248e+01 2.040760e+01 2.262576e+01 2.253403e+01 2.471434e+01 2.934702e+01 2.682360e+01 2.548403e+01 2.473686e+01 2.691947e+01 2.193111e+01 1.833413e+01 1.311009e+02 1.817717e+00 1.390997e+00 1.406592e+00 1.460191e+00 1.487222e+00 1.796601e+00 1.495803e+00 1.334897e+00 1.403391e+00 1.346804e+00 1.146845e+00 8.992407e-01 1.030609e+01 2.665915e-01 2.323579e-01 2.458155e-01 2.510216e-01 2.509599e-01 3.109420e-01 2.684804e-01 2.526149e-01 2.389407e-01 2.569525e-01 2.054189e-01 1.697206e-01 1.542587e+00
<GCONST> 1.043950e+02
<MIXTURE> 2 5.150578e-01
<MEAN> 39
 1.490471e-01 4.569564e-01 1.246017e+00 -6.480874e-01 -1.596132e+00 -2.756431e-01 5.598664e-04 2.401978e-03 4.024532e-01 3.947874e-01 1.226274e-01 -2.700332e-01 5.658591e-01 8.948845e-02 6.683226e-02 1.235967e-01 -5.759555e-01 -3.863604e-01 -3.677242e-01 -2.957442e-01 -5.397669e-01 -1.192492e-01 -3.918542e-01 -1.893440e-01 -3.662588e-01 -7.309938e-01 -4.018769e-02 -7.989883e-03 -7.879129e-02 -1.161809e-02 5.098986e-02 -2.758403e-02 -2.851719e-02 -2.696706e-02 -1.170261e-02 -4.605418e-02 -7.198710e-03 1.619001e-02 -1.666222e-01
<VARIANCE> 39
 1.991211e+01 1.727944e+01 1.819212e+01 2.511459e+01 2.644137e+01 2.642595e+01 2.698193e+01 2.610710e+01 2.663045e+01 2.524237e+01 2.170816e+01 1.860892e+01 7.119808e+01 1.605440e+00 1.053766e+00 1.022521e+00 1.244449e+00 1.147223e+00 1.446704e+00 1.245456e+00 1.134515e+00 1.240899e+00 1.240366e+00 1.007842e+00 8.436927e-01 7.448166e+00 2.066524e-01 1.847466e-01 1.793064e-01 2.315410e-01 2.299252e-01 2.670259e-01 2.396470e-01 2.339808e-01 2.342932e-01 2.383748e-01 1.872769e-01 1.551535e-01 8.920217e-01
<GCONST> 9.876612e+01
<STATE> 3
<NUMMIXES> 2
<MIXTURE> 1 5.697191e-01
<MEAN> 39
 -2.040381e+00 -2.572789e-01 -4.841051e-01 -6.736333e-01 -1.262215e+00 7.082368e-01 6.303978e-01 -4.393227e-01 5.965849e-01 5.235819e-01 -1.391410e-01 -8.159892e-01 1.710281e+00 1.295550e-01 9.865828e-02 -9.754717e-02 -8.841130e-02 -5.151851e-02 -2.119097e-01 -2.335992e-01 -1.617214e-01 -1.483527e-01 -1.957222e-01 -1.276621e-01 -1.019972e-01 -4.040615e-02 7.557584e-02 2.292488e-04 4.965082e-02 6.043550e-02 7.297192e-02 2.016721e-02 4.111362e-02 5.903178e-02 1.307870e-02 3.935495e-02 4.028974e-02 5.812883e-02 -5.039994e-02
<VARIANCE> 39
 1.127751e+01 5.038983e+00 8.039797e+00 1.446708e+01 1.665200e+01 1.403548e+01 1.733085e+01 1.761502e+01 2.011686e+01 2.017264e+01 1.584337e+01 1.578082e+01 1.387460e+01 3.519476e-01 2.366029e-01 3.941659e-01 5.526947e-01 7.083986e-01 6.557358e-01 7.942841e-01 8.849335e-01 8.911641e-01 7.982102e-01 6.462063e-01 6.822715e-01 2.565707e-01 5.715693e-02 4.633289e-02 6.954548e-02 1.113647e-01 1.286304e-01 1.154856e-01 1.456914e-01 1.602827e-01 1.667364e-01 1.563842e-01 1.307707e-01 1.318278e-01 8.281056e-02
<GCONST> 6.919791e+01
<MIXTURE> 2 4.302864e-01
<MEAN> 39
 -2.799650e+00 -1.012233e+00 3.474881e-01 -3.458143e+00 -1.960441e+00 1.068717e+00 9.250619e-02 -1.938969e+00 1.606145e+00 -3.645479e-01 -1.081765e+00 -1.702199e+00 1.229749e+00 -2.367845e-02 -1.562059e-01 -3.265136e-01 -6.505193e-01 4.070682e-02 -5.535640e-01 -4.835328e-01 -4.958918e-01 -6.636830e-02 -6.051846e-01 -2.183322e-01 -3.400838e-01 -6.011046e-01 1.317124e-01 1.863763e-02 -4.318729e-02 2.270850e-01 6.640183e-02 -1.011804e-01 1.036334e-02 1.241836e-01 -7.806066e-02 4.645652e-02 9.767719e-02 1.085777e-01 -1.823208e-01
<VARIANCE> 39
 1.326673e+01 8.003696e+00 1.033693e+01 2.342810e+01 2.038379e+01 1.989745e+01 1.925046e+01 2.051931e+01 2.621999e+01 2.607243e+01 1.794174e+01 1.824849e+01 1.765073e+01 5.898381e-01 4.139790e-01 6.292592e-01 1.097083e+00 1.036672e+00 9.720631e-01 8.922395e-01 9.857726e-01 1.103787e+00 1.215072e+00 8.060561e-01 7.532691e-01 6.493797e-01 8.225910e-02 7.098083e-02 8.968793e-02 1.780775e-01 1.497273e-01 1.726476e-01 1.678815e-01 1.870499e-01 1.868946e-01 1.891876e-01 1.452318e-01 1.410402e-01 2.198049e-01
<GCONST> 8.132558e+01
<STATE> 4
<NUMMIXES> 2
<MIXTURE> 1 5.405449e-01
<MEAN> 39
 -3.269446e-01 -7.211370e-01 -4.457170e-01 -1.751262e+00 -9.993059e-01 -9.326783e-01 -9.401263e-01 -1.590589e+00 -3.183773e-02 -1.100137e+00 -4.182197e-01 -9.491084e-01 -3.789078e-01 1.100008e-01 5.101350e-02 -4.790153e-02 7.707097e-03 3.827967e-02 -1.170625e-01 -5.922645e-02 2.145953e-04 -2.561899e-02 -4.520678e-02 5.532961e-02 7.501617e-02 -1.052207e-01 -7.600808e-03 1.299397e-02 3.991740e-02 1.050259e-01 8.236630e-02 1.308202e-01 1.420011e-01 1.429964e-01 8.824624e-02 1.251651e-01 7.234476e-02 8.095489e-02 1.891234e-02
<VARIANCE> 39
 1.003443e+01 7.720767e+00 8.629314e+00 1.478070e+01 1.409213e+01 1.586963e+01 1.717114e+01 1.942270e+01 2.201601e+01 1.962793e+01 1.658448e+01 1.559899e+01 9.082699e+00 2.182651e-01 2.475764e-01 3.541281e-01 5.404204e-01 6.009958e-01 6.871583e-01 7.073386e-01 7.871168e-01 7.800179e-01 7.706504e-01 7.619669e-01 6.086167e-01 1.819813e-01 4.131677e-02 4.727900e-02 6.035491e-02 1.138656e-01 1.107478e-01 1.205517e-01 1.322064e-01 1.533820e-01 1.540624e-01 1.473654e-01 1.323508e-01 1.244659e-01 3.650197e-02
<GCONST> 6.626883e+01
<MIXTURE> 2 4.594630e-01
<MEAN> 39
 1.454263e-01 -1.793152e+00 -1.256207e-01 -3.131935e+00 -8.466960e-01 -1.087901e+00 -7.801374e-01 -2.801840e+00 5.215917e-01 -1.556148e+00 -1.079083e+00 -1.998523e+00 -1.700589e+00 2.679272e-01 -7.725317e-02 -8.235328e-02 -5.531407e-02 -4.450980e-02 -3.338658e-01 -2.324275e-01 -2.223665e-01 -2.806482e-01 -1.745641e-01 -3.838358e-02 -7.495999e-02 -4.609250e-01 -4.413317e-02 3.036708e-02 6.962615e-03 8.961762e-02 -2.140475e-02 6.988553e-02 6.631662e-02 8.635198e-02 5.226569e-03 8.122467e-02 4.858911e-02 5.400510e-02 2.567191e-02
<VARIANCE> 39
 1.753603e+01 1.196393e+01 1.347803e+01 2.081081e+01 2.059322e+01 2.265114e+01 2.340792e+01 2.624872e+01 2.838163e+01 2.568802e+01 2.097201e+01 1.644134e+01 1.554557e+01 4.006045e-01 4.355524e-01 5.397767e-01 8.916954e-01 8.249496e-01 9.076036e-01 9.265945e-01 1.038468e+00 9.333040e-01 1.001076e+00 9.421527e-01 6.930977e-01 4.969690e-01 6.549584e-02 7.151993e-02 8.419073e-02 1.517588e-01 1.479852e-01 1.547759e-01 1.661427e-01 1.818581e-01 1.685690e-01 1.726286e-01 1.655999e-01 1.184172e-01 5.533498e-02
<GCONST> 7.904327e+01
<TRANSP> 5
 0.000000e+00 1.000000e+00 0.000000e+00 0.000000e+00 0.000000e+00
 0.000000e+00 7.700881e-01 2.299118e-01 0.000000e+00 0.000000e+00
 0.000000e+00 0.000000e+00 4.059147e-01 5.940853e-01 0.000000e+00
 0.000000e+00 0.000000e+00 0.000000e+00 4.662478e-01 5.337522e-01
 0.000000e+00 0.000000e+00 0.000000e+00 0.000000e+00 0.000000e+00
<ENDHMM>
~h "n"
<BEGINHMM>
<NUMSTATES> 5
<STATE> 2
<NUMMIXES> 2
<MIXTURE> 1 4.673726e-01
<MEAN> 39
 -6.120988e-01 -2.934160e-01 -1.928851e-01 1.267159e+00 4.914634e-01 1.149533e+00 5.562068e-01 9.902048e-01 -1.966705e-01 3.921160e-01 7.116143e-02 6.369830e-01 4.202604e+00 3.003908e-01 1.610537e-01 2.060966e-01 1.235058e-01 9.569579e-02 3.542662e-03 -4.293528e-02 -1.297137e-01 -1.665819e-01 -1.027637e-01 -1.685566e-02 -1.579368e-02 -5.720880e-03 9.055877e-02 6.272773e-02 4.865393e-02 -2.855691e-02 2.698655e-02 -1.531135e-02 5.601328e-04 -2.057221e-02 2.474623e-02 1.982421e-02 1.403907e-02 -1.221769e-02 -9.367615e-02
<VARIANCE> 39
 3.844203e+00 3.736051e+00 5.430266e+00 9.016209e+00 1.034502e+01 1.352162e+01 1.445038e+01 1.582974e+01 1.555427e+01 1.576730e+01 1.532985e+01 1.370249e+01 4.349410e+01 1.749124e-01 1.660880e-01 2.481748e-01 3.767574e-01 4.967979e-01 5.880013e-01 6.830591e-01 7.154647e-01 7.375072e-01 7.410144e-01 6.899773e-01 6.272958e-01 3.842578e-02 4.743679e-02 4.722178e-02 6.765229e-02 8.760536e-02 1.103980e-01 1.328292e-01 1.451558e-01 1.636059e-01 1.556477e-01 1.593226e-01 1.468028e-01 1.252390e-01 4.089379e-02
<GCONST> 6.059065e+01
<MIXTURE> 2 5.326353e-01
<MEAN> 39
 -8.194332e-02 4.361729e-02 1.424866e-01 5.994475e-01 2.763973e-01 3.420201e-01 -1.358703e-01 -2.427214e-01 -7.120831e-01 -6.015952e-01 -6.502805e-01 -2.366376e-01 1.087070e+00 1.217053e-01 9.756877e-02 4.230991e-02 -1.421271e-01 -2.243773e-01 -3.722356e-01 -4.427134e-01 -4.921805e-01 -4.776186e-01 -3.785043e-01 -2.826985e-01 -2.004037e-01 -2.040255e-02 -2.037238e-03 -1.929083e-02 -4.510777e-02 -7.200046e-02 -5.126724e-02 -3.686885e-02 7.870574e-03 4.029305e-02 7.010911e-02 7.297076e-02 5.954496e-02 3.680040e-02 -1.572581e-02
<VARIANCE> 39
 1.825351e+00 2.754672e+00 4.526714e+00 8.063906e+00 9.348784e+00 1.166741e+01 1.250008e+01 1.385819e+01 1.414533e+01 1.457413e+01 1.391530e+01 1.278587e+01 8.885406e+00 1.042595e-01 1.418604e-01 2.211399e-01 3.580015e-01 4.415534e-01 5.516475e-01 6.133622e-01 6.206206e-01 6.794484e-01 6.688054e-01 6.461949e-01 5.937147e-01 2.633693e-02 1.693290e-02 2.731272e-02 4.450167e-02 7.518438e-02 9.073957e-02 1.071139e-01 1.145169e-01 1.259328e-01 1.298418e-01 1.327161e-01 1.244544e-01 1.121437e-01 6.134301e-03
<GCONST> 4.924083e+01
<STATE> 3
<NUMMIXES> 2
<MIXTURE> 1 5.132272e-01
<MEAN> 39
 1.135370e+00 3.692904e-01 5.802236e-01 2.468447e-01 3.895770e-01 1.413254e-02 3.380373e-02 -3.281006e-01 -5.067897e-01 -2.664970e-01 -1.810421e-01 -8.488855e-02 1.516182e-01 1.073324e-01 1.234253e-01 1.461495e-01 1.317167e-01 1.575405e-01 1.324299e-01 8.277352e-02 7.079472e-02 6.939094e-02 1.380525e-01 6.881705e-02 7.124257e-02 1.782739e-01 1.392423e-02 2.879720e-02 5.646950e-02 -1.947741e-02 3.359870e-02 -1.819562e-03 4.063681e-03 -8.373782e-03 4.883734e-02 2.808279e-02 1.791987e-02 -1.053774e-02 -7.079876e-02
<VARIANCE> 39
 1.453773e+01 1.068834e+01 1.441641e+01 1.649077e+01 1.704504e+01 2.255344e+01 2.142017e+01 2.519824e+01 2.112815e+01 2.206035e+01 1.910858e+01 1.722397e+01 9.350737e+01 1.124783e+00 7.844147e-01 1.122205e+00 8.651307e-01 1.030125e+00 1.215208e+00 1.131827e+00 1.330839e+00 1.179545e+00 1.175702e+00 9.738223e-01 8.894904e-01 3.985821e+00 1.259531e-01 1.123187e-01 1.591235e-01 1.528682e-01 1.645120e-01 2.103679e-01 2.030817e-01 2.254694e-01 2.001823e-01 2.053161e-01 1.770546e-01 1.573354e-01 5.026194e-01
<GCONST> 9.107932e+01
<MIXTURE> 2 4.867479e-01
<MEAN> 39
 3.307527e+00 1.474832e+00 3.068780e+00 -4.537703e-01 1.225473e+00 -6.867905e-01 -1.317678e+00 -3.065129e+00 -1.374505e+00 -1.429719e+00 -1.077271e+00 -1.426947e+00 -2.380334e+00 8.340959e-02 1.285707e-02 6.143137e-02 -4.503198e-01 -2.712437e-01 -5.280591e-01 -3.673418e-01 -5.295678e-01 -1.449100e-01 -3.002310e-01 -1.212340e-01 -2.888538e-01 -1.048390e+00 -1.570559e-01 -1.145058e-01 -1.702189e-01 -1.098004e-02 -7.846643e-02 3.655660e-02 7.641780e-02 1.565180e-01 8.586161e-02 8.818530e-02 6.270636e-02 7.254317e-02 1.088655e-01
<VARIANCE> 39
 2.103163e+01 1.644173e+01 2.809830e+01 2.410008e+01 2.702413e+01 2.951181e+01 3.056214e+01 3.529755e+01 3.088663e+01 2.763799e+01 2.325032e+01 2.168925e+01 6.403806e+01 9.797388e-01 8.566256e-01 1.327767e+00 1.054123e+00 1.109024e+00 1.249608e+00 1.329236e+00 1.570081e+00 1.334429e+00 1.233087e+00 1.057009e+00 1.013201e+00 2.681700e+00 1.522980e-01 1.452722e-01 2.093527e-01 1.840808e-01 2.052869e-01 2.357618e-01 2.369046e-01 2.552086e-01 2.479480e-01 2.307940e-01 1.960629e-01 1.928667e-01 2.967793e-01
<GCONST> 9.736240e+01
<STATE> 4
<NUMMIXES> 2
<MIXTURE> 1 5.299740e-01
<MEAN> 39
 -3.293891e-01 1.005772e-01 1.032197e-01 1.551094e-01 -3.036894e-01 -3.299299e-01 -6.026492e-01 -5.298439e-01 -6.970786e-01 -2.866014e-01 -2.851278e-01 -1.562203e-02 1.844779e+00 -3.824965e-02 2.287171e-02 1.301465e-02 4.859463e-02 5.519897e-02 9.037127e-02 1.409509e-01 2.057189e-01 2.222383e-01 2.413775e-01 1.820249e-01 1.324896e-01 3.176967e-02 1.473119e-02 -1.276411e-02 -8.354768e-03 3.257002e-02 7.894415e-02 1.086708e-01 1.329660e-01 1.366930e-01 1.323300e-01 1.039012e-01 7.240391e-02 5.084522e-02 -2.442108e-02
<VARIANCE> 39
 4.590521e+00 3.903691e+00 6.041097e+00 9.642284e+00 1.105701e+01 1.365143e+01 1.426157e+01 1.660270e+01 1.652616e+01 1.619775e+01 1.437125e+01 1.387676e+01 2.337439e+01 1.451894e-01 1.643027e-01 2.603461e-01 3.888649e-01 4.833979e-01 5.666835e-01 6.013588e-01 6.971967e-01 7.334117e-01 7.541372e-01 6.651377e-01 5.863140e-01 5.543108e-02 3.581250e-02 3.983232e-02 5.736968e-02 8.125921e-02 1.015059e-01 1.205951e-01 1.357096e-01 1.399079e-01 1.565162e-01 1.491028e-01 1.342349e-01 1.222168e-01 2.685834e-02
<GCONST> 5.875930e+01
<MIXTURE> 2 4.700306e-01
<MEAN> 39
 6.226357e-01 3.058358e-01 4.121433e-01 -4.926131e-01 -4.105344e-01 -1.003893e+00 -1.105929e+00 -1.415369e+00 -1.153245e+00 -9.349751e-01 -6.253198e-01 -5.794793e-01 -3.313867e-01 -7.441493e-02 -1.077579e-01 -2.256208e-01 -2.837188e-01 -2.798513e-01 -2.521838e-01 -1.259216e-01 -5.112381e-02 -3.442784e-02 -2.937197e-02 6.169742e-03 -2.464502e-02 -8.824799e-02 -2.266471e-02 -3.767580e-02 -3.185089e-02 2.427434e-02 5.576029e-02 9.418539e-02 1.095793e-01 1.223267e-01 1.166369e-01 8.642570e-02 5.203444e-02 4.955902e-02 9.921994e-03
<VARIANCE> 39
 6.154949e+00 4.529385e+00 7.317883e+00 1.164134e+01 1.163965e+01 1.528957e+01 1.474028e+01 1.893004e+01 1.600047e+01 1.624552e+01 1.461659e+01 1.417971e+01 3.097499e+01 1.587866e-01 1.926662e-01 2.737980e-01 4.647573e-01 4.972289e-01 5.989270e-01 6.650361e-01 6.882068e-01 7.254955e-01 6.892040e-01 6.489453e-01 5.825241e-01 9.650080e-02 3.183838e-02 4.061917e-02 5.875605e-02 9.008160e-02 1.013018e-01 1.268594e-01 1.343604e-01 1.415286e-01 1.371674e-01 1.375787e-01 1.272248e-01 1.207145e-01 2.318557e-02
<GCONST> 6.092556e+01
<TRANSP> 5
 0.000000e+00 1.000000e+00 0.000000e+00 0.000000e+00 0.000000e+00
 0.000000e+00 1.726960e-01 8.273039e-01 0.000000e+00 0.000000e+00
 0.000000e+00 0.000000e+00 6.733874e-01 3.266127e-01 0.000000e+00
 0.000000e+00 0.000000e+00 0.000000e+00 1.648542e-01 8.351458e-01
 0.000000e+00 0.000000e+00 0.000000e+00 0.000000e+00 0.000000e+00
<ENDHMM>
~h "r"
<BEGINHMM>
<NUMSTATES> 5
<STATE> 2
<NUMMIXES> 2
<MIXTURE> 1 4.997141e-01
<MEAN> 39
 -2.586901e+00 -5.640734e-01 -8.715956e-01 1.720952e+00 6.098824e-01 1.955501e+00 8.834215e-01 2.165625e+00 5.719815e-01 1.642922e+00 5.308415e-01 1.442049e+00 8.557158e+00 5.553150e-02 5.219803e-02 8.108672e-02 9.202813e-02 1.027197e-01 1.325452e-01 1.255163e-01 1.140829e-01 1.133806e-01 1.036916e-01 8.152480e-02 5.982137e-02 1.712199e-02 3.373868e-02 2.038723e-02 2.016462e-02 1.123001e-02 1.342821e-02 1.944276e-03 -4.287309e-03 -4.083002e-03 -3.815869e-03 -7.170217e-03 -4.643647e-03 -5.527415e-03 4.419769e-03
<VARIANCE> 39
 2.355625e+00 3.358078e+00 5.272428e+00 8.406606e+00 1.026105e+01 1.280455e+01 1.424739e+01 1.568837e+01 1.616881e+01 1.604760e+01 1.469914e+01 1.305837e+01 2.036753e+01 5.489982e-02 1.164533e-01 2.037106e-01 3.056479e-01 4.107368e-01 4.971147e-01 5.816779e-01 6.273352e-01 6.418172e-01 6.392705e-01 6.029590e-01 5.457231e-01 9.814302e-03 1.109130e-02 2.268795e-02 3.985170e-02 5.950438e-02 8.105772e-02 9.829906e-02 1.157539e-01 1.241941e-01 1.279966e-01 1.280789e-01 1.200807e-01 1.045466e-01 1.963555e-03
<GCONST> 4.647433e+01
<MIXTURE> 2 5.002608e-01
<MEAN> 39
 -2.050249e+00 -4.929543e-01 -8.250688e-01 1.234068e+00 3.644674e-01 1.407359e+00 4.708402e-01 1.600379e+00 3.498623e-01 1.037260e+00 2.240122e-01 1.028415e+00 6.881359e+00 -3.321717e-02 -6.471068e-02 -9.160918e-02 -1.067113e-01 -1.372787e-01 -1.475426e-01 -1.634614e-01 -1.754459e-01 -1.607226e-01 -1.609291e-01 -1.371943e-01 -8.604717e-02 -1.421061e-02 1.342170e-02 1.477851e-03 -3.116347e-03 -2.073040e-02 -2.663437e-02 -3.586415e-02 -3.460215e-02 -4.700980e-02 -4.554551e-02 -3.128795e-02 -3.141124e-02 -2.818941e-02 -4.427507e-03
<VARIANCE> 39
 2.736704e+00 3.067407e+00 5.182425e+00 8.177601e+00 9.907965e+00 1.237099e+01 1.398099e+01 1.497093e+01 1.575955e+01 1.549057e+01 1.415478e+01 1.296378e+01 2.387926e+01 5.713226e-02 1.174749e-01 2.074121e-01 3.149527e-01 4.207570e-01 5.051244e-01 6.023840e-01 6.325771e-01 6.753510e-01 6.591389e-01 6.146228e-01 5.454295e-01 9.980008e-03 1.122670e-02 2.270856e-02 4.013941e-02 5.925535e-02 7.966923e-02 9.736804e-02 1.154333e-01 1.205309e-01 1.293313e-01 1.251203e-01 1.194444e-01 1.050933e-01 2.078369e-03
<GCONST> 4.670402e+01
<STATE> 3
<NUMMIXES> 2
<MIXTURE> 1 4.926058e-01
<MEAN> 39
 -1.164901e+00 -1.938548e-01 -1.806344e-01 1.155413e+00 4.669333e-01 1.322227e+00 7.393456e-01 1.128526e+00 2.201272e-01 8.262486e-01 2.230542e-01 8.094583e-01 4.066421e+00 2.108512e-01 1.220597e-01 1.390122e-01 6.707469e-02 1.467221e-02 -2.651495e-02 -4.856936e-02 -8.364538e-02 -8.384664e-02 -6.715181e-02 -4.959047e-02 -6.284289e-02 2.961964e-02 7.148099e-02 3.712356e-02 3.383690e-02 -6.224034e-03 7.225591e-03 -3.148242e-02 -3.159847e-02 -2.806937e-02 -1.072003e-02 -1.803023e-02 1.721200e-03 -2.126738e-02 -2.016833e-02
<VARIANCE> 39
 2.698616e+00 2.844387e+00 4.689095e+00 7.879754e+00 9.322159e+00 1.185028e+01 1.321917e+01 1.477395e+01 1.403671e+01 1.536906e+01 1.398374e+01 1.252976e+01 2.785740e+01 7.945702e-02 1.360549e-01 2.329864e-01 3.243273e-01 4.218001e-01 5.059208e-01 5.673436e-01 6.771459e-01 6.927797e-01 6.755393e-01 6.199560e-01 5.951524e-01 1.299242e-02 1.929872e-02 2.736787e-02 4.941012e-02 6.883261e-02 8.945310e-02 1.048340e-01 1.148757e-01 1.356651e-01 1.302457e-01 1.358009e-01 1.269361e-01 1.086775e-01 6.186376e-03
<GCONST> 4.999583e+01
<MIXTURE> 2 5.074056e-01
<MEAN> 39
 -2.979122e-01 -6.158853e-02 -1.240937e-01 2.520866e-01 3.245419e-02 2.820578e-01 1.886941e-02 -4.981384e-03 -8.808285e-02 -9.201297e-02 -1.176001e-01 2.223691e-01 8.917195e-01 5.702154e-02 8.523424e-03 -5.899492e-02 -1.665543e-01 -2.370525e-01 -2.846669e-01 -3.106499e-01 -3.825023e-01 -3.514370e-01 -3.006124e-01 -2.476259e-01 -1.748412e-01 1.209371e-03 1.513414e-02 7.648318e-03 3.888759e-03 -2.776329e-02 -3.192707e-02 -4.479188e-02 -3.589235e-02 -2.134542e-02 -2.957880e-02 -1.265064e-02 -2.080560e-02 -3.249800e-02 -4.559062e-03
<VARIANCE> 39
 1.627394e+00 2.390554e+00 4.502347e+00 6.958318e+00 9.023049e+00 1.118124e+01 1.315865e+01 1.318182e+01 1.403921e+01 1.383479e+01 1.348628e+01 1.197447e+01 6.827147e+00 6.147464e-02 1.239828e-01 2.096697e-01 3.236564e-01 4.180357e-01 4.945077e-01 5.610412e-01 6.601282e-01 6.576172e-01 6.527476e-01 6.245626e-01 5.914588e-01 1.065167e-02 1.250054e-02 2.398269e-02 4.364689e-02 6.231739e-02 8.398858e-02 1.031950e-01 1.149590e-01 1.231618e-01 1.306622e-01 1.243441e-01 1.174903e-01 1.045735e-01 2.670997e-03
<GCONST> 4.453469e+01
<STATE> 4
<NUMMIXES> 2
<MIXTURE> 1 5.799912e-01
<MEAN> 39
 -5.998570e-02 -1.783247e-01 -8.857077e-02 5.323735e-01 2.898568e-01 5.323374e-01 2.864200e-02 2.167842e-01 -2.449556e-01 2.039751e-01 -1.133906e-01 7.423326e-02 2.090814e+00 2.459671e-01 1.499769e-01 1.330404e-01 3.823455e-02 1.276714e-02 -6.242669e-02 -3.437912e-02 -8.389182e-02 -3.199083e-02 -6.831728e-02 -2.166406e-02 -5.703774e-02 -2.575844e-01 4.503452e-02 1.720339e-02 5.893482e-02 6.789987e-03 3.163458e-02 -1.252384e-02 2.581495e-02 -2.544166e-02 2.802080e-02 -9.254739e-04 2.412096e-02 -1.444204e-02 -9.269409e-02
<VARIANCE> 39
 7.725558e+00 6.452960e+00 8.073137e+00 1.248777e+01 1.340631e+01 1.774486e+01 1.715561e+01 2.119081e+01 1.896308e+01 1.908426e+01 1.610281e+01 1.502034e+01 5.731748e+01 3.926670e-01 4.190637e-01 5.026866e-01 5.994605e-01 7.343372e-01 8.401636e-01 8.058014e-01 9.214250e-01 8.745401e-01 8.568481e-01 7.703748e-01 6.676226e-01 5.838525e-01 4.732829e-02 7.136344e-02 8.252379e-02 1.102503e-01 1.280611e-01 1.519401e-01 1.398843e-01 1.766098e-01 1.572564e-01 1.572726e-01 1.387813e-01 1.217241e-01 1.057731e-01
<GCONST> 7.366183e+01
<MIXTURE> 2 4.199944e-01
<MEAN> 39
 3.233243e+00 -2.039878e-02 2.229996e+00 5.263768e-01 1.424930e+00 -4.601991e-01 -1.731760e-01 -2.873223e+00 -1.247979e+00 -1.341539e+00 -5.745786e-01 -1.539847e+00 -1.572844e+00 1.563150e-01 -7.695906e-02 3.175379e-02 -4.127298e-01 -1.972539e-01 -4.390505e-01 -2.731873e-01 -5.000774e-01 -1.984156e-01 -3.252894e-01 -8.793092e-02 -2.766253e-01 -1.270647e+00 -1.217484e-01 -3.571457e-02 -1.178904e-01 -3.497588e-02 -6.453457e-02 1.095956e-02 -1.186058e-02 1.067654e-01 3.950391e-02 5.873587e-02 1.375472e-02 4.923624e-02 7.966804e-02
<VARIANCE> 39
 1.877203e+01 3.320521e+01 2.415085e+01 2.998784e+01 3.500631e+01 4.028098e+01 3.234483e+01 3.636838e+01 3.225916e+01 2.774526e+01 2.327174e+01 2.127138e+01 5.924458e+01 8.118058e-01 1.468736e+00 1.223685e+00 1.311707e+00 1.593337e+00 1.869690e+00 1.410322e+00 1.793349e+00 1.386711e+00 1.267550e+00 1.114363e+00 9.732007e-01 1.785905e+00 1.102965e-01 2.155347e-01 1.823054e-01 2.149699e-01 2.589931e-01 3.075745e-01 2.468578e-01 2.718511e-01 2.330335e-01 2.132372e-01 1.951863e-01 1.682687e-01 1.778889e-01
<GCONST> 9.964127e+01
<TRANSP> 5
 0.000000e+00 1.000000e+00 0.000000e+00 0.000000e+00 0.000000e+00
 0.000000e+00 7.912276e-01 2.087723e-01 0.000000e+00 0.000000e+00
 0.000000e+00 0.000000e+00 1.153508e-01 8.846492e-01 0.000000e+00
 0.000000e+00 0.000000e+00 0.000000e+00 5.657871e-01 4.342129e-01
 0.000000e+00 0.000000e+00 0.000000e+00 0.000000e+00 0.000000e+00
<ENDHMM>
~h "s"
<BEGINHMM>
<NUMSTATES> 5
<STATE> 2
<NUMMIXES> 2
<MIXTURE> 1 6.328942e-01
<MEAN> 39
 1.919387e-02 1.249328e-01 -2.320294e-01 -6.821893e-01 -7.392656e-01 -8.297604e-01 -8.436389e-01 -7.058052e-01 -5.940382e-01 -6.141618e-01 -3.519449e-01 -3.550640e-01 1.811774e-01 -1.158911e-02 1.057477e-02 1.610097e-02 1.096094e-01 1.090418e-01 1.351058e-01 1.779913e-01 1.933307e-01 1.594547e-01 1.572002e-01 1.468386e-01 1.514522e-01 1.267703e-02 -2.761004e-02 -1.325328e-02 3.364382e-02 1.248253e-01 1.358829e-01 1.749628e-01 1.664862e-01 1.535901e-01 1.152423e-01 1.225651e-01 8.600628e-02 7.941405e-02 1.185136e-02
<VARIANCE> 39
 2.648204e+00 3.175421e+00 5.099483e+00 8.613784e+00 9.748051e+00 1.211295e+01 1.317381e+01 1.509690e+01 1.491119e+01 1.507044e+01 1.351167e+01 1.291098e+01 6.912640e+00 9.316570e-02 1.532054e-01 2.412041e-01 3.769171e-01 4.455680e-01 5.092683e-01 5.748069e-01 6.294951e-01 6.692665e-01 6.958553e-01 6.604080e-01 5.711052e-01 3.303515e-02 2.098300e-02 3.111131e-02 4.962311e-02 8.069878e-02 8.829015e-02 1.070636e-01 1.155353e-01 1.275524e-01 1.363108e-01 1.318830e-01 1.160882e-01 1.103932e-01 1.036821e-02
<GCONST> 5.118837e+01
<MIXTURE> 2 3.671190e-01
<MEAN> 39
 -4.019549e-01 -4.137705e-01 -9.009173e-01 -1.947631e+00 -1.410209e+00 -1.699544e+00 -1.068555e+00 -1.245148e+00 -8.812857e-02 -1.110583e+00 -1.952364e-01 -7.739599e-01 -3.062157e+00 -4.121386e-02 -1.064893e-01 -1.819403e-01 -1.679994e-01 -8.430674e-02 -2.105729e-01 -2.246931e-02 -1.511146e-02 -2.968817e-02 -7.825178e-02 -6.955845e-03 -4.045602e-02 -1.415916e-01 8.063810e-03 1.258452e-02 5.210651e-02 9.471427e-02 7.857553e-02 1.145897e-01 8.973435e-02 6.902110e-02 3.427598e-02 6.509338e-02 1.781663e-02 2.018636e-02 9.303443e-02
<VARIANCE> 39
 1.016456e+01 6.453984e+00 7.313276e+00 1.423133e+01 1.278255e+01 1.700818e+01 1.485690e+01 1.745156e+01 1.737200e+01 1.834062e+01 1.539156e+01 1.518672e+01 6.812815e+01 2.303393e-01 2.817813e-01 3.554997e-01 5.557433e-01 5.814711e-01 6.831164e-01 6.452608e-01 7.272445e-01 7.062656e-01 7.833430e-01 7.153431e-01 6.367295e-01 3.399828e-01 5.505293e-02 5.669016e-02 6.381736e-02 1.195283e-01 1.112286e-01 1.420429e-01 1.347525e-01 1.545339e-01 1.390042e-01 1.512853e-01 1.266609e-01 1.168548e-01 9.168763e-02
<GCONST> 6.926238e+01
<STATE> 3
<NUMMIXES> 2
<MIXTURE> 1 5.396264e-01
<MEAN> 39
 -1.056644e+00 -6.368648e-01 -1.133093e+00 -2.314289e+00 -9.213082e-01 -1.701799e+00 -4.926766e-01 -9.830062e-01 7.464349e-01 -1.227450e+00 3.319600e-01 -1.002330e+00 -1.316281e+00 9.159927e-02 1.462908e-01 1.553842e-01 4.196546e-01 2.763006e-01 4.427788e-01 2.976346e-01 3.729411e-01 1.153507e-01 3.092634e-01 8.736224e-02 2.745225e-01 5.123645e-01 2.033646e-03 1.689249e-02 5.197851e-02 1.469532e-01 7.206996e-02 1.348425e-01 6.174600e-02 9.223099e-02 -7.864718e-03 9.205096e-02 4.033681e-03 6.539399e-02 1.128270e-01
<VARIANCE> 39
 1.076509e+01 8.702137e+00 1.021185e+01 1.642208e+01 1.420088e+01 1.740072e+01 1.668151e+01 1.894257e+01 2.039115e+01 2.401108e+01 1.948486e+01 1.715286e+01 2.985194e+01 4.228099e-01 4.132122e-01 4.207814e-01 7.354391e-01 6.028034e-01 7.492563e-01 7.110987e-01 8.054656e-01 8.567682e-01 8.989412e-01 7.739820e-01 6.609630e-01 1.197526e+00 5.917012e-02 6.239379e-02 7.070670e-02 1.235512e-01 1.102960e-01 1.320851e-01 1.300364e-01 1.503432e-01 1.526296e-01 1.797909e-01 1.458137e-01 1.313733e-01 1.052408e-01
<GCONST> 7.467770e+01
<MIXTURE> 2 4.603637e-01
<MEAN> 39
 -3.085920e-01 -7.362317e-01 -9.977808e-01 -2.722744e+00 -1.286821e+00 -2.052481e+00 -6.001780e-01 -1.318436e+00 5.003019e-01 -1.374343e+00 -3.877047e-03 -1.361458e+00 -6.194830e+00 -1.653425e-01 -1.070435e-01 -1.271666e-01 -1.278673e-01 -5.712938e-02 -1.514463e-01 -7.332117e-02 -1.164035e-01 1.222273e-02 -1.119973e-01 -2.089102e-03 -1.051884e-01 4.412331e-01 -9.584591e-03 1.406602e-02 3.294134e-03 2.966047e-02 2.615861e-03 2.483399e-02 -2.718683e-03 6.720075e-03 -4.740641e-03 6.960863e-03 -5.641254e-03 1.167453e-02 6.141949e-02
<VARIANCE> 39
 1.832092e+01 1.464314e+01 1.497396e+01 2.125103e+01 1.928251e+01 2.332520e+01 2.060603e+01 2.357990e+01 2.240657e+01 2.399102e+01 2.042433e+01 1.723115e+01 7.430792e+01 7.858320e-01 6.497613e-01 6.551102e-01 9.600775e-01 8.005732e-01 9.847758e-01 9.042624e-01 9.946580e-01 9.503151e-01 1.028141e+00 8.570659e-01 7.666445e-01 2.586753e+00 1.189287e-01 1.141283e-01 1.154524e-01 1.758477e-01 1.461048e-01 1.832291e-01 1.665630e-01 1.853721e-01 1.700798e-01 1.792958e-01 1.552815e-01 1.379234e-01 2.975523e-01
<GCONST> 8.697208e+01
<STATE> 4
<NUMMIXES> 2
<MIXTURE> 1 4.805791e-01
<MEAN> 39
 -7.460544e-01 2.289336e-01 -2.232001e-01 8.391169e-01 3.867339e-01 1.188887e+00 7.836331e-01 1.178706e+00 6.451936e-01 9.033329e-01 2.394335e-01 9.121010e-01 3.629870e+00 -5.929898e-02 7.098500e-02 2.115107e-01 7.646856e-01 4.148626e-01 6.695278e-01 4.051046e-01 5.649936e-01 4.736669e-02 4.960105e-01 1.398603e-01 4.235296e-01 6.496027e-01 -6.645092e-02 -5.362471e-02 -4.053568e-02 -6.900439e-02 -3.135899e-02 -8.265443e-02 -4.731868e-02 -7.695113e-02 -1.308751e-02 -7.037207e-02 1.008934e-02 -6.922542e-02 -1.167575e-01
<VARIANCE> 39
 4.555247e+00 4.152945e+00 6.288836e+00 1.159820e+01 1.142448e+01 1.418877e+01 1.506691e+01 1.713591e+01 1.746209e+01 1.876875e+01 1.566564e+01 1.429140e+01 2.560034e+01 2.680352e-01 2.727411e-01 3.233285e-01 7.519670e-01 5.908918e-01 7.223207e-01 7.089707e-01 7.778737e-01 8.677346e-01 1.061673e+00 8.077561e-01 7.398566e-01 7.357120e-01 4.022604e-02 4.467384e-02 5.982199e-02 1.029315e-01 1.011709e-01 1.201998e-01 1.252872e-01 1.347568e-01 1.440115e-01 1.633921e-01 1.331518e-01 1.163810e-01 5.596142e-02
<GCONST> 6.691213e+01
<MIXTURE> 2 5.194197e-01
<MEAN> 39
 -1.033550e+00 -2.554988e-01 -4.942328e-01 5.787555e-01 1.071835e-02 5.290167e-01 2.538672e-01 5.875496e-01 1.338134e-01 5.022944e-01 1.413955e-01 6.426239e-01 2.858507e+00 -1.731611e-01 -1.046873e-01 -4.440602e-02 2.621846e-01 1.170281e-01 1.895500e-01 9.644331e-02 1.723731e-01 -2.578921e-02 1.196403e-01 5.222911e-02 9.990963e-02 2.538737e-01 1.391148e-02 5.498528e-06 -7.216797e-03 -1.089994e-01 -3.059528e-02 -7.154216e-02 -4.048692e-02 -9.308284e-02 1.486767e-03 -8.414500e-02 -3.529922e-02 -8.743495e-02 -1.269950e-01
<VARIANCE> 39
 5.893026e+00 4.152515e+00 6.443980e+00 1.134784e+01 1.123367e+01 1.439303e+01 1.463622e+01 1.668466e+01 1.650549e+01 1.724893e+01 1.538719e+01 1.367449e+01 3.226298e+01 1.971905e-01 2.078069e-01 2.892748e-01 4.917960e-01 5.049438e-01 6.161747e-01 6.690847e-01 7.203713e-01 8.092175e-01 8.115882e-01 6.479305e-01 6.138800e-01 2.937658e-01 3.178757e-02 3.930254e-02 5.789720e-02 1.059319e-01 9.509932e-02 1.208627e-01 1.190415e-01 1.343855e-01 1.455118e-01 1.615306e-01 1.393958e-01 1.147770e-01 6.633607e-02
<GCONST> 6.363620e+01
<TRANSP> 5
 0.000000e+00 1.000000e+00 0.000000e+00 0.000000e+00 0.000000e+00
 0.000000e+00 8.853026e-02 9.114698e-01 0.000000e+00 0.000000e+00
 0.000000e+00 0.000000e+00 6.690208e-01 3.309792e-01 0.000000e+00
 0.000000e+00 0.000000e+00 0.000000e+00 3.760257e-01 6.239742e-01
 0.000000e+00 0.000000e+00 0.000000e+00 0.000000e+00 0.000000e+00
<ENDHMM>
~h "t"
<BEGINHMM>
<NUMSTATES> 5
<STATE> 2
<NUMMIXES> 2
<MIXTURE> 1 5.315923e-01
<MEAN> 39
 -9.911075e-01 6.267017e-02 -6.571192e-01 1.952376e-01 -2.956938e-01 4.188198e-01 6.014402e-01 1.109430e+00 4.648713e-01 6.730700e-01 2.933539e-01 7.071036e-01 -8.677322e-02 -1.475521e-01 -3.961439e-02 5.472392e-03 2.269433e-01 1.969658e-01 2.834784e-01 1.567846e-01 2.334000e-01 1.214268e-01 2.188924e-01 1.313953e-01 1.246346e-01 1.212542e+00 5.114631e-02 3.962975e-02 5.504157e-02 -6.078426e-04 3.802609e-02 -1.248226e-02 -1.526158e-02 -2.289944e-02 3.399979e-04 -2.181220e-02 7.324087e-03 -2.614005e-02 3.007204e-02
<VARIANCE> 39
 8.113438e+00 6.331260e+00 7.248273e+00 1.402861e+01 1.379991e+01 1.817059e+01 1.629898e+01 1.831176e+01 1.685536e+01 1.770096e+01 1.505199e+01 1.409055e+01 1.802624e+02 6.362013e-01 4.478877e-01 4.848047e-01 6.998761e-01 6.867837e-01 8.683515e-01 7.662671e-01 8.868472e-01 8.452427e-01 8.625212e-01 7.369033e-01 6.952485e-01 6.285155e+00 7.188374e-02 7.127546e-02 8.131158e-02 1.250732e-01 1.267635e-01 1.639112e-01 1.492496e-01 1.597955e-01 1.530960e-01 1.612785e-01 1.367429e-01 1.296331e-01 8.983912e-01
<GCONST> 8.001153e+01
<MIXTURE> 2 4.683903e-01
<MEAN> 39
 6.821541e-01 1.017006e+00 2.077838e-01 -6.191379e-01 -7.036508e-01 -1.193527e+00 -6.263414e-01 -3.492425e-01 -9.959395e-02 -4.387605e-01 1.778921e-02 -2.196472e-01 -2.961074e+00 5.887943e-02 1.564505e-02 -2.421971e-02 -2.304642e-01 -6.716110e-02 -2.582746e-01 -2.054754e-01 -1.907573e-01 -8.922122e-02 -1.843056e-01 -8.607139e-02 -1.550727e-01 -1.375327e-01 -4.023742e-02 -5.046985e-02 -2.068368e-02 -3.684040e-03 2.108191e-02 4.118457e-02 2.952687e-02 1.421632e-02 7.742999e-03 7.313233e-03 -1.720570e-02 -2.059221e-03 1.735253e-02
<VARIANCE> 39
 1.813450e+01 1.469896e+01 1.429690e+01 1.772211e+01 1.670966e+01 2.255153e+01 1.891030e+01 2.125138e+01 2.112715e+01 2.061408e+01 1.765531e+01 1.565383e+01 1.534516e+02 1.035746e+00 7.807821e-01 7.819220e-01 8.896812e-01 8.679402e-01 1.093877e+00 9.336246e-01 1.050174e+00 1.019833e+00 9.918203e-01 8.464449e-01 8.190314e-01 6.804941e+00 1.686985e-01 1.424222e-01 1.434095e-01 1.487852e-01 1.512596e-01 2.082404e-01 1.707849e-01 1.980087e-01 1.882030e-01 1.851943e-01 1.553169e-01 1.446644e-01 9.109827e-01
<GCONST> 9.070716e+01
<STATE> 3
<NUMMIXES> 2
<MIXTURE> 1 5.312507e-01
<MEAN> 39
 6.803269e-01 1.185455e-01 1.152651e-01 -1.763690e+00 -3.413593e-01 -1.008489e+00 -6.503981e-01 -6.944298e-01 1.687655e-01 -3.209992e-01 9.311816e-02 -5.981190e-01 2.325098e-01 -8.102443e-02 4.249301e-02 1.061630e-01 4.623724e-01 2.372273e-01 4.317189e-01 2.332381e-01 2.418186e-01 5.826963e-02 2.379375e-01 7.406819e-02 1.687921e-01 1.248471e-01 -3.311815e-02 -7.763374e-03 1.805760e-03 1.175303e-01 4.791508e-02 9.339619e-02 5.683865e-02 5.765755e-02 1.006517e-03 2.443631e-02 5.035307e-04 4.160031e-02 -2.850492e-02
<VARIANCE> 39
 1.009415e+01 7.445803e+00 9.692795e+00 2.202107e+01 1.510695e+01 2.084439e+01 1.895332e+01 2.207879e+01 2.014181e+01 2.183656e+01 1.878537e+01 1.819698e+01 2.537974e+01 2.901157e-01 3.184585e-01 3.900408e-01 9.562358e-01 6.879497e-01 8.876163e-01 8.293859e-01 9.591619e-01 9.121260e-01 9.125699e-01 8.338925e-01 7.991312e-01 4.326539e-01 5.019530e-02 5.483227e-02 7.702095e-02 1.779372e-01 1.276673e-01 1.686341e-01 1.512198e-01 1.718841e-01 1.616170e-01 1.824726e-01 1.558040e-01 1.504872e-01 8.865943e-02
<GCONST> 7.541325e+01
<MIXTURE> 2 4.687512e-01
<MEAN> 39
 2.880178e+00 -4.589449e-01 1.107610e+00 -2.801509e+00 8.801873e-01 -1.784087e+00 -1.579502e+00 -2.641235e+00 -5.939992e-01 -1.804786e+00 -2.080000e-01 -1.946819e+00 -2.558639e+00 5.654651e-02 -1.228057e-01 -5.376571e-02 -1.096026e-01 -1.328688e-01 -1.283391e-01 -1.220147e-01 -2.954378e-01 -1.963862e-01 -2.005494e-01 -1.116618e-01 -1.129346e-01 -5.273553e-01 -8.162700e-02 2.010167e-02 -3.710559e-02 1.068551e-01 -4.418952e-02 8.692362e-02 5.465640e-02 9.438294e-02 1.559660e-02 5.996887e-02 -1.095088e-02 7.686827e-02 3.733646e-02
<VARIANCE> 39
 1.903009e+01 1.191850e+01 1.449039e+01 3.063347e+01 2.746606e+01 3.102195e+01 2.759632e+01 3.287510e+01 2.819517e+01 2.851723e+01 2.376017e+01 2.155357e+01 3.896843e+01 5.412792e-01 4.893738e-01 5.417901e-01 1.201425e+00 1.030590e+00 1.227299e+00 1.121356e+00 1.281979e+00 1.054387e+00 1.144547e+00 9.324829e-01 8.978516e-01 9.018764e-01 9.058060e-02 8.255058e-02 9.328099e-02 1.844135e-01 1.895560e-01 2.210143e-01 1.931367e-01 2.247646e-01 1.957509e-01 1.963238e-01 1.736873e-01 1.694105e-01 1.206880e-01
<GCONST> 8.792540e+01
<STATE> 4
<NUMMIXES> 2
<MIXTURE> 1 5.514949e-01
<MEAN> 39
 -7.727647e-01 -2.297439e-02 -2.160954e-01 7.992638e-01 4.540398e-01 8.627743e-01 4.024488e-01 8.988951e-01 2.722570e-01 8.211733e-01 4.949966e-01 6.423191e-01 2.617730e+00 -1.141865e-01 1.776725e-02 1.023566e-01 3.698843e-01 2.739880e-01 3.737237e-01 2.533585e-01 2.543249e-01 1.623493e-01 1.890389e-01 1.051548e-01 1.240123e-01 1.138818e-01 2.178233e-02 1.901003e-03 3.922054e-03 -3.572735e-02 -1.927768e-02 -2.479009e-02 1.848551e-03 -5.853110e-03 1.539941e-02 -2.076336e-02 -1.567899e-02 -1.505992e-02 -3.760376e-02
<VARIANCE> 39
 4.668959e+00 3.475234e+00 5.579656e+00 9.816244e+00 1.045194e+01 1.399653e+01 1.528218e+01 1.577229e+01 1.650708e+01 1.656652e+01 1.432553e+01 1.318824e+01 2.880130e+01 1.810446e-01 1.932880e-01 2.915141e-01 5.255815e-01 5.184036e-01 6.977661e-01 7.276016e-01 7.739673e-01 7.514251e-01 7.278496e-01 7.035545e-01 6.351464e-01 8.824465e-02 2.623664e-02 3.048484e-02 5.046079e-02 9.004889e-02 9.308076e-02 1.207064e-01 1.300563e-01 1.397849e-01 1.449244e-01 1.446727e-01 1.263673e-01 1.213476e-01 1.728244e-02
<GCONST> 5.937250e+01
<MIXTURE> 2 4.485196e-01
<MEAN> 39
 -7.329684e-02 -1.640832e-02 -5.338152e-02 1.925345e-01 4.875739e-02 1.011690e-01 -1.569802e-01 -4.718409e-02 -1.436502e-01 6.515488e-03 5.206616e-02 5.218697e-02 2.204972e-01 -1.243806e-01 -1.038386e-01 -1.227375e-01 5.161184e-02 -2.134059e-02 5.252040e-02 1.654471e-02 -1.234806e-02 -1.043596e-01 -9.252702e-02 -1.130019e-01 -1.323526e-02 6.918350e-03 2.446004e-02 -4.582704e-03 -5.329013e-03 -5.364833e-02 -1.467339e-02 -3.892510e-02 -1.827673e-02 -2.337782e-02 -4.092312e-03 -3.132536e-02 -2.988911e-02 -2.374453e-02 -2.816011e-02
<VARIANCE> 39
 8.796804e+00 4.986206e+00 6.894308e+00 1.237469e+01 1.188461e+01 1.608581e+01 1.621778e+01 1.949417e+01 1.742225e+01 1.725586e+01 1.516539e+01 1.389674e+01 6.061039e+01 2.056867e-01 2.236595e-01 3.009093e-01 4.777686e-01 5.540169e-01 6.917344e-01 7.490115e-01 7.687445e-01 7.748669e-01 7.022718e-01 7.157868e-01 6.419560e-01 1.538734e-01 3.486736e-02 3.885414e-02 5.439968e-02 1.012303e-01 9.917221e-02 1.280870e-01 1.337054e-01 1.488957e-01 1.466569e-01 1.388517e-01 1.284277e-01 1.243301e-01 3.572605e-02
<GCONST> 6.483605e+01
<TRANSP> 5
 0.000000e+00 1.000000e+00 0.000000e+00 0.000000e+00 0.000000e+00
 0.000000e+00 7.283630e-01 2.716370e-01 0.000000e+00 0.000000e+00
 0.000000e+00 0.000000e+00 4.939809e-01 5.060191e-01 0.000000e+00
 0.000000e+00 0.000000e+00 0.000000e+00 3.437328e-01 6.562672e-01
 0.000000e+00 0.000000e+00 0.000000e+00 0.000000e+00 0.000000e+00
<ENDHMM>
~h "v"
<BEGINHMM>
<NUMSTATES> 5
<STATE> 2
<NUMMIXES> 2
<MIXTURE> 1 4.736187e-01
<MEAN> 39
 -1.117753e+00 -3.372698e-02 -1.514567e-01 1.434947e+00 6.753932e-01 9.818488e-01 1.197709e-01 8.624995e-01 -1.757912e-01 5.453779e-01 6.539595e-02 7.555319e-01 4.393978e+00 1.639710e-01 7.070346e-02 7.795433e-02 -6.627330e-03 -1.767996e-02 1.767451e-02 2.274079e-03 -4.538686e-02 -1.841336e-02 -2.627985e-02 -1.740269e-02 -1.151639e-02 2.803454e-02 4.611210e-02 -1.145435e-02 -1.870755e-02 -2.328237e-02 1.502870e-02 6.126729e-02 8.197035e-02 6.454754e-02 6.395359e-02 3.736548e-02 3.042670e-02 1.341888e-02 -5.966854e-03
<VARIANCE> 39
 3.333359e+00 3.240305e+00 5.426784e+00 8.455690e+00 1.045877e+01 1.334601e+01 1.306125e+01 1.534906e+01 1.540291e+01 1.623480e+01 1.528588e+01 1.360986e+01 2.745741e+01 9.693152e-02 1.294136e-01 2.144714e-01 3.347134e-01 4.287088e-01 5.239093e-01 5.677608e-01 6.317762e-01 6.948524e-01 6.647961e-01 6.503607e-01 5.694164e-01 1.581780e-02 2.458142e-02 2.453880e-02 4.185276e-02 6.099405e-02 8.267401e-02 9.911488e-02 1.098614e-01 1.152464e-01 1.367557e-01 1.322632e-01 1.255077e-01 1.122721e-01 4.146897e-03
<GCONST> 5.053339e+01
<MIXTURE> 2 5.263920e-01
<MEAN> 39
 -1.668100e-01 1.493680e-01 2.491148e-01 3.266156e-01 -9.232637e-02 -3.271340e-01 -4.665986e-01 -3.768764e-01 -6.574844e-01 -4.202549e-01 -5.234609e-01 -1.000514e-01 6.522136e-01 2.314489e-02 -3.545499e-02 -1.119212e-01 -2.465464e-01 -3.207215e-01 -3.119565e-01 -3.091139e-01 -2.904072e-01 -2.566729e-01 -2.670721e-01 -2.107390e-01 -1.084556e-01 -6.503191e-03 -7.469213e-03 -3.181830e-02 -5.122733e-02 -4.156151e-02 4.036035e-03 4.846228e-02 5.907327e-02 6.483340e-02 7.614546e-02 5.705968e-02 4.585872e-02 9.267872e-03 -7.341656e-03
<VARIANCE> 39
 1.782255e+00 2.763605e+00 5.120073e+00 7.647914e+00 9.256400e+00 1.187311e+01 1.245256e+01 1.335573e+01 1.502419e+01 1.475014e+01 1.418457e+01 1.233552e+01 4.689060e+00 6.752086e-02 1.312669e-01 2.118384e-01 3.035951e-01 4.188965e-01 5.207842e-01 5.815649e-01 6.157660e-01 6.853109e-01 7.000008e-01 6.023222e-01 5.289724e-01 1.218893e-02 1.179013e-02 2.282766e-02 4.140780e-02 5.328916e-02 7.524653e-02 9.104676e-02 1.063386e-01 1.097715e-01 1.254827e-01 1.231222e-01 1.166765e-01 9.425110e-02 2.382197e-03
<GCONST> 4.406812e+01
<STATE> 3
<NUMMIXES> 2
<MIXTURE> 1 4.663725e-01
<MEAN> 39
 -9.214029e-01 1.831934e-03 -2.355614e-01 1.209378e+00 3.718705e-01 7.543049e-01 7.935822e-02 7.609869e-01 -1.962749e-01 4.797992e-01 1.486609e-02 6.693705e-01 4.465801e+00 1.987978e-01 4.756723e-03 1.282736e-02 -4.743800e-02 3.831283e-02 1.405298e-01 1.701835e-01 1.215243e-01 1.340464e-01 7.925057e-02 8.334590e-02 3.944486e-02 1.095712e-02 5.059459e-02 6.349434e-03 2.297131e-02 1.134932e-02 6.161758e-02 7.541642e-02 8.697733e-02 6.029054e-02 6.415965e-02 4.271547e-02 4.333157e-02 1.242114e-02 -5.011418e-02
<VARIANCE> 39
 3.810328e+00 3.227424e+00 5.307983e+00 8.384059e+00 9.113652e+00 1.318614e+01 1.355769e+01 1.527517e+01 1.475516e+01 1.481911e+01 1.416766e+01 1.303272e+01 2.658665e+01 1.401338e-01 1.317948e-01 2.185830e-01 3.264538e-01 4.486578e-01 5.522346e-01 5.954630e-01 6.477784e-01 7.196780e-01 7.163931e-01 6.683710e-01 5.909584e-01 2.391689e-02 4.058537e-02 3.229156e-02 5.354239e-02 6.362559e-02 8.174088e-02 1.056420e-01 1.180390e-01 1.310025e-01 1.434522e-01 1.402923e-01 1.316800e-01 1.204249e-01 1.418973e-02
<GCONST> 5.414079e+01
<MIXTURE> 2 5.336457e-01
<MEAN> 39
 -6.629473e-02 1.136564e-01 1.229364e-02 -4.561295e-02 -6.381140e-01 -7.794901e-01 -1.004140e+00 -9.730455e-01 -1.024504e+00 -8.872632e-01 -7.031961e-01 -1.785626e-01 7.818980e-01 1.624734e-02 -8.402339e-02 -1.758363e-01 -2.652527e-01 -2.483053e-01 -1.590621e-01 -1.322854e-01 -1.256111e-01 -8.227682e-02 -1.042153e-01 -9.556836e-02 -8.056000e-02 -1.902148e-02 -2.433497e-02 -3.524314e-02 -3.046530e-02 2.152751e-02 8.321081e-02 1.123556e-01 1.250001e-01 1.289153e-01 1.198678e-01 1.082965e-01 8.219907e-02 3.202956e-02 -1.246905e-02
<VARIANCE> 39
 1.667529e+00 2.615422e+00 4.326436e+00 7.182158e+00 8.720349e+00 1.113882e+01 1.275752e+01 1.375942e+01 1.442607e+01 1.393527e+01 1.347430e+01 1.230508e+01 5.775558e+00 7.865313e-02 1.282573e-01 2.133993e-01 3.111671e-01 4.236153e-01 5.074360e-01 6.011075e-01 6.190823e-01 7.247465e-01 6.998413e-01 6.096629e-01 5.379340e-01 1.460021e-02 1.532423e-02 2.501723e-02 4.325150e-02 6.038871e-02 7.698806e-02 9.749097e-02 1.037136e-01 1.115615e-01 1.266531e-01 1.217344e-01 1.140487e-01 1.001597e-01 3.473003e-03
<GCONST> 4.517081e+01
<STATE> 4
<NUMMIXES> 2
<MIXTURE> 1 5.413894e-01
<MEAN> 39
 -5.200981e-01 -3.154179e-01 -4.076844e-01 3.342072e-01 1.304678e-01 7.843189e-01 3.779330e-01 4.073511e-01 1.019803e-01 3.791956e-01 -7.532227e-02 2.675266e-01 3.757633e+00 1.815924e-01 5.813072e-02 8.652704e-02 1.051911e-01 1.351803e-01 2.033105e-01 1.853932e-01 1.651214e-01 1.042959e-01 1.504202e-01 7.922224e-02 7.350143e-02 -1.078701e-02 1.851273e-02 3.167770e-02 7.129885e-02 2.041468e-02 6.030444e-02 1.010079e-02 3.180068e-02 -8.234896e-03 3.119540e-02 7.237572e-03 2.339859e-02 -1.894999e-02 -1.081751e-01
<VARIANCE> 39
 7.227243e+00 5.408327e+00 7.745743e+00 1.490404e+01 1.301727e+01 1.773725e+01 1.689088e+01 2.066488e+01 1.870485e+01 1.998613e+01 1.613043e+01 1.543129e+01 4.091719e+01 5.553212e-01 3.269092e-01 5.147287e-01 6.315759e-01 5.846259e-01 7.359370e-01 7.362253e-01 8.766466e-01 8.600782e-01 9.138113e-01 7.482883e-01 7.087333e-01 8.917010e-01 7.578265e-02 5.425230e-02 8.070394e-02 1.165818e-01 1.069302e-01 1.444943e-01 1.405631e-01 1.584820e-01 1.549739e-01 1.705889e-01 1.376275e-01 1.310055e-01 1.095722e-01
<GCONST> 7.344613e+01
<MIXTURE> 2 4.585996e-01
<MEAN> 39
 1.633807e+00 6.268033e-02 1.842857e+00 -8.277293e-01 8.222380e-01 -7.173352e-02 4.446409e-02 -2.264974e+00 -1.559165e-01 -9.585833e-01 -5.972290e-01 -1.375514e+00 -7.595780e-01 -2.865038e-02 -1.475348e-01 -2.316067e-02 -4.236200e-01 -2.089079e-01 -3.829366e-01 -1.805880e-01 -3.729311e-01 -9.087004e-03 -2.435054e-01 -7.384963e-02 -2.468014e-01 -9.188927e-01 -1.181309e-01 -7.007168e-02 -1.182815e-01 3.114369e-03 -4.863593e-02 9.723553e-03 2.349298e-04 7.986154e-02 2.090366e-02 5.001067e-02 2.322221e-02 5.516094e-02 9.877180e-02
<VARIANCE> 39
 1.917541e+01 1.627336e+01 1.957421e+01 2.432433e+01 2.041163e+01 2.565281e+01 2.208564e+01 3.039983e+01 2.829633e+01 2.589843e+01 2.055103e+01 1.876694e+01 5.936192e+01 1.148497e+00 8.518460e-01 1.111080e+00 1.147557e+00 9.055130e-01 1.126282e+00 9.622168e-01 1.315147e+00 1.312021e+00 1.199308e+00 9.507636e-01 9.056862e-01 1.974628e+00 1.964987e-01 1.416114e-01 1.853407e-01 1.912643e-01 1.636158e-01 2.020478e-01 1.790617e-01 2.183271e-01 2.248240e-01 2.089764e-01 1.742996e-01 1.595834e-01 2.581998e-01
<GCONST> 9.288522e+01
<TRANSP> 5
 0.000000e+00 1.000000e+00 0.000000e+00 0.000000e+00 0.000000e+00
 0.000000e+00 5.548199e-02 9.445180e-01 0.000000e+00 0.000000e+00
 0.000000e+00 0.000000e+00 9.858081e-02 9.014192e-01 0.000000e+00
 0.000000e+00 0.000000e+00 0.000000e+00 6.756669e-01 3.243331e-01
 0.000000e+00 0.000000e+00 0.000000e+00 0.000000e+00 0.000000e+00
<ENDHMM>
~h "w"
<BEGINHMM>
<NUMSTATES> 5
<STATE> 2
<NUMMIXES> 2
<MIXTURE> 1 5.154677e-01
<MEAN> 39
 -8.203882e-01 -1.083895e-01 1.446566e-01 1.565837e+00 1.510948e+00 2.045636e+00 1.470863e+00 1.461363e+00 3.368142e-01 4.426623e-01 1.078760e-01 3.526584e-01 2.723289e+00 -8.567712e-02 9.095861e-02 1.893047e-01 3.547629e-01 3.928684e-01 4.040964e-01 3.473429e-01 2.810464e-01 2.687287e-01 2.626671e-01 1.942670e-01 1.447919e-01 3.699364e-02 3.398959e-02 -6.338975e-03 -3.430536e-02 -1.029051e-01 -1.386843e-01 -1.442316e-01 -1.197640e-01 -7.477862e-02 -2.646363e-03 2.462269e-02 1.479446e-02 9.515245e-03 -2.320757e-02
<VARIANCE> 39
 2.899304e+00 2.854710e+00 4.825666e+00 7.185194e+00 8.506400e+00 1.164194e+01 1.368978e+01 1.494984e+01 1.485856e+01 1.576120e+01 1.383607e+01 1.239762e+01 2.022370e+01 1.049527e-01 1.404417e-01 2.273000e-01 3.166665e-01 4.074300e-01 5.150315e-01 6.001116e-01 6.769260e-01 6.734759e-01 6.495897e-01 6.253454e-01 5.236011e-01 1.817846e-02 2.025463e-02 2.750408e-02 4.452908e-02 6.565443e-02 7.686374e-02 1.023389e-01 1.228828e-01 1.207284e-01 1.357102e-01 1.323865e-01 1.178817e-01 1.019039e-01 5.065743e-03
<GCONST> 4.948963e+01
<MIXTURE> 2 4.845363e-01
<MEAN> 39
 -8.250234e-01 -2.005687e-01 -9.520650e-04 1.405507e+00 8.930905e-01 1.282141e+00 6.929367e-01 8.760824e-01 -2.165451e-01 2.911344e-01 1.923567e-01 2.808183e-01 2.646743e+00 -1.963771e-01 -4.049473e-02 2.341329e-02 1.950330e-01 1.914994e-01 1.693362e-01 9.810689e-02 5.700641e-02 5.088419e-02 5.735070e-02 -1.712099e-02 -4.056518e-03 1.693433e-02 4.240564e-02 -8.480037e-03 -4.840769e-02 -1.437036e-01 -1.256851e-01 -1.354975e-01 -1.116468e-01 -7.866883e-02 2.712330e-03 -2.425231e-02 -3.316579e-02 -3.005631e-02 -5.448339e-02
<VARIANCE> 39
 3.228575e+00 2.766505e+00 4.488289e+00 7.360007e+00 9.063030e+00 1.230947e+01 1.403984e+01 1.498110e+01 1.514690e+01 1.630013e+01 1.399367e+01 1.248394e+01 1.822642e+01 1.092680e-01 1.242129e-01 2.111130e-01 3.081190e-01 3.957624e-01 5.078533e-01 5.826479e-01 6.402021e-01 6.054879e-01 6.206263e-01 6.198046e-01 5.227734e-01 1.821355e-02 2.589828e-02 2.829901e-02 4.557880e-02 7.401507e-02 8.498415e-02 1.072225e-01 1.220661e-01 1.341530e-01 1.335869e-01 1.352222e-01 1.205622e-01 1.068541e-01 1.074011e-02
<GCONST> 5.064835e+01
<STATE> 3
<NUMMIXES> 2
<MIXTURE> 1 5.058265e-01
<MEAN> 39
 -8.397330e-01 3.522065e-01 4.831556e-01 1.631999e+00 9.261032e-01 1.260568e+00 4.967941e-01 5.442540e-01 2.101027e-01 4.001257e-01 1.788210e-01 5.640138e-01 1.519734e+00 9.264637e-03 3.174186e-02 3.857173e-02 3.621741e-02 2.554591e-02 6.261684e-02 7.186741e-02 1.250379e-01 1.789629e-01 1.651415e-01 1.396898e-01 9.412819e-02 8.439300e-03 1.941551e-02 -1.362059e-02 -2.788425e-02 -3.359483e-02 -3.743023e-02 -2.128922e-02 -2.577369e-03 9.883943e-03 1.677439e-02 1.423220e-02 1.598918e-02 3.392845e-03 1.750095e-03
<VARIANCE> 39
 2.151644e+00 2.775216e+00 4.770415e+00 8.411912e+00 8.878204e+00 1.198029e+01 1.299075e+01 1.472565e+01 1.512141e+01 1.519680e+01 1.345486e+01 1.252516e+01 1.071246e+01 5.058883e-02 1.058551e-01 1.924463e-01 2.717818e-01 3.478845e-01 4.604357e-01 5.254752e-01 6.105347e-01 6.457879e-01 6.394237e-01 5.624512e-01 5.171352e-01 8.198537e-03 9.720108e-03 1.889963e-02 3.536328e-02 5.396518e-02 6.901389e-02 9.021109e-02 1.029550e-01 1.140791e-01 1.232424e-01 1.200245e-01 1.047169e-01 9.269302e-02 1.563315e-03
<GCONST> 4.224408e+01
<MIXTURE> 2 4.941688e-01
<MEAN> 39
 -3.018832e-01 2.849031e-01 3.615685e-01 1.009892e+00 4.556211e-01 4.781030e-01 -1.337079e-02 -3.525822e-02 1.309991e-03 -1.404185e-02 -2.513396e-01 -6.538749e-02 4.525166e-01 -6.451939e-02 -7.723814e-02 -1.181623e-01 -1.296935e-01 -1.486821e-01 -1.454439e-01 -1.386991e-01 -8.316471e-02 -3.107206e-02 -2.916089e-02 -4.270533e-02 -1.093611e-02 -1.446175e-02 -1.458118e-02 -3.151033e-02 -5.120362e-02 -6.879199e-02 -5.943456e-02 -3.842971e-02 -1.899726e-02 -4.184987e-03 -1.590574e-02 -1.849582e-02 6.361092e-03 1.048970e-02 -9.869681e-03
<VARIANCE> 39
 1.476890e+00 2.379839e+00 4.191607e+00 7.294009e+00 8.325973e+00 1.140084e+01 1.288373e+01 1.388796e+01 1.430860e+01 1.432001e+01 1.323129e+01 1.214619e+01 1.135906e+00 4.687190e-02 1.005321e-01 1.791763e-01 2.545215e-01 3.529140e-01 4.556612e-01 5.438352e-01 5.921977e-01 5.891460e-01 6.164473e-01 5.517163e-01 5.049860e-01 7.733716e-03 8.544827e-03 1.816482e-02 3.440121e-02 4.955836e-02 6.882899e-02 8.854372e-02 1.033440e-01 1.126471e-01 1.104437e-01 1.169429e-01 1.020318e-01 9.121323e-02 1.433158e-03
<GCONST> 3.779225e+01
<STATE> 4
<NUMMIXES> 2
<MIXTURE> 1 4.917388e-01
<MEAN> 39
 -2.809284e+00 -6.094710e-01 -9.172301e-01 1.749868e+00 8.092992e-01 2.054500e+00 9.911885e-01 2.227440e+00 6.320016e-01 1.507526e+00 5.382292e-01 1.305543e+00 8.661041e+00 4.654017e-02 3.962873e-02 4.395001e-02 6.520884e-02 9.617443e-02 1.010098e-01 1.144124e-01 1.118702e-01 1.159959e-01 1.124281e-01 9.865914e-02 7.850356e-02 1.468335e-02 2.631363e-02 7.681482e-03 9.693759e-03 6.161661e-03 6.056774e-03 5.530978e-03 7.045196e-03 8.544787e-03 7.863583e-03 -2.376717e-04 3.790682e-03 -7.276582e-04 6.183579e-03
<VARIANCE> 39
 2.816367e+00 3.126548e+00 5.087098e+00 8.013483e+00 1.019076e+01 1.318878e+01 1.482324e+01 1.623024e+01 1.556033e+01 1.497474e+01 1.441603e+01 1.336420e+01 1.798856e+01 5.135331e-02 1.160538e-01 1.963284e-01 2.961154e-01 4.021503e-01 5.100647e-01 5.816706e-01 6.479850e-01 6.555423e-01 6.112533e-01 6.183835e-01 5.553353e-01 9.277653e-03 9.789059e-03 2.169408e-02 3.698843e-02 5.911531e-02 7.874972e-02 1.008797e-01 1.145934e-01 1.281333e-01 1.243027e-01 1.169474e-01 1.166465e-01 1.079878e-01 1.742653e-03
<GCONST> 4.575827e+01
<MIXTURE> 2 5.082477e-01
<MEAN> 39
 -2.201335e+00 -5.125381e-01 -9.114330e-01 1.219939e+00 3.235257e-01 1.248113e+00 3.069023e-01 1.548521e+00 2.369053e-01 1.035580e+00 3.014140e-01 9.577903e-01 7.186248e+00 -5.665920e-02 -9.482730e-02 -1.319541e-01 -1.511807e-01 -1.619317e-01 -1.292298e-01 -1.199494e-01 -9.179166e-02 -7.788110e-02 -9.431053e-02 -6.440259e-02 -5.044470e-02 -1.793939e-02 -4.582184e-04 -1.396653e-02 -7.110368e-03 -1.030530e-02 -3.477706e-03 -3.709301e-03 4.789090e-03 -1.676332e-02 -2.666731e-02 -2.686416e-02 -2.957748e-02 -2.064382e-02 -5.239629e-03
<VARIANCE> 39
 2.976985e+00 3.093417e+00 5.002785e+00 8.234392e+00 1.033195e+01 1.268898e+01 1.388122e+01 1.565001e+01 1.549118e+01 1.549423e+01 1.423004e+01 1.284801e+01 2.188576e+01 5.198836e-02 1.112195e-01 1.966523e-01 2.984672e-01 3.991188e-01 5.130540e-01 5.809964e-01 6.340605e-01 6.554959e-01 6.414943e-01 6.039234e-01 5.597905e-01 9.272805e-03 9.164680e-03 2.152634e-02 3.724676e-02 5.697026e-02 7.922686e-02 1.000708e-01 1.143081e-01 1.236343e-01 1.233528e-01 1.213282e-01 1.184173e-01 1.047797e-01 1.597401e-03
<GCONST> 4.562977e+01
<TRANSP> 5
 0.000000e+00 1.000000e+00 0.000000e+00 0.000000e+00 0.000000e+00
 0.000000e+00 2.558360e-01 7.441640e-01 0.000000e+00 0.000000e+00
 0.000000e+00 0.000000e+00 7.536446e-01 2.463554e-01 0.000000e+00
 0.000000e+00 0.000000e+00 0.000000e+00 8.004107e-01 1.995893e-01
 0.000000e+00 0.000000e+00 0.000000e+00 0.000000e+00 0.000000e+00
<ENDHMM>
~h "z"
<BEGINHMM>
<NUMSTATES> 5
<STATE> 2
<NUMMIXES> 2
<MIXTURE> 1 5.116766e-01
<MEAN> 39
 -6.432065e-02 3.510354e-02 -2.404295e-01 -1.950708e-01 -5.876660e-01 -5.131288e-01 -6.538939e-01 -2.804665e-01 -2.108996e-01 3.973316e-02 -1.535865e-01 1.366807e-01 1.106335e+00 8.911972e-02 9.415148e-02 1.482159e-01 2.075965e-01 2.518791e-01 2.843528e-01 2.375346e-01 1.687185e-01 8.388066e-02 6.132253e-02 7.904337e-02 7.769249e-02 3.609084e-02 8.439435e-03 2.867369e-02 3.978439e-02 9.325161e-02 1.252329e-01 1.450160e-01 1.286218e-01 9.232561e-02 4.955235e-02 2.466709e-02 4.071726e-02 2.135880e-02 -2.107207e-02
<VARIANCE> 39
 2.595379e+00 3.146726e+00 4.906977e+00 8.964067e+00 9.792638e+00 1.192530e+01 1.458706e+01 1.607120e+01 1.454347e+01 1.439301e+01 1.413929e+01 1.264256e+01 2.187102e+01 1.654199e-01 1.679329e-01 2.488692e-01 3.566282e-01 4.058067e-01 5.295017e-01 6.261821e-01 6.685401e-01 7.193019e-01 6.791201e-01 6.527300e-01 5.856522e-01 2.903048e-02 3.662984e-02 5.402595e-02 5.874871e-02 8.092703e-02 9.498769e-02 1.120466e-01 1.477164e-01 1.591296e-01 1.436786e-01 1.452221e-01 1.458252e-01 1.256569e-01 2.978021e-02
<GCONST> 5.651209e+01
<MIXTURE> 2 4.883249e-01
<MEAN> 39
 4.004281e-01 -7.186145e-03 -6.896800e-01 -1.156855e+00 -1.386739e+00 -1.250786e+00 -9.645643e-01 -7.969875e-01 -4.459123e-01 -8.210322e-01 -6.072624e-01 -4.677030e-01 -2.712778e+00 5.100086e-03 1.267083e-02 -4.112633e-02 -1.629044e-02 -1.824239e-02 1.950599e-02 -3.191935e-02 -1.382686e-01 -1.638098e-01 -1.536252e-01 -1.476818e-01 -4.810955e-02 1.658454e-02 -1.405241e-02 6.175668e-03 4.328800e-02 8.237426e-02 1.004983e-01 9.523524e-02 9.122577e-02 2.950813e-02 1.063378e-02 4.739522e-02 4.992739e-02 2.997916e-02 3.301551e-02
<VARIANCE> 39
 3.632209e+00 3.749234e+00 4.911458e+00 1.067617e+01 1.094108e+01 1.250164e+01 1.337673e+01 1.645917e+01 1.556975e+01 1.578080e+01 1.416083e+01 1.204711e+01 7.639976e+01 1.365240e-01 1.978856e-01 2.642718e-01 3.590763e-01 4.663296e-01 4.976448e-01 5.936007e-01 6.976705e-01 7.337998e-01 7.496626e-01 7.107161e-01 5.488545e-01 7.409210e-02 3.271193e-02 5.333909e-02 5.768090e-02 8.693827e-02 9.475449e-02 1.117712e-01 1.296349e-01 1.600633e-01 1.396585e-01 1.509925e-01 1.344625e-01 1.158944e-01 4.011988e-02
<GCONST> 5.978428e+01
<STATE> 3
<NUMMIXES> 2
<MIXTURE> 1 5.154143e-01
<MEAN> 39
 8.048962e-01 1.652304e+00 9.061671e-01 -2.899200e-03 -1.707710e-01 -2.459881e-01 -3.047896e-01 -9.005264e-01 -1.817089e-01 -7.198321e-01 -1.600925e-01 -5.153182e-01 -1.365492e+00 -2.033678e-01 -1.701310e-01 -7.435186e-02 3.730650e-01 3.520236e-01 5.178268e-01 3.632956e-01 4.783592e-01 1.728920e-01 3.747605e-01 2.097805e-01 3.272155e-01 1.113693e+00 -5.559931e-02 -6.836649e-02 -4.318950e-02 1.546039e-02 1.358758e-02 3.847146e-02 4.617030e-02 6.970984e-02 3.595662e-02 4.539955e-02 2.410011e-02 3.018198e-02 5.735579e-02
<VARIANCE> 39
 1.277318e+01 1.717978e+01 1.570495e+01 1.859273e+01 1.835781e+01 1.914044e+01 1.989672e+01 2.515125e+01 2.225923e+01 2.769660e+01 2.074611e+01 1.913473e+01 8.551697e+01 7.501031e-01 1.141074e+00 8.992037e-01 9.488533e-01 8.645003e-01 8.577687e-01 9.021932e-01 1.139475e+00 1.059408e+00 1.314402e+00 9.467487e-01 9.093763e-01 3.268013e+00 1.100953e-01 1.780962e-01 1.528409e-01 1.561686e-01 1.582269e-01 1.636322e-01 1.705282e-01 2.185462e-01 1.860075e-01 2.392752e-01 1.794873e-01 1.737437e-01 4.259109e-01
<GCONST> 9.041492e+01
<MIXTURE> 2 4.845740e-01
<MEAN> 39
 1.179514e+00 1.382592e+00 7.071537e-01 -7.358445e-01 -6.474592e-01 -9.244795e-01 -7.739589e-01 -1.394118e+00 -4.087869e-01 -1.467657e+00 -4.550464e-01 -1.162392e+00 -3.470670e+00 -1.558155e-02 1.653706e-01 9.055565e-02 -3.438786e-02 -7.316341e-02 -1.793568e-01 -1.980476e-01 -2.617112e-01 -1.757243e-01 -2.292193e-01 -1.400068e-01 -2.077649e-01 1.755224e-01 -4.944325e-02 -2.496927e-02 -1.443444e-02 -8.143799e-03 3.953708e-03 6.422408e-03 1.860894e-02 2.334196e-02 1.094896e-02 2.926656e-02 1.912447e-02 2.588782e-02 4.847493e-03
<VARIANCE> 39
 1.524363e+01 2.162289e+01 1.702436e+01 2.584090e+01 2.251752e+01 2.505630e+01 2.287838e+01 2.620043e+01 2.291789e+01 2.638983e+01 2.070198e+01 1.937402e+01 9.837815e+01 9.543549e-01 1.296563e+00 1.045362e+00 1.054854e+00 1.046902e+00 1.100375e+00 1.026821e+00 1.324602e+00 1.129296e+00 1.266745e+00 1.046963e+00 1.001451e+00 3.369848e+00 1.482790e-01 2.172172e-01 1.746581e-01 1.943892e-01 1.902667e-01 2.123557e-01 1.937775e-01 2.345434e-01 2.075949e-01 2.312326e-01 1.890967e-01 1.763932e-01 4.172776e-01
<GCONST> 9.523174e+01
<STATE> 4
<NUMMIXES> 2
<MIXTURE> 1 4.796790e-01
<MEAN> 39
 -4.063239e-01 7.969111e-03 -5.190782e-02 9.303011e-01 7.888714e-01 1.371413e+00 9.509414e-01 9.202530e-01 2.907584e-01 5.350671e-01 1.604612e-01 4.601102e-01 2.517068e+00 -1.705188e-01 -4.842390e-02 7.109570e-02 2.904874e-01 3.355044e-01 4.464323e-01 4.770995e-01 4.453252e-01 2.660159e-01 2.813801e-01 2.442094e-01 1.995851e-01 1.083466e-01 1.259495e-02 1.836152e-02 5.381726e-03 -2.508816e-02 -4.281760e-02 -6.513180e-02 -3.856215e-02 -6.363939e-03 2.108634e-02 1.124759e-02 2.494555e-02 -1.671786e-02 -5.470819e-02
<VARIANCE> 39
 2.467882e+00 2.907037e+00 4.816460e+00 7.219486e+00 8.854342e+00 1.203100e+01 1.389519e+01 1.400571e+01 1.568398e+01 1.713500e+01 1.482733e+01 1.248801e+01 1.690682e+01 1.679361e-01 2.032045e-01 2.439210e-01 4.962522e-01 4.876286e-01 5.447735e-01 6.989968e-01 7.357925e-01 7.193332e-01 7.869003e-01 6.978311e-01 6.196863e-01 5.704343e-02 2.370829e-02 4.011178e-02 5.217338e-02 6.962845e-02 8.624040e-02 1.056233e-01 1.234526e-01 1.270135e-01 1.430755e-01 1.539166e-01 1.309037e-01 1.210331e-01 1.681556e-02
<GCONST> 5.555171e+01
<MIXTURE> 2 5.203241e-01
<MEAN> 39
 -7.184379e-01 -2.834473e-01 -3.625849e-01 8.286103e-01 4.209786e-01 9.576108e-01 5.322114e-01 6.827257e-01 -1.126685e-01 3.176348e-01 -2.666672e-01 3.768933e-01 3.309107e+00 -2.291213e-01 -1.344604e-01 -9.875958e-02 4.042463e-02 1.081426e-01 1.588376e-01 1.753564e-01 1.106777e-01 -3.782479e-02 -3.697422e-02 -6.045462e-03 6.599751e-02 8.627642e-02 4.121244e-02 6.512603e-02 2.720247e-02 -4.753834e-02 -3.904727e-02 -8.997634e-02 -7.607096e-02 -7.297345e-02 -1.263583e-03 -3.391089e-02 3.227028e-02 -2.716387e-02 -1.177087e-01
<VARIANCE> 39
 3.116926e+00 2.833468e+00 4.794053e+00 7.556366e+00 8.790289e+00 1.112073e+01 1.235683e+01 1.548275e+01 1.575335e+01 1.650276e+01 1.476072e+01 1.267579e+01 2.010377e+01 1.596731e-01 1.710070e-01 2.392892e-01 3.771345e-01 5.006542e-01 5.877479e-01 6.657978e-01 7.491016e-01 7.706429e-01 7.384683e-01 7.075419e-01 6.021526e-01 4.397561e-02 3.107652e-02 5.233083e-02 5.947793e-02 7.440738e-02 8.933738e-02 1.040719e-01 1.186583e-01 1.400052e-01 1.433226e-01 1.761661e-01 1.402153e-01 1.245010e-01 4.069126e-02
<GCONST> 5.706282e+01
<TRANSP> 5
 0.000000e+00 1.000000e+00 0.000000e+00 0.000000e+00 0.000000e+00
 0.000000e+00 8.352676e-02 9.164732e-01 0.000000e+00 0.000000e+00
 0.000000e+00 0.000000e+00 7.443838e-01 2.556162e-01 0.000000e+00
 0.000000e+00 0.000000e+00 0.000000e+00 1.873105e-01 8.126895e-01
 0.000000e+00 0.000000e+00 0.000000e+00 0.000000e+00 0.000000e+00
<ENDHMM>
~h "ah"
<BEGINHMM>
<NUMSTATES> 5
<STATE> 2
<NUMMIXES> 2
<MIXTURE> 1 4.892594e-01
<MEAN> 39
 -1.658444e+00 -4.774165e-01 -5.871195e-01 1.412812e+00 5.443272e-01 1.537061e+00 6.894121e-01 1.773768e+00 6.972118e-01 1.410577e+00 4.539694e-01 1.124362e+00 5.826585e+00 3.356561e-02 -2.436471e-02 1.874145e-02 8.310748e-02 1.313270e-01 2.049211e-01 2.533351e-01 2.685192e-01 2.538107e-01 2.222702e-01 1.877329e-01 1.081358e-01 3.773054e-03 4.137652e-02 2.853147e-02 4.068653e-02 3.553867e-02 3.091012e-02 1.638185e-02 3.219647e-03 -2.551004e-02 -3.891406e-02 -4.461921e-02 -2.596652e-02 -1.803467e-02 3.499731e-03
<VARIANCE> 39
 3.074961e+00 3.107741e+00 5.213551e+00 8.369889e+00 9.757308e+00 1.267702e+01 1.342332e+01 1.550673e+01 1.600013e+01 1.619553e+01 1.482700e+01 1.323025e+01 2.693628e+01 1.045170e-01 1.188819e-01 1.947827e-01 3.043967e-01 3.982532e-01 5.340631e-01 5.839704e-01 6.426293e-01 6.781111e-01 6.865913e-01 6.530889e-01 5.899671e-01 1.363431e-02 1.762500e-02 2.389266e-02 4.301886e-02 6.260105e-02 7.764292e-02 1.002962e-01 1.070091e-01 1.259728e-01 1.373476e-01 1.385923e-01 1.291204e-01 1.169165e-01 2.713044e-03
<GCONST> 4.932550e+01
<MIXTURE> 2 5.107412e-01
<MEAN> 39
 -1.192720e+00 -4.068767e-01 -6.230318e-01 9.106878e-01 1.558446e-01 1.046708e+00 3.023210e-01 1.207505e+00 4.161785e-01 9.537336e-01 2.821682e-01 8.626358e-01 4.690937e+00 -8.590473e-02 -1.525601e-01 -1.597321e-01 -1.262186e-01 -9.034993e-02 -2.753610e-02 3.383552e-02 4.021772e-02 9.117905e-03 -2.350125e-02 -5.651823e-02 -5.169190e-02 -3.062019e-02 1.304101e-02 1.757512e-02 3.214068e-02 2.356312e-02 1.041480e-02 -2.847543e-02 -4.370848e-02 -7.100295e-02 -9.191795e-02 -8.103105e-02 -6.455342e-02 -4.644968e-02 -8.389212e-03
<VARIANCE> 39
 2.786221e+00 2.972380e+00 4.925580e+00 8.326750e+00 9.918190e+00 1.254781e+01 1.307803e+01 1.473509e+01 1.559777e+01 1.481144e+01 1.463778e+01 1.309139e+01 2.301363e+01 9.173061e-02 1.158846e-01 1.938626e-01 2.850567e-01 4.193140e-01 5.188890e-01 5.605290e-01 6.467956e-01 6.969225e-01 6.545895e-01 6.438164e-01 5.635070e-01 1.417346e-02 1.745475e-02 2.329292e-02 4.046394e-02 6.224964e-02 8.211941e-02 1.004307e-01 1.130302e-01 1.302516e-01 1.420838e-01 1.322593e-01 1.278766e-01 1.090839e-01 2.785897e-03
<GCONST> 4.845199e+01
<STATE> 3
<NUMMIXES> 2
<MIXTURE> 1 4.828696e-01
<MEAN> 39
 -1.384807e+00 -1.129633e+00 -1.190955e+00 4.556410e-01 3.986331e-01 1.631022e+00 1.671266e+00 2.603880e+00 1.917918e+00 2.032213e+00 1.137410e+00 1.113771e+00 3.563910e+00 1.248045e-01 5.809563e-02 1.575220e-01 1.888337e-01 2.098225e-01 2.090597e-01 1.855505e-01 1.039482e-01 2.254301e-02 -1.299127e-02 -6.593063e-03 -2.641543e-02 1.121474e-02 1.039160e-01 1.125091e-01 1.209820e-01 5.686959e-02 6.918621e-03 -8.501647e-02 -1.413459e-01 -1.906809e-01 -1.974788e-01 -1.587469e-01 -1.057438e-01 -6.654026e-02 1.222097e-02
<VARIANCE> 39
 2.818022e+00 3.346248e+00 5.467322e+00 8.430598e+00 1.049268e+01 1.382768e+01 1.466406e+01 1.576543e+01 1.667624e+01 1.552811e+01 1.413533e+01 1.362810e+01 2.684269e+01 9.105489e-02 1.273308e-01 2.109276e-01 3.173999e-01 4.154867e-01 5.136325e-01 6.103054e-01 6.407092e-01 6.628860e-01 6.772858e-01 6.402802e-01 6.033931e-01 1.370299e-02 1.643620e-02 2.464620e-02 4.028132e-02 6.099242e-02 9.107190e-02 1.111781e-01 1.201438e-01 1.252258e-01 1.369579e-01 1.277286e-01 1.176801e-01 1.126432e-01 3.605010e-03
<GCONST> 4.998876e+01
<MIXTURE> 2 5.171381e-01
<MEAN> 39
 -6.472997e-01 -7.744595e-01 -9.455807e-01 -3.507661e-01 -2.702422e-02 8.363979e-01 1.338902e+00 1.813355e+00 1.705148e+00 1.469971e+00 9.113871e-01 6.443403e-01 9.596449e-01 -1.684792e-03 -4.875467e-02 -2.345917e-02 3.812838e-03 1.124196e-02 -3.866232e-02 -8.079486e-02 -1.830640e-01 -2.742486e-01 -2.835158e-01 -2.178835e-01 -1.611462e-01 -1.875228e-02 5.351394e-02 8.507656e-02 9.398844e-02 3.806226e-02 -2.984691e-02 -1.313644e-01 -2.045664e-01 -2.456137e-01 -2.491755e-01 -1.907205e-01 -1.317092e-01 -8.431310e-02 5.697592e-03
<VARIANCE> 39
 1.794249e+00 2.902530e+00 4.988441e+00 7.522286e+00 9.330965e+00 1.245062e+01 1.390490e+01 1.506637e+01 1.544636e+01 1.529234e+01 1.432601e+01 1.347477e+01 7.906398e+00 7.199541e-02 1.259635e-01 2.131098e-01 3.332247e-01 4.327051e-01 5.262266e-01 5.848359e-01 6.399181e-01 6.600065e-01 6.361634e-01 6.348135e-01 5.671330e-01 1.217024e-02 1.242160e-02 2.242204e-02 3.954576e-02 6.234158e-02 8.324574e-02 1.018149e-01 1.103895e-01 1.160825e-01 1.332246e-01 1.227075e-01 1.159063e-01 1.146370e-01 2.444268e-03
<GCONST> 4.597113e+01
<STATE> 4
<NUMMIXES> 2
<MIXTURE> 1 4.505216e-01
<MEAN> 39
 -1.167165e+00 -8.172975e-01 -5.070829e-01 1.612307e+00 1.113402e+00 2.050806e+00 1.389799e+00 1.935031e+00 4.488463e-01 7.989922e-01 4.785852e-02 7.255235e-01 4.965280e+00 2.728555e-01 1.840028e-01 2.801455e-01 2.020052e-01 1.393737e-01 1.007631e-02 -9.094589e-02 -2.019348e-01 -2.553141e-01 -2.056302e-01 -1.206518e-01 -6.748872e-02 1.084643e-02 9.432614e-02 8.642219e-02 5.874475e-02 -1.572628e-02 -3.282642e-02 -8.490175e-02 -9.910768e-02 -1.095717e-01 -7.818709e-02 -5.144596e-02 -9.767246e-03 -6.525854e-03 -2.255210e-02
<VARIANCE> 39
 3.655898e+00 3.589096e+00 5.381879e+00 9.060815e+00 1.073750e+01 1.356024e+01 1.445358e+01 1.652154e+01 1.716741e+01 1.593116e+01 1.460147e+01 1.357231e+01 3.028414e+01 1.302212e-01 1.604064e-01 2.449504e-01 3.432685e-01 4.773435e-01 5.664813e-01 6.589534e-01 7.156460e-01 7.572404e-01 7.324046e-01 7.070070e-01 6.741643e-01 2.098284e-02 2.775702e-02 2.873515e-02 4.465366e-02 6.868434e-02 9.823535e-02 1.150892e-01 1.227991e-01 1.359316e-01 1.317564e-01 1.270759e-01 1.234093e-01 1.164020e-01 7.365444e-03
<GCONST> 5.456754e+01
<MIXTURE> 2 5.494964e-01
<MEAN> 39
 -4.611490e-01 -3.847811e-01 -2.209612e-01 7.315688e-01 6.521546e-01 1.173052e+00 9.833374e-01 1.089804e+00 4.764507e-01 2.610486e-01 -2.931979e-02 1.896190e-01 1.353952e+00 1.206184e-01 1.096604e-01 1.209582e-01 1.391690e-02 -9.591421e-02 -2.866829e-01 -4.038912e-01 -5.355088e-01 -5.924899e-01 -5.122744e-01 -3.693067e-01 -2.346000e-01 -6.800948e-03 3.588786e-02 4.654743e-02 2.551510e-02 -4.458970e-02 -8.025230e-02 -1.396277e-01 -1.565604e-01 -1.537840e-01 -1.140092e-01 -6.754089e-02 -3.919351e-02 -1.882935e-02 -4.155685e-03
<VARIANCE> 39
 1.967568e+00 2.739793e+00 4.723828e+00 7.963531e+00 1.005498e+01 1.224394e+01 1.312234e+01 1.446439e+01 1.511995e+01 1.463017e+01 1.450126e+01 1.293139e+01 1.036298e+01 9.272001e-02 1.335777e-01 2.283667e-01 3.549634e-01 4.667895e-01 5.437994e-01 6.185455e-01 6.921961e-01 7.026049e-01 6.766664e-01 6.577185e-01 6.060891e-01 1.610325e-02 1.442421e-02 2.299601e-02 3.842069e-02 6.336845e-02 8.229407e-02 1.009173e-01 1.048785e-01 1.160708e-01 1.201756e-01 1.196794e-01 1.164787e-01 1.124840e-01 3.378492e-03
<GCONST> 4.760891e+01
<TRANSP> 5
 0.000000e+00 1.000000e+00 0.000000e+00 0.000000e+00 0.000000e+00
 0.000000e+00 5.979741e-01 4.020259e-01 0.000000e+00 0.000000e+00
 0.000000e+00 0.000000e+00 1.786439e-01 8.213562e-01 0.000000e+00
 0.000000e+00 0.000000e+00 0.000000e+00 2.029863e-01 7.970137e-01
 0.000000e+00 0.000000e+00 0.000000e+00 0.000000e+00 0.000000e+00
<ENDHMM>
~h "ao"
<BEGINHMM>
<NUMSTATES> 5
<STATE> 2
<NUMMIXES> 2
<MIXTURE> 1 4.760534e-01
<MEAN> 39
 -7.852387e-01 -1.590877e-01 -1.797870e-01 1.066463e+00 1.138646e+00 1.579320e+00 9.908150e-01 1.381782e+00 9.830303e-01 9.709204e-01 5.243628e-01 7.289010e-01 2.262331e+00 -5.987895e-02 2.807083e-02 1.329206e-01 3.287724e-01 4.217158e-01 4.234940e-01 3.948044e-01 3.978080e-01 4.043247e-01 3.115155e-01 2.243844e-01 1.619455e-01 8.243764e-03 5.764509e-02 2.728745e-02 1.092342e-02 -7.030295e-02 -1.049960e-01 -1.465830e-01 -8.905481e-02 -8.844185e-02 -8.424908e-02 -6.215196e-02 -3.926943e-02 -5.050401e-02 -3.375461e-02
<VARIANCE> 39
 2.507974e+00 2.661143e+00 5.064148e+00 7.464775e+00 9.374599e+00 1.103070e+01 1.366594e+01 1.519340e+01 1.494180e+01 1.534059e+01 1.403698e+01 1.338659e+01 2.015373e+01 5.852552e-02 1.324460e-01 2.278612e-01 3.409581e-01 3.935534e-01 4.723170e-01 5.983140e-01 6.321697e-01 6.538067e-01 6.368324e-01 6.184668e-01 5.796407e-01 1.081576e-02 1.752876e-02 2.389619e-02 4.394183e-02 6.179396e-02 7.794166e-02 8.799485e-02 1.013177e-01 1.149451e-01 1.312509e-01 1.170050e-01 1.110928e-01 1.117548e-01 7.184896e-03
<GCONST> 4.773503e+01
<MIXTURE> 2 5.239444e-01
<MEAN> 39
 -9.179646e-01 -2.225552e-01 -4.388207e-01 6.474361e-01 4.913725e-01 9.850072e-01 4.250320e-01 1.014334e+00 2.621394e-01 5.881105e-01 2.298397e-01 5.432400e-01 2.861610e+00 -1.975126e-01 -1.302485e-01 -8.165871e-02 8.791444e-02 1.787300e-01 2.427078e-01 2.318583e-01 1.957030e-01 1.385100e-01 5.248012e-02 3.784255e-02 4.977576e-02 -2.965651e-02 6.869603e-02 6.234910e-03 1.040724e-02 -6.933586e-02 -8.543833e-02 -1.380225e-01 -8.644556e-02 -1.059012e-01 -6.529079e-02 -7.750107e-02 -4.888321e-02 -6.347826e-02 -6.293559e-02
<VARIANCE> 39
 2.930369e+00 2.871559e+00 5.542599e+00 7.859602e+00 9.380351e+00 1.200265e+01 1.279514e+01 1.433471e+01 1.472896e+01 1.561359e+01 1.379062e+01 1.331850e+01 2.195801e+01 6.375241e-02 1.297537e-01 2.196971e-01 3.262462e-01 4.229089e-01 5.385069e-01 5.721480e-01 6.505278e-01 6.701508e-01 6.351366e-01 5.799845e-01 5.786296e-01 1.063725e-02 2.254163e-02 2.357341e-02 4.659016e-02 6.800257e-02 7.700004e-02 9.441428e-02 1.007261e-01 1.114186e-01 1.285648e-01 1.260697e-01 1.117865e-01 1.117036e-01 1.168446e-02
<GCONST> 4.920612e+01
<STATE> 3
<NUMMIXES> 2
<MIXTURE> 1 4.803143e-01
<MEAN> 39
 -1.475688e+00 -3.268821e-01 -4.470817e-01 1.462178e+00 1.402136e+00 2.167096e+00 1.224253e+00 1.811126e+00 1.003337e+00 1.456109e+00 7.158093e-01 9.974566e-01 4.006289e+00 -2.618701e-03 4.934195e-02 9.432852e-02 1.376641e-01 1.489709e-01 1.467365e-01 1.905250e-01 1.694787e-01 1.556157e-01 1.428356e-01 1.009673e-01 5.513107e-02 8.863353e-03 8.978042e-02 5.288789e-02 2.463848e-02 -7.016141e-02 -1.269609e-01 -1.680005e-01 -1.293800e-01 -1.210116e-01 -1.133032e-01 -7.271799e-02 -4.937270e-02 -4.889644e-02 -4.157100e-03
<VARIANCE> 39
 2.572666e+00 3.034466e+00 5.245266e+00 8.961549e+00 1.010031e+01 1.197506e+01 1.434133e+01 1.541049e+01 1.698469e+01 1.611440e+01 1.454082e+01 1.461484e+01 3.027810e+01 5.503017e-02 1.083315e-01 2.041315e-01 2.746212e-01 3.912436e-01 4.890995e-01 5.642905e-01 5.699716e-01 6.729007e-01 6.299668e-01 5.789525e-01 5.360786e-01 1.039933e-02 1.229409e-02 2.420392e-02 4.356755e-02 6.813435e-02 8.274451e-02 9.883811e-02 1.135091e-01 1.282851e-01 1.416338e-01 1.271030e-01 1.180675e-01 1.191418e-01 2.992108e-03
<GCONST> 4.770325e+01
<MIXTURE> 2 5.196886e-01
<MEAN> 39
 -3.782525e-01 9.758577e-03 5.853979e-02 8.401335e-01 8.800042e-01 1.036882e+00 7.146645e-01 8.995852e-01 6.095861e-01 5.321141e-01 2.298395e-01 3.368320e-01 1.098356e+00 -1.264153e-01 -9.028910e-02 -6.473555e-02 1.737873e-02 5.205830e-02 5.534374e-02 8.259709e-02 5.568391e-02 6.014443e-02 -2.386910e-02 -1.402466e-02 1.930180e-02 -3.448984e-02 3.299147e-02 1.000498e-02 -3.062429e-02 -1.214245e-01 -1.803824e-01 -2.045485e-01 -1.707465e-01 -1.745307e-01 -1.581364e-01 -1.140098e-01 -8.007755e-02 -7.065570e-02 -1.149969e-02
<VARIANCE> 39
 1.798528e+00 2.630041e+00 4.816798e+00 7.409521e+00 9.372322e+00 1.140919e+01 1.277267e+01 1.503037e+01 1.439342e+01 1.442835e+01 1.306249e+01 1.239792e+01 8.412565e+00 5.462645e-02 1.080839e-01 2.046963e-01 2.992329e-01 3.626761e-01 4.305263e-01 5.309993e-01 5.651198e-01 5.833604e-01 6.146001e-01 5.887483e-01 6.157354e-01 1.075363e-02 1.260256e-02 2.428778e-02 4.453894e-02 6.365132e-02 8.042089e-02 9.591594e-02 1.033422e-01 1.224853e-01 1.290408e-01 1.196105e-01 1.095742e-01 1.108817e-01 2.537295e-03
<GCONST> 4.398027e+01
<STATE> 4
<NUMMIXES> 2
<MIXTURE> 1 3.992788e-01
<MEAN> 39
 -1.935044e+00 2.044185e-01 -2.850107e-01 2.064957e+00 1.411856e+00 2.229157e+00 1.033040e+00 1.769749e+00 6.259875e-01 1.635781e+00 5.154427e-01 1.089554e+00 5.881533e+00 5.947043e-02 9.490098e-02 1.188196e-01 5.870844e-02 1.887142e-02 -1.994766e-03 5.760836e-02 4.420526e-02 6.979395e-02 1.231387e-01 8.318882e-02 4.180739e-02 2.146427e-02 3.820285e-02 7.114049e-03 5.094092e-04 -3.771204e-02 -6.302875e-02 -5.319864e-02 -3.879171e-02 -3.547975e-02 -2.435324e-02 -3.811302e-02 -2.090893e-02 -2.710207e-03 1.132462e-02
<VARIANCE> 39
 2.341843e+00 3.471282e+00 5.850871e+00 9.332827e+00 9.967047e+00 1.299174e+01 1.506550e+01 1.583683e+01 1.691479e+01 1.738508e+01 1.580172e+01 1.519013e+01 3.535008e+01 6.254067e-02 1.153007e-01 2.209834e-01 3.066355e-01 3.797995e-01 4.252322e-01 5.132048e-01 5.991932e-01 6.969587e-01 7.569858e-01 6.614449e-01 6.986936e-01 1.202775e-02 1.246887e-02 2.666057e-02 4.675641e-02 6.462181e-02 7.776561e-02 9.444302e-02 1.117581e-01 1.303623e-01 1.384971e-01 1.419594e-01 1.323931e-01 1.412508e-01 2.070313e-03
<GCONST> 4.934061e+01
<MIXTURE> 2 6.007287e-01
<MEAN> 39
 -9.702545e-01 1.322851e-01 1.127958e-02 1.297405e+00 1.061323e+00 1.426252e+00 7.680967e-01 1.121843e+00 6.919718e-01 7.148805e-01 2.058656e-01 5.446368e-01 2.398689e+00 -3.494595e-02 -3.498837e-02 -8.132271e-02 -1.415184e-01 -1.934037e-01 -2.263602e-01 -1.658101e-01 -1.586828e-01 -1.712995e-01 -1.723793e-01 -1.101369e-01 -7.276995e-02 -1.626922e-02 2.199370e-02 -2.588921e-03 -3.126898e-02 -8.744110e-02 -1.317455e-01 -1.325507e-01 -1.282613e-01 -1.160864e-01 -1.072471e-01 -6.056347e-02 -4.231957e-02 -3.994009e-02 7.941385e-04
<VARIANCE> 39
 2.161474e+00 2.964220e+00 5.213649e+00 8.616751e+00 9.479933e+00 1.244156e+01 1.422929e+01 1.533357e+01 1.601658e+01 1.580847e+01 1.468098e+01 1.384620e+01 1.802272e+01 5.648549e-02 1.099639e-01 2.129524e-01 2.862737e-01 3.655466e-01 4.539265e-01 5.296986e-01 5.977595e-01 6.235704e-01 6.076931e-01 6.188557e-01 6.239700e-01 1.073078e-02 1.150360e-02 2.378341e-02 4.242031e-02 6.168927e-02 7.609738e-02 9.693352e-02 1.082262e-01 1.266713e-01 1.312683e-01 1.222716e-01 1.172701e-01 1.216279e-01 1.844781e-03
<GCONST> 4.592766e+01
<TRANSP> 5
 0.000000e+00 1.000000e+00 0.000000e+00 0.000000e+00 0.000000e+00
 0.000000e+00 1.357335e-02 9.864267e-01 0.000000e+00 0.000000e+00
 0.000000e+00 0.000000e+00 4.225089e-02 9.577492e-01 0.000000e+00
 0.000000e+00 0.000000e+00 0.000000e+00 4.259023e-01 5.740977e-01
 0.000000e+00 0.000000e+00 0.000000e+00 0.000000e+00 0.000000e+00
<ENDHMM>
~h "ay"
<BEGINHMM>
<NUMSTATES> 5
<STATE> 2
<NUMMIXES> 2
<MIXTURE> 1 4.864057e-01
<MEAN> 39
 -1.047613e+00 -3.391843e-01 -3.365515e-01 9.092284e-01 7.839532e-01 1.310257e+00 8.456426e-01 1.633121e+00 8.884479e-01 1.146908e+00 6.444587e-01 8.819738e-01 3.100894e+00 -5.678613e-02 2.974699e-02 7.946827e-02 2.068700e-01 2.802838e-01 3.276612e-01 3.578906e-01 3.973897e-01 4.032384e-01 3.770275e-01 2.653896e-01 1.673862e-01 1.199961e-02 6.136025e-02 3.702105e-02 2.678408e-02 -1.601351e-02 -4.932687e-02 -7.090133e-02 -5.428891e-02 -9.035454e-02 -8.329375e-02 -6.894073e-02 -5.503480e-02 -4.263546e-02 -2.439732e-02
<VARIANCE> 39
 2.813263e+00 3.007147e+00 4.973464e+00 7.970541e+00 9.317559e+00 1.226797e+01 1.293546e+01 1.531880e+01 1.577375e+01 1.608822e+01 1.485037e+01 1.299817e+01 2.349348e+01 7.037725e-02 1.289989e-01 2.323097e-01 3.229095e-01 4.048168e-01 5.200201e-01 5.920132e-01 6.324399e-01 7.223086e-01 6.865238e-01 6.323627e-01 5.946449e-01 1.182765e-02 1.684415e-02 2.462711e-02 4.295691e-02 6.739919e-02 8.734487e-02 1.068300e-01 1.106854e-01 1.164715e-01 1.348463e-01 1.308869e-01 1.209983e-01 1.018942e-01 6.405278e-03
<GCONST> 4.938564e+01
<MIXTURE> 2 5.136091e-01
<MEAN> 39
 -5.840172e-01 -1.484954e-01 -2.829160e-01 5.305197e-01 2.706066e-01 6.269510e-01 1.692088e-01 6.831368e-01 2.538064e-01 5.352537e-01 3.101551e-01 4.754855e-01 2.016322e+00 -1.584673e-01 -1.349433e-01 -1.218059e-01 1.672117e-02 8.994931e-02 1.018736e-01 1.353140e-01 1.567125e-01 1.507920e-01 1.250724e-01 2.702631e-02 3.147098e-02 -2.084399e-02 3.539907e-02 -7.435237e-04 -6.942332e-03 -5.751620e-02 -6.812323e-02 -9.229693e-02 -6.984296e-02 -9.559910e-02 -8.892070e-02 -8.916685e-02 -7.033052e-02 -4.722146e-02 -3.305374e-02
<VARIANCE> 39
 2.497820e+00 2.806440e+00 4.968600e+00 7.933314e+00 9.257541e+00 1.184603e+01 1.259904e+01 1.449934e+01 1.433118e+01 1.439036e+01 1.383926e+01 1.285953e+01 1.505222e+01 6.872028e-02 1.207900e-01 2.196967e-01 3.319615e-01 4.367986e-01 5.086614e-01 5.904264e-01 6.425161e-01 6.956708e-01 6.963775e-01 6.191267e-01 5.549645e-01 1.094337e-02 1.691383e-02 2.479384e-02 4.323706e-02 6.708176e-02 8.558375e-02 1.037521e-01 1.114532e-01 1.142624e-01 1.229169e-01 1.231737e-01 1.146965e-01 1.044236e-01 6.514872e-03
<GCONST> 4.787884e+01
<STATE> 3
<NUMMIXES> 2
<MIXTURE> 1 4.544877e-01
<MEAN> 39
 -1.364269e+00 1.750362e-01 1.142030e-01 1.820275e+00 8.862461e-01 1.516059e+00 7.535174e-01 1.322551e+00 7.943940e-01 1.018054e+00 4.892147e-01 8.950837e-01 1.947237e+00 3.474890e-02 6.402544e-02 9.058397e-02 1.143943e-01 1.228633e-01 1.167303e-01 1.377636e-01 1.208747e-01 1.188007e-01 1.166997e-01 9.518150e-02 6.582709e-02 1.591856e-02 3.772441e-02 1.987282e-02 1.649651e-02 -9.403720e-03 -1.795865e-02 -2.971805e-02 -3.998236e-02 -5.350609e-02 -5.305314e-02 -4.469993e-02 -2.411795e-02 -2.192383e-02 5.606780e-03
<VARIANCE> 39
 2.325113e+00 3.220101e+00 4.990341e+00 9.780392e+00 9.506618e+00 1.293507e+01 1.385341e+01 1.473982e+01 1.535484e+01 1.556216e+01 1.439337e+01 1.275164e+01 1.217232e+01 5.338425e-02 1.075459e-01 1.878643e-01 2.925032e-01 3.856464e-01 4.961873e-01 5.586469e-01 5.653531e-01 5.951973e-01 6.169943e-01 5.992921e-01 5.533536e-01 9.391712e-03 1.006992e-02 2.162411e-02 3.659468e-02 5.694192e-02 7.543372e-02 9.967149e-02 1.076994e-01 1.127802e-01 1.242148e-01 1.232084e-01 1.205077e-01 1.054837e-01 1.864733e-03
<GCONST> 4.451980e+01
<MIXTURE> 2 5.454966e-01
<MEAN> 39
 -7.013605e-01 1.590238e-01 1.107140e-01 9.785483e-01 6.111949e-01 8.283918e-01 3.273808e-01 5.473433e-01 4.840641e-01 4.594294e-01 2.783170e-01 2.891008e-01 5.221982e-01 -4.979987e-02 -6.217027e-02 -7.414921e-02 -6.572651e-02 -7.317564e-02 -8.282774e-02 -8.907145e-02 -9.930807e-02 -1.002717e-01 -9.244697e-02 -9.125209e-02 -6.479268e-02 -1.373492e-02 4.994020e-03 3.542674e-04 -6.863111e-03 -3.554352e-02 -6.159372e-02 -7.128228e-02 -7.214099e-02 -7.581499e-02 -8.269316e-02 -7.150209e-02 -5.453133e-02 -2.638741e-02 -4.965489e-03
<VARIANCE> 39
 1.900960e+00 2.625076e+00 4.528992e+00 8.081849e+00 9.076713e+00 1.176868e+01 1.343783e+01 1.426830e+01 1.468985e+01 1.478006e+01 1.392502e+01 1.285633e+01 1.152920e+00 4.868374e-02 1.022055e-01 1.794436e-01 2.916934e-01 3.735004e-01 4.617657e-01 5.210581e-01 5.644639e-01 5.967358e-01 6.131297e-01 5.881256e-01 5.180978e-01 8.424096e-03 9.528993e-03 2.011490e-02 3.578346e-02 5.599783e-02 7.522003e-02 9.257773e-02 1.077507e-01 1.126710e-01 1.204978e-01 1.201401e-01 1.134597e-01 1.036880e-01 1.686649e-03
<GCONST> 4.010377e+01
<STATE> 4
<NUMMIXES> 2
<MIXTURE> 1 4.944476e-01
<MEAN> 39
 -2.467996e+00 -5.040497e-01 -9.601759e-01 1.962120e+00 7.829866e-01 2.040247e+00 9.597401e-01 2.363160e+00 3.797853e-01 1.600662e+00 4.936728e-01 1.490862e+00 9.299727e+00 7.093619e-02 5.135125e-02 7.612067e-02 8.789057e-02 1.138947e-01 1.195526e-01 1.297125e-01 1.210956e-01 1.143965e-01 9.788862e-02 8.123061e-02 5.787141e-02 1.792661e-02 2.764700e-02 1.235037e-02 1.331687e-02 -3.062859e-04 7.153193e-03 3.824280e-03 2.334462e-04 4.292196e-04 2.173071e-03 4.784859e-03 7.115167e-03 -1.874891e-03 3.707638e-03
<VARIANCE> 39
 2.164771e+00 3.324880e+00 5.313349e+00 8.261422e+00 1.044504e+01 1.287057e+01 1.447565e+01 1.600123e+01 1.623681e+01 1.603062e+01 1.470828e+01 1.325529e+01 1.151754e+01 5.893782e-02 1.194504e-01 2.027007e-01 3.066115e-01 4.281205e-01 5.188602e-01 5.924389e-01 6.263722e-01 6.475975e-01 6.453705e-01 6.228606e-01 5.624363e-01 1.075467e-02 1.140262e-02 2.294008e-02 3.920572e-02 6.118568e-02 8.496232e-02 1.029642e-01 1.170260e-01 1.229125e-01 1.310198e-01 1.272611e-01 1.200310e-01 1.082433e-01 2.072678e-03
<GCONST> 4.649525e+01
<MIXTURE> 2 5.055182e-01
<MEAN> 39
 -1.907692e+00 -4.599775e-01 -8.778647e-01 1.327826e+00 4.741059e-01 1.387445e+00 5.733630e-01 1.637464e+00 2.017735e-01 1.187663e+00 2.923360e-01 1.072978e+00 7.243002e+00 -1.544268e-02 -5.474646e-02 -6.656443e-02 -1.143577e-01 -1.587640e-01 -1.727920e-01 -1.928144e-01 -1.998216e-01 -2.124647e-01 -1.868718e-01 -1.521973e-01 -1.032473e-01 -1.432279e-02 6.311418e-03 -4.377532e-03 -9.165499e-03 -2.250573e-02 -3.319272e-02 -3.354880e-02 -3.618480e-02 -3.691992e-02 -3.671198e-02 -3.716491e-02 -2.326680e-02 -1.506535e-02 -5.002633e-03
<VARIANCE> 39
 2.586637e+00 3.111866e+00 5.173717e+00 8.058919e+00 1.015917e+01 1.238057e+01 1.398625e+01 1.560344e+01 1.541233e+01 1.573145e+01 1.448882e+01 1.303248e+01 2.077512e+01 5.971084e-02 1.197446e-01 2.077093e-01 3.126009e-01 4.318520e-01 5.155269e-01 5.857447e-01 6.438555e-01 6.800215e-01 6.810185e-01 6.152438e-01 5.645234e-01 1.116157e-02 1.055263e-02 2.309405e-02 4.024198e-02 6.109104e-02 8.700521e-02 9.924014e-02 1.170930e-01 1.233655e-01 1.281238e-01 1.275339e-01 1.185459e-01 1.055797e-01 1.993465e-03
<GCONST> 4.697366e+01
<TRANSP> 5
 0.000000e+00 1.000000e+00 0.000000e+00 0.000000e+00 0.000000e+00
 0.000000e+00 5.897634e-02 9.410236e-01 0.000000e+00 0.000000e+00
 0.000000e+00 0.000000e+00 7.419886e-01 2.580114e-01 0.000000e+00
 0.000000e+00 0.000000e+00 0.000000e+00 8.368950e-01 1.631051e-01
 0.000000e+00 0.000000e+00 0.000000e+00 0.000000e+00 0.000000e+00
<ENDHMM>
~h "eh"
<BEGINHMM>
<NUMSTATES> 5
<STATE> 2
<NUMMIXES> 2
<MIXTURE> 1 5.206131e-01
<MEAN> 39
 -5.703318e-01 -9.184670e-02 5.408887e-02 9.760119e-01 7.806830e-01 1.135186e+00 1.295051e+00 1.490861e+00 6.219276e-01 9.102829e-01 7.005813e-01 6.544087e-01 1.225000e+00 -3.365535e-02 6.624056e-02 1.752806e-01 3.607416e-01 3.907757e-01 3.939463e-01 3.158222e-01 2.472965e-01 2.292994e-01 1.611666e-01 1.310516e-01 1.352834e-01 5.154805e-02 4.880338e-02 3.925800e-02 5.416403e-03 -8.970818e-02 -8.558902e-02 -1.361286e-01 -1.570525e-01 -1.415662e-01 -7.151154e-02 -8.566146e-02 -7.292355e-02 -7.681432e-02 -2.927140e-02
<VARIANCE> 39
 2.123277e+00 2.429001e+00 4.676712e+00 6.969178e+00 8.545486e+00 1.126069e+01 1.298913e+01 1.453055e+01 1.486240e+01 1.486452e+01 1.278816e+01 1.249544e+01 1.011136e+01 8.893893e-02 1.310798e-01 2.205105e-01 3.542067e-01 3.856176e-01 4.736457e-01 5.631092e-01 6.224366e-01 6.650630e-01 6.351719e-01 5.792553e-01 5.723354e-01 1.847700e-02 1.537225e-02 2.429479e-02 4.345225e-02 6.937743e-02 7.960241e-02 9.769198e-02 1.096540e-01 1.134098e-01 1.307347e-01 1.287140e-01 1.199163e-01 1.040452e-01 8.355935e-03
<GCONST> 4.749293e+01
<MIXTURE> 2 4.793895e-01
<MEAN> 39
 -1.313839e+00 -3.843373e-01 -4.881479e-01 7.906103e-01 2.593915e-01 9.039757e-01 5.756422e-01 1.100681e+00 3.934453e-01 7.311903e-01 6.611881e-01 7.229558e-01 2.749724e+00 -1.757919e-01 -8.218219e-02 -5.211172e-02 1.151492e-01 8.493272e-02 1.062466e-01 1.251719e-02 9.665966e-03 -2.284980e-02 -8.859538e-03 -4.572693e-02 -1.415089e-02 6.286357e-02 7.681645e-02 3.785196e-02 -4.065222e-03 -1.356671e-01 -8.946019e-02 -1.406554e-01 -1.176059e-01 -1.610186e-01 -7.469703e-02 -1.074994e-01 -9.746798e-02 -9.304094e-02 -9.417938e-02
<VARIANCE> 39
 4.074924e+00 3.525620e+00 5.712042e+00 9.889940e+00 1.047288e+01 1.319757e+01 1.400764e+01 1.545073e+01 1.500611e+01 1.448778e+01 1.423007e+01 1.242351e+01 2.141092e+01 1.085804e-01 1.388326e-01 2.447194e-01 3.545501e-01 4.228029e-01 5.174505e-01 6.057677e-01 6.378310e-01 7.051453e-01 6.384308e-01 6.309222e-01 5.955409e-01 3.549246e-02 2.332441e-02 3.165704e-02 4.891300e-02 8.380836e-02 8.918741e-02 1.038063e-01 1.102440e-01 1.256141e-01 1.415638e-01 1.370676e-01 1.314246e-01 1.026288e-01 2.387513e-02
<GCONST> 5.442460e+01
<STATE> 3
<NUMMIXES> 2
<MIXTURE> 1 4.987383e-01
<MEAN> 39
 -2.012197e+00 -2.739724e-01 -4.189112e-01 1.978049e+00 1.252260e+00 1.955863e+00 9.580094e-01 1.876129e+00 5.558618e-01 1.433082e+00 5.881627e-01 1.390123e+00 5.716323e+00 1.115564e-01 7.585319e-02 1.148066e-01 1.340358e-01 1.540289e-01 1.043375e-01 7.762588e-02 5.438481e-02 7.848682e-02 9.598322e-02 5.274862e-02 1.052235e-02 2.196782e-03 5.343210e-02 1.481493e-02 1.105991e-02 -3.658685e-02 -4.053713e-02 -4.582135e-02 -3.997906e-02 -3.987913e-02 -2.614594e-02 -3.449580e-02 -2.981815e-02 -3.885916e-02 -7.130056e-03
<VARIANCE> 39
 3.152264e+00 2.936166e+00 5.213745e+00 8.699399e+00 1.004917e+01 1.207151e+01 1.397845e+01 1.573770e+01 1.543071e+01 1.548347e+01 1.459633e+01 1.323575e+01 2.286352e+01 8.874322e-02 1.322378e-01 2.154284e-01 3.114697e-01 4.078065e-01 5.132878e-01 5.725391e-01 6.019359e-01 6.313921e-01 6.319295e-01 6.333130e-01 5.492986e-01 1.374165e-02 1.685733e-02 2.441956e-02 4.161523e-02 6.312362e-02 8.061930e-02 1.049933e-01 1.196756e-01 1.254360e-01 1.235563e-01 1.220175e-01 1.200484e-01 1.105331e-01 2.972937e-03
<GCONST> 4.869707e+01
<MIXTURE> 2 5.012624e-01
<MEAN> 39
 -1.545283e+00 -4.104340e-01 -4.931676e-01 1.328286e+00 9.157675e-01 1.444878e+00 8.338494e-01 1.423075e+00 6.038797e-01 7.983819e-01 2.725180e-01 7.332407e-01 3.623902e+00 -3.893116e-03 -3.640280e-02 -3.991657e-02 -6.441931e-02 -7.500753e-02 -1.225856e-01 -1.929518e-01 -1.974533e-01 -1.590500e-01 -1.492720e-01 -1.581895e-01 -8.679500e-02 1.632094e-03 4.064686e-02 2.006377e-02 -9.649634e-03 -8.632747e-02 -1.017667e-01 -1.196371e-01 -1.064021e-01 -9.886162e-02 -7.047889e-02 -6.678913e-02 -5.121967e-02 -3.857553e-02 -1.649546e-02
<VARIANCE> 39
 3.789945e+00 3.394424e+00 5.867657e+00 9.240438e+00 1.097347e+01 1.366486e+01 1.533414e+01 1.541225e+01 1.611687e+01 1.690567e+01 1.466932e+01 1.423117e+01 2.057971e+01 8.710928e-02 1.290118e-01 2.157702e-01 3.147095e-01 4.195211e-01 5.101789e-01 5.742242e-01 6.441397e-01 6.935843e-01 6.317115e-01 6.471995e-01 6.098464e-01 1.917588e-02 1.774708e-02 2.756439e-02 4.440723e-02 6.884822e-02 8.638780e-02 1.036944e-01 1.200932e-01 1.272977e-01 1.339129e-01 1.280548e-01 1.146866e-01 1.135069e-01 4.923342e-03
<GCONST> 5.122010e+01
<STATE> 4
<NUMMIXES> 2
<MIXTURE> 1 4.739400e-01
<MEAN> 39
 -9.892842e-02 8.765006e-02 1.147416e-01 2.635025e-01 1.843040e-01 2.072714e-01 1.781407e-01 1.952521e-01 1.519046e-01 1.479267e-01 1.414025e-01 1.374997e-01 1.065000e-01 4.889434e-02 6.909476e-02 9.582954e-02 1.102969e-01 1.165841e-01 1.257309e-01 1.314233e-01 1.328704e-01 1.361983e-01 1.219439e-01 1.023692e-01 5.796846e-02 1.750132e-02 8.792226e-03 7.078898e-03 8.552954e-03 7.418145e-03 1.172925e-02 1.297922e-02 1.108720e-02 1.154642e-02 1.385633e-02 1.365802e-02 8.698907e-03 5.432471e-03 3.312508e-03
<VARIANCE> 39
 1.283605e+00 2.608705e+00 4.611105e+00 7.008295e+00 9.291439e+00 1.158801e+01 1.333399e+01 1.455995e+01 1.509109e+01 1.500224e+01 1.402348e+01 1.265846e+01 9.056221e-01 4.583702e-02 1.051790e-01 1.887940e-01 2.829464e-01 3.812797e-01 4.794263e-01 5.591856e-01 6.055355e-01 6.356315e-01 6.320824e-01 6.023183e-01 5.343917e-01 7.681436e-03 8.703151e-03 2.061410e-02 3.725915e-02 5.576779e-02 7.493596e-02 9.260997e-02 1.085563e-01 1.182986e-01 1.243701e-01 1.218430e-01 1.164139e-01 1.024100e-01 1.492900e-03
<GCONST> 3.959641e+01
<MIXTURE> 2 5.260037e-01
<MEAN> 39
 -5.625905e-02 -3.796421e-03 -4.511924e-02 -3.333060e-02 -8.841491e-02 -8.452760e-02 -1.563112e-01 -1.858206e-01 -1.432738e-01 -1.229797e-01 -1.510544e-01 -1.002859e-01 4.206349e-02 -3.944411e-02 -5.686194e-02 -8.185240e-02 -1.029169e-01 -1.155598e-01 -1.302561e-01 -1.374581e-01 -1.367026e-01 -1.383463e-01 -1.235225e-01 -1.035476e-01 -5.968047e-02 -1.419680e-02 -8.258398e-03 -8.174255e-03 -9.388391e-03 -8.726843e-03 -1.213883e-02 -1.183049e-02 -8.411264e-03 -8.498121e-03 -1.074467e-02 -1.087377e-02 -5.445145e-03 -2.724952e-03 -3.522162e-03
<VARIANCE> 39
 1.136600e+00 2.580041e+00 4.625213e+00 7.040703e+00 9.389115e+00 1.154191e+01 1.329110e+01 1.441147e+01 1.508480e+01 1.487557e+01 1.396833e+01 1.254852e+01 3.516366e-01 4.424108e-02 1.056985e-01 1.921596e-01 2.859503e-01 3.864232e-01 4.774397e-01 5.545248e-01 6.063268e-01 6.309904e-01 6.271083e-01 5.982771e-01 5.358669e-01 7.661162e-03 8.322577e-03 2.044868e-02 3.746647e-02 5.605167e-02 7.506787e-02 9.376864e-02 1.085131e-01 1.173754e-01 1.229979e-01 1.216863e-01 1.156782e-01 1.012165e-01 1.404752e-03
<GCONST> 3.834738e+01
<TRANSP> 5
 0.000000e+00 1.000000e+00 0.000000e+00 0.000000e+00 0.000000e+00
 0.000000e+00 8.875802e-02 9.112420e-01 0.000000e+00 0.000000e+00
 0.000000e+00 0.000000e+00 5.674544e-01 4.325455e-01 0.000000e+00
 0.000000e+00 0.000000e+00 0.000000e+00 9.812787e-01 1.872132e-02
 0.000000e+00 0.000000e+00 0.000000e+00 0.000000e+00 0.000000e+00
<ENDHMM>
~h "ey"
<BEGINHMM>
<NUMSTATES> 5
<STATE> 2
<NUMMIXES> 2
<MIXTURE> 1 5.188681e-01
<MEAN> 39
 -1.994134e+00 -4.092413e-01 -4.863137e-01 1.821755e+00 7.024056e-01 1.637001e+00 6.970725e-01 1.657252e+00 3.851894e-01 1.303893e+00 3.327167e-01 1.135971e+00 6.066017e+00 3.601645e-02 4.016227e-02 8.436850e-02 1.117032e-01 1.237045e-01 1.078509e-01 1.169550e-01 1.246374e-01 1.665169e-01 1.448600e-01 1.185491e-01 9.958322e-02 1.304692e-02 5.229596e-02 2.250173e-02 1.930764e-02 -5.844295e-03 -2.781190e-04 -3.886750e-03 -1.946492e-03 -7.045181e-03 -1.350720e-02 -6.924504e-03 6.795683e-03 -8.673767e-03 -8.557248e-03
<VARIANCE> 39
 2.982745e+00 3.067735e+00 5.111714e+00 8.486499e+00 9.822294e+00 1.315514e+01 1.407465e+01 1.657459e+01 1.586435e+01 1.600511e+01 1.366821e+01 1.320115e+01 2.971777e+01 8.076572e-02 1.263060e-01 2.263806e-01 3.334015e-01 4.411251e-01 5.418048e-01 5.849119e-01 6.816295e-01 6.842076e-01 7.063699e-01 6.110709e-01 5.569762e-01 1.337892e-02 1.792920e-02 2.505312e-02 4.491327e-02 6.433798e-02 8.756527e-02 1.110325e-01 1.150180e-01 1.332900e-01 1.378248e-01 1.356887e-01 1.103358e-01 1.085052e-01 3.982451e-03
<GCONST> 5.016373e+01
<MIXTURE> 2 4.811336e-01
<MEAN> 39
 -1.265339e+00 -3.160974e-01 -4.490849e-01 9.597576e-01 1.392760e-01 6.005610e-01 2.944313e-01 1.002772e+00 4.012907e-02 6.045454e-01 1.041026e-01 8.409202e-01 2.741919e+00 -2.854032e-02 -1.022621e-01 -1.283012e-01 -1.581511e-01 -1.382553e-01 -1.318334e-01 -1.035240e-01 -9.112384e-02 -1.021779e-01 -1.198089e-01 -8.903053e-02 -4.144447e-02 -2.187940e-02 3.872954e-02 1.114627e-03 -9.003086e-03 -4.778860e-02 -3.368906e-02 -2.734648e-02 -2.970878e-02 -4.805617e-02 -2.319204e-02 -3.561351e-02 -1.537430e-02 -3.646779e-02 -1.586085e-02
<VARIANCE> 39
 3.909017e+00 3.378950e+00 5.478897e+00 1.127220e+01 1.139277e+01 1.367437e+01 1.311448e+01 1.639736e+01 1.535272e+01 1.602038e+01 1.426916e+01 1.336943e+01 6.050849e+01 1.014788e-01 1.397881e-01 2.390483e-01 3.473322e-01 4.617794e-01 5.570130e-01 5.675586e-01 6.887136e-01 6.780742e-01 6.435464e-01 5.760860e-01 5.559331e-01 2.626071e-02 2.091733e-02 2.656658e-02 4.638089e-02 7.349556e-02 8.984990e-02 1.169679e-01 1.141036e-01 1.370105e-01 1.373901e-01 1.372701e-01 1.170748e-01 1.079987e-01 8.616451e-03
<GCONST> 5.402496e+01
<STATE> 3
<NUMMIXES> 2
<MIXTURE> 1 5.013540e-01
<MEAN> 39
 -7.521770e-01 -3.328385e-01 -3.852578e-01 5.876580e-01 3.402401e-01 6.242507e-01 5.473669e-01 1.085009e+00 4.625642e-01 8.485669e-01 3.586529e-01 7.266964e-01 2.373605e+00 2.088640e-01 9.403583e-02 1.214010e-01 6.637229e-02 9.832408e-02 1.320379e-01 9.774811e-02 9.427826e-02 1.193656e-01 1.119727e-01 1.391080e-01 2.770248e-02 -1.682341e-02 1.533905e-01 1.112825e-01 7.853013e-02 -2.730955e-02 -1.540419e-02 -6.200173e-02 -6.650803e-02 -1.003689e-01 -7.747405e-02 -7.460364e-02 -2.179569e-02 -6.064748e-02 -1.449031e-01
<VARIANCE> 39
 2.813081e+00 3.018543e+00 4.886232e+00 8.656083e+00 1.018540e+01 1.376016e+01 1.363797e+01 1.561634e+01 1.500112e+01 1.534475e+01 1.398438e+01 1.207261e+01 2.966637e+01 1.562568e-01 1.503218e-01 2.552904e-01 3.517658e-01 4.605650e-01 5.836362e-01 7.111483e-01 6.960130e-01 7.398165e-01 6.656840e-01 6.408945e-01 6.074089e-01 2.361547e-02 5.988135e-02 5.410451e-02 6.940721e-02 9.491121e-02 1.198532e-01 1.529199e-01 1.421011e-01 1.555046e-01 1.511521e-01 1.500264e-01 1.250495e-01 1.253298e-01 9.331558e-02
<GCONST> 5.936619e+01
<MIXTURE> 2 4.986463e-01
<MEAN> 39
 -5.498345e-02 -3.802139e-01 -5.982867e-01 -5.392513e-01 -5.231642e-01 -3.847885e-01 -2.311021e-01 -4.811728e-02 6.033033e-02 -1.398783e-01 -1.707644e-02 1.308789e-01 -1.713876e+00 1.021029e-01 -5.910298e-02 -1.400329e-01 -3.200618e-01 -2.314288e-01 -2.694682e-01 -1.950349e-01 -2.122948e-01 -1.202626e-01 -1.530615e-01 -8.619497e-02 -1.003424e-01 -6.378224e-02 5.946754e-02 4.379648e-02 3.121785e-02 -5.079011e-02 -1.186723e-02 -4.201646e-02 -2.436220e-02 -6.051792e-02 -4.310016e-02 -3.998622e-02 -1.600122e-02 -5.991484e-02 3.573045e-03
<VARIANCE> 39
 2.981514e+00 3.429996e+00 5.377692e+00 1.167071e+01 1.153159e+01 1.336815e+01 1.405297e+01 1.538184e+01 1.471270e+01 1.614760e+01 1.362085e+01 1.290109e+01 4.859660e+01 1.587660e-01 1.830464e-01 2.774789e-01 4.252842e-01 5.191951e-01 6.808481e-01 6.561527e-01 7.836737e-01 7.076361e-01 7.379370e-01 6.143503e-01 5.477887e-01 6.860858e-02 3.258045e-02 3.815532e-02 5.411761e-02 1.113297e-01 1.119174e-01 1.391300e-01 1.287199e-01 1.464656e-01 1.451049e-01 1.453304e-01 1.218298e-01 1.205662e-01 5.339023e-02
<GCONST> 6.033474e+01
<STATE> 4
<NUMMIXES> 2
<MIXTURE> 1 5.222368e-01
<MEAN> 39
