~o
<STREAMINFO> 1 39
<VECSIZE> 39<NULLD><MFCC_D_A_Z_0><DIAGC>
~v "varFloor1"
<VARIANCE> 39
 5.653673e-02 4.886588e-02 6.880558e-02 1.097444e-01 1.173968e-01 1.501360e-01 1.524483e-01 1.769248e-01 1.673871e-01 1.699316e-01 1.501835e-01 1.395998e-01 3.516366e-01 1.948883e-03 2.195148e-03 3.084339e-03 4.548327e-03 5.169705e-03 6.475277e-03 6.752422e-03 7.581503e-03 7.468139e-03 7.484302e-03 6.703977e-03 6.097627e-03 6.117719e-03 3.081363e-04 3.835776e-04 5.522510e-04 7.938185e-04 9.348416e-04 1.158605e-03 1.234846e-03 1.362727e-03 1.366371e-03 1.361924e-03 1.233620e-03 1.112660e-03 7.270522e-04
~s "silst"
<MEAN> 39
 3.271810e-01 5.623057e-03 -6.228125e-02 -3.959597e-01 -2.788882e-01 -3.290775e-01 -1.018768e-01 -1.330295e-01 -3.934213e-02 -1.239687e-01 -2.016179e-02 -8.826738e-02 -1.428131e+00 6.895554e-04 1.571690e-03 -5.069004e-03 -1.363148e-02 -1.844732e-02 -1.651261e-02 -4.104797e-03 -3.632857e-03 -2.586876e-03 -6.142308e-03 -1.614582e-03 -1.340610e-03 -1.178468e-02 -2.700181e-04 -2.367447e-03 1.480324e-03 2.342428e-03 4.714064e-03 3.204843e-03 1.250812e-04 -3.780590e-04 -6.267615e-04 -3.460805e-04 -7.375011e-04 -3.219260e-04 -5.189707e-04
<VARIANCE> 39
 2.336841e+00 3.146569e+00 5.059586e+00 9.053181e+00 1.051703e+01 1.341860e+01 1.475573e+01 1.623311e+01 1.639477e+01 1.648860e+01 1.534131e+01 1.355448e+01 1.934569e+01 6.021600e-02 1.260484e-01 2.244058e-01 3.819417e-01 4.857206e-01 6.212958e-01 7.059844e-01 7.663649e-01 7.973673e-01 8.136384e-01 7.662593e-01 6.498836e-01 2.369553e-02 9.777939e-03 2.130287e-02 3.896550e-02 6.827728e-02 8.809771e-02 1.125003e-01 1.287670e-01 1.389499e-01 1.453631e-01 1.499815e-01 1.418432e-01 1.177076e-01 2.716421e-03
<GCONST> 5.093197e+01
~h "f"
<BEGINHMM>
<NUMSTATES> 5
<STATE> 2
<MEAN> 39
 3.290869e-01 -3.240992e-01 -3.625049e-02 -1.857603e+00 -1.135352e+00 -1.986422e+00 -5.077888e-01 -1.126853e+00 -2.115774e-01 -9.703069e-01 -1.078769e-01 -7.764295e-01 -5.067018e+00 -1.179181e-01 -1.028861e-01 6.079246e-03 -7.857388e-02 -3.568513e-03 -9.326040e-02 5.491787e-02 1.568093e-02 3.753379e-02 -8.058498e-03 6.713731e-02 -2.537079e-03 1.342575e-01 -1.247892e-02 -8.100530e-03 1.188190e-02 8.093983e-02 6.575470e-02 8.594802e-02 4.950042e-02 4.802605e-02 2.930525e-02 3.947721e-02 1.454260e-02 2.800642e-02 9.363859e-02
<VARIANCE> 39
 6.561213e+00 7.426395e+00 8.387885e+00 1.480655e+01 1.251511e+01 1.814942e+01 1.673581e+01 1.998348e+01 1.809387e+01 1.764096e+01 1.514109e+01 1.484433e+01 6.866071e+01 3.500170e-01 3.985001e-01 4.123011e-01 6.410714e-01 6.071218e-01 7.878647e-01 7.547293e-01 9.048819e-01 8.276476e-01 7.851596e-01 7.088934e-01 6.664637e-01 9.051005e-01 5.818622e-02 6.945100e-02 7.944794e-02 1.244837e-01 1.134637e-01 1.536261e-01 1.438238e-01 1.707118e-01 1.568102e-01 1.481875e-01 1.336204e-01 1.261804e-01 1.621379e-01
<GCONST> 7.378550e+01
<STATE> 3
<MEAN> 39
 -8.220134e-01 -9.453622e-01 2.599815e-01 -9.252344e-01 -2.999353e-01 -1.427839e+00 1.925512e-01 -4.899457e-01 1.670387e-01 -5.543432e-01 3.174828e-01 -4.513711e-01 4.505065e-01 -7.258845e-02 4.671646e-02 -7.301177e-02 2.623487e-01 1.218543e-01 3.100504e-01 5.622986e-02 2.211658e-01 3.894971e-02 1.821550e-01 8.050715e-03 1.413428e-01 7.064925e-01 -1.091698e-02 2.213776e-02 -6.930914e-03 3.591133e-02 2.342237e-02 5.457324e-02 1.028697e-02 2.573154e-02 7.408878e-03 2.283826e-02 8.613104e-04 1.949765e-02 -1.527233e-02
<VARIANCE> 39
 1.221962e+01 1.081735e+01 1.043835e+01 1.794394e+01 1.432833e+01 2.313025e+01 1.735523e+01 2.199102e+01 1.845863e+01 1.912057e+01 1.621491e+01 1.538309e+01 6.490996e+01 6.885146e-01 5.312394e-01 5.318371e-01 9.102253e-01 6.663038e-01 1.127534e+00 7.718629e-01 1.019699e+00 8.518018e-01 8.923795e-01 7.430918e-01 7.123965e-01 3.010028e+00 1.184587e-01 8.918414e-02 9.404411e-02 1.466415e-01 1.203981e-01 1.837585e-01 1.435271e-01 1.752534e-01 1.597909e-01 1.565643e-01 1.373386e-01 1.287615e-01 2.899373e-01
<GCONST> 8.174634e+01
<STATE> 4
<MEAN> 39
 -5.095477e-01 -1.841840e-01 -2.831003e-01 3.599882e-01 7.934319e-02 4.030339e-01 1.878323e-01 6.093340e-01 1.038342e-01 3.809897e-01 1.211183e-01 3.528158e-01 1.567050e+00 -1.273415e-01 8.651046e-03 -1.370878e-02 2.210462e-01 1.814087e-01 2.672098e-01 1.497316e-01 1.908850e-01 1.130779e-01 1.340864e-01 7.085419e-02 1.194013e-01 8.522867e-02 3.537169e-02 2.704032e-03 3.055844e-02 -2.081370e-02 5.796789e-03 -3.497726e-02 -5.074564e-03 -4.903798e-02 -7.599238e-03 -2.940366e-02 -7.234104e-03 -2.849073e-02 -6.748456e-02
<VARIANCE> 39
 3.505386e+00 3.345566e+00 5.164669e+00 9.872810e+00 1.014318e+01 1.342222e+01 1.413968e+01 1.664648e+01 1.585806e+01 1.625851e+01 1.461233e+01 1.335393e+01 2.742000e+01 1.211168e-01 1.631757e-01 2.550857e-01 4.801571e-01 4.735748e-01 6.279187e-01 6.048867e-01 6.713767e-01 7.027591e-01 6.931389e-01 6.328743e-01 5.868459e-01 9.258545e-02 2.360103e-02 3.002396e-02 4.511462e-02 8.590171e-02 8.774517e-02 1.217884e-01 1.167467e-01 1.302229e-01 1.327440e-01 1.332512e-01 1.197912e-01 1.065175e-01 2.978645e-02
<GCONST> 5.691553e+01
<TRANSP> 5
 0.000000e+00 1.000000e+00 0.000000e+00 0.000000e+00 0.000000e+00
 0.000000e+00 4.387074e-01 5.612926e-01 0.000000e+00 0.000000e+00
 0.000000e+00 0.000000e+00 6.827503e-01 3.172497e-01 0.000000e+00
 0.000000e+00 0.000000e+00 0.000000e+00 1.781948e-01 8.218052e-01
 0.000000e+00 0.000000e+00 0.000000e+00 0.000000e+00 0.000000e+00
<ENDHMM>
~h "k"
<BEGINHMM>
<NUMSTATES> 5
<STATE> 2
<MEAN> 39
 6.773618e-01 9.907128e-01 1.098498e+00 -6.198049e-01 -1.048499e+00 -5.414433e-01 -3.374945e-01 -3.689893e-02 4.454530e-01 3.326462e-01 2.918447e-01 8.189313e-02 -1.517446e+00 -5.090591e-02 -6.250083e-02 7.381709e-02 -1.893309e-01 -1.588059e-01 -4.570672e-02 6.680827e-03 -1.614200e-01 5.398505e-02 -5.562885e-02 -1.342684e-02 -1.008135e-01 -3.412698e-01 -8.836386e-02 -4.764469e-02 -5.543486e-02 -3.881958e-03 1.339304e-02 3.571827e-02 2.060993e-02 4.023161e-03 9.901617e-03 -3.612812e-03 -9.314476e-03 4.387562e-03 1.243428e-01
<VARIANCE> 39
 2.236885e+01 1.940603e+01 2.200801e+01 2.547117e+01 2.576624e+01 2.847692e+01 2.593495e+01 2.641998e+01 2.590411e+01 2.653884e+01 2.193631e+01 1.843201e+01 1.069680e+02 1.645268e+00 1.231667e+00 1.284551e+00 1.457951e+00 1.350743e+00 1.649940e+00 1.390952e+00 1.326900e+00 1.338977e+00 1.397538e+00 1.083150e+00 9.362825e-01 8.447160e+00 2.405312e-01 2.131060e-01 2.310978e-01 2.519191e-01 2.428582e-01 2.906252e-01 2.535188e-01 2.427114e-01 2.410514e-01 2.593882e-01 1.983451e-01 1.707272e-01 1.234991e+00
<GCONST> 1.027373e+02
<STATE> 3
<MEAN> 39
 -1.322010e+00 -6.983830e-01 3.217935e-01 -2.051216e+00 -1.343942e+00 -1.458975e-01 3.688254e-01 -1.526132e+00 8.416462e-01 -4.959423e-01 -3.652549e-01 -1.217068e+00 -4.689383e-01 2.699342e-02 -3.015533e-03 -1.215527e-01 -2.452546e-02 1.169361e-01 -7.668935e-02 -8.980882e-02 -8.576838e-02 -9.857915e-02 -1.140717e-01 -6.249859e-02 -6.860159e-02 -2.752530e-02 5.669032e-02 3.217293e-02 -1.036144e-02 1.033699e-01 4.388518e-02 1.111267e-03 -1.081914e-02 8.029618e-02 -2.659089e-02 3.276565e-02 2.194744e-02 6.515035e-02 -3.917383e-02
<VARIANCE> 39
 1.735264e+01 1.137519e+01 1.285846e+01 2.285899e+01 2.107598e+01 2.270442e+01 2.408879e+01 2.392350e+01 2.598309e+01 2.608401e+01 2.034155e+01 1.895248e+01 2.846838e+01 7.593784e-01 5.640399e-01 7.045204e-01 1.118247e+00 9.841774e-01 1.130117e+00 1.066241e+00 1.197414e+00 1.149702e+00 1.258459e+00 8.967236e-01 8.440983e-01 1.633692e+00 1.151899e-01 1.029688e-01 1.191690e-01 1.914617e-01 1.730869e-01 2.099219e-01 2.036272e-01 2.126154e-01 2.103835e-01 2.123699e-01 1.616155e-01 1.589199e-01 2.716484e-01
<GCONST> 8.809837e+01
<STATE> 4
<MEAN> 39
 -3.722947e-01 -1.141290e+00 -9.071339e-02 -1.673844e+00 -6.802985e-01 -2.351915e-01 -7.209271e-02 -1.863918e+00 2.371828e-01 -4.963287e-01 -5.261678e-01 -1.580819e+00 -8.181669e-01 2.230235e-01 2.424820e-02 -7.614574e-03 1.403308e-01 1.200059e-01 -3.004339e-02 -6.773293e-02 -6.587052e-03 -1.477671e-01 -3.030025e-02 -1.572277e-02 5.082782e-02 -2.084506e-01 4.451975e-03 1.787699e-02 1.087417e-02 2.913810e-02 -6.373664e-03 1.904056e-02 2.603007e-02 4.584809e-02 9.838656e-03 2.115503e-02 2.054029e-02 3.083616e-02 -1.184409e-02
<VARIANCE> 39
 1.860208e+01 1.096873e+01 1.191260e+01 2.078722e+01 2.099010e+01 2.233144e+01 2.157853e+01 2.620327e+01 2.527237e+01 2.565580e+01 2.030958e+01 1.853125e+01 2.877845e+01 5.005122e-01 4.441886e-01 5.352983e-01 8.512940e-01 8.705469e-01 9.833580e-01 9.146606e-01 1.088886e+00 9.599339e-01 1.070856e+00 8.729621e-01 7.639500e-01 8.039144e-01 7.161901e-02 7.136855e-02 8.529949e-02 1.436885e-01 1.500912e-01 1.634286e-01 1.576974e-01 1.905002e-01 1.640416e-01 1.782827e-01 1.562284e-01 1.328727e-01 9.149501e-02
<GCONST> 8.102555e+01
<TRANSP> 5
 0.000000e+00 1.000000e+00 0.000000e+00 0.000000e+00 0.000000e+00
 0.000000e+00 8.051003e-01 1.948997e-01 0.000000e+00 0.000000e+00
 0.000000e+00 0.000000e+00 5.177082e-01 4.822918e-01 0.000000e+00
 0.000000e+00 0.000000e+00 0.000000e+00 6.356159e-01 3.643841e-01
 0.000000e+00 0.000000e+00 0.000000e+00 0.000000e+00 0.000000e+00
<ENDHMM>
~h "n"
<BEGINHMM>
<NUMSTATES> 5
<STATE> 2
<MEAN> 39
 -1.413800e-01 -2.655022e-03 6.487802e-03 7.002016e-01 3.407145e-01 5.832662e-01 2.098008e-01 4.477929e-01 -2.092982e-01 8.363513e-02 -1.488225e-01 1.777542e-01 2.042059e+00 1.718379e-01 1.050541e-01 1.119759e-01 -3.395957e-02 -1.727882e-02 -1.142367e-01 -1.174204e-01 -1.757018e-01 -1.325867e-01 -1.013935e-01 -8.072346e-02 -1.023106e-01 -4.845469e-02 1.379585e-02 -6.656111e-03 -9.206075e-03 -5.416155e-02 -2.370169e-02 -2.940940e-02 -5.099157e-03 -1.096969e-02 2.251018e-02 1.491124e-02 1.920632e-02 2.804751e-03 -4.311876e-02
<VARIANCE> 39
 2.937993e+00 3.411350e+00 5.380593e+00 8.895291e+00 1.040976e+01 1.337068e+01 1.463479e+01 1.586770e+01 1.586330e+01 1.593388e+01 1.496816e+01 1.358436e+01 2.621634e+01 1.823013e-01 1.799997e-01 3.037250e-01 4.425856e-01 5.311117e-01 6.620480e-01 7.304571e-01 7.867752e-01 7.809353e-01 7.831293e-01 7.153867e-01 6.391376e-01 8.390109e-02 2.805965e-02 3.773512e-02 6.417949e-02 8.172922e-02 9.968363e-02 1.272757e-01 1.375071e-01 1.471074e-01 1.473519e-01 1.479225e-01 1.341934e-01 1.207278e-01 3.049266e-02
<GCONST> 5.976460e+01
<STATE> 3
<MEAN> 39
 2.377607e+00 8.615984e-01 2.198576e+00 -3.231260e-02 9.309486e-01 -7.143438e-02 -4.214540e-01 -1.588686e+00 -7.862309e-01 -6.028546e-01 -5.484000e-01 -7.732850e-01 -5.373471e-01 1.064923e-01 3.510218e-02 9.534135e-02 -1.731980e-01 -6.601716e-02 -1.724825e-01 -1.193865e-01 -2.083392e-01 -6.218960e-03 -4.146355e-02 -8.650390e-03 -9.881933e-02 -4.646156e-01 -7.156587e-02 -4.534236e-02 -6.930727e-02 -1.825088e-02 -3.435897e-02 3.404442e-03 2.169085e-02 5.684406e-02 4.082089e-02 3.317551e-02 2.946936e-02 3.247212e-02 4.613820e-03
<VARIANCE> 39
 1.833479e+01 1.338550e+01 2.361996e+01 1.929732e+01 2.050058e+01 2.400537e+01 2.516850e+01 3.180841e+01 2.504248e+01 2.384909e+01 2.038607e+01 1.879395e+01 6.306799e+01 8.261076e-01 7.312692e-01 1.245674e+00 9.726948e-01 1.000864e+00 1.203510e+00 1.185151e+00 1.457761e+00 1.169861e+00 1.135082e+00 9.449164e-01 9.051585e-01 2.680323e+00 1.136180e-01 1.189797e-01 1.956906e-01 1.542704e-01 1.705828e-01 1.988264e-01 2.038402e-01 2.277631e-01 2.052120e-01 1.984162e-01 1.740257e-01 1.603749e-01 2.480130e-01
<GCONST> 9.177343e+01
<STATE> 4
<MEAN> 39
 3.059624e-01 1.060252e-01 2.612621e-01 -2.813445e-01 -1.485047e-01 -2.949016e-01 -3.728777e-01 -5.095639e-01 -3.472244e-01 -7.954756e-02 -1.803438e-01 -2.215106e-01 3.832635e-01 -5.872326e-02 -6.929234e-02 -1.291415e-01 -1.264553e-01 -1.245606e-01 -8.030105e-02 -6.477293e-04 4.370677e-02 4.989246e-02 4.019848e-02 5.534263e-02 3.607811e-02 -6.284633e-02 2.231322e-03 -1.124053e-02 -6.384540e-03 3.061365e-02 3.903018e-02 4.921763e-02 5.499238e-02 5.260691e-02 3.089203e-02 1.306073e-02 1.778414e-02 2.367371e-02 5.062980e-03
<VARIANCE> 39
 5.687719e+00 4.527909e+00 7.602467e+00 1.208401e+01 1.192080e+01 1.565084e+01 1.630965e+01 1.977880e+01 1.729878e+01 1.740619e+01 1.541278e+01 1.461924e+01 2.633998e+01 1.450987e-01 1.925749e-01 2.945032e-01 4.919127e-01 5.174343e-01 6.703439e-01 6.982065e-01 7.553474e-01 7.715579e-01 7.481555e-01 6.847761e-01 6.036587e-01 1.204141e-01 3.068647e-02 3.824525e-02 6.257161e-02 9.132410e-02 1.029807e-01 1.295035e-01 1.399221e-01 1.517609e-01 1.506922e-01 1.477864e-01 1.321694e-01 1.191647e-01 2.074211e-02
<GCONST> 6.217664e+01
<TRANSP> 5
 0.000000e+00 1.000000e+00 0.000000e+00 0.000000e+00 0.000000e+00
 0.000000e+00 1.106834e-01 8.893166e-01 0.000000e+00 0.000000e+00
 0.000000e+00 0.000000e+00 6.040158e-01 3.959842e-01 0.000000e+00
 0.000000e+00 0.000000e+00 0.000000e+00 2.270121e-01 7.729879e-01
 0.000000e+00 0.000000e+00 0.000000e+00 0.000000e+00 0.000000e+00
<ENDHMM>
~h "r"
<BEGINHMM>
<NUMSTATES> 5
<STATE> 2
<MEAN> 39
 -1.335962e+00 -2.007923e-01 -3.448402e-01 1.178205e+00 3.909200e-01 1.243590e+00 5.105065e-01 1.226354e+00 3.028966e-01 8.687830e-01 2.409530e-01 7.891669e-01 4.533545e+00 -2.625180e-03 -2.765878e-03 1.353749e-02 3.493429e-02 2.456721e-02 3.704651e-02 1.507054e-02 2.788817e-03 -9.225028e-03 -1.265111e-02 2.379001e-03 5.813502e-03 2.103079e-03 1.869882e-02 6.495573e-03 1.373196e-03 -2.076576e-02 -1.344111e-02 -3.064567e-02 -2.610542e-02 -2.786035e-02 -2.210408e-02 -1.694338e-02 -1.653340e-02 -1.654202e-02 -6.825726e-03
<VARIANCE> 39
 3.539933e+00 3.175352e+00 5.310245e+00 8.884376e+00 9.840494e+00 1.282742e+01 1.407982e+01 1.579042e+01 1.566535e+01 1.557390e+01 1.422115e+01 1.330399e+01 3.369451e+01 7.020431e-02 1.265680e-01 2.252972e-01 3.344879e-01 4.293247e-01 5.094558e-01 6.123825e-01 6.502044e-01 6.755498e-01 6.531328e-01 6.212384e-01 5.627440e-01 1.803260e-02 1.256829e-02 2.300973e-02 4.205363e-02 6.308527e-02 8.047488e-02 9.647953e-02 1.161315e-01 1.232702e-01 1.309814e-01 1.248876e-01 1.178704e-01 1.063770e-01 3.706087e-03
<GCONST> 4.954082e+01
<STATE> 3
<MEAN> 39
 -8.970541e-01 -1.566233e-01 -2.148582e-01 9.174876e-01 3.711219e-01 9.829274e-01 4.602817e-01 8.939637e-01 1.500285e-01 5.951601e-01 1.696428e-01 6.023512e-01 3.034686e+00 5.330008e-02 1.026575e-02 1.177473e-02 -2.282391e-02 -2.446330e-02 -4.573739e-02 -5.399457e-02 -6.329563e-02 -6.501129e-02 -5.441926e-02 -4.303604e-02 -3.562255e-02 -1.063527e-02 2.598614e-02 5.808811e-03 -4.375509e-03 -3.637214e-02 -2.807831e-02 -4.799393e-02 -3.364769e-02 -2.999822e-02 -1.782513e-02 -1.820439e-02 -1.780450e-02 -2.202073e-02 -8.231860e-03
<VARIANCE> 39
 3.753547e+00 3.145213e+00 5.333504e+00 8.807846e+00 9.867115e+00 1.307899e+01 1.408102e+01 1.611034e+01 1.568429e+01 1.575733e+01 1.426776e+01 1.336510e+01 3.082925e+01 8.153389e-02 1.368061e-01 2.450299e-01 3.454622e-01 4.456387e-01 5.335140e-01 6.108795e-01 6.841244e-01 7.049656e-01 6.764194e-01 6.356705e-01 5.760676e-01 2.094226e-02 1.501506e-02 2.588990e-02 4.660581e-02 6.584137e-02 8.550414e-02 1.041365e-01 1.192025e-01 1.303164e-01 1.346172e-01 1.315566e-01 1.218480e-01 1.089204e-01 3.859125e-03
<GCONST> 5.114555e+01
<STATE> 4
<MEAN> 39
 -1.046291e-02 -6.956997e-01 3.182221e-01 7.659949e-01 1.900204e-01 9.715307e-01 3.305461e-01 5.892035e-02 -2.271201e-01 1.289073e-01 -5.574602e-02 1.777216e-01 2.327703e+00 1.471289e-01 9.944477e-03 2.626990e-02 -1.021266e-01 -7.486996e-02 -1.450050e-01 -8.865182e-02 -1.517177e-01 -8.696666e-02 -1.043186e-01 -4.578449e-02 -8.535030e-02 -2.559124e-01 6.984992e-03 1.291397e-02 -7.129842e-03 -2.251613e-02 -1.173201e-02 -2.881393e-02 -1.083153e-02 -2.162425e-03 1.046125e-02 -1.832893e-03 2.773507e-03 -8.011069e-03 -1.733125e-02
<VARIANCE> 39
 1.005625e+01 8.371761e+00 1.099280e+01 1.241026e+01 1.320889e+01 1.834211e+01 1.737049e+01 2.320336e+01 1.917877e+01 1.934870e+01 1.666429e+01 1.499313e+01 4.277000e+01 2.825928e-01 3.742385e-01 5.036213e-01 5.502843e-01 6.017736e-01 8.164064e-01 7.628320e-01 9.853590e-01 8.664026e-01 8.306810e-01 7.544917e-01 6.671583e-01 4.283453e-01 4.329327e-02 5.740760e-02 8.682450e-02 9.718008e-02 1.119198e-01 1.435564e-01 1.398938e-01 1.712927e-01 1.584070e-01 1.519712e-01 1.410223e-01 1.236765e-01 3.280498e-02
<GCONST> 7.149171e+01
<TRANSP> 5
 0.000000e+00 1.000000e+00 0.000000e+00 0.000000e+00 0.000000e+00
 0.000000e+00 5.580127e-01 4.419873e-01 0.000000e+00 0.000000e+00
 0.000000e+00 0.000000e+00 3.372205e-01 6.627796e-01 0.000000e+00
 0.000000e+00 0.000000e+00 0.000000e+00 3.901840e-01 6.098160e-01
 0.000000e+00 0.000000e+00 0.000000e+00 0.000000e+00 0.000000e+00
<ENDHMM>
~h "s"
<BEGINHMM>
<NUMSTATES> 5
<STATE> 2
<MEAN> 39
 4.197460e-01 -7.985397e-02 -2.735472e-01 -9.850624e-01 -6.234460e-01 -7.694974e-01 -3.733960e-01 -4.996643e-01 -1.545568e-01 -4.942640e-01 -1.652702e-01 -3.591558e-01 -3.070937e+00 -1.599115e-02 -1.993984e-02 -6.972864e-02 -8.810459e-02 -2.042516e-02 -6.516617e-02 1.087385e-02 1.913487e-02 3.129529e-02 -3.113028e-02 2.935619e-02 -1.050655e-03 -1.119569e-03 -2.772341e-02 -9.300394e-03 2.539952e-03 6.447849e-03 2.294496e-02 1.507678e-02 2.453926e-02 2.401269e-02 3.630625e-02 1.480132e-02 1.641806e-02 3.450671e-03 4.355388e-02
<VARIANCE> 39
 6.023254e+00 5.466625e+00 6.732241e+00 1.453848e+01 1.329231e+01 1.684526e+01 1.625678e+01 1.806685e+01 1.712251e+01 1.786193e+01 1.505017e+01 1.455018e+01 7.031081e+01 2.701859e-01 3.190121e-01 3.659094e-01 6.813279e-01 6.226370e-01 7.719514e-01 7.573023e-01 8.410518e-01 8.183359e-01 8.681529e-01 7.039727e-01 6.720152e-01 7.728702e-01 4.577725e-02 5.354706e-02 6.441825e-02 1.198542e-01 1.153787e-01 1.410992e-01 1.411567e-01 1.548082e-01 1.515172e-01 1.582952e-01 1.293871e-01 1.222740e-01 1.207416e-01
<GCONST> 7.103487e+01
<STATE> 3
<MEAN> 39
 1.100614e-01 -4.480236e-01 -4.949915e-01 -1.731283e+00 -6.698807e-01 -1.358590e+00 -4.532475e-01 -8.374290e-01 8.002764e-02 -9.921339e-01 5.620338e-02 -8.359358e-01 -2.156609e+00 -1.860856e-01 -5.912006e-02 -9.936756e-02 -2.589441e-02 -6.332481e-03 -1.472932e-02 4.526041e-02 5.756113e-02 1.112112e-01 1.202653e-02 6.129383e-02 1.970090e-02 2.017121e-01 -2.883477e-02 1.015286e-02 1.238583e-02 7.737506e-02 3.120662e-02 6.991193e-02 3.305186e-02 4.769235e-02 1.803143e-02 4.499521e-02 8.096367e-03 3.059563e-02 5.171262e-02
<VARIANCE> 39
 9.379811e+00 9.401577e+00 9.784252e+00 1.796606e+01 1.514562e+01 2.000632e+01 1.740453e+01 1.977079e+01 1.912560e+01 2.114751e+01 1.724197e+01 1.638910e+01 3.846466e+01 4.395081e-01 4.472710e-01 4.549022e-01 7.551246e-01 6.648725e-01 8.873163e-01 7.781270e-01 8.962207e-01 8.179328e-01 8.898810e-01 7.566910e-01 6.918277e-01 1.507141e+00 7.026509e-02 7.788835e-02 8.220956e-02 1.309763e-01 1.243734e-01 1.586680e-01 1.477434e-01 1.685598e-01 1.558445e-01 1.673141e-01 1.433118e-01 1.279718e-01 1.486605e-01
<GCONST> 7.712996e+01
<STATE> 4
<MEAN> 39
 -1.580218e+00 -3.914671e-01 -9.412035e-01 -9.245920e-02 -1.272754e-01 1.399208e-01 3.200836e-01 2.972898e-01 5.532322e-01 1.013948e-01 2.602433e-01 9.951153e-02 2.797311e+00 -2.335106e-02 2.029978e-02 3.887607e-02 2.303770e-01 1.031064e-01 1.886479e-01 7.348515e-02 1.705078e-01 -1.058271e-02 1.367558e-01 1.712632e-02 1.336044e-01 3.892279e-01 2.213639e-02 6.358943e-03 2.316425e-02 -8.449731e-04 5.841825e-03 -6.712929e-03 -1.043416e-02 -1.286979e-02 -1.211394e-02 -9.810518e-03 -5.138112e-03 -1.193298e-02 -3.130469e-02
<VARIANCE> 39
 1.037337e+01 7.711010e+00 1.055847e+01 1.674253e+01 1.403564e+01 1.940383e+01 1.681875e+01 2.002111e+01 1.925649e+01 2.236191e+01 1.735186e+01 1.627301e+01 3.593904e+01 4.830963e-01 3.668761e-01 4.697519e-01 7.660934e-01 6.085378e-01 8.782530e-01 7.385800e-01 9.057643e-01 8.400247e-01 1.000188e+00 7.608470e-01 7.368153e-01 1.049904e+00 7.839409e-02 6.219698e-02 8.286009e-02 1.249624e-01 1.096126e-01 1.514814e-01 1.369298e-01 1.632774e-01 1.548506e-01 1.828852e-01 1.425076e-01 1.337325e-01 1.258956e-01
<GCONST> 7.607635e+01
<TRANSP> 5
 0.000000e+00 1.000000e+00 0.000000e+00 0.000000e+00 0.000000e+00
 0.000000e+00 2.945910e-01 7.054090e-01 0.000000e+00 0.000000e+00
 0.000000e+00 0.000000e+00 3.728767e-01 6.271233e-01 0.000000e+00
 0.000000e+00 0.000000e+00 0.000000e+00 6.072571e-01 3.927429e-01
 0.000000e+00 0.000000e+00 0.000000e+00 0.000000e+00 0.000000e+00
<ENDHMM>
~h "t"
<BEGINHMM>
<NUMSTATES> 5
<STATE> 2
<MEAN> 39
 4.614992e-01 5.981927e-01 9.053359e-02 -5.160556e-01 -5.467277e-01 -7.027890e-01 -2.085022e-01 -1.326846e-01 1.572278e-02 -2.798338e-01 5.547516e-02 -9.212275e-02 -4.043214e+00 -5.309013e-02 2.529887e-02 2.360320e-03 3.655516e-02 3.301195e-02 2.583372e-02 -7.392059e-04 3.509805e-02 2.179402e-02 3.876650e-02 2.569010e-02 1.769836e-02 3.514841e-01 -1.453839e-02 -2.447770e-04 5.817231e-03 3.689207e-03 1.828809e-02 1.205148e-02 1.294450e-04 2.202935e-03 6.979378e-03 4.668597e-04 -4.179003e-03 -5.147954e-03 9.152685e-02
<VARIANCE> 39
 1.367882e+01 1.164472e+01 1.226433e+01 1.609915e+01 1.617631e+01 2.121673e+01 1.815294e+01 2.148256e+01 1.962337e+01 1.978793e+01 1.687196e+01 1.568618e+01 1.471703e+02 8.892794e-01 6.651900e-01 7.087640e-01 7.728377e-01 7.828905e-01 1.086441e+00 8.898084e-01 1.054323e+00 9.548835e-01 9.644689e-01 8.158740e-01 7.454436e-01 7.342703e+00 1.382045e-01 1.193322e-01 1.288569e-01 1.336330e-01 1.413912e-01 1.964810e-01 1.639185e-01 1.881503e-01 1.745803e-01 1.744653e-01 1.507470e-01 1.370393e-01 9.016368e-01
<GCONST> 8.772755e+01
<STATE> 3
<MEAN> 39
 7.479529e-01 2.839638e-01 4.772306e-01 -7.590983e-01 2.363051e-01 -6.499585e-01 -4.079922e-01 -4.224567e-01 9.677343e-02 -2.053700e-01 1.047265e-01 -4.098462e-01 7.956907e-01 -3.449243e-02 -2.873814e-02 1.634316e-02 6.394972e-02 8.754487e-02 5.647990e-02 5.672494e-03 -7.758250e-03 -5.742808e-03 6.704485e-03 -1.139030e-02 -7.737730e-03 1.168462e-01 -1.546209e-02 -4.729334e-03 -1.232537e-02 4.450787e-02 -6.656048e-03 2.685078e-02 1.271057e-02 1.634068e-02 -1.675466e-02 3.855045e-03 -1.181879e-02 2.120937e-02 -7.640080e-02
<VARIANCE> 39
 1.882657e+01 1.185143e+01 1.492341e+01 2.333226e+01 2.072543e+01 2.520901e+01 2.199055e+01 2.542247e+01 2.345357e+01 2.488580e+01 2.178747e+01 1.928439e+01 4.877067e+01 7.886249e-01 5.959978e-01 7.643929e-01 1.209660e+00 1.018628e+00 1.220969e+00 1.061608e+00 1.214849e+00 1.114967e+00 1.183447e+00 1.025119e+00 9.259370e-01 2.270821e+00 1.291659e-01 1.035117e-01 1.424479e-01 2.074175e-01 1.746694e-01 2.089279e-01 1.924100e-01 2.130158e-01 2.017047e-01 2.193664e-01 1.947429e-01 1.704795e-01 3.198038e-01
<GCONST> 9.049915e+01
<STATE> 4
<MEAN> 39
 -4.884267e-02 -4.805081e-01 1.199590e-01 4.081869e-01 6.055361e-01 4.338650e-01 -6.544724e-03 1.536898e-01 -4.196972e-03 2.599342e-01 1.539205e-01 9.312029e-02 3.617891e+00 6.113837e-02 -1.272628e-02 1.909046e-02 1.036439e-01 4.306756e-02 2.577317e-02 6.105599e-03 -1.786397e-02 -4.947932e-02 -7.098079e-03 -2.501805e-02 2.265975e-03 -1.712059e-01 6.062976e-03 1.199912e-02 -1.135665e-03 -1.038945e-02 -1.585091e-02 -1.218297e-02 2.288014e-03 -1.692869e-03 -1.186755e-03 -8.385619e-03 -7.908391e-04 -2.124192e-03 -4.365051e-02
<VARIANCE> 39
 1.707614e+01 7.885816e+00 1.014347e+01 1.702933e+01 1.625784e+01 2.170107e+01 2.064246e+01 2.615306e+01 2.131280e+01 2.224655e+01 1.786871e+01 1.735113e+01 5.674270e+01 4.834836e-01 3.704320e-01 4.485512e-01 7.474068e-01 7.519744e-01 9.600393e-01 8.879659e-01 1.033262e+00 9.364490e-01 9.724622e-01 8.207960e-01 7.611905e-01 7.797437e-01 6.894308e-02 6.038625e-02 7.789452e-02 1.224284e-01 1.327441e-01 1.626655e-01 1.592280e-01 1.794439e-01 1.671657e-01 1.758525e-01 1.489557e-01 1.371749e-01 8.923094e-02
<GCONST> 7.842955e+01
<TRANSP> 5
 0.000000e+00 1.000000e+00 0.000000e+00 0.000000e+00 0.000000e+00
 0.000000e+00 7.078260e-01 2.921740e-01 0.000000e+00 0.000000e+00
 0.000000e+00 0.000000e+00 5.068139e-01 4.931860e-01 0.000000e+00
 0.000000e+00 0.000000e+00 0.000000e+00 6.552672e-01 3.447328e-01
 0.000000e+00 0.000000e+00 0.000000e+00 0.000000e+00 0.000000e+00
<ENDHMM>
~h "v"
<BEGINHMM>
<NUMSTATES> 5
<STATE> 2
<MEAN> 39
 -5.225722e-01 -1.731342e-02 -1.096898e-01 5.879469e-01 1.909970e-01 5.537435e-01 1.400932e-01 5.161393e-01 1.026297e-01 3.729261e-01 -4.202426e-02 2.407665e-01 2.014791e+00 8.919178e-02 3.662394e-03 1.215061e-02 -6.887525e-02 -4.501898e-02 -4.793453e-02 -3.799742e-02 -9.499891e-02 -6.586424e-02 -5.836114e-02 -6.598498e-02 -5.579052e-02 -2.303404e-02 1.852690e-02 -9.376142e-03 -9.122128e-03 -1.386475e-02 -3.040841e-03 -3.965670e-03 7.334376e-03 -4.427319e-03 -3.117887e-03 -9.446983e-03 2.550314e-03 1.198091e-02 -1.053300e-02
<VARIANCE> 39
 3.075655e+00 3.195955e+00 5.427029e+00 9.345045e+00 1.009005e+01 1.301575e+01 1.385406e+01 1.615930e+01 1.588919e+01 1.581626e+01 1.477471e+01 1.327856e+01 2.310351e+01 1.001736e-01 1.365575e-01 2.360347e-01 3.670119e-01 4.453180e-01 5.438031e-01 5.886260e-01 6.621630e-01 7.070005e-01 6.985474e-01 6.555911e-01 5.840394e-01 2.626665e-02 1.803057e-02 2.520123e-02 4.483528e-02 6.731340e-02 8.114071e-02 1.005402e-01 1.120363e-01 1.236701e-01 1.324233e-01 1.304837e-01 1.253306e-01 1.087101e-01 4.744208e-03
<GCONST> 5.142758e+01
<STATE> 3
<MEAN> 39
 -3.539065e-01 -2.883071e-02 -1.173711e-01 4.898519e-01 1.969408e-01 5.281218e-01 9.945115e-02 3.167714e-01 -8.975463e-02 2.927468e-01 -1.144899e-01 1.813462e-01 1.971630e+00 1.107743e-01 -1.137086e-02 -5.975489e-03 -7.369555e-02 -3.520526e-02 -4.248161e-02 -1.164363e-02 -7.335737e-02 -6.301599e-02 -6.995331e-02 -3.899747e-02 -2.121264e-02 -3.924660e-02 5.363151e-03 -6.866715e-03 -3.632790e-03 4.709300e-03 1.347827e-02 7.390309e-03 1.536107e-02 2.147511e-02 1.567404e-02 6.078635e-03 1.848175e-02 1.891652e-02 -1.486889e-02
<VARIANCE> 39
 3.212997e+00 3.332995e+00 5.426760e+00 9.422433e+00 9.982554e+00 1.296898e+01 1.400477e+01 1.645055e+01 1.626091e+01 1.632275e+01 1.484999e+01 1.376425e+01 2.361839e+01 1.389876e-01 1.479272e-01 2.503967e-01 3.820689e-01 4.562769e-01 5.470257e-01 6.002955e-01 6.852120e-01 7.367133e-01 7.198862e-01 6.614268e-01 5.985266e-01 3.551925e-02 2.339874e-02 2.872781e-02 4.967609e-02 7.193657e-02 8.483626e-02 1.033703e-01 1.171695e-01 1.301953e-01 1.398879e-01 1.366168e-01 1.282241e-01 1.147438e-01 7.610858e-03
<GCONST> 5.403005e+01
<STATE> 4
<MEAN> 39
 2.753062e-01 -2.405563e-01 1.972591e-01 -3.624809e-02 1.758825e-01 3.638468e-01 -2.015503e-02 -4.763545e-01 -1.831868e-01 1.339030e-02 -2.330228e-01 -1.864265e-01 1.440532e+00 5.334990e-02 -4.529996e-02 -9.950256e-04 -6.970382e-02 -3.123485e-02 -5.291445e-02 -2.292234e-03 -4.907514e-02 -1.158028e-02 -1.800712e-02 5.414815e-03 -1.658006e-02 -1.790630e-01 -2.729296e-02 2.751400e-03 -2.032334e-03 2.179790e-02 1.195819e-02 8.630848e-03 7.070478e-03 2.998544e-02 2.100299e-02 1.700138e-02 1.555739e-02 1.347931e-02 2.140495e-03
<VARIANCE> 39
 7.028585e+00 6.148866e+00 8.509364e+00 1.476216e+01 1.295589e+01 1.671072e+01 1.626504e+01 2.240219e+01 1.993865e+01 1.860213e+01 1.624068e+01 1.535883e+01 2.571873e+01 3.475249e-01 2.893837e-01 3.972125e-01 6.679111e-01 5.848947e-01 7.313533e-01 7.161531e-01 8.748388e-01 8.658061e-01 8.352916e-01 7.135484e-01 6.787548e-01 3.467828e-01 5.573637e-02 5.016576e-02 7.201798e-02 1.094978e-01 1.059830e-01 1.298997e-01 1.340034e-01 1.510792e-01 1.606392e-01 1.558648e-01 1.366046e-01 1.254871e-01 3.587529e-02
<GCONST> 6.919732e+01
<TRANSP> 5
 0.000000e+00 1.000000e+00 0.000000e+00 0.000000e+00 0.000000e+00
 0.000000e+00 1.993136e-01 8.006864e-01 0.000000e+00 0.000000e+00
 0.000000e+00 0.000000e+00 1.792988e-01 8.207012e-01 0.000000e+00
 0.000000e+00 0.000000e+00 0.000000e+00 4.609815e-01 5.390186e-01
 0.000000e+00 0.000000e+00 0.000000e+00 0.000000e+00 0.000000e+00
<ENDHMM>
~h "w"
<BEGINHMM>
<NUMSTATES> 5
<STATE> 2
<MEAN> 39
 -7.814181e-01 -2.578401e-01 -1.749462e-01 9.355739e-01 6.032724e-01 9.870439e-01 6.045333e-01 9.154226e-01 2.790688e-01 5.095835e-01 1.544728e-01 4.139086e-01 2.387683e+00 -1.271589e-01 -1.270244e-02 1.565784e-02 1.199783e-01 1.243045e-01 1.441688e-01 1.182727e-01 7.936569e-02 5.916652e-02 7.680020e-02 5.096903e-02 5.660688e-02 2.789961e-02 4.554770e-02 1.628497e-02 1.790695e-03 -6.194624e-02 -5.831982e-02 -7.430685e-02 -6.178058e-02 -6.584104e-02 -3.012727e-02 -2.838865e-02 -1.310574e-02 -2.167732e-02 -3.597144e-02
<VARIANCE> 39
 2.907970e+00 2.610059e+00 4.495368e+00 7.740069e+00 9.361864e+00 1.203937e+01 1.334813e+01 1.498252e+01 1.533912e+01 1.553029e+01 1.349497e+01 1.258902e+01 1.886253e+01 9.625591e-02 1.192178e-01 2.011153e-01 3.373363e-01 4.133162e-01 5.461630e-01 6.040767e-01 6.310886e-01 6.664229e-01 6.685693e-01 6.302167e-01 5.455362e-01 2.094214e-02 2.081393e-02 2.323607e-02 4.012002e-02 6.943738e-02 8.188792e-02 1.035084e-01 1.162726e-01 1.187216e-01 1.289279e-01 1.295229e-01 1.169543e-01 1.026373e-01 1.000351e-02
<GCONST> 4.977870e+01
<STATE> 3
<MEAN> 39
 -7.053339e-01 -1.229211e-01 -9.821240e-02 7.198856e-01 4.770246e-01 6.887728e-01 4.287209e-01 5.815387e-01 1.308753e-01 4.289019e-01 1.692271e-01 4.187190e-01 1.770079e+00 -4.379775e-02 4.616996e-03 -6.121363e-03 9.916143e-03 -5.222395e-03 2.974659e-03 1.291748e-03 -6.535457e-03 1.346223e-02 2.193931e-02 3.520017e-02 2.579338e-02 4.384087e-03 2.591697e-02 6.340871e-03 -5.742727e-03 -3.268378e-02 -4.254779e-02 -4.221585e-02 -4.086711e-02 -3.041914e-02 -1.919963e-02 -2.415063e-02 -1.113303e-02 -1.414608e-02 -6.159957e-03
<VARIANCE> 39
 2.446259e+00 2.577195e+00 4.479436e+00 7.664297e+00 9.427718e+00 1.212142e+01 1.336889e+01 1.489943e+01 1.514963e+01 1.505008e+01 1.377041e+01 1.217184e+01 1.441613e+01 6.060828e-02 1.063503e-01 1.841911e-01 2.873095e-01 3.885316e-01 4.860736e-01 5.870406e-01 5.851156e-01 6.397587e-01 6.224121e-01 5.915828e-01 5.220150e-01 1.117399e-02 1.194689e-02 1.860890e-02 3.303159e-02 5.497582e-02 7.256588e-02 9.463668e-02 1.114833e-01 1.112310e-01 1.196637e-01 1.174678e-01 1.096235e-01 9.440759e-02 2.590028e-03
<GCONST> 4.411294e+01
<STATE> 4
<MEAN> 39
 -1.723500e+00 -2.417169e-01 -4.777926e-01 1.302962e+00 5.052652e-01 1.239382e+00 4.780438e-01 1.204981e+00 2.778982e-01 8.213907e-01 2.445753e-01 7.873937e-01 4.947439e+00 7.566147e-03 -4.463116e-03 -6.188702e-03 -6.502509e-03 -7.681460e-03 -4.122955e-03 -7.141359e-03 -4.525447e-03 3.397978e-04 -6.050760e-03 -5.200651e-03 9.913185e-04 1.593202e-05 7.407048e-03 -1.309852e-03 1.394528e-03 -1.088953e-03 8.070162e-04 -1.069590e-03 7.305680e-04 7.524311e-04 -1.453330e-03 -2.921912e-03 -2.845351e-03 -2.027938e-03 -1.290761e-04
<VARIANCE> 39
 3.083178e+00 3.025558e+00 4.988750e+00 8.119268e+00 9.919693e+00 1.284359e+01 1.362152e+01 1.577825e+01 1.532049e+01 1.524069e+01 1.402374e+01 1.326447e+01 2.438927e+01 5.583965e-02 1.067150e-01 1.863041e-01 2.969806e-01 4.159841e-01 5.076495e-01 5.621023e-01 6.237922e-01 6.419491e-01 6.235332e-01 5.853940e-01 5.610986e-01 8.987684e-03 9.890305e-03 1.971890e-02 3.462301e-02 5.603236e-02 7.882308e-02 9.607092e-02 1.066369e-01 1.178034e-01 1.201629e-01 1.167954e-01 1.108712e-01 1.069062e-01 1.623026e-03
<GCONST> 4.516864e+01
<TRANSP> 5
 0.000000e+00 1.000000e+00 0.000000e+00 0.000000e+00 0.000000e+00
 0.000000e+00 2.290751e-01 7.709249e-01 0.000000e+00 0.000000e+00
 0.000000e+00 0.000000e+00 4.951704e-01 5.048296e-01 0.000000e+00
 0.000000e+00 0.000000e+00 0.000000e+00 9.101503e-01 8.984965e-02
 0.000000e+00 0.000000e+00 0.000000e+00 0.000000e+00 0.000000e+00
<ENDHMM>
~h "z"
<BEGINHMM>
<NUMSTATES> 5
<STATE> 2
<MEAN> 39
 -1.691014e-03 -8.728243e-02 -4.132206e-01 -6.007716e-01 -7.162184e-01 -4.481320e-01 -2.317599e-01 -3.091527e-02 -1.902902e-01 -1.683773e-01 -1.569542e-01 -4.552525e-02 -2.467974e-01 1.668269e-02 5.887698e-02 6.122927e-02 8.560441e-02 5.047300e-02 7.153042e-02 5.614185e-02 4.243270e-02 2.700512e-02 1.548558e-02 2.182296e-02 3.864209e-02 4.745735e-02 7.705361e-04 2.284141e-02 3.685434e-02 8.230425e-02 9.571093e-02 7.010590e-02 4.840180e-02 2.698702e-02 2.323943e-02 2.519314e-02 2.390451e-02 1.373887e-02 1.356083e-02
<VARIANCE> 39
 2.928713e+00 3.513632e+00 5.124883e+00 9.753986e+00 1.062743e+01 1.306485e+01 1.396901e+01 1.604600e+01 1.591670e+01 1.635093e+01 1.529764e+01 1.369904e+01 4.688164e+01 1.711335e-01 2.226290e-01 2.894000e-01 4.301521e-01 4.860249e-01 5.776164e-01 6.658974e-01 7.591283e-01 7.268705e-01 7.615641e-01 7.156508e-01 5.922896e-01 9.860744e-02 2.758168e-02 5.047785e-02 5.632655e-02 8.285581e-02 9.358414e-02 1.157243e-01 1.360783e-01 1.489782e-01 1.395210e-01 1.480899e-01 1.433439e-01 1.223555e-01 4.052718e-02
<GCONST> 6.045361e+01
<STATE> 3
<MEAN> 39
 6.622523e-01 1.306460e+00 7.157066e-01 -2.353065e-01 -5.166662e-01 -6.359630e-01 -3.582653e-01 -9.633421e-01 -1.805374e-01 -8.419461e-01 -1.863056e-01 -7.068043e-01 -1.773763e+00 -1.067721e-01 2.515412e-02 1.927239e-02 2.043594e-01 1.493640e-01 1.615918e-01 6.358884e-02 1.105327e-01 1.238194e-02 7.935895e-02 3.934959e-02 7.076898e-02 7.216375e-01 -5.082215e-02 -5.571934e-02 -3.732979e-02 9.515829e-03 2.014387e-02 3.705258e-02 2.820623e-02 4.525658e-02 1.472310e-02 3.720172e-02 1.242326e-02 2.946485e-02 4.001274e-02
<VARIANCE> 39
 1.191113e+01 1.858125e+01 1.487874e+01 1.999356e+01 1.930934e+01 2.069169e+01 2.151150e+01 2.512872e+01 2.126825e+01 2.536917e+01 1.934790e+01 1.821630e+01 7.970938e+01 6.853837e-01 1.134861e+00 8.593712e-01 9.316190e-01 9.478622e-01 1.018317e+00 1.005908e+00 1.281053e+00 1.039032e+00 1.242367e+00 9.436607e-01 9.285422e-01 3.150060e+00 1.073799e-01 1.818203e-01 1.453235e-01 1.606715e-01 1.662336e-01 1.769561e-01 1.790159e-01 2.184612e-01 1.878980e-01 2.132796e-01 1.708196e-01 1.650581e-01 3.498602e-01
<GCONST> 9.030744e+01
<STATE> 4
<MEAN> 39
 -5.826839e-01 1.701340e-02 -1.501231e-01 7.794386e-01 2.708547e-01 7.803402e-01 4.965489e-01 8.411025e-01 1.719372e-01 3.633137e-01 1.629801e-01 5.110713e-01 2.887485e+00 -1.894403e-01 -1.225533e-01 -4.925062e-02 1.542659e-01 1.855564e-01 2.328295e-01 1.843700e-01 2.084070e-01 9.763899e-02 1.873491e-01 9.922812e-02 1.527681e-01 1.696112e-01 2.506533e-02 2.322866e-02 8.194452e-03 -3.931450e-02 -1.550378e-02 -3.964629e-02 -3.288516e-02 -5.355770e-02 -4.422052e-03 -3.146250e-02 -4.630732e-03 -4.150829e-02 -8.971728e-02
<VARIANCE> 39
 3.263499e+00 3.707647e+00 5.579638e+00 8.409093e+00 9.839205e+00 1.192317e+01 1.436380e+01 1.591768e+01 1.566983e+01 1.786995e+01 1.609653e+01 1.355036e+01 1.965189e+01 1.866589e-01 2.829527e-01 3.013746e-01 4.382975e-01 5.310207e-01 5.920393e-01 7.252066e-01 7.687220e-01 7.539095e-01 9.083099e-01 7.901578e-01 6.940130e-01 1.626433e-01 2.793377e-02 5.438538e-02 5.886690e-02 8.125318e-02 9.526404e-02 1.082746e-01 1.279075e-01 1.423887e-01 1.385728e-01 1.634017e-01 1.435913e-01 1.290414e-01 4.470205e-02
<GCONST> 6.141547e+01
<TRANSP> 5
 0.000000e+00 1.000000e+00 0.000000e+00 0.000000e+00 0.000000e+00
 0.000000e+00 1.252672e-01 8.747328e-01 0.000000e+00 0.000000e+00
 0.000000e+00 0.000000e+00 6.695359e-01 3.304641e-01 0.000000e+00
 0.000000e+00 0.000000e+00 0.000000e+00 1.748185e-01 8.251815e-01
 0.000000e+00 0.000000e+00 0.000000e+00 0.000000e+00 0.000000e+00
<ENDHMM>
~h "ah"
<BEGINHMM>
<NUMSTATES> 5
<STATE> 2
<MEAN> 39
 -9.542220e-01 -1.098422e-01 -2.426034e-01 1.055741e+00 4.473273e-01 8.915600e-01 3.010180e-01 8.895820e-01 2.265441e-01 5.991971e-01 1.240963e-01 6.276585e-01 3.089295e+00 1.107098e-02 -1.538313e-02 -1.930588e-03 8.079153e-03 1.405173e-02 1.540005e-02 2.376021e-02 3.441327e-02 1.554677e-02 4.646007e-03 8.035819e-03 9.289037e-03 1.616904e-03 1.028412e-02 7.215908e-03 9.139635e-03 -4.043747e-04 -1.432421e-04 -2.197489e-03 -3.375390e-03 -1.301032e-02 -1.416574e-02 -8.363480e-03 -7.135121e-03 -1.240809e-02 -2.483904e-03
<VARIANCE> 39
 2.596859e+00 2.907540e+00 4.981576e+00 8.172473e+00 9.493039e+00 1.223047e+01 1.364078e+01 1.599762e+01 1.586084e+01 1.575047e+01 1.452369e+01 1.328426e+01 1.862328e+01 7.734695e-02 1.156063e-01 2.084571e-01 3.023042e-01 3.911983e-01 4.929591e-01 6.009409e-01 6.794368e-01 7.133778e-01 6.852430e-01 6.405569e-01 5.861562e-01 1.157570e-02 1.387253e-02 2.193679e-02 4.011203e-02 5.667710e-02 7.363200e-02 9.181744e-02 1.122971e-01 1.318209e-01 1.385467e-01 1.320887e-01 1.234208e-01 1.132390e-01 2.205823e-03
<GCONST> 4.729433e+01
<STATE> 3
<MEAN> 39
 -6.963097e-01 -3.562208e-01 -3.558162e-01 7.900739e-01 4.037464e-01 9.042842e-01 5.869826e-01 1.056299e+00 2.791658e-01 5.579649e-01 1.990910e-01 5.772122e-01 2.739791e+00 8.596247e-02 2.516215e-02 4.405364e-02 1.836267e-03 3.541273e-03 -6.977544e-03 -1.143348e-02 -4.731043e-02 -7.582471e-02 -5.456664e-02 -4.774108e-02 -5.033598e-02 -1.281015e-02 3.962556e-02 3.456363e-02 3.157599e-02 -1.282260e-02 -1.392930e-02 -3.508859e-02 -4.590051e-02 -6.356267e-02 -4.457256e-02 -3.200812e-02 -2.514892e-02 -3.068999e-02 -1.151743e-02
<VARIANCE> 39
 2.655432e+00 3.138321e+00 5.398118e+00 8.317736e+00 9.936008e+00 1.282742e+01 1.446323e+01 1.638701e+01 1.637074e+01 1.542796e+01 1.432954e+01 1.348392e+01 1.935967e+01 9.678596e-02 1.388906e-01 2.489204e-01 3.294372e-01 4.419786e-01 5.536095e-01 6.656879e-01 7.419102e-01 7.466772e-01 6.888409e-01 6.582252e-01 6.004630e-01 1.708466e-02 1.864580e-02 2.658542e-02 4.989432e-02 6.396218e-02 8.525264e-02 1.088707e-01 1.308710e-01 1.450034e-01 1.449050e-01 1.338426e-01 1.224737e-01 1.156433e-01 4.447699e-03
<GCONST> 5.147387e+01
<STATE> 4
<MEAN> 39
 -5.249236e-01 -3.558366e-01 -2.744124e-01 9.722185e-01 5.696425e-01 1.062697e+00 5.655168e-01 9.568441e-01 -7.132739e-03 4.293815e-01 2.504373e-02 5.427502e-01 3.455556e+00 1.991954e-01 9.821366e-02 1.176114e-01 -1.721202e-02 -9.835333e-03 -7.146204e-02 -8.507636e-02 -1.660482e-01 -1.602321e-01 -1.315040e-01 -9.150644e-02 -1.004305e-01 -5.264703e-02 4.098826e-02 2.901468e-02 2.085216e-02 -4.039783e-02 -2.824232e-02 -5.660515e-02 -4.712357e-02 -6.163476e-02 -2.043071e-02 -2.477319e-02 -1.458379e-02 -2.775849e-02 -4.104556e-02
<VARIANCE> 39
 3.489910e+00 3.772269e+00 6.204857e+00 8.912711e+00 1.055258e+01 1.366978e+01 1.525411e+01 1.722066e+01 1.692079e+01 1.642165e+01 1.501541e+01 1.386489e+01 2.438584e+01 1.893961e-01 1.827133e-01 3.202433e-01 4.034359e-01 5.179423e-01 6.258373e-01 7.535026e-01 8.424448e-01 8.217993e-01 7.715714e-01 7.268535e-01 6.405267e-01 4.965410e-02 3.109127e-02 3.494082e-02 5.974490e-02 7.719877e-02 9.536334e-02 1.247655e-01 1.418426e-01 1.494261e-01 1.540865e-01 1.403995e-01 1.305366e-01 1.201276e-01 1.516655e-02
<GCONST> 5.908890e+01
<TRANSP> 5
 0.000000e+00 1.000000e+00 0.000000e+00 0.000000e+00 0.000000e+00
 0.000000e+00 7.644285e-01 2.355715e-01 0.000000e+00 0.000000e+00
 0.000000e+00 0.000000e+00 3.880993e-01 6.119007e-01 0.000000e+00
 0.000000e+00 0.000000e+00 0.000000e+00 2.420553e-01 7.579447e-01
 0.000000e+00 0.000000e+00 0.000000e+00 0.000000e+00 0.000000e+00
<ENDHMM>
~h "ao"
<BEGINHMM>
<NUMSTATES> 5
<STATE> 2
<MEAN> 39
 -5.624676e-01 -1.585824e-01 -2.753692e-01 4.171311e-01 1.837601e-01 5.296191e-01 2.863427e-01 6.874607e-01 2.207462e-01 4.946066e-01 1.891596e-01 4.328599e-01 1.495924e+00 -5.292943e-02 2.895644e-02 3.180839e-02 1.605432e-01 1.532543e-01 1.736664e-01 1.172546e-01 8.526278e-02 7.058888e-02 7.310593e-02 2.863154e-02 5.558018e-02 1.406309e-02 4.210769e-02 1.349336e-02 2.222132e-02 -2.049329e-02 -1.677448e-02 -4.535889e-02 -3.315393e-02 -5.178304e-02 -2.455814e-02 -3.218010e-02 -1.953010e-02 -3.305876e-02 -2.345753e-02
<VARIANCE> 39
 3.555117e+00 3.333628e+00 5.288682e+00 8.689523e+00 9.979770e+00 1.343545e+01 1.368010e+01 1.531936e+01 1.579981e+01 1.607624e+01 1.471328e+01 1.390052e+01 2.767836e+01 9.741583e-02 1.440363e-01 2.439181e-01 3.704847e-01 4.065123e-01 5.701298e-01 6.109416e-01 6.405944e-01 6.746654e-01 6.700674e-01 6.023656e-01 5.635697e-01 3.316431e-02 1.760063e-02 2.547837e-02 4.385429e-02 6.737366e-02 7.753898e-02 1.056792e-01 1.076212e-01 1.171846e-01 1.282545e-01 1.305058e-01 1.173732e-01 1.086655e-01 7.984760e-03
<GCONST> 5.205476e+01
<STATE> 3
<MEAN> 39
 -6.337122e-01 -5.956356e-02 -2.024123e-01 7.048614e-01 3.472613e-01 7.077374e-01 3.545826e-01 6.352524e-01 2.206319e-01 5.100856e-01 8.029167e-02 4.167586e-01 1.658765e+00 -9.047505e-03 3.481883e-02 3.613013e-02 9.401847e-02 8.596872e-02 8.675710e-02 6.040021e-02 1.639586e-02 2.012233e-02 2.843608e-02 4.853361e-03 1.841763e-02 2.143687e-03 2.245827e-02 2.380168e-03 1.519687e-03 -4.162965e-02 -4.433479e-02 -5.348231e-02 -4.256062e-02 -4.272301e-02 -3.141832e-02 -3.113151e-02 -1.691422e-02 -2.553115e-02 -6.387513e-03
<VARIANCE> 39
 3.490341e+00 3.366341e+00 5.386507e+00 8.813394e+00 9.922475e+00 1.288901e+01 1.382182e+01 1.556981e+01 1.569769e+01 1.579809e+01 1.448138e+01 1.364633e+01 2.731446e+01 8.121977e-02 1.280454e-01 2.277795e-01 3.262450e-01 3.881155e-01 5.364692e-01 5.965517e-01 6.407409e-01 6.698368e-01 6.647698e-01 6.086535e-01 5.573665e-01 2.510209e-02 1.587421e-02 2.649169e-02 4.443541e-02 6.331360e-02 7.735208e-02 1.025622e-01 1.106366e-01 1.220005e-01 1.246629e-01 1.289847e-01 1.177489e-01 1.108157e-01 4.010033e-03
<GCONST> 5.028237e+01
<STATE> 4
<MEAN> 39
 -1.659483e+00 -7.286673e-02 -5.348446e-01 1.402758e+00 7.037770e-01 1.480625e+00 5.349442e-01 1.471574e+00 3.479007e-01 1.139044e+00 1.973939e-01 8.807286e-01 6.180281e+00 1.079210e-02 1.173508e-02 1.344682e-02 4.480050e-03 5.962127e-03 1.432530e-02 5.824853e-03 3.129966e-04 -5.226279e-03 -1.613687e-02 -1.597828e-02 -1.782644e-02 2.217544e-04 8.868432e-03 -2.164310e-03 -5.431414e-03 -2.424145e-02 -2.810063e-02 -2.811805e-02 -2.563795e-02 -1.704895e-02 -1.388380e-02 -1.744891e-02 -5.118371e-03 -8.608357e-03 -7.224642e-04
<VARIANCE> 39
 4.448878e+00 3.675043e+00 6.139971e+00 9.371382e+00 1.029972e+01 1.417150e+01 1.462716e+01 1.703491e+01 1.601889e+01 1.667645e+01 1.445287e+01 1.384130e+01 4.439119e+01 9.230251e-02 1.328262e-01 2.320084e-01 3.592598e-01 4.197384e-01 5.453761e-01 5.985471e-01 6.528952e-01 6.716483e-01 7.129785e-01 6.480494e-01 5.930554e-01 2.335468e-02 1.652767e-02 2.517274e-02 4.621672e-02 6.928078e-02 7.871865e-02 1.031212e-01 1.153667e-01 1.259607e-01 1.264675e-01 1.334317e-01 1.211570e-01 1.116357e-01 3.556855e-03
<GCONST> 5.235725e+01
<TRANSP> 5
 0.000000e+00 1.000000e+00 0.000000e+00 0.000000e+00 0.000000e+00
 0.000000e+00 1.998377e-01 8.001623e-01 0.000000e+00 0.000000e+00
 0.000000e+00 0.000000e+00 2.577020e-01 7.422980e-01 0.000000e+00
 0.000000e+00 0.000000e+00 0.000000e+00 6.224329e-01 3.775671e-01
 0.000000e+00 0.000000e+00 0.000000e+00 0.000000e+00 0.000000e+00
<ENDHMM>
~h "ay"
<BEGINHMM>
<NUMSTATES> 5
<STATE> 2
<MEAN> 39
 -7.462513e-01 -2.477998e-01 -3.029450e-01 6.788516e-01 4.075232e-01 7.700651e-01 4.378591e-01 9.179327e-01 3.836417e-01 6.472317e-01 2.894419e-01 6.290817e-01 2.109390e+00 -7.517953e-02 -2.989515e-02 -3.421284e-02 9.914653e-02 9.607694e-02 1.554364e-01 1.211979e-01 1.318961e-01 1.026617e-01 1.030350e-01 6.498967e-02 8.086354e-02 1.961071e-02 4.275644e-02 1.758011e-02 2.265346e-02 -2.969986e-02 -2.209519e-02 -4.590334e-02 -3.063758e-02 -5.512263e-02 -4.165011e-02 -4.504073e-02 -3.441355e-02 -4.107352e-02 -2.745227e-02
<VARIANCE> 39
 2.938027e+00 2.881986e+00 4.823062e+00 8.416471e+00 9.485744e+00 1.239274e+01 1.316614e+01 1.606363e+01 1.514994e+01 1.555435e+01 1.446444e+01 1.313144e+01 2.539099e+01 8.396795e-02 1.305289e-01 2.233324e-01 3.454155e-01 4.305148e-01 5.420852e-01 5.931693e-01 6.284499e-01 6.988260e-01 6.844732e-01 6.455163e-01 5.513977e-01 2.836848e-02 1.515780e-02 2.362458e-02 4.082017e-02 6.678440e-02 8.384358e-02 1.048448e-01 1.130668e-01 1.220633e-01 1.309145e-01 1.306929e-01 1.238718e-01 1.043732e-01 9.767410e-03
<GCONST> 5.082942e+01
<STATE> 3
<MEAN> 39
 -1.151654e+00 -4.818282e-02 -2.841062e-01 1.111373e+00 4.637269e-01 9.970957e-01 3.443929e-01 9.286706e-01 3.343891e-01 7.090932e-01 2.494624e-01 7.005241e-01 2.825497e+00 -4.279170e-03 5.221722e-03 1.490009e-03 1.591293e-02 1.794949e-02 2.410471e-02 1.431611e-02 1.176850e-02 1.340688e-03 2.011062e-03 8.961770e-04 7.624971e-04 1.572232e-03 1.462141e-02 7.375098e-03 9.225179e-03 -1.304576e-02 -1.535665e-02 -2.452654e-02 -2.302494e-02 -2.701825e-02 -2.480906e-02 -2.398493e-02 -1.567052e-02 -1.793079e-02 -3.048799e-03
<VARIANCE> 39
 2.385441e+00 2.851923e+00 4.837402e+00 8.325775e+00 9.511908e+00 1.226817e+01 1.350138e+01 1.524039e+01 1.527148e+01 1.558713e+01 1.419186e+01 1.285711e+01 1.698661e+01 5.325804e-02 1.025569e-01 1.873418e-01 2.904704e-01 3.984542e-01 4.924854e-01 5.672076e-01 6.009150e-01 6.398025e-01 6.612236e-01 6.215495e-01 5.424970e-01 1.198765e-02 9.989566e-03 1.920359e-02 3.477994e-02 5.444916e-02 7.555912e-02 9.477343e-02 1.058813e-01 1.123180e-01 1.216808e-01 1.269559e-01 1.193901e-01 1.045000e-01 2.499600e-03
<GCONST> 4.494613e+01
<STATE> 4
<MEAN> 39
 -2.015310e+00 -3.952935e-01 -7.513233e-01 1.666075e+00 6.365625e-01 1.648587e+00 6.751977e-01 1.777232e+00 2.556049e-01 1.185874e+00 3.304945e-01 1.131362e+00 7.151031e+00 4.384841e-02 7.050550e-03 1.877887e-02 -6.726122e-03 -8.097994e-03 -1.642861e-02 -2.012904e-02 -2.915694e-02 -2.676288e-02 -3.078446e-02 -2.751415e-02 -3.268148e-02 -2.909496e-03 1.801392e-02 4.756880e-03 6.570539e-03 -1.146581e-02 -9.750158e-03 -1.584888e-02 -1.294180e-02 -1.869609e-02 -1.315690e-02 -1.138111e-02 -8.403022e-03 -9.259152e-03 -3.268393e-03
<VARIANCE> 39
 3.215359e+00 3.402788e+00 5.554741e+00 8.962137e+00 1.035135e+01 1.323970e+01 1.432949e+01 1.643226e+01 1.584687e+01 1.634095e+01 1.476853e+01 1.344248e+01 2.624033e+01 7.718064e-02 1.254371e-01 2.215049e-01 3.342434e-01 4.479440e-01 5.518301e-01 6.157726e-01 6.631129e-01 6.898773e-01 7.074785e-01 6.536222e-01 5.839636e-01 1.658733e-02 1.355819e-02 2.350188e-02 4.218813e-02 6.439386e-02 8.645523e-02 1.061419e-01 1.171737e-01 1.244439e-01 1.308392e-01 1.319700e-01 1.241691e-01 1.092450e-01 3.149702e-03
<GCONST> 5.016199e+01
<TRANSP> 5
 0.000000e+00 1.000000e+00 0.000000e+00 0.000000e+00 0.000000e+00
 0.000000e+00 1.731005e-01 8.268995e-01 0.000000e+00 0.000000e+00
 0.000000e+00 0.000000e+00 7.495922e-01 2.504078e-01 0.000000e+00
 0.000000e+00 0.000000e+00 0.000000e+00 8.030059e-01 1.969941e-01
 0.000000e+00 0.000000e+00 0.000000e+00 0.000000e+00 0.000000e+00
<ENDHMM>
~h "eh"
<BEGINHMM>
<NUMSTATES> 5
<STATE> 2
<MEAN> 39
 -6.368756e-01 -1.811119e-01 -3.991879e-01 2.593177e-01 -1.913908e-01 3.528156e-01 2.590394e-01 6.038045e-01 7.109704e-02 4.461580e-01 1.689836e-01 4.507971e-01 2.123316e+00 -1.024255e-01 1.040511e-02 4.425944e-02 1.930764e-01 1.426197e-01 1.591320e-01 5.317809e-02 8.277395e-02 3.752910e-02 6.618430e-02 2.396370e-02 6.027718e-02 7.659160e-02 3.934396e-02 2.558559e-02 2.627247e-02 -2.449971e-02 7.752667e-03 -2.448685e-02 -1.882336e-02 -4.736847e-02 -1.091652e-02 -4.173233e-02 -2.538418e-02 -4.102635e-02 -5.749582e-02
<VARIANCE> 39
 3.169126e+00 2.970887e+00 5.018785e+00 9.727440e+00 1.003526e+01 1.337647e+01 1.420472e+01 1.578148e+01 1.475253e+01 1.505397e+01 1.357853e+01 1.292906e+01 1.720006e+01 1.155839e-01 1.566231e-01 2.516502e-01 4.671801e-01 4.560015e-01 6.114792e-01 6.845667e-01 7.210681e-01 6.876894e-01 6.872436e-01 6.417111e-01 5.794035e-01 3.719061e-02 2.115508e-02 3.141459e-02 4.981933e-02 9.179992e-02 9.149322e-02 1.211469e-01 1.255329e-01 1.328238e-01 1.293790e-01 1.351790e-01 1.209958e-01 1.073667e-01 1.691663e-02
<GCONST> 5.460037e+01
<STATE> 3
<MEAN> 39
 -8.865751e-01 -1.809647e-01 -4.019551e-01 6.344243e-01 2.149771e-01 7.367340e-01 3.209278e-01 8.073241e-01 1.651791e-01 5.870061e-01 1.352006e-01 5.421975e-01 2.545745e+00 -1.661060e-02 3.939540e-02 6.761459e-02 1.297284e-01 1.136277e-01 8.891180e-02 1.874799e-02 3.072027e-02 1.231244e-02 8.061705e-04 -1.132144e-02 2.185989e-03 2.633148e-02 3.399302e-02 1.210377e-02 6.437541e-03 -3.228276e-02 -2.485855e-02 -3.830199e-02 -2.062520e-02 -3.455164e-02 -1.394861e-02 -2.467548e-02 -1.623247e-02 -2.493521e-02 -2.128328e-02
<VARIANCE> 39
 2.849625e+00 2.878291e+00 5.013598e+00 8.864201e+00 9.872359e+00 1.320710e+01 1.355604e+01 1.567180e+01 1.546192e+01 1.617886e+01 1.402506e+01 1.308440e+01 1.732882e+01 7.370910e-02 1.273787e-01 2.252492e-01 3.548404e-01 4.221024e-01 5.675054e-01 6.041253e-01 6.500833e-01 6.994705e-01 6.753083e-01 6.312532e-01 5.614435e-01 1.546847e-02 1.475693e-02 2.547792e-02 4.301528e-02 6.857152e-02 8.410287e-02 1.113541e-01 1.176071e-01 1.232868e-01 1.336880e-01 1.258497e-01 1.159430e-01 1.096421e-01 4.696952e-03
<GCONST> 4.944952e+01
<STATE> 4
<MEAN> 39
 -9.583265e-02 3.036899e-02 2.848629e-02 1.380990e-01 6.002115e-02 8.667554e-02 1.782639e-02 2.123278e-02 2.598713e-02 1.415579e-02 -5.413666e-04 3.802900e-02 7.762629e-02 1.207688e-03 6.735742e-04 1.228857e-03 -1.097601e-04 -4.850235e-04 -1.056069e-03 -7.531669e-04 -7.012235e-04 -7.390348e-04 -1.073764e-03 -1.056893e-03 -1.617809e-03 4.040091e-04 5.310534e-04 -5.574793e-04 -6.468309e-04 -1.238499e-03 -7.682417e-04 -5.876543e-04 3.963336e-05 -3.690510e-04 -2.724829e-04 -4.580431e-05 7.451279e-06 -2.120358e-04 -3.410706e-04
<VARIANCE> 39
 1.293988e+00 2.603094e+00 4.635023e+00 7.235440e+00 9.434648e+00 1.179871e+01 1.344552e+01 1.458267e+01 1.519084e+01 1.506371e+01 1.406943e+01 1.265892e+01 5.430634e-01 5.116863e-02 1.103031e-01 1.993937e-01 3.047883e-01 4.036269e-01 5.069280e-01 5.807846e-01 6.294994e-01 6.636915e-01 6.536086e-01 6.145502e-01 5.431953e-01 8.699815e-03 9.410570e-03 2.083436e-02 3.760288e-02 5.755894e-02 7.627675e-02 9.580070e-02 1.101208e-01 1.193591e-01 1.263789e-01 1.237679e-01 1.170757e-01 1.027061e-01 1.613939e-03
<GCONST> 4.022147e+01
<TRANSP> 5
 0.000000e+00 1.000000e+00 0.000000e+00 0.000000e+00 0.000000e+00
 0.000000e+00 2.591832e-01 7.408168e-01 0.000000e+00 0.000000e+00
 0.000000e+00 0.000000e+00 3.414499e-01 6.585501e-01 0.000000e+00
 0.000000e+00 0.000000e+00 0.000000e+00 9.876816e-01 1.231836e-02
 0.000000e+00 0.000000e+00 0.000000e+00 0.000000e+00 0.000000e+00
<ENDHMM>
~h "ey"
<BEGINHMM>
<NUMSTATES> 5
<STATE> 2
<MEAN> 39
 -7.294522e-01 -2.872529e-01 -5.845498e-01 2.717883e-01 -1.518090e-01 4.329523e-01 2.628170e-01 6.767666e-01 1.563123e-01 6.181878e-01 2.118949e-01 5.540146e-01 2.061148e+00 2.000820e-02 -3.239242e-02 -1.636571e-02 -4.610973e-02 -1.370049e-02 -1.428308e-02 5.615519e-02 3.820150e-02 5.166728e-02 1.861390e-02 1.126821e-02 2.224543e-02 -1.276811e-02 3.569238e-02 1.666564e-02 2.370206e-02 4.138693e-03 1.939533e-02 3.586289e-03 -5.334844e-03 -2.482315e-02 -2.443479e-02 -2.882764e-02 -5.884958e-03 -1.817024e-02 -7.422153e-03
<VARIANCE> 39
 4.070193e+00 3.248229e+00 5.234591e+00 1.248776e+01 1.122020e+01 1.532429e+01 1.390150e+01 1.584530e+01 1.502863e+01 1.672828e+01 1.413904e+01 1.325226e+01 6.263739e+01 1.214504e-01 1.562527e-01 2.477545e-01 4.373677e-01 4.957761e-01 6.441765e-01 6.315975e-01 7.031690e-01 6.989736e-01 7.358712e-01 6.367915e-01 5.873050e-01 4.903341e-02 2.399823e-02 3.042457e-02 4.829974e-02 8.897848e-02 9.581424e-02 1.306037e-01 1.226235e-01 1.394901e-01 1.407611e-01 1.535366e-01 1.238611e-01 1.178780e-01 2.452278e-02
<GCONST> 5.818443e+01
<STATE> 3
<MEAN> 39
 -1.660016e-01 -2.975485e-01 -4.692380e-01 -4.662353e-01 -4.048489e-01 -2.263657e-01 1.343787e-01 2.899362e-01 2.596796e-01 3.071321e-01 1.176696e-01 1.702752e-01 -5.705012e-01 8.898640e-02 3.300782e-03 2.638840e-02 -5.361041e-02 1.770616e-02 -1.012316e-02 2.983290e-02 -2.825586e-02 6.232402e-03 -4.260125e-02 1.012624e-02 -3.328275e-02 -7.687986e-03 6.630072e-02 5.696551e-02 5.381869e-02 8.002792e-03 2.310481e-02 -1.091663e-02 -3.825269e-02 -5.457810e-02 -4.676951e-02 -4.967983e-02 -1.936024e-02 -3.315178e-02 -2.442846e-02
<VARIANCE> 39
 3.496840e+00 3.610632e+00 5.386147e+00 1.214281e+01 1.162876e+01 1.526954e+01 1.398086e+01 1.654294e+01 1.549567e+01 1.675035e+01 1.452119e+01 1.340353e+01 4.944328e+01 2.039660e-01 2.034985e-01 3.116426e-01 5.763089e-01 5.801391e-01 7.544832e-01 7.349643e-01 7.895676e-01 8.083121e-01 8.141841e-01 7.092117e-01 6.320167e-01 1.871078e-01 4.749880e-02 4.658074e-02 6.431271e-02 1.213972e-01 1.224089e-01 1.625436e-01 1.494520e-01 1.599813e-01 1.512371e-01 1.670047e-01 1.357257e-01 1.316049e-01 1.325754e-01
<GCONST> 6.623995e+01
<STATE> 4
<MEAN> 39
 5.969150e-01 6.525187e-01 4.412166e-01 -6.633387e-01 -1.154077e-01 -4.152579e-01 -1.572450e-01 -2.153129e-01 -8.719064e-03 -1.602271e-01 -7.714800e-02 -4.739264e-02 1.925349e-02 6.103498e-02 3.317314e-02 5.618627e-02 -5.936710e-02 5.730670e-04 -4.428605e-02 -3.001909e-02 -7.706112e-02 -1.502494e-02 -5.064838e-02 -9.872122e-03 -4.577725e-02 -1.853743e-01 -3.312808e-02 -1.540218e-02 -1.626449e-02 2.133469e-02 3.113634e-03 1.295442e-02 1.119060e-03 1.112299e-02 2.085085e-03 1.064416e-02 4.162678e-03 7.292419e-03 2.524400e-02
<VARIANCE> 39
 2.149694e+01 1.868740e+01 1.806816e+01 2.918481e+01 2.165007e+01 2.998138e+01 2.551989e+01 3.151070e+01 2.526618e+01 2.701410e+01 2.099427e+01 2.065945e+01 1.394226e+02 1.257996e+00 1.048420e+00 9.706833e-01 1.479815e+00 1.108776e+00 1.533327e+00 1.261138e+00 1.461363e+00 1.234140e+00 1.309969e+00 1.034586e+00 9.983527e-01 6.870929e+00 1.945581e-01 1.791063e-01 1.703441e-01 2.447516e-01 1.948844e-01 2.667378e-01 2.295697e-01 2.500027e-01 2.210139e-01 2.322809e-01 1.907936e-01 1.780079e-01 8.624966e-01
<GCONST> 1.000143e+02
<TRANSP> 5
 0.000000e+00 1.000000e+00 0.000000e+00 0.000000e+00 0.000000e+00
 0.000000e+00 3.816600e-01 6.183400e-01 0.000000e+00 0.000000e+00
 0.000000e+00 0.000000e+00 1.019895e-01 8.980105e-01 0.000000e+00
 0.000000e+00 0.000000e+00 0.000000e+00 8.644166e-01 1.355834e-01
 0.000000e+00 0.000000e+00 0.000000e+00 0.000000e+00 0.000000e+00
<ENDHMM>
~h "hh"
<BEGINHMM>
<NUMSTATES> 5
<STATE> 2
<MEAN> 39
 7.119924e-04 -1.206400e-01 -4.953337e-01 -6.179744e-01 -6.772788e-01 -7.179682e-01 -4.218918e-01 -1.337542e-01 -1.700040e-01 -4.688366e-02 -1.233553e-01 -1.112372e-01 -5.793058e-01 -1.017610e-02 6.901546e-03 1.761848e-02 9.687168e-02 9.282570e-02 8.048357e-02 5.475899e-02 7.139212e-02 1.819386e-02 -1.317507e-03 -2.319597e-02 1.524848e-02 2.722538e-02 -3.833135e-03 -6.473995e-03 2.817729e-02 8.413046e-02 8.156379e-02 8.855886e-02 8.149755e-02 5.882216e-02 3.884546e-02 2.879418e-02 1.794942e-02 1.286273e-02 2.339592e-02
<VARIANCE> 39
 3.432813e+00 3.334790e+00 5.209822e+00 1.086427e+01 1.064779e+01 1.467550e+01 1.469576e+01 1.672395e+01 1.572229e+01 1.680567e+01 1.444331e+01 1.343894e+01 5.212176e+01 1.608876e-01 1.834571e-01 2.754771e-01 4.785232e-01 5.129719e-01 6.250092e-01 6.424347e-01 7.390735e-01 7.424264e-01 7.699111e-01 6.771441e-01 5.703108e-01 7.700862e-02 2.954749e-02 3.405217e-02 5.302998e-02 9.468272e-02 9.951871e-02 1.250816e-01 1.309399e-01 1.417814e-01 1.421413e-01 1.453063e-01 1.302609e-01 1.138198e-01 3.420562e-02
<GCONST> 5.996464e+01
<STATE> 3
<MEAN> 39
 7.316329e-01 -2.984265e-01 -6.285194e-01 -1.345908e+00 -8.228137e-01 -1.535974e+00 -4.515089e-01 -9.388899e-01 -3.145176e-01 -9.552340e-01 -1.702069e-01 -7.809009e-01 -5.917847e+00 8.117653e-02 9.782454e-02 8.117300e-02 2.066793e-01 2.125964e-01 1.631674e-01 1.054541e-01 9.190118e-02 9.355769e-03 3.862755e-02 -2.782652e-02 2.082197e-02 1.994646e-01 -1.545815e-02 2.908422e-03 2.751793e-02 7.228875e-02 3.928515e-02 7.402603e-02 4.052252e-02 3.976066e-02 1.936345e-02 4.029410e-02 1.929595e-02 3.225449e-02 1.399540e-01
<VARIANCE> 39
 8.810446e+00 9.068142e+00 1.052416e+01 1.655214e+01 1.569078e+01 2.049034e+01 1.823774e+01 2.099310e+01 1.778496e+01 1.886265e+01 1.677146e+01 1.549830e+01 8.456712e+01 4.151281e-01 4.941600e-01 5.826271e-01 9.041648e-01 8.048700e-01 9.692937e-01 8.747976e-01 9.639375e-01 8.691218e-01 8.851371e-01 7.828447e-01 6.644184e-01 1.127030e+00 6.574533e-02 8.109657e-02 9.763249e-02 1.527880e-01 1.475263e-01 1.730285e-01 1.635357e-01 1.746008e-01 1.613394e-01 1.573233e-01 1.518914e-01 1.251426e-01 2.414511e-01
<GCONST> 7.959117e+01
<STATE> 4
<MEAN> 39
 2.957168e-01 2.320825e-01 2.008200e-02 6.584263e-01 5.862542e-01 3.489658e-01 2.464271e-01 5.551121e-01 -8.819897e-02 1.429165e-01 -6.319063e-02 1.595532e-01 2.074547e+00 -3.422133e-01 -1.272846e-01 -4.385519e-02 2.305342e-01 9.829415e-02 2.906579e-01 1.434373e-01 2.573889e-01 1.142149e-01 1.897810e-01 9.801228e-02 1.624290e-01 1.002813e+00 -3.887891e-02 -1.723853e-02 -2.880211e-02 -4.908956e-02 -2.929263e-02 -3.726300e-02 -9.933133e-03 -1.684193e-02 7.557982e-03 -5.655287e-03 9.683032e-03 -3.760488e-03 -1.083844e-01
<VARIANCE> 39
 1.583974e+01 9.976171e+00 1.070529e+01 1.368638e+01 1.553326e+01 2.139802e+01 1.936242e+01 2.295019e+01 2.180891e+01 2.264376e+01 1.748585e+01 1.683788e+01 7.286154e+01 9.188814e-01 5.161362e-01 5.521008e-01 7.567881e-01 7.732144e-01 1.080231e+00 8.973760e-01 1.134932e+00 1.052845e+00 1.090485e+00 8.253741e-01 8.125129e-01 5.185762e+00 1.503249e-01 1.000659e-01 1.059697e-01 1.290871e-01 1.423261e-01 1.784465e-01 1.636596e-01 2.029561e-01 1.987638e-01 2.011016e-01 1.578121e-01 1.476944e-01 5.678015e-01
<GCONST> 8.629875e+01
<TRANSP> 5
 0.000000e+00 1.000000e+00 0.000000e+00 0.000000e+00 0.000000e+00
 0.000000e+00 1.825167e-01 8.174833e-01 0.000000e+00 0.000000e+00
 0.000000e+00 0.000000e+00 4.858578e-01 5.141423e-01 0.000000e+00
 0.000000e+00 0.000000e+00 0.000000e+00 6.009691e-01 3.990309e-01
 0.000000e+00 0.000000e+00 0.000000e+00 0.000000e+00 0.000000e+00
<ENDHMM>
~h "ih"
<BEGINHMM>
<NUMSTATES> 5
<STATE> 2
<MEAN> 39
 -5.652633e-01 -2.441435e-01 -4.541243e-01 2.204901e-02 2.034208e-01 1.610560e-01 2.192804e-01 5.947226e-01 3.220156e-01 6.366177e-02 1.394905e-01 2.446942e-01 1.043471e+00 1.605449e-02 1.443726e-03 4.531164e-02 5.091261e-04 3.634815e-02 6.678796e-03 4.043952e-02 6.097667e-02 7.856186e-02 7.047128e-03 6.489313e-02 -1.179304e-02 2.316795e-02 3.934298e-02 3.014240e-02 3.567816e-02 -3.058267e-02 -3.220473e-02 -4.210801e-02 -4.800992e-02 -7.067104e-02 -2.475172e-02 -3.869769e-02 -1.952760e-02 -4.913474e-02 -3.388838e-02
<VARIANCE> 39
 4.116629e+00 4.343302e+00 5.996812e+00 1.316731e+01 1.123625e+01 1.523176e+01 1.497295e+01 1.588384e+01 1.601115e+01 1.706360e+01 1.496433e+01 1.401007e+01 2.763221e+01 1.988677e-01 2.301743e-01 3.167512e-01 5.567274e-01 5.600739e-01 7.119458e-01 6.930341e-01 7.344498e-01 7.717094e-01 8.204183e-01 7.089126e-01 6.563805e-01 3.474903e-01 3.274229e-02 4.189568e-02 5.991462e-02 1.029812e-01 1.007385e-01 1.313034e-01 1.291367e-01 1.340293e-01 1.485554e-01 1.520590e-01 1.260874e-01 1.189525e-01 4.291439e-02
<GCONST> 6.392495e+01
<STATE> 3
<MEAN> 39
 -6.358443e-01 -3.766364e-01 -3.458242e-01 -2.723960e-01 1.508203e-01 -6.256939e-02 1.344590e-01 4.644645e-01 4.844345e-01 -1.719231e-01 2.633311e-01 -7.248240e-02 7.987001e-01 8.783045e-02 5.894652e-02 9.583339e-02 -5.082656e-02 -2.178587e-02 -5.987672e-02 -2.734279e-02 -5.443578e-02 2.606420e-02 -5.497438e-02 2.376488e-02 -8.408894e-02 -1.223060e-02 5.876025e-02 4.004643e-02 3.014215e-02 -3.074761e-02 -3.920173e-02 -4.314142e-02 -5.121165e-02 -8.050206e-02 -5.418360e-02 -3.363148e-02 -3.181421e-02 -3.601607e-02 -4.901234e-02
<VARIANCE> 39
 5.109829e+00 5.487448e+00 7.291483e+00 1.485499e+01 1.201521e+01 1.696262e+01 1.592240e+01 1.756550e+01 1.788371e+01 1.966254e+01 1.606203e+01 1.547778e+01 2.305353e+01 2.653176e-01 2.874526e-01 3.780689e-01 6.727259e-01 6.076453e-01 7.902418e-01 7.521752e-01 8.040695e-01 8.255561e-01 8.713281e-01 7.437901e-01 7.161431e-01 5.273665e-01 4.603283e-02 5.434230e-02 7.025343e-02 1.217013e-01 1.151169e-01 1.450162e-01 1.404435e-01 1.562862e-01 1.601655e-01 1.655499e-01 1.328149e-01 1.313826e-01 7.699508e-02
<GCONST> 6.947790e+01
<STATE> 4
<MEAN> 39
 -1.613187e+00 -2.243201e-01 -7.065109e-01 2.536040e-01 2.167944e-01 4.198141e-01 3.821127e-01 7.721418e-01 6.118911e-01 1.628544e-01 4.657810e-01 3.448769e-01 4.293960e+00 5.892771e-02 3.746256e-02 4.261350e-02 7.187092e-02 7.961920e-03 6.135852e-02 1.039447e-03 2.366880e-02 -4.530949e-02 6.945031e-02 -3.081574e-02 3.177331e-02 2.709851e-01 3.949450e-02 1.874816e-02 1.971006e-02 -2.594431e-02 -1.913236e-02 -3.184006e-02 -2.421830e-02 -2.482157e-02 -1.208164e-02 -1.078503e-02 -7.139550e-03 -1.095903e-02 -8.428936e-02
<VARIANCE> 39
 1.056535e+01 9.808695e+00 1.141012e+01 1.989774e+01 1.585929e+01 2.136300e+01 1.811263e+01 2.259868e+01 2.055488e+01 2.431023e+01 1.859660e+01 1.762975e+01 7.456122e+01 5.874637e-01 5.104073e-01 5.677812e-01 9.307774e-01 7.349562e-01 9.913410e-01 8.644212e-01 1.030404e+00 9.585723e-01 1.074636e+00 8.167129e-01 7.970617e-01 2.262979e+00 1.004626e-01 9.230996e-02 1.037919e-01 1.540710e-01 1.340122e-01 1.712484e-01 1.602713e-01 1.877192e-01 1.737241e-01 1.922468e-01 1.516534e-01 1.434654e-01 3.271351e-01
<GCONST> 8.360481e+01
<TRANSP> 5
 0.000000e+00 1.000000e+00 0.000000e+00 0.000000e+00 0.000000e+00
 0.000000e+00 1.394277e-01 8.605723e-01 0.000000e+00 0.000000e+00
 0.000000e+00 0.000000e+00 1.103147e-01 8.896853e-01 0.000000e+00
 0.000000e+00 0.000000e+00 0.000000e+00 7.795991e-01 2.204009e-01
 0.000000e+00 0.000000e+00 0.000000e+00 0.000000e+00 0.000000e+00
<ENDHMM>
~h "iy"
<BEGINHMM>
<NUMSTATES> 5
<STATE> 2
<MEAN> 39
 -4.409429e-02 4.161905e-01 -3.362912e-02 3.613527e-01 9.000822e-01 1.328706e-01 8.331418e-02 -3.078637e-02 -7.556343e-02 1.424750e-01 2.934180e-02 4.506691e-02 1.718232e+00 -1.822865e-02 9.699975e-03 -1.214247e-02 -4.301330e-02 4.319324e-02 -2.920000e-02 -2.142749e-02 -3.235032e-02 2.808020e-02 1.134228e-02 1.592130e-02 -2.466501e-02 -1.521684e-01 -2.919794e-03 -8.837402e-03 -1.075567e-02 -3.133182e-02 -4.785257e-02 -2.529540e-02 -1.945497e-02 -2.024441e-03 4.985182e-03 9.845588e-04 3.381125e-04 -4.496549e-03 -1.699658e-02
<VARIANCE> 39
 5.939487e+00 8.624665e+00 7.555816e+00 1.355953e+01 1.784569e+01 2.035970e+01 1.802203e+01 2.092280e+01 1.907592e+01 1.806708e+01 1.636096e+01 1.510275e+01 3.013141e+01 1.871091e-01 4.440429e-01 3.388785e-01 6.352736e-01 8.063555e-01 9.373724e-01 8.553635e-01 9.000148e-01 8.537986e-01 8.385065e-01 7.786278e-01 6.786634e-01 4.624661e-01 2.813618e-02 7.758427e-02 6.488010e-02 1.045389e-01 1.398708e-01 1.578592e-01 1.548329e-01 1.613825e-01 1.537444e-01 1.531842e-01 1.416220e-01 1.274885e-01 4.293001e-02
<GCONST> 7.098599e+01
<STATE> 3
<MEAN> 39
 -4.948139e-01 -2.824055e-02 -1.414009e-01 4.789417e-01 3.857863e-01 4.997328e-01 2.465696e-01 4.516039e-01 6.740506e-02 3.751264e-01 1.488698e-01 3.437740e-01 1.655680e+00 -4.834422e-02 -2.522665e-02 -3.830466e-02 -3.179337e-02 -5.294162e-02 -1.788395e-02 -1.713378e-02 1.856726e-02 2.918136e-02 2.838310e-02 9.612041e-03 1.131391e-02 2.815032e-03 1.334590e-02 -1.094007e-03 -7.718696e-04 -1.920557e-02 -3.309045e-02 -1.823592e-02 -9.214179e-03 -4.244742e-03 -2.898362e-03 -6.548050e-03 -6.853780e-03 -3.638020e-03 -8.901282e-03
<VARIANCE> 39
 3.461200e+00 3.268847e+00 5.444383e+00 8.939424e+00 1.051612e+01 1.367285e+01 1.440491e+01 1.593634e+01 1.592673e+01 1.630444e+01 1.503784e+01 1.365640e+01 2.231905e+01 7.802480e-02 1.555929e-01 2.381738e-01 3.674135e-01 4.842445e-01 5.770106e-01 6.528304e-01 6.768487e-01 7.059014e-01 6.873549e-01 6.728993e-01 5.911371e-01 2.262758e-02 1.419820e-02 3.014573e-02 4.491924e-02 6.656962e-02 9.411677e-02 1.125525e-01 1.248862e-01 1.314384e-01 1.337721e-01 1.314808e-01 1.299386e-01 1.137344e-01 4.721685e-03
<GCONST> 5.217321e+01
<STATE> 4
<MEAN> 39
 -1.141040e+00 -2.791007e-02 -2.287391e-01 9.428101e-01 3.025532e-01 8.013875e-01 2.696799e-01 7.640215e-01 1.995844e-01 5.880790e-01 1.579174e-01 5.471955e-01 2.806432e+00 4.193982e-03 -8.199046e-03 -7.509979e-03 -1.805508e-02 -2.831193e-02 -1.965515e-02 -1.057350e-02 -2.360043e-03 1.247516e-03 -3.803025e-03 -1.005340e-02 -3.499544e-03 -2.797096e-03 7.578667e-03 3.643967e-04 2.670949e-03 -1.487043e-05 1.997935e-03 1.646208e-03 1.945701e-03 -2.523379e-03 -3.685271e-03 -4.749830e-03 -7.183655e-04 -1.446984e-03 -1.979083e-03
<VARIANCE> 39
 2.762223e+00 2.911625e+00 4.844642e+00 8.252181e+00 9.926047e+00 1.257898e+01 1.389013e+01 1.537965e+01 1.541821e+01 1.579179e+01 1.448974e+01 1.312545e+01 1.566145e+01 5.908012e-02 1.156679e-01 1.909521e-01 3.091223e-01 4.298363e-01 5.197111e-01 5.937769e-01 6.353390e-01 6.591508e-01 6.624546e-01 6.303888e-01 5.615198e-01 1.136644e-02 1.043468e-02 2.186448e-02 3.571048e-02 5.777922e-02 8.215945e-02 9.816782e-02 1.118180e-01 1.206810e-01 1.255330e-01 1.252722e-01 1.201191e-01 1.064589e-01 2.118670e-03
<GCONST> 4.613911e+01
<TRANSP> 5
 0.000000e+00 1.000000e+00 0.000000e+00 0.000000e+00 0.000000e+00
 0.000000e+00 2.539707e-01 7.460293e-01 0.000000e+00 0.000000e+00
 0.000000e+00 0.000000e+00 2.386980e-01 7.613020e-01 0.000000e+00
 0.000000e+00 0.000000e+00 0.000000e+00 8.856584e-01 1.143416e-01
 0.000000e+00 0.000000e+00 0.000000e+00 0.000000e+00 0.000000e+00
<ENDHMM>
~h "ow"
<BEGINHMM>
<NUMSTATES> 5
<STATE> 2
<MEAN> 39
 -1.089008e+00 -2.360500e-01 -3.331212e-01 7.627665e-01 1.853796e-01 9.110453e-01 3.964083e-01 9.648342e-01 1.823139e-01 7.088577e-01 1.893898e-01 6.632587e-01 3.930251e+00 6.159436e-02 -1.121186e-02 -7.763888e-03 -1.725957e-02 -3.886631e-03 -3.319774e-02 -3.494487e-02 -3.101425e-02 -3.041393e-02 -4.409129e-02 -1.989237e-02 -3.477673e-02 -6.657874e-03 2.879360e-02 7.692595e-03 8.403644e-03 -1.386151e-02 -4.371094e-03 -2.353351e-02 -1.668294e-02 -2.789556e-02 -1.427649e-02 -2.505500e-02 -1.227912e-02 -2.110292e-02 -1.468999e-02
<VARIANCE> 39
 3.553018e+00 3.045672e+00 4.922325e+00 8.904066e+00 1.043791e+01 1.341467e+01 1.427808e+01 1.601709e+01 1.555336e+01 1.607171e+01 1.458636e+01 1.328499e+01 4.066790e+01 1.141214e-01 1.408700e-01 2.417630e-01 3.821916e-01 4.771963e-01 5.851325e-01 6.675462e-01 7.253646e-01 7.194424e-01 7.294284e-01 6.715407e-01 6.084995e-01 4.969900e-02 2.050992e-02 2.762959e-02 4.674415e-02 7.202033e-02 9.157595e-02 1.146699e-01 1.291669e-01 1.393794e-01 1.389050e-01 1.412371e-01 1.280275e-01 1.119435e-01 2.099294e-02
<GCONST> 5.586900e+01
<STATE> 3
<MEAN> 39
 -4.603385e-01 -2.755501e-01 -3.600944e-01 3.436123e-01 9.802161e-02 4.602371e-01 3.341726e-01 5.757461e-01 1.239694e-02 3.273759e-01 6.276432e-02 3.666728e-01 1.762501e+00 9.661080e-02 -2.041713e-03 1.550238e-02 -3.176519e-02 4.241701e-03 -4.722658e-02 -6.408799e-02 -8.278951e-02 -6.134887e-02 -8.495735e-02 -6.169514e-02 -7.224778e-02 2.123493e-01 3.423846e-02 1.938534e-02 2.373177e-02 -1.200788e-02 -1.740996e-03 -3.015862e-02 -1.216484e-02 -3.410957e-02 -4.013991e-03 -1.805747e-02 -1.098000e-03 -1.906490e-02 -4.606872e-02
<VARIANCE> 39
 3.652841e+00 3.781132e+00 5.796118e+00 9.996930e+00 1.171687e+01 1.501952e+01 1.524042e+01 1.781878e+01 1.706326e+01 1.717859e+01 1.487832e+01 1.374594e+01 4.942186e+01 2.057516e-01 1.788002e-01 3.016073e-01 4.720675e-01 5.664965e-01 6.775831e-01 7.276927e-01 8.020864e-01 7.832072e-01 7.794667e-01 6.661537e-01 6.278787e-01 1.486002e+00 3.636502e-02 3.664241e-02 5.910807e-02 8.775639e-02 1.105092e-01 1.371913e-01 1.437642e-01 1.612689e-01 1.633831e-01 1.538251e-01 1.315217e-01 1.211494e-01 1.800359e-01
<GCONST> 6.694852e+01
<STATE> 4
<MEAN> 39
 2.028943e+00 -4.057865e-01 4.379267e-01 2.803586e-01 1.108291e+00 -3.068103e-01 -1.167525e-01 -1.001376e+00 -4.459001e-01 -5.568472e-01 -2.853259e-01 -7.189474e-01 -6.961262e-01 1.281771e-01 3.445067e-02 5.766471e-02 -9.721774e-02 -1.485561e-02 -1.531553e-01 -8.100656e-02 -1.616934e-01 -2.253664e-02 -8.117856e-02 -9.498675e-03 -8.944646e-02 -5.305648e-01 -3.898659e-02 3.092831e-03 -1.155250e-02 -4.145049e-03 -1.784317e-02 1.745814e-03 3.924326e-03 2.006901e-02 1.349688e-02 1.847360e-02 1.198703e-02 1.881873e-02 2.805855e-03
<VARIANCE> 39
 2.701743e+01 1.293750e+01 1.571556e+01 1.886413e+01 2.466268e+01 2.654186e+01 2.433799e+01 3.262658e+01 2.549751e+01 2.527296e+01 2.032095e+01 1.932331e+01 9.823773e+01 9.785599e-01 5.715585e-01 7.173142e-01 8.740547e-01 1.130928e+00 1.192717e+00 1.150549e+00 1.422818e+00 1.152061e+00 1.180007e+00 9.359075e-01 8.883644e-01 2.418134e+00 1.362839e-01 9.302032e-02 1.212733e-01 1.430075e-01 1.832879e-01 2.005809e-01 1.997429e-01 2.387968e-01 2.042670e-01 2.040128e-01 1.683991e-01 1.559480e-01 2.474940e-01
<GCONST> 9.118275e+01
<TRANSP> 5
 0.000000e+00 1.000000e+00 0.000000e+00 0.000000e+00 0.000000e+00
 0.000000e+00 3.960978e-01 6.039022e-01 0.000000e+00 0.000000e+00
 0.000000e+00 0.000000e+00 1.903147e-01 8.096853e-01 0.000000e+00
 0.000000e+00 0.000000e+00 0.000000e+00 7.472870e-01 2.527130e-01
 0.000000e+00 0.000000e+00 0.000000e+00 0.000000e+00 0.000000e+00
<ENDHMM>
~h "sp"
<BEGINHMM>
<NUMSTATES> 3
<STATE> 2
~s "silst"
<TRANSP> 3
 0.000000e+00 7.000000e-01 3.000000e-01
 0.000000e+00 5.000000e-01 5.000000e-01
 0.000000e+00 0.000000e+00 0.000000e+00
<ENDHMM>
~h "th"
<BEGINHMM>
<NUMSTATES> 5
<STATE> 2
<MEAN> 39
 1.779469e+00 5.297285e-01 5.306025e-01 -1.640985e+00 -3.288869e-01 -1.946304e+00 -6.127108e-01 -1.558740e+00 -2.848492e-01 -1.005182e+00 -2.866174e-01 -9.523822e-01 -5.843173e+00 5.450322e-02 5.536766e-02 3.274409e-02 -1.090468e-01 9.227639e-03 -1.264347e-01 -4.839513e-03 -5.177671e-02 4.352297e-02 -4.054482e-02 3.163966e-02 -3.980491e-02 -3.091446e-01 -6.212395e-02 -1.266154e-02 -1.638522e-02 4.791089e-02 2.263183e-02 7.110726e-02 3.264142e-02 5.329539e-02 2.120582e-02 4.321935e-02 1.030819e-02 3.435064e-02 1.590773e-01
<VARIANCE> 39
 1.529564e+01 1.642055e+01 1.371116e+01 2.044435e+01 2.396450e+01 2.634214e+01 2.253267e+01 2.649946e+01 2.396652e+01 2.246695e+01 1.804564e+01 1.693675e+01 1.012266e+02 8.432734e-01 9.110860e-01 7.369807e-01 9.953357e-01 1.153806e+00 1.356157e+00 1.072140e+00 1.352869e+00 1.142417e+00 1.090299e+00 8.700281e-01 7.977137e-01 3.800378e+00 1.340878e-01 1.613424e-01 1.314642e-01 1.745789e-01 2.003577e-01 2.404492e-01 1.918364e-01 2.338239e-01 2.036469e-01 1.928610e-01 1.603956e-01 1.476444e-01 5.190974e-01
<GCONST> 9.236218e+01
<STATE> 3
<MEAN> 39
 -5.678761e-01 1.216046e-01 7.813568e-02 -5.492483e-01 1.580717e-01 -3.550860e-02 3.413588e-01 2.933895e-01 2.425133e-01 3.380038e-01 1.354578e-01 9.909610e-02 3.728185e+00 -1.432966e-01 -4.313336e-02 -1.239521e-02 2.620581e-01 1.252300e-01 3.079728e-01 8.749343e-02 2.004556e-01 1.090751e-02 1.697710e-01 2.495134e-02 1.115094e-01 8.026913e-01 1.352561e-02 2.856669e-04 1.121407e-02 4.602649e-02 2.169822e-02 1.992656e-02 -3.277070e-04 -2.007645e-03 -1.960738e-02 -1.852913e-02 2.118977e-04 -3.319495e-03 -1.025953e-01
<VARIANCE> 39
 9.958000e+00 9.512770e+00 1.355113e+01 2.199395e+01 1.814959e+01 2.296868e+01 1.987603e+01 2.359228e+01 2.112039e+01 2.266178e+01 1.822970e+01 1.725830e+01 7.267345e+01 5.092281e-01 5.084796e-01 7.691202e-01 1.111271e+00 9.087032e-01 1.165781e+00 9.276464e-01 1.139279e+00 1.048813e+00 1.087384e+00 8.673129e-01 8.197323e-01 4.289114e+00 7.399077e-02 8.998910e-02 1.492506e-01 1.820064e-01 1.695133e-01 2.017871e-01 1.739029e-01 2.008618e-01 1.887237e-01 2.022856e-01 1.648430e-01 1.502811e-01 4.066367e-01
<GCONST> 8.695718e+01
<STATE> 4
<MEAN> 39
 -7.962713e-01 -2.034010e-01 -2.683511e-01 7.915918e-01 3.415017e-01 8.837084e-01 4.772025e-01 9.369938e-01 3.763573e-01 8.734858e-01 2.573756e-01 5.844867e-01 3.175188e+00 -1.765161e-01 -6.631882e-02 -2.626731e-02 3.396572e-01 1.679006e-01 3.026369e-01 1.505266e-01 1.889225e-01 3.413400e-02 7.765701e-02 7.549202e-02 1.268995e-01 2.134537e-01 4.726158e-02 2.302517e-02 3.108160e-02 -8.847610e-02 -2.319976e-02 -8.389454e-02 -2.607790e-02 -7.671309e-02 -2.780089e-02 -7.158085e-02 -2.353011e-02 -5.188631e-02 -1.395580e-01
<VARIANCE> 39
 4.540494e+00 4.000617e+00 6.462662e+00 1.162420e+01 1.164001e+01 1.547498e+01 1.526884e+01 1.805799e+01 1.669656e+01 1.691756e+01 1.539486e+01 1.359679e+01 3.521963e+01 1.671291e-01 2.085544e-01 3.551457e-01 6.129377e-01 5.806031e-01 7.361431e-01 7.412338e-01 8.159821e-01 7.928960e-01 7.837521e-01 7.233847e-01 6.048546e-01 2.569566e-01 2.808672e-02 4.094225e-02 6.714621e-02 1.183575e-01 1.134328e-01 1.358596e-01 1.341757e-01 1.527216e-01 1.517072e-01 1.545164e-01 1.361272e-01 1.193031e-01 7.692816e-02
<GCONST> 6.526089e+01
<TRANSP> 5
 0.000000e+00 1.000000e+00 0.000000e+00 0.000000e+00 0.000000e+00
 0.000000e+00 7.573649e-01 2.426351e-01 0.000000e+00 0.000000e+00
 0.000000e+00 0.000000e+00 6.983415e-01 3.016585e-01 0.000000e+00
 0.000000e+00 0.000000e+00 0.000000e+00 3.208964e-01 6.791036e-01
 0.000000e+00 0.000000e+00 0.000000e+00 0.000000e+00 0.000000e+00
<ENDHMM>
~h "uw"
<BEGINHMM>
<NUMSTATES> 5
<STATE> 2
<MEAN> 39
 -1.147289e-01 -1.186303e-01 1.547307e-02 4.967284e-01 5.940443e-01 4.197989e-01 2.941076e-01 4.315048e-01 6.868666e-02 2.873595e-01 4.372994e-02 1.559019e-01 9.237188e-01 -8.337344e-02 8.363338e-03 1.954242e-02 1.835788e-01 9.099880e-02 1.561796e-01 7.207584e-02 2.413824e-02 -5.259567e-02 -3.582311e-02 -5.425357e-02 1.571516e-02 3.794541e-02 3.447969e-02 2.146099e-02 4.145980e-03 -8.456305e-02 -7.438601e-02 -7.888623e-02 -4.303382e-02 -5.375198e-02 -1.672608e-02 -4.574454e-02 -1.325838e-02 -3.508143e-02 -4.467684e-02
<VARIANCE> 39
 6.253488e+00 4.179115e+00 6.365609e+00 1.065957e+01 1.180576e+01 1.516401e+01 1.545823e+01 1.729119e+01 1.693920e+01 1.665858e+01 1.525825e+01 1.403243e+01 3.257998e+01 1.514412e-01 2.196891e-01 3.288207e-01 5.283115e-01 5.846888e-01 6.981279e-01 7.274643e-01 8.530149e-01 8.028140e-01 8.279803e-01 7.377145e-01 6.706234e-01 1.203583e-01 2.598059e-02 3.911180e-02 5.775390e-02 1.021548e-01 1.094240e-01 1.255667e-01 1.376967e-01 1.475597e-01 1.553356e-01 1.482631e-01 1.365408e-01 1.232329e-01 2.931167e-02
<GCONST> 6.307661e+01
<STATE> 3
<MEAN> 39
 -1.349336e-01 -4.723386e-02 4.848807e-02 6.567449e-01 7.005705e-01 5.115504e-01 7.954115e-02 2.262134e-01 -1.821407e-01 7.135142e-02 -1.034943e-01 2.954537e-02 9.769774e-01 -3.681128e-02 2.861056e-02 2.695976e-03 1.736149e-02 -5.480123e-02 1.356148e-02 -5.511585e-03 -4.917841e-02 -6.563113e-02 -8.280797e-02 -6.422882e-02 -2.725796e-02 -8.196086e-04 2.620758e-02 6.869162e-03 -1.378038e-02 -8.549246e-02 -8.267810e-02 -7.864402e-02 -3.742044e-02 -2.436321e-02 3.581804e-03 -7.340606e-03 2.592488e-03 -1.035389e-02 -1.433611e-02
<VARIANCE> 39
 6.134942e+00 3.984617e+00 6.621057e+00 1.044842e+01 1.160342e+01 1.521413e+01 1.516140e+01 1.873332e+01 1.714608e+01 1.663329e+01 1.570504e+01 1.410206e+01 3.367323e+01 1.145803e-01 1.827018e-01 2.798488e-01 4.552963e-01 5.207807e-01 6.173017e-01 6.902902e-01 8.022321e-01 7.599780e-01 7.866594e-01 6.861790e-01 6.121968e-01 7.164150e-02 2.177826e-02 3.290775e-02 5.251136e-02 8.707619e-02 1.027887e-01 1.223744e-01 1.357401e-01 1.429307e-01 1.463016e-01 1.413426e-01 1.354396e-01 1.204681e-01 1.118106e-02
<GCONST> 5.939824e+01
<STATE> 4
<MEAN> 39
 -1.361090e+00 -2.920887e-01 -3.887806e-01 1.246430e+00 4.546834e-01 1.144391e+00 2.936232e-01 9.681368e-01 -6.950989e-02 5.963893e-01 1.060129e-01 6.136684e-01 4.943889e+00 1.873278e-02 1.375330e-03 -3.054110e-03 -5.910396e-02 -7.704181e-02 -3.902700e-02 -2.077174e-02 -4.541227e-02 -1.525765e-02 -2.515015e-02 -2.627164e-02 -1.708998e-02 -2.531758e-02 1.927020e-02 2.047628e-03 -1.083636e-04 -2.099049e-02 -1.049747e-02 -1.776053e-02 -2.340746e-03 3.261639e-03 6.550832e-03 6.405386e-03 7.942975e-03 2.717911e-04 -9.833338e-03
<VARIANCE> 39
 6.478936e+00 4.033352e+00 6.321647e+00 1.088725e+01 1.170695e+01 1.568729e+01 1.537975e+01 1.867150e+01 1.665016e+01 1.749710e+01 1.559588e+01 1.431900e+01 3.648799e+01 1.271207e-01 1.511330e-01 2.471472e-01 4.284299e-01 5.141603e-01 6.297708e-01 6.674207e-01 7.462979e-01 7.242274e-01 7.337257e-01 6.636624e-01 5.980607e-01 5.478723e-02 2.202614e-02 2.768495e-02 4.818344e-02 7.784392e-02 9.688739e-02 1.198345e-01 1.264861e-01 1.471865e-01 1.379066e-01 1.404979e-01 1.274399e-01 1.155601e-01 8.896206e-03
<GCONST> 5.793061e+01
<TRANSP> 5
 0.000000e+00 1.000000e+00 0.000000e+00 0.000000e+00 0.000000e+00
 0.000000e+00 1.080053e-01 8.919947e-01 0.000000e+00 0.000000e+00
 0.000000e+00 0.000000e+00 1.410454e-01 8.589546e-01 0.000000e+00
 0.000000e+00 0.000000e+00 0.000000e+00 6.796941e-01 3.203059e-01
 0.000000e+00 0.000000e+00 0.000000e+00 0.000000e+00 0.000000e+00
<ENDHMM>
~h "sil"
<BEGINHMM>
<NUMSTATES> 5
<STATE> 2
<MEAN> 39
 4.836512e-02 7.736348e-03 8.713439e-03 -2.375913e-02 -1.378003e-02 -2.825668e-02 -4.069281e-02 -4.821080e-02 -2.719027e-02 -2.804659e-02 -1.260819e-02 -2.890936e-02 -1.154153e-01 5.486569e-04 6.141700e-04 -1.645912e-03 -3.229196e-03 -4.675947e-03 -3.956726e-03 -1.504817e-03 5.247681e-04 -5.228963e-04 -8.168258e-05 2.601068e-05 5.261106e-05 -2.182074e-03 1.612025e-04 1.471064e-04 1.003043e-04 5.105161e-05 1.494356e-04 2.244995e-04 8.568612e-04 3.717232e-04 6.920941e-04 5.100651e-04 3.598926e-04 1.524761e-04 -6.260828e-05
<VARIANCE> 39
 1.497716e+00 2.730670e+00 4.716782e+00 7.524148e+00 9.521790e+00 1.179535e+01 1.336045e+01 1.460329e+01 1.502042e+01 1.477083e+01 1.369453e+01 1.248941e+01 2.314226e+00 5.206849e-02 1.145686e-01 2.015649e-01 3.097543e-01 4.101122e-01 4.990899e-01 5.720525e-01 6.261691e-01 6.497958e-01 6.338831e-01 5.862014e-01 5.349970e-01 1.132680e-02 9.037666e-03 2.061333e-02 3.651057e-02 5.552571e-02 7.453571e-02 9.041349e-02 1.044461e-01 1.137858e-01 1.180567e-01 1.147994e-01 1.063812e-01 9.716775e-02 1.721173e-03
<GCONST> 4.153774e+01
<STATE> 3
~s "silst"
<STATE> 4
<MEAN> 39
 2.481469e+00 4.289557e-01 1.737923e-01 -1.821873e+00 -1.143481e+00 -1.846318e+00 -7.185303e-01 -1.440976e+00 -4.510976e-01 -1.165175e+00 -3.569459e-01 -9.348423e-01 -1.081636e+01 -2.458366e-02 4.549389e-02 -1.671917e-02 1.554302e-02 -8.747958e-03 -9.660782e-03 3.455292e-02 5.512748e-02 1.435996e-02 1.102426e-02 1.835684e-02 2.678495e-02 -1.094735e-01 -5.519734e-03 -4.430472e-03 6.134553e-03 9.306567e-03 1.319487e-02 1.165457e-02 4.665243e-03 3.296501e-03 4.291860e-03 5.354207e-03 2.673996e-03 3.023941e-03 1.886429e-02
<VARIANCE> 39
 9.431829e+00 8.768672e+00 8.957548e+00 1.533389e+01 1.405789e+01 1.708229e+01 1.710376e+01 2.004640e+01 1.770784e+01 1.763461e+01 1.506581e+01 1.448088e+01 7.160467e+01 1.723969e-01 2.476879e-01 3.168264e-01 5.222306e-01 5.620415e-01 7.052477e-01 7.361712e-01 8.343588e-01 7.906094e-01 7.806244e-01 6.943532e-01 6.384020e-01 2.091736e-01 2.413001e-02 3.572631e-02 4.822730e-02 7.664781e-02 8.479188e-02 1.043738e-01 1.100624e-01 1.230358e-01 1.198544e-01 1.166538e-01 1.054020e-01 9.586357e-02 2.312201e-02
<GCONST> 6.419015e+01
<TRANSP> 5
 0.000000e+00 1.000000e+00 0.000000e+00 0.000000e+00 0.000000e+00
 0.000000e+00 7.733850e-01 2.661495e-02 2.000000e-01 0.000000e+00
 0.000000e+00 0.000000e+00 8.023986e-01 1.976014e-01 0.000000e+00
 0.000000e+00 2.000000e-01 0.000000e+00 6.155230e-01 1.844770e-01
 0.000000e+00 0.000000e+00 0.000000e+00 0.000000e+00 0.000000e+00
<ENDHMM>
