~o
<STREAMINFO> 1 39
<VECSIZE> 39<NULLD><MFCC_D_A_Z_0><DIAGC>
~v "varFloor1"
<VARIANCE> 39
 5.653673e-02 4.886588e-02 6.880558e-02 1.097444e-01 1.173968e-01 1.501360e-01 1.524483e-01 1.769248e-01 1.673871e-01 1.699316e-01 1.501835e-01 1.395998e-01 3.516366e-01 1.948883e-03 2.195148e-03 3.084339e-03 4.548327e-03 5.169705e-03 6.475277e-03 6.752422e-03 7.581503e-03 7.468139e-03 7.484302e-03 6.703977e-03 6.097627e-03 6.117719e-03 3.081363e-04 3.835776e-04 5.522510e-04 7.938185e-04 9.348416e-04 1.158605e-03 1.234846e-03 1.362727e-03 1.366371e-03 1.361924e-03 1.233620e-03 1.112660e-03 7.270522e-04
~s "silst"
<NUMMIXES> 4
<MIXTURE> 1 2.519454e-01
<MEAN> 39
 7.945700e-01 1.507925e-01 9.131360e-02 -1.920782e-01 1.092652e-01 3.645870e-01 7.614583e-01 8.799455e-01 9.010801e-01 1.017963e+00 9.261275e-01 8.294503e-01 -5.059955e-02 7.097647e-02 1.370538e-01 1.738785e-01 2.991506e-01 2.371869e-01 3.042907e-01 2.774717e-01 3.171341e-01 3.035085e-01 3.123876e-01 2.815976e-01 2.417114e-01 7.456522e-02 3.049485e-02 5.257638e-02 8.072675e-02 1.244899e-01 1.133806e-01 1.108319e-01 9.014771e-02 9.006980e-02 8.008964e-02 7.365758e-02 7.650930e-02 6.189111e-02 2.609127e-02
<VARIANCE> 39
 3.173523e+00 3.468023e+00 5.577969e+00 1.249326e+01 1.121614e+01 1.449875e+01 1.504464e+01 1.662295e+01 1.693777e+01 1.649564e+01 1.524724e+01 1.321019e+01 1.020645e+00 1.320021e-01 1.489536e-01 2.462617e-01 5.060816e-01 5.080692e-01 6.333925e-01 6.577365e-01 7.495825e-01 7.578456e-01 7.410419e-01 6.933330e-01 5.894894e-01 3.339945e-02 2.324150e-02 2.797743e-02 4.798602e-02 9.948435e-02 9.797176e-02 1.241966e-01 1.293108e-01 1.454656e-01 1.482046e-01 1.425932e-01 1.334316e-01 1.127003e-01 6.136287e-03
<GCONST> 5.295517e+01
<MIXTURE> 2 2.480312e-01
<MEAN> 39
 1.106650e+00 1.534647e-01 1.430065e-01 -6.334718e-01 2.374452e-02 -1.044131e-01 3.658113e-01 4.776136e-01 5.369543e-01 5.326303e-01 6.009607e-01 2.975276e-01 -1.763764e-01 1.269664e-01 -2.095485e-02 -4.870705e-02 -2.325469e-01 -8.426349e-02 -1.607131e-01 -2.068426e-02 -3.318490e-02 1.400295e-02 -3.265038e-03 5.176728e-02 3.326481e-02 -5.547987e-02 1.416543e-02 2.061044e-02 3.373440e-02 5.917077e-02 6.331731e-02 6.681990e-02 6.932662e-02 5.776815e-02 6.256118e-02 5.686969e-02 5.988698e-02 6.781504e-02 8.928591e-03
<VARIANCE> 39
 2.765328e+00 3.935524e+00 5.645020e+00 1.485837e+01 1.165115e+01 1.603731e+01 1.470294e+01 1.648887e+01 1.619106e+01 1.613431e+01 1.491400e+01 1.360935e+01 1.159972e+00 1.276998e-01 1.603572e-01 2.551535e-01 5.195733e-01 5.190145e-01 6.457475e-01 6.609027e-01 7.410738e-01 7.534748e-01 7.274228e-01 6.756780e-01 6.135401e-01 3.761005e-02 2.048415e-02 2.991892e-02 4.739022e-02 1.042647e-01 9.865698e-02 1.272789e-01 1.252488e-01 1.389320e-01 1.384592e-01 1.396196e-01 1.253286e-01 1.116786e-01 6.311123e-03
<GCONST> 5.334666e+01
<MIXTURE> 3 2.519454e-01
<MEAN> 39
 8.199462e-02 -5.941127e-01 -8.533954e-01 -1.605911e+00 -1.230355e+00 -1.158502e+00 -7.900385e-01 -7.509046e-01 -7.451408e-01 -6.066300e-01 -6.357811e-01 -6.243827e-01 -4.547075e-01 -7.435191e-02 -1.732421e-02 -2.462060e-02 1.459298e-02 -4.792898e-02 -1.405312e-02 -4.693211e-02 -2.917968e-02 -4.470876e-02 -3.194758e-02 -5.146895e-02 -6.540148e-02 1.463152e-03 -3.048581e-02 -1.432944e-02 -6.896093e-03 -1.674689e-03 -1.182119e-02 -3.013426e-02 -5.369153e-02 -6.249002e-02 -7.389976e-02 -7.738849e-02 -6.960386e-02 -7.239237e-02 -5.242511e-03
<VARIANCE> 39
 3.173523e+00 3.468023e+00 5.577969e+00 1.249326e+01 1.121614e+01 1.449875e+01 1.504464e+01 1.662295e+01 1.693777e+01 1.649564e+01 1.524724e+01 1.321019e+01 1.020645e+00 1.320021e-01 1.489536e-01 2.462617e-01 5.060816e-01 5.080692e-01 6.333925e-01 6.577365e-01 7.495825e-01 7.578456e-01 7.410419e-01 6.933330e-01 5.894894e-01 3.339945e-02 2.324150e-02 2.797743e-02 4.798602e-02 9.948435e-02 9.797176e-02 1.241966e-01 1.293108e-01 1.454656e-01 1.482046e-01 1.425932e-01 1.334316e-01 1.127003e-01 6.136287e-03
<GCONST> 5.295517e+01
<MIXTURE> 4 2.480312e-01
<MEAN> 39
 4.414792e-01 -6.400615e-01 -8.073635e-01 -2.175334e+00 -1.341607e+00 -1.706278e+00 -1.167965e+00 -1.146646e+00 -1.072570e+00 -1.074071e+00 -9.437853e-01 -1.178106e+00 -6.071844e-01 -1.597400e-02 -1.811334e-01 -2.507579e-01 -5.208727e-01 -3.724341e-01 -4.821467e-01 -3.458679e-01 -3.775275e-01 -3.332087e-01 -3.444214e-01 -2.770313e-01 -2.800504e-01 -1.330531e-01 -4.308371e-02 -4.857790e-02 -5.334277e-02 -6.998941e-02 -6.232153e-02 -7.588477e-02 -7.223541e-02 -9.132619e-02 -8.627924e-02 -9.259315e-02 -8.172014e-02 -6.585836e-02 -2.284844e-02
<VARIANCE> 39
 2.765328e+00 3.935524e+00 5.645020e+00 1.485837e+01 1.165115e+01 1.603731e+01 1.470294e+01 1.648887e+01 1.619106e+01 1.613431e+01 1.491400e+01 1.360935e+01 1.159972e+00 1.276998e-01 1.603572e-01 2.551535e-01 5.195733e-01 5.190145e-01 6.457475e-01 6.609027e-01 7.410738e-01 7.534748e-01 7.274228e-01 6.756780e-01 6.135401e-01 3.761005e-02 2.048415e-02 2.991892e-02 4.739022e-02 1.042647e-01 9.865698e-02 1.272789e-01 1.252488e-01 1.389320e-01 1.384592e-01 1.396196e-01 1.253286e-01 1.116786e-01 6.311123e-03
<GCONST> 5.334666e+01
~h "f"
<BEGINHMM>
<NUMSTATES> 5
<STATE> 2
<NUMMIXES> 4
<MIXTURE> 1 2.971274e-01
<MEAN> 39
 4.547036e-01 3.398968e-01 2.182539e-01 -6.297876e-01 -5.840713e-01 -9.581307e-01 -1.608495e-01 -1.486163e-01 9.179521e-02 -9.185511e-02 3.006011e-01 3.377631e-01 -2.708892e-01 4.022979e-02 9.063899e-02 1.195200e-01 2.532480e-01 2.846094e-01 3.120953e-01 2.933030e-01 3.076621e-01 2.723615e-01 2.997069e-01 2.642183e-01 2.727638e-01 1.087117e-01 1.518397e-02 2.918904e-02 8.250958e-02 1.752917e-01 2.027330e-01 2.451878e-01 2.064392e-01 2.142080e-01 2.012902e-01 1.863974e-01 1.409391e-01 1.226487e-01 7.295481e-02
<VARIANCE> 39
 3.313514e+00 4.036880e+00 5.534916e+00 1.029522e+01 9.881521e+00 1.401066e+01 1.334301e+01 1.587773e+01 1.569193e+01 1.521388e+01 1.363169e+01 1.282126e+01 4.380062e+01 1.346944e-01 1.581787e-01 2.503656e-01 3.924361e-01 4.324251e-01 5.278484e-01 5.596095e-01 6.571890e-01 6.624531e-01 6.532923e-01 6.237439e-01 5.580669e-01 1.063678e-01 2.762952e-02 3.589812e-02 5.500953e-02 8.670870e-02 9.013867e-02 1.165817e-01 1.191817e-01 1.408331e-01 1.430638e-01 1.288528e-01 1.161505e-01 1.110755e-01 3.779776e-02
<GCONST> 5.771436e+01
<MIXTURE> 2 2.028769e-01
<MEAN> 39
 5.987406e-01 -2.437568e-01 4.486126e-01 -1.959669e+00 -1.046401e+00 -2.258416e+00 2.417579e-01 -6.341527e-01 6.544680e-01 -6.760226e-01 7.438090e-01 -2.741485e-01 -5.802752e+00 -1.703556e-02 -3.868806e-02 1.177404e-01 -4.796091e-02 6.720390e-02 -8.563717e-02 1.108443e-01 -7.226124e-03 9.979460e-02 -3.846437e-03 1.396026e-01 7.043543e-02 1.682734e-01 6.328210e-02 6.890747e-02 8.242095e-02 1.602780e-01 1.379206e-01 1.748280e-01 1.035630e-01 1.107783e-01 7.120331e-02 9.469575e-02 6.494980e-02 8.708587e-02 2.063709e-01
<VARIANCE> 39
 9.056004e+00 8.758264e+00 8.479409e+00 1.345368e+01 1.179202e+01 1.676519e+01 1.563944e+01 1.841184e+01 1.720234e+01 1.688747e+01 1.478606e+01 1.428241e+01 9.668330e+01 3.618957e-01 3.437884e-01 4.156827e-01 5.837158e-01 5.504079e-01 7.476630e-01 6.803840e-01 8.241314e-01 7.734997e-01 7.390037e-01 6.972387e-01 6.151714e-01 8.064412e-01 6.070516e-02 6.718059e-02 7.512829e-02 1.174792e-01 1.010156e-01 1.434965e-01 1.297803e-01 1.609315e-01 1.433180e-01 1.349882e-01 1.274342e-01 1.195986e-01 1.379008e-01
<GCONST> 7.230019e+01
<MIXTURE> 3 2.971274e-01
<MEAN> 39
 -2.734188e-01 -4.637827e-01 -7.228022e-01 -1.913234e+00 -1.841467e+00 -2.455363e+00 -1.621973e+00 -1.742491e+00 -1.492726e+00 -1.652054e+00 -1.176244e+00 -1.094508e+00 -2.918171e+00 -1.065731e-01 -6.844776e-02 -8.062620e-02 2.669156e-03 2.157322e-02 2.148254e-02 -5.925193e-03 -1.660669e-02 -5.320345e-02 -2.359910e-02 -5.169152e-02 -2.605176e-02 -2.174462e-02 -5.130455e-02 -4.659816e-02 -1.130687e-02 5.750632e-02 8.264060e-02 1.086116e-01 6.834839e-02 6.409702e-02 4.999504e-02 4.281315e-02 4.615679e-03 -1.066327e-02 -4.811771e-03
<VARIANCE> 39
 3.313514e+00 4.036880e+00 5.534916e+00 1.029522e+01 9.881521e+00 1.401066e+01 1.334301e+01 1.587773e+01 1.569193e+01 1.521388e+01 1.363169e+01 1.282126e+01 4.380062e+01 1.346944e-01 1.581787e-01 2.503656e-01 3.924361e-01 4.324251e-01 5.278484e-01 5.596095e-01 6.571890e-01 6.624531e-01 6.532923e-01 6.237439e-01 5.580669e-01 1.063678e-01 2.762952e-02 3.589812e-02 5.500953e-02 8.670870e-02 9.013867e-02 1.165817e-01 1.191817e-01 1.408331e-01 1.430638e-01 1.288528e-01 1.161505e-01 1.110755e-01 3.779776e-02
<GCONST> 5.771436e+01
<MIXTURE> 4 2.028769e-01
<MEAN> 39
 -6.049873e-01 -1.427531e+00 -7.161644e-01 -3.426839e+00 -2.419981e+00 -3.896228e+00 -1.340111e+00 -2.350513e+00 -1.004560e+00 -2.319798e+00 -7.942968e-01 -1.785831e+00 -9.735859e+00 -2.576666e-01 -2.732219e-01 -1.401534e-01 -3.535661e-01 -2.295540e-01 -4.315072e-01 -2.190973e-01 -3.703529e-01 -2.520007e-01 -3.477077e-01 -1.944007e-01 -2.432960e-01 -1.909349e-01 -3.527157e-02 -3.476941e-02 -2.721721e-02 2.317704e-02 1.078880e-02 2.330425e-02 -4.053713e-02 -4.968674e-02 -8.022615e-02 -5.226722e-02 -7.784191e-02 -5.124626e-02 5.783090e-02
<VARIANCE> 39
 9.056004e+00 8.758264e+00 8.479409e+00 1.345368e+01 1.179202e+01 1.676519e+01 1.563944e+01 1.841184e+01 1.720234e+01 1.688747e+01 1.478606e+01 1.428241e+01 9.668330e+01 3.618957e-01 3.437884e-01 4.156827e-01 5.837158e-01 5.504079e-01 7.476630e-01 6.803840e-01 8.241314e-01 7.734997e-01 7.390037e-01 6.972387e-01 6.151714e-01 8.064412e-01 6.070516e-02 6.718059e-02 7.512829e-02 1.174792e-01 1.010156e-01 1.434965e-01 1.297803e-01 1.609315e-01 1.433180e-01 1.349882e-01 1.274342e-01 1.195986e-01 1.379008e-01
<GCONST> 7.230019e+01
<STATE> 3
<NUMMIXES> 4
<MIXTURE> 1 2.661032e-01
<MEAN> 39
 -9.950620e-02 -2.611943e-01 6.194863e-01 1.747305e-01 4.920728e-01 -4.095629e-01 8.986555e-01 5.801027e-01 9.426196e-01 4.397674e-01 1.116178e+00 5.271693e-01 2.278907e+00 1.674652e-01 3.589963e-01 1.729134e-02 8.081573e-01 4.988742e-01 9.678829e-01 3.418328e-01 7.598572e-01 2.807714e-01 6.554712e-01 2.022363e-01 5.374359e-01 1.583928e+00 -2.577588e-03 6.573020e-02 6.001830e-02 8.416588e-02 8.713832e-02 1.380489e-01 1.110076e-01 1.231181e-01 1.172158e-01 1.097782e-01 9.415001e-02 8.523709e-02 8.225227e-02
<VARIANCE> 39
 9.196274e+00 8.750364e+00 7.851756e+00 1.563696e+01 1.334669e+01 2.135480e+01 1.646390e+01 2.033642e+01 1.712111e+01 1.831357e+01 1.511588e+01 1.438143e+01 5.546048e+01 5.852740e-01 4.203677e-01 4.249276e-01 6.924137e-01 5.625005e-01 8.553892e-01 7.407966e-01 8.411335e-01 8.247407e-01 7.874075e-01 6.922111e-01 6.308228e-01 2.383171e+00 9.089591e-02 7.118036e-02 7.009657e-02 1.314895e-01 1.118682e-01 1.767589e-01 1.345545e-01 1.687883e-01 1.480278e-01 1.563448e-01 1.268057e-01 1.215639e-01 2.979016e-01
<GCONST> 7.667970e+01
<MIXTURE> 2 2.338901e-01
<MEAN> 39
 4.030701e-01 -1.157522e-04 1.493936e+00 -9.895345e-01 -1.687140e-01 -1.563552e+00 9.402964e-01 -5.081077e-01 9.072877e-01 -4.212152e-01 1.099709e+00 -2.094027e-01 -3.108184e+00 1.918033e-03 1.808457e-02 1.845316e-01 5.164635e-02 1.145010e-01 1.627894e-02 1.592018e-01 5.664663e-02 1.604958e-01 6.907746e-02 1.928360e-01 5.769047e-02 7.206906e-01 8.630590e-02 7.241911e-02 3.389212e-02 1.261515e-01 8.974469e-02 1.357831e-01 7.791946e-02 1.305050e-01 8.750322e-02 1.073128e-01 6.920876e-02 9.652122e-02 2.326909e-01
<VARIANCE> 39
 1.724696e+01 1.533922e+01 1.434272e+01 1.951212e+01 1.742190e+01 2.407871e+01 2.088349e+01 2.342842e+01 2.113728e+01 2.078698e+01 1.844539e+01 1.669251e+01 8.594568e+01 8.808933e-01 7.363576e-01 7.551035e-01 9.270786e-01 7.967116e-01 1.085556e+00 9.522901e-01 1.082526e+00 9.614818e-01 9.045671e-01 8.413560e-01 7.291006e-01 3.559313e+00 1.563449e-01 1.353027e-01 1.340223e-01 1.805277e-01 1.477975e-01 2.113613e-01 1.803990e-01 2.093453e-01 1.808789e-01 1.736143e-01 1.586115e-01 1.425630e-01 4.505542e-01
<GCONST> 8.876006e+01
<MIXTURE> 3 2.661032e-01
<MEAN> 39
 -1.312521e+00 -1.444435e+00 -5.013531e-01 -1.407013e+00 -9.692522e-01 -2.258013e+00 -7.243737e-01 -1.223734e+00 -7.124870e-01 -1.272007e+00 -4.389876e-01 -9.897449e-01 -6.999653e-01 -1.385476e-01 9.965326e-02 -2.434545e-01 4.753117e-01 1.988740e-01 5.979339e-01 -2.445400e-03 3.930038e-01 -8.248952e-02 3.005272e-01 -1.305606e-01 2.197385e-01 9.664275e-01 -1.231734e-01 -4.098840e-02 -4.588473e-02 -6.088004e-02 -4.664849e-02 -3.012195e-02 -3.571911e-02 -4.121730e-02 -3.668170e-02 -4.838362e-02 -4.828915e-02 -5.422698e-02 -1.360692e-01
<VARIANCE> 39
 9.196274e+00 8.750364e+00 7.851756e+00 1.563696e+01 1.334669e+01 2.135480e+01 1.646390e+01 2.033642e+01 1.712111e+01 1.831357e+01 1.511588e+01 1.438143e+01 5.546048e+01 5.852740e-01 4.203677e-01 4.249276e-01 6.924137e-01 5.625005e-01 8.553892e-01 7.407966e-01 8.411335e-01 8.247407e-01 7.874075e-01 6.922111e-01 6.308228e-01 2.383171e+00 9.089591e-02 7.118036e-02 7.009657e-02 1.314895e-01 1.118682e-01 1.767589e-01 1.345545e-01 1.687883e-01 1.480278e-01 1.563448e-01 1.268057e-01 1.215639e-01 2.979016e-01
<GCONST> 7.667970e+01
<MIXTURE> 4 2.338901e-01
<MEAN> 39
 -1.258108e+00 -1.566728e+00 -2.093565e-02 -2.756435e+00 -1.838296e+00 -3.526354e+00 -8.876419e-01 -2.444224e+00 -9.317243e-01 -2.244925e+00 -6.182144e-01 -1.843661e+00 -6.816460e+00 -3.735057e-01 -3.251606e-01 -1.630552e-01 -3.334934e-01 -2.425339e-01 -4.004812e-01 -2.311396e-01 -3.595314e-01 -2.317250e-01 -3.113575e-01 -1.740658e-01 -2.838591e-01 -3.395507e-02 -7.185599e-02 -7.471496e-02 -1.125441e-01 -4.380275e-02 -6.403307e-02 -4.811307e-02 -9.197416e-02 -5.251205e-02 -8.261622e-02 -5.935535e-02 -9.009549e-02 -5.450884e-02 -3.580240e-02
<VARIANCE> 39
 1.724696e+01 1.533922e+01 1.434272e+01 1.951212e+01 1.742190e+01 2.407871e+01 2.088349e+01 2.342842e+01 2.113728e+01 2.078698e+01 1.844539e+01 1.669251e+01 8.594568e+01 8.808933e-01 7.363576e-01 7.551035e-01 9.270786e-01 7.967116e-01 1.085556e+00 9.522901e-01 1.082526e+00 9.614818e-01 9.045671e-01 8.413560e-01 7.291006e-01 3.559313e+00 1.563449e-01 1.353027e-01 1.340223e-01 1.805277e-01 1.477975e-01 2.113613e-01 1.803990e-01 2.093453e-01 1.808789e-01 1.736143e-01 1.586115e-01 1.425630e-01 4.505542e-01
<GCONST> 8.876006e+01
<STATE> 4
<NUMMIXES> 4
<MIXTURE> 1 2.600293e-01
<MEAN> 39
 2.539146e-02 3.964337e-01 4.674810e-01 1.148623e+00 1.035319e+00 1.236674e+00 9.827613e-01 1.267783e+00 9.387984e-01 1.186464e+00 1.032455e+00 1.160664e+00 1.592420e+00 -6.374371e-02 6.510341e-02 1.929676e-01 4.969328e-01 5.963449e-01 6.990905e-01 6.117833e-01 6.278756e-01 6.188216e-01 5.308009e-01 4.169421e-01 3.536265e-01 7.666273e-02 2.940930e-02 2.416264e-02 5.019237e-02 3.259836e-02 4.473710e-02 3.827468e-02 8.250287e-02 6.921958e-02 8.213055e-02 6.966591e-02 6.628690e-02 5.174110e-02 -1.437941e-02
<VARIANCE> 39
 1.828094e+00 2.569732e+00 4.534526e+00 7.947096e+00 8.658968e+00 1.120698e+01 1.279022e+01 1.407378e+01 1.398565e+01 1.477370e+01 1.438815e+01 1.271367e+01 8.328019e+00 9.220298e-02 1.382470e-01 2.336512e-01 3.972137e-01 4.104756e-01 5.255671e-01 5.763412e-01 6.519428e-01 7.195863e-01 6.491057e-01 6.077666e-01 5.602558e-01 2.896417e-02 1.584123e-02 2.460755e-02 4.249827e-02 6.667005e-02 7.542400e-02 9.196756e-02 1.004031e-01 1.109942e-01 1.209138e-01 1.259749e-01 1.168710e-01 1.037236e-01 1.130087e-02
<GCONST> 4.834013e+01
<MIXTURE> 2 2.399775e-01
<MEAN> 39
 -1.114546e+00 1.572086e-01 -2.777993e-01 1.710021e+00 9.662161e-01 1.907123e+00 1.010873e+00 2.090244e+00 7.989287e-01 1.588329e+00 9.323021e-01 1.739296e+00 6.625889e+00 -2.509886e-01 -2.163474e-02 -3.151487e-02 2.340782e-01 2.231507e-01 3.331648e-01 2.424563e-01 2.948512e-01 2.307395e-01 2.226818e-01 1.785133e-01 2.231596e-01 2.298038e-01 1.069668e-01 -6.108802e-03 8.956069e-02 -3.857772e-02 3.613491e-02 -7.197361e-02 6.583520e-02 -1.655182e-02 6.876208e-02 -4.397914e-03 6.166384e-02 -1.805004e-02 -1.859290e-01
<VARIANCE> 39
 3.157754e+00 2.859792e+00 5.089719e+00 8.411100e+00 9.177380e+00 1.243288e+01 1.330837e+01 1.579873e+01 1.493872e+01 1.547773e+01 1.417803e+01 1.320418e+01 2.787198e+01 1.297324e-01 1.392393e-01 2.383926e-01 4.048228e-01 4.591285e-01 5.558624e-01 5.948843e-01 6.737043e-01 7.301504e-01 6.827745e-01 6.363491e-01 5.875257e-01 6.950967e-02 3.415455e-02 3.225454e-02 5.053570e-02 8.450246e-02 8.506082e-02 1.197869e-01 1.142396e-01 1.318153e-01 1.272804e-01 1.343494e-01 1.172890e-01 1.092726e-01 5.538068e-02
<GCONST> 5.637652e+01
<MIXTURE> 3 2.600293e-01
<MEAN> 39
 -5.154366e-01 -2.447816e-01 -3.842961e-01 2.099872e-02 -1.417256e-01 -1.023994e-01 -4.477755e-01 -2.328185e-01 -5.570974e-01 -3.509990e-01 -4.848132e-01 -2.655853e-01 4.380879e-01 -1.852035e-01 -8.362292e-02 -3.823563e-04 2.448332e-01 3.400714e-01 4.091065e-01 3.081147e-01 3.049037e-01 2.795078e-01 2.085325e-01 1.051045e-01 5.422552e-02 8.587271e-03 -2.093548e-02 -3.858454e-02 -3.226807e-02 -7.068382e-02 -6.511662e-02 -8.302994e-02 -4.424291e-02 -6.404359e-02 -5.696011e-02 -7.230586e-02 -7.045870e-02 -7.708350e-02 -5.690163e-02
<VARIANCE> 39
 1.828094e+00 2.569732e+00 4.534526e+00 7.947096e+00 8.658968e+00 1.120698e+01 1.279022e+01 1.407378e+01 1.398565e+01 1.477370e+01 1.438815e+01 1.271367e+01 8.328019e+00 9.220298e-02 1.382470e-01 2.336512e-01 3.972137e-01 4.104756e-01 5.255671e-01 5.763412e-01 6.519428e-01 7.195863e-01 6.491057e-01 6.077666e-01 5.602558e-01 2.896417e-02 1.584123e-02 2.460755e-02 4.249827e-02 6.667005e-02 7.542400e-02 9.196756e-02 1.004031e-01 1.109942e-01 1.209138e-01 1.259749e-01 1.168710e-01 1.037236e-01 1.130087e-02
<GCONST> 4.834013e+01
<MIXTURE> 4 2.399775e-01
<MEAN> 39
 -1.825348e+00 -5.192282e-01 -1.180216e+00 5.499450e-01 -2.455515e-01 4.967113e-01 -4.483530e-01 5.003397e-01 -7.470969e-01 1.465935e-02 -5.738469e-01 2.857938e-01 4.514132e+00 -3.950622e-01 -1.708939e-01 -2.268167e-01 -2.042457e-02 -4.788537e-02 3.494003e-02 -6.605869e-02 -3.346679e-02 -1.110559e-01 -1.078389e-01 -1.405726e-01 -8.344132e-02 1.243450e-01 3.304297e-02 -7.794701e-02 -3.598928e-04 -1.548550e-01 -8.052584e-02 -2.104146e-01 -6.936220e-02 -1.617773e-01 -7.394344e-02 -1.510127e-01 -7.532608e-02 -1.502757e-01 -2.800614e-01
<VARIANCE> 39
 3.157754e+00 2.859792e+00 5.089719e+00 8.411100e+00 9.177380e+00 1.243288e+01 1.330837e+01 1.579873e+01 1.493872e+01 1.547773e+01 1.417803e+01 1.320418e+01 2.787198e+01 1.297324e-01 1.392393e-01 2.383926e-01 4.048228e-01 4.591285e-01 5.558624e-01 5.948843e-01 6.737043e-01 7.301504e-01 6.827745e-01 6.363491e-01 5.875257e-01 6.950967e-02 3.415455e-02 3.225454e-02 5.053570e-02 8.450246e-02 8.506082e-02 1.197869e-01 1.142396e-01 1.318153e-01 1.272804e-01 1.343494e-01 1.172890e-01 1.092726e-01 5.538068e-02
<GCONST> 5.637652e+01
<TRANSP> 5
 0.000000e+00 1.000000e+00 0.000000e+00 0.000000e+00 0.000000e+00
 0.000000e+00 3.640023e-01 6.359977e-01 0.000000e+00 0.000000e+00
 0.000000e+00 0.000000e+00 7.637689e-01 2.362311e-01 0.000000e+00
 0.000000e+00 0.000000e+00 0.000000e+00 1.874989e-01 8.125011e-01
 0.000000e+00 0.000000e+00 0.000000e+00 0.000000e+00 0.000000e+00
<ENDHMM>
~h "k"
<BEGINHMM>
<NUMSTATES> 5
<STATE> 2
<NUMMIXES> 4
<MIXTURE> 1 2.424601e-01
<MEAN> 39
 2.286668e+00 2.451673e+00 2.418470e+00 5.378662e-01 -1.072046e-01 3.135172e-01 5.775297e-01 1.217748e+00 1.394989e+00 1.547049e+00 1.510247e+00 1.236852e+00 -1.677103e+00 -5.443192e-02 -1.608934e-02 1.951862e-01 2.683168e-01 1.662924e-01 4.878073e-01 4.903945e-01 3.506836e-01 4.697245e-01 4.311120e-01 3.012865e-01 2.784399e-01 7.124639e-01 -7.537871e-02 -1.009807e-02 3.073884e-02 8.772815e-02 1.033436e-01 2.076410e-01 1.623953e-01 1.224205e-01 1.412875e-01 1.235957e-01 7.865762e-02 8.093089e-02 7.105260e-01
<VARIANCE> 39
 2.404248e+01 2.040760e+01 2.262576e+01 2.253403e+01 2.471434e+01 2.934702e+01 2.682360e+01 2.548403e+01 2.473686e+01 2.691947e+01 2.193111e+01 1.833413e+01 1.311009e+02 1.817717e+00 1.390997e+00 1.406592e+00 1.460191e+00 1.487222e+00 1.796601e+00 1.495803e+00 1.334897e+00 1.403391e+00 1.346804e+00 1.146845e+00 8.992407e-01 1.030609e+01 2.665915e-01 2.323579e-01 2.458155e-01 2.510216e-01 2.509599e-01 3.109420e-01 2.684804e-01 2.526149e-01 2.389407e-01 2.569525e-01 2.054189e-01 1.697206e-01 1.542587e+00
<GCONST> 1.043950e+02
<MIXTURE> 2 2.575289e-01
<MEAN> 39
 1.041507e+00 1.288327e+00 2.099061e+00 3.542018e-01 -5.677086e-01 7.524804e-01 1.039443e+00 1.024304e+00 1.434547e+00 1.399623e+00 1.054468e+00 5.927279e-01 2.253438e+00 3.429004e-01 2.721385e-01 3.258363e-01 -3.528458e-01 -1.721434e-01 -1.271662e-01 -7.254420e-02 -3.267397e-01 1.035421e-01 -1.691108e-01 1.143867e-02 -1.825533e-01 -1.851673e-01 5.073038e-02 7.797443e-02 5.897887e-03 8.461932e-02 1.468909e-01 7.576507e-02 6.939031e-02 6.977607e-02 8.510508e-02 5.159311e-02 7.935229e-02 9.496906e-02 2.227160e-02
<VARIANCE> 39
 1.991211e+01 1.727944e+01 1.819212e+01 2.511459e+01 2.644137e+01 2.642595e+01 2.698193e+01 2.610710e+01 2.663045e+01 2.524237e+01 2.170816e+01 1.860892e+01 7.119808e+01 1.605440e+00 1.053766e+00 1.022521e+00 1.244449e+00 1.147223e+00 1.446704e+00 1.245456e+00 1.134515e+00 1.240899e+00 1.240366e+00 1.007842e+00 8.436927e-01 7.448166e+00 2.066524e-01 1.847466e-01 1.793064e-01 2.315410e-01 2.299252e-01 2.670259e-01 2.396470e-01 2.339808e-01 2.342932e-01 2.383748e-01 1.872769e-01 1.551535e-01 8.920217e-01
<GCONST> 9.876612e+01
<MIXTURE> 3 2.575289e-01
<MEAN> 39
 -7.434126e-01 -3.744146e-01 3.929725e-01 -1.650377e+00 -2.624556e+00 -1.303767e+00 -1.038323e+00 -1.019500e+00 -6.296408e-01 -6.100483e-01 -8.092130e-01 -1.132794e+00 -1.121720e+00 -1.639235e-01 -1.384740e-01 -7.864287e-02 -7.990652e-01 -6.005774e-01 -6.082822e-01 -5.189442e-01 -7.527941e-01 -3.420405e-01 -6.145976e-01 -3.901267e-01 -5.499643e-01 -1.276820e+00 -1.311058e-01 -9.395420e-02 -1.634805e-01 -1.078555e-01 -4.491118e-02 -1.309331e-01 -1.264247e-01 -1.237102e-01 -1.085103e-01 -1.437015e-01 -9.374972e-02 -6.258905e-02 -3.555160e-01
<VARIANCE> 39
 1.991211e+01 1.727944e+01 1.819212e+01 2.511459e+01 2.644137e+01 2.642595e+01 2.698193e+01 2.610710e+01 2.663045e+01 2.524237e+01 2.170816e+01 1.860892e+01 7.119808e+01 1.605440e+00 1.053766e+00 1.022521e+00 1.244449e+00 1.147223e+00 1.446704e+00 1.245456e+00 1.134515e+00 1.240899e+00 1.240366e+00 1.007842e+00 8.436927e-01 7.448166e+00 2.066524e-01 1.847466e-01 1.793064e-01 2.315410e-01 2.299252e-01 2.670259e-01 2.396470e-01 2.339808e-01 2.342932e-01 2.383748e-01 1.872769e-01 1.551535e-01 8.920217e-01
<GCONST> 9.876612e+01
<MIXTURE> 4 2.424601e-01
<MEAN> 39
 3.253424e-01 6.446816e-01 5.158082e-01 -1.360935e+00 -2.095745e+00 -1.853398e+00 -1.494131e+00 -8.015209e-01 -5.944581e-01 -5.283098e-01 -3.629796e-01 -4.758830e-01 -6.257075e+00 -5.937229e-01 -4.878515e-01 -2.792131e-01 -2.150367e-01 -3.215144e-01 -4.834209e-02 1.182452e-03 -1.114674e-01 -4.134715e-03 -3.309558e-02 -1.270769e-01 -1.008733e-01 -5.716601e-01 -2.819087e-01 -2.029121e-01 -1.675803e-01 -1.126801e-01 -9.704003e-02 -1.540770e-02 -4.486502e-02 -7.862274e-02 -5.423870e-02 -7.916622e-02 -1.026350e-01 -8.385776e-02 2.137223e-01
<VARIANCE> 39
 2.404248e+01 2.040760e+01 2.262576e+01 2.253403e+01 2.471434e+01 2.934702e+01 2.682360e+01 2.548403e+01 2.473686e+01 2.691947e+01 2.193111e+01 1.833413e+01 1.311009e+02 1.817717e+00 1.390997e+00 1.406592e+00 1.460191e+00 1.487222e+00 1.796601e+00 1.495803e+00 1.334897e+00 1.403391e+00 1.346804e+00 1.146845e+00 8.992407e-01 1.030609e+01 2.665915e-01 2.323579e-01 2.458155e-01 2.510216e-01 2.509599e-01 3.109420e-01 2.684804e-01 2.526149e-01 2.389407e-01 2.569525e-01 2.054189e-01 1.697206e-01 1.542587e+00
<GCONST> 1.043950e+02
<STATE> 3
<NUMMIXES> 4
<MIXTURE> 1 2.848595e-01
<MEAN> 39
 -1.368741e+00 1.916747e-01 8.298558e-02 8.707905e-02 -4.460778e-01 1.457516e+00 1.463005e+00 4.000823e-01 1.493621e+00 1.421861e+00 6.569337e-01 -2.148759e-02 2.455254e+00 2.482053e-01 1.959420e-01 2.801810e-02 6.027557e-02 1.168143e-01 -4.995467e-02 -5.535397e-02 2.642041e-02 4.045029e-02 -1.703699e-02 3.311181e-02 6.320226e-02 6.089947e-02 1.233909e-01 4.327940e-02 1.023938e-01 1.271782e-01 1.447021e-01 8.813356e-02 1.174527e-01 1.391024e-01 9.474543e-02 1.184458e-01 1.126142e-01 1.307450e-01 7.153708e-03
<VARIANCE> 39
 1.127751e+01 5.038983e+00 8.039797e+00 1.446708e+01 1.665200e+01 1.403548e+01 1.733085e+01 1.761502e+01 2.011686e+01 2.017264e+01 1.584337e+01 1.578082e+01 1.387460e+01 3.519476e-01 2.366029e-01 3.941659e-01 5.526947e-01 7.083986e-01 6.557358e-01 7.942841e-01 8.849335e-01 8.911641e-01 7.982102e-01 6.462063e-01 6.822715e-01 2.565707e-01 5.715693e-02 4.633289e-02 6.954548e-02 1.113647e-01 1.286304e-01 1.154856e-01 1.456914e-01 1.602827e-01 1.667364e-01 1.563842e-01 1.307707e-01 1.318278e-01 8.281056e-02
<GCONST> 6.919791e+01
<MIXTURE> 2 2.151432e-01
<MEAN> 39
 -2.071179e+00 -4.464169e-01 9.905100e-01 -2.490091e+00 -1.057473e+00 1.960848e+00 9.700131e-01 -1.033004e+00 2.630254e+00 6.566755e-01 -2.346112e-01 -8.478339e-01 2.070004e+00 1.299234e-01 -2.752349e-02 -1.678619e-01 -4.410359e-01 2.443410e-01 -3.563775e-01 -2.946159e-01 -2.973197e-01 1.437542e-01 -3.847240e-01 -3.877094e-02 -1.665017e-01 -4.399364e-01 1.890741e-01 7.192209e-02 1.670860e-02 3.114834e-01 1.437910e-01 -1.807863e-02 9.231003e-02 2.106821e-01 8.401960e-03 1.334479e-01 1.738958e-01 1.836883e-01 -8.855409e-02
<VARIANCE> 39
 1.326673e+01 8.003696e+00 1.033693e+01 2.342810e+01 2.038379e+01 1.989745e+01 1.925046e+01 2.051931e+01 2.621999e+01 2.607243e+01 1.794174e+01 1.824849e+01 1.765073e+01 5.898381e-01 4.139790e-01 6.292592e-01 1.097083e+00 1.036672e+00 9.720631e-01 8.922395e-01 9.857726e-01 1.103787e+00 1.215072e+00 8.060561e-01 7.532691e-01 6.493797e-01 8.225910e-02 7.098083e-02 8.968793e-02 1.780775e-01 1.497273e-01 1.726476e-01 1.678815e-01 1.870499e-01 1.868946e-01 1.891876e-01 1.452318e-01 1.410402e-01 2.198049e-01
<GCONST> 8.132558e+01
<MIXTURE> 3 2.848595e-01
<MEAN> 39
 -2.712021e+00 -7.062325e-01 -1.051196e+00 -1.434346e+00 -2.078352e+00 -4.104233e-02 -2.022090e-01 -1.278728e+00 -3.004515e-01 -3.746973e-01 -9.352156e-01 -1.610491e+00 9.653085e-01 1.090465e-02 1.374587e-03 -2.231124e-01 -2.370982e-01 -2.198513e-01 -3.738647e-01 -4.118444e-01 -3.498632e-01 -3.371557e-01 -3.744074e-01 -2.884360e-01 -2.671967e-01 -1.417118e-01 2.776081e-02 -4.282090e-02 -3.092133e-03 -6.307203e-03 1.241758e-03 -4.779914e-02 -3.522547e-02 -2.103886e-02 -6.858804e-02 -3.973594e-02 -3.203472e-02 -1.448737e-02 -1.079536e-01
<VARIANCE> 39
 1.127751e+01 5.038983e+00 8.039797e+00 1.446708e+01 1.665200e+01 1.403548e+01 1.733085e+01 1.761502e+01 2.011686e+01 2.017264e+01 1.584337e+01 1.578082e+01 1.387460e+01 3.519476e-01 2.366029e-01 3.941659e-01 5.526947e-01 7.083986e-01 6.557358e-01 7.942841e-01 8.849335e-01 8.911641e-01 7.982102e-01 6.462063e-01 6.822715e-01 2.565707e-01 5.715693e-02 4.633289e-02 6.954548e-02 1.113647e-01 1.286304e-01 1.154856e-01 1.456914e-01 1.602827e-01 1.667364e-01 1.563842e-01 1.307707e-01 1.318278e-01 8.281056e-02
<GCONST> 6.919791e+01
<MIXTURE> 4 2.151432e-01
<MEAN> 39
 -3.528121e+00 -1.578049e+00 -2.955338e-01 -4.426195e+00 -2.863409e+00 1.765859e-01 -7.850007e-01 -2.844934e+00 5.820358e-01 -1.385771e+00 -1.928919e+00 -2.556564e+00 3.894935e-01 -1.772803e-01 -2.848883e-01 -4.851653e-01 -8.600028e-01 -1.629274e-01 -7.507505e-01 -6.724496e-01 -6.944640e-01 -2.764908e-01 -8.256452e-01 -3.978935e-01 -5.136660e-01 -7.622728e-01 7.435071e-02 -3.464683e-02 -1.030832e-01 1.426865e-01 -1.098739e-02 -1.842822e-01 -7.158335e-02 3.768507e-02 -1.645233e-01 -4.053489e-02 2.145861e-02 3.346705e-02 -2.760875e-01
<VARIANCE> 39
 1.326673e+01 8.003696e+00 1.033693e+01 2.342810e+01 2.038379e+01 1.989745e+01 1.925046e+01 2.051931e+01 2.621999e+01 2.607243e+01 1.794174e+01 1.824849e+01 1.765073e+01 5.898381e-01 4.139790e-01 6.292592e-01 1.097083e+00 1.036672e+00 9.720631e-01 8.922395e-01 9.857726e-01 1.103787e+00 1.215072e+00 8.060561e-01 7.532691e-01 6.493797e-01 8.225910e-02 7.098083e-02 8.968793e-02 1.780775e-01 1.497273e-01 1.726476e-01 1.678815e-01 1.870499e-01 1.868946e-01 1.891876e-01 1.452318e-01 1.410402e-01 2.198049e-01
<GCONST> 8.132558e+01
<STATE> 4
<NUMMIXES> 4
<MIXTURE> 1 2.702725e-01
<MEAN> 39
 3.065988e-01 -1.654116e-01 1.417969e-01 -9.823484e-01 -2.485162e-01 -1.359442e-01 -1.113648e-01 -7.091652e-01 9.065868e-01 -2.140686e-01 3.962613e-01 -1.591973e-01 2.238426e-01 2.034385e-01 1.505276e-01 7.111579e-02 1.547337e-01 1.933275e-01 4.872752e-02 1.089804e-01 1.776538e-01 1.510183e-01 1.303666e-01 2.299110e-01 2.310439e-01 -1.990216e-02 3.305225e-02 5.648144e-02 8.905187e-02 1.725139e-01 1.489239e-01 2.002613e-01 2.147215e-01 2.213244e-01 1.667478e-01 2.019415e-01 1.451049e-01 1.515143e-01 5.712332e-02
<VARIANCE> 39
 1.003443e+01 7.720767e+00 8.629314e+00 1.478070e+01 1.409213e+01 1.586963e+01 1.717114e+01 1.942270e+01 2.201601e+01 1.962793e+01 1.658448e+01 1.559899e+01 9.082699e+00 2.182651e-01 2.475764e-01 3.541281e-01 5.404204e-01 6.009958e-01 6.871583e-01 7.073386e-01 7.871168e-01 7.800179e-01 7.706504e-01 7.619669e-01 6.086167e-01 1.819813e-01 4.131677e-02 4.727900e-02 6.035491e-02 1.138656e-01 1.107478e-01 1.205517e-01 1.322064e-01 1.533820e-01 1.540624e-01 1.473654e-01 1.323508e-01 1.244659e-01 3.650197e-02
<GCONST> 6.626883e+01
<MIXTURE> 2 2.297315e-01
<MEAN> 39
 9.829472e-01 -1.101374e+00 6.086280e-01 -2.219558e+00 6.089908e-02 -1.360367e-01 1.874973e-01 -1.777170e+00 1.587080e+00 -5.424811e-01 -1.631788e-01 -1.187565e+00 -9.120315e-01 3.945138e-01 5.473962e-02 6.458572e-02 1.335452e-01 1.371437e-01 -1.433293e-01 -3.990793e-02 -1.855600e-02 -8.743288e-02 2.554348e-02 1.557455e-01 9.154499e-02 -3.199329e-01 7.051140e-03 8.385350e-02 6.499389e-02 1.675301e-01 5.553294e-02 1.485687e-01 1.478378e-01 1.716416e-01 8.734088e-02 1.643219e-01 1.299770e-01 1.228287e-01 7.271869e-02
<VARIANCE> 39
 1.753603e+01 1.196393e+01 1.347803e+01 2.081081e+01 2.059322e+01 2.265114e+01 2.340792e+01 2.624872e+01 2.838163e+01 2.568802e+01 2.097201e+01 1.644134e+01 1.554557e+01 4.006045e-01 4.355524e-01 5.397767e-01 8.916954e-01 8.249496e-01 9.076036e-01 9.265945e-01 1.038468e+00 9.333040e-01 1.001076e+00 9.421527e-01 6.930977e-01 4.969690e-01 6.549584e-02 7.151993e-02 8.419073e-02 1.517588e-01 1.479852e-01 1.547759e-01 1.661427e-01 1.818581e-01 1.685690e-01 1.726286e-01 1.655999e-01 1.184172e-01 5.533498e-02
<GCONST> 7.904328e+01
<MIXTURE> 3 2.702725e-01
<MEAN> 39
 -9.604880e-01 -1.276862e+00 -1.033231e+00 -2.520175e+00 -1.750096e+00 -1.729412e+00 -1.768888e+00 -2.472013e+00 -9.702622e-01 -1.986205e+00 -1.232701e+00 -1.739020e+00 -9.816582e-01 1.656310e-02 -4.850060e-02 -1.669189e-01 -1.393195e-01 -1.167682e-01 -2.828525e-01 -2.274333e-01 -1.772246e-01 -2.022562e-01 -2.207802e-01 -1.192518e-01 -8.101161e-02 -1.905392e-01 -4.825386e-02 -3.049350e-02 -9.217076e-03 3.753795e-02 1.580872e-02 6.137909e-02 6.928071e-02 6.466837e-02 9.744674e-03 4.838870e-02 -4.153401e-04 1.039544e-02 -1.929864e-02
<VARIANCE> 39
 1.003443e+01 7.720767e+00 8.629314e+00 1.478070e+01 1.409213e+01 1.586963e+01 1.717114e+01 1.942270e+01 2.201601e+01 1.962793e+01 1.658448e+01 1.559899e+01 9.082699e+00 2.182651e-01 2.475764e-01 3.541281e-01 5.404204e-01 6.009958e-01 6.871583e-01 7.073386e-01 7.871168e-01 7.800179e-01 7.706504e-01 7.619669e-01 6.086167e-01 1.819813e-01 4.131677e-02 4.727900e-02 6.035491e-02 1.138656e-01 1.107478e-01 1.205517e-01 1.322064e-01 1.533820e-01 1.540624e-01 1.473654e-01 1.323508e-01 1.244659e-01 3.650197e-02
<GCONST> 6.626883e+01
<MIXTURE> 4 2.297315e-01
<MEAN> 39
 -6.920946e-01 -2.484930e+00 -8.598695e-01 -4.044312e+00 -1.754291e+00 -2.039765e+00 -1.747772e+00 -3.826510e+00 -5.438965e-01 -2.569815e+00 -1.994987e+00 -2.809481e+00 -2.489146e+00 1.413406e-01 -2.092459e-01 -2.292923e-01 -2.441733e-01 -2.261633e-01 -5.244023e-01 -4.249471e-01 -4.261770e-01 -4.738635e-01 -3.746717e-01 -2.325127e-01 -2.414650e-01 -6.019171e-01 -9.531748e-02 -2.311934e-02 -5.106866e-02 1.170515e-02 -9.834244e-02 -8.797608e-03 -1.520459e-02 1.062334e-03 -7.688774e-02 -1.872525e-03 -3.279883e-02 -1.481850e-02 -2.137487e-02
<VARIANCE> 39
 1.753603e+01 1.196393e+01 1.347803e+01 2.081081e+01 2.059322e+01 2.265114e+01 2.340792e+01 2.624872e+01 2.838163e+01 2.568802e+01 2.097201e+01 1.644134e+01 1.554557e+01 4.006045e-01 4.355524e-01 5.397767e-01 8.916954e-01 8.249496e-01 9.076036e-01 9.265945e-01 1.038468e+00 9.333040e-01 1.001076e+00 9.421527e-01 6.930977e-01 4.969690e-01 6.549584e-02 7.151993e-02 8.419073e-02 1.517588e-01 1.479852e-01 1.547759e-01 1.661427e-01 1.818581e-01 1.685690e-01 1.726286e-01 1.655999e-01 1.184172e-01 5.533498e-02
<GCONST> 7.904328e+01
<TRANSP> 5
 0.000000e+00 1.000000e+00 0.000000e+00 0.000000e+00 0.000000e+00
 0.000000e+00 7.700882e-01 2.299118e-01 0.000000e+00 0.000000e+00
 0.000000e+00 0.000000e+00 4.059147e-01 5.940853e-01 0.000000e+00
 0.000000e+00 0.000000e+00 0.000000e+00 4.662478e-01 5.337522e-01
 0.000000e+00 0.000000e+00 0.000000e+00 0.000000e+00 0.000000e+00
<ENDHMM>
~h "n"
<BEGINHMM>
<NUMSTATES> 5
<STATE> 2
<NUMMIXES> 4
<MIXTURE> 1 2.336863e-01
<MEAN> 39
 -2.199660e-01 9.316134e-02 2.731735e-01 1.867699e+00 1.134737e+00 1.884968e+00 1.316480e+00 1.785937e+00 5.921075e-01 1.186277e+00 8.542285e-01 1.377321e+00 5.521605e+00 3.840359e-01 2.425615e-01 3.057309e-01 2.462669e-01 2.366636e-01 1.569051e-01 1.223595e-01 3.945659e-02 5.174592e-03 6.940070e-02 1.492741e-01 1.426103e-01 3.348411e-02 1.341187e-01 1.061889e-01 1.006740e-01 3.063950e-02 9.343894e-02 5.758013e-02 7.675877e-02 6.032424e-02 1.036507e-01 9.965469e-02 9.066878e-02 5.856055e-02 -5.323172e-02
<VARIANCE> 39
 3.844203e+00 3.736051e+00 5.430266e+00 9.016209e+00 1.034502e+01 1.352162e+01 1.445038e+01 1.582974e+01 1.555427e+01 1.576730e+01 1.532985e+01 1.370249e+01 4.349410e+01 1.749124e-01 1.660880e-01 2.481748e-01 3.767574e-01 4.967979e-01 5.880013e-01 6.830591e-01 7.154647e-01 7.375072e-01 7.410144e-01 6.899773e-01 6.272958e-01 3.842578e-02 4.743679e-02 4.722178e-02 6.765229e-02 8.760536e-02 1.103980e-01 1.328292e-01 1.451558e-01 1.636059e-01 1.556477e-01 1.593226e-01 1.468028e-01 1.252390e-01 4.089379e-02
<GCONST> 6.059065e+01
<MIXTURE> 2 2.663176e-01
<MEAN> 39
 1.882678e-01 3.755614e-01 5.680081e-01 1.167388e+00 8.879129e-01 1.025172e+00 5.712388e-01 5.018104e-01 4.012245e-02 1.619264e-01 9.578389e-02 4.785091e-01 1.683238e+00 1.862838e-01 1.728975e-01 1.363609e-01 -2.246064e-02 -9.147833e-02 -2.236896e-01 -2.860785e-01 -3.346215e-01 -3.127613e-01 -2.149433e-01 -1.219260e-01 -4.629794e-02 1.205476e-02 2.398806e-02 1.376229e-02 -2.916932e-03 -1.716091e-02 8.978780e-03 2.858767e-02 7.555127e-02 1.112671e-01 1.421762e-01 1.458312e-01 1.301011e-01 1.037761e-01 -6.145425e-05
<VARIANCE> 39
 1.825351e+00 2.754672e+00 4.526714e+00 8.063906e+00 9.348784e+00 1.166741e+01 1.250008e+01 1.385819e+01 1.414533e+01 1.457413e+01 1.391530e+01 1.278587e+01 8.885406e+00 1.042595e-01 1.418604e-01 2.211399e-01 3.580015e-01 4.415534e-01 5.516475e-01 6.133622e-01 6.206206e-01 6.794484e-01 6.688054e-01 6.461949e-01 5.937147e-01 2.633693e-02 1.693290e-02 2.731272e-02 4.450167e-02 7.518438e-02 9.073957e-02 1.071139e-01 1.145169e-01 1.259328e-01 1.298418e-01 1.327161e-01 1.244544e-01 1.121437e-01 6.134301e-03
<GCONST> 4.924082e+01
<MIXTURE> 3 2.663176e-01
<MEAN> 39
 -3.521544e-01 -2.883268e-01 -2.830349e-01 3.150713e-02 -3.351184e-01 -3.411317e-01 -8.429793e-01 -9.872532e-01 -1.464289e+00 -1.365117e+00 -1.396345e+00 -9.517843e-01 4.909020e-01 5.712682e-02 2.224005e-02 -5.174112e-02 -2.617936e-01 -3.572763e-01 -5.207815e-01 -5.993483e-01 -6.497394e-01 -6.424760e-01 -5.420654e-01 -4.434710e-01 -3.545095e-01 -5.285987e-02 -2.806253e-02 -5.234395e-02 -8.729861e-02 -1.268400e-01 -1.115133e-01 -1.023254e-01 -5.981012e-02 -3.068097e-02 -1.958027e-03 1.103207e-04 -1.101124e-02 -3.017533e-02 -3.139017e-02
<VARIANCE> 39
 1.825351e+00 2.754672e+00 4.526714e+00 8.063906e+00 9.348784e+00 1.166741e+01 1.250008e+01 1.385819e+01 1.414533e+01 1.457413e+01 1.391530e+01 1.278587e+01 8.885406e+00 1.042595e-01 1.418604e-01 2.211399e-01 3.580015e-01 4.415534e-01 5.516475e-01 6.133622e-01 6.206206e-01 6.794484e-01 6.688054e-01 6.461949e-01 5.937147e-01 2.633693e-02 1.693290e-02 2.731272e-02 4.450167e-02 7.518438e-02 9.073957e-02 1.071139e-01 1.145169e-01 1.259328e-01 1.298418e-01 1.327161e-01 1.244544e-01 1.121437e-01 6.134301e-03
<GCONST> 4.924082e+01
<MIXTURE> 4 2.336863e-01
<MEAN> 39
 -1.004232e+00 -6.799933e-01 -6.589437e-01 6.666189e-01 -1.518101e-01 4.140979e-01 -2.040663e-01 1.944727e-01 -9.854486e-01 -4.020452e-01 -7.119056e-01 -1.033545e-01 2.883603e+00 2.167457e-01 7.954591e-02 1.064623e-01 7.446632e-04 -4.527199e-02 -1.498198e-01 -2.082301e-01 -2.988840e-01 -3.383384e-01 -2.749281e-01 -1.829854e-01 -1.741977e-01 -4.492587e-02 4.699879e-02 1.926658e-02 -3.366180e-03 -8.775331e-02 -3.946584e-02 -8.820283e-02 -7.563850e-02 -1.014687e-01 -5.415819e-02 -6.000626e-02 -6.259064e-02 -8.299594e-02 -1.341206e-01
<VARIANCE> 39
 3.844203e+00 3.736051e+00 5.430266e+00 9.016209e+00 1.034502e+01 1.352162e+01 1.445038e+01 1.582974e+01 1.555427e+01 1.576730e+01 1.532985e+01 1.370249e+01 4.349410e+01 1.749124e-01 1.660880e-01 2.481748e-01 3.767574e-01 4.967979e-01 5.880013e-01 6.830591e-01 7.154647e-01 7.375072e-01 7.410144e-01 6.899773e-01 6.272958e-01 3.842578e-02 4.743679e-02 4.722178e-02 6.765229e-02 8.760536e-02 1.103980e-01 1.328292e-01 1.451558e-01 1.636059e-01 1.556477e-01 1.593226e-01 1.468028e-01 1.252390e-01 4.089379e-02
<GCONST> 6.059065e+01
<STATE> 3
<NUMMIXES> 4
<MIXTURE> 1 2.566136e-01
<MEAN> 39
 1.897938e+00 1.023151e+00 1.339603e+00 1.059021e+00 1.215290e+00 9.639418e-01 9.594424e-01 6.758565e-01 4.125177e-01 6.728719e-01 6.932251e-01 7.451469e-01 2.085602e+00 3.194440e-01 3.005597e-01 3.580179e-01 3.177415e-01 3.605307e-01 3.529029e-01 2.955483e-01 3.015187e-01 2.866046e-01 3.549121e-01 2.661819e-01 2.598682e-01 5.775643e-01 8.490397e-02 9.582517e-02 1.362501e-01 5.871931e-02 1.147189e-01 8.991221e-02 9.419286e-02 8.659346e-02 1.383208e-01 1.187064e-01 1.020756e-01 6.879331e-02 7.099255e-02
<VARIANCE> 39
 1.453773e+01 1.068834e+01 1.441641e+01 1.649077e+01 1.704504e+01 2.255344e+01 2.142017e+01 2.519824e+01 2.112815e+01 2.206035e+01 1.910858e+01 1.722397e+01 9.350737e+01 1.124783e+00 7.844147e-01 1.122205e+00 8.651307e-01 1.030125e+00 1.215208e+00 1.131827e+00 1.330839e+00 1.179545e+00 1.175702e+00 9.738223e-01 8.894904e-01 3.985821e+00 1.259531e-01 1.123187e-01 1.591235e-01 1.528682e-01 1.645120e-01 2.103679e-01 2.030817e-01 2.254694e-01 2.001823e-01 2.053161e-01 1.770546e-01 1.573354e-01 5.026194e-01
<GCONST> 9.107931e+01
<MIXTURE> 2 2.433739e-01
<MEAN> 39
 4.224732e+00 2.285800e+00 4.128937e+00 5.280664e-01 2.265168e+00 3.997050e-01 -2.120173e-01 -1.876894e+00 -2.629902e-01 -3.782821e-01 -1.128992e-01 -4.955126e-01 -7.798581e-01 2.813731e-01 1.979652e-01 2.918889e-01 -2.449788e-01 -6.062327e-02 -3.044874e-01 -1.367568e-01 -2.789620e-01 8.612499e-02 -7.814211e-02 8.438788e-02 -8.753802e-02 -7.208720e-01 -7.900514e-02 -3.827662e-02 -7.870875e-02 7.482924e-02 1.215076e-02 1.336672e-01 1.737635e-01 2.575544e-01 1.854504e-01 1.842673e-01 1.512643e-01 1.603763e-01 2.178204e-01
<VARIANCE> 39
 2.103163e+01 1.644173e+01 2.809830e+01 2.410008e+01 2.702413e+01 2.951181e+01 3.056214e+01 3.529755e+01 3.088663e+01 2.763799e+01 2.325032e+01 2.168925e+01 6.403806e+01 9.797388e-01 8.566256e-01 1.327767e+00 1.054123e+00 1.109024e+00 1.249608e+00 1.329236e+00 1.570081e+00 1.334429e+00 1.233087e+00 1.057009e+00 1.013201e+00 2.681700e+00 1.522980e-01 1.452722e-01 2.093527e-01 1.840808e-01 2.052869e-01 2.357618e-01 2.369046e-01 2.552086e-01 2.479480e-01 2.307940e-01 1.960629e-01 1.928667e-01 2.967793e-01
<GCONST> 9.736241e+01
<MIXTURE> 3 2.566136e-01
<MEAN> 39
 3.728025e-01 -2.845702e-01 -1.791553e-01 -5.653319e-01 -4.361358e-01 -9.356767e-01 -8.918349e-01 -1.332058e+00 -1.426097e+00 -1.205866e+00 -1.055309e+00 -9.149240e-01 -1.782366e+00 -1.047792e-01 -5.370908e-02 -6.571886e-02 -5.430812e-02 -4.544966e-02 -8.804306e-02 -1.300012e-01 -1.599293e-01 -1.478228e-01 -7.880710e-02 -1.285478e-01 -1.173830e-01 -2.210165e-01 -5.705551e-02 -3.823076e-02 -2.331107e-02 -9.767414e-02 -4.752146e-02 -9.355132e-02 -8.606549e-02 -1.033410e-01 -4.064614e-02 -6.254085e-02 -6.623585e-02 -8.986880e-02 -2.125901e-01
<VARIANCE> 39
 1.453773e+01 1.068834e+01 1.441641e+01 1.649077e+01 1.704504e+01 2.255344e+01 2.142017e+01 2.519824e+01 2.112815e+01 2.206035e+01 1.910858e+01 1.722397e+01 9.350737e+01 1.124783e+00 7.844147e-01 1.122205e+00 8.651307e-01 1.030125e+00 1.215208e+00 1.131827e+00 1.330839e+00 1.179545e+00 1.175702e+00 9.738223e-01 8.894904e-01 3.985821e+00 1.259531e-01 1.123187e-01 1.591235e-01 1.528682e-01 1.645120e-01 2.103679e-01 2.030817e-01 2.254694e-01 2.001823e-01 2.053161e-01 1.770546e-01 1.573354e-01 5.026194e-01
<GCONST> 9.107931e+01
<MIXTURE> 4 2.433739e-01
<MEAN> 39
 2.390322e+00 6.638640e-01 2.008623e+00 -1.435607e+00 1.857783e-01 -1.773286e+00 -2.423339e+00 -4.253364e+00 -2.486020e+00 -2.481156e+00 -2.041643e+00 -2.358381e+00 -3.980810e+00 -1.145539e-01 -1.722511e-01 -1.690262e-01 -6.556608e-01 -4.818641e-01 -7.516309e-01 -5.979268e-01 -7.801735e-01 -3.759450e-01 -5.223199e-01 -3.268559e-01 -4.901696e-01 -1.375908e+00 -2.351066e-01 -1.907350e-01 -2.617291e-01 -9.678932e-02 -1.690836e-01 -6.055402e-02 -2.092790e-02 5.548164e-02 -1.372715e-02 -7.896744e-03 -2.585162e-02 -1.529001e-02 -8.941442e-05
<VARIANCE> 39
 2.103163e+01 1.644173e+01 2.809830e+01 2.410008e+01 2.702413e+01 2.951181e+01 3.056214e+01 3.529755e+01 3.088663e+01 2.763799e+01 2.325032e+01 2.168925e+01 6.403806e+01 9.797388e-01 8.566256e-01 1.327767e+00 1.054123e+00 1.109024e+00 1.249608e+00 1.329236e+00 1.570081e+00 1.334429e+00 1.233087e+00 1.057009e+00 1.013201e+00 2.681700e+00 1.522980e-01 1.452722e-01 2.093527e-01 1.840808e-01 2.052869e-01 2.357618e-01 2.369046e-01 2.552086e-01 2.479480e-01 2.307940e-01 1.960629e-01 1.928667e-01 2.967793e-01
<GCONST> 9.736241e+01
<STATE> 4
<NUMMIXES> 4
<MIXTURE> 1 2.649870e-01
<MEAN> 39
 9.912091e-02 4.957324e-01 5.947926e-01 7.761500e-01 3.613522e-01 4.090270e-01 1.526407e-01 2.850843e-01 1.159690e-01 5.183272e-01 4.730609e-01 7.294084e-01 2.811720e+00 3.795781e-02 1.039402e-01 1.150629e-01 1.733127e-01 1.942526e-01 2.409280e-01 2.960455e-01 3.727155e-01 3.935172e-01 4.150597e-01 3.451369e-01 2.856319e-01 7.885729e-02 5.257957e-02 2.715196e-02 3.954917e-02 8.958203e-02 1.426641e-01 1.781244e-01 2.066436e-01 2.115015e-01 2.114543e-01 1.811289e-01 1.456801e-01 1.207643e-01 8.355951e-03
<VARIANCE> 39
 4.590521e+00 3.903691e+00 6.041097e+00 9.642284e+00 1.105701e+01 1.365143e+01 1.426157e+01 1.660270e+01 1.652616e+01 1.619775e+01 1.437125e+01 1.387676e+01 2.337439e+01 1.451894e-01 1.643027e-01 2.603461e-01 3.888649e-01 4.833979e-01 5.666835e-01 6.013588e-01 6.971967e-01 7.334117e-01 7.541372e-01 6.651377e-01 5.863140e-01 5.543108e-02 3.581250e-02 3.983232e-02 5.736968e-02 8.125921e-02 1.015059e-01 1.205951e-01 1.357096e-01 1.399079e-01 1.565162e-01 1.491028e-01 1.342349e-01 1.222168e-01 2.685834e-02
<GCONST> 5.875929e+01
<MIXTURE> 2 2.350153e-01
<MEAN> 39
 1.118819e+00 7.314829e-01 9.531750e-01 1.897751e-01 2.718042e-01 -2.218554e-01 -3.380675e-01 -5.451957e-01 -3.532332e-01 -1.288605e-01 1.393132e-01 1.736398e-01 7.817169e-01 5.281143e-03 -1.997039e-02 -1.209694e-01 -1.473726e-01 -1.388224e-01 -9.740303e-02 3.717789e-02 1.147926e-01 1.359242e-01 1.366647e-01 1.672840e-01 1.280015e-01 -2.611884e-02 1.302192e-02 2.632596e-03 1.662841e-02 8.430154e-02 1.194162e-01 1.654200e-01 1.828897e-01 1.975673e-01 1.907091e-01 1.606089e-01 1.233716e-01 1.190470e-01 4.037561e-02
<VARIANCE> 39
 6.154949e+00 4.529385e+00 7.317883e+00 1.164134e+01 1.163965e+01 1.528957e+01 1.474028e+01 1.893004e+01 1.600047e+01 1.624552e+01 1.461659e+01 1.417971e+01 3.097499e+01 1.587866e-01 1.926662e-01 2.737980e-01 4.647573e-01 4.972289e-01 5.989270e-01 6.650361e-01 6.882068e-01 7.254955e-01 6.892040e-01 6.489453e-01 5.825241e-01 9.650080e-02 3.183838e-02 4.061917e-02 5.875605e-02 9.008160e-02 1.013018e-01 1.268594e-01 1.343604e-01 1.415286e-01 1.371674e-01 1.375787e-01 1.272248e-01 1.207145e-01 2.318557e-02
<GCONST> 6.092556e+01
<MIXTURE> 3 2.649870e-01
<MEAN> 39
 -7.578991e-01 -2.945780e-01 -3.883532e-01 -4.659312e-01 -9.687310e-01 -1.068887e+00 -1.357939e+00 -1.344772e+00 -1.510126e+00 -1.091530e+00 -1.043316e+00 -7.606525e-01 8.778377e-01 -1.144571e-01 -5.819683e-02 -8.903360e-02 -7.612344e-02 -8.385468e-02 -6.018548e-02 -1.414375e-02 3.872229e-02 5.095938e-02 6.769535e-02 1.891294e-02 -2.065268e-02 -1.531794e-02 -2.311719e-02 -5.268018e-02 -5.625870e-02 -2.444198e-02 1.522417e-02 3.921719e-02 5.928843e-02 6.188447e-02 5.320574e-02 2.667353e-02 -8.722544e-04 -1.907382e-02 -5.719811e-02
<VARIANCE> 39
 4.590521e+00 3.903691e+00 6.041097e+00 9.642284e+00 1.105701e+01 1.365143e+01 1.426157e+01 1.660270e+01 1.652616e+01 1.619775e+01 1.437125e+01 1.387676e+01 2.337439e+01 1.451894e-01 1.643027e-01 2.603461e-01 3.888649e-01 4.833979e-01 5.666835e-01 6.013588e-01 6.971967e-01 7.334117e-01 7.541372e-01 6.651377e-01 5.863140e-01 5.543108e-02 3.581250e-02 3.983232e-02 5.736968e-02 8.125921e-02 1.015059e-01 1.205951e-01 1.357096e-01 1.399079e-01 1.565162e-01 1.491028e-01 1.342349e-01 1.222168e-01 2.685834e-02
<GCONST> 5.875929e+01
<MIXTURE> 4 2.350153e-01
<MEAN> 39
 1.264523e-01 -1.198112e-01 -1.288884e-01 -1.175001e+00 -1.092873e+00 -1.785931e+00 -1.873791e+00 -2.285542e+00 -1.953257e+00 -1.741090e+00 -1.389953e+00 -1.332598e+00 -1.444490e+00 -1.541110e-01 -1.955454e-01 -3.302722e-01 -4.200650e-01 -4.208802e-01 -4.069645e-01 -2.890211e-01 -2.170403e-01 -2.047799e-01 -1.954086e-01 -1.549445e-01 -1.772916e-01 -1.503772e-01 -5.835134e-02 -7.798420e-02 -8.033019e-02 -3.575286e-02 -7.895600e-03 2.295074e-02 3.626889e-02 4.708613e-02 4.256467e-02 1.224250e-02 -1.930273e-02 -1.992897e-02 -2.053162e-02
<VARIANCE> 39
 6.154949e+00 4.529385e+00 7.317883e+00 1.164134e+01 1.163965e+01 1.528957e+01 1.474028e+01 1.893004e+01 1.600047e+01 1.624552e+01 1.461659e+01 1.417971e+01 3.097499e+01 1.587866e-01 1.926662e-01 2.737980e-01 4.647573e-01 4.972289e-01 5.989270e-01 6.650361e-01 6.882068e-01 7.254955e-01 6.892040e-01 6.489453e-01 5.825241e-01 9.650080e-02 3.183838e-02 4.061917e-02 5.875605e-02 9.008160e-02 1.013018e-01 1.268594e-01 1.343604e-01 1.415286e-01 1.371674e-01 1.375787e-01 1.272248e-01 1.207145e-01 2.318557e-02
<GCONST> 6.092556e+01
<TRANSP> 5
 0.000000e+00 1.000000e+00 0.000000e+00 0.000000e+00 0.000000e+00
 0.000000e+00 1.726960e-01 8.273040e-01 0.000000e+00 0.000000e+00
 0.000000e+00 0.000000e+00 6.733873e-01 3.266127e-01 0.000000e+00
 0.000000e+00 0.000000e+00 0.000000e+00 1.648542e-01 8.351458e-01
 0.000000e+00 0.000000e+00 0.000000e+00 0.000000e+00 0.000000e+00
<ENDHMM>
~h "r"
<BEGINHMM>
<NUMSTATES> 5
<STATE> 2
<NUMMIXES> 4
<MIXTURE> 1 2.498571e-01
<MEAN> 39
 -2.279940e+00 -1.975722e-01 -4.123603e-01 2.300835e+00 1.250540e+00 2.671170e+00 1.638336e+00 2.957796e+00 1.376191e+00 2.444111e+00 1.297631e+00 2.164776e+00 9.459766e+00 1.023929e-01 1.204485e-01 1.713553e-01 2.025990e-01 2.308972e-01 2.735579e-01 2.780519e-01 2.724919e-01 2.736076e-01 2.636004e-01 2.368257e-01 2.075675e-01 3.693542e-02 5.480173e-02 5.051227e-02 6.009040e-02 6.001705e-02 7.036948e-02 6.464963e-02 6.375794e-02 6.639937e-02 6.773736e-02 6.440601e-02 6.466167e-02 5.913992e-02 1.328217e-02
<VARIANCE> 39
 2.355625e+00 3.358078e+00 5.272428e+00 8.406606e+00 1.026105e+01 1.280455e+01 1.424739e+01 1.568837e+01 1.616881e+01 1.604760e+01 1.469914e+01 1.305837e+01 2.036753e+01 5.489982e-02 1.164533e-01 2.037106e-01 3.056479e-01 4.107368e-01 4.971147e-01 5.816779e-01 6.273352e-01 6.418172e-01 6.392705e-01 6.029590e-01 5.457231e-01 9.814302e-03 1.109130e-02 2.268795e-02 3.985170e-02 5.950438e-02 8.105772e-02 9.829906e-02 1.157539e-01 1.241941e-01 1.279966e-01 1.280789e-01 1.200807e-01 1.045466e-01 1.963555e-03
<GCONST> 4.647433e+01
<MIXTURE> 2 2.501304e-01
<MEAN> 39
 -1.719389e+00 -1.426740e-01 -3.697700e-01 1.805998e+00 9.940058e-01 2.110807e+00 1.218663e+00 2.374225e+00 1.143828e+00 1.824421e+00 9.764690e-01 1.748520e+00 7.858687e+00 1.458754e-02 3.838547e-03 -5.241409e-04 5.530000e-03 -7.547140e-03 -5.398393e-03 -8.234605e-03 -1.637647e-02 3.636897e-03 1.445651e-03 1.960146e-02 6.165923e-02 5.769389e-03 3.461292e-02 3.161657e-02 3.695330e-02 2.795444e-02 2.981711e-02 2.654356e-02 3.334881e-02 2.242532e-02 2.637982e-02 3.945674e-02 3.771022e-02 3.664679e-02 4.690320e-03
<VARIANCE> 39
 2.736704e+00 3.067407e+00 5.182425e+00 8.177601e+00 9.907965e+00 1.237099e+01 1.398099e+01 1.497093e+01 1.575955e+01 1.549057e+01 1.415478e+01 1.296378e+01 2.387926e+01 5.713226e-02 1.174749e-01 2.074121e-01 3.149527e-01 4.207570e-01 5.051244e-01 6.023840e-01 6.325771e-01 6.753510e-01 6.591389e-01 6.146228e-01 5.454295e-01 9.980008e-03 1.122670e-02 2.270856e-02 4.013941e-02 5.925535e-02 7.966923e-02 9.736804e-02 1.154333e-01 1.205309e-01 1.293313e-01 1.251203e-01 1.194444e-01 1.050933e-01 2.078369e-03
<GCONST> 4.670402e+01
<MIXTURE> 3 2.501304e-01
<MEAN> 39
 -2.381109e+00 -8.432346e-01 -1.280368e+00 6.621379e-01 -2.650710e-01 7.039106e-01 -2.769831e-01 8.265333e-01 -4.441037e-01 2.500988e-01 -5.284446e-01 3.083100e-01 5.904031e+00 -8.102188e-02 -1.332599e-01 -1.826942e-01 -2.189526e-01 -2.670103e-01 -2.896868e-01 -3.186882e-01 -3.345153e-01 -3.250821e-01 -3.233038e-01 -2.939901e-01 -2.337536e-01 -3.419061e-02 -7.769524e-03 -2.866087e-02 -4.318599e-02 -6.941524e-02 -8.308585e-02 -9.827185e-02 -1.025531e-01 -1.164449e-01 -1.174708e-01 -1.020326e-01 -1.005327e-01 -9.302561e-02 -1.354533e-02
<VARIANCE> 39
 2.736704e+00 3.067407e+00 5.182425e+00 8.177601e+00 9.907965e+00 1.237099e+01 1.398099e+01 1.497093e+01 1.575955e+01 1.549057e+01 1.415478e+01 1.296378e+01 2.387926e+01 5.713226e-02 1.174749e-01 2.074121e-01 3.149527e-01 4.207570e-01 5.051244e-01 6.023840e-01 6.325771e-01 6.753510e-01 6.591389e-01 6.146228e-01 5.454295e-01 9.980008e-03 1.122670e-02 2.270856e-02 4.013941e-02 5.925535e-02 7.966923e-02 9.736804e-02 1.154333e-01 1.205309e-01 1.293313e-01 1.251203e-01 1.194444e-01 1.050933e-01 2.078369e-03
<GCONST> 4.670402e+01
<MIXTURE> 4 2.498571e-01
<MEAN> 39
 -2.893862e+00 -9.305745e-01 -1.330831e+00 1.141069e+00 -3.077507e-02 1.239832e+00 1.285072e-01 1.373454e+00 -2.322277e-01 8.417329e-01 -2.359476e-01 7.193217e-01 7.654551e+00 8.670080e-03 -1.605248e-02 -9.181902e-03 -1.854274e-02 -2.545781e-02 -8.467525e-03 -2.701934e-02 -4.432608e-02 -4.684638e-02 -5.621719e-02 -7.377607e-02 -8.792478e-02 -2.691444e-03 1.267563e-02 -9.737808e-03 -1.976116e-02 -3.755703e-02 -4.351306e-02 -6.076108e-02 -7.233256e-02 -7.456537e-02 -7.536909e-02 -7.874644e-02 -7.394897e-02 -7.019475e-02 -4.442635e-03
<VARIANCE> 39
 2.355625e+00 3.358078e+00 5.272428e+00 8.406606e+00 1.026105e+01 1.280455e+01 1.424739e+01 1.568837e+01 1.616881e+01 1.604760e+01 1.469914e+01 1.305837e+01 2.036753e+01 5.489982e-02 1.164533e-01 2.037106e-01 3.056479e-01 4.107368e-01 4.971147e-01 5.816779e-01 6.273352e-01 6.418172e-01 6.392705e-01 6.029590e-01 5.457231e-01 9.814302e-03 1.109130e-02 2.268795e-02 3.985170e-02 5.950438e-02 8.105772e-02 9.829906e-02 1.157539e-01 1.241941e-01 1.279966e-01 1.280789e-01 1.200807e-01 1.045466e-01 1.963555e-03
<GCONST> 4.647433e+01
<STATE> 3
<NUMMIXES> 4
<MIXTURE> 1 2.463029e-01
<MEAN> 39
 -8.363518e-01 1.434514e-01 2.524520e-01 1.716831e+00 1.077578e+00 2.010712e+00 1.466509e+00 1.897264e+00 9.694391e-01 1.610317e+00 9.709510e-01 1.517406e+00 5.122023e+00 2.672274e-01 1.958309e-01 2.355495e-01 1.809742e-01 1.445645e-01 1.157413e-01 1.020751e-01 8.093237e-02 8.262014e-02 9.723059e-02 1.078841e-01 9.144935e-02 5.241650e-02 9.926496e-02 7.021004e-02 7.829368e-02 4.624791e-02 6.704301e-02 3.327373e-02 3.618816e-02 4.559612e-02 6.145911e-02 5.567212e-02 7.297739e-02 4.466516e-02 -4.437627e-03
<VARIANCE> 39
 2.698616e+00 2.844387e+00 4.689095e+00 7.879754e+00 9.322159e+00 1.185028e+01 1.321917e+01 1.477395e+01 1.403671e+01 1.536906e+01 1.398374e+01 1.252976e+01 2.785740e+01 7.945702e-02 1.360549e-01 2.329864e-01 3.243273e-01 4.218001e-01 5.059208e-01 5.673436e-01 6.771459e-01 6.927797e-01 6.755393e-01 6.199560e-01 5.951524e-01 1.299242e-02 1.929872e-02 2.736787e-02 4.941012e-02 6.883261e-02 8.945310e-02 1.048340e-01 1.148757e-01 1.356651e-01 1.302457e-01 1.358009e-01 1.269361e-01 1.086775e-01 6.186376e-03
<GCONST> 4.999583e+01
<MIXTURE> 2 2.537028e-01
<MEAN> 39
 -4.277351e-02 2.476398e-01 3.002810e-01 7.796592e-01 6.332220e-01 9.508250e-01 7.443665e-01 7.211542e-01 6.612958e-01 6.518900e-01 6.168734e-01 9.144521e-01 1.414296e+00 1.066097e-01 7.894581e-02 3.258449e-02 -5.277269e-02 -1.077411e-01 -1.440244e-01 -1.608445e-01 -2.200057e-01 -1.892498e-01 -1.390268e-01 -8.956735e-02 -2.102847e-02 2.185076e-02 3.749530e-02 3.862101e-02 4.567244e-02 2.216361e-02 2.603450e-02 1.945608e-02 3.191886e-02 4.884341e-02 4.271566e-02 5.787428e-02 4.774812e-02 3.217765e-02 5.777277e-03
<VARIANCE> 39
 1.627394e+00 2.390554e+00 4.502347e+00 6.958318e+00 9.023049e+00 1.118124e+01 1.315865e+01 1.318182e+01 1.403921e+01 1.383479e+01 1.348628e+01 1.197447e+01 6.827147e+00 6.147464e-02 1.239828e-01 2.096697e-01 3.236564e-01 4.180357e-01 4.945077e-01 5.610412e-01 6.601282e-01 6.576172e-01 6.527476e-01 6.245626e-01 5.914588e-01 1.065167e-02 1.250054e-02 2.398269e-02 4.364689e-02 6.231739e-02 8.398858e-02 1.031950e-01 1.149590e-01 1.231618e-01 1.306622e-01 1.243441e-01 1.174903e-01 1.045735e-01 2.670997e-03
<GCONST> 4.453468e+01
<MIXTURE> 3 2.537028e-01
<MEAN> 39
 -5.530509e-01 -3.708169e-01 -5.484684e-01 -2.754859e-01 -5.683137e-01 -3.867094e-01 -7.066277e-01 -7.311170e-01 -8.374615e-01 -8.359159e-01 -8.520736e-01 -4.697138e-01 3.691433e-01 7.433381e-03 -6.189896e-02 -1.505743e-01 -2.803359e-01 -3.663639e-01 -4.253094e-01 -4.604553e-01 -5.449988e-01 -5.136242e-01 -4.621980e-01 -4.056845e-01 -3.286539e-01 -1.943202e-02 -7.227023e-03 -2.332437e-02 -3.789492e-02 -7.769019e-02 -8.988864e-02 -1.090398e-01 -1.037036e-01 -9.153426e-02 -1.018733e-01 -8.317555e-02 -8.935931e-02 -9.717365e-02 -1.489540e-02
<VARIANCE> 39
 1.627394e+00 2.390554e+00 4.502347e+00 6.958318e+00 9.023049e+00 1.118124e+01 1.315865e+01 1.318182e+01 1.403921e+01 1.383479e+01 1.348628e+01 1.197447e+01 6.827147e+00 6.147464e-02 1.239828e-01 2.096697e-01 3.236564e-01 4.180357e-01 4.945077e-01 5.610412e-01 6.601282e-01 6.576172e-01 6.527476e-01 6.245626e-01 5.914588e-01 1.065167e-02 1.250054e-02 2.398269e-02 4.364689e-02 6.231739e-02 8.398858e-02 1.031950e-01 1.149590e-01 1.231618e-01 1.306622e-01 1.243441e-01 1.174903e-01 1.045735e-01 2.670997e-03
<GCONST> 4.453468e+01
<MIXTURE> 4 2.463029e-01
<MEAN> 39
 -1.493450e+00 -5.311610e-01 -6.137208e-01 5.939950e-01 -1.437109e-01 6.337423e-01 1.218206e-02 3.597881e-01 -5.291848e-01 4.218072e-02 -5.248426e-01 1.015103e-01 3.010819e+00 1.544750e-01 4.828846e-02 4.247487e-02 -4.682480e-02 -1.152201e-01 -1.687712e-01 -1.992138e-01 -2.482231e-01 -2.503134e-01 -2.315342e-01 -2.070650e-01 -2.171351e-01 6.822780e-03 4.369702e-02 4.037086e-03 -1.061988e-02 -5.869597e-02 -5.259183e-02 -9.623858e-02 -9.938511e-02 -1.017349e-01 -8.289917e-02 -9.173258e-02 -6.953498e-02 -8.719993e-02 -3.589904e-02
<VARIANCE> 39
 2.698616e+00 2.844387e+00 4.689095e+00 7.879754e+00 9.322159e+00 1.185028e+01 1.321917e+01 1.477395e+01 1.403671e+01 1.536906e+01 1.398374e+01 1.252976e+01 2.785740e+01 7.945702e-02 1.360549e-01 2.329864e-01 3.243273e-01 4.218001e-01 5.059208e-01 5.673436e-01 6.771459e-01 6.927797e-01 6.755393e-01 6.199560e-01 5.951524e-01 1.299242e-02 1.929872e-02 2.736787e-02 4.941012e-02 6.883261e-02 8.945310e-02 1.048340e-01 1.148757e-01 1.356651e-01 1.302457e-01 1.358009e-01 1.269361e-01 1.086775e-01 6.186376e-03
<GCONST> 4.999583e+01
<STATE> 4
<NUMMIXES> 4
<MIXTURE> 1 2.899956e-01
<MEAN> 39
 4.959121e-01 3.297288e-01 4.796945e-01 1.239134e+00 1.022149e+00 1.374830e+00 8.570286e-01 1.137454e+00 6.259768e-01 1.077686e+00 6.891755e-01 8.493549e-01 3.604980e+00 3.712934e-01 2.794471e-01 2.748412e-01 1.930842e-01 1.841541e-01 1.208942e-01 1.451538e-01 1.080900e-01 1.550429e-01 1.168149e-01 1.538779e-01 1.063786e-01 -1.047639e-01 8.854465e-02 7.063127e-02 1.163887e-01 7.319792e-02 1.032058e-01 6.543516e-02 1.006172e-01 5.860828e-02 1.073319e-01 7.838975e-02 9.862769e-02 5.533592e-02 -2.764854e-02
<VARIANCE> 39
 7.725558e+00 6.452960e+00 8.073137e+00 1.248777e+01 1.340631e+01 1.774486e+01 1.715561e+01 2.119081e+01 1.896308e+01 1.908426e+01 1.610281e+01 1.502034e+01 5.731748e+01 3.926670e-01 4.190637e-01 5.026866e-01 5.994605e-01 7.343372e-01 8.401636e-01 8.058014e-01 9.214250e-01 8.745401e-01 8.568481e-01 7.703748e-01 6.676226e-01 5.838525e-01 4.732829e-02 7.136344e-02 8.252379e-02 1.102503e-01 1.280611e-01 1.519401e-01 1.398843e-01 1.766098e-01 1.572564e-01 1.572726e-01 1.387813e-01 1.217241e-01 1.057731e-01
<GCONST> 7.366183e+01
<MIXTURE> 2 2.099972e-01
<MEAN> 39
 4.099777e+00 1.132081e+00 3.212866e+00 1.621600e+00 2.608253e+00 8.091469e-01 9.642743e-01 -1.667099e+00 -1.120361e-01 -2.880636e-01 3.902373e-01 -6.174289e-01 -3.343403e-02 3.365155e-01 1.654238e-01 2.529944e-01 -1.836702e-01 5.520101e-02 -1.655773e-01 -3.567335e-02 -2.322454e-01 3.710179e-02 -1.001184e-01 1.231959e-01 -7.932344e-02 -1.003371e+00 -5.532657e-02 5.713686e-02 -3.249593e-02 5.775382e-02 3.724816e-02 1.218784e-01 8.750900e-02 2.110441e-01 1.360510e-01 1.510911e-01 1.021145e-01 1.312774e-01 1.640218e-01
<VARIANCE> 39
 1.877203e+01 3.320521e+01 2.415085e+01 2.998784e+01 3.500631e+01 4.028098e+01 3.234483e+01 3.636838e+01 3.225916e+01 2.774526e+01 2.327174e+01 2.127138e+01 5.924458e+01 8.118058e-01 1.468736e+00 1.223685e+00 1.311707e+00 1.593337e+00 1.869690e+00 1.410322e+00 1.793349e+00 1.386711e+00 1.267550e+00 1.114363e+00 9.732007e-01 1.785905e+00 1.102965e-01 2.155347e-01 1.823054e-01 2.149699e-01 2.589931e-01 3.075745e-01 2.468578e-01 2.718511e-01 2.330335e-01 2.132372e-01 1.951863e-01 1.682687e-01 1.778889e-01
<GCONST> 9.964127e+01
<MIXTURE> 3 2.899956e-01
<MEAN> 39
 -6.158835e-01 -6.863782e-01 -6.568361e-01 -1.743873e-01 -4.424358e-01 -3.101556e-01 -7.997446e-01 -7.038854e-01 -1.115888e+00 -6.697357e-01 -9.159568e-01 -7.008885e-01 5.766480e-01 1.206408e-01 2.050664e-02 -8.760393e-03 -1.166151e-01 -1.586198e-01 -2.457476e-01 -2.139120e-01 -2.758736e-01 -2.190245e-01 -2.534495e-01 -1.972061e-01 -2.204541e-01 -4.104049e-01 1.524389e-03 -3.622448e-02 1.480907e-03 -5.961794e-02 -3.993667e-02 -9.048283e-02 -4.898727e-02 -1.094916e-01 -5.129033e-02 -8.024070e-02 -5.038576e-02 -8.422001e-02 -1.577396e-01
<VARIANCE> 39
 7.725558e+00 6.452960e+00 8.073137e+00 1.248777e+01 1.340631e+01 1.774486e+01 1.715561e+01 2.119081e+01 1.896308e+01 1.908426e+01 1.610281e+01 1.502034e+01 5.731748e+01 3.926670e-01 4.190637e-01 5.026866e-01 5.994605e-01 7.343372e-01 8.401636e-01 8.058014e-01 9.214250e-01 8.745401e-01 8.568481e-01 7.703748e-01 6.676226e-01 5.838525e-01 4.732829e-02 7.136344e-02 8.252379e-02 1.102503e-01 1.280611e-01 1.519401e-01 1.398843e-01 1.766098e-01 1.572564e-01 1.572726e-01 1.387813e-01 1.217241e-01 1.057731e-01
<GCONST> 7.366183e+01
<MIXTURE> 4 2.099972e-01
<MEAN> 39
 2.366709e+00 -1.172878e+00 1.247126e+00 -5.688463e-01 2.416073e-01 -1.729545e+00 -1.310626e+00 -4.079347e+00 -2.383922e+00 -2.395014e+00 -1.539394e+00 -2.462265e+00 -3.112254e+00 -2.388553e-02 -3.193419e-01 -1.894868e-01 -6.417894e-01 -4.497088e-01 -7.125237e-01 -5.107013e-01 -7.679094e-01 -4.339330e-01 -5.504605e-01 -2.990577e-01 -4.739272e-01 -1.537923e+00 -1.881702e-01 -1.285660e-01 -2.032849e-01 -1.277056e-01 -1.663173e-01 -9.995925e-02 -1.112302e-01 2.486713e-03 -5.704318e-02 -3.361936e-02 -7.460507e-02 -3.280490e-02 -4.685722e-03
<VARIANCE> 39
 1.877203e+01 3.320521e+01 2.415085e+01 2.998784e+01 3.500631e+01 4.028098e+01 3.234483e+01 3.636838e+01 3.225916e+01 2.774526e+01 2.327174e+01 2.127138e+01 5.924458e+01 8.118058e-01 1.468736e+00 1.223685e+00 1.311707e+00 1.593337e+00 1.869690e+00 1.410322e+00 1.793349e+00 1.386711e+00 1.267550e+00 1.114363e+00 9.732007e-01 1.785905e+00 1.102965e-01 2.155347e-01 1.823054e-01 2.149699e-01 2.589931e-01 3.075745e-01 2.468578e-01 2.718511e-01 2.330335e-01 2.132372e-01 1.951863e-01 1.682687e-01 1.778889e-01
<GCONST> 9.964127e+01
<TRANSP> 5
 0.000000e+00 1.000000e+00 0.000000e+00 0.000000e+00 0.000000e+00
 0.000000e+00 7.912277e-01 2.087723e-01 0.000000e+00 0.000000e+00
 0.000000e+00 0.000000e+00 1.153508e-01 8.846492e-01 0.000000e+00
 0.000000e+00 0.000000e+00 0.000000e+00 5.657871e-01 4.342129e-01
 0.000000e+00 0.000000e+00 0.000000e+00 0.000000e+00 0.000000e+00
<ENDHMM>
~h "s"
<BEGINHMM>
<NUMSTATES> 5
<STATE> 2
<NUMMIXES> 4
<MIXTURE> 1 3.164471e-01
<MEAN> 39
 3.446599e-01 4.813270e-01 2.196113e-01 -9.520429e-02 -1.148282e-01 -1.336871e-01 -1.177240e-01 7.128942e-02 1.782620e-01 1.622515e-01 3.832196e-01 3.635730e-01 7.070154e-01 4.945701e-02 8.885770e-02 1.143260e-01 2.323965e-01 2.425436e-01 2.778319e-01 3.296233e-01 3.520122e-01 3.230721e-01 3.240361e-01 3.093696e-01 3.025952e-01 4.902818e-02 1.360981e-03 2.202352e-02 7.819631e-02 1.816404e-01 1.953102e-01 2.404040e-01 2.344672e-01 2.250191e-01 1.890829e-01 1.951965e-01 1.541497e-01 1.458650e-01 3.221624e-02
<VARIANCE> 39
 2.648204e+00 3.175421e+00 5.099483e+00 8.613784e+00 9.748051e+00 1.211295e+01 1.317381e+01 1.509690e+01 1.491119e+01 1.507044e+01 1.351167e+01 1.291098e+01 6.912640e+00 9.316570e-02 1.532054e-01 2.412041e-01 3.769171e-01 4.455680e-01 5.092683e-01 5.748069e-01 6.294951e-01 6.692665e-01 6.958553e-01 6.604080e-01 5.711052e-01 3.303515e-02 2.098300e-02 3.111131e-02 4.962311e-02 8.069878e-02 8.829015e-02 1.070636e-01 1.155353e-01 1.275524e-01 1.363108e-01 1.318830e-01 1.160882e-01 1.103932e-01 1.036821e-02
<GCONST> 5.118837e+01
<MIXTURE> 2 1.835595e-01
<MEAN> 39
 2.356833e-01 9.432334e-02 -3.600559e-01 -1.193142e+00 -6.951551e-01 -8.747244e-01 -2.976620e-01 -4.096467e-01 7.454661e-01 -2.540639e-01 5.894052e-01 5.442977e-03 -1.411361e+00 5.477350e-02 -3.231466e-04 -6.269271e-02 -1.890302e-02 6.820177e-02 -4.527119e-02 1.381869e-01 1.554458e-01 1.383911e-01 9.876156e-02 1.622001e-01 1.191346e-01 -2.497550e-02 5.499053e-02 6.020391e-02 1.026307e-01 1.638600e-01 1.452774e-01 1.899669e-01 1.631517e-01 1.476427e-01 1.088425e-01 1.428842e-01 8.899553e-02 8.855443e-02 1.535944e-01
<VARIANCE> 39
 1.016456e+01 6.453984e+00 7.313276e+00 1.423133e+01 1.278255e+01 1.700818e+01 1.485690e+01 1.745156e+01 1.737200e+01 1.834062e+01 1.539156e+01 1.518672e+01 6.812815e+01 2.303393e-01 2.817813e-01 3.554997e-01 5.557433e-01 5.814711e-01 6.831164e-01 6.452608e-01 7.272445e-01 7.062656e-01 7.833430e-01 7.153431e-01 6.367295e-01 3.399828e-01 5.505293e-02 5.669016e-02 6.381736e-02 1.195283e-01 1.112286e-01 1.420429e-01 1.347525e-01 1.545339e-01 1.390042e-01 1.512853e-01 1.266609e-01 1.168548e-01 9.168763e-02
<GCONST> 6.926238e+01
<MIXTURE> 3 3.164471e-01
<MEAN> 39
 -3.062722e-01 -2.314614e-01 -6.836701e-01 -1.269174e+00 -1.363703e+00 -1.525834e+00 -1.569554e+00 -1.482900e+00 -1.366338e+00 -1.390575e+00 -1.087109e+00 -1.073701e+00 -3.446606e-01 -7.263523e-02 -6.770815e-02 -8.212410e-02 -1.317775e-02 -2.445997e-02 -7.620275e-03 2.635926e-02 3.464925e-02 -4.162729e-03 -9.635687e-03 -1.569238e-02 3.091991e-04 -2.367412e-02 -5.658106e-02 -4.853008e-02 -1.090867e-02 6.801024e-02 7.645558e-02 1.095217e-01 9.850524e-02 8.216114e-02 4.140171e-02 4.993370e-02 1.786284e-02 1.296310e-02 -8.513522e-03
<VARIANCE> 39
 2.648204e+00 3.175421e+00 5.099483e+00 8.613784e+00 9.748051e+00 1.211295e+01 1.317381e+01 1.509690e+01 1.491119e+01 1.507044e+01 1.351167e+01 1.291098e+01 6.912640e+00 9.316570e-02 1.532054e-01 2.412041e-01 3.769171e-01 4.455680e-01 5.092683e-01 5.748069e-01 6.294951e-01 6.692665e-01 6.958553e-01 6.604080e-01 5.711052e-01 3.303515e-02 2.098300e-02 3.111131e-02 4.962311e-02 8.069878e-02 8.829015e-02 1.070636e-01 1.155353e-01 1.275524e-01 1.363108e-01 1.318830e-01 1.160882e-01 1.103932e-01 1.036821e-02
<GCONST> 5.118837e+01
<MIXTURE> 4 1.835595e-01
<MEAN> 39
 -1.039593e+00 -9.218643e-01 -1.441779e+00 -2.702120e+00 -2.125263e+00 -2.524364e+00 -1.839448e+00 -2.080649e+00 -9.217232e-01 -1.967102e+00 -9.798779e-01 -1.553363e+00 -4.712953e+00 -1.372012e-01 -2.126555e-01 -3.011879e-01 -3.170958e-01 -2.368152e-01 -3.758746e-01 -1.831256e-01 -1.856687e-01 -1.977674e-01 -2.552651e-01 -1.761118e-01 -2.000467e-01 -2.582077e-01 -3.886291e-02 -3.503487e-02 1.582313e-03 2.556854e-02 1.187363e-02 3.921254e-02 1.631705e-02 -9.600498e-03 -4.029056e-02 -1.269744e-02 -5.336228e-02 -4.818170e-02 3.247450e-02
<VARIANCE> 39
 1.016456e+01 6.453984e+00 7.313276e+00 1.423133e+01 1.278255e+01 1.700818e+01 1.485690e+01 1.745156e+01 1.737200e+01 1.834062e+01 1.539156e+01 1.518672e+01 6.812815e+01 2.303393e-01 2.817813e-01 3.554997e-01 5.557433e-01 5.814711e-01 6.831164e-01 6.452608e-01 7.272445e-01 7.062656e-01 7.833430e-01 7.153431e-01 6.367295e-01 3.399828e-01 5.505293e-02 5.669016e-02 6.381736e-02 1.195283e-01 1.112286e-01 1.420429e-01 1.347525e-01 1.545339e-01 1.390042e-01 1.512853e-01 1.266609e-01 1.168548e-01 9.168763e-02
<GCONST> 6.926238e+01
<STATE> 3
<NUMMIXES> 4
<MIXTURE> 1 2.698132e-01
<MEAN> 39
 -4.004400e-01 -4.687709e-02 -4.939733e-01 -1.503806e+00 -1.676271e-01 -8.675156e-01 3.241836e-01 -1.125449e-01 1.649566e+00 -2.474279e-01 1.214793e+00 -1.740097e-01 -2.235423e-01 2.216469e-01 2.748539e-01 2.851195e-01 5.911701e-01 4.315814e-01 6.158980e-01 4.662879e-01 5.524366e-01 3.004743e-01 4.988884e-01 2.633147e-01 4.371218e-01 7.312276e-01 5.068346e-02 6.684999e-02 1.051600e-01 2.172529e-01 1.384916e-01 2.075295e-01 1.338671e-01 1.697792e-01 7.027096e-02 1.768545e-01 8.040480e-02 1.378849e-01 1.777087e-01
<VARIANCE> 39
 1.076509e+01 8.702137e+00 1.021185e+01 1.642208e+01 1.420088e+01 1.740072e+01 1.668151e+01 1.894257e+01 2.039115e+01 2.401108e+01 1.948486e+01 1.715286e+01 2.985194e+01 4.228099e-01 4.132122e-01 4.207814e-01 7.354391e-01 6.028034e-01 7.492563e-01 7.110987e-01 8.054656e-01 8.567682e-01 8.989412e-01 7.739820e-01 6.609630e-01 1.197526e+00 5.917012e-02 6.239379e-02 7.070670e-02 1.235512e-01 1.102960e-01 1.320851e-01 1.300364e-01 1.503432e-01 1.526296e-01 1.797909e-01 1.458137e-01 1.313733e-01 1.052408e-01
<GCONST> 7.467770e+01
<MIXTURE> 2 2.301818e-01
<MEAN> 39
 5.474669e-01 2.909547e-02 -2.238567e-01 -1.800767e+00 -4.085839e-01 -1.086558e+00 3.076993e-01 -3.472532e-01 1.447013e+00 -3.947304e-01 8.999887e-01 -5.312495e-01 -4.470789e+00 1.195183e-02 5.417205e-02 3.471115e-02 6.809980e-02 1.218201e-01 4.702544e-02 1.168643e-01 8.306158e-02 2.071910e-01 9.079728e-02 1.830666e-01 6.992808e-02 7.629008e-01 5.938749e-02 8.163178e-02 7.125071e-02 1.135289e-01 7.906318e-02 1.104445e-01 7.890558e-02 9.282979e-02 7.774083e-02 9.164753e-02 7.317030e-02 8.595061e-02 1.705162e-01
<VARIANCE> 39
 1.832092e+01 1.464314e+01 1.497396e+01 2.125103e+01 1.928251e+01 2.332520e+01 2.060603e+01 2.357990e+01 2.240657e+01 2.399102e+01 2.042433e+01 1.723115e+01 7.430792e+01 7.858320e-01 6.497613e-01 6.551102e-01 9.600775e-01 8.005732e-01 9.847758e-01 9.042624e-01 9.946580e-01 9.503151e-01 1.028141e+00 8.570659e-01 7.666445e-01 2.586753e+00 1.189287e-01 1.141283e-01 1.154524e-01 1.758477e-01 1.461048e-01 1.832291e-01 1.665630e-01 1.853721e-01 1.700798e-01 1.792958e-01 1.552815e-01 1.379234e-01 2.975523e-01
<GCONST> 8.697208e+01
<MIXTURE> 3 2.698132e-01
<MEAN> 39
 -1.712848e+00 -1.226852e+00 -1.772213e+00 -3.124772e+00 -1.674989e+00 -2.536083e+00 -1.309537e+00 -1.853467e+00 -1.566963e-01 -2.207472e+00 -5.508732e-01 -1.830650e+00 -2.409019e+00 -3.844839e-02 1.772763e-02 2.564886e-02 2.481391e-01 1.210198e-01 2.696596e-01 1.289813e-01 1.934456e-01 -6.977285e-02 1.196384e-01 -8.859026e-02 1.119232e-01 2.935014e-01 -4.661617e-02 -3.306501e-02 -1.202956e-03 7.665350e-02 5.648270e-03 6.215547e-02 -1.037512e-02 1.468276e-02 -8.600040e-02 7.247448e-03 -7.233745e-02 -7.096916e-03 4.794533e-02
<VARIANCE> 39
 1.076509e+01 8.702137e+00 1.021185e+01 1.642208e+01 1.420088e+01 1.740072e+01 1.668151e+01 1.894257e+01 2.039115e+01 2.401108e+01 1.948486e+01 1.715286e+01 2.985194e+01 4.228099e-01 4.132122e-01 4.207814e-01 7.354391e-01 6.028034e-01 7.492563e-01 7.110987e-01 8.054656e-01 8.567682e-01 8.989412e-01 7.739820e-01 6.609630e-01 1.197526e+00 5.917012e-02 6.239379e-02 7.070670e-02 1.235512e-01 1.102960e-01 1.320851e-01 1.300364e-01 1.503432e-01 1.526296e-01 1.797909e-01 1.458137e-01 1.313733e-01 1.052408e-01
<GCONST> 7.467770e+01
<MIXTURE> 4 2.301818e-01
<MEAN> 39
 -1.164651e+00 -1.501559e+00 -1.771705e+00 -3.644721e+00 -2.165058e+00 -3.018404e+00 -1.508055e+00 -2.289619e+00 -4.464097e-01 -2.353956e+00 -9.077427e-01 -2.191666e+00 -7.918871e+00 -3.426368e-01 -2.682590e-01 -2.890444e-01 -3.238344e-01 -2.360789e-01 -3.499180e-01 -2.635066e-01 -3.158686e-01 -1.827455e-01 -3.147919e-01 -1.872448e-01 -2.803049e-01 1.195654e-01 -7.855667e-02 -5.349974e-02 -6.466244e-02 -5.420793e-02 -7.383145e-02 -6.077655e-02 -8.434294e-02 -7.938965e-02 -8.722211e-02 -7.772581e-02 -8.445280e-02 -6.260155e-02 -4.767722e-02
<VARIANCE> 39
 1.832092e+01 1.464314e+01 1.497396e+01 2.125103e+01 1.928251e+01 2.332520e+01 2.060603e+01 2.357990e+01 2.240657e+01 2.399102e+01 2.042433e+01 1.723115e+01 7.430792e+01 7.858320e-01 6.497613e-01 6.551102e-01 9.600775e-01 8.005732e-01 9.847758e-01 9.042624e-01 9.946580e-01 9.503151e-01 1.028141e+00 8.570659e-01 7.666445e-01 2.586753e+00 1.189287e-01 1.141283e-01 1.154524e-01 1.758477e-01 1.461048e-01 1.832291e-01 1.665630e-01 1.853721e-01 1.700798e-01 1.792958e-01 1.552815e-01 1.379234e-01 2.975523e-01
<GCONST> 8.697208e+01
<STATE> 4
<NUMMIXES> 4
<MIXTURE> 1 2.402896e-01
<MEAN> 39
 -3.191939e-01 6.365091e-01 2.783509e-01 1.520239e+00 1.062736e+00 1.942247e+00 1.559955e+00 2.006617e+00 1.480947e+00 1.769791e+00 1.031030e+00 1.668180e+00 4.641806e+00 4.424525e-02 1.754342e-01 3.252347e-01 9.381176e-01 5.686016e-01 8.395067e-01 5.735054e-01 7.413879e-01 2.336712e-01 7.020856e-01 3.196108e-01 5.955594e-01 8.211500e-01 -2.633806e-02 -1.135233e-02 8.381389e-03 -4.838504e-03 3.225576e-02 -1.331475e-02 2.347318e-02 -3.532656e-03 6.281018e-02 1.047151e-02 8.306928e-02 -9.961054e-04 -6.944516e-02
<VARIANCE> 39
 4.555247e+00 4.152945e+00 6.288836e+00 1.159820e+01 1.142448e+01 1.418877e+01 1.506691e+01 1.713591e+01 1.746209e+01 1.876875e+01 1.566564e+01 1.429140e+01 2.560034e+01 2.680352e-01 2.727411e-01 3.233285e-01 7.519670e-01 5.908918e-01 7.223207e-01 7.089707e-01 7.778737e-01 8.677346e-01 1.061673e+00 8.077561e-01 7.398566e-01 7.357120e-01 4.022604e-02 4.467384e-02 5.982199e-02 1.029315e-01 1.011709e-01 1.201998e-01 1.252872e-01 1.347568e-01 1.440115e-01 1.633921e-01 1.331518e-01 1.163810e-01 5.596142e-02
<GCONST> 6.691213e+01
<MIXTURE> 2 2.597099e-01
<MEAN> 39
 -5.480389e-01 1.520556e-01 1.346710e-02 1.252487e+00 6.810517e-01 1.287780e+00 1.019013e+00 1.404487e+00 9.463524e-01 1.332931e+00 9.259257e-01 1.382205e+00 3.994517e+00 -8.434883e-02 -1.351562e-02 6.316253e-02 4.024409e-01 2.591469e-01 3.465436e-01 2.600385e-01 3.421225e-01 1.541238e-01 2.998167e-01 2.132174e-01 2.566106e-01 3.622741e-01 4.956962e-02 3.965523e-02 4.090688e-02 -4.390503e-02 3.108108e-02 -2.011530e-03 2.851786e-02 -1.976558e-02 7.777879e-02 -3.763258e-03 3.937228e-02 -1.967744e-02 -7.548341e-02
<VARIANCE> 39
 5.893026e+00 4.152515e+00 6.443980e+00 1.134784e+01 1.123367e+01 1.439303e+01 1.463622e+01 1.668466e+01 1.650549e+01 1.724893e+01 1.538719e+01 1.367449e+01 3.226298e+01 1.971905e-01 2.078069e-01 2.892748e-01 4.917960e-01 5.049438e-01 6.161747e-01 6.690847e-01 7.203713e-01 8.092175e-01 8.115882e-01 6.479305e-01 6.138800e-01 2.937658e-01 3.178757e-02 3.930254e-02 5.789720e-02 1.059319e-01 9.509932e-02 1.208627e-01 1.190415e-01 1.343855e-01 1.455118e-01 1.615306e-01 1.393958e-01 1.147770e-01 6.633607e-02
<GCONST> 6.363621e+01
<MIXTURE> 3 2.597099e-01
<MEAN> 39
 -1.519061e+00 -6.630532e-01 -1.001933e+00 -9.497565e-02 -6.596150e-01 -2.297463e-01 -5.112790e-01 -2.293876e-01 -6.787256e-01 -3.283422e-01 -6.431347e-01 -9.695679e-02 1.722497e+00 -2.619734e-01 -1.958590e-01 -1.519746e-01 1.219283e-01 -2.509069e-02 3.255640e-02 -6.715189e-02 2.623722e-03 -2.057023e-01 -6.053609e-02 -1.087591e-01 -5.679135e-02 1.454734e-01 -2.174666e-02 -3.964424e-02 -5.534047e-02 -1.740938e-01 -9.227164e-02 -1.410728e-01 -1.094917e-01 -1.664001e-01 -7.480526e-02 -1.645267e-01 -1.099707e-01 -1.551925e-01 -1.785066e-01
<VARIANCE> 39
 5.893026e+00 4.152515e+00 6.443980e+00 1.134784e+01 1.123367e+01 1.439303e+01 1.463622e+01 1.668466e+01 1.650549e+01 1.724893e+01 1.538719e+01 1.367449e+01 3.226298e+01 1.971905e-01 2.078069e-01 2.892748e-01 4.917960e-01 5.049438e-01 6.161747e-01 6.690847e-01 7.203713e-01 8.092175e-01 8.115882e-01 6.479305e-01 6.138800e-01 2.937658e-01 3.178757e-02 3.930254e-02 5.789720e-02 1.059319e-01 9.509932e-02 1.208627e-01 1.190415e-01 1.343855e-01 1.455118e-01 1.615306e-01 1.393958e-01 1.147770e-01 6.633607e-02
<GCONST> 6.363621e+01
<MIXTURE> 4 2.402896e-01
<MEAN> 39
 -1.172915e+00 -1.786419e-01 -7.247511e-01 1.579943e-01 -2.892685e-01 4.355273e-01 7.310748e-03 3.507951e-01 -1.905597e-01 3.687459e-02 -5.521634e-01 1.560216e-01 2.617934e+00 -1.628432e-01 -3.346425e-02 9.778674e-02 5.912535e-01 2.611236e-01 4.995489e-01 2.367038e-01 3.885993e-01 -1.389379e-01 2.899355e-01 -3.989021e-02 2.514998e-01 4.780554e-01 -1.065638e-01 -9.589708e-02 -8.945275e-02 -1.331703e-01 -9.497374e-02 -1.519941e-01 -1.181105e-01 -1.503696e-01 -8.898520e-02 -1.512156e-01 -6.289060e-02 -1.374547e-01 -1.640698e-01
<VARIANCE> 39
 4.555247e+00 4.152945e+00 6.288836e+00 1.159820e+01 1.142448e+01 1.418877e+01 1.506691e+01 1.713591e+01 1.746209e+01 1.876875e+01 1.566564e+01 1.429140e+01 2.560034e+01 2.680352e-01 2.727411e-01 3.233285e-01 7.519670e-01 5.908918e-01 7.223207e-01 7.089707e-01 7.778737e-01 8.677346e-01 1.061673e+00 8.077561e-01 7.398566e-01 7.357120e-01 4.022604e-02 4.467384e-02 5.982199e-02 1.029315e-01 1.011709e-01 1.201998e-01 1.252872e-01 1.347568e-01 1.440115e-01 1.633921e-01 1.331518e-01 1.163810e-01 5.596142e-02
<GCONST> 6.691213e+01
<TRANSP> 5
 0.000000e+00 1.000000e+00 0.000000e+00 0.000000e+00 0.000000e+00
 0.000000e+00 8.853026e-02 9.114697e-01 0.000000e+00 0.000000e+00
 0.000000e+00 0.000000e+00 6.690208e-01 3.309792e-01 0.000000e+00
 0.000000e+00 0.000000e+00 0.000000e+00 3.760258e-01 6.239743e-01
 0.000000e+00 0.000000e+00 0.000000e+00 0.000000e+00 0.000000e+00
<ENDHMM>
~h "t"
<BEGINHMM>
<NUMSTATES> 5
<STATE> 2
<NUMMIXES> 4
<MIXTURE> 1 2.657962e-01
<MEAN> 39
 -4.214256e-01 5.659101e-01 -1.186669e-01 9.443333e-01 4.472708e-01 1.271359e+00 1.408880e+00 1.965275e+00 1.285977e+00 1.514520e+00 1.069292e+00 1.457851e+00 2.598464e+00 1.197235e-02 9.423444e-02 1.447282e-01 3.942605e-01 3.627106e-01 4.698492e-01 3.318580e-01 4.217451e-01 3.053010e-01 4.046364e-01 3.030815e-01 2.913977e-01 1.713946e+00 1.047686e-01 9.302468e-02 1.120719e-01 7.012354e-02 1.092338e-01 6.848963e-02 6.200409e-02 5.704942e-02 7.859497e-02 5.850679e-02 8.128162e-02 4.586914e-02 2.196390e-01
<VARIANCE> 39
 8.113438e+00 6.331260e+00 7.248273e+00 1.402861e+01 1.379991e+01 1.817059e+01 1.629898e+01 1.831176e+01 1.685536e+01 1.770096e+01 1.505199e+01 1.409055e+01 1.802624e+02 6.362013e-01 4.478877e-01 4.848047e-01 6.998761e-01 6.867837e-01 8.683515e-01 7.662671e-01 8.868472e-01 8.452427e-01 8.625212e-01 7.369033e-01 6.952485e-01 6.285155e+00 7.188374e-02 7.127546e-02 8.131158e-02 1.250732e-01 1.267635e-01 1.639112e-01 1.492496e-01 1.597955e-01 1.530960e-01 1.612785e-01 1.367429e-01 1.296331e-01 8.983912e-01
<GCONST> 8.001153e+01
<MIXTURE> 2 2.341951e-01
<MEAN> 39
 1.533847e+00 1.783791e+00 9.640086e-01 2.228149e-01 1.138983e-01 -2.437579e-01 2.433781e-01 5.727419e-01 8.196917e-01 4.692942e-01 8.581536e-01 5.716512e-01 -4.835625e-01 2.624227e-01 1.923688e-01 1.526330e-01 -4.181838e-02 1.191655e-01 -4.909746e-02 -1.222689e-02 1.419869e-02 1.127523e-01 1.487476e-02 9.793350e-02 2.592801e-02 3.841929e-01 4.190843e-02 2.500788e-02 5.505522e-02 7.346133e-02 9.886613e-02 1.324513e-01 1.121791e-01 1.032127e-01 9.450775e-02 9.338164e-02 6.161483e-02 7.401033e-02 2.082434e-01
<VARIANCE> 39
 1.813450e+01 1.469896e+01 1.429690e+01 1.772211e+01 1.670966e+01 2.255153e+01 1.891030e+01 2.125138e+01 2.112715e+01 2.061408e+01 1.765531e+01 1.565383e+01 1.534516e+02 1.035746e+00 7.807821e-01 7.819220e-01 8.896812e-01 8.679402e-01 1.093877e+00 9.336246e-01 1.050174e+00 1.019833e+00 9.918203e-01 8.464449e-01 8.190314e-01 6.804941e+00 1.686985e-01 1.424222e-01 1.434095e-01 1.487852e-01 1.512596e-01 2.082404e-01 1.707849e-01 1.980087e-01 1.882030e-01 1.851943e-01 1.553169e-01 1.446644e-01 9.109827e-01
<GCONST> 9.070716e+01
<MIXTURE> 3 2.657962e-01
<MEAN> 39
 -1.560789e+00 -4.405698e-01 -1.195572e+00 -5.538582e-01 -1.038658e+00 -4.337197e-01 -2.059997e-01 2.535851e-01 -3.562343e-01 -1.683802e-01 -4.825840e-01 -4.364401e-02 -2.772010e+00 -3.070766e-01 -1.734632e-01 -1.337834e-01 5.962610e-02 3.122097e-02 9.710765e-02 -1.828878e-02 4.505487e-02 -6.244736e-02 3.314836e-02 -4.029085e-02 -4.212853e-02 7.111378e-01 -2.475977e-03 -1.376518e-02 -1.988802e-03 -7.133922e-02 -3.318163e-02 -9.345416e-02 -9.252726e-02 -1.028483e-01 -7.791497e-02 -1.021312e-01 -6.663345e-02 -9.814924e-02 -1.594950e-01
<VARIANCE> 39
 8.113438e+00 6.331260e+00 7.248273e+00 1.402861e+01 1.379991e+01 1.817059e+01 1.629898e+01 1.831176e+01 1.685536e+01 1.770096e+01 1.505199e+01 1.409055e+01 1.802624e+02 6.362013e-01 4.478877e-01 4.848047e-01 6.998761e-01 6.867837e-01 8.683515e-01 7.662671e-01 8.868472e-01 8.452427e-01 8.625212e-01 7.369033e-01 6.952485e-01 6.285155e+00 7.188374e-02 7.127546e-02 8.131158e-02 1.250732e-01 1.267635e-01 1.639112e-01 1.492496e-01 1.597955e-01 1.530960e-01 1.612785e-01 1.367429e-01 1.296331e-01 8.983912e-01
<GCONST> 8.001153e+01
<MIXTURE> 4 2.341951e-01
<MEAN> 39
 -1.695383e-01 2.502216e-01 -5.484410e-01 -1.461091e+00 -1.521200e+00 -2.143296e+00 -1.496061e+00 -1.271227e+00 -1.018880e+00 -1.346815e+00 -8.225753e-01 -1.010946e+00 -5.438586e+00 -1.446638e-01 -1.610787e-01 -2.010724e-01 -4.191100e-01 -2.534877e-01 -4.674518e-01 -3.987239e-01 -3.957133e-01 -2.911948e-01 -3.834859e-01 -2.700763e-01 -3.360734e-01 -6.592584e-01 -1.223833e-01 -1.259476e-01 -9.642258e-02 -8.082940e-02 -5.670231e-02 -5.008216e-02 -5.312539e-02 -7.478002e-02 -7.902174e-02 -7.875519e-02 -9.602623e-02 -7.812877e-02 -1.735383e-01
<VARIANCE> 39
 1.813450e+01 1.469896e+01 1.429690e+01 1.772211e+01 1.670966e+01 2.255153e+01 1.891030e+01 2.125138e+01 2.112715e+01 2.061408e+01 1.765531e+01 1.565383e+01 1.534516e+02 1.035746e+00 7.807821e-01 7.819220e-01 8.896812e-01 8.679402e-01 1.093877e+00 9.336246e-01 1.050174e+00 1.019833e+00 9.918203e-01 8.464449e-01 8.190314e-01 6.804941e+00 1.686985e-01 1.424222e-01 1.434095e-01 1.487852e-01 1.512596e-01 2.082404e-01 1.707849e-01 1.980087e-01 1.882030e-01 1.851943e-01 1.553169e-01 1.446644e-01 9.109827e-01
<GCONST> 9.070716e+01
<STATE> 3
<NUMMIXES> 4
<MIXTURE> 1 2.656254e-01
<MEAN> 39
 1.315753e+00 6.642855e-01 7.379302e-01 -8.251577e-01 4.359939e-01 -9.537584e-02 2.203102e-01 2.453316e-01 1.066358e+00 6.135929e-01 9.599600e-01 2.550393e-01 1.240076e+00 2.670036e-02 1.553573e-01 2.310695e-01 6.579470e-01 4.031128e-01 6.201457e-01 4.153793e-01 4.376922e-01 2.492802e-01 4.289945e-01 2.567036e-01 3.475804e-01 2.564000e-01 1.169046e-02 3.906921e-02 5.731106e-02 2.018955e-01 1.193762e-01 1.755264e-01 1.346126e-01 1.405754e-01 8.140974e-02 1.098699e-01 7.944756e-02 1.191857e-01 3.104655e-02
<VARIANCE> 39
 1.009415e+01 7.445803e+00 9.692795e+00 2.202107e+01 1.510695e+01 2.084439e+01 1.895332e+01 2.207879e+01 2.014181e+01 2.183656e+01 1.878537e+01 1.819698e+01 2.537974e+01 2.901157e-01 3.184585e-01 3.900408e-01 9.562358e-01 6.879497e-01 8.876163e-01 8.293859e-01 9.591619e-01 9.121260e-01 9.125699e-01 8.338925e-01 7.991312e-01 4.326539e-01 5.019530e-02 5.483227e-02 7.702095e-02 1.779372e-01 1.276673e-01 1.686341e-01 1.512198e-01 1.718841e-01 1.616170e-01 1.824726e-01 1.558040e-01 1.504872e-01 8.865943e-02
<GCONST> 7.541325e+01
<MIXTURE> 2 2.343756e-01
<MEAN> 39
 3.752648e+00 2.315187e-01 1.868935e+00 -1.694559e+00 1.928349e+00 -6.701399e-01 -5.288579e-01 -1.494499e+00 4.679833e-01 -7.367555e-01 7.668881e-01 -1.018302e+00 -1.310145e+00 2.036899e-01 1.710482e-02 9.344707e-02 1.096165e-01 7.016717e-02 9.322795e-02 8.977351e-02 -6.898879e-02 8.980498e-03 1.341762e-02 8.146852e-02 7.657547e-02 -3.374210e-01 -2.143377e-02 7.756490e-02 2.397829e-02 1.927419e-01 4.288654e-02 1.809479e-01 1.425510e-01 1.892016e-01 1.040841e-01 1.485858e-01 7.240074e-02 1.591873e-01 1.068168e-01
<VARIANCE> 39
 1.903009e+01 1.191850e+01 1.449039e+01 3.063347e+01 2.746606e+01 3.102195e+01 2.759632e+01 3.287510e+01 2.819517e+01 2.851723e+01 2.376017e+01 2.155357e+01 3.896843e+01 5.412792e-01 4.893738e-01 5.417901e-01 1.201425e+00 1.030590e+00 1.227299e+00 1.121356e+00 1.281979e+00 1.054387e+00 1.144547e+00 9.324829e-01 8.978516e-01 9.018764e-01 9.058060e-02 8.255058e-02 9.328099e-02 1.844135e-01 1.895560e-01 2.210143e-01 1.931367e-01 2.247646e-01 1.957509e-01 1.963238e-01 1.736873e-01 1.694105e-01 1.206880e-01
<GCONST> 8.792541e+01
<MIXTURE> 3 2.656254e-01
<MEAN> 39
 4.490101e-02 -4.271945e-01 -5.074000e-01 -2.702222e+00 -1.118713e+00 -1.921602e+00 -1.521106e+00 -1.634191e+00 -7.288271e-01 -1.255591e+00 -7.737237e-01 -1.451277e+00 -7.750564e-01 -1.887492e-01 -7.037124e-02 -1.874349e-02 2.667978e-01 7.134183e-02 2.432921e-01 5.109684e-02 4.594499e-02 -1.327409e-01 4.688044e-02 -1.085673e-01 -9.996176e-03 -6.705761e-03 -7.792677e-02 -5.459596e-02 -5.369954e-02 3.316510e-02 -2.354604e-02 1.126602e-02 -2.093533e-02 -2.526027e-02 -7.939672e-02 -6.099731e-02 -7.844049e-02 -3.598505e-02 -8.805639e-02
<VARIANCE> 39
 1.009415e+01 7.445803e+00 9.692795e+00 2.202107e+01 1.510695e+01 2.084439e+01 1.895332e+01 2.207879e+01 2.014181e+01 2.183656e+01 1.878537e+01 1.819698e+01 2.537974e+01 2.901157e-01 3.184585e-01 3.900408e-01 9.562358e-01 6.879497e-01 8.876163e-01 8.293859e-01 9.591619e-01 9.121260e-01 9.125699e-01 8.338925e-01 7.991312e-01 4.326539e-01 5.019530e-02 5.483227e-02 7.702095e-02 1.779372e-01 1.276673e-01 1.686341e-01 1.512198e-01 1.718841e-01 1.616170e-01 1.824726e-01 1.558040e-01 1.504872e-01 8.865943e-02
<GCONST> 7.541325e+01
<MIXTURE> 4 2.343756e-01
<MEAN> 39
 2.007708e+00 -1.149408e+00 3.462851e-01 -3.908459e+00 -1.679742e-01 -2.898034e+00 -2.630146e+00 -3.787971e+00 -1.655982e+00 -2.872817e+00 -1.182888e+00 -2.875335e+00 -3.807133e+00 -9.059685e-02 -2.627162e-01 -2.009785e-01 -3.288217e-01 -3.359048e-01 -3.499061e-01 -3.338029e-01 -5.218868e-01 -4.017529e-01 -4.145164e-01 -3.047921e-01 -3.024447e-01 -7.172897e-01 -1.418202e-01 -3.736156e-02 -9.818947e-02 2.096832e-02 -1.312656e-01 -7.100694e-03 -3.323824e-02 -4.357472e-04 -7.289089e-02 -2.864802e-02 -9.430250e-02 -5.450740e-03 -3.214390e-02
<VARIANCE> 39
 1.903009e+01 1.191850e+01 1.449039e+01 3.063347e+01 2.746606e+01 3.102195e+01 2.759632e+01 3.287510e+01 2.819517e+01 2.851723e+01 2.376017e+01 2.155357e+01 3.896843e+01 5.412792e-01 4.893738e-01 5.417901e-01 1.201425e+00 1.030590e+00 1.227299e+00 1.121356e+00 1.281979e+00 1.054387e+00 1.144547e+00 9.324829e-01 8.978516e-01 9.018764e-01 9.058060e-02 8.255058e-02 9.328099e-02 1.844135e-01 1.895560e-01 2.210143e-01 1.931367e-01 2.247646e-01 1.957509e-01 1.963238e-01 1.736873e-01 1.694105e-01 1.206880e-01
<GCONST> 8.792541e+01
<STATE> 4
<NUMMIXES> 4
<MIXTURE> 1 2.757474e-01
<MEAN> 39
 -3.406092e-01 3.498652e-01 2.563305e-01 1.425882e+00 1.100629e+00 1.611013e+00 1.184297e+00 1.693182e+00 1.084835e+00 1.635213e+00 1.251978e+00 1.368631e+00 3.691067e+00 -2.908783e-02 1.056963e-01 2.103407e-01 5.148783e-01 4.179885e-01 5.407885e-01 4.239576e-01 4.302757e-01 3.357189e-01 3.596671e-01 2.729111e-01 2.834044e-01 1.732938e-01 5.417778e-02 3.682082e-02 4.884901e-02 2.428894e-02 4.174060e-02 4.469557e-02 7.397519e-02 6.892253e-02 9.153729e-02 5.530837e-02 5.541737e-02 5.461004e-02 -1.131122e-02
<VARIANCE> 39
 4.668959e+00 3.475234e+00 5.579656e+00 9.816244e+00 1.045194e+01 1.399653e+01 1.528218e+01 1.577229e+01 1.650708e+01 1.656652e+01 1.432553e+01 1.318824e+01 2.880130e+01 1.810446e-01 1.932880e-01 2.915141e-01 5.255815e-01 5.184036e-01 6.977661e-01 7.276016e-01 7.739673e-01 7.514251e-01 7.278496e-01 7.035545e-01 6.351464e-01 8.824465e-02 2.623664e-02 3.048484e-02 5.046079e-02 9.004889e-02 9.308076e-02 1.207064e-01 1.300563e-01 1.397849e-01 1.449244e-01 1.446727e-01 1.263673e-01 1.213476e-01 1.728244e-02
<GCONST> 5.937250e+01
<MIXTURE> 2 2.242598e-01
<MEAN> 39
 5.198913e-01 4.301880e-01 4.717588e-01 8.960881e-01 7.382386e-01 9.033114e-01 6.484458e-01 8.358600e-01 6.911492e-01 8.373190e-01 8.309215e-01 7.977536e-01 1.777551e+00 -3.367521e-02 -9.253293e-03 -1.302709e-02 1.898535e-01 1.275240e-01 2.188616e-01 1.896356e-01 1.630081e-01 7.169345e-02 7.507631e-02 5.620648e-02 1.470091e-01 8.537175e-02 6.180565e-02 3.484020e-02 4.131847e-02 9.985089e-03 4.830985e-02 3.265339e-02 5.485477e-02 5.379619e-02 7.249931e-02 4.320027e-02 4.178451e-02 4.677642e-02 9.642564e-03
<VARIANCE> 39
 8.796804e+00 4.986206e+00 6.894308e+00 1.237469e+01 1.188461e+01 1.608581e+01 1.621778e+01 1.949417e+01 1.742225e+01 1.725586e+01 1.516539e+01 1.389674e+01 6.061039e+01 2.056867e-01 2.236595e-01 3.009093e-01 4.777686e-01 5.540169e-01 6.917344e-01 7.490115e-01 7.687445e-01 7.748669e-01 7.022718e-01 7.157868e-01 6.419560e-01 1.538734e-01 3.486736e-02 3.885414e-02 5.439968e-02 1.012303e-01 9.917221e-02 1.280870e-01 1.337054e-01 1.488957e-01 1.466569e-01 1.388517e-01 1.284277e-01 1.243301e-01 3.572605e-02
<GCONST> 6.483605e+01
<MIXTURE> 3 2.757474e-01
<MEAN> 39
 -1.204920e+00 -3.958140e-01 -6.885213e-01 1.726460e-01 -1.925494e-01 1.145356e-01 -3.793998e-01 1.046082e-01 -5.403211e-01 7.133484e-03 -2.619851e-01 -8.399326e-02 1.544393e+00 -1.992852e-01 -7.016181e-02 -5.627498e-03 2.248903e-01 1.299875e-01 2.066589e-01 8.275938e-02 7.837409e-02 -1.102026e-02 1.841070e-02 -6.260152e-02 -3.537985e-02 5.446979e-02 -1.061313e-02 -3.301881e-02 -4.100491e-02 -9.574364e-02 -8.029597e-02 -9.427574e-02 -7.027809e-02 -8.062875e-02 -6.073847e-02 -9.683509e-02 -8.677535e-02 -8.472988e-02 -6.389630e-02
<VARIANCE> 39
 4.668959e+00 3.475234e+00 5.579656e+00 9.816244e+00 1.045194e+01 1.399653e+01 1.528218e+01 1.577229e+01 1.650708e+01 1.656652e+01 1.432553e+01 1.318824e+01 2.880130e+01 1.810446e-01 1.932880e-01 2.915141e-01 5.255815e-01 5.184036e-01 6.977661e-01 7.276016e-01 7.739673e-01 7.514251e-01 7.278496e-01 7.035545e-01 6.351464e-01 8.824465e-02 2.623664e-02 3.048484e-02 5.046079e-02 9.004889e-02 9.308076e-02 1.207064e-01 1.300563e-01 1.397849e-01 1.449244e-01 1.446727e-01 1.263673e-01 1.213476e-01 1.728244e-02
<GCONST> 5.937250e+01
<MIXTURE> 4 2.242598e-01
<MEAN> 39
 -6.664850e-01 -4.630046e-01 -5.785218e-01 -5.110191e-01 -6.407239e-01 -7.009734e-01 -9.624063e-01 -9.302282e-01 -9.784496e-01 -8.242880e-01 -7.267892e-01 -6.933797e-01 -1.336556e+00 -2.150860e-01 -1.984239e-01 -2.324479e-01 -8.662978e-02 -1.702052e-01 -1.138207e-01 -1.565462e-01 -1.877042e-01 -2.804126e-01 -2.601303e-01 -2.822103e-01 -1.734796e-01 -7.153505e-02 -1.288557e-02 -4.400561e-02 -5.197649e-02 -1.172817e-01 -7.765663e-02 -1.105036e-01 -9.140823e-02 -1.005518e-01 -8.068393e-02 -1.058510e-01 -1.015627e-01 -9.426548e-02 -6.596278e-02
<VARIANCE> 39
 8.796804e+00 4.986206e+00 6.894308e+00 1.237469e+01 1.188461e+01 1.608581e+01 1.621778e+01 1.949417e+01 1.742225e+01 1.725586e+01 1.516539e+01 1.389674e+01 6.061039e+01 2.056867e-01 2.236595e-01 3.009093e-01 4.777686e-01 5.540169e-01 6.917344e-01 7.490115e-01 7.687445e-01 7.748669e-01 7.022718e-01 7.157868e-01 6.419560e-01 1.538734e-01 3.486736e-02 3.885414e-02 5.439968e-02 1.012303e-01 9.917221e-02 1.280870e-01 1.337054e-01 1.488957e-01 1.466569e-01 1.388517e-01 1.284277e-01 1.243301e-01 3.572605e-02
<GCONST> 6.483605e+01
<TRANSP> 5
 0.000000e+00 1.000000e+00 0.000000e+00 0.000000e+00 0.000000e+00
 0.000000e+00 7.283630e-01 2.716370e-01 0.000000e+00 0.000000e+00
 0.000000e+00 0.000000e+00 4.939809e-01 5.060191e-01 0.000000e+00
 0.000000e+00 0.000000e+00 0.000000e+00 3.437328e-01 6.562672e-01
 0.000000e+00 0.000000e+00 0.000000e+00 0.000000e+00 0.000000e+00
<ENDHMM>
~h "v"
<BEGINHMM>
<NUMSTATES> 5
<STATE> 2
<NUMMIXES> 4
<MIXTURE> 1 2.368093e-01
<MEAN> 39
 -7.526032e-01 3.262900e-01 3.144525e-01 2.016521e+00 1.322194e+00 1.712493e+00 8.425779e-01 1.646057e+00 6.091396e-01 1.351227e+00 8.473392e-01 1.493363e+00 5.441975e+00 2.262387e-01 1.426517e-01 1.705765e-01 1.090815e-01 1.132718e-01 1.624377e-01 1.529739e-01 1.135818e-01 1.483023e-01 1.367902e-01 1.438872e-01 1.394030e-01 5.318831e-02 7.746903e-02 1.987538e-02 2.220835e-02 2.611158e-02 7.253487e-02 1.242323e-01 1.482610e-01 1.324435e-01 1.379146e-01 1.101015e-01 1.012808e-01 8.043294e-02 6.912427e-03
<VARIANCE> 39
 3.333359e+00 3.240305e+00 5.426784e+00 8.455690e+00 1.045877e+01 1.334601e+01 1.306125e+01 1.534906e+01 1.540291e+01 1.623480e+01 1.528588e+01 1.360986e+01 2.745741e+01 9.693152e-02 1.294136e-01 2.144714e-01 3.347134e-01 4.287088e-01 5.239093e-01 5.677608e-01 6.317762e-01 6.948524e-01 6.647961e-01 6.503607e-01 5.694164e-01 1.581780e-02 2.458142e-02 2.453880e-02 4.185276e-02 6.099405e-02 8.267401e-02 9.911488e-02 1.098614e-01 1.152464e-01 1.367557e-01 1.322632e-01 1.255077e-01 1.122721e-01 4.146897e-03
<GCONST> 5.053339e+01
<MIXTURE> 2 2.631960e-01
<MEAN> 39
 1.001922e-01 4.818499e-01 7.016664e-01 8.797128e-01 5.161602e-01 3.620136e-01 2.391651e-01 3.540335e-01 1.177366e-01 3.478634e-01 2.297873e-01 6.023878e-01 1.085298e+00 7.511444e-02 3.700656e-02 -1.986939e-02 -1.363475e-01 -1.912771e-01 -1.676257e-01 -1.565931e-01 -1.334657e-01 -9.110588e-02 -9.974000e-02 -5.552016e-02 3.700538e-02 1.557751e-02 1.424726e-02 -1.600649e-03 -1.052952e-02 4.607379e-03 5.889824e-02 1.088102e-01 1.242925e-01 1.310970e-01 1.469925e-01 1.272372e-01 1.141746e-01 7.066856e-02 2.419895e-03
<VARIANCE> 39
 1.782255e+00 2.763605e+00 5.120073e+00 7.647914e+00 9.256400e+00 1.187311e+01 1.245256e+01 1.335573e+01 1.502419e+01 1.475014e+01 1.418457e+01 1.233552e+01 4.689060e+00 6.752086e-02 1.312669e-01 2.118384e-01 3.035951e-01 4.188965e-01 5.207842e-01 5.815649e-01 6.157660e-01 6.853109e-01 7.000008e-01 6.023222e-01 5.289724e-01 1.218893e-02 1.179013e-02 2.282766e-02 4.140780e-02 5.328916e-02 7.524653e-02 9.104676e-02 1.063386e-01 1.097715e-01 1.254827e-01 1.231222e-01 1.166765e-01 9.425110e-02 2.382197e-03
<GCONST> 4.406812e+01
<MIXTURE> 3 2.631960e-01
<MEAN> 39
 -4.338123e-01 -1.831139e-01 -2.034368e-01 -2.264816e-01 -7.008131e-01 -1.016282e+00 -1.172362e+00 -1.107786e+00 -1.432705e+00 -1.188373e+00 -1.276709e+00 -8.024906e-01 2.191288e-01 -2.882466e-02 -1.079165e-01 -2.039730e-01 -3.567453e-01 -4.501659e-01 -4.562873e-01 -4.616347e-01 -4.473487e-01 -4.222399e-01 -4.344042e-01 -3.659579e-01 -2.539166e-01 -2.858389e-02 -2.918569e-02 -6.203595e-02 -9.192514e-02 -8.773040e-02 -5.082617e-02 -1.188563e-02 -6.145932e-03 -1.430161e-03 5.298391e-03 -1.311787e-02 -2.245717e-02 -5.213282e-02 -1.710321e-02
<VARIANCE> 39
 1.782255e+00 2.763605e+00 5.120073e+00 7.647914e+00 9.256400e+00 1.187311e+01 1.245256e+01 1.335573e+01 1.502419e+01 1.475014e+01 1.418457e+01 1.233552e+01 4.689060e+00 6.752086e-02 1.312669e-01 2.118384e-01 3.035951e-01 4.188965e-01 5.207842e-01 5.815649e-01 6.157660e-01 6.853109e-01 7.000008e-01 6.023222e-01 5.289724e-01 1.218893e-02 1.179013e-02 2.282766e-02 4.140780e-02 5.328916e-02 7.524653e-02 9.104676e-02 1.063386e-01 1.097715e-01 1.254827e-01 1.231222e-01 1.166765e-01 9.425110e-02 2.382197e-03
<GCONST> 4.406812e+01
<MIXTURE> 4 2.368093e-01
<MEAN> 39
 -1.482903e+00 -3.937439e-01 -6.173659e-01 8.533736e-01 2.859277e-02 2.512049e-01 -6.030362e-01 7.894194e-02 -9.607220e-01 -2.604707e-01 -7.165473e-01 1.770103e-02 3.345982e+00 1.017034e-01 -1.244746e-03 -1.466779e-02 -1.223362e-01 -1.486317e-01 -1.270887e-01 -1.484257e-01 -2.043556e-01 -1.851290e-01 -1.893499e-01 -1.786926e-01 -1.624358e-01 2.880773e-03 1.475517e-02 -4.278408e-02 -5.962344e-02 -7.267632e-02 -4.247748e-02 -1.697745e-03 1.567965e-02 -3.348380e-03 -1.000740e-02 -3.537054e-02 -4.042744e-02 -5.359518e-02 -1.884614e-02
<VARIANCE> 39
 3.333359e+00 3.240305e+00 5.426784e+00 8.455690e+00 1.045877e+01 1.334601e+01 1.306125e+01 1.534906e+01 1.540291e+01 1.623480e+01 1.528588e+01 1.360986e+01 2.745741e+01 9.693152e-02 1.294136e-01 2.144714e-01 3.347134e-01 4.287088e-01 5.239093e-01 5.677608e-01 6.317762e-01 6.948524e-01 6.647961e-01 6.503607e-01 5.694164e-01 1.581780e-02 2.458142e-02 2.453880e-02 4.185276e-02 6.099405e-02 8.267401e-02 9.911488e-02 1.098614e-01 1.152464e-01 1.367557e-01 1.322632e-01 1.255077e-01 1.122721e-01 4.146897e-03
<GCONST> 5.053339e+01
<STATE> 3
<NUMMIXES> 4
<MIXTURE> 1 2.331862e-01
<MEAN> 39
 -5.310016e-01 3.611326e-01 2.252198e-01 1.788483e+00 9.756470e-01 1.480559e+00 8.157736e-01 1.542656e+00 5.719740e-01 1.249711e+00 7.676651e-01 1.391388e+00 5.497046e+00 2.736667e-01 7.736383e-02 1.063331e-01 6.683427e-02 1.722767e-01 2.891548e-01 3.245160e-01 2.824937e-01 3.037141e-01 2.485306e-01 2.468538e-01 1.931925e-01 4.188729e-02 9.088621e-02 4.228914e-02 6.924976e-02 6.179755e-02 1.187983e-01 1.404217e-01 1.556909e-01 1.326791e-01 1.399098e-01 1.176267e-01 1.159071e-01 8.182572e-02 -2.629005e-02
<VARIANCE> 39
 3.810328e+00 3.227424e+00 5.307983e+00 8.384059e+00 9.113652e+00 1.318614e+01 1.355769e+01 1.527517e+01 1.475516e+01 1.481911e+01 1.416766e+01 1.303272e+01 2.658665e+01 1.401338e-01 1.317948e-01 2.185830e-01 3.264538e-01 4.486578e-01 5.522346e-01 5.954630e-01 6.477784e-01 7.196780e-01 7.163931e-01 6.683710e-01 5.909584e-01 2.391689e-02 4.058537e-02 3.229156e-02 5.354239e-02 6.362559e-02 8.174088e-02 1.056420e-01 1.180390e-01 1.310025e-01 1.434522e-01 1.402923e-01 1.316800e-01 1.204249e-01 1.418973e-02
<GCONST> 5.414079e+01
<MIXTURE> 2 2.668228e-01
<MEAN> 39
 1.919709e-01 4.371017e-01 4.282954e-01 4.903780e-01 -4.750919e-02 -1.119927e-01 -2.897866e-01 -2.311717e-01 -2.648706e-01 -1.406637e-01 3.095102e-02 5.230094e-01 1.262546e+00 7.233767e-02 -1.239733e-02 -8.344597e-02 -1.536880e-01 -1.181338e-01 -1.659302e-02 2.277684e-02 3.175247e-02 8.798727e-02 6.309774e-02 6.059347e-02 6.612797e-02 5.144786e-03 4.232451e-04 -3.609467e-03 1.112869e-02 7.067574e-02 1.387043e-01 1.748027e-01 1.894093e-01 1.957169e-01 1.910445e-01 1.780774e-01 1.497413e-01 9.532560e-02 -6.826119e-04
<VARIANCE> 39
 1.667529e+00 2.615422e+00 4.326436e+00 7.182158e+00 8.720349e+00 1.113882e+01 1.275752e+01 1.375942e+01 1.442607e+01 1.393527e+01 1.347430e+01 1.230508e+01 5.775558e+00 7.865313e-02 1.282573e-01 2.133993e-01 3.111671e-01 4.236153e-01 5.074360e-01 6.011075e-01 6.190823e-01 7.247465e-01 6.998413e-01 6.096629e-01 5.379340e-01 1.460021e-02 1.532423e-02 2.501723e-02 4.325150e-02 6.038871e-02 7.698806e-02 9.749097e-02 1.037136e-01 1.115615e-01 1.266531e-01 1.217344e-01 1.140487e-01 1.001597e-01 3.473003e-03
<GCONST> 4.517081e+01
<MIXTURE> 3 2.668228e-01
<MEAN> 39
 -3.245604e-01 -2.097889e-01 -4.037081e-01 -5.816039e-01 -1.228719e+00 -1.446988e+00 -1.718493e+00 -1.714919e+00 -1.784137e+00 -1.633863e+00 -1.437343e+00 -8.801346e-01 3.012502e-01 -3.984299e-02 -1.556495e-01 -2.682266e-01 -3.768174e-01 -3.784768e-01 -3.015312e-01 -2.873476e-01 -2.829747e-01 -2.525409e-01 -2.715283e-01 -2.517302e-01 -2.272480e-01 -4.318774e-02 -4.909319e-02 -6.687681e-02 -7.205929e-02 -2.762072e-02 2.771737e-02 4.990851e-02 6.059091e-02 6.211365e-02 4.869109e-02 3.851558e-02 1.465687e-02 -3.126647e-02 -2.425549e-02
<VARIANCE> 39
 1.667529e+00 2.615422e+00 4.326436e+00 7.182158e+00 8.720349e+00 1.113882e+01 1.275752e+01 1.375942e+01 1.442607e+01 1.393527e+01 1.347430e+01 1.230508e+01 5.775558e+00 7.865313e-02 1.282573e-01 2.133993e-01 3.111671e-01 4.236153e-01 5.074360e-01 6.011075e-01 6.190823e-01 7.247465e-01 6.998413e-01 6.096629e-01 5.379340e-01 1.460021e-02 1.532423e-02 2.501723e-02 4.325150e-02 6.038871e-02 7.698806e-02 9.749097e-02 1.037136e-01 1.115615e-01 1.266531e-01 1.217344e-01 1.140487e-01 1.001597e-01 3.473003e-03
<GCONST> 4.517081e+01
<MIXTURE> 4 2.331862e-01
<MEAN> 39
 -1.311804e+00 -3.574687e-01 -6.963426e-01 6.302732e-01 -2.319060e-01 2.805036e-02 -6.570572e-01 -2.068233e-02 -9.645238e-01 -2.901127e-01 -7.379329e-01 -5.264670e-02 3.434556e+00 1.239289e-01 -6.785038e-02 -8.067837e-02 -1.617103e-01 -9.565102e-02 -8.095175e-03 1.585099e-02 -3.944506e-02 -3.562127e-02 -9.002946e-02 -8.016203e-02 -1.143028e-01 -1.997305e-02 1.030297e-02 -2.959027e-02 -2.330715e-02 -3.909891e-02 4.436854e-03 1.041120e-02 1.826373e-02 -1.209800e-02 -1.159053e-02 -3.219576e-02 -2.924391e-02 -5.698344e-02 -7.393831e-02
<VARIANCE> 39
 3.810328e+00 3.227424e+00 5.307983e+00 8.384059e+00 9.113652e+00 1.318614e+01 1.355769e+01 1.527517e+01 1.475516e+01 1.481911e+01 1.416766e+01 1.303272e+01 2.658665e+01 1.401338e-01 1.317948e-01 2.185830e-01 3.264538e-01 4.486578e-01 5.522346e-01 5.954630e-01 6.477784e-01 7.196780e-01 7.163931e-01 6.683710e-01 5.909584e-01 2.391689e-02 4.058537e-02 3.229156e-02 5.354239e-02 6.362559e-02 8.174088e-02 1.056420e-01 1.180390e-01 1.310025e-01 1.434522e-01 1.402923e-01 1.316800e-01 1.204249e-01 1.418973e-02
<GCONST> 5.414079e+01
<STATE> 4
<NUMMIXES> 4
<MIXTURE> 1 2.706947e-01
<MEAN> 39
 1.757258e-02 1.496983e-01 1.489391e-01 1.106322e+00 8.520569e-01 1.626631e+00 1.199903e+00 1.316524e+00 9.669623e-01 1.273313e+00 7.279319e-01 1.053180e+00 5.036964e+00 3.306322e-01 1.724827e-01 2.300162e-01 2.641346e-01 2.881020e-01 3.748841e-01 3.570004e-01 3.523802e-01 2.897767e-01 3.416072e-01 2.522296e-01 2.418740e-01 1.780728e-01 7.357003e-02 7.826195e-02 1.281157e-01 8.870284e-02 1.257048e-01 8.612560e-02 1.067842e-01 7.138470e-02 1.099289e-01 8.984239e-02 9.759495e-02 5.343938e-02 -4.197171e-02
<VARIANCE> 39
 7.227243e+00 5.408327e+00 7.745743e+00 1.490404e+01 1.301727e+01 1.773725e+01 1.689088e+01 2.066488e+01 1.870485e+01 1.998613e+01 1.613043e+01 1.543129e+01 4.091719e+01 5.553212e-01 3.269092e-01 5.147287e-01 6.315759e-01 5.846259e-01 7.359370e-01 7.362253e-01 8.766466e-01 8.600782e-01 9.138113e-01 7.482883e-01 7.087333e-01 8.917010e-01 7.578265e-02 5.425230e-02 8.070394e-02 1.165818e-01 1.069302e-01 1.444943e-01 1.405631e-01 1.584820e-01 1.549739e-01 1.705889e-01 1.376275e-01 1.310055e-01 1.095722e-01
<GCONST> 7.344613e+01
<MIXTURE> 2 2.292998e-01
<MEAN> 39
 2.509602e+00 8.694854e-01 2.727712e+00 1.586648e-01 1.725823e+00 9.412386e-01 9.843714e-01 -1.162253e+00 9.079694e-01 5.922669e-02 3.094358e-01 -5.090975e-01 7.813557e-01 1.856855e-01 3.705621e-02 1.876549e-01 -2.093718e-01 -1.859100e-02 -1.706837e-01 1.559730e-02 -1.435714e-01 2.200000e-01 -2.447955e-02 1.211646e-01 -5.646631e-02 -6.378498e-01 -2.947455e-02 5.190901e-03 -3.217907e-02 9.058192e-02 3.226297e-02 9.962301e-02 8.486630e-02 1.733125e-01 1.157349e-01 1.414385e-01 1.067206e-01 1.350567e-01 2.003985e-01
<VARIANCE> 39
 1.917541e+01 1.627336e+01 1.957421e+01 2.432433e+01 2.041163e+01 2.565281e+01 2.208564e+01 3.039983e+01 2.829633e+01 2.589843e+01 2.055103e+01 1.876694e+01 5.936192e+01 1.148497e+00 8.518460e-01 1.111080e+00 1.147557e+00 9.055130e-01 1.126282e+00 9.622168e-01 1.315147e+00 1.312021e+00 1.199308e+00 9.507636e-01 9.056862e-01 1.974628e+00 1.964987e-01 1.416114e-01 1.853407e-01 1.912643e-01 1.636158e-01 2.020478e-01 1.790617e-01 2.183271e-01 2.248240e-01 2.089764e-01 1.742996e-01 1.595834e-01 2.581998e-01
<GCONST> 9.288522e+01
<MIXTURE> 3 2.706947e-01
<MEAN> 39
 -1.057769e+00 -7.805341e-01 -9.643079e-01 -4.379078e-01 -5.911213e-01 -5.799335e-02 -4.440373e-01 -5.018218e-01 -7.630018e-01 -5.149214e-01 -8.785764e-01 -5.181270e-01 2.478302e+00 3.255264e-02 -5.622123e-02 -5.696215e-02 -5.375241e-02 -1.774137e-02 3.173696e-02 1.378605e-02 -2.213740e-02 -8.118490e-02 -4.076676e-02 -9.378508e-02 -9.487117e-02 -1.996469e-01 -3.654457e-02 -1.490655e-02 1.448198e-02 -4.787347e-02 -5.095929e-03 -6.592402e-02 -4.318281e-02 -8.785449e-02 -4.753805e-02 -7.536724e-02 -5.079777e-02 -9.133935e-02 -1.743785e-01
<VARIANCE> 39
 7.227243e+00 5.408327e+00 7.745743e+00 1.490404e+01 1.301727e+01 1.773725e+01 1.689088e+01 2.066488e+01 1.870485e+01 1.998613e+01 1.613043e+01 1.543129e+01 4.091719e+01 5.553212e-01 3.269092e-01 5.147287e-01 6.315759e-01 5.846259e-01 7.359370e-01 7.362253e-01 8.766466e-01 8.600782e-01 9.138113e-01 7.482883e-01 7.087333e-01 8.917010e-01 7.578265e-02 5.425230e-02 8.070394e-02 1.165818e-01 1.069302e-01 1.444943e-01 1.405631e-01 1.584820e-01 1.549739e-01 1.705889e-01 1.376275e-01 1.310055e-01 1.095722e-01
<GCONST> 7.344613e+01
<MIXTURE> 4 2.292998e-01
<MEAN> 39
